~o
<STREAMINFO> 1 39
<VECSIZE> 39<NULLD><MFCC_D_A_Z_0><DIAGC>
~h "ao"
<BEGINHMM>
<NUMSTATES> 6
<STATE> 2
<NUMMIXES> 8
<MIXTURE> 1 1.013284e-01
<MEAN> 39
 5.795582e+00 -2.906427e+00 -4.091113e+00 -8.006847e+00 5.535846e-01 5.041714e-01 -3.727326e+00 2.878166e-01 3.147819e+00 3.689728e+00 2.033436e+00 1.590207e+00 7.183947e+00 7.361515e-01 -1.291064e+00 -6.079781e-01 -1.421601e+00 9.601526e-01 1.149551e+00 1.007563e-01 6.191073e-01 2.779847e-01 1.134061e-01 1.499585e-01 1.891753e-01 1.245003e+00 -6.794989e-01 3.237528e-01 1.721998e-01 7.592402e-01 2.068849e-01 1.759246e-01 3.621322e-01 -7.918001e-02 -1.820194e-01 -2.638459e-01 -7.156289e-02 -1.245122e-01 -4.870254e-01
<VARIANCE> 39
 2.821806e+01 3.730747e+01 5.412780e+01 6.723518e+01 8.690977e+01 8.324071e+01 8.295274e+01 8.110579e+01 8.618582e+01 9.249950e+01 1.149119e+02 1.087971e+02 3.048282e+01 2.250010e+00 2.872272e+00 2.939242e+00 4.940337e+00 5.345116e+00 5.233601e+00 5.661144e+00 6.007915e+00 5.788888e+00 5.846821e+00 6.201370e+00 5.826416e+00 1.917069e+00 4.305474e-01 4.445503e-01 5.155793e-01 7.695802e-01 8.893709e-01 9.250577e-01 1.155555e+00 1.099470e+00 1.095604e+00 1.091692e+00 1.137237e+00 1.106009e+00 2.873876e-01
<GCONST> 1.421584e+02
<MIXTURE> 2 1.359046e-01
<MEAN> 39
 5.350838e+00 -3.401787e+00 -7.507410e+00 -5.593864e+00 2.384851e+00 4.914759e+00 -2.828437e+00 -2.212427e+00 7.809596e+00 4.273288e+00 -8.815325e-01 -6.098315e+00 9.656923e+00 2.445748e-01 8.803309e-02 -6.153546e-01 -8.567012e-01 6.044028e-01 1.392531e+00 2.624310e-01 -9.801331e-01 -4.531433e-01 -1.562837e-01 7.723661e-01 -6.430218e-02 -2.233712e-01 -3.760222e-02 7.785801e-02 2.387051e-01 5.827937e-02 -2.126202e-01 -3.000611e-01 -3.283024e-02 2.092138e-01 -2.655653e-01 -2.928384e-01 3.278949e-04 3.166647e-01 -7.460194e-02
<VARIANCE> 39
 1.310326e+01 1.823261e+01 2.200666e+01 2.816837e+01 3.870618e+01 5.140754e+01 5.210908e+01 4.256238e+01 4.164460e+01 4.453308e+01 5.194925e+01 3.355311e+01 2.181468e+01 2.459902e-01 5.641467e-01 7.606812e-01 1.125114e+00 1.434279e+00 1.789517e+00 2.298776e+00 1.962888e+00 2.128719e+00 2.421376e+00 2.025628e+00 1.959731e+00 1.730759e-01 3.651558e-02 7.824344e-02 1.241685e-01 1.556370e-01 2.352561e-01 2.577715e-01 3.371612e-01 3.166073e-01 3.279256e-01 3.476104e-01 3.314829e-01 2.813150e-01 2.578883e-02
<GCONST> 9.549139e+01
<MIXTURE> 3 1.136007e-01
<MEAN> 39
 5.231431e+00 1.730604e+00 1.200491e+00 -3.489351e+00 -6.104858e+00 -8.075094e-01 3.892383e-01 -1.374201e+00 -2.469120e+00 2.286906e-01 -5.159086e-01 -5.295309e-01 3.433597e+00 1.700080e-01 -2.260074e-01 -4.856117e-01 -1.389434e-01 2.740051e-01 2.513938e-01 9.860310e-02 2.017103e-01 1.333933e-01 -2.128572e-01 -2.363532e-02 8.272011e-02 6.833734e-02 -4.038657e-02 2.386261e-03 -2.062592e-02 6.533423e-02 1.884023e-01 -1.595046e-02 -1.577889e-01 -7.905143e-02 7.401571e-02 1.844917e-02 -1.087686e-02 -3.782532e-03 -3.232036e-02
<VARIANCE> 39
 2.785575e+01 2.989560e+01 4.991556e+01 5.610499e+01 5.656583e+01 5.658816e+01 6.362820e+01 6.047279e+01 5.554034e+01 7.468082e+01 6.584321e+01 6.913681e+01 2.585214e+01 2.723595e-01 6.148115e-01 9.997478e-01 1.234266e+00 1.497614e+00 1.819865e+00 1.759886e+00 2.081020e+00 2.096696e+00 2.178284e+00 1.857501e+00 1.753095e+00 2.198113e-01 4.186147e-02 9.276731e-02 1.401180e-01 1.829602e-01 2.418010e-01 2.715140e-01 3.087658e-01 3.409816e-01 3.530088e-01 3.676240e-01 3.117670e-01 3.011102e-01 3.238524e-02
<GCONST> 1.025534e+02
<MIXTURE> 4 1.213576e-01
<MEAN> 39
 4.700857e+00 -6.926267e+00 -9.176259e+00 -8.350912e+00 8.650278e+00 3.139249e+00 -8.470511e+00 1.051519e+00 5.037109e-01 -4.530301e+00 -6.189604e+00 -5.241289e+00 8.409238e+00 3.470044e-02 -5.243743e-02 -1.929664e-01 -1.238341e-01 5.581940e-01 4.120144e-01 -2.592281e-01 -2.029607e-01 -2.918267e-01 -9.811332e-03 4.181865e-01 -1.284791e-01 -5.334685e-02 9.354190e-02 2.063257e-01 2.644232e-01 2.154968e-01 -1.439997e-03 8.781802e-02 3.629222e-01 2.075058e-01 2.140008e-01 2.645936e-01 1.747526e-01 1.954741e-01 3.223774e-03
<VARIANCE> 39
 1.160942e+01 2.144055e+01 2.363808e+01 3.261692e+01 5.745046e+01 5.613566e+01 4.617759e+01 5.450795e+01 5.595263e+01 5.125797e+01 5.227193e+01 4.443209e+01 1.101286e+01 2.999081e-01 6.767010e-01 8.860077e-01 1.251577e+00 1.683867e+00 1.758217e+00 2.043985e+00 2.178538e+00 2.293129e+00 2.112548e+00 2.018069e+00 1.765390e+00 1.948277e-01 4.023663e-02 1.029029e-01 1.373717e-01 1.972411e-01 2.652265e-01 2.789367e-01 2.939113e-01 3.609707e-01 3.612072e-01 3.420516e-01 3.288685e-01 2.646597e-01 2.700705e-02
<GCONST> 9.807574e+01
<MIXTURE> 5 1.304338e-01
<MEAN> 39
 4.085186e+00 -5.338277e+00 -5.307913e+00 -5.164480e+00 2.407936e+00 8.875465e-01 -3.092785e+00 5.077925e+00 6.627681e+00 -7.175777e-03 -5.768845e+00 -3.844451e+00 1.044357e+01 1.759944e-01 -6.090649e-01 -9.487713e-01 -6.187075e-01 1.681680e+00 1.740487e+00 1.179822e-02 -4.200982e-01 1.353569e-01 1.677709e-01 9.234472e-02 -6.573331e-01 2.318518e-01 -1.004876e-01 3.775960e-01 2.275331e-01 1.761004e-01 -1.625074e-01 -9.813341e-02 -2.628897e-02 -5.617295e-01 -5.196768e-01 -2.837390e-02 4.906321e-01 2.512884e-01 -3.288610e-01
<VARIANCE> 39
 1.518800e+01 2.210906e+01 2.899515e+01 3.496365e+01 6.216370e+01 6.296932e+01 6.861105e+01 5.310498e+01 5.707943e+01 6.819919e+01 5.818307e+01 5.134150e+01 2.091296e+01 5.797937e-01 1.154794e+00 1.679323e+00 2.069566e+00 2.599629e+00 3.085146e+00 3.881314e+00 3.825481e+00 3.569068e+00 3.948752e+00 3.318434e+00 3.129766e+00 4.304334e-01 1.294308e-01 1.785976e-01 2.627237e-01 3.349707e-01 4.807457e-01 5.077713e-01 7.410805e-01 5.618336e-01 6.703534e-01 6.551845e-01 5.270104e-01 4.905838e-01 8.648770e-02
<GCONST> 1.168580e+02
<MIXTURE> 6 1.581060e-01
<MEAN> 39
 4.725012e+00 -7.474831e+00 -5.623643e+00 -4.969573e+00 8.719229e+00 3.815408e+00 -3.438955e+00 5.851752e+00 3.591832e+00 -2.777985e+00 -6.627021e+00 -6.599532e-01 9.947894e+00 9.965468e-02 -1.296955e-01 -3.171937e-01 -1.240313e-01 7.801508e-01 4.952904e-01 -4.687095e-01 -3.210711e-01 7.361244e-02 1.094656e-01 1.981746e-01 -2.094796e-01 -4.840653e-02 -5.555033e-02 6.243274e-02 -5.186213e-02 -9.598444e-02 -2.999839e-01 -2.124633e-01 -8.907320e-02 -2.064151e-01 -1.388358e-01 -1.544087e-02 1.036460e-01 -8.951166e-02 -7.831616e-02
<VARIANCE> 39
 1.216540e+01 1.882858e+01 2.030211e+01 3.183203e+01 6.651958e+01 4.991693e+01 5.022745e+01 4.198610e+01 4.393816e+01 4.449534e+01 3.642601e+01 3.545276e+01 1.330881e+01 2.425030e-01 5.396539e-01 7.585540e-01 9.961451e-01 1.451126e+00 1.526871e+00 1.665062e+00 1.698320e+00 1.673980e+00 1.556098e+00 1.507155e+00 1.477386e+00 1.339459e-01 3.372380e-02 8.379399e-02 1.018644e-01 1.452856e-01 1.908929e-01 2.178451e-01 2.450257e-01 2.462914e-01 2.576730e-01 2.474147e-01 2.351751e-01 2.268531e-01 1.858624e-02
<GCONST> 9.020435e+01
<MIXTURE> 7 9.735902e-02
<MEAN> 39
 7.616438e+00 1.642434e+00 -7.775560e+00 -9.641061e+00 5.538485e-01 6.463267e+00 -3.063763e+00 -4.837538e+00 1.365643e+00 2.282764e+00 1.664390e+00 -2.463316e+00 5.656050e+00 3.656628e-01 -6.635483e-01 -6.005528e-01 -1.107305e+00 3.848592e-01 1.175604e+00 2.004523e-01 4.408075e-01 5.440041e-01 5.974706e-02 2.945113e-01 -2.036381e-01 8.371906e-01 -5.329089e-01 -3.371717e-02 3.980247e-01 6.823417e-01 2.364267e-01 -2.624364e-01 1.816850e-01 2.572612e-01 -7.923008e-02 -1.846647e-01 -1.347713e-01 8.233338e-02 -3.435412e-01
<VARIANCE> 39
 1.128271e+01 2.163293e+01 2.356056e+01 3.850171e+01 4.341124e+01 4.981446e+01 5.074309e+01 4.008014e+01 4.683683e+01 5.093327e+01 5.820174e+01 5.580524e+01 1.973252e+01 1.006376e+00 1.180611e+00 1.585537e+00 2.503174e+00 2.793698e+00 2.654328e+00 2.751642e+00 2.978302e+00 3.174913e+00 3.098845e+00 2.847288e+00 2.544200e+00 6.778910e-01 2.714076e-01 2.062765e-01 2.551487e-01 3.992841e-01 3.895573e-01 4.571311e-01 4.984076e-01 5.278962e-01 5.443619e-01 5.354488e-01 5.348750e-01 4.949599e-01 1.351443e-01
<GCONST> 1.148720e+02
<MIXTURE> 8 1.419099e-01
<MEAN> 39
 1.797612e+00 -7.628371e+00 -6.079731e+00 -4.442077e+00 9.323266e+00 4.085029e+00 -3.675728e+00 3.747457e+00 4.129059e+00 8.109543e+00 1.439637e+01 1.453186e+01 9.153979e+00 6.658905e-02 -3.925465e-02 -1.627839e-01 1.163117e-02 4.484280e-01 3.096316e-01 -1.399810e-01 -8.970806e-02 -1.174352e-01 -7.700386e-02 1.177259e-01 -5.629859e-02 -3.621786e-02 7.284102e-03 6.920894e-02 1.242578e-02 -7.560325e-03 -1.520454e-01 -1.312638e-01 8.527524e-03 1.764232e-02 6.539050e-02 -1.938619e-03 -1.279253e-01 -1.673438e-01 -4.805927e-02
<VARIANCE> 39
 1.226067e+01 2.350947e+01 3.236642e+01 4.177208e+01 7.690387e+01 6.211247e+01 7.170045e+01 5.416092e+01 7.329959e+01 9.272584e+01 9.864418e+01 6.637146e+01 1.614206e+01 4.010451e-01 8.331167e-01 1.126360e+00 1.459173e+00 2.236644e+00 2.066440e+00 2.157535e+00 2.141994e+00 2.568392e+00 2.713753e+00 2.943473e+00 2.632320e+00 2.267933e-01 7.019412e-02 1.477320e-01 1.955535e-01 2.495318e-01 3.254467e-01 3.522688e-01 3.817633e-01 3.749804e-01 4.298565e-01 4.547683e-01 4.591376e-01 4.145521e-01 3.840804e-02
<GCONST> 1.083968e+02
<STATE> 3
<NUMMIXES> 8
<MIXTURE> 1 1.155086e-01
<MEAN> 39
 3.980316e+00 -4.463282e+00 -6.914699e+00 -6.917528e+00 4.433039e+00 5.864721e+00 4.595469e+00 -1.975917e+00 4.752275e+00 1.849938e+00 3.996677e+00 3.671381e-01 1.007776e+01 2.536290e-02 2.047716e-02 -2.509070e-02 -1.905822e-02 1.243906e-02 1.895148e-02 -2.323772e-02 -2.409257e-02 1.554643e-03 -2.303400e-02 1.699852e-02 9.833692e-04 -4.055361e-02 -1.192200e-02 -3.067977e-03 -4.244139e-02 -3.563222e-02 -8.159525e-02 2.439903e-02 -2.848848e-01 8.944799e-02 -9.065662e-02 2.170624e-02 -6.630488e-02 6.623060e-03 -2.764015e-02
<VARIANCE> 39
 2.245063e+01 2.711406e+01 3.906640e+01 6.315300e+01 7.683130e+01 6.590945e+01 6.360149e+01 7.479984e+01 8.485432e+01 9.902688e+01 1.105513e+02 1.196572e+02 2.914700e+01 1.457639e-01 3.244690e-01 4.762353e-01 6.665422e-01 8.676797e-01 9.892957e-01 1.145547e+00 1.182553e+00 1.267965e+00 1.203098e+00 1.201311e+00 1.138682e+00 7.043590e-02 3.467721e-02 7.299285e-02 1.036017e-01 1.472631e-01 1.880735e-01 2.116959e-01 2.194200e-01 2.587935e-01 2.779970e-01 2.649307e-01 2.628551e-01 2.532906e-01 1.531546e-02
<GCONST> 9.307959e+01
<MIXTURE> 2 1.503495e-01
<MEAN> 39
 3.748578e+00 -5.465542e+00 -8.032990e+00 -8.146808e+00 7.419714e+00 8.678601e+00 -2.539598e+00 2.247111e+00 3.035133e+00 5.690937e-01 1.039896e+00 -1.605616e+00 1.105590e+01 -3.857283e-04 1.758033e-03 -1.447129e-02 -3.039777e-02 -4.632635e-03 8.522674e-03 -2.375216e-02 -9.784582e-03 -3.572493e-02 -8.334652e-03 3.435937e-03 -1.179473e-02 -1.353784e-02 2.569956e-03 2.960557e-03 3.748671e-03 -7.793828e-03 -1.576951e-02 -1.340631e-02 -5.239196e-03 -4.705356e-03 3.696649e-03 -3.141078e-03 -7.026490e-04 -1.131453e-03 -6.724081e-03
<VARIANCE> 39
 1.270045e+01 1.610958e+01 1.880861e+01 3.739594e+01 6.709905e+01 4.841164e+01 8.022219e+01 5.356565e+01 5.503684e+01 5.439889e+01 6.108736e+01 8.114162e+01 1.505098e+01 5.288907e-02 1.196949e-01 1.657252e-01 2.365700e-01 2.977369e-01 3.644021e-01 3.781787e-01 3.898169e-01 4.252377e-01 4.008029e-01 3.882622e-01 3.642837e-01 2.139615e-02 1.000000e-02 1.789226e-02 2.495859e-02 3.670167e-02 4.731869e-02 5.722605e-02 6.333892e-02 6.743085e-02 7.223362e-02 6.793007e-02 6.637817e-02 6.276888e-02 1.000000e-02
<GCONST> 5.682887e+01
<MIXTURE> 3 1.393637e-01
<MEAN> 39
 7.245857e+00 -9.662665e-02 -7.033729e+00 -1.401133e+01 -2.123508e+00 1.440217e+01 -1.379811e+00 -5.130476e+00 4.571256e+00 -1.034743e+00 5.588743e+00 1.587748e+00 9.345325e+00 3.978056e-03 -1.567501e-03 -1.065769e-02 -1.221002e-02 2.972370e-03 1.998474e-02 -4.163763e-03 -1.398345e-02 -1.208588e-02 -3.888651e-02 5.258674e-03 1.746940e-02 -1.659480e-02 -6.373420e-03 -2.134317e-02 -3.735383e-03 1.245864e-02 6.404411e-03 -5.974545e-02 -3.375622e-02 2.648659e-03 -2.421971e-02 5.169225e-03 -2.248346e-02 -4.544066e-02 -2.952080e-03
<VARIANCE> 39
 1.171079e+01 1.719052e+01 2.122659e+01 3.098125e+01 3.944566e+01 3.773172e+01 4.789375e+01 4.351728e+01 4.340670e+01 6.328295e+01 4.232824e+01 4.945184e+01 1.065561e+01 7.072639e-02 1.846551e-01 2.471116e-01 4.025772e-01 5.358198e-01 6.333254e-01 6.715894e-01 7.166490e-01 7.487717e-01 8.321703e-01 7.292268e-01 6.942631e-01 4.168246e-02 1.206641e-02 3.064962e-02 4.348323e-02 6.955954e-02 9.682710e-02 1.098569e-01 1.170363e-01 1.302158e-01 1.384860e-01 1.481188e-01 1.335561e-01 1.222851e-01 1.000000e-02
<GCONST> 6.852248e+01
<MIXTURE> 4 1.101072e-01
<MEAN> 39
 3.665026e+00 -7.287324e+00 -1.056758e+01 -1.112631e+01 7.382210e+00 6.780843e+00 -7.338915e+00 -2.128098e-01 8.750214e-01 -2.502796e+00 -7.611551e-01 -3.118558e+00 9.896942e+00 2.879693e-02 5.485658e-02 3.035254e-02 2.559201e-02 6.985065e-02 5.424909e-02 3.148603e-02 3.510865e-02 1.546533e-02 1.435406e-02 5.452374e-02 2.113700e-02 -1.440342e-02 1.422969e-01 2.119257e-01 2.694119e-01 2.845292e-01 2.513362e-01 2.580859e-01 3.097315e-01 2.829695e-01 2.409991e-01 2.143612e-01 1.667939e-01 1.278886e-01 4.501916e-02
<VARIANCE> 39
 1.264318e+01 1.983037e+01 2.164611e+01 4.057930e+01 6.621694e+01 6.404703e+01 6.347223e+01 5.799907e+01 5.199350e+01 5.152592e+01 5.574702e+01 6.985986e+01 1.245437e+01 1.240116e-01 2.845529e-01 3.967525e-01 5.670950e-01 7.203019e-01 8.233570e-01 8.796488e-01 8.948217e-01 8.972825e-01 8.508868e-01 8.291796e-01 7.496935e-01 5.334830e-02 1.842954e-02 4.004820e-02 5.784282e-02 8.216318e-02 1.064463e-01 1.236111e-01 1.290263e-01 1.364247e-01 1.525940e-01 1.458673e-01 1.429847e-01 1.367447e-01 1.000000e-02
<GCONST> 7.667605e+01
<MIXTURE> 5 9.649761e-02
<MEAN> 39
 6.103296e+00 -4.332084e+00 -5.290025e+00 -1.058344e+01 5.230423e+00 6.297748e+00 -1.558753e+00 -1.147806e+00 1.943271e+00 1.012369e+00 2.297381e+00 -5.306678e-01 8.115194e+00 5.367802e-02 8.425733e-03 -1.358389e-01 7.641271e-02 1.672923e-01 7.342903e-02 -4.790878e-02 2.977918e-02 8.996458e-03 -1.207829e-01 -1.290165e-02 2.682266e-02 -3.777787e-02 -7.285964e-02 1.236115e-01 3.279035e-03 1.922791e-01 -1.065792e-01 -5.654534e-02 -8.066331e-02 2.349985e-02 -6.737124e-03 1.096533e-02 -4.719213e-02 -1.690146e-03 -6.974687e-02
<VARIANCE> 39
 2.652867e+01 4.466315e+01 4.847042e+01 7.780341e+01 1.236730e+02 9.490083e+01 8.950874e+01 7.984780e+01 7.443340e+01 7.937808e+01 8.232476e+01 8.937491e+01 2.879993e+01 6.281469e-01 1.210284e+00 1.488023e+00 2.012333e+00 2.431167e+00 2.704651e+00 3.123201e+00 3.051613e+00 3.110133e+00 2.943233e+00 2.800564e+00 2.693688e+00 5.721841e-01 1.286969e-01 2.120079e-01 2.825375e-01 3.858204e-01 4.757131e-01 5.304446e-01 5.792404e-01 5.957779e-01 5.785883e-01 5.415811e-01 5.265972e-01 4.910323e-01 9.661680e-02
<GCONST> 1.217111e+02
<MIXTURE> 6 1.284029e-01
<MEAN> 39
 5.043443e+00 -6.255124e+00 -7.580465e+00 -7.159779e+00 1.314854e+01 8.912679e+00 -6.385289e+00 4.825390e+00 2.845294e+00 3.742624e-02 9.523622e-01 -9.171016e-01 1.010671e+01 4.715355e-02 7.344797e-02 5.576307e-02 6.831049e-02 7.789437e-02 6.539840e-02 6.887094e-02 7.471483e-02 2.004898e-02 3.632645e-02 7.375495e-02 1.951576e-02 -1.151051e-02 -1.297196e-01 -1.518749e-01 -2.056629e-01 -2.216154e-01 -2.824959e-01 -2.623574e-01 -1.735376e-01 -2.204127e-01 -1.648028e-01 -1.319324e-01 -9.264592e-02 -2.401726e-02 -5.534413e-02
<VARIANCE> 39
 1.029890e+01 1.568360e+01 1.920364e+01 3.874035e+01 5.286053e+01 5.516583e+01 4.967766e+01 4.561668e+01 4.639185e+01 4.536626e+01 5.644326e+01 7.164229e+01 1.052989e+01 1.450068e-01 3.225569e-01 4.330242e-01 5.895686e-01 7.371250e-01 7.967361e-01 8.467044e-01 8.752568e-01 8.697212e-01 7.879557e-01 7.930800e-01 7.101069e-01 5.594438e-02 1.705718e-02 4.167064e-02 5.311128e-02 7.746115e-02 9.297031e-02 1.107825e-01 1.293706e-01 1.327795e-01 1.383361e-01 1.385215e-01 1.419054e-01 1.368861e-01 1.000000e-02
<GCONST> 7.441014e+01
<MIXTURE> 7 1.484991e-01
<MEAN> 39
 6.694605e+00 -2.646897e+00 -8.243442e+00 -1.338150e+01 3.306141e+00 1.474801e+01 -4.512669e+00 -1.397453e+00 2.851027e+00 1.262132e-01 4.068065e+00 -2.777411e+00 9.200865e+00 2.577374e-02 8.000998e-02 -4.761169e-02 -1.480444e-02 1.442143e-02 4.082426e-02 -3.564664e-02 5.730455e-02 -1.024833e-01 -1.212233e-01 3.995054e-02 3.185032e-02 -7.964145e-02 -9.232380e-03 -1.033188e-02 3.748414e-02 6.924856e-02 -1.405639e-02 -2.618136e-01 7.857344e-02 -2.740330e-02 2.602824e-02 -4.475079e-04 -7.882773e-02 2.953853e-02 -1.782777e-02
<VARIANCE> 39
 1.291077e+01 2.064187e+01 1.924569e+01 3.538594e+01 5.875119e+01 3.964021e+01 6.426192e+01 5.229128e+01 5.450440e+01 6.565913e+01 4.863836e+01 5.411934e+01 1.458750e+01 2.543526e-01 5.720935e-01 6.870682e-01 1.100573e+00 1.362566e+00 1.711760e+00 1.821324e+00 1.820377e+00 1.924618e+00 1.923132e+00 1.787778e+00 1.683645e+00 1.844965e-01 2.960646e-02 6.740420e-02 8.780220e-02 1.387279e-01 1.808110e-01 2.161598e-01 2.340815e-01 2.666314e-01 2.691141e-01 2.719688e-01 2.554167e-01 2.400836e-01 1.992627e-02
<GCONST> 9.299391e+01
<MIXTURE> 8 1.112714e-01
<MEAN> 39
 2.690540e+00 -7.731352e+00 -8.706646e+00 -5.542672e+00 1.397414e+01 4.323353e+00 -7.719360e+00 4.820921e+00 1.274904e+00 2.996743e+00 7.364024e+00 7.836459e+00 8.765063e+00 -4.038179e-02 -4.160211e-02 -1.137671e-01 -1.062406e-01 -1.153770e-01 -1.369932e-01 -1.186827e-01 -5.712160e-02 -9.522175e-02 -1.249346e-02 1.381873e-02 5.543699e-03 -6.972260e-02 5.044308e-02 7.332499e-02 7.166483e-02 2.758380e-02 -1.979818e-02 4.012752e-02 1.097410e-01 -1.708179e-02 5.819489e-02 -3.943135e-02 -4.560931e-02 -7.422382e-02 1.279926e-03
<VARIANCE> 39
 8.668635e+00 1.900904e+01 2.221782e+01 3.422627e+01 4.571145e+01 5.022688e+01 4.856877e+01 4.299005e+01 4.840694e+01 6.506594e+01 9.396478e+01 7.464298e+01 1.027331e+01 2.613412e-01 5.279800e-01 7.055642e-01 9.093999e-01 1.071893e+00 1.132907e+00 1.148852e+00 1.212522e+00 1.181507e+00 1.092216e+00 1.225171e+00 1.107732e+00 9.596267e-02 2.452110e-02 5.387813e-02 7.340978e-02 1.017308e-01 1.242622e-01 1.362762e-01 1.398144e-01 1.614335e-01 1.651710e-01 1.541309e-01 1.735313e-01 1.508969e-01 1.000000e-02
<GCONST> 8.304240e+01
<STATE> 4
<NUMMIXES> 8
<MIXTURE> 1 8.727930e-02
<MEAN> 39
 4.671913e+00 -3.093664e+00 -5.845720e+00 -5.860574e+00 4.270937e+00 3.061700e+00 -3.131791e+00 1.734089e-01 1.436025e+00 2.552640e-01 1.330811e+00 -3.187774e-01 6.420588e+00 4.617450e-02 2.191440e-01 -4.047294e-02 2.473843e-01 -1.381159e-01 -4.031522e-01 -1.459237e-01 5.639299e-02 6.604819e-02 -2.703831e-02 -2.160449e-01 4.551218e-03 -2.181154e-01 -2.480841e-03 1.281366e-01 1.121162e-01 9.582596e-02 -9.813820e-02 -1.332552e-01 -3.170623e-02 -3.356289e-02 -5.886574e-02 3.386915e-03 -4.855338e-02 2.982980e-03 -1.223774e-01
<VARIANCE> 39
 2.404417e+01 3.625756e+01 5.521712e+01 5.664698e+01 9.104904e+01 7.731001e+01 7.249047e+01 6.615826e+01 6.638626e+01 7.350647e+01 8.679720e+01 1.005889e+02 2.927431e+01 6.229531e-01 1.092529e+00 1.307180e+00 1.861009e+00 2.507378e+00 2.440549e+00 2.623205e+00 2.808690e+00 2.781530e+00 2.746703e+00 2.499640e+00 2.473303e+00 5.119299e-01 1.150794e-01 1.798650e-01 2.309482e-01 3.026906e-01 3.845028e-01 4.375253e-01 4.657035e-01 4.913330e-01 4.690157e-01 4.666416e-01 4.376501e-01 4.252186e-01 8.229128e-02
<GCONST> 1.167793e+02
<MIXTURE> 2 1.476254e-01
<MEAN> 39
 6.592130e+00 -1.584061e+00 -1.124555e+01 -9.859419e+00 5.696160e+00 3.608302e+00 -8.105609e+00 -3.371177e+00 -1.576737e+00 -4.085091e+00 -3.961470e+00 -8.561995e+00 4.929421e+00 -8.445346e-03 1.790991e-02 -8.161401e-03 -1.334350e-02 -9.045283e-02 -9.864031e-02 -6.151104e-02 -2.601669e-02 -6.985894e-02 -3.303839e-02 -1.543199e-02 -3.378690e-02 -6.105721e-02 1.042614e-01 1.601311e-01 2.342266e-01 2.540942e-01 2.211902e-01 2.336315e-01 3.022631e-01 2.926861e-01 2.602558e-01 2.396817e-01 2.118269e-01 2.286686e-01 3.304889e-02
<VARIANCE> 39
 7.135337e+00 1.605263e+01 1.850272e+01 3.012822e+01 4.596129e+01 4.111954e+01 4.217658e+01 4.686396e+01 5.166049e+01 4.900914e+01 4.673983e+01 4.098360e+01 8.556719e+00 1.182221e-01 3.105461e-01 4.376128e-01 6.553741e-01 8.041540e-01 9.641688e-01 1.071683e+00 1.107481e+00 1.151473e+00 1.131479e+00 9.983554e-01 9.389061e-01 6.367448e-02 1.492547e-02 3.972464e-02 5.792981e-02 8.789331e-02 1.188168e-01 1.392791e-01 1.424686e-01 1.546913e-01 1.737632e-01 1.702127e-01 1.562901e-01 1.462368e-01 1.000000e-02
<GCONST> 7.569373e+01
<MIXTURE> 3 1.220986e-01
<MEAN> 39
 7.586661e+00 -4.908171e-02 -8.356216e+00 -8.837740e+00 2.584910e+00 1.196530e+01 -5.872081e+00 -3.138932e+00 4.974836e+00 -1.673456e+00 2.386115e+00 -5.235094e+00 5.466229e+00 2.287540e-02 5.080472e-02 2.218924e-02 3.127359e-02 2.177059e-02 9.506546e-03 3.892999e-02 1.198810e-02 1.198635e-02 5.108641e-03 4.252574e-02 3.472665e-02 -3.631187e-02 -9.856327e-03 4.234981e-03 -5.024752e-03 -3.324268e-03 3.968526e-02 -1.446982e-01 7.045329e-02 -6.115858e-03 -7.135291e-02 5.921146e-02 -7.061866e-02 2.077295e-02 -5.532356e-03
<VARIANCE> 39
 6.357471e+00 1.331080e+01 1.284554e+01 2.180442e+01 1.962522e+01 2.136806e+01 2.870450e+01 3.277189e+01 3.784679e+01 3.895901e+01 3.999929e+01 3.531986e+01 5.809003e+00 5.206531e-02 1.277179e-01 1.842145e-01 3.080050e-01 3.809412e-01 5.074061e-01 5.174722e-01 5.540985e-01 5.976852e-01 6.375378e-01 6.002405e-01 5.313851e-01 3.121893e-02 1.000000e-02 2.061533e-02 2.966186e-02 4.983072e-02 6.388974e-02 8.169252e-02 8.253209e-02 9.560120e-02 1.032114e-01 1.102520e-01 1.050445e-01 9.195454e-02 1.000000e-02
<GCONST> 5.577274e+01
<MIXTURE> 4 1.309541e-01
<MEAN> 39
 7.347478e+00 -1.063419e+00 -1.036717e+01 -7.080672e+00 1.107936e+01 3.416533e+00 -9.088976e+00 3.297753e+00 -1.220000e+00 -2.861445e+00 -3.016065e+00 -6.526369e+00 5.293135e+00 2.296770e-02 4.977805e-02 4.339037e-02 3.709951e-02 1.690215e-02 2.782749e-02 3.303582e-02 5.646019e-02 1.953687e-02 4.974508e-02 2.756058e-02 1.278024e-02 -2.510827e-02 -1.066940e-02 -4.345529e-03 3.717587e-03 -8.739343e-03 -9.596050e-02 6.249605e-03 3.943136e-02 -1.025986e-01 2.118153e-02 -1.943252e-02 -4.542379e-03 -1.716642e-02 -8.422813e-03
<VARIANCE> 39
 6.369038e+00 1.502724e+01 1.712340e+01 2.991865e+01 2.920857e+01 3.178159e+01 3.101428e+01 3.456174e+01 4.496678e+01 4.651772e+01 4.145149e+01 5.608691e+01 9.107697e+00 5.493632e-02 1.517132e-01 2.261999e-01 3.183700e-01 4.454182e-01 4.939624e-01 5.332974e-01 5.748513e-01 5.989202e-01 5.838578e-01 5.650958e-01 5.039372e-01 2.733799e-02 1.000000e-02 2.346504e-02 3.571082e-02 5.225489e-02 6.877149e-02 8.131442e-02 8.983275e-02 9.384400e-02 1.030204e-01 9.912544e-02 9.421265e-02 9.041478e-02 1.000000e-02
<GCONST> 5.931488e+01
<MIXTURE> 5 1.195268e-01
<MEAN> 39
 6.178174e+00 -1.477063e+00 -4.218358e+00 -3.187727e+00 -2.825524e-01 1.512546e+00 -1.479852e+00 1.193935e+00 1.551066e+00 -4.526883e+00 -5.102772e+00 -3.809617e+00 4.815526e+00 3.868968e-02 7.356849e-02 6.994909e-02 1.253182e-01 -1.282564e-02 -5.626486e-02 3.654644e-02 7.880352e-02 8.725105e-03 3.384165e-03 2.362493e-03 6.853133e-02 -8.384274e-02 2.500856e-03 1.960005e-02 -4.656104e-02 -3.888216e-02 7.248661e-02 -2.536307e-03 -6.244056e-02 -7.192667e-02 -3.669193e-02 7.795365e-02 6.317993e-02 -1.753648e-02 -1.231206e-02
<VARIANCE> 39
 9.034189e+00 1.966434e+01 2.422637e+01 3.170661e+01 4.564249e+01 4.340617e+01 5.385995e+01 5.047934e+01 5.675661e+01 6.400065e+01 4.406746e+01 4.312674e+01 1.211040e+01 1.070090e-01 2.722885e-01 4.892728e-01 6.425558e-01 9.472365e-01 1.053347e+00 1.096590e+00 1.220079e+00 1.232621e+00 1.203353e+00 1.129003e+00 1.026569e+00 6.568008e-02 1.406226e-02 3.906718e-02 6.487177e-02 8.992431e-02 1.231254e-01 1.540514e-01 1.626603e-01 1.864481e-01 2.016888e-01 1.875608e-01 1.856398e-01 1.630867e-01 1.000000e-02
<GCONST> 7.916799e+01
<MIXTURE> 6 1.643017e-01
<MEAN> 39
 8.088249e+00 2.817865e-02 -9.516297e+00 -8.176704e+00 9.355423e+00 6.931474e+00 -5.319705e+00 -2.379864e-01 1.504408e+00 -9.131320e-01 -1.300800e+00 -6.922253e+00 5.285343e+00 -2.430851e-02 3.719512e-02 -4.915145e-02 -3.535730e-02 -1.155459e-01 -1.263077e-01 -6.732024e-02 -8.259316e-02 -9.498576e-02 -6.950292e-02 -5.000838e-02 -6.664019e-02 -8.249886e-02 -1.002895e-01 -1.175760e-01 -1.028193e-01 -1.363607e-01 -2.801512e-01 -2.531334e-01 -1.778911e-01 -1.926563e-01 -2.015530e-01 -1.902198e-01 -1.665655e-01 -7.507172e-02 -3.593595e-02
<VARIANCE> 39
 6.407494e+00 1.491364e+01 1.701449e+01 2.959201e+01 3.992027e+01 3.784974e+01 4.226869e+01 4.685332e+01 5.376850e+01 4.563111e+01 4.541664e+01 3.746168e+01 8.053843e+00 1.517780e-01 3.957753e-01 5.425953e-01 7.987266e-01 1.005690e+00 1.154594e+00 1.258731e+00 1.339204e+00 1.378682e+00 1.299488e+00 1.206534e+00 1.115223e+00 8.893427e-02 1.687599e-02 4.942271e-02 7.931173e-02 1.183211e-01 1.182917e-01 1.560405e-01 1.835359e-01 2.013389e-01 1.965999e-01 1.952079e-01 1.856906e-01 1.800553e-01 1.000000e-02
<GCONST> 7.987209e+01
<MIXTURE> 7 1.218424e-01
<MEAN> 39
 7.256321e+00 6.926324e-01 -8.678093e+00 -6.200280e+00 3.305302e+00 4.968712e+00 5.107723e-01 -4.278716e+00 1.112320e+00 1.985245e+00 -7.836010e-01 -4.013234e+00 4.222085e+00 -7.209442e-03 -3.617721e-02 -1.281554e-02 -4.321807e-02 -5.777047e-02 -5.997621e-02 -8.194558e-02 -5.518283e-02 -5.610113e-02 -3.997821e-02 -5.593160e-02 -3.711303e-02 -3.589726e-02 -1.231431e-02 -2.827590e-02 1.166670e-03 -2.759481e-02 -3.307077e-02 3.384591e-02 -1.926581e-01 7.504091e-02 2.326423e-02 -1.147221e-01 2.157228e-02 -3.207085e-02 -2.892922e-03
<VARIANCE> 39
 7.482605e+00 1.211298e+01 1.954757e+01 2.448944e+01 2.393825e+01 2.180079e+01 2.841922e+01 3.216210e+01 4.386201e+01 4.606845e+01 4.086501e+01 3.981354e+01 9.197460e+00 5.057952e-02 1.376553e-01 2.233437e-01 3.369608e-01 4.143837e-01 5.302702e-01 5.853857e-01 6.219985e-01 6.700164e-01 6.163442e-01 6.099305e-01 5.784943e-01 2.824447e-02 1.000000e-02 2.476837e-02 4.232468e-02 6.335759e-02 7.470125e-02 8.823925e-02 8.919378e-02 1.114141e-01 1.268894e-01 1.092330e-01 1.127864e-01 1.085924e-01 1.000000e-02
<GCONST> 5.993795e+01
<MIXTURE> 8 1.063716e-01
<MEAN> 39
 5.135445e+00 -1.250469e+00 -1.026276e+01 -7.713246e+00 7.715642e+00 5.687235e+00 -5.737526e+00 -8.878789e-01 -1.198753e+00 1.546629e+00 7.453813e+00 5.576040e+00 3.199680e+00 3.644995e-02 7.752048e-02 8.199164e-02 6.469131e-02 -2.247388e-02 6.598849e-04 7.387114e-02 5.175119e-02 -2.801902e-03 4.834345e-02 2.654817e-02 6.596617e-02 -4.847401e-02 1.455737e-02 -5.162326e-03 4.085373e-02 2.656090e-02 -2.531239e-02 -2.564125e-02 1.527641e-02 4.854259e-03 7.782754e-02 8.756241e-03 -1.103052e-01 -9.943500e-02 5.996137e-03
<VARIANCE> 39
 5.165437e+00 1.213823e+01 1.581096e+01 2.984199e+01 2.883639e+01 3.931511e+01 5.398352e+01 5.149889e+01 4.833887e+01 6.080503e+01 5.616578e+01 7.593615e+01 5.379111e+00 1.389633e-01 3.531098e-01 5.017692e-01 6.771232e-01 8.744966e-01 9.759377e-01 1.113162e+00 1.149460e+00 1.163312e+00 1.181847e+00 1.227187e+00 1.144424e+00 7.706714e-02 2.057458e-02 5.441836e-02 8.511020e-02 1.151319e-01 1.406398e-01 1.704518e-01 1.964159e-01 2.099909e-01 2.206006e-01 2.191653e-01 2.111623e-01 1.965938e-01 1.000000e-02
<GCONST> 7.989564e+01
<STATE> 5
<NUMMIXES> 8
<MIXTURE> 1 7.172323e-02
<MEAN> 39
 4.591098e+00 -5.169030e+00 -4.626528e+00 -5.752859e+00 1.303432e+00 5.684854e-01 -2.942674e+00 2.077590e+00 3.939039e+00 2.195608e+00 1.053076e+00 1.205929e+00 8.472961e+00 2.066455e-01 8.626056e-01 5.044520e-01 7.948859e-01 -7.530566e-01 -1.547215e+00 -7.353631e-01 -4.584063e-01 -3.902909e-01 -4.863929e-02 -2.562526e-01 1.503169e-01 -9.761434e-01 -9.370524e-02 3.626026e-01 1.141426e-01 2.712137e-01 1.247248e-01 1.193734e-01 -2.079002e-02 -3.345284e-01 -3.095418e-01 -2.248092e-01 -4.262761e-02 -1.147033e-01 -3.466073e-01
<VARIANCE> 39
 2.078861e+01 2.771159e+01 4.320251e+01 5.157161e+01 8.102485e+01 8.476678e+01 9.154588e+01 8.974977e+01 8.694828e+01 8.939613e+01 1.155356e+02 1.129382e+02 2.278290e+01 8.373705e-01 1.991834e+00 2.179486e+00 3.074344e+00 4.192733e+00 4.074323e+00 4.552565e+00 4.973147e+00 4.412646e+00 4.580053e+00 4.218981e+00 4.127921e+00 9.071485e-01 1.760054e-01 2.599203e-01 3.378938e-01 5.146829e-01 6.022346e-01 6.970541e-01 8.718964e-01 8.403831e-01 7.892920e-01 7.924246e-01 7.931383e-01 7.665364e-01 1.414966e-01
<GCONST> 1.303542e+02
<MIXTURE> 2 5.987446e-02
<MEAN> 39
 4.774557e+00 3.656180e+00 -2.386824e+00 -1.136787e+00 4.240783e-01 -6.505661e-01 -3.385590e+00 -3.674302e+00 -1.120118e+00 -1.061149e+00 -1.281160e+00 -2.281111e+00 1.071902e+00 -8.828282e-01 9.560105e-01 3.691933e-01 1.322760e+00 3.929980e-01 -1.561043e-01 2.489659e-01 -3.840780e-01 -3.524641e-01 -1.476894e-01 -9.675697e-02 -1.290236e-01 -9.923496e-01 -2.603866e-01 -2.275773e-01 -6.682546e-02 -1.221225e-01 3.134592e-02 2.291999e-01 2.179823e-01 2.666912e-01 1.731340e-01 1.096364e-01 9.477215e-02 5.332099e-02 1.040322e-01
<VARIANCE> 39
 3.112696e+01 2.980513e+01 5.041160e+01 5.895716e+01 5.440582e+01 6.349641e+01 5.447424e+01 4.960292e+01 5.182856e+01 5.462430e+01 5.904305e+01 5.664373e+01 2.551888e+01 2.429408e+00 2.819162e+00 2.401779e+00 3.521433e+00 3.719417e+00 3.684559e+00 4.192580e+00 4.172390e+00 3.953138e+00 3.620196e+00 3.581136e+00 3.402099e+00 1.823330e+00 2.372428e-01 2.954946e-01 3.234045e-01 4.653901e-01 5.275574e-01 5.921700e-01 6.445969e-01 6.073532e-01 6.189741e-01 6.012303e-01 5.734183e-01 4.962758e-01 1.557320e-01
<GCONST> 1.264020e+02
<MIXTURE> 3 1.761289e-01
<MEAN> 39
 9.052332e+00 5.531406e+00 -5.405265e+00 -1.272950e+01 -4.455252e+00 9.020552e+00 2.793159e+00 -4.658125e+00 -1.181827e+00 -1.018602e+00 5.722407e+00 4.586683e+00 2.962193e+00 1.633776e-02 3.241430e-02 1.174201e-02 1.207691e-01 2.698898e-02 -2.803045e-02 -5.481205e-02 -8.884348e-02 -4.811034e-02 6.965829e-02 3.153853e-02 -7.739759e-04 -8.787671e-02 -1.967657e-02 -6.140699e-02 -2.607141e-02 1.034649e-01 8.575647e-02 -8.484752e-02 -1.576639e-01 1.201041e-03 5.538395e-02 7.258255e-02 -7.897738e-02 -1.527505e-01 9.083136e-03
<VARIANCE> 39
 1.002297e+01 2.010390e+01 2.441863e+01 4.047924e+01 4.203306e+01 5.167562e+01 6.090949e+01 5.185531e+01 5.166150e+01 7.181187e+01 6.601841e+01 4.817438e+01 1.636694e+01 1.735483e-01 4.660963e-01 6.139331e-01 9.876923e-01 1.180322e+00 1.403562e+00 1.641165e+00 1.582643e+00 1.689296e+00 1.837955e+00 1.697828e+00 1.474077e+00 1.498314e-01 2.915447e-02 7.269001e-02 1.074389e-01 1.615620e-01 2.026269e-01 2.488389e-01 2.779697e-01 2.904058e-01 3.180655e-01 3.193756e-01 3.089623e-01 2.541333e-01 1.811804e-02
<GCONST> 9.273906e+01
<MIXTURE> 4 1.598656e-01
<MEAN> 39
 8.716849e+00 5.249568e+00 -7.359101e+00 -6.969154e+00 2.936723e+00 4.302053e+00 -3.530296e+00 -4.150485e+00 -2.127486e+00 -1.949707e+00 -1.060275e+00 -6.387744e+00 3.203384e-01 -1.562723e-02 1.319358e-01 1.734022e-01 1.943789e-01 -9.662983e-02 -1.613929e-01 3.049164e-02 -4.746704e-02 -8.906805e-02 6.162431e-03 -4.549186e-02 2.872191e-02 -1.772837e-01 -1.235064e-02 -8.819278e-03 7.955089e-02 3.339576e-02 -3.316147e-02 2.413677e-02 6.669083e-02 2.632359e-02 2.302570e-02 2.019536e-02 2.956419e-02 1.090120e-01 8.994568e-03
<VARIANCE> 39
 8.201947e+00 1.121524e+01 2.590726e+01 3.774690e+01 3.797038e+01 4.033067e+01 4.428434e+01 3.987497e+01 5.157150e+01 5.079162e+01 4.188784e+01 3.486742e+01 8.356782e+00 1.181909e-01 3.477303e-01 5.350089e-01 7.716863e-01 9.184840e-01 1.073162e+00 1.287261e+00 1.340587e+00 1.408569e+00 1.368117e+00 1.317522e+00 1.211068e+00 1.145607e-01 2.089599e-02 5.309812e-02 8.844575e-02 1.311028e-01 1.608100e-01 1.917391e-01 2.194274e-01 2.356043e-01 2.491519e-01 2.461836e-01 2.221515e-01 2.039608e-01 1.320420e-02
<GCONST> 8.267104e+01
<MIXTURE> 5 9.735721e-02
<MEAN> 39
 6.443089e+00 -1.408632e+00 -8.521991e+00 -7.917747e+00 5.293102e+00 4.109097e+00 -6.118465e+00 3.734032e-01 1.989542e+00 -1.543520e+00 -1.807073e+00 -4.859409e+00 5.735163e+00 9.772912e-02 8.729549e-01 6.728950e-01 5.107881e-01 -9.112201e-01 -1.181503e+00 -9.007230e-02 -5.938904e-01 -3.218961e-01 2.644300e-01 -1.448034e-01 1.324080e-01 -7.918374e-01 -4.117711e-02 1.647926e-01 2.811145e-01 3.020739e-01 -5.649614e-02 -1.127307e-01 6.535239e-02 -2.610975e-01 -1.827080e-01 4.457163e-03 1.536954e-02 9.280348e-02 -2.164077e-01
<VARIANCE> 39
 9.233477e+00 1.985498e+01 2.319060e+01 3.411844e+01 4.921235e+01 5.677835e+01 5.395299e+01 5.087185e+01 5.716587e+01 5.404467e+01 6.273968e+01 5.064452e+01 1.417836e+01 2.970780e-01 6.465788e-01 1.198544e+00 1.545442e+00 1.936383e+00 2.200783e+00 2.391954e+00 2.478781e+00 2.527394e+00 2.455320e+00 2.517228e+00 2.094090e+00 2.060126e-01 5.780338e-02 1.168648e-01 1.674105e-01 2.145258e-01 3.082261e-01 3.379267e-01 3.891713e-01 3.908165e-01 4.139615e-01 3.871767e-01 3.791530e-01 3.236279e-01 4.616684e-02
<GCONST> 1.027966e+02
<MIXTURE> 6 2.645457e-01
<MEAN> 39
 9.126079e+00 5.763916e+00 -5.186299e+00 -8.307232e+00 -1.507302e+00 7.026917e+00 -7.558636e-03 -3.738241e+00 -1.440650e+00 -4.008749e-01 3.995323e+00 1.664036e+00 1.882608e+00 4.630988e-04 2.463452e-03 2.899379e-02 6.665833e-02 4.141878e-03 -3.982366e-02 -3.064487e-02 1.357902e-02 -7.950252e-03 7.347623e-03 -2.521895e-02 -1.308662e-02 -4.375600e-02 -4.622333e-03 -8.273132e-03 -2.805976e-03 -2.218793e-03 -1.214276e-03 -1.805245e-02 -1.009314e-02 -1.918879e-02 -2.844542e-03 -6.669500e-03 -7.754102e-03 -2.288335e-02 -2.831056e-03
<VARIANCE> 39
 8.295658e+00 1.695962e+01 2.450735e+01 4.321231e+01 3.973162e+01 4.125793e+01 4.963831e+01 4.402204e+01 4.028045e+01 5.369339e+01 5.309362e+01 4.576635e+01 1.391825e+01 5.025684e-02 1.466776e-01 2.321758e-01 3.559199e-01 4.528984e-01 5.426142e-01 5.960969e-01 6.827899e-01 7.162389e-01 7.185761e-01 6.709506e-01 6.293076e-01 3.599855e-02 1.000000e-02 2.717449e-02 4.355353e-02 6.454063e-02 9.054238e-02 1.035026e-01 1.156704e-01 1.322786e-01 1.379826e-01 1.393763e-01 1.284309e-01 1.190335e-01 1.000000e-02
<GCONST> 6.655985e+01
<MIXTURE> 7 8.820911e-02
<MEAN> 39
 4.357816e+00 -4.366707e+00 -4.208628e+00 -2.131680e+00 1.733166e+00 -1.512767e+00 -2.416238e+00 4.565072e+00 1.386306e+00 -8.578893e-01 -5.563172e-01 3.386991e+00 6.171236e+00 2.491827e-02 1.765268e-01 2.613067e-01 3.425662e-01 -3.701279e-01 -6.181418e-01 2.923982e-03 2.327360e-01 5.097482e-02 -8.245830e-02 -7.848495e-02 2.565581e-01 -2.234826e-01 7.550138e-03 1.087649e-01 3.465288e-02 -7.784782e-02 -7.555012e-02 5.616626e-02 -1.416393e-02 -2.492206e-01 -2.166572e-02 8.842228e-02 9.186340e-02 -1.165854e-01 -7.549835e-02
<VARIANCE> 39
 1.572138e+01 2.471131e+01 3.469467e+01 3.525171e+01 7.279949e+01 4.765319e+01 6.833200e+01 5.553065e+01 6.700598e+01 8.080112e+01 1.117063e+02 1.156958e+02 2.068229e+01 2.208471e-01 5.378196e-01 8.622679e-01 1.000327e+00 1.734579e+00 1.552710e+00 1.960571e+00 1.879081e+00 1.892174e+00 1.986860e+00 1.889115e+00 1.814379e+00 1.428003e-01 3.465828e-02 8.202118e-02 1.219613e-01 1.571797e-01 2.228866e-01 2.341088e-01 2.938487e-01 2.811357e-01 3.149266e-01 3.117399e-01 3.128890e-01 2.837294e-01 2.148015e-02
<GCONST> 9.901333e+01
<MIXTURE> 8 8.229586e-02
<MEAN> 39
 8.270642e+00 -9.656404e-01 -7.519406e+00 -5.510649e+00 6.244044e-01 6.124944e+00 -5.271622e+00 -4.896817e+00 3.599579e+00 4.778422e+00 4.983733e-01 -4.534463e+00 5.388996e+00 -2.104800e-01 -4.673635e-01 3.494111e-01 1.186241e+00 -1.287493e-01 -1.347446e+00 -4.943526e-01 6.251705e-01 5.791747e-01 3.156631e-02 -8.716506e-01 -3.131032e-01 8.143830e-02 -5.669044e-02 6.724355e-02 1.903821e-01 2.843035e-02 -1.185591e-01 -2.449320e-01 1.514374e-01 2.705307e-01 -1.780693e-01 -3.530575e-01 -5.424806e-02 2.714561e-01 -4.241221e-02
<VARIANCE> 39
 1.183265e+01 2.524237e+01 2.492628e+01 4.373764e+01 4.954501e+01 5.812612e+01 5.436831e+01 5.565413e+01 6.667220e+01 6.058630e+01 7.674664e+01 6.057181e+01 1.489543e+01 2.051474e-01 6.128926e-01 9.261810e-01 1.389393e+00 1.631930e+00 2.154078e+00 2.206434e+00 2.450558e+00 2.511246e+00 2.890894e+00 2.389738e+00 2.482106e+00 1.524439e-01 3.148678e-02 8.344501e-02 1.329885e-01 2.032433e-01 2.682585e-01 3.191336e-01 3.467501e-01 3.458858e-01 4.111548e-01 3.832549e-01 4.258442e-01 3.513250e-01 2.107219e-02
<GCONST> 1.010668e+02
<TRANSP> 6
 0.000000e+00 1.000000e+00 0.000000e+00 0.000000e+00 0.000000e+00 0.000000e+00
 0.000000e+00 7.722072e-01 2.277928e-01 0.000000e+00 0.000000e+00 0.000000e+00
 0.000000e+00 0.000000e+00 9.167210e-01 8.327893e-02 0.000000e+00 0.000000e+00
 0.000000e+00 0.000000e+00 0.000000e+00 8.993998e-01 1.006002e-01 0.000000e+00
 0.000000e+00 0.000000e+00 0.000000e+00 0.000000e+00 8.514045e-01 1.485955e-01
 0.000000e+00 0.000000e+00 0.000000e+00 0.000000e+00 0.000000e+00 0.000000e+00
<ENDHMM>
