~o
<STREAMINFO> 1 39
<VECSIZE> 39<NULLD><MFCC_D_A_Z_0><DIAGC>
~h "dh"
<BEGINHMM>
<NUMSTATES> 5
<STATE> 2
<NUMMIXES> 8
<MIXTURE> 1 1.011714e-01
<MEAN> 39
 2.860905e+00 4.184462e-01 -3.494596e-01 -1.294320e+00 -1.811345e+00 -4.759591e+00 -3.721837e+00 -2.313653e+00 2.410583e-01 2.093320e+00 2.426416e+00 4.637202e+00 3.923247e+00 -1.825731e-02 1.881650e-01 -1.103066e-01 1.616080e-01 1.015709e-02 -1.290346e-01 -1.609476e-01 1.301826e-01 3.016577e-01 3.246590e-04 -9.425668e-02 -2.246456e-01 5.234696e-02 -7.212500e-02 -1.441250e-01 -2.077971e-02 -8.496858e-02 -2.878537e-02 9.724358e-02 1.467917e-01 3.930223e-01 1.044630e-01 -6.226345e-02 -8.001866e-02 -6.693017e-02 1.304606e-01
<VARIANCE> 39
 2.278470e+01 3.105882e+01 5.058277e+01 4.197425e+01 6.444516e+01 6.952264e+01 7.369835e+01 8.396520e+01 8.010062e+01 8.630590e+01 1.111493e+02 1.180190e+02 3.340235e+01 7.256991e-01 1.292799e+00 1.879051e+00 2.215329e+00 2.473676e+00 2.780889e+00 3.334512e+00 3.693355e+00 3.620909e+00 3.594950e+00 3.365136e+00 3.205348e+00 1.344488e+00 1.449343e-01 2.337487e-01 3.478218e-01 4.291601e-01 5.026215e-01 6.362206e-01 7.320184e-01 8.324228e-01 7.651712e-01 7.566524e-01 6.760839e-01 6.764222e-01 2.849514e-01
<GCONST> 1.264047e+02
<MIXTURE> 2 1.290844e-01
<MEAN> 39
 1.813843e+00 8.973905e+00 3.134116e+00 6.120182e+00 -7.408152e-01 -3.485046e+00 -3.222171e+00 -6.489916e+00 -2.945579e+00 -4.684647e+00 -5.409401e+00 -5.410709e+00 -4.446010e+00 -7.927886e-01 -8.609031e-01 -5.623195e-01 -9.480435e-02 -2.970357e-01 -2.484090e-01 2.540355e-01 8.594921e-01 7.958454e-01 5.743211e-01 9.541888e-01 8.267012e-01 1.747253e+00 7.296102e-02 -8.846794e-01 -3.069627e-01 -7.913731e-01 -4.281612e-01 -2.992054e-01 1.056276e-01 8.811507e-01 4.807418e-01 4.368612e-01 4.112918e-01 6.609626e-01 9.178113e-01
<VARIANCE> 39
 3.512733e+01 2.991805e+01 3.905034e+01 3.552676e+01 4.644878e+01 4.062161e+01 4.297807e+01 3.974167e+01 4.073638e+01 4.249632e+01 4.092599e+01 4.396671e+01 3.351910e+01 2.934201e+00 2.805252e+00 2.926126e+00 3.129318e+00 3.917885e+00 4.490814e+00 3.931308e+00 4.274902e+00 3.881764e+00 3.752732e+00 3.833309e+00 3.852561e+00 3.707893e+00 5.311512e-01 4.247184e-01 5.723582e-01 6.136704e-01 8.057781e-01 8.399444e-01 9.919395e-01 9.530258e-01 9.585140e-01 8.006655e-01 8.225495e-01 8.098212e-01 4.271989e-01
<GCONST> 1.315095e+02
<MIXTURE> 3 1.411290e-01
<MEAN> 39
 -4.817838e+00 4.531287e+00 1.751390e+00 6.908676e+00 4.296151e+00 2.602699e+00 3.064308e+00 -3.305029e-01 2.803357e-01 2.428580e-01 -4.686626e-01 -1.133184e+00 -7.736418e+00 4.388420e-01 -2.923404e-01 -3.956443e-01 -6.623494e-01 -1.185660e+00 -1.135220e+00 -4.867426e-01 5.316607e-02 4.547029e-01 2.640221e-01 4.363706e-01 5.200427e-01 2.187969e+00 6.134292e-01 -2.083900e-01 -1.055161e-01 -5.911619e-01 -8.424727e-01 -8.409055e-01 -5.039265e-01 1.791773e-02 8.725841e-02 -3.971145e-02 4.509310e-02 1.873118e-01 8.570265e-01
<VARIANCE> 39
 2.385906e+01 2.500209e+01 2.509164e+01 2.357416e+01 2.833324e+01 2.576222e+01 2.610608e+01 2.682594e+01 2.681761e+01 2.441532e+01 2.389682e+01 2.727646e+01 4.146809e+01 3.503652e+00 2.453749e+00 2.385072e+00 2.406821e+00 3.264048e+00 4.086876e+00 3.511729e+00 3.041803e+00 3.170110e+00 2.670174e+00 2.811069e+00 2.730976e+00 4.411777e+00 2.829934e-01 3.271303e-01 3.793140e-01 4.134370e-01 4.656817e-01 5.365813e-01 5.920463e-01 6.039655e-01 6.228744e-01 5.324583e-01 5.416754e-01 6.045009e-01 4.177493e-01
<GCONST> 1.190606e+02
<MIXTURE> 4 1.236617e-01
<MEAN> 39
 4.243398e+00 6.351203e+00 2.393120e+00 3.847195e+00 -8.922361e-01 -4.522179e+00 -5.119391e+00 -5.097604e+00 -1.186528e+00 -1.080939e+00 -4.006755e+00 -3.766119e+00 -1.195658e+00 -1.377092e-01 -8.237265e-02 -2.004110e-01 -6.589410e-02 -8.566790e-02 -1.563483e-01 -1.670749e-02 3.456239e-01 3.141095e-01 8.754840e-03 1.472314e-01 2.170799e-01 2.424621e-01 -5.293552e-02 -3.126075e-01 -1.580370e-01 -2.258634e-01 -1.470737e-01 -5.653252e-02 7.949139e-02 3.921403e-01 1.750872e-01 -3.739569e-02 1.271217e-01 2.164829e-01 3.088746e-01
<VARIANCE> 39
 1.450456e+01 2.129416e+01 3.000075e+01 3.076383e+01 3.824472e+01 3.674487e+01 3.703674e+01 4.205878e+01 3.797461e+01 4.317694e+01 3.987116e+01 3.881652e+01 1.708995e+01 3.569527e-01 5.751463e-01 1.002687e+00 9.922637e-01 1.213462e+00 1.444065e+00 1.709130e+00 1.929246e+00 1.708025e+00 1.619508e+00 1.510396e+00 1.507127e+00 4.385944e-01 9.524527e-02 1.475078e-01 2.424520e-01 2.695154e-01 3.628925e-01 3.678661e-01 4.201517e-01 4.993134e-01 4.597001e-01 4.012296e-01 3.948318e-01 3.637648e-01 1.246321e-01
<GCONST> 1.013214e+02
<MIXTURE> 5 1.088188e-01
<MEAN> 39
 2.379132e+00 6.842974e+00 2.293409e+00 5.024781e+00 -1.742707e+00 -5.043774e+00 -3.668718e+00 -3.812362e+00 -1.889346e+00 -3.672561e+00 -4.244071e+00 -3.299002e+00 -1.598866e+00 -6.660426e-01 7.896475e-01 2.286754e-01 9.048067e-01 9.088216e-01 7.455330e-01 3.779166e-01 -4.958003e-01 -2.558665e-01 -1.552535e-02 -6.120382e-02 -5.172758e-01 -1.236246e+00 -1.372513e-01 -4.133869e-01 -1.259347e-01 -3.738188e-01 -1.761295e-01 1.940003e-02 1.655226e-01 3.271344e-01 1.991116e-01 2.405851e-01 2.394794e-01 2.383044e-01 3.093063e-01
<VARIANCE> 39
 2.064846e+01 2.197911e+01 2.830062e+01 2.639640e+01 4.077377e+01 3.279627e+01 3.676721e+01 3.300688e+01 3.911504e+01 4.141642e+01 3.880733e+01 4.104102e+01 2.148606e+01 1.319055e+00 1.370874e+00 1.745119e+00 1.963600e+00 2.403131e+00 2.610958e+00 3.070135e+00 3.208070e+00 3.135173e+00 2.844452e+00 2.510424e+00 2.458387e+00 1.372761e+00 1.615049e-01 1.988853e-01 2.509862e-01 3.286498e-01 3.975842e-01 4.331487e-01 4.762808e-01 4.771510e-01 4.782029e-01 4.610922e-01 4.321407e-01 4.342845e-01 1.942388e-01
<GCONST> 1.128165e+02
<MIXTURE> 6 1.268597e-01
<MEAN> 39
 -9.503687e+00 2.450518e+00 -2.696085e+00 3.202909e+00 8.491675e-01 -3.009298e-01 3.684390e+00 4.505601e-01 1.479364e+00 1.636170e+00 2.789991e+00 1.562430e+00 -7.621133e-01 1.425519e+00 5.456063e-01 5.167684e-01 -1.988135e-01 -1.190127e+00 -1.505293e+00 -9.286597e-01 -2.895645e-01 -1.575521e-01 -4.776403e-01 -2.699646e-01 1.791814e-01 2.181587e+00 1.025821e+00 1.455613e-01 4.226614e-01 -1.207433e-01 -3.583107e-01 -4.831134e-01 -5.819812e-01 -9.979473e-02 -7.709944e-02 -2.346323e-01 -4.321469e-01 -1.835693e-01 8.097553e-02
<VARIANCE> 39
 2.856506e+01 4.056307e+01 2.909876e+01 3.217300e+01 3.651439e+01 3.811180e+01 3.497895e+01 3.192695e+01 3.134035e+01 2.936206e+01 2.865443e+01 2.979708e+01 3.430865e+01 3.829957e+00 2.351619e+00 2.617221e+00 2.585643e+00 3.356087e+00 3.625596e+00 3.715357e+00 3.383832e+00 3.148088e+00 2.899974e+00 2.977187e+00 2.717708e+00 4.025083e+00 3.582049e-01 5.271534e-01 5.144884e-01 5.471101e-01 5.880036e-01 6.994476e-01 6.874346e-01 7.068008e-01 6.797454e-01 6.695859e-01 6.131825e-01 6.236975e-01 4.604695e-01
<GCONST> 1.247067e+02
<MIXTURE> 7 1.397038e-01
<MEAN> 39
 2.689603e+00 6.121982e+00 2.286418e+00 5.326028e+00 -5.784348e-01 -5.397073e+00 -5.271368e+00 -4.725420e+00 -7.448753e-01 -1.060589e+00 -2.975355e+00 -1.795749e+00 8.822353e-01 9.855226e-03 -1.443615e+00 -1.085252e+00 -1.312662e+00 -8.837886e-01 -9.021000e-01 -4.834402e-01 1.827129e+00 1.557456e+00 1.169690e-01 6.114700e-01 9.432091e-01 2.091254e+00 1.188910e-01 -4.944980e-01 -1.647317e-01 -6.078377e-01 -3.063457e-01 4.521739e-02 1.810076e-01 6.673905e-01 2.894757e-01 -5.686853e-02 -7.160421e-03 4.341391e-02 4.029662e-01
<VARIANCE> 39
 1.276377e+01 1.757215e+01 2.460611e+01 2.225075e+01 3.715746e+01 3.088604e+01 3.390772e+01 3.470367e+01 3.521726e+01 3.801939e+01 3.644941e+01 3.706456e+01 1.695821e+01 1.270534e+00 1.477199e+00 2.577555e+00 2.374042e+00 3.620642e+00 3.506125e+00 4.156631e+00 4.888550e+00 4.125131e+00 3.880796e+00 3.353536e+00 3.517921e+00 8.373904e-01 1.370754e-01 1.828392e-01 2.800327e-01 2.813607e-01 4.996619e-01 4.512674e-01 5.735928e-01 5.982597e-01 5.804651e-01 5.139257e-01 4.865416e-01 4.307994e-01 1.244322e-01
<GCONST> 1.141652e+02
<MIXTURE> 8 1.295711e-01
<MEAN> 39
 3.295312e+00 4.450103e+00 2.050583e+00 1.623878e+00 -2.677349e+00 -3.420473e+00 -3.064662e+00 -4.031549e+00 -9.727108e-01 -2.425565e-01 -2.574890e+00 -1.364891e+00 1.367128e+00 1.724873e-02 7.051411e-02 1.782598e-02 2.315571e-02 6.670648e-02 1.036149e-02 -1.121932e-01 -3.965859e-02 7.879989e-02 9.288877e-02 -6.540943e-03 -2.683725e-02 -7.052866e-02 -1.983989e-03 -4.535051e-02 -1.684202e-02 -2.673699e-02 -2.552579e-02 -2.962883e-02 -1.908332e-02 6.702681e-02 1.764207e-02 -2.325363e-02 3.730227e-03 4.425153e-03 3.290606e-03
<VARIANCE> 39
 2.787087e+01 3.236288e+01 5.219701e+01 4.487063e+01 6.401424e+01 4.972624e+01 5.110218e+01 6.020493e+01 6.268839e+01 5.465446e+01 5.949655e+01 6.041267e+01 3.344123e+01 1.425043e-01 3.172523e-01 4.982621e-01 7.240630e-01 9.657503e-01 1.109878e+00 1.108293e+00 1.303958e+00 1.394469e+00 1.330041e+00 1.225808e+00 1.124210e+00 1.118511e-01 2.236766e-02 5.197125e-02 8.473483e-02 1.208259e-01 1.503211e-01 1.860572e-01 2.055949e-01 2.278923e-01 2.397126e-01 2.404839e-01 2.174208e-01 2.056936e-01 1.472729e-02
<GCONST> 8.908842e+01
<STATE> 3
<NUMMIXES> 8
<MIXTURE> 1 8.699988e-02
<MEAN> 39
 1.129879e+00 2.648735e+00 -2.466894e+00 -3.746782e-01 -6.649034e+00 -7.666773e+00 -1.896378e+00 2.309201e+00 4.949635e+00 5.321342e+00 9.577185e+00 9.567204e+00 3.879804e+00 1.181406e+00 -1.638157e+00 -2.088730e-01 -2.146876e+00 -7.090992e-01 -1.216426e+00 -2.138559e-01 1.893718e+00 2.792999e-01 6.347181e-01 1.431800e+00 2.636061e+00 2.636937e+00 -2.695475e-01 -3.751391e-01 1.987466e-01 3.061129e-02 6.645200e-01 6.412778e-01 2.849613e-01 -9.487344e-02 -6.372313e-01 -5.965815e-01 -7.567620e-01 -4.037931e-01 -2.715899e-01
<VARIANCE> 39
 1.304776e+01 2.500881e+01 2.758368e+01 2.846710e+01 3.744070e+01 3.444743e+01 4.403045e+01 4.633514e+01 4.435601e+01 4.725643e+01 4.116553e+01 5.618650e+01 2.646049e+01 3.104275e+00 2.625607e+00 3.462947e+00 3.905215e+00 5.182037e+00 6.468270e+00 6.864640e+00 6.155068e+00 6.465309e+00 6.894922e+00 7.355858e+00 9.148572e+00 2.720984e+00 2.850313e-01 3.003776e-01 3.417293e-01 4.499751e-01 5.182700e-01 5.699164e-01 6.794832e-01 7.252006e-01 6.221867e-01 6.389244e-01 7.179760e-01 9.232112e-01 4.179811e-01
<GCONST> 1.300859e+02
<MIXTURE> 2 1.425402e-01
<MEAN> 39
 4.458983e+00 2.491899e+00 -3.076181e+00 -6.791462e-01 -2.233214e-01 -5.379646e+00 -8.509974e+00 -8.217343e-01 4.195478e+00 -1.399102e-01 -3.455291e+00 -3.022099e+00 5.241448e+00 1.845135e-01 -1.512249e+00 -1.136557e+00 -1.655161e+00 -4.337765e-01 -1.666289e-01 -1.670984e-01 2.494808e+00 1.719358e+00 -1.530635e-01 -1.445462e-01 3.671201e-01 1.720350e+00 -4.080611e-02 -3.371857e-02 3.730150e-01 7.991489e-02 -2.488352e-02 2.501539e-01 4.485573e-01 1.023046e-02 -3.448986e-01 -1.459115e-01 -5.184201e-02 5.235780e-02 -2.019161e-01
<VARIANCE> 39
 1.030315e+01 1.895869e+01 2.450471e+01 2.946947e+01 3.046206e+01 4.210573e+01 3.753341e+01 5.554121e+01 4.742558e+01 5.240531e+01 4.565902e+01 4.084601e+01 1.597430e+01 9.400746e-01 1.263882e+00 2.433517e+00 2.355908e+00 3.647525e+00 3.673329e+00 4.431376e+00 5.019260e+00 4.705667e+00 4.103354e+00 3.650083e+00 3.395079e+00 5.885078e-01 1.018305e-01 1.432099e-01 2.694364e-01 2.958306e-01 3.600653e-01 3.942100e-01 4.210567e-01 6.369724e-01 5.038763e-01 4.739798e-01 4.550025e-01 3.800733e-01 8.455934e-02
<GCONST> 1.133338e+02
<MIXTURE> 3 1.474511e-01
<MEAN> 39
 1.869157e+00 4.510033e+00 1.688328e+00 3.120076e+00 -3.407532e+00 -5.660490e+00 -2.249118e+00 -1.269262e+00 -7.220293e-01 -1.896909e+00 -1.725849e+00 -1.009254e+00 -4.135987e-01 2.386097e-02 -5.321560e-01 -3.271462e-01 -6.612849e-01 -5.664431e-01 -2.810754e-01 1.034163e-01 7.379008e-01 2.764596e-01 1.779677e-01 2.477140e-01 2.015969e-01 4.298747e-01 -1.143539e-02 -8.358797e-02 4.171631e-02 -9.056347e-02 7.234623e-02 1.678961e-01 7.400585e-02 -4.450939e-03 -4.944369e-02 4.213606e-02 -3.941125e-02 4.130644e-03 5.701545e-02
<VARIANCE> 39
 2.208200e+01 1.932379e+01 2.630376e+01 2.640450e+01 4.050868e+01 3.637355e+01 3.434816e+01 3.300537e+01 3.297679e+01 3.762501e+01 3.525674e+01 3.778107e+01 2.739923e+01 9.822617e-01 9.714552e-01 1.579464e+00 1.638207e+00 2.461419e+00 2.318205e+00 2.559136e+00 2.730177e+00 2.547826e+00 2.555711e+00 2.467825e+00 2.273798e+00 1.162705e+00 7.967164e-02 9.883393e-02 1.524877e-01 1.851794e-01 2.521368e-01 2.946203e-01 3.099449e-01 3.186193e-01 2.902368e-01 3.412513e-01 3.196609e-01 3.019153e-01 6.129783e-02
<GCONST> 1.038035e+02
<MIXTURE> 4 9.931447e-02
<MEAN> 39
 4.342902e+00 2.159510e+00 -1.172236e+00 -2.133375e+00 -8.676392e+00 -1.012599e+01 -2.853023e+00 3.067605e+00 6.209329e-01 -4.150508e+00 -2.573216e+00 9.173335e-01 5.297008e+00 1.966113e+00 -1.693815e+00 2.052288e-02 -2.511198e+00 -1.089541e+00 -1.159790e+00 -1.394841e-01 2.084475e+00 -7.341497e-02 -8.936095e-01 -1.468639e+00 2.366088e-01 2.468621e+00 -7.971615e-01 -1.565350e-01 6.759495e-02 4.492965e-01 9.929553e-01 1.160580e+00 6.374942e-01 -1.977029e-01 -5.946220e-02 2.739680e-01 3.537609e-02 -3.731846e-01 -7.118818e-01
<VARIANCE> 39
 9.102120e+00 1.838097e+01 2.453656e+01 2.400625e+01 3.267573e+01 3.242483e+01 4.149537e+01 3.370012e+01 3.514505e+01 3.322056e+01 3.732892e+01 4.124520e+01 1.910272e+01 1.574516e+00 2.517902e+00 2.922513e+00 3.051659e+00 4.630361e+00 4.646730e+00 6.284166e+00 4.690242e+00 4.961583e+00 4.210921e+00 3.732854e+00 4.373205e+00 1.903939e+00 2.385281e-01 2.740722e-01 3.150948e-01 3.568354e-01 4.368741e-01 5.028062e-01 5.789946e-01 5.921919e-01 5.350559e-01 5.069730e-01 5.757660e-01 5.524175e-01 2.799133e-01
<GCONST> 1.200072e+02
<MIXTURE> 5 1.388259e-01
<MEAN> 39
 -4.119366e+00 4.474453e+00 -4.111474e-01 5.649837e+00 -1.276384e+00 -1.261407e+00 2.366155e+00 -2.246503e+00 1.380529e+00 -1.171873e-01 1.176034e+00 -1.254329e+00 -5.552904e-01 1.583063e+00 -1.107423e+00 -1.064242e-01 -2.211866e+00 -2.187900e+00 -2.345205e+00 -1.109441e+00 1.167746e+00 5.723375e-01 6.031971e-01 8.284651e-01 1.564586e+00 3.628195e+00 5.497591e-01 -3.471757e-01 1.938126e-01 -6.680555e-01 -8.844979e-02 -2.178261e-01 -2.724837e-01 3.907169e-01 -1.311312e-01 -1.954788e-02 -2.211041e-01 2.425063e-01 2.852645e-02
<VARIANCE> 39
 2.209327e+01 3.662976e+01 3.164067e+01 2.866924e+01 4.260048e+01 3.755108e+01 3.740331e+01 3.836779e+01 3.482713e+01 3.587337e+01 3.763880e+01 3.676805e+01 4.173592e+01 4.529137e+00 3.655780e+00 4.591727e+00 4.264635e+00 5.454322e+00 5.993995e+00 6.714625e+00 6.181695e+00 6.052100e+00 5.782579e+00 6.479965e+00 6.418756e+00 4.578952e+00 3.853229e-01 6.032820e-01 5.418220e-01 5.692027e-01 7.539979e-01 7.325373e-01 8.489124e-01 8.515149e-01 8.392496e-01 8.663138e-01 9.957297e-01 1.059737e+00 5.776370e-01
<GCONST> 1.353564e+02
<MIXTURE> 6 1.319955e-01
<MEAN> 39
 2.270496e+00 1.077274e+00 1.994577e+00 2.461173e+00 -5.870848e+00 -1.015784e+01 -5.258155e+00 1.008110e+00 2.901903e+00 -1.477785e+00 -1.621893e+00 2.644086e+00 7.453021e+00 7.749045e-03 -2.248795e+00 -5.098196e-01 -2.090893e+00 -2.027026e+00 -9.795807e-01 4.640535e-01 2.712598e+00 1.434549e+00 3.386301e-01 7.509143e-01 9.143974e-01 2.924717e+00 4.852499e-02 1.841507e-01 7.059354e-02 -2.105077e-01 3.555798e-01 7.846808e-01 6.094074e-01 1.748467e-03 -3.628145e-01 -1.057742e-02 -2.072571e-01 -5.535315e-01 -5.579619e-01
<VARIANCE> 39
 9.878070e+00 1.585752e+01 2.292426e+01 2.244672e+01 3.487533e+01 2.948928e+01 3.950042e+01 3.938361e+01 4.620227e+01 3.740132e+01 3.341245e+01 3.562196e+01 2.089474e+01 1.552407e+00 1.899800e+00 2.824279e+00 2.641724e+00 4.434606e+00 4.935719e+00 6.421076e+00 5.611831e+00 5.541269e+00 4.514097e+00 3.895769e+00 4.216520e+00 1.480864e+00 2.206889e-01 2.351671e-01 3.270623e-01 3.251356e-01 5.203481e-01 5.349465e-01 5.743792e-01 6.886497e-01 6.626309e-01 5.680314e-01 5.138774e-01 4.886751e-01 2.548958e-01
<GCONST> 1.198769e+02
<MIXTURE> 7 1.518385e-01
<MEAN> 39
 9.745945e-01 6.853344e+00 2.533550e+00 4.080442e+00 -3.025053e+00 -7.811595e+00 -3.530990e+00 -2.809296e+00 -2.346409e-01 -9.953610e-01 -1.339181e+00 5.441797e-01 2.624704e+00 2.820019e+00 -2.134714e-01 5.513206e-01 -9.939007e-01 -2.305575e+00 -2.162102e+00 -1.917419e+00 -2.432130e-01 4.882753e-01 -2.005157e-01 -6.513369e-01 -1.377218e-01 2.441822e+00 -3.728375e-01 -5.358048e-01 -2.148570e-01 -2.485456e-01 2.259602e-01 6.623317e-01 4.671278e-01 3.937850e-01 1.538314e-01 1.770542e-01 9.178454e-02 -1.080823e-01 -3.880048e-01
<VARIANCE> 39
 2.000731e+01 1.854046e+01 2.689578e+01 2.394478e+01 4.177485e+01 3.331623e+01 3.338984e+01 3.207744e+01 3.598923e+01 3.203592e+01 2.897083e+01 2.965417e+01 2.858377e+01 2.164292e+00 3.238058e+00 3.533069e+00 3.480368e+00 4.154272e+00 4.831058e+00 4.863097e+00 5.122841e+00 5.555342e+00 4.615668e+00 4.363732e+00 3.999110e+00 2.734194e+00 3.576443e-01 2.808967e-01 3.196530e-01 3.416175e-01 4.875704e-01 4.975212e-01 5.346422e-01 5.489578e-01 5.302241e-01 4.950335e-01 5.057410e-01 4.429464e-01 2.947455e-01
<GCONST> 1.220048e+02
<MIXTURE> 8 1.010345e-01
<MEAN> 39
 1.248887e+00 -2.962659e+00 -1.671292e+00 -2.862315e+00 2.143651e-01 -1.878138e+00 -1.362183e+00 2.980078e+00 1.968249e+00 2.207366e+00 3.505007e+00 5.599368e+00 7.098836e+00 9.397586e-02 -1.608807e-01 -1.235774e-01 -3.026906e-01 -1.931334e-01 -1.977845e-01 -2.594237e-01 1.409975e-01 1.706098e-01 1.872412e-02 -1.958034e-01 -1.449862e-01 -5.305352e-02 3.542744e-02 4.296392e-03 1.065442e-03 -1.080332e-02 -9.359714e-02 -4.544224e-02 -2.687772e-02 -1.551655e-02 -9.585343e-02 -3.928127e-02 -1.870431e-02 -1.207567e-02 -6.228405e-02
<VARIANCE> 39
 2.200132e+01 3.219643e+01 4.538271e+01 3.648944e+01 7.126730e+01 5.613585e+01 8.134872e+01 7.404826e+01 7.616969e+01 9.622218e+01 1.111277e+02 1.253753e+02 2.694079e+01 2.991216e-01 6.150642e-01 8.960521e-01 1.115754e+00 1.559570e+00 1.682617e+00 1.911880e+00 2.209723e+00 2.007773e+00 2.166975e+00 2.018846e+00 1.981301e+00 2.321800e-01 4.318148e-02 9.093282e-02 1.371449e-01 1.764942e-01 2.289261e-01 2.520615e-01 3.250701e-01 3.116413e-01 3.214777e-01 3.468604e-01 3.062828e-01 2.994017e-01 2.898345e-02
<GCONST> 1.039671e+02
<STATE> 4
<NUMMIXES> 8
<MIXTURE> 1 1.186981e-01
<MEAN> 39
 4.505927e+00 1.155944e+00 -2.652896e+00 -2.772552e+00 -8.873119e-01 -3.604969e+00 -1.039162e+01 -1.732385e+00 8.365423e+00 2.661439e+00 -2.090923e+00 -3.429214e+00 7.138772e+00 5.052878e-01 -6.266649e-01 -2.844943e-01 -7.603574e-01 -1.445176e-01 7.897136e-01 -4.812495e-01 2.046290e-01 6.179868e-01 3.416832e-01 1.219857e-01 -3.214604e-01 4.018469e-01 -2.492446e-01 3.631407e-01 2.552212e-01 4.716074e-01 3.064471e-01 2.844580e-01 6.932260e-01 -2.547771e-01 -9.171937e-01 -1.944306e-01 1.128143e-01 2.026438e-01 -6.052744e-01
<VARIANCE> 39
 1.304723e+01 1.933797e+01 2.730421e+01 3.156251e+01 3.302048e+01 5.055983e+01 3.972910e+01 5.542246e+01 4.458245e+01 5.389127e+01 5.241909e+01 3.758673e+01 2.177493e+01 5.503450e-01 9.725206e-01 1.285591e+00 1.791893e+00 2.181094e+00 2.711545e+00 2.351409e+00 3.239937e+00 3.126443e+00 2.640372e+00 2.672599e+00 2.350484e+00 6.473290e-01 2.227091e-01 1.943667e-01 3.303385e-01 3.599016e-01 4.595847e-01 5.142660e-01 5.387588e-01 7.701045e-01 5.207105e-01 5.788141e-01 5.447527e-01 4.762540e-01 1.387986e-01
<GCONST> 1.129512e+02
<MIXTURE> 2 1.061055e-01
<MEAN> 39
 -8.749620e-01 3.659153e+00 3.009002e-01 2.710689e+00 -1.435737e+00 -3.117628e+00 -1.275952e+00 -1.969597e+00 -1.342769e-01 -4.460979e-01 -9.198462e-01 -1.518021e+00 -2.296864e+00 -2.683156e-01 6.277398e-02 6.967656e-03 1.056778e-01 3.385943e-01 3.349467e-01 1.744899e-01 -9.022316e-02 -7.874759e-02 3.843066e-02 -2.738364e-02 -9.430487e-02 -2.797580e-01 -3.296003e-02 1.221683e-01 1.419503e-01 1.646479e-01 1.334321e-01 9.961672e-02 9.616043e-02 -6.581515e-02 -1.130224e-01 -1.048589e-01 -2.201536e-02 7.814941e-02 -1.836564e-02
<VARIANCE> 39
 4.378844e+01 3.525145e+01 3.995730e+01 3.401569e+01 5.005042e+01 4.406458e+01 4.423734e+01 4.158362e+01 3.968367e+01 4.405346e+01 4.775308e+01 4.467432e+01 3.522955e+01 1.179141e+00 1.080746e+00 1.235683e+00 1.418018e+00 1.710639e+00 2.103188e+00 2.007722e+00 2.150007e+00 2.153784e+00 2.140992e+00 2.153662e+00 2.035588e+00 8.979563e-01 2.639914e-01 2.275713e-01 3.068441e-01 2.962537e-01 3.883475e-01 4.322629e-01 4.878020e-01 4.711377e-01 4.568839e-01 4.668821e-01 4.718468e-01 4.151850e-01 1.953785e-01
<GCONST> 1.133152e+02
<MIXTURE> 3 1.139394e-01
<MEAN> 39
 3.310363e+00 -2.578107e+00 -8.851504e-01 -4.700448e+00 -3.364640e+00 -6.858676e+00 -2.707182e+00 1.789547e+00 4.680308e+00 2.399496e+00 7.670809e-01 1.599246e+00 8.029757e+00 7.466844e-01 -1.525269e+00 -3.135676e-02 -1.498638e+00 -8.443715e-03 -1.025334e-02 -4.671212e-02 8.052791e-01 3.169901e-01 1.984257e-01 -1.759574e-01 9.201650e-03 1.723653e+00 -4.905077e-01 5.096083e-01 1.369488e-01 7.921279e-01 5.144054e-01 7.933106e-01 4.081943e-01 -3.425156e-01 -5.555635e-01 -3.081665e-01 -1.082991e-01 -2.335949e-01 -9.989457e-01
<VARIANCE> 39
 3.023088e+01 3.734583e+01 5.581663e+01 5.114270e+01 6.687111e+01 8.398444e+01 9.533280e+01 8.678137e+01 7.752760e+01 8.639238e+01 9.343351e+01 8.447202e+01 3.427684e+01 2.414675e+00 3.616442e+00 3.576435e+00 4.738352e+00 5.318370e+00 5.787747e+00 7.263059e+00 7.071390e+00 6.183683e+00 6.053284e+00 6.131783e+00 6.328212e+00 4.129613e+00 5.286946e-01 5.108513e-01 6.925611e-01 7.849841e-01 9.871361e-01 1.182955e+00 1.339762e+00 1.342403e+00 1.127144e+00 1.139853e+00 1.107265e+00 1.084261e+00 5.369534e-01
<GCONST> 1.453320e+02
<MIXTURE> 4 1.039955e-01
<MEAN> 39
 1.628219e+00 2.604738e+00 7.722103e+00 -6.246146e-01 -1.240118e+01 -7.299251e+00 -3.815442e-01 -1.451356e+00 -4.639453e+00 4.667949e-01 6.459369e-02 -3.198045e-01 6.676468e+00 2.132000e-01 -5.487715e-01 8.462291e-01 -1.036798e+00 -1.037771e+00 3.817365e-01 1.964268e-01 1.275163e-01 -4.390004e-01 6.910030e-01 -2.554500e-01 -2.693093e-01 7.293975e-01 -2.693011e-01 1.809849e-01 -3.633042e-01 3.239615e-01 9.224494e-01 5.503116e-01 1.226223e-01 -1.064582e-01 3.177738e-01 -6.944449e-02 -1.772262e-01 -1.319696e-01 -6.016234e-01
<VARIANCE> 39
 1.386342e+01 2.279889e+01 2.937473e+01 4.529777e+01 3.625335e+01 4.589074e+01 4.749737e+01 5.459710e+01 3.968459e+01 5.496465e+01 5.547158e+01 5.314577e+01 2.337053e+01 9.446329e-01 1.548769e+00 2.005231e+00 2.499372e+00 3.345754e+00 3.181360e+00 3.484300e+00 3.669420e+00 3.350186e+00 3.344232e+00 3.401052e+00 2.703018e+00 1.209516e+00 2.727125e-01 2.834823e-01 2.993162e-01 4.111619e-01 4.839370e-01 6.096984e-01 6.238045e-01 6.631797e-01 4.786061e-01 6.368671e-01 6.340601e-01 5.026199e-01 2.173199e-01
<GCONST> 1.198464e+02
<MIXTURE> 5 1.797306e-01
<MEAN> 39
 3.403166e+00 -3.570925e-01 -1.599197e+00 -2.590259e+00 -3.540354e+00 -5.909266e+00 -1.821486e+00 4.386266e+00 2.420665e+00 -2.392325e+00 -3.703010e+00 3.390940e-01 6.923630e+00 5.906918e-02 -4.876801e-01 -2.023797e-02 -3.702895e-01 1.262982e-01 4.135154e-01 3.211334e-01 4.582925e-01 -8.085076e-02 -1.188797e-01 -1.957615e-01 -6.905422e-02 1.888998e-01 5.062913e-03 1.781130e-01 1.045633e-01 2.335496e-01 9.907887e-02 7.735496e-02 -1.315887e-01 -3.589599e-01 -8.494251e-02 8.433194e-02 9.601156e-02 -4.094452e-02 -2.031700e-01
<VARIANCE> 39
 9.564065e+00 2.056815e+01 2.971024e+01 2.359662e+01 4.309212e+01 4.325293e+01 5.840399e+01 5.055556e+01 5.764243e+01 5.616904e+01 4.842271e+01 5.999497e+01 2.049173e+01 1.808510e-01 4.990751e-01 7.093580e-01 8.009218e-01 1.171825e+00 1.353807e+00 1.693835e+00 1.686239e+00 1.556350e+00 1.499749e+00 1.385436e+00 1.437484e+00 1.791064e-01 3.765595e-02 7.904491e-02 1.235854e-01 1.559730e-01 1.973770e-01 2.255383e-01 3.257806e-01 3.386869e-01 2.801158e-01 2.844463e-01 2.725365e-01 2.659267e-01 3.803043e-02
<GCONST> 9.296091e+01
<MIXTURE> 6 1.242649e-01
<MEAN> 39
 3.420770e+00 1.600898e+00 1.127368e+00 2.125740e+00 -8.179435e+00 -9.441470e+00 -3.125139e+00 2.712843e+00 5.132741e+00 -1.314326e+00 -8.321253e-01 3.326720e+00 7.546537e+00 8.744243e-02 -8.566959e-01 -9.423260e-02 -8.758714e-01 -8.362123e-01 1.200970e-01 7.873288e-01 1.185266e+00 3.489492e-01 -8.922112e-02 1.105753e-01 7.196122e-02 8.538270e-01 -2.069988e-01 2.283407e-01 1.432567e-01 1.748583e-01 6.441499e-01 5.306779e-01 1.666078e-01 -3.468626e-01 -5.178152e-01 9.473715e-03 -1.141099e-01 -4.060116e-01 -5.117111e-01
<VARIANCE> 39
 9.512203e+00 1.587558e+01 2.069738e+01 2.139664e+01 2.771985e+01 2.653497e+01 3.912384e+01 3.106500e+01 3.894629e+01 4.108760e+01 3.476709e+01 2.831068e+01 2.053123e+01 3.763076e-01 6.512943e-01 1.121444e+00 1.193102e+00 1.880377e+00 1.662904e+00 2.035337e+00 1.899840e+00 2.046456e+00 1.977837e+00 2.003478e+00 1.750992e+00 3.920899e-01 1.410537e-01 1.554960e-01 2.037692e-01 2.143467e-01 2.838360e-01 3.433180e-01 3.622821e-01 4.133434e-01 3.616155e-01 4.355861e-01 4.069273e-01 3.244202e-01 7.233107e-02
<GCONST> 9.919987e+01
<MIXTURE> 7 1.131987e-01
<MEAN> 39
 1.468702e+00 -3.514822e+00 -1.482642e+00 -4.468465e+00 -2.224705e+00 -7.921307e+00 -1.415800e+00 6.858826e+00 -1.153934e+00 -8.468920e-01 3.612083e+00 1.215171e+01 8.333852e+00 -1.558958e-01 -1.141166e+00 2.995771e-01 -7.996601e-01 7.394750e-01 7.620191e-01 9.486178e-01 8.471989e-01 -9.679673e-01 -3.934001e-01 -1.530728e-01 7.193044e-01 8.559337e-01 -9.395971e-02 5.058572e-01 9.418681e-02 5.779811e-01 6.182368e-02 4.488910e-01 -1.445561e-02 -7.727935e-01 8.200171e-02 2.002468e-02 -2.785118e-01 -9.107445e-01 -5.922123e-01
<VARIANCE> 39
 1.203038e+01 1.986781e+01 3.065997e+01 2.695512e+01 4.906523e+01 4.449780e+01 5.801786e+01 4.423477e+01 5.589512e+01 7.388049e+01 1.043739e+02 6.876596e+01 1.470991e+01 6.353011e-01 1.359414e+00 1.545022e+00 1.976406e+00 2.904815e+00 3.205388e+00 4.073607e+00 3.459581e+00 3.295363e+00 3.300813e+00 3.524251e+00 3.673268e+00 7.972248e-01 1.895489e-01 2.304026e-01 3.158075e-01 3.695388e-01 4.947046e-01 5.555925e-01 6.330604e-01 6.524987e-01 6.071789e-01 6.885785e-01 7.507516e-01 6.596993e-01 1.467575e-01
<GCONST> 1.189218e+02
<MIXTURE> 8 1.400673e-01
<MEAN> 39
 2.715054e+00 -2.429345e+00 -2.223079e+00 -3.795369e+00 -5.324298e+00 -5.682065e+00 1.766665e+00 9.432835e+00 4.364893e+00 -3.499422e+00 -4.533021e+00 -2.313243e+00 9.739980e+00 -2.382108e-01 -1.459995e+00 -4.021941e-01 -1.111963e+00 5.315646e-01 1.397716e+00 1.787438e+00 1.782030e+00 -1.292340e-01 -6.171774e-01 -3.952336e-01 -3.599161e-01 1.187252e+00 -1.080665e-01 3.776108e-01 2.561865e-01 5.843396e-01 4.790986e-01 2.945912e-01 -3.212628e-01 -1.104586e+00 -5.644736e-01 6.959950e-02 1.543456e-01 5.676115e-02 -7.067260e-01
<VARIANCE> 39
 1.174314e+01 1.503545e+01 2.435541e+01 2.112845e+01 4.057480e+01 4.022558e+01 6.348729e+01 4.058654e+01 6.089034e+01 5.076974e+01 3.583694e+01 3.900831e+01 1.874233e+01 5.295776e-01 1.066522e+00 1.526137e+00 1.836863e+00 2.945456e+00 2.695101e+00 3.510132e+00 4.368629e+00 3.533798e+00 3.185684e+00 2.645955e+00 2.561526e+00 6.930307e-01 1.916221e-01 2.023524e-01 3.015960e-01 3.094389e-01 5.034340e-01 5.587070e-01 7.012305e-01 6.265492e-01 6.758603e-01 5.875111e-01 5.013773e-01 5.018976e-01 1.558427e-01
<GCONST> 1.139106e+02
<TRANSP> 5
 0.000000e+00 1.000000e+00 0.000000e+00 0.000000e+00 0.000000e+00
 0.000000e+00 6.149194e-01 3.850806e-01 0.000000e+00 0.000000e+00
 0.000000e+00 0.000000e+00 4.476879e-01 5.523121e-01 0.000000e+00
 0.000000e+00 0.000000e+00 0.000000e+00 5.026712e-01 4.973288e-01
 0.000000e+00 0.000000e+00 0.000000e+00 0.000000e+00 0.000000e+00
<ENDHMM>
