~o
<STREAMINFO> 1 39
<VECSIZE> 39<NULLD><MFCC_D_A_Z_0><DIAGC>
~h "n"
<BEGINHMM>
<NUMSTATES> 5
<STATE> 2
<NUMMIXES> 8
<MIXTURE> 1 1.170542e-01
<MEAN> 39
 1.874504e+00 -5.330347e-01 2.716543e+00 -2.427262e+00 -5.685502e+00 -4.627626e+00 1.581252e+00 -1.412181e+00 -2.028833e+00 3.817119e+00 3.567719e+00 7.202295e+00 3.664957e+00 9.555916e-02 3.380748e-01 9.366460e-02 1.602955e-01 -1.569920e-01 -1.567572e-01 -4.477780e-02 -3.834046e-01 -5.876454e-02 9.253680e-02 -9.158713e-02 -2.440659e-02 -3.302965e-01 1.393683e-02 -1.658885e-02 -7.543203e-02 4.018896e-02 1.208435e-01 6.421277e-02 -1.609390e-01 5.995553e-02 6.359432e-02 -1.337496e-01 -7.270491e-02 -1.823206e-01 -1.331655e-02
<VARIANCE> 39
 1.893124e+01 3.157301e+01 4.794403e+01 4.213955e+01 7.262823e+01 6.830475e+01 6.412328e+01 8.230616e+01 8.729967e+01 1.043675e+02 1.197900e+02 1.229027e+02 2.896288e+01 4.111398e-01 7.888311e-01 1.106853e+00 1.347232e+00 1.787540e+00 2.058840e+00 2.285667e+00 2.414725e+00 2.474354e+00 2.627867e+00 2.564502e+00 2.381827e+00 4.043583e-01 7.896605e-02 1.366227e-01 1.962641e-01 2.540316e-01 3.299451e-01 3.952271e-01 4.143222e-01 4.777553e-01 4.684420e-01 4.954050e-01 4.694155e-01 4.491490e-01 7.207308e-02
<GCONST> 1.130712e+02
<MIXTURE> 2 8.903331e-02
<MEAN> 39
 5.621350e+00 3.425425e+00 6.355776e+00 3.996205e-01 -3.317312e+00 -5.767674e+00 -1.429132e+00 -6.315736e+00 -4.100763e+00 -1.748008e+00 -4.263070e+00 -1.687305e+00 -3.035297e-01 4.153399e-01 3.285327e-03 2.696623e-01 -9.233440e-02 -2.876801e-01 -4.151872e-01 -5.847150e-02 -2.825218e-01 -8.065166e-02 5.646463e-03 -2.320032e-01 9.547117e-02 2.335003e-01 -3.522710e-01 -2.156841e-01 -3.454590e-01 -6.942932e-02 4.869539e-03 3.067448e-01 4.592691e-02 5.246664e-01 1.764255e-01 5.638988e-02 1.822978e-01 5.695674e-02 2.601715e-01
<VARIANCE> 39
 4.165182e+01 4.135154e+01 6.281162e+01 6.151688e+01 7.038855e+01 7.330660e+01 6.695242e+01 7.483501e+01 7.162630e+01 7.699902e+01 8.103260e+01 7.487968e+01 3.227614e+01 2.698270e+00 3.066920e+00 3.451935e+00 4.213086e+00 4.592749e+00 4.789886e+00 4.811790e+00 6.214591e+00 4.957144e+00 4.961729e+00 4.686842e+00 4.363440e+00 3.481968e+00 4.674926e-01 5.508597e-01 6.549365e-01 7.795554e-01 9.000340e-01 9.596003e-01 9.674636e-01 1.174832e+00 1.010871e+00 9.956861e-01 9.226037e-01 8.458986e-01 4.390736e-01
<GCONST> 1.408921e+02
<MIXTURE> 3 1.194105e-01
<MEAN> 39
 6.518651e+00 1.642054e+00 -5.093420e-01 -1.337029e+00 -6.126212e-01 -1.923200e+00 -5.777710e+00 -5.537570e+00 -2.743990e+00 -1.385758e+00 -4.970718e+00 -5.518486e+00 2.111087e+00 2.329513e-02 5.202467e-01 6.471274e-01 5.107449e-01 -2.109280e-01 -2.244268e-01 1.139945e-01 -6.966591e-01 -3.321717e-01 6.147392e-02 -2.357669e-01 2.394287e-02 -5.366166e-01 -6.290469e-02 4.690701e-02 8.681821e-02 4.572577e-02 -3.963041e-02 -2.108672e-02 1.828296e-01 2.148171e-01 6.414720e-03 -1.401256e-01 7.489690e-02 1.964981e-01 6.441633e-03
<VARIANCE> 39
 1.112754e+01 2.162697e+01 4.299405e+01 3.948618e+01 5.012503e+01 5.283505e+01 4.903502e+01 5.738125e+01 6.308366e+01 5.930179e+01 5.336393e+01 4.135513e+01 1.501252e+01 3.476206e-01 8.148260e-01 1.699225e+00 1.730885e+00 1.963884e+00 2.442339e+00 2.519472e+00 3.128027e+00 3.152559e+00 2.826219e+00 2.668717e+00 2.347305e+00 3.341326e-01 4.360729e-02 9.164126e-02 1.930230e-01 2.254106e-01 2.864453e-01 3.390870e-01 3.508699e-01 4.353510e-01 4.695743e-01 4.314251e-01 4.122398e-01 3.379395e-01 2.958043e-02
<GCONST> 1.054763e+02
<MIXTURE> 4 1.305425e-01
<MEAN> 39
 5.488142e+00 4.236268e+00 5.297044e+00 3.793795e+00 -3.917235e+00 -6.163433e+00 -2.385949e+00 -5.533372e+00 -4.252145e+00 -2.027718e+00 -4.389970e+00 -1.604422e+00 4.188624e-02 1.693137e-01 4.911966e-01 4.204262e-01 1.843046e-01 -5.382042e-02 8.029281e-02 2.280523e-01 -8.778015e-01 -1.245148e-01 2.513207e-01 -2.567723e-01 -2.966364e-02 -4.757216e-01 -5.996494e-02 -2.249865e-01 -2.523352e-01 -2.817989e-01 -1.945994e-02 7.343598e-02 -2.584731e-02 4.598538e-01 1.214594e-01 -9.235918e-02 1.398955e-01 9.040248e-03 2.388196e-01
<VARIANCE> 39
 9.388050e+00 1.631986e+01 2.176968e+01 2.652463e+01 3.473962e+01 3.463509e+01 3.745130e+01 4.120646e+01 4.198623e+01 4.305677e+01 4.493265e+01 4.380703e+01 1.217152e+01 1.892526e-01 4.788822e-01 9.085983e-01 9.669808e-01 1.257081e+00 1.421164e+00 1.572556e+00 1.971687e+00 1.860397e+00 1.768823e+00 1.780659e+00 1.632492e+00 1.498421e-01 3.981803e-02 8.858334e-02 1.736450e-01 1.777221e-01 2.616808e-01 2.911082e-01 3.371148e-01 3.834530e-01 4.019314e-01 3.692291e-01 3.653542e-01 3.319027e-01 2.811484e-02
<GCONST> 9.329225e+01
<MIXTURE> 5 1.779838e-01
<MEAN> 39
 5.006434e+00 2.487270e+00 6.778013e-01 8.050522e-01 -3.454591e+00 -5.320080e+00 -9.559184e-01 9.404912e-01 -5.328807e+00 -7.449216e+00 -6.331381e+00 -3.676832e+00 1.728533e+00 3.961626e-02 1.775976e-01 1.088141e-01 9.502587e-02 -4.978643e-02 -3.246799e-02 1.577747e-02 -1.838488e-01 -6.031353e-02 7.300845e-02 -2.079067e-02 -1.868903e-02 -1.839593e-01 -5.909300e-03 1.093416e-02 3.397484e-02 -8.421650e-03 2.587735e-02 5.621311e-02 -4.090456e-02 -1.158994e-01 4.636302e-02 1.126169e-01 5.323237e-02 -4.186872e-03 -1.054404e-02
<VARIANCE> 39
 8.418790e+00 1.256277e+01 2.399357e+01 2.658308e+01 4.768933e+01 4.328473e+01 4.947479e+01 4.027221e+01 5.820628e+01 5.305206e+01 4.361591e+01 4.370732e+01 7.293164e+00 1.285368e-01 3.475584e-01 5.881804e-01 7.131749e-01 1.056657e+00 1.123655e+00 1.338958e+00 1.478190e+00 1.454800e+00 1.485020e+00 1.373069e+00 1.264873e+00 1.121433e-01 2.018515e-02 5.193882e-02 8.968256e-02 1.191777e-01 1.711106e-01 1.971740e-01 2.305890e-01 2.410708e-01 2.616571e-01 2.468222e-01 2.414166e-01 2.217953e-01 1.248017e-02
<GCONST> 8.388422e+01
<MIXTURE> 6 1.386303e-01
<MEAN> 39
 2.765979e+00 1.257750e+00 4.379991e+00 -2.604910e+00 -7.605528e+00 -2.527622e+00 1.479964e+00 -3.948948e+00 -3.827205e+00 1.361178e+00 -2.301772e+00 3.568850e-01 4.680841e+00 1.592143e-02 7.344384e-02 3.659124e-02 7.643923e-04 -2.009239e-02 2.716001e-02 -5.004618e-03 -9.102494e-02 -2.019672e-02 5.921169e-02 -5.070652e-02 2.936736e-03 -6.992320e-02 1.003918e-02 -1.425579e-03 -3.355695e-02 2.357055e-02 1.031374e-02 -5.838289e-02 -3.801350e-02 6.106389e-02 5.451974e-03 -6.664090e-02 4.568311e-03 4.272858e-03 -1.378237e-02
<VARIANCE> 39
 1.408020e+01 2.134849e+01 4.116753e+01 4.024486e+01 6.073238e+01 6.111944e+01 6.912011e+01 6.956375e+01 7.639652e+01 8.789296e+01 1.058233e+02 1.184020e+02 1.240918e+01 8.659875e-02 2.323983e-01 3.806105e-01 5.046875e-01 6.377164e-01 7.547826e-01 8.447007e-01 9.422674e-01 9.519584e-01 9.553990e-01 9.090702e-01 8.216425e-01 5.088802e-02 1.613177e-02 3.845888e-02 6.547880e-02 9.332012e-02 1.165612e-01 1.396824e-01 1.559198e-01 1.703010e-01 1.752552e-01 1.741010e-01 1.693344e-01 1.552446e-01 1.000000e-02
<GCONST> 8.041695e+01
<MIXTURE> 7 1.033304e-01
<MEAN> 39
 4.390074e+00 -2.349991e+00 -2.021588e-01 -1.456189e+00 -3.521005e+00 -5.302624e+00 -4.601437e+00 4.128371e+00 -1.671133e+00 -2.751748e+00 -5.754610e-01 1.160600e+00 5.514112e+00 4.267454e-01 1.362510e+00 1.078348e+00 1.027442e+00 -2.519916e-01 -9.863209e-01 -5.140103e-01 -2.071760e+00 -4.870246e-01 2.040245e-01 -5.153763e-01 -1.972223e-01 -1.581846e+00 -1.048189e-01 1.827301e-01 1.259452e-01 1.270988e-01 2.496722e-01 2.526411e-01 2.599102e-01 -5.153669e-01 -7.940555e-02 5.014254e-02 -7.839131e-02 -9.976831e-02 -1.837175e-01
<VARIANCE> 39
 1.258658e+01 2.424471e+01 4.053660e+01 3.634516e+01 5.961107e+01 5.646514e+01 6.158287e+01 5.948720e+01 7.525019e+01 6.738509e+01 6.915338e+01 8.115039e+01 1.806241e+01 8.191482e-01 1.411061e+00 2.445298e+00 2.306545e+00 4.044280e+00 3.874066e+00 4.213534e+00 4.805229e+00 5.032407e+00 4.454458e+00 3.957629e+00 3.629117e+00 7.667961e-01 1.264308e-01 1.932361e-01 3.331456e-01 3.517985e-01 5.084069e-01 5.487942e-01 6.161781e-01 7.013422e-01 6.904289e-01 6.589147e-01 5.857311e-01 5.613444e-01 9.884848e-02
<GCONST> 1.220366e+02
<MIXTURE> 8 1.240149e-01
<MEAN> 39
 5.383849e+00 2.590415e+00 4.538327e+00 2.861541e+00 -4.311388e+00 -7.126275e+00 -3.870368e+00 -3.662191e+00 -4.411349e+00 -2.939972e+00 -3.193185e+00 -7.332535e-01 1.249756e+00 4.113006e-01 1.299738e+00 1.002839e+00 9.521521e-01 3.649254e-01 -2.782595e-01 5.776419e-02 -2.320198e+00 -5.448681e-01 2.304782e-01 -7.180094e-01 -2.614672e-01 -1.505208e+00 -1.598603e-01 -2.766040e-01 -2.258702e-01 -3.724018e-01 -1.891856e-02 3.099837e-01 2.650359e-01 4.489266e-01 1.564730e-01 -4.139140e-04 1.052323e-01 2.043346e-03 3.222403e-01
<VARIANCE> 39
 9.314832e+00 2.020377e+01 2.673921e+01 2.965345e+01 3.896518e+01 3.768637e+01 4.238218e+01 4.863490e+01 5.028351e+01 5.055775e+01 5.360204e+01 5.699514e+01 1.495849e+01 6.253331e-01 1.145785e+00 2.391250e+00 2.181915e+00 3.155954e+00 3.535599e+00 3.606085e+00 4.080631e+00 4.702767e+00 4.292337e+00 3.738418e+00 3.445836e+00 3.795561e-01 7.020286e-02 1.419675e-01 2.510214e-01 2.528782e-01 3.971372e-01 4.194830e-01 4.561623e-01 5.973904e-01 5.575624e-01 5.289720e-01 4.814656e-01 4.553370e-01 7.037646e-02
<GCONST> 1.122454e+02
<STATE> 3
<NUMMIXES> 8
<MIXTURE> 1 7.805847e-02
<MEAN> 39
 6.572457e+00 3.900053e+00 5.962622e+00 2.332134e+00 -3.812153e+00 -7.162840e+00 -2.021677e+00 -7.857921e+00 -4.051348e+00 -7.761569e-01 -3.654231e+00 -1.047221e-01 -4.709579e-01 -3.015953e-02 5.485435e-02 6.327970e-02 1.370478e-02 8.670348e-02 -9.124071e-03 -9.798233e-02 1.375941e-01 9.642371e-02 -6.164076e-03 -2.436403e-03 -3.590524e-02 -2.094392e-02 -2.833277e-01 -4.232557e-01 -3.291651e-01 -3.387564e-01 -4.530684e-02 2.936913e-01 -1.001242e-01 9.108863e-01 1.712942e-01 -1.536379e-01 2.360322e-01 3.650391e-02 5.240123e-01
<VARIANCE> 39
 1.358349e+01 3.052454e+01 3.927440e+01 4.371773e+01 4.856956e+01 5.228580e+01 6.008996e+01 7.167801e+01 7.176949e+01 7.818162e+01 8.811253e+01 9.268058e+01 2.047348e+01 2.704485e-01 7.631018e-01 1.045772e+00 1.199058e+00 1.462777e+00 1.690886e+00 1.952235e+00 2.447532e+00 2.253728e+00 2.208081e+00 2.068431e+00 1.998138e+00 4.012244e-01 1.224425e-01 3.134444e-01 4.308274e-01 5.148404e-01 5.988702e-01 6.781228e-01 7.771030e-01 8.525351e-01 9.098330e-01 8.317438e-01 7.613209e-01 7.104850e-01 1.372036e-01
<GCONST> 1.162899e+02
<MIXTURE> 2 1.484760e-01
<MEAN> 39
 5.722473e+00 8.464033e+00 4.245925e+00 4.185915e+00 -2.205070e+00 -3.171421e+00 -4.011261e+00 -6.995304e+00 -5.687855e+00 -7.133342e+00 -8.683753e+00 -8.253098e+00 -5.039385e+00 -2.432938e-02 5.893154e-02 5.562944e-02 8.861655e-02 3.113507e-02 2.998768e-05 -2.813180e-02 -6.591682e-02 -3.310609e-02 -1.585778e-02 1.552142e-02 1.324293e-03 -1.256087e-01 -5.106110e-03 -9.458830e-03 2.662857e-02 -3.935527e-04 2.381792e-03 4.312062e-02 7.922853e-02 1.617881e-02 1.663282e-02 1.124576e-01 1.091947e-01 9.681692e-02 1.459728e-02
<VARIANCE> 39
 1.120343e+01 2.140806e+01 3.272533e+01 3.557991e+01 4.526335e+01 4.041692e+01 3.482627e+01 4.129863e+01 4.419722e+01 3.588715e+01 3.260575e+01 3.253555e+01 1.762277e+01 1.006740e-01 2.395706e-01 4.169548e-01 5.904542e-01 7.790716e-01 9.025147e-01 9.923491e-01 1.114729e+00 1.177287e+00 1.202072e+00 1.159230e+00 1.023915e+00 6.694277e-02 1.625886e-02 4.393878e-02 7.705516e-02 1.123940e-01 1.486710e-01 1.755495e-01 1.888825e-01 2.152191e-01 2.340027e-01 2.230449e-01 2.191579e-01 1.986613e-01 1.000000e-02
<GCONST> 7.910842e+01
<MIXTURE> 3 1.310670e-01
<MEAN> 39
 5.285986e+00 7.085268e+00 3.951933e+00 2.900122e+00 -4.186743e+00 -4.293190e+00 -1.940306e+00 -5.185783e+00 -4.792715e+00 -4.840854e+00 -5.726199e+00 -4.830570e+00 -3.194149e+00 -1.098049e-01 2.684910e-01 8.529413e-02 2.832662e-01 2.608197e-01 6.317423e-02 -9.898692e-02 -1.356657e-01 -2.268517e-02 -6.084992e-02 -1.537920e-02 -3.990375e-02 -2.907147e-01 -9.146423e-02 -4.997119e-02 4.358233e-02 2.395512e-02 1.210320e-01 9.198110e-02 5.475760e-03 -3.489982e-02 4.024539e-02 1.313821e-01 1.158944e-01 6.581411e-02 -2.164332e-03
<VARIANCE> 39
 1.566579e+01 2.155451e+01 2.876324e+01 3.252914e+01 4.363081e+01 3.863863e+01 3.928920e+01 4.248286e+01 4.158509e+01 4.331301e+01 3.703222e+01 3.605808e+01 1.820706e+01 5.111908e-01 9.168095e-01 1.259667e+00 1.534711e+00 1.939367e+00 1.954677e+00 2.038706e+00 2.289536e+00 2.230019e+00 2.283321e+00 2.067037e+00 1.885049e+00 4.799283e-01 9.456507e-02 1.352184e-01 1.726484e-01 2.326120e-01 3.070605e-01 3.147956e-01 3.297444e-01 3.486937e-01 3.607951e-01 3.473545e-01 3.356511e-01 3.029712e-01 5.339622e-02
<GCONST> 1.024473e+02
<MIXTURE> 4 1.469819e-01
<MEAN> 39
 3.873401e+00 4.816280e+00 3.221549e+00 4.342974e+00 1.709110e+00 -3.689668e-01 5.891012e-01 -3.204446e+00 -1.581813e+00 3.928609e-02 -1.461388e+00 -1.388360e+00 -5.242957e+00 -2.310115e-02 8.720231e-03 3.995894e-02 4.762800e-02 5.474045e-02 4.368035e-02 3.151947e-02 -1.397900e-02 -1.437493e-02 -9.536110e-04 5.250530e-03 7.531997e-03 -8.912139e-02 -1.999730e-02 -1.305299e-02 -7.365558e-03 -3.744368e-02 -5.643035e-02 -3.733459e-02 -2.085343e-02 7.386171e-03 -1.687748e-02 -4.300921e-02 -1.736914e-02 -5.708004e-03 1.571590e-02
<VARIANCE> 39
 8.166770e+00 1.396407e+01 1.834731e+01 1.917753e+01 2.066939e+01 2.365389e+01 2.797296e+01 2.688481e+01 2.410532e+01 2.059364e+01 1.845205e+01 2.153465e+01 1.474588e+01 1.299868e-01 2.704655e-01 4.465995e-01 6.249014e-01 8.215473e-01 1.017116e+00 1.124289e+00 1.223305e+00 1.244668e+00 1.228805e+00 1.197859e+00 1.092768e+00 7.349008e-02 2.293306e-02 4.981368e-02 8.280244e-02 1.168892e-01 1.511270e-01 1.883808e-01 2.154464e-01 2.342001e-01 2.347225e-01 2.255588e-01 2.137824e-01 2.011579e-01 1.070451e-02
<GCONST> 7.499359e+01
<MIXTURE> 5 1.859883e-01
<MEAN> 39
 5.534292e+00 5.958310e+00 5.573764e+00 2.701624e+00 -5.769524e+00 -2.917987e+00 -1.501653e-01 -4.753431e+00 -3.467508e+00 -4.809963e-01 -2.968834e+00 -1.564372e+00 -6.212778e-01 1.834910e-02 3.234394e-02 9.932527e-03 1.700450e-02 1.202824e-02 3.521293e-03 -1.125355e-02 -3.566524e-02 -1.050719e-02 1.602762e-02 -1.465391e-02 -4.580115e-03 -4.873388e-02 -6.855260e-03 2.669868e-03 -1.357093e-02 -3.997052e-03 2.190525e-02 -1.164354e-02 -2.221698e-02 -5.002128e-03 -1.780513e-03 -1.384786e-02 -8.391516e-03 -1.934137e-02 -6.564322e-03
<VARIANCE> 39
 9.679803e+00 1.734018e+01 3.044389e+01 3.225077e+01 4.514297e+01 4.419565e+01 4.658210e+01 5.732678e+01 4.600874e+01 4.910795e+01 4.891159e+01 4.454413e+01 1.125615e+01 4.488178e-02 1.374726e-01 2.242981e-01 3.145789e-01 4.255863e-01 5.088258e-01 5.922195e-01 6.586328e-01 6.693118e-01 6.684271e-01 6.518586e-01 6.065564e-01 3.150874e-02 1.000000e-02 2.487318e-02 4.155010e-02 5.992167e-02 7.965664e-02 9.572113e-02 1.112892e-01 1.263649e-01 1.283714e-01 1.259424e-01 1.266536e-01 1.152708e-01 1.000000e-02
<GCONST> 6.521601e+01
<MIXTURE> 6 1.344202e-01
<MEAN> 39
 5.010394e+00 7.757851e+00 9.986705e+00 2.110426e+00 -8.776819e+00 -1.985029e+00 8.541057e-01 -1.021635e+01 -5.021730e+00 1.920909e+00 -5.601478e+00 -3.639562e+00 -1.413085e+00 4.457031e-02 9.628247e-02 -9.462278e-03 9.110300e-02 5.833656e-02 -2.174955e-02 -2.411340e-02 -1.422673e-02 2.018824e-02 -1.813842e-02 -3.952765e-02 1.800523e-02 -1.209677e-01 -1.338133e-02 -5.396646e-02 -1.218149e-01 2.429629e-02 1.307395e-01 -8.798584e-02 -1.078818e-01 2.270096e-01 1.229328e-02 -2.000066e-01 5.139158e-02 1.971485e-02 1.646030e-02
<VARIANCE> 39
 1.407799e+01 2.214928e+01 2.568350e+01 5.078196e+01 5.114201e+01 5.385096e+01 5.103407e+01 4.941369e+01 5.553244e+01 4.714405e+01 5.892942e+01 5.063273e+01 1.566065e+01 1.376889e-01 3.577662e-01 5.480752e-01 7.480040e-01 9.587387e-01 1.146034e+00 1.288855e+00 1.413603e+00 1.364912e+00 1.469169e+00 1.417070e+00 1.297452e+00 1.297665e-01 2.828511e-02 7.039588e-02 1.045945e-01 1.566999e-01 1.921394e-01 2.328501e-01 2.579439e-01 2.764236e-01 2.865846e-01 2.696225e-01 2.832496e-01 2.549740e-01 2.268510e-02
<GCONST> 8.997098e+01
<MIXTURE> 7 6.927463e-02
<MEAN> 39
 3.771816e+00 3.267951e+00 2.149642e+00 8.607566e-01 -3.666597e+00 -4.932079e+00 -3.157770e+00 -3.940134e+00 -2.069496e+00 3.922225e-01 3.480188e-01 1.742677e+00 3.627174e-02 -7.483045e-01 4.996797e-01 -1.591986e-01 4.323816e-01 1.516662e-01 3.050601e-01 1.010620e-01 5.490895e-02 2.283534e-02 -3.435285e-01 -1.780658e-01 -5.773064e-01 -1.175522e-01 -3.723083e-01 -1.729722e-01 -1.129940e-01 -6.870991e-02 1.726514e-01 3.134612e-01 2.655400e-01 3.307831e-01 1.092015e-01 -2.544132e-02 -2.985234e-03 -5.653057e-02 1.703070e-01
<VARIANCE> 39
 2.695626e+01 3.749834e+01 5.083171e+01 4.242141e+01 5.882627e+01 5.681538e+01 5.571370e+01 6.608674e+01 6.198271e+01 7.191850e+01 8.300163e+01 8.504229e+01 3.439722e+01 2.404119e+00 3.907632e+00 3.510123e+00 4.196619e+00 4.751386e+00 4.654251e+00 4.681622e+00 6.167311e+00 4.952415e+00 4.959722e+00 4.832050e+00 5.037395e+00 3.358017e+00 3.579229e-01 3.629056e-01 4.320018e-01 4.834011e-01 6.058460e-01 6.770934e-01 6.852131e-01 7.802834e-01 6.961619e-01 7.304784e-01 6.911308e-01 6.614308e-01 2.685836e-01
<GCONST> 1.344957e+02
<MIXTURE> 8 1.057334e-01
<MEAN> 39
 4.357464e+00 3.938115e+00 1.077545e+00 -5.609617e-03 -3.699922e+00 -4.448479e+00 -2.151503e+00 -3.877554e+00 -1.630458e+00 2.415716e+00 5.165713e+00 7.055627e+00 -1.796098e+00 2.582554e-03 8.727670e-02 1.590365e-02 3.028216e-02 7.229879e-03 -7.018169e-03 -7.798086e-02 -4.722071e-02 5.119139e-02 -1.834885e-02 -1.270957e-02 -2.014696e-02 -1.309723e-01 -1.737615e-02 -1.193064e-02 3.467701e-02 1.660501e-02 1.468300e-02 3.291368e-02 2.000077e-02 1.859216e-02 1.575514e-02 -4.233673e-02 -1.803418e-01 -1.714671e-01 7.309948e-03
<VARIANCE> 39
 1.519242e+01 2.506114e+01 2.852802e+01 3.618892e+01 4.580317e+01 5.658241e+01 5.295677e+01 6.732187e+01 6.240913e+01 6.365645e+01 5.198344e+01 6.797944e+01 2.468917e+01 1.628127e-01 3.662178e-01 5.924862e-01 7.491862e-01 9.651228e-01 1.089710e+00 1.265235e+00 1.409509e+00 1.450179e+00 1.477627e+00 1.478546e+00 1.348895e+00 1.200639e-01 2.785501e-02 6.508672e-02 1.022946e-01 1.394652e-01 1.754723e-01 2.076999e-01 2.369007e-01 2.728271e-01 2.737284e-01 2.772622e-01 2.600803e-01 2.435152e-01 1.655870e-02
<GCONST> 9.053930e+01
<STATE> 4
<NUMMIXES> 8
<MIXTURE> 1 9.806126e-02
<MEAN> 39
 1.747672e+00 -4.208202e+00 2.315857e-02 -3.607412e+00 -3.041625e+00 -3.719757e+00 -8.593179e-01 3.146668e+00 1.488206e+00 3.511527e+00 4.282557e+00 5.735291e+00 7.377568e+00 -4.820518e-01 -7.199728e-01 -3.263205e-01 -3.995232e-01 5.480129e-01 7.263188e-01 4.195900e-01 5.893850e-01 7.312731e-02 -1.661707e-01 2.432432e-01 1.935179e-01 8.850684e-01 -7.272113e-03 3.397896e-01 1.149075e-01 3.182352e-01 1.791823e-01 9.054351e-02 -9.453144e-03 -4.198356e-01 -2.013780e-01 -1.604636e-01 -1.814975e-01 -1.157776e-01 -3.700999e-01
<VARIANCE> 39
 2.642481e+01 3.826967e+01 5.344201e+01 5.229248e+01 7.922673e+01 7.286905e+01 7.894748e+01 8.845893e+01 9.272486e+01 9.282468e+01 1.127960e+02 1.242074e+02 3.261213e+01 1.769698e+00 3.045763e+00 3.218048e+00 4.015080e+00 5.214931e+00 5.675254e+00 5.597506e+00 6.608186e+00 6.124304e+00 6.036331e+00 5.363934e+00 5.434001e+00 2.688739e+00 2.862534e-01 4.202945e-01 4.946419e-01 6.405357e-01 8.241361e-01 9.293954e-01 1.012550e+00 1.136665e+00 1.124654e+00 1.059928e+00 9.638479e-01 9.593940e-01 3.205355e-01
<GCONST> 1.409162e+02
<MIXTURE> 2 1.416194e-01
<MEAN> 39
 3.869549e+00 9.053311e+00 4.753299e+00 5.076015e+00 -2.002197e+00 -4.414812e+00 -3.408998e+00 -7.457850e+00 -6.023635e+00 -5.738297e+00 -6.511712e+00 -5.414942e+00 -4.146225e+00 -1.868884e+00 4.344617e-01 -2.622481e-01 8.214517e-01 1.170511e+00 8.770560e-01 6.159305e-01 3.795695e-01 3.095715e-01 9.739888e-02 4.063202e-01 -1.489117e-01 -5.652230e-01 -5.277494e-01 -4.853759e-01 -3.118570e-01 -2.720317e-01 -4.095317e-02 1.248168e-01 2.566440e-01 4.495198e-01 4.027196e-01 4.307122e-01 4.170681e-01 3.582078e-01 3.771719e-01
<VARIANCE> 39
 2.249622e+01 2.675880e+01 3.440259e+01 3.468163e+01 4.497031e+01 3.953059e+01 3.805497e+01 4.328423e+01 3.921729e+01 4.377621e+01 3.704473e+01 3.761069e+01 2.756856e+01 2.398501e+00 2.913910e+00 2.685628e+00 2.779197e+00 3.122199e+00 3.362697e+00 3.506705e+00 3.808358e+00 3.548042e+00 3.551713e+00 3.304104e+00 3.161582e+00 1.844964e+00 3.133845e-01 3.964395e-01 4.160801e-01 4.815129e-01 5.458627e-01 5.659342e-01 5.535307e-01 6.356040e-01 6.075796e-01 5.881584e-01 5.253760e-01 5.028925e-01 2.897448e-01
<GCONST> 1.229347e+02
<MIXTURE> 3 1.304817e-01
<MEAN> 39
 -5.418133e+00 6.289653e+00 9.266639e-01 4.744087e+00 1.401386e+00 -2.083165e-01 6.938192e-01 -2.468572e+00 -1.377736e+00 -1.135545e+00 -1.001745e+00 -2.259909e+00 -2.710997e+00 -2.115111e+00 -2.385666e-01 -7.499565e-01 -1.860132e-01 2.366144e-01 4.590845e-01 7.505196e-01 8.858282e-01 8.905374e-01 7.026173e-01 8.626971e-01 5.158092e-01 7.038217e-01 3.645154e-01 -1.596421e-01 1.011546e-01 -2.485543e-01 -3.499195e-01 -3.060967e-01 -1.427889e-01 -3.804171e-03 -2.625955e-02 1.908893e-02 5.689353e-03 1.796965e-01 2.507445e-01
<VARIANCE> 39
 3.966835e+01 5.142525e+01 4.800805e+01 4.118209e+01 5.007690e+01 4.305572e+01 4.253600e+01 4.400459e+01 3.985870e+01 3.767851e+01 3.537462e+01 3.673442e+01 4.491567e+01 4.455068e+00 3.620502e+00 3.265761e+00 3.099067e+00 3.464161e+00 3.690023e+00 3.483345e+00 3.567564e+00 3.434898e+00 3.400153e+00 3.247857e+00 3.128321e+00 3.061210e+00 4.901224e-01 6.037630e-01 5.352142e-01 5.444224e-01 6.123948e-01 6.043837e-01 6.143476e-01 6.440426e-01 6.104456e-01 6.088350e-01 5.592712e-01 5.650970e-01 4.837227e-01
<GCONST> 1.292054e+02
<MIXTURE> 4 1.452992e-01
<MEAN> 39
 2.829445e+00 -1.257988e+00 1.028178e+00 -1.845289e+00 -2.152458e+00 -1.950703e+00 -1.965840e+00 1.775114e-01 -1.801649e+00 -1.674948e+00 -1.238103e+00 1.537750e-01 4.602313e+00 -4.579493e-02 -5.732458e-02 -6.550270e-02 -1.158797e-01 2.286673e-02 6.723762e-02 -5.954175e-02 1.910279e-01 1.499474e-01 -3.081920e-02 7.541931e-02 2.118248e-02 -2.898448e-02 2.110660e-02 6.559535e-02 5.908330e-03 6.416812e-02 4.925992e-03 -4.678138e-02 -3.331234e-03 -5.031201e-02 9.520235e-03 4.045833e-02 -1.656979e-02 -7.524316e-03 -4.742600e-02
<VARIANCE> 39
 2.494131e+01 3.470626e+01 5.392318e+01 4.391437e+01 7.204197e+01 5.963376e+01 6.325059e+01 7.312221e+01 7.005333e+01 6.977398e+01 7.487788e+01 7.811324e+01 2.746590e+01 3.359146e-01 6.915652e-01 1.093746e+00 1.311068e+00 1.713261e+00 1.902278e+00 2.119425e+00 2.365171e+00 2.256056e+00 2.225063e+00 2.100280e+00 1.945647e+00 3.267950e-01 5.365670e-02 9.905346e-02 1.706350e-01 2.136071e-01 2.797479e-01 3.171536e-01 3.548464e-01 3.969201e-01 3.995600e-01 3.799083e-01 3.696961e-01 3.392241e-01 4.183818e-02
<GCONST> 1.070267e+02
<MIXTURE> 5 1.099620e-01
<MEAN> 39
 3.211547e+00 -4.568763e+00 -1.057479e+00 -1.668932e+00 -2.958835e+00 -2.230341e+00 -2.952455e+00 7.471461e+00 1.486334e-01 -5.808439e+00 -3.547445e+00 4.925876e-02 8.705339e+00 -3.239664e-01 -7.758902e-01 -1.213431e+00 -2.488603e-01 8.904995e-01 1.091601e+00 6.449338e-01 7.010493e-01 3.507177e-01 -4.232318e-01 -1.023122e-01 -1.117433e-01 7.135464e-01 1.457346e-01 4.947163e-01 2.982804e-01 2.915855e-01 1.831649e-01 -1.638833e-01 -2.803093e-02 -1.029391e+00 -1.864688e-01 3.390845e-01 -5.931126e-02 -1.247903e-01 -4.986199e-01
<VARIANCE> 39
 1.208147e+01 2.204638e+01 2.690601e+01 3.000472e+01 4.850915e+01 4.134227e+01 5.846156e+01 5.070655e+01 8.160702e+01 4.745532e+01 4.495950e+01 4.944412e+01 1.930730e+01 4.270436e-01 1.056858e+00 1.758126e+00 1.715986e+00 3.216408e+00 2.749974e+00 3.379849e+00 3.711380e+00 3.424896e+00 2.911518e+00 2.618211e+00 2.547069e+00 4.237260e-01 8.012582e-02 1.601348e-01 2.308197e-01 3.112128e-01 4.524081e-01 4.925197e-01 6.160523e-01 5.894149e-01 7.614173e-01 5.342457e-01 5.106864e-01 4.384061e-01 7.761998e-02
<GCONST> 1.123831e+02
<MIXTURE> 6 1.417958e-01
<MEAN> 39
 2.869848e+00 6.592143e+00 4.725001e+00 5.328324e+00 -8.927633e-02 -2.415346e+00 -2.120075e+00 -5.233257e+00 -3.905120e+00 -1.463898e+00 -1.729333e+00 -1.540488e+00 -5.035887e+00 -7.517045e-01 -7.358950e-02 -5.462886e-02 2.286920e-01 7.653524e-01 5.100416e-01 3.636072e-01 5.073490e-01 2.305418e-01 -2.124225e-02 1.470161e-01 -2.533817e-03 -4.731543e-01 -1.605295e-01 -2.207642e-01 -1.566619e-01 -1.820235e-01 -6.396305e-02 2.571210e-02 1.321882e-01 2.407423e-01 1.526188e-01 1.937531e-02 -1.477322e-02 -3.236593e-04 1.527543e-01
<VARIANCE> 39
 1.668748e+01 2.081742e+01 2.535103e+01 2.350764e+01 3.495863e+01 3.238823e+01 3.383254e+01 3.651493e+01 3.205153e+01 3.465625e+01 3.086297e+01 3.316724e+01 2.411607e+01 6.867487e-01 9.459885e-01 1.091114e+00 1.344544e+00 1.649721e+00 1.829929e+00 1.933580e+00 2.087794e+00 2.082534e+00 2.044454e+00 1.900730e+00 1.856639e+00 6.475134e-01 1.021908e-01 1.396604e-01 1.873336e-01 2.055123e-01 2.657266e-01 2.964287e-01 3.335843e-01 3.539156e-01 3.534504e-01 3.384551e-01 3.099478e-01 3.045343e-01 7.034329e-02
<GCONST> 1.006007e+02
<MIXTURE> 7 1.033655e-01
<MEAN> 39
 4.129633e+00 -2.292529e+00 4.691075e+00 -2.183998e+00 -6.137746e+00 -6.129769e+00 -4.491196e+00 4.116846e+00 -2.526049e+00 -3.191084e+00 -1.950246e+00 5.699067e-01 7.057240e+00 -8.853277e-01 -2.169121e+00 -1.215204e+00 -1.562349e+00 -1.014975e-01 1.206854e+00 3.855102e-01 3.236532e+00 5.760868e-01 -4.328981e-01 6.222134e-01 2.585311e-01 2.216573e+00 2.541474e-02 3.381596e-01 -2.069849e-01 3.039409e-01 3.166334e-01 3.032654e-01 4.304486e-01 -6.941115e-01 -5.101283e-02 6.395618e-02 -2.400188e-01 -1.610947e-01 -3.370074e-01
<VARIANCE> 39
 1.047415e+01 2.280869e+01 3.628976e+01 3.800002e+01 4.712237e+01 4.233338e+01 5.148893e+01 5.136852e+01 5.997073e+01 4.487261e+01 4.845345e+01 5.026565e+01 1.685089e+01 8.719550e-01 1.989725e+00 3.699178e+00 2.833036e+00 5.291500e+00 4.878614e+00 5.573457e+00 5.725112e+00 6.985521e+00 5.340877e+00 4.576013e+00 4.020627e+00 9.351003e-01 9.980372e-02 2.381301e-01 3.513639e-01 4.331458e-01 6.040245e-01 6.343316e-01 6.493766e-01 7.220201e-01 6.612642e-01 6.071287e-01 5.701377e-01 5.473849e-01 1.211288e-01
<GCONST> 1.229329e+02
<MIXTURE> 8 1.294151e-01
<MEAN> 39
 5.891753e+00 3.970273e+00 5.683839e+00 3.098461e+00 -4.130239e+00 -6.717148e+00 -3.005083e+00 -5.821381e+00 -3.530661e+00 -1.426477e+00 -4.475894e+00 -9.783167e-01 7.270039e-01 -5.730233e-01 -1.756305e+00 -7.073173e-01 -1.242461e+00 -1.080810e-01 2.815297e-01 -5.746639e-01 2.782511e+00 8.168963e-01 -3.977611e-01 7.026697e-01 4.060953e-01 1.797977e+00 -2.106281e-01 -5.399669e-01 -3.850660e-01 -4.385099e-01 -1.617648e-02 3.460173e-01 1.324364e-01 8.163244e-01 1.523237e-01 -1.709059e-01 1.830086e-01 9.281002e-02 5.249193e-01
<VARIANCE> 39
 1.068250e+01 2.360021e+01 3.054795e+01 3.431431e+01 3.986141e+01 4.078105e+01 4.526864e+01 4.879961e+01 5.000437e+01 5.299445e+01 5.698214e+01 5.941145e+01 1.730655e+01 6.984655e-01 1.659009e+00 3.033901e+00 2.828506e+00 3.885268e+00 4.335066e+00 4.603066e+00 4.862487e+00 5.513125e+00 4.677382e+00 4.025305e+00 3.687112e+00 8.168678e-01 9.113784e-02 2.238014e-01 3.474016e-01 3.595923e-01 5.588036e-01 5.756855e-01 6.406134e-01 7.055105e-01 7.614396e-01 6.241890e-01 5.759050e-01 5.221119e-01 1.258104e-01
<GCONST> 1.201714e+02
<TRANSP> 5
 0.000000e+00 1.000000e+00 0.000000e+00 0.000000e+00 0.000000e+00
 0.000000e+00 7.651592e-01 2.348408e-01 0.000000e+00 0.000000e+00
 0.000000e+00 0.000000e+00 8.536649e-01 1.463351e-01 0.000000e+00
 0.000000e+00 0.000000e+00 0.000000e+00 6.974475e-01 3.025525e-01
 0.000000e+00 0.000000e+00 0.000000e+00 0.000000e+00 0.000000e+00
<ENDHMM>
