~o
<STREAMINFO> 1 39
<VECSIZE> 39<NULLD><MFCC_D_A_Z_0><DIAGC>
~h "t"
<BEGINHMM>
<NUMSTATES> 5
<STATE> 2
<NUMMIXES> 8
<MIXTURE> 1 9.396955e-02
<MEAN> 39
 -2.046308e+00 -6.755760e+00 -1.821814e+00 -2.186050e+00 1.093438e+00 5.226021e-01 2.710193e+00 3.490345e+00 1.567409e+00 3.738184e+00 9.077527e+00 1.043987e+01 9.240085e+00 -2.917659e-02 1.949331e-01 9.937244e-03 -1.055763e-01 -4.304419e-01 -3.801405e-01 1.164464e-02 -3.435340e-02 1.215562e-01 2.854001e-02 -1.668228e-01 -5.734363e-02 -2.320681e-01 1.711964e-01 1.459312e-01 7.244892e-02 8.736088e-02 -1.190926e-01 -1.340219e-01 -2.285570e-01 -6.196421e-02 6.362011e-02 4.267111e-03 -2.659749e-01 -2.888605e-01 -1.665572e-01
<VARIANCE> 39
 2.145380e+01 2.780713e+01 4.229973e+01 4.478031e+01 8.676899e+01 6.557278e+01 7.257676e+01 6.889984e+01 7.815149e+01 1.069915e+02 1.052106e+02 9.899814e+01 3.273025e+01 7.127102e-01 1.067831e+00 1.349326e+00 1.825232e+00 3.238773e+00 2.997060e+00 3.358111e+00 3.122787e+00 3.161157e+00 3.481195e+00 3.347972e+00 3.420820e+00 5.695828e-01 1.027462e-01 1.780901e-01 2.275726e-01 3.204534e-01 4.209928e-01 5.081216e-01 6.145357e-01 5.786878e-01 5.298057e-01 6.000891e-01 5.629232e-01 5.588418e-01 9.361422e-02
<GCONST> 1.202080e+02
<MIXTURE> 2 1.619243e-01
<MEAN> 39
 -1.756548e+01 1.098819e+01 -3.372736e+00 5.796628e+00 3.435601e+00 9.924721e-01 6.773865e+00 2.383289e-01 2.938299e+00 3.161332e+00 3.355822e+00 5.479608e-01 1.764596e+00 -5.990325e-01 -5.845676e-02 5.269500e-01 -1.768762e-01 9.035210e-02 -1.084670e-02 6.597492e-01 4.921389e-01 7.150827e-02 2.192784e-01 4.585233e-01 2.352275e-01 5.427153e-01 1.042579e+00 -5.070754e-01 3.650597e-01 -2.410435e-01 -4.240940e-01 -4.233898e-01 -5.249714e-01 -1.962384e-01 -2.843810e-01 -3.336494e-01 -2.525673e-01 -4.325918e-02 -2.431586e-01
<VARIANCE> 39
 1.417240e+01 2.327039e+01 3.959030e+01 3.983047e+01 4.120972e+01 3.914906e+01 3.668634e+01 3.649039e+01 3.612045e+01 2.875959e+01 3.097173e+01 3.385794e+01 1.692146e+01 1.913839e+00 2.168123e+00 1.784967e+00 1.816014e+00 2.008066e+00 2.332682e+00 2.238847e+00 2.200233e+00 2.153829e+00 2.063154e+00 1.933954e+00 1.736101e+00 1.036086e+00 3.914988e-01 3.534466e-01 3.998986e-01 3.684074e-01 4.135959e-01 4.738342e-01 4.788870e-01 4.561213e-01 4.664618e-01 4.564793e-01 4.598717e-01 4.292105e-01 1.669299e-01
<GCONST> 1.126264e+02
<MIXTURE> 3 1.366473e-01
<MEAN> 39
 -6.072784e+00 5.442285e+00 1.243027e+00 5.696465e+00 3.248332e+00 1.361608e+00 2.715090e+00 -6.643860e-01 -1.410678e-01 -3.627619e-01 -1.112218e+00 -1.557693e+00 -6.922283e+00 -7.073389e-01 -7.868715e-01 -4.960578e-01 -7.884285e-01 -2.942938e-01 -2.088052e-01 1.137925e-01 2.477862e-01 3.928579e-01 5.689838e-01 5.449139e-01 4.711206e-01 8.295895e-01 2.046005e-01 -1.673060e-01 -1.275603e-01 -4.241463e-01 -6.425977e-01 -5.597950e-01 -3.364849e-01 7.274947e-02 7.687876e-02 1.060932e-01 1.792888e-01 2.453968e-01 8.637800e-01
<VARIANCE> 39
 4.030146e+01 4.169908e+01 3.950436e+01 3.450572e+01 4.039998e+01 3.779024e+01 3.775000e+01 3.872607e+01 3.668861e+01 3.382202e+01 3.183134e+01 3.275947e+01 3.962427e+01 5.463529e+00 3.102590e+00 3.423846e+00 3.175421e+00 4.077549e+00 4.603185e+00 3.903291e+00 3.449731e+00 3.592294e+00 3.289991e+00 3.206706e+00 2.861658e+00 5.985191e+00 5.313451e-01 6.111092e-01 5.071208e-01 5.315171e-01 6.092510e-01 6.237882e-01 6.500545e-01 6.960432e-01 6.883224e-01 6.139457e-01 6.146763e-01 5.834693e-01 5.602310e-01
<GCONST> 1.292546e+02
<MIXTURE> 4 1.326594e-01
<MEAN> 39
 3.045690e+00 1.530947e-01 -5.225604e-01 -1.248542e+00 -2.299327e+00 -2.092179e+00 -6.053641e-01 1.301038e+00 2.020984e-01 -2.109927e+00 -2.137101e+00 -6.137322e-01 2.860546e+00 -2.671066e-02 2.875884e-01 2.831660e-01 2.708589e-01 -6.043927e-02 -3.003154e-01 -1.797345e-01 -1.988612e-01 2.994622e-03 7.723035e-02 5.835290e-03 1.066867e-01 -3.798779e-01 2.172233e-03 6.412101e-04 5.535995e-02 9.787882e-02 3.241745e-02 1.997571e-02 -1.109205e-01 -1.274741e-01 -5.412095e-02 1.149962e-02 -5.039213e-02 -7.884964e-02 -5.392119e-02
<VARIANCE> 39
 2.023903e+01 3.011183e+01 4.185761e+01 3.931131e+01 5.821699e+01 4.959325e+01 5.345517e+01 5.920532e+01 5.861755e+01 5.158421e+01 4.657379e+01 4.331853e+01 3.357119e+01 2.808335e-01 5.605433e-01 9.204993e-01 1.121093e+00 1.592163e+00 1.560641e+00 1.990646e+00 2.047021e+00 2.041440e+00 1.914638e+00 1.793443e+00 1.605515e+00 2.822428e-01 3.948748e-02 8.097985e-02 1.297935e-01 1.784336e-01 2.474459e-01 2.642395e-01 3.169076e-01 3.402330e-01 3.365173e-01 3.205944e-01 3.040810e-01 2.702149e-01 3.480980e-02
<GCONST> 9.976543e+01
<MIXTURE> 5 1.201638e-01
<MEAN> 39
 2.350198e+00 3.833035e+00 4.528489e+00 1.958614e+00 -4.102440e+00 -4.643035e+00 -1.209044e+00 -2.889402e+00 -1.950320e+00 -2.003731e-01 1.994391e-02 3.554355e-01 -8.932392e-01 -6.942295e-01 4.706009e-01 -1.841751e-01 6.333249e-01 8.360863e-01 2.435177e-01 2.876008e-01 -8.903321e-02 1.663773e-01 -2.291943e-01 -1.264391e-02 -1.600145e-01 -1.366972e+00 -1.429370e-01 -3.399602e-01 -2.617827e-01 -2.449764e-01 -9.396934e-02 1.698800e-01 1.149565e-01 3.390395e-01 1.089992e-01 6.179138e-02 -1.420482e-01 -5.962640e-02 2.303590e-01
<VARIANCE> 39
 1.657292e+01 2.773382e+01 3.876246e+01 3.679579e+01 5.327020e+01 4.367417e+01 4.650599e+01 5.414886e+01 5.129251e+01 5.288560e+01 5.626455e+01 5.296291e+01 2.814460e+01 1.350608e+00 1.945760e+00 2.275960e+00 2.678934e+00 3.260191e+00 3.262784e+00 3.339417e+00 4.020699e+00 3.538616e+00 3.612113e+00 3.361541e+00 3.112807e+00 2.118447e+00 1.763245e-01 2.801995e-01 3.130697e-01 4.436539e-01 5.908425e-01 5.384155e-01 6.187795e-01 6.897650e-01 6.431172e-01 6.725445e-01 6.136329e-01 5.392421e-01 2.068604e-01
<GCONST> 1.227807e+02
<MIXTURE> 6 1.310708e-01
<MEAN> 39
 -1.327468e+01 2.490729e+00 -1.798081e+00 -4.253451e-01 1.208798e+00 -1.882376e-01 2.835691e+00 1.172113e+00 1.446728e+00 3.254220e+00 3.376857e+00 2.167317e+00 3.630660e+00 -5.631638e-01 4.063885e-01 2.318924e-01 -4.033310e-01 -7.867756e-01 -8.998423e-01 2.579516e-02 3.698313e-01 -1.891878e-02 -5.076051e-02 4.255466e-01 5.262837e-01 2.354012e+00 1.125680e+00 1.857119e-01 5.567010e-01 4.120381e-01 -1.830596e-01 -2.835891e-01 -3.173203e-01 -1.685363e-01 -2.356541e-01 -4.486628e-01 -4.300874e-01 -2.387697e-01 -6.594502e-01
<VARIANCE> 39
 2.913908e+01 4.228473e+01 4.871461e+01 4.094931e+01 4.558812e+01 5.201374e+01 4.561528e+01 4.546127e+01 4.386615e+01 3.408686e+01 3.292318e+01 3.550727e+01 2.638490e+01 6.584624e+00 3.728672e+00 3.671080e+00 3.463094e+00 3.652992e+00 4.367262e+00 4.139369e+00 3.867344e+00 3.535396e+00 3.431245e+00 3.367966e+00 2.994579e+00 4.585008e+00 6.602306e-01 7.607678e-01 7.524213e-01 7.326466e-01 8.552852e-01 9.741326e-01 8.604912e-01 8.432528e-01 8.545796e-01 7.664095e-01 7.280701e-01 7.008265e-01 5.734360e-01
<GCONST> 1.336234e+02
<MIXTURE> 7 1.028693e-01
<MEAN> 39
 -9.256667e+00 6.404800e+00 -4.248413e+00 2.669206e+00 -2.109537e+00 -3.104464e+00 8.046055e-01 -1.794491e+00 1.645984e+00 1.719028e+00 2.165820e+00 7.496604e-01 -8.543721e-01 -1.809529e+00 8.216954e-01 -5.054530e-01 2.803725e-01 2.476633e-01 3.991283e-01 6.536549e-01 2.536806e-01 3.781282e-01 4.333570e-01 4.507868e-01 1.499146e-01 5.753316e-01 3.336430e-01 -1.163340e-01 4.746628e-01 1.273896e-01 2.403188e-01 1.901168e-01 1.186817e-01 1.786759e-01 -1.301627e-01 -1.541786e-01 -1.658405e-01 -8.718411e-02 -4.167750e-02
<VARIANCE> 39
 2.773721e+01 3.953946e+01 3.283771e+01 3.387042e+01 3.836613e+01 3.683006e+01 3.479766e+01 3.691064e+01 3.497510e+01 3.537000e+01 3.538616e+01 3.936864e+01 3.155048e+01 3.232297e+00 2.794135e+00 2.352759e+00 2.367339e+00 2.407132e+00 2.661932e+00 2.665274e+00 2.657624e+00 2.647673e+00 2.617934e+00 2.602141e+00 2.563657e+00 2.092649e+00 3.306827e-01 4.545763e-01 3.565393e-01 3.852804e-01 3.748212e-01 4.176970e-01 4.447282e-01 4.966083e-01 4.768168e-01 4.744315e-01 4.584893e-01 4.394154e-01 3.989522e-01
<GCONST> 1.189680e+02
<MIXTURE> 8 1.206955e-01
<MEAN> 39
 3.024134e+00 -3.930042e+00 -1.026528e+00 -3.757559e+00 -4.723998e+00 -3.720604e+00 4.174203e-02 4.342361e+00 1.614116e+00 -1.496983e+00 -1.588192e+00 8.581427e-01 7.704015e+00 4.546037e-01 1.209702e+00 8.177906e-01 8.728865e-01 -5.585451e-01 -1.099191e+00 -1.242734e+00 -1.214996e+00 -2.593864e-01 2.957978e-02 -1.854404e-01 -1.872126e-01 -1.491154e+00 -3.247331e-02 2.384457e-01 1.271475e-01 4.080331e-01 4.266312e-01 2.660336e-01 -7.356570e-02 -4.259409e-01 -2.914640e-01 -1.562563e-01 -1.581303e-01 -2.155887e-01 -4.336882e-01
<VARIANCE> 39
 1.613277e+01 2.440854e+01 4.380666e+01 3.593093e+01 6.253167e+01 6.174722e+01 7.032156e+01 5.995144e+01 6.786408e+01 6.113876e+01 5.887333e+01 6.388969e+01 1.907469e+01 7.211350e-01 1.470838e+00 1.877008e+00 2.404285e+00 3.721993e+00 3.311510e+00 4.003596e+00 4.231299e+00 4.261284e+00 3.607112e+00 3.230972e+00 3.047873e+00 1.001176e+00 1.422893e-01 2.299930e-01 3.081442e-01 3.532806e-01 5.155447e-01 5.924932e-01 7.313608e-01 7.143269e-01 6.710884e-01 6.863234e-01 5.948108e-01 5.599967e-01 1.399051e-01
<GCONST> 1.217455e+02
<STATE> 3
<NUMMIXES> 8
<MIXTURE> 1 1.146887e-01
<MEAN> 39
 -8.679511e-01 -2.706251e+00 -2.379821e-01 -1.524104e+00 -2.452093e+00 -3.085345e+00 1.269302e+00 2.229461e+00 2.891168e+00 2.871647e+00 3.571365e+00 4.261847e+00 5.141475e+00 1.455632e-01 1.139045e-01 -1.393494e-02 2.536586e-01 -5.468767e-03 -6.212664e-03 -2.647489e-01 -1.235560e-01 -1.244495e-01 -2.326678e-01 -4.616947e-01 -3.896011e-01 -2.574473e-01 -5.594366e-02 1.944847e-01 -3.262218e-03 1.885671e-01 2.054623e-01 2.702082e-01 -2.108820e-02 -1.480739e-01 -1.978501e-01 -1.077150e-01 -1.404017e-01 -2.009304e-01 -1.974840e-01
<VARIANCE> 39
 3.648528e+01 4.341381e+01 5.691822e+01 5.286699e+01 7.756538e+01 7.443741e+01 7.788779e+01 8.003952e+01 7.979547e+01 9.070998e+01 9.437899e+01 9.604505e+01 6.638369e+01 3.242285e+00 4.144971e+00 3.576007e+00 4.684894e+00 5.348295e+00 5.436141e+00 6.151954e+00 6.336616e+00 5.788362e+00 5.651807e+00 5.449471e+00 5.744933e+00 5.079020e+00 3.918015e-01 5.183409e-01 5.631050e-01 6.892424e-01 8.167417e-01 9.571936e-01 1.028378e+00 1.053974e+00 9.866350e-01 1.010445e+00 9.370824e-01 9.722485e-01 5.817553e-01
<GCONST> 1.443103e+02
<MIXTURE> 2 1.453716e-01
<MEAN> 39
 -4.407060e+00 5.845829e+00 6.052641e-01 4.646978e+00 -3.827659e-01 -1.804251e+00 3.655881e-02 -3.106195e+00 -1.784713e+00 -1.272064e+00 -9.396437e-01 -1.376235e+00 -3.912925e+00 -4.349044e-01 -1.838502e-01 -1.774374e-01 1.884162e-01 3.283619e-01 3.833379e-01 2.310263e-01 1.936395e-01 1.632755e-01 9.845160e-02 -7.431696e-02 -1.486521e-01 -5.540702e-01 1.388115e-01 -1.559123e-01 -1.318110e-02 -1.469966e-01 -9.775414e-02 3.252237e-02 7.132807e-02 2.169338e-01 1.612591e-01 1.080105e-01 3.930467e-02 4.258712e-02 2.007146e-01
<VARIANCE> 39
 4.593517e+01 3.668972e+01 3.712630e+01 3.132474e+01 4.151043e+01 3.430991e+01 3.314909e+01 2.946305e+01 3.045205e+01 3.030528e+01 2.856618e+01 3.179878e+01 3.218073e+01 1.772061e+00 1.258614e+00 1.509495e+00 1.595133e+00 2.007963e+00 2.003447e+00 2.057426e+00 2.196062e+00 2.202136e+00 2.257252e+00 2.114060e+00 1.943426e+00 9.813870e-01 1.519635e-01 1.959828e-01 2.309526e-01 2.587767e-01 3.421760e-01 3.313726e-01 3.597248e-01 3.453765e-01 3.696615e-01 3.609527e-01 3.446665e-01 3.372471e-01 1.202548e-01
<GCONST> 1.081224e+02
<MIXTURE> 3 1.177334e-01
<MEAN> 39
 -1.441538e+01 4.800162e+00 8.747320e-01 3.175793e+00 1.729426e+00 -4.655519e-01 5.686406e+00 2.342910e+00 1.156768e+00 2.097881e+00 3.230575e+00 1.865980e+00 2.586520e+00 3.339802e+00 3.654564e-01 1.701906e+00 2.982828e-01 -1.263513e+00 -1.868933e+00 -1.838453e+00 -1.187871e+00 -1.393976e+00 -1.721732e+00 -1.439692e+00 -6.340076e-01 5.761971e-01 1.137568e+00 -4.705726e-03 -1.587588e-02 -1.502339e-01 -5.419268e-01 -4.720262e-01 -7.361952e-01 -4.180844e-01 -2.126754e-01 -3.432461e-01 -4.547758e-01 -2.275332e-01 1.844915e-01
<VARIANCE> 39
 2.267714e+01 3.355429e+01 3.882444e+01 2.985827e+01 4.017272e+01 3.883204e+01 3.959405e+01 3.937952e+01 3.787169e+01 3.294172e+01 3.159353e+01 3.314769e+01 2.108268e+01 2.368978e+00 2.143818e+00 2.453040e+00 2.881114e+00 3.368543e+00 3.315051e+00 3.112011e+00 3.062457e+00 3.143603e+00 2.920447e+00 2.690240e+00 2.544508e+00 9.110245e-01 3.906943e-01 4.631825e-01 4.304469e-01 4.409738e-01 5.292519e-01 5.580849e-01 5.606602e-01 5.940514e-01 6.235276e-01 6.107196e-01 5.730608e-01 5.127677e-01 1.767954e-01
<GCONST> 1.198854e+02
<MIXTURE> 4 1.508818e-01
<MEAN> 39
 4.399174e+00 8.658632e-01 1.737495e+00 4.982233e-01 -4.403721e+00 -5.759510e+00 -3.567440e+00 -5.565562e-01 -3.483037e-01 -2.471660e+00 -2.977941e+00 -4.203049e-01 2.124017e+00 2.474892e-02 1.025469e+00 6.673809e-01 1.170135e+00 5.329273e-01 1.721266e-02 -5.065923e-01 -1.130782e+00 -6.447254e-01 -4.156324e-01 -6.242412e-01 -6.786615e-01 -1.627607e+00 -2.132253e-01 -1.961564e-01 -1.629328e-01 -1.375200e-01 2.198695e-01 4.434310e-01 4.047855e-01 2.276672e-01 -1.442168e-02 5.935739e-02 6.031431e-02 -6.835324e-02 8.481589e-02
<VARIANCE> 39
 1.185339e+01 2.588230e+01 3.632261e+01 3.247916e+01 4.927929e+01 4.383370e+01 4.588572e+01 5.221730e+01 5.508033e+01 5.063489e+01 4.786644e+01 4.973268e+01 2.120978e+01 8.660286e-01 1.490177e+00 2.016612e+00 2.250438e+00 3.405723e+00 3.294039e+00 3.765115e+00 3.857123e+00 3.793113e+00 3.657826e+00 3.292534e+00 3.208002e+00 1.303906e+00 1.047226e-01 1.904408e-01 2.476359e-01 3.163347e-01 4.287748e-01 4.487891e-01 5.102299e-01 5.909466e-01 5.563363e-01 5.183691e-01 4.664741e-01 4.453532e-01 1.389777e-01
<GCONST> 1.167156e+02
<MIXTURE> 5 1.356986e-01
<MEAN> 39
 -2.695693e+00 7.992534e+00 4.664079e+00 3.145959e+00 -4.219703e+00 -8.407036e+00 -2.538609e+00 -3.567165e+00 -3.762789e+00 -3.311156e+00 -1.844616e+00 -1.479246e-01 5.239167e+00 4.058761e+00 -7.743576e-01 8.008832e-01 -6.775786e-01 -2.348109e+00 -1.992585e+00 -2.005567e+00 -5.633000e-01 -5.606417e-01 -1.202983e+00 -1.294588e+00 -5.038543e-01 1.337615e+00 -4.806303e-01 -6.437443e-01 -5.758222e-01 -2.495538e-01 2.381629e-01 7.441962e-01 5.238347e-01 5.856304e-01 5.784550e-01 5.087585e-01 3.088374e-01 5.991106e-02 -1.267108e-01
<VARIANCE> 39
 2.147504e+01 2.474230e+01 3.458288e+01 2.736830e+01 5.013546e+01 3.789037e+01 3.939794e+01 4.117776e+01 3.666848e+01 3.267606e+01 3.190920e+01 3.460969e+01 2.174716e+01 1.932955e+00 3.342906e+00 3.553213e+00 3.790226e+00 3.952698e+00 4.078381e+00 4.191381e+00 4.698593e+00 5.013258e+00 4.259424e+00 4.088249e+00 3.775500e+00 1.018363e+00 3.644702e-01 2.847545e-01 2.992977e-01 3.783347e-01 5.850023e-01 5.753324e-01 5.478772e-01 5.946153e-01 5.373133e-01 5.207855e-01 5.251159e-01 4.795302e-01 1.660558e-01
<GCONST> 1.218618e+02
<MIXTURE> 6 1.417611e-01
<MEAN> 39
 -1.487203e+01 3.808075e+00 1.022003e+00 2.004674e+00 1.770903e+00 1.399821e+00 4.436173e+00 3.553507e+00 2.701017e+00 2.894590e+00 3.538365e+00 1.434143e+00 1.553441e+00 3.766104e-01 -6.519008e-01 1.844879e-01 1.596208e-01 -2.502040e-01 -7.507002e-02 -4.637126e-02 1.331420e-02 1.295971e-02 -1.061524e-01 -8.061657e-02 -4.267091e-02 -3.066136e-01 4.933046e-01 9.651966e-02 4.342077e-02 9.921606e-02 -3.505275e-02 -1.530802e-01 -2.680934e-01 -3.298886e-01 -2.592159e-01 -2.286417e-01 -2.370348e-01 -1.229665e-01 -1.094176e-01
<VARIANCE> 39
 4.364755e+01 4.070738e+01 4.436596e+01 3.631490e+01 4.515722e+01 4.465749e+01 3.882399e+01 3.464394e+01 3.412366e+01 3.235678e+01 2.927975e+01 3.068432e+01 3.063993e+01 1.458450e+00 1.143768e+00 1.327994e+00 1.440076e+00 1.820853e+00 1.968784e+00 2.041958e+00 2.014668e+00 2.035087e+00 1.976540e+00 1.803159e+00 1.613385e+00 8.971906e-01 2.069650e-01 2.268085e-01 2.412272e-01 2.615385e-01 3.323435e-01 3.817517e-01 3.754385e-01 3.689470e-01 3.837956e-01 3.899519e-01 3.615695e-01 3.386286e-01 1.090714e-01
<GCONST> 1.087113e+02
<MIXTURE> 7 8.616810e-02
<MEAN> 39
 -9.433593e+00 9.455796e+00 -1.233902e+00 5.176665e+00 -1.932961e+00 -2.921409e+00 3.078639e+00 -2.128548e+00 1.787036e+00 1.639087e+00 3.387922e+00 3.938746e-01 1.949593e+00 3.498502e+00 -1.055746e+00 1.012704e+00 -2.038603e+00 -2.513641e+00 -2.928607e+00 -1.876582e+00 3.635119e-01 -3.135639e-01 -2.907727e-01 5.170970e-01 1.619149e+00 2.185997e+00 6.140013e-01 -8.389654e-01 7.116328e-02 -4.522797e-01 -1.213229e-01 1.004873e-01 -2.167957e-01 4.231308e-01 -4.321631e-02 -6.676479e-02 -1.853119e-01 2.402853e-01 3.029894e-02
<VARIANCE> 39
 2.914559e+01 3.182949e+01 3.377291e+01 3.171719e+01 4.636102e+01 4.539263e+01 4.001207e+01 3.881276e+01 3.495178e+01 3.371320e+01 3.693519e+01 4.059557e+01 2.154525e+01 2.801969e+00 3.385164e+00 3.788059e+00 3.512985e+00 4.356154e+00 4.370665e+00 4.861317e+00 5.294730e+00 5.719890e+00 5.868788e+00 7.121516e+00 6.728638e+00 3.089265e+00 4.637186e-01 4.925289e-01 5.086722e-01 5.073544e-01 7.558460e-01 7.921537e-01 7.496923e-01 6.982086e-01 7.432152e-01 7.106299e-01 8.723053e-01 9.552596e-01 3.705808e-01
<GCONST> 1.316797e+02
<MIXTURE> 8 1.076967e-01
<MEAN> 39
 -2.683070e+00 -2.762472e+00 -7.427926e-01 -2.126325e-01 1.326006e+00 -9.948799e-02 1.775115e+00 2.267563e+00 1.813951e+00 2.178269e+00 4.957981e+00 5.456069e+00 7.293543e+00 4.310330e-02 2.840950e-02 4.628767e-02 8.559364e-02 -2.080381e-02 -1.596602e-02 -9.058841e-02 -4.633000e-02 3.868607e-02 5.341646e-02 -8.158022e-02 -9.863175e-02 -9.988230e-02 3.781973e-02 -1.738850e-02 -3.290714e-02 -3.369396e-02 -6.296511e-02 5.935758e-03 -3.570020e-02 -3.077613e-03 -3.145647e-02 -3.056783e-02 -3.791732e-02 -6.498536e-02 -2.785037e-02
<VARIANCE> 39
 5.357190e+01 4.303090e+01 4.818457e+01 4.651896e+01 7.967491e+01 6.072206e+01 7.173640e+01 6.579147e+01 7.295521e+01 9.254108e+01 1.104315e+02 1.017308e+02 4.884112e+01 2.001068e-01 3.955583e-01 6.283497e-01 7.948774e-01 1.117040e+00 1.177719e+00 1.402436e+00 1.519884e+00 1.501330e+00 1.572626e+00 1.611522e+00 1.423921e+00 1.042452e-01 3.585026e-02 6.888846e-02 1.093574e-01 1.502477e-01 1.949909e-01 2.301191e-01 2.618503e-01 2.814651e-01 2.741485e-01 2.915822e-01 2.968861e-01 2.570673e-01 1.610055e-02
<GCONST> 9.828859e+01
<STATE> 4
<NUMMIXES> 8
<MIXTURE> 1 1.186719e-01
<MEAN> 39
 -1.625945e+00 -6.476182e+00 -1.068884e+00 -1.578940e+00 5.920547e-01 -1.377680e+00 2.548731e+00 5.280840e+00 8.567860e-01 2.238468e+00 5.915933e+00 8.843097e+00 1.017352e+01 1.099069e-01 -2.640631e-01 -2.331221e-01 -6.657198e-02 3.182604e-01 3.436147e-01 -1.007312e-01 -5.960064e-02 -1.184841e-01 -2.625780e-02 -1.489622e-01 -1.652847e-01 -4.402228e-02 3.753971e-02 1.545571e-01 -7.917245e-03 -1.188916e-02 -1.026672e-01 -8.341092e-02 -1.876099e-01 -1.711812e-01 7.594034e-02 5.704112e-02 8.890687e-03 -9.564456e-02 -1.393529e-01
<VARIANCE> 39
 1.997727e+01 2.378758e+01 4.210453e+01 3.976728e+01 8.316759e+01 6.320670e+01 6.933990e+01 5.921834e+01 7.316534e+01 1.009789e+02 1.201939e+02 1.076611e+02 2.337483e+01 5.305168e-01 1.077124e+00 1.339345e+00 1.554298e+00 2.617167e+00 2.435468e+00 2.970325e+00 2.783499e+00 2.818196e+00 2.975131e+00 2.883926e+00 2.674886e+00 3.654514e-01 8.129908e-02 1.630825e-01 2.164899e-01 2.682594e-01 3.407367e-01 3.833231e-01 4.529805e-01 4.657366e-01 4.731732e-01 4.844270e-01 4.731089e-01 4.721246e-01 5.640360e-02
<GCONST> 1.143722e+02
<MIXTURE> 2 1.319158e-01
<MEAN> 39
 1.836606e+00 5.777009e+00 3.482812e+00 4.523122e+00 -1.647039e+00 -4.120520e+00 -1.991098e+00 -4.087517e+00 -3.798147e+00 -4.700325e+00 -5.182402e+00 -3.973206e+00 -2.983728e+00 -6.842200e-01 6.387190e-01 1.893959e-02 8.556648e-01 9.969413e-01 9.375903e-01 3.827720e-01 -3.072460e-01 -1.781018e-01 -1.081534e-01 -1.484709e-01 -5.554284e-01 -1.499334e+00 -3.140674e-01 -4.957499e-01 -3.425020e-01 -4.575084e-01 -1.225658e-01 1.612189e-01 3.085991e-01 4.983043e-01 4.151765e-01 4.873883e-01 4.925481e-01 4.172703e-01 4.167449e-01
<VARIANCE> 39
 2.736543e+01 3.243175e+01 3.788178e+01 3.113070e+01 4.820855e+01 4.135021e+01 4.183473e+01 4.431902e+01 3.970365e+01 4.278923e+01 3.871875e+01 4.102999e+01 2.985589e+01 2.723332e+00 2.560873e+00 2.488890e+00 2.694753e+00 3.316485e+00 3.371884e+00 3.617158e+00 3.948695e+00 3.572215e+00 3.519043e+00 3.284275e+00 3.220057e+00 2.367480e+00 2.670394e-01 3.339130e-01 3.681548e-01 4.210482e-01 5.576427e-01 5.757818e-01 6.228723e-01 6.134829e-01 6.060240e-01 5.929662e-01 5.432848e-01 5.132521e-01 2.724285e-01
<GCONST> 1.235558e+02
<MIXTURE> 3 1.547324e-01
<MEAN> 39
 -7.578333e+00 3.995890e+00 -1.156838e+00 4.130262e+00 1.928111e+00 7.380369e-01 3.016186e+00 1.086609e+00 1.622691e+00 1.294380e+00 6.316146e-01 -2.955752e-01 -5.110827e+00 -3.162146e-01 -2.029768e-01 -2.046635e-01 9.558175e-02 2.421165e-01 4.435798e-01 2.332630e-01 3.792138e-02 6.872505e-02 9.899659e-02 1.187303e-01 4.938405e-02 -2.853157e-01 1.604228e-01 3.450935e-02 1.027657e-01 -1.049360e-01 -1.679059e-01 -2.263024e-01 -1.542771e-01 -1.330789e-01 -1.235181e-01 -9.317114e-02 1.479387e-02 7.128141e-02 3.817046e-01
<VARIANCE> 39
 5.286254e+01 4.721014e+01 3.933776e+01 3.745260e+01 4.436766e+01 3.764136e+01 3.658328e+01 3.709763e+01 3.399635e+01 3.249240e+01 3.267739e+01 3.529956e+01 4.515670e+01 3.464714e+00 2.339528e+00 2.231448e+00 2.174886e+00 2.474239e+00 2.619909e+00 2.709358e+00 2.683128e+00 2.640571e+00 2.584307e+00 2.393167e+00 2.151964e+00 2.657192e+00 4.333866e-01 4.140205e-01 3.667297e-01 3.958167e-01 4.846480e-01 4.830775e-01 5.008367e-01 4.948258e-01 4.839435e-01 4.800552e-01 4.509455e-01 4.218171e-01 3.781602e-01
<GCONST> 1.207717e+02
<MIXTURE> 4 1.064094e-01
<MEAN> 39
 3.440661e+00 -2.929829e-01 -1.942571e+00 -1.806702e+00 -4.473678e+00 -6.958341e+00 -2.993407e+00 3.093949e+00 1.969797e+00 -4.126281e+00 -5.062393e+00 -1.434694e+00 8.653004e+00 1.723269e+00 -2.290031e+00 -8.501390e-01 -1.318561e+00 1.224777e-01 8.074951e-01 1.472552e-01 1.370227e+00 6.166908e-01 -3.901531e-01 -8.242416e-01 -6.739523e-01 1.301682e+00 -1.005685e+00 1.056990e-01 -5.240530e-02 3.470963e-01 6.625880e-01 8.201810e-01 6.106491e-01 -1.348767e-01 -7.058926e-02 4.127913e-01 5.693604e-01 1.291651e-01 -4.576282e-01
<VARIANCE> 39
 1.268315e+01 2.700808e+01 2.855559e+01 3.091389e+01 4.460686e+01 4.613711e+01 6.198856e+01 5.034583e+01 5.575888e+01 4.990894e+01 3.496222e+01 3.723252e+01 2.166933e+01 2.613588e+00 2.341117e+00 2.563309e+00 2.768875e+00 4.582093e+00 4.673288e+00 5.439755e+00 5.067764e+00 5.180032e+00 4.129233e+00 3.823722e+00 3.650240e+00 1.026637e+00 2.914287e-01 4.435494e-01 3.839572e-01 5.238035e-01 5.751147e-01 7.054918e-01 8.436612e-01 8.583106e-01 8.154193e-01 7.132367e-01 5.588547e-01 5.572216e-01 1.994306e-01
<GCONST> 1.258320e+02
<MIXTURE> 5 1.176907e-01
<MEAN> 39
 1.164952e+00 3.627093e+00 6.421916e+00 9.527121e-01 -9.549574e+00 -8.266033e+00 -1.660472e+00 -1.919697e+00 -3.593871e+00 -2.242880e+00 -1.214050e+00 -7.724670e-02 6.041480e+00 1.081448e+00 -1.288244e+00 1.028385e-01 -6.200196e-01 -8.684200e-01 3.166097e-01 -2.619477e-02 7.243183e-01 3.256415e-01 2.321601e-01 -1.871458e-01 -1.506252e-01 4.382411e-01 -6.840191e-01 1.188279e-01 -3.376962e-01 1.043468e-01 7.791734e-01 5.306636e-01 3.189932e-01 1.661797e-01 2.255992e-01 2.415115e-01 1.388853e-01 -2.447654e-02 -2.991507e-01
<VARIANCE> 39
 1.216723e+01 2.292992e+01 3.314782e+01 3.567501e+01 3.827729e+01 3.603487e+01 4.003672e+01 4.096689e+01 4.254260e+01 4.014635e+01 3.786100e+01 4.318198e+01 1.807938e+01 1.016858e+00 1.441705e+00 1.742940e+00 1.828697e+00 2.886789e+00 2.693654e+00 2.777819e+00 2.907236e+00 2.799041e+00 2.495411e+00 2.832104e+00 2.390322e+00 4.620947e-01 2.348085e-01 2.719727e-01 2.562183e-01 3.373729e-01 3.727935e-01 4.529417e-01 4.586150e-01 4.925813e-01 4.790306e-01 4.508873e-01 4.236830e-01 4.152879e-01 7.528070e-02
<GCONST> 1.111964e+02
<MIXTURE> 6 1.703412e-01
<MEAN> 39
 2.058338e+00 2.434722e+00 2.082378e+00 1.332114e+00 -2.599526e+00 -3.032022e+00 -1.505238e+00 -1.786775e+00 -1.259498e+00 -1.601426e+00 -2.623797e+00 -2.084028e+00 -3.653491e-01 3.412455e-02 1.639045e-03 -6.142177e-02 6.333875e-02 1.363945e-01 2.148457e-01 -9.587978e-03 -2.222522e-02 -1.353627e-02 -2.565903e-02 -1.405997e-01 -1.545541e-01 -2.912553e-01 -2.517686e-02 -9.187163e-03 -1.802963e-02 -2.949767e-02 4.395736e-02 4.989149e-02 4.878372e-02 5.990838e-02 1.593339e-02 3.124771e-02 1.170590e-01 9.969404e-02 5.333585e-02
<VARIANCE> 39
 2.588630e+01 2.732049e+01 4.434914e+01 3.822055e+01 5.554130e+01 4.764366e+01 4.790047e+01 5.017801e+01 4.881488e+01 4.911750e+01 4.571013e+01 4.400901e+01 3.305248e+01 2.910880e-01 4.992439e-01 7.136469e-01 9.571570e-01 1.206550e+00 1.384582e+00 1.552493e+00 1.704778e+00 1.680195e+00 1.679194e+00 1.572031e+00 1.507422e+00 2.772531e-01 4.245641e-02 7.565542e-02 1.229227e-01 1.681794e-01 2.140273e-01 2.539859e-01 2.781254e-01 3.116585e-01 3.111214e-01 3.266280e-01 2.998313e-01 2.682141e-01 3.134194e-02
<GCONST> 9.677312e+01
<MIXTURE> 7 7.818512e-02
<MEAN> 39
 -1.679391e-01 1.594724e+00 9.599202e-01 -2.446631e+00 -9.222610e+00 -9.787840e+00 -2.239159e+00 1.341353e+00 1.576794e+00 3.214586e+00 8.160952e+00 9.802547e+00 7.986416e+00 2.084996e+00 -2.718827e+00 6.367871e-01 -1.890808e+00 -6.337215e-01 -4.802042e-01 -4.614343e-01 1.342252e+00 -2.988348e-01 2.803620e-01 3.977319e-01 1.795109e+00 1.570381e+00 -8.081008e-01 5.223786e-02 -2.355101e-01 4.618688e-01 1.010915e+00 1.160709e+00 6.677765e-01 4.408716e-03 -7.994644e-02 -1.707113e-01 -7.140368e-01 -8.893349e-01 -5.286654e-01
<VARIANCE> 39
 1.434429e+01 3.214304e+01 4.278030e+01 3.526311e+01 4.502431e+01 4.271359e+01 4.669333e+01 5.260334e+01 6.096407e+01 6.938270e+01 6.398933e+01 6.151300e+01 1.991150e+01 2.913850e+00 2.795220e+00 3.719167e+00 3.785393e+00 6.329288e+00 6.150702e+00 5.923176e+00 5.532786e+00 6.205081e+00 6.207999e+00 7.207856e+00 7.478781e+00 1.643849e+00 2.765613e-01 5.139846e-01 4.728025e-01 5.075227e-01 6.343443e-01 7.053735e-01 6.655341e-01 8.089998e-01 8.347619e-01 8.490292e-01 7.186502e-01 7.389950e-01 2.549510e-01
<GCONST> 1.330005e+02
<MIXTURE> 8 1.220535e-01
<MEAN> 39
 4.661320e+00 -2.669682e+00 1.324825e+00 -1.748510e+00 -4.377575e+00 -3.745932e+00 -5.446738e+00 1.851043e-01 1.417673e+00 6.240662e-01 -1.561343e+00 5.817919e-01 4.519060e+00 2.150565e-01 1.196134e-01 -1.104337e-01 -9.153769e-02 1.492954e-03 3.155774e-01 -2.456614e-01 -2.028117e-01 -1.890131e-01 2.536953e-01 -3.763258e-02 -2.379477e-01 -3.697334e-01 -2.564767e-01 1.533369e-01 -1.265728e-01 2.509476e-02 2.090540e-01 1.776574e-01 4.827592e-01 9.676522e-02 -1.100584e-01 -1.228405e-01 1.126405e-01 1.822852e-02 7.308707e-02
<VARIANCE> 39
 2.215786e+01 3.050160e+01 5.982933e+01 5.578429e+01 7.387019e+01 6.433625e+01 6.834496e+01 8.498952e+01 8.855329e+01 8.381480e+01 8.390881e+01 8.088698e+01 2.864823e+01 8.677766e-01 1.651030e+00 2.421699e+00 2.678169e+00 3.379570e+00 3.793953e+00 4.221554e+00 4.944337e+00 4.526642e+00 4.197120e+00 3.865265e+00 3.562687e+00 1.565572e+00 1.585742e-01 3.180553e-01 4.200576e-01 5.845931e-01 6.413189e-01 6.949473e-01 7.740909e-01 1.027257e+00 9.150465e-01 8.230472e-01 7.705728e-01 7.260889e-01 2.673821e-01
<GCONST> 1.307518e+02
<TRANSP> 5
 0.000000e+00 1.000000e+00 0.000000e+00 0.000000e+00 0.000000e+00
 0.000000e+00 5.468485e-01 4.531515e-01 0.000000e+00 0.000000e+00
 0.000000e+00 0.000000e+00 5.407466e-01 4.592534e-01 0.000000e+00
 0.000000e+00 0.000000e+00 0.000000e+00 5.186903e-01 4.813097e-01
 0.000000e+00 0.000000e+00 0.000000e+00 0.000000e+00 0.000000e+00
<ENDHMM>
