~o
<STREAMINFO> 1 39
<VECSIZE> 39<NULLD><MFCC_D_A_Z_0><DIAGC>
~h "uh"
<BEGINHMM>
<NUMSTATES> 6
<STATE> 2
<NUMMIXES> 8
<MIXTURE> 1 1.380587e-01
<MEAN> 39
 -9.661548e-01 -6.380344e+00 -1.378436e+00 -3.834488e+00 -1.979286e-01 -2.631617e+00 6.716108e-01 5.136808e+00 2.927543e+00 1.095007e+01 1.637209e+01 2.070651e+01 1.104373e+01 6.416747e-02 -1.471866e-01 -1.744855e-01 4.520668e-02 2.436586e-01 8.053682e-02 -2.546758e-02 1.418555e-01 -1.000004e-02 -9.372390e-02 -1.086086e-01 1.044149e-01 -3.741548e-02 2.718356e-02 7.023205e-02 -3.781172e-04 -1.416370e-02 5.220974e-04 -3.125240e-02 -7.311922e-02 -1.671258e-02 6.401079e-02 -3.102718e-03 -7.824256e-02 -1.220869e-01 -2.989310e-02
<VARIANCE> 39
 8.763508e+00 2.224364e+01 5.238982e+01 4.059287e+01 6.315647e+01 6.354728e+01 5.566423e+01 4.444157e+01 8.859539e+01 1.018388e+02 1.024611e+02 4.732911e+01 1.700237e+01 2.594425e-01 6.130111e-01 9.421215e-01 1.034727e+00 1.495118e+00 1.386703e+00 1.658520e+00 1.691238e+00 1.852352e+00 2.053367e+00 2.378080e+00 1.613856e+00 1.225855e-01 4.336582e-02 9.633682e-02 1.515611e-01 1.852723e-01 2.213749e-01 2.172758e-01 2.599194e-01 2.685679e-01 3.044347e-01 3.320301e-01 3.754346e-01 2.538290e-01 2.000238e-02
<GCONST> 9.832717e+01
<MIXTURE> 2 1.459653e-01
<MEAN> 39
 4.034399e+00 1.631887e+00 4.134943e+00 1.751525e+00 -8.077674e+00 -7.921958e+00 -4.758523e+00 -3.239652e-01 -4.492332e-01 -5.939901e-02 -1.165733e+00 -1.010755e+00 5.984300e+00 4.019064e-01 -4.709841e-01 -6.018080e-01 -4.851690e-01 1.788507e-01 4.091471e-01 -4.170128e-01 4.203818e-01 8.442790e-01 2.852918e-01 -1.241717e-01 -1.862427e-01 1.469433e-01 -3.000602e-01 9.744576e-02 -1.154958e-02 4.268181e-02 4.304482e-01 1.774908e-01 2.055463e-01 -2.077215e-02 -8.395344e-02 -4.668792e-03 -3.929267e-02 5.833125e-02 -2.060712e-01
<VARIANCE> 39
 1.511862e+01 1.969082e+01 3.152555e+01 3.218886e+01 4.373178e+01 3.951195e+01 4.644381e+01 3.735929e+01 4.757088e+01 4.722004e+01 5.037547e+01 4.258650e+01 2.576166e+01 3.947307e-01 7.616822e-01 1.075209e+00 1.241726e+00 1.566880e+00 1.916450e+00 2.012622e+00 2.310783e+00 2.059213e+00 2.171876e+00 1.880275e+00 1.916444e+00 3.400017e-01 1.479075e-01 1.765414e-01 1.794145e-01 2.281274e-01 2.792676e-01 3.540007e-01 3.411675e-01 3.819564e-01 3.750454e-01 3.855161e-01 3.332573e-01 3.339292e-01 7.556706e-02
<GCONST> 1.033656e+02
<MIXTURE> 3 1.247687e-01
<MEAN> 39
 5.760389e+00 -1.286349e+00 -5.462780e+00 -8.227094e+00 3.609989e+00 5.930511e-01 -9.125429e+00 -1.569522e+00 4.804351e+00 4.111349e+00 -6.095489e+00 -5.247813e+00 7.312655e+00 -1.286987e-01 -2.906838e-01 -9.437737e-02 2.439557e-02 1.307997e-01 -6.484331e-02 8.989625e-02 5.112174e-01 4.171996e-01 -2.511873e-01 -2.567963e-01 -2.611445e-02 1.638783e-01 -1.238839e-02 1.603788e-01 2.127686e-01 1.692221e-01 -2.109238e-01 -7.562338e-02 2.635855e-01 -1.431786e-02 -3.925073e-01 -2.740580e-01 2.562484e-01 3.095827e-01 -1.585890e-01
<VARIANCE> 39
 1.546889e+01 2.396541e+01 2.749154e+01 3.502245e+01 5.228149e+01 9.220928e+01 5.703149e+01 6.339827e+01 5.646411e+01 7.423206e+01 7.456362e+01 5.667770e+01 1.835943e+01 3.996098e-01 8.105327e-01 1.189011e+00 1.835756e+00 2.093146e+00 3.026169e+00 2.547098e+00 3.500056e+00 3.014315e+00 3.164717e+00 2.746656e+00 2.381568e+00 3.346214e-01 6.599856e-02 1.120635e-01 1.625729e-01 2.900191e-01 3.099459e-01 4.333971e-01 4.051468e-01 4.384782e-01 5.070817e-01 5.094281e-01 4.383308e-01 3.722610e-01 5.083169e-02
<GCONST> 1.096196e+02
<MIXTURE> 4 1.177592e-01
<MEAN> 39
 2.744406e+00 -2.976058e+00 -1.119489e+00 -3.919342e+00 -2.317246e+00 -6.588642e+00 -3.471452e+00 8.310022e+00 3.097514e+00 -1.930275e+00 -5.067983e+00 5.297866e+00 8.579879e+00 -7.913238e-03 -5.703951e-01 -1.842857e-01 -1.933493e-01 4.593340e-01 4.049776e-01 3.820346e-01 7.785356e-01 1.168668e-01 -3.617335e-01 -2.672788e-01 -4.575969e-03 2.010082e-01 1.406578e-02 3.023056e-01 8.095626e-02 7.250462e-02 9.301289e-03 7.757506e-02 -1.723696e-01 -7.621807e-01 -2.526464e-01 2.382188e-01 3.847587e-01 -2.230332e-01 -2.506431e-01
<VARIANCE> 39
 1.122648e+01 1.650956e+01 2.898610e+01 2.387324e+01 4.444914e+01 3.593682e+01 5.948931e+01 4.427061e+01 6.407778e+01 5.382577e+01 7.481041e+01 1.118498e+02 1.376287e+01 4.519139e-01 7.144104e-01 1.933758e+00 1.214829e+00 3.314307e+00 2.423824e+00 2.976443e+00 3.328320e+00 3.716736e+00 3.350414e+00 2.956678e+00 2.758532e+00 2.524823e-01 7.165331e-02 1.527490e-01 1.807112e-01 2.535386e-01 3.079550e-01 3.817208e-01 4.938131e-01 4.504775e-01 5.735217e-01 4.677780e-01 4.340962e-01 4.390322e-01 6.041553e-02
<GCONST> 1.088139e+02
<MIXTURE> 5 1.256659e-01
<MEAN> 39
 7.943659e+00 5.099393e+00 -3.618951e+00 -9.641623e+00 -8.083865e-01 4.728118e+00 -4.290879e+00 -7.139886e+00 -4.326325e+00 2.725315e+00 4.819049e+00 1.839849e+00 4.332866e+00 -1.150724e-01 -2.117229e-01 -1.953256e-01 -1.086325e-01 1.978223e-01 8.021687e-02 -2.368717e-01 -8.487244e-02 4.367139e-01 3.687687e-01 1.848224e-01 -2.079732e-01 2.236038e-01 -4.647554e-02 -8.867209e-02 4.768546e-02 1.632359e-01 2.552016e-02 -1.942106e-01 -7.142934e-02 1.602749e-01 1.527411e-01 -5.020600e-02 -1.958667e-01 -9.886204e-02 -3.286590e-02
<VARIANCE> 39
 1.825073e+01 1.765213e+01 2.069448e+01 5.671807e+01 5.080553e+01 4.608814e+01 5.343757e+01 5.503599e+01 4.149465e+01 5.942488e+01 7.262778e+01 6.074322e+01 1.978706e+01 2.794253e-01 6.241218e-01 6.943583e-01 1.304198e+00 1.449762e+00 1.737366e+00 1.850411e+00 1.816823e+00 2.189035e+00 2.199362e+00 2.099978e+00 2.065169e+00 2.355595e-01 4.920199e-02 7.962650e-02 1.259910e-01 2.091247e-01 2.470667e-01 2.648926e-01 2.872590e-01 3.338737e-01 3.149855e-01 3.738903e-01 3.478137e-01 3.106427e-01 3.287890e-02
<GCONST> 9.930761e+01
<MIXTURE> 6 8.097348e-02
<MEAN> 39
 2.511073e-01 -7.537980e-02 4.971667e+00 -2.425550e+00 -9.469486e+00 -9.363435e+00 -3.331318e+00 3.070645e-01 -1.496064e+00 1.118432e+00 4.388544e+00 7.940729e+00 8.864112e+00 1.370326e+00 -1.871922e+00 -5.661263e-01 -6.667885e-01 2.712917e-01 -1.897206e-01 -1.974785e-01 1.189724e+00 2.715816e-01 1.841705e-02 -5.163243e-01 8.007421e-01 7.605392e-01 -8.546963e-01 1.781607e-01 -1.950510e-01 3.186293e-01 9.831762e-01 8.420308e-01 5.458174e-01 1.740577e-01 3.793414e-01 8.159563e-02 -2.650983e-01 -5.344508e-01 -4.008409e-01
<VARIANCE> 39
 1.921557e+01 2.689162e+01 4.230764e+01 3.380882e+01 4.044646e+01 4.068567e+01 4.904214e+01 4.810302e+01 4.904921e+01 7.496340e+01 1.070107e+02 1.213591e+02 2.119124e+01 2.054740e+00 2.236946e+00 2.431221e+00 2.458936e+00 4.644578e+00 3.922745e+00 3.706630e+00 4.248287e+00 4.241907e+00 4.330780e+00 4.127253e+00 4.516055e+00 6.527087e-01 2.549399e-01 3.968264e-01 3.700568e-01 4.683404e-01 5.872402e-01 6.134587e-01 6.341698e-01 6.844233e-01 6.242008e-01 7.914901e-01 9.530810e-01 7.972631e-01 1.086212e-01
<GCONST> 1.263804e+02
<MIXTURE> 7 1.521898e-01
<MEAN> 39
 5.192955e+00 -4.249387e+00 -7.551152e+00 -8.306084e+00 9.090163e+00 1.995550e+00 -7.426002e+00 2.136861e+00 1.130233e+00 7.320356e+00 1.318921e+01 1.603721e+01 7.700810e+00 1.156571e-02 -1.115927e-02 -3.250865e-02 1.024710e-02 1.076638e-01 6.709953e-02 2.012652e-02 -1.545593e-02 -6.102356e-02 -6.879837e-03 2.020034e-02 3.641436e-02 -1.791437e-02 -1.423255e-02 5.784630e-03 4.381263e-02 1.835347e-02 -1.253190e-01 -5.138308e-02 7.534698e-02 3.298722e-02 -3.227300e-04 -3.474655e-02 -3.263117e-02 1.114676e-02 -4.947801e-03
<VARIANCE> 39
 1.519020e+01 2.841018e+01 2.654002e+01 5.007958e+01 4.344911e+01 7.218346e+01 4.481430e+01 5.666262e+01 5.415371e+01 6.143705e+01 5.649686e+01 4.402259e+01 2.059755e+01 3.803945e-01 6.749604e-01 9.816459e-01 1.477734e+00 1.733755e+00 1.622519e+00 1.787827e+00 1.794116e+00 1.795335e+00 2.370315e+00 1.819299e+00 1.572992e+00 2.127672e-01 6.240461e-02 1.141509e-01 1.862866e-01 2.422156e-01 2.826307e-01 2.821385e-01 3.109947e-01 2.882711e-01 3.028576e-01 3.407926e-01 3.050924e-01 2.740636e-01 2.619440e-02
<GCONST> 1.005672e+02
<MIXTURE> 8 1.146190e-01
<MEAN> 39
 4.657786e+00 -2.413127e+00 -1.476732e+00 -6.519672e+00 1.789421e-02 -1.287975e+00 -5.236639e+00 -3.779288e-01 3.362223e+00 4.995436e+00 2.952473e+00 2.679480e+00 8.108578e+00 6.343133e-02 -6.116563e-01 -9.262615e-02 -4.552261e-01 2.973175e-01 2.817425e-01 -1.907861e-01 3.451591e-01 4.102066e-01 3.512761e-01 6.135657e-02 -5.182948e-03 4.836081e-01 -3.142422e-01 1.639167e-01 9.806158e-02 4.571823e-01 7.014278e-02 -1.633296e-02 2.490806e-01 2.101583e-02 -2.066674e-01 -2.186125e-01 -5.065116e-02 7.028852e-02 -3.296361e-01
<VARIANCE> 39
 3.401833e+01 4.405811e+01 4.776219e+01 6.879774e+01 7.150163e+01 1.025860e+02 9.410414e+01 1.005352e+02 8.085975e+01 9.377952e+01 1.475139e+02 1.446739e+02 4.063707e+01 1.448832e+00 2.232831e+00 2.593590e+00 4.484900e+00 4.408404e+00 4.987019e+00 4.619793e+00 4.940153e+00 5.160996e+00 5.244027e+00 5.146346e+00 5.398434e+00 1.400413e+00 3.618705e-01 4.366067e-01 4.499685e-01 7.372083e-01 6.754797e-01 8.577799e-01 1.057403e+00 1.085596e+00 1.113870e+00 9.679058e-01 1.063260e+00 9.559147e-01 2.811764e-01
<GCONST> 1.400206e+02
<STATE> 3
<NUMMIXES> 8
<MIXTURE> 1 1.663802e-01
<MEAN> 39
 6.074214e+00 8.661426e-01 -4.277300e+00 -1.418396e+00 -1.043166e+00 -1.814630e+00 -7.980961e+00 -6.226496e-01 6.618474e+00 3.280655e+00 -3.942257e+00 -3.272566e+00 6.777668e+00 8.627766e-03 -5.590617e-02 -8.735663e-02 -1.016000e-01 7.277288e-02 1.178942e-01 -4.329650e-02 3.278454e-02 9.928101e-02 -4.393904e-02 -6.426524e-02 -1.421355e-01 -2.892453e-02 -5.189021e-02 -3.892517e-02 1.542834e-02 -1.287079e-01 -8.311920e-02 -1.456220e-01 -2.177984e-02 -9.899752e-02 -2.539418e-01 -1.604481e-01 -1.582717e-02 -1.654603e-02 -4.307094e-02
<VARIANCE> 39
 1.255167e+01 1.729323e+01 2.918351e+01 2.557983e+01 4.317917e+01 3.665242e+01 4.661960e+01 6.504993e+01 5.489742e+01 6.725801e+01 7.034767e+01 5.113230e+01 1.610478e+01 1.702825e-01 3.797154e-01 6.420943e-01 8.796958e-01 1.028709e+00 1.437447e+00 1.351354e+00 1.674632e+00 1.670033e+00 1.645761e+00 1.573106e+00 1.362852e+00 1.111383e-01 2.220483e-02 5.215302e-02 9.832209e-02 1.122193e-01 1.527644e-01 1.747868e-01 2.165469e-01 2.481516e-01 2.327580e-01 2.488143e-01 2.339486e-01 2.250966e-01 1.447578e-02
<GCONST> 8.787001e+01
<MIXTURE> 2 7.102145e-02
<MEAN> 39
 4.281136e+00 -1.473828e+00 4.222277e-01 -3.483532e+00 -2.639795e+00 -3.796119e+00 -4.817253e+00 6.869971e-01 1.552519e+00 6.590533e-01 -1.275206e+00 4.347863e-01 6.739960e+00 6.393781e-02 5.777214e-02 3.132734e-01 3.241438e-01 6.177667e-03 -1.444640e-01 1.852612e-02 -8.559808e-02 -3.138627e-01 -3.124182e-01 -1.180869e-01 7.045636e-02 -3.672703e-01 -1.398934e-01 3.384706e-01 3.170383e-02 2.573901e-01 2.008346e-01 1.452591e-01 1.188935e-01 -2.572478e-01 -1.233738e-01 -1.113749e-02 3.658092e-02 -6.461734e-02 -3.351493e-01
<VARIANCE> 39
 2.738601e+01 4.361133e+01 5.918485e+01 5.627626e+01 7.506970e+01 8.734135e+01 7.969897e+01 8.051410e+01 7.747218e+01 7.321745e+01 8.679108e+01 8.540845e+01 4.137020e+01 6.786501e-01 1.292601e+00 1.976183e+00 2.056947e+00 2.925797e+00 3.169888e+00 3.140724e+00 3.926002e+00 3.653845e+00 3.513962e+00 3.384464e+00 2.606028e+00 8.631746e-01 2.150305e-01 3.210157e-01 3.545583e-01 4.735855e-01 5.951478e-01 6.583791e-01 7.279894e-01 8.365158e-01 7.263571e-01 7.168599e-01 5.945287e-01 6.091945e-01 2.368739e-01
<GCONST> 1.272996e+02
<MIXTURE> 3 1.139057e-01
<MEAN> 39
 4.628156e+00 -2.761926e-02 -7.314194e+00 -6.846519e+00 5.001360e-01 -3.298732e+00 -9.403962e+00 -6.821074e-01 1.557200e+00 -2.098350e+00 -8.282132e+00 -5.952240e+00 5.698437e+00 -1.384465e-02 -3.870699e-02 2.799270e-02 2.182910e-02 4.182202e-02 7.374510e-03 7.072394e-02 1.571771e-01 2.487051e-02 -4.231976e-02 -1.583860e-02 5.500351e-02 -1.935432e-03 9.454852e-02 1.436501e-01 2.212458e-01 2.356294e-01 1.599803e-01 2.288538e-01 2.598743e-01 1.971306e-01 2.150690e-01 2.209259e-01 2.419644e-01 1.883397e-01 2.585430e-02
<VARIANCE> 39
 1.164556e+01 1.859120e+01 2.538464e+01 2.631914e+01 4.777509e+01 4.875846e+01 4.528541e+01 6.435624e+01 5.368876e+01 5.517731e+01 5.232532e+01 5.334228e+01 1.162329e+01 1.237202e-01 2.990830e-01 4.992207e-01 6.473877e-01 8.937196e-01 1.039598e+00 1.115429e+00 1.158791e+00 1.232796e+00 1.134435e+00 1.106917e+00 9.743255e-01 6.445315e-02 1.694228e-02 4.489790e-02 7.048270e-02 8.780144e-02 1.434021e-01 1.483743e-01 1.811445e-01 1.890028e-01 1.851089e-01 1.869370e-01 1.758303e-01 1.622712e-01 1.000000e-02
<GCONST> 8.008038e+01
<MIXTURE> 4 1.624597e-01
<MEAN> 39
 5.718194e+00 -5.788825e-01 -3.871887e+00 -3.142132e+00 -3.359431e-01 -2.421368e+00 -6.957314e+00 1.763777e+00 7.343126e+00 9.804593e-01 -5.130935e+00 -1.832633e+00 7.750171e+00 -4.928349e-03 -4.841064e-02 5.337328e-04 -8.389356e-03 -3.571362e-02 5.159227e-03 6.981634e-03 7.639796e-02 3.934610e-02 -6.083613e-02 -3.033029e-02 8.971582e-03 -3.813705e-03 -1.229894e-02 -1.284095e-02 -4.316070e-03 -2.167561e-02 -4.040790e-02 -4.209331e-02 -1.826730e-02 -3.986322e-02 -5.642712e-02 -2.708694e-02 -7.574812e-03 -3.718657e-03 -1.142725e-02
<VARIANCE> 39
 9.282109e+00 2.113222e+01 2.564960e+01 2.512289e+01 4.433230e+01 4.501776e+01 4.767332e+01 4.980061e+01 4.063265e+01 5.994291e+01 5.442907e+01 5.984516e+01 2.047555e+01 5.372779e-02 1.264855e-01 2.059550e-01 2.895963e-01 3.801291e-01 4.771236e-01 4.698301e-01 5.418382e-01 5.881152e-01 5.718395e-01 5.097713e-01 4.821542e-01 2.949427e-02 1.000000e-02 2.108298e-02 3.345929e-02 4.830390e-02 6.551750e-02 7.609327e-02 7.865001e-02 9.484842e-02 9.808192e-02 9.607252e-02 8.926260e-02 8.227074e-02 1.000000e-02
<GCONST> 6.152335e+01
<MIXTURE> 5 1.478935e-01
<MEAN> 39
 9.200637e+00 5.161550e+00 -4.895754e+00 -8.907547e+00 -8.137389e-01 6.011826e+00 -6.541089e+00 -5.955070e+00 -1.179950e+00 4.695117e+00 5.155271e+00 -7.698998e-01 4.428277e+00 -3.961425e-03 -2.098563e-02 -2.943943e-02 -6.545786e-03 3.540612e-02 -3.068003e-02 -1.626904e-02 3.953341e-03 5.107092e-02 6.681286e-03 -3.896321e-02 -4.321420e-02 -1.997598e-02 -1.258654e-02 -2.563117e-02 6.122624e-03 1.943473e-02 -1.755215e-03 -5.312342e-02 -2.679729e-02 1.839230e-02 1.879838e-02 -3.378763e-02 -5.593468e-02 -1.256296e-02 -1.322078e-03
<VARIANCE> 39
 9.887866e+00 1.778433e+01 2.240777e+01 3.929739e+01 2.876771e+01 3.900248e+01 5.380024e+01 3.905881e+01 4.703585e+01 4.531001e+01 6.117066e+01 5.143961e+01 1.198933e+01 5.872820e-02 1.844851e-01 2.450140e-01 3.789806e-01 4.587239e-01 6.239193e-01 6.439893e-01 7.004980e-01 7.643775e-01 7.753414e-01 7.660016e-01 6.634127e-01 4.297157e-02 1.016055e-02 3.130721e-02 4.352097e-02 6.712648e-02 8.430117e-02 1.135681e-01 1.201751e-01 1.339037e-01 1.465487e-01 1.466514e-01 1.379726e-01 1.216355e-01 1.000000e-02
<GCONST> 6.800739e+01
<MIXTURE> 6 1.313670e-01
<MEAN> 39
 6.457388e+00 -1.646807e+00 -8.158768e+00 -1.208623e+01 3.627401e+00 1.083977e+01 -5.923652e+00 -2.250534e+00 4.397969e+00 3.173151e+00 5.007829e+00 -2.467225e+00 8.744716e+00 -2.172532e-02 -1.754249e-02 4.673088e-02 6.772622e-02 -2.291411e-02 -4.043955e-02 -6.878171e-04 1.882831e-02 3.905385e-02 -4.245974e-02 -2.441155e-02 5.692256e-02 -2.139330e-03 -5.789644e-03 2.482396e-04 1.098057e-02 4.480714e-02 -6.203713e-02 -1.528690e-01 -1.832012e-02 -4.844823e-03 -2.215038e-02 -2.966485e-02 -7.868458e-02 2.492122e-02 -2.338929e-02
<VARIANCE> 39
 1.258779e+01 2.693572e+01 1.977337e+01 2.658207e+01 6.515269e+01 4.374014e+01 4.356063e+01 4.561938e+01 4.796765e+01 4.012705e+01 6.345269e+01 8.654218e+01 1.734182e+01 1.872856e-01 4.533464e-01 5.206867e-01 8.013946e-01 1.066008e+00 1.313743e+00 1.373602e+00 1.436674e+00 1.366732e+00 1.525248e+00 1.472112e+00 1.380383e+00 1.129973e-01 2.744066e-02 6.504421e-02 8.415655e-02 1.295150e-01 1.816767e-01 2.130547e-01 2.349332e-01 2.416604e-01 2.282479e-01 2.554377e-01 2.349405e-01 2.280044e-01 1.574398e-02
<GCONST> 8.839558e+01
<MIXTURE> 7 9.005097e-02
<MEAN> 39
 4.172576e+00 -4.693134e+00 2.560389e+00 -7.043560e+00 4.915006e-01 -1.135276e+01 1.509991e+00 -4.322485e-02 7.881321e-01 2.415435e+00 -7.233239e-01 8.792601e+00 9.134070e+00 3.542837e-02 -1.208356e-01 -1.861725e-01 -6.780431e-02 1.779453e-01 -4.719931e-03 -1.913301e-02 2.203461e-01 1.484916e-01 -8.618341e-02 -1.102231e-01 -4.453295e-02 1.422745e-02 -2.743801e-02 1.018212e-01 -5.617227e-02 1.133559e-01 -9.499910e-02 1.139898e-01 -1.472099e-01 5.549036e-03 -1.978328e-02 1.385279e-02 4.850002e-03 -2.059590e-02 -1.941269e-02
<VARIANCE> 39
 1.685077e+01 2.740889e+01 3.769595e+01 5.085154e+01 1.179654e+02 5.231090e+01 6.513434e+01 5.262246e+01 6.580080e+01 6.494991e+01 9.831647e+01 1.518275e+02 3.194403e+01 2.100094e-01 4.018335e-01 7.371910e-01 7.837595e-01 1.021467e+00 1.092798e+00 1.231850e+00 1.322297e+00 1.435329e+00 1.317492e+00 1.244937e+00 1.264467e+00 8.433848e-02 3.308019e-02 6.882681e-02 9.834891e-02 1.323672e-01 1.707353e-01 1.803816e-01 1.917827e-01 2.235033e-01 2.189079e-01 2.201902e-01 2.107311e-01 1.918493e-01 1.233224e-02
<GCONST> 9.217567e+01
<MIXTURE> 8 1.169215e-01
<MEAN> 39
 2.403203e+00 -3.397873e+00 -6.295414e+00 -4.331479e+00 2.352331e+00 -1.679264e+00 -2.897012e+00 3.872619e+00 2.547060e+00 2.012212e+00 1.124020e+01 2.072662e+01 7.716784e+00 -8.595223e-03 -3.946800e-02 2.180646e-02 1.554636e-02 -1.417601e-02 8.533228e-03 5.839749e-02 4.118883e-02 -4.774714e-02 -2.144617e-02 3.532541e-02 5.855256e-02 -2.090448e-03 8.138103e-04 -4.131578e-03 2.321481e-02 -2.927484e-02 -1.695928e-02 -2.433348e-02 5.329591e-03 -1.306698e-02 8.902960e-03 1.743339e-02 -1.997920e-02 -3.800015e-02 -4.707589e-03
<VARIANCE> 39
 8.216376e+00 2.543652e+01 2.736661e+01 3.137866e+01 6.580273e+01 6.005315e+01 3.746003e+01 4.888008e+01 4.696697e+01 5.218893e+01 5.616950e+01 4.558206e+01 1.482642e+01 1.124754e-01 2.868760e-01 4.371497e-01 5.387639e-01 6.576368e-01 6.715674e-01 6.973554e-01 8.059660e-01 6.957090e-01 7.089124e-01 8.194534e-01 7.251160e-01 3.931402e-02 1.950521e-02 5.110953e-02 7.641775e-02 9.796484e-02 1.135132e-01 1.156761e-01 1.250483e-01 1.549515e-01 1.254286e-01 1.251093e-01 1.408264e-01 1.307472e-01 1.000000e-02
<GCONST> 7.434495e+01
<STATE> 4
<NUMMIXES> 8
<MIXTURE> 1 1.893973e-01
<MEAN> 39
 2.434786e+00 -4.937079e+00 1.084138e+00 -4.883255e+00 -5.771308e+00 -4.445426e+00 4.499129e-01 5.553167e+00 -2.232703e+00 -3.448328e+00 -2.061460e+00 3.838331e+00 8.789717e+00 7.187916e-03 1.927324e-02 1.374492e-01 3.646740e-02 -1.916918e-01 3.984319e-02 4.248925e-02 -8.442336e-02 -1.745320e-01 1.341624e-01 1.849956e-01 1.463937e-02 -1.350051e-01 7.608581e-02 1.498389e-01 5.754134e-02 9.863974e-02 1.044523e-01 -3.694384e-02 -1.876770e-01 -1.334329e-01 1.614086e-01 1.279006e-01 1.001021e-02 -3.512841e-02 -9.599234e-02
<VARIANCE> 39
 1.200789e+01 1.895097e+01 3.629696e+01 3.660975e+01 6.006034e+01 6.341639e+01 6.565884e+01 4.571758e+01 5.337294e+01 6.099467e+01 7.145549e+01 9.606380e+01 2.346984e+01 2.888016e-01 5.962140e-01 1.234760e+00 1.130267e+00 1.953603e+00 1.859062e+00 2.340472e+00 2.264367e+00 2.216085e+00 2.152292e+00 2.150522e+00 1.925614e+00 1.600112e-01 4.600298e-02 9.923702e-02 1.660690e-01 2.101212e-01 2.587368e-01 3.429716e-01 3.950405e-01 3.864987e-01 3.528562e-01 3.593054e-01 3.258274e-01 3.446891e-01 3.393540e-02
<GCONST> 1.026276e+02
<MIXTURE> 2 9.272523e-02
<MEAN> 39
 4.224940e+00 -1.606335e+00 3.126129e+00 -2.165460e+00 -5.838486e+00 -4.954913e+00 -7.028736e+00 3.969297e-01 9.697192e-01 -5.036044e-01 -2.418447e+00 -5.886458e-01 6.460953e+00 -4.509592e-02 7.693460e-01 5.505071e-01 1.005639e+00 4.369781e-01 -1.164429e-01 2.100235e-01 -7.373452e-01 -6.421834e-01 -5.342265e-01 -2.737003e-01 -1.105093e-01 -1.090700e+00 -1.427344e-01 3.129274e-01 -1.036148e-01 1.527341e-01 3.442198e-01 1.619325e-01 3.257579e-01 -1.442768e-01 -4.327939e-02 3.534636e-02 1.634567e-02 -1.026064e-01 -3.329861e-01
<VARIANCE> 39
 2.109387e+01 3.409404e+01 5.422582e+01 5.344431e+01 7.352511e+01 5.347010e+01 7.217463e+01 7.514675e+01 7.890018e+01 7.822892e+01 8.224662e+01 7.165709e+01 3.133461e+01 1.021614e+00 1.936616e+00 2.200579e+00 3.066344e+00 3.612601e+00 4.114616e+00 4.345397e+00 5.364686e+00 4.518963e+00 3.933741e+00 3.945358e+00 3.386706e+00 1.982674e+00 2.284534e-01 3.479512e-01 4.182639e-01 6.273969e-01 7.003172e-01 6.979244e-01 7.662464e-01 8.817716e-01 8.064920e-01 8.352448e-01 6.893579e-01 6.684889e-01 2.852374e-01
<GCONST> 1.311486e+02
<MIXTURE> 3 1.253715e-01
<MEAN> 39
 6.367307e+00 4.715459e+00 -2.395195e+00 -6.583719e+00 -5.199533e-02 -7.789453e-01 -3.315240e+00 -3.107674e+00 -1.132999e+00 -1.495608e+00 -1.034912e+00 -1.733090e+00 1.418111e+00 -3.036087e-02 1.385510e-01 2.140507e-01 2.302638e-01 -8.667352e-02 -1.623651e-01 -2.487412e-02 -2.549073e-02 -1.618251e-01 -3.881532e-02 -4.232618e-02 -5.240035e-02 -2.542893e-01 -4.542298e-02 -2.555887e-02 7.239021e-02 1.327334e-01 -6.969902e-02 -7.672732e-02 -2.395146e-02 4.588658e-02 9.940692e-04 -2.357879e-02 -4.876272e-02 2.626783e-02 -2.748829e-02
<VARIANCE> 39
 1.865171e+01 2.310146e+01 4.327151e+01 5.892582e+01 4.850469e+01 5.472266e+01 4.539916e+01 6.221304e+01 6.546277e+01 6.854524e+01 7.708788e+01 5.495567e+01 2.129619e+01 2.083790e-01 5.044526e-01 7.761638e-01 1.091751e+00 1.330879e+00 1.591444e+00 1.725020e+00 1.839106e+00 2.095161e+00 1.978340e+00 1.887468e+00 1.463362e+00 2.169473e-01 3.897468e-02 8.469645e-02 1.421273e-01 1.705281e-01 2.323397e-01 2.551027e-01 2.877631e-01 3.119456e-01 3.563013e-01 3.178353e-01 3.605194e-01 2.549559e-01 3.408965e-02
<GCONST> 9.901884e+01
<MIXTURE> 4 1.237636e-01
<MEAN> 39
 3.283545e+00 -4.003419e+00 -9.705964e-01 -3.851389e+00 -2.408243e+00 -1.226304e+00 -5.180508e+00 7.725796e+00 1.013801e+01 1.580834e+00 -5.379185e+00 -6.050029e+00 8.747840e+00 -6.550156e-02 -1.817392e-02 2.287122e-01 2.141003e-01 -2.495919e-01 -3.454541e-01 2.242060e-01 3.003512e-01 -1.687737e-01 -2.609110e-01 7.892006e-02 3.221675e-01 -1.823981e-02 -5.521732e-03 2.856581e-02 1.391650e-02 -3.881691e-04 -9.739413e-02 -1.190482e-01 -4.497213e-02 -2.023601e-01 -2.744718e-01 -1.062969e-01 5.883246e-02 9.829837e-02 -8.052786e-02
<VARIANCE> 39
 1.012006e+01 1.429494e+01 1.431000e+01 1.875463e+01 3.078985e+01 4.476266e+01 7.863873e+01 4.968412e+01 4.345124e+01 5.366527e+01 5.314929e+01 4.437498e+01 1.542212e+01 1.828552e-01 3.496653e-01 6.011481e-01 6.430457e-01 1.197657e+00 1.255791e+00 1.510639e+00 1.651844e+00 1.744263e+00 1.733010e+00 1.386181e+00 1.223966e+00 9.138635e-02 2.983598e-02 6.260804e-02 9.984950e-02 1.205929e-01 1.794663e-01 2.065944e-01 2.762658e-01 2.647876e-01 2.724009e-01 2.739661e-01 2.650865e-01 2.096529e-01 1.716076e-02
<GCONST> 8.670092e+01
<MIXTURE> 5 3.634946e-02
<MEAN> 39
 4.590223e+00 -7.552410e+00 -5.733397e+00 -3.762358e+00 9.375192e+00 1.253078e+01 -3.853785e+00 8.418738e-01 -2.338437e+00 1.890015e+01 2.219786e+01 1.345248e+01 8.395050e+00 -2.638133e-02 5.749492e-03 2.736351e-02 4.834634e-04 -1.089807e-01 1.667883e-02 5.865936e-02 2.233871e-02 -2.915675e-02 1.750875e-05 2.295561e-02 1.906427e-02 3.727863e-03 -1.305510e-03 5.726945e-03 8.103926e-03 -1.306329e-02 -2.319790e-02 -2.046069e-02 1.708123e-02 7.422086e-03 1.076905e-02 -4.261325e-02 -1.039717e-02 1.523187e-02 -5.639181e-03
<VARIANCE> 39
 9.747554e+00 6.395102e+00 1.381050e+01 1.801547e+01 3.375448e+01 3.165888e+01 3.705464e+01 2.878199e+01 2.177528e+01 1.086704e+01 4.319054e+01 2.777025e+01 5.413520e+00 2.033193e-01 3.776110e-01 4.820053e-01 5.899780e-01 6.265762e-01 6.010484e-01 7.652519e-01 6.678861e-01 7.102866e-01 8.512942e-01 6.459844e-01 7.044287e-01 3.941764e-02 3.995333e-02 7.267208e-02 9.060219e-02 1.037726e-01 1.155908e-01 1.242794e-01 1.340745e-01 1.277276e-01 1.351240e-01 1.606714e-01 1.334877e-01 1.609935e-01 1.000000e-02
<GCONST> 6.842754e+01
<MIXTURE> 6 2.370998e-01
<MEAN> 39
 4.744114e+00 -1.342217e+00 1.024314e+00 -2.051353e+00 -7.497589e+00 -7.472516e+00 -2.772306e-01 5.571813e+00 9.500992e-01 -4.423155e+00 -2.339660e+00 4.374893e-01 5.943059e+00 2.433448e-03 -1.170019e-02 1.600778e-02 -3.132665e-02 -9.839579e-03 3.252393e-02 4.166131e-02 -2.680837e-02 -4.550921e-02 -1.894388e-02 3.539321e-02 -4.163374e-03 -5.107981e-02 -4.130515e-03 1.438530e-02 2.182731e-02 -1.752965e-02 4.859359e-03 -8.854173e-03 -4.376797e-02 -4.965936e-02 -6.919175e-04 5.016070e-02 -1.918290e-02 -8.339399e-03 -1.585834e-02
<VARIANCE> 39
 5.671215e+00 1.577320e+01 1.688999e+01 2.816010e+01 5.507939e+01 4.213662e+01 2.921480e+01 3.648201e+01 4.477617e+01 4.058212e+01 4.015524e+01 4.144095e+01 9.258218e+00 6.682594e-02 1.922551e-01 3.361241e-01 3.965249e-01 5.853360e-01 6.475078e-01 7.247956e-01 8.323200e-01 8.396927e-01 8.888615e-01 8.081259e-01 7.517146e-01 3.946158e-02 1.138310e-02 3.101649e-02 4.721918e-02 6.867180e-02 9.662724e-02 1.147286e-01 1.287846e-01 1.439064e-01 1.460139e-01 1.487961e-01 1.396140e-01 1.412864e-01 1.000000e-02
<GCONST> 6.780463e+01
<MIXTURE> 7 1.451542e-01
<MEAN> 39
 2.121147e+00 -6.071961e+00 -1.605074e+00 -6.745761e+00 3.121995e+00 -3.697060e+00 -3.763175e+00 8.817056e+00 -1.301835e+00 -2.467657e+00 -3.242083e+00 1.073774e+01 9.703125e+00 -6.466810e-03 -7.771917e-02 6.603518e-02 -1.180685e-02 6.640834e-03 1.279534e-02 1.067188e-01 2.955041e-02 4.376960e-03 -5.269334e-02 7.031588e-02 9.050287e-02 7.408527e-03 -6.470989e-03 1.822617e-02 1.999458e-02 2.941218e-03 -9.713900e-02 -4.194712e-02 2.225940e-02 -9.334390e-02 2.647070e-03 3.218579e-02 6.293376e-02 -4.992837e-02 -1.824039e-02
<VARIANCE> 39
 9.430794e+00 1.608146e+01 3.701900e+01 2.822082e+01 5.321881e+01 5.140940e+01 6.300594e+01 2.790552e+01 2.957705e+01 4.303156e+01 3.786172e+01 5.489158e+01 9.891129e+00 1.467490e-01 2.983795e-01 4.970433e-01 6.764911e-01 8.696415e-01 8.179479e-01 1.036415e+00 9.219810e-01 1.083787e+00 9.419492e-01 9.075307e-01 8.697588e-01 5.276313e-02 2.583634e-02 5.052236e-02 8.719772e-02 1.229184e-01 1.384722e-01 1.470527e-01 1.667598e-01 1.649494e-01 1.925535e-01 1.712174e-01 1.709267e-01 1.394832e-01 1.000000e-02
<GCONST> 7.793602e+01
<MIXTURE> 8 5.013887e-02
<MEAN> 39
 7.344245e+00 5.112624e+00 -6.851717e+00 -7.091379e+00 3.718827e+00 -3.315145e+00 -1.106153e+01 -5.891769e+00 1.016656e+01 1.913051e+01 1.674486e+01 1.602070e+01 7.405659e-02 -1.403226e-02 -3.596522e-02 -2.637714e-02 2.363792e-02 1.470484e-02 -4.232005e-02 -4.857539e-02 7.952473e-02 6.595992e-02 5.005541e-02 -5.063384e-02 -6.651902e-02 5.315602e-03 -9.662002e-03 -4.557495e-03 1.097731e-02 -5.846598e-03 -1.179732e-02 -7.629248e-04 1.020443e-02 1.535652e-02 -1.918042e-02 -3.884622e-02 -1.107068e-02 -7.930785e-03 1.967387e-03
<VARIANCE> 39
 1.067763e+01 1.483879e+01 1.782257e+01 1.561644e+01 4.577739e+01 3.437773e+01 2.841074e+01 6.040663e+01 4.496458e+01 7.157529e+01 3.632275e+01 2.909381e+01 5.507364e+00 1.697787e-01 3.403951e-01 4.192187e-01 5.274519e-01 8.440146e-01 8.763515e-01 8.019468e-01 1.024521e+00 9.951074e-01 1.183050e+00 9.104347e-01 9.850990e-01 6.790469e-02 2.897563e-02 5.604179e-02 7.131012e-02 9.695895e-02 1.508363e-01 1.490158e-01 1.476103e-01 1.750493e-01 1.697038e-01 2.041522e-01 1.752226e-01 1.723432e-01 1.073362e-02
<GCONST> 7.618759e+01
<STATE> 5
<NUMMIXES> 8
<MIXTURE> 1 9.989904e-02
<MEAN> 39
 1.730411e+00 -4.550837e+00 -1.764502e+00 -6.158250e+00 -3.536469e-01 -4.069889e+00 -2.135011e+00 3.239376e+00 1.381343e+00 3.713975e+00 4.221186e+00 1.020085e+01 8.858970e+00 1.854121e-01 4.167769e-01 2.057401e-01 2.305890e-01 -3.554384e-01 -7.573797e-01 -5.991230e-01 -7.438178e-01 -2.696183e-01 5.197781e-02 -8.656001e-02 -1.227388e-01 -6.186751e-01 1.012466e-01 2.798560e-01 5.545916e-02 3.114442e-01 -2.833603e-02 -2.370083e-02 -1.962561e-01 -2.309098e-01 -7.802031e-02 -2.569127e-01 -2.484237e-01 -4.032970e-01 -3.402531e-01
<VARIANCE> 39
 1.738606e+01 2.524506e+01 4.196360e+01 3.894994e+01 6.293703e+01 7.444017e+01 1.012226e+02 7.676385e+01 7.287762e+01 8.170882e+01 1.197252e+02 1.484784e+02 2.318436e+01 5.260035e-01 1.048600e+00 1.635082e+00 1.956664e+00 2.841383e+00 3.310455e+00 3.636370e+00 3.764099e+00 3.336644e+00 3.796292e+00 3.558675e+00 3.306240e+00 6.116852e-01 9.952482e-02 1.618082e-01 2.530963e-01 3.193282e-01 3.933979e-01 5.501956e-01 6.399283e-01 6.915911e-01 6.185101e-01 6.751041e-01 6.106341e-01 6.378887e-01 1.115593e-01
<GCONST> 1.211312e+02
<MIXTURE> 2 1.424533e-01
<MEAN> 39
 2.168824e+00 5.604447e+00 3.795403e+00 4.405601e+00 -1.013702e-01 -3.853689e+00 -3.696297e+00 -2.898283e+00 -1.169847e+00 -2.758729e+00 -4.019057e+00 -3.410673e+00 -4.069884e+00 -1.439846e+00 3.121904e-01 -2.102266e-01 7.009267e-01 8.312003e-01 8.128989e-01 1.280276e+00 1.704500e-01 2.302207e-01 2.235261e-01 4.128649e-01 -1.609687e-01 -1.440074e+00 -2.051063e-01 -5.200531e-01 -2.930812e-01 -5.337067e-01 -2.629420e-01 -1.395012e-01 7.857525e-02 2.919220e-01 2.661726e-01 4.449817e-01 3.058461e-01 3.955353e-01 6.046470e-01
<VARIANCE> 39
 2.847524e+01 2.952847e+01 3.840025e+01 2.945755e+01 4.776455e+01 4.347322e+01 4.602019e+01 4.350650e+01 4.000081e+01 4.484261e+01 4.894258e+01 4.699245e+01 3.500853e+01 2.498183e+00 2.863700e+00 2.517213e+00 3.082782e+00 3.635025e+00 3.608200e+00 4.079575e+00 4.087034e+00 3.719731e+00 3.765700e+00 3.433214e+00 3.611309e+00 3.858863e+00 3.084733e-01 3.936643e-01 4.420561e-01 4.669334e-01 5.908346e-01 6.340980e-01 7.013844e-01 7.708701e-01 6.957906e-01 6.823734e-01 6.504211e-01 6.083322e-01 3.581170e-01
<GCONST> 1.274012e+02
<MIXTURE> 3 1.340232e-01
<MEAN> 39
 6.459696e+00 3.717265e+00 3.200691e-01 -9.495435e-01 -1.198475e-01 -2.306275e+00 -8.053165e+00 -5.093585e+00 -4.809674e-01 1.331357e+00 -1.990963e+00 -3.275398e+00 1.015141e+00 -2.625990e-01 5.970780e-01 5.385978e-01 8.112322e-01 4.477063e-01 -1.187147e-03 5.176479e-01 -2.592705e-01 -3.930478e-01 -3.955916e-01 -2.387460e-01 -8.527187e-02 -1.141891e+00 -1.918406e-01 -1.086765e-01 8.694139e-03 -1.468684e-02 -7.436509e-02 -4.877068e-02 2.917540e-01 3.015218e-01 1.351959e-01 -6.981701e-02 2.134292e-02 1.500687e-01 2.441240e-02
<VARIANCE> 39
 1.180231e+01 1.965927e+01 3.715160e+01 3.628730e+01 4.113474e+01 4.786091e+01 4.483127e+01 4.181551e+01 5.268509e+01 5.780412e+01 6.854025e+01 5.162028e+01 2.007360e+01 6.021321e-01 1.158945e+00 1.589530e+00 2.038498e+00 2.456275e+00 2.798391e+00 3.133248e+00 3.579467e+00 3.305358e+00 3.077646e+00 3.170584e+00 2.673035e+00 1.310548e+00 8.066268e-02 1.293820e-01 2.276991e-01 3.113897e-01 2.999789e-01 3.633048e-01 4.662565e-01 4.474791e-01 4.911493e-01 5.042219e-01 4.767048e-01 4.497517e-01 1.204785e-01
<GCONST> 1.124876e+02
<MIXTURE> 4 1.307925e-01
<MEAN> 39
 5.073453e+00 6.971281e-01 1.803884e+00 -5.627968e-01 -6.137455e+00 -7.178231e+00 -5.266633e+00 3.040600e+00 2.011502e+00 -1.554274e+00 -3.060994e+00 -1.169029e-01 4.660689e+00 9.759612e-02 5.003172e-01 5.595286e-01 5.459962e-01 8.168831e-02 -2.690780e-01 -3.171558e-01 -6.842938e-01 -3.541404e-01 -1.789252e-01 1.308571e-01 -3.848477e-02 -6.882076e-01 -3.251962e-02 2.053740e-01 6.823074e-02 1.675097e-01 3.371767e-01 1.633578e-01 1.928641e-02 -3.157949e-01 -8.401894e-02 -8.066170e-03 -6.390131e-02 -1.279537e-01 -2.646334e-01
<VARIANCE> 39
 9.576346e+00 1.638190e+01 3.350639e+01 2.954388e+01 3.232210e+01 3.321537e+01 4.732538e+01 4.298591e+01 5.090380e+01 4.902028e+01 5.778609e+01 4.366544e+01 1.718571e+01 2.732907e-01 6.360000e-01 1.108508e+00 1.093902e+00 1.626018e+00 1.570807e+00 2.041295e+00 2.405486e+00 2.269196e+00 2.007146e+00 2.054211e+00 1.825001e+00 3.566217e-01 5.918995e-02 1.135167e-01 1.609049e-01 1.951873e-01 2.650907e-01 2.864108e-01 3.368702e-01 3.716622e-01 3.716361e-01 3.613657e-01 3.653803e-01 2.907088e-01 8.092677e-02
<GCONST> 9.962157e+01
<MIXTURE> 5 5.224634e-02
<MEAN> 39
 1.230684e+00 -3.543938e-01 3.505377e+00 -9.376654e+00 -9.222742e+00 4.209690e+00 2.711747e+00 -6.088109e+00 -1.776865e+00 9.948152e+00 1.050711e+01 1.532314e+01 5.629330e+00 1.076655e-02 1.006950e-01 3.849676e-02 -1.210091e-02 -1.423402e-01 -7.724672e-02 -2.235767e-02 -1.167467e-01 3.651284e-02 5.141284e-02 -5.011133e-02 -1.111572e-02 -1.675497e-01 2.096261e-02 -1.560753e-02 -3.301274e-02 8.231767e-02 4.092786e-02 -8.840687e-02 -7.464013e-02 7.385152e-02 3.460336e-02 -7.982469e-02 -1.715482e-02 -6.026464e-02 -1.680947e-02
<VARIANCE> 39
 5.798277e+00 1.467752e+01 2.325238e+01 3.556718e+01 5.707142e+01 8.988830e+01 5.947388e+01 3.675223e+01 5.472197e+01 7.130788e+01 1.256520e+02 5.492045e+01 1.556339e+01 1.837626e-01 3.803548e-01 6.314681e-01 7.702127e-01 1.127775e+00 1.193118e+00 1.343657e+00 1.446906e+00 1.282792e+00 1.881629e+00 1.448066e+00 1.272560e+00 1.006368e-01 3.203000e-02 6.625032e-02 1.106926e-01 1.511731e-01 1.848118e-01 2.276215e-01 2.741155e-01 2.566740e-01 2.469947e-01 3.153752e-01 2.401555e-01 2.443753e-01 1.526733e-02
<GCONST> 9.006311e+01
<MIXTURE> 6 8.616860e-02
<MEAN> 39
 1.838959e+00 -6.536920e+00 -5.340826e+00 -5.160715e+00 6.400886e+00 6.908532e-02 -4.421161e+00 6.993164e+00 1.240773e+00 8.954655e-01 6.730631e+00 1.466942e+01 9.657059e+00 -4.320638e-03 2.175185e-02 4.407387e-02 1.313880e-01 -1.374316e-01 -1.364515e-01 6.145119e-02 1.219435e-01 9.794215e-02 -4.336912e-02 5.173507e-02 1.452702e-02 -7.136589e-02 5.078019e-03 5.212935e-02 1.786327e-02 -3.773593e-02 -1.531442e-01 -1.246986e-01 1.577533e-03 -8.976466e-02 -2.628131e-02 8.199817e-02 -4.570640e-03 -4.671336e-02 -4.908697e-02
<VARIANCE> 39
 1.234524e+01 2.774136e+01 2.177818e+01 3.706378e+01 6.647189e+01 6.024705e+01 7.595059e+01 5.390498e+01 5.009246e+01 6.131003e+01 7.181706e+01 1.139998e+02 1.794692e+01 2.075881e-01 5.371715e-01 7.718930e-01 1.009583e+00 1.416957e+00 1.539760e+00 1.719951e+00 1.688381e+00 1.537697e+00 1.674424e+00 2.183897e+00 1.692800e+00 1.197629e-01 2.973434e-02 7.972310e-02 1.041512e-01 1.520420e-01 1.905928e-01 2.265556e-01 2.414308e-01 2.615764e-01 2.366021e-01 2.656328e-01 3.093919e-01 2.359356e-01 1.545774e-02
<GCONST> 9.463251e+01
<MIXTURE> 7 1.071176e-01
<MEAN> 39
 4.146982e+00 4.748885e-01 3.230587e+00 -1.355435e+00 -4.237059e+00 -9.449003e+00 -5.635059e+00 -4.268197e-01 -1.762303e-01 1.129711e-01 -3.463220e-01 3.954062e+00 3.910398e+00 -4.311070e-01 1.584865e+00 1.971207e-01 1.631677e+00 5.419698e-01 5.088565e-01 1.892084e-01 -1.149629e+00 -4.950694e-01 -9.133638e-01 -4.794659e-01 -1.348590e+00 -1.956401e+00 -3.809882e-01 3.871978e-02 -2.569489e-01 6.150705e-02 2.449823e-01 5.827035e-01 3.946588e-01 2.381710e-01 1.388454e-01 1.522345e-02 -2.932532e-02 -2.223497e-01 -1.925735e-01
<VARIANCE> 39
 1.492959e+01 2.518750e+01 4.870372e+01 3.964562e+01 4.931817e+01 3.984597e+01 5.762365e+01 5.150673e+01 5.692873e+01 6.824718e+01 1.045140e+02 9.232261e+01 2.117180e+01 2.153097e+00 2.648118e+00 2.757959e+00 3.628690e+00 4.261477e+00 4.857753e+00 5.178438e+00 5.211687e+00 4.408372e+00 5.104993e+00 4.782534e+00 5.542320e+00 3.115361e+00 2.398561e-01 3.762885e-01 3.795648e-01 5.034969e-01 5.684805e-01 5.533140e-01 7.149236e-01 7.468681e-01 7.893566e-01 8.225626e-01 7.862384e-01 7.301137e-01 3.136955e-01
<GCONST> 1.311506e+02
<MIXTURE> 8 2.472993e-01
<MEAN> 39
 5.971107e+00 5.482997e+00 1.630278e+00 8.748161e-01 -1.605540e+00 -3.779608e+00 -5.380638e+00 -2.533923e+00 -6.558260e-01 3.892303e-01 -3.490224e-01 -8.629463e-01 -5.521669e-01 -6.694729e-03 1.366096e-02 2.916765e-02 2.955978e-02 -2.801437e-02 -1.219922e-02 -1.045426e-02 1.444558e-02 4.929678e-03 -8.204018e-03 2.023810e-03 -8.362351e-03 -7.815449e-02 -6.781308e-03 -1.974378e-02 1.277249e-02 8.226900e-03 -1.204799e-02 -1.206031e-02 9.328239e-03 1.638490e-03 -3.837747e-03 -8.112572e-03 1.494854e-03 1.380943e-02 7.904851e-03
<VARIANCE> 39
 9.376654e+00 1.838495e+01 3.254257e+01 2.973467e+01 4.019558e+01 3.804324e+01 4.262692e+01 4.323748e+01 3.729408e+01 4.396292e+01 6.013928e+01 4.288058e+01 9.462393e+00 9.549942e-02 2.369741e-01 3.904870e-01 5.211046e-01 7.282556e-01 8.096016e-01 9.274179e-01 1.082669e+00 1.056075e+00 1.119035e+00 1.033172e+00 9.801400e-01 7.469971e-02 1.481558e-02 3.780286e-02 6.956202e-02 9.565912e-02 1.366740e-01 1.461914e-01 1.736457e-01 1.907773e-01 1.936696e-01 2.039879e-01 1.831563e-01 1.826100e-01 1.000000e-02
<GCONST> 7.668397e+01
<TRANSP> 6
 0.000000e+00 1.000000e+00 0.000000e+00 0.000000e+00 0.000000e+00 0.000000e+00
 0.000000e+00 7.717714e-01 2.282286e-01 0.000000e+00 0.000000e+00 0.000000e+00
 0.000000e+00 0.000000e+00 8.772581e-01 1.227419e-01 0.000000e+00 0.000000e+00
 0.000000e+00 0.000000e+00 0.000000e+00 8.016859e-01 1.983141e-01 0.000000e+00
 0.000000e+00 0.000000e+00 0.000000e+00 0.000000e+00 7.945482e-01 2.054518e-01
 0.000000e+00 0.000000e+00 0.000000e+00 0.000000e+00 0.000000e+00 0.000000e+00
<ENDHMM>
