~o
<STREAMINFO> 1 39
<VECSIZE> 39<NULLD><MFCC_D_A_Z_0><DIAGC>
~h "b"
<BEGINHMM>
<NUMSTATES> 5
<STATE> 2
<NUMMIXES> 8
<MIXTURE> 1 2.140999e-01
<MEAN> 39
 5.336704e+00 9.573922e+00 5.828505e+00 6.589566e+00 3.317693e+00 -1.045277e+00 -2.214714e+00 -7.273984e+00 -3.907620e+00 -3.225145e+00 -4.862511e+00 -6.279226e+00 -8.679014e+00 -6.775621e-01 -1.627436e+00 -7.189293e-01 -5.098530e-01 -7.668276e-01 -4.705598e-01 -1.410094e-01 1.018458e+00 1.037628e+00 7.801273e-01 7.969049e-01 1.107548e+00 2.378528e+00 1.461216e-02 -1.082568e+00 -4.535304e-01 -8.408241e-01 -7.270365e-01 -3.626201e-01 -1.552620e-01 6.623574e-01 4.926792e-01 4.467055e-01 3.061315e-01 4.615954e-01 1.333284e+00
<VARIANCE> 39
 2.509501e+01 2.431338e+01 2.890549e+01 2.738644e+01 4.154784e+01 3.798074e+01 3.716261e+01 3.889514e+01 3.735480e+01 4.016097e+01 4.302121e+01 4.481651e+01 2.510207e+01 2.625777e+00 3.281717e+00 3.248583e+00 3.671129e+00 4.013111e+00 3.977988e+00 4.162889e+00 4.396777e+00 4.336371e+00 3.932167e+00 3.534173e+00 3.337471e+00 3.880305e+00 4.088782e-01 4.131818e-01 6.339703e-01 5.473049e-01 7.864794e-01 8.001517e-01 8.749239e-01 9.360505e-01 9.236476e-01 8.351846e-01 7.649691e-01 8.001772e-01 3.757470e-01
<GCONST> 1.292466e+02
<MIXTURE> 2 7.916165e-02
<MEAN> 39
 4.491728e+00 6.062508e-03 -4.089315e-01 -1.071993e+00 -2.579655e+00 -6.141091e+00 -5.691109e+00 -1.823268e+00 4.829077e+00 5.761193e+00 4.387195e+00 5.898309e+00 -1.093848e-01 -5.979824e-02 -1.155716e+00 -2.625602e-01 -7.167005e-01 -4.564337e-01 -2.738674e-01 5.805391e-01 1.573977e+00 9.572317e-01 3.322663e-01 5.205755e-01 1.066803e+00 1.878243e+00 -2.893164e-01 -3.591980e-01 1.069756e-01 -1.620632e-01 -2.876201e-02 3.105194e-01 5.295132e-01 3.456447e-01 -5.018392e-01 -3.478092e-01 -8.096670e-03 2.164399e-01 5.445601e-01
<VARIANCE> 39
 1.313807e+01 2.147307e+01 3.089396e+01 2.637931e+01 4.043230e+01 3.627431e+01 4.599780e+01 5.296647e+01 6.377254e+01 7.695543e+01 8.566999e+01 8.723119e+01 2.476444e+01 1.329406e+00 2.464588e+00 3.403776e+00 3.121869e+00 4.195733e+00 4.671429e+00 4.852317e+00 6.589887e+00 5.506678e+00 6.073658e+00 6.169165e+00 6.762811e+00 2.620213e+00 1.596574e-01 2.855816e-01 4.043462e-01 4.151912e-01 6.511695e-01 6.167107e-01 7.642789e-01 9.491127e-01 9.133872e-01 9.990190e-01 8.625736e-01 1.074099e+00 3.511934e-01
<GCONST> 1.306133e+02
<MIXTURE> 3 7.599851e-02
<MEAN> 39
 3.529034e+00 3.490034e+00 5.642835e+00 6.588568e+00 9.880618e-01 -4.441897e+00 -2.458755e+00 -2.207589e+00 -1.311573e+00 -1.106028e+00 -1.643821e+00 -6.451681e-01 -1.149186e+00 -3.133579e-01 -1.971019e+00 8.605809e-01 -1.885505e-01 -3.298423e+00 -2.079648e+00 -7.835799e-01 1.004992e+00 -3.232481e-01 -1.680689e-01 1.052545e+00 1.287839e+00 2.864787e+00 6.835258e-03 -9.423569e-02 2.422283e-01 -5.167605e-01 -8.680180e-01 5.170454e-02 1.461190e-01 2.446155e-02 -3.047242e-01 1.641885e-01 2.613824e-01 -1.310357e-01 3.222879e-01
<VARIANCE> 39
 1.231020e+01 1.676032e+01 1.950574e+01 1.975329e+01 3.090444e+01 2.937657e+01 3.128530e+01 2.797460e+01 2.703610e+01 2.787874e+01 2.615407e+01 2.815111e+01 1.834160e+01 2.108371e+00 2.539505e+00 3.148781e+00 3.157502e+00 4.022026e+00 4.297952e+00 4.482595e+00 4.519686e+00 4.721606e+00 4.249785e+00 3.525615e+00 3.499475e+00 1.956243e+00 1.786217e-01 2.649962e-01 2.970054e-01 3.198781e-01 4.606427e-01 5.377327e-01 5.608258e-01 5.921420e-01 5.883398e-01 5.301220e-01 4.768326e-01 4.778983e-01 2.042786e-01
<GCONST> 1.165634e+02
<MIXTURE> 4 1.808421e-01
<MEAN> 39
 -3.334116e+00 3.210041e+00 2.057217e+00 5.762664e+00 4.326159e+00 2.313061e+00 2.997404e+00 -1.214881e-01 1.423129e+00 1.305102e+00 4.588853e-01 -5.401163e-01 -9.903986e+00 1.386141e+00 -9.116009e-01 -3.365853e-01 -1.263598e+00 -1.598948e+00 -1.410435e+00 -1.006930e+00 2.648933e-01 6.892952e-01 5.356698e-01 3.090181e-01 5.060650e-01 3.659333e+00 6.959838e-01 -3.301523e-01 -1.390996e-01 -6.675692e-01 -6.760022e-01 -5.536532e-01 -5.552938e-01 -5.203231e-02 -6.187645e-02 -9.455219e-02 -1.413739e-01 -3.335574e-02 1.085168e+00
<VARIANCE> 39
 1.800097e+01 1.764185e+01 2.179308e+01 2.150737e+01 2.933467e+01 2.540575e+01 2.498102e+01 2.633712e+01 2.697346e+01 2.269996e+01 2.306182e+01 2.601172e+01 3.732787e+01 3.972241e+00 3.388072e+00 3.688592e+00 3.760911e+00 4.283936e+00 4.677292e+00 4.706438e+00 4.884387e+00 4.259741e+00 4.012723e+00 3.943437e+00 3.767290e+00 4.956844e+00 3.052803e-01 3.686293e-01 4.881230e-01 5.195714e-01 6.113673e-01 6.378920e-01 6.546026e-01 6.984428e-01 6.968864e-01 6.330359e-01 7.060476e-01 7.345043e-01 4.717458e-01
<GCONST> 1.241173e+02
<MIXTURE> 5 9.206980e-02
<MEAN> 39
 5.445792e+00 4.280246e+00 1.677980e+00 2.799475e+00 1.240445e+00 -2.284958e+00 -5.317010e+00 -7.063486e+00 -2.381120e+00 1.209911e-01 -1.391037e+00 -3.291868e+00 -3.222766e-01 2.574340e-01 -2.593212e+00 -2.162930e+00 -2.317794e+00 -8.142884e-01 -4.848905e-03 -8.218752e-01 1.903796e+00 2.722708e+00 1.263502e+00 2.999750e-01 5.157698e-01 3.359641e+00 -5.893156e-02 -5.244155e-01 -2.775935e-01 -4.360979e-01 -1.262854e-01 9.585674e-02 3.050328e-01 8.037327e-01 4.283617e-01 -1.413547e-01 -2.941003e-01 -1.920606e-02 4.071963e-01
<VARIANCE> 39
 1.411488e+01 1.635447e+01 2.032552e+01 2.245897e+01 2.754419e+01 3.411930e+01 3.249569e+01 3.110956e+01 3.517645e+01 3.303032e+01 3.771037e+01 3.833823e+01 1.984610e+01 2.136795e+00 3.251711e+00 3.420429e+00 4.081371e+00 4.682945e+00 5.495584e+00 6.207698e+00 7.771946e+00 5.041234e+00 5.546526e+00 5.015159e+00 4.833085e+00 2.637117e+00 2.421894e-01 3.079241e-01 3.385605e-01 3.973826e-01 5.467906e-01 5.687112e-01 7.274933e-01 6.609875e-01 7.364454e-01 6.762062e-01 5.935630e-01 6.656533e-01 2.499629e-01
<GCONST> 1.240020e+02
<MIXTURE> 6 1.426025e-01
<MEAN> 39
 8.658314e-01 1.188012e+00 9.885842e-01 1.402256e+00 2.229184e-03 -2.366485e-01 -2.233806e-01 -1.226207e+00 -5.858409e-01 -3.199915e-01 -3.351724e-01 -3.446881e-01 -8.167086e-01 4.210426e-02 -6.421237e-02 -1.019951e-01 -1.658053e-01 -1.054597e-01 -4.902978e-02 -1.175233e-01 -1.036294e-02 7.932613e-02 1.288508e-01 7.527521e-02 9.327198e-02 4.145121e-02 3.132078e-02 -8.372947e-02 -1.474954e-02 -1.443153e-01 -1.763822e-01 -1.027991e-01 -6.570276e-02 5.247482e-02 3.124347e-02 2.686951e-02 6.487900e-03 2.114046e-02 1.384671e-01
<VARIANCE> 39
 3.700799e+01 3.935439e+01 4.075011e+01 4.654533e+01 6.088279e+01 4.925343e+01 5.077077e+01 5.213528e+01 4.804070e+01 4.905946e+01 5.453520e+01 5.766487e+01 5.995200e+01 4.538620e-01 6.750798e-01 9.298947e-01 1.173895e+00 1.515483e+00 1.620525e+00 1.843371e+00 2.035468e+00 1.919998e+00 1.958724e+00 1.881651e+00 1.698097e+00 4.246917e-01 8.203489e-02 1.249250e-01 1.783704e-01 2.234996e-01 3.058797e-01 3.163146e-01 3.572355e-01 3.910497e-01 3.871345e-01 3.699423e-01 3.588882e-01 3.419548e-01 9.326153e-02
<GCONST> 1.065432e+02
<MIXTURE> 7 1.245954e-01
<MEAN> 39
 -6.120729e+00 -1.837219e+00 1.288440e+00 3.132450e+00 1.491831e+00 -7.567110e-01 1.547472e+00 6.716197e-01 1.476808e+00 1.287851e+00 4.520354e-01 3.081148e-01 3.067659e-01 1.410378e+00 -3.940150e-02 5.381007e-01 -3.859755e-01 -1.480599e+00 -1.390674e+00 -1.127483e+00 -5.492176e-01 -3.020996e-01 -7.443059e-02 5.872793e-02 1.786833e-01 2.888817e+00 9.881026e-01 5.662981e-01 1.501566e-01 -2.139385e-01 -3.957451e-01 -1.850158e-01 -3.984451e-01 -3.954934e-01 -3.117574e-01 -9.994792e-02 -1.074596e-01 -1.454513e-01 -2.616622e-01
<VARIANCE> 39
 2.725704e+01 3.086140e+01 3.756107e+01 3.418345e+01 3.947817e+01 4.182987e+01 4.360543e+01 4.104210e+01 3.797962e+01 3.699539e+01 3.438990e+01 3.164935e+01 3.727081e+01 3.958640e+00 3.879443e+00 4.439052e+00 3.686665e+00 4.428411e+00 4.385811e+00 3.943161e+00 4.471454e+00 4.240973e+00 3.941156e+00 3.638207e+00 3.365988e+00 5.453247e+00 3.847315e-01 6.134056e-01 7.287178e-01 7.395495e-01 7.334891e-01 8.405052e-01 8.229166e-01 8.654851e-01 8.771358e-01 8.682522e-01 9.022073e-01 7.704859e-01 6.041692e-01
<GCONST> 1.326829e+02
<MIXTURE> 8 9.067857e-02
<MEAN> 39
 3.824861e-01 3.723237e+00 1.297004e+00 3.771695e+00 -2.478463e+00 -4.381439e+00 2.828636e-01 -1.641148e+00 3.525402e+00 1.564793e+00 1.570794e+00 2.060636e-01 1.025831e+00 2.035351e+00 -2.170580e+00 -4.435498e-01 -2.871182e+00 -2.109579e+00 -1.565371e+00 -1.178045e+00 1.447779e+00 9.258918e-01 1.394475e+00 6.809144e-01 1.572875e+00 4.893078e+00 9.040385e-02 -4.885493e-01 -2.435956e-02 -5.722330e-01 2.414234e-01 4.486862e-01 -2.392453e-02 2.450218e-01 -3.532534e-01 -2.091327e-02 -2.272197e-01 1.019238e-01 -2.128358e-01
<VARIANCE> 39
 2.191296e+01 2.158280e+01 2.716185e+01 2.682229e+01 3.858292e+01 3.946977e+01 4.045391e+01 4.340715e+01 3.955852e+01 3.925033e+01 3.976028e+01 3.721444e+01 3.109753e+01 4.552270e+00 3.969358e+00 6.347000e+00 5.199246e+00 7.639872e+00 7.509941e+00 7.837082e+00 8.105392e+00 8.013308e+00 8.066941e+00 8.799730e+00 9.352427e+00 4.808853e+00 5.325804e-01 4.768418e-01 5.397664e-01 6.198649e-01 7.414259e-01 8.179706e-01 9.450633e-01 1.018718e+00 1.032153e+00 1.077203e+00 1.100162e+00 1.156387e+00 5.381448e-01
<GCONST> 1.387758e+02
<STATE> 3
<NUMMIXES> 8
<MIXTURE> 1 1.162804e-01
<MEAN> 39
 4.008243e+00 -6.679599e+00 -4.667732e+00 -6.471303e+00 -9.152906e-01 -4.476766e+00 -1.472333e+00 7.670815e+00 8.629363e+00 3.022025e+00 9.578481e-01 5.426781e+00 9.066809e+00 -3.969468e-01 -2.524454e+00 -7.836797e-01 -1.416963e+00 9.004218e-01 8.588108e-01 1.507554e+00 2.380277e+00 -4.305429e-01 -1.107719e+00 1.643467e-01 1.854022e+00 2.902342e+00 -4.319772e-01 6.532801e-01 5.324917e-01 9.068426e-01 3.618374e-01 5.279841e-01 2.569681e-01 -9.552115e-01 -1.177975e+00 -4.490852e-01 1.170403e-01 -2.407651e-01 -1.009491e+00
<VARIANCE> 39
 1.729983e+01 2.072580e+01 3.552790e+01 3.145315e+01 5.760990e+01 5.430342e+01 7.765366e+01 5.514030e+01 7.197044e+01 9.009066e+01 1.033256e+02 9.950826e+01 2.249389e+01 2.144250e+00 2.569523e+00 2.917655e+00 3.848814e+00 5.232897e+00 5.437877e+00 7.425442e+00 6.733461e+00 6.540704e+00 7.237035e+00 6.839078e+00 7.808583e+00 2.425620e+00 3.144897e-01 4.053515e-01 5.203494e-01 5.824593e-01 7.355912e-01 8.937814e-01 1.163009e+00 9.305152e-01 9.974195e-01 1.158050e+00 1.110335e+00 1.166610e+00 4.521000e-01
<GCONST> 1.382387e+02
<MIXTURE> 2 1.690288e-01
<MEAN> 39
 2.385820e+00 4.006086e+00 2.648108e+00 1.691161e+00 -2.246049e+00 -3.564902e+00 -3.162418e+00 -3.841727e+00 -1.019060e+00 -2.755880e-01 -1.416962e+00 -1.258946e+00 5.703583e-01 1.849409e+00 4.600728e-02 -1.173712e-01 -1.211524e+00 -1.407590e+00 -8.516411e-01 -1.086061e+00 -3.975370e-01 -2.017836e-01 -3.539262e-02 -3.544685e-01 -1.545472e-01 1.458446e+00 -1.952788e-01 -2.875174e-01 -1.418798e-01 -9.135345e-02 1.339984e-01 2.996932e-01 2.978244e-01 3.131979e-01 1.091473e-01 6.302758e-02 1.383662e-02 -1.281095e-02 -1.259857e-01
<VARIANCE> 39
 2.686356e+01 2.527370e+01 3.945032e+01 3.292856e+01 4.421592e+01 3.648239e+01 3.990719e+01 3.806155e+01 3.672127e+01 3.586773e+01 3.447880e+01 3.633217e+01 2.472562e+01 3.426427e+00 2.747202e+00 3.705863e+00 3.647502e+00 3.812714e+00 4.187577e+00 4.250798e+00 4.782971e+00 4.184142e+00 4.283154e+00 4.271164e+00 3.783969e+00 1.791743e+00 2.916989e-01 3.183055e-01 3.312865e-01 3.433129e-01 4.744753e-01 4.619043e-01 5.272546e-01 5.572661e-01 5.292572e-01 4.948353e-01 4.744817e-01 4.211060e-01 2.007619e-01
<GCONST> 1.226342e+02
<MIXTURE> 3 1.278920e-01
<MEAN> 39
 7.524328e+00 6.105125e-01 -3.994250e+00 -5.081414e+00 2.330790e-01 1.970651e+00 -6.147825e+00 -7.522958e+00 8.062826e-01 4.921899e+00 4.849937e+00 -3.028588e-01 4.990655e+00 1.348024e+00 -1.663184e+00 -1.882559e+00 -2.603333e+00 -8.730883e-01 4.687990e-01 -1.541178e+00 1.416957e-01 1.878250e+00 1.588584e+00 8.182828e-01 -4.625434e-01 2.912282e+00 -4.664695e-01 7.014996e-02 3.918927e-01 5.628032e-01 2.621433e-01 -8.752073e-02 5.191714e-01 7.840423e-01 1.412385e-01 -4.460869e-01 -7.273414e-01 -2.896105e-01 -6.224406e-01
<VARIANCE> 39
 1.374763e+01 1.910420e+01 2.612221e+01 4.544345e+01 3.186674e+01 4.692765e+01 4.469211e+01 4.017271e+01 4.594527e+01 4.535995e+01 4.313674e+01 4.789238e+01 2.178485e+01 3.355397e+00 3.176522e+00 3.130899e+00 5.502143e+00 5.289906e+00 6.282686e+00 6.102183e+00 7.175190e+00 6.678362e+00 5.465604e+00 5.513037e+00 6.117456e+00 2.862013e+00 3.946012e-01 3.599420e-01 3.881845e-01 5.433813e-01 5.902702e-01 6.554019e-01 7.624256e-01 7.317348e-01 7.535943e-01 7.620853e-01 6.511171e-01 6.482995e-01 3.490305e-01
<GCONST> 1.306390e+02
<MIXTURE> 4 1.110710e-01
<MEAN> 39
 7.050775e+00 -3.142484e+00 -5.307199e+00 -5.757936e+00 -8.079431e-01 -2.227103e+00 -6.728382e+00 1.975165e-01 8.608534e+00 4.744014e+00 -3.529222e+00 -6.079440e+00 8.434311e+00 2.446802e-01 -2.777117e+00 -2.064509e+00 -2.363047e+00 -1.361813e-01 6.605107e-01 3.907448e-01 2.981900e+00 2.402718e+00 -2.855608e-01 -1.682045e+00 -3.433904e-01 3.388600e+00 -4.838590e-01 3.813102e-01 5.636480e-01 8.136067e-01 4.860123e-01 3.423814e-01 7.689075e-01 -1.886496e-02 -1.017639e+00 -9.661868e-01 -1.016241e-01 3.993205e-01 -9.457772e-01
<VARIANCE> 39
 1.115702e+01 1.761579e+01 2.000941e+01 2.485937e+01 2.753901e+01 3.506664e+01 3.920475e+01 3.677269e+01 3.540954e+01 4.751267e+01 4.766368e+01 3.697078e+01 2.326688e+01 2.488057e+00 2.703161e+00 2.965935e+00 3.450089e+00 4.493821e+00 4.485768e+00 5.699188e+00 5.477813e+00 5.404782e+00 5.412141e+00 3.742394e+00 5.425886e+00 2.870961e+00 3.254619e-01 3.636418e-01 3.691236e-01 4.241577e-01 5.560317e-01 5.612419e-01 7.330593e-01 7.166463e-01 6.278650e-01 6.948362e-01 6.687622e-01 5.941104e-01 4.153409e-01
<GCONST> 1.250531e+02
<MIXTURE> 5 1.107121e-01
<MEAN> 39
 3.124056e+00 2.137634e-01 9.805644e+00 6.251180e+00 -9.154974e+00 -9.839584e+00 -3.228465e+00 -8.112948e-01 -5.326278e+00 -2.593585e+00 2.052151e+00 1.267166e+00 4.271458e+00 2.246391e-01 -8.877266e-01 1.918646e+00 -9.609534e-01 -4.102664e+00 -1.154237e+00 -6.799498e-02 -8.786729e-02 -1.592053e+00 3.832796e-01 1.107758e+00 1.792088e-01 2.531694e+00 -1.927554e-01 5.396661e-01 -1.715266e-01 -5.512264e-01 5.187410e-01 1.009250e+00 4.119367e-01 -3.781831e-01 1.704029e-01 5.003857e-01 -3.084719e-01 -4.908373e-01 -6.826096e-01
<VARIANCE> 39
 1.141545e+01 1.777224e+01 2.594105e+01 2.744772e+01 3.557029e+01 2.991472e+01 3.348037e+01 3.301688e+01 3.596531e+01 3.111621e+01 3.208305e+01 3.338707e+01 1.990053e+01 2.842998e+00 2.942699e+00 2.874178e+00 3.719991e+00 3.485201e+00 5.222694e+00 4.540512e+00 5.177729e+00 4.709679e+00 5.242464e+00 4.214496e+00 4.124878e+00 2.025228e+00 2.985160e-01 3.397789e-01 3.846394e-01 3.771672e-01 5.846234e-01 5.327854e-01 6.147110e-01 5.945785e-01 6.055686e-01 5.150375e-01 5.619667e-01 4.670551e-01 2.794811e-01
<GCONST> 1.216742e+02
<MIXTURE> 6 1.156233e-01
<MEAN> 39
 5.514138e-01 -9.925288e-01 -1.971135e-01 -6.153417e-01 -9.691882e-01 -3.719309e-01 -3.349402e-01 5.211293e-01 2.426331e-01 1.078379e-01 3.770915e-01 9.370108e-01 1.348848e+00 2.667927e-02 -1.411565e-01 -6.956415e-02 -2.947236e-01 -2.451503e-01 -5.051207e-02 -7.349366e-02 5.887652e-02 -1.541251e-02 2.088344e-02 -8.600920e-03 3.592809e-02 5.438817e-02 7.883702e-03 2.636603e-02 4.925333e-02 1.352921e-02 -4.439223e-02 -8.608935e-03 7.935881e-03 -1.955581e-02 -5.730342e-02 -5.286343e-02 -4.722048e-02 -4.818793e-02 -1.422832e-02
<VARIANCE> 39
 3.458948e+01 3.519521e+01 4.312476e+01 4.546607e+01 6.761033e+01 5.643624e+01 5.633779e+01 5.566335e+01 5.728586e+01 5.929050e+01 6.713776e+01 7.291807e+01 6.810806e+01 3.349487e-01 6.316178e-01 8.973044e-01 1.082263e+00 1.530891e+00 1.580295e+00 1.802490e+00 2.026129e+00 2.006826e+00 1.912137e+00 1.892787e+00 1.850075e+00 3.132721e-01 4.490262e-02 8.037704e-02 1.165572e-01 1.634719e-01 2.201046e-01 2.484821e-01 2.791434e-01 3.130378e-01 3.178578e-01 3.244457e-01 3.135749e-01 2.865510e-01 2.706904e-02
<GCONST> 1.023226e+02
<MIXTURE> 7 1.550641e-01
<MEAN> 39
 5.310236e+00 -1.549835e+00 1.031614e+00 8.719340e-01 -5.969903e+00 -9.274453e+00 -6.105582e+00 1.885638e+00 3.857482e+00 2.712341e-01 -1.990376e+00 6.201816e-01 6.052380e+00 5.411000e-01 -2.302628e+00 -3.846015e-01 -1.708495e+00 -2.442941e+00 -1.320582e+00 3.665892e-01 2.711171e+00 7.616557e-01 -1.190431e-01 5.816594e-03 9.851290e-01 3.207099e+00 -3.895110e-01 3.363253e-01 2.030409e-01 3.311707e-03 4.362468e-01 8.864215e-01 9.217139e-01 -1.488881e-01 -6.807883e-01 -2.128089e-01 -2.338648e-03 -2.828981e-01 -7.037805e-01
<VARIANCE> 39
 1.070271e+01 1.641823e+01 1.974818e+01 2.299486e+01 3.046953e+01 2.680796e+01 3.681376e+01 3.379448e+01 3.151147e+01 3.241670e+01 3.550924e+01 4.061634e+01 1.986975e+01 2.995002e+00 2.855066e+00 2.893564e+00 3.253867e+00 4.851440e+00 5.367585e+00 6.416179e+00 5.372870e+00 5.474469e+00 4.710518e+00 4.951349e+00 4.989770e+00 2.662436e+00 3.289998e-01 3.393480e-01 3.003493e-01 3.570259e-01 5.437279e-01 5.125660e-01 5.837105e-01 6.769063e-01 5.887499e-01 5.640962e-01 5.556812e-01 5.527195e-01 3.428954e-01
<GCONST> 1.226282e+02
<MIXTURE> 8 9.437290e-02
<MEAN> 39
 2.439214e+00 -3.570763e+00 6.514707e+00 -4.386821e+00 -1.199524e+01 -9.128609e+00 -3.367997e-01 1.886550e+00 -6.607679e-01 7.184545e+00 4.987163e+00 7.883564e+00 7.883974e+00 -2.510243e-01 -1.501870e+00 1.376479e+00 -2.446170e+00 -1.890491e+00 1.330151e-01 9.012180e-01 4.855226e-01 -1.086447e+00 1.806113e+00 6.586308e-01 1.486051e+00 2.522035e+00 -4.098989e-01 6.375085e-01 -2.538373e-01 4.261202e-01 1.032219e+00 1.089649e+00 2.100455e-01 -5.966256e-01 -4.821019e-02 -5.498484e-01 -6.362253e-01 -8.709326e-01 -1.028202e+00
<VARIANCE> 39
 1.687647e+01 2.402745e+01 3.493445e+01 3.170698e+01 3.960973e+01 4.293598e+01 4.181585e+01 6.097864e+01 6.436108e+01 6.496392e+01 8.300760e+01 7.949280e+01 1.897245e+01 2.349977e+00 2.578236e+00 3.429011e+00 4.030467e+00 4.835104e+00 5.298623e+00 5.732739e+00 7.024944e+00 6.621966e+00 6.879870e+00 7.619647e+00 6.914235e+00 2.206226e+00 3.417595e-01 4.527143e-01 4.099811e-01 5.759866e-01 7.023535e-01 7.276731e-01 6.838063e-01 9.145931e-01 9.624563e-01 8.764914e-01 8.176984e-01 7.940378e-01 4.195547e-01
<GCONST> 1.340715e+02
<STATE> 4
<NUMMIXES> 8
<MIXTURE> 1 1.376469e-01
<MEAN> 39
 4.666214e+00 -5.396453e+00 -5.272519e+00 -5.050007e+00 -2.704256e-01 -1.110350e+00 -1.279785e+00 6.417043e+00 7.732021e+00 -6.442896e-01 -7.313172e+00 -4.540677e+00 1.037912e+01 -6.709025e-01 -1.024793e+00 -4.935780e-01 -5.785920e-03 6.444541e-01 1.133306e+00 1.763493e+00 1.596270e+00 -4.472635e-01 -1.761089e+00 -8.307286e-01 5.967401e-01 9.577036e-01 -1.422497e-01 5.756422e-01 4.788320e-01 6.659861e-01 2.720386e-01 8.536811e-02 5.861825e-03 -8.487238e-01 -8.977683e-01 -1.612751e-01 5.510990e-01 2.841579e-01 -8.333391e-01
<VARIANCE> 39
 1.352441e+01 1.717377e+01 2.678364e+01 2.391601e+01 4.622734e+01 4.653602e+01 5.585262e+01 4.348740e+01 4.460584e+01 5.631065e+01 3.849587e+01 4.077268e+01 2.209887e+01 5.573039e-01 1.003464e+00 1.272603e+00 1.688253e+00 2.458016e+00 2.547057e+00 3.005397e+00 3.551612e+00 3.384681e+00 2.940569e+00 2.551874e+00 2.545704e+00 6.017870e-01 2.189415e-01 2.372884e-01 3.136856e-01 3.547210e-01 5.318972e-01 5.329753e-01 6.765866e-01 5.886327e-01 6.017500e-01 6.495821e-01 4.894493e-01 5.230241e-01 2.303285e-01
<GCONST> 1.142815e+02
<MIXTURE> 2 9.001615e-02
<MEAN> 39
 1.463363e+00 7.228513e-01 1.355758e+01 -1.084404e+00 -1.413250e+01 -5.309655e+00 6.519228e-03 -4.563501e+00 -7.728879e+00 4.483062e+00 3.798421e-01 -1.642365e-01 6.047549e+00 -7.867240e-01 5.613413e-01 1.247550e+00 -1.710292e+00 -1.163702e+00 1.709945e+00 4.290228e-01 -1.296647e+00 -3.261279e-01 1.260061e+00 -7.496424e-01 -5.880409e-01 7.695949e-01 -8.697489e-02 4.495625e-01 -6.499986e-01 2.550589e-01 1.076800e+00 4.145078e-01 -1.306283e-01 -1.841523e-02 7.121384e-01 -3.557298e-01 -3.226764e-01 -1.338211e-01 -6.790513e-01
<VARIANCE> 39
 1.287377e+01 2.361415e+01 2.870231e+01 5.043479e+01 2.985779e+01 3.576271e+01 3.595970e+01 4.952634e+01 4.873902e+01 5.422750e+01 6.491070e+01 6.290051e+01 1.842436e+01 7.531198e-01 1.059972e+00 1.532224e+00 2.162950e+00 2.916103e+00 2.547189e+00 2.990025e+00 2.785330e+00 3.186212e+00 2.864005e+00 3.322456e+00 2.678893e+00 5.435812e-01 2.154226e-01 2.879280e-01 2.689803e-01 5.030320e-01 4.488281e-01 5.238656e-01 5.715350e-01 6.546963e-01 5.722997e-01 6.792538e-01 5.652357e-01 5.482493e-01 1.807176e-01
<GCONST> 1.160852e+02
<MIXTURE> 3 1.456921e-01
<MEAN> 39
 7.283483e+00 -1.312694e+00 1.822345e+00 -2.804325e+00 -2.693744e+00 -4.904840e+00 -5.175513e+00 -2.591096e+00 2.304564e-01 9.322605e-01 -1.987872e+00 -1.352114e+00 4.547372e+00 8.210940e-01 -8.154829e-01 -4.324520e-02 -8.384007e-01 -6.146291e-01 -2.483540e-01 -2.608917e-01 7.114229e-01 -7.605971e-02 -9.522039e-02 -4.762210e-01 -3.522614e-03 1.193011e+00 -7.081366e-01 1.824685e-01 -1.311812e-02 4.191670e-01 2.600884e-01 4.606861e-01 5.718339e-01 2.840290e-01 -1.002127e-02 -7.376511e-02 9.582561e-02 2.895320e-02 -4.558173e-01
<VARIANCE> 39
 3.328709e+01 5.078884e+01 8.017986e+01 8.742904e+01 7.918404e+01 8.333228e+01 8.043266e+01 8.398613e+01 7.958321e+01 8.287247e+01 7.941335e+01 7.048333e+01 3.201741e+01 2.857606e+00 3.471505e+00 3.787321e+00 5.060308e+00 5.435915e+00 5.439059e+00 6.281977e+00 6.907471e+00 6.080988e+00 5.710158e+00 5.147746e+00 4.562990e+00 2.142762e+00 4.229526e-01 6.823555e-01 8.021473e-01 9.914909e-01 9.850756e-01 1.023266e+00 1.122791e+00 1.176381e+00 1.145862e+00 1.148117e+00 9.970677e-01 8.675668e-01 4.871704e-01
<GCONST> 1.445636e+02
<MIXTURE> 4 1.641296e-01
<MEAN> 39
 1.974660e+00 5.128282e-01 5.548127e-01 -1.556103e+00 -2.708898e+00 -1.447380e+00 -9.557915e-01 -4.082451e-01 -5.268369e-01 -9.368290e-01 -1.452158e+00 -8.667110e-01 2.075669e+00 2.381577e-02 -7.671849e-02 -2.641378e-02 -1.058935e-01 -1.113304e-01 5.763154e-02 5.042819e-02 1.003125e-01 -7.720247e-02 -1.186984e-01 -9.435293e-02 -7.745767e-02 5.059225e-02 -1.428460e-02 2.595993e-02 4.621333e-02 9.711546e-02 6.250116e-02 6.947151e-03 1.491416e-02 -1.467301e-02 6.898940e-03 1.273198e-02 4.640483e-02 1.459538e-02 -6.045368e-02
<VARIANCE> 39
 3.140015e+01 3.393119e+01 4.332988e+01 4.830251e+01 5.945992e+01 5.330724e+01 5.938361e+01 5.979494e+01 4.747861e+01 4.790641e+01 5.074400e+01 4.854831e+01 5.405221e+01 2.679889e-01 5.334902e-01 7.228639e-01 9.045066e-01 1.203638e+00 1.350309e+00 1.535703e+00 1.691923e+00 1.629633e+00 1.531755e+00 1.474407e+00 1.460039e+00 2.311237e-01 5.167845e-02 9.139053e-02 1.170182e-01 1.682972e-01 2.227279e-01 2.532834e-01 2.869544e-01 3.159643e-01 2.936597e-01 2.791236e-01 2.671388e-01 2.625332e-01 3.438693e-02
<GCONST> 9.825979e+01
<MIXTURE> 5 1.228390e-01
<MEAN> 39
 6.969570e+00 -3.017899e-01 -4.985343e+00 -6.222672e+00 -1.464547e-01 2.397166e+00 -7.464081e+00 -3.777725e+00 4.807295e+00 5.087670e+00 1.423691e+00 -3.521946e+00 6.623607e+00 -1.464199e-01 -6.696483e-01 -6.425496e-01 -4.355136e-01 1.556179e-01 2.183072e-01 6.337892e-04 1.332893e+00 1.273544e+00 -3.154383e-02 -8.281280e-01 -5.379615e-01 9.236377e-01 -3.379641e-01 1.688617e-01 4.363966e-01 6.420152e-01 2.431073e-01 -1.972887e-01 5.349444e-01 1.940369e-01 -4.249446e-01 -5.356409e-01 -2.823815e-01 1.910909e-01 -4.698543e-01
<VARIANCE> 39
 1.199267e+01 2.210481e+01 2.556036e+01 4.765982e+01 3.806173e+01 6.024866e+01 5.300405e+01 5.167040e+01 4.933612e+01 5.117849e+01 5.915832e+01 5.296252e+01 2.116198e+01 6.003764e-01 8.946969e-01 1.232961e+00 2.068253e+00 2.247964e+00 2.951074e+00 2.868331e+00 3.051411e+00 3.007849e+00 2.991143e+00 2.925453e+00 2.744838e+00 4.254738e-01 1.751064e-01 2.161223e-01 2.421785e-01 4.212495e-01 4.438504e-01 5.294732e-01 5.424011e-01 6.404881e-01 5.945850e-01 5.714195e-01 5.828832e-01 5.486988e-01 1.444132e-01
<GCONST> 1.145362e+02
<MIXTURE> 6 1.344787e-01
<MEAN> 39
 3.214394e+00 -2.530577e+00 5.231863e+00 9.927829e-01 -1.098368e+01 -8.909257e+00 -1.849137e+00 4.230846e+00 -1.298847e+00 -1.393559e+00 1.136642e+00 2.101507e+00 8.093237e+00 -6.669527e-01 -2.812990e-01 5.146320e-01 -8.955439e-01 -1.546151e+00 5.290419e-01 1.777540e+00 8.791440e-01 -8.309852e-01 5.737075e-02 5.256392e-01 -1.732266e-01 9.716398e-01 -1.551697e-01 5.205529e-01 -2.284082e-02 1.183870e-01 8.208938e-01 6.798260e-01 2.713518e-01 -6.201645e-01 -1.164408e-01 1.687506e-01 -1.985842e-01 -4.174655e-01 -6.831455e-01
<VARIANCE> 39
 1.084204e+01 1.747620e+01 2.467521e+01 3.116868e+01 2.851185e+01 3.699979e+01 4.320541e+01 4.061785e+01 4.956022e+01 3.873031e+01 4.983303e+01 5.115895e+01 1.896630e+01 5.036564e-01 8.386182e-01 1.313957e+00 1.385311e+00 2.305001e+00 2.452036e+00 2.771779e+00 2.784359e+00 2.862786e+00 2.666104e+00 2.387297e+00 2.438086e+00 4.390684e-01 1.724126e-01 2.222491e-01 2.120924e-01 3.062355e-01 4.017288e-01 4.663512e-01 5.472803e-01 5.646524e-01 5.442375e-01 4.926036e-01 5.145351e-01 4.681738e-01 1.624024e-01
<GCONST> 1.094249e+02
<MIXTURE> 7 9.929014e-02
<MEAN> 39
 1.573912e+00 -8.265722e+00 -3.090431e+00 -4.219592e+00 8.023629e-01 4.425259e-02 3.684702e+00 8.387434e+00 8.906144e-02 -3.922948e+00 2.245840e-01 9.077005e+00 1.108374e+01 -1.008064e+00 -8.509050e-01 2.377582e-01 6.656632e-01 1.364599e+00 1.982451e+00 1.859501e+00 1.534049e-01 -2.258434e+00 -1.300031e+00 7.375548e-01 8.310177e-01 9.449794e-01 5.033203e-02 7.251035e-01 2.626675e-01 5.639664e-01 3.836463e-02 -1.472309e-01 -5.276889e-01 -9.982542e-01 5.534031e-02 4.979151e-01 1.711826e-01 -7.124395e-01 -8.666270e-01
<VARIANCE> 39
 1.552446e+01 1.872837e+01 2.877783e+01 2.924977e+01 6.126431e+01 4.831818e+01 6.926717e+01 5.143590e+01 5.120327e+01 5.804459e+01 9.255183e+01 1.037216e+02 1.750950e+01 6.212660e-01 1.419761e+00 1.670390e+00 2.199139e+00 2.860296e+00 3.138146e+00 4.379977e+00 3.756176e+00 3.740390e+00 3.918378e+00 3.657376e+00 4.413335e+00 5.752901e-01 2.028016e-01 2.769530e-01 3.390825e-01 4.765782e-01 6.550290e-01 6.972102e-01 9.825571e-01 7.975207e-01 7.336919e-01 7.496303e-01 7.719737e-01 8.665789e-01 2.077020e-01
<GCONST> 1.230685e+02
<MIXTURE> 8 1.059500e-01
<MEAN> 39
 -6.609191e-01 -3.770935e+00 3.990331e-01 -4.435770e+00 -2.277203e+00 -3.802965e-01 2.427555e+00 9.239963e-01 2.142165e+00 6.422313e+00 1.016393e+01 1.003223e+01 7.656397e+00 -3.200068e-01 -8.008748e-02 1.601181e-01 9.913631e-03 3.408985e-01 6.097307e-01 3.170567e-01 -2.797857e-01 -4.973160e-01 -1.280522e-01 2.207040e-01 2.081413e-01 2.473174e-01 8.887258e-02 1.711075e-01 -1.298742e-02 2.528853e-01 6.291540e-02 -4.093115e-02 -1.724892e-01 -1.414154e-03 4.551810e-02 -2.617687e-01 -5.307857e-01 -5.069271e-01 -3.126968e-01
<VARIANCE> 39
 2.720130e+01 3.218650e+01 4.989466e+01 5.700832e+01 7.145718e+01 7.834336e+01 8.488581e+01 8.112648e+01 8.797474e+01 1.058713e+02 1.021031e+02 1.057303e+02 3.409114e+01 9.320240e-01 1.215085e+00 1.564918e+00 2.035748e+00 2.884658e+00 3.414229e+00 3.428184e+00 3.695138e+00 4.074399e+00 4.332661e+00 4.457271e+00 4.429066e+00 6.457165e-01 1.687830e-01 2.482657e-01 3.174796e-01 4.265822e-01 4.923611e-01 6.592029e-01 6.802962e-01 6.895618e-01 8.256537e-01 8.749742e-01 7.591901e-01 8.177781e-01 1.630988e-01
<GCONST> 1.276845e+02
<TRANSP> 5
 0.000000e+00 1.000000e+00 0.000000e+00 0.000000e+00 0.000000e+00
 0.000000e+00 5.417711e-01 4.582289e-01 0.000000e+00 0.000000e+00
 0.000000e+00 0.000000e+00 3.710948e-01 6.289052e-01 0.000000e+00
 0.000000e+00 0.000000e+00 0.000000e+00 3.922453e-01 6.077547e-01
 0.000000e+00 0.000000e+00 0.000000e+00 0.000000e+00 0.000000e+00
<ENDHMM>
~h "d"
<BEGINHMM>
<NUMSTATES> 5
<STATE> 2
<NUMMIXES> 8
<MIXTURE> 1 9.618168e-02
<MEAN> 39
 -1.095642e+01 1.257349e+01 -3.787744e+00 8.191613e+00 -1.295814e+00 -1.830467e+00 2.850740e+00 -5.150462e+00 7.840160e-01 -8.869818e-01 3.920952e-01 -3.243111e+00 1.307384e+00 -3.166534e-01 3.934267e-01 1.757102e-02 -6.526641e-01 -1.140399e+00 -1.451116e+00 4.786945e-02 5.222807e-01 2.821284e-01 4.912685e-01 1.236785e+00 1.245544e+00 1.805623e+00 1.391446e+00 -9.854251e-01 8.025152e-01 -8.342329e-01 -4.577072e-01 -4.883865e-01 -4.510412e-01 4.393905e-01 -1.512534e-01 -4.229721e-02 -1.722185e-02 4.588259e-01 -1.296683e-01
<VARIANCE> 39
 2.418983e+01 3.157668e+01 3.073531e+01 3.397580e+01 4.682993e+01 4.216909e+01 4.282610e+01 3.703510e+01 3.881327e+01 4.018884e+01 4.166380e+01 4.093226e+01 1.789920e+01 5.976645e+00 3.878443e+00 3.704548e+00 3.569693e+00 4.010708e+00 4.682835e+00 3.852563e+00 4.260959e+00 3.710415e+00 3.778525e+00 4.178518e+00 4.245170e+00 2.462192e+00 3.972757e-01 5.914508e-01 5.235810e-01 5.360755e-01 7.736003e-01 7.674513e-01 8.013785e-01 8.119000e-01 8.336543e-01 8.114800e-01 9.302602e-01 9.013010e-01 2.709451e-01
<GCONST> 1.302333e+02
<MIXTURE> 2 9.567913e-02
<MEAN> 39
 3.721292e+00 -2.300709e+00 1.524867e+00 -3.058287e+00 -6.626225e+00 -5.260884e+00 -1.290794e+00 2.197164e+00 -2.741901e-01 -1.068040e+00 -7.134333e-01 1.264791e+00 6.253164e+00 4.119727e-01 1.127479e+00 7.720535e-01 1.040424e+00 -8.643611e-02 -8.424965e-01 -1.069710e+00 -1.191420e+00 -3.299769e-01 -2.213995e-01 -2.477309e-01 -2.548936e-01 -1.401706e+00 -7.373774e-02 2.405020e-01 3.468126e-02 3.191205e-01 4.814014e-01 3.018959e-01 8.450310e-02 -3.005662e-01 -1.904644e-01 -1.370106e-01 -1.642263e-01 -2.253389e-01 -3.575388e-01
<VARIANCE> 39
 1.411492e+01 2.818953e+01 4.781186e+01 3.851926e+01 5.657261e+01 5.574219e+01 6.496406e+01 6.975318e+01 6.998067e+01 6.159793e+01 6.736311e+01 6.998115e+01 2.072260e+01 6.346803e-01 1.314506e+00 1.888089e+00 2.129787e+00 3.262669e+00 3.133327e+00 3.615833e+00 3.890630e+00 3.710001e+00 3.698716e+00 3.231709e+00 3.076641e+00 7.509123e-01 1.185752e-01 2.090512e-01 3.089061e-01 3.660947e-01 5.021945e-01 5.451984e-01 6.282263e-01 6.914470e-01 6.815249e-01 6.542801e-01 5.807565e-01 5.108530e-01 1.483023e-01
<GCONST> 1.203862e+02
<MIXTURE> 3 1.767164e-01
<MEAN> 39
 -1.373971e+00 5.789851e+00 5.050538e+00 6.384545e+00 4.029510e+00 1.030769e+00 1.303892e+00 -2.344167e+00 -2.126119e+00 -2.084641e+00 -2.879658e+00 -3.018044e+00 -8.195379e+00 -2.154747e+00 -1.122948e+00 -1.030803e+00 -7.038778e-01 -1.778919e-02 1.187249e-01 5.204773e-01 7.777803e-01 7.814826e-01 8.868603e-01 1.023863e+00 8.789090e-01 1.671904e+00 1.657295e-02 -1.788027e-01 -1.988842e-01 -4.750636e-01 -7.568263e-01 -6.229126e-01 -2.387463e-01 1.015103e-01 1.123822e-01 1.415825e-01 2.592151e-01 3.138079e-01 9.518207e-01
<VARIANCE> 39
 3.224561e+01 3.575877e+01 3.528945e+01 2.761559e+01 3.824698e+01 3.575647e+01 3.571697e+01 3.952789e+01 3.446056e+01 3.189879e+01 3.097281e+01 3.369304e+01 3.782737e+01 3.693227e+00 3.685989e+00 3.707850e+00 3.693035e+00 4.500421e+00 4.524521e+00 3.979653e+00 3.898952e+00 3.908087e+00 3.561081e+00 3.340435e+00 3.001737e+00 5.762577e+00 5.324870e-01 6.208771e-01 5.281733e-01 5.358744e-01 6.573238e-01 6.494421e-01 6.565525e-01 7.032234e-01 6.689696e-01 5.952581e-01 5.719423e-01 5.379571e-01 5.126427e-01
<GCONST> 1.285812e+02
<MIXTURE> 4 1.441420e-01
<MEAN> 39
 3.134907e+00 2.395176e+00 2.841808e+00 1.576031e-01 -3.000759e+00 -1.878859e+00 -1.112251e+00 -1.857115e+00 -2.022764e+00 -1.339426e+00 -1.450006e+00 -1.281195e+00 1.313915e-01 -4.889609e-03 1.170499e-01 8.173824e-02 1.006690e-01 3.397417e-02 -8.182886e-02 -8.981289e-03 -1.918357e-03 5.164972e-02 3.193364e-02 1.151316e-03 3.229523e-02 -1.865364e-01 -1.051173e-02 -7.677937e-03 -1.190297e-02 4.246540e-02 4.035590e-02 -4.552722e-03 -1.406884e-02 2.400461e-02 7.486211e-03 1.744171e-03 -2.812437e-02 3.530500e-03 -4.879820e-03
<VARIANCE> 39
 2.437122e+01 3.465420e+01 4.697157e+01 5.148772e+01 6.109592e+01 5.037274e+01 5.102797e+01 5.813652e+01 5.457387e+01 5.220605e+01 5.419556e+01 5.232683e+01 4.690688e+01 1.757798e-01 3.865387e-01 6.350836e-01 8.143736e-01 1.020478e+00 1.191634e+00 1.358545e+00 1.495598e+00 1.565149e+00 1.525656e+00 1.449683e+00 1.348726e+00 1.395126e-01 2.781399e-02 5.925137e-02 1.031881e-01 1.430117e-01 1.828200e-01 2.155399e-01 2.437225e-01 2.676868e-01 2.780436e-01 2.736896e-01 2.470073e-01 2.427740e-01 1.863346e-02
<GCONST> 9.315424e+01
<MIXTURE> 5 2.099491e-01
<MEAN> 39
 2.407445e+00 4.855185e+00 4.314449e+00 3.369800e+00 -1.611526e+00 -3.664284e+00 -2.586040e+00 -4.187485e+00 -3.590711e+00 -3.129673e+00 -2.753695e+00 -2.312205e+00 -2.460793e+00 -7.005773e-01 2.228577e-02 -1.023281e-01 1.954821e-01 4.502796e-01 3.002375e-01 4.133839e-01 2.934046e-01 3.028830e-01 1.678188e-01 2.140695e-01 3.914482e-02 -4.536807e-01 -1.217711e-01 -2.844829e-01 -2.124192e-01 -2.590241e-01 -1.498489e-01 5.002365e-02 1.566840e-01 3.417135e-01 2.150787e-01 1.964776e-01 1.047164e-01 1.306256e-01 2.943834e-01
<VARIANCE> 39
 2.221003e+01 2.903473e+01 3.500141e+01 3.156770e+01 4.438693e+01 3.814698e+01 3.824687e+01 4.441072e+01 4.262559e+01 4.301043e+01 4.060858e+01 4.198928e+01 2.877385e+01 1.514806e+00 1.700954e+00 1.924752e+00 2.202308e+00 2.805448e+00 2.824347e+00 2.935050e+00 3.466401e+00 3.134614e+00 3.052775e+00 2.784001e+00 2.591121e+00 1.612473e+00 1.676567e-01 2.170930e-01 2.822456e-01 3.517350e-01 4.593590e-01 4.620584e-01 4.988938e-01 5.619378e-01 5.434958e-01 5.293016e-01 4.947053e-01 4.517510e-01 1.430443e-01
<GCONST> 1.166994e+02
<MIXTURE> 6 1.308195e-01
<MEAN> 39
 -1.225154e+01 2.889287e+00 1.334758e+00 7.243078e-01 2.627678e+00 9.940512e-01 2.878277e+00 5.567877e-01 7.212577e-01 2.429399e+00 2.394338e+00 1.279088e+00 2.338528e+00 -5.405999e-01 7.538806e-01 4.048129e-01 -2.314571e-01 -1.103286e+00 -1.167501e+00 -3.151831e-01 -1.047037e-01 -2.997741e-01 -1.341828e-01 2.663141e-01 3.837616e-01 2.383451e+00 1.357769e+00 2.398152e-01 4.596367e-01 3.110169e-01 -5.322160e-01 -5.977280e-01 -4.667937e-01 -2.880871e-01 -2.722539e-01 -4.110600e-01 -3.408400e-01 -1.804676e-01 -4.604188e-01
<VARIANCE> 39
 3.171062e+01 4.567939e+01 5.181247e+01 3.431301e+01 4.267699e+01 4.543367e+01 4.158122e+01 3.809992e+01 3.961390e+01 3.090513e+01 2.885173e+01 3.183909e+01 2.750687e+01 6.924943e+00 3.339587e+00 3.966885e+00 3.405562e+00 4.130903e+00 4.637731e+00 4.072909e+00 3.556964e+00 3.513083e+00 3.191500e+00 2.892307e+00 2.703032e+00 4.859844e+00 5.447798e-01 7.819991e-01 7.859430e-01 6.452367e-01 8.312115e-01 8.575560e-01 7.710664e-01 7.239853e-01 7.796074e-01 6.697037e-01 6.377485e-01 5.958950e-01 5.078657e-01
<GCONST> 1.312999e+02
<MIXTURE> 7 8.675807e-02
<MEAN> 39
 1.632109e+00 8.463246e-01 3.574129e+00 7.022110e-01 -2.994372e+00 -5.975063e+00 -3.755892e+00 -1.280947e+00 -5.045691e-01 -2.188194e-01 -5.107731e-01 1.061057e+00 3.889131e+00 -2.525040e-01 -1.895016e+00 -6.319038e-01 -1.687695e+00 -1.288893e+00 -7.351716e-01 -2.188542e-02 2.313572e+00 1.239147e+00 6.285521e-01 9.482701e-01 1.060553e+00 2.795817e+00 1.269871e-01 -7.823938e-02 -1.397959e-01 -1.460008e-01 -1.953284e-02 3.298351e-01 3.899106e-01 2.388254e-01 -1.527570e-02 -5.549528e-02 -1.368383e-01 -1.554408e-01 -6.680821e-02
<VARIANCE> 39
 2.361259e+01 3.232027e+01 4.669891e+01 4.040840e+01 5.439744e+01 5.177878e+01 5.539743e+01 5.915648e+01 5.636247e+01 5.298584e+01 5.618576e+01 5.234481e+01 3.032127e+01 2.999608e+00 2.874712e+00 4.199731e+00 4.140773e+00 6.402268e+00 6.631513e+00 7.116365e+00 7.201035e+00 6.814950e+00 6.497649e+00 5.890580e+00 5.691513e+00 3.109577e+00 3.915195e-01 5.526230e-01 5.917968e-01 7.216986e-01 9.048637e-01 8.215775e-01 9.393027e-01 1.082478e+00 9.710170e-01 9.528229e-01 9.054670e-01 8.397003e-01 4.266455e-01
<GCONST> 1.385635e+02
<MIXTURE> 8 5.991926e-02
<MEAN> 39
 -4.769872e-02 -6.299023e+00 -1.464593e+00 -2.935892e+00 -4.781163e-01 -4.120759e-01 1.692107e+00 4.097142e+00 2.107931e-01 3.993089e-01 4.080002e+00 5.738578e+00 7.584991e+00 -2.254422e-01 -5.999808e-02 -2.557683e-02 -1.402674e-02 -1.808271e-01 -1.375831e-01 2.252879e-01 2.193725e-01 7.719076e-02 -2.289881e-02 9.968153e-02 5.805311e-02 4.111155e-02 1.198665e-01 2.428649e-01 1.097082e-01 1.544259e-01 -3.786093e-02 -1.438379e-01 -2.245993e-01 -2.474814e-01 3.518607e-02 6.836137e-02 -1.621211e-01 -1.493655e-01 -1.942973e-01
<VARIANCE> 39
 2.239943e+01 2.988758e+01 4.592157e+01 4.490213e+01 8.550568e+01 6.875304e+01 8.409764e+01 7.440638e+01 8.439853e+01 9.348516e+01 9.981448e+01 1.102920e+02 3.933594e+01 8.191838e-01 1.198632e+00 1.580892e+00 1.981419e+00 3.606905e+00 3.512335e+00 3.829019e+00 3.539795e+00 3.562907e+00 3.517255e+00 3.404853e+00 3.377196e+00 8.437382e-01 1.129378e-01 1.945448e-01 2.637453e-01 3.326657e-01 4.651908e-01 5.337266e-01 6.633847e-01 6.789361e-01 6.214579e-01 6.507356e-01 5.949939e-01 5.976207e-01 1.315281e-01
<GCONST> 1.238475e+02
<STATE> 3
<NUMMIXES> 8
<MIXTURE> 1 8.702797e-02
<MEAN> 39
 1.159799e+00 -4.486894e+00 1.279274e+00 -5.058163e+00 -5.813122e+00 -6.990700e+00 -5.593593e-01 7.395700e+00 2.950039e+00 4.172707e+00 4.271789e+00 5.850264e+00 9.993913e+00 -1.053893e-02 -2.019925e+00 -6.140971e-01 -1.190139e+00 6.479492e-01 1.096747e+00 1.142588e+00 1.993905e+00 2.328542e-01 -4.013084e-02 -1.120323e-01 3.850099e-01 1.596257e+00 -1.829809e-01 5.673115e-01 -1.233481e-01 7.178292e-01 6.298629e-01 6.761211e-01 1.594114e-01 -8.980053e-01 -4.142589e-01 -4.962451e-01 -4.763397e-01 -5.355897e-01 -7.216994e-01
<VARIANCE> 39
 1.909854e+01 2.398290e+01 4.826139e+01 3.357824e+01 5.805142e+01 5.671560e+01 8.043509e+01 6.411503e+01 9.192522e+01 9.450179e+01 1.120255e+02 1.086353e+02 2.455894e+01 1.670222e+00 2.812817e+00 3.676189e+00 3.528280e+00 5.907415e+00 5.553550e+00 6.687608e+00 6.230071e+00 6.890277e+00 6.305424e+00 6.184694e+00 6.055246e+00 1.925024e+00 3.439054e-01 3.753144e-01 5.673530e-01 5.663531e-01 8.613341e-01 9.295222e-01 1.056114e+00 9.462329e-01 1.160087e+00 1.074094e+00 1.077918e+00 1.120283e+00 2.910477e-01
<GCONST> 1.386677e+02
<MIXTURE> 2 1.832966e-01
<MEAN> 39
 3.508239e+00 5.111148e+00 4.196165e+00 3.012679e+00 -2.343731e+00 -3.582267e+00 -1.755914e+00 -3.958950e+00 -2.829739e+00 -2.010010e+00 -2.978819e+00 -2.381702e+00 -3.317532e+00 -1.482069e-01 1.558029e-01 3.014100e-02 3.001424e-01 3.459938e-01 1.786452e-01 1.335859e-01 -2.247637e-02 4.404838e-02 3.455960e-02 -7.756799e-02 -6.652914e-02 -4.463364e-01 -6.378945e-02 -9.637125e-02 -7.928266e-02 -5.022524e-02 4.405741e-02 8.578588e-02 4.034442e-02 9.002483e-02 2.761007e-02 1.343863e-02 4.571050e-02 2.227680e-02 7.479893e-02
<VARIANCE> 39
 1.951556e+01 2.447175e+01 3.283818e+01 3.351594e+01 4.642082e+01 3.956366e+01 3.927899e+01 4.726522e+01 4.336383e+01 4.646574e+01 4.486998e+01 4.369928e+01 3.011043e+01 3.648441e-01 5.587190e-01 8.137702e-01 1.019129e+00 1.350119e+00 1.405016e+00 1.611938e+00 1.738107e+00 1.763343e+00 1.815026e+00 1.657291e+00 1.580300e+00 2.973483e-01 4.983100e-02 8.177569e-02 1.367858e-01 1.752752e-01 2.277421e-01 2.538313e-01 2.890558e-01 3.120652e-01 3.214326e-01 3.306230e-01 3.164786e-01 3.035958e-01 3.730277e-02
<GCONST> 9.692929e+01
<MIXTURE> 3 2.077234e-01
<MEAN> 39
 -9.060465e+00 4.681043e+00 1.262691e-01 4.167993e+00 1.600687e+00 -2.886108e-01 3.326896e+00 6.414210e-01 1.270992e+00 1.125895e+00 1.836189e+00 2.415318e-01 -2.880546e+00 -7.931083e-01 -3.374329e-01 -2.563471e-01 -6.278240e-02 7.543745e-02 1.763119e-01 4.114444e-01 4.798472e-01 4.215986e-01 3.065192e-01 3.320425e-01 2.351144e-01 2.798700e-02 4.793537e-01 6.953346e-03 1.552214e-01 -2.206381e-02 -1.470276e-01 -1.621380e-01 -2.798957e-01 -2.342225e-01 -2.367371e-01 -2.212441e-01 -2.360795e-01 -9.589041e-02 3.314869e-02
<VARIANCE> 39
 5.235566e+01 5.527225e+01 4.246082e+01 3.834539e+01 4.635640e+01 4.081879e+01 3.988905e+01 3.886597e+01 3.504930e+01 3.375175e+01 3.299586e+01 3.414146e+01 4.416521e+01 2.422806e+00 1.909685e+00 1.940774e+00 1.860019e+00 2.133478e+00 2.458137e+00 2.463526e+00 2.465888e+00 2.464634e+00 2.408752e+00 2.286892e+00 2.065318e+00 1.698914e+00 2.873538e-01 3.579086e-01 3.336010e-01 3.667189e-01 4.379637e-01 4.713317e-01 4.598343e-01 4.774756e-01 4.602838e-01 4.504100e-01 4.348391e-01 3.977961e-01 2.563085e-01
<GCONST> 1.178067e+02
<MIXTURE> 4 1.229606e-01
<MEAN> 39
 4.692379e+00 9.789314e-01 3.553123e+00 -7.415093e-02 -5.423849e+00 -7.055083e+00 -3.726724e+00 -1.909530e+00 -1.408515e+00 -1.498527e+00 -8.533257e-01 1.262261e+00 2.039925e+00 1.455730e-02 1.289852e+00 3.693345e-01 1.167473e+00 6.441098e-01 4.850653e-02 -2.728759e-01 -1.107093e+00 -5.048450e-01 -5.031907e-01 -6.812977e-01 -8.807503e-01 -1.570695e+00 -3.216164e-01 -1.657541e-02 -1.902730e-01 -2.051582e-02 2.886047e-01 4.725924e-01 3.966072e-01 1.325406e-01 -2.394333e-03 7.242522e-02 -2.288628e-02 -1.035836e-01 1.882546e-02
<VARIANCE> 39
 1.770756e+01 3.051312e+01 4.623759e+01 4.308158e+01 5.334417e+01 4.987909e+01 5.388690e+01 6.624381e+01 6.080600e+01 6.281191e+01 7.658192e+01 7.752144e+01 2.482836e+01 1.474002e+00 1.814594e+00 2.631085e+00 2.782062e+00 3.985013e+00 3.910420e+00 4.289947e+00 4.679763e+00 4.369491e+00 4.475935e+00 4.063606e+00 4.124163e+00 1.617133e+00 1.792993e-01 2.944048e-01 3.689751e-01 4.845426e-01 5.807531e-01 5.793798e-01 6.681160e-01 7.409582e-01 6.801637e-01 7.136548e-01 6.950780e-01 6.328259e-01 2.126717e-01
<GCONST> 1.272272e+02
<MIXTURE> 5 1.143907e-01
<MEAN> 39
 -6.988096e+00 1.027618e+01 5.188031e+00 4.366898e+00 -1.619560e+00 -6.312791e+00 -4.481190e-01 -3.615424e+00 -2.875104e+00 -1.386318e+00 2.144819e-01 5.168897e-01 4.121348e+00 3.168604e+00 -6.745173e-01 1.246334e+00 -6.100582e-01 -2.717164e+00 -2.545375e+00 -1.784245e+00 -3.055105e-01 -5.059550e-01 -7.448949e-01 -3.713869e-01 3.216884e-01 1.416523e+00 5.810072e-01 -8.739899e-01 -2.387806e-01 -2.888760e-01 -1.650203e-01 3.888030e-01 2.380034e-02 4.149627e-01 3.623705e-01 1.599945e-01 -8.168072e-02 -1.093622e-01 -2.285094e-01
<VARIANCE> 39
 3.002357e+01 2.836346e+01 4.246095e+01 3.027665e+01 4.728028e+01 4.412971e+01 4.176069e+01 3.993301e+01 3.625025e+01 3.320245e+01 3.316433e+01 3.688970e+01 2.154741e+01 3.003548e+00 3.651442e+00 3.600670e+00 3.960473e+00 3.749185e+00 4.005558e+00 4.086045e+00 4.562870e+00 4.807399e+00 3.912162e+00 4.034084e+00 3.977159e+00 1.292342e+00 5.434828e-01 4.207417e-01 4.622779e-01 4.247274e-01 6.003169e-01 6.827641e-01 6.670113e-01 6.388165e-01 6.032062e-01 5.725884e-01 5.912555e-01 4.887018e-01 2.721864e-01
<GCONST> 1.261173e+02
<MIXTURE> 6 9.633595e-02
<MEAN> 39
 3.694775e+00 -1.125909e+00 1.142847e+00 -1.072906e+00 -4.133698e+00 -4.565322e+00 -3.970027e+00 1.822132e+00 1.994882e-01 -2.910471e+00 -2.878710e+00 -6.485785e-01 4.650152e+00 -5.761332e-02 -5.719813e-01 -3.997747e-01 -5.491787e-01 -4.106758e-01 1.176444e-01 3.169074e-01 9.566241e-01 3.276141e-01 9.136477e-02 8.811987e-02 1.136775e-01 5.593975e-01 -1.869001e-02 6.955152e-02 1.057947e-03 5.127373e-02 1.127592e-01 1.691727e-01 1.909965e-01 -1.843481e-01 -1.185931e-01 8.325444e-02 1.807765e-02 -4.661589e-02 -4.659891e-02
<VARIANCE> 39
 1.354640e+01 2.577271e+01 4.142687e+01 3.771365e+01 5.306781e+01 5.258723e+01 5.661689e+01 5.495649e+01 5.919382e+01 5.192646e+01 4.342605e+01 4.458071e+01 2.182684e+01 6.174598e-01 1.199011e+00 1.987496e+00 2.019394e+00 3.086331e+00 2.848812e+00 3.466423e+00 3.945771e+00 3.724328e+00 3.335462e+00 3.082698e+00 2.592411e+00 8.658311e-01 5.399902e-02 1.134673e-01 1.894667e-01 2.373263e-01 3.279432e-01 3.672137e-01 4.411855e-01 4.666684e-01 4.352156e-01 4.165953e-01 3.771032e-01 3.477568e-01 6.039590e-02
<GCONST> 1.114382e+02
<MIXTURE> 7 1.027258e-01
<MEAN> 39
 7.679333e-02 3.932899e+00 2.880332e+00 -2.105466e-01 -8.999801e+00 -1.067552e+01 -3.127927e+00 -5.788529e-01 6.014380e-01 3.843900e-01 3.057632e+00 4.508520e+00 7.419881e+00 2.234547e+00 -2.569125e+00 4.566467e-01 -2.192430e+00 -1.819641e+00 -1.070633e+00 -5.199310e-01 1.962339e+00 6.472445e-01 4.343181e-01 2.857392e-01 1.159592e+00 1.965436e+00 -2.703842e-01 -2.996490e-01 -2.750342e-01 1.124684e-01 9.528269e-01 1.204774e+00 5.698755e-01 2.233773e-01 -2.355942e-02 -5.297653e-02 -4.966428e-01 -6.090328e-01 -5.786707e-01
<VARIANCE> 39
 1.651764e+01 2.697033e+01 4.034874e+01 3.219989e+01 4.034455e+01 3.382202e+01 4.262291e+01 4.071584e+01 4.627697e+01 5.124313e+01 6.855434e+01 5.741136e+01 2.043888e+01 2.907418e+00 3.617753e+00 4.240403e+00 3.939504e+00 5.554623e+00 5.474476e+00 6.319678e+00 6.177380e+00 6.535377e+00 5.799848e+00 6.874543e+00 7.545265e+00 1.304582e+00 4.992112e-01 4.596991e-01 4.679286e-01 4.759533e-01 5.801805e-01 6.131314e-01 6.719711e-01 7.059615e-01 7.396793e-01 7.419084e-01 8.296070e-01 6.654778e-01 2.684336e-01
<GCONST> 1.315254e+02
<MIXTURE> 8 8.571681e-02
<MEAN> 39
 -2.770603e+00 -7.277233e+00 -9.605590e-01 1.697323e-02 5.398579e-01 -7.280479e-01 2.043713e+00 3.907493e+00 3.310705e+00 7.431358e+00 1.388511e+01 1.382159e+01 1.043808e+01 2.031631e-02 -1.650919e-02 -2.459459e-02 1.566312e-01 2.557741e-01 1.567630e-01 -4.200109e-02 -1.434877e-01 -4.613016e-02 -6.716824e-02 -1.518891e-01 -6.778565e-02 -1.072756e-01 8.072672e-02 9.913832e-02 -5.845585e-03 -4.160146e-02 -7.065956e-02 -4.906179e-02 -8.414013e-02 -1.626358e-02 4.606711e-02 -6.167518e-02 -2.330142e-01 -2.156786e-01 -7.979231e-02
<VARIANCE> 39
 1.953552e+01 2.782284e+01 4.083979e+01 4.689336e+01 9.299142e+01 6.224257e+01 6.190366e+01 6.023751e+01 8.060079e+01 8.990704e+01 8.395705e+01 7.889288e+01 3.981413e+01 5.393966e-01 9.811916e-01 1.243279e+00 1.592555e+00 2.333510e+00 2.468342e+00 2.474009e+00 2.373302e+00 2.767249e+00 3.132440e+00 3.161239e+00 2.807341e+00 3.480664e-01 8.880112e-02 1.620204e-01 2.126236e-01 2.771937e-01 3.439684e-01 4.191502e-01 4.320763e-01 4.141280e-01 4.809489e-01 5.431307e-01 5.354131e-01 4.707227e-01 6.207072e-02
<GCONST> 1.144163e+02
<STATE> 4
<NUMMIXES> 8
<MIXTURE> 1 9.254835e-02
<MEAN> 39
 9.954092e-01 -2.389462e+00 -1.219736e+00 -1.895081e+00 -6.046956e-01 -2.220534e+00 -6.588653e-01 7.822918e-01 3.104610e+00 3.855180e+00 3.644319e+00 3.795285e+00 3.735701e+00 1.614584e-01 1.334067e-01 -1.194957e-01 6.301496e-02 1.866094e-01 2.142278e-01 -2.065850e-01 -4.835415e-01 -1.822938e-01 -1.017449e-01 -1.448530e-01 -2.139181e-01 -2.111512e-01 -1.167639e-01 1.920611e-01 1.152224e-01 1.674965e-01 -2.961044e-03 1.009830e-01 8.897672e-02 -3.440861e-02 -1.960541e-01 -2.182959e-01 -1.350092e-01 -1.257972e-01 -1.065606e-01
<VARIANCE> 39
 5.561792e+01 4.864393e+01 6.144018e+01 6.491460e+01 7.974890e+01 9.047945e+01 1.044727e+02 9.466232e+01 9.001079e+01 9.422341e+01 1.039496e+02 1.083307e+02 7.191339e+01 2.809682e+00 3.112449e+00 3.188681e+00 4.321290e+00 4.644041e+00 5.526347e+00 5.439726e+00 5.467928e+00 5.369988e+00 5.574953e+00 5.216449e+00 5.020300e+00 3.561120e+00 4.713581e-01 5.084158e-01 5.950292e-01 7.623665e-01 8.038798e-01 1.024545e+00 1.119856e+00 1.111858e+00 1.030989e+00 1.037213e+00 9.801114e-01 9.521094e-01 4.862106e-01
<GCONST> 1.450515e+02
<MIXTURE> 2 1.644573e-01
<MEAN> 39
 3.309062e+00 5.401511e+00 4.243048e+00 3.766487e+00 -2.145839e+00 -4.516679e+00 -2.327835e+00 -4.261275e+00 -3.728018e+00 -4.133974e+00 -4.557767e+00 -3.619979e+00 -2.917153e+00 -5.580928e-01 6.011247e-01 -4.428019e-02 6.984114e-01 8.640869e-01 6.812449e-01 3.409199e-01 -3.774589e-01 -1.830617e-01 -9.718737e-02 -1.848481e-01 -3.734804e-01 -1.058598e+00 -2.902278e-01 -3.526182e-01 -2.134020e-01 -3.231631e-01 -1.017968e-01 1.156394e-01 1.535760e-01 3.128116e-01 2.460648e-01 3.237184e-01 3.283366e-01 2.929888e-01 3.769260e-01
<VARIANCE> 39
 2.650159e+01 3.178063e+01 3.826470e+01 3.349136e+01 4.802675e+01 4.250493e+01 4.392250e+01 5.057520e+01 4.390206e+01 4.551587e+01 4.380250e+01 4.743010e+01 3.389750e+01 2.166856e+00 2.255619e+00 2.340251e+00 2.561243e+00 3.225237e+00 3.205840e+00 3.248485e+00 3.705422e+00 3.328238e+00 3.356294e+00 3.148590e+00 3.060352e+00 2.068729e+00 2.536982e-01 3.018557e-01 3.644234e-01 4.146917e-01 5.216390e-01 5.435050e-01 5.873994e-01 6.279504e-01 5.928673e-01 5.967948e-01 5.301695e-01 5.227962e-01 2.573824e-01
<GCONST> 1.228696e+02
<MIXTURE> 3 7.134393e-02
<MEAN> 39
 3.558113e+00 -1.411273e+00 1.101241e+00 -1.533639e+00 -6.974945e+00 -7.572191e+00 -4.753645e+00 5.061062e+00 5.410356e+00 -8.497131e-01 -2.394330e+00 2.566409e-01 9.404446e+00 8.650069e-01 -1.926704e+00 -1.213652e+00 -1.241606e+00 2.476721e-01 1.636324e+00 5.704473e-01 1.708727e+00 1.286173e+00 1.825259e-01 -6.072526e-01 -1.023726e+00 8.651591e-01 -5.595208e-01 4.530019e-01 -1.744268e-01 2.919945e-01 9.205068e-01 6.934158e-01 5.361341e-01 -6.072007e-01 -5.901261e-01 -4.033435e-02 2.261505e-02 -2.335690e-01 -4.957724e-01
<VARIANCE> 39
 1.169050e+01 2.151030e+01 2.705365e+01 2.485274e+01 3.736986e+01 3.886689e+01 5.372787e+01 4.278448e+01 4.546182e+01 4.939335e+01 4.507542e+01 4.235307e+01 2.037346e+01 9.243437e-01 1.677104e+00 2.032176e+00 1.937208e+00 3.700713e+00 3.199510e+00 4.121925e+00 4.392282e+00 3.815110e+00 3.941768e+00 3.754215e+00 3.075695e+00 5.495858e-01 2.390247e-01 2.684557e-01 3.462229e-01 3.788059e-01 5.020644e-01 6.047584e-01 6.179113e-01 7.104033e-01 6.309042e-01 6.746685e-01 6.480463e-01 5.729033e-01 1.240098e-01
<GCONST> 1.180313e+02
<MIXTURE> 4 2.375400e-01
<MEAN> 39
 -6.652689e+00 3.958294e+00 6.940132e-01 4.893279e+00 1.442811e+00 -3.508323e-02 2.531065e+00 -5.963624e-02 2.117366e-01 -2.578668e-01 4.799772e-01 -4.327093e-01 -3.811463e+00 -2.696051e-01 -2.178143e-01 -9.903277e-02 1.070299e-01 2.364548e-01 2.586620e-01 1.691929e-01 9.919986e-02 5.668223e-02 3.226760e-02 1.908094e-03 -3.097591e-02 -3.140413e-01 2.110595e-01 -2.198092e-03 4.996428e-02 -7.273920e-02 -9.523211e-02 -1.101088e-01 -1.390150e-01 -9.096985e-02 -8.226278e-02 -4.804729e-02 -3.693445e-02 -7.707627e-03 5.781273e-02
<VARIANCE> 39
 5.881639e+01 4.736037e+01 3.770137e+01 3.466188e+01 4.062830e+01 3.793602e+01 3.718197e+01 3.567602e+01 3.223532e+01 3.099036e+01 2.922794e+01 3.165897e+01 4.100844e+01 1.004423e+00 8.584937e-01 1.025452e+00 1.180949e+00 1.532765e+00 1.705309e+00 1.796682e+00 1.832989e+00 1.894368e+00 1.881801e+00 1.752374e+00 1.629288e+00 6.589900e-01 1.397388e-01 1.612611e-01 1.822653e-01 2.211536e-01 2.736897e-01 3.173584e-01 3.341829e-01 3.437590e-01 3.533697e-01 3.433484e-01 3.165662e-01 3.032522e-01 9.450956e-02
<GCONST> 1.044423e+02
<MIXTURE> 5 1.061059e-01
<MEAN> 39
 1.290960e+00 8.027092e-01 8.641122e+00 -2.255364e+00 -1.183524e+01 -6.325297e+00 -1.730750e-01 -8.649607e-01 -5.042597e+00 1.218946e+00 8.097387e-01 1.189049e+00 6.679925e+00 2.072932e-01 -7.209615e-01 4.464139e-02 -4.855392e-01 -2.635310e-01 5.433597e-01 4.891176e-01 6.153512e-01 -8.394160e-02 3.336250e-01 -2.571716e-01 -9.181622e-02 3.000155e-01 -1.670675e-01 2.906080e-01 -3.322955e-01 2.991144e-01 6.162220e-01 1.878583e-01 3.826186e-03 -1.277943e-01 1.967546e-01 -1.825613e-01 -1.708480e-01 -1.511259e-01 -2.588876e-01
<VARIANCE> 39
 1.508964e+01 2.534278e+01 3.520689e+01 4.255098e+01 3.288903e+01 3.982249e+01 4.528239e+01 5.123518e+01 4.884904e+01 5.372033e+01 6.311545e+01 6.991512e+01 1.723602e+01 6.261867e-01 1.320627e+00 1.634192e+00 1.849757e+00 2.413513e+00 2.478389e+00 2.657179e+00 3.005647e+00 2.702321e+00 2.873167e+00 2.790923e+00 2.298092e+00 4.617497e-01 1.541464e-01 1.992062e-01 2.373857e-01 3.013622e-01 3.794955e-01 4.233401e-01 4.593012e-01 4.914452e-01 4.676924e-01 4.855804e-01 4.977441e-01 4.526491e-01 9.141522e-02
<GCONST> 1.120895e+02
<MIXTURE> 6 1.011982e-01
<MEAN> 39
 1.904150e+00 -5.428621e+00 -1.723004e+00 -3.829885e+00 -2.991969e+00 -2.324069e+00 1.694198e+00 9.068905e+00 2.034585e+00 -2.841733e+00 -2.831187e+00 5.288106e-01 1.045339e+01 -1.185979e-01 -8.003254e-01 -9.713332e-01 -1.027501e-01 1.365517e+00 1.518293e+00 8.373609e-01 2.716284e-01 -1.529537e-01 -5.798447e-01 -4.113232e-01 -4.198058e-01 4.008597e-01 -1.729901e-02 4.014070e-01 1.757652e-01 3.474120e-01 1.523311e-01 -1.573845e-01 -3.690034e-01 -9.054847e-01 -2.243630e-01 1.240477e-01 1.979876e-01 5.330949e-02 -3.843189e-01
<VARIANCE> 39
 1.533037e+01 2.116387e+01 2.941261e+01 2.849314e+01 5.130286e+01 5.149389e+01 8.364077e+01 5.243899e+01 7.433321e+01 5.757123e+01 5.383526e+01 7.291994e+01 2.375848e+01 5.222335e-01 1.183143e+00 1.611841e+00 1.740529e+00 3.148023e+00 3.322978e+00 3.951443e+00 3.986474e+00 3.682422e+00 3.537499e+00 3.243313e+00 3.118537e+00 5.045720e-01 1.074601e-01 1.870644e-01 2.543663e-01 3.242237e-01 4.747588e-01 5.058213e-01 7.152849e-01 6.089793e-01 7.515889e-01 6.181841e-01 5.389348e-01 5.992653e-01 9.458299e-02
<GCONST> 1.171974e+02
<MIXTURE> 7 7.856382e-02
<MEAN> 39
 1.550997e-01 5.636696e+00 6.340674e+00 3.097470e+00 -8.097673e+00 -9.693670e+00 -2.848346e+00 -3.296168e+00 -3.154250e+00 -2.720389e+00 -5.103682e-01 4.483439e-01 5.781528e+00 2.258705e+00 -1.815216e+00 6.867720e-02 -6.936798e-01 -1.832739e+00 -5.757048e-01 -5.195854e-01 7.166504e-01 3.067286e-01 -6.412921e-03 -1.617246e-01 -1.537133e-02 7.438079e-01 -5.607681e-01 -1.956617e-01 -3.865443e-01 -1.172380e-01 6.744518e-01 8.560411e-01 4.467476e-01 3.822999e-01 2.870547e-01 3.098089e-01 3.732578e-02 -1.287126e-01 -2.228370e-01
<VARIANCE> 39
 1.522176e+01 2.466773e+01 3.758543e+01 3.570798e+01 4.295584e+01 3.327286e+01 3.629032e+01 3.833462e+01 4.123408e+01 3.518784e+01 3.446520e+01 4.573746e+01 1.763377e+01 1.710119e+00 2.215113e+00 2.864055e+00 2.653970e+00 3.472474e+00 3.689060e+00 3.732865e+00 3.778655e+00 3.671616e+00 3.222409e+00 3.216125e+00 2.690434e+00 5.906868e-01 2.763569e-01 3.038573e-01 3.230426e-01 3.308024e-01 4.576154e-01 4.243403e-01 4.512540e-01 4.847918e-01 4.770865e-01 4.476480e-01 4.409065e-01 4.259299e-01 7.573660e-02
<GCONST> 1.158131e+02
<MIXTURE> 8 1.483955e-01
<MEAN> 39
 2.024410e-01 -3.072544e+00 3.025292e-01 -1.269423e+00 -1.083651e+00 -1.503862e+00 3.296922e-01 2.876705e+00 2.327304e-01 -4.626818e-01 5.698669e-01 2.789759e+00 6.370799e+00 2.533067e-02 -3.956549e-03 -9.978072e-02 1.739460e-02 1.181852e-01 9.027036e-02 -5.049359e-02 -6.352770e-02 -2.616368e-03 2.287205e-02 -6.113867e-02 -7.317575e-02 -9.372437e-02 1.885801e-02 2.589319e-02 8.692668e-03 -1.181212e-02 -3.369800e-02 -3.168291e-02 -3.706729e-02 -3.936221e-02 -2.807447e-02 -7.176019e-03 2.711080e-03 -1.102817e-02 -3.108169e-02
<VARIANCE> 39
 3.614214e+01 3.925012e+01 4.886715e+01 4.593258e+01 8.014246e+01 7.536997e+01 8.498245e+01 8.343659e+01 7.745728e+01 8.038381e+01 8.490295e+01 9.220676e+01 4.698935e+01 1.993380e-01 4.213994e-01 6.482815e-01 8.101339e-01 1.126451e+00 1.207030e+00 1.445265e+00 1.534777e+00 1.573781e+00 1.522707e+00 1.452919e+00 1.354193e+00 1.226490e-01 3.560687e-02 7.088215e-02 1.078221e-01 1.462591e-01 1.891425e-01 2.273812e-01 2.697257e-01 2.907261e-01 2.916699e-01 2.826262e-01 2.754695e-01 2.545337e-01 2.045708e-02
<GCONST> 9.834445e+01
<TRANSP> 5
 0.000000e+00 1.000000e+00 0.000000e+00 0.000000e+00 0.000000e+00
 0.000000e+00 5.478017e-01 4.521983e-01 0.000000e+00 0.000000e+00
 0.000000e+00 0.000000e+00 4.857874e-01 5.142126e-01 0.000000e+00
 0.000000e+00 0.000000e+00 0.000000e+00 5.403147e-01 4.596852e-01
 0.000000e+00 0.000000e+00 0.000000e+00 0.000000e+00 0.000000e+00
<ENDHMM>
~h "f"
<BEGINHMM>
<NUMSTATES> 5
<STATE> 2
<NUMMIXES> 8
<MIXTURE> 1 1.756810e-01
<MEAN> 39
 -7.808608e+00 1.672884e+00 -1.351205e+00 3.466337e+00 -1.370276e+00 -2.045453e+00 -1.962229e+00 -2.963411e+00 -1.548441e+00 -4.297311e-01 5.703914e-01 3.897182e-01 -3.146344e+00 -3.346859e-01 -6.781135e-02 -6.226286e-02 9.171925e-02 1.354644e-01 1.813848e-01 1.354262e-01 7.492741e-02 8.267781e-02 8.742202e-02 4.176144e-02 7.765941e-03 -2.114622e-01 1.115628e-01 -2.264229e-02 7.889669e-02 6.098864e-02 1.792090e-01 2.375452e-01 3.492527e-01 3.718290e-01 2.744772e-01 1.215638e-01 -8.877928e-03 -5.251820e-02 7.155883e-02
<VARIANCE> 39
 2.344881e+01 2.257987e+01 2.092458e+01 2.204305e+01 2.691747e+01 2.266956e+01 2.327945e+01 2.352083e+01 2.356544e+01 2.350208e+01 2.245749e+01 2.599038e+01 2.116614e+01 6.890350e-01 6.796657e-01 8.768590e-01 1.031983e+00 1.292664e+00 1.459838e+00 1.628441e+00 1.739277e+00 1.766155e+00 1.715538e+00 1.642602e+00 1.557224e+00 5.074043e-01 1.206507e-01 1.189936e-01 1.597208e-01 1.906597e-01 2.291249e-01 2.364680e-01 2.471215e-01 2.439628e-01 2.813836e-01 2.824599e-01 2.747005e-01 2.778670e-01 7.288072e-02
<GCONST> 9.354469e+01
<MIXTURE> 2 1.581133e-01
<MEAN> 39
 -1.052988e+01 -9.509656e-01 -2.916303e+00 2.445729e+00 -8.330887e-01 -9.208910e-01 2.142706e+00 3.049151e+00 3.906184e+00 3.684933e+00 3.364509e+00 2.217728e+00 -1.723022e+00 -2.359791e-01 -1.780792e-01 -2.004001e-01 -1.331174e-01 -1.111587e-01 -1.884078e-02 4.699750e-02 9.240180e-02 1.771653e-01 2.535392e-01 2.421264e-01 1.962340e-01 -1.767702e-01 2.548865e-01 1.831793e-01 2.684492e-01 2.320999e-01 2.403638e-01 9.976044e-02 -1.112508e-01 -3.174594e-01 -4.080572e-01 -4.116241e-01 -3.524843e-01 -2.382209e-01 -1.739176e-03
<VARIANCE> 39
 1.980696e+01 2.713088e+01 2.036912e+01 2.183608e+01 2.715227e+01 2.716081e+01 3.013607e+01 2.646992e+01 2.509936e+01 2.474905e+01 2.532550e+01 2.790838e+01 1.969263e+01 5.964298e-01 6.310510e-01 8.612219e-01 1.061899e+00 1.280512e+00 1.472906e+00 1.606531e+00 1.716543e+00 1.823764e+00 1.784778e+00 1.750121e+00 1.628505e+00 5.272875e-01 1.158892e-01 1.168757e-01 1.475362e-01 1.711200e-01 2.049079e-01 2.518510e-01 2.804776e-01 2.852369e-01 2.931214e-01 2.986241e-01 3.035643e-01 3.045955e-01 6.838483e-02
<GCONST> 9.451907e+01
<MIXTURE> 3 1.309070e-01
<MEAN> 39
 -1.064876e+01 1.623685e+00 -3.705214e-01 7.104893e+00 3.189555e+00 3.587508e+00 4.266575e+00 1.967604e+00 2.436045e+00 2.035529e+00 2.378196e+00 2.932857e-01 -3.755514e+00 -1.675918e-01 -2.239033e-02 4.665066e-02 1.222869e-01 1.518491e-01 1.948207e-01 1.465218e-01 7.418719e-02 1.889984e-02 -4.035561e-02 -8.165343e-02 -7.870206e-02 -1.238545e-01 1.785658e-01 -3.899718e-02 -7.047727e-02 -2.659317e-01 -3.059284e-01 -3.723296e-01 -2.840795e-01 -1.658904e-01 -1.005083e-01 -1.095686e-01 -1.076985e-01 -2.276121e-02 8.033263e-02
<VARIANCE> 39
 2.704741e+01 3.581261e+01 2.208108e+01 2.540917e+01 2.527572e+01 2.296074e+01 2.838183e+01 2.772582e+01 2.476115e+01 2.167773e+01 2.109375e+01 2.447237e+01 2.647540e+01 5.608491e-01 6.698469e-01 8.106827e-01 1.034003e+00 1.318752e+00 1.482035e+00 1.585074e+00 1.636269e+00 1.681295e+00 1.624194e+00 1.537659e+00 1.443331e+00 5.161375e-01 1.101816e-01 1.227632e-01 1.427879e-01 1.564511e-01 1.908520e-01 2.202850e-01 2.734153e-01 3.045142e-01 3.064435e-01 2.745256e-01 2.470754e-01 2.631030e-01 7.966653e-02
<GCONST> 9.383304e+01
<MIXTURE> 4 7.042065e-02
<MEAN> 39
 -2.025420e+00 5.978108e+00 2.243146e+00 6.439775e+00 8.159208e-01 -1.075761e+00 -1.600853e+00 -4.158392e+00 -3.488300e+00 -3.623443e+00 -3.949342e+00 -3.673001e+00 -1.737033e+00 -2.060014e+00 2.327433e-01 -2.072319e-02 8.924121e-01 6.866572e-01 7.692433e-01 9.599647e-01 5.563005e-01 2.479257e-01 1.884991e-01 3.092739e-01 1.151882e-01 -8.274972e-01 -2.896337e-02 -6.149981e-01 -3.750950e-01 -5.870185e-01 -3.583946e-01 -1.130944e-01 9.426749e-02 4.431050e-01 4.896687e-01 4.398163e-01 3.737584e-01 3.555078e-01 2.690419e-01
<VARIANCE> 39
 2.520452e+01 2.201013e+01 2.835487e+01 2.608294e+01 3.834267e+01 3.427689e+01 3.415634e+01 3.495121e+01 3.264264e+01 3.343032e+01 3.376825e+01 3.690525e+01 2.727859e+01 2.559719e+00 2.091117e+00 2.029013e+00 2.417680e+00 2.674894e+00 2.833811e+00 2.845469e+00 3.069050e+00 3.130352e+00 2.940512e+00 2.873859e+00 2.837038e+00 1.390027e+00 2.738816e-01 2.538392e-01 3.079162e-01 3.588402e-01 4.549914e-01 4.694046e-01 5.192065e-01 5.351832e-01 5.176914e-01 5.144216e-01 4.806563e-01 4.540452e-01 1.584870e-01
<GCONST> 1.160242e+02
<MIXTURE> 5 1.327562e-01
<MEAN> 39
 -6.620560e+00 -1.127985e+00 5.094461e-01 2.650188e+00 1.240014e+00 6.271265e-01 1.124908e+00 6.143627e-01 5.349818e-01 1.266690e+00 2.339362e+00 1.005083e+00 -1.028125e+00 3.448766e-02 -3.331310e-03 2.974328e-02 2.300117e-02 2.978033e-03 2.330285e-02 -3.538695e-02 -3.633490e-02 -4.256194e-02 -3.693254e-02 -3.528508e-02 -1.077364e-02 -7.667637e-02 1.272608e-02 -1.127485e-03 -1.013764e-02 -7.150132e-03 -9.348983e-03 -1.238889e-02 4.274449e-02 5.575033e-02 1.391743e-02 -9.605724e-02 -1.667744e-01 -1.037098e-01 -5.142152e-03
<VARIANCE> 39
 3.073130e+01 1.820058e+01 1.531460e+01 1.770259e+01 1.904316e+01 1.995789e+01 2.175932e+01 2.234907e+01 2.352466e+01 1.964630e+01 1.718239e+01 1.910469e+01 1.530757e+01 1.322970e-01 2.435059e-01 3.980924e-01 5.850118e-01 7.902753e-01 9.475946e-01 1.111659e+00 1.219877e+00 1.242526e+00 1.259638e+00 1.250741e+00 1.134013e+00 7.298407e-02 2.360120e-02 4.679021e-02 7.517587e-02 1.082756e-01 1.447720e-01 1.745196e-01 2.029853e-01 2.202170e-01 2.362547e-01 2.229156e-01 2.003071e-01 1.976107e-01 1.076795e-02
<GCONST> 7.458460e+01
<MIXTURE> 6 9.681121e-02
<MEAN> 39
 -9.164367e+00 3.044535e+00 5.036547e-01 6.709971e+00 2.040487e+00 1.287347e+00 2.155938e+00 3.849933e-01 3.645686e-01 -3.405747e-01 -9.905553e-01 -1.583881e+00 -3.134257e+00 -1.421505e+00 -9.355274e-01 -9.192587e-01 -5.027943e-01 -3.095527e-01 1.289452e-01 5.633230e-01 9.404836e-01 1.059987e+00 1.019617e+00 9.803186e-01 7.556699e-01 1.575135e-03 5.929443e-01 -5.629517e-02 -9.104279e-02 -3.737334e-01 -3.140958e-01 -3.182767e-01 -3.589798e-01 -2.372431e-01 -8.257906e-02 1.931255e-02 3.606878e-02 7.640119e-02 2.034000e-01
<VARIANCE> 39
 2.139476e+01 2.639449e+01 2.487149e+01 2.388478e+01 3.369923e+01 2.999723e+01 2.879098e+01 3.002294e+01 2.795989e+01 2.572924e+01 2.535689e+01 2.820331e+01 3.055983e+01 1.863870e+00 1.306857e+00 1.646243e+00 1.730658e+00 1.941973e+00 2.128346e+00 2.182817e+00 2.142653e+00 2.154119e+00 2.100580e+00 2.050330e+00 1.932404e+00 1.515411e+00 2.585481e-01 2.756085e-01 3.045014e-01 3.296035e-01 3.946128e-01 3.915990e-01 3.795150e-01 4.159135e-01 4.287948e-01 3.970304e-01 3.830100e-01 3.757197e-01 2.044276e-01
<GCONST> 1.089021e+02
<MIXTURE> 7 1.486648e-01
<MEAN> 39
 -6.703535e+00 8.374655e-01 1.005596e-01 3.912413e+00 6.715574e-01 1.028141e+00 2.170830e+00 1.301252e+00 3.581256e-01 -2.312246e+00 -3.290146e+00 -3.367964e+00 -1.983423e+00 -8.960479e-02 -1.327626e-02 -9.454077e-03 4.491610e-02 6.332090e-02 9.572916e-02 4.491952e-02 2.623906e-02 3.581411e-02 8.050372e-02 5.316585e-02 2.676293e-02 -1.497730e-01 3.578505e-02 -3.457865e-02 -1.937331e-02 -4.093044e-02 -2.206259e-02 -8.606941e-02 -1.218951e-01 -1.115004e-01 4.241017e-02 2.690932e-01 4.080336e-01 2.916012e-01 1.445379e-02
<VARIANCE> 39
 2.923421e+01 2.113436e+01 1.938209e+01 2.346788e+01 2.352442e+01 2.307721e+01 2.599023e+01 2.624428e+01 2.569408e+01 2.230387e+01 1.755749e+01 2.182811e+01 1.845515e+01 3.192508e-01 3.885753e-01 5.824212e-01 7.592589e-01 9.835969e-01 1.185834e+00 1.332473e+00 1.522608e+00 1.562438e+00 1.562182e+00 1.456551e+00 1.361231e+00 2.070594e-01 5.252394e-02 7.131545e-02 1.075614e-01 1.418048e-01 1.828468e-01 2.186296e-01 2.349392e-01 2.644222e-01 2.890378e-01 2.622516e-01 2.023872e-01 2.327434e-01 2.787283e-02
<GCONST> 8.523755e+01
<MIXTURE> 8 8.639108e-02
<MEAN> 39
 -5.328287e+00 -1.121275e+00 -2.501141e+00 1.403057e+00 5.806222e-01 -1.434156e-02 1.493820e+00 1.223920e+00 2.016465e+00 1.330925e+00 1.624601e+00 1.296649e+00 -3.169582e+00 -3.823076e-01 1.752474e-01 5.370747e-02 1.954793e-01 4.608418e-02 7.739627e-02 5.405480e-02 -1.225387e-01 -1.191441e-01 -2.148623e-01 -2.446994e-01 -2.212841e-01 6.443835e-02 8.251430e-02 1.138082e-01 1.978487e-01 1.209534e-01 6.199789e-02 1.236387e-02 -4.022958e-02 -4.856844e-02 -5.383362e-02 -3.122424e-02 -3.353579e-02 -3.964210e-02 1.347362e-01
<VARIANCE> 39
 3.834039e+01 3.393588e+01 3.412731e+01 3.225311e+01 4.832211e+01 4.274309e+01 4.498767e+01 4.246104e+01 4.376968e+01 4.772266e+01 4.967432e+01 4.571651e+01 6.475539e+01 1.976658e+00 1.959702e+00 1.849464e+00 2.013431e+00 2.406348e+00 2.490492e+00 2.813631e+00 2.880283e+00 2.716195e+00 2.731015e+00 2.561828e+00 2.481612e+00 2.853148e+00 3.476821e-01 3.514715e-01 3.430383e-01 3.789568e-01 4.597750e-01 5.037037e-01 5.219708e-01 5.388388e-01 5.340369e-01 5.647676e-01 5.186680e-01 4.817131e-01 5.230769e-01
<GCONST> 1.219296e+02
<STATE> 3
<NUMMIXES> 8
<MIXTURE> 1 1.279138e-01
<MEAN> 39
 -7.570421e+00 3.163158e+00 -1.952980e+00 3.047889e+00 -2.155965e+00 -3.308706e+00 -1.606095e+00 -2.016743e+00 8.162655e-01 3.394318e+00 3.738961e+00 2.891614e+00 -4.870210e+00 1.620785e-01 -4.029877e-02 2.506244e-01 1.673786e-01 3.555081e-01 2.575379e-01 1.874487e-01 -7.681187e-03 -1.676036e-01 -3.598429e-01 -4.356101e-01 -3.006788e-01 1.019029e-01 5.095234e-01 -7.682356e-02 1.126885e-01 -3.639707e-02 1.916705e-01 2.506372e-01 1.566488e-01 1.154339e-01 -6.005640e-02 -2.868086e-01 -4.101994e-01 -3.286096e-01 3.900270e-01
<VARIANCE> 39
 3.363997e+01 1.972739e+01 2.509916e+01 2.164073e+01 3.313013e+01 2.793502e+01 2.898737e+01 2.838068e+01 2.943454e+01 2.634438e+01 2.773115e+01 3.186243e+01 2.706405e+01 1.827132e+00 1.316499e+00 1.564381e+00 1.676742e+00 1.908300e+00 2.121865e+00 2.251021e+00 2.329487e+00 2.381907e+00 2.337524e+00 2.187054e+00 2.148348e+00 1.720175e+00 4.203497e-01 2.717635e-01 3.497257e-01 3.642451e-01 3.849129e-01 4.063596e-01 3.992054e-01 4.197993e-01 4.487630e-01 4.283319e-01 3.980752e-01 4.026336e-01 2.614160e-01
<GCONST> 1.107620e+02
<MIXTURE> 2 1.241957e-01
<MEAN> 39
 -1.280766e+01 -1.687459e+00 -2.943280e+00 3.861764e+00 6.666151e-01 8.957584e-01 2.852312e+00 3.017965e+00 3.847206e+00 3.814599e+00 2.793029e+00 1.867035e+00 -1.227878e+00 1.115078e+00 2.522801e-01 6.268594e-01 1.903895e-01 3.125893e-01 -1.682177e-01 -1.984453e-01 -3.015837e-01 -2.235161e-01 -2.758345e-01 -2.656299e-01 -2.172030e-01 4.081508e-01 1.212805e+00 5.996591e-01 3.168437e-01 -1.478159e-01 -1.921718e-01 -3.023756e-01 -6.134836e-01 -7.182540e-01 -6.363989e-01 -4.688683e-01 -3.952066e-01 -3.112644e-01 2.739016e-01
<VARIANCE> 39
 1.522667e+01 2.369019e+01 2.281858e+01 2.565334e+01 2.819502e+01 2.892936e+01 3.088999e+01 2.597742e+01 2.722507e+01 2.444572e+01 2.282059e+01 2.646531e+01 2.072215e+01 1.684975e+00 1.365254e+00 1.583154e+00 1.481368e+00 1.608235e+00 1.875581e+00 1.931637e+00 2.065153e+00 2.118694e+00 1.958754e+00 1.776655e+00 1.700377e+00 1.046308e+00 2.248745e-01 2.233241e-01 3.171194e-01 3.848568e-01 3.697207e-01 5.084269e-01 4.511569e-01 4.303863e-01 4.459443e-01 4.312787e-01 4.172644e-01 4.327717e-01 1.697073e-01
<GCONST> 1.064726e+02
<MIXTURE> 3 1.235795e-01
<MEAN> 39
 -1.048178e+01 2.200564e+00 -6.714085e-01 7.410583e+00 1.689992e+00 2.036889e+00 2.466071e+00 4.208772e-01 2.293171e+00 1.391429e+00 8.646896e-01 -5.463970e-01 -4.839738e+00 2.979520e+00 2.987179e-01 -2.515925e-01 -1.319944e+00 -5.759104e-01 -9.228017e-01 -1.251889e+00 -9.003201e-01 -2.282657e-01 -4.771156e-02 -6.747549e-02 4.779465e-02 1.673856e+00 1.291490e+00 -1.966502e-01 -3.829847e-01 -1.050375e+00 -4.084734e-01 -3.405021e-01 -6.074849e-01 -2.215741e-01 -8.627395e-02 -2.942280e-02 -2.011476e-01 -1.058136e-01 7.525234e-01
<VARIANCE> 39
 1.533772e+01 1.789164e+01 1.722735e+01 2.164371e+01 2.697582e+01 2.528193e+01 2.563840e+01 2.593745e+01 2.514494e+01 2.151462e+01 2.502772e+01 2.873715e+01 2.163399e+01 2.858712e+00 1.621902e+00 2.014730e+00 2.541744e+00 2.515098e+00 3.215193e+00 3.040103e+00 2.907736e+00 2.661376e+00 2.486480e+00 2.713817e+00 2.854484e+00 1.592504e+00 2.487116e-01 3.298153e-01 3.495356e-01 4.741569e-01 5.648193e-01 6.934519e-01 5.759864e-01 6.465005e-01 5.974717e-01 5.384568e-01 6.230553e-01 6.688524e-01 1.796373e-01
<GCONST> 1.140733e+02
<MIXTURE> 4 1.189795e-01
<MEAN> 39
 -6.669533e+00 1.546499e+00 -1.837869e+00 2.518212e+00 2.567864e+00 1.749554e+00 3.447118e+00 2.096118e+00 2.426887e+00 1.902569e+00 -3.903294e-01 -5.192630e-02 -2.727708e+00 4.009475e-01 -5.489248e-02 3.971343e-01 -1.934095e-01 -6.836004e-01 -6.452132e-01 -2.231631e-01 -1.033871e-01 -1.634485e-02 1.839209e-01 3.230564e-01 3.477762e-01 1.246643e+00 6.033838e-01 3.628422e-02 2.678095e-01 -1.120415e-01 -4.306635e-01 -4.307698e-01 -4.937737e-01 -3.897415e-01 -3.540366e-01 -2.045015e-01 2.796795e-02 5.298336e-02 3.211271e-01
<VARIANCE> 39
 5.991301e+01 4.958430e+01 5.320208e+01 4.724854e+01 5.734769e+01 5.471191e+01 5.077611e+01 4.913083e+01 4.623122e+01 4.075545e+01 4.580328e+01 4.337944e+01 8.191843e+01 3.558888e+00 3.355429e+00 3.709457e+00 3.165406e+00 4.444302e+00 4.657116e+00 4.147759e+00 4.271314e+00 3.900388e+00 3.414412e+00 3.313163e+00 3.057943e+00 5.762265e+00 6.602684e-01 6.285138e-01 6.500428e-01 6.588476e-01 8.278319e-01 8.587976e-01 7.865106e-01 8.094371e-01 7.683007e-01 7.174128e-01 7.088290e-01 6.594082e-01 9.414693e-01
<GCONST> 1.364847e+02
<MIXTURE> 5 1.053619e-01
<MEAN> 39
 -5.108447e+00 5.221364e+00 -1.046756e-02 5.889629e+00 -2.141162e-01 -4.375352e-01 -9.070867e-01 -4.614779e+00 -2.558681e+00 -2.984019e+00 -3.045983e+00 -3.372181e+00 -4.803576e+00 1.247066e+00 -6.186995e-01 -4.329548e-01 -9.666258e-01 -2.195581e-01 -3.287698e-01 -2.492505e-01 5.960391e-01 1.210484e+00 1.333484e+00 1.124406e+00 9.574217e-01 1.497285e+00 6.763740e-01 -6.508390e-01 -3.312983e-01 -8.297919e-01 -2.108427e-01 -1.682632e-01 -1.102766e-01 5.405443e-01 6.045901e-01 6.965330e-01 5.257517e-01 5.343401e-01 7.929314e-01
<VARIANCE> 39
 3.346113e+01 2.677900e+01 2.799495e+01 2.795836e+01 3.778017e+01 3.490529e+01 3.618169e+01 3.630218e+01 3.609937e+01 3.043339e+01 3.216319e+01 3.446294e+01 3.639610e+01 3.354648e+00 2.236076e+00 2.645195e+00 3.025045e+00 3.251334e+00 3.442919e+00 3.511435e+00 3.824311e+00 3.560478e+00 3.806793e+00 3.948451e+00 3.729979e+00 2.630663e+00 4.442801e-01 4.216237e-01 4.805530e-01 5.780374e-01 6.697273e-01 7.171575e-01 7.453287e-01 7.990802e-01 7.309834e-01 7.384385e-01 8.933721e-01 9.086208e-01 3.657488e-01
<GCONST> 1.264426e+02
<MIXTURE> 6 1.060539e-01
<MEAN> 39
 -3.810783e+00 4.355684e+00 -7.372285e-01 5.138226e+00 -1.749810e-01 -1.952900e-01 9.417631e-01 -3.586419e-01 3.419462e+00 3.190732e+00 2.806133e+00 1.379915e+00 -2.788732e+00 3.650928e+00 -1.484042e+00 -7.743666e-01 -2.977069e+00 -9.343597e-01 -1.162232e+00 -1.519580e+00 3.851020e-01 6.928150e-01 8.879097e-01 4.355593e-01 9.911767e-01 3.326616e+00 2.503134e-01 -6.737955e-01 -1.353213e-01 -6.966619e-01 3.144982e-02 7.249302e-02 -1.151842e-01 1.917817e-01 -2.203658e-01 -2.005173e-01 -3.521308e-01 -5.651453e-02 5.093430e-01
<VARIANCE> 39
 2.328260e+01 2.058649e+01 2.370030e+01 2.409541e+01 3.593438e+01 3.008436e+01 3.185410e+01 3.282957e+01 2.967068e+01 2.580329e+01 2.911945e+01 2.951193e+01 2.732983e+01 3.441925e+00 3.459830e+00 4.871707e+00 5.107194e+00 6.436020e+00 7.056611e+00 5.779227e+00 6.971954e+00 6.009820e+00 6.487416e+00 7.743353e+00 8.289762e+00 2.842292e+00 3.389464e-01 3.307350e-01 3.746783e-01 5.003128e-01 6.514618e-01 6.222872e-01 6.782504e-01 7.596562e-01 6.809271e-01 6.357732e-01 6.985460e-01 7.322322e-01 3.195892e-01
<GCONST> 1.288363e+02
<MIXTURE> 7 1.460602e-01
<MEAN> 39
 -9.207465e+00 2.176624e+00 -1.082005e+00 5.729168e+00 1.165171e+00 1.867804e+00 2.196759e+00 -1.867984e-01 -6.461177e-01 -1.802535e+00 -2.570941e+00 -2.443754e+00 -4.583076e+00 3.611976e-01 4.941420e-02 3.491654e-01 1.077301e-01 1.835947e-01 -3.702706e-02 7.321418e-03 -5.437857e-02 5.680420e-02 6.980997e-02 4.239390e-02 2.622450e-02 4.243838e-02 7.753204e-01 7.335244e-02 -1.039271e-02 -3.919480e-01 -3.283771e-01 -4.206198e-01 -4.231505e-01 -1.884054e-01 1.442378e-01 3.761401e-01 4.085341e-01 3.312492e-01 3.984900e-01
<VARIANCE> 39
 2.218942e+01 2.212299e+01 2.237556e+01 2.327065e+01 3.167077e+01 2.689694e+01 2.853032e+01 2.733252e+01 2.620808e+01 2.237398e+01 2.303047e+01 2.619878e+01 2.445420e+01 1.120635e+00 8.638704e-01 1.044347e+00 1.177364e+00 1.451537e+00 1.618566e+00 1.721121e+00 1.724844e+00 1.770261e+00 1.710414e+00 1.739468e+00 1.615289e+00 7.077177e-01 3.047820e-01 2.176220e-01 2.905763e-01 3.375344e-01 3.676428e-01 4.094108e-01 4.082428e-01 4.315880e-01 4.135880e-01 3.918388e-01 3.972160e-01 4.623738e-01 1.704721e-01
<GCONST> 1.034715e+02
<MIXTURE> 8 1.478995e-01
<MEAN> 39
 1.778734e+00 -1.580260e+00 -9.432173e-01 -2.184024e+00 5.593781e-01 -5.480370e-01 -5.440414e-01 1.342502e+00 2.374473e-01 -5.778972e-01 -3.963225e-01 9.759996e-01 4.307172e+00 5.808952e-02 3.895789e-02 8.684200e-03 -1.061956e-02 9.080128e-03 8.180873e-03 -1.131603e-02 -1.913577e-02 -4.752105e-02 -1.889922e-02 -2.515784e-02 -3.672028e-02 -1.133683e-01 8.217074e-03 1.946904e-02 1.908042e-02 1.340018e-02 -1.161939e-02 -4.351896e-02 -1.644968e-02 -3.975015e-03 3.378307e-03 -2.075773e-03 6.607618e-03 -2.206108e-03 -2.376497e-02
<VARIANCE> 39
 2.972365e+01 4.173560e+01 4.370736e+01 4.397482e+01 8.848061e+01 6.434888e+01 6.926310e+01 6.299492e+01 7.122400e+01 6.260858e+01 7.767015e+01 8.783711e+01 5.101917e+01 2.322451e-01 4.756950e-01 7.063864e-01 8.969278e-01 1.284930e+00 1.402012e+00 1.580411e+00 1.586447e+00 1.590795e+00 1.578013e+00 1.423564e+00 1.361307e+00 1.752997e-01 3.708363e-02 8.045879e-02 1.146269e-01 1.482996e-01 2.052546e-01 2.329083e-01 2.635418e-01 2.719778e-01 2.805840e-01 2.723161e-01 2.510371e-01 2.444283e-01 2.375858e-02
<GCONST> 9.857397e+01
<STATE> 4
<NUMMIXES> 8
<MIXTURE> 1 9.619900e-02
<MEAN> 39
 2.378540e+00 -2.142944e+00 -3.581535e+00 -3.149841e+00 -3.766411e+00 -3.898915e+00 -2.363588e+00 1.879792e+00 6.659825e+00 8.351820e+00 8.847738e+00 8.799588e+00 6.011888e+00 1.678959e+00 -2.178614e+00 -2.618420e-01 -2.253717e+00 -1.678288e-01 -6.579698e-01 -4.977678e-01 8.712841e-01 4.924351e-01 1.210889e+00 1.444932e+00 2.267584e+00 2.737774e+00 -7.622771e-01 1.244811e-01 2.770281e-01 5.024856e-01 4.771858e-01 5.784695e-01 4.288357e-01 -1.467717e-01 -6.529020e-01 -7.275499e-01 -7.104589e-01 -6.346612e-01 -4.884347e-01
<VARIANCE> 39
 2.045882e+01 3.438969e+01 5.292466e+01 5.093199e+01 6.206918e+01 5.919594e+01 5.751381e+01 6.574499e+01 6.358525e+01 6.835717e+01 6.663133e+01 6.832146e+01 3.275726e+01 3.575255e+00 3.614835e+00 4.585119e+00 5.747801e+00 6.443972e+00 6.686664e+00 6.760550e+00 7.863570e+00 7.859012e+00 8.087858e+00 8.018668e+00 8.331987e+00 3.430347e+00 3.879281e-01 5.342100e-01 5.206562e-01 7.386405e-01 7.080754e-01 8.369796e-01 8.669050e-01 1.015045e+00 8.736429e-01 8.937803e-01 8.862193e-01 9.514170e-01 3.902912e-01
<GCONST> 1.414838e+02
<MIXTURE> 2 1.724273e-01
<MEAN> 39
 -1.047388e+00 5.893141e-01 -1.691797e-01 1.112545e+00 -9.670626e-01 -1.281439e+00 4.298791e-01 -4.700956e-01 -5.638615e-02 -5.619275e-01 -7.254691e-01 -2.156148e-01 -5.697716e-01 2.420309e-01 -5.347527e-02 3.268636e-02 -1.436427e-01 -1.324564e-04 4.461552e-02 -1.405198e-02 -6.135453e-03 -2.681200e-02 -2.352156e-02 -1.686623e-02 -1.739933e-02 -2.609259e-01 -1.159145e-02 -5.161370e-03 3.109334e-02 2.275264e-02 3.679300e-02 1.229914e-02 -2.137697e-02 -2.857544e-03 1.878280e-02 3.695589e-02 5.007315e-02 4.417677e-02 3.950367e-02
<VARIANCE> 39
 3.944704e+01 3.937616e+01 4.308766e+01 4.109289e+01 6.119215e+01 4.924439e+01 4.988850e+01 5.252297e+01 5.108083e+01 5.115720e+01 5.256364e+01 6.027846e+01 7.044636e+01 9.078457e-01 9.304762e-01 1.211748e+00 1.458923e+00 1.844975e+00 1.924545e+00 2.139055e+00 2.291283e+00 2.322319e+00 2.287191e+00 2.101621e+00 1.955624e+00 1.070246e+00 1.381993e-01 1.647628e-01 2.159568e-01 2.557113e-01 3.178937e-01 3.415585e-01 3.851455e-01 4.223365e-01 4.294328e-01 4.029350e-01 3.753907e-01 3.666623e-01 1.515986e-01
<GCONST> 1.126403e+02
<MIXTURE> 3 1.547973e-01
<MEAN> 39
 -2.206841e+00 5.962984e+00 2.758732e+00 5.081687e+00 2.917238e-01 -2.214571e+00 -2.167823e+00 -4.428144e+00 -3.085620e+00 -1.478117e+00 -1.288775e+00 -9.550440e-01 5.818762e-01 3.990931e+00 5.351571e-01 2.895202e-01 -1.398660e+00 -1.460379e+00 -1.144211e+00 -1.825493e+00 -1.537079e+00 -8.750753e-01 -5.477589e-01 -4.208227e-01 -6.261044e-01 1.832343e+00 -4.850798e-02 -6.325675e-01 -4.965902e-01 -5.911823e-01 -2.873669e-01 1.559641e-01 1.609370e-01 4.554692e-01 5.146234e-01 3.718059e-01 1.840633e-01 2.595267e-02 1.617042e-01
<VARIANCE> 39
 2.033588e+01 2.088406e+01 3.017610e+01 2.487600e+01 3.595422e+01 3.633026e+01 3.199433e+01 3.256656e+01 3.106927e+01 2.795424e+01 2.735717e+01 2.890801e+01 2.563156e+01 2.453467e+00 2.987672e+00 4.188766e+00 4.422872e+00 4.086974e+00 5.820546e+00 4.260747e+00 4.198616e+00 4.516315e+00 4.234164e+00 4.625493e+00 3.676753e+00 1.424690e+00 2.882477e-01 2.970948e-01 3.275841e-01 3.876196e-01 4.792496e-01 5.466099e-01 5.324653e-01 6.239576e-01 6.110500e-01 5.293313e-01 5.693018e-01 4.868487e-01 1.581515e-01
<GCONST> 1.210411e+02
<MIXTURE> 4 1.159137e-01
<MEAN> 39
 7.215871e+00 -2.763740e+00 -7.291677e+00 -6.602993e+00 1.028079e+00 -4.038252e-01 -6.483632e+00 -4.470773e-01 5.185544e+00 1.497949e+00 -4.350253e+00 -5.088166e+00 7.304965e+00 1.546203e+00 -2.235864e+00 -9.449201e-01 -2.127624e+00 7.343572e-01 6.232063e-01 -1.245036e-01 1.724794e+00 8.753901e-01 -3.318954e-01 -1.308151e+00 -5.913181e-01 2.220716e+00 -1.256919e+00 1.907109e-01 5.169066e-01 9.729826e-01 2.188976e-01 2.728558e-01 8.036155e-01 2.267277e-01 -4.102858e-01 -2.748323e-01 2.682168e-01 4.353727e-01 -6.520881e-01
<VARIANCE> 39
 1.339474e+01 2.193003e+01 2.619099e+01 4.098109e+01 3.964927e+01 5.545637e+01 5.060534e+01 5.275536e+01 4.090194e+01 5.433643e+01 4.956587e+01 4.604383e+01 1.992013e+01 2.710518e+00 2.112802e+00 2.457574e+00 4.586370e+00 4.438276e+00 4.825465e+00 5.268738e+00 5.325930e+00 5.313844e+00 4.544531e+00 3.897911e+00 4.274753e+00 1.770328e+00 2.812329e-01 2.980504e-01 3.420917e-01 5.225261e-01 5.334618e-01 7.332707e-01 6.884779e-01 8.101413e-01 6.843615e-01 7.311426e-01 7.409288e-01 6.448008e-01 1.905606e-01
<GCONST> 1.266773e+02
<MIXTURE> 5 1.024732e-01
<MEAN> 39
 7.244745e+00 4.110274e+00 -5.583531e+00 -7.408575e+00 -1.051825e+00 5.049650e+00 -2.159341e+00 -7.244151e+00 -2.123210e+00 2.451000e+00 3.771592e+00 1.204886e-01 4.259836e+00 2.971614e+00 -5.298720e-01 -1.236188e+00 -3.251496e+00 -7.745507e-01 1.282614e+00 -4.721387e-01 -9.623802e-01 7.259472e-01 7.836925e-01 9.146640e-01 -2.561846e-01 1.986340e+00 -1.114480e+00 -5.258932e-01 1.887425e-01 6.098387e-01 2.967404e-01 -1.825458e-01 1.763074e-01 6.974711e-01 4.885312e-01 1.030306e-02 -2.645842e-01 -9.229127e-02 -3.328711e-01
<VARIANCE> 39
 1.341821e+01 1.772441e+01 1.840411e+01 3.142901e+01 2.888411e+01 3.038651e+01 3.722609e+01 3.429610e+01 3.465476e+01 3.702602e+01 3.443310e+01 4.167287e+01 1.909212e+01 3.621175e+00 2.662652e+00 2.478324e+00 4.807041e+00 4.561668e+00 4.553852e+00 5.077641e+00 5.047374e+00 5.285042e+00 4.554072e+00 4.831221e+00 4.660503e+00 1.730620e+00 2.693546e-01 2.681756e-01 2.790171e-01 4.621492e-01 4.179006e-01 4.956827e-01 5.164018e-01 5.655291e-01 5.718706e-01 5.685282e-01 5.302308e-01 4.669903e-01 1.575187e-01
<GCONST> 1.208293e+02
<MIXTURE> 6 1.067726e-01
<MEAN> 39
 2.501081e+00 1.132943e+00 5.705277e+00 1.576833e+00 -1.014615e+01 -1.012923e+01 -1.763693e+00 -1.041062e+00 -3.201756e+00 -6.681153e-01 -2.839576e-01 7.635996e-01 5.988129e+00 1.857877e+00 -1.189566e+00 1.167093e+00 -1.632169e+00 -2.524073e+00 -1.238076e+00 9.978735e-02 2.017082e-01 -7.351486e-01 1.176390e-01 -2.700757e-01 -1.339049e-01 2.222593e+00 -9.298694e-01 -1.638079e-02 -3.133663e-01 -3.582215e-02 6.911404e-01 1.073230e+00 5.442041e-01 1.387732e-01 2.515688e-01 2.060432e-01 -2.278909e-04 -1.281390e-01 -5.300085e-01
<VARIANCE> 39
 1.300174e+01 2.508522e+01 3.321774e+01 3.796517e+01 3.616539e+01 3.381979e+01 3.684604e+01 4.135383e+01 4.559513e+01 3.849169e+01 3.753749e+01 3.906858e+01 2.346387e+01 2.877707e+00 2.763184e+00 3.465222e+00 3.878450e+00 4.242114e+00 5.123449e+00 4.795735e+00 5.706445e+00 5.311339e+00 4.886142e+00 5.057854e+00 4.159725e+00 1.968039e+00 2.779968e-01 3.539756e-01 3.640965e-01 4.746571e-01 5.833376e-01 5.051368e-01 5.554632e-01 5.993894e-01 6.324351e-01 5.626593e-01 5.451560e-01 5.174561e-01 2.211722e-01
<GCONST> 1.247948e+02
<MIXTURE> 7 1.271096e-01
<MEAN> 39
 -9.844660e+00 -4.055342e-01 -4.712262e-01 3.967538e+00 1.742846e+00 4.447808e-01 2.124495e+00 1.808550e+00 1.665563e+00 2.210385e+00 1.228585e+00 1.160177e+00 -6.931939e-01 3.476736e+00 1.442595e+00 1.240742e+00 -4.058539e-01 -9.078572e-01 -1.057902e+00 -1.433488e+00 -1.805256e+00 -1.446857e+00 -9.564100e-01 -7.186400e-01 -6.631266e-01 1.312426e+00 9.348685e-01 2.380931e-01 1.564080e-02 -4.396859e-01 -5.534905e-01 -2.333554e-01 -4.368957e-01 -4.613478e-01 -2.763172e-01 -1.358106e-01 -1.048642e-01 -1.776753e-01 3.301166e-01
<VARIANCE> 39
 2.085102e+01 2.420374e+01 3.264627e+01 2.634045e+01 3.613773e+01 3.307702e+01 3.604637e+01 2.901902e+01 2.849394e+01 2.734629e+01 2.599958e+01 2.648120e+01 2.317457e+01 3.209086e+00 1.941335e+00 3.296782e+00 3.466716e+00 3.409725e+00 4.571445e+00 3.636164e+00 3.135345e+00 3.405900e+00 3.198511e+00 3.181585e+00 2.819020e+00 1.484639e+00 2.771046e-01 3.269480e-01 4.463789e-01 5.001976e-01 4.749717e-01 6.691155e-01 5.942482e-01 5.689878e-01 5.813949e-01 5.481158e-01 5.841331e-01 5.193842e-01 2.114799e-01
<GCONST> 1.194343e+02
<MIXTURE> 8 1.243664e-01
<MEAN> 39
 4.055784e+00 4.428913e+00 -2.990530e+00 9.829371e-01 -1.567432e+00 -4.944855e+00 -7.393603e+00 -5.767440e+00 3.143510e-01 -9.010680e-01 -3.249173e+00 -3.836551e+00 2.195289e+00 3.406640e+00 -1.119859e+00 -1.134901e+00 -2.375158e+00 -5.235283e-01 -7.535894e-01 -1.581696e+00 3.444616e-01 7.209169e-01 1.286783e-01 -9.197037e-01 -6.365576e-01 2.028224e+00 -7.715448e-01 -6.150621e-01 1.050983e-03 -3.634187e-02 2.322383e-01 5.659521e-01 8.417630e-01 8.909232e-01 2.945269e-01 1.569769e-01 1.401215e-01 2.316812e-01 -6.038300e-02
<VARIANCE> 39
 1.396994e+01 1.996623e+01 2.535376e+01 2.628362e+01 3.168372e+01 2.949298e+01 3.178996e+01 3.913223e+01 3.707860e+01 3.694221e+01 3.445692e+01 3.477740e+01 1.764900e+01 2.912714e+00 3.246721e+00 2.735890e+00 4.280734e+00 4.413966e+00 5.015479e+00 5.234460e+00 5.785061e+00 5.535447e+00 4.728586e+00 4.734965e+00 4.454093e+00 1.532568e+00 2.518454e-01 2.554138e-01 3.157061e-01 3.976095e-01 4.639937e-01 4.892869e-01 5.517929e-01 6.722748e-01 6.796339e-01 6.247668e-01 5.617945e-01 5.197855e-01 1.163736e-01
<GCONST> 1.213816e+02
<TRANSP> 5
 0.000000e+00 1.000000e+00 0.000000e+00 0.000000e+00 0.000000e+00
 0.000000e+00 8.717298e-01 1.282702e-01 0.000000e+00 0.000000e+00
 0.000000e+00 0.000000e+00 6.312353e-01 3.687647e-01 0.000000e+00
 0.000000e+00 0.000000e+00 0.000000e+00 5.954039e-01 4.045961e-01
 0.000000e+00 0.000000e+00 0.000000e+00 0.000000e+00 0.000000e+00
<ENDHMM>
~h "g"
<BEGINHMM>
<NUMSTATES> 5
<STATE> 2
<NUMMIXES> 8
<MIXTURE> 1 1.097874e-01
<MEAN> 39
 -8.149118e-01 -7.133013e-02 -3.290987e-02 4.289755e-01 6.754875e-02 -9.861559e-01 4.107273e-02 -2.468663e-01 4.248992e-02 7.355927e-01 8.060223e-01 9.087123e-01 9.046141e-01 1.005471e-01 6.232172e-02 9.807692e-02 -7.072929e-02 -1.376234e-01 -1.236379e-01 -1.446005e-01 -8.546367e-02 9.821072e-03 3.413022e-02 -1.364009e-02 -5.283102e-02 5.212005e-02 1.058149e-01 -2.958235e-02 2.844246e-02 -6.881122e-02 -7.713012e-02 -1.424689e-02 -4.653284e-02 2.119462e-02 -1.173056e-02 -6.968186e-02 -4.987019e-02 -3.685512e-02 5.653904e-02
<VARIANCE> 39
 4.487775e+01 4.236320e+01 4.471252e+01 4.586759e+01 6.443925e+01 5.752740e+01 6.047056e+01 5.433642e+01 5.622280e+01 6.044596e+01 6.684093e+01 6.999339e+01 5.981551e+01 6.190126e-01 9.736888e-01 1.176551e+00 1.465634e+00 1.866102e+00 1.991730e+00 2.329807e+00 2.358939e+00 2.230361e+00 2.396160e+00 2.208269e+00 2.055786e+00 6.292233e-01 9.783486e-02 1.503899e-01 1.961954e-01 2.445847e-01 3.187774e-01 3.643819e-01 4.189934e-01 4.213249e-01 4.142473e-01 4.275915e-01 4.092509e-01 3.761752e-01 8.130250e-02
<GCONST> 1.123684e+02
<MIXTURE> 2 9.694996e-02
<MEAN> 39
 -1.045549e+00 1.081900e+00 7.364476e+00 5.624413e+00 -2.125326e+00 -8.342263e+00 -1.478793e-01 -1.704825e-01 -8.690125e+00 2.409121e+00 -8.038355e-02 6.989140e-01 3.471582e+00 7.979832e-01 6.317620e-02 6.271861e-01 -1.044534e+00 -2.897535e+00 -1.520305e+00 -7.882973e-01 -6.783926e-02 -8.659627e-02 1.158402e-01 8.314271e-01 9.838179e-03 2.360083e+00 4.697706e-01 7.654716e-02 -4.813840e-01 -5.434610e-01 -1.965509e-01 4.545435e-01 -6.903517e-02 6.581417e-02 1.027726e+00 -1.459868e-01 -1.870910e-02 -3.149751e-01 -1.922224e-01
<VARIANCE> 39
 1.556837e+01 1.692590e+01 3.023595e+01 2.554314e+01 4.180066e+01 3.882156e+01 5.125284e+01 4.865758e+01 3.814110e+01 4.362963e+01 3.522347e+01 3.252305e+01 2.086092e+01 3.726319e+00 4.446179e+00 3.061548e+00 3.375320e+00 4.226174e+00 4.947579e+00 5.662862e+00 5.680669e+00 5.498802e+00 5.621845e+00 4.777198e+00 4.392299e+00 1.988316e+00 2.304612e-01 4.217527e-01 3.783424e-01 4.385817e-01 6.966650e-01 7.499086e-01 8.289301e-01 9.114761e-01 7.347432e-01 9.240036e-01 7.419352e-01 6.219026e-01 3.382481e-01
<GCONST> 1.281275e+02
<MIXTURE> 3 9.004205e-02
<MEAN> 39
 -3.642731e+00 -5.115992e+00 -4.251965e+00 9.815213e+00 2.890153e+00 -1.114773e+01 2.705961e+00 1.162285e+00 2.228773e+00 3.426414e-01 -1.334505e+00 2.413464e+00 2.190914e+00 6.894673e-01 -4.061016e-01 -3.463423e-01 -1.018222e+00 -1.363948e+00 -2.198916e+00 -5.555201e-01 1.109181e+00 3.817177e-01 6.949635e-01 -1.303550e-01 1.531409e+00 2.965323e+00 8.516186e-01 1.105061e+00 7.495616e-01 -1.315305e+00 -7.183827e-01 8.802609e-01 -5.973843e-01 -3.702809e-01 -2.059729e-01 1.114451e-01 -2.899747e-01 -2.637750e-01 -4.594766e-01
<VARIANCE> 39
 1.658211e+01 2.664152e+01 3.128759e+01 2.962364e+01 4.551290e+01 3.431619e+01 5.220388e+01 5.154014e+01 5.235868e+01 4.101711e+01 4.768813e+01 3.565869e+01 1.988516e+01 2.909709e+00 5.189573e+00 4.308630e+00 5.974503e+00 5.082613e+00 4.892986e+00 5.313032e+00 5.571518e+00 5.356191e+00 5.081083e+00 4.709868e+00 5.097796e+00 3.529351e+00 2.926891e-01 6.771395e-01 6.118146e-01 7.678995e-01 9.291029e-01 8.409223e-01 9.630061e-01 1.021825e+00 9.909241e-01 1.093887e+00 1.244941e+00 1.234040e+00 4.380531e-01
<GCONST> 1.353071e+02
<MIXTURE> 4 2.586651e-01
<MEAN> 39
 5.237196e-01 4.884745e+00 3.750243e+00 5.534717e+00 9.154746e-01 -1.775193e+00 -7.612317e-01 -4.802117e+00 -1.765915e+00 -7.274316e-01 -3.316829e+00 -3.051862e+00 -5.516300e+00 -8.768451e-01 -1.864417e+00 -5.028073e-01 -6.686780e-01 -3.158483e-01 -5.510296e-01 -4.909140e-02 6.924927e-01 8.206665e-01 1.235426e+00 5.404410e-01 1.100038e+00 2.663660e+00 2.045899e-01 -2.407672e-01 -3.592400e-02 -8.009844e-01 -6.828473e-01 -3.202632e-01 -7.227458e-02 2.116609e-01 1.300292e-01 3.516514e-01 1.495303e-01 3.326949e-01 8.576797e-01
<VARIANCE> 39
 2.721897e+01 2.662678e+01 3.950712e+01 3.349940e+01 5.320162e+01 4.389074e+01 4.560600e+01 4.621403e+01 3.954384e+01 3.960392e+01 4.062170e+01 3.654227e+01 3.641236e+01 4.549089e+00 4.997107e+00 5.628156e+00 5.421165e+00 6.085434e+00 5.488278e+00 6.234656e+00 5.817391e+00 5.408525e+00 5.424081e+00 5.057402e+00 4.620171e+00 3.228966e+00 3.130108e-01 4.889641e-01 5.332032e-01 5.785364e-01 7.770386e-01 7.660824e-01 7.923087e-01 7.632011e-01 7.417904e-01 8.460746e-01 7.572684e-01 7.982134e-01 3.719701e-01
<GCONST> 1.344248e+02
<MIXTURE> 5 1.104787e-01
<MEAN> 39
 -7.515264e+00 -4.410354e+00 3.691207e+00 5.249444e+00 -4.083515e+00 -2.140869e+00 6.598372e+00 -4.596002e+00 1.791868e+00 2.474298e+00 -6.202274e-01 -2.033200e+00 2.880825e+00 -1.605670e-01 -6.505159e-01 2.196801e-01 -1.688871e+00 -2.290083e+00 -1.207410e+00 3.536664e-01 1.958690e-01 1.080524e+00 2.223931e+00 1.229159e+00 1.937139e+00 4.171226e+00 1.092403e+00 8.517593e-01 -4.619645e-02 -9.752383e-01 -3.381113e-01 -2.120058e-01 -7.911254e-01 2.689982e-01 -1.630635e-01 1.111275e-01 1.942544e-01 7.539834e-01 -3.588385e-01
<VARIANCE> 39
 1.382575e+01 2.572092e+01 2.995739e+01 4.073629e+01 4.083897e+01 4.511936e+01 4.913026e+01 5.534209e+01 5.539267e+01 4.900293e+01 4.438237e+01 3.200188e+01 3.190802e+01 3.824069e+00 3.899833e+00 3.093735e+00 4.789554e+00 4.272969e+00 4.668018e+00 5.331100e+00 5.002059e+00 6.101858e+00 5.246514e+00 5.617628e+00 5.465742e+00 3.857877e+00 3.117169e-01 7.474205e-01 6.640017e-01 8.664456e-01 9.554181e-01 9.634018e-01 1.049248e+00 1.215435e+00 1.507146e+00 1.593014e+00 1.630028e+00 1.515416e+00 5.791149e-01
<GCONST> 1.380125e+02
<MIXTURE> 6 1.410204e-01
<MEAN> 39
 -9.391775e+00 -1.088841e-01 4.934755e+00 -7.309981e-01 2.489139e-01 1.110824e+00 1.437236e+00 -2.059251e+00 1.503295e+00 3.436997e+00 -2.714989e-01 1.864411e+00 2.705385e+00 8.658469e-01 1.372098e+00 1.418951e+00 -9.936557e-01 -2.114977e+00 -1.157964e+00 -1.194085e+00 -1.213209e+00 -9.094386e-01 -1.743375e-01 -2.310634e-01 8.789209e-02 2.445362e+00 1.215122e+00 4.954369e-01 1.139141e-01 1.911454e-01 -7.071308e-01 -5.302098e-01 -1.926994e-01 -1.128365e-01 -5.210761e-01 -2.739246e-01 -3.363292e-02 -3.939333e-01 -4.081876e-01
<VARIANCE> 39
 2.265186e+01 4.462065e+01 4.000787e+01 3.301793e+01 3.701453e+01 3.660849e+01 4.523418e+01 4.699320e+01 4.885823e+01 3.760083e+01 3.469454e+01 2.707982e+01 2.959592e+01 4.747045e+00 3.470189e+00 2.811480e+00 4.111528e+00 4.515407e+00 4.076103e+00 3.555088e+00 3.449356e+00 3.993270e+00 3.909838e+00 3.722916e+00 3.486673e+00 4.445842e+00 3.253737e-01 9.180657e-01 6.447622e-01 6.763625e-01 7.843098e-01 7.714365e-01 8.869557e-01 8.368785e-01 9.023765e-01 9.250318e-01 9.539669e-01 7.356592e-01 5.707349e-01
<GCONST> 1.319419e+02
<MIXTURE> 7 9.348062e-02
<MEAN> 39
 -1.467258e+00 -5.693643e+00 -5.994101e+00 2.689339e+00 9.885614e+00 -9.381306e-01 -5.315321e+00 2.601702e+00 -4.635541e-01 5.509470e+00 -1.015522e+00 4.467678e-01 4.088198e-01 5.888517e-01 -4.530277e-01 -6.298232e-01 -5.832034e-01 -4.355859e-01 -1.268495e+00 -1.544752e+00 1.587346e-02 8.921777e-02 7.310168e-01 -1.399112e-01 -1.439118e-02 2.963948e+00 5.979927e-01 1.190823e+00 1.055068e+00 -1.046163e-01 -1.215438e+00 -2.887926e-01 2.960750e-01 -6.363994e-01 -6.996404e-02 -4.964710e-01 1.210763e-01 -2.729247e-01 -3.070505e-01
<VARIANCE> 39
 2.290012e+01 3.062457e+01 4.469712e+01 3.944941e+01 4.838487e+01 6.251923e+01 6.407895e+01 5.690374e+01 5.874871e+01 4.629255e+01 4.317556e+01 3.361663e+01 3.527187e+01 3.291700e+00 6.531224e+00 6.023853e+00 3.707098e+00 6.376471e+00 5.222288e+00 5.290343e+00 5.418579e+00 4.632862e+00 4.762509e+00 4.022695e+00 3.415749e+00 4.406050e+00 3.762845e-01 6.240693e-01 7.016655e-01 8.259100e-01 9.552270e-01 1.038416e+00 1.106441e+00 1.009642e+00 9.870178e-01 8.736991e-01 8.750065e-01 7.695722e-01 5.885688e-01
<GCONST> 1.379399e+02
<MIXTURE> 8 9.960453e-02
<MEAN> 39
 -7.046081e-01 3.329904e+00 2.625623e+00 4.910644e-01 -8.343692e+00 -6.268979e+00 1.933249e+00 -2.721076e+00 5.649222e+00 7.440267e+00 4.535578e+00 6.158105e+00 3.870987e+00 1.657721e+00 -2.360122e-01 3.993129e-01 -3.359971e+00 -1.874701e+00 -9.256219e-01 -8.223113e-01 9.074584e-01 7.423756e-01 2.199448e+00 1.372744e+00 3.463085e+00 2.582349e+00 1.608007e-02 -4.694865e-01 -1.623107e-01 -1.697834e-01 8.176639e-01 5.882551e-01 3.001133e-02 3.387218e-01 -5.529572e-01 -5.868458e-01 -3.291582e-01 -4.992703e-02 -4.271898e-01
<VARIANCE> 39
 1.834967e+01 2.469441e+01 3.500619e+01 4.174405e+01 4.418259e+01 4.370695e+01 5.032008e+01 5.685902e+01 5.227839e+01 5.384643e+01 5.422668e+01 5.040963e+01 2.320286e+01 3.049011e+00 3.657463e+00 4.121270e+00 4.615582e+00 5.880116e+00 5.787062e+00 6.762910e+00 7.471794e+00 8.391509e+00 9.136899e+00 1.013997e+01 9.337095e+00 2.894992e+00 3.653679e-01 4.382400e-01 4.667035e-01 6.915241e-01 7.398117e-01 8.070440e-01 8.972605e-01 9.007211e-01 9.268851e-01 1.047624e+00 9.454219e-01 1.069129e+00 5.683240e-01
<GCONST> 1.380905e+02
<STATE> 3
<NUMMIXES> 8
<MIXTURE> 1 1.229942e-01
<MEAN> 39
 7.285976e-02 -1.893345e+00 1.632239e+00 -7.467819e+00 -1.033423e+01 -6.822086e+00 -3.872314e-02 2.063562e-01 6.983791e+00 1.324030e+01 1.074577e+01 1.592433e+01 8.815568e+00 5.415617e-01 -1.517396e+00 -4.524930e-01 -1.836026e+00 8.183118e-01 5.744815e-01 -7.916930e-02 1.417364e+00 -1.733627e-01 5.899171e-01 1.645196e+00 3.145172e+00 1.608895e+00 -4.514034e-01 -2.617605e-01 -2.180369e-01 1.044858e+00 1.284911e+00 7.453901e-01 4.022188e-01 5.888337e-03 -7.019183e-01 -1.372009e+00 -8.829666e-01 -1.164255e+00 -6.820973e-01
<VARIANCE> 39
 1.445366e+01 2.014839e+01 4.399391e+01 3.335670e+01 5.905688e+01 4.893391e+01 5.690112e+01 6.979794e+01 8.422865e+01 7.473670e+01 5.890628e+01 5.334876e+01 1.748117e+01 1.491107e+00 2.216472e+00 2.911041e+00 4.425665e+00 5.584747e+00 4.733935e+00 5.960005e+00 6.094790e+00 7.374104e+00 8.941064e+00 6.756902e+00 6.943916e+00 9.935769e-01 2.509558e-01 3.557820e-01 4.697919e-01 5.552406e-01 7.490554e-01 7.035850e-01 8.521293e-01 1.036062e+00 1.138673e+00 9.823587e-01 8.371077e-01 8.622522e-01 2.723064e-01
<GCONST> 1.331696e+02
<MIXTURE> 2 1.080463e-01
<MEAN> 39
 -1.811654e+00 8.221854e+00 1.230548e+01 -9.085725e-01 -9.153165e+00 -3.746839e+00 -2.146399e+00 -9.104542e+00 -4.556124e+00 1.156350e+00 -1.748923e+00 -1.462605e+00 4.767870e+00 2.305024e+00 6.785558e-01 1.204495e+00 -6.540195e-01 -3.710979e+00 -1.299520e+00 -6.706522e-01 -4.863723e-01 -1.267483e+00 6.522886e-03 8.857468e-02 -6.986871e-01 1.409524e+00 -7.080048e-02 -9.135754e-01 -7.186391e-01 5.066769e-02 3.625358e-01 2.756352e-01 5.226015e-01 9.312697e-01 3.787411e-01 1.576358e-01 1.719529e-01 5.115457e-02 -2.929730e-01
<VARIANCE> 39
 1.529988e+01 2.007050e+01 2.810094e+01 3.190421e+01 3.761649e+01 3.147706e+01 3.707425e+01 3.473637e+01 4.343485e+01 3.419088e+01 3.394318e+01 3.250404e+01 2.128089e+01 1.951112e+00 3.249330e+00 3.049069e+00 3.910189e+00 3.353697e+00 4.096368e+00 4.232716e+00 4.404482e+00 4.522090e+00 5.404958e+00 6.133366e+00 4.329974e+00 1.171999e+00 3.427014e-01 3.512370e-01 3.499229e-01 3.696705e-01 6.146867e-01 4.480463e-01 5.736653e-01 5.268855e-01 6.375011e-01 6.137194e-01 5.653687e-01 4.885464e-01 2.425015e-01
<GCONST> 1.220224e+02
<MIXTURE> 3 1.468934e-01
<MEAN> 39
 4.433821e+00 4.310413e+00 6.208068e-01 2.775094e+00 1.305396e-01 -7.117784e+00 -7.496141e+00 -3.434513e+00 -8.962061e-01 2.116668e+00 -1.455249e+00 -1.314511e+00 2.488565e+00 2.190564e+00 6.415442e-01 1.971124e-01 -1.786244e+00 -2.106846e+00 -4.652367e-01 -9.301649e-01 -8.103454e-01 4.490528e-01 1.555011e-01 5.268292e-02 -6.224866e-01 1.489171e+00 -3.214072e-01 -6.178125e-01 -3.436424e-01 -3.068075e-01 1.952552e-01 7.011930e-01 6.308865e-01 3.844590e-01 2.307002e-01 3.919531e-02 5.455549e-02 -2.895004e-02 -1.357819e-01
<VARIANCE> 39
 1.492803e+01 1.756413e+01 2.787874e+01 3.379641e+01 3.793875e+01 4.855885e+01 4.140316e+01 4.370955e+01 4.178149e+01 4.788620e+01 4.699210e+01 3.912702e+01 2.194500e+01 2.027146e+00 3.318253e+00 3.722873e+00 4.187391e+00 4.262488e+00 5.061378e+00 5.641812e+00 5.817670e+00 5.359156e+00 5.289099e+00 5.741604e+00 4.691682e+00 1.316432e+00 2.545283e-01 3.410625e-01 4.288660e-01 3.879269e-01 5.444412e-01 5.996073e-01 6.177443e-01 6.318456e-01 5.905198e-01 6.601850e-01 5.535581e-01 5.468914e-01 1.849526e-01
<GCONST> 1.253266e+02
<MIXTURE> 4 1.323147e-01
<MEAN> 39
 8.075982e-01 7.832102e-01 9.492831e+00 2.381459e+00 -1.308832e+01 -1.049417e+01 -1.046794e+00 -1.061960e+00 -8.124230e+00 1.339932e+00 4.741352e+00 -8.079570e-01 8.869338e+00 1.086092e+00 -1.082701e+00 -1.079545e+00 -1.097252e+00 -1.963135e+00 -7.117375e-01 -9.626620e-03 1.801461e+00 1.688407e+00 -9.218201e-02 9.095489e-01 -2.638440e-01 1.819145e+00 -1.861383e-01 -3.525316e-01 -8.182073e-01 -1.469294e-01 1.317568e+00 8.722672e-01 3.458463e-01 4.840024e-01 9.734687e-01 4.789099e-02 -6.983981e-01 -2.034283e-03 -5.413561e-01
<VARIANCE> 39
 1.462177e+01 1.590040e+01 3.391629e+01 2.870572e+01 3.521290e+01 3.899992e+01 5.115134e+01 4.781355e+01 4.493253e+01 4.890202e+01 3.913335e+01 4.460260e+01 1.932434e+01 1.302117e+00 2.080331e+00 2.614778e+00 2.705085e+00 4.127965e+00 4.326488e+00 5.338880e+00 5.514058e+00 6.283265e+00 4.763546e+00 4.665709e+00 4.099125e+00 9.240478e-01 3.282003e-01 3.829280e-01 3.448617e-01 4.064201e-01 4.865964e-01 6.614624e-01 7.065703e-01 7.585814e-01 7.588013e-01 1.009089e+00 6.060824e-01 6.938341e-01 1.862793e-01
<GCONST> 1.240338e+02
<MIXTURE> 5 1.151555e-01
<MEAN> 39
 -5.460417e-01 3.779032e+00 1.119906e+01 -9.264845e+00 -1.444574e+01 -2.139046e+00 -1.927433e+00 -9.783472e+00 -7.129298e-01 7.187443e+00 -6.348228e+00 2.654466e+00 7.495179e+00 5.607191e-01 -1.255203e+00 3.911667e-01 -2.128571e+00 -1.303298e+00 3.600218e-01 1.133726e+00 1.288211e+00 -8.080931e-01 1.236842e+00 -6.128372e-01 5.407832e-01 1.651156e+00 -7.064690e-02 -4.604604e-01 -7.337835e-01 7.933205e-01 1.092123e+00 2.076416e-01 6.404080e-01 8.539253e-01 -2.325989e-02 -8.028002e-01 3.439460e-01 -4.864337e-01 -4.731446e-01
<VARIANCE> 39
 1.214769e+01 2.193838e+01 2.551088e+01 3.167687e+01 3.129593e+01 3.327308e+01 4.772983e+01 3.767194e+01 5.487185e+01 4.860984e+01 5.101711e+01 7.616550e+01 1.746658e+01 1.677488e+00 2.346100e+00 2.529058e+00 3.434893e+00 4.578049e+00 3.692935e+00 5.024035e+00 5.053538e+00 4.734825e+00 5.368060e+00 4.753761e+00 5.408325e+00 1.105418e+00 3.705610e-01 3.577370e-01 3.251748e-01 4.598078e-01 6.157610e-01 4.771348e-01 6.794832e-01 6.014301e-01 8.313816e-01 7.702971e-01 6.184342e-01 7.834169e-01 2.019805e-01
<GCONST> 1.247799e+02
<MIXTURE> 6 1.331784e-01
<MEAN> 39
 1.034149e+00 1.353838e+00 3.163746e+00 2.171898e-01 -2.664408e+00 -2.729586e+00 -1.173202e+00 -1.957845e+00 -2.119088e+00 -8.851647e-03 -3.336023e-01 -6.407946e-02 1.242482e+00 1.503330e-01 -4.905514e-02 -1.375739e-02 -1.992228e-01 -1.473112e-01 -1.282836e-02 -1.200240e-01 2.769870e-02 7.463627e-02 -9.396372e-03 -1.688119e-02 -7.675929e-02 1.280290e-01 1.367090e-02 -8.330937e-02 -8.941123e-02 -3.887687e-02 4.739461e-02 9.171917e-02 3.402539e-02 1.035398e-01 6.507315e-02 -1.923344e-02 -5.898613e-03 -2.028212e-03 1.365903e-02
<VARIANCE> 39
 3.062799e+01 3.861382e+01 6.488351e+01 4.667054e+01 6.748589e+01 6.407207e+01 5.602389e+01 5.957962e+01 5.650273e+01 5.275382e+01 6.245931e+01 6.774223e+01 5.428995e+01 4.196524e-01 7.575034e-01 1.036095e+00 1.280494e+00 1.709612e+00 1.689928e+00 2.006324e+00 2.037586e+00 2.004938e+00 2.013757e+00 2.042841e+00 1.749514e+00 4.480212e-01 5.217015e-02 1.038141e-01 1.667299e-01 1.828627e-01 2.597834e-01 2.830462e-01 3.257160e-01 3.497805e-01 3.336349e-01 3.272316e-01 3.345222e-01 3.070080e-01 4.554475e-02
<GCONST> 1.059992e+02
<MIXTURE> 7 1.382039e-01
<MEAN> 39
 3.926876e+00 9.680860e-01 8.595592e-01 -2.851961e+00 -7.203461e+00 -1.038974e+01 -2.088828e+00 8.995236e-01 5.214292e-01 1.305799e+00 -6.680365e+00 2.967196e+00 5.621489e+00 1.278631e+00 -1.179236e+00 -4.348930e-01 -2.855067e+00 -3.618037e-01 7.217863e-01 -8.856486e-02 1.810882e+00 6.127855e-01 -3.058767e-01 -1.646497e+00 1.864099e-01 1.677309e+00 -3.759158e-01 -3.773119e-01 -2.980285e-01 4.729541e-01 1.023914e+00 9.453222e-01 4.039305e-01 1.544009e-02 7.730289e-02 -3.177970e-01 2.397662e-01 -5.244355e-01 -3.724784e-01
<VARIANCE> 39
 9.598513e+00 1.786578e+01 2.697742e+01 2.774426e+01 4.027332e+01 3.267233e+01 5.273896e+01 3.906590e+01 4.578824e+01 5.108689e+01 4.801811e+01 5.014672e+01 1.287411e+01 1.723635e+00 2.650128e+00 3.072018e+00 3.171504e+00 4.924982e+00 4.168188e+00 5.293248e+00 5.196879e+00 6.191793e+00 5.482619e+00 4.242749e+00 4.821385e+00 1.015213e+00 2.978261e-01 3.591614e-01 3.593707e-01 4.832168e-01 5.777249e-01 5.243450e-01 6.451589e-01 6.886410e-01 6.877844e-01 7.377218e-01 5.849600e-01 6.639245e-01 1.688185e-01
<GCONST> 1.236472e+02
<MIXTURE> 8 1.032574e-01
<MEAN> 39
 3.439773e+00 -2.920346e+00 -1.486057e+00 -3.233458e+00 -5.981322e-01 -3.548976e+00 -1.433468e+00 8.951634e-01 4.041790e+00 5.254809e+00 2.911392e+00 6.357978e-01 6.780932e+00 2.075529e-01 -8.294201e-01 -2.325048e-01 -1.120558e+00 -8.432692e-02 1.815432e-01 3.297191e-01 6.669689e-01 8.053991e-01 1.387257e-01 2.027115e-01 -2.528412e-01 1.502180e+00 -2.071420e-01 1.611581e-01 1.037313e-01 2.803978e-01 1.374553e-01 3.131624e-01 1.861955e-01 -3.020578e-02 -2.509857e-01 -3.512256e-01 -1.995418e-01 2.271432e-03 -4.269588e-01
<VARIANCE> 39
 4.298016e+01 3.574046e+01 5.481653e+01 6.129382e+01 7.750571e+01 1.073898e+02 1.205416e+02 1.173269e+02 1.309402e+02 1.130845e+02 1.052328e+02 1.094200e+02 4.852659e+01 2.517055e+00 3.491654e+00 3.542830e+00 5.614295e+00 5.952261e+00 6.750159e+00 6.855554e+00 8.946011e+00 8.476456e+00 8.034345e+00 7.129128e+00 6.639429e+00 3.800706e+00 4.340369e-01 4.544961e-01 5.447453e-01 7.608588e-01 9.283953e-01 1.239071e+00 1.327911e+00 1.466094e+00 1.447151e+00 1.303360e+00 1.134212e+00 1.099737e+00 5.279881e-01
<GCONST> 1.494600e+02
<STATE> 4
<NUMMIXES> 8
<MIXTURE> 1 1.693980e-01
<MEAN> 39
 -9.716418e-01 -5.046151e+00 5.456748e-01 -4.625178e+00 -2.750421e+00 -1.893587e+00 3.099205e+00 2.423190e+00 1.684070e+00 6.354878e+00 1.065615e+01 1.862399e+01 1.007650e+01 -6.442001e-02 -1.012537e+00 -7.616792e-01 6.140701e-01 2.140185e+00 1.233920e+00 2.670128e-01 8.961663e-01 -8.960692e-01 -1.657705e+00 -3.446189e-02 4.985979e-01 3.658160e-01 -1.522987e-02 1.971827e-01 -2.047058e-02 3.365709e-01 -1.114478e-02 -3.514810e-02 -1.656718e-01 -2.129759e-01 1.685813e-01 -1.061543e-01 -4.272203e-01 -8.380747e-01 -2.765538e-01
<VARIANCE> 39
