~o
<STREAMINFO> 1 39
<VECSIZE> 39<NULLD><MFCC_D_A_Z_0><DIAGC>
~h "er"
<BEGINHMM>
<NUMSTATES> 6
<STATE> 2
<NUMMIXES> 4
<MIXTURE> 1 2.023589e-01
<MEAN> 39
 1.239012e+01 -6.917485e+00 -8.473548e+00 1.332744e+00 9.175142e-01 -1.098032e+01 -8.297421e+00 7.713223e+00 -3.005843e+00 -1.453256e+00 1.228187e+00 -1.608071e+00 5.909483e+00 2.485503e+00 -1.770668e+00 -2.277021e+00 -6.893027e-01 1.004779e+00 -1.808180e+00 -2.446624e+00 2.845349e+00 4.578740e-01 2.093066e-01 1.470823e-01 1.356218e-01 1.119166e+00 -1.314953e+00 2.612359e-01 6.732140e-01 2.428240e-01 1.715963e-01 8.101249e-01 6.577692e-01 -3.262870e-01 4.905766e-01 1.984889e-01 -5.118584e-02 1.880831e-01 -3.894065e-01
<VARIANCE> 39
 1.173149e+01 2.006252e+01 6.305947e+01 2.853871e+01 5.073280e+01 6.442259e+01 6.509187e+01 4.646148e+01 5.175312e+01 4.133894e+01 4.001837e+01 2.941266e+01 9.810435e+00 3.369140e+00 1.976836e+00 3.172502e+00 2.975492e+00 4.897380e+00 4.357305e+00 7.575167e+00 4.613148e+00 5.434020e+00 4.030963e+00 2.951928e+00 2.392084e+00 1.268579e+00 4.894330e-01 3.740987e-01 5.126588e-01 4.415298e-01 5.837724e-01 7.447323e-01 8.605089e-01 7.532620e-01 6.605263e-01 6.345211e-01 6.496413e-01 4.311905e-01 2.187706e-01
<GCONST> 1.256855e+02
<MIXTURE> 2 2.641379e-01
<MEAN> 39
 1.285802e+01 -6.581343e+00 -9.439961e+00 2.566247e+00 4.210813e-01 -4.649383e+00 -1.432817e+01 2.997068e+00 7.876387e+00 -3.646785e+00 1.149391e+00 4.142653e+00 6.220713e+00 7.917690e-01 -4.831073e-01 -1.493177e+00 -1.475116e-01 1.036917e+00 -3.564870e-03 -2.089200e+00 2.490421e-01 1.653244e+00 2.865020e-01 -2.687078e-01 -1.338905e-02 2.946683e-01 -6.339892e-01 3.400011e-01 4.331325e-01 1.155614e-02 9.265529e-02 8.569784e-02 7.107875e-01 -1.324553e-01 -4.512007e-01 2.632146e-01 -1.128541e-01 -3.130843e-01 -2.600484e-01
<VARIANCE> 39
 1.180515e+01 1.779036e+01 6.281918e+01 3.756411e+01 5.526835e+01 4.919839e+01 5.075783e+01 5.640680e+01 4.730925e+01 4.537249e+01 3.899929e+01 2.437825e+01 1.061490e+01 1.201042e+00 1.020386e+00 1.968892e+00 1.850239e+00 2.740076e+00 2.295782e+00 3.244051e+00 3.350574e+00 2.820045e+00 2.718498e+00 2.554539e+00 2.238917e+00 5.798091e-01 3.976189e-01 2.055614e-01 3.180329e-01 3.045157e-01 4.465672e-01 3.964973e-01 5.861760e-01 5.176687e-01 4.366657e-01 4.304730e-01 4.147404e-01 3.387626e-01 1.107767e-01
<GCONST> 1.129094e+02
<MIXTURE> 3 2.295163e-01
<MEAN> 39
 6.272030e+00 -5.974541e+00 2.678861e+00 -2.780173e+00 -5.845710e+00 -6.611544e+00 -5.165614e+00 2.010731e+00 7.650436e-01 5.574750e-01 -1.774665e+00 1.763826e-01 8.383524e+00 2.612673e+00 -2.574676e+00 -6.217006e-01 1.950405e-02 -8.530667e-01 -1.268605e+00 -9.443340e-01 2.071792e+00 -3.306676e-01 9.086285e-02 2.512701e-01 -7.972578e-02 7.695273e-01 -6.883165e-01 4.584459e-01 -4.321251e-01 4.188242e-01 7.673958e-01 2.897724e-01 2.970731e-01 1.883420e-01 -1.682227e-02 -1.294097e-01 3.057340e-01 -3.904750e-03 -4.871107e-01
<VARIANCE> 39
 1.714487e+01 3.199829e+01 4.495096e+01 4.423773e+01 3.928757e+01 4.830692e+01 4.529157e+01 6.004805e+01 5.733455e+01 4.457282e+01 3.253823e+01 3.164799e+01 1.280576e+01 4.690799e+00 2.712703e+00 3.693807e+00 3.863675e+00 4.889029e+00 6.573504e+00 8.039919e+00 5.645512e+00 5.880409e+00 4.905478e+00 3.799416e+00 3.147957e+00 1.249110e+00 6.096778e-01 5.247475e-01 4.121054e-01 6.735422e-01 7.342243e-01 8.849684e-01 8.038887e-01 8.610716e-01 8.230409e-01 7.392437e-01 6.451263e-01 5.638565e-01 2.756267e-01
<GCONST> 1.309054e+02
<MIXTURE> 4 3.039869e-01
<MEAN> 39
 8.735928e+00 -9.187794e+00 -6.486146e-01 -2.283599e-01 -5.451137e+00 -1.092546e+01 2.867872e-01 9.637259e+00 -4.206778e+00 1.445790e+00 1.239240e+00 -1.636415e+00 7.567123e+00 7.100133e-01 -3.640916e-01 -1.459925e+00 1.104592e+00 1.084911e+00 -1.245130e+00 -3.556888e-01 1.725545e+00 8.149111e-02 -6.872542e-01 4.185945e-01 1.751868e-01 -2.342071e-01 -1.156432e-01 3.668210e-01 2.637490e-02 -8.762224e-02 1.841242e-01 2.694041e-01 -3.437917e-01 -4.824027e-01 2.716215e-01 -8.965233e-02 -2.112525e-01 1.499771e-01 -1.725944e-01
<VARIANCE> 39
 9.602853e+00 1.670314e+01 3.821244e+01 3.519935e+01 4.176190e+01 6.992977e+01 5.140409e+01 5.342396e+01 5.124163e+01 4.150226e+01 3.992064e+01 2.573669e+01 1.226968e+01 2.883383e-01 6.024147e-01 1.759099e+00 1.339977e+00 2.091827e+00 2.292630e+00 2.527953e+00 2.490469e+00 2.792822e+00 2.180397e+00 2.241529e+00 1.780313e+00 2.399844e-01 6.282561e-02 1.191988e-01 1.878842e-01 2.339959e-01 3.008206e-01 4.478562e-01 2.877964e-01 3.755296e-01 3.482791e-01 3.965954e-01 3.364264e-01 2.594721e-01 4.647841e-02
<GCONST> 1.015037e+02
<STATE> 3
<NUMMIXES> 4
<MIXTURE> 1 2.136543e-01
<MEAN> 39
 1.197508e+01 -9.578881e+00 -7.296404e+00 8.169296e-01 2.186073e+00 -1.306745e+01 -8.717119e+00 1.274107e+01 -2.634147e+00 1.025477e+00 -2.095204e-01 -9.281812e-01 7.766021e+00 1.119133e-01 -1.674734e-01 -3.596249e-02 3.315299e-01 2.703321e-01 -2.465631e-01 -5.090555e-01 6.113340e-01 2.995787e-01 -1.575673e-01 1.137071e-02 2.090429e-01 -1.271703e-01 -5.040210e-01 5.947176e-01 4.782678e-01 2.442136e-01 -2.813210e-01 5.342140e-01 4.946881e-01 -9.601838e-01 2.780740e-02 -2.334826e-01 3.628496e-02 1.105974e-02 -4.650378e-01
<VARIANCE> 39
 1.075735e+01 1.566913e+01 6.341777e+01 2.547692e+01 5.847028e+01 7.244399e+01 9.700408e+01 5.620336e+01 5.348468e+01 4.127878e+01 3.459846e+01 2.737506e+01 9.751848e+00 4.290176e-01 1.041175e+00 1.963670e+00 1.366047e+00 2.631510e+00 2.366330e+00 2.310267e+00 3.367220e+00 2.352510e+00 2.580598e+00 2.153131e+00 1.544131e+00 5.657861e-01 2.719371e-01 2.120156e-01 3.617745e-01 3.268643e-01 5.965225e-01 6.346508e-01 8.292039e-01 6.484047e-01 5.692682e-01 4.919552e-01 4.663292e-01 3.558846e-01 1.375941e-01
<GCONST> 1.128419e+02
<MIXTURE> 2 1.889327e-01
<MEAN> 39
 1.187939e+01 -6.761842e+00 -9.746485e+00 6.133269e+00 1.278643e+00 -1.217652e+01 -9.181456e+00 1.194196e+01 3.404672e+00 -3.967978e+00 5.397916e-01 1.699543e+00 3.602206e+00 3.615905e-01 6.575867e-01 -1.420256e+00 1.802635e-01 1.380396e+00 2.210133e-02 -9.633374e-01 -3.526505e-01 8.619910e-01 -7.852418e-02 -5.683352e-01 2.509069e-02 -5.849839e-01 -1.835996e-01 1.057176e-01 4.253789e-01 -1.576595e-01 -2.614193e-01 3.058618e-01 3.061491e-01 -4.617935e-01 -2.477764e-01 1.878911e-01 2.993508e-02 -1.444482e-01 -5.757139e-02
<VARIANCE> 39
 6.322828e+00 1.387815e+01 3.473573e+01 2.358727e+01 3.713482e+01 4.408657e+01 6.854006e+01 4.299464e+01 4.710639e+01 3.108290e+01 2.837680e+01 2.388739e+01 1.333117e+01 1.988996e-01 4.137321e-01 1.219378e+00 8.564254e-01 1.512825e+00 1.652464e+00 1.926367e+00 1.906518e+00 1.808015e+00 1.831259e+00 1.174938e+00 1.138392e+00 1.947583e-01 4.246633e-02 8.258401e-02 1.279519e-01 1.507234e-01 2.080611e-01 2.269499e-01 2.885028e-01 3.021268e-01 2.537432e-01 2.708474e-01 2.422280e-01 1.907851e-01 3.418653e-02
<GCONST> 9.004022e+01
<MIXTURE> 3 3.065270e-01
<MEAN> 39
 1.384702e+01 -4.556667e+00 -1.500876e+01 7.793871e-01 6.854846e+00 -4.614049e+00 -1.736639e+01 2.673824e+00 9.674429e+00 6.820989e-01 2.465793e-01 1.270661e+00 4.793669e+00 -1.709961e-02 1.255184e-01 -1.323829e-01 9.321266e-02 3.302371e-01 -8.670148e-02 -2.334364e-01 -1.553257e-01 2.155630e-01 1.704548e-01 -1.583943e-01 -1.650944e-01 -1.703029e-01 -1.040940e-01 -4.191224e-02 2.908093e-01 1.289778e-01 -2.593607e-01 -8.378737e-02 3.279260e-01 1.330694e-01 -2.714506e-01 -1.809763e-01 2.133004e-02 8.718696e-02 -3.294294e-02
<VARIANCE> 39
 8.474432e+00 1.593227e+01 3.048932e+01 3.331530e+01 3.634556e+01 4.762492e+01 5.190106e+01 6.634426e+01 4.645651e+01 3.707656e+01 2.902652e+01 2.659493e+01 1.568777e+01 1.594092e-01 4.086834e-01 7.247910e-01 7.700324e-01 8.978521e-01 1.073590e+00 1.341404e+00 1.195473e+00 1.093825e+00 1.202835e+00 9.064654e-01 8.381604e-01 1.800579e-01 4.003158e-02 7.675156e-02 1.272888e-01 1.321225e-01 1.739463e-01 1.792864e-01 2.233082e-01 2.208146e-01 2.050011e-01 2.020155e-01 1.631346e-01 1.489291e-01 3.952404e-02
<GCONST> 8.488586e+01
<MIXTURE> 4 2.908859e-01
<MEAN> 39
 1.131026e+01 -1.002245e+01 -6.463861e+00 2.639312e+00 4.529739e-01 -1.227815e+01 -5.894989e+00 1.307997e+01 -1.171244e+00 -1.678882e+00 5.818886e-01 -3.265972e-01 7.202219e+00 -3.106537e-02 5.227855e-02 1.398684e-01 1.817508e-01 -8.851940e-02 -1.772917e-01 -7.978301e-02 2.087215e-01 -3.822966e-02 -1.650805e-01 9.113141e-02 1.364110e-01 -1.338900e-01 -5.530810e-02 1.064057e-01 1.902460e-01 -7.063266e-02 -1.876219e-01 1.199760e-01 3.978055e-02 -2.817640e-01 -8.297107e-02 4.247678e-02 2.005158e-02 -3.348398e-02 -7.446831e-02
<VARIANCE> 39
 9.042954e+00 1.298939e+01 3.475026e+01 1.670964e+01 4.647499e+01 5.799707e+01 7.046692e+01 4.236399e+01 4.815670e+01 3.712059e+01 2.554421e+01 2.595795e+01 1.214149e+01 1.607461e-01 2.484323e-01 8.231313e-01 4.576261e-01 9.431652e-01 9.659537e-01 9.823674e-01 9.017899e-01 9.277627e-01 7.546195e-01 7.208881e-01 6.721997e-01 1.255999e-01 2.497866e-02 4.703526e-02 9.134016e-02 8.208352e-02 1.332306e-01 1.420616e-01 1.689108e-01 1.497394e-01 1.488933e-01 1.312338e-01 1.402090e-01 1.162953e-01 1.865979e-02
<GCONST> 7.630648e+01
<STATE> 4
<NUMMIXES> 4
<MIXTURE> 1 2.579994e-01
<MEAN> 39
 1.023289e+01 -1.014950e+01 -2.316700e+00 1.929598e+00 -4.291291e+00 -1.143132e+01 -2.844517e+00 1.157916e+01 -3.521421e+00 -8.300509e-01 2.159703e+00 -7.342093e-01 7.135725e+00 -5.977163e-01 3.498304e-01 1.455460e+00 -7.783235e-01 -1.216817e+00 1.000877e+00 6.606447e-01 -1.418186e+00 -4.693782e-01 4.667823e-01 -7.023672e-02 -2.464135e-01 -1.102931e-01 -1.468213e-01 3.884444e-01 1.038047e-01 -1.880128e-01 8.647414e-02 3.365373e-01 -1.476643e-01 -6.735283e-01 1.922240e-01 4.185920e-02 -2.534371e-01 2.024996e-02 -1.792291e-01
<VARIANCE> 39
 8.303025e+00 1.517682e+01 4.458401e+01 2.252053e+01 4.195485e+01 5.970456e+01 5.813561e+01 4.776758e+01 4.948908e+01 4.565063e+01 2.588350e+01 2.053172e+01 1.096024e+01 2.834104e-01 5.297647e-01 1.644261e+00 1.025185e+00 2.021319e+00 2.411046e+00 2.878790e+00 2.123428e+00 2.529014e+00 1.870300e+00 1.917601e+00 1.855889e+00 2.778861e-01 5.899736e-02 1.160247e-01 1.762852e-01 1.902621e-01 2.617666e-01 3.414434e-01 3.420092e-01 3.747685e-01 3.046551e-01 3.763362e-01 2.771154e-01 2.117376e-01 5.205443e-02
<GCONST> 9.833069e+01
<MIXTURE> 2 2.386490e-01
<MEAN> 39
 1.309915e+01 -6.740881e+00 -1.202803e+01 4.762735e+00 3.418348e+00 -9.287866e+00 -1.398394e+01 7.632982e+00 7.762310e+00 -2.680709e+00 -3.336410e-01 2.739799e+00 4.990002e+00 -5.827225e-01 -4.849045e-01 1.570897e+00 3.710825e-01 -1.612590e+00 -2.023272e-01 1.420817e+00 7.018990e-01 -9.439671e-01 -6.406518e-01 4.581218e-01 5.192353e-02 2.140563e-01 -2.373428e-01 1.375687e-02 5.788037e-01 -2.414058e-01 -4.270125e-01 2.936659e-01 5.858583e-01 -3.296174e-01 -5.102722e-01 1.306866e-01 1.812086e-01 -2.127338e-01 9.415504e-03
<VARIANCE> 39
 8.311305e+00 1.597890e+01 4.774227e+01 3.097369e+01 4.030556e+01 6.812529e+01 6.813580e+01 8.187564e+01 5.801313e+01 3.667667e+01 2.905558e+01 2.985346e+01 1.645234e+01 2.365089e-01 5.415779e-01 1.416437e+00 1.386894e+00 1.839491e+00 2.269666e+00 2.732364e+00 2.743100e+00 2.240628e+00 2.378472e+00 1.767666e+00 1.670561e+00 2.977140e-01 4.275003e-02 9.886076e-02 1.458831e-01 1.901240e-01 2.732998e-01 2.733538e-01 3.093496e-01 4.787757e-01 2.695850e-01 4.147575e-01 2.679904e-01 2.799637e-01 3.701309e-02
<GCONST> 9.961357e+01
<MIXTURE> 3 2.381997e-01
<MEAN> 39
 9.981651e+00 -8.759229e+00 1.809256e+00 1.160644e+00 -5.947846e+00 -1.315643e+01 -6.123348e+00 8.962014e+00 -5.421009e+00 -9.553043e-01 1.689471e+00 1.713038e-01 5.862668e+00 -1.029707e+00 2.275695e+00 1.200199e+00 1.037317e+00 -3.998118e-01 1.632505e+00 2.781985e-01 -3.384517e+00 7.065180e-01 -1.097145e+00 -3.975431e-01 1.813273e-01 -2.088221e+00 -8.380717e-01 1.122047e+00 -7.387871e-02 4.442904e-01 7.170058e-01 7.325407e-01 4.525311e-01 -7.466358e-01 3.685304e-01 -1.244426e-01 -2.457915e-01 -2.238218e-01 -8.788033e-01
<VARIANCE> 39
 1.052424e+01 1.409288e+01 5.903293e+01 3.069407e+01 5.525874e+01 5.823130e+01 6.694513e+01 4.933450e+01 4.224378e+01 4.180533e+01 3.672454e+01 2.536211e+01 1.060302e+01 1.424372e+00 2.924888e+00 3.774474e+00 4.332963e+00 4.836354e+00 5.198563e+00 6.215245e+00 5.070810e+00 4.195772e+00 4.452754e+00 3.589763e+00 2.357194e+00 2.626072e+00 3.403874e-01 3.144161e-01 6.920224e-01 6.153196e-01 8.082904e-01 1.038424e+00 8.135650e-01 8.880031e-01 7.349007e-01 8.121421e-01 6.850573e-01 4.968154e-01 4.333820e-01
<GCONST> 1.279385e+02
<MIXTURE> 4 2.651518e-01
<MEAN> 39
 1.250708e+01 -4.399165e+00 -1.166928e+01 2.842962e+00 5.617296e+00 -6.998719e+00 -1.640880e+01 5.075220e+00 7.062226e+00 -1.795583e+00 -5.244399e-01 1.043306e+00 3.746617e+00 -3.941033e-01 9.571790e-01 7.110201e-01 5.223188e-01 -3.666054e-02 3.927210e-01 1.224520e+00 -8.974969e-01 -8.466913e-01 -3.879216e-01 -4.743544e-01 2.316411e-01 -1.191996e+00 -5.318232e-01 2.981027e-01 6.609738e-01 1.639275e-01 -1.877259e-01 2.244743e-01 1.045163e+00 -1.605661e-01 -5.334204e-01 -7.963603e-02 -4.291941e-02 2.229352e-03 -4.290485e-01
<VARIANCE> 39
 9.198006e+00 1.828866e+01 4.411869e+01 3.550437e+01 5.134112e+01 5.426350e+01 7.194032e+01 5.945932e+01 5.248320e+01 4.150769e+01 3.618381e+01 2.345418e+01 2.132137e+01 5.877101e-01 1.165850e+00 2.528249e+00 2.311282e+00 2.768862e+00 3.389136e+00 3.827323e+00 4.138857e+00 3.340136e+00 3.059016e+00 3.117540e+00 2.003811e+00 6.377820e-01 1.914147e-01 2.266791e-01 3.133645e-01 3.266555e-01 4.787280e-01 4.847734e-01 6.894763e-01 5.100257e-01 5.438850e-01 4.875491e-01 4.285958e-01 3.344311e-01 2.118864e-01
<GCONST> 1.152933e+02
<STATE> 5
<NUMMIXES> 4
<MIXTURE> 1 1.997141e-01
<MEAN> 39
 4.124533e+00 1.836632e+00 2.706120e+00 9.884909e+00 -1.276540e+00 -5.606208e+00 -1.949934e+00 -9.444031e-01 -1.499075e+00 -3.750167e+00 -1.286959e+00 -2.399307e-01 -6.241709e+00 -3.257132e+00 2.978547e+00 1.572774e+00 1.485352e+00 1.233150e+00 3.357609e+00 2.160013e+00 -2.243122e+00 2.306944e-01 1.144003e-01 -4.921700e-01 -6.580050e-01 -4.368032e+00 -1.687247e-01 -5.472851e-01 -4.480399e-01 -7.831112e-01 3.844546e-01 9.953956e-02 -3.882741e-01 7.404882e-01 2.669304e-01 4.158709e-01 3.105704e-01 7.666306e-02 5.397431e-01
<VARIANCE> 39
 2.142552e+01 3.216224e+01 4.988272e+01 4.430060e+01 8.203192e+01 6.449786e+01 4.906530e+01 5.690185e+01 5.264780e+01 4.511146e+01 4.385452e+01 3.144260e+01 4.185843e+01 3.674052e+00 5.398179e+00 5.721555e+00 5.441493e+00 6.253325e+00 7.537811e+00 8.409924e+00 5.759047e+00 6.422220e+00 6.548623e+00 5.264127e+00 3.425547e+00 5.320483e+00 4.262837e-01 8.268234e-01 6.864045e-01 8.835728e-01 1.172744e+00 1.126812e+00 1.243272e+00 1.173531e+00 9.474806e-01 9.280447e-01 7.969203e-01 5.696949e-01 1.127069e+00
<GCONST> 1.419342e+02
<MIXTURE> 2 2.554654e-01
<MEAN> 39
 1.091784e+01 -3.425869e+00 -6.470022e+00 6.335025e+00 2.183203e+00 -9.753225e+00 -1.159157e+01 3.781966e+00 4.044819e+00 -3.960254e+00 -2.221416e+00 2.592486e+00 1.385920e+00 -2.657171e+00 2.136239e+00 2.558979e+00 1.071405e+00 -6.775194e-02 1.269142e+00 3.415745e+00 -1.757517e+00 -1.305000e+00 -1.627887e-02 -4.264276e-01 -4.442004e-01 -2.702940e+00 -1.012158e+00 2.630731e-01 4.883555e-01 -2.278892e-01 1.376687e-01 8.223409e-01 6.442317e-01 -8.711265e-02 -1.916123e-01 3.932394e-01 2.588644e-01 -3.020349e-01 -3.691242e-01
<VARIANCE> 39
 1.332029e+01 1.924559e+01 5.456052e+01 3.693015e+01 4.978258e+01 6.129234e+01 6.244915e+01 6.391373e+01 4.802205e+01 4.213937e+01 3.977076e+01 2.889729e+01 2.355175e+01 2.682824e+00 3.269108e+00 4.570194e+00 4.072996e+00 5.565510e+00 6.537662e+00 9.068699e+00 7.511665e+00 5.959432e+00 4.959971e+00 4.613300e+00 2.804398e+00 4.669973e+00 4.287923e-01 4.827318e-01 5.210941e-01 6.389995e-01 6.446530e-01 8.446199e-01 9.641671e-01 8.567713e-01 6.934876e-01 7.574674e-01 6.303466e-01 4.567792e-01 5.081043e-01
<GCONST> 1.333249e+02
<MIXTURE> 3 3.683197e-01
<MEAN> 39
 8.792066e+00 -4.754468e+00 -5.635194e+00 2.378349e+00 -1.081562e-01 -4.169415e+00 -3.360193e+00 3.449336e+00 -6.312551e-01 -1.820728e+00 5.230824e-01 -8.800725e-01 2.681668e+00 -1.005205e+00 1.020761e+00 1.369686e+00 -6.658177e-01 -3.552195e-01 1.328659e+00 1.229034e+00 -1.604964e+00 -9.747462e-01 2.297399e-01 2.308812e-02 -3.411538e-01 -7.721183e-01 -7.959307e-02 9.416522e-02 1.112967e-02 -1.134216e-01 1.488336e-01 -5.672324e-02 -1.909373e-01 1.275483e-02 1.636928e-01 -1.917345e-02 -8.111830e-02 7.335307e-02 -5.163417e-02
<VARIANCE> 39
 1.798862e+01 3.249118e+01 6.125014e+01 6.942897e+01 6.615328e+01 6.293625e+01 6.730598e+01 7.510676e+01 8.100922e+01 6.507639e+01 5.283503e+01 4.430119e+01 3.606591e+01 8.088084e-01 2.613671e+00 2.681161e+00 3.485774e+00 3.750347e+00 3.992415e+00 4.858569e+00 4.830483e+00 5.037722e+00 4.296880e+00 3.445563e+00 2.844145e+00 1.020195e+00 1.299041e-01 2.993775e-01 2.898358e-01 4.594822e-01 5.362929e-01 5.312400e-01 6.027740e-01 6.704448e-01 6.848495e-01 6.310746e-01 6.074230e-01 5.333778e-01 1.142247e-01
<GCONST> 1.258415e+02
<MIXTURE> 4 1.765008e-01
<MEAN> 39
 -2.087162e+00 4.103858e+00 5.683088e+00 3.899027e-01 -5.306163e-01 -4.627972e+00 -2.246926e+00 -1.860811e+00 5.261950e-01 -2.128350e+00 -1.614332e+00 6.640916e-01 3.453125e+00 -5.808004e+00 3.023353e+00 5.125104e-01 -5.466612e-01 2.737488e+00 2.376862e+00 2.175669e+00 -5.662194e-01 3.173591e-01 4.185705e-01 6.450906e-01 -3.688900e-01 -4.044939e-01 -8.343820e-02 -5.127835e-01 -8.985281e-01 2.346460e-01 3.096781e-01 5.778078e-02 -8.088993e-02 7.606940e-01 1.404392e-01 2.584215e-01 3.319470e-01 9.972673e-02 4.143700e-02
<VARIANCE> 39
 5.897575e+01 4.449306e+01 2.798309e+01 3.235160e+01 5.015281e+01 4.085408e+01 4.379855e+01 2.999617e+01 3.662318e+01 3.048323e+01 2.671722e+01 2.035642e+01 1.550431e+01 2.978140e+00 5.477963e+00 5.824992e+00 5.918796e+00 5.502513e+00 5.254954e+00 5.786923e+00 5.625696e+00 5.367765e+00 4.547900e+00 3.380214e+00 2.712259e+00 1.162762e+00 1.139102e+00 8.341426e-01 6.642269e-01 7.730297e-01 1.275822e+00 9.374171e-01 1.072733e+00 8.458540e-01 7.405682e-01 7.953658e-01 6.180322e-01 4.474267e-01 1.594911e-01
<GCONST> 1.316762e+02
<TRANSP> 6
 0.000000e+00 1.000000e+00 0.000000e+00 0.000000e+00 0.000000e+00 0.000000e+00
 0.000000e+00 6.549913e-01 3.450087e-01 0.000000e+00 0.000000e+00 0.000000e+00
 0.000000e+00 0.000000e+00 7.792197e-01 2.207803e-01 0.000000e+00 0.000000e+00
 0.000000e+00 0.000000e+00 0.000000e+00 6.363028e-01 3.636973e-01 0.000000e+00
 0.000000e+00 0.000000e+00 0.000000e+00 0.000000e+00 6.173360e-01 3.826640e-01
 0.000000e+00 0.000000e+00 0.000000e+00 0.000000e+00 0.000000e+00 0.000000e+00
<ENDHMM>
