~o
<STREAMINFO> 1 39
<VECSIZE> 39<NULLD><MFCC_D_A_Z_0><DIAGC>
~h "q"
<BEGINHMM>
<NUMSTATES> 6
<STATE> 2
<NUMMIXES> 4
<MIXTURE> 1 2.070348e-01
<MEAN> 39
 -3.033657e+00 2.221738e+00 -3.566022e+00 1.706825e+00 -1.329345e+00 7.538412e-01 3.763691e+00 8.505462e+00 1.255298e+01 6.335182e+00 2.477276e+00 -1.423581e+00 -1.380057e+01 -2.442409e+00 1.361527e+00 8.313773e-01 2.299275e+00 2.128502e+00 2.867949e+00 1.702582e+00 1.577700e-01 2.502724e-01 -9.609416e-02 5.391152e-01 -1.442294e-01 -3.569257e+00 5.107841e-01 -5.379453e-01 1.397390e-01 -3.524361e-01 2.648613e-01 -6.136337e-02 -4.059674e-01 -1.092028e+00 -1.421651e+00 -6.931543e-01 -2.744252e-01 2.182991e-01 1.596782e+00
<VARIANCE> 39
 3.705653e+01 2.940915e+01 5.029142e+01 4.471518e+01 6.470318e+01 7.404028e+01 7.418929e+01 7.174228e+01 6.489923e+01 9.364951e+01 8.596581e+01 7.977522e+01 2.721285e+01 4.147503e+00 4.763951e+00 6.245153e+00 5.631091e+00 7.162920e+00 7.603032e+00 7.383142e+00 8.605703e+00 7.826908e+00 7.449887e+00 7.213459e+00 5.632329e+00 6.768847e+00 1.005831e+00 7.601125e-01 7.933494e-01 1.231065e+00 1.274306e+00 1.366811e+00 1.552211e+00 1.405659e+00 1.264327e+00 1.843959e+00 1.766647e+00 1.512052e+00 1.325243e+00
<GCONST> 1.518214e+02
<MIXTURE> 2 2.664325e-01
<MEAN> 39
 1.207944e+00 -2.072138e+00 4.796022e+00 -5.654985e+00 -9.812933e+00 -6.155608e+00 -5.404698e-01 2.237445e-01 -8.981606e-01 2.608361e+00 8.188959e-01 2.362650e+00 5.400988e-01 4.195843e-01 -2.307926e-01 -2.420172e-01 -5.775923e-01 -7.559063e-01 -1.243458e-01 2.006535e-01 9.024188e-01 1.079380e+00 6.733628e-01 2.022823e-01 -2.654461e-01 -5.391966e-01 -3.393460e-01 2.755641e-01 -3.389246e-01 6.232659e-01 9.620926e-01 7.718809e-01 2.370620e-01 -2.058386e-03 1.609907e-01 -1.635901e-01 -1.346926e-01 -3.038614e-01 -3.543439e-01
<VARIANCE> 39
 1.902618e+01 3.149886e+01 5.281861e+01 5.828326e+01 4.833666e+01 6.989956e+01 6.016595e+01 6.116180e+01 6.717870e+01 5.733103e+01 4.668859e+01 3.443536e+01 3.092125e+01 4.459497e+00 4.194007e+00 5.024799e+00 6.360643e+00 6.160023e+00 5.489923e+00 5.686776e+00 7.571178e+00 7.152904e+00 5.771106e+00 4.820421e+00 3.976243e+00 1.229883e+01 7.011501e-01 5.358236e-01 5.211848e-01 9.646772e-01 9.717149e-01 1.316393e+00 1.065677e+00 1.037149e+00 9.628730e-01 9.689175e-01 8.889373e-01 6.515590e-01 8.126063e-01
<GCONST> 1.422277e+02
<MIXTURE> 3 3.219342e-01
<MEAN> 39
 6.410479e+00 -6.287801e+00 -9.260879e+00 -2.925261e+00 8.543414e-01 -1.774418e+00 -5.012438e+00 3.000984e+00 5.148789e+00 5.428596e-01 -2.766110e+00 -2.368522e+00 1.209642e+00 -6.204637e-01 3.973662e-01 -4.559236e-01 -2.661136e-01 2.732719e-01 1.090951e+00 9.108797e-01 2.726799e-01 4.359771e-01 2.853193e-01 2.583851e-01 -6.138365e-01 -1.236332e+00 -2.944064e-01 5.096979e-01 4.640728e-01 1.854899e-01 7.763525e-02 3.981836e-01 5.703179e-01 -3.164923e-01 -5.277463e-01 1.915259e-02 3.224829e-01 2.065747e-01 -2.958148e-01
<VARIANCE> 39
 2.098741e+01 2.730084e+01 5.925861e+01 5.010206e+01 4.702216e+01 8.156911e+01 5.846987e+01 6.725103e+01 5.391165e+01 5.767174e+01 4.455954e+01 3.850572e+01 2.132783e+01 3.723317e+00 4.510284e+00 4.783605e+00 5.239164e+00 4.874118e+00 6.960590e+00 6.407539e+00 6.895933e+00 6.242790e+00 5.257952e+00 5.011617e+00 4.237935e+00 7.558568e+00 4.230798e-01 5.375847e-01 4.569404e-01 8.318155e-01 6.361372e-01 7.958583e-01 8.501349e-01 1.111220e+00 1.018327e+00 9.319085e-01 7.949513e-01 6.628293e-01 6.426936e-01
<GCONST> 1.387064e+02
<MIXTURE> 4 2.045985e-01
<MEAN> 39
 9.300472e-01 5.313309e+00 1.345937e+00 1.232218e+00 -2.999601e+00 -2.225758e+00 -2.663628e+00 -6.564378e+00 -2.988560e+00 5.284152e-01 -4.131661e-01 7.037483e-02 -8.628038e+00 -6.032645e-01 4.628417e-01 -1.114549e-01 5.045341e-01 4.940192e-01 3.831213e-01 5.055662e-01 2.600474e-01 4.675978e-01 -1.561500e-01 1.262384e-01 -5.526808e-02 -1.276050e+00 1.045622e-01 -6.437113e-01 1.778098e-02 -4.409093e-01 -1.164467e-02 2.300793e-01 1.894750e-01 7.035272e-01 2.378005e-01 1.134036e-02 -2.447213e-02 -4.875633e-02 9.277657e-01
<VARIANCE> 39
 2.783080e+01 2.107159e+01 6.941225e+01 7.235999e+01 6.364893e+01 5.681407e+01 5.507420e+01 5.191984e+01 5.141697e+01 5.470104e+01 5.072414e+01 3.987315e+01 3.876854e+01 3.841101e+00 3.743135e+00 5.002467e+00 6.879902e+00 7.460249e+00 6.862916e+00 6.036603e+00 7.951551e+00 6.692018e+00 5.001533e+00 5.106716e+00 3.600800e+00 6.555020e+00 4.390801e-01 4.142482e-01 5.999900e-01 7.877690e-01 8.716109e-01 8.969761e-01 9.474626e-01 9.133922e-01 8.355228e-01 9.614961e-01 8.366426e-01 6.410753e-01 5.766227e-01
<GCONST> 1.400129e+02
<STATE> 3
<NUMMIXES> 4
<MIXTURE> 1 1.993977e-01
<MEAN> 39
 6.744864e+00 -3.838091e+00 -1.256974e+01 -3.345520e+00 3.669872e+00 4.087955e+00 -1.308190e+00 -6.085340e-01 2.685337e+00 3.092561e+00 8.573733e-01 -4.922363e+00 -7.404990e-01 1.848996e-01 6.690214e-01 -1.773550e-01 -1.645355e+00 1.269577e-01 2.373923e+00 1.550664e+00 -1.584795e+00 -1.528991e+00 1.957471e-01 7.543381e-01 -5.236097e-02 2.127012e-02 1.744462e-01 -9.132979e-04 3.782935e-01 -1.783833e-01 -2.874805e-01 -2.002519e-01 3.796572e-02 8.127899e-02 -8.372772e-02 -3.246622e-01 -2.379574e-01 4.507646e-01 3.958441e-01
<VARIANCE> 39
 1.408657e+01 3.236518e+01 3.312699e+01 4.848133e+01 2.936612e+01 5.373629e+01 5.235646e+01 6.284694e+01 5.160992e+01 4.724809e+01 4.466413e+01 3.204366e+01 2.642994e+01 1.336115e+00 2.039486e+00 2.464794e+00 3.559590e+00 3.634409e+00 3.684553e+00 4.324615e+00 4.591736e+00 4.114355e+00 3.771307e+00 3.648686e+00 3.876539e+00 1.915890e+00 1.869876e-01 3.196256e-01 3.454257e-01 4.566887e-01 6.211784e-01 5.731573e-01 7.194642e-01 8.292524e-01 8.124427e-01 7.613139e-01 6.848050e-01 4.927397e-01 2.972111e-01
<GCONST> 1.247891e+02
<MIXTURE> 2 3.035272e-01
<MEAN> 39
 -9.151683e+00 3.889795e+00 -1.305035e-01 8.136535e+00 6.455769e+00 6.650892e+00 4.298193e+00 2.945189e+00 6.366275e+00 3.517629e+00 3.981525e+00 9.581152e-01 -2.015553e+01 1.711729e-01 -5.773043e-01 3.504032e-01 -5.064551e-01 6.820587e-01 9.752996e-01 1.901349e-01 -9.887133e-01 -1.210346e+00 -4.308467e-01 -1.088902e-01 2.115905e-01 1.266751e+00 1.425217e+00 -7.526132e-01 -2.533731e-01 -1.604044e+00 -1.153057e+00 -8.677652e-01 -5.268688e-01 -3.469563e-01 -5.846855e-01 -2.783860e-01 -5.955246e-01 -1.486809e-01 2.475476e+00
<VARIANCE> 39
 1.001502e+01 1.483802e+01 1.971507e+01 2.226059e+01 2.888757e+01 3.046099e+01 2.704479e+01 3.418680e+01 3.003141e+01 3.047239e+01 2.904172e+01 2.484235e+01 1.223620e+01 4.592944e+00 3.065967e+00 3.847516e+00 7.269303e+00 6.319094e+00 5.141654e+00 6.069513e+00 6.547194e+00 6.318020e+00 5.235388e+00 5.737470e+00 4.053317e+00 8.897551e+00 6.510078e-01 6.469936e-01 1.340339e+00 1.141486e+00 1.260332e+00 1.157258e+00 1.013170e+00 1.060996e+00 1.006060e+00 9.421741e-01 9.594016e-01 7.082205e-01 1.041914e+00
<GCONST> 1.338584e+02
<MIXTURE> 3 2.308752e-01
<MEAN> 39
 7.257858e-01 1.308672e+00 6.971334e+00 -4.113592e+00 -8.507381e+00 -4.202177e+00 6.854139e-01 -1.242492e+00 -3.476419e+00 2.078163e+00 2.712868e-01 1.077277e+00 -1.391753e+00 -9.052807e-03 -1.236882e-02 9.513815e-02 -1.134740e-01 1.184084e-01 3.883720e-01 3.989737e-01 3.384234e-01 1.464986e-01 6.647192e-02 -1.380304e-01 -1.868056e-01 2.678699e-01 1.703152e-01 -2.819711e-01 -8.250372e-02 3.495012e-02 1.684264e-01 1.302251e-01 -1.053679e-01 1.351955e-01 4.364220e-03 -1.708294e-01 -5.332657e-02 -1.237630e-01 4.204769e-01
<VARIANCE> 39
 2.112556e+01 3.253845e+01 7.282674e+01 7.739968e+01 5.464392e+01 5.807480e+01 4.533805e+01 6.333945e+01 5.706932e+01 5.035854e+01 3.716775e+01 3.414088e+01 4.529754e+01 7.168877e-01 1.311974e+00 1.813799e+00 1.347451e+00 1.938178e+00 2.036474e+00 2.114677e+00 2.423238e+00 2.382159e+00 2.041882e+00 1.742174e+00 1.686422e+00 1.620103e+00 1.303029e-01 2.076256e-01 2.683906e-01 2.910257e-01 3.515275e-01 3.777830e-01 3.824500e-01 4.180223e-01 4.384376e-01 4.227584e-01 3.273420e-01 3.489674e-01 2.087577e-01
<GCONST> 1.133430e+02
<MIXTURE> 4 2.661999e-01
<MEAN> 39
 9.541548e-01 -2.593253e+00 -7.313514e-01 -3.235621e+00 -4.517784e+00 -1.256478e+00 3.050376e+00 2.782556e+00 1.918074e+00 2.193889e-01 -1.433041e+00 -9.164716e-02 -1.389486e+00 9.152581e-01 -8.473440e-01 1.723823e-01 -8.277736e-01 -2.000570e-01 2.191406e-01 3.952424e-01 7.284028e-02 -7.053024e-01 -8.412068e-01 -4.752865e-01 -3.230477e-01 2.315334e+00 4.928953e-02 1.152092e-01 6.590240e-02 1.134667e-01 3.382553e-01 1.785278e-01 -2.979078e-01 -2.955141e-01 -2.178743e-01 6.654250e-02 1.763327e-01 3.661180e-02 1.473621e-01
<VARIANCE> 39
 3.438983e+01 4.351397e+01 6.310102e+01 6.435452e+01 7.415195e+01 7.201192e+01 7.178009e+01 6.730322e+01 5.568266e+01 5.498820e+01 5.103907e+01 4.017999e+01 4.898054e+01 2.948156e+00 3.946216e+00 3.905978e+00 4.660048e+00 6.269522e+00 5.122294e+00 6.073092e+00 5.888840e+00 5.133427e+00 5.363916e+00 4.777814e+00 3.493503e+00 6.461847e+00 7.042953e-01 6.346664e-01 5.309208e-01 1.101968e+00 9.464840e-01 8.980344e-01 1.088547e+00 1.030682e+00 9.556294e-01 8.949850e-01 9.401993e-01 6.753089e-01 1.274133e+00
<GCONST> 1.425480e+02
<STATE> 4
<NUMMIXES> 4
<MIXTURE> 1 1.977611e-01
<MEAN> 39
 -4.398973e+00 1.940429e+00 5.586108e-01 3.153479e+00 3.003382e+00 5.362056e+00 4.113929e+00 -3.824964e-03 2.832373e+00 1.785412e+00 1.675267e+00 8.857934e-01 -1.148587e+01 2.839701e+00 -1.309974e+00 1.280147e-01 -3.229748e+00 -1.745512e+00 -6.386371e-01 -7.389628e-01 -1.234419e+00 -2.113571e+00 -9.688457e-01 -1.090929e+00 -3.874604e-01 5.370814e+00 7.338535e-01 -3.697383e-01 -2.473024e-01 -8.492655e-01 -6.294428e-01 -4.900998e-01 -3.864273e-01 9.723603e-02 -1.241838e-01 -1.574127e-02 -2.236464e-01 -1.668384e-01 1.213290e+00
<VARIANCE> 39
 3.759074e+01 3.458772e+01 6.907484e+01 5.285080e+01 5.929995e+01 4.970585e+01 4.105357e+01 4.468211e+01 4.290481e+01 3.353004e+01 2.912446e+01 2.564586e+01 4.918993e+01 5.342470e+00 5.089595e+00 7.622238e+00 8.882592e+00 8.392560e+00 6.939851e+00 6.835336e+00 6.199281e+00 5.554532e+00 5.727982e+00 6.058291e+00 3.450439e+00 8.924572e+00 4.871075e-01 4.769608e-01 4.960198e-01 7.174711e-01 8.227069e-01 8.130292e-01 7.344961e-01 8.473446e-01 7.851048e-01 6.383393e-01 5.858817e-01 5.130538e-01 7.072648e-01
<GCONST> 1.387460e+02
<MIXTURE> 2 2.241665e-01
<MEAN> 39
 8.464609e+00 2.670284e+00 -1.000447e+01 -1.089509e+01 -1.290620e+00 8.562665e+00 3.283675e+00 -3.810234e+00 -1.930159e+00 -9.433834e-02 1.213200e+00 -6.609450e-02 -1.992157e+00 8.817988e-01 2.703512e-01 3.655883e-01 -1.543818e+00 -7.194256e-01 9.172727e-01 6.482663e-01 1.706854e-01 -4.082417e-01 -8.253021e-01 -2.688430e-01 3.775192e-01 1.020406e+00 -1.086856e-01 -4.623981e-01 1.739399e-01 2.652814e-01 1.054661e-01 -3.265553e-01 -4.946734e-01 2.302407e-01 3.708002e-01 1.709334e-01 -1.312447e-01 -1.262917e-01 3.526924e-01
<VARIANCE> 39
 1.211566e+01 3.341225e+01 2.937856e+01 4.881146e+01 4.500668e+01 4.365998e+01 6.023352e+01 3.704475e+01 3.531466e+01 4.411615e+01 3.709017e+01 3.199828e+01 1.901475e+01 1.153270e+00 2.058614e+00 1.658637e+00 2.712003e+00 2.486623e+00 3.113287e+00 3.647158e+00 3.200931e+00 3.654064e+00 3.341796e+00 3.042783e+00 2.657704e+00 1.763192e+00 1.970704e-01 2.568764e-01 3.133825e-01 4.123037e-01 4.942640e-01 5.244187e-01 5.544989e-01 5.990474e-01 5.233557e-01 6.934895e-01 5.803987e-01 4.506545e-01 2.503276e-01
<GCONST> 1.184283e+02
<MIXTURE> 3 3.373678e-01
<MEAN> 39
 2.780496e+00 -3.812250e+00 4.125525e+00 -4.471789e+00 -7.030424e+00 -3.330558e+00 1.992633e+00 3.598496e+00 -1.296468e+00 7.354618e-03 -1.334286e+00 -9.623185e-01 3.992878e+00 4.928914e-01 -8.522001e-01 2.342067e-01 -2.957655e-01 2.625672e-01 6.483238e-01 1.885742e-01 2.055695e-01 -5.167149e-01 -5.991983e-01 -1.741095e-01 -2.769733e-01 1.876546e+00 -5.000971e-02 1.524868e-01 -1.656056e-01 1.787246e-01 1.748363e-01 8.125033e-02 -2.956113e-01 -2.943181e-01 1.803150e-02 3.439954e-02 7.132059e-02 7.892156e-02 -1.816007e-01
<VARIANCE> 39
 1.496210e+01 3.411467e+01 5.784464e+01 4.616146e+01 4.344778e+01 4.528605e+01 5.505893e+01 6.308797e+01 5.014544e+01 4.123947e+01 3.573084e+01 3.219765e+01 2.157690e+01 1.071892e+00 1.731303e+00 2.361828e+00 2.364728e+00 3.090538e+00 2.915736e+00 3.332729e+00 3.754885e+00 4.103661e+00 3.513236e+00 3.501342e+00 2.568937e+00 2.268334e+00 1.896777e-01 2.879217e-01 2.942931e-01 3.802195e-01 4.591731e-01 4.178526e-01 5.053288e-01 5.879942e-01 5.426248e-01 4.914152e-01 4.247237e-01 3.987319e-01 4.330518e-01
<GCONST> 1.201448e+02
<MIXTURE> 4 2.407046e-01
<MEAN> 39
 6.277313e+00 -6.857688e+00 -9.184666e+00 -6.420949e+00 4.067278e+00 5.691858e+00 -2.863732e-01 -1.426670e+00 1.487181e+00 -7.644677e-01 -1.205109e+00 -2.388353e+00 4.454066e+00 2.649052e+00 -1.498389e+00 -1.058125e+00 -2.666796e+00 -3.689482e-01 6.843610e-02 -9.790148e-01 -8.117823e-01 -1.076395e+00 -5.929520e-01 -4.739632e-01 -3.631172e-01 4.408700e+00 -6.394804e-01 5.738853e-01 4.396341e-01 5.745284e-01 -9.249128e-02 -1.465646e-02 2.347237e-01 4.597864e-01 3.129774e-01 2.193566e-01 1.543857e-01 1.133380e-01 -9.983391e-01
<VARIANCE> 39
 2.002160e+01 3.773206e+01 4.274669e+01 5.289473e+01 5.230384e+01 7.605762e+01 6.690703e+01 4.122179e+01 4.161239e+01 4.513592e+01 4.310258e+01 3.320384e+01 2.923221e+01 3.974025e+00 4.136970e+00 3.331945e+00 5.898212e+00 4.530035e+00 4.703034e+00 5.355056e+00 4.143484e+00 3.712691e+00 4.057444e+00 3.452829e+00 2.868946e+00 7.118432e+00 4.993156e-01 5.135188e-01 5.529789e-01 8.303940e-01 6.856599e-01 6.497561e-01 8.189248e-01 6.551828e-01 7.275567e-01 7.205690e-01 7.027555e-01 5.834758e-01 8.656968e-01
<GCONST> 1.340712e+02
<STATE> 5
<NUMMIXES> 4
<MIXTURE> 1 3.505974e-01
<MEAN> 39
 9.048394e+00 -5.048596e+00 -1.040674e+01 -9.859363e+00 2.799048e+00 9.143697e+00 1.045119e-01 -1.535895e+00 9.010789e-01 -1.363417e-03 -4.380608e-01 -2.496240e+00 5.298422e+00 4.332596e-01 -1.947092e-01 1.181586e-01 -6.328586e-01 6.110014e-02 5.930119e-01 -1.023357e-01 -6.376584e-02 -7.372159e-02 -1.654184e-01 8.149779e-02 1.661170e-01 1.148376e+00 -2.781640e-01 1.874212e-01 1.192903e-01 3.876648e-01 -8.357027e-03 -2.445891e-01 7.983228e-04 1.107405e-01 1.210998e-01 7.911538e-02 7.150047e-02 2.152695e-02 -4.289552e-01
<VARIANCE> 39
 9.667227e+00 4.062726e+01 2.660379e+01 6.960243e+01 4.906416e+01 6.714233e+01 6.367764e+01 4.215673e+01 3.936360e+01 4.175939e+01 3.360430e+01 3.388525e+01 1.947088e+01 5.275064e-01 1.361513e+00 1.148455e+00 2.028880e+00 1.624471e+00 1.989419e+00 2.000202e+00 2.311235e+00 2.093174e+00 2.153570e+00 1.971313e+00 1.514430e+00 9.695032e-01 1.796730e-01 2.487578e-01 2.103657e-01 3.390005e-01 3.152103e-01 3.055856e-01 3.640229e-01 3.840018e-01 3.475344e-01 3.381186e-01 3.296629e-01 3.287547e-01 3.068597e-01
<GCONST> 1.087673e+02
<MIXTURE> 2 3.256686e-01
<MEAN> 39
 2.562628e+00 -5.455226e+00 5.822251e+00 -5.672957e+00 -8.163159e+00 -1.783832e+00 2.767451e+00 3.596240e+00 -2.958656e+00 -1.113153e+00 -1.186613e+00 -8.605706e-01 7.880047e+00 3.276830e-01 -3.238227e-01 -8.652297e-02 6.075992e-02 8.211635e-02 3.087698e-01 -1.992295e-01 -1.768353e-02 -2.334666e-01 -2.997898e-01 -9.643175e-02 -1.011891e-01 1.190506e+00 -5.089272e-02 2.777762e-01 -2.055124e-01 2.844636e-01 1.367401e-01 -1.311896e-01 -1.266866e-01 -1.361014e-01 1.432234e-01 1.009731e-01 4.020244e-03 8.353718e-02 -5.325758e-01
<VARIANCE> 39
 1.153409e+01 2.882840e+01 4.298366e+01 3.987096e+01 3.559372e+01 4.358053e+01 4.739637e+01 5.163573e+01 3.358234e+01 3.586552e+01 3.520261e+01 2.028418e+01 1.864190e+01 6.112120e-01 1.317613e+00 1.553652e+00 1.382210e+00 1.702315e+00 1.678850e+00 1.918761e+00 1.805138e+00 1.965437e+00 1.847021e+00 1.610818e+00 1.399315e+00 1.048966e+00 1.306188e-01 2.217468e-01 2.177154e-01 2.541435e-01 2.893289e-01 2.962423e-01 3.218224e-01 3.337895e-01 3.214626e-01 3.007553e-01 3.283898e-01 2.164277e-01 3.207802e-01
<GCONST> 1.044188e+02
<MIXTURE> 3 1.531141e-01
<MEAN> 39
 1.058904e+00 -1.542326e+00 9.268993e+00 -9.828581e+00 -9.927333e+00 -1.626371e+00 2.482495e+00 -2.811955e+00 -3.606627e+00 3.729515e+00 -3.898845e+00 6.581264e-01 5.337111e+00 1.812774e+00 -9.575693e-01 5.938208e-01 -2.560869e+00 -1.924074e+00 -8.243685e-01 -5.568728e-01 -3.882108e-01 -1.668865e+00 -4.582966e-01 -1.309132e+00 -5.047420e-01 4.238072e+00 -4.272003e-01 4.721977e-01 -6.475245e-01 1.253815e+00 8.098854e-01 3.031841e-01 -4.409489e-02 3.247909e-01 5.915866e-01 -8.762449e-02 6.413233e-01 3.241594e-02 -1.492217e+00
<VARIANCE> 39
 1.321425e+01 3.093843e+01 3.856802e+01 4.547426e+01 2.468704e+01 4.731969e+01 4.965679e+01 6.717585e+01 3.998840e+01 4.113641e+01 3.103049e+01 2.223482e+01 2.293638e+01 2.146834e+00 2.385687e+00 3.370829e+00 7.032763e+00 5.336438e+00 4.516267e+00 3.011709e+00 4.159833e+00 3.827552e+00 3.357694e+00 3.375841e+00 2.155698e+00 8.082589e+00 3.121144e-01 4.459663e-01 4.652723e-01 8.001374e-01 7.339736e-01 6.941062e-01 6.671980e-01 7.979401e-01 6.670503e-01 6.687033e-01 5.108905e-01 3.937006e-01 7.033027e-01
<GCONST> 1.275201e+02
<MIXTURE> 4 1.706200e-01
<MEAN> 39
 3.687040e+00 -6.500021e-01 -1.360070e+00 -2.494884e+00 -1.113006e+00 -8.861749e-01 -3.423804e-01 -6.852175e-01 -9.395682e-01 -1.870045e+00 -4.388900e-01 -6.174477e-01 5.462611e-01 4.670575e-01 1.815236e-01 -4.913826e-02 -2.199384e-01 2.213705e-01 6.603637e-02 -4.234800e-01 -1.917164e-01 -4.316287e-01 -1.272346e-01 -4.899264e-02 -2.367874e-01 1.034208e+00 -3.902428e-01 1.539601e-01 4.746199e-02 3.178687e-01 1.656851e-01 2.573573e-01 1.328812e-01 1.503849e-01 3.140012e-01 3.118809e-01 3.452951e-02 2.736185e-02 -6.058969e-01
<VARIANCE> 39
 4.965429e+01 6.647298e+01 5.819404e+01 8.461477e+01 7.536646e+01 8.622599e+01 6.199566e+01 7.087826e+01 5.996474e+01 5.662243e+01 6.090770e+01 4.405389e+01 8.037882e+01 4.862562e+00 4.248225e+00 3.086140e+00 6.500563e+00 5.530503e+00 5.088899e+00 5.045291e+00 5.165113e+00 5.782942e+00 4.707778e+00 4.213033e+00 3.114899e+00 8.219023e+00 6.045377e-01 9.974630e-01 5.051625e-01 1.086377e+00 1.007442e+00 9.820058e-01 1.042691e+00 1.005518e+00 1.030316e+00 9.803495e-01 9.786688e-01 7.450668e-01 1.333965e+00
<GCONST> 1.453826e+02
<TRANSP> 6
 0.000000e+00 1.000000e+00 0.000000e+00 0.000000e+00 0.000000e+00 0.000000e+00
 0.000000e+00 5.720524e-01 4.279476e-01 0.000000e+00 0.000000e+00 0.000000e+00
 0.000000e+00 0.000000e+00 4.862459e-01 5.137541e-01 0.000000e+00 0.000000e+00
 0.000000e+00 0.000000e+00 0.000000e+00 4.152921e-01 5.847079e-01 0.000000e+00
 0.000000e+00 0.000000e+00 0.000000e+00 0.000000e+00 4.838775e-01 5.161225e-01
 0.000000e+00 0.000000e+00 0.000000e+00 0.000000e+00 0.000000e+00 0.000000e+00
<ENDHMM>
