~o
<STREAMINFO> 1 39
<VECSIZE> 39<NULLD><MFCC_D_A_Z_0><DIAGC>
~h "ao"
<BEGINHMM>
<NUMSTATES> 6
<STATE> 2
<NUMMIXES> 8
<MIXTURE> 1 1.291634e-01
<MEAN> 39
 2.076686e+00 -6.914263e+00 -6.442458e+00 -5.434981e+00 7.288121e+00 3.365343e+00 -5.427072e-01 4.659129e+00 5.850941e+00 -1.003328e+00 -2.786509e+00 -4.544106e-01 9.957344e+00 3.337902e-03 -4.924604e-01 -3.765106e-01 -4.188010e-02 1.407220e+00 1.012300e+00 -2.809377e-01 -3.030833e-01 -5.277784e-02 -1.335240e-01 9.919617e-02 -2.307561e-01 2.159812e-01 4.936499e-02 3.125482e-01 1.382860e-01 9.701470e-02 -3.037868e-01 -1.362619e-01 -2.090878e-01 -3.222164e-01 -2.232704e-01 1.767323e-01 2.604606e-01 5.156721e-02 -2.801466e-01
<VARIANCE> 39
 1.538193e+01 1.874156e+01 2.526124e+01 3.695944e+01 6.338377e+01 6.026482e+01 6.809302e+01 6.348038e+01 6.448542e+01 7.549843e+01 7.633632e+01 9.157145e+01 1.935009e+01 6.275419e-01 1.140830e+00 1.621293e+00 1.964913e+00 3.220694e+00 3.306209e+00 4.006879e+00 3.544601e+00 3.633923e+00 3.501827e+00 3.505786e+00 3.351209e+00 4.672716e-01 1.146500e-01 1.925685e-01 2.499826e-01 3.467437e-01 4.414088e-01 5.117705e-01 6.724048e-01 7.096792e-01 6.761240e-01 6.631528e-01 5.659931e-01 5.795603e-01 9.151094e-02
<GCONST> 1.184008e+02
<MIXTURE> 2 1.402659e-01
<MEAN> 39
 7.786314e+00 -8.576526e-01 -6.871640e+00 -1.404229e+01 8.956411e-02 1.172695e+01 1.427490e+00 -5.073610e+00 2.606162e+00 -1.170206e+00 6.035829e+00 4.314133e-01 7.554393e+00 3.840504e-03 7.552104e-02 -7.209374e-02 -1.340760e-01 -4.034852e-02 1.841184e-01 1.304065e-01 4.410189e-02 -8.572201e-02 -3.207757e-01 4.621030e-02 1.150572e-01 -7.913429e-02 -2.852237e-02 -3.967442e-02 2.984502e-03 1.496412e-01 2.023675e-02 -1.616408e-01 -1.507252e-01 1.027235e-01 -1.589924e-02 1.516714e-01 -1.942585e-01 -4.535279e-02 9.441751e-05
<VARIANCE> 39
 1.676934e+01 2.678352e+01 2.951240e+01 4.131011e+01 7.145383e+01 5.426218e+01 7.106218e+01 5.575117e+01 6.528114e+01 6.926593e+01 5.536921e+01 6.690082e+01 2.248816e+01 3.088801e-01 6.947188e-01 8.459431e-01 1.354151e+00 1.592908e+00 2.075788e+00 2.314662e+00 2.095023e+00 2.348331e+00 2.467676e+00 2.170688e+00 2.117422e+00 2.568613e-01 4.835854e-02 1.097517e-01 1.490615e-01 2.247286e-01 2.912605e-01 3.736025e-01 3.893487e-01 3.873087e-01 4.294326e-01 4.081251e-01 3.936512e-01 3.872877e-01 3.446776e-02
<GCONST> 1.047443e+02
<MIXTURE> 3 8.227705e-02
<MEAN> 39
 5.728735e+00 -3.022477e+00 -3.635513e+00 -7.834924e+00 2.241204e+00 2.320482e+00 -2.043695e+00 -5.823538e-01 2.545592e+00 2.087410e+00 1.338817e+00 -3.166423e-01 5.175903e+00 5.655147e-01 -7.343903e-01 -5.548716e-01 -1.190642e+00 6.609619e-01 7.664277e-01 -9.410677e-02 1.511095e-01 2.106936e-01 -1.289836e-02 1.855594e-02 -1.320219e-01 1.258395e+00 -4.118621e-01 2.912609e-01 1.112865e-01 5.156834e-01 2.649333e-02 6.772105e-02 1.582754e-01 -4.102013e-02 -1.326893e-01 -1.424543e-01 -7.178120e-02 -4.406473e-02 -3.576827e-01
<VARIANCE> 39
 3.578736e+01 4.428820e+01 6.712862e+01 9.434680e+01 1.086371e+02 1.015605e+02 8.535738e+01 8.365563e+01 8.213306e+01 7.698889e+01 8.258440e+01 7.969281e+01 4.378106e+01 2.301555e+00 2.910642e+00 3.482030e+00 5.483854e+00 5.379604e+00 5.560774e+00 5.455701e+00 5.866047e+00 5.485583e+00 5.492489e+00 5.269711e+00 4.867237e+00 4.068947e+00 4.004872e-01 4.845928e-01 6.100497e-01 9.328077e-01 9.180662e-01 9.520555e-01 1.056742e+00 1.048036e+00 1.031658e+00 9.650521e-01 9.086179e-01 8.869887e-01 4.736156e-01
<GCONST> 1.438702e+02
<MIXTURE> 4 1.842742e-01
<MEAN> 39
 3.845216e+00 -5.704135e+00 -9.463001e+00 -7.648365e+00 6.545902e+00 9.347807e+00 7.763981e-01 -2.447474e+00 7.167020e+00 1.643134e+00 -6.462520e-01 -5.464664e+00 1.033675e+01 3.886586e-02 4.624011e-02 -9.045839e-02 -1.802414e-01 1.522392e-01 3.400207e-01 1.881605e-02 -2.305827e-01 -1.444709e-01 -1.719808e-01 2.744093e-01 1.253930e-01 -8.543915e-02 2.697453e-02 2.931578e-02 7.640942e-02 -2.184401e-02 -8.933681e-02 -1.146479e-01 -1.031403e-01 1.594907e-01 -7.577951e-02 -1.929973e-03 -6.271125e-02 8.148757e-02 -3.888719e-02
<VARIANCE> 39
 1.588865e+01 1.407473e+01 1.944834e+01 2.872920e+01 3.972558e+01 4.646491e+01 5.553648e+01 4.464720e+01 4.071143e+01 5.016994e+01 4.096421e+01 3.120852e+01 2.143526e+01 1.913936e-01 3.884329e-01 4.941623e-01 7.812470e-01 1.015431e+00 1.345129e+00 1.460290e+00 1.477484e+00 1.394185e+00 1.394927e+00 1.408008e+00 1.206106e+00 1.210762e-01 3.206456e-02 6.449757e-02 8.768313e-02 1.292140e-01 1.742225e-01 2.204320e-01 2.297769e-01 2.392034e-01 2.350903e-01 2.402291e-01 2.231999e-01 2.020222e-01 1.803335e-02
<GCONST> 8.639243e+01
<MIXTURE> 5 1.297407e-01
<MEAN> 39
 4.583622e+00 -3.613176e+00 -5.715306e+00 -3.621316e+00 3.329593e+00 1.221155e+00 -4.717855e+00 2.786546e+00 6.565562e+00 -4.583245e-01 -6.017853e+00 -4.077411e+00 6.912733e+00 2.652538e-01 -5.735430e-02 -7.968272e-01 -5.845882e-01 1.135735e+00 1.227350e+00 -3.797205e-01 -8.886667e-01 -7.633487e-02 3.689201e-01 4.873606e-01 -6.525747e-01 -1.451447e-01 -4.186328e-02 1.087089e-01 2.163677e-01 1.508128e-02 -2.524115e-01 -1.561421e-01 1.369943e-01 -3.585269e-02 -3.202824e-01 -5.409968e-02 2.748448e-01 2.064372e-01 -6.497192e-02
<VARIANCE> 39
 8.941944e+00 1.691765e+01 2.167153e+01 2.336850e+01 4.240372e+01 3.905077e+01 4.197848e+01 4.304199e+01 4.284416e+01 5.848258e+01 4.757488e+01 3.815161e+01 1.181359e+01 1.841068e-01 5.077078e-01 6.997805e-01 1.056905e+00 1.265641e+00 1.624450e+00 1.945845e+00 1.898509e+00 1.998673e+00 1.963581e+00 1.948240e+00 1.645841e+00 1.236266e-01 2.586927e-02 7.282088e-02 1.095845e-01 1.401048e-01 2.162571e-01 2.251297e-01 2.884493e-01 3.034907e-01 3.050461e-01 3.294969e-01 2.915631e-01 2.830016e-01 1.851847e-02
<GCONST> 9.074212e+01
<MIXTURE> 6 1.258837e-01
<MEAN> 39
 6.525296e+00 -7.812349e+00 -5.927529e+00 -1.172301e+01 1.046554e+01 9.532941e+00 -8.394346e+00 5.304214e+00 4.321278e-01 3.782787e+00 -4.253237e+00 -2.787718e+00 8.912210e+00 3.226876e-02 -4.997764e-03 -9.081977e-02 -9.858251e-02 2.643790e-01 1.782507e-01 -1.963814e-01 -3.261915e-02 -2.562661e-01 -8.904879e-03 2.626470e-01 -1.019630e-02 -7.454646e-02 -5.891791e-02 1.502878e-01 -6.632872e-02 1.337861e-01 -1.560787e-01 -1.942209e-01 2.516155e-01 -2.264339e-01 2.169699e-01 -1.943479e-01 1.742647e-01 -5.348696e-02 -9.270896e-03
<VARIANCE> 39
 1.732936e+01 2.351612e+01 2.352060e+01 3.876097e+01 6.185051e+01 6.174511e+01 4.929836e+01 4.922056e+01 5.126978e+01 5.912498e+01 4.616940e+01 5.513133e+01 2.089252e+01 3.229441e-01 6.427295e-01 8.014262e-01 1.199281e+00 1.444426e+00 1.668589e+00 1.828364e+00 1.922601e+00 2.002672e+00 1.965305e+00 1.887440e+00 1.695272e+00 1.803422e-01 5.097192e-02 9.774541e-02 1.328129e-01 1.826348e-01 2.399329e-01 2.807675e-01 2.827978e-01 3.067597e-01 3.127668e-01 3.139103e-01 2.888065e-01 3.009563e-01 2.581281e-02
<GCONST> 9.820393e+01
<MIXTURE> 7 1.014867e-01
<MEAN> 39
 1.889505e+00 -3.484161e+00 -6.651761e-01 -1.755634e+00 -7.055919e-01 -1.427443e+00 1.970552e+00 3.093612e+00 -2.386121e-01 -2.491582e+00 -1.923887e+00 1.899361e+00 6.473569e+00 1.507605e-01 -2.190294e-01 -4.343247e-01 -4.248861e-02 6.531143e-01 2.061577e-01 -3.036564e-01 -2.372775e-02 3.573929e-01 -6.590404e-02 -2.101203e-01 -1.127540e-01 -2.019712e-02 1.522562e-02 8.826713e-02 -2.046669e-02 -5.450041e-02 2.066192e-02 6.240607e-02 -1.574902e-01 -1.713346e-01 4.940267e-02 1.482398e-01 5.336669e-02 -9.907987e-02 -6.204305e-02
<VARIANCE> 39
 2.281136e+01 3.563833e+01 4.137398e+01 3.996949e+01 7.358281e+01 5.341379e+01 5.675669e+01 6.013039e+01 5.170506e+01 5.736898e+01 6.612141e+01 6.497816e+01 5.336195e+01 2.677435e-01 5.527461e-01 9.211810e-01 9.718971e-01 1.594123e+00 1.478405e+00 1.852061e+00 1.946316e+00 1.871097e+00 1.839224e+00 1.677835e+00 1.548422e+00 1.713863e-01 4.644476e-02 9.390689e-02 1.428320e-01 1.735463e-01 2.525203e-01 2.665557e-01 2.955748e-01 3.280811e-01 3.173012e-01 3.169245e-01 2.872900e-01 2.531212e-01 2.696628e-02
<GCONST> 1.003878e+02
<MIXTURE> 8 1.069083e-01
<MEAN> 39
 6.450887e+00 2.812890e-01 -7.670529e+00 -7.822108e+00 1.236449e+00 5.916026e+00 -3.578057e+00 -3.771601e+00 2.958252e+00 3.425025e+00 1.591741e+00 -3.376703e+00 5.264480e+00 2.240828e-01 -4.051507e-01 -6.850046e-01 -9.699060e-01 5.039611e-01 1.353461e+00 3.351421e-01 2.388805e-01 1.965591e-01 -6.278699e-02 4.772248e-01 -6.476823e-02 4.406596e-01 -2.699023e-01 7.530478e-02 4.048146e-01 4.218722e-01 1.053785e-01 -2.581974e-01 1.605217e-01 9.219766e-02 -2.171768e-01 -2.908287e-01 -1.057569e-01 1.766319e-01 -2.414719e-01
<VARIANCE> 39
 1.022206e+01 1.932131e+01 2.455017e+01 3.810943e+01 3.962997e+01 5.222842e+01 4.708010e+01 3.856614e+01 5.299739e+01 5.299667e+01 5.603610e+01 4.747552e+01 1.761135e+01 5.769557e-01 1.100300e+00 1.548973e+00 2.162050e+00 2.355997e+00 2.554371e+00 2.658638e+00 3.241405e+00 3.283623e+00 2.991605e+00 2.736869e+00 2.467427e+00 5.881233e-01 1.570298e-01 1.572697e-01 2.078015e-01 3.538973e-01 3.644115e-01 4.133132e-01 4.323352e-01 5.010967e-01 5.249081e-01 5.008836e-01 4.750771e-01 4.273484e-01 9.821726e-02
<GCONST> 1.110211e+02
<STATE> 3
<NUMMIXES> 8
<MIXTURE> 1 1.096562e-01
<MEAN> 39
 1.162744e+00 -7.191628e+00 -7.219244e+00 -3.309620e+00 1.292641e+01 3.252432e+00 -7.087615e+00 4.607569e+00 3.532519e+00 5.080309e+00 9.936464e+00 1.017014e+01 7.424168e+00 3.704901e-02 6.335687e-02 -1.456516e-02 -9.637046e-03 4.258061e-02 1.069933e-02 -2.443330e-02 2.301005e-02 -2.404968e-02 1.248622e-02 2.124214e-02 -1.806719e-02 -5.290568e-02 4.987871e-02 6.208972e-02 5.069271e-02 -1.263310e-02 -7.449177e-02 2.603434e-03 1.000728e-01 -3.918024e-03 1.730847e-02 -4.895180e-02 -9.180339e-02 -9.953819e-02 -1.065078e-02
<VARIANCE> 39
 1.148026e+01 2.007761e+01 2.643603e+01 3.815865e+01 4.670317e+01 5.438195e+01 5.118303e+01 5.432898e+01 6.159475e+01 7.630032e+01 8.313399e+01 5.369915e+01 1.262389e+01 2.825884e-01 6.092138e-01 8.156158e-01 1.026355e+00 1.331639e+00 1.376611e+00 1.474717e+00 1.600569e+00 1.571272e+00 1.704453e+00 1.853499e+00 1.590300e+00 1.173231e-01 4.320265e-02 9.341834e-02 1.297420e-01 1.668030e-01 2.010011e-01 2.161379e-01 2.375747e-01 2.590084e-01 2.645272e-01 2.747343e-01 2.794096e-01 2.480324e-01 1.649002e-02
<GCONST> 9.398380e+01
<MIXTURE> 2 1.442940e-01
<MEAN> 39
 5.884977e+00 -1.038611e+00 -7.015904e+00 -1.350503e+01 -3.014162e-01 1.474364e+01 -1.372971e+00 -3.889182e+00 4.274522e+00 -9.170488e-01 5.752172e+00 6.859584e-01 7.511085e+00 2.815113e-02 3.141148e-02 -5.692823e-03 7.576723e-03 9.843922e-03 2.871676e-02 -4.754784e-04 2.288542e-02 -2.248812e-02 -4.077819e-02 2.704909e-02 2.515336e-02 -4.392941e-02 -2.900794e-03 -1.261018e-02 2.566302e-04 4.656263e-02 2.732821e-02 -1.076001e-01 -2.741821e-02 2.403032e-02 -1.184630e-02 3.306083e-02 -5.051374e-02 -1.364698e-02 -5.787880e-03
<VARIANCE> 39
 1.117521e+01 1.548676e+01 1.835673e+01 3.568893e+01 5.049705e+01 3.865012e+01 5.818813e+01 4.457853e+01 4.405216e+01 6.570356e+01 4.368219e+01 6.034771e+01 1.201304e+01 1.171184e-01 2.868293e-01 3.509250e-01 6.112803e-01 7.843399e-01 9.565998e-01 1.005146e+00 1.058964e+00 1.150051e+00 1.200647e+00 1.111262e+00 1.033184e+00 7.214524e-02 1.852102e-02 4.333500e-02 5.987497e-02 9.991436e-02 1.325372e-01 1.662015e-01 1.749758e-01 1.868507e-01 2.015495e-01 2.071249e-01 1.909670e-01 1.786790e-01 1.000000e-02
<GCONST> 7.911903e+01
<MIXTURE> 3 1.193385e-01
<MEAN> 39
 4.228436e+00 -3.815168e+00 -7.586451e+00 -9.664078e+00 4.522188e+00 1.051961e+01 -6.684077e-01 -1.428226e+00 4.865770e+00 6.340985e-01 1.071882e+00 -1.883385e+00 9.945419e+00 -6.100973e-03 5.375459e-04 -1.496961e-02 -2.798693e-02 1.580920e-04 -4.280830e-03 -1.408435e-02 -1.732926e-02 -2.374028e-02 -1.704992e-02 -3.871382e-03 -5.542694e-03 -1.077300e-02 -9.717504e-03 -1.633747e-02 -1.972099e-02 -2.104534e-02 -2.854105e-02 -4.306412e-02 -5.475055e-02 5.872671e-03 -3.683938e-02 -1.608990e-02 -1.423677e-02 -1.193566e-02 -1.003178e-02
<VARIANCE> 39
 1.527365e+01 1.548204e+01 1.873591e+01 3.958538e+01 4.658619e+01 4.709134e+01 5.564817e+01 5.133868e+01 4.773529e+01 5.427779e+01 5.513380e+01 6.456338e+01 1.716454e+01 4.222734e-02 9.946792e-02 1.328208e-01 2.175390e-01 2.775146e-01 3.318231e-01 3.605979e-01 3.771587e-01 4.079631e-01 4.070659e-01 3.837200e-01 3.542213e-01 1.966994e-02 1.000000e-02 1.805680e-02 2.619578e-02 4.085836e-02 5.259667e-02 6.199429e-02 6.763586e-02 7.224888e-02 7.824953e-02 7.802516e-02 7.306588e-02 6.750689e-02 1.000000e-02
<GCONST> 5.564434e+01
<MIXTURE> 4 1.240525e-01
<MEAN> 39
 3.005450e+00 -7.055379e+00 -1.035885e+01 -9.016246e+00 8.519294e+00 3.930878e+00 -7.940882e+00 3.555062e-01 4.567607e-01 -2.913883e+00 -1.218530e+00 -1.948737e+00 7.480521e+00 2.959934e-02 5.198456e-02 1.169383e-02 1.960420e-02 5.053863e-02 4.291524e-02 6.491859e-03 3.053331e-02 -4.335706e-03 3.128671e-02 6.617282e-02 9.475257e-03 -3.014554e-02 1.610558e-01 2.441485e-01 3.043450e-01 3.183545e-01 2.801835e-01 2.998871e-01 3.374654e-01 2.981400e-01 2.576402e-01 2.243390e-01 1.568459e-01 1.097131e-01 5.391077e-02
<VARIANCE> 39
 1.047731e+01 1.751314e+01 2.059952e+01 3.883780e+01 5.253290e+01 6.040197e+01 5.080665e+01 5.268095e+01 5.041535e+01 4.770020e+01 5.811089e+01 7.199732e+01 1.405074e+01 1.477707e-01 3.427281e-01 4.673800e-01 6.622134e-01 8.268858e-01 9.107408e-01 9.731253e-01 9.872047e-01 1.008853e+00 9.352592e-01 8.964973e-01 8.387410e-01 6.360298e-02 1.926962e-02 4.350743e-02 6.103829e-02 8.744483e-02 1.134264e-01 1.267586e-01 1.430542e-01 1.498946e-01 1.634457e-01 1.587225e-01 1.613704e-01 1.538630e-01 1.000000e-02
<GCONST> 7.836368e+01
<MIXTURE> 5 1.268460e-01
<MEAN> 39
 3.377395e+00 -6.024344e+00 -8.847206e+00 -5.921065e+00 1.229140e+01 4.170465e+00 -7.780972e+00 5.009171e+00 1.084048e+00 -7.207610e-01 1.557739e-01 -5.041356e-01 7.165527e+00 4.699787e-02 5.287851e-02 6.907260e-02 7.581187e-02 8.206183e-02 6.847665e-02 4.738082e-02 8.591530e-02 2.626316e-02 4.849859e-02 3.730324e-02 1.604907e-02 -9.265945e-04 2.971288e-02 4.756748e-02 5.854759e-02 4.415661e-02 2.085134e-02 4.282018e-02 8.329677e-02 1.816859e-03 6.296559e-02 1.252145e-02 1.810952e-02 3.172232e-03 5.429353e-03
<VARIANCE> 39
 8.421536e+00 1.433193e+01 1.734945e+01 2.906154e+01 3.696386e+01 4.275245e+01 3.441305e+01 3.723360e+01 4.138840e+01 4.414177e+01 5.416993e+01 7.334805e+01 8.641157e+00 6.390759e-02 1.534532e-01 2.117882e-01 2.812096e-01 3.700899e-01 4.107541e-01 4.468821e-01 4.762573e-01 4.827912e-01 4.612099e-01 4.474694e-01 4.395536e-01 2.720318e-02 1.000000e-02 2.393857e-02 3.240603e-02 4.648690e-02 6.236667e-02 6.796794e-02 7.428285e-02 8.554616e-02 8.366343e-02 8.232569e-02 7.927565e-02 7.653625e-02 1.000000e-02
<GCONST> 5.751412e+01
<MIXTURE> 6 1.340499e-01
<MEAN> 39
 4.157925e+00 -5.442443e+00 -7.768102e+00 -5.685734e+00 1.206165e+01 6.065131e+00 -5.702371e+00 3.853731e+00 2.399981e+00 -6.994522e-01 1.181866e-01 -4.267924e-01 7.760074e+00 -2.964567e-01 -3.920566e-01 -5.470814e-01 -5.630199e-01 -5.451985e-01 -5.777087e-01 -5.740420e-01 -5.129641e-01 -4.532230e-01 -3.395644e-01 -1.863492e-01 -1.517895e-01 -1.522054e-01 -6.327239e-02 -7.383391e-02 -9.375332e-02 -1.217006e-01 -1.604778e-01 -1.368885e-01 -9.452347e-02 -1.043989e-01 -8.328722e-02 -6.247866e-02 -4.670993e-02 -1.493418e-02 -2.993647e-02
<VARIANCE> 39
 9.815668e+00 1.605993e+01 2.039075e+01 3.653057e+01 4.694103e+01 5.357077e+01 4.650763e+01 4.628918e+01 4.981406e+01 4.534855e+01 5.489630e+01 6.975533e+01 1.237231e+01 9.317166e-02 2.388108e-01 2.971152e-01 4.470165e-01 5.892367e-01 6.498890e-01 7.239882e-01 7.612060e-01 8.321810e-01 8.038724e-01 8.368737e-01 8.032156e-01 4.648517e-02 1.950142e-02 4.400493e-02 6.321381e-02 8.438346e-02 1.064358e-01 1.231636e-01 1.342940e-01 1.392773e-01 1.448131e-01 1.370244e-01 1.345506e-01 1.273947e-01 1.000000e-02
<GCONST> 7.289682e+01
<MIXTURE> 7 1.392498e-01
<MEAN> 39
 4.388510e+00 -5.203958e+00 -7.409381e+00 -5.446911e+00 1.255111e+01 6.383808e+00 -5.434683e+00 4.160276e+00 2.778095e+00 -5.202088e-01 1.694029e-01 -5.084072e-01 7.853760e+00 2.537551e-01 3.494926e-01 3.995019e-01 4.409638e-01 4.750690e-01 4.501821e-01 4.212260e-01 3.902070e-01 3.151820e-01 2.598953e-01 2.309222e-01 7.339027e-02 6.231327e-02 -1.037041e-01 -1.284588e-01 -1.642882e-01 -1.870204e-01 -2.305671e-01 -2.067134e-01 -1.607752e-01 -1.729880e-01 -1.413383e-01 -1.029348e-01 -7.193239e-02 -2.844228e-02 -4.482533e-02
<VARIANCE> 39
 9.590360e+00 1.637838e+01 2.037052e+01 3.652074e+01 4.658361e+01 5.343560e+01 4.720026e+01 4.686134e+01 5.093746e+01 4.555970e+01 5.545300e+01 6.751575e+01 1.270963e+01 1.092973e-01 2.622847e-01 3.568183e-01 4.984085e-01 6.535574e-01 7.037348e-01 7.990027e-01 8.297282e-01 8.676804e-01 8.279327e-01 8.282233e-01 7.761716e-01 5.381436e-02 1.919893e-02 4.563413e-02 6.154954e-02 8.915886e-02 1.070737e-01 1.276678e-01 1.380951e-01 1.474982e-01 1.525767e-01 1.494799e-01 1.506187e-01 1.414086e-01 1.000000e-02
<GCONST> 7.455914e+01
<MIXTURE> 8 1.025130e-01
<MEAN> 39
 4.051166e+00 -4.192717e+00 -6.190322e+00 -6.517581e+00 8.505579e+00 4.400988e+00 -3.352257e+00 8.803308e-02 2.409855e+00 5.015516e-02 1.556694e+00 -9.893780e-01 6.275781e+00 7.792611e-02 1.729476e-01 -1.407986e-01 1.634371e-02 -5.712879e-02 -8.269846e-02 -7.262968e-02 -7.467461e-02 -1.233064e-01 -3.076184e-02 5.172038e-03 -1.584500e-02 -1.655734e-01 -4.582187e-02 8.205397e-02 3.209194e-02 7.995127e-02 -1.580333e-01 -8.637775e-02 -6.744593e-02 2.853723e-02 -7.575934e-02 1.653801e-02 -3.616663e-02 8.316461e-02 -7.536357e-02
<VARIANCE> 39
 2.033651e+01 3.498847e+01 4.781622e+01 6.414832e+01 1.072030e+02 8.289867e+01 6.667034e+01 6.240275e+01 6.532533e+01 6.825046e+01 7.129681e+01 7.962029e+01 2.809330e+01 5.387149e-01 9.826845e-01 1.270587e+00 1.764716e+00 2.122793e+00 2.289963e+00 2.523131e+00 2.620983e+00 2.652354e+00 2.629776e+00 2.442552e+00 2.456119e+00 4.270098e-01 1.035204e-01 1.891417e-01 2.537763e-01 3.310631e-01 4.110385e-01 4.410214e-01 4.742586e-01 4.890820e-01 4.797422e-01 4.637105e-01 4.344623e-01 4.155089e-01 6.831121e-02
<GCONST> 1.151284e+02
<STATE> 4
<NUMMIXES> 8
<MIXTURE> 1 5.774947e-02
<MEAN> 39
 3.880406e+00 -2.644801e+00 -4.221499e+00 -4.914956e+00 3.214075e+00 2.805881e+00 -2.277542e+00 -8.191432e-02 1.634847e+00 6.464834e-01 9.202997e-01 -2.424833e-01 4.814202e+00 1.020283e-01 4.511093e-01 2.938033e-02 1.957932e-01 -3.889375e-01 -4.345585e-01 -1.170769e-01 -1.386164e-01 -1.104051e-01 -3.407402e-02 -1.372404e-01 3.081642e-02 -3.862633e-01 -1.901121e-02 1.778254e-01 1.099767e-01 1.643279e-01 -8.448303e-02 -1.475253e-01 -5.348181e-02 -6.714561e-02 -9.176771e-02 -1.013372e-02 -3.875563e-02 -1.592044e-02 -1.565001e-01
<VARIANCE> 39
 2.847328e+01 3.863025e+01 5.553521e+01 6.531097e+01 8.631429e+01 7.903533e+01 6.959943e+01 6.796631e+01 6.596979e+01 6.694509e+01 8.075307e+01 8.446221e+01 4.402564e+01 7.033328e-01 1.157888e+00 1.412074e+00 1.972940e+00 2.864491e+00 2.689491e+00 2.862685e+00 2.992198e+00 2.798605e+00 2.981987e+00 2.603332e+00 2.411161e+00 6.601140e-01 1.307250e-01 2.093138e-01 2.674944e-01 3.215948e-01 4.136641e-01 4.775991e-01 5.250969e-01 5.773015e-01 5.186321e-01 5.009830e-01 4.872479e-01 4.485102e-01 1.102805e-01
<GCONST> 1.197834e+02
<MIXTURE> 2 1.412235e-01
<MEAN> 39
 6.217421e+00 -5.513810e-01 -1.061491e+01 -8.568274e+00 5.071659e+00 3.415352e+00 -7.031856e+00 -3.533090e+00 -1.437731e+00 -3.834669e+00 -3.479933e+00 -8.845936e+00 3.292507e+00 6.663110e-03 3.815306e-02 1.184497e-02 3.172480e-02 -5.586179e-02 -7.929179e-02 -1.148148e-02 -1.069667e-03 -4.069236e-02 -3.908898e-03 -2.926074e-02 -2.286470e-02 -5.543273e-02 9.329467e-02 1.450251e-01 2.143547e-01 2.347778e-01 2.180533e-01 2.303189e-01 2.821022e-01 2.822900e-01 2.509298e-01 2.406024e-01 2.127771e-01 2.569145e-01 3.142083e-02
<VARIANCE> 39
 7.250894e+00 1.457270e+01 1.840311e+01 3.389430e+01 4.467799e+01 3.989934e+01 4.092870e+01 4.075235e+01 5.152336e+01 5.284116e+01 4.944257e+01 4.022145e+01 8.222578e+00 9.758887e-02 2.716120e-01 4.014943e-01 5.958972e-01 7.611482e-01 8.900750e-01 9.819509e-01 1.028249e+00 1.093801e+00 1.051630e+00 9.853069e-01 8.959168e-01 5.746991e-02 1.382139e-02 3.699661e-02 5.846767e-02 8.472665e-02 1.145954e-01 1.378791e-01 1.479178e-01 1.566191e-01 1.759272e-01 1.734896e-01 1.606956e-01 1.380655e-01 1.000000e-02
<GCONST> 7.430671e+01
<MIXTURE> 3 1.600015e-01
<MEAN> 39
 8.186540e+00 4.399317e+00 -5.947826e+00 -1.058996e+01 -2.031195e+00 9.094594e+00 1.112422e+00 -4.877280e+00 -3.991363e-01 1.609676e-01 4.781163e+00 2.406835e+00 3.422022e+00 1.623889e-02 2.245062e-02 1.581728e-02 2.411110e-02 -4.914503e-03 -1.971561e-03 3.739506e-03 1.233805e-02 -2.351667e-02 7.949592e-03 -1.297096e-02 1.145919e-02 -4.375971e-02 -1.105434e-02 -3.466951e-02 -1.882991e-02 1.840439e-02 3.807581e-02 -5.503952e-02 -8.277775e-02 7.662295e-03 7.498027e-03 -5.804135e-03 -2.503491e-02 -5.927003e-02 3.771799e-03
<VARIANCE> 39
 8.466067e+00 1.393777e+01 1.854222e+01 2.827743e+01 2.645946e+01 3.139642e+01 4.020930e+01 3.666129e+01 3.659812e+01 5.347806e+01 4.044048e+01 3.249031e+01 7.788011e+00 7.119372e-02 2.169855e-01 3.071394e-01 4.685543e-01 5.798975e-01 7.234340e-01 8.120131e-01 8.704684e-01 9.231859e-01 9.199036e-01 8.540881e-01 7.982211e-01 5.098319e-02 1.177395e-02 3.616270e-02 5.426835e-02 8.165748e-02 1.022291e-01 1.281454e-01 1.470392e-01 1.610782e-01 1.698867e-01 1.660183e-01 1.576946e-01 1.406507e-01 1.000000e-02
<GCONST> 6.945285e+01
<MIXTURE> 4 1.540471e-01
<MEAN> 39
 8.083739e+00 1.279991e+00 -9.462401e+00 -8.131330e+00 9.289762e+00 7.175354e+00 -5.050755e+00 -5.077671e-01 1.411861e+00 -2.823122e-01 1.147613e-01 -7.733394e+00 3.535562e+00 -3.349283e-03 6.596722e-02 -1.035788e-02 2.108245e-02 -9.665205e-02 -8.876560e-02 -4.993765e-02 -3.496802e-02 -5.739732e-02 -3.446269e-02 -1.288913e-02 -4.095405e-02 -8.565349e-02 -1.078954e-01 -1.122160e-01 -7.374341e-02 -9.303464e-02 -2.549165e-01 -2.227075e-01 -1.393924e-01 -1.853426e-01 -1.686254e-01 -1.655073e-01 -1.844170e-01 -1.915408e-02 -1.575329e-02
<VARIANCE> 39
 5.978446e+00 1.496835e+01 1.845425e+01 3.345803e+01 3.941470e+01 4.185203e+01 4.574266e+01 4.148811e+01 5.700801e+01 5.589359e+01 5.469545e+01 3.979036e+01 8.952171e+00 1.389005e-01 3.832043e-01 5.221418e-01 7.807560e-01 9.793504e-01 1.141935e+00 1.281644e+00 1.327876e+00 1.402086e+00 1.318789e+00 1.224499e+00 1.124025e+00 9.157401e-02 1.688488e-02 5.180519e-02 8.627658e-02 1.299434e-01 1.407335e-01 1.844796e-01 2.151819e-01 2.128035e-01 2.276777e-01 2.213119e-01 2.051675e-01 1.993118e-01 1.075715e-02
<GCONST> 8.186992e+01
<MIXTURE> 5 1.501231e-01
<MEAN> 39
 5.581916e+00 -1.118948e+00 -7.867073e+00 -2.090863e+00 5.993152e+00 2.462428e+00 -4.198555e+00 1.304798e+00 3.011842e+00 -2.781944e+00 -5.121116e+00 -5.972525e+00 3.390596e+00 1.617408e-02 3.684005e-02 6.222088e-02 5.942427e-02 -5.410850e-02 -4.524476e-02 2.345208e-02 3.971466e-02 -6.124731e-03 -1.602202e-02 1.318266e-02 4.450615e-02 -5.814302e-02 -2.243330e-02 -1.249499e-02 -2.293314e-02 -1.001057e-01 -6.296531e-02 -2.851538e-02 -6.101997e-02 -8.712330e-02 -9.207116e-02 -4.442207e-02 1.662117e-02 -3.441387e-02 -1.776541e-02
<VARIANCE> 39
 4.888635e+00 9.384466e+00 1.566085e+01 1.791266e+01 3.102114e+01 2.810398e+01 3.434143e+01 3.409512e+01 4.656800e+01 4.748478e+01 3.103043e+01 3.315108e+01 6.187768e+00 7.774950e-02 2.086057e-01 3.432632e-01 4.743050e-01 6.607405e-01 7.666758e-01 8.097036e-01 9.347575e-01 9.196342e-01 9.171364e-01 8.585619e-01 7.935297e-01 4.389138e-02 1.017081e-02 2.996473e-02 5.080962e-02 6.832086e-02 9.408358e-02 1.140456e-01 1.313714e-01 1.437320e-01 1.485864e-01 1.439931e-01 1.366091e-01 1.269544e-01 1.000000e-02
<GCONST> 6.609270e+01
<MIXTURE> 6 1.757794e-01
<MEAN> 39
 7.053905e+00 8.861699e-01 -8.624496e+00 -7.491587e+00 4.382468e+00 8.056942e+00 -4.289844e+00 -2.355896e+00 1.423495e+00 9.597159e-03 2.044237e+00 -4.650695e+00 3.630679e+00 5.996738e-04 3.916915e-03 6.666258e-03 5.774515e-03 -5.789147e-03 -2.253169e-02 -1.921125e-02 -1.281543e-02 -6.245245e-03 -5.537884e-03 -1.633474e-02 -9.530632e-03 -2.264518e-02 -6.210869e-03 -5.546204e-03 1.634902e-03 -2.438705e-04 -1.970254e-02 -4.065778e-02 1.123684e-02 -1.151988e-02 -6.153150e-03 -1.371548e-02 -2.867092e-02 1.004161e-02 -4.893888e-03
<VARIANCE> 39
 5.994375e+00 1.166084e+01 1.644684e+01 2.337685e+01 3.139207e+01 2.885014e+01 3.813184e+01 3.001006e+01 4.711874e+01 4.513319e+01 4.381482e+01 4.727052e+01 7.285775e+00 3.662244e-02 1.002354e-01 1.540134e-01 2.458605e-01 3.173760e-01 4.027153e-01 4.194799e-01 4.539173e-01 4.962603e-01 5.017991e-01 4.745413e-01 4.369490e-01 1.989092e-02 1.000000e-02 1.860044e-02 2.921643e-02 4.539462e-02 6.080970e-02 7.660024e-02 8.166205e-02 8.727503e-02 9.525935e-02 9.811236e-02 9.130171e-02 8.354856e-02 1.000000e-02
<GCONST> 5.385161e+01
<MIXTURE> 7 4.164372e-02
<MEAN> 39
 4.667113e+00 -4.309853e+00 -5.647387e+00 -6.561592e+00 4.353024e+00 -1.741490e+00 -8.192414e-01 5.268833e+00 -1.292614e+00 -2.497889e+00 2.306682e-01 4.629139e+00 7.692714e+00 6.655201e-03 3.779112e-02 1.160193e-01 1.151850e-01 -2.542334e-01 -1.122609e-01 1.360317e-01 8.483495e-02 -4.550936e-02 -2.887938e-02 -2.625098e-02 1.010024e-01 -4.942559e-02 5.275333e-03 5.150362e-02 -1.073426e-03 2.862111e-02 -7.061677e-02 6.843691e-02 -9.311590e-03 -1.197739e-01 3.656910e-02 6.531574e-02 1.787393e-02 -7.313364e-02 -1.997758e-02
<VARIANCE> 39
 1.662210e+01 3.788832e+01 2.954864e+01 4.823549e+01 5.082328e+01 4.271071e+01 6.439322e+01 5.834726e+01 4.916148e+01 4.630973e+01 6.007335e+01 8.287425e+01 5.688184e+01 9.827281e-02 2.350025e-01 3.787663e-01 4.903394e-01 6.813731e-01 7.163250e-01 8.128629e-01 8.237275e-01 7.800242e-01 6.757668e-01 6.729553e-01 7.355351e-01 4.533667e-02 1.865201e-02 4.706005e-02 6.929652e-02 8.740672e-02 1.117549e-01 1.358879e-01 1.378031e-01 1.644571e-01 1.391871e-01 1.400985e-01 1.259383e-01 1.394370e-01 1.000000e-02
<GCONST> 7.787234e+01
<MIXTURE> 8 1.194321e-01
<MEAN> 39
 4.709903e+00 -7.214682e-01 -9.122466e+00 -7.373718e+00 6.357270e+00 6.900072e+00 -4.165917e+00 -2.468976e+00 -7.872018e-01 1.720220e-01 2.931065e+00 5.165482e-02 2.948464e+00 3.225881e-02 1.046760e-01 5.143708e-02 1.233137e-02 -7.552804e-02 -3.791726e-02 5.244378e-02 -7.470761e-03 -6.510612e-02 2.465583e-02 4.402638e-02 4.861307e-02 -8.041906e-02 4.155916e-02 8.108836e-03 4.766590e-02 3.767203e-02 -1.826109e-02 -3.910002e-02 1.117220e-02 4.946557e-02 9.491426e-02 1.677344e-02 -5.287636e-02 -1.079353e-01 -1.157328e-02
<VARIANCE> 39
 4.007815e+00 9.825650e+00 1.789058e+01 2.495555e+01 2.921826e+01 3.583629e+01 4.337605e+01 4.022523e+01 4.666023e+01 4.434399e+01 5.219082e+01 4.588370e+01 5.537345e+00 1.923534e-01 4.411962e-01 6.145543e-01 8.611252e-01 1.098848e+00 1.345788e+00 1.515182e+00 1.554091e+00 1.753731e+00 1.657077e+00 1.624536e+00 1.433236e+00 1.115811e-01 2.035839e-02 5.322460e-02 8.693545e-02 1.192537e-01 1.540527e-01 1.862673e-01 2.171556e-01 2.336852e-01 2.628658e-01 2.493576e-01 2.450476e-01 1.965519e-01 1.123403e-02
<GCONST> 8.268549e+01
<STATE> 5
<NUMMIXES> 8
<MIXTURE> 1 1.026775e-01
<MEAN> 39
 4.010592e+00 -3.742267e+00 -4.406047e+00 -6.238496e+00 1.753625e+00 -6.714661e-01 -3.727171e+00 2.056046e+00 3.217797e+00 1.536646e+00 7.394468e-01 2.183904e+00 6.219443e+00 2.186892e-01 1.418688e+00 6.687179e-01 1.012786e+00 -1.061630e+00 -1.448694e+00 -7.987047e-01 -1.288073e+00 -7.438840e-01 4.037726e-03 -1.738048e-01 -1.238302e-01 -1.455250e+00 -1.479944e-01 3.039099e-01 1.094964e-01 4.894701e-01 2.586535e-01 2.661013e-01 3.332418e-02 -3.754106e-01 -2.723359e-01 -2.407585e-01 -1.182546e-01 -2.682552e-01 -3.903537e-01
<VARIANCE> 39
 1.707934e+01 2.487252e+01 4.138669e+01 4.418679e+01 6.687333e+01 8.314378e+01 7.634029e+01 7.190606e+01 7.314305e+01 7.686257e+01 9.791962e+01 9.560689e+01 2.075002e+01 8.802401e-01 1.725509e+00 2.341291e+00 3.035632e+00 4.005502e+00 4.123068e+00 4.544570e+00 4.579777e+00 4.426394e+00 4.136756e+00 4.142677e+00 3.832217e+00 7.943158e-01 1.934512e-01 2.628527e-01 3.454973e-01 4.603462e-01 5.721341e-01 7.515601e-01 8.370349e-01 7.829584e-01 7.814166e-01 7.835988e-01 7.329556e-01 7.011406e-01 1.379214e-01
<GCONST> 1.277252e+02
<MIXTURE> 2 2.335320e-01
<MEAN> 39
 7.572752e+00 5.775230e+00 -4.896253e+00 -3.800467e+00 1.644154e+00 3.939476e+00 -1.817343e+00 -4.343848e+00 -3.196777e+00 -9.948604e-01 4.302250e-01 -2.705758e+00 -1.994488e+00 -2.131847e-02 3.721245e-02 1.370434e-01 1.792630e-01 -4.327181e-02 -1.447985e-01 -1.307611e-03 5.284369e-03 -1.977366e-02 -1.804466e-02 -7.690961e-02 1.961068e-03 -1.142381e-01 -1.125214e-02 -1.330931e-02 6.702459e-03 -1.404128e-02 -8.965444e-03 8.069307e-03 4.468761e-03 8.108232e-03 1.001283e-02 -1.292125e-02 7.706738e-03 2.151744e-02 7.057291e-03
<VARIANCE> 39
 7.377511e+00 1.072733e+01 1.712551e+01 2.639282e+01 3.156824e+01 3.120030e+01 3.832793e+01 3.528186e+01 4.123260e+01 4.781361e+01 4.651831e+01 5.424203e+01 7.140635e+00 8.107478e-02 2.236346e-01 3.916924e-01 5.659382e-01 6.862077e-01 8.222231e-01 8.917871e-01 9.987932e-01 1.041222e+00 1.049016e+00 1.011982e+00 9.315532e-01 6.811664e-02 1.403910e-02 3.831083e-02 6.824226e-02 9.788340e-02 1.258496e-01 1.480478e-01 1.628526e-01 1.901823e-01 1.920485e-01 1.980289e-01 1.881684e-01 1.684997e-01 1.000000e-02
<GCONST> 7.346795e+01
<MIXTURE> 3 1.667700e-01
<MEAN> 39
 8.277359e+00 5.760559e+00 -5.261843e+00 -1.163214e+01 -3.204168e+00 7.951978e+00 2.485796e+00 -3.978285e+00 -2.299392e+00 -1.992820e+00 4.228798e+00 3.389834e+00 9.684039e-01 -1.257660e-02 1.914894e-03 4.547831e-02 2.442689e-01 6.686457e-02 -1.182300e-01 -1.570039e-01 -1.187983e-01 -5.834229e-02 1.483882e-01 4.270693e-03 -7.008485e-02 -1.061212e-01 -2.779221e-02 -8.387577e-02 -8.006423e-03 1.405242e-01 1.169769e-01 -8.881423e-02 -1.526560e-01 -7.836305e-03 7.518964e-02 1.018304e-01 -7.286718e-02 -1.453485e-01 1.655262e-02
<VARIANCE> 39
 9.672841e+00 1.897672e+01 2.347502e+01 4.073448e+01 4.097701e+01 4.794738e+01 6.092155e+01 5.785994e+01 5.347462e+01 5.868583e+01 5.250095e+01 5.562941e+01 1.367017e+01 1.987260e-01 5.224655e-01 7.144456e-01 1.111829e+00 1.268512e+00 1.537559e+00 1.809413e+00 1.805455e+00 1.828328e+00 1.968010e+00 1.779575e+00 1.574942e+00 1.887658e-01 3.416931e-02 7.986938e-02 1.209929e-01 1.737074e-01 2.208085e-01 2.711244e-01 3.087810e-01 3.331014e-01 3.409975e-01 3.406427e-01 3.225115e-01 2.830716e-01 2.236350e-02
<GCONST> 9.494697e+01
<MIXTURE> 4 9.822849e-02
<MEAN> 39
 7.003335e+00 -1.795898e+00 -7.403524e+00 -5.821814e+00 2.151909e+00 6.785905e+00 -5.432097e+00 -3.903136e+00 4.584526e+00 4.238545e+00 7.608040e-02 -4.746129e+00 5.226925e+00 -2.145294e-01 -4.838153e-01 4.540796e-01 1.196871e+00 -3.154996e-01 -1.375344e+00 -4.098762e-01 7.551968e-01 6.197484e-01 1.792373e-02 -1.031220e+00 -1.448107e-01 1.118377e-01 -3.782093e-02 7.627530e-02 1.831113e-01 6.320103e-02 -1.455370e-01 -2.848696e-01 1.498560e-01 2.516871e-01 -2.003274e-01 -3.004923e-01 -1.837913e-02 2.786060e-01 -4.977145e-02
<VARIANCE> 39
 1.211375e+01 2.242395e+01 2.172675e+01 3.679089e+01 4.753975e+01 5.497236e+01 5.476140e+01 5.047192e+01 5.687690e+01 5.895277e+01 7.102480e+01 5.623371e+01 1.690519e+01 1.876595e-01 5.307038e-01 7.661730e-01 1.252025e+00 1.514261e+00 2.066001e+00 2.040047e+00 2.228503e+00 2.206947e+00 2.638632e+00 2.058505e+00 2.472239e+00 1.221769e-01 2.949774e-02 8.063344e-02 1.230372e-01 1.830742e-01 2.510937e-01 3.051590e-01 3.197116e-01 3.244513e-01 3.734688e-01 3.810790e-01 3.684506e-01 3.403625e-01 2.047593e-02
<GCONST> 9.800572e+01
<MIXTURE> 5 9.403116e-02
<MEAN> 39
 4.651450e+00 -3.247884e+00 -6.413881e+00 -4.445956e+00 4.727945e+00 5.072083e-01 -5.400666e+00 4.263599e+00 5.337563e+00 -2.639018e+00 -7.012186e+00 -3.493341e+00 5.315411e+00 -1.760843e-02 6.214998e-01 7.276739e-01 5.160843e-01 -1.124262e+00 -1.386054e+00 -7.521071e-02 -9.340979e-02 -1.764611e-01 3.804279e-02 -1.717656e-01 4.139985e-01 -5.747210e-01 4.296626e-03 2.214440e-01 1.752471e-01 1.351911e-01 -4.472543e-02 2.972221e-02 1.567723e-02 -4.743943e-01 -3.686417e-01 6.495535e-02 3.520904e-01 1.046245e-02 -2.266755e-01
<VARIANCE> 39
 8.624218e+00 1.946003e+01 2.073137e+01 2.530819e+01 4.176535e+01 4.752490e+01 4.802708e+01 4.614964e+01 4.775142e+01 5.275612e+01 3.820390e+01 4.215257e+01 1.398344e+01 2.913445e-01 7.966524e-01 1.115878e+00 1.372438e+00 1.891324e+00 2.107820e+00 2.475033e+00 2.813151e+00 2.363895e+00 2.417221e+00 2.155420e+00 1.985137e+00 2.496495e-01 5.202165e-02 1.245223e-01 1.628887e-01 2.120630e-01 3.032882e-01 3.492427e-01 4.269277e-01 3.804602e-01 4.033400e-01 3.713335e-01 3.132152e-01 3.169906e-01 4.722112e-02
<GCONST> 1.005829e+02
<MIXTURE> 6 1.167076e-01
<MEAN> 39
 6.938605e+00 1.470328e+00 -9.475980e+00 -7.704151e+00 5.608980e+00 5.182448e+00 -5.612092e+00 -2.522949e+00 -1.106699e+00 -8.810024e-01 1.321710e+00 -5.170902e+00 2.044808e+00 5.449487e-02 7.371977e-01 6.991909e-01 5.640623e-01 -6.845129e-01 -7.954297e-01 1.143551e-01 -6.249391e-01 -3.936515e-01 8.347110e-02 -1.636378e-01 1.147026e-01 -7.374372e-01 -6.859113e-02 4.969668e-02 3.015859e-01 2.418223e-01 -5.359246e-02 -9.711011e-02 1.026940e-01 -5.491431e-02 1.797055e-02 -2.815667e-02 -1.402733e-01 1.296810e-01 -1.005168e-01
<VARIANCE> 39
 8.495420e+00 1.692999e+01 2.016534e+01 3.481785e+01 4.092564e+01 5.190300e+01 5.025315e+01 4.239868e+01 5.266196e+01 5.171596e+01 5.352534e+01 5.184193e+01 1.641063e+01 2.938807e-01 5.585737e-01 1.124829e+00 1.491743e+00 1.717728e+00 1.938702e+00 2.168060e+00 2.297708e+00 2.376304e+00 2.201817e+00 2.384032e+00 1.986196e+00 1.764695e-01 4.888529e-02 8.670476e-02 1.496591e-01 2.172441e-01 2.579812e-01 3.067433e-01 3.521551e-01 3.544032e-01 3.641434e-01 3.645852e-01 3.391319e-01 2.983412e-01 3.638569e-02
<GCONST> 9.902486e+01
<MIXTURE> 7 8.803624e-02
<MEAN> 39
 4.043524e+00 3.623307e+00 -1.854169e+00 -8.936939e-01 1.248448e+00 5.466624e-01 -2.714411e+00 -4.880564e+00 -1.757533e+00 -5.629067e-01 -1.102787e+00 -2.410279e+00 -1.167730e+00 -6.053286e-01 6.532001e-01 4.853919e-01 1.128022e+00 2.136379e-01 -2.532123e-01 2.708302e-01 -2.869342e-01 -4.086287e-01 -1.975766e-01 -1.386301e-01 -7.712583e-02 -9.667977e-01 -1.614682e-01 -2.515530e-01 -1.112248e-01 -1.465935e-01 3.602227e-02 1.421236e-01 1.281185e-01 3.073607e-01 2.167473e-01 4.901427e-02 7.134588e-02 5.215201e-02 1.252279e-01
<VARIANCE> 39
 2.712615e+01 2.628173e+01 5.169905e+01 5.187283e+01 5.853681e+01 5.943739e+01 5.306807e+01 4.776494e+01 4.975713e+01 4.858059e+01 5.459156e+01 4.988478e+01 2.723779e+01 1.655718e+00 1.904913e+00 2.376146e+00 3.038342e+00 3.359864e+00 3.468807e+00 3.621891e+00 3.682510e+00 3.533412e+00 3.395926e+00 3.344200e+00 2.925540e+00 1.653632e+00 2.301676e-01 2.459423e-01 3.064210e-01 4.259728e-01 5.050741e-01 5.541822e-01 6.087306e-01 5.801802e-01 5.803219e-01 5.534006e-01 5.419781e-01 4.901437e-01 1.537849e-01
<GCONST> 1.230226e+02
<MIXTURE> 8 1.000171e-01
<MEAN> 39
 2.708256e+00 -2.908247e+00 -2.927206e+00 -1.042158e+00 2.941494e-01 -1.477469e+00 1.939415e-01 3.187465e+00 -2.996324e-01 -2.240461e+00 4.152046e-01 3.509944e+00 3.379782e+00 -2.357851e-03 2.849352e-01 3.908919e-01 1.498917e-01 -6.197543e-01 -3.928828e-01 1.475949e-01 -8.543409e-02 -1.956533e-01 1.061204e-01 9.279511e-02 1.389681e-01 -2.836050e-01 1.592722e-02 5.489048e-02 -2.192681e-02 -6.857042e-02 3.421223e-02 2.832639e-02 -1.314917e-01 -1.532704e-01 3.828212e-02 8.047666e-02 -7.083762e-03 -1.219480e-01 -5.370665e-02
<VARIANCE> 39
 1.536238e+01 1.971141e+01 2.633699e+01 2.826008e+01 4.936495e+01 3.927763e+01 5.056039e+01 4.951716e+01 4.930566e+01 6.672339e+01 7.156915e+01 7.935459e+01 2.447035e+01 1.959379e-01 4.662041e-01 7.321983e-01 8.401279e-01 1.405045e+00 1.324591e+00 1.595648e+00 1.587162e+00 1.606302e+00 1.619044e+00 1.607254e+00 1.499054e+00 1.398096e-01 3.262661e-02 7.023715e-02 1.067292e-01 1.386409e-01 1.967881e-01 2.183837e-01 2.569974e-01 2.681576e-01 2.592720e-01 2.837307e-01 2.705898e-01 2.607469e-01 1.987097e-02
<GCONST> 9.258456e+01
<TRANSP> 6
 0.000000e+00 1.000000e+00 0.000000e+00 0.000000e+00 0.000000e+00 0.000000e+00
 0.000000e+00 8.324172e-01 1.675828e-01 0.000000e+00 0.000000e+00 0.000000e+00
 0.000000e+00 0.000000e+00 9.239759e-01 7.602413e-02 0.000000e+00 0.000000e+00
 0.000000e+00 0.000000e+00 0.000000e+00 9.088190e-01 9.118099e-02 0.000000e+00
 0.000000e+00 0.000000e+00 0.000000e+00 0.000000e+00 8.199729e-01 1.800271e-01
 0.000000e+00 0.000000e+00 0.000000e+00 0.000000e+00 0.000000e+00 0.000000e+00
<ENDHMM>
