~o
<STREAMINFO> 1 39
<VECSIZE> 39<NULLD><MFCC_D_A_Z_0><DIAGC>
~h "aw"
<BEGINHMM>
<NUMSTATES> 6
<STATE> 2
<NUMMIXES> 8
<MIXTURE> 1 1.245799e-01
<MEAN> 39
 -3.228538e-01 -9.622696e+00 -2.188045e+00 6.701531e-01 4.694404e+00 4.250694e+00 4.069150e+00 3.201534e+00 -6.087424e+00 -2.916897e+00 3.589689e+00 6.591825e+00 9.829887e+00 -5.343026e-02 -3.184097e-01 -1.966444e-01 4.067024e-01 7.637857e-01 6.116083e-02 -6.566374e-01 -1.264411e-01 6.154754e-02 7.686398e-02 2.384997e-01 1.751126e-01 -3.482815e-02 6.780758e-02 4.698368e-02 -2.456874e-02 -1.922274e-01 -1.741753e-01 -2.962659e-01 -1.298492e-01 6.792731e-02 2.796217e-01 -5.559140e-02 -2.442290e-01 -2.033370e-01 -8.488458e-02
<VARIANCE> 39
 1.174789e+01 1.710657e+01 2.140237e+01 2.639148e+01 3.826479e+01 4.119112e+01 4.532742e+01 4.711563e+01 4.795663e+01 5.019247e+01 5.773068e+01 4.443068e+01 1.032317e+01 3.060057e-01 6.320924e-01 8.568614e-01 1.305197e+00 1.650056e+00 1.895227e+00 2.300375e+00 2.347698e+00 2.278322e+00 2.137883e+00 2.124820e+00 1.969482e+00 1.610479e-01 5.356273e-02 9.853771e-02 1.411368e-01 1.755939e-01 2.486072e-01 2.977386e-01 3.604180e-01 3.490095e-01 3.539455e-01 3.629872e-01 3.284293e-01 3.205788e-01 2.585425e-02
<GCONST> 9.722401e+01
<MIXTURE> 2 1.596394e-01
<MEAN> 39
 2.654974e+00 -8.230930e+00 -8.176896e+00 -1.086957e+00 3.648198e+00 2.603038e+00 4.119181e+00 4.310177e+00 5.629985e+00 -4.356791e+00 -6.204376e+00 -2.695968e+00 1.084928e+01 -1.123971e-02 -1.794587e-01 -2.622740e-01 -1.358958e-02 5.144150e-01 3.910545e-01 -9.492189e-02 -3.164272e-01 -6.647746e-03 -9.480091e-02 -6.566274e-02 6.104932e-03 -3.707754e-02 2.633590e-02 6.532580e-02 1.210119e-01 -4.507517e-02 -9.467344e-02 -6.742736e-02 -1.346177e-01 -3.050239e-02 -9.406225e-02 5.766964e-02 1.254289e-01 5.288552e-03 -5.751036e-02
<VARIANCE> 39
 1.104224e+01 1.525008e+01 1.344122e+01 2.490417e+01 3.153263e+01 4.611653e+01 4.212895e+01 4.066849e+01 3.391824e+01 4.665068e+01 2.819092e+01 3.535061e+01 1.886456e+01 2.276244e-01 4.625547e-01 6.285216e-01 8.452110e-01 1.333477e+00 1.417483e+00 1.628836e+00 1.681661e+00 1.702770e+00 1.672458e+00 1.457245e+00 1.278897e+00 1.719205e-01 3.871707e-02 7.696851e-02 9.462884e-02 1.402920e-01 1.910151e-01 2.342227e-01 2.575811e-01 2.723862e-01 2.568960e-01 2.800756e-01 2.435958e-01 2.150764e-01 2.729459e-02
<GCONST> 8.813925e+01
<MIXTURE> 3 8.300547e-02
<MEAN> 39
 2.180929e+00 -7.217975e+00 -2.880123e+00 -3.747681e+00 -8.364248e-01 -4.940157e-01 4.803545e+00 6.849512e+00 9.858363e-01 -2.508065e+00 -2.802537e+00 -1.810628e-01 9.919165e+00 -4.518037e-01 -1.479284e+00 -5.187055e-01 -1.401001e-01 1.512560e+00 1.588527e+00 1.119666e+00 4.151415e-01 -5.372068e-01 -9.496554e-01 -1.908098e-01 2.914003e-01 1.031454e+00 -9.119045e-02 4.847748e-01 1.551572e-01 5.348825e-01 2.176258e-01 -4.466178e-02 -5.331182e-01 -7.789189e-01 -2.071605e-01 9.764319e-02 2.536775e-01 1.639519e-01 -5.670073e-01
<VARIANCE> 39
 1.713996e+01 2.394147e+01 3.097131e+01 3.217108e+01 5.904153e+01 5.573957e+01 6.127165e+01 5.012588e+01 7.814447e+01 5.763994e+01 5.750134e+01 5.934034e+01 2.070565e+01 9.322041e-01 1.646090e+00 2.119361e+00 2.779598e+00 3.185077e+00 2.996277e+00 4.437293e+00 4.783483e+00 4.502681e+00 3.858862e+00 3.608024e+00 3.399444e+00 1.031873e+00 2.559918e-01 2.527940e-01 3.323935e-01 4.520333e-01 5.999019e-01 7.528101e-01 8.037564e-01 7.217144e-01 9.095933e-01 7.718250e-01 6.341661e-01 6.683840e-01 1.735570e-01
<GCONST> 1.242752e+02
<MIXTURE> 4 1.310470e-01
<MEAN> 39
 1.597294e+00 -8.880778e+00 -3.029394e+00 -2.514989e+00 -2.005239e+00 -4.434266e-02 1.541346e+00 3.222832e+00 -6.791760e+00 -9.760191e+00 -3.779355e+00 -1.449784e+00 8.930693e+00 2.689344e-02 -1.884564e-01 -2.155516e-01 1.564988e-01 5.239385e-01 6.703868e-02 -2.894604e-01 -1.498085e-02 5.012985e-02 -1.843026e-01 3.066335e-02 1.425314e-01 4.403343e-03 1.069715e-01 1.683077e-01 1.739899e-01 1.506463e-01 2.095564e-01 1.417587e-01 1.705552e-01 2.546149e-01 3.067322e-01 2.934420e-01 1.229063e-01 1.690277e-01 7.864095e-03
<VARIANCE> 39
 8.360943e+00 2.412834e+01 2.095120e+01 2.549364e+01 4.023111e+01 4.544098e+01 5.020473e+01 4.779729e+01 5.489930e+01 4.614202e+01 4.189933e+01 3.663515e+01 1.345304e+01 1.444464e-01 3.917468e-01 5.455725e-01 7.283619e-01 1.049409e+00 1.105375e+00 1.383668e+00 1.373761e+00 1.460301e+00 1.401395e+00 1.215047e+00 1.108966e+00 7.503165e-02 2.096941e-02 5.224768e-02 7.205832e-02 1.061221e-01 1.382513e-01 1.754341e-01 1.962148e-01 1.976534e-01 2.151330e-01 2.189909e-01 2.095586e-01 1.761713e-01 1.000000e-02
<GCONST> 8.213364e+01
<MIXTURE> 5 8.920180e-02
<MEAN> 39
 2.494375e+00 -1.267162e+01 -9.153097e-01 -5.810642e+00 8.144174e+00 -5.048282e-01 5.923264e+00 3.044316e+00 -2.024343e+00 -6.882334e+00 -2.305286e+00 2.357181e+00 1.065696e+01 -9.004619e-02 -3.911258e-01 -1.020114e-01 1.895153e-01 9.727365e-01 3.423246e-01 -3.911809e-01 -2.977586e-01 -1.143736e-01 -1.054996e-01 3.092405e-01 2.716695e-01 1.007622e-01 1.327754e-02 3.623135e-01 -1.593930e-01 3.223917e-01 -4.163302e-01 5.582846e-02 -3.600686e-01 9.553815e-02 8.180586e-02 2.707449e-01 3.108171e-02 -1.055291e-01 -1.119825e-01
<VARIANCE> 39
 1.687768e+01 2.239602e+01 2.897225e+01 2.713464e+01 5.089360e+01 4.819335e+01 6.299244e+01 7.306378e+01 6.256839e+01 5.540984e+01 5.846358e+01 5.482835e+01 1.428077e+01 4.373281e-01 9.576840e-01 1.125971e+00 1.593000e+00 2.124312e+00 2.173066e+00 2.613578e+00 2.565997e+00 2.383611e+00 2.231296e+00 2.279085e+00 2.032555e+00 2.447258e-01 7.873519e-02 1.243226e-01 1.793710e-01 1.849574e-01 2.359299e-01 3.670016e-01 4.163004e-01 4.356699e-01 4.319746e-01 3.949072e-01 3.803267e-01 3.717256e-01 4.935535e-02
<GCONST> 1.054245e+02
<MIXTURE> 6 1.932175e-01
<MEAN> 39
 2.825462e+00 -8.246872e+00 -4.844503e-01 -7.219943e-01 -1.031612e+00 2.830861e+00 2.759848e+00 8.217294e+00 -2.908136e+00 -6.834932e+00 -2.473476e+00 1.305859e+00 9.789457e+00 3.966894e-02 -1.199181e-01 -2.728815e-01 1.355721e-01 4.791878e-01 1.465690e-01 -2.998071e-01 -1.079948e-02 1.170837e-01 -1.888650e-01 -1.461677e-02 7.529025e-02 -1.480562e-02 -2.532065e-02 5.763305e-03 -1.034901e-01 -8.901136e-02 -7.965959e-02 -1.509394e-01 -1.160210e-01 -1.760934e-01 -1.316178e-02 -2.405798e-02 -6.679911e-02 -1.118281e-01 -3.558127e-02
<VARIANCE> 39
 1.053489e+01 2.674436e+01 1.547252e+01 2.556060e+01 3.667741e+01 4.367785e+01 5.613707e+01 4.030981e+01 6.976289e+01 4.271567e+01 3.381890e+01 3.226084e+01 1.685199e+01 1.273620e-01 3.138022e-01 4.302419e-01 5.308211e-01 8.184546e-01 8.692995e-01 1.030206e+00 1.054917e+00 1.083229e+00 1.027071e+00 9.246390e-01 8.999056e-01 6.978568e-02 1.822026e-02 4.618401e-02 5.883129e-02 8.431971e-02 1.154228e-01 1.331050e-01 1.681612e-01 1.608785e-01 1.793604e-01 1.813147e-01 1.598659e-01 1.499593e-01 1.000000e-02
<GCONST> 7.659348e+01
<MIXTURE> 7 1.263958e-01
<MEAN> 39
 2.484746e+00 -4.782594e+00 -5.083570e-01 -1.757028e+00 -4.979185e+00 -7.379888e-01 5.003719e+00 6.936704e+00 -9.576716e-01 -4.639297e+00 -2.835229e+00 -7.321821e-01 8.400654e+00 -1.474969e-01 -7.831919e-01 -6.126698e-01 6.413870e-02 8.944005e-01 8.270897e-01 4.544863e-01 6.589348e-02 -3.367598e-01 -8.575832e-01 -2.167331e-01 8.771410e-02 2.973460e-01 3.695257e-02 1.789767e-01 4.720929e-02 1.386570e-01 1.682022e-01 -2.067673e-01 -4.092606e-01 -3.943995e-01 -5.539313e-03 1.093873e-01 7.396681e-02 5.640645e-02 -2.005679e-01
<VARIANCE> 39
 7.921201e+00 1.787535e+01 2.010035e+01 2.508786e+01 3.085773e+01 3.695699e+01 4.223711e+01 3.927751e+01 6.426984e+01 4.278255e+01 3.291193e+01 3.389217e+01 1.513198e+01 2.402621e-01 5.851510e-01 8.321733e-01 1.111385e+00 1.371104e+00 1.606293e+00 1.993445e+00 2.073195e+00 2.235404e+00 1.837282e+00 1.836819e+00 1.680652e+00 1.662331e-01 4.099704e-02 9.570396e-02 1.257932e-01 1.648264e-01 2.106597e-01 2.644510e-01 2.867512e-01 3.254234e-01 3.433909e-01 3.055872e-01 2.795780e-01 2.557349e-01 3.118199e-02
<GCONST> 9.283698e+01
<MIXTURE> 8 9.291323e-02
<MEAN> 39
 1.530959e+00 -7.267982e+00 -4.948201e+00 9.256579e-01 3.248032e+00 3.454811e+00 -1.389624e-01 2.083505e+00 5.996361e-01 -3.389974e+00 -1.459119e+00 2.334853e-01 7.104078e+00 5.468531e-02 -1.970627e-01 -1.252024e-01 8.844534e-02 2.709914e-01 1.399082e-01 -3.396849e-01 -3.069361e-02 9.844775e-02 -4.984929e-02 9.753089e-03 -5.080286e-02 1.351877e-01 5.510396e-03 8.172989e-02 1.699376e-01 -1.344401e-01 6.169388e-02 -1.360572e-01 1.272347e-01 4.884684e-02 -3.197007e-04 6.699073e-02 2.636975e-02 6.181596e-02 -9.326088e-02
<VARIANCE> 39
 3.191760e+01 4.571808e+01 4.412115e+01 4.469097e+01 5.848449e+01 5.491603e+01 6.070638e+01 5.485603e+01 5.637860e+01 6.131804e+01 5.590222e+01 5.464506e+01 6.697825e+01 8.875687e-01 1.487543e+00 1.581385e+00 1.901266e+00 2.280492e+00 2.508503e+00 2.790694e+00 2.609891e+00 2.580684e+00 2.370094e+00 2.329406e+00 2.118850e+00 9.617512e-01 1.662156e-01 2.608463e-01 2.803708e-01 3.305544e-01 3.760061e-01 4.696446e-01 4.538828e-01 4.465875e-01 4.318373e-01 4.434393e-01 4.231283e-01 3.828391e-01 1.589472e-01
<GCONST> 1.174295e+02
<STATE> 3
<NUMMIXES> 8
<MIXTURE> 1 1.343455e-01
<MEAN> 39
 1.532090e+00 -9.815681e+00 -3.261811e+00 4.962526e-01 9.584945e+00 2.833640e+00 -8.554967e-01 5.942400e+00 -2.835520e+00 -1.628562e+00 4.086776e+00 8.714549e+00 1.008251e+01 9.398364e-02 1.046241e-01 -9.010078e-03 5.680481e-02 2.166121e-01 7.041360e-02 -1.000791e-01 1.186034e-01 1.629312e-01 3.265157e-02 -5.777922e-03 -3.129803e-02 -3.100255e-02 -1.089424e-01 -1.300106e-01 -2.035304e-01 -2.150793e-01 -2.214396e-01 -2.098362e-01 -1.688520e-01 -1.669250e-01 -9.723347e-02 -1.192840e-01 -6.586514e-02 -5.359352e-02 -5.042525e-02
<VARIANCE> 39
 1.247322e+01 1.627602e+01 2.346406e+01 2.913445e+01 4.287627e+01 3.673979e+01 4.987319e+01 4.862468e+01 4.785178e+01 4.342656e+01 5.444239e+01 5.249510e+01 1.749181e+01 1.088415e-01 2.302509e-01 3.227877e-01 4.084688e-01 5.159289e-01 5.392471e-01 5.992947e-01 6.418315e-01 6.530891e-01 6.086176e-01 6.070650e-01 6.366472e-01 4.067610e-02 1.658961e-02 3.853634e-02 5.029630e-02 7.194442e-02 7.984211e-02 9.390722e-02 1.079206e-01 1.207566e-01 1.217181e-01 1.232007e-01 1.258352e-01 1.340678e-01 1.000000e-02
<GCONST> 6.901206e+01
<MIXTURE> 2 1.245330e-01
<MEAN> 39
 2.275880e+00 -7.495293e+00 -4.872969e+00 -9.014161e-01 4.088011e+00 2.144493e+00 -3.017150e-01 6.805878e+00 8.412924e-01 -5.713098e+00 -2.124979e+00 1.825161e+00 9.515585e+00 -1.568415e-02 -4.381840e-02 -1.506334e-01 -1.334808e-01 5.947466e-02 -5.404039e-02 -2.190481e-01 -1.282872e-01 2.911047e-04 -6.143855e-02 -9.248906e-02 -1.057950e-01 -3.983797e-02 -6.336737e-03 -9.361028e-03 -1.305317e-02 -4.141251e-02 -1.906104e-02 -3.903367e-02 -1.938563e-02 -3.868349e-02 -2.276146e-02 4.093117e-03 -2.818917e-02 -1.622222e-02 -9.754278e-03
<VARIANCE> 39
 8.334532e+00 1.690479e+01 1.959726e+01 2.290060e+01 4.006772e+01 3.912036e+01 5.571280e+01 3.995990e+01 5.856501e+01 4.069485e+01 3.854326e+01 4.158126e+01 1.774825e+01 3.537054e-02 8.493862e-02 1.337426e-01 1.634632e-01 2.595538e-01 2.751055e-01 3.219899e-01 3.271244e-01 3.494765e-01 3.247452e-01 3.286425e-01 3.046643e-01 1.757341e-02 1.000000e-02 1.361438e-02 2.291547e-02 2.921306e-02 4.326490e-02 4.566046e-02 5.388852e-02 5.800462e-02 6.292461e-02 5.950288e-02 5.960396e-02 5.470795e-02 1.000000e-02
<GCONST> 4.866515e+01
<MIXTURE> 3 1.254427e-01
<MEAN> 39
 2.372457e+00 -7.201219e+00 -4.363504e+00 -5.848783e-01 5.109336e+00 6.007420e-02 -3.690659e-01 6.102076e+00 -3.597701e+00 -7.096495e+00 -1.166598e+00 2.780780e+00 7.684474e+00 2.223872e-01 3.004380e-01 2.082737e-01 3.912295e-01 5.761618e-01 3.776831e-01 2.369550e-01 4.338235e-01 4.511676e-01 3.051848e-01 1.295784e-01 1.873987e-01 3.951238e-02 -4.117681e-03 9.899111e-04 -1.343209e-02 -2.913563e-02 -3.187674e-02 4.434252e-03 -3.354730e-02 -5.182355e-02 2.806330e-02 5.820344e-03 -3.238403e-02 -3.366304e-02 -7.748436e-03
<VARIANCE> 39
 6.595762e+00 1.565081e+01 2.007585e+01 2.468484e+01 4.676281e+01 3.651468e+01 5.013738e+01 4.150878e+01 4.718016e+01 3.875969e+01 4.199523e+01 3.673493e+01 9.643117e+00 6.473041e-02 1.620825e-01 2.775837e-01 3.016696e-01 4.629407e-01 5.248806e-01 5.893487e-01 5.551577e-01 6.573198e-01 6.748136e-01 6.435274e-01 5.628559e-01 3.010439e-02 1.000000e-02 2.334056e-02 3.989310e-02 5.452396e-02 7.721701e-02 8.478726e-02 9.773479e-02 1.003233e-01 1.064504e-01 1.101888e-01 1.057785e-01 9.170017e-02 1.000000e-02
<GCONST> 6.198807e+01
<MIXTURE> 4 1.325526e-01
<MEAN> 39
 2.159812e+00 -8.601406e+00 -5.445819e+00 -4.720590e-02 7.591321e+00 1.837095e+00 -9.440165e-01 4.874414e+00 -1.157208e+00 -5.965297e+00 -4.756673e-01 3.364958e+00 8.824941e+00 -2.246950e-01 -3.481946e-01 -6.704413e-01 -6.524683e-01 -3.717191e-01 -6.024510e-01 -8.952807e-01 -6.286035e-01 -3.271857e-01 -3.419460e-01 -4.041027e-01 -3.640715e-01 -2.076710e-01 -2.901408e-02 -2.954026e-02 -5.546604e-02 -1.136511e-01 -1.208851e-01 -7.007534e-02 -8.141742e-02 -8.229974e-02 -7.212228e-02 -2.352350e-02 -6.773091e-02 -6.334411e-02 -2.558987e-02
<VARIANCE> 39
 9.275970e+00 1.596270e+01 2.216547e+01 2.689417e+01 4.326241e+01 4.093389e+01 4.949485e+01 4.471100e+01 5.426287e+01 4.101051e+01 4.764629e+01 4.606736e+01 1.202489e+01 1.106346e-01 2.428685e-01 3.258844e-01 4.557379e-01 6.942234e-01 6.601982e-01 8.036414e-01 8.305375e-01 8.630907e-01 8.981940e-01 8.602858e-01 8.703514e-01 4.843527e-02 1.609020e-02 3.781026e-02 5.504574e-02 7.906462e-02 1.114149e-01 1.161512e-01 1.327409e-01 1.393306e-01 1.454521e-01 1.510149e-01 1.346623e-01 1.274938e-01 1.000000e-02
<GCONST> 7.218792e+01
<MIXTURE> 5 1.262023e-01
<MEAN> 39
 3.045141e+00 -8.129238e+00 -8.276234e+00 -2.456285e+00 5.404778e+00 5.362611e+00 9.680313e-01 1.600546e+00 7.414889e+00 -2.884234e+00 -6.314032e+00 -2.319690e+00 1.058410e+01 1.212695e-01 1.116524e-01 1.219619e-02 -8.307093e-02 1.949052e-01 3.665017e-01 -6.735957e-02 -1.657513e-01 2.394489e-01 2.716093e-01 1.645944e-01 -8.528218e-02 -5.750529e-02 1.159138e-02 2.568777e-02 1.422137e-02 -2.105846e-02 -4.393579e-02 -3.113524e-02 -2.516265e-02 3.830992e-02 -5.481417e-02 -5.091329e-03 5.867250e-02 -1.103639e-02 -1.980887e-02
<VARIANCE> 39
 1.050388e+01 1.198157e+01 1.451028e+01 2.362253e+01 3.042773e+01 4.050222e+01 4.127134e+01 4.435895e+01 3.210886e+01 3.932959e+01 2.642200e+01 3.349088e+01 1.591281e+01 7.979043e-02 1.753603e-01 2.371412e-01 3.724265e-01 5.264117e-01 5.869105e-01 6.651467e-01 7.317667e-01 7.379612e-01 7.133399e-01 6.482882e-01 5.973326e-01 4.330466e-02 1.247768e-02 2.784833e-02 3.919677e-02 6.299335e-02 8.439126e-02 1.019279e-01 1.145654e-01 1.224190e-01 1.226821e-01 1.209051e-01 1.110546e-01 1.022707e-01 1.000000e-02
<GCONST> 6.406643e+01
<MIXTURE> 6 1.118677e-01
<MEAN> 39
 1.234982e+00 -1.003347e+01 -6.437160e+00 -2.447165e+00 4.917891e+00 1.255383e-01 -2.731837e+00 3.408287e+00 -3.421455e+00 -6.504539e+00 -1.625018e+00 2.470362e+00 9.126431e+00 -3.973650e-02 -8.430165e-02 -2.426713e-01 -2.113719e-01 -7.245967e-04 -1.481265e-01 -3.473089e-01 -1.655070e-01 -3.851319e-02 -8.381680e-02 -1.389802e-01 -1.036224e-01 -7.438981e-02 1.102769e-01 1.754519e-01 1.915686e-01 2.008231e-01 2.021533e-01 2.306756e-01 2.354687e-01 2.133129e-01 2.145275e-01 1.726763e-01 1.251372e-01 9.978528e-02 3.272818e-02
<VARIANCE> 39
 9.205511e+00 1.611875e+01 2.175241e+01 2.622539e+01 4.322378e+01 4.030534e+01 5.196755e+01 4.600609e+01 5.466518e+01 4.725479e+01 5.576631e+01 6.554684e+01 1.575480e+01 6.735551e-02 1.544281e-01 2.337603e-01 3.232124e-01 4.351239e-01 4.486484e-01 5.361211e-01 5.427511e-01 5.660738e-01 5.684861e-01 5.251567e-01 5.119116e-01 2.795762e-02 1.000000e-02 2.090295e-02 3.537875e-02 4.867022e-02 6.585471e-02 7.224525e-02 8.339192e-02 9.427191e-02 9.859326e-02 1.063332e-01 1.020808e-01 9.866746e-02 1.000000e-02
<GCONST> 6.224997e+01
<MIXTURE> 7 1.291257e-01
<MEAN> 39
 1.047271e+00 -8.376950e+00 -3.746615e+00 1.447826e+00 9.314535e+00 2.351241e+00 -1.120535e+00 4.724178e+00 6.935624e-01 -3.042763e+00 2.459375e+00 5.460230e+00 8.246788e+00 1.945758e-01 2.221333e-01 -4.493591e-02 -6.514746e-03 3.237737e-01 1.643445e-01 -1.343640e-01 1.201175e-01 3.088918e-01 1.044812e-01 -6.193840e-02 -1.687958e-01 -1.105664e-01 -4.688089e-02 -4.508345e-02 -1.123034e-01 -1.955970e-01 -2.235210e-01 -1.390542e-01 -1.039264e-01 -1.436588e-01 -1.310557e-01 -9.331247e-03 -4.849047e-02 -5.986550e-02 -6.917761e-02
<VARIANCE> 39
 1.623312e+01 2.832388e+01 2.962271e+01 3.685379e+01 5.776758e+01 4.720692e+01 5.869022e+01 5.785797e+01 5.326681e+01 5.404441e+01 7.061885e+01 6.801507e+01 2.965661e+01 3.698106e-01 6.444186e-01 9.293262e-01 1.174126e+00 1.547412e+00 1.685219e+00 1.821976e+00 1.895506e+00 1.856657e+00 1.826503e+00 1.898820e+00 1.731033e+00 1.999682e-01 5.435588e-02 1.034825e-01 1.434625e-01 1.807364e-01 2.335341e-01 2.716058e-01 2.750849e-01 3.240125e-01 3.020795e-01 3.170206e-01 3.116029e-01 3.080065e-01 2.607235e-02
<GCONST> 9.998417e+01
<MIXTURE> 8 1.159305e-01
<MEAN> 39
 -2.654203e-01 -1.181997e+01 -6.272444e+00 -1.859316e+00 7.314617e+00 -3.024854e-01 -4.070663e+00 3.551390e+00 -3.146664e+00 -3.490745e+00 3.477728e+00 8.000489e+00 8.925128e+00 1.692357e-01 2.118700e-01 2.596308e-02 1.111098e-01 3.166248e-01 1.609718e-01 -9.669345e-02 1.895200e-01 3.036899e-01 9.129221e-02 -1.123584e-02 -3.930835e-02 -4.846323e-02 1.788401e-01 2.619228e-01 2.657222e-01 2.517831e-01 2.366482e-01 2.804903e-01 3.003073e-01 2.173543e-01 1.955196e-01 9.801129e-02 -4.244502e-03 -7.828700e-02 5.343854e-02
<VARIANCE> 39
 1.274262e+01 1.865392e+01 2.751321e+01 3.132756e+01 4.966665e+01 4.218966e+01 5.415244e+01 5.280069e+01 5.390923e+01 5.330124e+01 7.018502e+01 6.372077e+01 1.661889e+01 2.291090e-01 4.461564e-01 6.410401e-01 8.142852e-01 1.054110e+00 1.084239e+00 1.182567e+00 1.218239e+00 1.190949e+00 1.142725e+00 1.126238e+00 1.112102e+00 8.956105e-02 2.705460e-02 5.509502e-02 8.484343e-02 1.118944e-01 1.506140e-01 1.552277e-01 1.727154e-01 2.014343e-01 1.924842e-01 2.077608e-01 2.075752e-01 1.967909e-01 1.033843e-02
<GCONST> 8.511214e+01
<STATE> 4
<NUMMIXES> 8
<MIXTURE> 1 1.128104e-01
<MEAN> 39
 3.199055e+00 -7.594866e+00 -7.792429e+00 -2.817136e+00 1.059576e+01 3.098674e+00 -6.484392e+00 5.690479e+00 1.802275e-01 -4.017734e+00 -2.607604e+00 3.430223e-01 7.319171e+00 2.365719e-01 4.840611e-01 -3.139721e-01 -5.569862e-01 -3.940141e-01 -1.124739e-01 -2.876198e-01 -3.260900e-01 1.817390e-01 3.336245e-01 -1.853058e-01 -6.295108e-01 -3.798580e-01 5.699242e-02 8.831182e-02 1.522716e-01 -6.291493e-02 -2.424404e-01 -1.277393e-01 2.198348e-01 -2.793424e-01 6.927277e-03 4.218986e-02 1.491305e-01 -5.331760e-02 -9.539238e-02
<VARIANCE> 39
 9.726447e+00 1.780562e+01 2.033419e+01 3.097514e+01 4.329840e+01 5.255668e+01 5.247129e+01 4.436591e+01 5.283378e+01 5.201199e+01 6.070493e+01 6.093457e+01 1.203283e+01 3.955789e-01 7.713432e-01 1.105291e+00 1.561475e+00 2.079738e+00 2.169730e+00 2.661976e+00 2.660379e+00 2.632209e+00 2.532577e+00 2.377423e+00 2.252077e+00 2.176482e-01 5.294043e-02 1.114431e-01 1.572170e-01 2.148530e-01 2.912219e-01 3.369111e-01 3.893562e-01 3.540166e-01 4.118069e-01 4.054730e-01 3.615095e-01 3.560699e-01 3.105630e-02
<GCONST> 1.021191e+02
<MIXTURE> 2 1.238720e-01
<MEAN> 39
 4.979900e+00 -5.683401e+00 -1.009604e+01 -2.358550e+00 6.988007e+00 5.420836e+00 -1.223302e+00 -1.429487e+00 6.726371e+00 -1.888773e+00 -4.337739e+00 -4.568458e+00 7.383756e+00 3.358745e-01 5.493487e-01 -1.581346e-01 -5.058939e-01 -2.545019e-02 4.633467e-01 -2.330065e-01 -4.829574e-01 -3.605521e-02 6.498573e-01 4.959567e-01 -3.451676e-01 -3.632076e-01 1.705093e-02 5.123027e-02 1.225181e-01 -9.982319e-02 -1.235352e-01 -4.914971e-02 -1.020241e-02 1.052203e-01 -2.272168e-01 -4.965647e-02 1.501579e-01 1.075878e-01 -5.466503e-02
<VARIANCE> 39
 8.510515e+00 1.815194e+01 1.537755e+01 2.736997e+01 3.149725e+01 4.073969e+01 4.090663e+01 3.280653e+01 3.302000e+01 4.441322e+01 3.292520e+01 3.066703e+01 1.223025e+01 1.384766e-01 3.978583e-01 5.534015e-01 7.822494e-01 1.102643e+00 1.240712e+00 1.394349e+00 1.419795e+00 1.509378e+00 1.451447e+00 1.487008e+00 1.320440e+00 9.084373e-02 2.014946e-02 5.309166e-02 7.250421e-02 1.040813e-01 1.543426e-01 1.629182e-01 1.959350e-01 1.777693e-01 1.889022e-01 2.034990e-01 1.862731e-01 1.781379e-01 1.176814e-02
<GCONST> 8.027733e+01
<MIXTURE> 3 1.566873e-01
<MEAN> 39
 4.043883e+00 -2.252283e+00 -4.601006e+00 1.124767e-01 3.985291e+00 -6.238194e-01 -2.034385e+00 4.957385e+00 -4.334426e-01 -8.198456e+00 -5.519176e+00 -1.744553e+00 4.077164e+00 7.957928e-02 1.248028e-01 -7.817112e-02 -3.999375e-02 1.030925e-01 -2.258681e-02 -2.779988e-01 -8.804341e-02 2.261968e-01 1.339838e-01 -1.265979e-01 -2.154184e-01 -1.242398e-01 -1.413002e-02 -3.717645e-02 -5.192493e-02 -7.919072e-02 -2.838452e-02 1.346061e-02 -8.097502e-02 -1.441394e-01 -2.287373e-02 6.053807e-02 3.022439e-03 -9.484022e-02 -6.334361e-03
<VARIANCE> 39
 5.474256e+00 1.120229e+01 1.441949e+01 2.245021e+01 3.431084e+01 3.448770e+01 4.739797e+01 3.929934e+01 5.557308e+01 4.565594e+01 4.089671e+01 3.560045e+01 6.940264e+00 1.233314e-01 3.029051e-01 5.048330e-01 6.624247e-01 9.573206e-01 1.044035e+00 1.303456e+00 1.326212e+00 1.342990e+00 1.301081e+00 1.220618e+00 1.122983e+00 8.635180e-02 1.770394e-02 4.622769e-02 7.858656e-02 1.072821e-01 1.528763e-01 1.718619e-01 2.075310e-01 2.112026e-01 2.364433e-01 2.285447e-01 2.159581e-01 1.875727e-01 1.000000e-02
<GCONST> 7.844696e+01
<MIXTURE> 4 1.212298e-01
<MEAN> 39
 6.178719e+00 -5.810553e+00 -7.165427e+00 -5.925364e+00 8.640499e+00 8.751427e+00 -8.955098e+00 5.334201e+00 2.019504e+00 -1.413410e+00 -7.205423e-01 -5.710162e+00 7.651322e+00 1.643037e-01 3.842750e-01 -2.906790e-02 -1.847292e-01 -9.363709e-02 1.745691e-01 3.320889e-02 -2.602082e-01 -3.918181e-02 3.532694e-01 2.926496e-01 -8.858322e-02 -2.038166e-01 -8.065388e-02 -3.222862e-02 -8.133702e-02 -5.069848e-02 -2.031691e-01 -3.164276e-01 7.970422e-02 -2.687266e-01 -9.499598e-02 -1.633662e-01 -1.627649e-01 3.548225e-02 -3.225780e-02
<VARIANCE> 39
 9.007028e+00 2.134638e+01 1.757205e+01 3.405986e+01 5.063075e+01 5.602684e+01 4.432932e+01 3.971542e+01 6.147057e+01 5.689472e+01 5.214326e+01 4.244334e+01 1.721708e+01 1.430637e-01 3.759064e-01 4.927369e-01 7.213332e-01 9.244812e-01 1.129750e+00 1.226949e+00 1.356976e+00 1.413050e+00 1.352213e+00 1.275687e+00 1.176326e+00 8.407176e-02 1.922846e-02 5.636573e-02 7.457525e-02 1.083910e-01 1.479122e-01 1.595571e-01 2.231261e-01 1.666141e-01 2.365177e-01 2.134826e-01 1.962719e-01 1.890601e-01 1.000000e-02
<GCONST> 8.306655e+01
<MIXTURE> 5 1.135605e-01
<MEAN> 39
 4.277555e+00 -5.426588e+00 -9.368414e+00 -5.494813e+00 5.489929e+00 5.840562e-01 -7.950543e+00 6.785244e-03 -1.715548e+00 -6.682632e+00 -6.324832e+00 -6.486625e+00 5.784311e+00 1.206914e-01 2.602944e-01 -7.936843e-02 -1.988877e-01 -4.595833e-02 1.027672e-01 -1.363835e-01 -2.056768e-01 8.059917e-02 2.380142e-01 7.930119e-02 -2.032610e-01 -1.731715e-01 1.152494e-01 1.800676e-01 2.571404e-01 2.507967e-01 2.036497e-01 2.688221e-01 3.645230e-01 2.904176e-01 2.756717e-01 2.565009e-01 2.748042e-01 2.567642e-01 3.299328e-02
<VARIANCE> 39
 8.225101e+00 1.830757e+01 2.059656e+01 3.416184e+01 4.390899e+01 5.468878e+01 4.828635e+01 5.039088e+01 5.254050e+01 5.832900e+01 4.962377e+01 4.322520e+01 1.267706e+01 1.271852e-01 3.366743e-01 5.059832e-01 7.145220e-01 9.638669e-01 1.096168e+00 1.259294e+00 1.213067e+00 1.303949e+00 1.282698e+00 1.156762e+00 1.112831e+00 7.643753e-02 1.611729e-02 4.193371e-02 7.012974e-02 9.449937e-02 1.314755e-01 1.524802e-01 1.645874e-01 1.678674e-01 1.842942e-01 2.004455e-01 1.868200e-01 1.680090e-01 1.000000e-02
<GCONST> 8.039364e+01
<MIXTURE> 6 1.180277e-01
<MEAN> 39
 5.970166e+00 -2.054992e+00 -8.041645e+00 -8.515711e+00 2.291576e+00 1.046540e+01 -7.491320e-01 -3.764333e+00 2.834064e+00 1.091417e+00 1.872559e+00 -9.613242e-01 6.410934e+00 7.490706e-02 2.641294e-01 1.260923e-01 -1.199317e-01 -3.304068e-01 -3.775630e-03 1.066349e-01 -6.495155e-02 -2.502352e-01 -9.685042e-02 2.087635e-01 3.352921e-01 -1.674303e-01 -8.823252e-03 -3.961916e-02 2.412830e-02 6.844793e-02 2.655447e-02 -1.625722e-01 -8.655126e-02 1.099687e-01 3.525042e-02 -4.091381e-02 -1.026049e-01 -5.252556e-02 -2.537932e-03
<VARIANCE> 39
 1.159069e+01 1.540801e+01 1.983825e+01 3.066475e+01 4.549285e+01 3.663706e+01 4.912317e+01 3.450146e+01 5.697757e+01 4.880979e+01 4.255075e+01 4.751443e+01 1.417548e+01 1.003069e-01 2.957851e-01 3.544509e-01 5.573768e-01 7.261317e-01 8.789428e-01 9.568956e-01 9.481522e-01 1.045728e+00 1.058173e+00 1.017799e+00 9.773059e-01 7.049889e-02 1.513014e-02 3.724314e-02 5.762455e-02 8.843791e-02 1.079058e-01 1.401831e-01 1.447020e-01 1.575641e-01 1.717022e-01 1.864051e-01 1.674869e-01 1.584911e-01 1.000000e-02
<GCONST> 7.567005e+01
<MIXTURE> 7 1.695403e-01
<MEAN> 39
 5.480713e+00 -1.546444e+00 -7.348354e+00 -2.223618e+00 5.827632e+00 2.466170e+00 -4.729868e+00 1.731223e+00 2.816036e+00 -3.890665e+00 -4.950548e+00 -4.387771e+00 4.092605e+00 6.452049e-02 9.893948e-02 -5.479920e-02 -9.349861e-02 1.561968e-02 6.946842e-02 -9.078301e-02 -1.943421e-01 -2.124782e-02 1.455454e-01 7.321051e-02 -1.119545e-01 -9.630650e-02 -1.078804e-02 -7.594972e-03 2.070983e-02 -1.868828e-02 -5.034572e-02 -1.366762e-02 6.764337e-03 -1.271817e-02 -3.371051e-02 -2.691058e-02 4.656429e-03 1.513025e-02 -5.544039e-03
<VARIANCE> 39
 6.070026e+00 1.155249e+01 1.446496e+01 2.439933e+01 3.125281e+01 3.782775e+01 4.740984e+01 3.831754e+01 5.787610e+01 5.342468e+01 3.719149e+01 3.280781e+01 8.934220e+00 4.734024e-02 1.288679e-01 2.095213e-01 2.942871e-01 4.098542e-01 4.757348e-01 5.659243e-01 5.921183e-01 6.182605e-01 6.054174e-01 5.903776e-01 5.297079e-01 3.260544e-02 1.000000e-02 2.166332e-02 3.689345e-02 5.230321e-02 7.514150e-02 8.458214e-02 1.009270e-01 1.025574e-01 1.144427e-01 1.111519e-01 1.034592e-01 9.924625e-02 1.000000e-02
<GCONST> 5.965953e+01
<MIXTURE> 8 8.427193e-02
<MEAN> 39
 5.146371e+00 -7.480512e+00 -4.603882e+00 -7.931551e+00 9.849435e+00 1.760386e+00 1.550454e+00 -3.489013e+00 4.874243e+00 -3.594756e+00 8.318621e-02 -3.327849e+00 6.535598e+00 1.824267e-01 3.713988e-01 -1.037471e-02 -3.071874e-01 -3.190306e-01 1.012084e-02 -5.072754e-02 -9.810559e-02 1.361459e-02 1.770220e-01 7.088905e-02 -1.584577e-01 -2.591842e-01 -6.724085e-02 1.436585e-01 -9.658233e-02 2.399979e-01 -2.651877e-01 1.311650e-01 -2.751362e-01 3.071907e-01 -2.250276e-01 1.334557e-01 -1.419769e-01 1.654401e-01 -5.057780e-05
<VARIANCE> 39
 2.467539e+01 3.730075e+01 3.621076e+01 6.541055e+01 8.161121e+01 7.445129e+01 6.844723e+01 5.513910e+01 6.553041e+01 7.203143e+01 6.226155e+01 6.010861e+01 3.856788e+01 4.247955e-01 8.009347e-01 1.030065e+00 1.593177e+00 1.741224e+00 1.981430e+00 2.075998e+00 2.137169e+00 2.219799e+00 2.154289e+00 2.060302e+00 1.821695e+00 2.677521e-01 7.016263e-02 1.443228e-01 1.802451e-01 2.569709e-01 3.314915e-01 3.504856e-01 3.596584e-01 3.630026e-01 4.015744e-01 4.106447e-01 3.465184e-01 3.236609e-01 3.813837e-02
<GCONST> 1.081648e+02
<STATE> 5
<NUMMIXES> 8
<MIXTURE> 1 8.991357e-02
<MEAN> 39
 3.879611e+00 -6.748326e+00 -6.087778e+00 -5.255967e+00 4.794633e+00 1.378108e+00 -2.488130e+00 4.610319e+00 2.741455e+00 -5.570935e-01 -1.069243e+00 8.538040e-01 7.095428e+00 3.439162e-01 9.738625e-01 6.453719e-01 1.712052e-01 -1.651068e+00 -1.246300e+00 -5.707166e-01 -6.519789e-01 4.349870e-02 4.140082e-01 -1.577556e-02 -1.186296e-01 -9.381172e-01 -3.518447e-02 3.034073e-01 2.571407e-01 4.125813e-01 3.455113e-02 -6.717270e-02 -1.640515e-01 -4.881755e-01 -2.553695e-01 -1.210920e-01 7.432566e-02 -1.800190e-02 -3.082446e-01
<VARIANCE> 39
 2.081440e+01 2.110640e+01 3.801547e+01 4.513757e+01 7.117358e+01 7.034787e+01 7.999722e+01 6.887503e+01 7.739529e+01 7.075884e+01 8.888009e+01 8.791969e+01 2.503961e+01 8.152158e-01 1.697968e+00 2.202679e+00 2.668432e+00 3.251818e+00 3.611472e+00 4.412141e+00 4.591128e+00 4.133459e+00 3.985038e+00 3.665527e+00 3.348367e+00 7.916704e-01 1.534053e-01 2.220548e-01 3.531227e-01 4.442531e-01 6.082021e-01 6.508721e-01 7.844464e-01 7.015091e-01 7.550068e-01 7.258419e-01 6.716111e-01 6.682964e-01 1.198037e-01
<GCONST> 1.254987e+02
<MIXTURE> 2 1.020402e-01
<MEAN> 39
 3.863805e+00 3.850380e+00 -1.777453e+00 1.263929e+00 4.454284e+00 1.289102e+00 -3.643225e+00 -4.763329e+00 -2.489788e+00 -3.412117e+00 -3.082254e+00 -4.343013e+00 -4.694325e+00 -9.071513e-01 9.548952e-02 5.707597e-01 8.560889e-01 1.130088e-01 1.185547e-01 8.224642e-01 2.364718e-01 2.722456e-02 1.359822e-01 8.191741e-02 1.187099e-01 -9.917921e-01 -1.187151e-01 -2.757919e-01 -2.805258e-01 -3.781563e-01 -1.305045e-01 5.432148e-02 6.089665e-02 3.203374e-01 2.951936e-01 2.222739e-01 2.128345e-01 1.733695e-01 2.654033e-01
<VARIANCE> 39
 2.436423e+01 2.848505e+01 3.365809e+01 3.911999e+01 4.578320e+01 4.762770e+01 4.665797e+01 4.680225e+01 4.628426e+01 5.399127e+01 4.215724e+01 4.419479e+01 3.362645e+01 1.410003e+00 1.475867e+00 2.130457e+00 2.790580e+00 2.576184e+00 2.888588e+00 3.200743e+00 3.231678e+00 3.283370e+00 3.295888e+00 2.843613e+00 2.663381e+00 1.604724e+00 1.897983e-01 2.155260e-01 3.230742e-01 3.852972e-01 4.628771e-01 5.177935e-01 5.476865e-01 5.611267e-01 5.938550e-01 6.095418e-01 4.871769e-01 4.586579e-01 1.673504e-01
<GCONST> 1.191949e+02
<MIXTURE> 3 2.117092e-01
<MEAN> 39
 7.307263e+00 4.987495e+00 -4.651797e+00 -5.142390e+00 1.092707e+00 4.728763e+00 -1.735394e+00 -4.084101e+00 -2.169536e+00 -6.626236e-01 1.102770e+00 -3.521624e-01 -7.004769e-01 -4.644527e-03 8.698931e-02 1.489363e-01 8.841590e-02 -9.228474e-02 -1.165485e-01 9.907025e-03 -1.811432e-02 -7.269406e-02 1.081609e-02 -1.983083e-02 3.678941e-02 -1.245376e-01 -1.564125e-02 -3.756135e-02 -1.394566e-02 1.129295e-02 2.367852e-02 -2.357377e-02 -6.280354e-02 -1.309152e-02 1.954718e-02 2.120266e-04 -2.345918e-02 -4.896070e-02 8.633663e-03
<VARIANCE> 39
 1.030239e+01 1.646397e+01 2.339225e+01 3.989219e+01 4.906577e+01 4.170313e+01 4.088318e+01 3.716216e+01 4.183897e+01 4.896246e+01 4.671251e+01 5.346783e+01 1.368212e+01 8.470830e-02 2.368330e-01 3.923090e-01 5.608206e-01 7.026187e-01 8.218731e-01 9.186029e-01 9.420024e-01 1.032700e+00 9.856747e-01 1.033193e+00 9.076570e-01 7.613128e-02 1.396063e-02 3.988322e-02 6.265725e-02 9.768124e-02 1.240411e-01 1.478479e-01 1.691290e-01 1.721832e-01 1.886966e-01 1.868349e-01 1.852701e-01 1.626386e-01 1.000000e-02
<GCONST> 7.634769e+01
<MIXTURE> 4 1.007320e-01
<MEAN> 39
 6.376915e+00 -3.077328e+00 -9.670300e+00 -7.515005e+00 4.943470e+00 8.912129e+00 -4.406866e+00 -2.704389e+00 3.991841e+00 1.307676e+00 1.750579e+00 -4.860603e+00 5.528633e+00 3.632067e-01 9.468479e-01 4.306118e-01 -1.299950e-01 -8.927421e-01 -5.106359e-01 3.960207e-02 -4.113261e-01 -6.978592e-01 2.243407e-01 4.638506e-01 5.770286e-01 -7.632850e-01 -6.704692e-02 5.989684e-02 3.214524e-01 3.063691e-01 -4.221198e-02 -4.337664e-01 8.386203e-02 1.182554e-01 -1.879764e-01 -2.850913e-01 -2.812098e-01 2.119582e-01 -1.493645e-01
<VARIANCE> 39
 1.033042e+01 1.652426e+01 1.850014e+01 3.539220e+01 4.178608e+01 4.335720e+01 4.866479e+01 3.444219e+01 4.643720e+01 4.519357e+01 4.869096e+01 4.307199e+01 1.379789e+01 3.637731e-01 8.665627e-01 1.043170e+00 2.098813e+00 1.827358e+00 2.570392e+00 2.736207e+00 2.801105e+00 2.821317e+00 2.854794e+00 2.624663e+00 2.316627e+00 2.856100e-01 5.365324e-02 1.064409e-01 1.582398e-01 2.569975e-01 3.169266e-01 3.017656e-01 3.913702e-01 4.044957e-01 4.175712e-01 4.295339e-01 3.731558e-01 3.801863e-01 4.208409e-02
<GCONST> 1.026031e+02
<MIXTURE> 5 1.002469e-01
<MEAN> 39
 6.391978e+00 8.798388e-02 -4.303179e+00 -2.883101e+00 1.306663e+00 -1.602723e+00 -7.494653e+00 -2.762560e+00 2.250881e+00 4.814107e-01 -1.686351e+00 -2.727304e+00 2.198635e+00 -3.414181e-01 1.375204e+00 1.647771e+00 1.771628e+00 -2.953745e-01 -1.112848e+00 -1.378376e-01 -1.180803e+00 -1.057881e+00 -4.203681e-01 -4.187581e-01 2.319516e-02 -1.521283e+00 -2.877806e-01 1.503607e-03 5.035700e-02 1.615358e-01 3.573176e-01 4.468089e-01 4.820907e-01 1.217531e-01 -1.860697e-01 -2.510576e-01 -6.063239e-02 -1.078680e-02 -1.383501e-01
<VARIANCE> 39
 1.128314e+01 2.247467e+01 3.023368e+01 3.836807e+01 4.226132e+01 5.332524e+01 4.687709e+01 5.596260e+01 5.231187e+01 5.352124e+01 5.438379e+01 4.670792e+01 1.944290e+01 9.297578e-01 1.495280e+00 2.144670e+00 2.513665e+00 3.682950e+00 4.090965e+00 4.046167e+00 4.363981e+00 4.202787e+00 3.964209e+00 3.682786e+00 3.593235e+00 8.490501e-01 1.442669e-01 2.397656e-01 3.207178e-01 4.552480e-01 4.701090e-01 5.465805e-01 5.812847e-01 6.770532e-01 6.296728e-01 6.040611e-01 5.932041e-01 5.458800e-01 1.405811e-01
<GCONST> 1.198005e+02
<MIXTURE> 6 1.472836e-01
<MEAN> 39
 7.732124e+00 3.017959e+00 -8.359285e+00 -4.156034e+00 5.971066e+00 2.513812e+00 -7.449435e+00 -4.022304e+00 -3.150670e+00 -2.959608e+00 -3.190454e+00 -8.485529e+00 -5.265402e-01 3.960316e-02 3.816865e-01 2.746969e-01 1.042478e-01 -3.563431e-01 -8.648834e-02 2.106330e-01 -2.450338e-01 -1.856927e-01 5.198637e-02 5.379197e-02 1.057954e-01 -3.452581e-01 -3.854950e-02 -2.256118e-02 1.490136e-01 6.849957e-02 -7.452529e-02 -1.915913e-02 1.404802e-01 1.026280e-01 7.093144e-02 -5.329470e-02 1.247101e-02 1.883654e-01 1.818606e-02
<VARIANCE> 39
 9.210257e+00 1.580791e+01 2.292058e+01 3.284498e+01 3.952185e+01 3.747555e+01 3.584411e+01 3.870293e+01 5.295765e+01 5.532792e+01 4.921571e+01 5.662296e+01 1.199980e+01 2.028563e-01 4.860754e-01 7.256635e-01 1.076936e+00 1.294476e+00 1.503558e+00 1.622375e+00 1.809258e+00 1.893463e+00 1.913859e+00 1.812559e+00 1.659002e+00 1.834456e-01 3.234601e-02 6.827582e-02 1.104601e-01 1.732085e-01 2.199048e-01 2.494944e-01 2.534793e-01 2.933382e-01 3.131736e-01 3.386961e-01 3.076377e-01 2.743471e-01 1.941327e-02
<GCONST> 9.185876e+01
<MIXTURE> 7 1.073906e-01
<MEAN> 39
 5.096522e+00 -1.849491e+00 -4.477185e+00 -2.036119e+00 5.598013e-01 -1.128480e+00 -3.844405e+00 3.130722e+00 2.521812e+00 -2.718889e+00 -4.499712e+00 -1.892004e+00 3.887066e+00 -2.006996e-02 5.971592e-01 1.067939e+00 5.016437e-01 -1.003690e+00 -1.024523e+00 -6.636363e-02 -1.997263e-01 -3.931811e-02 1.406711e-01 -3.948969e-02 3.512060e-01 -5.322973e-01 -3.497019e-02 1.112670e-01 1.611742e-01 1.178074e-01 1.013189e-01 8.044542e-02 -3.329008e-02 -4.101441e-01 -2.475515e-01 6.042508e-02 1.846568e-01 -1.133358e-02 -1.384587e-01
<VARIANCE> 39
 9.999067e+00 1.853765e+01 2.037064e+01 2.476583e+01 3.573340e+01 3.892836e+01 5.004348e+01 4.232333e+01 4.973097e+01 5.100855e+01 3.828142e+01 3.769745e+01 1.550874e+01 2.320352e-01 6.701280e-01 1.019237e+00 1.122697e+00 1.831107e+00 1.977734e+00 2.134200e+00 2.463270e+00 2.401814e+00 2.387445e+00 2.108357e+00 1.974331e+00 2.357785e-01 4.121029e-02 1.004172e-01 1.582233e-01 1.876061e-01 2.729687e-01 3.080308e-01 3.597033e-01 3.359315e-01 3.847231e-01 3.680704e-01 3.214616e-01 3.015666e-01 4.150530e-02
<GCONST> 9.775728e+01
<MIXTURE> 8 1.406838e-01
<MEAN> 39
 7.522008e+00 2.900897e+00 -6.166173e+00 -9.304031e+00 7.467570e-01 6.857853e+00 -1.489754e+00 -4.661320e+00 -1.745696e+00 5.277283e-01 4.094084e+00 1.816855e+00 7.018965e-01 -1.404027e-01 6.431499e-02 3.075247e-01 5.166774e-01 -6.600612e-02 -4.863543e-01 -2.749290e-01 -9.866654e-02 1.521238e-01 1.547462e-01 -3.241282e-01 -2.124931e-01 -2.661872e-01 -1.017833e-01 -1.627899e-01 4.401682e-02 2.457065e-01 1.601683e-01 -2.030814e-01 -1.772052e-01 1.047906e-01 2.175268e-01 1.081487e-02 -2.754359e-01 -2.679023e-01 5.642963e-02
<VARIANCE> 39
 1.762153e+01 2.566486e+01 2.609586e+01 4.760964e+01 4.971269e+01 5.279720e+01 5.389634e+01 4.866524e+01 6.623158e+01 6.940948e+01 5.450667e+01 6.138924e+01 2.691162e+01 3.813531e-01 9.692001e-01 1.140396e+00 1.719161e+00 2.029981e+00 2.254673e+00 2.382298e+00 2.278142e+00 3.188869e+00 2.890079e+00 2.488652e+00 2.389573e+00 6.224829e-01 5.979750e-02 1.200547e-01 1.680911e-01 2.590772e-01 3.072434e-01 3.596397e-01 4.022355e-01 4.231543e-01 4.877884e-01 4.975435e-01 3.969226e-01 3.884005e-01 5.215035e-02
<GCONST> 1.086392e+02
<TRANSP> 6
 0.000000e+00 1.000000e+00 0.000000e+00 0.000000e+00 0.000000e+00 0.000000e+00
 0.000000e+00 8.627089e-01 1.372911e-01 0.000000e+00 0.000000e+00 0.000000e+00
 0.000000e+00 0.000000e+00 9.238759e-01 7.612410e-02 0.000000e+00 0.000000e+00
 0.000000e+00 0.000000e+00 0.000000e+00 9.035021e-01 9.649791e-02 0.000000e+00
 0.000000e+00 0.000000e+00 0.000000e+00 0.000000e+00 8.733096e-01 1.266904e-01
 0.000000e+00 0.000000e+00 0.000000e+00 0.000000e+00 0.000000e+00 0.000000e+00
<ENDHMM>
