~o
<STREAMINFO> 1 39
<VECSIZE> 39<NULLD><MFCC_D_A_Z_0><DIAGC>
~h "ax"
<BEGINHMM>
<NUMSTATES> 6
<STATE> 2
<NUMMIXES> 8
<MIXTURE> 1 1.232280e-01
<MEAN> 39
 2.567272e+00 -5.211519e+00 -4.483712e+00 -3.714898e+00 2.227620e+00 -9.365577e-01 -1.129397e+00 8.179833e+00 5.047142e+00 -4.409694e+00 -6.084198e+00 -9.977031e-01 8.961146e+00 -4.389884e-02 -2.693971e-01 -3.240627e-01 -3.838804e-02 6.195586e-01 4.782189e-01 4.613083e-02 2.879883e-02 -1.615233e-02 -1.310064e-01 -2.505668e-02 -1.215825e-01 1.219775e-01 6.548159e-02 2.713472e-01 1.751002e-01 1.309518e-01 -1.952125e-01 -1.641318e-01 -2.299168e-01 -5.811965e-01 -2.496637e-01 2.842658e-01 3.097199e-01 2.119239e-02 -2.793263e-01
<VARIANCE> 39
 1.337594e+01 1.837580e+01 2.356675e+01 2.734808e+01 4.759826e+01 5.159486e+01 7.549314e+01 5.066978e+01 5.347003e+01 4.764885e+01 3.452678e+01 4.300200e+01 1.996399e+01 4.101155e-01 8.751051e-01 1.245089e+00 1.395602e+00 2.548610e+00 2.494345e+00 3.151348e+00 2.992646e+00 2.707628e+00 2.709233e+00 2.236558e+00 2.409087e+00 3.273856e-01 7.322745e-02 1.458167e-01 2.034963e-01 2.602421e-01 3.356141e-01 3.953317e-01 5.396447e-01 5.717802e-01 4.734599e-01 4.250336e-01 3.811736e-01 3.882157e-01 7.586329e-02
<GCONST> 1.072610e+02
<MIXTURE> 2 9.832401e-02
<MEAN> 39
 3.689513e+00 -3.578095e+00 3.175161e-01 -4.830290e+00 -1.425485e+00 -5.006882e+00 -2.577133e+00 2.337471e+00 3.073642e+00 1.612407e+00 8.984260e-02 2.449717e+00 6.776376e+00 3.795051e-01 -4.088386e-01 -4.255816e-02 -4.459879e-01 3.108639e-01 2.216369e-01 -8.568111e-02 6.483205e-02 -3.507997e-02 -4.412335e-02 -2.554066e-01 -7.707442e-02 4.535423e-01 -3.255508e-01 5.826675e-01 -8.582088e-03 6.635484e-01 1.420932e-01 3.402047e-01 1.669523e-01 -4.019240e-01 -3.041574e-01 -1.470459e-01 -1.716419e-02 -2.572007e-01 -6.498990e-01
<VARIANCE> 39
 2.680625e+01 3.776779e+01 6.424008e+01 5.525923e+01 7.965353e+01 8.040266e+01 9.331188e+01 9.199354e+01 8.651219e+01 9.079124e+01 1.007638e+02 1.014246e+02 2.672089e+01 1.798199e+00 2.796282e+00 3.251290e+00 4.407244e+00 4.715073e+00 5.150994e+00 5.914925e+00 6.691199e+00 5.523799e+00 5.221014e+00 5.005498e+00 4.779779e+00 2.648886e+00 4.179659e-01 5.255693e-01 6.706176e-01 8.315492e-01 1.005079e+00 1.070737e+00 1.324220e+00 1.474056e+00 1.198931e+00 1.152996e+00 1.079859e+00 1.064759e+00 4.207869e-01
<GCONST> 1.429775e+02
<MIXTURE> 3 1.916832e-01
<MEAN> 39
 1.398624e-01 5.477215e-01 9.625525e+00 -4.252088e+00 -1.243582e+01 -2.674140e+00 1.943294e+00 -1.946027e+00 -5.521801e+00 3.548338e+00 -6.013314e-01 -6.982365e-01 6.095332e+00 7.745566e-02 -1.038229e-01 -5.533940e-02 -1.235984e-02 1.774410e-02 3.028869e-02 5.305792e-02 1.507145e-01 1.049033e-02 2.839482e-02 -6.553143e-02 4.089473e-02 -6.116435e-02 2.866096e-02 2.262479e-02 -1.220441e-01 1.139679e-01 1.307414e-01 -1.085820e-01 -9.098506e-02 6.919881e-02 7.953451e-02 -1.520849e-01 7.100834e-03 8.462333e-02 -4.523363e-02
<VARIANCE> 39
 1.176204e+01 2.051143e+01 2.878772e+01 4.336702e+01 3.290476e+01 5.181150e+01 4.490896e+01 5.346619e+01 4.712488e+01 5.587239e+01 6.382590e+01 6.940111e+01 1.477666e+01 2.129246e-01 4.906907e-01 7.563735e-01 9.002310e-01 1.021473e+00 1.348117e+00 1.420430e+00 1.778528e+00 1.538103e+00 1.620432e+00 1.481633e+00 1.364811e+00 1.312646e-01 3.464370e-02 7.488977e-02 1.129792e-01 1.511536e-01 1.870363e-01 2.308991e-01 2.605236e-01 2.686875e-01 2.779446e-01 2.602369e-01 2.650204e-01 2.387917e-01 2.061306e-02
<GCONST> 9.157875e+01
<MIXTURE> 4 1.839456e-01
<MEAN> 39
 2.463058e+00 -2.668159e+00 1.712087e-02 -1.462857e+00 -4.779661e+00 -4.698336e+00 1.155921e+00 5.914954e+00 1.476021e+00 -3.366995e+00 -2.444407e+00 5.998144e-01 8.236312e+00 5.952610e-03 -1.874613e-01 -2.229515e-01 -1.233536e-01 2.625565e-01 2.533332e-01 1.218558e-02 6.843458e-02 6.709701e-02 -1.409954e-01 -1.628006e-01 -9.111880e-02 4.316569e-02 9.340028e-03 6.750038e-02 3.054894e-02 -7.528084e-03 1.844740e-02 -2.268872e-02 -1.622700e-01 -1.974713e-01 -4.307375e-02 1.083136e-01 1.089566e-02 -2.542259e-02 -7.390850e-02
<VARIANCE> 39
 1.607090e+01 1.923189e+01 2.345276e+01 2.969535e+01 3.835858e+01 5.277513e+01 6.038979e+01 5.803716e+01 5.228152e+01 4.769235e+01 4.026201e+01 4.151567e+01 3.200920e+01 1.672147e-01 3.692813e-01 6.783918e-01 7.072656e-01 1.164228e+00 1.213923e+00 1.448589e+00 1.461690e+00 1.593010e+00 1.427785e+00 1.405144e+00 1.238786e+00 9.363899e-02 2.724881e-02 5.870278e-02 8.751065e-02 1.183496e-01 1.634845e-01 2.004240e-01 2.345060e-01 2.507039e-01 2.347613e-01 2.370262e-01 2.163682e-01 2.027611e-01 1.758057e-02
<GCONST> 8.770892e+01
<MIXTURE> 5 7.841387e-02
<MEAN> 39
 2.383536e-01 3.998819e+00 3.248601e+00 1.645170e+00 -3.149725e+00 -3.513907e+00 -1.513829e+00 -3.683238e+00 -2.327424e+00 -6.300776e-01 -1.576202e+00 -1.407725e+00 6.550946e-01 3.515892e-01 1.558086e-02 -4.873137e-02 -1.570745e-01 -1.593967e-01 -6.224693e-02 -1.797648e-01 -1.455167e-01 1.799305e-02 1.831085e-02 -5.739716e-02 -7.218071e-02 3.859084e-02 -1.163898e-01 -1.560209e-01 -8.831722e-02 -3.974972e-02 1.583249e-01 1.659739e-01 1.428110e-01 2.809540e-01 1.343727e-01 3.010003e-02 7.927899e-02 7.332153e-02 8.993776e-03
<VARIANCE> 39
 4.172190e+01 3.501679e+01 5.054379e+01 4.275046e+01 6.833804e+01 5.223277e+01 5.178412e+01 5.209249e+01 4.374491e+01 4.824935e+01 4.572068e+01 4.382059e+01 5.381389e+01 1.939380e+00 1.588547e+00 1.919393e+00 2.326529e+00 2.642105e+00 2.906119e+00 2.721136e+00 3.249607e+00 2.821645e+00 2.963253e+00 2.732795e+00 2.524888e+00 1.199254e+00 3.273062e-01 2.482568e-01 3.000752e-01 3.929679e-01 5.173469e-01 5.545597e-01 5.508687e-01 5.314665e-01 4.938334e-01 5.173705e-01 4.737036e-01 4.197756e-01 1.967953e-01
<GCONST> 1.213116e+02
<MIXTURE> 6 1.070560e-01
<MEAN> 39
 2.873618e+00 4.406465e-01 3.153041e+00 1.181276e+00 -8.001109e+00 -8.436060e+00 -3.974722e+00 3.330459e+00 1.233447e+00 -2.957184e+00 -1.387731e+00 1.450581e+00 5.363456e+00 2.482977e-01 -4.305574e-01 -1.800158e-01 -2.537677e-01 1.653090e-01 3.673106e-01 6.775054e-02 5.350995e-01 2.686047e-01 -4.133008e-03 -1.708300e-01 -2.087366e-01 1.019460e-01 -2.683906e-01 4.449515e-01 -6.098806e-02 2.077449e-01 6.103261e-01 3.094496e-01 1.623946e-01 -5.356289e-01 -2.502749e-01 1.719418e-01 -4.821380e-03 -2.117456e-01 -3.744535e-01
<VARIANCE> 39
 1.099513e+01 1.966870e+01 2.910909e+01 2.733167e+01 3.334700e+01 3.303109e+01 4.495222e+01 3.814951e+01 4.734619e+01 4.276332e+01 4.661868e+01 4.293212e+01 1.636935e+01 4.428752e-01 8.383073e-01 1.405890e+00 1.218580e+00 2.105126e+00 1.917678e+00 2.413612e+00 2.402367e+00 2.575033e+00 2.230400e+00 2.240273e+00 1.935730e+00 3.034451e-01 1.791654e-01 1.928666e-01 2.397271e-01 3.201940e-01 3.493577e-01 4.559399e-01 5.051506e-01 5.092554e-01 4.946769e-01 4.784835e-01 4.997804e-01 4.661278e-01 1.006595e-01
<GCONST> 1.065967e+02
<MIXTURE> 7 9.115984e-02
<MEAN> 39
 5.397373e+00 -5.927131e-01 -5.032404e+00 -5.684319e+00 6.799941e-01 2.142327e+00 -6.655950e+00 -3.233733e+00 6.619163e+00 3.927862e+00 -1.034096e-01 -4.513309e+00 6.593016e+00 5.978103e-02 -2.663074e-01 -3.570111e-01 -4.530433e-01 2.705322e-01 5.081236e-01 5.645987e-02 2.973651e-01 3.198689e-01 -3.384911e-02 3.091215e-02 -1.331256e-01 2.581203e-01 -1.192941e-01 1.445754e-01 2.590102e-01 2.976407e-01 1.668298e-02 -1.783721e-01 2.144656e-01 1.170033e-02 -4.420176e-01 -2.847994e-01 -2.711266e-02 2.569196e-01 -2.221416e-01
<VARIANCE> 39
 1.296678e+01 2.231236e+01 2.802612e+01 4.028698e+01 4.209145e+01 5.981213e+01 5.591097e+01 4.984130e+01 6.130809e+01 4.951677e+01 5.584298e+01 4.544896e+01 2.469653e+01 4.161864e-01 8.850876e-01 1.219176e+00 1.757959e+00 1.796994e+00 2.727739e+00 2.441257e+00 3.145796e+00 2.958184e+00 2.722019e+00 2.738425e+00 2.265850e+00 4.380150e-01 8.684149e-02 1.375063e-01 2.096269e-01 3.081332e-01 3.250357e-01 4.011937e-01 4.338718e-01 4.756858e-01 5.486420e-01 4.364004e-01 4.405648e-01 3.804539e-01 8.529688e-02
<GCONST> 1.092194e+02
<MIXTURE> 8 1.261895e-01
<MEAN> 39
 1.000978e-01 -4.440955e+00 2.314644e+00 -3.447715e+00 -4.235645e+00 -4.595812e+00 2.989434e+00 6.069953e+00 -4.275062e+00 1.873724e-01 4.839615e+00 9.238130e+00 7.364075e+00 -7.531652e-02 -2.798238e-01 -9.480341e-02 1.012864e-02 4.262014e-01 2.793628e-01 2.805511e-01 4.740496e-02 -3.506204e-01 -3.165294e-01 -1.836502e-01 8.336215e-02 8.971217e-02 1.164266e-01 3.119536e-01 -1.084608e-01 1.946493e-01 -1.988444e-02 -1.213404e-01 -4.301793e-01 -3.903704e-01 4.326700e-01 5.806277e-02 -2.262098e-01 -3.703971e-01 -2.659398e-01
<VARIANCE> 39
 1.168783e+01 1.922967e+01 3.307887e+01 3.122099e+01 5.380605e+01 4.600118e+01 5.158693e+01 5.302951e+01 5.196381e+01 7.089585e+01 8.380006e+01 9.636369e+01 1.444085e+01 4.686980e-01 9.695511e-01 1.444255e+00 1.544312e+00 2.416250e+00 2.660376e+00 3.083138e+00 2.938016e+00 3.211874e+00 3.068142e+00 3.022109e+00 2.617569e+00 3.282390e-01 8.587892e-02 1.564540e-01 2.173334e-01 2.926993e-01 3.669630e-01 4.244775e-01 4.647508e-01 5.162745e-01 4.396355e-01 5.667480e-01 5.048733e-01 4.925293e-01 6.370834e-02
<GCONST> 1.110724e+02
<STATE> 3
<NUMMIXES> 8
<MIXTURE> 1 1.313948e-01
<MEAN> 39
 1.276364e+00 -5.564891e+00 -3.963085e+00 -2.778134e+00 4.382089e+00 1.594641e-01 -9.218805e-01 4.311779e+00 2.605908e+00 2.881622e+00 6.412694e+00 7.963932e+00 7.008122e+00 6.799266e-02 9.147877e-02 -6.694415e-02 -7.185643e-02 -1.730968e-02 7.659959e-03 -1.016184e-01 -1.286022e-01 4.773861e-03 7.677252e-02 3.871959e-02 -4.682474e-02 -1.283238e-01 2.781265e-02 7.222138e-02 1.886184e-02 -5.254856e-03 -1.561237e-01 -1.084287e-01 -4.897285e-02 -2.223541e-03 4.602046e-03 -3.882842e-02 -9.827305e-02 -7.206531e-02 -5.900298e-02
<VARIANCE> 39
 1.576095e+01 2.563314e+01 3.242964e+01 4.208143e+01 6.383855e+01 6.298108e+01 7.960966e+01 6.912270e+01 7.798650e+01 9.464321e+01 1.173339e+02 1.204592e+02 2.014645e+01 3.306004e-01 6.550146e-01 9.131314e-01 1.187217e+00 1.698689e+00 1.780750e+00 1.943380e+00 1.915491e+00 2.067895e+00 2.048706e+00 2.089467e+00 1.958312e+00 1.843009e-01 5.851934e-02 1.179922e-01 1.592229e-01 2.119077e-01 2.625192e-01 3.063135e-01 3.504236e-01 3.434281e-01 3.690214e-01 3.709591e-01 3.538068e-01 3.475363e-01 3.373364e-02
<GCONST> 1.049329e+02
<MIXTURE> 2 7.101338e-02
<MEAN> 39
 2.943665e+00 -7.999413e-02 1.022540e+00 -1.257446e+00 -3.459317e+00 -5.706479e+00 -3.868472e+00 4.605203e-01 8.055594e-01 -6.657638e-01 -1.600571e+00 6.787075e-01 4.024383e+00 1.332802e-01 1.190158e+00 1.636186e-01 8.973801e-01 5.160552e-01 2.131598e-01 -2.697290e-01 -1.242853e+00 -5.196623e-01 -1.902355e-01 -1.865314e-01 -5.768532e-01 -1.205116e+00 -2.887702e-01 4.428425e-01 5.579403e-02 4.246791e-01 3.054027e-01 2.723287e-01 2.676253e-01 -2.415362e-01 -1.805516e-01 -6.100467e-02 4.740448e-02 -1.717924e-01 -4.915488e-01
<VARIANCE> 39
 2.607829e+01 4.027060e+01 4.989491e+01 4.640637e+01 6.083909e+01 6.166048e+01 6.610949e+01 6.764505e+01 6.725902e+01 6.153099e+01 6.521764e+01 7.003496e+01 4.113826e+01 1.286826e+00 1.888703e+00 2.272059e+00 2.663852e+00 3.398330e+00 3.621525e+00 3.963529e+00 4.317441e+00 3.902089e+00 3.746069e+00 3.462018e+00 3.275360e+00 1.460013e+00 3.141496e-01 3.202497e-01 4.204959e-01 4.566071e-01 5.928252e-01 7.222041e-01 7.608393e-01 8.335264e-01 7.993354e-01 7.464679e-01 6.872725e-01 6.776402e-01 2.243496e-01
<GCONST> 1.289903e+02
<MIXTURE> 3 1.410184e-01
<MEAN> 39
 2.630828e+00 -5.417958e+00 -6.779458e+00 -4.894299e+00 3.501380e+00 4.582130e+00 -2.822545e+00 3.825746e+00 7.579490e+00 -1.874376e+00 -5.292219e+00 -4.334789e+00 7.984867e+00 3.624585e-02 3.671542e-02 -4.405750e-02 -2.827599e-02 5.739002e-02 7.634032e-02 -5.124974e-02 -8.878143e-02 -2.636895e-02 1.650658e-02 3.721623e-02 -3.020483e-02 -6.163687e-02 2.406670e-02 5.059903e-02 7.598597e-02 5.544669e-02 3.025029e-05 -4.598754e-02 7.829978e-02 5.977032e-02 -5.520389e-02 4.726296e-02 8.877900e-02 1.015151e-01 -1.462926e-02
<VARIANCE> 39
 1.027869e+01 1.412616e+01 1.932522e+01 2.779933e+01 3.925594e+01 4.455468e+01 5.850347e+01 5.076120e+01 3.867511e+01 5.257096e+01 3.830778e+01 3.315195e+01 1.213068e+01 1.410784e-01 2.987471e-01 4.691377e-01 6.424232e-01 8.624759e-01 1.116293e+00 1.138144e+00 1.203311e+00 1.190796e+00 1.169917e+00 1.120852e+00 1.003176e+00 7.663292e-02 2.014156e-02 4.365111e-02 6.767207e-02 9.904774e-02 1.378460e-01 1.729084e-01 1.834067e-01 1.926935e-01 1.879807e-01 1.892322e-01 1.775605e-01 1.563550e-01 1.073011e-02
<GCONST> 7.887925e+01
<MIXTURE> 4 1.434540e-01
<MEAN> 39
 1.520133e+00 -9.963064e-01 4.343724e+00 -3.718626e-02 -9.372764e+00 -5.535787e+00 1.514301e+00 4.360135e+00 -1.799679e+00 -1.957562e+00 6.524245e-01 1.133386e+00 6.213078e+00 5.259357e-02 -5.313709e-03 -7.843871e-02 2.413654e-02 9.294466e-02 -1.345515e-02 -8.243272e-02 1.782877e-02 4.331723e-02 -2.315463e-02 -7.811955e-02 7.734076e-03 -5.445849e-02 1.313389e-02 1.316516e-02 -2.348018e-02 1.173135e-02 6.385912e-02 -1.576255e-02 -5.427729e-02 -1.764623e-02 2.586225e-02 -7.664691e-03 -2.328342e-02 1.682894e-02 -1.900282e-02
<VARIANCE> 39
 8.668019e+00 1.419687e+01 2.049947e+01 2.868019e+01 2.692896e+01 4.309035e+01 5.149622e+01 3.946172e+01 5.058065e+01 4.490020e+01 4.818663e+01 5.020707e+01 1.136246e+01 7.411746e-02 1.766767e-01 3.313383e-01 3.789380e-01 5.438349e-01 6.147397e-01 7.159672e-01 7.599545e-01 8.151190e-01 7.793071e-01 7.490418e-01 6.690385e-01 4.674278e-02 1.137122e-02 2.704299e-02 4.612061e-02 6.197721e-02 8.422770e-02 1.017873e-01 1.185654e-01 1.273381e-01 1.286333e-01 1.272960e-01 1.252977e-01 1.129700e-01 1.000000e-02
<GCONST> 6.729513e+01
<MIXTURE> 5 1.536189e-01
<MEAN> 39
 2.220751e+00 -4.657517e+00 -4.756271e+00 -3.595190e+00 1.629856e+00 2.039653e+00 -5.425755e-01 5.072495e+00 4.229295e+00 -2.560061e+00 -3.376933e+00 -1.477619e+00 8.154210e+00 7.924570e-03 7.867574e-03 -1.949581e-02 -2.403512e-02 3.764872e-02 3.225508e-02 -2.729734e-02 -3.719658e-02 1.255860e-02 9.836040e-03 9.779174e-03 -2.655700e-02 -1.927585e-02 4.124489e-03 9.976233e-03 1.326345e-02 5.147651e-03 -1.213198e-02 -1.334882e-02 3.709163e-03 5.528900e-03 -1.743858e-03 3.482215e-03 3.926274e-03 5.504955e-05 -6.607248e-03
<VARIANCE> 39
 9.322143e+00 1.219625e+01 2.133301e+01 2.403633e+01 3.768715e+01 4.727144e+01 5.954514e+01 4.246745e+01 5.778825e+01 5.352617e+01 4.590564e+01 4.902422e+01 1.237062e+01 4.496630e-02 1.055518e-01 1.669810e-01 2.222260e-01 3.032486e-01 3.658648e-01 3.823607e-01 4.204057e-01 4.445449e-01 4.244790e-01 4.043597e-01 3.870631e-01 2.079342e-02 1.000000e-02 1.790082e-02 2.840405e-02 3.923472e-02 5.285475e-02 6.478194e-02 6.891830e-02 7.487220e-02 8.061411e-02 7.962744e-02 7.565397e-02 7.122366e-02 1.000000e-02
<GCONST> 5.492775e+01
<MIXTURE> 6 1.019307e-01
<MEAN> 39
 2.726007e+00 -1.123155e+00 1.024510e+00 -4.328915e-01 -5.132394e+00 -6.168783e+00 -2.136350e+00 4.877879e+00 5.539631e-01 -3.394225e+00 -2.341347e+00 1.375624e+00 5.244819e+00 3.360508e-01 3.639906e-01 -1.884914e-01 2.415239e-01 4.836143e-01 -1.446026e-01 -7.258922e-01 -5.615157e-01 2.776265e-01 2.274741e-01 -2.710238e-01 -1.535940e-01 -5.027077e-01 1.281824e-03 1.995561e-01 6.745931e-02 1.001196e-01 1.491151e-01 6.294058e-02 -7.613558e-02 -4.128006e-01 -1.257319e-01 1.241027e-01 5.641146e-02 -9.671109e-02 -1.879700e-01
<VARIANCE> 39
 1.029169e+01 2.024544e+01 2.899339e+01 2.823139e+01 3.599014e+01 4.040792e+01 5.595948e+01 5.097921e+01 5.735482e+01 4.654811e+01 4.705532e+01 5.211763e+01 1.537002e+01 2.202092e-01 4.766772e-01 1.002118e+00 9.917870e-01 1.566962e+00 1.712002e+00 1.889541e+00 1.954315e+00 2.007507e+00 1.962186e+00 1.736792e+00 1.685042e+00 1.529240e-01 4.863767e-02 9.914462e-02 1.432727e-01 1.905338e-01 2.316280e-01 2.833796e-01 3.353155e-01 3.657693e-01 3.497882e-01 3.347095e-01 3.339195e-01 2.983742e-01 4.592832e-02
<GCONST> 9.669986e+01
<MIXTURE> 7 1.327219e-01
<MEAN> 39
 2.380662e+00 -4.522619e+00 -2.921214e+00 -2.002578e+00 2.786236e+00 9.738103e-01 7.685485e-01 7.462568e+00 1.811326e+00 -2.842354e+00 -9.264367e-01 2.704322e+00 7.754052e+00 3.198022e-02 1.380146e-02 -4.767682e-02 -1.038149e-02 7.210721e-02 4.396132e-02 -7.508461e-02 -3.911768e-02 2.895254e-02 2.898793e-02 -1.097188e-02 -3.597987e-02 -4.605697e-02 -1.031771e-01 -1.234161e-01 -1.703030e-01 -2.078830e-01 -2.414237e-01 -2.255053e-01 -2.264144e-01 -2.250092e-01 -1.633893e-01 -1.184522e-01 -1.228227e-01 -1.111332e-01 -4.746201e-02
<VARIANCE> 39
 8.961620e+00 1.383074e+01 2.528736e+01 2.502718e+01 5.284094e+01 4.867846e+01 6.275385e+01 4.562054e+01 6.433847e+01 5.488269e+01 6.733833e+01 7.161803e+01 1.098320e+01 1.170391e-01 2.718467e-01 4.245533e-01 5.193908e-01 7.459245e-01 7.530053e-01 8.855868e-01 9.055440e-01 9.201065e-01 8.748843e-01 8.404360e-01 7.676349e-01 4.965568e-02 1.371693e-02 3.346010e-02 5.240749e-02 6.938463e-02 9.512088e-02 1.129002e-01 1.283605e-01 1.409468e-01 1.529268e-01 1.517813e-01 1.522441e-01 1.410052e-01 1.000000e-02
<GCONST> 7.433226e+01
<MIXTURE> 8 1.248480e-01
<MEAN> 39
 9.651114e-01 -6.602554e+00 -4.142468e+00 -4.272116e+00 6.212435e-01 -2.654691e+00 -1.022427e+00 5.748450e+00 -3.494094e+00 -5.536508e+00 -1.500159e+00 3.591720e+00 7.440514e+00 2.504353e-02 1.820493e-02 -6.858855e-02 1.161161e-02 9.165101e-02 -1.166828e-02 -1.001686e-01 -2.087644e-02 1.312939e-02 8.322761e-03 -4.559998e-02 -2.368795e-02 -4.910819e-02 1.044099e-01 1.800519e-01 1.783410e-01 1.884003e-01 1.292576e-01 1.848973e-01 1.685297e-01 1.234855e-01 2.539642e-01 1.717319e-01 9.228915e-02 2.127016e-02 9.914339e-03
<VARIANCE> 39
 9.255352e+00 1.483706e+01 2.653396e+01 2.611634e+01 5.942327e+01 4.287786e+01 6.304303e+01 4.695460e+01 4.302423e+01 4.810247e+01 6.494386e+01 6.741674e+01 1.103391e+01 1.464702e-01 3.379640e-01 5.207333e-01 6.431635e-01 9.384280e-01 9.233064e-01 1.068248e+00 1.036285e+00 1.075861e+00 9.910620e-01 9.479274e-01 8.882785e-01 6.712037e-02 1.904072e-02 4.113511e-02 6.992923e-02 9.287041e-02 1.330280e-01 1.341000e-01 1.555493e-01 1.738837e-01 1.607644e-01 1.670350e-01 1.600264e-01 1.537704e-01 1.000000e-02
<GCONST> 7.869401e+01
<STATE> 4
<NUMMIXES> 8
<MIXTURE> 1 1.196139e-01
<MEAN> 39
 3.615834e+00 -2.185663e+00 -2.142895e+00 -3.109050e+00 -8.106717e-01 -3.417539e+00 -4.790423e+00 2.037534e+00 2.741990e+00 1.023732e+00 -5.208236e-02 1.990909e+00 4.784577e+00 4.215016e-01 1.027966e+00 4.145018e-01 5.127009e-01 -5.426287e-02 -3.662196e-01 -6.219688e-01 -1.616867e+00 -6.650289e-01 2.037557e-01 2.893184e-02 -3.803656e-01 -1.203758e+00 -8.014748e-02 2.570033e-01 1.909615e-01 2.689588e-01 4.980933e-02 3.248878e-02 1.911089e-01 -1.850624e-01 -2.798812e-01 -2.173937e-01 -9.192082e-02 -1.015513e-01 -2.728996e-01
<VARIANCE> 39
 1.427337e+01 2.107361e+01 3.870932e+01 3.575660e+01 5.610809e+01 5.973132e+01 7.008561e+01 6.488805e+01 6.750645e+01 7.136850e+01 8.129124e+01 9.239046e+01 1.545292e+01 5.297306e-01 9.969246e-01 1.770545e+00 2.093472e+00 2.825000e+00 3.251350e+00 3.334331e+00 3.663256e+00 3.848609e+00 3.539159e+00 3.222337e+00 3.148194e+00 6.001630e-01 1.007311e-01 1.358989e-01 2.565164e-01 3.056795e-01 4.101664e-01 4.739331e-01 5.545305e-01 6.074670e-01 5.831719e-01 5.959904e-01 5.548632e-01 5.489517e-01 8.098756e-02
<GCONST> 1.167858e+02
<MIXTURE> 2 7.698772e-02
<MEAN> 39
 1.649838e+00 5.423846e+00 1.337890e+00 3.283878e+00 -2.524710e+00 -6.432854e+00 -3.969916e+00 -2.839156e+00 -1.140145e+00 -2.568327e+00 -1.774297e+00 -1.205492e-01 6.677387e-01 -1.091667e+00 1.893134e+00 2.344496e-01 1.730965e+00 1.067677e+00 9.753546e-01 6.244902e-01 -1.084351e+00 -6.147862e-01 -3.934989e-01 -3.219171e-01 -1.077953e+00 -1.842069e+00 -4.024493e-01 -2.795448e-01 -9.510073e-02 -1.296195e-01 1.325658e-01 3.423569e-01 4.080127e-01 4.078237e-01 2.009733e-01 2.351660e-01 1.398377e-01 8.132224e-02 -7.746101e-02
<VARIANCE> 39
 2.990066e+01 3.227281e+01 4.224027e+01 3.351659e+01 5.208138e+01 5.017280e+01 4.690164e+01 4.389640e+01 4.571158e+01 5.009384e+01 5.409724e+01 5.232382e+01 3.081733e+01 3.187530e+00 2.652579e+00 3.069989e+00 3.158697e+00 4.135893e+00 4.222354e+00 4.658010e+00 5.040227e+00 4.430051e+00 4.181455e+00 3.914089e+00 4.310969e+00 2.336766e+00 2.714030e-01 3.502864e-01 3.433214e-01 3.786880e-01 4.787901e-01 5.923763e-01 6.012738e-01 6.252601e-01 6.002522e-01 6.216847e-01 5.817530e-01 5.293432e-01 1.570666e-01
<GCONST> 1.267855e+02
<MIXTURE> 3 2.132790e-01
<MEAN> 39
 5.038893e+00 1.893553e+00 -2.829155e+00 -1.659008e+00 1.100264e+00 -2.139659e-01 -2.937459e+00 9.727606e-02 3.879143e+00 1.270997e+00 -2.451296e+00 -1.784117e+00 1.554850e+00 1.275660e-02 1.973023e-02 -1.076513e-02 -5.162353e-03 3.564030e-02 1.051876e-02 -2.743417e-02 -3.782755e-02 -8.288380e-03 3.078941e-02 2.367883e-03 -2.903284e-02 -4.050047e-02 -1.545700e-02 -9.457584e-03 -7.080297e-03 -2.931847e-02 -3.786033e-02 -2.624908e-02 -7.536875e-03 -3.135686e-02 -5.274900e-02 -3.075287e-02 -5.480908e-03 -2.158303e-02 -6.256761e-03
<VARIANCE> 39
 7.416966e+00 1.342345e+01 1.872388e+01 2.191762e+01 2.731611e+01 3.370122e+01 4.143194e+01 3.936496e+01 3.959273e+01 4.622973e+01 4.798562e+01 3.306537e+01 1.010664e+01 4.541805e-02 1.268511e-01 2.090482e-01 2.945954e-01 3.956122e-01 4.801918e-01 5.384071e-01 5.938081e-01 6.275638e-01 6.154816e-01 5.970708e-01 5.362313e-01 2.853764e-02 1.000000e-02 2.391321e-02 3.824613e-02 5.521051e-02 7.500948e-02 9.015496e-02 1.042968e-01 1.146526e-01 1.198294e-01 1.171238e-01 1.140151e-01 1.013811e-01 1.000000e-02
<GCONST> 6.006678e+01
<MIXTURE> 4 1.260539e-01
<MEAN> 39
 3.673635e+00 1.462173e+00 -1.426613e+00 -1.933642e+00 -1.505784e+00 -6.551728e-01 1.183902e+00 2.302108e+00 8.251715e-02 -2.682160e+00 -2.545706e+00 -6.426023e-01 1.120188e+00 -9.148083e-03 6.190910e-02 6.149257e-02 1.014720e-01 -1.331583e-02 -9.085540e-02 -5.184086e-02 -2.606626e-02 -1.372781e-02 -3.133839e-02 -4.595923e-02 -8.401655e-03 -1.164638e-01 -2.448896e-02 -3.689558e-02 -7.476903e-02 -3.596062e-03 6.109713e-02 -7.162017e-02 -2.534023e-01 -1.504764e-01 6.377448e-02 5.108937e-02 -6.786773e-02 -1.188162e-01 -1.046950e-02
<VARIANCE> 39
 6.672187e+00 1.123068e+01 1.484656e+01 1.823364e+01 2.417770e+01 2.956853e+01 2.490948e+01 3.007099e+01 3.676171e+01 4.056734e+01 3.801291e+01 3.298658e+01 7.540543e+00 1.242980e-01 3.128895e-01 5.117550e-01 6.750657e-01 9.155102e-01 1.051193e+00 1.253415e+00 1.346952e+00 1.384704e+00 1.383784e+00 1.282758e+00 1.148942e+00 8.336499e-02 1.893642e-02 4.842746e-02 7.434096e-02 1.119132e-01 1.510732e-01 1.745898e-01 1.713459e-01 2.149035e-01 2.386891e-01 2.421919e-01 2.237958e-01 1.931962e-01 1.000000e-02
<GCONST> 7.665943e+01
<MIXTURE> 5 1.245169e-01
<MEAN> 39
 6.286552e+00 2.975078e+00 -5.065712e+00 -5.282018e+00 2.186724e+00 3.564103e+00 -5.735473e+00 -5.632438e+00 2.596872e+00 4.688651e+00 1.904456e+00 -1.958618e+00 2.344590e+00 8.192064e-02 1.813534e-01 1.179622e-02 -1.157004e-01 -3.871467e-02 1.688939e-01 2.080331e-01 -1.254565e-01 -3.287401e-01 -8.293210e-02 2.306912e-01 1.607392e-01 -1.642819e-01 -2.855929e-02 -3.763476e-02 4.521735e-02 8.071846e-02 -6.035027e-02 -1.761848e-01 1.980867e-02 1.734480e-01 -1.357668e-02 -1.693382e-01 -1.317184e-01 4.420857e-02 -8.042565e-03
<VARIANCE> 39
 8.692939e+00 1.685317e+01 2.363761e+01 2.743781e+01 3.279357e+01 3.521417e+01 5.085417e+01 3.347959e+01 4.996297e+01 4.132710e+01 5.222464e+01 5.751697e+01 1.581094e+01 1.180767e-01 3.044299e-01 4.618752e-01 6.833538e-01 8.096054e-01 1.077691e+00 1.115450e+00 1.261687e+00 1.355683e+00 1.298073e+00 1.260960e+00 1.146831e+00 8.959237e-02 1.679866e-02 4.371614e-02 7.166104e-02 1.030995e-01 1.290016e-01 1.590259e-01 1.793132e-01 1.942358e-01 2.128939e-01 2.117580e-01 2.006919e-01 2.009333e-01 1.000000e-02
<GCONST> 7.999619e+01
<MIXTURE> 6 1.055475e-01
<MEAN> 39
 4.021321e+00 2.312612e-01 -5.381376e+00 -4.186722e+00 -2.136963e-01 -3.424057e+00 -6.097157e+00 -3.406344e-01 5.897824e-02 -4.417271e+00 -7.799329e+00 -5.327115e+00 2.042822e+00 3.441617e-02 5.612938e-02 -7.963651e-03 5.391788e-03 3.088865e-02 -9.212886e-03 -5.479556e-02 -1.070955e-01 -1.304009e-02 4.754024e-02 8.766118e-03 -4.536015e-02 -9.100188e-02 7.981057e-02 1.312769e-01 1.930560e-01 2.030434e-01 1.825303e-01 2.256296e-01 2.563579e-01 2.037162e-01 2.009139e-01 2.259226e-01 2.290448e-01 1.954152e-01 2.032410e-02
<VARIANCE> 39
 7.592119e+00 1.234557e+01 2.118526e+01 2.387380e+01 3.547330e+01 3.898544e+01 4.271648e+01 4.324673e+01 4.333303e+01 4.730154e+01 4.280121e+01 4.102341e+01 9.905025e+00 9.830365e-02 2.509241e-01 4.157715e-01 5.590109e-01 7.483082e-01 8.893207e-01 1.027061e+00 1.095262e+00 1.121682e+00 1.088218e+00 9.891781e-01 9.280152e-01 5.739785e-02 1.516828e-02 3.802893e-02 6.256848e-02 8.929880e-02 1.194555e-01 1.433636e-01 1.560319e-01 1.848326e-01 1.994802e-01 1.863412e-01 1.754384e-01 1.587419e-01 1.000000e-02
<GCONST> 7.465466e+01
<MIXTURE> 7 1.133357e-01
<MEAN> 39
 4.099658e+00 3.634644e+00 4.689607e-01 2.832514e+00 -5.406502e-01 -5.325688e+00 -5.970487e+00 -1.827142e+00 1.889461e+00 -2.869540e-01 -3.440279e+00 -2.254462e+00 -1.650067e-01 2.420640e-02 2.277913e-01 7.895522e-02 1.744207e-01 2.877471e-01 1.914112e-01 -6.245723e-02 -4.176183e-01 -1.273325e-01 1.209907e-01 3.794911e-02 -9.406999e-02 -2.922675e-01 -4.566698e-02 -3.648165e-02 -1.596155e-02 -1.323898e-01 -2.565747e-02 1.048176e-01 1.390647e-01 5.064949e-02 -1.187889e-01 -8.282483e-02 4.297865e-02 6.078160e-02 2.619341e-02
<VARIANCE> 39
 1.298432e+01 1.518476e+01 2.489740e+01 1.891266e+01 3.453327e+01 3.633806e+01 4.235778e+01 3.837487e+01 4.757933e+01 4.354796e+01 4.314168e+01 4.429192e+01 1.760253e+01 2.212409e-01 4.347931e-01 7.624972e-01 8.910803e-01 1.133679e+00 1.333913e+00 1.467773e+00 1.638465e+00 1.620018e+00 1.585499e+00 1.495968e+00 1.407835e+00 1.940156e-01 3.503796e-02 6.458196e-02 1.135618e-01 1.313360e-01 1.831373e-01 2.048346e-01 2.329464e-01 2.687324e-01 2.856803e-01 2.634678e-01 2.605252e-01 2.423078e-01 2.191718e-02
<GCONST> 8.879492e+01
<MIXTURE> 8 1.206655e-01
<MEAN> 39
 5.252634e+00 -3.768046e-01 -6.559309e+00 -3.385039e+00 5.867546e+00 -8.040575e-01 -6.048327e+00 3.790828e+00 4.239422e+00 -1.888206e+00 -6.154589e+00 -3.844655e+00 3.514378e+00 1.438178e-01 2.901142e-01 -4.048669e-02 -3.964812e-02 3.486859e-02 8.031393e-02 -1.559244e-01 -4.879665e-01 -1.844824e-01 3.349523e-01 2.132356e-01 -1.893308e-01 -3.105156e-01 -5.016381e-02 2.776116e-02 1.020201e-01 -4.308095e-03 -2.582546e-01 -7.980261e-02 5.498742e-02 -2.315186e-01 -2.267532e-01 -5.244388e-02 1.013684e-01 5.439331e-02 -6.587492e-02
<VARIANCE> 39
 8.037134e+00 1.380577e+01 1.871491e+01 2.526671e+01 3.123549e+01 4.606228e+01 5.289167e+01 4.080713e+01 4.850420e+01 5.770655e+01 4.581971e+01 4.633617e+01 9.902828e+00 2.168098e-01 4.978420e-01 7.649122e-01 1.014682e+00 1.383458e+00 1.577807e+00 1.730105e+00 1.992059e+00 1.969981e+00 1.912758e+00 1.775590e+00 1.565763e+00 1.761574e-01 2.936888e-02 7.370083e-02 1.190099e-01 1.493229e-01 1.802417e-01 2.329118e-01 2.942840e-01 2.690988e-01 3.087532e-01 2.973881e-01 2.786815e-01 2.632739e-01 2.117622e-02
<GCONST> 9.080811e+01
<STATE> 5
<NUMMIXES> 8
<MIXTURE> 1 9.825798e-02
<MEAN> 39
 3.713769e+00 1.308921e+00 8.266082e-01 -2.542680e+00 -1.991991e+00 -3.836890e+00 -2.805066e+00 -2.417672e+00 1.005612e+00 3.310829e+00 2.660381e+00 2.987101e+00 -9.795495e-01 -2.272719e-01 4.120839e-01 9.569019e-02 4.092489e-01 -6.161755e-02 -1.755709e-01 1.175750e-01 -2.906793e-01 -8.723821e-02 -2.888495e-01 -3.378280e-01 -4.206997e-01 -6.305780e-01 -2.080589e-01 -2.666717e-02 -1.038887e-01 1.220872e-01 8.852614e-02 1.638694e-01 4.431139e-02 1.476562e-01 2.923965e-02 -1.070950e-01 -9.671070e-02 -6.973191e-02 2.171580e-01
<VARIANCE> 39
 3.870135e+01 3.531263e+01 6.364776e+01 5.666431e+01 7.506436e+01 7.307841e+01 7.753065e+01 9.277280e+01 1.005209e+02 9.627003e+01 1.111377e+02 1.069802e+02 4.271848e+01 1.936163e+00 2.179049e+00 2.677047e+00 3.397835e+00 3.455952e+00 3.996612e+00 4.293941e+00 4.929757e+00 5.059825e+00 4.966705e+00 4.940714e+00 4.819414e+00 2.633565e+00 3.090236e-01 3.589282e-01 4.561586e-01 5.309737e-01 6.411507e-01 7.156956e-01 8.286376e-01 9.920924e-01 1.008038e+00 9.305422e-01 9.107000e-01 8.458025e-01 3.613865e-01
<GCONST> 1.376476e+02
<MIXTURE> 2 1.253400e-01
<MEAN> 39
 4.054314e+00 6.768835e+00 3.419829e+00 4.349094e+00 3.729228e-01 -3.658105e+00 -4.492281e+00 -5.924782e+00 -3.960810e+00 -5.418026e+00 -7.135292e+00 -6.395811e+00 -5.045584e+00 -6.257133e-01 4.643701e-01 3.740546e-01 7.723218e-01 5.904273e-01 5.055859e-01 7.190084e-01 -1.572150e-01 -1.935323e-01 -4.938968e-02 4.485223e-02 -2.534777e-01 -1.348906e+00 -2.277388e-01 -4.647256e-01 -2.937718e-01 -3.985891e-01 -2.065250e-01 -2.919094e-02 1.365351e-01 4.974464e-01 4.532638e-01 4.503973e-01 4.715862e-01 4.783655e-01 3.890962e-01
<VARIANCE> 39
 1.560942e+01 2.339910e+01 3.019695e+01 2.571440e+01 4.417886e+01 4.111831e+01 4.058796e+01 4.290282e+01 4.015600e+01 4.091518e+01 3.617185e+01 3.657907e+01 2.215369e+01 1.258813e+00 1.396099e+00 1.613837e+00 1.818545e+00 2.377365e+00 2.625826e+00 2.864584e+00 3.040173e+00 2.882745e+00 2.949077e+00 2.780446e+00 2.521142e+00 1.306676e+00 1.477416e-01 2.122560e-01 2.681837e-01 3.133818e-01 3.984364e-01 4.630043e-01 5.176305e-01 5.517614e-01 5.538116e-01 5.215806e-01 4.460118e-01 4.347684e-01 1.403360e-01
<GCONST> 1.131531e+02
<MIXTURE> 3 1.344614e-01
<MEAN> 39
 -2.322772e+00 3.056330e+00 5.505654e-01 4.327634e+00 3.035002e+00 6.149251e-01 1.554042e+00 -3.096361e-01 2.210547e-01 -5.235054e-01 -1.011782e+00 -1.662813e+00 -7.203627e+00 -5.226603e-01 -2.826183e-01 -2.008381e-01 -4.770169e-02 8.301930e-02 2.424718e-01 3.481991e-01 2.469904e-01 2.246799e-01 2.989276e-01 3.343169e-01 1.823817e-01 -4.971770e-01 1.289905e-01 2.315803e-02 1.592861e-02 -1.052710e-01 -1.524898e-01 -2.012958e-01 -2.493531e-01 -1.536944e-01 -7.757796e-02 -4.696187e-02 -2.165951e-02 3.490349e-02 1.806540e-01
<VARIANCE> 39
 3.662843e+01 2.991449e+01 2.955655e+01 2.812650e+01 3.842154e+01 3.290041e+01 3.591769e+01 3.633307e+01 3.539349e+01 3.510156e+01 3.461544e+01 3.726578e+01 4.257028e+01 6.096064e-01 7.329853e-01 9.180845e-01 1.104372e+00 1.412005e+00 1.549990e+00 1.736352e+00 1.796633e+00 1.927140e+00 1.879574e+00 1.804036e+00 1.706809e+00 4.811448e-01 1.035974e-01 1.274143e-01 1.683107e-01 1.994920e-01 2.665134e-01 2.847785e-01 3.286304e-01 3.354759e-01 3.686108e-01 3.614270e-01 3.426908e-01 3.258298e-01 7.123592e-02
<GCONST> 1.012084e+02
<MIXTURE> 4 1.672782e-01
<MEAN> 39
 3.789696e+00 5.651120e+00 4.679530e+00 3.752431e-01 -3.763087e+00 -1.911033e+00 -2.284803e+00 -5.636151e+00 -1.781885e+00 -9.045734e-01 -1.530307e+00 1.785976e-01 -6.616518e-01 1.881915e-03 5.466019e-02 4.741778e-02 6.463569e-02 3.272573e-02 1.391623e-02 1.540221e-02 -2.552474e-02 -2.518624e-02 -3.681862e-02 -1.798462e-02 -2.504416e-03 -1.368566e-01 -8.488618e-03 -4.042434e-02 -3.996776e-02 1.188229e-02 2.812974e-02 -2.192072e-03 -1.292679e-02 5.324198e-02 1.465770e-02 1.612714e-02 2.146289e-02 -1.487463e-02 1.780959e-02
<VARIANCE> 39
 1.856240e+01 3.066096e+01 6.205285e+01 9.148873e+01 6.338211e+01 6.077220e+01 5.811343e+01 6.617793e+01 6.054092e+01 7.261309e+01 6.522629e+01 7.201939e+01 3.546675e+01 1.229182e-01 2.956501e-01 4.826582e-01 6.647356e-01 8.275563e-01 9.976639e-01 1.145284e+00 1.230717e+00 1.274502e+00 1.282210e+00 1.210654e+00 1.095448e+00 9.157123e-02 2.022547e-02 5.125348e-02 8.388406e-02 1.230610e-01 1.607122e-01 1.798476e-01 2.151177e-01 2.379501e-01 2.398087e-01 2.455177e-01 2.249361e-01 2.057451e-01 1.267228e-02
<GCONST> 8.943636e+01
<MIXTURE> 5 1.267572e-01
<MEAN> 39
 7.362802e+00 3.207911e+00 -4.792120e+00 -6.937484e+00 1.636537e+00 4.023227e+00 -6.100859e+00 -6.631710e+00 -2.307969e+00 2.056934e+00 1.999077e+00 -3.526172e-01 1.746099e+00 1.599611e-01 5.109467e-01 2.703688e-01 3.653812e-02 -1.953041e-01 -7.008695e-03 5.536258e-01 -1.975679e-01 -7.732427e-01 -5.977057e-01 1.420770e-03 2.582999e-01 -5.918230e-01 -1.119882e-01 -6.186926e-02 1.606937e-01 2.542761e-01 -5.188378e-02 -3.140073e-01 -1.689145e-03 2.801985e-01 2.426756e-01 -9.919178e-02 -2.629284e-01 -7.006547e-02 1.653336e-02
<VARIANCE> 39
 1.338507e+01 2.449230e+01 3.225811e+01 4.498581e+01 4.665152e+01 4.686012e+01 6.139743e+01 5.330735e+01 6.145438e+01 6.602991e+01 6.437230e+01 7.056033e+01 2.268091e+01 3.772196e-01 8.232653e-01 1.215253e+00 1.874095e+00 1.960226e+00 2.507701e+00 2.446927e+00 2.875175e+00 3.323894e+00 3.015707e+00 3.001240e+00 2.601377e+00 3.397006e-01 5.004759e-02 1.110402e-01 1.855791e-01 2.391857e-01 3.146201e-01 3.479835e-01 4.115681e-01 4.677658e-01 4.967615e-01 5.310885e-01 4.628358e-01 4.581305e-01 3.842408e-02
<GCONST> 1.085521e+02
<MIXTURE> 6 1.061784e-01
<MEAN> 39
 -3.320629e+00 7.270430e+00 1.985344e+00 7.074490e+00 2.321516e+00 -1.034772e+00 5.208742e-01 -2.008774e+00 -7.141418e-01 -1.532002e+00 -1.698920e+00 -2.018975e+00 -5.643578e+00 -1.679615e+00 -4.431843e-01 -5.589857e-01 1.106858e-01 4.195370e-01 8.574590e-01 1.030911e+00 5.716867e-01 5.902238e-01 8.310094e-01 7.372944e-01 3.428699e-01 -7.551170e-01 1.932882e-01 -4.979865e-01 -2.486268e-01 -6.159078e-01 -4.022775e-01 -2.764359e-01 -2.661987e-01 1.318634e-01 1.691452e-01 1.622575e-01 1.295569e-01 2.387746e-01 5.331975e-01
<VARIANCE> 39
 3.988709e+01 4.142369e+01 4.417180e+01 3.109015e+01 4.919170e+01 4.326738e+01 3.991655e+01 4.324309e+01 3.796776e+01 3.846248e+01 3.464140e+01 3.787110e+01 4.985635e+01 2.896243e+00 2.516623e+00 2.284783e+00 2.748710e+00 3.098831e+00 3.657642e+00 3.564191e+00 3.150835e+00 3.348477e+00 3.077460e+00 2.954465e+00 2.916857e+00 3.021633e+00 3.821284e-01 4.495822e-01 4.408896e-01 4.260398e-01 5.627673e-01 5.669984e-01 6.041797e-01 6.635472e-01 6.262431e-01 5.885665e-01 5.268972e-01 5.108793e-01 3.945383e-01
<GCONST> 1.253356e+02
<MIXTURE> 7 1.148315e-01
<MEAN> 39
 4.787085e+00 2.115635e+00 -4.345323e-01 -2.917973e-01 -1.434904e+00 -5.411472e+00 -5.398348e+00 -7.752236e-01 -6.341568e-01 -4.239767e+00 -5.917105e+00 -2.852426e+00 4.418276e-01 -1.395620e-01 1.006031e+00 7.577081e-01 1.109797e+00 2.879892e-01 -1.507306e-01 1.612297e-02 -1.260980e+00 -7.110021e-01 -1.918558e-01 -2.457072e-01 -4.296818e-01 -1.185170e+00 -2.220348e-01 -1.359691e-02 6.495408e-02 1.014075e-01 1.043611e-01 2.079377e-01 2.568654e-01 7.326081e-02 2.928465e-02 1.590345e-01 2.631456e-01 1.004663e-01 2.787499e-02
<VARIANCE> 39
 1.034490e+01 1.821320e+01 2.878792e+01 2.329134e+01 4.079180e+01 3.961963e+01 4.784920e+01 4.390089e+01 4.891541e+01 4.200581e+01 3.402656e+01 3.811442e+01 1.409256e+01 6.487537e-01 9.881974e-01 1.700897e+00 1.696001e+00 2.409711e+00 2.597465e+00 3.036669e+00 3.682817e+00 3.496645e+00 3.062816e+00 2.950147e+00 2.671723e+00 6.123552e-01 9.439746e-02 1.462281e-01 1.955524e-01 2.294250e-01 3.313836e-01 3.422106e-01 4.328306e-01 4.936959e-01 4.717406e-01 4.326829e-01 3.597196e-01 3.568575e-01 6.607253e-02
<GCONST> 1.072457e+02
<MIXTURE> 8 1.268953e-01
<MEAN> 39
 3.417919e+00 4.786186e+00 3.309872e+00 3.903340e+00 -1.634274e+00 -6.195181e+00 -4.692116e+00 -4.284853e+00 -1.382895e+00 1.040574e+00 1.653648e+00 1.616779e+00 -2.490503e+00 -2.543339e-01 4.815069e-01 4.098864e-01 5.305602e-01 3.859427e-01 1.526104e-01 1.983541e-01 -5.108578e-01 -2.667956e-01 3.843476e-02 -8.414407e-02 -2.417701e-01 -8.223549e-01 -9.968898e-02 -2.272790e-01 -1.875573e-01 -2.569100e-01 -2.257316e-02 2.111808e-01 2.128874e-01 3.327873e-01 1.090603e-01 -1.657568e-01 -2.182327e-01 -8.169936e-02 1.972579e-01
<VARIANCE> 39
 1.199656e+01 2.095978e+01 2.962556e+01 2.472503e+01 3.710492e+01 3.277855e+01 3.749069e+01 4.045848e+01 4.349724e+01 3.903234e+01 3.653805e+01 4.989845e+01 2.150872e+01 6.714769e-01 9.457343e-01 1.426525e+00 1.538267e+00 2.072455e+00 2.362004e+00 2.448544e+00 2.816812e+00 2.669150e+00 2.544524e+00 2.427012e+00 2.391622e+00 6.290547e-01 6.795192e-02 1.105477e-01 1.754703e-01 2.120475e-01 2.944658e-01 3.079181e-01 3.770196e-01 3.944606e-01 4.089758e-01 3.628857e-01 3.252780e-01 3.495156e-01 5.992243e-02
<GCONST> 1.039192e+02
<TRANSP> 6
 0.000000e+00 1.000000e+00 0.000000e+00 0.000000e+00 0.000000e+00 0.000000e+00
 0.000000e+00 7.075757e-01 2.924243e-01 0.000000e+00 0.000000e+00 0.000000e+00
 0.000000e+00 0.000000e+00 8.506517e-01 1.493483e-01 0.000000e+00 0.000000e+00
 0.000000e+00 0.000000e+00 0.000000e+00 8.189479e-01 1.810521e-01 0.000000e+00
 0.000000e+00 0.000000e+00 0.000000e+00 0.000000e+00 7.580811e-01 2.419189e-01
 0.000000e+00 0.000000e+00 0.000000e+00 0.000000e+00 0.000000e+00 0.000000e+00
<ENDHMM>
