~o
<STREAMINFO> 1 39
<VECSIZE> 39<NULLD><MFCC_D_A_Z_0><DIAGC>
~h "ay"
<BEGINHMM>
<NUMSTATES> 6
<STATE> 2
<NUMMIXES> 4
<MIXTURE> 1 4.163998e-01
<MEAN> 39
 2.216792e+00 -4.114906e+00 -2.254902e+00 -1.246866e+00 1.767776e+00 3.920651e+00 -2.246425e+00 -6.098801e+00 -1.611539e+00 -5.712070e+00 -2.593732e+00 -1.733864e+00 9.349724e+00 -7.627669e-02 -1.996437e-01 6.964494e-02 3.305977e-01 4.847515e-02 -6.237208e-02 -1.595827e-01 -8.355909e-02 1.021316e-01 6.604907e-02 -1.485178e-02 -3.909212e-02 5.937163e-02 3.531411e-02 6.195309e-02 5.693394e-03 -5.413800e-02 -1.264259e-01 -8.284189e-02 6.972058e-02 6.344550e-02 -4.509523e-02 -1.694305e-03 3.416893e-02 7.277763e-02 -7.591755e-02
<VARIANCE> 39
 2.265370e+01 3.954707e+01 2.572465e+01 7.246501e+01 6.294508e+01 5.561330e+01 7.033070e+01 6.883709e+01 5.211595e+01 6.649828e+01 7.202612e+01 8.701497e+01 2.853732e+01 3.236930e-01 6.541883e-01 7.751489e-01 1.411254e+00 1.555583e+00 1.744620e+00 2.046843e+00 1.911404e+00 1.872995e+00 1.899610e+00 1.815678e+00 1.784233e+00 1.933192e-01 5.000354e-02 1.006785e-01 1.330054e-01 2.104630e-01 2.667742e-01 3.136076e-01 3.458551e-01 3.252839e-01 3.250500e-01 3.301891e-01 3.347085e-01 2.931880e-01 3.549417e-02
<GCONST> 1.031726e+02
<MIXTURE> 2 2.163173e-01
<MEAN> 39
 2.418955e+00 -3.735357e+00 -3.187677e+00 -3.302584e+00 -8.257030e-01 3.846560e+00 3.658709e+00 2.176195e+00 4.724166e+00 -1.070740e+00 -2.610728e+00 -4.733964e+00 9.176311e+00 -4.550698e-01 -7.521353e-01 -5.203605e-03 7.534180e-01 7.619604e-01 6.742400e-01 -2.585610e-01 -1.095077e-01 5.043310e-01 4.646387e-02 -1.263942e-01 -3.609242e-01 1.034120e+00 -1.785305e-01 2.492811e-01 3.180867e-01 3.227940e-01 7.539084e-02 -3.328729e-01 -2.181350e-01 -3.152990e-02 -2.293601e-01 6.932575e-02 5.112492e-03 1.379580e-01 -4.719851e-01
<VARIANCE> 39
 2.729525e+01 4.166757e+01 3.372318e+01 7.654053e+01 6.172464e+01 7.170251e+01 9.578319e+01 1.638081e+02 1.579355e+02 1.573449e+02 1.600398e+02 1.975038e+02 3.197605e+01 1.286340e+00 2.187996e+00 2.423059e+00 4.017214e+00 3.857996e+00 4.916492e+00 5.163600e+00 5.449921e+00 6.476598e+00 6.131237e+00 7.746536e+00 9.290768e+00 1.714646e+00 2.921363e-01 3.332880e-01 4.055119e-01 6.878176e-01 6.823449e-01 8.259048e-01 9.672675e-01 1.057043e+00 1.160398e+00 1.137125e+00 1.228995e+00 1.302612e+00 3.111408e-01
<GCONST> 1.420828e+02
<MIXTURE> 3 1.543584e-01
<MEAN> 39
 -4.141584e+00 -4.442661e+00 3.609481e+00 4.126449e+00 2.984431e+00 7.159554e+00 1.027279e+01 2.211409e+01 1.809202e+01 -1.262882e+01 -2.677838e+01 -1.257117e+01 1.269581e+01 3.804536e-02 -2.586914e-02 2.751372e-02 1.381130e-01 -3.904338e-02 -6.047291e-02 -2.236974e-02 7.569816e-03 8.522877e-02 8.338768e-03 -8.184311e-02 4.198099e-03 -3.711701e-02 1.117910e-02 7.725817e-03 -4.755588e-02 -5.811362e-02 -6.103108e-05 4.408694e-03 -1.257025e-02 -6.694468e-02 -8.519050e-02 1.955971e-01 1.706010e-01 -5.339703e-02 -5.761260e-03
<VARIANCE> 39
 1.618365e+01 1.908570e+01 2.654199e+01 6.169619e+01 4.709598e+01 4.864212e+01 9.009352e+01 5.532605e+01 1.229467e+02 1.207530e+02 6.846292e+01 2.517023e+02 1.174078e+01 4.845598e-01 7.789804e-01 9.459140e-01 1.286020e+00 1.402840e+00 1.632931e+00 2.289090e+00 2.148461e+00 2.763977e+00 3.516196e+00 2.541319e+00 3.517079e+00 1.817373e-01 9.181964e-02 1.448281e-01 1.701284e-01 1.951499e-01 2.446022e-01 2.748294e-01 3.758867e-01 4.062945e-01 4.348089e-01 4.550909e-01 4.325093e-01 4.406985e-01 3.020825e-02
<GCONST> 1.082061e+02
<MIXTURE> 4 2.129245e-01
<MEAN> 39
 -3.435495e+00 -2.618253e+00 -9.548250e-01 3.291196e-01 4.129001e+00 4.224538e+00 4.580337e+00 1.476812e+01 2.308446e+01 1.362014e+01 -7.848079e+00 -2.862825e+01 1.064059e+01 -1.203072e-02 -8.378801e-02 1.220832e-01 2.437862e-01 -7.539894e-05 -2.343146e-02 -2.753831e-02 4.288595e-02 3.171028e-02 3.194836e-02 -2.419252e-01 -1.992969e-01 -2.435465e-02 3.692720e-02 -5.955665e-03 -6.073125e-04 -3.027296e-02 -9.760936e-02 -6.635411e-03 6.967180e-02 -2.326651e-02 -1.088336e-01 -1.619248e-01 7.908761e-02 3.011360e-01 -2.989978e-02
<VARIANCE> 39
 1.528144e+01 2.701437e+01 2.821836e+01 7.495211e+01 6.515194e+01 4.506448e+01 6.471983e+01 7.136537e+01 5.478592e+01 5.358218e+01 1.417082e+02 6.336736e+01 2.053529e+01 4.411572e-01 7.542043e-01 1.037063e+00 1.476411e+00 1.879144e+00 1.703430e+00 2.337841e+00 2.576181e+00 2.557374e+00 3.143825e+00 4.653642e+00 2.873532e+00 1.829107e-01 7.161056e-02 1.219017e-01 1.779614e-01 2.141798e-01 3.073451e-01 3.168931e-01 3.975891e-01 4.078036e-01 4.857318e-01 4.302739e-01 6.661123e-01 5.719789e-01 2.988603e-02
<GCONST> 1.089555e+02
<STATE> 3
<NUMMIXES> 4
<MIXTURE> 1 3.287776e-01
<MEAN> 39
 8.927543e-01 -6.206464e+00 -3.377758e+00 2.065019e+00 1.548500e+00 2.809412e+00 -2.476450e+00 -7.763591e+00 -1.599040e+00 -3.516586e+00 1.350951e+00 2.636727e+00 1.048193e+01 3.470555e-03 1.357669e-02 -6.438775e-03 -1.667879e-02 -7.730734e-03 -3.516649e-02 -1.479059e-02 1.475708e-02 -1.059506e-02 -5.040688e-03 4.462299e-04 2.747032e-02 -3.023839e-02 4.479228e-02 6.736488e-02 7.048553e-02 5.752636e-02 7.504600e-02 8.608492e-02 8.362295e-02 7.331219e-02 6.439492e-02 3.934018e-02 3.123134e-02 2.142686e-02 1.023660e-02
<VARIANCE> 39
 1.516750e+01 3.112517e+01 2.090245e+01 8.056303e+01 5.730096e+01 4.129818e+01 7.190736e+01 6.038066e+01 5.336381e+01 6.609412e+01 8.673602e+01 1.175293e+02 1.349099e+01 8.883728e-02 1.847297e-01 2.642483e-01 4.015247e-01 4.541035e-01 5.286561e-01 5.554659e-01 5.933007e-01 5.894301e-01 5.553493e-01 5.364013e-01 5.412037e-01 3.264957e-02 1.446766e-02 3.076647e-02 4.400966e-02 6.200751e-02 7.774383e-02 8.703152e-02 9.642565e-02 1.013326e-01 9.620436e-02 9.820118e-02 9.443890e-02 9.376019e-02 1.000000e-02
<GCONST> 6.950356e+01
<MIXTURE> 2 3.355415e-01
<MEAN> 39
 -8.910105e-01 -7.378952e+00 2.323069e-01 5.815453e+00 2.336845e+00 6.095951e+00 -3.403928e+00 -4.727030e+00 5.219424e+00 3.379014e+00 8.009937e+00 8.715616e+00 1.312366e+01 1.932761e-02 2.568238e-02 6.487268e-03 -2.517947e-02 -1.585043e-02 -8.592048e-03 1.044288e-02 3.475089e-02 -4.877392e-03 4.377100e-03 2.618138e-02 -7.091306e-03 -4.367073e-02 -5.381636e-02 -7.887955e-02 -1.433532e-01 -1.648749e-01 -1.315138e-01 -1.330072e-01 -9.737071e-02 -9.335528e-02 -1.066255e-01 -5.478777e-02 -1.017729e-02 -1.111052e-02 -4.502960e-02
<VARIANCE> 39
 1.364729e+01 1.539635e+01 2.133275e+01 4.983901e+01 4.616586e+01 3.423486e+01 5.841380e+01 5.642738e+01 5.614161e+01 7.769341e+01 9.127782e+01 1.296080e+02 1.519586e+01 1.924529e-01 3.604626e-01 4.717411e-01 6.837188e-01 7.728782e-01 7.725828e-01 8.742577e-01 8.266072e-01 8.630291e-01 9.742138e-01 9.266788e-01 1.051784e+00 6.215932e-02 2.579711e-02 4.734231e-02 6.260496e-02 8.378819e-02 1.053722e-01 1.095564e-01 1.332131e-01 1.337431e-01 1.424392e-01 1.603991e-01 1.615356e-01 1.748060e-01 1.000000e-02
<GCONST> 7.992393e+01
<MIXTURE> 3 2.529112e-01
<MEAN> 39
 3.745972e-01 -6.845507e+00 -1.977397e+00 2.522116e+00 -9.111381e-01 1.951764e+00 -2.586806e+00 -3.533705e+00 1.304495e+00 1.372530e+00 6.834165e+00 8.723935e+00 1.032164e+01 4.871492e-02 7.441092e-02 3.952559e-02 3.382911e-02 -1.477972e-01 -1.907767e-01 1.996708e-02 1.481725e-01 -1.059425e-01 -2.491225e-02 1.043676e-01 1.403846e-01 -1.515101e-01 6.434834e-02 1.308062e-01 5.835164e-02 2.080199e-03 3.491700e-02 3.637148e-02 8.140308e-02 3.798185e-02 -1.160301e-02 2.165965e-02 -3.411954e-02 -7.503945e-02 -5.479313e-02
<VARIANCE> 39
 2.071268e+01 3.940314e+01 3.697353e+01 7.960263e+01 6.149736e+01 5.955442e+01 7.961181e+01 7.654253e+01 8.566684e+01 1.011149e+02 1.197274e+02 1.428447e+02 3.391959e+01 4.696354e-01 8.672254e-01 1.180032e+00 1.727962e+00 1.960109e+00 2.145793e+00 2.316191e+00 2.218731e+00 2.380141e+00 2.572003e+00 2.816123e+00 2.973127e+00 3.227614e-01 7.664208e-02 1.389112e-01 1.955762e-01 2.634412e-01 3.375332e-01 3.755111e-01 3.871699e-01 3.848324e-01 4.075248e-01 4.277966e-01 4.495154e-01 4.762571e-01 5.555693e-02
<GCONST> 1.136651e+02
<MIXTURE> 4 8.276968e-02
<MEAN> 39
 -1.776525e+00 3.554235e+00 -5.407442e+00 -4.205302e+00 7.307629e+00 -2.621593e+00 1.255680e+01 1.761796e+01 2.090984e+01 1.043955e+01 -1.424091e+01 -2.907710e+01 8.047058e+00 -2.558855e-03 -9.755587e-03 1.126327e-02 4.446316e-02 5.549720e-03 -6.100945e-03 -1.315134e-03 4.662564e-02 -1.001988e-02 -5.654049e-02 -4.667739e-02 5.567260e-03 -1.430655e-02 1.536402e-03 -1.879520e-02 5.816582e-03 -1.786407e-02 -2.415808e-02 2.488170e-02 -2.305520e-02 -3.580384e-03 -1.340399e-02 -2.643085e-02 3.559032e-02 4.093776e-02 -4.673082e-03
<VARIANCE> 39
 3.576546e+01 3.091380e+01 2.967429e+01 5.291114e+01 6.272442e+01 4.513869e+01 6.217822e+01 8.646491e+01 6.046396e+01 1.182404e+02 1.799295e+02 1.014494e+02 2.443037e+01 1.750097e-01 4.395612e-01 5.955003e-01 5.131703e-01 5.636098e-01 7.870103e-01 7.667949e-01 8.783672e-01 9.112930e-01 1.056744e+00 1.142254e+00 9.100589e-01 5.360744e-02 3.174154e-02 7.655521e-02 1.106440e-01 9.283900e-02 1.035632e-01 1.448591e-01 1.328102e-01 1.584005e-01 1.617885e-01 1.720958e-01 1.833636e-01 1.568415e-01 1.000000e-02
<GCONST> 8.618735e+01
<STATE> 4
<NUMMIXES> 4
<MIXTURE> 1 3.176792e-01
<MEAN> 39
 6.479383e+00 -2.355261e+00 -6.359396e+00 1.237658e+00 -3.060699e-01 -2.085681e+00 1.717444e+00 -2.634901e+00 -5.746368e+00 -7.703994e+00 -4.835582e+00 -3.208090e+00 6.130515e+00 9.496699e-02 1.876133e-01 3.678207e-03 -1.081780e-01 -7.408693e-02 -1.708759e-01 -1.611692e-02 1.097621e-01 -7.273475e-02 -3.810778e-02 -2.019143e-02 7.367549e-04 -1.958174e-01 -2.738709e-03 2.122183e-02 3.245004e-02 -2.936121e-02 -2.359474e-02 1.316007e-02 -1.290145e-02 -3.379969e-02 2.329680e-02 2.297996e-02 4.301445e-03 1.248173e-02 -2.157874e-02
<VARIANCE> 39
 2.206016e+01 4.861995e+01 3.963427e+01 8.564564e+01 5.471147e+01 5.335416e+01 8.107583e+01 6.487502e+01 4.279343e+01 4.143965e+01 5.852021e+01 7.417509e+01 1.910423e+01 1.910011e-01 4.433000e-01 6.224416e-01 9.619128e-01 1.092108e+00 1.351101e+00 1.584879e+00 1.570570e+00 1.412780e+00 1.378188e+00 1.370695e+00 1.280608e+00 1.219760e-01 2.807361e-02 6.294812e-02 9.993060e-02 1.499568e-01 1.883824e-01 2.306842e-01 2.618330e-01 2.709573e-01 2.433430e-01 2.427190e-01 2.412388e-01 2.165718e-01 1.526712e-02
<GCONST> 9.329839e+01
<MIXTURE> 2 2.402535e-01
<MEAN> 39
 -1.602917e+00 -6.137410e+00 6.414239e-01 3.899136e+00 -6.815137e-01 4.807296e+00 1.597188e+00 7.085850e+00 1.553912e+01 1.368488e+01 2.841319e+00 -1.205900e+01 9.085755e+00 6.164501e-02 1.323030e-01 -4.013973e-02 -1.470215e-01 -1.287867e-01 -1.011601e-01 3.189095e-02 5.071062e-02 -1.114768e-01 2.373301e-02 6.103004e-02 7.383995e-02 -2.121037e-01 2.825452e-02 7.013784e-02 -2.269046e-02 -5.286938e-02 9.176414e-04 -3.571767e-02 -4.887163e-03 -3.099326e-02 -7.227113e-02 -4.477731e-02 -4.580675e-02 1.129053e-02 -5.469025e-02
<VARIANCE> 39
 2.484952e+01 3.094590e+01 3.534447e+01 7.252174e+01 6.405758e+01 6.139064e+01 6.236894e+01 9.583587e+01 1.290274e+02 1.447253e+02 1.888683e+02 2.332358e+02 3.547454e+01 5.851039e-01 9.378750e-01 1.171068e+00 1.611160e+00 1.881166e+00 1.879055e+00 2.141891e+00 2.526622e+00 2.691635e+00 2.864243e+00 3.682639e+00 3.628751e+00 3.756438e-01 9.397257e-02 1.528192e-01 1.940610e-01 2.511110e-01 3.077533e-01 3.347638e-01 3.547245e-01 4.285802e-01 4.590003e-01 4.684876e-01 5.251062e-01 5.269170e-01 5.473528e-02
<GCONST> 1.167345e+02
<MIXTURE> 3 1.116259e-01
<MEAN> 39
 3.286085e+00 -4.125779e+00 -2.097325e+00 5.385473e+00 1.978183e+00 8.094131e+00 1.885612e+01 2.338718e+01 7.608004e+00 -2.080713e+01 -2.751560e+01 -1.930966e+00 7.431497e+00 9.825994e-03 1.123675e-02 -1.029183e-02 1.860932e-02 8.301537e-04 -1.032529e-04 9.037231e-03 7.803402e-03 -2.563518e-02 -7.841385e-03 6.721427e-03 1.106340e-02 -1.352171e-02 -2.355783e-03 -5.075273e-03 -6.297172e-03 -4.953532e-03 -4.667467e-03 -2.880036e-04 -9.670989e-04 -8.710397e-03 9.426552e-03 1.574115e-02 -1.953772e-03 -1.706322e-02 -2.938716e-03
<VARIANCE> 39
 3.628457e+01 1.078727e+01 4.386568e+01 6.476284e+01 4.226328e+01 3.762296e+01 1.040922e+02 5.117284e+01 1.745097e+02 1.863115e+02 1.403599e+02 4.240766e+02 2.103203e+01 2.017864e-01 3.268766e-01 3.602909e-01 3.340275e-01 4.194366e-01 4.694518e-01 5.818859e-01 5.620914e-01 6.589855e-01 6.411067e-01 6.935197e-01 6.908813e-01 3.991642e-02 3.814697e-02 6.203519e-02 6.634572e-02 6.042029e-02 7.640186e-02 8.492134e-02 1.132452e-01 1.048222e-01 1.171246e-01 1.166885e-01 1.209867e-01 1.219176e-01 1.000000e-02
<GCONST> 7.943182e+01
<MIXTURE> 4 3.304414e-01
<MEAN> 39
 -2.763626e+00 -6.535047e+00 8.268172e-01 7.577698e+00 1.442677e+00 6.758437e+00 3.617484e+00 1.269724e+01 2.276677e+01 1.465449e+01 -7.806352e+00 -2.787242e+01 1.101407e+01 5.608352e-03 7.382052e-04 4.178669e-03 -1.021072e-02 -9.790407e-03 1.372272e-02 7.828266e-04 2.503917e-02 7.044971e-03 -1.177546e-02 -2.358936e-02 -2.499974e-02 -2.188139e-02 -4.132626e-03 -5.799558e-03 -1.925626e-02 -1.644001e-02 -3.164077e-03 -4.969715e-03 3.442490e-03 -2.509941e-03 7.715238e-03 -2.738130e-03 4.432659e-03 1.155496e-02 -7.033895e-03
<VARIANCE> 39
 2.223641e+01 1.557039e+01 2.637123e+01 4.799002e+01 6.023819e+01 3.362516e+01 5.198522e+01 5.828033e+01 6.229056e+01 6.940616e+01 1.647034e+02 7.324321e+01 1.652263e+01 2.193748e-01 3.440941e-01 4.006245e-01 4.272276e-01 4.844584e-01 5.097644e-01 5.395393e-01 7.675406e-01 7.422404e-01 6.616421e-01 8.400933e-01 7.154930e-01 5.339147e-02 3.820485e-02 6.084174e-02 7.176820e-02 7.597356e-02 8.319869e-02 9.900618e-02 1.006098e-01 1.401519e-01 1.377025e-01 1.157365e-01 1.424431e-01 1.260873e-01 1.000000e-02
<GCONST> 7.699200e+01
<STATE> 5
<NUMMIXES> 4
<MIXTURE> 1 3.201822e-01
<MEAN> 39
 3.769045e+00 -2.861929e-01 -1.134699e+00 -3.350977e+00 -2.001606e+00 -1.454265e+00 -1.683594e+00 -3.626886e+00 -4.294899e+00 -5.536008e+00 -2.258393e+00 1.223142e+00 4.537755e+00 9.706119e-02 6.301586e-01 3.126377e-01 -1.330469e-01 -1.803060e-01 -4.789513e-01 -1.603995e-01 -1.865401e-01 -2.387512e-01 5.753826e-02 -1.594047e-01 -5.569425e-02 -8.017948e-01 -6.449167e-02 -8.193459e-03 1.998291e-02 9.362252e-02 9.041831e-02 4.278797e-02 -5.061880e-03 -8.281704e-03 5.956301e-02 7.924776e-02 -3.154203e-02 -4.231931e-02 -7.311887e-02
<VARIANCE> 39
 2.858168e+01 4.387149e+01 3.746485e+01 6.977844e+01 5.967414e+01 6.579836e+01 6.221569e+01 5.867822e+01 5.524773e+01 6.567229e+01 8.784657e+01 1.109927e+02 3.901500e+01 8.200372e-01 1.288559e+00 1.534470e+00 2.346622e+00 2.506525e+00 2.968886e+00 3.072649e+00 2.980077e+00 2.872408e+00 2.732462e+00 2.628877e+00 2.629969e+00 8.775412e-01 1.172946e-01 2.039310e-01 2.654212e-01 3.555335e-01 4.252146e-01 5.238833e-01 5.441232e-01 5.360516e-01 5.111515e-01 5.107824e-01 4.720181e-01 4.648220e-01 1.093712e-01
<GCONST> 1.197246e+02
<MIXTURE> 2 1.770099e-01
<MEAN> 39
 8.844155e-01 -2.817153e+00 -1.014360e+00 -1.187074e+00 -2.457363e+00 2.658059e+00 6.971789e+00 1.240647e+01 1.396627e+01 5.955509e+00 -6.544187e+00 -1.255829e+01 5.675607e+00 -2.593531e-02 2.776613e-01 1.488967e-02 -3.094644e-01 -1.613395e-01 -2.622505e-01 -3.477213e-01 -5.435995e-01 -6.357573e-01 -7.232350e-02 4.298277e-01 8.206010e-01 -6.778255e-01 -9.331504e-02 -1.118332e-05 -2.863884e-03 7.455826e-02 1.700042e-01 1.535772e-02 -1.445324e-01 -1.378614e-01 -1.504636e-01 -1.302357e-01 -9.345590e-02 1.367794e-02 -7.792906e-02
<VARIANCE> 39
 2.335820e+01 3.662536e+01 2.893528e+01 7.540985e+01 6.416526e+01 6.815099e+01 9.773352e+01 1.428239e+02 1.419422e+02 1.680712e+02 2.877325e+02 2.563483e+02 3.751531e+01 1.337886e+00 1.666239e+00 1.910496e+00 2.960582e+00 3.327410e+00 4.182693e+00 5.014189e+00 5.104255e+00 6.208623e+00 5.963610e+00 7.534070e+00 8.044559e+00 2.202576e+00 1.947043e-01 2.642547e-01 3.190741e-01 4.579622e-01 5.584049e-01 7.090060e-01 8.846101e-01 8.645460e-01 1.040535e+00 8.943778e-01 1.157454e+00 1.244682e+00 2.397863e-01
<GCONST> 1.386527e+02
<MIXTURE> 3 2.006475e-01
<MEAN> 39
 -3.162253e-01 -5.123742e+00 -9.393026e-01 5.864316e+00 9.480964e-01 7.100052e+00 1.665874e+01 2.414655e+01 1.467192e+01 -1.482642e+01 -3.488968e+01 -1.181067e+01 7.695903e+00 4.793910e-03 1.731132e-02 -1.720112e-02 -2.209421e-02 1.838096e-03 -2.693774e-02 1.038231e-02 -2.882904e-03 2.669715e-02 1.847356e-02 -6.141223e-02 -3.216976e-02 -4.473824e-02 6.196600e-03 7.126832e-03 -2.419988e-02 -2.976091e-02 -2.123860e-02 3.231926e-03 -3.597178e-02 -3.362380e-02 -3.428729e-03 1.465835e-01 1.237827e-01 -1.094683e-01 -7.448721e-03
<VARIANCE> 39
 2.485912e+01 2.830311e+01 3.004546e+01 6.702839e+01 5.433241e+01 5.443690e+01 7.887753e+01 5.064661e+01 7.683418e+01 7.153687e+01 5.639502e+01 1.270653e+02 2.577380e+01 4.056311e-01 7.594303e-01 9.557936e-01 9.020046e-01 1.176027e+00 1.266629e+00 1.478684e+00 1.625075e+00 1.875487e+00 2.443125e+00 1.773458e+00 2.537118e+00 1.402047e-01 7.428600e-02 1.497750e-01 1.897179e-01 1.584545e-01 2.167007e-01 2.466003e-01 2.736753e-01 3.042575e-01 3.268697e-01 3.799518e-01 3.205445e-01 3.356825e-01 2.257938e-02
<GCONST> 1.023515e+02
<MIXTURE> 4 3.021603e-01
<MEAN> 39
 9.627042e-01 -3.530785e+00 -2.746636e+00 2.628883e+00 -1.907890e+00 4.098049e+00 1.068359e+01 2.090926e+01 2.112514e+01 1.001548e+01 -1.614320e+01 -3.127513e+01 5.899289e+00 5.076489e-02 5.596853e-02 -4.108805e-02 -5.123696e-02 -1.345523e-02 -2.754688e-02 4.733855e-02 4.451630e-02 -5.697526e-02 -1.798637e-02 9.198224e-03 3.523819e-02 -1.011244e-01 5.692866e-03 -5.123778e-03 8.447594e-03 -1.660493e-02 -7.360830e-03 -5.229853e-03 1.239380e-02 -3.320586e-02 -2.180075e-02 -6.405012e-02 1.782382e-02 1.403512e-01 -8.727389e-03
<VARIANCE> 39
 3.118930e+01 2.994552e+01 2.599321e+01 8.140092e+01 7.278313e+01 4.372826e+01 8.102308e+01 7.522896e+01 6.465434e+01 6.455034e+01 1.043751e+02 7.076490e+01 2.237011e+01 2.832686e-01 5.598911e-01 8.153763e-01 9.863784e-01 1.145832e+00 1.315388e+00 1.467617e+00 1.606055e+00 1.757224e+00 2.172438e+00 2.312826e+00 1.995594e+00 1.135819e-01 5.070272e-02 1.010484e-01 1.453128e-01 1.708563e-01 2.004670e-01 2.398854e-01 2.596324e-01 2.864281e-01 3.259006e-01 3.280023e-01 3.483679e-01 3.548873e-01 1.631804e-02
<GCONST> 1.001634e+02
<TRANSP> 6
 0.000000e+00 1.000000e+00 0.000000e+00 0.000000e+00 0.000000e+00 0.000000e+00
 0.000000e+00 8.312458e-01 1.687542e-01 0.000000e+00 0.000000e+00 0.000000e+00
 0.000000e+00 0.000000e+00 9.072241e-01 9.277596e-02 0.000000e+00 0.000000e+00
 0.000000e+00 0.000000e+00 0.000000e+00 8.836976e-01 1.163024e-01 0.000000e+00
 0.000000e+00 0.000000e+00 0.000000e+00 0.000000e+00 8.475159e-01 1.524841e-01
 0.000000e+00 0.000000e+00 0.000000e+00 0.000000e+00 0.000000e+00 0.000000e+00
<ENDHMM>
