~o
<STREAMINFO> 1 39
<VECSIZE> 39<NULLD><MFCC_D_A_Z_0><DIAGC>
~h "m"
<BEGINHMM>
<NUMSTATES> 6
<STATE> 2
<NUMMIXES> 4
<MIXTURE> 1 2.884019e-01
<MEAN> 39
 5.275980e+00 5.816206e-01 -1.664099e+00 -6.121378e-01 -4.842427e+00 -5.836466e+00 -4.548259e+00 -6.672037e+00 -4.544892e+00 5.499215e+00 1.222059e+01 1.751012e+01 1.232330e+00 5.757657e-02 1.079503e-01 6.096363e-02 -2.254625e-03 -2.591970e-03 -1.242619e-01 1.007692e-02 -3.568045e-02 -9.291321e-02 7.454424e-02 -4.444635e-02 3.666836e-02 -1.317981e-01 -7.634116e-03 -1.725063e-02 6.278586e-03 -2.493306e-02 -1.839635e-02 6.187730e-02 2.396548e-02 5.125800e-02 1.266417e-02 -8.404861e-02 -1.140312e-01 -1.457836e-01 1.475458e-02
<VARIANCE> 39
 1.673412e+01 4.034517e+01 3.181702e+01 6.348308e+01 5.143346e+01 6.468454e+01 6.360908e+01 5.383359e+01 7.114337e+01 7.912386e+01 7.021217e+01 6.961020e+01 2.301513e+01 3.041268e-01 6.852718e-01 9.352627e-01 1.333722e+00 1.525744e+00 1.859643e+00 2.025778e+00 2.166275e+00 2.404480e+00 2.579255e+00 2.634870e+00 2.631852e+00 2.010292e-01 5.209748e-02 1.231201e-01 1.767557e-01 2.355959e-01 2.844974e-01 3.397345e-01 3.762531e-01 3.983196e-01 4.211460e-01 4.380560e-01 4.520782e-01 4.498573e-01 3.092334e-02
<GCONST> 1.064277e+02
<MIXTURE> 2 2.673723e-01
<MEAN> 39
 6.336838e+00 4.551561e+00 3.603677e-01 -2.776312e+00 -3.333581e+00 -5.132874e+00 -4.199083e+00 -8.685867e+00 -1.010816e+01 -9.637790e+00 -7.006713e+00 -1.801053e+00 -1.002481e+00 4.463084e-02 1.446503e-01 1.422097e-01 1.595402e-01 9.272518e-03 -1.713120e-01 -7.947407e-02 -1.485443e-01 -1.697087e-01 4.464339e-02 -1.532953e-01 -9.817335e-02 -2.221617e-01 -6.228370e-02 -6.662045e-02 -4.009184e-02 2.181083e-02 2.633214e-02 9.048879e-02 5.466676e-02 1.131623e-01 1.347538e-01 9.491266e-02 1.497894e-01 1.348561e-01 6.180849e-02
<VARIANCE> 39
 2.625151e+01 3.832924e+01 3.270807e+01 4.817995e+01 4.309954e+01 5.378630e+01 5.867387e+01 6.289960e+01 5.328990e+01 4.988178e+01 5.091851e+01 5.960128e+01 2.587008e+01 5.232285e-01 1.076133e+00 1.221962e+00 1.733976e+00 1.929106e+00 2.398300e+00 2.725938e+00 2.743876e+00 2.531006e+00 2.508100e+00 2.528390e+00 2.521829e+00 5.504384e-01 9.142724e-02 1.599709e-01 2.159727e-01 2.835030e-01 3.528560e-01 4.254652e-01 4.903037e-01 5.087380e-01 4.818453e-01 4.547462e-01 4.494711e-01 4.189869e-01 7.336836e-02
<GCONST> 1.117934e+02
<MIXTURE> 3 2.092153e-01
<MEAN> 39
 3.768468e+00 1.469202e+00 -1.325715e+00 -2.282912e+00 -3.162871e+00 -2.324149e+00 -9.325579e-01 -3.789297e+00 -3.010767e+00 -4.194365e-01 2.984794e+00 3.755776e+00 1.646506e+00 4.471110e-01 2.164227e-01 2.602361e-02 -2.408614e-01 -2.093742e-01 -5.135639e-01 -2.436248e-01 -6.875871e-01 -5.023117e-01 -1.311433e-01 6.947049e-02 2.420267e-01 2.181157e-01 -1.758780e-01 -7.106061e-02 6.987243e-02 1.231936e-01 1.473572e-01 6.238749e-02 -5.085506e-03 8.148757e-02 7.660167e-03 -3.096198e-02 -1.065136e-01 -8.182059e-03 -5.337724e-02
<VARIANCE> 39
 2.849907e+01 4.833654e+01 3.462412e+01 6.701907e+01 5.921809e+01 7.785326e+01 7.915092e+01 1.018280e+02 1.284591e+02 1.472337e+02 1.776191e+02 1.778806e+02 3.983109e+01 2.465115e+00 2.878442e+00 2.951647e+00 4.464901e+00 3.969646e+00 5.543938e+00 5.315507e+00 5.725021e+00 6.588501e+00 6.631110e+00 8.121503e+00 7.683232e+00 3.789442e+00 3.422538e-01 4.008708e-01 4.534823e-01 6.706599e-01 6.791896e-01 8.965946e-01 9.118682e-01 9.508010e-01 1.091289e+00 1.041973e+00 1.145979e+00 1.114219e+00 3.322724e-01
<GCONST> 1.437221e+02
<MIXTURE> 4 2.350105e-01
<MEAN> 39
 3.230114e+00 -5.839483e+00 -2.146092e+00 8.956469e+00 -4.086530e+00 2.262658e+00 -2.225248e+00 -7.174749e+00 -5.844925e+00 6.605270e+00 1.153076e+01 1.178092e+01 5.931139e+00 2.075760e-02 3.765354e-02 -1.192104e-03 2.478010e-02 -2.999371e-02 1.265486e-02 -2.803797e-02 2.550010e-02 -2.985507e-02 1.582714e-02 2.291941e-02 -3.295854e-03 -4.628875e-02 -5.365156e-03 -2.169373e-03 -2.578690e-02 -6.463412e-02 -1.130552e-02 -2.623949e-02 -1.188455e-02 -2.376931e-03 1.045674e-02 -2.006878e-02 -1.587884e-02 1.602544e-02 -1.540990e-02
<VARIANCE> 39
 1.443694e+01 1.673675e+01 3.190062e+01 6.700717e+01 6.597433e+01 8.076726e+01 6.833487e+01 1.001421e+02 9.974340e+01 1.214775e+02 1.112406e+02 2.459135e+02 1.176901e+01 1.736805e-01 3.229961e-01 4.520969e-01 6.502157e-01 7.170548e-01 7.645561e-01 8.602195e-01 9.417124e-01 9.593517e-01 9.862803e-01 1.050142e+00 9.727758e-01 6.010909e-02 3.154139e-02 5.663193e-02 8.196822e-02 1.102737e-01 1.282336e-01 1.337310e-01 1.555569e-01 1.736215e-01 1.760917e-01 1.746223e-01 1.949454e-01 1.837793e-01 1.000000e-02
<GCONST> 8.643871e+01
<STATE> 3
<NUMMIXES> 4
<MIXTURE> 1 2.826081e-01
<MEAN> 39
 2.384437e+00 7.351059e+00 -4.164358e+00 -6.560435e+00 2.081879e+00 -1.139362e+01 -2.014915e-01 -4.917279e+00 -2.141933e+00 8.152047e+00 1.508420e+01 1.776384e+01 2.083484e+00 2.273691e-02 8.397445e-03 1.268630e-02 1.552940e-02 -4.354915e-02 -3.198106e-02 6.917488e-03 6.302437e-04 3.390780e-02 -5.551848e-03 7.502246e-03 -3.876626e-03 -5.357319e-02 3.424739e-03 -1.924200e-02 4.432228e-03 -1.514061e-02 -2.127584e-02 1.696246e-02 -1.469579e-02 1.023385e-02 1.249032e-02 -2.353184e-02 -2.673325e-02 -3.643390e-02 -2.698500e-03
<VARIANCE> 39
 1.594859e+01 2.489779e+01 3.402425e+01 3.635472e+01 5.105939e+01 5.276752e+01 7.430225e+01 5.193465e+01 7.672733e+01 8.995918e+01 7.623476e+01 6.109409e+01 2.212418e+01 1.465436e-01 3.494903e-01 5.095780e-01 6.436708e-01 7.415677e-01 8.885793e-01 9.983664e-01 9.916202e-01 1.057575e+00 1.099341e+00 1.216825e+00 1.074407e+00 6.563291e-02 2.588801e-02 6.317432e-02 9.837867e-02 1.219531e-01 1.360582e-01 1.642251e-01 1.822523e-01 1.894496e-01 1.971976e-01 2.053748e-01 2.327571e-01 2.054137e-01 1.000000e-02
<GCONST> 8.564451e+01
<MIXTURE> 2 4.889256e-01
<MEAN> 39
 7.259545e+00 -1.387374e+00 -2.324662e-01 4.225208e+00 -4.062799e+00 -2.318719e+00 -5.686606e+00 -7.994715e+00 -1.033356e+01 -8.646207e+00 -6.234047e+00 -5.272929e+00 1.586751e+00 2.303863e-02 4.174564e-02 1.831667e-02 -1.887673e-02 -3.566904e-03 -5.161433e-02 -1.706181e-02 2.030981e-02 -4.622380e-02 -1.676168e-03 -3.125992e-03 3.155851e-03 -7.273649e-02 -2.730673e-03 1.210545e-02 3.224261e-04 -2.889690e-02 1.423298e-03 -8.640680e-03 1.414895e-02 7.327943e-03 1.292251e-02 -4.222319e-03 1.224456e-03 1.655188e-02 -4.973971e-03
<VARIANCE> 39
 1.432258e+01 2.725884e+01 3.350225e+01 5.096651e+01 4.665019e+01 5.300058e+01 7.639954e+01 7.521905e+01 5.663223e+01 4.650231e+01 4.637592e+01 5.837469e+01 1.417972e+01 1.346205e-01 3.300185e-01 4.952908e-01 8.062073e-01 9.110804e-01 1.088989e+00 1.312800e+00 1.368048e+00 1.409672e+00 1.357840e+00 1.262620e+00 1.230211e+00 7.794246e-02 2.284077e-02 5.541279e-02 9.251091e-02 1.405284e-01 1.661527e-01 2.043845e-01 2.366529e-01 2.571252e-01 2.581779e-01 2.499453e-01 2.327596e-01 2.245978e-01 1.113720e-02
<GCONST> 8.768552e+01
<MIXTURE> 3 1.896117e-01
<MEAN> 39
 3.730092e+00 2.390709e+00 4.923374e-01 -1.616117e+00 -3.256820e+00 -4.357110e+00 -2.772719e+00 -4.242796e+00 -3.948510e+00 -5.521640e-01 8.071074e-01 2.069790e+00 -8.055187e-02 -3.735207e-02 2.021863e-02 1.429875e-01 -9.156955e-03 1.043218e-03 5.926509e-02 -5.711914e-02 -5.006856e-02 -1.250171e-01 -2.400040e-01 -4.101529e-01 -2.914242e-01 -3.306365e-02 -2.034200e-01 -1.678168e-01 -7.604765e-02 -2.122317e-02 1.110847e-01 2.992724e-01 1.213054e-01 2.449026e-01 2.279770e-01 -1.150907e-02 4.784355e-02 4.254425e-03 1.275219e-01
<VARIANCE> 39
 2.953567e+01 4.362092e+01 3.409288e+01 6.229699e+01 4.979010e+01 7.221024e+01 7.937801e+01 9.377752e+01 1.084190e+02 1.261995e+02 1.352748e+02 1.629823e+02 4.161505e+01 1.378792e+00 1.890847e+00 2.128121e+00 2.904848e+00 2.684623e+00 3.252467e+00 3.692021e+00 3.778784e+00 4.612612e+00 4.388685e+00 4.773763e+00 4.916203e+00 2.658404e+00 2.560322e-01 2.901885e-01 3.601391e-01 4.847581e-01 5.338620e-01 6.857162e-01 7.387122e-01 7.751043e-01 8.798351e-01 8.147184e-01 8.076943e-01 8.337457e-01 2.573899e-01
<GCONST> 1.335857e+02
<MIXTURE> 4 3.885463e-02
<MEAN> 39
 3.625772e+00 -3.889007e+00 1.132171e+00 4.885834e+00 5.707672e+00 2.338921e+01 2.117831e+01 -4.059504e+00 -3.631952e+01 -1.571328e+01 2.338657e+01 2.427636e+01 1.845360e+00 8.792907e-03 5.563586e-03 -1.087871e-02 6.489321e-03 2.206020e-02 -3.020663e-02 2.871874e-03 -4.543918e-02 7.927562e-03 3.916762e-02 2.280702e-02 -3.247673e-02 -1.219250e-02 -6.847731e-03 -8.289852e-03 -3.767543e-03 8.537100e-03 -1.569393e-03 -1.601659e-02 -2.021552e-02 6.967210e-03 3.331323e-02 -3.687323e-03 -3.587848e-02 -5.352865e-03 -2.357043e-03
<VARIANCE> 39
 9.607818e+00 1.703293e+01 1.608474e+01 1.866693e+01 7.859601e+01 3.469495e+01 2.094063e+01 6.874579e+01 2.629667e+01 8.740485e+01 6.383382e+01 3.981705e+01 1.142078e+01 3.704823e-01 5.929935e-01 7.043570e-01 6.716772e-01 9.268925e-01 1.175376e+00 1.242039e+00 1.956378e+00 1.698319e+00 1.733621e+00 2.822649e+00 1.749420e+00 9.288057e-02 7.821498e-02 1.262532e-01 1.472181e-01 1.362573e-01 1.862952e-01 2.510534e-01 2.487358e-01 3.836361e-01 3.365037e-01 3.217372e-01 4.847165e-01 3.161802e-01 1.526024e-02
<GCONST> 9.246844e+01
<STATE> 4
<NUMMIXES> 4
<MIXTURE> 1 3.117529e-01
<MEAN> 39
 5.267348e+00 5.099397e+00 -1.058818e+00 -2.772770e+00 -2.834897e-01 -5.446983e+00 2.977402e-01 -3.451247e+00 -3.496708e+00 -4.040027e+00 -6.036654e+00 -6.887462e+00 8.570470e-01 2.727256e-02 2.319638e-02 1.141680e-01 -6.784059e-02 -9.902222e-02 -2.022486e-02 -8.252577e-02 9.410792e-02 6.405506e-02 -7.955463e-02 -1.450265e-01 -1.623669e-02 -1.689675e-01 -1.667584e-02 -2.438592e-02 4.307004e-02 1.069150e-02 -3.093616e-02 3.245127e-02 -3.728068e-02 3.655031e-02 6.466475e-03 -4.260946e-03 -2.831114e-03 6.940439e-02 -1.703361e-02
<VARIANCE> 39
 2.629580e+01 5.526831e+01 4.244526e+01 7.146295e+01 6.429179e+01 8.637128e+01 1.091643e+02 1.151843e+02 1.434451e+02 1.723222e+02 1.444706e+02 1.919362e+02 2.894832e+01 3.112521e-01 6.982149e-01 1.084198e+00 1.474382e+00 1.615811e+00 2.130332e+00 2.469676e+00 2.429660e+00 2.629857e+00 2.652573e+00 2.664150e+00 2.633517e+00 2.509686e-01 5.204540e-02 1.098651e-01 1.765289e-01 2.471837e-01 2.869750e-01 3.854131e-01 4.253976e-01 4.294125e-01 4.815664e-01 4.777988e-01 4.628635e-01 4.431531e-01 3.508654e-02
<GCONST> 1.146264e+02
<MIXTURE> 2 3.855153e-01
<MEAN> 39
 4.927270e+00 1.079414e+01 -3.144004e+00 -6.591924e+00 3.664799e+00 -1.030038e+01 1.751975e+00 -6.913461e+00 -7.998841e+00 -9.387322e+00 -8.557665e+00 -6.082574e+00 1.021878e+00 2.628384e-02 1.452303e-02 3.219173e-02 2.417541e-02 -1.902607e-02 -3.276114e-02 3.363047e-03 -3.391846e-02 7.653055e-03 5.805513e-03 4.474071e-03 3.186899e-02 -6.598407e-02 1.280502e-03 -2.277731e-02 2.664446e-02 -4.640553e-03 -2.715874e-02 2.990984e-02 -2.984565e-02 1.151201e-03 8.385486e-03 -1.148604e-02 1.710764e-02 2.353282e-03 -3.814803e-03
<VARIANCE> 39
 1.412880e+01 2.912487e+01 3.464794e+01 4.378234e+01 4.151705e+01 5.278155e+01 6.895302e+01 5.475870e+01 5.648472e+01 5.190662e+01 4.689026e+01 7.071716e+01 2.038501e+01 1.004983e-01 2.780756e-01 4.118234e-01 6.108165e-01 7.892753e-01 9.388046e-01 1.100836e+00 1.106821e+00 1.121888e+00 1.049142e+00 1.110058e+00 9.908075e-01 6.286080e-02 1.774929e-02 4.556698e-02 7.469349e-02 1.121219e-01 1.383966e-01 1.648958e-01 1.919193e-01 1.993672e-01 2.063478e-01 1.950390e-01 2.071883e-01 1.819580e-01 1.000000e-02
<GCONST> 8.244444e+01
<MIXTURE> 3 2.698033e-01
<MEAN> 39
 4.398171e+00 5.208677e+00 1.933911e+00 -3.160159e+00 -2.527550e+00 -4.755428e+00 -2.398452e+00 -4.536291e+00 -7.030445e+00 -6.735225e+00 -6.012735e+00 -2.544463e+00 -2.015619e+00 -6.769433e-01 -3.651098e-01 -1.167613e-01 -1.179800e-01 2.885511e-01 6.337361e-01 3.160602e-01 5.182863e-01 4.195225e-01 1.815803e-02 2.179694e-01 1.031299e-01 4.409245e-01 -1.518805e-01 -1.863930e-01 -1.932200e-01 -1.423993e-02 8.620460e-02 2.038414e-01 1.452201e-01 1.168624e-01 2.224784e-01 1.468491e-01 2.212619e-01 7.394789e-02 2.218969e-01
<VARIANCE> 39
 3.394690e+01 4.035526e+01 3.289962e+01 5.266015e+01 4.509726e+01 5.540371e+01 5.484591e+01 6.435390e+01 7.035355e+01 7.554412e+01 7.763242e+01 8.239001e+01 4.617659e+01 2.464280e+00 2.850373e+00 3.051446e+00 4.364904e+00 3.935446e+00 4.715270e+00 4.877309e+00 4.651735e+00 5.235025e+00 4.869139e+00 5.039243e+00 4.831811e+00 3.500057e+00 3.810172e-01 4.263658e-01 4.446527e-01 6.658575e-01 6.534002e-01 7.808227e-01 8.111869e-01 8.184587e-01 9.101677e-01 8.233276e-01 8.328851e-01 8.002630e-01 4.264476e-01
<GCONST> 1.361248e+02
<MIXTURE> 4 3.292850e-02
<MEAN> 39
 -9.014653e-02 -5.934365e+00 1.332970e+00 1.504312e+01 -1.376899e+00 1.666243e+01 2.493842e+01 1.283316e+01 -3.135170e+01 -3.070553e+01 1.396217e+01 3.146207e+01 7.097624e+00 2.053948e-02 6.148105e-03 -3.787901e-03 -7.622431e-02 1.327186e-02 2.977286e-02 -1.586606e-02 2.683888e-02 2.123798e-02 -4.462171e-02 -2.327235e-02 1.140932e-02 -8.845519e-03 8.527129e-04 2.889914e-03 3.161051e-03 -1.233597e-02 1.133171e-02 -1.145442e-02 -9.610551e-03 4.873136e-03 3.889862e-02 1.039483e-02 -3.220877e-02 -3.355953e-02 7.245130e-03
<VARIANCE> 39
 1.365288e+01 1.315841e+01 2.124160e+01 2.853507e+01 1.127992e+01 3.550871e+01 2.515548e+01 1.541024e+01 7.998861e+01 3.500188e+01 1.978537e+02 4.014058e+01 1.149302e+01 6.282320e-01 8.475563e-01 5.984441e-01 7.695044e-01 6.913671e-01 1.082979e+00 9.407738e-01 1.263145e+00 1.601822e+00 1.359590e+00 1.323248e+00 1.170492e+00 1.561572e-01 1.303090e-01 1.809426e-01 1.152204e-01 1.427013e-01 1.409754e-01 2.045687e-01 1.967918e-01 2.498811e-01 2.873230e-01 2.503382e-01 2.404976e-01 2.307964e-01 2.938282e-02
<GCONST> 8.895920e+01
<STATE> 5
<NUMMIXES> 4
<MIXTURE> 1 2.712685e-01
<MEAN> 39
 3.893094e+00 3.860440e+00 4.439905e+00 1.464231e+00 -1.574616e+00 -5.719114e+00 -5.341556e+00 -5.742885e+00 -8.125752e+00 -5.492226e+00 -5.360716e+00 -2.337220e+00 -6.532134e+00 -2.902659e-01 -6.891423e-02 8.562890e-02 7.668808e-02 1.392078e-01 1.983647e-01 1.397111e-01 2.742519e-01 1.596703e-01 9.820838e-02 3.914835e-02 2.859820e-02 -1.788338e-01 -5.738691e-03 -4.822039e-02 -9.064538e-02 -6.450183e-02 3.966699e-03 9.387400e-02 1.180215e-01 1.002146e-01 1.040614e-01 3.783115e-02 5.724565e-02 1.122142e-02 5.407487e-02
<VARIANCE> 39
 2.420685e+01 2.308693e+01 2.089265e+01 3.043239e+01 3.611654e+01 4.133847e+01 4.686394e+01 4.889127e+01 4.926738e+01 4.838044e+01 4.847845e+01 5.196333e+01 1.935765e+01 6.496059e-01 8.841564e-01 1.125619e+00 1.548828e+00 1.870473e+00 2.233630e+00 2.660112e+00 2.735514e+00 2.742434e+00 2.627389e+00 2.646391e+00 2.597347e+00 4.277837e-01 8.767673e-02 1.407023e-01 2.033340e-01 2.861474e-01 3.564912e-01 3.952800e-01 4.771537e-01 4.943572e-01 5.168065e-01 4.819623e-01 4.889253e-01 4.687885e-01 5.345764e-02
<GCONST> 1.081084e+02
<MIXTURE> 2 4.758739e-01
<MEAN> 39
 5.785496e+00 3.170059e+00 4.400111e+00 1.602321e+00 -1.350998e+00 -5.756854e+00 -3.815434e+00 -4.258073e+00 -7.095929e+00 -5.017725e+00 -5.629792e+00 -2.974227e+00 -5.551684e+00 -1.293991e-02 2.732238e-03 3.075554e-02 -7.355089e-03 -3.167513e-02 -3.167037e-02 -4.017396e-02 -9.650013e-03 -3.081438e-02 -1.534370e-03 -6.289199e-03 1.218710e-02 -5.567782e-02 -1.142191e-02 -1.813489e-03 3.013615e-03 5.474174e-03 3.358301e-03 -3.390726e-03 -2.243574e-02 -2.189893e-02 -1.107058e-02 1.952865e-03 3.011738e-03 4.636244e-03 -2.866003e-03
<VARIANCE> 39
 1.865111e+01 2.241248e+01 1.751293e+01 2.405657e+01 3.150191e+01 3.523228e+01 4.290595e+01 4.948637e+01 5.122561e+01 4.754373e+01 4.705507e+01 4.811687e+01 1.162770e+01 1.279315e-01 2.873573e-01 5.201398e-01 7.895210e-01 1.003975e+00 1.224216e+00 1.447928e+00 1.552346e+00 1.602556e+00 1.641823e+00 1.573768e+00 1.462622e+00 5.310469e-02 2.414311e-02 5.695578e-02 1.008235e-01 1.544791e-01 2.008363e-01 2.408669e-01 2.858922e-01 3.129494e-01 3.181597e-01 3.259587e-01 3.152032e-01 2.892176e-01 1.000000e-02
<GCONST> 8.663311e+01
<MIXTURE> 3 1.281253e-01
<MEAN> 39
 1.532564e+00 -7.009512e-01 -8.712708e-01 -3.247422e+00 -2.651299e+00 6.621608e-01 2.430362e+00 7.852390e-01 5.141457e-01 -9.066946e-01 7.858063e-02 6.739359e-01 3.816976e+00 -5.934386e-01 -9.007205e-01 -5.463719e-01 -3.483387e-01 3.678603e-01 1.304596e+00 2.402673e-01 3.316002e-01 1.365260e+00 6.185022e-01 8.596419e-01 2.058822e-01 1.646055e+00 -4.289809e-02 1.538377e-01 1.562821e-01 2.771477e-01 2.013847e-01 -1.801322e-01 -3.152646e-01 -2.428940e-01 -2.128498e-01 9.472103e-03 -6.875074e-02 -6.798372e-02 -2.288403e-01
<VARIANCE> 39
 3.009701e+01 4.696749e+01 3.902024e+01 7.673623e+01 5.464263e+01 7.219708e+01 8.417892e+01 1.094384e+02 1.305189e+02 1.350778e+02 1.416257e+02 1.523452e+02 5.582507e+01 2.864133e+00 3.259708e+00 3.483706e+00 6.049714e+00 5.082422e+00 7.023726e+00 6.748997e+00 7.958968e+00 8.672337e+00 1.006948e+01 1.091662e+01 1.201094e+01 3.081441e+00 4.117829e-01 4.706623e-01 5.793833e-01 9.324050e-01 7.901043e-01 1.049700e+00 1.081037e+00 1.168885e+00 1.383605e+00 1.332466e+00 1.393860e+00 1.441394e+00 5.208867e-01
<GCONST> 1.498824e+02
<MIXTURE> 4 1.247323e-01
<MEAN> 39
 6.588090e-01 -1.578664e+00 -1.290437e+00 -1.587943e+00 -1.075614e+00 1.832889e+00 -1.676904e+00 -2.191701e+00 3.704799e-01 1.480647e+00 4.392702e+00 4.311542e+00 5.215299e+00 -2.711736e-01 -3.177481e-01 4.582628e-02 2.835683e-02 1.002717e-01 4.116259e-01 -2.034694e-01 2.595665e-01 3.526963e-01 -1.117049e-01 7.784592e-02 1.614943e-01 2.179290e-01 8.612771e-02 1.507831e-01 1.247005e-01 9.935461e-02 -8.119280e-02 -2.940642e-01 3.205152e-02 -1.736357e-02 -1.933034e-01 -7.529992e-03 -1.545798e-01 -1.597090e-01 -1.688640e-01
<VARIANCE> 39
 2.531955e+01 4.226574e+01 2.899722e+01 8.237151e+01 6.115548e+01 7.121574e+01 7.152012e+01 8.774044e+01 1.047577e+02 1.472892e+02 1.366500e+02 1.788593e+02 3.975808e+01 6.365453e-01 1.099354e+00 1.240549e+00 2.279323e+00 2.857366e+00 3.175296e+00 3.033678e+00 3.109208e+00 3.075782e+00 3.134468e+00 3.596928e+00 3.686987e+00 6.009049e-01 1.011521e-01 1.675822e-01 2.052344e-01 3.511148e-01 4.136226e-01 5.059194e-01 5.191307e-01 5.441762e-01 5.556899e-01 5.855154e-01 5.785571e-01 5.877594e-01 8.998477e-02
<GCONST> 1.223136e+02
<TRANSP> 6
 0.000000e+00 1.000000e+00 0.000000e+00 0.000000e+00 0.000000e+00 0.000000e+00
 0.000000e+00 8.574476e-01 1.425524e-01 0.000000e+00 0.000000e+00 0.000000e+00
 0.000000e+00 0.000000e+00 8.510380e-01 1.489620e-01 0.000000e+00 0.000000e+00
 0.000000e+00 0.000000e+00 0.000000e+00 8.359950e-01 1.640050e-01 0.000000e+00
 0.000000e+00 0.000000e+00 0.000000e+00 0.000000e+00 8.569124e-01 1.430876e-01
 0.000000e+00 0.000000e+00 0.000000e+00 0.000000e+00 0.000000e+00 0.000000e+00
<ENDHMM>
