~o
<STREAMINFO> 1 39
<VECSIZE> 39<NULLD><MFCC_D_A_Z_0><DIAGC>
~h "t"
<BEGINHMM>
<NUMSTATES> 6
<STATE> 2
<NUMMIXES> 4
<MIXTURE> 1 2.700741e-01
<MEAN> 39
 -5.956960e+00 -6.940810e+00 2.064372e+00 5.505279e+00 2.218032e+00 3.232681e+00 -2.095786e+00 2.343987e-01 7.624677e+00 7.359558e+00 1.201589e+01 9.029427e+00 1.344446e+01 1.160222e-02 1.786655e-02 -2.599077e-02 -6.129899e-02 -7.875225e-02 -9.880525e-02 3.860014e-02 2.574983e-02 -6.469025e-02 2.101738e-02 5.147023e-03 4.312831e-02 -1.050872e-01 1.265568e-01 7.787036e-02 -5.858708e-02 -1.052340e-01 -4.378174e-02 1.605860e-02 6.547307e-02 1.063567e-03 -8.400174e-02 -4.219946e-02 -1.259002e-01 -1.575111e-01 -6.863842e-02
<VARIANCE> 39
 2.047830e+01 3.001152e+01 3.503065e+01 6.906036e+01 5.936644e+01 4.023573e+01 4.661758e+01 6.167864e+01 6.335614e+01 9.057856e+01 9.680753e+01 1.536377e+02 3.071045e+01 5.082290e-01 7.980894e-01 1.148173e+00 1.790479e+00 1.725704e+00 1.709603e+00 1.865813e+00 1.821834e+00 2.476287e+00 2.530381e+00 2.710013e+00 3.697190e+00 2.306503e-01 8.810084e-02 1.479037e-01 1.942862e-01 2.413265e-01 3.223424e-01 3.148858e-01 3.317069e-01 3.145632e-01 4.102119e-01 4.432953e-01 4.572597e-01 5.386429e-01 4.640486e-02
<GCONST> 1.099908e+02
<MIXTURE> 2 2.235683e-01
<MEAN> 39
 -5.263350e+00 1.127250e+00 2.155584e+00 6.553238e-01 1.721543e+00 8.190110e-01 1.258414e+00 1.929955e+00 -2.136602e+00 -2.170145e+00 -2.865023e+00 -2.062388e+00 -4.112793e+00 1.266243e-01 -6.177897e-02 -1.619165e-01 -4.428357e-01 -1.548107e-01 5.486220e-02 1.974333e-01 1.967382e-01 1.474978e-01 -2.127630e-01 3.561996e-02 1.169815e-01 1.031163e+00 5.477196e-01 3.030363e-02 -2.435459e-01 -3.440635e-01 -3.765131e-01 -1.754153e-01 -1.692545e-01 -2.194211e-01 9.672298e-02 1.531297e-02 8.492637e-02 6.851815e-02 3.857494e-01
<VARIANCE> 39
 3.016801e+01 3.880462e+01 2.733301e+01 3.761502e+01 3.625915e+01 4.346111e+01 4.317965e+01 5.135493e+01 4.942514e+01 4.485558e+01 4.109167e+01 3.696467e+01 4.335743e+01 3.949376e+00 2.963912e+00 2.654747e+00 3.971394e+00 3.584066e+00 4.177299e+00 4.583574e+00 4.765193e+00 4.846443e+00 4.735497e+00 4.393457e+00 3.861000e+00 5.165601e+00 4.202991e-01 5.243024e-01 4.705016e-01 6.000074e-01 6.193550e-01 7.735246e-01 8.629826e-01 9.839795e-01 1.022956e+00 9.837195e-01 9.820371e-01 8.265919e-01 6.281520e-01
<GCONST> 1.334119e+02
<MIXTURE> 3 2.570084e-01
<MEAN> 39
 -1.047666e+00 2.289365e+00 -1.494137e+00 -4.132978e+00 1.577627e+00 -9.202116e-01 -2.275083e-01 -1.565956e+00 -3.385692e+00 -3.569309e+00 -5.135336e-01 2.107537e+00 2.129333e+00 -7.306431e-02 7.517575e-02 1.590865e-01 -1.001209e-01 -1.670794e-01 -3.577169e-01 -6.361338e-02 -1.961703e-02 1.083262e-01 6.061599e-03 -1.306524e-01 1.284681e-02 -3.222947e-01 8.284220e-02 -2.869431e-02 1.065818e-01 1.099424e-01 -1.143328e-01 -7.367899e-02 -9.650866e-02 -3.424120e-02 7.039241e-03 4.433949e-03 -1.211832e-01 -1.117809e-01 -6.565107e-02
<VARIANCE> 39
 4.051810e+01 4.105257e+01 3.413801e+01 5.800216e+01 5.302329e+01 6.872485e+01 6.468609e+01 6.810098e+01 5.427090e+01 6.582468e+01 7.501125e+01 8.531431e+01 5.140195e+01 5.547494e-01 1.033523e+00 1.204798e+00 1.751124e+00 2.045095e+00 2.745478e+00 2.982198e+00 2.691629e+00 2.791121e+00 2.612680e+00 2.578300e+00 2.619133e+00 5.829737e-01 8.605313e-02 1.415781e-01 2.071353e-01 2.826281e-01 3.715506e-01 4.491307e-01 5.127641e-01 5.181267e-01 5.330977e-01 4.869648e-01 4.638124e-01 4.496404e-01 7.026307e-02
<GCONST> 1.155830e+02
<MIXTURE> 4 2.493492e-01
<MEAN> 39
 -1.233523e+00 -2.363757e+00 -2.069821e+00 -4.093958e+00 2.797897e-01 2.476167e+00 1.745721e+00 8.142733e-01 3.568592e+00 3.276136e+00 6.079574e+00 4.449761e+00 8.385883e+00 -3.359869e-01 -1.898335e-02 -1.320688e-01 -2.542783e-01 3.778215e-01 -1.322770e-01 -2.896996e-01 -2.308086e-01 -1.823435e-01 -8.124679e-02 3.912653e-01 5.994477e-01 4.525362e-01 2.155739e-02 1.677748e-01 2.496340e-01 4.236776e-01 3.807782e-02 -2.711095e-01 -1.638075e-01 5.188333e-02 -1.014607e-01 -7.931624e-02 -4.230575e-01 -3.694109e-01 -4.659761e-01
<VARIANCE> 39
 2.812888e+01 5.103073e+01 3.339380e+01 7.747884e+01 6.766727e+01 8.016644e+01 7.811397e+01 1.022354e+02 1.031907e+02 1.412878e+02 1.520802e+02 1.506002e+02 4.585708e+01 2.102556e+00 2.854621e+00 2.881110e+00 5.259737e+00 5.491577e+00 6.025054e+00 5.357878e+00 5.325094e+00 6.728222e+00 7.513669e+00 8.275706e+00 8.446091e+00 5.067598e+00 3.261169e-01 4.544555e-01 4.986895e-01 7.560753e-01 8.692862e-01 1.067591e+00 1.052959e+00 1.030650e+00 1.217455e+00 1.265815e+00 1.302525e+00 1.341478e+00 4.919571e-01
<GCONST> 1.463981e+02
<STATE> 3
<NUMMIXES> 4
<MIXTURE> 1 3.233421e-01
<MEAN> 39
 -2.397652e+00 -1.010993e+00 -7.363701e-01 -4.729899e-01 9.475210e-01 -4.443018e-01 -9.728507e-01 3.930806e-01 1.844834e+00 1.248148e+00 2.943344e+00 3.377784e+00 4.303102e+00 6.833982e-02 1.360016e-01 1.583441e-01 2.408318e-01 5.613409e-02 -6.774909e-02 3.306805e-03 5.831018e-02 -1.388348e-02 5.082777e-02 -2.606169e-01 -1.987099e-01 -1.038448e-01 1.114379e-01 2.826204e-02 1.713136e-02 5.571732e-03 -1.192119e-02 9.987564e-02 2.630053e-02 -1.998075e-02 -7.704593e-02 -1.817936e-02 -6.107579e-02 -1.460779e-01 -1.409409e-02
<VARIANCE> 39
 2.889974e+01 5.030687e+01 3.671460e+01 7.531574e+01 5.551142e+01 6.882716e+01 8.037853e+01 1.011902e+02 1.043232e+02 1.406848e+02 1.649244e+02 1.694429e+02 6.305005e+01 3.553292e-01 6.922970e-01 8.630394e-01 1.219348e+00 1.498931e+00 1.641984e+00 2.043868e+00 1.960696e+00 2.323926e+00 2.486676e+00 2.357464e+00 2.728237e+00 2.107105e-01 5.610907e-02 1.134111e-01 1.645599e-01 2.207032e-01 2.723757e-01 3.410110e-01 3.722541e-01 3.978453e-01 4.050578e-01 4.016961e-01 3.778397e-01 3.973182e-01 2.540328e-02
<GCONST> 1.110636e+02
<MIXTURE> 2 2.229299e-01
<MEAN> 39
 3.102652e+00 3.370491e+00 -1.219733e+00 -6.559217e+00 -2.635849e+00 -2.848771e+00 -9.743044e-01 -3.672341e+00 -4.998940e+00 -7.279137e+00 -4.627977e+00 -1.125288e+00 2.196584e+00 7.828955e-01 4.346152e-01 1.774630e-01 -3.551485e-01 -7.915052e-01 -8.571945e-01 -3.707588e-01 -4.620788e-01 -3.471630e-01 -5.258488e-01 -8.770898e-01 -5.161347e-01 -2.373776e-01 -1.719283e-01 -1.757099e-01 1.185191e-01 4.890454e-01 2.479156e-01 1.698405e-01 -3.871965e-02 4.697163e-02 1.363095e-02 1.544579e-01 4.523413e-02 -9.334728e-02 -2.088843e-01
<VARIANCE> 39
 2.128777e+01 4.715493e+01 3.129585e+01 5.586101e+01 4.709877e+01 5.730107e+01 5.557275e+01 5.853564e+01 4.470870e+01 4.734277e+01 4.257450e+01 5.568893e+01 4.203801e+01 2.834537e+00 2.673645e+00 2.897566e+00 4.549597e+00 4.101393e+00 4.674767e+00 4.548127e+00 4.649577e+00 3.909442e+00 3.735110e+00 3.637159e+00 3.714375e+00 4.882390e+00 2.320282e-01 3.540400e-01 3.680029e-01 5.160711e-01 4.992848e-01 7.018203e-01 7.964599e-01 7.636179e-01 6.681611e-01 6.210665e-01 5.400552e-01 5.447946e-01 2.627890e-01
<GCONST> 1.295439e+02
<MIXTURE> 3 2.840015e-01
<MEAN> 39
 -8.436846e-01 -7.999533e-01 -2.502111e+00 -4.673986e+00 2.085160e-01 -7.781521e-01 -1.151176e+00 -1.327651e+00 3.834250e+00 8.129649e+00 1.374463e+01 1.021018e+01 6.962308e+00 3.566330e-01 4.309192e-01 2.520153e-01 -4.020346e-02 -4.230566e-01 -8.235468e-01 -1.713252e-01 -1.282425e-01 -3.708836e-01 -4.833734e-01 -9.467721e-01 -4.056910e-01 -7.959732e-01 9.645891e-02 4.357417e-02 1.526856e-01 2.735586e-01 -6.610306e-02 -5.127863e-03 -7.265003e-02 3.638101e-02 -1.162378e-01 -2.766225e-01 -5.850831e-01 -4.422694e-01 -2.469258e-01
<VARIANCE> 39
 1.923690e+01 4.780202e+01 3.060956e+01 7.266288e+01 6.740137e+01 7.632347e+01 5.280491e+01 6.810968e+01 8.719138e+01 9.458808e+01 6.961858e+01 1.269820e+02 3.549745e+01 1.386404e+00 1.832279e+00 1.948099e+00 3.103638e+00 3.823215e+00 4.506651e+00 4.232699e+00 4.090275e+00 5.139483e+00 5.823594e+00 6.155498e+00 6.609559e+00 1.515159e+00 1.730393e-01 2.398391e-01 3.178621e-01 4.480859e-01 6.347396e-01 7.953574e-01 6.761311e-01 6.754545e-01 8.320134e-01 8.503925e-01 7.481155e-01 9.134192e-01 1.830653e-01
<GCONST> 1.315431e+02
<MIXTURE> 4 1.697265e-01
<MEAN> 39
 -4.239279e+00 6.914979e-01 1.702669e+00 -3.480709e-01 1.018868e+00 2.032011e+00 3.327892e+00 4.586987e+00 2.164655e-01 -2.665478e+00 -4.750543e+00 -3.542628e+00 -1.318980e+00 1.240090e+00 7.141429e-02 -6.308056e-01 -8.768036e-01 -8.933875e-01 -4.115625e-01 -2.605920e-01 -5.919218e-02 7.987636e-01 4.065419e-01 5.458955e-01 1.878169e-01 1.222638e+00 3.728603e-01 -8.427473e-02 -2.708752e-01 -1.848316e-01 -2.367130e-01 -1.223354e-01 -2.762868e-01 -1.955342e-01 2.935137e-01 4.019435e-01 3.723177e-01 4.550783e-02 1.797103e-01
<VARIANCE> 39
 2.337039e+01 3.663202e+01 3.076311e+01 4.473527e+01 3.972102e+01 5.095400e+01 6.311965e+01 7.722449e+01 8.599218e+01 7.844544e+01 6.817069e+01 6.794790e+01 4.877965e+01 4.342977e+00 3.161422e+00 2.930771e+00 4.913708e+00 4.526029e+00 6.081773e+00 6.649170e+00 8.385694e+00 9.802481e+00 8.875317e+00 8.585060e+00 8.563593e+00 4.507887e+00 2.881633e-01 4.209510e-01 4.536710e-01 5.969788e-01 6.046650e-01 8.122252e-01 9.099424e-01 1.154440e+00 1.529584e+00 1.484107e+00 1.377889e+00 1.598787e+00 5.540684e-01
<GCONST> 1.427399e+02
<STATE> 4
<NUMMIXES> 4
<MIXTURE> 1 3.171179e-01
<MEAN> 39
 -1.351850e+00 -1.560677e+00 -2.807647e-01 6.861593e-01 1.292006e+00 1.498605e+00 -1.705224e+00 -2.627746e+00 -1.050247e+00 -9.763209e-01 3.583011e+00 6.594034e+00 5.261968e+00 1.729552e-01 9.262351e-02 9.893564e-02 2.868099e-01 4.550747e-02 4.510005e-02 -3.649855e-02 1.952679e-02 -1.245164e-01 -8.884544e-03 -1.941406e-01 -2.323202e-01 -1.175325e-01 3.863729e-02 -2.091498e-02 -7.781169e-02 -1.409127e-01 -1.444946e-01 -7.153405e-02 -1.071298e-02 -1.614453e-02 -4.649470e-02 -1.321525e-02 1.168112e-02 -6.603856e-02 -7.739648e-02
<VARIANCE> 39
 2.745350e+01 4.533535e+01 3.373063e+01 7.704466e+01 5.348261e+01 6.353786e+01 6.834669e+01 6.696981e+01 6.244542e+01 7.895080e+01 1.253775e+02 1.198061e+02 6.004177e+01 3.907985e-01 8.229526e-01 9.750809e-01 1.713930e+00 1.816664e+00 2.130251e+00 2.465467e+00 2.338407e+00 2.357735e+00 2.465446e+00 2.324162e+00 2.421926e+00 2.249495e-01 5.983009e-02 1.138302e-01 1.736419e-01 2.279288e-01 2.920912e-01 3.461381e-01 3.920972e-01 3.716996e-01 4.316589e-01 4.181236e-01 4.489990e-01 4.426560e-01 3.487282e-02
<GCONST> 1.108019e+02
<MIXTURE> 2 3.230321e-01
<MEAN> 39
 2.011959e+00 2.808347e+00 8.041703e-01 -4.145307e+00 -2.759805e+00 -4.229787e+00 -3.287802e+00 -3.516392e+00 -3.284295e+00 -3.606533e+00 -1.577423e+00 1.668782e+00 -6.622862e-01 1.076472e-01 3.524162e-01 5.121960e-01 5.703505e-01 -1.510964e-01 -5.699696e-01 -5.919068e-01 -4.138133e-01 -8.374373e-01 -5.240918e-01 -1.151997e+00 -8.243316e-01 -1.153973e+00 -2.110227e-01 -2.241129e-01 -1.190662e-01 1.851731e-01 3.102521e-01 4.955916e-01 2.492924e-01 1.986104e-01 1.528855e-01 2.215570e-01 2.648790e-01 3.350928e-02 1.138372e-01
<VARIANCE> 39
 2.817471e+01 3.544733e+01 2.573254e+01 4.752605e+01 4.633750e+01 5.202595e+01 5.132555e+01 5.924958e+01 6.449197e+01 7.679320e+01 8.426113e+01 8.539515e+01 4.131546e+01 1.857857e+00 1.916211e+00 2.114118e+00 2.828430e+00 3.112077e+00 4.076798e+00 4.097985e+00 4.283524e+00 4.283837e+00 4.654808e+00 4.592377e+00 4.151918e+00 2.613348e+00 2.400016e-01 2.869946e-01 3.192557e-01 3.986458e-01 5.135571e-01 6.021553e-01 6.697224e-01 6.929442e-01 7.449571e-01 7.083279e-01 6.756932e-01 6.766517e-01 2.388591e-01
<GCONST> 1.284439e+02
<MIXTURE> 3 1.558517e-01
<MEAN> 39
 -6.294417e+00 3.728136e+00 -2.373758e+00 -4.084428e+00 5.122283e+00 -2.515629e+00 4.112305e+00 9.092753e+00 1.455398e+01 1.915062e+01 9.436499e+00 -9.119143e+00 9.401971e+00 3.683660e-02 5.889120e-02 9.441402e-02 7.278514e-02 -2.265130e-02 4.657710e-02 1.215661e-03 1.753435e-01 2.092498e-01 1.236279e-01 -3.305469e-01 -5.771816e-01 -1.023795e-01 9.777455e-02 -7.206467e-02 -3.640678e-03 -2.727738e-02 -1.073197e-01 8.079942e-02 -2.363175e-02 -7.427087e-02 -5.215457e-02 -1.937061e-01 -6.917910e-02 9.164506e-02 -4.510875e-02
<VARIANCE> 39
 2.195589e+01 5.897825e+01 3.413804e+01 6.544919e+01 5.242025e+01 4.898473e+01 4.440998e+01 5.146445e+01 4.943676e+01 6.024941e+01 1.386971e+02 1.729160e+02 2.364174e+01 5.391788e-01 1.047838e+00 1.255915e+00 1.416230e+00 1.632486e+00 1.639230e+00 1.609309e+00 2.226066e+00 2.359981e+00 2.865794e+00 3.264603e+00 4.719692e+00 2.685719e-01 9.800271e-02 1.563142e-01 2.083979e-01 2.539645e-01 2.661580e-01 2.751024e-01 2.805344e-01 3.534745e-01 3.680930e-01 4.623177e-01 4.814154e-01 5.838643e-01 4.649113e-02
<GCONST> 1.108333e+02
<MIXTURE> 4 2.039983e-01
<MEAN> 39
 1.419864e+00 2.930580e-01 -2.315227e+00 -4.181600e+00 -2.704959e+00 6.224524e-01 4.221307e+00 5.122910e+00 4.927954e+00 2.104585e+00 2.416348e-01 -1.677811e+00 4.622045e+00 1.184489e+00 -4.076124e-01 -7.823650e-01 -7.664081e-01 -7.997045e-01 -1.314892e-02 -5.288523e-03 -9.472646e-03 1.132559e+00 6.066569e-01 3.468108e-01 -2.664204e-01 1.124275e+00 -3.307126e-01 -6.134500e-02 1.966133e-01 4.045493e-01 3.261427e-01 4.731461e-02 -3.545662e-01 -3.439129e-01 -2.359309e-01 4.406410e-02 8.440222e-02 5.846472e-02 -2.955400e-01
<VARIANCE> 39
 2.842669e+01 5.282965e+01 3.783990e+01 7.235010e+01 5.621585e+01 7.450024e+01 7.998349e+01 1.003665e+02 1.089496e+02 1.434568e+02 1.509371e+02 1.229142e+02 3.810729e+01 2.849448e+00 3.282665e+00 3.132258e+00 5.273707e+00 4.735086e+00 7.324089e+00 6.994263e+00 9.173424e+00 1.196403e+01 1.253287e+01 1.263936e+01 1.415995e+01 5.101668e+00 4.269679e-01 4.483241e-01 4.603125e-01 7.492436e-01 7.461118e-01 9.823918e-01 1.046828e+00 1.001271e+00 1.159284e+00 1.325754e+00 1.408626e+00 1.235375e+00 3.906477e-01
<GCONST> 1.490001e+02
<STATE> 5
<NUMMIXES> 4
<MIXTURE> 1 2.909833e-01
<MEAN> 39
 -1.861413e+00 2.338431e+00 -3.568537e+00 -3.841061e+00 3.945826e+00 -3.060461e+00 3.604531e-01 -1.707810e+00 4.313806e-01 4.563317e+00 1.040809e+01 1.109196e+01 8.999188e+00 8.185596e-02 -8.473211e-02 -8.392763e-02 -9.888818e-03 -1.782058e-01 -5.230355e-02 -8.979104e-02 -4.558036e-02 1.969670e-02 9.635100e-03 6.547885e-02 -1.619870e-02 -1.524864e-01 1.811410e-02 -5.825849e-02 6.689220e-04 -1.008076e-01 -1.408893e-01 2.668668e-02 -3.793500e-02 -1.080086e-03 3.366874e-03 -4.799305e-02 -2.282468e-02 -7.418559e-02 -5.168632e-02
<VARIANCE> 39
 2.038886e+01 7.060804e+01 3.603806e+01 8.603648e+01 5.626683e+01 8.015217e+01 6.614157e+01 5.547475e+01 8.114307e+01 1.065075e+02 1.106629e+02 1.147651e+02 2.684279e+01 3.108657e-01 6.610930e-01 8.839024e-01 1.143540e+00 1.367969e+00 1.643583e+00 1.700699e+00 1.561823e+00 1.667738e+00 1.860705e+00 1.961506e+00 2.172812e+00 1.712340e-01 5.528687e-02 1.110389e-01 1.559550e-01 2.015519e-01 2.474632e-01 2.777131e-01 3.136154e-01 2.857963e-01 3.089471e-01 3.135405e-01 3.505085e-01 3.781863e-01 2.732800e-02
<GCONST> 1.048495e+02
<MIXTURE> 2 2.970037e-01
<MEAN> 39
 -1.675052e+00 1.021739e+00 2.189102e+00 -2.162159e-02 -4.129227e-01 -4.361885e-01 -2.521735e+00 -1.613720e+00 -3.959471e+00 -4.352332e+00 -4.809017e+00 -2.525894e+00 -4.005791e+00 -2.475923e-01 -4.308113e-02 1.447271e-01 3.713062e-01 3.119400e-01 3.181941e-01 1.661431e-01 7.796626e-02 -3.407899e-01 -7.038012e-02 -1.805315e-01 -2.731431e-01 -4.599729e-01 3.154862e-02 -1.247640e-02 -1.078300e-01 -1.342828e-01 4.356718e-03 5.730906e-02 1.404780e-01 7.823364e-02 1.854853e-01 1.234105e-01 2.562554e-01 2.285678e-01 1.277897e-01
<VARIANCE> 39
 3.452722e+01 2.971064e+01 2.263309e+01 3.870322e+01 3.791116e+01 4.580942e+01 4.950493e+01 5.277797e+01 4.864980e+01 5.148565e+01 4.199484e+01 4.549217e+01 4.312199e+01 9.370570e-01 1.098726e+00 1.201429e+00 1.847488e+00 2.173114e+00 2.639440e+00 2.813175e+00 3.048903e+00 3.142817e+00 2.994275e+00 2.883352e+00 2.449672e+00 1.091980e+00 1.585722e-01 1.998067e-01 2.466585e-01 3.321103e-01 4.236498e-01 5.023952e-01 5.721350e-01 5.774878e-01 5.925743e-01 5.982130e-01 5.455377e-01 4.925710e-01 1.694417e-01
<GCONST> 1.161307e+02
<MIXTURE> 3 2.573524e-01
<MEAN> 39
 3.495488e+00 7.553911e-01 -2.013309e+00 -4.779746e+00 -3.838810e+00 -3.237724e+00 -2.217175e+00 -4.307053e+00 -2.164719e+00 -1.240784e+00 3.132078e+00 5.644112e+00 4.013269e+00 3.141825e-01 -3.319740e-01 -1.452341e-01 1.783993e-01 -6.599350e-02 2.082286e-01 -3.026148e-01 -5.669725e-01 -2.276077e-01 -3.373656e-02 3.585391e-01 4.762858e-01 8.167423e-02 -4.690974e-01 -4.817703e-02 1.421185e-01 2.902967e-01 4.353856e-01 3.348316e-01 2.271360e-01 3.236718e-01 1.128763e-01 1.096181e-01 -8.452940e-03 -1.644427e-01 -1.331835e-01
<VARIANCE> 39
 2.381119e+01 4.961090e+01 3.665375e+01 6.733101e+01 5.387391e+01 7.407978e+01 6.748753e+01 7.265434e+01 8.086368e+01 1.251904e+02 1.345186e+02 1.143565e+02 4.103895e+01 1.923815e+00 2.665175e+00 2.643310e+00 4.100550e+00 3.829204e+00 5.408967e+00 5.026011e+00 4.980497e+00 5.468797e+00 6.216460e+00 6.559094e+00 6.832681e+00 4.511774e+00 3.354817e-01 3.991653e-01 4.856150e-01 6.738745e-01 6.663653e-01 9.720697e-01 9.559117e-01 9.364291e-01 1.027149e+00 1.050892e+00 1.135530e+00 1.094272e+00 4.537269e-01
<GCONST> 1.408652e+02
<MIXTURE> 4 1.546606e-01
<MEAN> 39
 -2.949237e+00 -2.080213e+00 -9.556235e-01 -5.957140e-01 1.242476e+00 3.608535e+00 5.845647e+00 1.263249e+01 1.455028e+01 5.677656e+00 -6.337470e+00 -1.306848e+01 7.094630e+00 1.045459e-01 -2.806955e-02 -6.618652e-02 -9.174272e-04 -7.855762e-02 1.646884e-02 -2.768141e-01 1.324957e-01 5.201594e-01 4.399926e-01 -8.243719e-02 -7.421024e-01 -9.942202e-02 -2.646843e-02 4.824933e-02 6.960721e-02 3.887814e-02 -7.695603e-03 -1.085234e-01 -1.415486e-01 -3.937389e-01 -5.607069e-01 -1.505122e-01 3.595157e-01 6.809378e-01 -1.565442e-01
<VARIANCE> 39
 2.642525e+01 4.628453e+01 3.524278e+01 8.904036e+01 6.396365e+01 6.953649e+01 8.337452e+01 1.053054e+02 9.136887e+01 2.420124e+02 2.510004e+02 1.510881e+02 4.509547e+01 1.002716e+00 1.548031e+00 1.717315e+00 2.683495e+00 3.200133e+00 3.151299e+00 4.176417e+00 4.837211e+00 5.712374e+00 7.759319e+00 8.546247e+00 8.387424e+00 1.271654e+00 1.817165e-01 2.464449e-01 3.171506e-01 4.518906e-01 5.245250e-01 5.760694e-01 7.382604e-01 9.226230e-01 9.793795e-01 1.099247e+00 1.159057e+00 1.150710e+00 2.018264e-01
<GCONST> 1.363945e+02
<TRANSP> 6
 0.000000e+00 1.000000e+00 0.000000e+00 0.000000e+00 0.000000e+00 0.000000e+00
 0.000000e+00 5.460553e-01 4.539447e-01 0.000000e+00 0.000000e+00 0.000000e+00
 0.000000e+00 0.000000e+00 1.506182e-01 8.493818e-01 0.000000e+00 0.000000e+00
 0.000000e+00 0.000000e+00 0.000000e+00 2.446481e-01 7.553520e-01 0.000000e+00
 0.000000e+00 0.000000e+00 0.000000e+00 0.000000e+00 3.725002e-01 6.274998e-01
 0.000000e+00 0.000000e+00 0.000000e+00 0.000000e+00 0.000000e+00 0.000000e+00
<ENDHMM>
