~o
<STREAMINFO> 1 39
<VECSIZE> 39<NULLD><MFCC_D_A_Z_0><DIAGC>
~h "y"
<BEGINHMM>
<NUMSTATES> 6
<STATE> 2
<NUMMIXES> 4
<MIXTURE> 1 2.704300e-01
<MEAN> 39
 1.441324e-01 -2.332782e-01 6.519558e-01 -4.364603e-01 -9.186262e-01 -7.655491e-02 -1.350332e+00 -1.643518e+00 -6.636714e-01 1.899011e+00 4.949844e+00 4.911620e+00 5.218939e+00 1.501001e-01 9.652815e-02 5.250256e-01 8.105895e-02 -2.334853e-01 5.977950e-02 -1.702020e-01 1.232552e-01 -3.223558e-01 -2.512192e-01 -1.321315e-01 -6.225889e-03 -4.226130e-02 1.192300e-02 -1.080301e-01 -1.764694e-01 -1.538513e-02 -6.834219e-02 -8.115019e-02 -1.377640e-03 4.233861e-02 9.699015e-02 7.400945e-02 2.936918e-02 3.829157e-03 -1.850612e-02
<VARIANCE> 39
 3.013600e+01 5.606955e+01 3.620271e+01 1.000900e+02 5.855161e+01 7.265457e+01 6.734871e+01 7.678616e+01 8.967602e+01 1.418336e+02 1.510116e+02 1.489608e+02 4.988022e+01 3.438428e-01 6.874316e-01 9.198459e-01 1.206538e+00 1.499912e+00 2.065142e+00 1.717380e+00 2.216475e+00 2.151834e+00 2.455347e+00 2.118890e+00 2.284475e+00 1.778670e-01 5.180446e-02 9.943967e-02 1.426222e-01 2.163067e-01 2.368581e-01 3.116458e-01 3.415612e-01 3.351527e-01 3.498378e-01 3.528052e-01 3.417436e-01 3.361897e-01 2.761934e-02
<GCONST> 1.088710e+02
<MIXTURE> 2 2.954962e-01
<MEAN> 39
 -5.205328e-01 4.742577e+00 4.253181e+00 -2.921960e+00 -9.721475e-01 -2.072073e+00 -1.924757e+00 -2.596347e+00 -5.635797e+00 -6.631282e+00 -6.763374e+00 -4.737328e+00 -1.892957e+00 6.145461e-01 1.956128e-01 2.360261e-01 -8.511723e-01 -5.539688e-01 -8.839195e-02 -4.914334e-01 -1.599979e-01 3.898643e-02 -2.117923e-01 -2.801627e-02 -3.908769e-02 1.099711e+00 2.141090e-01 -2.058955e-01 -4.155540e-01 -1.828083e-02 -4.279703e-02 -1.147212e-02 1.402587e-01 1.861185e-01 3.033699e-01 3.265070e-01 4.331362e-01 3.444160e-01 1.160071e-01
<VARIANCE> 39
 4.568834e+01 5.052977e+01 2.991793e+01 6.790539e+01 4.855336e+01 6.083110e+01 5.205170e+01 5.973529e+01 4.838448e+01 5.069789e+01 4.630772e+01 4.261535e+01 3.099360e+01 3.490851e+00 2.864095e+00 2.517285e+00 4.005900e+00 4.028086e+00 4.785604e+00 4.111265e+00 4.405344e+00 4.792412e+00 4.586743e+00 4.330770e+00 3.547396e+00 2.725314e+00 5.194307e-01 4.199082e-01 4.822329e-01 7.830136e-01 7.706079e-01 9.972450e-01 7.964902e-01 8.514323e-01 9.747025e-01 8.673852e-01 8.504487e-01 7.710425e-01 3.840695e-01
<GCONST> 1.344958e+02
<MIXTURE> 3 1.982882e-01
<MEAN> 39
 1.839729e+00 4.944792e+00 9.681150e-01 -4.899014e+00 -3.916170e+00 -3.159158e+00 -1.763693e+00 -9.088395e-01 -1.623318e+00 -8.613338e-01 2.132833e+00 3.933136e+00 3.187765e-01 1.803540e+00 -4.131843e-01 -1.054214e+00 -1.625830e+00 -1.500836e+00 -4.105782e-01 -4.328687e-01 -5.493844e-01 9.955530e-01 1.298622e+00 2.783080e+00 2.752953e+00 2.709660e+00 -3.349777e-01 -5.138111e-01 -2.361448e-01 3.967644e-01 4.070512e-01 3.104845e-01 1.361327e-01 -5.875633e-02 2.109853e-02 1.679712e-01 2.325800e-01 3.168821e-03 1.350783e-02
<VARIANCE> 39
 2.516953e+01 3.970103e+01 2.979100e+01 5.611375e+01 4.237025e+01 5.588566e+01 4.672552e+01 6.281021e+01 5.898145e+01 6.413590e+01 5.849966e+01 5.607269e+01 3.078190e+01 3.530883e+00 3.438226e+00 3.552180e+00 4.707413e+00 5.162540e+00 6.973529e+00 5.627928e+00 6.188046e+00 9.146588e+00 1.053861e+01 8.887689e+00 8.156943e+00 2.789381e+00 3.857419e-01 2.739389e-01 3.892506e-01 6.033964e-01 5.855221e-01 6.858912e-01 7.806275e-01 8.405191e-01 9.382501e-01 1.005331e+00 9.928272e-01 9.566026e-01 3.651429e-01
<GCONST> 1.376984e+02
<MIXTURE> 4 2.357856e-01
<MEAN> 39
 -1.112816e-01 -9.211328e-02 3.272854e-01 -6.603848e+00 2.371192e-01 3.336836e+00 -1.238840e+00 -2.071186e+00 1.703288e+00 1.592301e-01 4.127416e+00 3.989601e+00 8.506248e+00 7.993822e-02 -5.536574e-01 7.691110e-01 6.315545e-01 -4.058476e-01 5.335671e-01 -3.076378e-01 -6.392603e-01 4.211567e-02 7.227261e-02 1.338167e-01 3.709073e-01 2.912130e-01 9.852400e-02 8.284340e-02 -8.254978e-02 4.710502e-01 -1.461388e-01 -5.899326e-01 2.219411e-01 1.435168e-01 -1.790179e-01 2.025199e-01 -1.256510e-01 -1.626129e-01 -4.691978e-01
<VARIANCE> 39
 1.563843e+01 5.456383e+01 2.762340e+01 1.019987e+02 5.459892e+01 7.252483e+01 7.063249e+01 9.402039e+01 1.082682e+02 1.642772e+02 1.305699e+02 1.810446e+02 1.995298e+01 1.137793e+00 2.495093e+00 1.678599e+00 3.651062e+00 5.497868e+00 5.154139e+00 4.368309e+00 4.882782e+00 4.585022e+00 6.129801e+00 5.983686e+00 5.888345e+00 1.230027e+00 1.850191e-01 2.551987e-01 3.484027e-01 6.876721e-01 6.119674e-01 7.811191e-01 9.103536e-01 8.867844e-01 9.822640e-01 9.723797e-01 8.437479e-01 9.213244e-01 2.912371e-01
<GCONST> 1.357053e+02
<STATE> 3
<NUMMIXES> 4
<MIXTURE> 1 1.892639e-01
<MEAN> 39
 1.922966e+00 4.692925e-01 -1.491871e+00 -6.181889e+00 -4.085205e+00 -1.835575e+00 -2.124502e+00 -2.258246e+00 1.671312e+00 5.345592e+00 1.200371e+01 1.150218e+01 6.313844e+00 2.803419e-01 -1.049587e+00 -6.100001e-01 2.039755e-01 5.449639e-02 6.059614e-02 -2.997937e-01 -4.525067e-01 7.168018e-01 1.716270e+00 2.857853e+00 1.908942e+00 1.480383e+00 -3.263714e-01 1.484209e-02 8.890146e-02 5.239719e-01 5.075958e-01 1.289964e-01 1.458198e-01 1.521028e-01 -2.532754e-01 -3.533809e-01 -7.538581e-01 -8.078837e-01 -4.989418e-01
<VARIANCE> 39
 1.727117e+01 5.951582e+01 3.698794e+01 7.370059e+01 5.549616e+01 7.923940e+01 5.914770e+01 7.541261e+01 9.265765e+01 1.032061e+02 6.359678e+01 8.798489e+01 2.384581e+01 2.004542e+00 2.308764e+00 2.547682e+00 4.497097e+00 4.228086e+00 5.721416e+00 4.848567e+00 5.158000e+00 7.463933e+00 8.546032e+00 7.438212e+00 7.933619e+00 2.414675e+00 4.157041e-01 3.730339e-01 4.738527e-01 6.154000e-01 7.592007e-01 9.450294e-01 8.380926e-01 9.017977e-01 1.117672e+00 1.105240e+00 9.858743e-01 8.619172e-01 3.099816e-01
<GCONST> 1.389417e+02
<MIXTURE> 2 3.366884e-01
<MEAN> 39
 1.769425e+00 7.827365e+00 5.494987e+00 -6.138894e+00 -1.234496e+00 -5.160553e+00 -4.207957e+00 -3.734044e+00 -7.996681e+00 -7.569014e+00 -7.246173e+00 -3.815803e+00 -4.855803e-01 8.445854e-02 -1.886783e-01 1.833546e-01 4.133843e-02 -3.356759e-02 -1.321877e-02 -3.527356e-02 1.219345e-01 -4.468541e-02 2.507026e-02 8.510958e-02 1.463766e-01 8.310439e-02 4.759856e-02 -1.728585e-01 -2.413467e-01 1.288108e-01 -5.185930e-02 7.399525e-02 1.495331e-01 4.404289e-02 1.659567e-01 1.520764e-01 1.178373e-01 1.051374e-01 3.852558e-02
<VARIANCE> 39
 2.767126e+01 4.624643e+01 3.697981e+01 6.777646e+01 4.106534e+01 4.951687e+01 5.213363e+01 7.269257e+01 5.994830e+01 6.292733e+01 5.382795e+01 5.790173e+01 3.197016e+01 5.650260e-01 1.022575e+00 1.180746e+00 1.720403e+00 2.247108e+00 2.525320e+00 2.689923e+00 3.018125e+00 2.946735e+00 2.476454e+00 2.586567e+00 2.648052e+00 5.023013e-01 1.042672e-01 1.625219e-01 2.050215e-01 3.573062e-01 3.938258e-01 3.989008e-01 5.228915e-01 6.196682e-01 5.852669e-01 5.252761e-01 4.506016e-01 4.490615e-01 9.993041e-02
<GCONST> 1.147240e+02
<MIXTURE> 3 2.386027e-01
<MEAN> 39
 -9.043746e-01 -3.697107e+00 9.192365e-01 2.423523e+00 -1.336020e+00 3.645530e+00 -6.417236e-01 -4.030399e-01 3.306660e+00 5.108694e+00 7.543797e+00 5.144385e+00 8.799306e+00 1.175863e-01 -3.040108e-01 -1.177953e-01 2.626435e-01 -4.978465e-01 -4.386820e-01 -1.718074e-01 7.523303e-02 -1.203023e-01 1.394439e-01 1.014783e-01 8.203764e-02 -1.480162e-01 1.143639e-02 -7.504727e-02 -3.119609e-01 -1.199222e-01 -6.944180e-03 -1.772725e-01 -1.125299e-02 2.066504e-02 8.537810e-02 7.320402e-02 5.484783e-02 -5.631675e-02 -8.820615e-02
<VARIANCE> 39
 2.129020e+01 4.160208e+01 3.720985e+01 1.041967e+02 5.933683e+01 6.893822e+01 6.759428e+01 1.048047e+02 1.091814e+02 1.675213e+02 1.631547e+02 1.957506e+02 2.609602e+01 4.073525e-01 7.909895e-01 8.100724e-01 1.272921e+00 1.762192e+00 1.936518e+00 2.188112e+00 2.294651e+00 2.454602e+00 2.714458e+00 2.529829e+00 2.727369e+00 2.147674e-01 6.265717e-02 1.150849e-01 1.574832e-01 2.284667e-01 2.596424e-01 3.403929e-01 2.878581e-01 3.736609e-01 4.249891e-01 4.748235e-01 4.193458e-01 4.821748e-01 3.211833e-02
<GCONST> 1.118349e+02
<MIXTURE> 4 2.354450e-01
<MEAN> 39
 4.366949e+00 3.281210e+00 2.749944e+00 -6.187627e+00 -6.566333e+00 -1.873049e+00 1.967417e-02 -4.787834e+00 -4.110165e+00 -7.698278e+00 -7.331554e+00 -2.841068e+00 2.548556e+00 9.606991e-01 -8.542293e-01 -1.060583e+00 -2.963726e-02 -7.335703e-01 -7.051790e-02 7.203877e-01 -1.359671e-01 -3.311093e-01 -2.193876e-01 1.427190e-01 -9.784999e-02 1.331362e+00 -3.050981e-01 -1.008346e-01 -2.576001e-01 3.726282e-01 6.832023e-01 1.556341e-02 2.980479e-03 3.501589e-01 -1.188653e-02 2.695176e-01 4.539533e-01 1.190389e-01 -2.008623e-01
<VARIANCE> 39
 2.507957e+01 3.846976e+01 4.615517e+01 6.425887e+01 4.513622e+01 6.587344e+01 6.823074e+01 6.895593e+01 5.951382e+01 6.831591e+01 5.557566e+01 6.276407e+01 2.773341e+01 2.298903e+00 2.811247e+00 3.110709e+00 5.883756e+00 3.667917e+00 5.688822e+00 5.210343e+00 5.496906e+00 5.496133e+00 4.850303e+00 4.827331e+00 4.463332e+00 2.570275e+00 3.767659e-01 3.736330e-01 4.998534e-01 6.755097e-01 5.233786e-01 1.047811e+00 8.550894e-01 8.849714e-01 9.867848e-01 8.074515e-01 8.404087e-01 8.064854e-01 2.933247e-01
<GCONST> 1.354829e+02
<STATE> 4
<NUMMIXES> 4
<MIXTURE> 1 2.613815e-01
<MEAN> 39
 6.438391e-01 -4.586036e+00 2.715114e-01 2.487838e+00 -5.787395e+00 5.710346e-01 4.187781e-02 -4.000586e+00 -1.661987e+00 5.217374e+00 1.007356e+01 1.064209e+01 7.953016e+00 3.798881e-01 -4.021779e-01 -5.593105e-01 7.567416e-01 -1.663443e-01 -8.762219e-01 5.673949e-02 5.382206e-01 -4.212795e-01 1.754355e-01 4.570819e-01 4.671704e-02 -2.555030e-01 4.737093e-02 1.476271e-01 -1.181949e-01 -2.011081e-01 2.726388e-01 4.876502e-02 -1.650157e-01 1.393110e-01 2.732304e-01 -1.254927e-01 -1.144299e-01 -1.393382e-01 -4.216975e-02
<VARIANCE> 39
 2.121233e+01 3.709680e+01 3.352092e+01 9.303001e+01 6.576009e+01 6.704193e+01 6.183649e+01 7.902967e+01 9.255959e+01 1.408460e+02 1.048396e+02 1.363147e+02 2.099305e+01 5.319395e-01 8.667176e-01 1.048046e+00 2.297833e+00 1.817547e+00 2.431202e+00 2.708159e+00 2.697347e+00 2.739321e+00 2.938481e+00 2.892117e+00 2.918549e+00 2.455522e-01 6.285582e-02 1.354462e-01 1.767039e-01 2.529328e-01 3.337466e-01 4.013901e-01 4.942162e-01 5.638866e-01 4.292539e-01 5.533917e-01 5.017564e-01 5.229611e-01 2.985783e-02
<GCONST> 1.143082e+02
<MIXTURE> 2 3.222135e-01
<MEAN> 39
 7.482083e-01 4.757946e+00 5.513480e+00 -5.035266e+00 -2.498269e+00 -2.949716e+00 -4.752859e+00 -3.380923e+00 -4.955652e+00 -3.966950e+00 -4.971300e+00 -1.939251e-01 -1.709029e-01 1.328744e-01 -2.492214e-01 -1.550790e-01 1.568357e-01 -2.049205e-01 -8.835449e-02 1.935152e-01 -7.627654e-02 5.279078e-02 1.515205e-01 3.904223e-02 7.281505e-02 -4.548271e-02 1.356368e-02 -1.819148e-02 -9.632349e-02 3.110579e-02 3.559138e-02 1.251763e-02 4.629058e-02 2.957045e-02 2.256121e-02 2.314359e-02 2.345783e-02 -8.861927e-03 -7.936317e-03
<VARIANCE> 39
 2.234590e+01 3.482617e+01 3.316362e+01 7.252878e+01 4.416973e+01 4.527363e+01 5.744437e+01 5.746987e+01 5.349298e+01 6.408591e+01 5.416533e+01 6.944518e+01 4.723781e+01 1.917405e-01 5.094627e-01 5.958921e-01 9.829221e-01 1.170549e+00 1.322369e+00 1.653126e+00 1.618021e+00 1.798914e+00 1.856113e+00 1.561210e+00 1.376301e+00 1.285318e-01 2.949204e-02 7.051700e-02 1.058353e-01 1.655279e-01 2.052481e-01 2.422888e-01 2.680636e-01 2.998113e-01 3.220067e-01 3.584058e-01 2.808674e-01 2.569864e-01 2.005098e-02
<GCONST> 9.608915e+01
<MIXTURE> 3 1.687598e-01
<MEAN> 39
 8.961042e-01 -8.508356e-01 -8.534518e-01 -3.726010e+00 -3.026884e+00 -6.946139e-01 6.470948e-03 2.141850e+00 8.617526e+00 1.061598e+01 1.201482e+01 4.211767e+00 6.442814e+00 -2.901341e-02 -4.427835e-01 -4.152379e-01 3.194989e-01 6.196935e-01 1.491325e-02 -8.133251e-02 2.599233e-01 7.765197e-01 1.152693e+00 1.221109e+00 4.690197e-02 6.065883e-01 -1.663603e-01 2.008763e-01 4.088252e-02 1.198819e-01 2.970031e-01 1.287078e-01 1.756282e-03 1.919739e-02 -4.766720e-01 -5.660256e-01 -7.286929e-01 -3.859917e-01 -3.672534e-01
<VARIANCE> 39
 1.734205e+01 5.366803e+01 3.167785e+01 7.446369e+01 6.194798e+01 8.231256e+01 6.370595e+01 1.056506e+02 9.713077e+01 1.383160e+02 1.484919e+02 2.267756e+02 2.715372e+01 1.041450e+00 1.489445e+00 1.685574e+00 3.136468e+00 3.231686e+00 4.179507e+00 3.876069e+00 4.109530e+00 6.236669e+00 5.686429e+00 6.134746e+00 8.751451e+00 1.209760e+00 2.525148e-01 2.404310e-01 3.941263e-01 4.722500e-01 6.697050e-01 7.543892e-01 7.326016e-01 7.273510e-01 9.643317e-01 1.081931e+00 1.139148e+00 1.244344e+00 2.682919e-01
<GCONST> 1.353601e+02
<MIXTURE> 4 2.476452e-01
<MEAN> 39
 4.648630e+00 1.090563e+00 -1.059226e+00 -3.352836e+00 -4.042021e+00 -3.236864e+00 -2.009141e-02 -3.104608e+00 -6.292562e+00 -8.081417e+00 -3.812154e+00 -1.025375e+00 3.428162e+00 3.464832e-01 -8.386170e-01 -1.301719e+00 2.448789e-01 6.783405e-01 3.633703e-01 9.168492e-02 3.629917e-01 2.511655e-01 -4.648911e-02 5.741507e-01 3.536037e-01 1.104932e+00 -2.740594e-01 1.393891e-01 1.496568e-01 1.480424e-01 3.884512e-01 2.218678e-01 -1.806138e-01 -5.068430e-02 2.643303e-01 3.894679e-01 3.537676e-02 1.857614e-03 -2.958489e-01
<VARIANCE> 39
 2.763651e+01 4.922604e+01 4.149889e+01 7.634463e+01 4.817164e+01 7.549391e+01 7.521292e+01 7.696397e+01 5.392480e+01 6.241961e+01 5.858117e+01 8.232275e+01 3.301637e+01 1.479385e+00 2.081211e+00 2.487981e+00 3.717335e+00 2.886063e+00 4.898106e+00 4.847865e+00 5.304874e+00 4.034608e+00 4.349309e+00 4.691884e+00 5.058030e+00 1.419141e+00 3.038739e-01 3.515857e-01 4.567024e-01 6.219337e-01 5.268017e-01 7.356372e-01 8.697997e-01 7.422444e-01 7.123744e-01 7.059873e-01 6.823623e-01 7.428461e-01 3.077209e-01
<GCONST> 1.321165e+02
<STATE> 5
<NUMMIXES> 4
<MIXTURE> 1 1.617548e-01
<MEAN> 39
 -7.979943e-01 -9.709376e-01 -8.197073e-01 -1.382362e+00 -1.548401e+00 -1.240830e-01 5.017413e-02 5.208809e+00 1.126459e+01 1.783787e+01 1.507741e+01 -2.330365e-01 7.153210e+00 6.189705e-02 -1.123440e-01 -2.142489e-01 1.581921e-01 1.507195e-01 1.016042e-01 -5.939810e-02 2.328032e-01 3.471955e-01 1.365016e-01 1.228618e-01 -2.448715e-01 -1.243282e-02 2.453592e-02 8.796700e-02 2.033010e-02 -7.396730e-02 2.292839e-02 1.163988e-01 2.763365e-02 -1.092803e-01 -1.725813e-01 -4.279847e-01 -3.738601e-01 -6.851380e-03 -7.136057e-02
<VARIANCE> 39
 1.995418e+01 5.649905e+01 3.365706e+01 9.117065e+01 6.238087e+01 8.149239e+01 5.280988e+01 7.652724e+01 5.959780e+01 5.526991e+01 1.078737e+02 1.972856e+02 2.889127e+01 3.899628e-01 7.197444e-01 1.001190e+00 1.184784e+00 1.371591e+00 1.855355e+00 1.903601e+00 2.187807e+00 2.583712e+00 2.710534e+00 2.311534e+00 3.668950e+00 2.470224e-01 6.898493e-02 1.265409e-01 1.627172e-01 1.606548e-01 2.597096e-01 3.359851e-01 3.628600e-01 3.471427e-01 4.713852e-01 4.597503e-01 4.913178e-01 5.378872e-01 6.325683e-02
<GCONST> 1.104313e+02
<MIXTURE> 2 3.444319e-01
<MEAN> 39
 4.241724e+00 8.184654e-01 -1.565608e+00 -2.707752e+00 -1.892321e+00 -2.165526e+00 -9.650264e-01 -3.097691e+00 -5.315653e+00 -8.402058e+00 -5.608856e+00 -3.907449e+00 3.464505e+00 9.844895e-02 -1.411340e-01 -3.381729e-01 2.145130e-01 5.213782e-01 1.390737e-01 -2.355764e-01 1.267982e-01 2.623583e-02 2.076137e-01 3.648945e-02 -1.901684e-01 1.272870e-01 -8.354247e-02 1.504934e-01 1.718500e-01 -1.841840e-02 4.276764e-03 6.987584e-02 -1.699487e-02 -6.824746e-02 -8.219561e-04 1.588916e-01 -1.343028e-03 6.380853e-02 -1.672051e-01
<VARIANCE> 39
 2.999147e+01 5.042577e+01 3.531089e+01 8.184949e+01 5.144474e+01 6.921870e+01 6.456756e+01 7.356419e+01 5.132654e+01 5.623162e+01 4.827166e+01 4.871296e+01 4.122588e+01 3.971980e-01 8.505247e-01 9.897014e-01 1.548457e+00 1.784623e+00 2.169350e+00 2.612123e+00 2.429478e+00 2.187202e+00 2.408765e+00 2.205952e+00 2.249248e+00 3.805600e-01 8.416498e-02 1.199877e-01 1.596020e-01 2.655314e-01 3.111604e-01 4.028145e-01 4.503997e-01 5.104042e-01 4.400616e-01 4.025171e-01 3.922983e-01 3.794398e-01 7.597467e-02
<GCONST> 1.103851e+02
<MIXTURE> 3 2.452193e-01
<MEAN> 39
 1.775886e+00 -3.344275e+00 -2.903620e+00 5.368173e-01 -1.344499e+00 -2.101944e+00 -4.227573e+00 -2.908064e+00 -2.247000e+00 1.655276e+00 1.190020e+01 1.620444e+01 7.367968e+00 2.075349e-01 3.446654e-02 -1.273369e-01 3.573103e-02 3.641200e-01 1.876233e-01 -4.169585e-01 -7.522249e-02 3.311334e-01 3.103767e-01 1.833542e-02 7.048809e-02 -1.171740e-01 1.614528e-02 1.430893e-01 1.118393e-01 -7.298602e-02 -3.869364e-02 1.854356e-01 1.530728e-01 -1.016479e-01 4.937595e-02 1.399284e-02 -2.029095e-01 -3.977349e-01 -6.222834e-02
<VARIANCE> 39
 2.224684e+01 5.091188e+01 3.364718e+01 1.032803e+02 5.961491e+01 6.919828e+01 6.244947e+01 5.662626e+01 5.715156e+01 6.849659e+01 6.786879e+01 4.389477e+01 2.281440e+01 4.024210e-01 7.795020e-01 9.409620e-01 1.510734e+00 1.527329e+00 1.939103e+00 2.115596e+00 2.239822e+00 2.134387e+00 2.928200e+00 2.542199e+00 2.739627e+00 2.210882e-01 7.042645e-02 1.167984e-01 1.627122e-01 2.477366e-01 3.165714e-01 3.038546e-01 3.468915e-01 3.525313e-01 3.112474e-01 4.126368e-01 4.222530e-01 4.255345e-01 3.651690e-02
<GCONST> 1.073226e+02
<MIXTURE> 4 2.485939e-01
<MEAN> 39
 3.728199e+00 -1.576547e+00 -2.957314e+00 -6.616794e-01 -2.602432e+00 -2.186254e+00 3.927235e-01 1.996326e+00 1.548828e+00 1.115347e+00 3.678904e+00 3.542238e+00 4.899867e+00 3.191287e-01 -2.745831e-02 -9.008120e-01 -1.963655e-01 8.457947e-01 5.764398e-01 -4.971532e-01 -1.339121e-01 5.849857e-01 4.748803e-01 2.752455e-01 5.183835e-02 4.778803e-01 -2.152466e-01 2.533804e-01 3.372199e-01 -9.746071e-02 8.879368e-02 2.304159e-01 -6.660015e-02 -3.925500e-01 -2.243146e-01 1.149172e-03 -1.562245e-01 -8.434579e-02 -2.377217e-01
<VARIANCE> 39
 2.757054e+01 5.101691e+01 4.306940e+01 8.307342e+01 5.412726e+01 1.036600e+02 8.956622e+01 1.198783e+02 1.421936e+02 1.702290e+02 1.890534e+02 1.902378e+02 3.317014e+01 1.526847e+00 2.182947e+00 3.027592e+00 4.346244e+00 3.543280e+00 5.375679e+00 5.690711e+00 5.559204e+00 6.488935e+00 7.069542e+00 8.515469e+00 8.742792e+00 2.090139e+00 2.194744e-01 3.203773e-01 4.422171e-01 6.732229e-01 6.055047e-01 1.038265e+00 1.051131e+00 9.659032e-01 1.163807e+00 1.119689e+00 1.118899e+00 1.137392e+00 2.451068e-01
<GCONST> 1.429487e+02
<TRANSP> 6
 0.000000e+00 1.000000e+00 0.000000e+00 0.000000e+00 0.000000e+00 0.000000e+00
 0.000000e+00 3.545955e-01 6.454045e-01 0.000000e+00 0.000000e+00 0.000000e+00
 0.000000e+00 0.000000e+00 3.749753e-01 6.250247e-01 0.000000e+00 0.000000e+00
 0.000000e+00 0.000000e+00 0.000000e+00 3.785322e-01 6.214678e-01 0.000000e+00
 0.000000e+00 0.000000e+00 0.000000e+00 0.000000e+00 2.875141e-01 7.124859e-01
 0.000000e+00 0.000000e+00 0.000000e+00 0.000000e+00 0.000000e+00 0.000000e+00
<ENDHMM>
