~o
<STREAMINFO> 1 39
<VECSIZE> 39<NULLD><MFCC_D_A_Z_0><DIAGC>
~h "ah"
<BEGINHMM>
<NUMSTATES> 6
<STATE> 2
<NUMMIXES> 8
<MIXTURE> 1 1.023848e-01
<MEAN> 39
 -1.046801e+00 -1.024642e+01 -5.585629e+00 4.940882e-02 1.075579e+01 2.415240e+00 8.013557e-01 6.147439e+00 2.125808e+00 -5.457104e-01 5.689245e+00 1.103570e+01 1.456954e+01 2.376905e-02 2.237140e-03 -3.755050e-03 2.584562e-02 7.311776e-02 1.962400e-02 -5.250681e-02 1.030723e-02 2.080199e-02 1.392411e-02 1.116199e-02 -1.587580e-02 -1.738742e-02 4.782324e-03 7.252540e-03 -2.429041e-03 -5.299461e-02 -4.557006e-02 -1.480883e-02 3.691303e-03 1.703523e-03 5.854507e-03 3.974043e-04 -3.350235e-02 -3.054480e-02 -1.259707e-02
<VARIANCE> 39
 9.396505e+00 2.099220e+01 2.444461e+01 3.605324e+01 5.531294e+01 4.785099e+01 7.267411e+01 4.798036e+01 6.200097e+01 7.492017e+01 8.734203e+01 6.911787e+01 1.581203e+01 1.757967e-01 3.285375e-01 4.428717e-01 4.925664e-01 6.156470e-01 6.109217e-01 7.101265e-01 7.200611e-01 6.688452e-01 7.024600e-01 7.212725e-01 7.283648e-01 5.391753e-02 3.210789e-02 6.094754e-02 8.187198e-02 9.329814e-02 1.063460e-01 1.097627e-01 1.217262e-01 1.312989e-01 1.192998e-01 1.264550e-01 1.303315e-01 1.247733e-01 9.066209e-03
<GCONST> 7.663505e+01
<MIXTURE> 2 1.210246e-01
<MEAN> 39
 5.652059e+00 -3.302482e+00 -8.214825e+00 -8.165833e+00 4.290899e+00 6.095175e+00 -5.846658e+00 -5.996367e-01 6.642924e+00 2.738505e+00 -9.728893e-01 -6.280534e+00 9.556499e+00 -2.933595e-01 -4.947251e-01 -6.618365e-02 3.561565e-01 3.241833e-01 -1.811501e-01 -1.224287e-01 6.507440e-01 5.205694e-01 -3.932192e-01 -6.626254e-01 -2.444656e-01 2.844199e-01 1.352688e-02 1.173938e-01 2.029519e-01 1.028104e-01 -1.951566e-01 -2.284912e-01 1.819945e-01 5.013987e-02 -2.927173e-01 -1.879037e-01 3.309452e-02 3.297041e-01 -1.311357e-01
<VARIANCE> 39
 1.265580e+01 2.053479e+01 2.166280e+01 3.606809e+01 5.279704e+01 6.227739e+01 5.697107e+01 5.525254e+01 6.456290e+01 6.422019e+01 6.562592e+01 4.880104e+01 1.967058e+01 3.147049e-01 7.175445e-01 8.917401e-01 1.592298e+00 1.770360e+00 2.458006e+00 2.242695e+00 2.564276e+00 2.565150e+00 2.660201e+00 2.543299e+00 2.402499e+00 2.625863e-01 5.267975e-02 1.062863e-01 1.548789e-01 2.310138e-01 3.136274e-01 3.365260e-01 3.635234e-01 4.120309e-01 4.254613e-01 4.202085e-01 4.049444e-01 3.403834e-01 4.820079e-02
<GCONST> 1.045090e+02
<MIXTURE> 3 1.437730e-01
<MEAN> 39
 3.920209e+00 -2.129618e+00 -1.240324e+00 -1.679033e+00 -4.217543e+00 -4.035155e+00 -1.875216e+00 3.318786e+00 2.852593e+00 -1.649411e+00 -4.103489e+00 -7.682986e-01 8.088700e+00 8.191758e-02 -1.581608e-01 -3.979126e-01 -1.161266e-01 4.699224e-01 3.505222e-01 -9.676506e-02 -1.908425e-03 1.895011e-01 -8.440301e-02 -2.207031e-01 -1.818123e-01 -4.994588e-03 -8.823290e-03 6.401167e-02 4.090675e-02 2.518551e-03 8.180600e-02 9.719898e-03 -8.648007e-02 -1.007134e-01 -3.896737e-02 5.041347e-02 9.112030e-02 7.400181e-03 -5.282899e-02
<VARIANCE> 39
 1.362717e+01 2.195597e+01 3.887343e+01 3.295518e+01 4.322097e+01 4.652221e+01 6.264087e+01 6.484701e+01 7.842136e+01 7.243075e+01 5.460640e+01 5.418805e+01 2.130555e+01 1.745867e-01 4.254390e-01 7.651550e-01 7.837920e-01 1.230885e+00 1.335129e+00 1.490844e+00 1.669315e+00 1.664583e+00 1.664520e+00 1.504434e+00 1.398921e+00 1.334595e-01 3.097291e-02 7.295153e-02 1.107617e-01 1.348015e-01 1.777192e-01 2.112165e-01 2.498950e-01 2.962804e-01 2.996628e-01 2.795638e-01 2.572171e-01 2.285991e-01 2.304003e-02
<GCONST> 9.292606e+01
<MIXTURE> 4 1.322057e-01
<MEAN> 39
 3.124168e+00 -8.875257e+00 -4.808414e+00 -8.438533e+00 7.173197e+00 3.914881e+00 -1.626149e+00 5.537042e+00 5.349159e+00 3.788887e-01 -3.397953e+00 -3.336105e+00 1.412715e+01 6.174772e-02 4.940428e-04 -6.044356e-02 -5.115185e-02 1.805548e-01 1.629220e-01 -8.192165e-02 -1.029165e-01 -2.308566e-02 1.692593e-02 8.072075e-02 -3.114229e-02 -7.243420e-02 -1.192660e-02 4.513161e-02 -2.059350e-02 5.738025e-02 -9.993049e-02 -6.614941e-02 -2.933615e-02 6.703437e-03 -2.100594e-02 -2.124000e-02 1.339321e-02 7.186098e-02 -1.214898e-02
<VARIANCE> 39
 2.141912e+01 2.489986e+01 3.180941e+01 3.777547e+01 8.972865e+01 8.691513e+01 9.822657e+01 7.833340e+01 7.365220e+01 6.119737e+01 5.656594e+01 7.098737e+01 2.056730e+01 1.731388e-01 3.464785e-01 4.804067e-01 6.733207e-01 9.298633e-01 1.082900e+00 1.173328e+00 1.192427e+00 1.194675e+00 1.116620e+00 1.077280e+00 1.035934e+00 8.466059e-02 3.271768e-02 6.610042e-02 9.395725e-02 1.284785e-01 1.743786e-01 2.110363e-01 2.337797e-01 2.399488e-01 2.315591e-01 2.155984e-01 2.038343e-01 1.978813e-01 1.376579e-02
<GCONST> 8.979250e+01
<MIXTURE> 5 7.261340e-02
<MEAN> 39
 4.124537e+00 -3.149107e+00 -3.858658e+00 -5.004462e+00 -7.111637e-01 -3.246336e+00 -4.565516e+00 3.116691e+00 5.221319e+00 1.272672e+00 -2.112697e+00 -5.841544e-01 9.774080e+00 4.455315e-01 -1.846903e+00 -5.255115e-01 -1.167023e+00 7.598961e-01 9.284053e-01 3.514307e-01 1.556909e+00 6.434097e-01 -2.784161e-01 -5.021648e-01 -2.246212e-01 1.475118e+00 -6.595333e-01 3.961392e-01 1.553632e-01 6.335291e-01 3.901829e-01 3.927559e-01 4.619543e-01 -2.478366e-01 -4.087242e-01 -1.706900e-01 1.798364e-01 3.267042e-02 -5.992671e-01
<VARIANCE> 39
 1.925482e+01 3.197721e+01 4.259462e+01 4.073034e+01 6.302800e+01 7.474662e+01 6.932462e+01 7.177028e+01 6.831887e+01 7.969942e+01 8.005323e+01 9.012201e+01 2.716578e+01 2.248158e+00 2.706725e+00 2.761846e+00 3.953337e+00 4.894640e+00 5.121612e+00 5.644496e+00 5.767239e+00 6.091037e+00 4.934162e+00 5.132556e+00 5.260005e+00 1.686650e+00 4.672088e-01 4.447683e-01 4.857399e-01 6.361101e-01 7.871808e-01 9.695128e-01 1.002614e+00 1.083442e+00 9.595824e-01 1.012926e+00 9.966037e-01 1.076200e+00 3.162042e-01
<GCONST> 1.373963e+02
<MIXTURE> 6 2.070249e-01
<MEAN> 39
 1.394728e+00 -9.036733e+00 -5.713408e+00 -3.718942e+00 7.401093e+00 1.746966e+00 -7.726617e-01 6.028169e+00 1.592495e+00 -4.179659e+00 -1.622794e+00 4.330736e+00 1.232276e+01 5.682408e-02 -1.586899e-01 -1.686280e-01 4.393527e-02 4.700767e-01 1.972703e-01 -3.240468e-01 -2.013438e-01 -8.777939e-02 -9.503645e-02 1.186260e-01 -2.440452e-02 -8.569501e-02 6.388104e-02 1.340343e-01 7.086211e-02 -4.553638e-02 -1.785838e-01 -1.222069e-01 -4.448893e-02 -4.786661e-02 8.601091e-02 1.631529e-01 3.997953e-02 -9.990855e-02 -8.535680e-02
<VARIANCE> 39
 1.423857e+01 2.025237e+01 2.564323e+01 3.515384e+01 6.591402e+01 6.016345e+01 6.656239e+01 5.469601e+01 5.943774e+01 4.909535e+01 5.962696e+01 8.283237e+01 1.621754e+01 4.060856e-01 7.615744e-01 1.054781e+00 1.335175e+00 2.217766e+00 2.103668e+00 2.579072e+00 2.381390e+00 2.278444e+00 2.225049e+00 2.191880e+00 2.136699e+00 2.204306e-01 5.891350e-02 1.188454e-01 1.553547e-01 2.044063e-01 2.875704e-01 3.289298e-01 3.941000e-01 3.678633e-01 3.568546e-01 3.474326e-01 3.325158e-01 3.155389e-01 3.417975e-02
<GCONST> 1.036608e+02
<MIXTURE> 7 1.004257e-01
<MEAN> 39
 3.535892e+00 -6.980376e+00 -1.997854e+00 -5.475332e+00 3.770181e+00 -4.225026e-01 -1.130588e+00 2.607270e+00 2.633263e+00 1.562484e+00 1.447815e+00 2.613003e+00 9.891926e+00 8.164019e-03 -6.097033e-02 -6.814110e-02 8.540192e-02 2.844930e-01 1.367909e-01 -8.006261e-02 -1.582292e-01 -2.815994e-02 -1.485928e-01 -3.776436e-02 -4.498157e-02 -4.222792e-02 -4.872013e-02 1.965192e-01 -1.062107e-01 1.334516e-01 -1.019337e-01 2.284991e-02 -8.684858e-02 3.977757e-02 2.104851e-02 -2.597998e-02 -4.544039e-02 -4.104608e-02 -7.578792e-02
<VARIANCE> 39
 3.147032e+01 4.469371e+01 5.070126e+01 6.826549e+01 1.047591e+02 9.426830e+01 9.589601e+01 9.431687e+01 9.102290e+01 1.077336e+02 1.189212e+02 1.347338e+02 3.470247e+01 8.232667e-01 1.423187e+00 1.967310e+00 2.291655e+00 3.225190e+00 3.243493e+00 3.592535e+00 3.805579e+00 3.579436e+00 3.682410e+00 3.455545e+00 3.503214e+00 7.828559e-01 1.600799e-01 2.990632e-01 3.539055e-01 4.787208e-01 5.742079e-01 6.294318e-01 7.450824e-01 7.512841e-01 7.206970e-01 7.048507e-01 6.756698e-01 6.862347e-01 1.618057e-01
<GCONST> 1.295777e+02
<MIXTURE> 8 1.205479e-01
<MEAN> 39
 3.132728e+00 -4.349325e+00 -3.909044e+00 -3.939643e+00 -9.195655e-01 -2.395939e+00 -6.942492e-01 8.030012e+00 4.376685e+00 -3.508467e+00 -5.694728e+00 -7.243762e-01 1.087552e+01 -4.538456e-02 -9.991426e-01 -7.494903e-01 -2.375527e-01 1.295642e+00 1.312592e+00 5.998276e-01 6.176721e-01 6.898908e-02 -5.812232e-01 -2.963350e-01 -1.870071e-01 4.805473e-01 -1.124745e-01 4.001189e-01 1.825973e-01 3.187128e-01 1.320817e-01 -9.656733e-02 -3.264621e-01 -7.527176e-01 -2.525706e-01 1.829419e-01 3.328693e-01 2.035260e-02 -3.946454e-01
<VARIANCE> 39
 1.227107e+01 2.075029e+01 2.805299e+01 2.521383e+01 4.448240e+01 4.350436e+01 5.669167e+01 4.961609e+01 6.944672e+01 5.593143e+01 4.169445e+01 5.096553e+01 1.995922e+01 5.184380e-01 9.533682e-01 1.431591e+00 1.530542e+00 2.455137e+00 2.418783e+00 3.233178e+00 3.320630e+00 3.469502e+00 3.024384e+00 2.607183e+00 2.670975e+00 3.533756e-01 1.586485e-01 1.847633e-01 2.336675e-01 2.761695e-01 3.972481e-01 4.317838e-01 5.976666e-01 5.272880e-01 6.227500e-01 5.226143e-01 4.605833e-01 4.377305e-01 7.533597e-02
<GCONST> 1.111965e+02
<STATE> 3
<NUMMIXES> 8
<MIXTURE> 1 9.716118e-02
<MEAN> 39
 4.119947e+00 -5.656736e+00 -6.766937e+00 -4.022594e+00 6.366445e+00 2.165095e+00 -3.908485e+00 5.943326e+00 3.216769e+00 -4.015881e+00 -3.960566e+00 -8.373221e-01 9.475267e+00 -2.629136e-01 -3.733360e-01 -5.039784e-01 -5.664084e-01 -5.505227e-01 -5.987138e-01 -6.475633e-01 -5.932012e-01 -5.401071e-01 -4.562461e-01 -3.545444e-01 -3.202259e-01 -1.352193e-01 -4.389939e-02 -5.127159e-02 -6.985267e-02 -1.050990e-01 -1.304527e-01 -1.185885e-01 -9.537321e-02 -1.141995e-01 -7.996938e-02 -6.368922e-02 -6.533746e-02 -5.745095e-02 -2.445123e-02
<VARIANCE> 39
 9.557991e+00 1.804469e+01 2.155009e+01 2.848082e+01 5.076934e+01 5.452969e+01 5.504656e+01 5.095866e+01 5.793923e+01 4.862692e+01 4.580140e+01 5.908792e+01 1.380748e+01 7.456781e-02 1.824117e-01 2.761924e-01 3.715100e-01 5.215224e-01 5.554472e-01 6.250350e-01 6.590057e-01 7.026975e-01 6.891525e-01 6.718437e-01 6.648157e-01 3.509549e-02 1.369587e-02 3.211914e-02 5.006470e-02 6.642327e-02 8.895633e-02 1.017408e-01 1.143704e-01 1.180665e-01 1.256206e-01 1.194880e-01 1.141909e-01 1.076045e-01 5.226521e-03
<GCONST> 6.770622e+01
<MIXTURE> 2 2.184625e-01
<MEAN> 39
 4.447256e+00 -4.418060e+00 -6.665355e+00 -5.145188e+00 3.748625e+00 2.881131e+00 -3.614823e+00 4.129117e+00 5.843894e+00 -1.741234e+00 -3.945642e+00 -2.875023e+00 9.799541e+00 1.073125e-02 1.318555e-02 1.157556e-03 2.625595e-03 1.482027e-02 1.699947e-02 -1.511542e-02 -1.160196e-02 7.213762e-03 1.669384e-02 6.851292e-03 -5.141118e-04 -1.700986e-02 -5.096572e-03 -1.625647e-03 -5.874269e-03 -1.522755e-02 -2.913475e-02 -2.343397e-02 -1.712792e-02 -2.217692e-02 -8.509054e-03 -8.859306e-03 -1.449633e-03 -1.222035e-02 -7.458840e-03
<VARIANCE> 39
 1.152010e+01 1.788374e+01 2.131381e+01 2.911275e+01 4.798360e+01 5.120117e+01 5.691598e+01 5.415340e+01 5.933376e+01 5.970354e+01 4.692632e+01 5.477918e+01 1.541596e+01 3.987757e-02 9.854897e-02 1.537873e-01 2.096621e-01 3.021072e-01 3.526751e-01 3.812313e-01 4.161761e-01 4.380695e-01 4.302714e-01 4.113904e-01 3.851904e-01 2.013664e-02 7.910930e-03 1.872995e-02 3.005007e-02 4.162208e-02 5.840138e-02 6.789040e-02 7.376011e-02 8.041576e-02 8.587255e-02 8.426572e-02 8.055157e-02 7.457473e-02 3.159694e-03
<GCONST> 5.560603e+01
<MIXTURE> 3 1.364921e-01
<MEAN> 39
 3.144088e+00 -6.953025e+00 -8.779847e+00 -6.524762e+00 3.951390e+00 -2.034567e-01 -6.391600e+00 2.910144e+00 1.213414e+00 -5.820115e+00 -5.419175e+00 -2.514490e+00 8.971483e+00 -3.206598e-02 -5.337575e-02 -9.465069e-02 -9.368838e-02 -6.172609e-02 -1.110803e-01 -1.421451e-01 -1.047319e-01 -1.061229e-01 -7.649057e-02 -5.673632e-02 -5.809001e-02 -4.996773e-02 1.335067e-01 2.054872e-01 2.550332e-01 2.616758e-01 2.363839e-01 2.757646e-01 3.048430e-01 2.795759e-01 2.734144e-01 2.533106e-01 1.905640e-01 1.513897e-01 3.908428e-02
<VARIANCE> 39
 1.039379e+01 1.966614e+01 2.264644e+01 3.014130e+01 5.119209e+01 5.693081e+01 5.658930e+01 5.727043e+01 5.952839e+01 5.252779e+01 5.005217e+01 6.663668e+01 1.337351e+01 1.114613e-01 2.588249e-01 3.908310e-01 5.216266e-01 7.237397e-01 7.922854e-01 8.928559e-01 9.153114e-01 9.410847e-01 8.887563e-01 8.309920e-01 7.812117e-01 5.311946e-02 1.620515e-02 3.788720e-02 5.749210e-02 8.041743e-02 1.098143e-01 1.203757e-01 1.386129e-01 1.469033e-01 1.545032e-01 1.562042e-01 1.517173e-01 1.444738e-01 7.417109e-03
<GCONST> 7.545694e+01
<MIXTURE> 4 2.010671e-01
<MEAN> 39
 4.250107e+00 -5.558159e+00 -6.257810e+00 -3.518090e+00 6.599870e+00 1.996360e+00 -3.057681e+00 6.995022e+00 3.322387e+00 -4.395397e+00 -4.201037e+00 -2.376721e-01 8.914400e+00 4.578908e-02 7.467314e-02 4.425801e-02 7.385247e-02 7.609688e-02 5.724015e-02 3.021233e-02 9.447234e-02 4.988043e-02 3.121602e-02 5.704599e-02 3.066752e-02 -3.960815e-02 -5.618363e-02 -4.354705e-02 -8.650392e-02 -1.466227e-01 -2.224144e-01 -1.641522e-01 -1.370975e-01 -2.078820e-01 -1.041296e-01 -4.309527e-02 -5.203120e-02 -9.334006e-02 -4.982273e-02
<VARIANCE> 39
 9.390572e+00 1.643424e+01 2.126543e+01 2.684641e+01 4.936436e+01 5.315541e+01 5.501464e+01 4.929340e+01 6.005162e+01 5.133868e+01 4.583285e+01 5.335463e+01 1.230292e+01 1.547562e-01 3.579083e-01 5.211187e-01 6.694488e-01 1.002747e+00 1.080818e+00 1.298368e+00 1.265136e+00 1.332850e+00 1.269005e+00 1.170104e+00 1.123590e+00 9.041066e-02 2.711283e-02 6.264983e-02 9.163861e-02 1.180339e-01 1.585089e-01 1.867728e-01 2.217948e-01 2.136817e-01 2.402744e-01 2.281444e-01 2.117540e-01 1.915615e-01 1.355028e-02
<GCONST> 8.432918e+01
<MIXTURE> 5 1.727150e-01
<MEAN> 39
 6.042121e+00 -2.447215e+00 -7.308198e+00 -7.668725e+00 1.484330e+00 7.374996e+00 -4.597617e+00 -1.666488e+00 9.138078e+00 2.312642e+00 -5.216658e-01 -5.459108e+00 9.645622e+00 1.725860e-02 3.381633e-02 -2.961029e-02 -7.734797e-03 2.028054e-02 1.732355e-02 -5.199299e-02 -5.602105e-02 -3.321412e-02 -1.730956e-02 2.510404e-02 -3.369582e-03 -5.425998e-02 -5.506335e-03 -1.880052e-03 1.609556e-02 1.915107e-02 -1.533248e-02 -1.053164e-01 -1.682580e-02 5.137587e-02 -7.832822e-02 -3.138630e-02 -2.803167e-02 4.817346e-02 -1.346863e-02
<VARIANCE> 39
 1.225353e+01 1.950889e+01 2.014338e+01 3.185740e+01 3.486407e+01 5.920040e+01 5.378435e+01 4.864178e+01 4.873819e+01 5.919681e+01 6.108444e+01 4.407558e+01 1.556844e+01 9.842824e-02 2.433350e-01 3.418544e-01 5.343253e-01 6.665677e-01 8.976542e-01 9.172316e-01 1.034668e+00 9.973004e-01 1.057394e+00 1.072809e+00 8.755741e-01 6.805209e-02 1.621906e-02 3.929849e-02 5.825980e-02 8.852754e-02 1.156650e-01 1.482035e-01 1.629725e-01 1.750773e-01 1.750969e-01 1.881438e-01 1.826979e-01 1.509091e-01 9.551735e-03
<GCONST> 7.713255e+01
<MIXTURE> 6 8.662736e-02
<MEAN> 39
 3.852849e+00 -5.953818e+00 -7.315755e+00 -4.761611e+00 5.818853e+00 1.645826e+00 -4.577497e+00 4.935187e+00 2.812339e+00 -4.266907e+00 -4.256277e+00 -1.272650e+00 9.405655e+00 3.183058e-01 4.321616e-01 5.441903e-01 6.176847e-01 6.622589e-01 6.756129e-01 6.500651e-01 6.447880e-01 6.032228e-01 5.284425e-01 4.124452e-01 3.347305e-01 9.046298e-02 8.229436e-03 2.431761e-02 2.084124e-02 7.536120e-03 -2.332228e-02 3.126245e-04 1.728113e-02 2.742438e-03 2.203392e-02 1.735952e-02 4.387092e-03 -1.652521e-03 -5.902223e-03
<VARIANCE> 39
 9.843279e+00 1.860946e+01 2.191048e+01 2.937467e+01 5.164835e+01 5.514263e+01 5.602417e+01 5.411100e+01 5.933371e+01 5.003793e+01 4.688204e+01 6.277571e+01 1.386661e+01 7.095862e-02 1.734432e-01 2.529804e-01 3.480742e-01 4.909271e-01 5.390982e-01 6.056501e-01 6.161524e-01 6.808783e-01 6.456402e-01 6.679217e-01 6.664944e-01 3.621391e-02 1.338266e-02 3.200831e-02 4.969340e-02 6.678191e-02 8.822113e-02 1.006630e-01 1.154750e-01 1.183535e-01 1.261277e-01 1.189614e-01 1.103927e-01 1.041632e-01 5.136994e-03
<GCONST> 6.743011e+01
<MIXTURE> 7 2.444451e-02
<MEAN> 39
 1.686844e+00 -2.248440e+00 -5.842113e+00 -1.614047e+00 4.689094e+00 4.293616e+00 1.139060e+01 2.183543e+01 1.940459e+01 5.942625e+00 -1.252387e+01 -2.312092e+01 5.908149e+00 6.934868e-03 6.262209e-03 -1.853321e-02 -2.976693e-03 -1.011209e-02 2.152941e-02 1.666833e-02 -1.165165e-03 1.891688e-02 -3.098092e-02 -3.854977e-02 -2.545893e-02 -1.724418e-02 3.918421e-04 -3.845493e-03 -6.439472e-03 -1.039746e-02 -2.512712e-03 4.898746e-03 -1.156903e-02 -2.664764e-02 -1.917341e-02 1.391704e-04 3.052123e-02 3.322483e-02 1.445444e-03
<VARIANCE> 39
 2.116555e+01 2.548012e+01 2.184679e+01 4.025578e+01 3.970714e+01 4.035753e+01 9.700643e+01 4.035176e+01 6.355164e+01 1.524385e+02 1.404661e+02 8.453968e+01 1.441256e+01 2.001499e-01 4.179086e-01 5.899827e-01 6.401357e-01 6.483270e-01 9.441746e-01 8.707204e-01 1.078811e+00 1.038125e+00 1.209024e+00 1.474077e+00 1.258131e+00 7.682458e-02 3.481682e-02 7.594607e-02 1.127602e-01 1.187351e-01 1.163583e-01 1.703882e-01 1.598314e-01 2.056322e-01 1.955385e-01 2.102938e-01 2.460606e-01 2.049166e-01 1.168771e-02
<GCONST> 8.768519e+01
<MIXTURE> 8 6.303036e-02
<MEAN> 39
 3.582908e+00 -3.931432e+00 -4.333110e+00 -3.999197e+00 2.352074e+00 -1.925479e-01 -3.575438e+00 1.963934e+00 3.865933e+00 -6.289892e-01 -2.391580e+00 -1.464538e+00 7.647708e+00 -3.333211e-02 1.173919e-01 -1.548301e-03 1.328662e-01 -1.827687e-03 -5.626607e-02 -3.269927e-02 1.798620e-02 -8.699258e-02 -5.559874e-02 1.650781e-02 5.564817e-02 -1.002342e-01 -5.602150e-02 2.582471e-01 7.927009e-02 1.455718e-01 -2.638445e-02 -5.073043e-03 5.297326e-02 -1.175441e-01 -1.408184e-01 3.913678e-02 1.188492e-01 5.339972e-02 -1.850727e-01
<VARIANCE> 39
 2.423395e+01 3.848851e+01 4.697482e+01 4.579951e+01 6.594825e+01 7.509209e+01 7.080383e+01 7.212943e+01 7.174487e+01 7.824243e+01 8.129631e+01 8.187254e+01 3.221103e+01 7.347905e-01 1.207136e+00 1.629446e+00 1.961229e+00 2.610937e+00 2.780751e+00 3.041393e+00 3.406931e+00 3.061083e+00 3.020039e+00 2.773818e+00 2.556867e+00 7.167742e-01 1.852054e-01 2.865457e-01 2.841380e-01 3.900014e-01 4.839957e-01 4.952011e-01 5.976487e-01 6.643792e-01 6.358384e-01 5.754640e-01 5.293290e-01 5.042229e-01 1.811154e-01
<GCONST> 1.218331e+02
<STATE> 4
<NUMMIXES> 8
<MIXTURE> 1 1.404276e-01
<MEAN> 39
 2.576788e+00 -6.844852e+00 -6.128209e+00 -2.525720e+00 8.268628e+00 1.573675e+00 -3.522207e+00 6.320109e+00 1.563198e+00 4.159400e+00 1.244286e+01 1.685779e+01 7.925597e+00 1.077026e-02 1.926606e-02 8.971043e-03 1.860815e-03 2.062384e-03 9.127542e-04 -9.663698e-03 -2.056759e-03 1.403978e-02 1.646021e-02 8.357378e-03 -1.102098e-03 -1.927636e-02 -2.016302e-02 -1.775375e-02 -3.209032e-02 -4.124236e-02 -4.235909e-02 -2.961788e-02 -1.990640e-02 -1.759052e-02 7.429794e-03 1.223317e-02 2.876970e-03 -1.030223e-02 -1.269614e-02
<VARIANCE> 39
 9.232270e+00 2.028998e+01 2.647418e+01 2.937098e+01 5.791421e+01 4.914800e+01 5.993370e+01 4.972181e+01 4.643419e+01 8.455872e+01 7.372599e+01 4.170194e+01 1.326837e+01 1.018849e-01 2.334409e-01 3.447710e-01 4.156514e-01 5.027772e-01 4.870188e-01 5.332287e-01 5.837477e-01 5.311394e-01 5.573751e-01 5.859694e-01 5.410101e-01 3.358606e-02 1.820033e-02 4.081614e-02 6.179683e-02 7.528318e-02 8.960857e-02 9.111872e-02 9.895577e-02 1.079708e-01 9.961233e-02 1.033465e-01 1.104853e-01 1.020823e-01 5.338325e-03
<GCONST> 6.817998e+01
<MIXTURE> 2 9.782954e-02
<MEAN> 39
 3.768038e+00 -5.519392e+00 -6.828225e+00 -4.593480e+00 4.273496e+00 1.127143e+00 -4.222023e+00 5.348791e+00 4.095592e+00 -3.440183e+00 -4.382722e+00 -2.039211e+00 9.690246e+00 1.649985e-01 3.924805e-01 2.084114e-01 -4.210325e-02 -7.422686e-01 -5.794963e-01 -1.453734e-01 -1.633949e-01 -5.813855e-02 2.666068e-01 1.319587e-01 -5.317084e-04 -3.780307e-01 1.015449e-01 2.431758e-01 1.796993e-01 6.515670e-02 -2.007485e-01 -1.703214e-01 -1.138000e-01 -3.346300e-01 -1.405532e-01 1.687896e-01 1.406159e-01 1.157516e-02 -2.475114e-01
<VARIANCE> 39
 1.142751e+01 1.770741e+01 2.486498e+01 2.925547e+01 4.885097e+01 5.234896e+01 5.912051e+01 5.371135e+01 6.498252e+01 6.207507e+01 4.680531e+01 5.434560e+01 1.601791e+01 2.498246e-01 4.988421e-01 8.343432e-01 1.068510e+00 1.525242e+00 1.749883e+00 2.041298e+00 2.098899e+00 2.064170e+00 1.978685e+00 1.792985e+00 1.737220e+00 1.390713e-01 4.176642e-02 8.487573e-02 1.396489e-01 1.768897e-01 2.488295e-01 2.680649e-01 3.442157e-01 3.287361e-01 3.665161e-01 3.266712e-01 2.993351e-01 2.822897e-01 2.713418e-02
<GCONST> 9.678403e+01
<MIXTURE> 3 4.808017e-02
<MEAN> 39
 2.766274e+00 -3.773360e+00 -2.582046e+00 -3.035405e+00 9.591145e-01 -1.502543e+00 -1.900806e+00 4.193936e+00 6.040236e+00 3.897630e+00 1.850802e+00 2.192714e-01 7.121166e+00 -1.253712e-01 6.924250e-01 1.442007e-01 4.330914e-01 -1.866451e-01 -2.720407e-01 -9.904281e-02 -4.585275e-01 -4.525526e-01 -4.066118e-02 1.701056e-01 2.092220e-01 -5.413028e-01 -1.433116e-01 3.093612e-01 4.325789e-02 2.138168e-01 5.425961e-02 6.112104e-02 2.184488e-03 -2.439808e-01 -2.558461e-01 -5.840474e-02 4.045226e-02 2.953652e-02 -2.425966e-01
<VARIANCE> 39
 2.941992e+01 4.446538e+01 5.209535e+01 5.230914e+01 7.756407e+01 7.552370e+01 8.963472e+01 9.559348e+01 1.088296e+02 1.240542e+02 1.218086e+02 1.245240e+02 3.948285e+01 1.245915e+00 1.989421e+00 2.349070e+00 2.734809e+00 3.868900e+00 3.829183e+00 4.238896e+00 4.506464e+00 4.392447e+00 4.362235e+00 4.310247e+00 4.248995e+00 1.281309e+00 2.505492e-01 3.582127e-01 3.834909e-01 4.893550e-01 5.850434e-01 6.647827e-01 7.839043e-01 8.261521e-01 8.101403e-01 7.893447e-01 7.373759e-01 7.424445e-01 2.138020e-01
<GCONST> 1.337753e+02
<MIXTURE> 4 8.679542e-02
<MEAN> 39
 5.320999e+00 -6.953257e-01 -7.778083e+00 -4.931262e+00 2.991297e+00 -2.194229e+00 -7.671644e+00 1.372677e+00 -3.890287e-01 -6.707111e+00 -7.797439e+00 -6.113078e+00 3.486893e+00 2.491445e-02 9.551661e-02 8.190345e-02 2.846293e-02 -9.014697e-02 -5.600934e-02 -1.786095e-02 -8.047161e-02 -7.259768e-02 3.998925e-02 4.458230e-02 -2.470597e-02 -1.143112e-01 7.886065e-02 1.270756e-01 1.763887e-01 1.637484e-01 1.058737e-01 1.938459e-01 2.499567e-01 1.271635e-01 1.951687e-01 2.211486e-01 2.135319e-01 1.630274e-01 5.055600e-03
<VARIANCE> 39
 7.145431e+00 1.217888e+01 2.178812e+01 2.917041e+01 4.444825e+01 4.095851e+01 4.330767e+01 5.331781e+01 4.997090e+01 5.553296e+01 4.262644e+01 5.233544e+01 8.691747e+00 1.252700e-01 3.114937e-01 4.976739e-01 6.736853e-01 9.527590e-01 1.066243e+00 1.217903e+00 1.330721e+00 1.348840e+00 1.285398e+00 1.231253e+00 1.174011e+00 8.815299e-02 1.683458e-02 4.503163e-02 7.851449e-02 1.097637e-01 1.610391e-01 1.656687e-01 1.832827e-01 2.277131e-01 2.253425e-01 2.077065e-01 2.024905e-01 1.943803e-01 1.072181e-02
<GCONST> 8.073145e+01
<MIXTURE> 5 2.821792e-01
<MEAN> 39
 6.122918e+00 1.215918e+00 -5.608193e+00 -2.746164e+00 2.611778e+00 -1.009737e-01 -3.983918e+00 1.452085e+00 2.934996e+00 -2.155955e+00 -4.805740e+00 -4.257506e+00 3.075901e+00 1.094475e-02 4.295334e-02 4.382191e-02 2.569677e-02 -2.957788e-02 -4.104536e-02 -1.837320e-02 -3.284898e-02 -2.981449e-02 2.150731e-02 2.441955e-02 5.104993e-04 -6.629786e-02 -1.289466e-02 -9.471561e-03 -7.836666e-03 -2.623885e-02 -2.808161e-02 -3.119127e-02 -3.823846e-02 -3.499647e-02 -2.854498e-02 -1.906733e-02 -1.427523e-02 -1.281934e-02 -8.786022e-03
<VARIANCE> 39
 7.604210e+00 1.285212e+01 2.220286e+01 2.615008e+01 3.889247e+01 4.015210e+01 4.229196e+01 5.073351e+01 4.622641e+01 5.867992e+01 4.453255e+01 4.539181e+01 8.292562e+00 6.255219e-02 1.699967e-01 2.836742e-01 3.981175e-01 5.415505e-01 6.404456e-01 7.211670e-01 7.879576e-01 8.119020e-01 8.020898e-01 7.855443e-01 7.208405e-01 4.308042e-02 1.056607e-02 2.868381e-02 4.921784e-02 7.099584e-02 9.792417e-02 1.141004e-01 1.303724e-01 1.447814e-01 1.483320e-01 1.456937e-01 1.450104e-01 1.337908e-01 5.947300e-03
<GCONST> 6.766554e+01
<MIXTURE> 6 1.465239e-01
<MEAN> 39
 1.682254e+00 -7.712227e+00 -6.359604e+00 -3.226634e+00 8.414020e+00 1.778703e+00 -4.208950e+00 6.692172e+00 2.007627e+00 5.211280e+00 1.336191e+01 1.576192e+01 8.506290e+00 -1.000709e-02 4.399345e-02 -9.211194e-03 -3.342483e-02 -9.087410e-02 -5.553263e-02 5.120155e-05 -8.182308e-03 2.991131e-03 4.760609e-02 8.130112e-02 3.957811e-02 -7.619882e-02 3.847551e-02 6.685507e-02 4.606261e-02 3.095165e-02 -3.147614e-02 -4.051817e-03 2.809214e-02 -2.517457e-03 4.596882e-02 9.076372e-03 -6.537171e-02 -7.873969e-02 -1.248094e-02
<VARIANCE> 39
 1.112377e+01 2.315244e+01 3.029556e+01 3.722436e+01 6.183284e+01 5.804327e+01 6.182242e+01 5.525168e+01 6.563512e+01 1.009630e+02 7.922926e+01 5.439708e+01 1.185969e+01 2.874648e-01 6.187124e-01 8.671889e-01 1.008758e+00 1.352374e+00 1.342411e+00 1.462349e+00 1.459821e+00 1.535997e+00 1.768318e+00 1.719305e+00 1.460675e+00 1.247360e-01 4.982496e-02 1.076119e-01 1.548333e-01 1.821856e-01 2.231884e-01 2.366417e-01 2.569783e-01 2.633141e-01 2.575447e-01 2.946342e-01 2.781414e-01 2.401392e-01 1.904768e-02
<GCONST> 9.587514e+01
<MIXTURE> 7 4.931327e-02
<MEAN> 39
 1.183720e+00 -4.535156e+00 -5.910753e+00 -1.395032e+00 5.987558e+00 1.182523e+00 -5.533694e-01 1.046899e+01 1.802726e+01 2.054208e+01 1.292201e+01 -2.369886e+00 8.150834e+00 2.142587e-02 2.506432e-02 1.460744e-02 1.288288e-02 8.265575e-03 1.391405e-02 -5.641242e-03 1.065187e-02 2.329779e-02 -1.732595e-02 -2.890553e-02 -1.876136e-02 -1.322009e-02 2.443616e-03 -1.634281e-03 -2.180209e-03 -1.177810e-02 -1.318244e-02 -5.349504e-03 7.967452e-03 3.341481e-03 -4.697057e-02 -5.342238e-02 6.914703e-03 5.749378e-02 -9.108580e-04
<VARIANCE> 39
 1.556428e+01 2.419198e+01 3.662722e+01 3.517548e+01 8.423331e+01 6.571410e+01 5.496246e+01 7.117192e+01 6.632478e+01 4.755383e+01 5.183364e+01 1.644431e+02 1.892499e+01 1.763985e-01 3.478409e-01 5.187820e-01 5.688105e-01 5.926974e-01 6.555431e-01 7.437846e-01 7.204313e-01 8.190395e-01 8.009102e-01 8.031485e-01 1.005027e+00 5.470945e-02 3.143881e-02 6.094586e-02 9.224402e-02 1.024333e-01 1.024676e-01 1.214894e-01 1.351124e-01 1.288760e-01 1.499107e-01 1.576628e-01 1.442614e-01 1.556263e-01 8.750604e-03
<GCONST> 8.094910e+01
<MIXTURE> 8 1.488507e-01
<MEAN> 39
 6.937161e+00 1.120211e+00 -7.007950e+00 -5.241122e+00 3.991487e+00 2.918286e+00 -5.104374e+00 -1.205832e+00 3.690306e+00 4.103557e-01 -1.271464e+00 -3.200287e+00 4.135103e+00 2.571302e-02 1.792313e-01 8.216007e-02 7.051924e-02 -4.521393e-02 -7.052463e-02 2.132859e-02 -1.160786e-01 -2.300815e-01 -9.425793e-03 7.331128e-02 5.835273e-02 -1.959936e-01 -5.422094e-02 -5.223677e-02 2.327390e-02 8.929754e-03 -8.389077e-02 -1.319899e-01 -3.604106e-02 9.476058e-04 -9.452083e-02 -8.996866e-02 -6.093411e-02 8.136448e-03 -9.394377e-03
<VARIANCE> 39
 1.017796e+01 1.727682e+01 2.651595e+01 3.970084e+01 4.403705e+01 5.376488e+01 5.335816e+01 5.478954e+01 5.730542e+01 6.639931e+01 6.868583e+01 6.631052e+01 1.290428e+01 1.967233e-01 4.910399e-01 6.886011e-01 9.533233e-01 1.224719e+00 1.476256e+00 1.575433e+00 1.708787e+00 1.764807e+00 1.665364e+00 1.663747e+00 1.502217e+00 1.785348e-01 2.914009e-02 7.007955e-02 1.201366e-01 1.645244e-01 2.047045e-01 2.437669e-01 2.753205e-01 2.968867e-01 3.051836e-01 2.812948e-01 2.796838e-01 2.661071e-01 2.130186e-02
<GCONST> 9.335558e+01
<STATE> 5
<NUMMIXES> 8
<MIXTURE> 1 7.275721e-02
<MEAN> 39
 1.876753e+00 -5.028379e+00 -4.559266e+00 -3.232958e+00 2.634078e+00 -2.276818e+00 -4.345005e+00 3.898384e+00 3.151840e+00 6.132336e+00 1.199271e+01 1.447934e+01 6.058602e+00 7.981563e-02 8.853190e-01 2.310125e-01 2.167678e-01 -1.121427e+00 -8.606101e-01 -2.118712e-01 -9.826538e-01 -3.444408e-02 7.937606e-02 -1.743111e-01 -3.258315e-01 -9.770213e-01 -9.244224e-02 1.497355e-01 2.794806e-02 1.714415e-01 8.251180e-04 5.770974e-02 8.819164e-02 -1.043871e-01 -3.936474e-02 -2.321284e-01 -3.822018e-01 -4.835639e-01 -1.183651e-01
<VARIANCE> 39
 1.417913e+01 2.361460e+01 3.603809e+01 3.447585e+01 6.255135e+01 6.175789e+01 6.742483e+01 6.363542e+01 8.175194e+01 9.869711e+01 7.724391e+01 6.540722e+01 2.154056e+01 7.135428e-01 1.174231e+00 1.665066e+00 2.071029e+00 2.640435e+00 3.126920e+00 3.327972e+00 3.548363e+00 3.483821e+00 4.127850e+00 3.829163e+00 3.512871e+00 6.772310e-01 1.327381e-01 1.902010e-01 2.729777e-01 3.594381e-01 4.360956e-01 5.184120e-01 5.528455e-01 5.396549e-01 6.191000e-01 6.839714e-01 5.651867e-01 5.744652e-01 9.545683e-02
<GCONST> 1.193181e+02
<MIXTURE> 2 1.213950e-01
<MEAN> 39
 -5.193301e-01 5.200467e+00 -3.005349e-01 2.611084e+00 2.677541e+00 -2.247051e+00 -1.969580e+00 -1.243537e+00 7.764538e-02 -2.221290e+00 -3.879495e+00 -2.584193e+00 -7.983423e-01 -2.195721e+00 6.999611e-01 5.096250e-02 7.254910e-01 6.907257e-01 8.032226e-01 1.315243e+00 3.092394e-01 -6.942876e-02 4.113387e-01 6.547175e-01 1.653381e-01 -1.064596e+00 -1.823412e-01 -4.941034e-01 -2.360202e-01 -4.545742e-01 -2.282091e-01 1.432658e-02 2.903810e-02 3.693704e-01 3.160863e-01 2.726847e-01 2.764416e-01 2.383451e-01 4.138799e-01
<VARIANCE> 39
 4.024993e+01 3.993388e+01 3.763290e+01 3.199091e+01 3.876229e+01 4.406180e+01 4.376186e+01 4.611830e+01 4.314376e+01 5.094368e+01 3.926585e+01 3.881055e+01 3.672564e+01 2.993388e+00 2.548000e+00 2.356634e+00 3.090366e+00 3.058303e+00 3.486649e+00 3.638572e+00 3.775582e+00 3.827866e+00 3.707332e+00 3.357817e+00 3.016268e+00 2.719184e+00 3.472512e-01 4.103522e-01 4.033779e-01 4.346798e-01 4.899663e-01 5.624328e-01 6.384066e-01 7.229817e-01 6.687467e-01 6.591349e-01 5.496855e-01 5.185636e-01 3.101358e-01
<GCONST> 1.258095e+02
<MIXTURE> 3 1.714145e-01
<MEAN> 39
 4.433735e+00 3.103857e-01 -1.216189e+00 -1.246780e+00 -2.137037e+00 -3.902495e+00 -1.922927e+00 2.092599e+00 2.444120e-01 -3.233472e+00 -3.199178e+00 -1.356804e+00 3.569509e+00 -7.807177e-02 4.937901e-01 5.615094e-01 3.993745e-01 -2.644785e-01 -3.653956e-01 -1.825199e-02 -4.921790e-01 -3.179937e-01 1.469420e-01 1.473676e-01 1.209273e-01 -4.809387e-01 -3.833774e-02 4.020087e-02 2.554038e-02 4.719760e-02 1.064906e-01 6.081857e-02 -7.677976e-02 -1.554199e-01 -3.826733e-03 4.530712e-02 -2.895647e-03 -2.781537e-02 -5.654006e-02
<VARIANCE> 39
 1.443011e+01 2.256805e+01 3.015425e+01 3.094778e+01 4.652482e+01 4.652234e+01 5.288543e+01 5.424389e+01 5.559009e+01 5.928777e+01 4.976279e+01 5.136114e+01 1.959327e+01 2.257065e-01 4.820630e-01 8.732497e-01 9.744329e-01 1.366971e+00 1.474821e+00 1.740105e+00 1.943348e+00 1.849492e+00 1.830883e+00 1.694892e+00 1.567921e+00 2.002633e-01 4.094834e-02 7.366233e-02 1.234269e-01 1.610022e-01 2.121957e-01 2.418385e-01 2.859800e-01 3.181655e-01 3.071228e-01 2.998532e-01 2.793604e-01 2.602207e-01 2.735570e-02
<GCONST> 9.529961e+01
<MIXTURE> 4 1.302241e-01
<MEAN> 39
 6.558336e+00 -1.432878e+00 -7.972128e+00 -6.338739e+00 2.418209e+00 3.672840e+00 -7.320431e+00 -1.383499e+00 4.946403e+00 9.418334e-01 -2.561410e-01 -4.636694e+00 6.910913e+00 2.802506e-01 8.377945e-01 8.607739e-01 4.659564e-01 -5.165969e-01 -5.622262e-01 -3.805638e-02 -1.282805e+00 -1.159309e+00 2.239690e-01 4.242539e-01 3.031017e-01 -1.055673e+00 -1.434939e-01 1.728443e-01 4.769068e-01 4.543145e-01 8.045358e-02 -2.320166e-01 1.881425e-01 -1.465756e-01 -3.922507e-01 -2.100177e-01 -2.232456e-01 8.826843e-02 -2.724846e-01
<VARIANCE> 39
 1.026403e+01 2.006072e+01 2.258784e+01 3.450327e+01 3.645370e+01 5.287213e+01 4.760616e+01 4.847007e+01 5.680653e+01 5.804486e+01 5.475659e+01 4.510221e+01 1.904532e+01 3.226169e-01 6.292511e-01 1.355990e+00 1.542302e+00 1.919672e+00 2.098431e+00 2.345348e+00 2.322490e+00 2.669611e+00 2.561517e+00 2.422092e+00 2.019749e+00 2.405942e-01 6.188001e-02 1.009167e-01 2.003080e-01 2.375244e-01 3.133726e-01 3.542292e-01 3.852333e-01 4.171250e-01 4.418617e-01 4.349325e-01 3.994325e-01 3.621421e-01 4.867604e-02
<GCONST> 1.033945e+02
<MIXTURE> 5 1.233776e-01
<MEAN> 39
 3.193373e+00 -5.836160e+00 -4.200994e+00 -4.282400e+00 1.277884e+00 -2.560944e+00 -1.598568e+00 8.720138e+00 1.022090e+00 -5.015954e+00 -4.191300e+00 1.624205e+00 9.247756e+00 3.692122e-01 1.017757e+00 7.011362e-01 1.247931e-01 -1.380932e+00 -1.218206e+00 -7.106817e-01 -9.006860e-01 7.343996e-02 6.538389e-01 1.856044e-01 -1.537053e-01 -9.637764e-01 4.888168e-02 3.745616e-01 1.974480e-01 3.464283e-01 1.079528e-01 -2.356094e-02 -3.383117e-01 -7.944922e-01 -1.238820e-01 9.122934e-02 5.052969e-02 -2.068232e-01 -4.242038e-01
<VARIANCE> 39
 1.203044e+01 1.916196e+01 2.778167e+01 2.540316e+01 5.631041e+01 5.007467e+01 6.364401e+01 4.498277e+01 6.910508e+01 4.921553e+01 4.733672e+01 6.001303e+01 1.642246e+01 4.283851e-01 8.901977e-01 1.462238e+00 1.577586e+00 2.341831e+00 2.298313e+00 3.186169e+00 3.238773e+00 3.177007e+00 2.716658e+00 2.454496e+00 2.596141e+00 3.372695e-01 9.532022e-02 1.466289e-01 2.316600e-01 2.611944e-01 4.134011e-01 4.467899e-01 5.448282e-01 4.819865e-01 5.691388e-01 4.982539e-01 4.138579e-01 4.179901e-01 7.188533e-02
<GCONST> 1.095235e+02
<MIXTURE> 6 1.715004e-01
<MEAN> 39
 6.160931e+00 5.461102e-01 -2.506230e+00 -2.014944e+00 1.240805e+00 -5.604978e-01 -6.791938e+00 -3.973056e+00 -2.914133e-02 -7.851697e-01 -1.862625e+00 -3.014253e+00 3.258443e+00 -2.918855e-01 1.107525e+00 1.518809e+00 1.512197e+00 6.116144e-02 -6.353928e-01 2.172980e-01 -1.396086e+00 -1.415285e+00 -2.623329e-01 -3.893808e-01 -6.382047e-02 -1.511583e+00 -2.198098e-01 -9.525667e-02 -7.272987e-02 -5.646564e-03 1.120551e-01 6.369911e-02 2.144646e-01 3.529616e-01 1.900631e-01 -5.437722e-02 -9.061634e-02 2.664967e-03 1.069731e-01
<VARIANCE> 39
 1.119285e+01 1.976538e+01 2.890487e+01 3.162141e+01 3.570115e+01 5.250109e+01 4.528520e+01 5.280955e+01 5.157401e+01 5.469506e+01 5.301179e+01 4.481564e+01 1.608843e+01 6.723598e-01 1.045446e+00 2.188529e+00 2.150563e+00 2.881893e+00 3.104028e+00 3.518660e+00 4.334268e+00 3.970987e+00 3.739797e+00 3.246590e+00 3.027260e+00 6.896221e-01 9.074783e-02 1.420773e-01 2.516281e-01 2.936679e-01 3.413284e-01 3.880000e-01 4.726346e-01 5.112681e-01 5.174147e-01 4.881635e-01 4.670682e-01 4.097783e-01 6.977506e-02
<GCONST> 1.123398e+02
<MIXTURE> 7 9.733645e-02
<MEAN> 39
 2.678156e+00 3.337840e+00 -1.739230e+00 6.056230e-01 -1.876963e+00 -8.031794e+00 -5.845399e+00 -1.272175e-01 1.289056e+00 -2.799220e+00 -2.715898e+00 1.047309e+00 3.952398e+00 -1.754466e+00 2.714509e+00 9.395447e-02 2.216459e+00 3.560969e-01 4.132411e-01 4.028928e-01 -1.715750e+00 -8.462306e-01 -6.362092e-01 -1.218764e-01 -1.053741e+00 -1.602271e+00 -6.322422e-01 -1.566254e-01 -1.286200e-01 3.070347e-03 3.315020e-01 6.551439e-01 6.863139e-01 3.629936e-01 7.234097e-02 1.536582e-01 1.055154e-01 -7.452367e-02 1.922911e-02
<VARIANCE> 39
 2.068496e+01 3.089437e+01 3.695491e+01 3.031553e+01 4.047881e+01 3.692636e+01 4.222394e+01 4.536904e+01 4.915335e+01 5.908133e+01 6.823228e+01 6.535754e+01 1.876846e+01 2.351065e+00 2.352843e+00 3.142205e+00 2.936054e+00 4.636233e+00 4.268899e+00 5.096231e+00 4.587296e+00 4.531182e+00 4.251807e+00 3.976534e+00 4.389691e+00 1.565597e+00 2.459497e-01 4.139097e-01 3.524671e-01 4.297790e-01 4.708624e-01 4.867929e-01 5.569121e-01 7.033398e-01 6.814688e-01 6.623147e-01 6.424759e-01 6.164913e-01 1.362332e-01
<GCONST> 1.253733e+02
<MIXTURE> 8 1.119948e-01
<MEAN> 39
 5.658480e+00 -3.700084e+00 -4.180690e+00 -6.342888e+00 -6.622152e-02 -2.874530e+00 -6.065095e+00 2.503940e+00 4.764509e+00 5.223910e-01 -2.717653e+00 -1.825451e+00 8.250449e+00 2.490325e-01 1.834689e+00 1.207381e+00 1.524563e+00 -4.172423e-01 -9.556315e-01 -9.078388e-01 -2.228279e+00 -1.335039e+00 -1.065913e-01 2.386710e-02 -2.962919e-01 -2.115821e+00 -3.262398e-01 2.831608e-01 1.556765e-01 6.116697e-01 3.917165e-01 3.010522e-01 3.191823e-01 -2.366464e-01 -4.367931e-01 -3.945937e-01 -1.722293e-01 -9.039487e-02 -4.088919e-01
<VARIANCE> 39
 1.436202e+01 2.188754e+01 3.846104e+01 3.584501e+01 5.475459e+01 6.768854e+01 6.792807e+01 7.048553e+01 6.664125e+01 6.768285e+01 6.067303e+01 6.121808e+01 1.945100e+01 9.073822e-01 1.290866e+00 2.174409e+00 2.354187e+00 3.418042e+00 3.783813e+00 4.253196e+00 4.407077e+00 4.983318e+00 4.219991e+00 3.686493e+00 3.591322e+00 9.568676e-01 1.808514e-01 2.512929e-01 3.720044e-01 4.175181e-01 5.506897e-01 6.907594e-01 7.401832e-01 8.146577e-01 7.863729e-01 7.318400e-01 6.791455e-01 6.406271e-01 1.663812e-01
<GCONST> 1.242129e+02
<TRANSP> 6
 0.000000e+00 1.000000e+00 0.000000e+00 0.000000e+00 0.000000e+00 0.000000e+00
 0.000000e+00 8.471108e-01 1.528892e-01 0.000000e+00 0.000000e+00 0.000000e+00
 0.000000e+00 0.000000e+00 9.166141e-01 8.338587e-02 0.000000e+00 0.000000e+00
 0.000000e+00 0.000000e+00 0.000000e+00 8.806530e-01 1.193471e-01 0.000000e+00
 0.000000e+00 0.000000e+00 0.000000e+00 0.000000e+00 7.479476e-01 2.520524e-01
 0.000000e+00 0.000000e+00 0.000000e+00 0.000000e+00 0.000000e+00 0.000000e+00
<ENDHMM>
