~o
<STREAMINFO> 1 39
<VECSIZE> 39<NULLD><MFCC_D_A_Z_0><DIAGC>
~h "ax"
<BEGINHMM>
<NUMSTATES> 6
<STATE> 2
<NUMMIXES> 8
<MIXTURE> 1 6.631089e-02
<MEAN> 39
 1.036470e+00 -3.930974e+00 -8.776833e-01 -3.596793e+00 -3.140697e+00 -6.147903e+00 -2.487029e+00 4.730234e+00 4.065046e+00 8.920576e+00 1.256464e+01 1.500444e+01 7.591639e+00 2.030100e-01 -4.767061e-01 1.528521e-01 -2.686318e-01 4.572547e-01 2.344361e-01 -2.009103e-01 -1.659034e-01 -5.004919e-01 -3.147807e-02 2.859887e-01 7.631860e-01 1.763774e-01 -2.664836e-01 4.812421e-01 -2.428564e-02 4.519393e-01 1.753215e-01 3.314778e-01 2.327930e-01 -3.955068e-01 -2.137685e-01 -5.107191e-01 -5.959929e-01 -8.488537e-01 -4.495801e-01
<VARIANCE> 39
 1.397149e+01 3.252151e+01 4.603320e+01 3.443221e+01 6.843969e+01 5.790233e+01 6.351646e+01 7.028645e+01 9.295110e+01 8.838599e+01 7.912372e+01 7.363466e+01 1.840069e+01 1.080043e+00 2.245551e+00 2.045738e+00 2.438921e+00 3.453299e+00 3.816347e+00 3.937160e+00 4.045187e+00 4.214197e+00 4.524463e+00 5.302341e+00 5.632713e+00 1.200757e+00 2.915372e-01 2.873433e-01 3.906392e-01 4.724151e-01 6.465427e-01 7.610274e-01 7.161375e-01 7.908285e-01 9.500003e-01 8.134481e-01 8.743351e-01 9.384782e-01 2.038441e-01
<GCONST> 1.293237e+02
<MIXTURE> 2 9.510491e-02
<MEAN> 39
 3.644807e-01 5.223701e+00 2.031867e+00 2.587590e+00 -2.083515e+00 -4.224116e+00 -2.502995e+00 -3.960781e+00 -1.879301e+00 -8.606800e-01 -1.538355e+00 -2.266999e+00 -4.070221e-01 6.404514e-01 1.604131e-01 5.770570e-02 -9.081122e-02 -2.502714e-01 -1.059105e-01 -3.756623e-01 -3.834623e-01 -1.032083e-01 -4.556880e-02 -1.531044e-01 -1.966976e-01 -3.924780e-02 -4.073988e-01 -8.085652e-02 -1.018323e-01 4.371012e-02 2.675918e-01 2.995306e-01 3.911393e-01 2.853601e-01 1.210847e-01 2.947803e-02 1.122946e-01 1.862309e-01 -8.118989e-02
<VARIANCE> 39
 4.350556e+01 3.714549e+01 4.690771e+01 3.625374e+01 5.371663e+01 5.048368e+01 4.992433e+01 4.404900e+01 4.324347e+01 4.515558e+01 4.334985e+01 4.060350e+01 3.808457e+01 2.874763e+00 1.821973e+00 2.063378e+00 2.353486e+00 2.784568e+00 2.883166e+00 2.867523e+00 3.007132e+00 2.869728e+00 2.811423e+00 2.856294e+00 2.627951e+00 1.510144e+00 3.803477e-01 2.959779e-01 3.452417e-01 3.817431e-01 4.917421e-01 5.469172e-01 5.793312e-01 5.394588e-01 5.353644e-01 5.455008e-01 5.049261e-01 4.325946e-01 2.463830e-01
<GCONST> 1.219442e+02
<MIXTURE> 3 1.253248e-01
<MEAN> 39
 5.928683e+00 -8.514011e-01 -5.564068e+00 -5.760654e+00 1.207653e+00 2.642428e+00 -7.032633e+00 -2.385681e+00 6.252228e+00 3.765627e+00 -4.117730e-01 -4.530188e+00 6.654000e+00 3.987196e-02 -2.547170e-01 -2.661359e-01 -3.679363e-01 2.676490e-01 3.999374e-01 -3.116468e-03 3.425991e-01 3.676981e-01 -4.091998e-02 -8.902007e-02 -2.136163e-01 2.593484e-01 -1.484534e-01 1.920256e-01 2.862580e-01 2.998606e-01 1.612389e-02 -2.216187e-01 2.746593e-01 -3.452490e-02 -4.827746e-01 -2.854512e-01 -8.338289e-04 2.929966e-01 -2.775149e-01
<VARIANCE> 39
 1.390885e+01 2.462445e+01 2.922379e+01 4.483072e+01 4.717431e+01 6.093040e+01 5.720565e+01 5.603952e+01 6.653654e+01 6.306760e+01 6.820429e+01 5.420000e+01 2.275632e+01 4.870343e-01 9.881424e-01 1.316451e+00 2.048830e+00 2.072825e+00 3.068745e+00 2.407635e+00 3.234068e+00 2.929322e+00 2.983322e+00 2.906932e+00 2.313632e+00 5.454987e-01 1.136582e-01 1.609345e-01 2.328701e-01 3.378567e-01 4.071320e-01 4.162567e-01 4.678982e-01 5.258838e-01 5.997782e-01 5.085955e-01 5.031794e-01 4.371404e-01 1.058567e-01
<GCONST> 1.133725e+02
<MIXTURE> 4 1.963364e-01
<MEAN> 39
 3.785588e+00 -6.242941e-01 -1.846612e+00 -1.160119e+00 -1.780599e+00 -4.300832e+00 -3.303032e+00 3.465810e+00 3.435301e+00 -2.531399e+00 -3.023393e+00 6.545051e-01 5.410256e+00 1.119685e-01 -1.673700e-01 -2.269807e-01 -1.648801e-01 3.330643e-01 3.279640e-01 -1.454541e-01 1.193996e-01 1.813904e-01 -1.694175e-02 -1.648789e-01 -1.944499e-01 -2.787203e-02 -2.852843e-02 1.558747e-01 9.570275e-02 6.325205e-02 2.915176e-02 2.943003e-03 -4.096644e-02 -2.921945e-01 -1.911563e-01 1.056822e-01 9.757274e-02 -4.537093e-02 -1.296918e-01
<VARIANCE> 39
 1.264116e+01 2.434895e+01 2.851217e+01 3.012355e+01 4.145512e+01 5.130120e+01 5.265602e+01 5.856903e+01 5.729216e+01 5.823697e+01 5.795787e+01 6.418187e+01 3.139403e+01 1.963181e-01 4.514816e-01 7.617514e-01 8.451697e-01 1.265037e+00 1.384994e+00 1.570045e+00 1.623919e+00 1.644053e+00 1.591734e+00 1.551549e+00 1.476895e+00 1.659352e-01 3.478309e-02 7.431267e-02 1.142384e-01 1.578616e-01 2.030501e-01 2.323712e-01 2.762705e-01 3.341332e-01 3.045934e-01 2.976608e-01 2.847849e-01 2.681079e-01 3.296981e-02
<GCONST> 9.447247e+01
<MIXTURE> 5 1.265610e-01
<MEAN> 39
 2.458535e+00 -1.113346e+00 6.991183e+00 -4.490867e+00 -1.025063e+01 -4.264808e+00 3.894836e-01 1.812442e+00 -4.697462e+00 4.848436e-01 -1.363750e+00 -4.056154e-01 7.289248e+00 1.452625e-01 -1.636722e-01 -1.235998e-01 -8.975381e-02 2.279740e-01 2.177382e-01 -6.728110e-02 1.451381e-01 8.221887e-02 -2.620911e-03 -2.222836e-01 -4.997485e-02 -9.883481e-02 -1.284429e-02 2.394859e-01 -1.694826e-01 2.791017e-01 2.425871e-01 -1.597628e-01 -1.919381e-01 -2.008545e-01 1.620497e-01 -1.579453e-01 -6.188882e-03 6.910344e-02 -1.752703e-01
<VARIANCE> 39
 1.251885e+01 2.656283e+01 3.372796e+01 4.056847e+01 3.842871e+01 4.775267e+01 5.104504e+01 6.763184e+01 4.769073e+01 6.100272e+01 7.111641e+01 7.351894e+01 1.555339e+01 3.002920e-01 6.812583e-01 1.043631e+00 1.160854e+00 1.471469e+00 1.773961e+00 1.912368e+00 2.301797e+00 2.070311e+00 2.222143e+00 1.875522e+00 1.795316e+00 1.920996e-01 6.455527e-02 1.196198e-01 1.517474e-01 2.096169e-01 2.746508e-01 2.965985e-01 3.540003e-01 3.992124e-01 3.449758e-01 3.824970e-01 3.701025e-01 3.401723e-01 4.389718e-02
<GCONST> 1.017862e+02
<MIXTURE> 6 1.150349e-01
<MEAN> 39
 3.519070e+00 1.148972e+00 2.120875e+00 6.828902e-01 -7.364145e+00 -8.909893e+00 -5.139128e+00 2.476816e+00 1.633542e+00 -3.813856e+00 -3.129399e+00 6.878642e-01 6.259213e+00 4.252692e-01 -4.937123e-01 -1.216196e-01 -2.838334e-01 2.171544e-01 5.075428e-01 -6.954077e-02 4.629765e-01 3.136860e-01 -1.329367e-02 -2.594546e-01 -2.735968e-01 7.190130e-02 -5.058786e-01 5.282573e-01 -2.283316e-02 3.167076e-01 6.981595e-01 4.499552e-01 3.752895e-01 -4.942474e-01 -3.150167e-01 2.258906e-01 1.631857e-01 -1.979066e-01 -4.775141e-01
<VARIANCE> 39
 1.217570e+01 2.194808e+01 3.265785e+01 3.006551e+01 3.523305e+01 3.350756e+01 4.502590e+01 4.115973e+01 5.294604e+01 4.556125e+01 4.844841e+01 4.466523e+01 1.878158e+01 6.167319e-01 1.327933e+00 1.472721e+00 1.494229e+00 2.400746e+00 2.197141e+00 2.591177e+00 2.829877e+00 2.640033e+00 2.449355e+00 2.440811e+00 2.134906e+00 4.884018e-01 2.405567e-01 2.424397e-01 2.879052e-01 3.726910e-01 4.020749e-01 5.087293e-01 5.538080e-01 6.131271e-01 6.095496e-01 5.358265e-01 5.743304e-01 5.106357e-01 1.204976e-01
<GCONST> 1.119965e+02
<MIXTURE> 7 1.605875e-01
<MEAN> 39
 2.879577e+00 -5.730055e+00 -2.362110e+00 -4.607083e+00 3.968404e-01 -3.200915e+00 -1.094640e+00 9.143165e+00 1.868108e+00 -3.962001e+00 -4.380267e+00 1.896217e+00 9.537272e+00 -6.000654e-02 -4.176468e-01 -3.053822e-01 -1.340005e-01 7.038294e-01 6.359607e-01 3.215691e-01 2.981199e-01 -1.146295e-01 -2.238968e-01 -1.535604e-01 -9.600681e-02 2.527184e-01 3.329811e-02 5.034271e-01 1.244510e-01 3.474054e-01 -1.028240e-01 -1.083637e-01 -3.160208e-01 -9.229914e-01 -1.058516e-01 2.950903e-01 2.752519e-01 -1.690821e-01 -4.618021e-01
<VARIANCE> 39
 1.411572e+01 2.292918e+01 3.268240e+01 3.123116e+01 6.032002e+01 5.544471e+01 7.311944e+01 5.163157e+01 7.135070e+01 5.299617e+01 5.599608e+01 7.684924e+01 1.747571e+01 5.611567e-01 1.189020e+00 1.707847e+00 1.729041e+00 3.207523e+00 2.997202e+00 3.711308e+00 3.680691e+00 3.522490e+00 3.190078e+00 2.821593e+00 2.956950e+00 4.970710e-01 1.238156e-01 1.953621e-01 3.067071e-01 3.970391e-01 4.581095e-01 5.149217e-01 6.711318e-01 6.976155e-01 7.258512e-01 5.931784e-01 5.230880e-01 5.612877e-01 1.202827e-01
<GCONST> 1.173829e+02
<MIXTURE> 8 1.147397e-01
<MEAN> 39
 4.787461e+00 -1.920700e+00 -8.796681e-01 -5.160755e+00 -2.112197e+00 -4.242003e+00 -5.183534e+00 -3.181125e-01 3.328915e+00 2.219256e+00 -1.895303e+00 -9.810197e-01 6.691891e+00 8.269731e-01 -8.917955e-01 -1.674031e-01 -1.135565e+00 1.921149e-01 3.244110e-01 -2.273482e-01 3.657431e-01 2.365532e-01 1.822197e-01 -1.404609e-01 -9.512454e-02 9.143955e-01 -6.183839e-01 4.561174e-01 6.823491e-02 7.411736e-01 3.749124e-01 4.373646e-01 5.579099e-01 -1.313798e-01 -3.657933e-01 -2.331506e-01 1.410261e-01 2.837071e-02 -6.901702e-01
<VARIANCE> 39
 2.777748e+01 4.249656e+01 6.094140e+01 5.620275e+01 7.631956e+01 8.483674e+01 8.710413e+01 9.122999e+01 8.303830e+01 8.426189e+01 8.333224e+01 6.957493e+01 2.739060e+01 2.457753e+00 3.373639e+00 3.421849e+00 4.678141e+00 5.152601e+00 5.587692e+00 6.354003e+00 7.034139e+00 5.719042e+00 5.650805e+00 5.472618e+00 5.363182e+00 2.752515e+00 4.556376e-01 6.267537e-01 6.698563e-01 8.595755e-01 1.006734e+00 1.186855e+00 1.297756e+00 1.516492e+00 1.266315e+00 1.130160e+00 1.060127e+00 9.925811e-01 4.832820e-01
<GCONST> 1.441223e+02
<STATE> 3
<NUMMIXES> 8
<MIXTURE> 1 1.106752e-01
<MEAN> 39
 2.304193e+00 -5.380364e+00 -4.324195e+00 -3.849080e+00 3.891065e+00 7.816442e-02 -3.723540e+00 5.615132e+00 6.946955e+00 1.093254e+01 1.307066e+01 1.027621e+01 7.436523e+00 6.980109e-02 1.106979e-01 -3.876507e-02 -3.204070e-02 1.058355e-01 5.738318e-02 -3.013455e-02 -1.330118e-01 -3.381674e-02 7.866514e-02 7.568583e-02 4.322466e-03 -1.115958e-01 9.454458e-03 7.283852e-02 3.040210e-03 9.630973e-03 -1.049137e-01 -7.733593e-02 3.404364e-02 -2.125917e-02 -1.737920e-02 -7.793835e-02 -1.165811e-01 -4.981813e-02 -3.979087e-02
<VARIANCE> 39
 1.333184e+01 2.907245e+01 3.952206e+01 4.139170e+01 7.252128e+01 6.946053e+01 7.314127e+01 8.130724e+01 1.030100e+02 1.234487e+02 7.648618e+01 1.345406e+02 1.805400e+01 2.822354e-01 6.391739e-01 8.774840e-01 1.126105e+00 1.368758e+00 1.489554e+00 1.577221e+00 1.652189e+00 1.894207e+00 1.910805e+00 1.899336e+00 2.010172e+00 1.384995e-01 5.023395e-02 1.087445e-01 1.536556e-01 2.046891e-01 2.373473e-01 2.696287e-01 2.910832e-01 3.061306e-01 3.344046e-01 3.506651e-01 3.256738e-01 3.436377e-01 2.473531e-02
<GCONST> 1.025613e+02
<MIXTURE> 2 1.050241e-01
<MEAN> 39
 3.224401e+00 2.389235e-01 1.790264e+00 -1.746431e+00 -3.797544e+00 -6.456183e+00 -3.525236e+00 -1.054005e+00 -7.882642e-02 8.060503e-02 -8.155422e-01 1.245720e+00 4.671674e+00 -2.112677e-01 1.189849e+00 7.043340e-02 9.219717e-01 5.105396e-01 4.507110e-01 1.180888e-01 -8.118398e-01 -5.448389e-01 -4.546840e-01 -1.475959e-01 -4.692217e-01 -9.118547e-01 -4.583560e-01 4.000272e-01 -7.570506e-02 4.476902e-01 3.252649e-01 3.937320e-01 3.328300e-01 -2.924886e-02 -6.306389e-02 -8.911844e-02 3.376039e-02 -1.454394e-01 -4.114938e-01
<VARIANCE> 39
 2.922849e+01 4.405857e+01 5.638913e+01 5.475218e+01 6.988837e+01 6.929328e+01 7.045731e+01 7.153637e+01 7.271883e+01 7.345218e+01 8.619508e+01 8.647119e+01 3.460555e+01 2.053757e+00 2.702999e+00 2.736487e+00 3.430955e+00 3.819218e+00 3.991188e+00 4.419374e+00 4.716799e+00 4.379121e+00 4.029870e+00 3.928385e+00 3.958124e+00 2.278001e+00 3.813716e-01 4.388011e-01 4.907984e-01 5.940769e-01 7.341659e-01 7.997314e-01 8.773619e-01 9.348162e-01 8.951880e-01 8.464249e-01 8.442402e-01 8.224485e-01 3.663195e-01
<GCONST> 1.356824e+02
<MIXTURE> 3 1.467060e-01
<MEAN> 39
 3.765521e+00 -4.197712e+00 -5.668568e+00 -4.632511e+00 2.808023e+00 5.934277e-01 -3.846535e+00 5.135695e+00 3.987712e+00 -2.251505e+00 -3.354160e+00 -1.599546e+00 9.174384e+00 3.111339e-02 1.985102e-02 -5.427691e-02 -1.950040e-02 9.510890e-02 8.711084e-02 -5.534757e-02 -5.866813e-02 -1.027005e-02 3.644912e-02 3.493803e-02 -3.508071e-02 -3.959426e-02 1.083461e-02 2.838941e-02 4.141153e-02 1.997042e-02 -3.630169e-02 -2.440901e-02 1.468920e-02 3.820724e-03 1.552268e-03 2.503764e-02 2.127614e-02 1.922036e-02 -1.538609e-02
<VARIANCE> 39
 9.735976e+00 1.758202e+01 2.401932e+01 2.923772e+01 5.114517e+01 6.302872e+01 5.780854e+01 5.598752e+01 7.103133e+01 7.434169e+01 5.478360e+01 6.024561e+01 1.581119e+01 7.422411e-02 1.824344e-01 2.819912e-01 3.832210e-01 5.202913e-01 6.070320e-01 6.591781e-01 6.725671e-01 6.942118e-01 6.644388e-01 6.369527e-01 5.771120e-01 3.859286e-02 1.228809e-02 2.841975e-02 4.493270e-02 6.517968e-02 8.381455e-02 1.018065e-01 1.125017e-01 1.156091e-01 1.267380e-01 1.176044e-01 1.145599e-01 1.003385e-01 5.661747e-03
<GCONST> 6.870172e+01
<MIXTURE> 4 1.113917e-01
<MEAN> 39
 3.595124e+00 -5.128976e-01 3.870204e+00 -4.205531e-01 -8.373057e+00 -5.687752e+00 -3.146068e+00 3.475013e+00 -7.161780e-01 -2.642397e+00 -1.624662e+00 5.368844e-01 7.299352e+00 1.219622e-01 3.267628e-02 -2.063376e-01 3.937367e-02 2.487700e-01 1.847348e-02 -2.105326e-01 -1.606304e-02 1.836579e-01 1.095865e-02 -1.412388e-01 -1.466205e-02 -1.137287e-01 1.029304e-03 6.248709e-02 -2.841826e-02 2.032875e-02 9.685890e-02 -4.461041e-02 -5.472372e-02 -9.627202e-02 4.223234e-03 8.779290e-03 -2.745656e-02 -3.782004e-04 -4.785764e-02
<VARIANCE> 39
 8.932474e+00 2.075967e+01 3.086020e+01 3.857989e+01 3.350334e+01 4.536872e+01 5.806776e+01 5.359364e+01 6.188822e+01 5.330281e+01 5.015163e+01 5.866949e+01 1.727242e+01 1.093724e-01 2.368786e-01 4.707277e-01 5.168290e-01 7.498952e-01 8.402482e-01 9.572793e-01 1.003622e+00 1.069843e+00 1.063523e+00 9.743294e-01 9.118431e-01 6.912320e-02 1.817761e-02 4.057008e-02 6.423452e-02 8.815795e-02 1.155551e-01 1.407178e-01 1.614908e-01 1.746038e-01 1.750680e-01 1.760470e-01 1.603507e-01 1.557321e-01 1.204768e-02
<GCONST> 7.839713e+01
<MIXTURE> 5 1.575640e-01
<MEAN> 39
 3.187632e+00 -5.346852e+00 -6.482892e+00 -6.088964e+00 2.467732e+00 -2.054125e-01 -5.043962e+00 3.122112e+00 1.907373e+00 -4.553660e+00 -4.960933e+00 -2.980434e+00 8.611863e+00 5.579980e-02 9.952845e-02 -9.877541e-02 -1.379913e-02 1.055451e-01 8.665150e-02 -1.293593e-01 -2.000942e-01 -9.145948e-02 5.751707e-02 7.250708e-02 -4.132025e-02 -1.335739e-01 1.075341e-01 1.978626e-01 2.226753e-01 2.010384e-01 4.849914e-02 5.340814e-02 1.568472e-01 1.127458e-01 1.160503e-01 2.364139e-01 1.795530e-01 1.576353e-01 -5.317673e-02
<VARIANCE> 39
 1.128444e+01 2.066226e+01 2.925134e+01 3.427680e+01 5.967965e+01 6.615948e+01 6.866903e+01 6.116301e+01 6.891923e+01 6.309771e+01 4.992175e+01 5.954128e+01 1.597870e+01 2.387083e-01 5.377347e-01 7.960088e-01 9.917517e-01 1.490865e+00 1.635069e+00 1.791730e+00 1.771446e+00 1.777576e+00 1.818188e+00 1.544333e+00 1.493646e+00 1.631343e-01 3.329238e-02 7.624346e-02 1.103286e-01 1.519738e-01 2.294117e-01 2.679076e-01 2.941639e-01 2.872442e-01 3.068720e-01 2.794237e-01 2.491510e-01 2.372610e-01 3.022731e-02
<GCONST> 9.565301e+01
<MIXTURE> 6 1.254977e-01
<MEAN> 39
 3.806407e+00 -4.083255e+00 -2.370460e+00 -3.961492e+00 -7.372679e-01 -3.508591e+00 -4.277160e+00 6.031791e+00 3.095351e+00 -1.877566e+00 -2.783155e+00 1.232722e+00 8.120989e+00 4.312581e-01 7.552656e-01 1.713136e-01 3.233540e-01 -4.732993e-02 -3.710091e-01 -7.578108e-01 -1.366979e+00 -2.695349e-01 3.996015e-01 8.009810e-02 -3.297305e-01 -8.842391e-01 -3.721016e-03 4.425809e-01 2.087499e-01 3.490467e-01 1.023113e-02 -7.421197e-02 -2.208923e-02 -6.721853e-01 -3.535880e-01 -7.407719e-03 7.181963e-02 -1.474325e-01 -4.300782e-01
<VARIANCE> 39
 1.203722e+01 2.247662e+01 3.658916e+01 3.167720e+01 6.170792e+01 6.084908e+01 6.915210e+01 5.655275e+01 7.150912e+01 6.319419e+01 6.511777e+01 8.390791e+01 1.598004e+01 4.446777e-01 8.988374e-01 1.596557e+00 1.713852e+00 2.778851e+00 3.000875e+00 3.053519e+00 3.263148e+00 3.292574e+00 3.072576e+00 2.792987e+00 2.726753e+00 3.791502e-01 9.870839e-02 1.616125e-01 2.792748e-01 3.096745e-01 4.360985e-01 4.802426e-01 5.967099e-01 5.421849e-01 6.309469e-01 5.911056e-01 5.480940e-01 5.407012e-01 8.744112e-02
<GCONST> 1.145956e+02
<MIXTURE> 7 9.443423e-02
<MEAN> 39
 3.021703e+00 3.352732e+00 1.219806e+00 1.454893e+00 -2.725061e+00 -3.815616e+00 -3.865637e+00 -2.417233e+00 5.662108e-01 -4.867788e-01 -2.004881e+00 -2.237272e+00 1.321943e+00 2.199412e-02 2.122260e-01 3.054827e-03 9.742273e-02 3.611698e-01 2.974418e-01 1.503700e-01 -2.013805e-01 -2.340717e-01 -5.004437e-02 3.388327e-02 8.874154e-03 -3.105150e-01 -1.952289e-01 9.024182e-02 5.144272e-02 9.498010e-02 1.590670e-01 6.306001e-02 1.951847e-01 6.853007e-03 -1.823410e-01 -7.853708e-02 6.644793e-02 1.344879e-01 -9.184665e-02
<VARIANCE> 39
 3.150602e+01 2.778277e+01 4.166628e+01 3.919691e+01 5.313374e+01 4.955336e+01 5.432452e+01 4.599261e+01 4.821420e+01 4.970346e+01 4.451204e+01 4.109402e+01 3.628788e+01 5.250537e-01 7.080271e-01 1.036257e+00 1.271139e+00 1.550650e+00 1.741346e+00 1.821561e+00 2.077620e+00 2.001737e+00 2.036375e+00 1.980393e+00 1.731394e+00 3.750264e-01 1.156052e-01 1.466944e-01 1.912713e-01 2.381284e-01 3.014885e-01 3.455725e-01 3.778373e-01 4.029857e-01 4.044287e-01 3.931804e-01 3.684795e-01 3.276864e-01 8.127221e-02
<GCONST> 1.059287e+02
<MIXTURE> 8 1.487071e-01
<MEAN> 39
 4.256846e+00 -4.317944e+00 -4.764208e+00 -4.049319e+00 4.347117e+00 1.202645e+00 -2.669903e+00 7.367740e+00 3.670459e+00 -2.838190e+00 -3.700202e+00 -3.691488e-01 8.778818e+00 6.218849e-02 5.802596e-02 -1.151353e-01 -2.975892e-02 9.852722e-02 4.217952e-02 -1.477500e-01 -1.740937e-01 -2.597369e-02 6.692365e-02 4.896995e-02 -1.249952e-01 -1.263558e-01 -7.251889e-02 -2.563859e-02 -1.023415e-01 -1.315086e-01 -2.612582e-01 -2.571403e-01 -2.008643e-01 -2.961150e-01 -1.818427e-01 -8.678517e-02 -5.512132e-02 -9.448351e-02 -8.162677e-02
<VARIANCE> 39
 9.802674e+00 1.904219e+01 2.563117e+01 2.997393e+01 5.396849e+01 5.854642e+01 6.404643e+01 5.637517e+01 6.500551e+01 5.820716e+01 4.620375e+01 6.427551e+01 1.441540e+01 1.958391e-01 4.304579e-01 6.501011e-01 8.177710e-01 1.263206e+00 1.377190e+00 1.508892e+00 1.492951e+00 1.505624e+00 1.470074e+00 1.302541e+00 1.246946e+00 1.167389e-01 2.555547e-02 6.533281e-02 8.850129e-02 1.228791e-01 1.610174e-01 1.858934e-01 2.287144e-01 2.296213e-01 2.389828e-01 2.330384e-01 2.189984e-01 2.097631e-01 1.730389e-02
<GCONST> 8.869884e+01
<STATE> 4
<NUMMIXES> 8
<MIXTURE> 1 1.053778e-01
<MEAN> 39
 1.498758e+00 -2.257550e+00 -3.497365e-01 -2.735866e+00 -4.620944e-01 -1.285428e+00 2.037197e-01 1.005965e+00 1.129506e+00 2.775444e+00 3.576189e+00 3.667026e+00 4.776415e+00 -1.386540e-01 1.132992e-01 6.352072e-02 1.102363e-01 4.455604e-02 3.867744e-02 2.789378e-01 -6.809764e-02 -3.104745e-01 -1.687502e-01 1.146511e-01 2.537644e-01 -1.686398e-01 -1.119696e-02 8.973316e-02 -6.266597e-02 8.315896e-02 -8.525898e-02 -9.475957e-02 -1.684664e-01 -1.824555e-02 3.695032e-02 -5.400218e-02 -1.034661e-01 -6.188537e-02 -6.842683e-02
<VARIANCE> 39
 3.755089e+01 3.954197e+01 5.415720e+01 6.056094e+01 8.114990e+01 6.981371e+01 7.608637e+01 8.027565e+01 8.987883e+01 9.924778e+01 1.070652e+02 1.278503e+02 4.778315e+01 5.114084e-01 9.657333e-01 1.258980e+00 1.570142e+00 2.203662e+00 2.537580e+00 2.652082e+00 2.737416e+00 2.925732e+00 2.741464e+00 2.697225e+00 2.450728e+00 4.838486e-01 9.198061e-02 1.486070e-01 2.130859e-01 2.833691e-01 3.552073e-01 3.942686e-01 4.732063e-01 4.704231e-01 5.185283e-01 4.937544e-01 4.751622e-01 4.672006e-01 7.354832e-02
<GCONST> 1.178015e+02
<MIXTURE> 2 1.237679e-01
<MEAN> 39
 1.698054e+00 5.748594e+00 1.695122e+00 2.959128e+00 -2.503233e+00 -6.825767e+00 -3.657818e+00 -2.500212e+00 -1.189588e+00 -2.802299e+00 -2.709421e+00 -5.762028e-01 1.200484e+00 -1.395720e+00 1.793699e+00 5.853430e-02 1.597424e+00 1.069188e+00 9.251842e-01 7.752543e-01 -7.276444e-01 -4.127938e-01 -3.384476e-01 -5.962868e-02 -6.663627e-01 -1.390574e+00 -4.785666e-01 -2.310955e-01 -1.411509e-01 -6.958786e-02 1.348455e-01 3.836518e-01 3.769723e-01 2.961198e-01 1.544364e-01 2.527568e-01 2.162279e-01 6.546535e-02 -3.280621e-02
<VARIANCE> 39
 2.781013e+01 3.037577e+01 4.281444e+01 3.190412e+01 5.227237e+01 4.749044e+01 4.501492e+01 4.409119e+01 4.341507e+01 4.931161e+01 4.928077e+01 4.897972e+01 3.486893e+01 3.070523e+00 3.087756e+00 3.003654e+00 3.448259e+00 4.174587e+00 3.988088e+00 4.391519e+00 5.021640e+00 4.045212e+00 3.885618e+00 3.787017e+00 4.159212e+00 2.892433e+00 3.196147e-01 3.308992e-01 3.536234e-01 3.804794e-01 4.864995e-01 5.622492e-01 5.652368e-01 5.816364e-01 5.571372e-01 5.738320e-01 5.281799e-01 5.141044e-01 2.302490e-01
<GCONST> 1.265484e+02
<MIXTURE> 3 1.623755e-01
<MEAN> 39
 6.179634e+00 1.726033e+00 -5.000731e+00 -2.823326e+00 2.072971e+00 -4.105007e+00 -6.061737e+00 2.256918e+00 1.578938e+00 -5.666725e+00 -8.041945e+00 -5.260614e+00 2.750886e+00 3.777131e-02 1.850753e-01 7.380429e-02 1.141387e-01 4.841192e-03 -6.101903e-02 -1.043396e-01 -2.552806e-01 -1.250858e-01 1.361003e-01 1.652933e-02 -6.215547e-02 -2.253014e-01 -1.418111e-02 3.002376e-02 1.023421e-01 4.829161e-02 -4.522526e-02 5.930709e-02 5.762202e-02 -9.143135e-02 -2.268529e-02 1.152177e-01 1.397416e-01 7.325693e-02 -1.474374e-02
<VARIANCE> 39
 7.904822e+00 1.539103e+01 2.724678e+01 2.952028e+01 4.417795e+01 5.477060e+01 5.214032e+01 5.040424e+01 6.029561e+01 6.549866e+01 4.620928e+01 4.216227e+01 9.227860e+00 1.624845e-01 3.980183e-01 6.830305e-01 8.576009e-01 1.239199e+00 1.317705e+00 1.525483e+00 1.729681e+00 1.716890e+00 1.717960e+00 1.527131e+00 1.399511e+00 1.223595e-01 2.725554e-02 6.709109e-02 1.085511e-01 1.486582e-01 2.042352e-01 2.216034e-01 2.671266e-01 2.973883e-01 3.104606e-01 2.774911e-01 2.653063e-01 2.296392e-01 1.750907e-02
<GCONST> 8.948604e+01
<MIXTURE> 4 1.270399e-01
<MEAN> 39
 4.102405e+00 1.938684e+00 1.792469e+00 7.784042e-01 -5.571702e+00 -7.429039e+00 -3.146499e+00 1.833929e+00 -1.007841e+00 -3.837510e+00 -2.496824e+00 1.038414e-01 3.639686e+00 2.913298e-02 8.632558e-01 4.141295e-01 7.984820e-01 5.170745e-01 -1.083823e-01 -2.442684e-01 -1.080579e+00 -4.246083e-01 -3.173168e-02 -2.642404e-01 -1.772196e-01 -9.421242e-01 -1.291328e-01 1.265896e-01 3.732951e-02 8.990794e-02 2.360401e-01 2.036973e-01 5.428914e-02 -2.257051e-01 -9.290695e-03 9.087143e-02 -4.028568e-02 -1.297560e-01 -1.532579e-01
<VARIANCE> 39
 9.940291e+00 2.042405e+01 3.292647e+01 2.807313e+01 3.847995e+01 3.905283e+01 4.587721e+01 4.549384e+01 4.948314e+01 4.616792e+01 4.487655e+01 4.245050e+01 1.603611e+01 4.680292e-01 8.310221e-01 1.398445e+00 1.347029e+00 2.177999e+00 2.185200e+00 2.508641e+00 2.851617e+00 2.555971e+00 2.572225e+00 2.220144e+00 2.163314e+00 4.531420e-01 8.218607e-02 1.244510e-01 1.765368e-01 2.136073e-01 2.961891e-01 3.218123e-01 3.804255e-01 4.088722e-01 3.865687e-01 3.773126e-01 3.550673e-01 3.219738e-01 6.282771e-02
<GCONST> 1.037837e+02
<MIXTURE> 5 9.517944e-02
<MEAN> 39
 7.561583e+00 2.886363e+00 -5.997744e+00 -8.911153e+00 1.180274e+00 6.458864e+00 -5.773345e+00 -6.304912e+00 -2.405785e+00 2.369607e+00 4.746744e+00 1.021619e+00 4.208839e+00 2.745443e-01 6.204396e-01 1.740946e-01 -2.895738e-01 -4.302541e-01 1.374788e-01 7.707744e-01 5.035726e-04 -9.527980e-01 -8.637149e-01 -5.327020e-03 6.104128e-01 -5.507631e-01 -7.631371e-02 -4.790749e-02 1.769350e-01 2.596769e-01 -4.086522e-02 -4.013913e-01 -4.846876e-02 2.623285e-01 2.500574e-01 -1.038538e-01 -4.059060e-01 -1.774265e-01 -3.360244e-02
<VARIANCE> 39
 1.257906e+01 2.163086e+01 2.813319e+01 4.324868e+01 4.538250e+01 4.692160e+01 5.601312e+01 5.414942e+01 5.306166e+01 6.733769e+01 6.087748e+01 7.279052e+01 1.806217e+01 2.713934e-01 6.287833e-01 8.791351e-01 1.427672e+00 1.527540e+00 2.096532e+00 2.119942e+00 2.272190e+00 2.699690e+00 2.513949e+00 2.552985e+00 2.340187e+00 2.309737e-01 4.127245e-02 8.826128e-02 1.456887e-01 2.027015e-01 2.525420e-01 3.073650e-01 3.222896e-01 4.030558e-01 3.916249e-01 4.136603e-01 3.946145e-01 3.867870e-01 2.654160e-02
<GCONST> 1.019087e+02
<MIXTURE> 6 1.121030e-01
<MEAN> 39
 6.155875e+00 -8.202731e-01 -2.586428e+00 -3.192594e+00 1.473658e-01 -2.517470e+00 -8.485434e+00 -1.254348e+00 2.630973e+00 4.234987e-01 -2.041053e+00 -1.491119e+00 4.681626e+00 1.841658e-01 1.672488e+00 1.081416e+00 1.466839e+00 2.784150e-01 -3.691622e-01 -7.845207e-03 -2.102036e+00 -1.526355e+00 -3.129424e-01 -1.089504e-01 -6.228020e-01 -1.992195e+00 -3.075704e-01 2.003122e-01 2.534895e-01 3.365404e-01 7.161118e-02 -3.388476e-02 5.057973e-01 1.436434e-01 -1.758374e-01 -2.233914e-01 -1.165728e-01 -7.095756e-03 -2.660508e-01
<VARIANCE> 39
 1.262763e+01 2.256541e+01 3.584303e+01 3.464040e+01 4.134332e+01 5.968003e+01 5.233729e+01 6.392676e+01 5.481832e+01 6.048281e+01 6.839369e+01 7.095342e+01 1.587437e+01 1.000508e+00 1.278805e+00 2.240749e+00 2.359989e+00 3.512604e+00 3.947331e+00 4.309594e+00 4.707737e+00 4.498778e+00 4.329740e+00 4.067914e+00 4.164313e+00 1.014058e+00 1.455003e-01 2.059229e-01 3.056859e-01 3.615856e-01 4.443061e-01 5.590529e-01 5.813584e-01 7.127994e-01 6.384313e-01 6.411487e-01 6.519047e-01 5.642641e-01 1.275697e-01
<GCONST> 1.211663e+02
<MIXTURE> 7 1.852561e-01
<MEAN> 39
 6.569239e+00 3.265244e+00 -2.771356e+00 -2.921076e+00 2.168857e-01 -6.501557e-01 -7.040914e+00 -2.987528e+00 2.997697e+00 2.024721e+00 -1.459992e+00 -2.443516e+00 3.647810e+00 5.463461e-02 1.509600e-01 -2.009804e-02 -5.909165e-02 4.997348e-02 1.262248e-01 8.903769e-02 -1.792647e-01 -2.070804e-01 3.267299e-02 1.601522e-01 4.594711e-02 -1.302311e-01 -2.289860e-02 -1.893076e-02 1.805110e-02 5.726837e-03 -2.580370e-02 -6.136986e-02 8.695953e-03 3.331339e-02 -5.730302e-02 -8.071388e-02 -3.287899e-02 1.328700e-02 -9.406135e-03
<VARIANCE> 39
 1.118821e+01 1.943361e+01 3.721673e+01 4.395025e+01 4.200422e+01 6.248868e+01 5.073356e+01 6.208834e+01 6.424092e+01 6.042443e+01 6.186254e+01 5.414272e+01 1.753025e+01 9.186959e-02 2.333680e-01 3.855870e-01 5.397788e-01 6.780654e-01 8.525182e-01 8.975607e-01 1.026529e+00 1.130380e+00 1.069445e+00 1.030978e+00 9.265812e-01 6.450819e-02 1.480761e-02 3.670625e-02 6.073735e-02 8.909828e-02 1.163528e-01 1.407541e-01 1.567346e-01 1.775376e-01 1.865034e-01 1.824250e-01 1.765328e-01 1.593895e-01 8.416708e-03
<GCONST> 7.883304e+01
<MIXTURE> 8 8.890035e-02
<MEAN> 39
 6.698126e+00 1.657707e-03 -5.119728e+00 -4.755180e+00 2.676557e+00 1.373655e-01 -1.062198e+01 -2.582217e+00 4.847679e+00 4.600047e+00 -2.518382e+00 -4.448698e+00 5.700631e+00 4.494844e-01 6.913258e-01 -2.482865e-01 -4.277402e-01 2.982428e-01 8.811191e-01 1.513395e-01 -1.519467e+00 -1.253788e+00 5.475263e-01 1.126384e+00 -6.742954e-03 -6.468017e-01 -5.270818e-02 1.196183e-01 2.350789e-01 1.053075e-01 -2.324263e-01 -1.497514e-01 3.712390e-01 8.665062e-02 -3.849378e-01 -4.476905e-01 5.066781e-02 3.542380e-01 -1.133273e-01
<VARIANCE> 39
 1.211506e+01 2.175054e+01 2.968418e+01 3.878146e+01 4.211454e+01 4.852740e+01 4.770261e+01 5.543766e+01 5.445299e+01 5.933342e+01 6.147171e+01 6.148189e+01 1.615508e+01 2.628994e-01 6.068568e-01 1.152680e+00 1.570885e+00 1.686916e+00 2.259863e+00 2.166112e+00 2.293388e+00 2.637421e+00 2.627393e+00 2.190509e+00 2.376077e+00 1.750992e-01 4.112380e-02 9.165911e-02 1.551396e-01 2.154815e-01 2.816554e-01 2.830786e-01 3.268622e-01 4.081053e-01 4.077633e-01 4.064314e-01 4.221117e-01 3.621583e-01 3.214822e-02
<GCONST> 1.018094e+02
<STATE> 5
<NUMMIXES> 8
<MIXTURE> 1 8.986582e-02
<MEAN> 39
 1.791246e+00 -1.866756e+00 -1.880227e+00 -1.697905e+00 -2.015529e+00 -5.031956e+00 -2.502086e+00 2.763752e+00 3.351275e+00 5.655890e+00 8.451810e+00 8.846205e+00 4.299975e+00 -3.331311e-01 6.744950e-01 7.213536e-02 4.970194e-01 -2.744412e-01 -3.563739e-01 8.101016e-02 -7.201064e-01 -3.066850e-01 -2.647491e-01 -2.431613e-01 -2.426630e-01 -7.790060e-01 -8.421698e-02 -1.955993e-02 1.794813e-02 -1.117494e-02 9.850474e-02 1.963320e-01 5.335422e-02 -2.837392e-02 -2.359496e-02 -1.377973e-01 -3.225428e-01 -2.850865e-01 -4.483466e-03
<VARIANCE> 39
 1.759564e+01 3.146680e+01 4.674837e+01 3.603745e+01 6.265568e+01 5.997109e+01 7.293378e+01 6.879339e+01 9.413684e+01 1.083156e+02 1.068074e+02 1.034482e+02 3.489299e+01 1.282124e+00 1.830452e+00 2.219704e+00 2.435314e+00 3.138064e+00 3.643054e+00 4.013685e+00 4.399360e+00 4.054698e+00 4.334007e+00 4.332945e+00 4.129301e+00 1.439999e+00 1.968845e-01 2.611314e-01 3.122891e-01 3.683790e-01 4.471458e-01 5.326132e-01 6.724969e-01 6.988575e-01 6.981329e-01 7.248697e-01 6.711819e-01 6.033040e-01 1.975345e-01
<GCONST> 1.277038e+02
<MIXTURE> 2 9.258672e-02
<MEAN> 39
 1.442048e+00 5.898295e+00 3.585402e+00 4.378464e+00 1.882420e+00 -1.653849e+00 -1.483831e+00 -3.238368e+00 -1.619646e+00 -1.748960e+00 -3.003444e+00 -3.406152e+00 -5.736548e+00 -1.436219e+00 -1.476630e-01 -8.641577e-02 2.215342e-01 4.419764e-01 5.123963e-01 8.568401e-01 3.196686e-01 3.257607e-01 4.862436e-01 5.685023e-01 4.577099e-01 -3.944876e-01 -9.363916e-02 -5.930547e-01 -3.705603e-01 -6.239690e-01 -4.264657e-01 -1.626295e-01 -1.154423e-01 2.772036e-01 3.210435e-01 2.743481e-01 2.026534e-01 2.875622e-01 8.915263e-01
<VARIANCE> 39
 4.352693e+01 4.056288e+01 5.009889e+01 4.060741e+01 5.436139e+01 4.880547e+01 4.916952e+01 5.507499e+01 4.679643e+01 4.633448e+01 4.587345e+01 4.708200e+01 3.941855e+01 3.486162e+00 3.310599e+00 3.475891e+00 3.523562e+00 4.229875e+00 4.222377e+00 4.263356e+00 4.341937e+00 4.401138e+00 3.844281e+00 3.725211e+00 3.511977e+00 6.456587e+00 6.545215e-01 6.225659e-01 6.624684e-01 6.638042e-01 8.041241e-01 7.944819e-01 8.537874e-01 9.371499e-01 8.693480e-01 7.890227e-01 7.165304e-01 6.851414e-01 6.186795e-01
<GCONST> 1.356507e+02
<MIXTURE> 3 1.896674e-01
<MEAN> 39
 6.040261e+00 4.503363e+00 -2.714498e-01 7.473282e-01 1.777877e-01 -3.301878e+00 -6.066564e+00 -4.912784e+00 -7.507071e-01 -9.596645e-01 -2.893260e+00 -3.358379e+00 -4.899636e-01 -1.600558e-01 5.534964e-01 5.691792e-01 6.813646e-01 1.419534e-01 -5.148198e-02 3.116098e-01 -5.963584e-01 -4.855465e-01 -1.198441e-01 -6.926064e-02 -3.478299e-02 -7.235262e-01 -9.670012e-02 -1.452421e-01 -1.860679e-02 -8.709399e-02 -3.844414e-02 2.970607e-02 8.808956e-02 2.489332e-01 9.278417e-02 -3.380509e-02 -2.125986e-02 6.036956e-02 1.213675e-01
<VARIANCE> 39
 1.223208e+01 2.148793e+01 3.207794e+01 3.023586e+01 3.433488e+01 4.073090e+01 4.157859e+01 4.443405e+01 4.668560e+01 4.729646e+01 4.414601e+01 4.413488e+01 1.775315e+01 3.909987e-01 6.648066e-01 1.286679e+00 1.352627e+00 1.682881e+00 1.912785e+00 2.189445e+00 2.685023e+00 2.558541e+00 2.318774e+00 2.286751e+00 2.037848e+00 3.217692e-01 4.393926e-02 8.808471e-02 1.621305e-01 1.970798e-01 2.442688e-01 2.708282e-01 3.323837e-01 3.768879e-01 3.914510e-01 3.655109e-01 3.503008e-01 3.090660e-01 3.380270e-02
<GCONST> 1.000290e+02
<MIXTURE> 4 1.850717e-01
<MEAN> 39
 5.131423e+00 5.349024e+00 3.187307e+00 3.410551e+00 -5.534511e-01 -4.842547e+00 -5.534045e+00 -4.811220e+00 -2.944738e+00 -3.774719e+00 -5.302417e+00 -4.435999e+00 -1.727904e+00 -4.832653e-01 9.443097e-01 7.288693e-01 1.170574e+00 6.899556e-01 3.329160e-01 6.935315e-01 -6.821039e-01 -5.556653e-01 -1.993228e-01 -1.816169e-01 -5.323188e-01 -1.769062e+00 -2.609659e-01 -4.281132e-01 -2.958951e-01 -4.021880e-01 -1.350417e-01 8.601810e-02 2.342815e-01 5.218667e-01 4.060855e-01 2.740241e-01 2.653277e-01 3.235714e-01 3.043033e-01
<VARIANCE> 39
 1.287175e+01 2.367019e+01 2.940228e+01 2.533258e+01 4.103642e+01 4.337511e+01 4.088113e+01 4.421579e+01 4.136073e+01 4.694571e+01 4.511681e+01 4.455863e+01 1.844815e+01 1.306002e+00 1.537416e+00 2.069402e+00 2.185529e+00 2.807182e+00 3.319944e+00 3.505510e+00 4.053936e+00 3.484873e+00 3.485464e+00 3.204191e+00 3.017641e+00 1.290142e+00 1.286722e-01 1.968438e-01 2.565071e-01 2.785431e-01 3.940013e-01 4.517592e-01 5.041436e-01 5.599170e-01 5.389413e-01 5.546792e-01 4.969857e-01 4.819373e-01 1.134976e-01
<GCONST> 1.150810e+02
<MIXTURE> 5 1.572579e-01
<MEAN> 39
 3.422297e+00 1.456286e+00 7.903938e-01 -3.015929e+00 -2.720611e+00 -1.258429e+00 -1.358603e+00 -1.624379e+00 -1.917574e+00 -1.785681e-01 1.646916e-01 1.074583e+00 3.853821e+00 -5.784451e-03 6.160360e-02 3.498495e-02 4.974012e-02 3.566931e-03 3.943142e-02 1.493144e-01 -1.341389e-02 -1.481932e-01 -1.074883e-01 -2.648598e-02 6.820376e-02 -1.486504e-01 1.161158e-02 -3.422684e-02 -3.580206e-02 2.544428e-02 1.228408e-02 -5.473072e-02 -1.249978e-01 2.774822e-02 1.209488e-01 2.217671e-02 -4.423032e-02 -6.359731e-02 -7.446230e-03
<VARIANCE> 39
 2.320415e+01 3.599129e+01 6.050415e+01 6.343544e+01 7.737335e+01 6.915615e+01 6.293466e+01 7.541731e+01 6.708133e+01 7.058883e+01 7.210922e+01 8.199754e+01 3.202411e+01 1.799818e-01 4.138919e-01 6.179220e-01 8.322302e-01 1.072115e+00 1.247051e+00 1.372825e+00 1.534881e+00 1.572954e+00 1.516104e+00 1.543139e+00 1.381279e+00 1.211469e-01 2.876035e-02 6.663553e-02 1.053994e-01 1.418262e-01 1.963026e-01 2.170265e-01 2.578850e-01 2.725796e-01 2.772851e-01 2.766296e-01 2.676064e-01 2.518479e-01 1.772521e-02
<GCONST> 9.604164e+01
<MIXTURE> 6 7.164423e-02
<MEAN> 39
 -6.075505e+00 1.254686e+01 -1.433595e+00 7.192393e+00 -5.085135e-01 -6.207864e+00 -1.787182e+00 -3.854520e+00 -1.516052e+00 -3.893127e+00 -2.445160e+00 -1.165467e+00 2.586932e+00 -3.307490e+00 1.383456e+00 -6.045508e-01 1.521885e+00 9.316916e-01 1.749059e+00 1.755868e+00 4.697344e-02 -4.468486e-05 5.670115e-01 6.475915e-01 -3.414169e-01 -7.608488e-01 8.783750e-02 -8.594809e-01 -7.456858e-02 -5.049025e-01 -1.779567e-01 1.858490e-01 3.915812e-02 5.113218e-01 3.429508e-01 4.392489e-01 2.571830e-01 2.700945e-01 3.412020e-02
<VARIANCE> 39
 2.207963e+01 2.326286e+01 3.250132e+01 2.998490e+01 5.754391e+01 3.973854e+01 3.846306e+01 3.705130e+01 3.593322e+01 4.645325e+01 4.359858e+01 4.125685e+01 1.815517e+01 1.518550e+00 2.786975e+00 2.108369e+00 2.578010e+00 2.817269e+00 3.126137e+00 3.334770e+00 3.786014e+00 3.405749e+00 3.411872e+00 3.375202e+00 3.603579e+00 6.942900e-01 2.638181e-01 2.707296e-01 3.490169e-01 3.452965e-01 4.818707e-01 5.090106e-01 5.859066e-01 5.857368e-01 5.372008e-01 5.670739e-01 5.376478e-01 4.707847e-01 5.969921e-02
<GCONST> 1.174337e+02
<MIXTURE> 7 1.009230e-01
<MEAN> 39
 -3.018154e+00 3.938795e+00 4.835528e-01 4.100941e+00 2.759589e+00 1.753494e-01 1.784322e+00 -1.247411e-01 5.879089e-01 2.898342e-02 -6.548371e-01 -1.159559e+00 -3.786867e+00 -9.839340e-01 -1.398220e-01 -1.464011e-01 2.071198e-01 3.307812e-01 4.873636e-01 6.725117e-01 3.689167e-01 2.104963e-01 2.914484e-01 3.728657e-01 2.448654e-01 -5.812327e-01 1.488226e-01 -1.779588e-01 -8.092447e-02 -2.535472e-01 -2.943085e-01 -2.307630e-01 -3.041039e-01 -8.653735e-02 -1.990854e-03 8.973387e-03 -5.555259e-03 2.033301e-02 2.553578e-01
<VARIANCE> 39
 5.038031e+01 3.925522e+01 3.307257e+01 3.238771e+01 3.879869e+01 3.565710e+01 3.902625e+01 3.722108e+01 3.389562e+01 3.364705e+01 3.048048e+01 3.364709e+01 4.197392e+01 1.580687e+00 1.240095e+00 1.381226e+00 1.495521e+00 1.851571e+00 2.067326e+00 2.223146e+00 2.200341e+00 2.301948e+00 2.191496e+00 2.089159e+00 1.868665e+00 1.527128e+00 2.523465e-01 2.149054e-01 2.448843e-01 2.775466e-01 3.469835e-01 3.733392e-01 3.993961e-01 4.097338e-01 4.186877e-01 3.980530e-01 3.769312e-01 3.527800e-01 1.756727e-01
<GCONST> 1.111925e+02
<MIXTURE> 8 1.129833e-01
<MEAN> 39
 8.657511e+00 2.189666e+00 -1.307334e+00 -8.385991e+00 3.664741e-01 9.675694e-01 -4.761105e+00 -5.977530e+00 -3.867577e+00 -1.846681e-01 -8.154997e-01 -3.728428e-01 2.123568e+00 6.716418e-02 5.455281e-01 4.354548e-01 6.312333e-01 -3.921822e-02 -4.149598e-01 2.790892e-01 -2.350714e-01 -3.980652e-01 -5.101508e-01 -4.852234e-01 -2.096658e-01 -7.733654e-01 -2.209147e-01 -3.714228e-02 1.246850e-04 3.973227e-01 1.313708e-02 -1.462312e-01 -8.123471e-02 2.174863e-01 3.486865e-01 7.916539e-02 -5.555514e-02 -1.250414e-01 6.924715e-02
<VARIANCE> 39
 2.140068e+01 3.430214e+01 5.883535e+01 5.833371e+01 7.791672e+01 8.405425e+01 7.869962e+01 7.860515e+01 7.786011e+01 8.900307e+01 8.401126e+01 8.221607e+01 1.833315e+01 7.545982e-01 1.327328e+00 1.995928e+00 3.027743e+00 3.124988e+00 3.326944e+00 3.831986e+00 4.640417e+00 4.603750e+00 4.510093e+00 4.072726e+00 3.780630e+00 7.518276e-01 1.124340e-01 2.129785e-01 3.386623e-01 4.027072e-01 5.607622e-01 6.203914e-01 6.895230e-01 8.329070e-01 8.160860e-01 8.115928e-01 7.422146e-01 6.763231e-01 8.266953e-02
<GCONST> 1.261001e+02
<TRANSP> 6
 0.000000e+00 1.000000e+00 0.000000e+00 0.000000e+00 0.000000e+00 0.000000e+00
 0.000000e+00 4.667245e-01 5.332755e-01 0.000000e+00 0.000000e+00 0.000000e+00
 0.000000e+00 0.000000e+00 6.879296e-01 3.120704e-01 0.000000e+00 0.000000e+00
 0.000000e+00 0.000000e+00 0.000000e+00 5.956936e-01 4.043064e-01 0.000000e+00
 0.000000e+00 0.000000e+00 0.000000e+00 0.000000e+00 5.047373e-01 4.952627e-01
 0.000000e+00 0.000000e+00 0.000000e+00 0.000000e+00 0.000000e+00 0.000000e+00
<ENDHMM>
