~o
<STREAMINFO> 1 39
<VECSIZE> 39<NULLD><MFCC_D_A_Z_0><DIAGC>
~h "dh"
<BEGINHMM>
<NUMSTATES> 5
<STATE> 2
<NUMMIXES> 8
<MIXTURE> 1 9.537431e-02
<MEAN> 39
 2.650223e+00 7.865317e-02 -4.452474e-01 -1.612633e+00 -1.451534e+00 -4.233459e+00 -3.450557e+00 -1.932184e+00 5.250655e-01 2.460669e+00 2.699175e+00 4.851476e+00 4.389415e+00 3.293298e-03 1.206214e-01 -1.333818e-01 8.470460e-02 -1.415724e-02 -1.493419e-01 -1.404174e-01 1.808971e-01 3.492882e-01 2.015666e-02 -9.618009e-02 -1.967660e-01 9.664034e-02 -4.639712e-02 -1.246045e-01 -2.834571e-02 -6.818858e-02 -4.574463e-02 5.927367e-02 1.006580e-01 3.578274e-01 9.320963e-02 -7.727040e-02 -7.937390e-02 -7.570558e-02 1.035492e-01
<VARIANCE> 39
 2.339087e+01 3.271401e+01 5.097699e+01 4.215406e+01 6.621651e+01 7.088838e+01 7.815101e+01 8.765988e+01 8.130833e+01 8.992562e+01 1.151713e+02 1.244841e+02 3.356698e+01 6.000350e-01 1.149852e+00 1.648486e+00 1.972978e+00 2.329393e+00 2.587645e+00 3.082841e+00 3.414607e+00 3.389043e+00 3.416995e+00 3.182019e+00 2.957377e+00 1.043306e+00 1.280914e-01 2.169515e-01 3.263794e-01 3.959164e-01 4.745944e-01 6.105403e-01 7.066147e-01 7.896277e-01 7.195994e-01 7.128738e-01 6.358061e-01 6.442807e-01 2.457034e-01
<GCONST> 1.245345e+02
<MIXTURE> 2 1.325480e-01
<MEAN> 39
 1.601980e+00 8.912495e+00 3.097959e+00 6.142472e+00 -5.592768e-01 -3.392196e+00 -2.969532e+00 -6.238907e+00 -2.944377e+00 -4.600128e+00 -5.200541e+00 -5.196175e+00 -4.419657e+00 -8.480525e-01 -7.686710e-01 -5.612025e-01 -2.262372e-02 -2.192927e-01 -1.448034e-01 2.959903e-01 7.488707e-01 7.545096e-01 5.642673e-01 9.012089e-01 7.163155e-01 1.554992e+00 7.482149e-02 -8.570439e-01 -3.017290e-01 -7.685919e-01 -4.390999e-01 -2.998956e-01 7.904223e-02 8.273392e-01 4.835808e-01 4.396698e-01 4.033850e-01 6.387218e-01 8.861517e-01
<VARIANCE> 39
 3.588084e+01 3.063181e+01 3.942075e+01 3.583064e+01 4.734288e+01 4.068395e+01 4.237711e+01 4.006417e+01 4.036482e+01 4.347921e+01 4.208182e+01 4.503853e+01 3.390430e+01 2.934062e+00 2.835326e+00 2.862629e+00 3.152215e+00 4.048606e+00 4.586930e+00 4.035306e+00 4.176600e+00 3.900212e+00 3.747465e+00 3.852378e+00 3.830021e+00 4.224409e+00 5.202137e-01 4.346576e-01 5.623917e-01 6.236351e-01 8.071776e-01 8.307687e-01 9.645340e-01 9.500110e-01 9.294180e-01 7.913885e-01 8.189928e-01 8.021827e-01 4.435422e-01
<GCONST> 1.317912e+02
<MIXTURE> 3 1.448494e-01
<MEAN> 39
 -4.752913e+00 4.636523e+00 1.695645e+00 6.913956e+00 4.110978e+00 2.326410e+00 2.985204e+00 -3.867862e-01 3.430277e-01 2.423976e-01 -3.863256e-01 -1.028424e+00 -7.365723e+00 5.169308e-01 -3.242568e-01 -3.734542e-01 -7.148352e-01 -1.259511e+00 -1.230472e+00 -5.659884e-01 8.037669e-02 4.780960e-01 2.336981e-01 4.205397e-01 5.526080e-01 2.294795e+00 6.164237e-01 -2.318788e-01 -1.040887e-01 -6.110356e-01 -8.283338e-01 -8.138827e-01 -4.966524e-01 3.945022e-02 9.354921e-02 -4.329728e-02 2.611427e-02 1.695025e-01 8.410224e-01
<VARIANCE> 39
 2.497371e+01 2.547547e+01 2.570652e+01 2.333138e+01 2.920618e+01 2.687800e+01 2.723389e+01 2.686663e+01 2.714063e+01 2.502115e+01 2.459618e+01 2.753082e+01 4.317289e+01 3.730186e+00 2.576724e+00 2.566664e+00 2.592940e+00 3.454792e+00 4.229937e+00 3.755391e+00 3.207667e+00 3.319424e+00 2.853439e+00 2.983713e+00 2.901598e+00 4.449440e+00 2.919889e-01 3.426785e-01 3.891383e-01 4.089245e-01 4.815929e-01 5.576357e-01 6.099945e-01 6.196443e-01 6.379498e-01 5.432501e-01 5.581372e-01 6.170557e-01 4.244059e-01
<GCONST> 1.204124e+02
<MIXTURE> 4 1.329203e-01
<MEAN> 39
 2.538149e+00 6.931471e+00 2.513129e+00 4.911307e+00 -6.318169e-01 -3.903883e+00 -3.815838e+00 -4.707935e+00 -1.676904e+00 -1.335714e+00 -3.248840e+00 -3.384615e+00 -1.820991e+00 -2.388382e-01 -1.095698e-01 -2.123421e-01 -5.051001e-02 4.152697e-03 -2.631979e-02 4.826013e-02 2.946097e-01 3.039725e-01 7.765856e-02 1.750750e-01 2.023498e-01 2.204640e-01 2.232970e-02 -3.333769e-01 -1.541013e-01 -2.781887e-01 -1.975871e-01 -1.234950e-01 5.882561e-03 3.331734e-01 2.121948e-01 2.728778e-02 1.110083e-01 2.054137e-01 3.312740e-01
<VARIANCE> 39
 2.558491e+01 2.220377e+01 2.791987e+01 2.914644e+01 3.834628e+01 3.534219e+01 3.592269e+01 3.663655e+01 3.444144e+01 3.932767e+01 3.618816e+01 3.639297e+01 1.970308e+01 5.662981e-01 6.512083e-01 1.027060e+00 1.061726e+00 1.373311e+00 1.542912e+00 1.693574e+00 1.822603e+00 1.676946e+00 1.680869e+00 1.518304e+00 1.475473e+00 5.762505e-01 1.459841e-01 1.658302e-01 2.502235e-01 2.768433e-01 3.811151e-01 3.736267e-01 4.234192e-01 4.894451e-01 4.397050e-01 4.162114e-01 3.948044e-01 3.768051e-01 1.447325e-01
<GCONST> 1.032988e+02
<MIXTURE> 5 9.647311e-02
<MEAN> 39
 3.587301e+00 5.956683e+00 2.005933e+00 4.020783e+00 -2.091287e+00 -5.620938e+00 -4.708583e+00 -3.969850e+00 -1.449918e+00 -3.448226e+00 -4.593882e+00 -3.130176e+00 -7.670817e-01 -4.652949e-01 9.340737e-01 3.283867e-01 9.975415e-01 8.074553e-01 5.779504e-01 2.251429e-01 -6.061996e-01 -3.383200e-01 -1.042984e-01 -1.139373e-01 -5.680862e-01 -1.299732e+00 -2.058493e-01 -3.707642e-01 -1.062628e-01 -3.224070e-01 -1.253655e-01 1.017148e-01 2.587119e-01 3.817998e-01 1.583940e-01 1.934392e-01 2.434666e-01 2.329564e-01 2.722300e-01
<VARIANCE> 39
 1.437976e+01 2.157044e+01 3.036074e+01 2.800985e+01 4.185917e+01 3.388290e+01 3.988124e+01 3.776131e+01 4.376825e+01 4.539686e+01 4.390352e+01 4.713793e+01 1.995368e+01 1.167326e+00 1.226246e+00 1.771705e+00 1.989606e+00 2.529325e+00 2.820635e+00 3.294950e+00 3.448955e+00 3.290826e+00 2.919376e+00 2.668545e+00 2.643103e+00 1.275488e+00 1.143782e-01 1.905217e-01 2.525897e-01 3.339732e-01 3.983291e-01 4.295512e-01 4.819914e-01 5.099974e-01 5.250669e-01 4.953876e-01 4.559185e-01 4.488634e-01 1.912833e-01
<GCONST> 1.133759e+02
<MIXTURE> 6 1.242825e-01
<MEAN> 39
 -9.436644e+00 2.340939e+00 -2.589932e+00 3.189283e+00 9.926910e-01 -1.905549e-01 3.701763e+00 5.575461e-01 1.467915e+00 1.653481e+00 2.720540e+00 1.584946e+00 -8.040223e-01 1.369531e+00 5.392642e-01 4.965657e-01 -1.980535e-01 -1.178395e+00 -1.478865e+00 -9.061136e-01 -2.964090e-01 -1.620606e-01 -4.602962e-01 -2.478954e-01 1.753767e-01 2.172469e+00 1.014330e+00 1.557783e-01 4.161509e-01 -1.147348e-01 -3.732662e-01 -4.848416e-01 -5.819412e-01 -1.146172e-01 -8.165385e-02 -2.284547e-01 -4.160413e-01 -1.793244e-01 8.669779e-02
<VARIANCE> 39
 2.994422e+01 3.997095e+01 2.983525e+01 3.261692e+01 3.734224e+01 3.824342e+01 3.478607e+01 3.213066e+01 3.150297e+01 2.976308e+01 2.913075e+01 3.017675e+01 3.656007e+01 3.862753e+00 2.350660e+00 2.654776e+00 2.594299e+00 3.405263e+00 3.651579e+00 3.747701e+00 3.381082e+00 3.173355e+00 2.883090e+00 2.973797e+00 2.741343e+00 4.115150e+00 3.677660e-01 5.208530e-01 5.136953e-01 5.522893e-01 5.877602e-01 7.052894e-01 6.834902e-01 6.985578e-01 6.818317e-01 6.685220e-01 6.191763e-01 6.269901e-01 4.763178e-01
<GCONST> 1.250659e+02
<MIXTURE> 7 1.429057e-01
<MEAN> 39
 3.066447e+00 5.836060e+00 2.074480e+00 4.870537e+00 -9.875651e-01 -5.680550e+00 -5.669744e+00 -4.907058e+00 -6.903269e-01 -1.251931e+00 -3.211980e+00 -1.906215e+00 9.415999e-01 -4.947292e-02 -1.408217e+00 -1.068642e+00 -1.280149e+00 -8.042547e-01 -8.373007e-01 -3.875440e-01 1.964607e+00 1.522464e+00 1.133700e-01 6.381794e-01 9.636185e-01 2.051401e+00 7.644098e-02 -4.979303e-01 -1.558645e-01 -5.999211e-01 -2.555949e-01 6.890246e-02 2.387332e-01 7.221147e-01 2.565693e-01 -6.057078e-02 -1.759487e-04 7.355797e-02 4.131003e-01
<VARIANCE> 39
 1.258438e+01 1.826696e+01 2.634885e+01 2.390374e+01 3.724715e+01 3.263129e+01 3.528675e+01 3.682268e+01 3.756301e+01 4.021997e+01 3.975940e+01 4.072079e+01 1.714777e+01 1.272112e+00 1.560764e+00 2.677939e+00 2.418563e+00 3.631638e+00 3.551332e+00 4.153391e+00 4.770212e+00 4.273493e+00 3.969499e+00 3.453441e+00 3.636413e+00 9.042808e-01 1.367636e-01 1.907616e-01 2.980137e-01 2.982178e-01 5.001369e-01 4.710569e-01 5.930288e-01 6.234628e-01 6.109995e-01 5.322179e-01 5.029253e-01 4.590335e-01 1.388367e-01
<GCONST> 1.156716e+02
<MIXTURE> 8 1.306467e-01
<MEAN> 39
 3.772199e+00 4.733154e+00 2.226340e+00 1.719104e+00 -2.774726e+00 -3.693281e+00 -3.523800e+00 -4.340775e+00 -1.039926e+00 -3.684186e-01 -2.965123e+00 -1.746063e+00 1.126475e+00 1.679784e-02 7.820840e-02 1.381657e-02 2.261917e-02 6.442983e-02 1.006018e-02 -1.099130e-01 -2.682688e-02 8.288902e-02 7.888782e-02 -3.913100e-03 -1.804865e-02 -6.352947e-02 -1.137732e-02 -5.315768e-02 -2.018943e-02 -2.200843e-02 -1.977963e-02 -2.035685e-02 -4.689830e-03 7.995279e-02 1.819707e-02 -2.816814e-02 1.623736e-02 1.102773e-02 1.099116e-02
<VARIANCE> 39
 2.280789e+01 3.034377e+01 5.091693e+01 4.325463e+01 6.236304e+01 4.868155e+01 4.888761e+01 5.930357e+01 6.174052e+01 5.386750e+01 5.715718e+01 5.798554e+01 3.143000e+01 1.457859e-01 3.274082e-01 5.310755e-01 7.342947e-01 9.814109e-01 1.115407e+00 1.151029e+00 1.367656e+00 1.429939e+00 1.342263e+00 1.253472e+00 1.156334e+00 1.260561e-01 2.295426e-02 5.414034e-02 8.890443e-02 1.235431e-01 1.581032e-01 1.924573e-01 2.098138e-01 2.376643e-01 2.530200e-01 2.447623e-01 2.259191e-01 2.106871e-01 1.705512e-02
<GCONST> 8.948975e+01
<STATE> 3
<NUMMIXES> 8
<MIXTURE> 1 7.292580e-02
<MEAN> 39
 1.369925e+00 2.303742e+00 -2.673271e+00 -9.817377e-01 -6.512975e+00 -7.638792e+00 -2.017170e+00 2.791043e+00 5.488276e+00 6.067979e+00 1.011477e+01 9.835649e+00 4.123816e+00 1.211925e+00 -1.658698e+00 -2.216634e-01 -2.144339e+00 -6.265736e-01 -1.213609e+00 -2.890006e-01 1.884321e+00 3.902169e-01 7.677165e-01 1.540801e+00 2.611196e+00 2.561036e+00 -3.152734e-01 -3.646919e-01 2.016049e-01 9.132787e-02 6.645898e-01 6.500945e-01 2.979571e-01 -1.330283e-01 -6.577150e-01 -6.176807e-01 -7.443939e-01 -3.885907e-01 -2.833517e-01
<VARIANCE> 39
 1.339893e+01 2.586237e+01 2.821462e+01 3.049460e+01 4.023238e+01 3.819960e+01 4.424030e+01 4.816786e+01 4.810353e+01 4.933385e+01 4.299401e+01 5.816990e+01 2.591800e+01 3.033597e+00 2.717011e+00 3.346039e+00 4.100580e+00 4.980862e+00 6.473442e+00 6.804752e+00 6.276940e+00 6.739087e+00 7.084481e+00 7.610201e+00 9.999267e+00 2.849554e+00 2.868370e-01 2.969546e-01 3.447923e-01 4.776654e-01 5.421794e-01 6.172881e-01 6.888365e-01 7.418047e-01 6.500170e-01 6.686869e-01 7.566273e-01 9.480112e-01 4.351844e-01
<GCONST> 1.313066e+02
<MIXTURE> 2 1.625181e-01
<MEAN> 39
 4.436044e+00 2.471538e+00 -2.540861e+00 -2.064199e-01 -1.197174e+00 -6.126692e+00 -7.563897e+00 2.891665e-01 3.530231e+00 -1.388876e+00 -3.709848e+00 -1.906424e+00 4.871816e+00 1.210233e-01 -1.392328e+00 -9.545967e-01 -1.480766e+00 -4.216975e-01 -1.857389e-01 9.349500e-02 2.400205e+00 1.294697e+00 -3.025921e-01 -8.158883e-02 4.941466e-01 1.548049e+00 -3.751624e-02 -3.259694e-02 3.275006e-01 3.677690e-02 1.933043e-03 2.644116e-01 3.800874e-01 -7.917441e-02 -3.253485e-01 -6.120007e-02 -1.969866e-02 -2.288942e-02 -1.612333e-01
<VARIANCE> 39
 9.612285e+00 1.874644e+01 2.567449e+01 2.995710e+01 3.558463e+01 3.966107e+01 3.944767e+01 5.192862e+01 4.769355e+01 5.153736e+01 4.505629e+01 4.804153e+01 1.574701e+01 7.393380e-01 1.131710e+00 2.256790e+00 2.199672e+00 3.355666e+00 3.319005e+00 4.150526e+00 4.281070e+00 4.399734e+00 3.543523e+00 3.433022e+00 3.208544e+00 5.616841e-01 7.874593e-02 1.259302e-01 2.492957e-01 2.720495e-01 3.365554e-01 3.604496e-01 3.994266e-01 5.499507e-01 4.520628e-01 4.441122e-01 4.187458e-01 3.893564e-01 7.293699e-02
<GCONST> 1.109512e+02
<MIXTURE> 3 1.415122e-01
<MEAN> 39
 7.862977e-01 4.317078e+00 1.676170e+00 2.968894e+00 -2.724809e+00 -4.663875e+00 -1.592520e+00 -1.672048e+00 -6.100675e-01 -8.588321e-01 -8.991337e-01 -9.855074e-01 -1.070252e+00 2.022449e-02 -4.457326e-01 -2.954855e-01 -6.144251e-01 -4.993558e-01 -2.628400e-01 -1.870095e-02 4.524040e-01 3.267552e-01 3.108443e-01 1.787321e-01 9.115294e-02 2.999735e-01 1.687318e-02 -7.529552e-02 2.828904e-02 -5.065859e-02 5.805801e-02 1.231614e-01 3.957485e-02 1.798232e-02 -3.612788e-02 -2.417506e-02 -7.672124e-02 1.552605e-02 6.895193e-02
<VARIANCE> 39
 2.834872e+01 2.222915e+01 2.733372e+01 2.862273e+01 4.346778e+01 3.841919e+01 3.612611e+01 3.313540e+01 3.283884e+01 3.714094e+01 3.561214e+01 3.912081e+01 3.134240e+01 1.198059e+00 1.023945e+00 1.606765e+00 1.655335e+00 2.401106e+00 2.358445e+00 2.553608e+00 2.611284e+00 2.623858e+00 2.495385e+00 2.377103e+00 2.233869e+00 1.275481e+00 1.076870e-01 1.186325e-01 1.679392e-01 2.059501e-01 2.756019e-01 3.197855e-01 3.360113e-01 3.406047e-01 3.178207e-01 3.661296e-01 3.484940e-01 3.242608e-01 7.946523e-02
<GCONST> 1.065054e+02
<MIXTURE> 4 9.838761e-02
<MEAN> 39
 4.431660e+00 2.548751e+00 -1.449897e+00 -1.322035e+00 -8.111485e+00 -1.009640e+01 -3.520854e+00 2.747324e+00 1.594029e+00 -3.989234e+00 -2.691819e+00 1.074061e+00 5.186765e+00 2.076723e+00 -1.572759e+00 -9.328336e-02 -2.309756e+00 -1.208568e+00 -1.195315e+00 -3.645754e-01 1.956920e+00 1.880951e-01 -9.011613e-01 -1.435399e+00 1.916911e-01 2.471215e+00 -8.249118e-01 -1.994245e-01 7.073077e-02 3.663387e-01 9.467789e-01 1.148065e+00 6.969345e-01 -1.396698e-01 -1.494416e-01 2.702947e-01 7.198896e-02 -3.641391e-01 -7.010873e-01
<VARIANCE> 39
 8.938246e+00 1.837857e+01 2.363209e+01 2.445004e+01 3.233791e+01 3.222967e+01 4.098462e+01 3.294096e+01 3.595207e+01 3.273714e+01 3.690272e+01 3.987771e+01 1.993481e+01 1.660030e+00 2.604658e+00 2.826680e+00 3.137432e+00 4.492236e+00 4.683368e+00 6.292936e+00 4.785291e+00 4.999119e+00 4.132773e+00 3.746051e+00 4.362249e+00 1.984532e+00 2.289957e-01 2.717093e-01 3.194896e-01 3.634428e-01 4.328304e-01 4.969868e-01 5.621290e-01 5.929733e-01 5.403737e-01 4.937139e-01 5.718616e-01 5.453147e-01 2.789375e-01
<GCONST> 1.199288e+02
<MIXTURE> 5 1.297551e-01
<MEAN> 39
 -4.054697e+00 4.329501e+00 -9.284522e-01 5.481153e+00 -1.806721e+00 -1.198207e+00 2.323834e+00 -2.211080e+00 1.841557e+00 1.720195e-01 1.646608e+00 -1.176551e+00 -3.390303e-01 1.610747e+00 -1.119136e+00 -1.450448e-01 -2.263411e+00 -2.134621e+00 -2.342750e+00 -1.032703e+00 1.301533e+00 5.901589e-01 6.773579e-01 9.103243e-01 1.708943e+00 3.649909e+00 5.499809e-01 -3.516781e-01 2.399536e-01 -6.673720e-01 -2.017837e-02 -2.296492e-01 -2.677800e-01 3.946117e-01 -1.956844e-01 -5.270209e-02 -2.609197e-01 2.750781e-01 1.141679e-02
<VARIANCE> 39
 2.269201e+01 3.726636e+01 3.127899e+01 2.942361e+01 4.232769e+01 3.761650e+01 3.877233e+01 3.890159e+01 3.481211e+01 3.599252e+01 3.887819e+01 3.815358e+01 4.028182e+01 4.189015e+00 3.615826e+00 4.427958e+00 4.221063e+00 5.337034e+00 5.832102e+00 6.482986e+00 6.225827e+00 6.008383e+00 5.799434e+00 6.575336e+00 6.500643e+00 4.392183e+00 4.059326e-01 6.155332e-01 5.451338e-01 5.892900e-01 7.674865e-01 7.392089e-01 8.716761e-01 8.625412e-01 8.325843e-01 8.834172e-01 1.050647e+00 1.096124e+00 5.976192e-01
<GCONST> 1.355774e+02
<MIXTURE> 6 1.407411e-01
<MEAN> 39
 2.269000e+00 1.032620e+00 1.506050e+00 1.907221e+00 -5.747877e+00 -9.824632e+00 -5.052254e+00 1.019768e+00 2.901057e+00 -1.333632e+00 -1.373562e+00 2.164454e+00 7.419403e+00 -2.114080e-02 -2.235020e+00 -5.841302e-01 -2.142054e+00 -1.831023e+00 -8.404559e-01 5.476542e-01 2.764938e+00 1.407575e+00 3.447054e-01 7.043309e-01 8.856320e-01 2.913259e+00 6.246961e-02 1.737037e-01 1.107267e-01 -1.589214e-01 3.576167e-01 7.570211e-01 5.589423e-01 -3.392710e-02 -3.676802e-01 -3.836293e-02 -2.446825e-01 -5.065586e-01 -5.567352e-01
<VARIANCE> 39
 1.060744e+01 1.657265e+01 2.466517e+01 2.416835e+01 3.726036e+01 3.189814e+01 4.286694e+01 4.405101e+01 4.852013e+01 4.009898e+01 3.590440e+01 3.909028e+01 2.051473e+01 1.560868e+00 1.968405e+00 2.980324e+00 2.710506e+00 4.808733e+00 5.164236e+00 6.490252e+00 5.763441e+00 5.828950e+00 4.727770e+00 4.031929e+00 4.397512e+00 1.514939e+00 2.170174e-01 2.489886e-01 3.325040e-01 3.511781e-01 5.486513e-01 5.577040e-01 5.960017e-01 7.540655e-01 7.003753e-01 6.112243e-01 5.337765e-01 5.204445e-01 2.496065e-01
<GCONST> 1.217879e+02
<MIXTURE> 7 1.616627e-01
<MEAN> 39
 6.221579e-01 6.787296e+00 2.485093e+00 4.222483e+00 -2.601121e+00 -7.507250e+00 -3.210842e+00 -2.733309e+00 -3.633003e-01 -8.224655e-01 -1.124817e+00 7.131587e-01 2.478665e+00 2.725919e+00 -3.461621e-01 5.197024e-01 -1.096182e+00 -2.350571e+00 -2.210461e+00 -1.932492e+00 -1.597325e-01 4.907489e-01 -2.054505e-01 -5.682909e-01 -5.328221e-02 2.546100e+00 -2.794077e-01 -5.184566e-01 -1.909043e-01 -2.717406e-01 1.584427e-01 6.164325e-01 4.061151e-01 3.875597e-01 1.709350e-01 1.503483e-01 5.571999e-02 -1.350027e-01 -3.490511e-01
<VARIANCE> 39
 2.015356e+01 1.921400e+01 2.692170e+01 2.441091e+01 4.118782e+01 3.401543e+01 3.408033e+01 3.169825e+01 3.354618e+01 3.216436e+01 2.880667e+01 2.972587e+01 2.856685e+01 2.409181e+00 3.446328e+00 3.644250e+00 3.696458e+00 4.226576e+00 4.947366e+00 4.997023e+00 5.334960e+00 5.734663e+00 4.718105e+00 4.446315e+00 4.226986e+00 2.766034e+00 3.805639e-01 2.951395e-01 3.352397e-01 3.482707e-01 5.062757e-01 5.125794e-01 5.620784e-01 5.542579e-01 5.245301e-01 5.172063e-01 5.175771e-01 4.470239e-01 3.007783e-01
<GCONST> 1.229132e+02
<MIXTURE> 8 9.249751e-02
<MEAN> 39
 1.528701e+00 -2.589499e+00 -1.535817e+00 -2.622874e+00 1.363248e-03 -2.127059e+00 -1.471204e+00 2.820313e+00 1.742716e+00 1.781417e+00 3.067860e+00 5.137967e+00 6.849844e+00 6.717397e-02 -1.586151e-01 -1.081081e-01 -2.973042e-01 -1.974484e-01 -1.880661e-01 -2.351951e-01 1.300392e-01 1.283479e-01 -1.045591e-03 -1.687831e-01 -1.109890e-01 -4.981821e-02 2.716568e-02 -5.004639e-03 2.635987e-03 -2.219729e-02 -9.078815e-02 -3.175861e-02 -2.354700e-02 -1.486478e-02 -8.595297e-02 -2.340053e-02 -1.395379e-02 1.382539e-03 -5.014174e-02
<VARIANCE> 39
 2.081506e+01 3.437425e+01 4.628106e+01 3.626503e+01 6.984499e+01 5.571216e+01 7.871067e+01 7.380076e+01 7.540742e+01 9.459445e+01 1.114360e+02 1.231727e+02 2.777826e+01 2.609234e-01 5.670913e-01 8.139073e-01 1.001857e+00 1.364168e+00 1.496032e+00 1.689067e+00 2.018984e+00 1.787093e+00 1.944464e+00 1.848340e+00 1.768178e+00 1.837418e-01 3.877766e-02 8.283824e-02 1.261517e-01 1.591386e-01 2.070082e-01 2.326993e-01 2.891501e-01 2.917808e-01 2.988662e-01 3.132342e-01 2.788826e-01 2.643952e-01 2.274755e-02
<GCONST> 1.009804e+02
<STATE> 4
<NUMMIXES> 8
<MIXTURE> 1 1.089435e-01
<MEAN> 39
 4.523157e+00 1.316841e+00 -2.399890e+00 -2.453308e+00 -1.239067e+00 -3.377517e+00 -1.046121e+01 -2.783346e+00 8.718253e+00 3.749200e+00 -1.177969e+00 -3.332848e+00 7.398426e+00 6.063742e-01 -7.733336e-01 -3.664325e-01 -9.610895e-01 -3.426533e-01 7.938819e-01 -5.541511e-01 2.740093e-01 8.840694e-01 4.250108e-01 2.036860e-01 -3.840181e-01 6.074971e-01 -2.986768e-01 3.471692e-01 2.531264e-01 4.523920e-01 3.649367e-01 3.132591e-01 7.862269e-01 -1.097772e-01 -9.649790e-01 -2.984924e-01 4.759489e-02 2.225691e-01 -6.581094e-01
<VARIANCE> 39
 1.310521e+01 1.931807e+01 2.683565e+01 3.242269e+01 3.185921e+01 4.965316e+01 3.943875e+01 5.304646e+01 4.251659e+01 4.872686e+01 5.028453e+01 3.638861e+01 2.254379e+01 7.176119e-01 1.178183e+00 1.473939e+00 2.096111e+00 2.507324e+00 3.019351e+00 2.770191e+00 3.832768e+00 3.547103e+00 2.929280e+00 2.898874e+00 2.461458e+00 8.807873e-01 2.443158e-01 2.156201e-01 3.415301e-01 3.894431e-01 4.691271e-01 5.296600e-01 5.515816e-01 7.544503e-01 5.385500e-01 5.924724e-01 5.767040e-01 4.908066e-01 1.523111e-01
<GCONST> 1.152653e+02
<MIXTURE> 2 9.958271e-02
<MEAN> 39
 -6.167229e-01 3.524267e+00 2.746958e-01 2.581880e+00 -1.595818e+00 -3.896469e+00 -1.518586e+00 -1.887813e+00 -2.755855e-01 -1.018386e+00 -1.440873e+00 -1.481429e+00 -1.536426e+00 -2.428465e-01 1.059442e-01 6.120064e-02 1.661057e-01 3.823710e-01 3.425207e-01 1.633177e-01 -1.379543e-01 -1.451179e-01 -1.555373e-02 -6.941288e-02 -1.227456e-01 -2.905525e-01 -8.288782e-02 1.426787e-01 1.336179e-01 1.833851e-01 1.566118e-01 1.748452e-01 1.438438e-01 -5.911644e-02 -9.448214e-02 -5.480695e-02 2.504164e-02 8.738390e-02 -7.258159e-02
<VARIANCE> 39
 4.263998e+01 3.665327e+01 4.090153e+01 3.560667e+01 5.101101e+01 4.817187e+01 4.970813e+01 4.227051e+01 4.044357e+01 4.535967e+01 4.794559e+01 4.601334e+01 4.249688e+01 1.378310e+00 1.288257e+00 1.442597e+00 1.596655e+00 1.945460e+00 2.349272e+00 2.240222e+00 2.451535e+00 2.344639e+00 2.349347e+00 2.440176e+00 2.215641e+00 1.105013e+00 3.156608e-01 2.711034e-01 3.573874e-01 3.464226e-01 4.427358e-01 5.070004e-01 5.687417e-01 5.323009e-01 4.954368e-01 5.180898e-01 5.094948e-01 4.514034e-01 2.554961e-01
<GCONST> 1.174299e+02
<MIXTURE> 3 1.030237e-01
<MEAN> 39
 3.548721e+00 -2.894440e+00 -7.477951e-01 -5.413749e+00 -3.426503e+00 -7.098948e+00 -1.876013e+00 2.546169e+00 4.154256e+00 1.344136e+00 -8.024644e-01 4.605169e-01 8.237790e+00 7.135592e-01 -1.638794e+00 -4.866808e-02 -1.648325e+00 1.223992e-01 -1.113241e-03 2.509486e-01 1.007867e+00 3.189999e-01 6.210515e-02 -4.637132e-01 -1.559247e-01 1.805885e+00 -4.901207e-01 5.284109e-01 1.343406e-01 8.687660e-01 5.207345e-01 8.115126e-01 3.027358e-01 -4.319467e-01 -5.131744e-01 -2.310591e-01 -9.881633e-03 -1.811572e-01 -1.021006e+00
<VARIANCE> 39
 2.814721e+01 3.471871e+01 5.618190e+01 4.877379e+01 6.728632e+01 8.333240e+01 9.768751e+01 8.642619e+01 7.870069e+01 8.131046e+01 8.236125e+01 7.296003e+01 3.167048e+01 2.307459e+00 3.402383e+00 3.567135e+00 4.653237e+00 5.248564e+00 5.694891e+00 7.532878e+00 7.166908e+00 6.033707e+00 6.002006e+00 5.709454e+00 5.717968e+00 3.983106e+00 5.106946e-01 5.024288e-01 6.878036e-01 7.368340e-01 9.952487e-01 1.170366e+00 1.342079e+00 1.377766e+00 1.139800e+00 1.104923e+00 1.027144e+00 1.005407e+00 5.167992e-01
<GCONST> 1.441144e+02
<MIXTURE> 4 9.492934e-02
<MEAN> 39
 1.776971e+00 2.790752e+00 7.629439e+00 -1.270422e-01 -1.265606e+01 -7.736324e+00 -7.412609e-01 -1.554228e+00 -4.414908e+00 5.425854e-01 3.804110e-01 2.328169e-01 6.636818e+00 3.771226e-01 -6.306602e-01 9.303842e-01 -1.177583e+00 -1.311362e+00 2.091427e-01 1.073223e-01 2.441241e-01 -4.675510e-01 7.086874e-01 -2.359336e-01 -1.828873e-01 9.510568e-01 -3.438445e-01 1.442131e-01 -3.909112e-01 2.853166e-01 1.029666e+00 6.574759e-01 2.124670e-01 -6.639655e-02 3.220787e-01 -5.628520e-02 -2.077191e-01 -1.945015e-01 -6.632535e-01
<VARIANCE> 39
 1.308786e+01 2.228795e+01 2.935556e+01 4.410927e+01 3.521463e+01 4.358924e+01 4.395358e+01 5.335393e+01 3.978344e+01 5.157527e+01 5.342477e+01 5.197449e+01 2.344933e+01 1.153226e+00 1.785133e+00 2.227262e+00 2.669430e+00 3.552323e+00 3.560328e+00 3.691737e+00 3.981874e+00 3.672509e+00 3.570785e+00 3.735402e+00 3.047330e+00 1.385882e+00 2.929748e-01 3.195511e-01 3.125628e-01 4.425240e-01 4.755135e-01 6.134924e-01 6.321693e-01 6.752604e-01 5.230092e-01 6.487867e-01 6.506458e-01 5.398539e-01 2.361687e-01
<GCONST> 1.213877e+02
<MIXTURE> 5 1.950788e-01
<MEAN> 39
 3.243646e+00 -8.368933e-02 -1.029280e+00 -2.381164e+00 -3.461012e+00 -5.350256e+00 -2.158493e+00 3.209099e+00 2.137915e+00 -1.594753e+00 -2.785757e+00 4.921659e-01 6.301057e+00 8.457882e-02 -3.970489e-01 -3.203727e-03 -3.295660e-01 7.860173e-02 3.656459e-01 1.996297e-01 3.359609e-01 -5.495529e-02 -4.582259e-02 -1.740338e-01 -7.148088e-02 1.211086e-01 -2.746356e-03 1.652282e-01 8.128607e-02 2.172111e-01 1.000897e-01 6.998207e-02 -8.458623e-02 -2.883487e-01 -9.346811e-02 4.058616e-02 6.686673e-02 -2.677853e-02 -1.762321e-01
<VARIANCE> 39
 1.172036e+01 2.391659e+01 3.620712e+01 2.812335e+01 4.976512e+01 4.696160e+01 6.032495e+01 5.631215e+01 6.090539e+01 5.977830e+01 5.577603e+01 6.658123e+01 2.457289e+01 1.950447e-01 5.082073e-01 7.148281e-01 8.351519e-01 1.198699e+00 1.363079e+00 1.661870e+00 1.691073e+00 1.598420e+00 1.542681e+00 1.420141e+00 1.452593e+00 1.882068e-01 3.927655e-02 7.901438e-02 1.278078e-01 1.586113e-01 2.084525e-01 2.322628e-01 3.261214e-01 3.370986e-01 3.015426e-01 2.988978e-01 2.865453e-01 2.787961e-01 3.641170e-02
<GCONST> 9.524504e+01
<MIXTURE> 6 1.326118e-01
<MEAN> 39
 3.369056e+00 1.373775e+00 9.934524e-01 1.521355e+00 -7.862859e+00 -9.189427e+00 -2.961437e+00 3.030704e+00 4.741952e+00 -1.421888e+00 -1.212389e+00 2.861424e+00 7.573998e+00 5.992583e-02 -8.306594e-01 -5.621355e-02 -8.308224e-01 -6.954347e-01 2.093323e-01 7.979895e-01 1.102009e+00 2.319557e-01 -9.019984e-02 7.089452e-02 1.758255e-02 7.806784e-01 -1.858487e-01 2.453500e-01 1.322780e-01 2.138132e-01 6.062534e-01 4.873965e-01 1.270560e-01 -3.834730e-01 -4.706534e-01 1.542518e-02 -8.181763e-02 -3.669627e-01 -5.049162e-01
<VARIANCE> 39
 9.327580e+00 1.568790e+01 2.169014e+01 2.221036e+01 2.816943e+01 2.727103e+01 4.097903e+01 3.228255e+01 4.130086e+01 4.183588e+01 3.711145e+01 3.116482e+01 2.073390e+01 3.509369e-01 6.442704e-01 1.076147e+00 1.175192e+00 1.860435e+00 1.683160e+00 2.073115e+00 1.936186e+00 2.070616e+00 1.970242e+00 1.983835e+00 1.747634e+00 3.891469e-01 1.326966e-01 1.500281e-01 2.005887e-01 2.188536e-01 2.895856e-01 3.452076e-01 3.671941e-01 4.188377e-01 3.729145e-01 4.190740e-01 4.069075e-01 3.344922e-01 7.282830e-02
<GCONST> 9.950895e+01
<MIXTURE> 7 8.264201e-02
<MEAN> 39
 6.925055e-01 -3.677942e+00 -1.424681e+00 -4.098215e+00 -3.458233e+00 -7.963347e+00 -1.715099e+00 6.493771e+00 6.113246e-01 2.474191e+00 7.993643e+00 1.548704e+01 8.671774e+00 -1.414409e-01 -1.260057e+00 3.227798e-01 -8.486716e-01 6.839671e-01 6.953680e-01 7.752117e-01 8.127196e-01 -1.050642e+00 -3.567521e-01 7.795376e-02 1.109161e+00 1.010503e+00 -1.447098e-01 4.715868e-01 6.994440e-02 5.553386e-01 2.294356e-01 5.582646e-01 1.229013e-01 -7.006129e-01 -1.024874e-01 -2.276715e-01 -5.324975e-01 -1.069438e+00 -6.381564e-01
<VARIANCE> 39
 1.160109e+01 2.086582e+01 3.176485e+01 2.755988e+01 5.299736e+01 4.608609e+01 5.827108e+01 4.947936e+01 6.620855e+01 7.630308e+01 8.807655e+01 5.312619e+01 1.641227e+01 8.075232e-01 1.631464e+00 1.726865e+00 2.218961e+00 3.255161e+00 3.812675e+00 4.589515e+00 3.720093e+00 3.639192e+00 4.095065e+00 4.407634e+00 4.644936e+00 1.082330e+00 2.326684e-01 2.484418e-01 3.279264e-01 3.969033e-01 5.405545e-01 6.264770e-01 6.777843e-01 6.424762e-01 7.450695e-01 7.771775e-01 7.623410e-01 7.670299e-01 1.968462e-01
<GCONST> 1.227478e+02
<MIXTURE> 8 1.831881e-01
<MEAN> 39
 2.806381e+00 -2.359175e+00 -2.084547e+00 -4.070667e+00 -4.305600e+00 -6.096965e+00 8.164898e-01 8.749639e+00 2.660614e+00 -4.047828e+00 -4.485770e+00 -9.466172e-01 9.178525e+00 -1.869107e-01 -1.286425e+00 -2.131000e-01 -9.683732e-01 5.726776e-01 1.232191e+00 1.475554e+00 1.421090e+00 -2.987006e-01 -4.874857e-01 -3.654166e-01 -2.226026e-01 9.756694e-01 -8.535417e-02 4.185023e-01 2.347692e-01 5.944000e-01 3.276827e-01 2.712398e-01 -2.847121e-01 -1.058442e+00 -3.552975e-01 1.521940e-01 1.503128e-01 -7.570706e-02 -6.562354e-01
<VARIANCE> 39
 1.151685e+01 1.583757e+01 2.606777e+01 2.215506e+01 4.440783e+01 4.211921e+01 6.622306e+01 4.134141e+01 6.545631e+01 4.982735e+01 4.015017e+01 4.722156e+01 1.805399e+01 4.969293e-01 1.050273e+00 1.515099e+00 1.724506e+00 2.714460e+00 2.714994e+00 3.593330e+00 4.065865e+00 3.252079e+00 2.940362e+00 2.589063e+00 2.580698e+00 6.338834e-01 1.786997e-01 2.014237e-01 3.019130e-01 3.051106e-01 5.195657e-01 5.318994e-01 6.755611e-01 6.268316e-01 7.132176e-01 5.691116e-01 5.198116e-01 5.386880e-01 1.324464e-01
<GCONST> 1.138617e+02
<TRANSP> 5
 0.000000e+00 1.000000e+00 0.000000e+00 0.000000e+00 0.000000e+00
 0.000000e+00 6.155174e-01 3.844827e-01 0.000000e+00 0.000000e+00
 0.000000e+00 0.000000e+00 4.459360e-01 5.540640e-01 0.000000e+00
 0.000000e+00 0.000000e+00 0.000000e+00 5.030851e-01 4.969150e-01
 0.000000e+00 0.000000e+00 0.000000e+00 0.000000e+00 0.000000e+00
<ENDHMM>
