~o
<STREAMINFO> 1 39
<VECSIZE> 39<NULLD><MFCC_D_A_Z_0><DIAGC>
~h "eh"
<BEGINHMM>
<NUMSTATES> 6
<STATE> 2
<NUMMIXES> 8
<MIXTURE> 1 1.195157e-01
<MEAN> 39
 -1.923776e+00 -6.220633e+00 -1.377542e+00 -5.133848e+00 -9.877863e-02 3.250462e+00 9.185961e+00 1.154504e+01 4.546124e+00 4.027200e-01 -4.025945e+00 -4.568927e+00 1.497592e+01 3.263790e-03 -3.826746e-02 -4.930387e-03 8.004447e-03 1.605512e-02 4.189122e-02 3.847355e-03 1.015526e-02 -3.020696e-02 -5.974810e-02 -1.750128e-02 -8.902377e-03 -1.742789e-02 7.416316e-03 6.259870e-03 3.481399e-03 -4.890956e-03 -3.106623e-02 -3.097059e-02 -2.321892e-02 -2.732662e-02 -1.256969e-02 9.394031e-04 1.222374e-02 9.132474e-03 -9.289776e-03
<VARIANCE> 39
 3.208619e+01 2.211834e+01 2.659386e+01 2.905367e+01 5.961805e+01 6.368201e+01 1.207587e+02 8.462972e+01 8.442259e+01 6.167118e+01 5.830017e+01 7.027483e+01 2.196002e+01 1.185014e-01 2.383360e-01 3.421684e-01 4.108812e-01 5.347169e-01 6.830648e-01 8.932517e-01 9.925384e-01 9.464135e-01 9.407444e-01 8.668823e-01 8.531513e-01 5.390101e-02 2.274917e-02 4.385579e-02 6.296457e-02 7.372949e-02 9.757897e-02 1.213066e-01 1.627003e-01 1.774675e-01 1.799542e-01 1.675639e-01 1.591882e-01 1.589542e-01 9.726589e-03
<GCONST> 8.026081e+01
<MIXTURE> 2 2.009161e-01
<MEAN> 39
 1.891532e+00 3.166787e-01 6.618550e+00 -4.684811e+00 -1.049411e+01 -2.730711e+00 3.172366e+00 -1.382361e+00 -2.546493e+00 1.788312e+00 -1.187287e+00 -1.369734e+00 6.974396e+00 6.899384e-02 -2.542534e-01 -1.811921e-01 -4.600287e-02 2.900530e-02 3.350590e-02 2.466449e-01 3.639538e-01 6.225569e-02 -1.120301e-01 -1.351598e-02 -4.892329e-02 9.393846e-02 -3.518283e-04 -6.897872e-03 -6.162950e-02 8.766069e-02 1.365280e-01 -3.844258e-02 -5.225715e-02 6.198133e-02 1.460661e-02 -9.071992e-02 -8.907680e-03 4.835606e-02 -4.314107e-02
<VARIANCE> 39
 1.719937e+01 2.335912e+01 4.185141e+01 6.013077e+01 6.125027e+01 5.882255e+01 6.333026e+01 5.716796e+01 5.884001e+01 6.563811e+01 7.701888e+01 6.991606e+01 2.647550e+01 2.511966e-01 6.006536e-01 8.367910e-01 1.007454e+00 1.176266e+00 1.458483e+00 1.629892e+00 1.853249e+00 1.731928e+00 1.811107e+00 1.681391e+00 1.434002e+00 2.130213e-01 4.403047e-02 8.807915e-02 1.296874e-01 1.784594e-01 2.218335e-01 2.597183e-01 2.851030e-01 2.879622e-01 3.015080e-01 3.128735e-01 3.087197e-01 2.595347e-01 3.036007e-02
<GCONST> 9.902222e+01
<MIXTURE> 3 5.634942e-02
<MEAN> 39
 4.925565e+00 -4.216215e+00 -4.228693e+00 -2.274374e+00 -9.216454e-02 -1.883281e+00 -5.709352e+00 3.882510e+00 7.590487e+00 9.837614e-01 -5.319737e+00 -3.168223e+00 9.363348e+00 -6.425847e-01 -6.615002e-01 7.538924e-01 6.773365e-01 -8.559702e-01 -1.064773e+00 1.191635e+00 1.999972e+00 -3.814339e-02 -1.802077e+00 -7.486416e-01 8.976101e-01 5.111471e-01 8.557645e-02 2.871068e-01 1.263440e-01 -2.007966e-01 -1.709669e-01 2.478649e-01 3.271538e-01 -4.791360e-01 -8.050278e-01 8.806572e-04 6.519966e-01 2.796515e-01 -2.398625e-01
<VARIANCE> 39
 1.383411e+01 2.250994e+01 2.468957e+01 3.579049e+01 4.698852e+01 4.938416e+01 4.838386e+01 5.772123e+01 4.834128e+01 6.442488e+01 5.531858e+01 6.112535e+01 2.409475e+01 2.825209e-01 6.499961e-01 1.118822e+00 1.262447e+00 1.737744e+00 2.056163e+00 2.466122e+00 2.685084e+00 3.063771e+00 2.404200e+00 2.757124e+00 2.204787e+00 2.373536e-01 5.384678e-02 1.042002e-01 1.616230e-01 2.204170e-01 2.857962e-01 3.659759e-01 3.823118e-01 4.806316e-01 4.243056e-01 5.078269e-01 3.765780e-01 4.434970e-01 4.494539e-02
<GCONST> 1.045198e+02
<MIXTURE> 4 7.941081e-02
<MEAN> 39
 2.829426e+00 -5.438548e+00 -4.010225e-01 -2.069512e+00 -4.394716e+00 -4.335476e+00 1.275734e+00 8.127279e+00 -5.919436e-01 -5.491864e+00 -3.295876e+00 2.763781e+00 9.807068e+00 -5.428321e-01 -2.335522e-01 7.601689e-01 -1.461231e-01 -9.360974e-01 4.289008e-01 1.685394e+00 6.578425e-02 -1.465621e+00 -4.441020e-01 9.543611e-01 2.046467e-01 3.181351e-01 1.745949e-01 2.327064e-01 -1.298377e-01 -1.039594e-01 2.482863e-01 1.632409e-01 -4.151468e-01 -5.976534e-01 1.666971e-01 5.820767e-01 5.720366e-02 -4.047645e-01 -2.120932e-01
<VARIANCE> 39
 1.137988e+01 2.035736e+01 2.709356e+01 2.783366e+01 5.013840e+01 4.131774e+01 5.133649e+01 4.303601e+01 5.739705e+01 4.904880e+01 5.735036e+01 6.325793e+01 1.630633e+01 2.273720e-01 5.395637e-01 8.702030e-01 9.560329e-01 1.659653e+00 1.560675e+00 1.894719e+00 2.072642e+00 2.067869e+00 2.198110e+00 1.848958e+00 1.832294e+00 1.442683e-01 3.890069e-02 8.731691e-02 1.558820e-01 1.817178e-01 2.549578e-01 3.150293e-01 3.301021e-01 3.856229e-01 3.675403e-01 3.296978e-01 3.761237e-01 2.847210e-01 2.750752e-02
<GCONST> 9.708121e+01
<MIXTURE> 5 7.560807e-02
<MEAN> 39
 3.190134e+00 -1.292294e+00 2.055401e+00 -1.398214e+00 -8.458049e+00 -7.878743e+00 -1.376316e+00 3.134803e+00 1.025581e+00 -4.168736e-01 4.885193e-02 1.446533e+00 8.574501e+00 5.766370e-01 -1.880646e+00 -1.432985e-01 -1.283695e+00 -4.844668e-01 2.441215e-01 9.090235e-01 1.772634e+00 4.502704e-01 -4.351141e-02 1.218788e-02 -7.958569e-02 1.533919e+00 -7.241857e-01 2.819340e-01 -1.305972e-01 3.256753e-01 7.801352e-01 7.758511e-01 5.224375e-01 -1.404585e-01 -1.525467e-01 -2.999916e-03 -1.471551e-02 -1.604671e-01 -5.308135e-01
<VARIANCE> 39
 1.645690e+01 2.753571e+01 4.445765e+01 3.901362e+01 4.777691e+01 4.724353e+01 5.822398e+01 5.634500e+01 6.173219e+01 5.994911e+01 6.414655e+01 6.421237e+01 2.778942e+01 1.795496e+00 2.401097e+00 2.634021e+00 2.889126e+00 4.010849e+00 4.274541e+00 5.060734e+00 4.784731e+00 4.864257e+00 4.021447e+00 3.896955e+00 3.898202e+00 1.562691e+00 3.730080e-01 4.031880e-01 4.325214e-01 5.627881e-01 5.812232e-01 6.816491e-01 7.100488e-01 8.253782e-01 8.124649e-01 7.880745e-01 7.925654e-01 7.361830e-01 2.912355e-01
<GCONST> 1.296079e+02
<MIXTURE> 6 2.349553e-01
<MEAN> 39
 5.066410e-01 -7.374372e+00 4.880503e-01 -5.931369e+00 -2.991171e+00 -1.681820e-01 8.459604e+00 6.733739e+00 -9.056666e-01 -1.793444e+00 -2.179436e+00 -1.459900e+00 1.235612e+01 -2.658595e-04 -1.878953e-01 -1.398815e-01 1.220522e-01 2.490347e-01 2.310799e-01 -3.077759e-02 -1.650828e-01 -2.848435e-01 -1.575513e-01 9.691699e-02 4.625560e-02 -2.684435e-02 4.462788e-02 9.003675e-02 7.051064e-03 6.329426e-02 -8.966716e-02 -1.341512e-01 -2.132375e-01 -2.588762e-02 7.294733e-02 4.139898e-02 -3.806982e-03 7.381362e-02 -8.448620e-02
<VARIANCE> 39
 1.785546e+01 2.148968e+01 3.348870e+01 3.164639e+01 5.332529e+01 5.754160e+01 6.876221e+01 7.685346e+01 7.157436e+01 5.240101e+01 4.118453e+01 4.745647e+01 1.788243e+01 4.006400e-01 7.618228e-01 9.671901e-01 1.180367e+00 1.688673e+00 1.807991e+00 2.212182e+00 2.429900e+00 2.333451e+00 2.216349e+00 1.971592e+00 1.895891e+00 2.249131e-01 6.408921e-02 1.129406e-01 1.580701e-01 1.972198e-01 2.502000e-01 3.143586e-01 3.990655e-01 4.098037e-01 3.854895e-01 3.512733e-01 3.190985e-01 2.951873e-01 3.817985e-02
<GCONST> 1.027219e+02
<MIXTURE> 7 1.325829e-01
<MEAN> 39
 2.087359e+00 -2.713926e+00 1.943903e+00 -2.806626e+00 -9.749070e+00 -4.906132e+00 3.895250e+00 7.037271e+00 8.029668e-01 -1.091906e+00 -1.114335e+00 -1.078073e+00 1.025915e+01 -1.394319e-01 -8.206306e-01 -3.536841e-01 -4.355156e-01 2.809575e-01 8.977216e-01 1.112031e+00 8.548595e-01 3.128569e-04 -3.067777e-01 -1.218575e-01 -3.028346e-01 5.987351e-01 -6.620488e-02 2.814397e-01 3.669271e-02 2.724612e-01 3.882557e-01 3.285204e-02 -2.474430e-01 -5.230296e-01 -1.729497e-01 -5.051406e-02 -2.273559e-02 6.992342e-02 -3.748327e-01
<VARIANCE> 39
 1.148966e+01 1.844810e+01 2.789829e+01 2.596198e+01 3.463668e+01 4.171284e+01 4.939471e+01 4.513624e+01 5.563251e+01 4.601624e+01 4.166213e+01 4.009735e+01 2.243610e+01 4.132822e-01 8.689960e-01 1.238233e+00 1.189418e+00 1.820210e+00 1.887246e+00 2.417292e+00 2.605406e+00 2.622480e+00 2.394733e+00 2.018920e+00 1.870661e+00 3.750424e-01 1.217013e-01 1.530955e-01 1.964043e-01 2.204471e-01 3.038466e-01 3.539764e-01 4.082805e-01 4.247612e-01 4.395804e-01 4.096588e-01 3.850277e-01 3.468148e-01 8.534093e-02
<GCONST> 1.043131e+02
<MIXTURE> 8 1.006617e-01
<MEAN> 39
 1.031474e+00 -6.932825e+00 1.606868e+00 -6.339678e+00 -3.633391e+00 -1.920510e+00 6.209331e+00 6.540198e+00 2.870372e-01 8.351771e-01 -3.677821e-01 2.227720e+00 1.144049e+01 -3.606855e-01 -6.087934e-01 -2.254003e-02 -1.354857e-03 5.216798e-01 8.144860e-01 1.018340e+00 3.701357e-01 -6.662423e-01 -4.789960e-01 4.904165e-02 -8.299617e-02 5.755540e-01 4.823780e-02 4.270488e-01 -9.239352e-02 3.997339e-01 8.322590e-02 -4.356429e-02 -4.569777e-01 -5.041112e-01 -4.498512e-03 1.806118e-02 1.146493e-01 -6.078330e-02 -4.527570e-01
<VARIANCE> 39
 2.180257e+01 2.643834e+01 4.577967e+01 4.294086e+01 6.467328e+01 6.498806e+01 8.657432e+01 8.814209e+01 9.623059e+01 9.045329e+01 9.302337e+01 1.073722e+02 2.412560e+01 8.814957e-01 1.651063e+00 2.074462e+00 2.216405e+00 3.453907e+00 3.768064e+00 4.865716e+00 4.368894e+00 4.438205e+00 3.908607e+00 3.943460e+00 3.770473e+00 8.507589e-01 1.983615e-01 2.957296e-01 3.858860e-01 4.796061e-01 5.646045e-01 6.773194e-01 8.695485e-01 9.431524e-01 9.271256e-01 8.339540e-01 7.572960e-01 7.598615e-01 2.428128e-01
<GCONST> 1.293721e+02
<STATE> 3
<NUMMIXES> 8
<MIXTURE> 1 1.549737e-01
<MEAN> 39
 1.902881e+00 -5.772370e+00 1.347662e-01 -2.701608e+00 -5.651205e+00 -2.143626e+00 3.083991e+00 7.750089e+00 3.856025e-01 -3.306384e+00 -1.841175e+00 -2.980680e-01 1.119303e+01 -1.102004e-02 -4.258895e-02 -6.480888e-02 -4.005731e-02 4.252809e-03 -3.791406e-02 -8.826000e-02 -3.862189e-02 -2.479655e-02 -6.819711e-02 -5.374579e-02 -1.691912e-02 -1.519870e-02 9.198425e-03 1.592934e-02 1.016917e-02 1.215649e-02 -4.085004e-03 -2.240629e-03 -1.017289e-03 1.384630e-03 1.982572e-02 1.914605e-02 6.659582e-04 3.403093e-03 -6.991618e-03
<VARIANCE> 39
 1.215679e+01 1.734085e+01 2.495617e+01 2.197389e+01 4.092715e+01 5.118773e+01 5.777463e+01 4.824150e+01 6.516534e+01 5.274264e+01 4.492351e+01 3.087192e+01 1.677914e+01 4.358811e-02 9.760898e-02 1.536126e-01 1.998706e-01 2.824426e-01 3.213883e-01 3.666696e-01 3.843478e-01 4.044242e-01 3.999366e-01 3.695610e-01 3.374427e-01 1.858463e-02 7.361626e-03 1.587814e-02 2.533392e-02 3.426724e-02 4.674111e-02 5.514384e-02 6.308816e-02 6.690537e-02 7.018935e-02 6.940733e-02 6.435778e-02 5.933069e-02 2.716238e-03
<GCONST> 5.158862e+01
<MIXTURE> 2 1.082997e-01
<MEAN> 39
 1.221639e+00 -6.540988e+00 -1.280211e+00 -5.389674e+00 -7.713679e+00 -3.113730e+00 2.046938e+00 3.624970e+00 -4.496258e+00 -6.326544e+00 -4.440388e+00 -2.760417e+00 9.457421e+00 -1.170587e-02 -6.927649e-02 -9.496689e-02 -3.477115e-02 2.467336e-02 -6.037732e-02 -1.298557e-01 -5.925237e-02 -6.052210e-02 -1.029285e-01 -6.825314e-02 3.895548e-03 -3.330822e-02 1.322968e-01 1.995002e-01 2.296238e-01 2.744638e-01 2.695117e-01 2.621443e-01 2.786726e-01 3.062925e-01 3.270194e-01 2.769458e-01 2.201177e-01 1.928638e-01 3.333097e-02
<VARIANCE> 39
 1.065394e+01 2.126833e+01 2.933577e+01 2.557121e+01 4.923182e+01 4.616322e+01 5.625868e+01 5.343079e+01 6.206916e+01 5.219474e+01 4.487357e+01 4.145931e+01 1.759459e+01 9.926553e-02 2.305500e-01 3.632516e-01 4.760474e-01 6.605228e-01 7.315670e-01 8.213352e-01 8.512967e-01 8.905028e-01 8.665969e-01 7.749512e-01 6.948212e-01 4.482600e-02 1.395597e-02 3.263871e-02 5.075352e-02 6.728438e-02 9.688579e-02 1.099013e-01 1.235327e-01 1.291647e-01 1.374291e-01 1.413750e-01 1.319715e-01 1.236013e-01 6.338903e-03
<GCONST> 7.216474e+01
<MIXTURE> 3 2.029019e-01
<MEAN> 39
 3.791633e+00 -3.241242e+00 -9.328905e-01 -3.164712e-01 -6.314399e+00 -4.163506e+00 2.854303e+00 6.621563e+00 2.367552e+00 -4.746485e+00 -2.970808e+00 -1.317481e-01 8.027076e+00 3.819583e-03 -4.452012e-02 -7.352131e-02 -1.638084e-03 4.961626e-02 4.390038e-03 -4.157573e-02 2.069532e-02 -2.045317e-02 -1.074285e-01 -7.850014e-02 -9.989883e-03 -4.228686e-02 -1.442069e-02 2.358765e-03 2.449222e-02 -6.951033e-02 3.657572e-03 -1.200103e-02 -7.912584e-02 -8.273865e-02 -7.797260e-02 8.309739e-02 3.665340e-04 -3.257915e-02 -1.388268e-02
<VARIANCE> 39
 1.019050e+01 2.069520e+01 2.271548e+01 2.531595e+01 4.175853e+01 4.854669e+01 6.059671e+01 4.679273e+01 6.168618e+01 5.272290e+01 4.415679e+01 3.822548e+01 1.899004e+01 1.433759e-01 3.568143e-01 5.490899e-01 6.795133e-01 9.886518e-01 1.136400e+00 1.322150e+00 1.344152e+00 1.358317e+00 1.342041e+00 1.212053e+00 1.122077e+00 1.000213e-01 2.189747e-02 5.579560e-02 8.451548e-02 1.134116e-01 1.600281e-01 1.920443e-01 2.247391e-01 2.386617e-01 2.270246e-01 2.354182e-01 2.089749e-01 1.937609e-01 1.496208e-02
<GCONST> 8.464711e+01
<MIXTURE> 4 8.552008e-02
<MEAN> 39
 1.894610e+00 -5.761846e+00 2.831743e-01 -3.591721e+00 -5.453228e+00 -5.549793e-01 4.561726e+00 6.268542e+00 -2.352587e+00 -4.161794e+00 -2.425666e+00 -9.032141e-01 1.022524e+01 2.826138e-01 3.561185e-01 4.434178e-01 5.977419e-01 6.533155e-01 6.230060e-01 6.081583e-01 6.669829e-01 6.212853e-01 4.920938e-01 4.647182e-01 4.289875e-01 8.655574e-02 -7.357670e-03 -8.269526e-03 -2.966788e-02 -3.404227e-02 -5.476710e-02 -7.578892e-02 -6.836653e-02 -3.352904e-02 -1.257373e-02 -2.148370e-02 -3.796581e-02 -2.917887e-02 -1.931453e-02
<VARIANCE> 39
 1.064758e+01 1.910606e+01 2.818126e+01 2.385584e+01 4.732956e+01 4.421116e+01 5.613408e+01 5.394187e+01 6.162241e+01 5.219526e+01 4.387479e+01 3.931863e+01 1.722134e+01 6.881335e-02 1.626487e-01 2.523933e-01 3.147519e-01 4.532162e-01 4.886484e-01 5.752131e-01 5.986752e-01 6.391843e-01 6.628855e-01 6.087317e-01 5.709814e-01 3.332613e-02 1.370660e-02 3.068450e-02 4.800520e-02 6.563978e-02 8.684418e-02 9.930802e-02 1.147721e-01 1.202494e-01 1.243475e-01 1.212750e-01 1.120255e-01 1.002475e-01 5.173282e-03
<GCONST> 6.610664e+01
<MIXTURE> 5 1.633437e-01
<MEAN> 39
 3.480124e+00 -1.153285e+00 3.801966e+00 -8.234407e-02 -1.038087e+01 -5.515412e+00 3.055426e+00 3.976147e+00 -3.163544e-01 -1.128817e+00 -1.530535e-01 4.963710e-01 7.532782e+00 2.846020e-02 -1.935656e-02 -4.280950e-02 7.930643e-03 2.501057e-02 -1.191669e-02 -3.830598e-02 2.020002e-02 1.234185e-02 -2.506649e-02 -4.038926e-02 -1.063514e-02 -4.125476e-02 -9.851059e-05 -8.131364e-03 -1.651382e-02 -1.486408e-02 3.206559e-02 -1.195012e-02 -4.265234e-02 6.935889e-04 -3.359502e-03 -2.345602e-02 -1.497408e-02 -2.543260e-03 -3.772041e-03
<VARIANCE> 39
 1.003530e+01 1.762926e+01 3.003849e+01 3.215282e+01 3.908813e+01 4.999967e+01 5.163342e+01 4.803139e+01 5.027098e+01 4.978419e+01 5.268686e+01 5.183435e+01 1.713650e+01 5.682929e-02 1.443823e-01 2.470712e-01 3.147630e-01 4.362281e-01 5.176866e-01 5.999043e-01 6.347118e-01 6.564306e-01 6.685987e-01 6.412206e-01 5.754057e-01 3.678321e-02 9.794360e-03 2.432138e-02 4.206970e-02 5.818544e-02 7.978143e-02 9.735270e-02 1.112216e-01 1.203438e-01 1.232289e-01 1.244297e-01 1.231853e-01 1.119474e-01 5.384393e-03
<GCONST> 6.555245e+01
<MIXTURE> 6 1.357039e-01
<MEAN> 39
 1.482834e+00 -5.176915e+00 3.915780e+00 -5.281704e+00 -8.674664e+00 -9.009346e-01 5.836941e+00 6.113221e+00 -4.530102e+00 -6.175931e-01 -6.268005e-01 -1.263717e+00 9.837641e+00 -2.612598e-02 -1.252344e-01 -1.466075e-01 -4.856613e-02 -1.811811e-02 -9.907679e-02 -1.566361e-01 -7.247929e-02 -1.634983e-01 -2.002707e-01 -8.512330e-02 -7.753079e-04 -5.503256e-02 4.346534e-02 4.392543e-02 -7.843678e-02 9.322029e-02 7.289124e-03 -1.153430e-01 -1.096752e-01 -3.006921e-02 1.322953e-01 -7.613962e-02 -4.966135e-02 3.120895e-02 -5.453164e-02
<VARIANCE> 39
 9.070771e+00 1.894916e+01 2.372396e+01 2.091401e+01 3.712765e+01 4.508311e+01 4.229455e+01 5.245674e+01 4.540109e+01 4.782947e+01 4.286896e+01 4.201524e+01 1.422635e+01 1.836363e-01 3.888043e-01 5.569592e-01 7.049374e-01 9.328019e-01 1.078403e+00 1.179200e+00 1.321932e+00 1.327867e+00 1.354342e+00 1.207988e+00 1.087302e+00 1.048421e-01 2.342938e-02 4.868248e-02 7.012792e-02 9.191218e-02 1.264441e-01 1.522225e-01 1.772495e-01 1.858850e-01 1.900002e-01 1.887948e-01 1.789020e-01 1.645369e-01 1.430221e-02
<GCONST> 8.118816e+01
<MIXTURE> 7 8.871432e-02
<MEAN> 39
 2.310563e+00 -5.425883e+00 7.497404e-01 -2.722033e+00 -4.295368e+00 5.929887e-01 5.701805e+00 7.558190e+00 -1.369806e+00 -3.537160e+00 -1.736668e+00 -4.182139e-01 1.049813e+01 -8.664186e-02 -1.751732e-01 -2.289805e-01 -2.016728e-01 -1.578097e-01 -2.394578e-01 -3.058131e-01 -2.242419e-01 -2.194178e-01 -2.430188e-01 -1.723554e-01 -1.201834e-01 -6.176604e-02 -9.666719e-02 -1.358802e-01 -1.901357e-01 -2.213873e-01 -2.504644e-01 -2.793303e-01 -2.824757e-01 -2.476023e-01 -2.032994e-01 -1.947015e-01 -1.912485e-01 -1.445656e-01 -5.343518e-02
<VARIANCE> 39
 1.035328e+01 1.799725e+01 2.691066e+01 2.356968e+01 4.596288e+01 4.092323e+01 5.394700e+01 5.182664e+01 6.134935e+01 5.015999e+01 4.161992e+01 3.788149e+01 1.723667e+01 8.292167e-02 1.959394e-01 2.983294e-01 3.811729e-01 5.477847e-01 5.729412e-01 6.608796e-01 6.898971e-01 7.149980e-01 7.055231e-01 6.431678e-01 5.694017e-01 3.567750e-02 1.242270e-02 2.885703e-02 4.315979e-02 5.908444e-02 7.665104e-02 9.027959e-02 1.021621e-01 1.094237e-01 1.162538e-01 1.150626e-01 1.084804e-01 1.037553e-01 4.807190e-03
<GCONST> 6.630325e+01
<MIXTURE> 8 6.054277e-02
<MEAN> 39
 2.314213e+00 -4.018251e+00 6.976533e-01 -1.430033e+00 -4.414468e+00 -3.319771e+00 1.397147e+00 3.955988e+00 1.580942e-01 -1.603531e+00 -5.437886e-01 9.893616e-01 7.909118e+00 6.687710e-03 -9.769371e-03 2.275999e-02 1.948025e-01 1.152067e-01 5.746154e-03 4.261415e-03 -2.210546e-02 -1.223423e-01 -1.240380e-01 1.007089e-01 9.618222e-02 -6.107635e-02 2.078900e-02 1.968349e-01 -5.357363e-03 6.781279e-02 9.180868e-02 2.547775e-02 -1.150476e-01 -1.858247e-01 1.031332e-02 1.074531e-01 1.247488e-02 -3.301211e-02 -1.710821e-01
<VARIANCE> 39
 2.285765e+01 3.771951e+01 4.490767e+01 4.461905e+01 6.918671e+01 6.557775e+01 7.871354e+01 7.082674e+01 7.352351e+01 7.597902e+01 7.995100e+01 8.031864e+01 3.704931e+01 6.339135e-01 1.160219e+00 1.702554e+00 1.774246e+00 2.611987e+00 2.646300e+00 3.012429e+00 3.100732e+00 3.062660e+00 2.765834e+00 2.631676e+00 2.487876e+00 7.057694e-01 1.481721e-01 2.471099e-01 2.748118e-01 3.455270e-01 4.417995e-01 5.072480e-01 5.959373e-01 6.683474e-01 5.990323e-01 5.489976e-01 4.984466e-01 4.526564e-01 1.650911e-01
<GCONST> 1.202463e+02
<STATE> 4
<NUMMIXES> 8
<MIXTURE> 1 6.727308e-02
<MEAN> 39
 -2.204273e+00 -6.802905e+00 2.254391e-01 -1.999149e-01 -4.792672e-01 1.318373e+00 4.082084e+00 1.031326e+01 1.530398e+01 1.961189e+01 1.326012e+01 -1.290601e+00 1.063569e+01 1.057999e-02 -8.569757e-03 -7.809998e-03 -5.127644e-03 1.192188e-02 2.089601e-02 -2.284716e-02 1.693860e-03 5.094181e-03 -1.898501e-02 6.427024e-03 7.292163e-03 -9.609696e-03 -1.128336e-03 -7.597029e-03 -1.712492e-02 -1.791305e-02 -1.158935e-02 -5.566826e-03 4.922130e-03 1.508582e-04 -2.267890e-02 -2.799381e-02 -2.649917e-03 2.561558e-02 -1.896618e-03
<VARIANCE> 39
 1.018119e+01 2.291459e+01 2.823680e+01 3.372131e+01 7.613670e+01 4.396904e+01 4.657566e+01 9.147056e+01 5.375163e+01 5.521231e+01 4.956103e+01 1.127041e+02 1.397654e+01 1.129984e-01 2.328426e-01 3.577831e-01 3.856984e-01 3.576843e-01 4.381883e-01 5.372842e-01 4.985915e-01 5.645049e-01 6.270862e-01 5.413537e-01 6.230747e-01 3.298842e-02 1.820386e-02 3.744389e-02 5.912526e-02 6.585155e-02 6.101606e-02 8.106487e-02 9.705003e-02 8.882289e-02 1.029204e-01 1.152845e-01 9.940542e-02 1.066294e-01 5.083521e-03
<GCONST> 6.823164e+01
<MIXTURE> 2 1.100330e-01
<MEAN> 39
 2.983202e+00 -3.058672e+00 1.363552e+00 -1.819001e+00 -7.904109e+00 -4.565095e+00 2.740953e+00 5.333570e+00 -1.802867e+00 -3.888919e+00 -2.104485e+00 -7.283778e-01 7.704700e+00 2.869810e-01 3.243626e-01 2.326527e-03 3.012970e-01 1.121482e-01 -4.951474e-01 -7.595260e-01 -1.992918e-01 2.568639e-01 1.721458e-01 -9.282355e-02 8.847301e-02 -4.448010e-01 9.227691e-02 1.850800e-01 7.793069e-02 1.674555e-01 1.861047e-01 -2.376168e-02 -2.622622e-01 -2.678570e-01 5.312273e-02 1.447912e-01 -1.016694e-02 1.697029e-02 -2.090449e-01
<VARIANCE> 39
 1.103425e+01 2.278463e+01 3.050712e+01 3.293548e+01 3.755115e+01 4.478249e+01 5.440070e+01 5.277798e+01 6.567798e+01 5.463150e+01 4.943615e+01 4.826689e+01 2.205107e+01 1.853232e-01 4.246169e-01 7.779726e-01 7.887819e-01 1.291180e+00 1.329427e+00 1.569818e+00 1.659444e+00 1.760261e+00 1.718125e+00 1.542021e+00 1.356447e+00 1.090356e-01 3.945228e-02 7.984938e-02 1.265855e-01 1.547884e-01 1.995698e-01 2.593994e-01 2.969257e-01 3.205717e-01 3.234787e-01 3.240328e-01 3.034060e-01 2.623468e-01 3.260047e-02
<GCONST> 9.344330e+01
<MIXTURE> 3 1.445494e-01
<MEAN> 39
 4.349473e+00 -4.048100e+00 -5.851863e+00 -3.665241e+00 2.954348e+00 -4.172488e-01 -3.723424e+00 4.750995e+00 4.415437e+00 -3.152184e+00 -4.787441e+00 -8.334662e-01 7.967715e+00 1.069509e-01 1.188899e-01 -1.662626e-01 -9.499236e-02 1.848653e-01 1.461782e-01 -2.697700e-01 -2.734944e-01 1.006323e-01 2.234538e-01 3.743025e-02 -2.056025e-01 -1.300898e-01 1.621260e-03 2.694951e-02 3.857021e-02 2.441561e-03 -7.221295e-02 -1.876968e-02 3.596260e-02 -4.269553e-02 -5.338643e-02 3.677839e-02 7.293305e-02 1.131412e-02 -2.074115e-02
<VARIANCE> 39
 1.049634e+01 2.196534e+01 2.249640e+01 2.616329e+01 3.802592e+01 5.287859e+01 5.680946e+01 5.349345e+01 6.755354e+01 6.062560e+01 5.270451e+01 6.165146e+01 1.863789e+01 9.524632e-02 2.317531e-01 3.868977e-01 5.070435e-01 7.362195e-01 8.313816e-01 9.515898e-01 1.008688e+00 1.008513e+00 9.703513e-01 9.412614e-01 8.946564e-01 5.347387e-02 1.531895e-02 3.803962e-02 5.920148e-02 8.304806e-02 1.113195e-01 1.304522e-01 1.519689e-01 1.752620e-01 1.728318e-01 1.651490e-01 1.625223e-01 1.476203e-01 7.908236e-03
<GCONST> 7.660713e+01
<MIXTURE> 4 9.471260e-02
<MEAN> 39
 -1.986410e+00 -1.102353e+01 -2.935809e+00 -4.352203e+00 -1.680070e+00 -4.636227e-02 2.009610e+00 4.629085e+00 -2.870149e+00 2.660473e+00 9.109181e+00 1.261938e+01 1.069176e+01 3.309905e-02 5.757337e-03 -2.909302e-02 3.990255e-02 5.861385e-02 -2.737573e-02 -4.210407e-02 5.908120e-02 4.583533e-02 -2.220247e-02 9.322471e-03 4.404122e-02 -3.828087e-02 1.971109e-01 2.907333e-01 3.174332e-01 3.031892e-01 2.776092e-01 2.462085e-01 2.151401e-01 1.647456e-01 1.217003e-01 1.440952e-02 -6.627637e-02 -8.948351e-02 6.331205e-02
<VARIANCE> 39
 1.293165e+01 2.144032e+01 3.166878e+01 3.363706e+01 6.515268e+01 4.981557e+01 6.371938e+01 5.792029e+01 7.819220e+01 9.946790e+01 1.019436e+02 8.243404e+01 1.810263e+01 1.883120e-01 3.974155e-01 5.892716e-01 6.892260e-01 8.248565e-01 8.185256e-01 9.505097e-01 9.783695e-01 9.158013e-01 9.338538e-01 9.554216e-01 8.895498e-01 6.579763e-02 2.236547e-02 4.606561e-02 7.078837e-02 9.546451e-02 1.128949e-01 1.267406e-01 1.587825e-01 1.812220e-01 1.792558e-01 1.767577e-01 1.760258e-01 1.607609e-01 8.515398e-03
<GCONST> 8.301119e+01
<MIXTURE> 5 7.663909e-02
<MEAN> 39
 2.808069e+00 -5.609879e+00 1.030975e+00 -2.537897e+00 -2.902193e+00 -3.354952e+00 9.061252e-02 4.235681e+00 9.971853e-01 -2.859287e-01 6.432047e-01 2.429895e+00 7.445831e+00 6.462041e-02 2.483708e-01 -2.275232e-02 1.975846e-01 1.608261e-01 -3.683423e-02 -2.013982e-01 -2.707444e-01 -1.238134e-01 6.094271e-02 3.580407e-02 2.385866e-02 -2.898048e-01 -5.223579e-02 1.827152e-01 -4.604310e-02 1.150976e-01 1.133873e-01 1.175612e-01 -7.828619e-03 -1.532208e-01 -8.204561e-02 4.897102e-02 1.364810e-03 -3.826393e-03 -9.037241e-02
<VARIANCE> 39
 2.595423e+01 5.011338e+01 5.096190e+01 5.079931e+01 7.106909e+01 6.574480e+01 9.205770e+01 8.812617e+01 9.500788e+01 8.451279e+01 8.854314e+01 1.104806e+02 4.229328e+01 9.469388e-01 1.711450e+00 2.197815e+00 2.329693e+00 2.972689e+00 3.334515e+00 3.998097e+00 4.108784e+00 3.869198e+00 3.494797e+00 3.347312e+00 3.266454e+00 1.230390e+00 1.716571e-01 3.146188e-01 3.668835e-01 4.169686e-01 5.167606e-01 5.734149e-01 7.146161e-01 7.897958e-01 7.363436e-01 6.550031e-01 6.053402e-01 5.988100e-01 2.057111e-01
<GCONST> 1.285839e+02
<MIXTURE> 6 1.790616e-01
<MEAN> 39
 -9.803908e-02 -8.329946e+00 -8.216453e-01 -1.982056e+00 1.693693e-01 2.834945e+00 4.794033e+00 5.025836e+00 -4.480821e+00 4.449640e-01 8.309509e+00 1.351699e+01 1.071040e+01 1.369918e-02 -7.375575e-03 -1.857735e-02 1.496241e-02 2.551008e-02 -1.190833e-02 -4.552600e-02 2.354234e-02 2.608103e-02 -2.135296e-02 -7.349806e-03 2.939307e-02 -2.398527e-02 -2.763368e-02 -3.093107e-02 -5.488615e-02 -6.741302e-02 -6.772806e-02 -6.420605e-02 -5.149123e-02 -2.210467e-02 7.136333e-03 -1.501275e-03 -1.295612e-02 -6.151505e-03 -2.028774e-02
<VARIANCE> 39
 1.140441e+01 1.838276e+01 2.628407e+01 2.827471e+01 6.119009e+01 5.071229e+01 5.891780e+01 4.925403e+01 4.519997e+01 6.138951e+01 7.171886e+01 5.442653e+01 1.854774e+01 9.863228e-02 2.186956e-01 3.292560e-01 3.967470e-01 5.162161e-01 4.949830e-01 5.719916e-01 5.976238e-01 5.813270e-01 5.612692e-01 6.012587e-01 5.500206e-01 3.313511e-02 1.451908e-02 3.224458e-02 4.943129e-02 6.299970e-02 8.113229e-02 8.213516e-02 9.561059e-02 1.053754e-01 1.053087e-01 9.938830e-02 1.062596e-01 9.989300e-02 4.726161e-03
<GCONST> 6.731474e+01
<MIXTURE> 7 1.658712e-01
<MEAN> 39
 1.686352e+00 -8.962770e+00 -3.205572e+00 -2.741007e+00 2.587758e+00 3.850988e-01 2.344708e+00 8.568564e+00 -1.512068e+00 -5.081096e+00 -1.960898e+00 4.499126e+00 1.121100e+01 1.546163e-01 8.779112e-02 -2.091529e-01 -2.580116e-02 1.577070e-01 -1.087463e-01 -4.237274e-01 1.128585e-02 4.160769e-01 8.662201e-02 -2.089011e-01 -9.823807e-02 -1.660108e-01 4.429382e-02 9.485305e-02 1.093812e-02 -7.726011e-02 -2.036425e-01 -1.509531e-01 -1.558361e-01 -1.731254e-01 6.631252e-02 1.315512e-01 2.707340e-02 -1.103450e-01 -1.109897e-01
<VARIANCE> 39
 1.250961e+01 1.706443e+01 2.606789e+01 2.605450e+01 5.366874e+01 4.557077e+01 6.584052e+01 5.048419e+01 6.776847e+01 4.143055e+01 4.942426e+01 5.556843e+01 1.521062e+01 2.906818e-01 5.924197e-01 8.553280e-01 1.022658e+00 1.814817e+00 1.591496e+00 1.967046e+00 1.922135e+00 1.952354e+00 1.706793e+00 1.623811e+00 1.659344e+00 1.514964e-01 4.416606e-02 9.147986e-02 1.261473e-01 1.599832e-01 2.184570e-01 2.632597e-01 3.155589e-01 3.139146e-01 3.159010e-01 2.836584e-01 2.729940e-01 2.709220e-01 2.552903e-02
<GCONST> 9.559138e+01
<MIXTURE> 8 1.618600e-01
<MEAN> 39
 -6.325375e-01 -8.204179e+00 9.714429e-01 -1.785920e+00 -9.544324e-01 1.736179e+00 4.979797e+00 5.297140e+00 -7.113410e-01 5.911315e+00 1.176879e+01 1.260031e+01 1.095390e+01 2.120354e-02 1.931541e-03 -3.315347e-02 6.520681e-02 7.872493e-02 -2.866359e-02 -4.156572e-02 5.237251e-02 2.507351e-02 -1.290015e-03 7.133788e-02 5.836679e-02 -4.711797e-02 -3.636960e-02 -5.881989e-02 -1.303116e-01 -1.248125e-01 -1.240054e-01 -1.422631e-01 -1.180549e-01 -4.533685e-04 4.229868e-02 -2.733868e-02 -8.092965e-02 -2.163738e-02 -5.192780e-02
<VARIANCE> 39
 1.296349e+01 2.374022e+01 3.108079e+01 3.693579e+01 6.701678e+01 5.379336e+01 6.256843e+01 6.256026e+01 9.703508e+01 1.088301e+02 7.826530e+01 9.579395e+01 2.069324e+01 2.919772e-01 6.140243e-01 8.716587e-01 1.056842e+00 1.245171e+00 1.314213e+00 1.532077e+00 1.551570e+00 1.600453e+00 1.752002e+00 1.818552e+00 1.635202e+00 1.294484e-01 4.138124e-02 8.243560e-02 1.167931e-01 1.544894e-01 1.751410e-01 2.070403e-01 2.465764e-01 2.549055e-01 2.600515e-01 2.873996e-01 2.928315e-01 2.640647e-01 1.705666e-02
<GCONST> 9.676138e+01
<STATE> 5
<NUMMIXES> 8
<MIXTURE> 1 2.091257e-01
<MEAN> 39
 4.662761e+00 7.653250e-01 1.389732e+00 -2.283149e-01 -4.577360e+00 -4.094316e+00 -2.694947e-01 1.011830e+00 -1.313466e+00 -2.870245e+00 -2.533481e+00 -1.546052e+00 2.573766e+00 3.459497e-02 2.557886e-01 2.262938e-02 1.743561e-01 1.599905e-01 -2.921616e-02 -2.003863e-01 -2.738126e-01 -4.000574e-02 1.321619e-01 9.482661e-04 -1.285691e-02 -2.712848e-01 -3.041903e-02 -1.193146e-02 1.683941e-02 -7.974995e-03 -7.533393e-03 1.019360e-02 4.837748e-03 -1.463547e-02 -1.676165e-03 -1.276362e-03 -4.624503e-04 5.157803e-03 1.065576e-03
<VARIANCE> 39
 1.499714e+01 2.335423e+01 4.237624e+01 4.246790e+01 5.425098e+01 4.966457e+01 5.398526e+01 5.137928e+01 5.694354e+01 6.047021e+01 5.180485e+01 5.852665e+01 1.781336e+01 1.751986e-01 4.123903e-01 6.506115e-01 8.217016e-01 1.097648e+00 1.201011e+00 1.455112e+00 1.534783e+00 1.603272e+00 1.507762e+00 1.462260e+00 1.343840e+00 1.577442e-01 2.814914e-02 6.185700e-02 1.032443e-01 1.433889e-01 1.869882e-01 2.201040e-01 2.509746e-01 2.682794e-01 2.831829e-01 2.680641e-01 2.578663e-01 2.404579e-01 1.767849e-02
<GCONST> 9.158791e+01
<MIXTURE> 2 1.106936e-01
<MEAN> 39
 1.488282e+00 3.527610e+00 2.087743e+00 3.067455e+00 -3.316802e+00 -4.908507e+00 -6.856112e-01 -1.086763e+00 -2.250252e+00 -3.078395e+00 -2.371648e+00 -1.382215e+00 1.005535e+00 -1.515142e+00 1.394221e+00 -1.268423e-01 1.136759e+00 1.012094e+00 7.766208e-01 3.478755e-01 -6.989345e-01 -1.099520e-01 -5.105172e-02 1.887916e-01 -3.689936e-01 -1.358743e+00 -3.314745e-01 -4.120609e-01 -2.180302e-01 -3.562184e-01 -5.465947e-02 2.002003e-01 3.304721e-01 4.640394e-01 2.840585e-01 2.851157e-01 1.815755e-01 1.590763e-01 3.192684e-01
<VARIANCE> 39
 2.653085e+01 3.309645e+01 4.416849e+01 3.337568e+01 5.038082e+01 4.399958e+01 4.962117e+01 4.838864e+01 4.952076e+01 5.197480e+01 4.943370e+01 4.691572e+01 3.086149e+01 3.099390e+00 3.124812e+00 2.640320e+00 3.350984e+00 3.733836e+00 3.957094e+00 4.104498e+00 4.676575e+00 4.149796e+00 4.071099e+00 3.774742e+00 3.755668e+00 2.432495e+00 3.076731e-01 3.635573e-01 3.878905e-01 4.296417e-01 5.818366e-01 6.324655e-01 7.032129e-01 7.270833e-01 6.834500e-01 6.580499e-01 6.120018e-01 5.439185e-01 2.666498e-01
<GCONST> 1.278620e+02
<MIXTURE> 3 1.358778e-01
<MEAN> 39
 5.452107e+00 -4.223718e+00 -6.754223e+00 -4.283928e+00 2.632947e+00 4.867468e-01 -5.871090e+00 1.926035e+00 5.770991e+00 -9.772505e-02 -3.836674e+00 -4.828264e+00 8.152864e+00 3.554564e-01 6.190311e-01 -2.085492e-01 -2.917837e-01 2.013339e-01 4.041120e-01 -3.898061e-01 -1.115763e+00 -4.001800e-01 6.438907e-01 7.685741e-01 -2.683719e-01 -5.450388e-01 -3.271040e-02 1.268986e-01 2.369854e-01 9.243929e-02 -1.726072e-01 -1.142549e-01 2.137749e-01 -2.153012e-02 -3.109610e-01 -1.167824e-01 1.299843e-01 2.300914e-01 -1.058676e-01
<VARIANCE> 39
 1.271275e+01 2.100946e+01 2.784448e+01 4.108866e+01 6.059950e+01 6.373066e+01 5.531090e+01 5.879317e+01 6.158139e+01 6.879813e+01 5.775169e+01 4.980587e+01 1.806571e+01 2.598811e-01 5.780129e-01 9.378262e-01 1.252957e+00 1.608098e+00 1.942443e+00 2.178853e+00 2.216672e+00 2.342548e+00 2.300710e+00 2.227435e+00 2.074040e+00 2.037493e-01 4.214094e-02 8.859129e-02 1.462395e-01 2.139625e-01 2.535807e-01 3.064977e-01 3.360916e-01 3.766183e-01 3.720427e-01 3.838360e-01 3.764547e-01 3.022459e-01 3.295395e-02
<GCONST> 1.012575e+02
<MIXTURE> 4 1.174690e-01
<MEAN> 39
 2.604520e+00 -6.670371e+00 -2.101523e+00 -3.491295e+00 -2.830745e+00 -2.778565e+00 2.282204e+00 9.050535e+00 1.062837e+00 -4.465127e+00 -3.829612e+00 1.017223e+00 1.046758e+01 6.462042e-01 7.387059e-01 1.489944e-01 2.328814e-01 -4.858820e-01 -1.121401e+00 -1.744403e+00 -8.126468e-01 7.647228e-01 7.081375e-01 -2.927974e-01 -3.428132e-01 -9.707354e-01 3.550219e-02 3.740582e-01 2.565301e-01 3.551368e-01 5.610369e-02 -6.060518e-02 -3.136831e-01 -7.779161e-01 -3.631277e-01 7.742818e-02 1.053948e-01 -1.607181e-01 -4.513057e-01
<VARIANCE> 39
 1.275213e+01 1.828752e+01 2.600555e+01 2.581943e+01 4.805075e+01 4.281083e+01 6.455218e+01 4.610389e+01 6.745818e+01 4.872095e+01 4.314339e+01 4.745200e+01 1.700663e+01 3.502592e-01 8.353683e-01 1.220174e+00 1.421909e+00 2.330994e+00 2.172002e+00 2.535910e+00 3.186510e+00 2.934682e+00 2.593550e+00 2.297529e+00 2.311273e+00 2.977046e-01 8.584213e-02 1.401736e-01 1.969517e-01 2.386130e-01 3.431801e-01 3.739066e-01 4.912576e-01 4.463345e-01 5.333151e-01 4.985034e-01 4.098848e-01 3.917031e-01 5.585806e-02
<GCONST> 1.062551e+02
<MIXTURE> 5 8.411155e-02
<MEAN> 39
 3.366527e-01 -7.404563e+00 -7.218538e-01 -2.722121e+00 -1.363021e+00 -1.991504e+00 2.022483e+00 5.158156e+00 1.941285e-01 4.659498e+00 9.837215e+00 1.224003e+01 8.734209e+00 2.905653e-01 4.962001e-01 -1.590059e-01 -2.776890e-02 -3.793427e-01 -7.597867e-01 -7.080979e-01 -4.487323e-01 3.427908e-01 2.141825e-01 -1.128506e-03 8.337376e-02 -7.115176e-01 3.230476e-02 1.718422e-01 2.799784e-02 6.681181e-02 -9.100931e-02 -6.605656e-02 -8.211486e-02 -1.301810e-01 4.380421e-02 -1.087464e-01 -2.749910e-01 -3.058006e-01 -1.595366e-01
<VARIANCE> 39
 1.638164e+01 2.412923e+01 3.976644e+01 3.978409e+01 7.436449e+01 7.049623e+01 7.920374e+01 6.705420e+01 9.926590e+01 1.093738e+02 8.454216e+01 1.043604e+02 2.360189e+01 6.719468e-01 1.083517e+00 1.478333e+00 1.906226e+00 2.648596e+00 2.973244e+00 3.496797e+00 3.312178e+00 3.638344e+00 3.578112e+00 3.638603e+00 3.646314e+00 6.386254e-01 1.073949e-01 1.761859e-01 2.421368e-01 3.332060e-01 4.120254e-01 5.246819e-01 6.124530e-01 5.832711e-01 6.176050e-01 6.379029e-01 5.859458e-01 5.897157e-01 1.041795e-01
<GCONST> 1.203379e+02
<MIXTURE> 6 1.428342e-01
<MEAN> 39
 4.993934e+00 -6.806700e-01 1.366317e+00 1.459763e+00 -4.665635e+00 -6.308428e+00 -3.898010e+00 1.706488e+00 2.319096e-01 -2.960344e+00 -3.304709e+00 -9.129941e-01 4.018554e+00 9.074322e-02 1.232198e+00 5.859880e-01 1.060551e+00 8.625975e-01 -5.186302e-02 -6.137531e-01 -1.821771e+00 -7.247512e-01 1.698592e-01 -2.311391e-01 -4.586335e-01 -1.501240e+00 -2.275131e-01 -2.086706e-02 6.831575e-03 -1.324322e-01 4.011711e-02 2.608761e-01 4.524447e-01 7.677235e-02 -1.500975e-01 -2.179012e-02 6.805831e-02 9.316681e-03 6.911623e-02
<VARIANCE> 39
 9.932471e+00 2.014096e+01 2.706744e+01 2.448963e+01 3.511080e+01 3.553840e+01 4.257742e+01 4.345516e+01 5.096088e+01 4.812090e+01 4.580548e+01 4.443362e+01 1.650793e+01 6.770722e-01 1.095977e+00 1.717179e+00 1.701929e+00 2.659089e+00 2.859561e+00 3.201251e+00 3.713560e+00 3.793776e+00 3.376435e+00 3.129342e+00 2.751606e+00 6.605356e-01 7.867207e-02 1.455017e-01 2.097220e-01 2.236517e-01 3.016408e-01 3.454133e-01 4.042092e-01 5.080325e-01 4.768748e-01 4.599971e-01 4.158348e-01 3.918709e-01 9.076355e-02
<GCONST> 1.088133e+02
<MIXTURE> 7 9.594142e-02
<MEAN> 39
 2.647706e+00 -2.099276e+00 4.657243e+00 -3.319072e+00 -1.154966e+01 -5.031146e+00 2.404826e+00 3.629504e+00 -3.802256e+00 -5.183700e-01 -3.746614e-01 -1.027073e+00 7.210727e+00 4.243349e-01 9.989496e-01 4.302904e-01 9.457847e-01 2.579513e-01 -8.454004e-01 -1.162175e+00 -1.053639e+00 -1.573723e-01 -2.606142e-01 -2.166451e-01 2.637648e-01 -1.268771e+00 -4.190821e-03 2.023619e-01 -3.973541e-02 3.048764e-01 5.293220e-01 1.547680e-01 -3.299128e-02 -3.158040e-01 3.429363e-02 -1.798705e-01 -2.237389e-01 -8.557320e-02 -3.121199e-01
<VARIANCE> 39
 1.102250e+01 2.103127e+01 2.965149e+01 3.408834e+01 3.025108e+01 4.847466e+01 4.815991e+01 5.479225e+01 5.430400e+01 5.505499e+01 4.980335e+01 5.258133e+01 1.669816e+01 5.019469e-01 9.191004e-01 1.343542e+00 1.509376e+00 2.272760e+00 2.395406e+00 2.672065e+00 2.819092e+00 2.965657e+00 2.850520e+00 2.523041e+00 2.223168e+00 5.099561e-01 9.579136e-02 1.572158e-01 2.105687e-01 2.469609e-01 3.068743e-01 4.499663e-01 4.179953e-01 4.906969e-01 4.766109e-01 5.037217e-01 4.339314e-01 4.227283e-01 8.555502e-02
<GCONST> 1.084341e+02
<MIXTURE> 8 1.039466e-01
<MEAN> 39
 4.688976e+00 -5.029332e+00 -7.372139e-01 -3.504147e+00 -3.703707e+00 -6.116006e+00 -2.695924e+00 4.423832e+00 2.465420e+00 -2.132035e-01 -1.690302e+00 1.299178e+00 7.895686e+00 1.962133e-01 1.908797e+00 3.222000e-01 1.507396e+00 1.340661e-01 -4.313727e-01 -1.544536e+00 -2.340270e+00 -7.353253e-01 -1.299971e-01 -1.071946e-01 -7.061861e-01 -2.009573e+00 -4.119672e-01 3.778982e-01 6.498197e-02 4.232256e-01 2.456376e-01 4.457529e-01 4.342084e-01 -2.623360e-01 -4.665153e-01 -3.240395e-01 -1.425866e-02 -1.830009e-01 -2.996442e-01
<VARIANCE> 39
 1.625491e+01 2.675875e+01 4.629549e+01 3.575616e+01 5.892667e+01 5.868879e+01 7.254256e+01 6.489589e+01 7.669106e+01 7.255616e+01 7.732040e+01 8.268694e+01 2.033693e+01 1.231816e+00 1.821593e+00 2.645280e+00 2.668638e+00 3.891153e+00 4.224326e+00 4.853851e+00 4.607923e+00 5.541770e+00 4.703882e+00 4.119301e+00 4.021583e+00 1.029954e+00 2.021185e-01 3.039310e-01 4.034972e-01 4.173297e-01 5.660946e-01 6.687069e-01 7.708651e-01 8.726242e-01 8.721761e-01 7.871400e-01 7.723092e-01 7.221149e-01 1.782013e-01
<GCONST> 1.283124e+02
<TRANSP> 6
 0.000000e+00 1.000000e+00 0.000000e+00 0.000000e+00 0.000000e+00 0.000000e+00
 0.000000e+00 7.838693e-01 2.161307e-01 0.000000e+00 0.000000e+00 0.000000e+00
 0.000000e+00 0.000000e+00 9.121469e-01 8.785307e-02 0.000000e+00 0.000000e+00
 0.000000e+00 0.000000e+00 0.000000e+00 8.377725e-01 1.622275e-01 0.000000e+00
 0.000000e+00 0.000000e+00 0.000000e+00 0.000000e+00 7.285380e-01 2.714621e-01
 0.000000e+00 0.000000e+00 0.000000e+00 0.000000e+00 0.000000e+00 0.000000e+00
<ENDHMM>
