~o
<STREAMINFO> 1 39
<VECSIZE> 39<NULLD><MFCC_D_A_Z_0><DIAGC>
~h "l"
<BEGINHMM>
<NUMSTATES> 5
<STATE> 2
<NUMMIXES> 8
<MIXTURE> 1 1.038201e-01
<MEAN> 39
 4.760473e+00 4.600330e+00 1.548577e+00 6.984482e-01 1.109372e+00 -5.291735e+00 -9.605830e+00 -5.770996e+00 -7.761221e-02 -1.002776e+00 -3.074659e+00 -2.297848e+00 2.139799e+00 -8.756907e-02 -3.785229e-01 -2.367898e-01 -3.469338e-01 -2.686639e-01 -7.659627e-02 3.018714e-01 7.368863e-01 3.275249e-01 1.415011e-01 1.313026e-01 1.752397e-01 5.297882e-01 -1.032271e-01 -4.742824e-01 -2.819020e-01 -3.085827e-01 -3.008040e-01 1.063462e-01 5.512577e-01 7.357844e-01 2.856629e-01 3.163999e-02 6.253342e-02 1.357229e-01 4.036849e-01
<VARIANCE> 39
 1.478136e+01 2.449002e+01 3.983467e+01 3.757244e+01 4.483179e+01 5.660930e+01 5.946433e+01 6.148838e+01 5.711548e+01 5.704058e+01 6.103815e+01 5.992463e+01 1.953754e+01 5.989107e-01 1.305859e+00 1.831597e+00 2.222087e+00 2.521954e+00 2.880743e+00 3.329760e+00 4.076268e+00 3.482468e+00 3.138557e+00 2.919905e+00 2.639505e+00 9.807134e-01 1.166788e-01 1.843922e-01 3.041166e-01 3.702386e-01 5.402558e-01 6.340269e-01 7.460326e-01 7.079040e-01 7.812741e-01 6.572227e-01 6.671728e-01 5.741341e-01 1.022684e-01
<GCONST> 1.187130e+02
<MIXTURE> 2 1.317645e-01
<MEAN> 39
 5.186015e+00 -2.694180e+00 -4.031254e+00 -6.972641e+00 3.080338e+00 -6.995988e-01 -5.036512e+00 -1.988660e-01 4.159700e+00 1.921456e+00 -1.184774e+00 -1.481295e+00 7.507260e+00 2.237683e-01 4.901012e-01 2.961750e-02 -2.349769e-02 1.283521e-01 -7.928939e-02 -5.949926e-01 -6.747459e-01 -1.957949e-01 1.094289e-01 5.775562e-02 -1.424762e-01 -4.638052e-01 -1.118120e-01 1.837508e-01 1.367119e-01 2.844640e-01 -1.266087e-01 1.029858e-02 1.192212e-01 -6.067486e-02 -2.983395e-01 -1.605214e-01 6.161332e-02 9.140708e-02 -1.616446e-01
<VARIANCE> 39
 2.169346e+01 3.095717e+01 4.894394e+01 6.035136e+01 7.687626e+01 9.118317e+01 8.473376e+01 9.108216e+01 8.281943e+01 8.666045e+01 8.914489e+01 8.612331e+01 2.450844e+01 7.611811e-01 1.510681e+00 2.225322e+00 2.956841e+00 3.675957e+00 4.631565e+00 4.075537e+00 4.816400e+00 4.313791e+00 4.100962e+00 3.851608e+00 3.579453e+00 9.148418e-01 1.302410e-01 2.112872e-01 3.330440e-01 4.447187e-01 5.667052e-01 6.302722e-01 7.308056e-01 8.294196e-01 7.804445e-01 7.573329e-01 6.904042e-01 6.255844e-01 1.344510e-01
<GCONST> 1.278461e+02
<MIXTURE> 3 1.763601e-01
<MEAN> 39
 6.540573e+00 1.724618e+00 -6.387340e+00 -9.377508e+00 2.542065e+00 5.081172e+00 -5.093489e+00 -3.126317e+00 2.293433e+00 1.115722e+00 1.653017e+00 -1.224219e+00 6.161144e+00 3.405690e-02 1.289190e-01 -1.139488e-02 -8.187717e-02 2.974275e-02 4.780039e-02 -3.634158e-02 -8.501606e-02 -8.078627e-02 9.070684e-04 9.875205e-02 3.836791e-02 -8.550331e-02 -9.072461e-03 -1.778272e-02 2.176700e-02 3.286519e-02 -2.140432e-02 -6.567340e-02 -1.622327e-02 3.723253e-03 7.496933e-04 -4.472879e-03 -2.928720e-02 -7.078281e-03 -5.536925e-03
<VARIANCE> 39
 1.133285e+01 2.630062e+01 3.189718e+01 4.487353e+01 5.909113e+01 6.365867e+01 6.381078e+01 6.502075e+01 6.183863e+01 5.895952e+01 6.391674e+01 6.614618e+01 1.791131e+01 8.155642e-02 2.332615e-01 3.330194e-01 5.322118e-01 6.367897e-01 7.543660e-01 8.438069e-01 9.239029e-01 9.427577e-01 9.542603e-01 9.214251e-01 8.302303e-01 5.281598e-02 1.364553e-02 3.736727e-02 5.634668e-02 8.740280e-02 1.109413e-01 1.311627e-01 1.485721e-01 1.621325e-01 1.652144e-01 1.648626e-01 1.596233e-01 1.452677e-01 7.286667e-03
<GCONST> 7.751144e+01
<MIXTURE> 4 1.331645e-01
<MEAN> 39
 7.688115e+00 4.377854e+00 -5.983809e+00 -1.260313e+01 6.472338e-01 7.426931e+00 -2.903913e+00 -5.769038e+00 -1.819117e+00 2.850915e-02 5.062927e+00 1.670398e+00 4.263278e+00 1.970587e-02 2.243269e-01 1.690345e-01 1.522262e-01 -1.039838e-01 -2.434564e-01 -4.653928e-02 -9.783997e-02 -2.061142e-01 -1.314325e-01 -7.923176e-02 6.700165e-02 -2.511596e-01 -6.244240e-02 -1.305712e-01 2.364998e-02 2.349953e-01 8.443073e-02 -2.153255e-01 -1.636148e-01 7.935742e-02 1.998375e-01 9.788950e-02 -2.403498e-01 -1.872863e-01 2.655032e-02
<VARIANCE> 39
 1.367177e+01 2.294390e+01 3.555603e+01 4.647656e+01 5.614870e+01 5.438306e+01 6.197916e+01 6.729916e+01 7.030096e+01 6.953830e+01 5.729462e+01 6.927135e+01 1.882793e+01 2.494986e-01 6.763569e-01 8.838841e-01 1.424312e+00 1.602327e+00 1.939996e+00 2.196565e+00 2.170212e+00 2.473194e+00 2.436325e+00 2.241794e+00 2.061725e+00 2.696444e-01 4.168059e-02 1.008886e-01 1.504973e-01 2.372878e-01 2.725011e-01 3.309553e-01 3.571950e-01 4.144850e-01 4.307298e-01 4.060120e-01 4.015388e-01 3.544821e-01 3.519394e-02
<GCONST> 1.039150e+02
<MIXTURE> 5 1.417393e-01
<MEAN> 39
 5.785964e+00 3.950513e+00 -8.077943e-01 -1.023999e+00 4.126402e-01 -5.831717e+00 -8.768894e+00 -2.861458e+00 3.199918e+00 -1.186742e-01 -4.039717e+00 -2.436335e+00 2.877737e+00 -1.055495e-02 9.648947e-02 -2.683595e-03 -5.745991e-02 1.297620e-01 2.589770e-02 -1.985960e-01 5.177764e-03 4.905261e-02 3.628904e-02 -3.195686e-02 -6.199020e-03 -2.670597e-02 -6.407797e-02 -1.522516e-01 -3.631412e-02 -6.836232e-02 -7.667955e-02 1.018805e-01 2.269975e-01 1.723776e-01 -8.414621e-02 -6.597748e-02 7.011618e-02 4.244183e-02 1.095834e-01
<VARIANCE> 39
 1.125676e+01 2.210408e+01 3.775977e+01 3.464202e+01 4.256107e+01 5.145501e+01 5.936143e+01 7.154382e+01 5.908249e+01 6.849146e+01 5.626573e+01 5.689865e+01 1.624564e+01 1.970280e-01 4.601361e-01 8.546561e-01 1.049087e+00 1.280770e+00 1.512590e+00 1.756791e+00 2.003412e+00 1.927389e+00 1.804960e+00 1.724349e+00 1.583633e+00 1.985509e-01 3.721556e-02 8.957412e-02 1.459616e-01 1.748520e-01 2.441678e-01 2.805807e-01 3.412289e-01 3.939249e-01 3.931585e-01 3.751366e-01 3.450958e-01 3.008316e-01 3.395761e-02
<GCONST> 9.800377e+01
<MIXTURE> 6 1.105551e-01
<MEAN> 39
 3.776666e+00 -5.108916e+00 -6.273517e+00 -8.282999e+00 6.384709e+00 3.496922e+00 -3.920116e+00 2.051471e+00 2.222490e+00 1.219755e-01 1.003455e+00 1.446873e+00 9.421708e+00 1.211221e-01 2.271285e-01 -1.047449e-01 -2.206437e-01 2.006710e-02 4.903257e-02 -2.560711e-01 -1.096607e-01 5.009918e-02 1.409939e-01 1.082146e-01 -1.196830e-01 -1.751624e-01 1.325039e-02 7.163099e-02 4.894910e-02 6.836928e-02 -1.477950e-01 -1.103649e-01 -3.641992e-03 -5.015266e-02 1.261013e-02 4.746167e-02 8.888298e-03 -3.092032e-02 -5.181716e-02
<VARIANCE> 39
 1.676177e+01 2.447557e+01 3.715670e+01 5.354000e+01 7.936791e+01 8.565916e+01 8.320749e+01 6.446549e+01 6.853395e+01 7.536311e+01 8.695809e+01 9.779701e+01 1.880885e+01 2.662636e-01 6.365470e-01 8.223791e-01 1.114846e+00 1.605042e+00 1.767840e+00 1.850801e+00 1.825703e+00 1.832626e+00 1.800688e+00 1.829394e+00 1.685131e+00 1.491679e-01 4.696088e-02 9.893548e-02 1.440713e-01 2.033469e-01 2.605630e-01 2.918291e-01 3.411280e-01 3.376069e-01 3.282200e-01 3.146841e-01 3.138339e-01 2.811829e-01 2.514786e-02
<GCONST> 1.020288e+02
<MIXTURE> 7 1.183473e-01
<MEAN> 39
 6.763096e+00 1.442142e+00 -8.360722e+00 -8.026263e+00 5.024859e+00 2.515448e+00 -8.075934e+00 -2.202976e+00 3.534375e+00 2.325266e+00 -1.529154e+00 -6.157933e+00 5.318421e+00 2.007182e-01 5.680481e-01 6.995787e-02 -1.662448e-01 -1.088396e-01 1.424521e-01 -3.411530e-02 -6.409001e-01 -5.782154e-01 1.452276e-01 5.554370e-01 1.229211e-01 -4.447737e-01 -4.147618e-02 -2.279856e-03 2.225335e-01 1.460831e-01 -1.647185e-01 -1.429640e-01 1.759615e-01 7.445128e-02 -1.418311e-01 -2.080955e-01 -2.653350e-02 2.508211e-01 -4.592905e-02
<VARIANCE> 39
 9.899019e+00 1.898801e+01 2.527430e+01 3.595748e+01 3.904381e+01 5.699821e+01 4.683623e+01 5.440571e+01 6.102427e+01 5.501888e+01 5.911860e+01 4.139795e+01 1.633714e+01 2.289466e-01 5.549144e-01 9.587269e-01 1.398341e+00 1.656122e+00 2.207937e+00 2.088671e+00 2.266833e+00 2.363463e+00 2.303226e+00 2.146347e+00 1.993485e+00 1.827791e-01 3.420084e-02 7.443000e-02 1.247486e-01 1.747796e-01 2.315842e-01 2.761592e-01 2.926167e-01 3.552394e-01 3.451409e-01 3.355673e-01 3.240685e-01 2.640003e-01 2.631326e-02
<GCONST> 9.745701e+01
<MIXTURE> 8 8.424906e-02
<MEAN> 39
 4.547187e+00 4.203391e+00 -1.042054e+00 -1.683057e+00 -1.416102e+00 -4.390725e+00 -5.961176e+00 -4.486238e+00 1.097824e+00 7.075464e-01 -4.205745e-01 -4.169371e-01 2.919958e+00 1.158551e+00 -1.133802e+00 -8.009033e-01 -1.776604e+00 -1.387492e-01 -1.445880e-01 -5.699433e-01 8.262662e-01 8.244727e-01 4.455845e-01 4.817932e-02 2.411329e-01 1.819929e+00 -5.617810e-01 -4.276076e-01 -5.221819e-02 1.595570e-01 2.847465e-01 3.987349e-01 5.760154e-01 5.618116e-01 9.977902e-02 -2.934615e-02 -7.119187e-02 -2.543668e-02 -7.442557e-02
<VARIANCE> 39
 2.645531e+01 3.221461e+01 4.763786e+01 5.099319e+01 5.515042e+01 6.355363e+01 6.386300e+01 6.700261e+01 5.993644e+01 6.236778e+01 6.511662e+01 6.156626e+01 2.984735e+01 2.947595e+00 3.152711e+00 3.245519e+00 4.067028e+00 5.190643e+00 5.499484e+00 6.507105e+00 6.867622e+00 6.223440e+00 5.731122e+00 5.360237e+00 5.585319e+00 2.399785e+00 5.197656e-01 4.548501e-01 5.187607e-01 7.244489e-01 7.456161e-01 8.940848e-01 1.112058e+00 1.036134e+00 9.631352e-01 9.109061e-01 8.372697e-01 7.758339e-01 3.427176e-01
<GCONST> 1.381542e+02
<STATE> 3
<NUMMIXES> 8
<MIXTURE> 1 1.263828e-01
<MEAN> 39
 5.249697e+00 5.090662e+00 5.733102e-01 -4.343889e+00 -4.102440e+00 -1.324399e+00 -1.626698e-01 -3.431604e+00 -2.939656e+00 -2.655815e+00 -1.470639e+00 -2.318947e-01 5.931077e-01 -1.299129e-01 -1.729105e-01 -6.304926e-02 1.800839e-01 1.274214e-01 6.149087e-02 -4.625818e-02 4.153266e-03 -3.479102e-02 1.668462e-01 -3.241185e-03 -8.708654e-02 9.745958e-03 -1.018538e-01 -1.497607e-01 -2.507291e-02 1.383805e-01 1.852698e-01 2.766129e-02 -1.411599e-01 5.352415e-02 1.552845e-01 1.808085e-01 4.480056e-02 -5.627451e-02 6.307507e-02
<VARIANCE> 39
 2.788092e+01 3.483035e+01 5.706485e+01 6.528470e+01 6.137099e+01 5.775839e+01 5.061275e+01 5.922280e+01 5.277290e+01 6.209038e+01 5.598502e+01 6.238711e+01 2.820391e+01 5.175261e-01 1.009856e+00 1.302081e+00 1.715984e+00 2.226818e+00 2.215227e+00 2.402920e+00 2.524407e+00 2.488248e+00 2.648818e+00 2.374091e+00 2.016465e+00 6.416899e-01 1.031119e-01 1.520148e-01 2.243667e-01 2.994125e-01 3.590899e-01 3.882669e-01 4.088019e-01 4.558268e-01 4.389981e-01 4.511712e-01 4.118097e-01 3.775656e-01 8.573931e-02
<GCONST> 1.126681e+02
<MIXTURE> 2 1.072150e-01
<MEAN> 39
 2.614074e+00 -2.269417e+00 -4.372949e+00 -4.726689e+00 2.363269e+00 7.377924e-01 -2.923087e+00 2.084516e+00 3.433652e+00 6.665370e+00 9.307162e+00 9.504638e+00 6.248829e+00 -2.098847e-03 -2.984996e-02 -1.500865e-02 5.749669e-02 -7.311018e-02 -1.311408e-01 -8.257178e-02 5.708192e-03 1.151641e-01 7.538151e-02 -6.000327e-02 -1.360921e-01 -5.517384e-02 -2.156711e-02 -3.672724e-02 1.653104e-02 2.655260e-02 -7.937812e-02 -8.317150e-02 2.452310e-02 2.657980e-02 -2.339385e-03 -6.614417e-02 -5.274622e-02 -2.363178e-02 -4.156484e-04
<VARIANCE> 39
 1.186005e+01 2.282731e+01 4.179701e+01 3.790068e+01 8.073769e+01 7.031757e+01 7.928621e+01 6.796102e+01 8.252380e+01 1.152428e+02 1.382526e+02 1.371635e+02 1.995367e+01 1.725426e-01 4.420490e-01 6.612234e-01 8.061532e-01 1.075552e+00 1.089272e+00 1.294142e+00 1.336605e+00 1.409067e+00 1.458310e+00 1.392367e+00 1.374301e+00 8.342718e-02 2.683925e-02 6.653371e-02 1.028222e-01 1.356404e-01 1.682092e-01 1.769189e-01 2.125554e-01 2.302286e-01 2.309427e-01 2.480047e-01 2.426355e-01 2.272367e-01 1.126730e-02
<GCONST> 9.289928e+01
<MIXTURE> 3 1.260152e-01
<MEAN> 39
 6.960800e+00 2.471499e+00 -6.911107e+00 -8.192462e+00 3.037221e+00 1.872686e+00 -7.676692e+00 -2.955472e+00 6.297050e-01 1.072995e+00 4.637614e-01 -2.586007e+00 3.667639e+00 -1.675270e-01 8.835968e-01 1.118828e+00 1.647243e+00 -3.631353e-01 -9.726209e-01 -1.090244e-01 -1.106871e+00 -8.177981e-01 -3.932449e-01 -4.540005e-01 -1.355278e-01 -1.214939e+00 -2.724354e-01 4.940745e-02 3.381451e-01 5.494816e-01 1.231818e-01 -3.820698e-02 3.490099e-01 1.515649e-02 -6.377332e-02 -1.770418e-01 -1.978606e-01 -6.929137e-02 -2.169893e-01
<VARIANCE> 39
 1.111065e+01 2.590717e+01 2.774242e+01 4.052628e+01 4.047018e+01 6.127256e+01 5.214099e+01 5.779362e+01 5.785932e+01 5.486264e+01 6.734045e+01 5.926840e+01 1.888618e+01 6.579911e-01 1.262805e+00 1.658819e+00 2.165194e+00 2.976032e+00 2.891366e+00 3.182447e+00 3.700793e+00 3.435026e+00 3.336659e+00 3.073250e+00 2.924966e+00 7.227097e-01 1.295145e-01 1.783250e-01 2.303694e-01 3.477366e-01 3.976385e-01 4.816296e-01 5.191027e-01 6.085764e-01 5.561509e-01 5.349898e-01 5.309142e-01 4.631433e-01 1.031990e-01
<GCONST> 1.155228e+02
<MIXTURE> 4 1.601595e-01
<MEAN> 39
 8.082323e+00 7.978798e+00 -4.131712e+00 -6.642415e+00 -6.304970e-02 2.866523e+00 -2.720473e+00 -5.343081e+00 -2.540485e+00 -7.770350e-01 8.737540e-01 -9.511696e-01 -1.043330e+00 -3.282332e-02 5.676394e-02 1.528304e-01 1.965968e-01 -2.264751e-02 -1.394712e-01 -1.379712e-02 4.007638e-03 -4.563011e-02 -5.498375e-02 -1.023475e-01 -3.029013e-02 -1.372930e-01 -2.753591e-02 -4.670673e-02 2.437263e-02 4.914422e-02 2.453115e-02 -3.130129e-02 -1.999110e-02 1.818526e-02 4.112408e-02 4.558476e-03 -3.675088e-02 -2.101571e-02 1.133595e-02
<VARIANCE> 39
 8.263507e+00 1.806084e+01 2.482968e+01 3.377477e+01 3.636529e+01 3.468362e+01 4.199127e+01 3.651595e+01 4.398904e+01 4.837964e+01 4.644420e+01 5.339624e+01 1.275817e+01 1.012497e-01 2.833396e-01 4.582604e-01 6.941014e-01 8.198998e-01 9.372026e-01 1.101750e+00 1.163448e+00 1.297434e+00 1.243259e+00 1.175078e+00 1.104622e+00 1.011235e-01 1.782425e-02 4.754583e-02 7.963335e-02 1.204557e-01 1.488437e-01 1.690049e-01 1.990099e-01 2.164155e-01 2.377992e-01 2.245953e-01 2.147068e-01 1.985836e-01 1.311294e-02
<GCONST> 8.068385e+01
<MIXTURE> 5 1.475020e-01
<MEAN> 39
 4.513617e+00 8.931531e-01 -8.597263e-01 -6.368307e-01 -1.515514e+00 -9.187252e+00 -7.638171e+00 2.866431e+00 4.209002e+00 -2.012509e+00 -4.454928e+00 5.375148e-01 6.227016e+00 -5.102724e-01 -1.482709e+00 -2.043798e-01 -5.291086e-01 -1.272291e+00 7.530075e-03 2.164467e+00 2.587390e+00 -1.722268e-01 -7.899557e-01 2.240485e-01 8.239392e-01 1.447004e+00 -1.652876e-01 -3.525066e-02 1.510475e-01 -4.610190e-02 -8.833938e-02 5.676632e-01 5.798032e-01 -2.794560e-01 -5.347326e-01 -4.136099e-03 2.909734e-01 -1.025562e-01 -4.975782e-02
<VARIANCE> 39
 1.176105e+01 2.104296e+01 3.445314e+01 2.970047e+01 4.154435e+01 3.745738e+01 4.845630e+01 5.053242e+01 5.123463e+01 5.283090e+01 5.197028e+01 5.882488e+01 1.909997e+01 6.677329e-01 1.648937e+00 3.135058e+00 2.797247e+00 4.474303e+00 5.394625e+00 4.697284e+00 4.587027e+00 5.069313e+00 4.541095e+00 3.953616e+00 3.531973e+00 7.497208e-01 1.058285e-01 2.086930e-01 2.617567e-01 3.337820e-01 5.110487e-01 4.462405e-01 5.779283e-01 6.648705e-01 6.177702e-01 6.342440e-01 5.639141e-01 4.969165e-01 1.111768e-01
<GCONST> 1.190664e+02
<MIXTURE> 6 1.381446e-01
<MEAN> 39
 6.143788e+00 2.693100e+00 -3.651833e+00 -4.496599e+00 2.499668e+00 -1.051887e+00 -9.527685e+00 -5.193662e+00 3.311150e+00 4.630280e+00 4.803904e-02 -3.587968e+00 4.954985e+00 -2.803977e-01 -1.284939e+00 -6.697919e-01 -2.748045e-01 -1.218309e-01 -1.886214e-01 4.011849e-01 2.100545e+00 1.606200e+00 -2.162288e-01 -1.059705e+00 -2.816634e-01 1.110117e+00 -1.468600e-01 -2.509010e-01 1.156090e-02 9.173037e-02 -1.357270e-01 -1.549149e-02 4.905868e-01 5.388962e-01 9.980015e-03 -5.344809e-01 -2.941603e-01 2.073361e-01 1.362140e-01
<VARIANCE> 39
 1.106166e+01 2.034686e+01 3.345108e+01 3.521072e+01 3.490749e+01 4.854392e+01 4.507975e+01 5.461927e+01 5.182209e+01 4.551812e+01 5.612399e+01 4.926324e+01 1.792593e+01 3.782671e-01 9.054660e-01 1.791350e+00 2.467422e+00 2.394888e+00 3.496953e+00 3.802467e+00 3.614705e+00 3.539001e+00 3.509997e+00 2.976192e+00 2.780550e+00 4.199743e-01 5.855241e-02 1.393260e-01 2.366941e-01 2.386162e-01 3.723464e-01 4.050084e-01 4.478739e-01 5.104599e-01 5.474406e-01 4.365226e-01 4.657849e-01 4.484515e-01 6.553217e-02
<GCONST> 1.101390e+02
<MIXTURE> 7 9.842568e-02
<MEAN> 39
 2.188551e+00 -2.825456e+00 -4.938703e+00 -5.055191e+00 3.886023e+00 -1.851908e+00 -5.271970e+00 2.496848e+00 5.318672e+00 1.089230e+01 1.423169e+01 1.336294e+01 6.551703e+00 -1.358904e-01 -1.488833e-01 3.333719e-02 1.197109e-01 -8.662495e-02 -9.377734e-02 1.765375e-01 1.514967e-01 -1.881942e-01 -2.214416e-01 -8.144592e-02 5.007667e-02 5.367510e-02 -4.941916e-02 -3.956856e-02 6.810870e-02 9.646568e-02 -9.365873e-02 1.637693e-02 1.858847e-01 7.316444e-02 -5.083689e-02 -2.471127e-01 -3.110330e-01 -2.316435e-01 -8.077224e-04
<VARIANCE> 39
 1.610012e+01 2.991330e+01 4.324416e+01 4.029702e+01 7.725388e+01 8.347486e+01 8.029919e+01 8.171766e+01 8.903294e+01 9.498076e+01 7.302164e+01 7.867355e+01 2.288280e+01 6.063688e-01 1.208462e+00 1.531273e+00 1.845495e+00 2.759287e+00 3.041558e+00 3.013368e+00 3.335316e+00 3.719283e+00 4.056373e+00 3.813890e+00 3.706211e+00 5.243326e-01 9.724583e-02 1.950667e-01 2.571857e-01 3.259821e-01 4.111606e-01 5.218102e-01 5.167596e-01 5.853067e-01 6.009690e-01 6.477703e-01 6.057606e-01 6.169845e-01 8.251812e-02
<GCONST> 1.199859e+02
<MIXTURE> 8 9.615528e-02
<MEAN> 39
 5.551370e+00 -1.928801e+00 -2.520322e+00 -7.053432e+00 6.131276e-01 -2.366153e+00 -4.506227e+00 -5.841281e-01 4.041648e+00 5.086887e+00 3.352326e+00 2.295621e+00 6.463334e+00 -4.071848e-01 -7.611045e-01 -2.188369e-01 3.064156e-01 1.471407e-01 5.219353e-02 4.747130e-01 9.767346e-01 1.920489e-01 -1.689326e-01 -3.915709e-01 -6.962535e-02 7.847213e-01 -4.638263e-01 2.120699e-01 9.624809e-02 5.996176e-01 2.308069e-02 2.278491e-01 3.434776e-01 7.026768e-02 -2.837178e-01 -4.388668e-01 -2.346062e-01 -1.216776e-01 -2.475455e-01
<VARIANCE> 39
 2.696675e+01 3.585300e+01 6.367413e+01 6.545317e+01 8.788591e+01 1.053361e+02 9.596632e+01 1.089820e+02 1.078161e+02 1.075482e+02 1.174585e+02 1.226249e+02 3.073362e+01 1.625869e+00 4.585467e+00 3.579845e+00 5.593761e+00 5.610026e+00 6.896904e+00 7.002555e+00 8.036494e+00 7.646724e+00 7.063779e+00 6.296953e+00 6.591068e+00 3.417181e+00 3.277796e-01 4.266331e-01 6.134812e-01 7.888826e-01 9.676487e-01 1.212856e+00 1.196499e+00 1.322331e+00 1.287789e+00 1.251342e+00 1.207069e+00 1.229065e+00 3.535690e-01
<GCONST> 1.470271e+02
<STATE> 4
<NUMMIXES> 8
<MIXTURE> 1 1.703001e-01
<MEAN> 39
 2.839345e+00 -3.035168e+00 -3.283426e+00 -4.324652e+00 7.743298e-01 -1.118571e-01 -1.840597e+00 1.410001e+00 2.967474e+00 1.292135e+00 3.531350e-01 5.420927e-01 7.266931e+00 -2.824706e-02 -2.311770e-01 7.922432e-02 2.209612e-01 -7.103106e-04 -9.126938e-02 -1.838248e-02 1.797115e-01 1.080027e-01 -1.276940e-01 -2.187118e-01 -7.279867e-02 1.418854e-02 4.157074e-02 1.286913e-01 7.552569e-02 4.930135e-02 -5.315700e-02 -5.894928e-02 -2.356231e-02 -5.396031e-02 -1.039508e-01 -4.935730e-02 3.961865e-02 8.723036e-02 -9.381253e-02
<VARIANCE> 39
 2.005902e+01 2.973734e+01 4.676207e+01 4.476597e+01 7.133177e+01 6.892505e+01 7.685470e+01 6.966727e+01 8.206569e+01 8.798638e+01 9.580868e+01 1.058585e+02 2.569724e+01 2.369730e-01 5.853609e-01 8.202803e-01 1.030057e+00 1.491099e+00 1.723821e+00 1.780108e+00 1.968652e+00 1.952261e+00 1.949399e+00 1.897374e+00 1.741589e+00 1.838707e-01 4.169997e-02 8.947206e-02 1.397271e-01 1.793623e-01 2.375010e-01 2.838363e-01 3.201685e-01 3.339828e-01 3.666288e-01 3.509549e-01 3.195596e-01 3.097803e-01 2.896268e-02
<GCONST> 1.029339e+02
<MIXTURE> 2 1.125834e-01
<MEAN> 39
 4.311354e+00 5.064890e+00 -1.349310e-01 4.675313e-01 1.385617e-01 -1.431797e+00 -3.385682e+00 -4.152404e+00 -1.898895e+00 -1.424142e+00 -2.139956e+00 -2.779239e+00 -1.557052e+00 -4.428355e-01 1.111980e-01 6.696919e-01 9.350573e-01 2.444639e-01 -1.146626e-01 2.362687e-01 -9.834916e-02 -1.114205e-01 -7.400385e-02 -2.373140e-01 -1.190084e-01 -5.482096e-01 -5.441027e-02 -9.550116e-02 -8.979158e-02 -1.381563e-01 3.996515e-02 8.909830e-02 5.617255e-02 1.221354e-01 1.041478e-01 2.739237e-02 7.363237e-02 5.253280e-02 6.909437e-02
<VARIANCE> 39
 1.984397e+01 2.450721e+01 3.417765e+01 3.201305e+01 4.314603e+01 4.178328e+01 4.234713e+01 4.307927e+01 4.267209e+01 4.303045e+01 4.097577e+01 4.318465e+01 2.380095e+01 5.358925e-01 6.690120e-01 1.128221e+00 1.402095e+00 1.672075e+00 1.828088e+00 1.949873e+00 2.324966e+00 2.149525e+00 2.081569e+00 1.878350e+00 1.703694e+00 4.002191e-01 5.567436e-02 9.347015e-02 1.539696e-01 2.003686e-01 2.464773e-01 2.784965e-01 3.100929e-01 3.600599e-01 3.634742e-01 3.528930e-01 3.217095e-01 2.916273e-01 4.235912e-02
<GCONST> 1.006492e+02
<MIXTURE> 3 1.076391e-01
<MEAN> 39
 6.638145e-01 5.737558e+00 -1.306937e-01 2.702073e+00 1.861451e+00 -5.798357e-01 -1.700662e+00 -3.758512e+00 -1.565980e+00 -1.378498e+00 -1.826898e+00 -2.698286e+00 -1.966474e+00 -1.502128e+00 -2.108316e-01 2.346353e-01 8.392678e-01 1.041260e-01 3.651377e-02 9.125594e-01 7.099380e-01 3.313180e-01 2.034338e-01 1.627665e-01 1.733068e-01 -3.603851e-01 -5.154266e-03 -3.966507e-01 -2.259651e-01 -4.774490e-01 -1.325024e-01 -3.535704e-02 -1.259668e-01 2.564827e-01 2.658580e-01 2.015796e-01 1.620302e-01 2.000014e-01 3.769214e-01
<VARIANCE> 39
 4.097986e+01 4.571482e+01 5.329993e+01 4.610246e+01 5.894198e+01 5.545294e+01 4.918819e+01 5.179765e+01 5.082201e+01 4.926109e+01 4.395415e+01 4.651363e+01 4.532747e+01 3.767452e+00 3.161052e+00 2.663543e+00 4.202631e+00 3.988234e+00 4.164666e+00 4.472435e+00 4.242512e+00 3.989725e+00 3.641509e+00 3.470507e+00 3.309223e+00 3.685663e+00 4.219994e-01 4.650287e-01 4.902461e-01 6.272972e-01 6.875873e-01 7.176431e-01 7.160037e-01 8.063611e-01 7.568330e-01 7.042511e-01 6.430392e-01 5.758379e-01 4.278747e-01
<GCONST> 1.327493e+02
<MIXTURE> 4 1.216711e-01
<MEAN> 39
 4.187027e+00 -1.502614e+00 -4.201917e+00 -2.542025e+00 -2.002577e-02 -4.914920e+00 -3.830503e+00 6.556767e+00 3.649636e+00 -5.392745e+00 -6.439070e+00 -4.258499e-01 7.453457e+00 -4.238907e-01 -7.556229e-01 3.671225e-01 1.007091e-01 -5.611510e-01 2.177431e-01 1.354033e+00 1.033432e+00 -9.467741e-01 -1.091089e+00 2.136639e-01 8.091000e-01 5.387601e-01 4.010727e-02 2.168667e-01 2.216193e-01 4.682864e-02 -2.332340e-02 1.219448e-01 -8.311895e-02 -6.635600e-01 -2.855214e-01 3.799605e-01 3.591857e-01 -1.837204e-01 -2.255967e-01
<VARIANCE> 39
 1.003546e+01 1.964446e+01 2.840527e+01 2.635177e+01 4.488796e+01 4.453393e+01 4.849888e+01 4.522223e+01 5.547385e+01 4.941298e+01 3.960114e+01 4.425047e+01 1.602682e+01 2.403219e-01 7.266355e-01 1.341611e+00 1.144643e+00 2.593722e+00 2.405194e+00 2.313854e+00 2.494866e+00 2.404315e+00 2.295760e+00 2.217537e+00 1.969724e+00 2.505024e-01 3.844015e-02 9.185348e-02 1.443707e-01 1.891513e-01 2.670608e-01 3.197008e-01 3.737037e-01 3.800042e-01 3.975963e-01 3.412080e-01 3.250881e-01 2.953322e-01 3.697960e-02
<GCONST> 9.980038e+01
<MIXTURE> 5 1.174487e-01
<MEAN> 39
 1.759094e+00 -1.833462e-01 4.181019e+00 -5.137647e-01 -8.967226e+00 -8.854621e+00 2.651206e-02 3.183774e+00 -3.425633e+00 -1.739965e+00 1.293022e+00 2.623434e+00 7.540967e+00 -5.855993e-01 3.137952e-02 1.411630e+00 -5.949703e-01 -1.870555e+00 8.637303e-01 1.519511e+00 -8.062740e-01 -1.334578e+00 1.048461e+00 7.070692e-01 -4.903455e-01 3.095448e-01 8.635335e-02 2.711608e-01 -3.262538e-02 -1.154124e-01 4.702105e-01 4.827954e-01 -4.770194e-01 -6.847613e-01 3.111912e-01 3.064067e-01 -4.055819e-01 -4.051847e-01 -2.704835e-01
<VARIANCE> 39
 1.380567e+01 2.477329e+01 3.539506e+01 3.710048e+01 4.120443e+01 4.348740e+01 4.599974e+01 5.909053e+01 5.296083e+01 5.783819e+01 6.107631e+01 6.778685e+01 1.998669e+01 4.344161e-01 1.069321e+00 1.845378e+00 1.915614e+00 2.723414e+00 3.047062e+00 3.552051e+00 4.030194e+00 3.445048e+00 3.482248e+00 3.323901e+00 2.535942e+00 5.506969e-01 6.824175e-02 1.459503e-01 2.464610e-01 2.973374e-01 3.822871e-01 4.868847e-01 5.049499e-01 6.628970e-01 5.743824e-01 6.250793e-01 5.132052e-01 4.873237e-01 6.342036e-02
<GCONST> 1.135683e+02
<MIXTURE> 6 1.384390e-01
<MEAN> 39
 5.431602e+00 4.707043e+00 -2.802917e+00 -1.911313e+00 2.199193e+00 -1.971014e+00 -7.598222e+00 -5.868296e+00 -1.194564e+00 -7.766847e-01 -1.800184e+00 -2.702494e+00 6.610525e-01 -1.081110e+00 1.124665e+00 1.127542e+00 2.305618e+00 1.130856e-01 -3.549979e-01 7.534031e-01 -6.986891e-01 -7.133079e-01 -6.585318e-01 -6.493776e-01 -5.513495e-01 -1.525664e+00 -3.567055e-01 -2.107909e-01 -1.219527e-01 -1.219621e-01 9.129395e-02 2.944895e-01 4.545007e-01 4.802482e-01 2.614292e-01 1.382703e-01 1.205396e-01 6.969044e-02 8.340169e-02
<VARIANCE> 39
 1.642961e+01 2.864310e+01 3.607895e+01 4.011918e+01 4.516984e+01 6.018966e+01 4.677010e+01 5.283198e+01 5.484375e+01 5.957382e+01 6.558241e+01 6.481988e+01 2.258288e+01 1.992951e+00 2.217055e+00 2.545150e+00 3.096041e+00 4.027209e+00 4.091886e+00 4.504998e+00 5.164730e+00 4.381826e+00 4.161007e+00 3.883471e+00 3.783571e+00 1.399512e+00 2.004752e-01 2.812260e-01 3.075380e-01 4.634646e-01 4.788165e-01 5.799164e-01 5.822768e-01 6.771185e-01 6.762899e-01 6.951489e-01 6.240814e-01 5.849213e-01 1.581226e-01
<GCONST> 1.251761e+02
<MIXTURE> 7 1.168565e-01
<MEAN> 39
 2.140316e+00 -6.301089e+00 -4.781359e+00 -4.681504e+00 1.734208e+00 -1.366344e+00 1.177305e+00 8.213305e+00 2.553695e+00 -2.941826e+00 -1.937875e+00 3.224855e+00 1.092314e+01 -6.541663e-01 -1.291583e+00 -1.228688e-01 2.907672e-01 5.243143e-01 1.276969e+00 1.709180e+00 6.785307e-01 -1.055259e+00 -1.024251e+00 7.318325e-02 3.651330e-01 9.157863e-01 8.506495e-02 4.820530e-01 2.916736e-01 2.628050e-01 3.374520e-02 -1.626294e-01 -5.527707e-01 -8.398061e-01 -1.721464e-01 3.122773e-01 2.651561e-01 -8.318686e-02 -4.879994e-01
<VARIANCE> 39
 1.608810e+01 1.957076e+01 3.265865e+01 3.351033e+01 7.257297e+01 6.870591e+01 7.480030e+01 5.812220e+01 7.841448e+01 7.178085e+01 8.571001e+01 9.671495e+01 1.856553e+01 7.159324e-01 1.827159e+00 2.038059e+00 2.305808e+00 4.119947e+00 4.690987e+00 5.833977e+00 4.970391e+00 4.322781e+00 4.375084e+00 3.798728e+00 3.844355e+00 9.377555e-01 1.277901e-01 2.288516e-01 3.140853e-01 4.167344e-01 5.836290e-01 7.138588e-01 8.585675e-01 8.072848e-01 8.559600e-01 7.103447e-01 6.481439e-01 6.511199e-01 1.116194e-01
<GCONST> 1.252398e+02
<MIXTURE> 8 1.150623e-01
<MEAN> 39
 4.750952e+00 -2.509999e+00 -5.985333e+00 -6.432790e+00 6.370852e-01 -2.726849e-01 -5.146568e+00 3.399947e+00 9.500726e+00 2.686784e+00 -4.448264e+00 -5.269692e+00 9.998053e+00 -4.102540e-01 -1.568129e+00 -1.033491e+00 -4.547165e-01 3.042734e-01 1.093745e+00 1.748358e+00 2.214438e+00 8.818382e-01 -1.206122e+00 -1.193159e+00 -1.395532e-01 1.169187e+00 -3.794923e-02 2.707869e-01 3.352244e-01 3.967619e-01 1.991257e-01 -4.725774e-03 -7.427578e-02 -6.269826e-01 -7.546051e-01 -3.392558e-01 2.300598e-01 3.251596e-01 -3.615640e-01
<VARIANCE> 39
 1.124479e+01 1.628515e+01 2.668119e+01 2.770502e+01 4.171628e+01 5.304144e+01 5.078719e+01 5.751066e+01 4.734805e+01 5.277711e+01 4.629198e+01 3.973596e+01 1.928686e+01 4.328693e-01 1.250180e+00 1.746947e+00 2.141893e+00 2.573007e+00 3.447811e+00 4.126379e+00 3.860749e+00 4.133767e+00 3.536827e+00 3.231854e+00 3.083724e+00 5.504286e-01 6.444348e-02 1.372978e-01 2.027416e-01 2.505624e-01 3.778329e-01 3.877332e-01 5.082788e-01 5.154257e-01 4.883282e-01 4.903816e-01 4.576267e-01 4.004958e-01 5.988853e-02
<GCONST> 1.106069e+02
<TRANSP> 5
 0.000000e+00 1.000000e+00 0.000000e+00 0.000000e+00 0.000000e+00
 0.000000e+00 7.643186e-01 2.356815e-01 0.000000e+00 0.000000e+00
 0.000000e+00 0.000000e+00 6.027519e-01 3.972481e-01 0.000000e+00
 0.000000e+00 0.000000e+00 0.000000e+00 5.770153e-01 4.229848e-01
 0.000000e+00 0.000000e+00 0.000000e+00 0.000000e+00 0.000000e+00
<ENDHMM>
