~o
<STREAMINFO> 1 39
<VECSIZE> 39<NULLD><MFCC_D_A_Z_0><DIAGC>
~h "sh"
<BEGINHMM>
<NUMSTATES> 5
<STATE> 2
<NUMMIXES> 8
<MIXTURE> 1 5.823715e-02
<MEAN> 39
 -6.264613e+00 6.876426e+00 9.996209e+00 2.324371e+00 -2.716230e-01 -2.977662e+00 -1.709753e+00 2.802912e-01 -2.544082e+00 -4.309983e+00 -3.158168e-01 8.670585e-01 3.466048e+00 -4.659034e+00 1.074067e+00 8.153575e-01 -2.862176e-01 2.070735e+00 2.005032e+00 9.563828e-01 4.001490e-01 7.210467e-01 3.379580e-01 6.522940e-01 -5.263273e-02 2.558567e-01 -2.640780e-01 -4.533879e-01 -5.239562e-01 -2.836404e-01 -1.820674e-01 2.383359e-01 1.123807e-01 2.193000e-01 3.456612e-01 4.588341e-01 1.591554e-01 -1.359222e-02 1.180961e-01
<VARIANCE> 39
 1.804332e+01 1.544334e+01 2.687242e+01 3.631356e+01 4.712949e+01 4.803150e+01 4.774636e+01 4.275720e+01 3.821724e+01 3.662731e+01 3.469415e+01 3.544627e+01 1.688809e+01 1.617902e+00 2.842146e+00 2.579066e+00 2.493386e+00 3.796689e+00 3.260403e+00 3.785462e+00 3.247652e+00 3.313967e+00 3.448233e+00 2.878063e+00 2.816444e+00 7.027780e-01 2.783534e-01 2.484601e-01 2.729185e-01 3.306673e-01 5.684403e-01 5.568991e-01 6.441895e-01 5.917785e-01 4.781185e-01 5.290173e-01 4.927717e-01 4.617059e-01 8.135346e-02
<GCONST> 1.167544e+02
<MIXTURE> 2 1.232212e-01
<MEAN> 39
 -2.091534e+01 1.022522e+01 6.811692e+00 -2.275996e-02 6.310286e+00 3.830864e+00 6.188971e+00 3.301152e+00 4.626811e+00 3.559456e+00 5.414865e+00 -2.199228e-01 1.515201e+00 -1.889777e+00 9.552311e-01 6.850637e-01 1.459721e-01 9.565277e-01 1.305024e+00 4.319862e-01 4.547687e-01 5.218855e-01 2.751375e-01 3.362828e-01 -2.060932e-01 1.408319e+00 8.438783e-01 -5.248807e-01 -2.366324e-01 1.098096e-01 -3.557996e-01 -2.567798e-01 -1.925111e-01 -2.515833e-01 -2.080557e-01 -1.609008e-01 -1.431967e-01 -2.083394e-02 -3.980423e-01
<VARIANCE> 39
 1.300517e+01 4.277411e+01 3.429976e+01 2.364451e+01 3.163164e+01 3.455121e+01 3.602278e+01 3.108589e+01 3.557346e+01 2.806299e+01 3.250137e+01 3.201757e+01 2.231454e+01 1.865991e+00 2.017261e+00 1.742455e+00 1.391115e+00 1.748605e+00 1.968501e+00 1.979270e+00 2.099697e+00 2.076149e+00 1.524276e+00 1.718570e+00 1.632451e+00 1.484875e+00 2.300149e-01 3.267370e-01 3.195587e-01 2.609998e-01 3.608261e-01 3.901684e-01 3.618936e-01 3.837371e-01 3.729648e-01 3.221474e-01 3.768176e-01 2.970585e-01 1.557960e-01
<GCONST> 1.079486e+02
<MIXTURE> 3 1.297112e-01
<MEAN> 39
 -2.100391e+01 1.129085e+01 4.805652e+00 7.003645e-01 6.117089e+00 3.702090e+00 5.360740e+00 3.484534e+00 3.976593e+00 3.201998e+00 4.518413e+00 -1.055899e+00 3.327830e+00 -9.115355e-01 -2.281637e-01 1.091651e-01 1.325100e-01 6.764963e-01 1.026139e+00 9.052960e-01 9.347084e-01 1.209715e+00 1.148746e+00 1.040169e+00 4.690044e-01 -6.636601e-03 6.438108e-01 -3.622705e-02 1.620240e-01 -2.728083e-02 -4.487472e-01 -5.029214e-01 -5.063177e-01 -5.532771e-01 -5.799524e-01 -5.328404e-01 -3.330829e-01 -1.012738e-01 1.129891e-02
<VARIANCE> 39
 1.040963e+01 2.324960e+01 3.147778e+01 2.800993e+01 3.659515e+01 3.315611e+01 2.965723e+01 3.557187e+01 3.588294e+01 3.096000e+01 3.391386e+01 3.315804e+01 1.816399e+01 6.218393e-01 7.659788e-01 1.211274e+00 1.166142e+00 1.473985e+00 1.487530e+00 1.754457e+00 1.768725e+00 1.827291e+00 1.975263e+00 1.875873e+00 1.766874e+00 2.243534e-01 1.832324e-01 1.605363e-01 1.821330e-01 2.323013e-01 2.584146e-01 2.862933e-01 2.887185e-01 3.065608e-01 3.393926e-01 3.634694e-01 3.615584e-01 3.393060e-01 4.420297e-02
<GCONST> 9.842911e+01
<MIXTURE> 4 1.124189e-01
<MEAN> 39
 -2.055098e+01 2.825740e+00 8.714232e+00 -1.940648e+00 1.951533e+00 5.464584e+00 8.260154e-01 3.130501e+00 2.546984e+00 1.232921e-01 3.958800e+00 3.500787e+00 4.631507e+00 -1.323224e+00 -5.127022e-01 -3.743811e-01 -6.520362e-01 -3.359579e-01 4.198730e-01 3.827697e-01 1.433393e-01 6.737621e-01 6.006199e-01 7.366703e-01 4.939717e-01 3.414645e-01 7.300615e-01 1.425860e-01 9.546302e-02 3.114495e-01 1.239868e-03 -3.014793e-01 -6.075721e-02 -1.117714e-01 -1.942686e-01 -1.223437e-01 -2.397559e-01 -1.746487e-01 -1.409162e-01
<VARIANCE> 39
 1.554390e+01 2.540686e+01 2.307340e+01 2.585964e+01 4.329973e+01 3.843556e+01 4.178707e+01 4.408808e+01 3.310066e+01 2.947032e+01 3.009480e+01 2.153033e+01 1.734912e+01 9.935908e-01 9.248263e-01 1.127950e+00 1.262680e+00 1.493386e+00 1.643946e+00 2.110569e+00 2.051445e+00 1.900055e+00 1.960416e+00 1.741662e+00 1.489954e+00 4.464133e-01 1.710104e-01 1.382256e-01 2.175567e-01 2.031452e-01 2.690088e-01 2.991945e-01 3.253613e-01 3.848037e-01 3.409689e-01 3.379167e-01 3.231899e-01 2.630458e-01 5.958325e-02
<GCONST> 1.003805e+02
<MIXTURE> 5 1.427470e-01
<MEAN> 39
 -1.768663e+01 9.548728e+00 9.072208e+00 1.110917e+00 4.485049e+00 2.710800e+00 7.460309e-01 8.217434e-01 -1.216327e+00 -2.604819e+00 3.060298e-01 -1.382571e+00 3.976442e+00 -2.552864e+00 -3.879788e-01 -4.330839e-01 -3.073598e-01 9.373952e-01 1.576234e+00 1.074018e+00 1.043230e+00 1.359280e+00 1.218427e+00 1.129476e+00 5.763540e-01 5.503762e-02 8.714325e-01 -3.712419e-01 -2.494045e-01 -1.603195e-01 -6.222923e-01 -4.734148e-01 -1.499397e-01 -1.003171e-01 8.958802e-02 1.719058e-01 1.188036e-01 1.624428e-01 -5.244917e-02
<VARIANCE> 39
 1.551664e+01 2.475858e+01 3.535323e+01 3.074018e+01 4.538178e+01 4.210369e+01 3.910935e+01 4.000861e+01 3.299830e+01 3.084236e+01 2.991928e+01 3.279885e+01 1.672012e+01 2.004651e+00 1.412549e+00 1.426113e+00 1.575847e+00 2.155342e+00 2.035309e+00 2.260936e+00 2.423571e+00 2.373373e+00 2.448682e+00 2.254458e+00 2.033301e+00 4.071004e-01 2.015057e-01 2.118710e-01 2.555172e-01 2.833097e-01 3.613458e-01 3.783044e-01 3.974267e-01 3.876947e-01 3.776092e-01 3.966018e-01 3.714679e-01 3.516632e-01 5.575600e-02
<GCONST> 1.071143e+02
<MIXTURE> 6 2.397389e-01
<MEAN> 39
 -1.838124e+01 1.023574e+01 3.742675e+00 -9.416487e-01 2.790412e+00 -1.219102e+00 1.427160e+00 3.074568e-01 1.248166e+00 2.347960e+00 4.210069e+00 6.049644e-01 3.117460e+00 -7.687054e-01 7.538956e-02 3.145882e-01 1.500158e-01 5.978906e-01 7.210433e-01 3.327309e-01 1.912330e-01 3.502987e-01 1.529020e-01 1.539163e-01 -8.054274e-02 -4.535903e-02 3.278226e-01 -1.238195e-01 9.759640e-02 1.088210e-01 6.350159e-03 9.182049e-02 1.270319e-01 5.460136e-02 -3.342836e-02 -1.153522e-01 -1.094118e-01 -3.278970e-02 -2.264643e-02
<VARIANCE> 39
 1.600262e+01 2.656276e+01 3.852782e+01 3.016816e+01 4.563000e+01 3.821719e+01 4.377103e+01 4.297538e+01 4.266957e+01 4.553299e+01 4.414936e+01 4.156572e+01 1.613742e+01 4.284062e-01 7.000335e-01 9.522534e-01 1.113789e+00 1.437084e+00 1.613735e+00 1.849478e+00 1.853578e+00 1.975009e+00 1.937433e+00 1.856343e+00 1.802658e+00 2.186924e-01 9.972917e-02 1.226710e-01 1.556886e-01 1.907655e-01 2.543161e-01 2.635711e-01 3.213722e-01 3.416867e-01 3.753173e-01 3.955420e-01 3.539252e-01 3.384264e-01 2.975841e-02
<GCONST> 9.924041e+01
<MIXTURE> 7 7.032126e-02
<MEAN> 39
 -1.346470e+01 1.260150e+01 5.938565e+00 1.076088e-01 1.414844e+00 -3.351830e+00 -4.722041e-01 -2.816216e+00 -3.469825e+00 -3.744432e+00 1.947884e-01 -2.602479e+00 4.249498e+00 -4.022651e+00 1.321785e+00 8.073634e-02 5.371103e-01 2.518717e+00 2.080273e+00 1.163941e+00 9.316872e-01 1.125954e+00 1.063453e+00 5.992602e-01 -2.200607e-01 -9.530534e-03 5.994618e-01 -9.027410e-01 -1.450510e-01 -1.090598e-01 -3.389565e-01 2.117673e-01 1.577565e-01 4.646241e-01 4.494463e-01 5.035564e-01 2.564333e-01 4.265790e-01 -3.784298e-02
<VARIANCE> 39
 1.396692e+01 2.103474e+01 4.466805e+01 2.733573e+01 4.051716e+01 3.585469e+01 4.260537e+01 3.821926e+01 4.397157e+01 4.841188e+01 4.643378e+01 4.484850e+01 1.490386e+01 1.708049e+00 2.243128e+00 1.903248e+00 1.933985e+00 2.499225e+00 2.745183e+00 2.787617e+00 2.997441e+00 2.917338e+00 3.133061e+00 3.144990e+00 2.938953e+00 6.276189e-01 2.167994e-01 2.711941e-01 3.615416e-01 3.537108e-01 5.065832e-01 4.577286e-01 5.681776e-01 5.763156e-01 6.317023e-01 6.552972e-01 5.061129e-01 4.752256e-01 6.769253e-02
<GCONST> 1.153481e+02
<MIXTURE> 8 1.236043e-01
<MEAN> 39
 -1.053680e+01 1.626274e+00 4.576511e+00 -6.263121e-01 9.754676e-01 7.338181e-01 2.267280e+00 1.245298e+00 1.307257e+00 3.518894e-01 1.671566e+00 8.657719e-01 6.903325e-01 -1.787111e+00 3.881869e-01 4.687620e-01 -4.749700e-01 4.538073e-02 5.062250e-01 1.230244e-01 8.202871e-02 3.530214e-01 2.232872e-01 4.202245e-01 1.038918e-01 1.310613e+00 3.264782e-01 8.128791e-02 -1.240209e-01 1.581278e-01 3.792767e-03 -1.086815e-02 -5.130884e-02 -3.317702e-02 -2.435288e-02 1.347717e-02 -3.081600e-02 -1.216091e-02 -1.654087e-01
<VARIANCE> 39
 6.352233e+01 3.916365e+01 4.512241e+01 3.943381e+01 5.007893e+01 4.803619e+01 5.596947e+01 5.195768e+01 5.239802e+01 4.444510e+01 4.509930e+01 4.654380e+01 4.344519e+01 3.248769e+00 1.769161e+00 2.074129e+00 1.882087e+00 2.264507e+00 2.482484e+00 2.335570e+00 2.588279e+00 2.511173e+00 2.458000e+00 2.131494e+00 1.956872e+00 2.345648e+00 2.396972e-01 2.786251e-01 3.687817e-01 4.192066e-01 4.518680e-01 4.974222e-01 5.299006e-01 5.649452e-01 4.956747e-01 4.988716e-01 4.309282e-01 4.085074e-01 2.185967e-01
<GCONST> 1.207256e+02
<STATE> 3
<NUMMIXES> 8
<MIXTURE> 1 2.230551e-01
<MEAN> 39
 -2.319007e+01 1.200840e+01 7.548229e+00 2.393147e+00 8.700117e+00 6.894578e+00 7.834926e+00 3.328680e+00 6.781830e+00 4.330356e+00 6.132810e+00 -1.509226e+00 4.199126e+00 -8.150494e-02 -1.966491e-01 1.254343e-01 2.386990e-02 1.847074e-02 2.367716e-01 1.430276e-01 4.196020e-02 8.384632e-02 -1.331985e-02 4.826281e-02 -2.966356e-02 5.769532e-02 1.660430e-01 -1.596912e-01 -1.032140e-01 -1.794778e-01 -3.475218e-01 -2.972619e-01 -1.763856e-01 -1.510678e-01 -1.955349e-01 -1.231344e-01 -6.376866e-02 4.604436e-02 -7.490110e-02
<VARIANCE> 39
 8.539591e+00 2.402018e+01 3.115646e+01 1.990063e+01 2.480402e+01 2.871441e+01 2.914601e+01 2.496480e+01 3.435893e+01 2.529026e+01 2.530968e+01 2.389925e+01 1.763723e+01 3.687321e-01 7.465962e-01 7.684777e-01 8.783907e-01 1.172842e+00 1.084892e+00 1.171669e+00 1.121221e+00 1.311325e+00 1.261958e+00 1.246859e+00 1.034190e+00 2.793448e-01 9.563422e-02 1.077215e-01 1.270428e-01 1.408041e-01 1.978843e-01 2.144618e-01 2.304952e-01 2.239912e-01 2.474877e-01 2.480824e-01 2.286125e-01 1.990035e-01 3.747312e-02
<GCONST> 8.705749e+01
<MIXTURE> 2 1.149992e-01
<MEAN> 39
 -2.245010e+01 5.030217e+00 7.790564e+00 -5.041415e-01 3.897114e+00 5.777978e+00 5.780030e+00 4.190775e+00 4.943196e+00 3.470476e+00 6.289463e+00 2.355595e+00 4.012953e+00 9.943259e-01 -3.719990e-01 1.644354e-01 1.794576e-01 -7.564057e-01 -6.420740e-01 -1.740150e-01 -3.250262e-01 -5.169177e-01 -3.395920e-01 -3.382407e-01 -1.366204e-01 -1.788726e-01 1.139523e+00 3.498760e-01 2.153511e-01 9.280841e-02 -5.404782e-01 -8.275001e-01 -6.743065e-01 -6.365815e-01 -6.693217e-01 -5.819920e-01 -5.145549e-01 -3.166122e-01 8.636730e-02
<VARIANCE> 39
 1.213922e+01 3.313479e+01 2.983430e+01 2.253410e+01 3.795496e+01 3.740276e+01 3.445070e+01 3.531562e+01 3.377084e+01 2.762579e+01 2.886736e+01 3.368021e+01 1.719339e+01 9.320994e-01 9.227802e-01 1.163115e+00 1.171431e+00 1.457853e+00 1.616704e+00 1.594454e+00 1.765032e+00 1.761445e+00 1.800736e+00 1.588934e+00 1.484134e+00 4.546643e-01 2.098755e-01 1.743788e-01 2.532020e-01 2.365077e-01 3.296793e-01 3.416330e-01 3.202840e-01 3.574488e-01 3.511207e-01 3.546242e-01 3.528338e-01 3.363101e-01 7.665616e-02
<GCONST> 1.011268e+02
<MIXTURE> 3 5.003607e-02
<MEAN> 39
 -1.662215e+01 -3.482505e+00 1.282436e+01 6.300560e+00 -2.554674e-01 8.839009e+00 5.896848e+00 -2.655660e+00 1.262100e+00 5.198047e+00 3.632114e+00 5.134262e-01 7.583690e+00 -1.320147e-02 -8.189009e-02 -3.892998e-03 -5.243606e-03 5.669026e-03 9.785011e-03 4.606314e-02 3.397482e-03 4.139013e-02 6.975067e-02 4.780569e-02 5.950565e-04 -5.272761e-02 1.954949e-02 -1.521320e-02 -6.994072e-02 -8.161099e-02 -3.192194e-02 -5.205357e-02 -4.616823e-02 5.770516e-02 8.650195e-03 -7.266229e-03 2.448995e-02 2.491285e-02 -2.272559e-02
<VARIANCE> 39
 2.389247e+01 1.291793e+01 1.253928e+01 1.734178e+01 2.741647e+01 3.336298e+01 2.179397e+01 2.792644e+01 2.846583e+01 4.262645e+01 1.569081e+01 2.439185e+01 1.149867e+01 1.868738e-01 3.499990e-01 5.127075e-01 5.977167e-01 6.633669e-01 8.388389e-01 1.035555e+00 1.064269e+00 1.132437e+00 1.222769e+00 1.084201e+00 9.852383e-01 8.966926e-02 3.344987e-02 6.321695e-02 8.741824e-02 1.105526e-01 1.177198e-01 1.654670e-01 2.047972e-01 2.085818e-01 2.090386e-01 2.583399e-01 2.108424e-01 1.868694e-01 1.666433e-02
<GCONST> 7.695599e+01
<MIXTURE> 4 2.023203e-01
<MEAN> 39
 -2.357189e+01 3.727871e+00 9.594641e+00 -1.271980e+00 3.112965e+00 6.698913e+00 4.348562e+00 3.760885e+00 5.221162e+00 1.735361e+00 6.082470e+00 4.532169e+00 5.197029e+00 -9.392814e-02 -2.329535e-01 6.780584e-02 6.527767e-02 -9.623821e-02 1.338571e-01 2.461869e-01 1.705540e-02 1.850797e-01 9.747232e-02 2.502597e-02 7.401820e-02 -4.427716e-02 2.027112e-01 4.282269e-02 2.005468e-02 9.570149e-02 -1.398228e-02 -1.133440e-01 -8.828110e-02 -8.740199e-02 -1.618616e-01 -9.459830e-02 -1.906217e-01 -1.788516e-01 -3.511233e-02
<VARIANCE> 39
 8.728251e+00 2.452220e+01 2.276570e+01 2.156631e+01 3.479684e+01 3.615511e+01 3.831377e+01 3.518883e+01 3.130622e+01 2.880430e+01 2.492391e+01 2.284902e+01 1.605800e+01 2.636675e-01 4.527120e-01 5.993702e-01 7.428082e-01 1.063201e+00 1.248899e+00 1.313558e+00 1.423056e+00 1.374895e+00 1.397692e+00 1.238757e+00 1.177450e+00 1.314318e-01 5.904338e-02 8.452094e-02 1.193035e-01 1.346415e-01 1.834807e-01 2.346808e-01 2.399572e-01 2.692252e-01 2.636074e-01 2.890817e-01 2.393694e-01 2.273370e-01 2.022481e-02
<GCONST> 8.578223e+01
<MIXTURE> 5 1.635216e-01
<MEAN> 39
 -1.964858e+01 1.008538e+01 6.288088e+00 -2.934684e-01 6.110225e+00 2.924550e+00 2.074867e+00 1.437892e+00 4.586596e-01 7.250774e-01 2.065269e+00 -2.595982e+00 1.524815e+00 -1.323879e-01 -1.090261e-01 8.296314e-02 2.511075e-02 3.888947e-02 2.427870e-01 1.346953e-01 1.417019e-02 1.684870e-01 2.880789e-02 5.970630e-02 3.172190e-02 -6.530465e-02 1.361345e-01 -5.944779e-02 9.768637e-04 -1.018326e-02 -1.119838e-01 -2.639763e-02 4.199779e-02 4.457520e-02 7.616215e-02 9.133191e-02 7.855524e-02 1.125311e-01 -1.421320e-02
<VARIANCE> 39
 1.685515e+01 2.349647e+01 2.086348e+01 2.386752e+01 3.293547e+01 2.739592e+01 3.072687e+01 3.436718e+01 2.803396e+01 3.115759e+01 2.597032e+01 2.636094e+01 1.323527e+01 2.257009e-01 3.718630e-01 5.138867e-01 6.823223e-01 9.550793e-01 1.042762e+00 1.301905e+00 1.411467e+00 1.487880e+00 1.376844e+00 1.237367e+00 1.211411e+00 9.689198e-02 4.484797e-02 6.815193e-02 9.474199e-02 1.362699e-01 1.882747e-01 1.968084e-01 2.425507e-01 2.714005e-01 2.741786e-01 2.705860e-01 2.398284e-01 2.263828e-01 1.525473e-02
<GCONST> 8.353331e+01
<MIXTURE> 6 9.057937e-02
<MEAN> 39
 -2.052235e+01 1.095008e+01 6.280985e+00 2.007543e+00 6.981915e+00 5.015460e+00 5.625917e+00 1.967638e+00 2.850523e+00 2.160268e+00 2.796255e+00 -3.044230e+00 2.305604e+00 1.242575e+00 -4.008890e-01 1.606657e-01 -3.955299e-01 -1.265586e+00 -8.703031e-01 -4.994662e-01 -2.885405e-01 -2.488929e-01 -5.381270e-02 3.794847e-01 3.889457e-01 8.234534e-03 1.177661e+00 -2.325518e-01 -1.808821e-01 -4.427234e-01 -1.104072e+00 -1.001591e+00 -6.366833e-01 -2.953308e-01 -1.847030e-01 -9.416992e-02 1.935189e-01 4.982575e-01 1.985194e-01
<VARIANCE> 39
 2.014099e+01 2.638870e+01 3.181072e+01 2.642543e+01 3.040281e+01 3.587098e+01 4.196802e+01 3.131249e+01 4.404883e+01 3.511269e+01 3.370894e+01 2.948721e+01 1.761147e+01 1.439104e+00 1.135575e+00 1.235569e+00 1.422714e+00 1.933833e+00 1.999033e+00 1.865770e+00 1.900462e+00 1.824243e+00 1.820115e+00 1.863746e+00 1.858475e+00 5.910815e-01 2.437968e-01 2.686862e-01 2.930090e-01 2.781828e-01 3.113548e-01 3.739727e-01 4.443006e-01 4.464471e-01 4.987971e-01 5.440986e-01 5.706468e-01 5.704597e-01 1.190575e-01
<GCONST> 1.080110e+02
<MIXTURE> 7 5.069770e-02
<MEAN> 39
 -3.170100e+00 -1.136338e+00 1.938154e+00 -7.428416e-01 -1.911548e+00 -8.149129e-01 1.996089e+00 1.100963e+00 1.403098e-01 1.091553e+00 1.290973e+00 1.951528e+00 4.246516e+00 1.702875e-01 -1.092275e-01 -1.628023e-01 -3.103598e-03 3.715738e-03 -1.440985e-01 -1.792748e-01 1.444111e-01 -5.051513e-02 7.691674e-02 6.926032e-02 -6.326733e-02 -6.285657e-02 9.075340e-02 3.606091e-02 -1.527020e-02 -7.936949e-03 2.065883e-02 -6.242131e-02 -1.315598e-01 -5.518613e-02 -7.169943e-02 -3.737396e-02 -2.436533e-02 -1.839035e-02 -7.707161e-02
<VARIANCE> 39
 5.318098e+01 3.917691e+01 4.563531e+01 4.839569e+01 5.971262e+01 6.437685e+01 5.850349e+01 6.311086e+01 7.461340e+01 6.942946e+01 7.134158e+01 8.321806e+01 4.112407e+01 3.699768e-01 6.056941e-01 8.913800e-01 1.190435e+00 1.726110e+00 1.668797e+00 2.043677e+00 2.073965e+00 2.136778e+00 2.114091e+00 1.744380e+00 1.832493e+00 3.632768e-01 5.832786e-02 1.026061e-01 1.455999e-01 2.044160e-01 2.713540e-01 3.081898e-01 3.549136e-01 3.585027e-01 3.823718e-01 4.310432e-01 3.041439e-01 3.124688e-01 4.781092e-02
<GCONST> 1.067957e+02
<MIXTURE> 8 1.047907e-01
<MEAN> 39
 -1.940884e+01 4.430592e+00 6.481243e+00 -1.428781e+00 1.672369e+00 3.065842e+00 1.477008e+00 3.659077e-01 1.669312e+00 -4.031203e-02 2.585932e+00 7.799134e-01 3.460227e+00 6.705111e-01 -4.129528e-01 -8.841038e-02 2.185512e-01 -4.895613e-01 -4.439139e-01 -6.701346e-02 -2.172735e-01 -2.541279e-01 -1.911250e-01 -2.901829e-01 -1.176495e-01 -2.591649e-01 5.141987e-01 9.246531e-02 1.136965e-01 2.452357e-01 5.437081e-02 -1.230576e-01 5.153925e-02 1.385401e-01 3.423370e-02 4.922431e-02 4.477227e-02 1.539775e-02 -7.713878e-02
<VARIANCE> 39
 2.393436e+01 4.270721e+01 2.799001e+01 2.514385e+01 4.045485e+01 3.895865e+01 3.698786e+01 3.740566e+01 3.610000e+01 3.204943e+01 2.609472e+01 3.236718e+01 2.246021e+01 8.119528e-01 8.602083e-01 9.976516e-01 1.223233e+00 1.600083e+00 1.591702e+00 1.685017e+00 1.873286e+00 1.776223e+00 1.753471e+00 1.529485e+00 1.578401e+00 4.395353e-01 2.163819e-01 1.792925e-01 2.327331e-01 2.144597e-01 3.007458e-01 3.390348e-01 3.244971e-01 3.546793e-01 3.255832e-01 3.394026e-01 2.883263e-01 3.221662e-01 7.608436e-02
<GCONST> 1.019355e+02
<STATE> 4
<NUMMIXES> 8
<MIXTURE> 1 1.526368e-01
<MEAN> 39
 -9.596260e+00 1.037615e+01 1.085467e+01 8.389036e-01 -2.878332e+00 -4.624276e+00 -2.255514e+00 -4.412947e+00 -3.762540e+00 -3.025890e+00 7.604203e-01 -8.959668e-01 4.705453e+00 5.058569e+00 -2.312179e-01 4.883123e-01 -3.024032e-01 -3.499901e+00 -3.331376e+00 -2.270231e+00 -1.581111e+00 -1.765993e+00 -1.541176e+00 -1.321179e+00 -6.348491e-01 1.032704e+00 -1.423603e-01 -7.550296e-01 -3.897649e-01 -1.823201e-01 7.127906e-02 5.133864e-01 4.914612e-01 7.277611e-01 5.873684e-01 4.414176e-01 1.726750e-01 6.871440e-02 1.095639e-01
<VARIANCE> 39
 2.425515e+01 2.623944e+01 3.136767e+01 2.627862e+01 3.765315e+01 3.808181e+01 3.689831e+01 3.847687e+01 3.233630e+01 3.044866e+01 3.049244e+01 3.429322e+01 2.040733e+01 1.847239e+00 3.323857e+00 2.969043e+00 3.011803e+00 3.220120e+00 3.402105e+00 3.087334e+00 3.792404e+00 3.991653e+00 3.387813e+00 3.273548e+00 3.295186e+00 6.560404e-01 2.974198e-01 2.368265e-01 2.589878e-01 2.832355e-01 4.770832e-01 4.811672e-01 4.991442e-01 5.135109e-01 4.727952e-01 5.079156e-01 5.173392e-01 4.287670e-01 8.756183e-02
<GCONST> 1.161892e+02
<MIXTURE> 2 1.706185e-01
<MEAN> 39
 -1.989491e+01 5.083108e+00 8.164740e+00 4.859895e-01 2.765679e+00 4.405359e+00 5.457530e+00 2.760609e+00 2.938621e+00 2.041429e+00 4.536515e+00 1.117529e+00 3.058338e+00 3.961861e+00 8.767064e-01 9.027089e-01 1.726884e-01 -2.384788e+00 -2.898234e+00 -2.124471e+00 -2.009370e+00 -2.020778e+00 -1.599849e+00 -1.344324e+00 -7.396145e-01 3.667803e-01 1.244075e+00 5.829647e-02 3.102511e-02 -1.577706e-01 -7.772664e-01 -7.940837e-01 -6.332931e-01 -3.696450e-01 -3.710216e-01 -3.441522e-01 -3.268976e-01 -2.015008e-01 3.565938e-01
<VARIANCE> 39
 1.594589e+01 3.574055e+01 3.101372e+01 2.477793e+01 3.845741e+01 3.686617e+01 3.725848e+01 3.271246e+01 3.495743e+01 2.951151e+01 3.044213e+01 3.639112e+01 1.903786e+01 2.007560e+00 1.348779e+00 1.774579e+00 2.107073e+00 2.704880e+00 2.283116e+00 2.199174e+00 2.397990e+00 2.389816e+00 2.380491e+00 2.207685e+00 2.228689e+00 5.676947e-01 2.249430e-01 3.113931e-01 3.302574e-01 3.302650e-01 4.029095e-01 4.971634e-01 4.310749e-01 4.599074e-01 5.147418e-01 4.902963e-01 4.695268e-01 4.186028e-01 9.013646e-02
<GCONST> 1.109785e+02
<MIXTURE> 3 1.017542e-01
<MEAN> 39
 -1.615530e+01 9.724927e+00 7.131021e+00 3.461704e-01 2.541154e+00 1.709112e+00 3.496932e+00 7.429962e-01 3.161923e+00 2.088298e+00 4.732930e+00 -6.297382e-01 1.908097e+00 4.924178e+00 -1.120693e+00 -6.077244e-01 -1.494906e+00 -3.893933e+00 -3.421652e+00 -2.099440e+00 -7.425175e-01 -8.117225e-01 -5.120376e-01 4.815972e-01 1.615282e+00 1.038188e+00 7.520615e-01 -7.665429e-01 -3.018039e-01 -2.838445e-01 -4.383675e-01 -2.352101e-01 -1.560841e-01 2.259103e-01 -7.699693e-02 -6.797086e-02 -9.009693e-02 3.520766e-01 5.098140e-01
<VARIANCE> 39
 2.487524e+01 2.719376e+01 2.884278e+01 2.577994e+01 3.776887e+01 3.730573e+01 3.787948e+01 3.496340e+01 3.701834e+01 3.377203e+01 3.574961e+01 3.445229e+01 2.010329e+01 2.085500e+00 2.220933e+00 2.884698e+00 2.789122e+00 3.030873e+00 3.040014e+00 3.674137e+00 4.139427e+00 4.546479e+00 5.164736e+00 6.198967e+00 5.675948e+00 8.110117e-01 3.527997e-01 2.748378e-01 3.545801e-01 3.469669e-01 5.969915e-01 5.325028e-01 5.166676e-01 5.315761e-01 6.216479e-01 6.380532e-01 7.687457e-01 7.696992e-01 1.313406e-01
<GCONST> 1.212144e+02
<MIXTURE> 4 1.143565e-01
<MEAN> 39
 -2.136317e+00 8.189462e+00 9.817363e+00 -3.944226e+00 -1.170589e+01 -6.108442e+00 -2.878049e+00 -7.253364e+00 -4.544716e+00 -2.476634e+00 -1.673723e+00 -5.995788e+00 5.335372e+00 3.104383e+00 -1.538354e+00 1.475146e-01 -1.180249e+00 -2.180007e+00 -7.089097e-01 -3.306916e-01 5.910585e-03 -6.231589e-01 4.433464e-02 -1.326505e+00 -6.304387e-01 7.473686e-01 -1.086914e+00 -3.566736e-01 -2.170270e-01 3.155926e-01 1.211351e+00 9.478595e-01 7.197107e-01 8.842180e-01 6.031751e-01 5.096878e-01 3.062661e-01 3.836464e-01 -1.915095e-01
<VARIANCE> 39
 1.391011e+01 2.530655e+01 3.888328e+01 2.678111e+01 3.048893e+01 3.206857e+01 3.515213e+01 3.802074e+01 3.559122e+01 3.735262e+01 3.444594e+01 3.197124e+01 1.393882e+01 2.460518e+00 2.539564e+00 2.723337e+00 2.155496e+00 3.723389e+00 4.002572e+00 3.455078e+00 3.786993e+00 3.321695e+00 3.869271e+00 3.356022e+00 2.825543e+00 7.633910e-01 1.807027e-01 2.933362e-01 2.500691e-01 2.811560e-01 4.223793e-01 4.870586e-01 4.517600e-01 4.354896e-01 4.717864e-01 4.898242e-01 3.888486e-01 3.659761e-01 6.187966e-02
<GCONST> 1.138153e+02
<MIXTURE> 5 1.386729e-01
<MEAN> 39
 1.458365e+00 -5.724114e-01 4.370210e+00 -2.216295e+00 -8.575552e+00 -6.960202e+00 -1.924447e+00 3.373321e+00 5.829936e-01 -4.270320e+00 -1.178221e+00 -1.192903e-01 8.028531e+00 1.412197e+00 -2.200083e+00 -1.314060e+00 -3.803304e-01 3.527322e-01 7.995027e-01 4.533232e-01 1.630893e+00 7.607793e-01 6.591562e-02 -7.626908e-01 -2.745837e-01 7.205779e-01 -1.066894e+00 3.766902e-01 -1.328635e-02 1.767938e-01 1.064554e+00 8.228683e-01 3.053259e-01 -1.661250e-01 1.026831e-01 3.350575e-01 1.705060e-01 -5.922380e-02 -3.477540e-01
<VARIANCE> 39
 1.168789e+01 2.100268e+01 3.161680e+01 3.248814e+01 3.555983e+01 3.741830e+01 4.593190e+01 3.738591e+01 5.723433e+01 4.175853e+01 3.776964e+01 4.501720e+01 1.741241e+01 1.041997e+00 1.873276e+00 2.241643e+00 1.794828e+00 3.739632e+00 2.655540e+00 3.678543e+00 3.464090e+00 4.423857e+00 3.756315e+00 3.167502e+00 2.815232e+00 5.341172e-01 2.774409e-01 2.497008e-01 2.820334e-01 3.642974e-01 5.013659e-01 5.888053e-01 5.827278e-01 5.735635e-01 6.565570e-01 5.920620e-01 5.197539e-01 5.506615e-01 8.150304e-02
<GCONST> 1.161402e+02
<MIXTURE> 6 1.106516e-01
<MEAN> 39
 -1.811754e+00 4.059651e+00 1.023533e+01 3.068202e+00 -7.024557e+00 -9.438354e+00 -3.591216e+00 -1.308729e+00 -3.013303e+00 -3.654147e+00 7.779096e-01 2.926969e+00 7.286516e+00 3.571467e+00 -1.650016e+00 -5.160865e-01 1.342800e-02 -2.437474e+00 -1.688325e+00 -1.039004e+00 3.921183e-01 4.282841e-01 -2.253317e-01 6.479640e-02 -1.346241e-01 9.790023e-01 -1.102742e+00 -3.404925e-01 -4.329109e-01 -3.681903e-01 6.793041e-01 1.129396e+00 6.282910e-01 5.284591e-01 6.264330e-01 4.995496e-01 2.001382e-01 -1.426884e-01 -2.100631e-01
<VARIANCE> 39
 1.787237e+01 1.792339e+01 3.118680e+01 2.437415e+01 3.312680e+01 3.219212e+01 2.986653e+01 3.037716e+01 4.213179e+01 2.907058e+01 2.734716e+01 2.282436e+01 2.035486e+01 2.815312e+00 2.636462e+00 2.899866e+00 1.741687e+00 2.978183e+00 3.907252e+00 3.895229e+00 3.982735e+00 4.423281e+00 3.538965e+00 3.470668e+00 2.833429e+00 8.435979e-01 2.282833e-01 2.811633e-01 2.279500e-01 2.423970e-01 4.273587e-01 4.597330e-01 4.271405e-01 4.263442e-01 4.929002e-01 4.500437e-01 4.074700e-01 3.604379e-01 7.606994e-02
<GCONST> 1.131369e+02
<MIXTURE> 7 1.294275e-01
<MEAN> 39
 -8.681024e+00 2.631386e+00 3.430763e+00 1.156862e+00 2.617566e-01 -6.312305e-01 6.498703e-01 4.555216e-01 1.552639e+00 3.010317e-01 9.043095e-01 3.834843e-01 1.131785e+00 2.010302e+00 -3.120400e-01 -2.971886e-01 1.758631e-01 -3.391521e-01 -6.298997e-01 -5.756359e-01 -2.544825e-01 -3.835887e-01 -1.039848e-01 -2.252982e-01 -1.545196e-01 -3.678100e-01 2.058246e-01 6.977220e-02 5.032275e-02 -1.342058e-01 -6.446051e-02 4.086609e-02 -4.608443e-02 -4.342346e-02 -7.144339e-02 -3.059849e-02 1.522623e-02 6.745803e-03 1.059635e-01
<VARIANCE> 39
 6.478510e+01 4.904833e+01 4.798479e+01 4.288000e+01 4.922079e+01 4.530478e+01 5.443531e+01 5.202022e+01 5.027911e+01 4.692916e+01 4.532597e+01 4.554808e+01 3.465840e+01 2.880426e+00 2.378515e+00 2.529483e+00 2.569573e+00 3.068443e+00 2.944344e+00 3.088533e+00 3.174242e+00 2.967163e+00 2.728451e+00 2.611294e+00 2.274143e+00 2.005218e+00 3.985046e-01 3.450902e-01 3.782432e-01 4.725708e-01 4.625265e-01 4.572008e-01 5.793856e-01 6.004547e-01 5.122591e-01 5.411341e-01 5.003362e-01 4.434951e-01 2.761578e-01
<GCONST> 1.244311e+02
<MIXTURE> 8 8.188191e-02
<MEAN> 39
 -2.849644e+00 4.753890e+00 2.988701e+00 -5.837732e+00 -9.009931e+00 -7.203754e+00 -2.067846e+00 1.109502e-01 2.332465e+00 3.300631e+00 9.267196e+00 7.474094e+00 6.653728e+00 3.905252e+00 -3.100577e+00 -9.692547e-01 -1.539344e+00 -2.004077e+00 -1.510202e+00 -7.270145e-01 6.763914e-01 -7.674506e-01 -4.660657e-02 4.549295e-01 2.357729e+00 1.564270e+00 -1.039118e+00 -3.021932e-01 6.658298e-02 5.660612e-01 1.414473e+00 1.160074e+00 7.540993e-01 4.422101e-01 2.829732e-02 -1.956847e-01 -7.196635e-01 -6.127146e-01 -8.111341e-02
<VARIANCE> 39
 2.326282e+01 3.735559e+01 3.639336e+01 3.040475e+01 3.840978e+01 3.569373e+01 4.648420e+01 5.156157e+01 4.812402e+01 6.312699e+01 6.529361e+01 5.890455e+01 2.111919e+01 2.724728e+00 2.750253e+00 4.132958e+00 3.358279e+00 6.170335e+00 4.755996e+00 5.426529e+00 5.739908e+00 5.950891e+00 6.317740e+00 8.015754e+00 8.013382e+00 1.038894e+00 3.333358e-01 4.273040e-01 3.945234e-01 4.663151e-01 6.561005e-01 5.022655e-01 6.936110e-01 7.727054e-01 6.477516e-01 7.213073e-01 7.301654e-01 6.929255e-01 1.370616e-01
<GCONST> 1.302674e+02
<TRANSP> 5
 0.000000e+00 1.000000e+00 0.000000e+00 0.000000e+00 0.000000e+00
 0.000000e+00 7.444459e-01 2.555541e-01 0.000000e+00 0.000000e+00
 0.000000e+00 0.000000e+00 8.454711e-01 1.545289e-01 0.000000e+00
 0.000000e+00 0.000000e+00 0.000000e+00 7.775691e-01 2.224310e-01
 0.000000e+00 0.000000e+00 0.000000e+00 0.000000e+00 0.000000e+00
<ENDHMM>
