~o
<STREAMINFO> 1 39
<VECSIZE> 39<NULLD><MFCC_D_A_Z_0><DIAGC>
~h "ae"
<BEGINHMM>
<NUMSTATES> 6
<STATE> 2
<NUMMIXES> 4
<MIXTURE> 1 2.093839e-01
<MEAN> 39
 1.518636e+00 -2.113104e+00 -1.410095e+00 -3.060930e+00 -1.237048e+00 2.142210e+00 1.863974e+00 -5.327787e-01 -9.330308e-01 -3.884083e+00 -1.682153e+00 2.107967e-01 8.003463e+00 -2.152377e-01 -4.959055e-01 -5.515182e-02 3.098164e-01 4.452409e-01 4.872304e-01 7.324824e-02 -1.517383e-03 6.984384e-02 -1.976906e-01 -9.296063e-02 -8.895672e-02 5.940602e-01 -9.502534e-02 1.682922e-01 1.001478e-01 1.847086e-01 7.036611e-02 -1.500907e-01 -1.091052e-01 -1.894209e-02 2.418916e-02 1.257678e-01 -2.067897e-02 -1.804221e-02 -3.245097e-01
<VARIANCE> 39
 2.428048e+01 4.914965e+01 3.097312e+01 7.417404e+01 6.063367e+01 6.943987e+01 8.557227e+01 9.781807e+01 8.759583e+01 1.059293e+02 1.253186e+02 1.225209e+02 4.354762e+01 7.563265e-01 1.406661e+00 1.499484e+00 2.394378e+00 2.580670e+00 3.167365e+00 3.279600e+00 3.253401e+00 3.407830e+00 3.263762e+00 3.462733e+00 3.850689e+00 1.061659e+00 1.879263e-01 2.238737e-01 2.553307e-01 4.167930e-01 4.974490e-01 5.977993e-01 6.061717e-01 6.132358e-01 6.681783e-01 6.424741e-01 6.448354e-01 6.504132e-01 2.237546e-01
<GCONST> 1.264724e+02
<MIXTURE> 2 3.453870e-01
<MEAN> 39
 -3.362700e+00 -4.851335e+00 1.076397e+00 4.916620e+00 2.121554e+00 5.877154e+00 3.287195e+00 1.522117e+01 2.260338e+01 7.355372e+00 -1.581388e+01 -2.772772e+01 1.038154e+01 1.980294e-02 -3.855964e-03 -9.126362e-03 1.961323e-03 -1.639374e-02 1.817929e-02 2.322272e-02 1.992099e-02 -6.875952e-03 -2.253440e-04 -4.826795e-02 -2.794652e-02 -3.486676e-02 -1.225266e-02 -1.736976e-02 -3.270525e-02 -2.156464e-02 -1.793196e-02 -1.420366e-02 2.420273e-02 1.730976e-02 -4.118138e-03 -2.633616e-02 -1.171990e-02 2.655398e-02 -1.370550e-02
<VARIANCE> 39
 1.739648e+01 1.869016e+01 2.622221e+01 5.282011e+01 5.470986e+01 3.113552e+01 4.115916e+01 6.942627e+01 5.985067e+01 9.953722e+01 1.236914e+02 5.852221e+01 2.241431e+01 2.437281e-01 4.289310e-01 4.850627e-01 5.241691e-01 6.380720e-01 7.165614e-01 7.447935e-01 1.088353e+00 9.980074e-01 1.176437e+00 1.179416e+00 9.634593e-01 6.966121e-02 4.133989e-02 7.293319e-02 8.448806e-02 8.856783e-02 1.111681e-01 1.319142e-01 1.346238e-01 1.949433e-01 1.787299e-01 1.912839e-01 1.982922e-01 1.701104e-01 1.079295e-02
<GCONST> 8.393040e+01
<MIXTURE> 3 1.675605e-01
<MEAN> 39
 -2.042940e+00 -4.431195e+00 2.002946e-01 6.225065e+00 1.530248e+00 7.797626e+00 1.801317e+01 2.213332e+01 8.114960e+00 -2.255145e+01 -3.123136e+01 -2.305558e-01 9.595457e+00 1.981476e-02 -1.314280e-03 -2.321072e-02 1.591333e-02 -3.848424e-02 -1.976515e-02 6.388590e-02 4.918188e-03 -2.773576e-02 2.601810e-02 -5.918072e-02 -2.134608e-02 -3.779607e-02 2.244218e-06 -4.418585e-03 -1.963412e-02 -3.435336e-02 -3.726081e-04 5.708367e-03 -3.136390e-02 -3.998278e-02 5.456340e-02 8.870627e-02 4.268090e-02 -9.768771e-02 -2.697259e-03
<VARIANCE> 39
 2.188135e+01 2.360163e+01 3.206272e+01 6.244368e+01 4.957322e+01 4.606126e+01 6.610458e+01 7.534725e+01 7.916683e+01 1.119382e+02 9.224236e+01 1.860374e+02 2.357970e+01 3.528938e-01 6.595759e-01 8.120936e-01 8.294934e-01 1.009563e+00 1.019888e+00 1.269042e+00 1.395803e+00 1.549917e+00 1.813648e+00 1.454983e+00 2.497641e+00 1.055648e-01 6.487405e-02 1.219830e-01 1.501165e-01 1.365350e-01 1.844554e-01 1.841850e-01 2.180626e-01 2.662809e-01 2.474117e-01 2.976701e-01 2.463682e-01 3.133872e-01 1.668979e-02
<GCONST> 9.837899e+01
<MIXTURE> 4 2.776686e-01
<MEAN> 39
 -2.342962e+00 -4.652769e+00 -8.980184e-01 3.554178e+00 -2.879550e-01 5.116313e+00 8.035388e+00 1.694216e+01 2.222688e+01 4.892293e+00 -1.798711e+01 -2.641400e+01 8.945548e+00 -2.133312e-02 -2.177375e-02 5.343521e-02 1.358086e-01 -1.547822e-02 -7.831532e-03 -1.731679e-02 7.080074e-02 1.329839e-01 -4.395304e-02 -2.562726e-01 -1.903522e-01 -3.246010e-02 4.031022e-02 4.754893e-02 1.869803e-02 -1.865740e-02 2.538757e-02 -2.328824e-03 -5.369489e-05 -8.692901e-02 -1.490375e-01 -2.101414e-02 1.490538e-01 2.076532e-01 -1.467834e-02
<VARIANCE> 39
 1.992577e+01 3.051100e+01 3.158117e+01 7.624483e+01 5.834717e+01 4.288035e+01 7.895024e+01 6.484921e+01 6.538770e+01 1.374447e+02 1.597368e+02 7.776068e+01 2.442345e+01 5.576566e-01 9.303419e-01 1.279721e+00 1.789401e+00 1.837160e+00 2.042395e+00 2.742236e+00 2.840564e+00 3.044892e+00 4.247054e+00 4.899603e+00 3.948638e+00 2.791990e-01 9.536229e-02 1.653220e-01 2.288756e-01 2.772406e-01 3.180083e-01 3.598668e-01 4.478990e-01 5.068678e-01 5.230531e-01 6.109763e-01 6.520479e-01 6.175013e-01 4.770446e-02
<GCONST> 1.161087e+02
<STATE> 3
<NUMMIXES> 4
<MIXTURE> 1 3.763633e-01
<MEAN> 39
 -8.168213e-01 -7.200895e+00 -5.041292e-01 4.702165e+00 -4.120610e-02 4.997738e+00 -1.896903e+00 -5.012717e+00 9.215066e-01 -1.199933e+00 2.063249e+00 4.265543e+00 1.215237e+01 1.679713e-02 7.504026e-03 -4.673865e-03 3.782005e-02 -2.292939e-02 -2.238012e-03 4.299960e-03 1.307993e-02 -4.182623e-04 2.802633e-02 -1.242803e-03 9.574940e-03 -2.512318e-02 -1.854191e-03 -1.970897e-03 -3.198985e-02 -4.770155e-02 -2.512703e-02 -2.364197e-02 -7.838004e-03 -1.651167e-02 -2.486634e-02 -1.441381e-02 -4.762783e-03 -3.638370e-03 -1.411405e-02
<VARIANCE> 39
 1.134199e+01 1.788197e+01 2.486897e+01 6.197294e+01 4.815067e+01 3.094379e+01 6.242728e+01 5.000432e+01 4.972521e+01 6.527238e+01 9.522665e+01 8.251235e+01 1.296421e+01 1.269395e-01 2.445594e-01 3.351699e-01 5.172422e-01 5.756798e-01 6.082136e-01 6.854410e-01 6.685852e-01 6.645542e-01 6.941822e-01 7.041847e-01 6.718524e-01 4.183230e-02 2.109321e-02 3.969078e-02 6.022272e-02 8.265205e-02 9.621087e-02 1.053171e-01 1.191075e-01 1.154670e-01 1.165265e-01 1.225284e-01 1.247089e-01 1.184924e-01 6.224742e-03
<GCONST> 7.273865e+01
<MIXTURE> 2 3.865807e-01
<MEAN> 39
 2.953049e-01 -6.390524e+00 -1.374269e+00 2.413598e+00 -8.186419e-01 3.777197e+00 -1.223531e+00 -5.086829e+00 -1.288577e+00 -2.128222e+00 1.416541e+00 4.193060e+00 1.068006e+01 2.521569e-02 -1.625203e-02 -6.824437e-02 4.288502e-02 2.507196e-03 -3.302282e-02 -1.965669e-02 -3.305335e-02 -1.565435e-02 -2.941001e-03 3.960816e-02 1.494943e-02 -6.345753e-02 3.986546e-02 8.122994e-02 -1.597238e-03 -4.155881e-02 -1.377890e-02 -3.209453e-02 2.334718e-02 3.226053e-02 5.353201e-03 2.234728e-02 -5.080970e-03 -2.068618e-02 -6.402814e-02
<VARIANCE> 39
 1.670080e+01 3.434315e+01 2.869156e+01 7.845801e+01 5.665048e+01 4.966273e+01 6.876080e+01 6.163095e+01 5.982022e+01 6.907972e+01 8.498372e+01 1.045412e+02 2.753177e+01 3.699010e-01 6.977342e-01 9.068238e-01 1.488125e+00 1.650188e+00 1.767042e+00 1.928484e+00 1.805466e+00 1.852495e+00 1.856488e+00 1.957123e+00 2.034206e+00 2.173107e-01 5.789302e-02 1.143762e-01 1.587769e-01 2.250706e-01 2.730629e-01 3.149166e-01 3.353590e-01 3.155841e-01 3.195064e-01 3.119611e-01 3.260629e-01 3.267887e-01 3.973261e-02
<GCONST> 1.043106e+02
<MIXTURE> 3 7.813518e-02
<MEAN> 39
 -2.778700e+00 5.155335e+00 -5.750309e+00 -4.539593e+00 6.764951e+00 -5.545969e+00 1.804425e+01 1.722542e+01 2.313945e+01 9.150234e+00 -1.471317e+01 -3.052639e+01 7.378567e+00 1.017849e-02 2.552406e-02 -1.665969e-02 1.975737e-04 1.720103e-02 -3.073935e-02 6.946858e-02 -1.982272e-02 4.299866e-02 -5.739710e-02 -4.520592e-02 -2.892453e-02 -3.468247e-02 1.178322e-02 -1.475386e-02 1.746047e-02 -5.949526e-03 -2.389951e-02 3.241343e-02 -2.500189e-02 -1.250879e-03 -1.758404e-02 -1.328181e-02 1.551580e-02 3.599611e-02 -3.317047e-03
<VARIANCE> 39
 1.668666e+01 3.749105e+01 2.404009e+01 8.150449e+01 3.942666e+01 3.021866e+01 6.442036e+01 4.813643e+01 5.674187e+01 7.536030e+01 1.388580e+02 7.963844e+01 7.080177e+00 1.789405e-01 4.969862e-01 6.213124e-01 5.863612e-01 6.735320e-01 9.163024e-01 8.246822e-01 9.189190e-01 9.383587e-01 9.609397e-01 1.237962e+00 1.266762e+00 5.335502e-02 3.252627e-02 8.970224e-02 1.152748e-01 1.100953e-01 1.235337e-01 1.622137e-01 1.383871e-01 1.615008e-01 1.726658e-01 1.610483e-01 2.073677e-01 2.182949e-01 8.094432e-03
<GCONST> 8.426476e+01
<MIXTURE> 4 1.589208e-01
<MEAN> 39
 6.708521e+00 -1.281714e+00 -2.794544e+00 -1.258371e-01 -5.311312e+00 1.515533e+00 1.915115e+01 1.921557e+01 1.757383e+01 2.034382e+00 -1.841136e+01 -2.664224e+01 7.119480e-01 1.801599e-02 6.287089e-03 -3.664904e-03 -1.364641e-02 1.581609e-02 -2.703335e-03 1.556269e-03 1.719314e-02 -3.587348e-02 -4.647209e-02 -2.147551e-02 1.223964e-02 -4.160900e-02 -6.467329e-03 2.743137e-03 -3.603217e-03 -7.810084e-03 1.111312e-02 -1.062342e-02 -1.537258e-02 -1.250559e-02 -6.033497e-03 3.493623e-03 1.589272e-02 2.621413e-02 -1.851519e-03
<VARIANCE> 39
 1.651612e+01 1.558034e+01 1.935644e+01 3.527678e+01 2.432104e+01 5.470499e+01 6.796339e+01 5.067446e+01 7.492313e+01 1.057635e+02 2.197552e+02 8.249768e+01 1.783160e+01 1.897932e-01 4.310792e-01 5.869437e-01 7.819003e-01 7.251738e-01 1.134990e+00 1.065740e+00 1.352123e+00 1.491143e+00 1.319102e+00 1.812202e+00 1.552599e+00 6.598480e-02 3.645558e-02 8.471288e-02 1.204017e-01 1.515754e-01 1.396260e-01 2.158728e-01 1.978029e-01 2.580821e-01 2.790148e-01 2.296396e-01 2.970244e-01 2.567584e-01 9.746896e-03
<GCONST> 9.042390e+01
<STATE> 4
<NUMMIXES> 4
<MIXTURE> 1 3.591384e-01
<MEAN> 39
 3.814300e+00 -1.036668e+00 -4.464651e+00 -1.552841e+00 -3.357881e-01 -2.969114e-01 4.667661e+00 -2.354818e+00 -4.564501e+00 -6.306784e+00 -5.380306e+00 -4.246437e+00 7.282789e+00 1.983129e-02 2.161889e-02 -3.375403e-03 5.456911e-04 3.578236e-03 -2.761090e-02 6.882796e-04 2.462828e-02 9.714977e-04 -1.206643e-02 -1.685932e-02 5.814954e-03 -3.416209e-02 -2.424836e-03 -5.581679e-03 -9.964298e-03 -2.189521e-02 -2.087717e-02 -1.628816e-02 -1.490658e-02 -1.446551e-02 -8.843903e-03 -1.486109e-02 -8.230113e-03 -3.153714e-03 -7.901519e-03
<VARIANCE> 39
 2.016132e+01 3.854101e+01 2.355188e+01 8.412379e+01 6.033977e+01 6.110534e+01 5.937143e+01 5.773239e+01 5.397917e+01 3.705024e+01 4.654312e+01 4.515875e+01 1.193500e+01 7.925517e-02 1.739471e-01 2.577734e-01 3.885048e-01 4.450666e-01 5.735118e-01 6.179858e-01 6.669800e-01 6.435576e-01 6.088457e-01 5.895128e-01 5.617111e-01 3.352549e-02 1.232382e-02 2.791884e-02 4.334501e-02 6.379257e-02 7.671578e-02 9.893601e-02 1.050121e-01 1.155788e-01 1.167662e-01 1.061837e-01 1.018524e-01 1.000645e-01 4.289665e-03
<GCONST> 6.814705e+01
<MIXTURE> 2 1.253522e-01
<MEAN> 39
 3.373016e-01 -3.904055e+00 -1.670796e+00 2.843809e-01 5.062331e-02 2.631172e+00 1.358968e+00 2.287252e+00 4.841211e+00 2.226994e+00 1.088515e+00 -1.610864e+00 7.786526e+00 1.548778e-01 3.174134e-01 -2.463090e-01 -5.371105e-01 -6.641956e-02 -2.527089e-01 2.120755e-02 2.173355e-02 -6.501640e-02 -1.596757e-03 -2.182759e-02 -9.539834e-02 -3.513706e-01 6.129239e-02 1.413569e-01 3.126448e-02 -7.530513e-02 -1.033905e-01 -1.864299e-01 -1.528049e-02 -7.355262e-02 -1.255056e-01 -2.572948e-02 -8.021754e-02 -2.172988e-02 -1.558279e-01
<VARIANCE> 39
 2.568989e+01 3.901962e+01 3.226961e+01 7.778168e+01 6.297297e+01 6.178536e+01 7.915904e+01 1.085850e+02 1.300355e+02 1.631673e+02 1.774969e+02 2.410633e+02 4.113149e+01 7.125224e-01 1.113612e+00 1.477054e+00 2.287718e+00 2.415414e+00 2.947175e+00 3.094452e+00 3.132995e+00 2.883741e+00 3.395235e+00 3.558918e+00 3.723475e+00 6.030870e-01 1.108925e-01 1.729165e-01 2.382651e-01 3.324650e-01 4.048690e-01 5.203356e-01 5.146666e-01 5.522350e-01 5.575749e-01 6.357234e-01 6.593590e-01 6.685783e-01 1.012830e-01
<GCONST> 1.242133e+02
<MIXTURE> 3 4.826490e-01
<MEAN> 39
 4.426311e+00 -3.145908e-01 -5.240422e+00 -2.589113e+00 2.547735e-01 -2.058378e+00 3.473513e+00 -8.099207e-01 -4.526661e+00 -6.780421e+00 -5.241633e+00 -3.600752e+00 6.018059e+00 7.008415e-02 1.104136e-01 2.239904e-03 -3.674494e-02 -3.847607e-02 -1.309023e-01 -3.113064e-02 1.448519e-02 -1.637447e-02 -5.879929e-03 -4.544334e-02 -3.390529e-02 -1.420609e-01 3.551708e-03 1.322172e-02 4.983944e-02 9.029827e-03 -2.382686e-02 2.522155e-02 -5.016418e-03 -1.998797e-03 3.018529e-02 3.235602e-02 2.431769e-02 2.958402e-02 -1.274006e-02
<VARIANCE> 39
 2.385129e+01 4.418565e+01 3.375395e+01 8.203491e+01 5.348979e+01 5.655853e+01 6.070472e+01 6.319745e+01 5.143322e+01 5.017377e+01 5.067799e+01 6.335268e+01 2.203304e+01 2.160135e-01 5.030154e-01 7.057624e-01 1.010670e+00 1.221924e+00 1.618010e+00 1.770427e+00 1.789046e+00 1.662026e+00 1.563765e+00 1.510361e+00 1.662460e+00 1.459654e-01 3.499936e-02 7.661579e-02 1.181519e-01 1.638679e-01 2.171616e-01 2.719126e-01 3.039512e-01 3.093101e-01 2.881810e-01 2.799740e-01 2.659836e-01 2.847764e-01 1.941272e-02
<GCONST> 9.698280e+01
<MIXTURE> 4 3.286052e-02
<MEAN> 39
 -6.511107e+00 3.178898e+00 -3.147842e-01 -4.776289e+00 1.000932e+01 -2.057892e+00 1.999482e+01 2.448651e+01 1.693576e+01 -1.033346e+01 -3.920311e+01 -1.714645e+01 1.273810e+01 1.155171e-02 2.093883e-02 1.506804e-02 -4.556683e-02 -1.166232e-02 -6.565903e-03 5.145654e-02 3.882981e-02 -3.623381e-02 -5.705023e-02 -1.126125e-01 6.606220e-02 -1.011189e-02 5.803892e-03 -1.571422e-02 -2.080361e-02 -1.724211e-02 -2.316782e-02 2.138915e-02 -4.110497e-02 -5.140371e-03 1.374286e-02 6.017391e-02 8.806752e-02 -6.569128e-02 -7.134558e-03
<VARIANCE> 39
 7.360441e+00 1.662496e+01 1.682867e+01 2.094893e+01 1.824390e+01 2.339605e+01 3.117499e+01 2.037480e+01 2.951486e+01 3.407107e+01 4.044873e+01 2.177937e+01 1.103860e+01 3.918801e-01 7.801037e-01 1.030515e+00 8.250988e-01 8.435817e-01 1.047189e+00 9.967239e-01 1.132712e+00 1.406642e+00 1.479272e+00 1.235335e+00 1.287967e+00 9.999295e-02 8.315971e-02 1.616876e-01 2.208238e-01 1.637561e-01 1.711124e-01 2.255526e-01 1.722935e-01 2.168844e-01 2.413203e-01 2.509928e-01 2.120880e-01 2.020622e-01 2.037303e-02
<GCONST> 8.448210e+01
<STATE> 5
<NUMMIXES> 4
<MIXTURE> 1 4.104188e-01
<MEAN> 39
 2.797050e+00 -8.166522e-01 -2.305016e+00 -3.305966e+00 -1.508598e+00 -8.142499e-02 -4.991328e-01 -3.312228e+00 -3.139772e+00 -4.679219e+00 -1.126066e+00 1.564966e+00 5.230670e+00 3.366164e-01 7.711892e-01 4.094613e-01 -2.527211e-01 -6.065309e-01 -7.828768e-01 -2.518465e-01 -1.848357e-01 -1.594411e-01 1.275091e-01 -2.150338e-01 -1.348513e-01 -9.342957e-01 -2.630534e-02 9.792072e-02 1.739563e-01 1.581875e-01 1.560530e-02 -9.285732e-02 -4.076548e-02 -4.882663e-02 -4.533836e-02 5.862198e-02 -3.896492e-02 -2.511678e-02 -1.542972e-01
<VARIANCE> 39
 2.622564e+01 4.101821e+01 3.137841e+01 7.042931e+01 5.996855e+01 6.213552e+01 6.921848e+01 5.915892e+01 5.500909e+01 7.602400e+01 9.753351e+01 1.153791e+02 3.733657e+01 6.511328e-01 1.220526e+00 1.367124e+00 2.293711e+00 2.525084e+00 3.089064e+00 3.264632e+00 3.005941e+00 2.919389e+00 2.864087e+00 3.034451e+00 2.853879e+00 6.756031e-01 1.004786e-01 1.712320e-01 2.271987e-01 3.496354e-01 4.074189e-01 5.267484e-01 5.716501e-01 5.254413e-01 4.820826e-01 4.787041e-01 4.996102e-01 4.852765e-01 9.666303e-02
<GCONST> 1.187706e+02
<MIXTURE> 2 2.117718e-01
<MEAN> 39
 -9.135982e-02 -2.104216e+00 -2.969253e+00 -1.736893e+00 -3.864303e-01 3.674428e+00 1.089680e+01 1.808778e+01 1.943048e+01 3.166948e+00 -1.576608e+01 -2.171898e+01 4.783885e+00 1.884680e-01 8.043094e-02 -1.390173e-03 -3.213654e-01 -3.672957e-01 -4.431778e-01 -5.239382e-01 -7.968940e-01 -6.792546e-01 3.947785e-01 1.514874e+00 1.401939e+00 -6.414722e-01 -6.281554e-02 6.513219e-02 1.122892e-01 1.163791e-01 8.708920e-02 -1.501786e-01 -2.640539e-01 -3.600713e-01 -4.279069e-01 -7.657976e-02 2.303961e-01 3.847536e-01 -1.026039e-01
<VARIANCE> 39
 2.521460e+01 3.492233e+01 2.811554e+01 7.164291e+01 5.677298e+01 5.742567e+01 9.341193e+01 6.364010e+01 8.748807e+01 2.035139e+02 1.697718e+02 1.428484e+02 3.794085e+01 1.404085e+00 1.436304e+00 1.957231e+00 2.891770e+00 3.915331e+00 3.834084e+00 5.404007e+00 5.406955e+00 7.277824e+00 8.136577e+00 9.818347e+00 1.165187e+01 1.665728e+00 2.023015e-01 2.414694e-01 3.351506e-01 4.622943e-01 5.816953e-01 6.247796e-01 8.481570e-01 8.739162e-01 1.063814e+00 1.266445e+00 1.294507e+00 1.372425e+00 2.199376e-01
<GCONST> 1.373778e+02
<MIXTURE> 3 1.553457e-01
<MEAN> 39
 2.866149e+00 -3.900100e-01 -9.402835e-01 -1.878530e+00 -2.990582e+00 -1.428853e+00 1.915810e+00 4.855993e-01 1.013318e+00 -1.278255e+00 -2.306849e+00 -1.821263e+00 1.780689e+00 -4.541574e-01 6.785870e-01 5.928251e-01 2.525107e-01 3.290564e-01 -2.704206e-01 -6.185799e-01 -4.921038e-01 -8.647462e-01 -2.880930e-01 -3.873884e-02 2.738239e-01 -1.235621e+00 -3.102306e-01 -1.307772e-01 -4.080755e-02 1.348786e-01 2.890406e-01 2.933910e-01 6.883608e-02 1.395145e-01 1.830791e-01 2.350124e-02 -1.495759e-01 -2.297470e-01 1.242810e-01
<VARIANCE> 39
 2.693225e+01 4.925699e+01 3.336631e+01 5.810305e+01 4.829342e+01 6.190388e+01 7.922675e+01 8.337076e+01 1.080833e+02 1.331825e+02 1.061838e+02 1.129970e+02 5.662465e+01 2.328604e+00 2.490445e+00 2.478438e+00 3.849214e+00 3.798415e+00 5.115139e+00 5.541949e+00 5.983215e+00 7.063181e+00 6.411562e+00 5.559660e+00 6.495444e+00 4.137131e+00 2.950495e-01 3.971414e-01 4.590094e-01 6.229246e-01 6.613392e-01 7.977808e-01 1.062545e+00 9.552860e-01 1.186616e+00 1.088412e+00 1.207376e+00 1.319599e+00 4.429558e-01
<GCONST> 1.414271e+02
<MIXTURE> 4 2.224638e-01
<MEAN> 39
 -2.947885e+00 4.557102e-01 -2.129840e+00 -3.194808e+00 4.976334e+00 1.293394e+00 9.040284e+00 1.775618e+01 2.236198e+01 5.997085e+00 -1.655023e+01 -2.740778e+01 7.338968e+00 8.462727e-02 8.303592e-02 -1.985225e-02 -7.792192e-02 -1.063606e-01 1.631622e-03 -4.876760e-02 1.334276e-03 -9.045382e-02 1.990636e-01 2.063980e-01 6.566308e-02 -1.579351e-01 4.373089e-02 -4.756310e-02 -5.040319e-03 -2.850808e-02 -1.391682e-01 4.021928e-02 3.156337e-02 -6.184121e-02 -8.845630e-02 -3.850322e-02 1.307217e-01 2.000569e-01 -3.361331e-02
<VARIANCE> 39
 1.980039e+01 3.317264e+01 2.724450e+01 4.538103e+01 5.130713e+01 6.212561e+01 7.022999e+01 7.506947e+01 6.723696e+01 1.632568e+02 1.490437e+02 9.699934e+01 2.596459e+01 4.096227e-01 9.189858e-01 1.144091e+00 1.229777e+00 1.678284e+00 2.020945e+00 2.330780e+00 2.391462e+00 2.385611e+00 3.333993e+00 3.497615e+00 2.889429e+00 1.870546e-01 7.448688e-02 1.441161e-01 1.948912e-01 1.999888e-01 2.804280e-01 3.157092e-01 3.938439e-01 4.261362e-01 4.256677e-01 5.224885e-01 5.624508e-01 5.239553e-01 2.786765e-02
<GCONST> 1.107817e+02
<TRANSP> 6
 0.000000e+00 1.000000e+00 0.000000e+00 0.000000e+00 0.000000e+00 0.000000e+00
 0.000000e+00 8.675721e-01 1.324279e-01 0.000000e+00 0.000000e+00 0.000000e+00
 0.000000e+00 0.000000e+00 9.117439e-01 8.825608e-02 0.000000e+00 0.000000e+00
 0.000000e+00 0.000000e+00 0.000000e+00 8.835471e-01 1.164529e-01 0.000000e+00
 0.000000e+00 0.000000e+00 0.000000e+00 0.000000e+00 7.365894e-01 2.634106e-01
 0.000000e+00 0.000000e+00 0.000000e+00 0.000000e+00 0.000000e+00 0.000000e+00
<ENDHMM>
