~o
<STREAMINFO> 1 39
<VECSIZE> 39<NULLD><MFCC_D_A_Z_0><DIAGC>
~h "m"
<BEGINHMM>
<NUMSTATES> 6
<STATE> 2
<NUMMIXES> 4
<MIXTURE> 1 3.363827e-01
<MEAN> 39
 5.484608e+00 1.420062e+00 -9.935759e-01 -1.142676e+00 -5.200557e+00 -7.005044e+00 -5.382587e+00 -5.201263e+00 -3.407697e+00 7.033856e+00 1.288381e+01 1.791594e+01 9.226961e-02 4.140873e-02 7.144016e-02 5.227302e-02 -1.713992e-03 -3.255293e-03 -8.292243e-02 6.091830e-03 -9.050958e-03 -3.696918e-02 6.336442e-02 -2.482635e-02 2.127071e-02 -1.022722e-01 -3.147253e-03 -1.650174e-02 8.018429e-04 -1.299949e-02 -1.234281e-02 4.825388e-02 2.297875e-02 1.345317e-02 -3.708140e-03 -6.227405e-02 -8.871819e-02 -1.043849e-01 1.141604e-02
<VARIANCE> 39
 1.500470e+01 3.714359e+01 3.059808e+01 5.498705e+01 4.329855e+01 6.534196e+01 6.156302e+01 5.342926e+01 7.087391e+01 7.654525e+01 6.825038e+01 6.389283e+01 2.375169e+01 2.083486e-01 5.012310e-01 7.255949e-01 9.999682e-01 1.175638e+00 1.393867e+00 1.601551e+00 1.752481e+00 1.871268e+00 1.967901e+00 2.043095e+00 2.045592e+00 1.310813e-01 3.722102e-02 9.168188e-02 1.383156e-01 1.819602e-01 2.181397e-01 2.540843e-01 2.915531e-01 3.218469e-01 3.361934e-01 3.444543e-01 3.692008e-01 3.630189e-01 2.019901e-02
<GCONST> 9.857997e+01
<MIXTURE> 2 2.484947e-01
<MEAN> 39
 5.728908e+00 3.548026e+00 4.105858e-01 -2.220489e+00 -3.417152e+00 -4.883241e+00 -4.872870e+00 -9.123403e+00 -1.006408e+01 -8.196920e+00 -4.515495e+00 4.704591e-01 -7.447121e-01 3.620249e-02 1.525601e-01 1.446930e-01 1.616984e-01 4.331459e-03 -1.792075e-01 -5.586197e-02 -1.670776e-01 -2.043700e-01 5.876862e-02 -1.274419e-01 -8.957071e-02 -2.188376e-01 -5.169115e-02 -6.823111e-02 -4.797263e-02 3.976461e-03 2.058500e-02 8.985651e-02 7.523054e-02 1.432867e-01 1.505390e-01 9.912206e-02 1.426755e-01 1.324123e-01 6.669192e-02
<VARIANCE> 39
 2.551017e+01 3.708225e+01 3.120422e+01 4.781692e+01 4.416414e+01 5.453654e+01 6.218819e+01 6.058461e+01 5.067330e+01 5.611870e+01 5.940911e+01 7.226398e+01 2.811232e+01 5.162131e-01 1.047344e+00 1.244986e+00 1.718857e+00 1.889431e+00 2.386902e+00 2.693551e+00 2.776032e+00 2.566785e+00 2.738342e+00 2.724791e+00 2.763290e+00 5.308770e-01 9.028805e-02 1.608259e-01 2.237215e-01 2.901589e-01 3.482553e-01 4.347049e-01 4.900344e-01 5.135043e-01 4.844382e-01 4.887637e-01 4.664036e-01 4.438294e-01 7.339121e-02
<GCONST> 1.126496e+02
<MIXTURE> 3 2.181637e-01
<MEAN> 39
 3.895094e+00 1.155372e+00 -1.423583e+00 -1.938152e+00 -3.346229e+00 -2.567354e+00 -1.353187e+00 -4.082391e+00 -3.027765e+00 5.112653e-01 4.489280e+00 5.336799e+00 1.790461e+00 4.135219e-01 2.447655e-01 4.405599e-02 -2.321759e-01 -1.885339e-01 -4.874886e-01 -2.399366e-01 -6.401893e-01 -4.898086e-01 -1.578039e-01 -7.431349e-03 2.038207e-01 1.264034e-01 -1.571255e-01 -5.443227e-02 7.227352e-02 1.014921e-01 1.281457e-01 5.258743e-02 -1.154660e-02 7.773072e-02 6.713179e-03 -4.069826e-02 -1.182738e-01 -3.081954e-02 -4.254038e-02
<VARIANCE> 39
 2.647519e+01 4.728155e+01 3.409132e+01 6.819875e+01 5.876866e+01 7.565764e+01 7.507483e+01 9.656955e+01 1.221340e+02 1.402461e+02 1.729825e+02 1.824173e+02 3.820084e+01 2.209467e+00 2.648031e+00 2.754027e+00 4.119764e+00 3.785733e+00 5.177706e+00 5.012353e+00 5.380698e+00 6.212475e+00 6.314462e+00 7.427436e+00 7.163470e+00 3.348829e+00 3.034124e-01 3.721868e-01 4.223712e-01 6.189916e-01 6.389591e-01 8.207342e-01 8.467247e-01 8.851587e-01 1.023703e+00 9.894158e-01 1.062413e+00 1.070688e+00 2.919004e-01
<GCONST> 1.413723e+02
<MIXTURE> 4 1.969589e-01
<MEAN> 39
 2.668657e+00 -5.875108e+00 -2.000682e+00 9.222226e+00 -3.315318e+00 2.902152e+00 -1.723193e+00 -6.965495e+00 -5.636609e+00 6.958741e+00 1.189534e+01 1.138806e+01 6.514061e+00 2.268122e-02 3.667145e-02 -2.444769e-03 3.641122e-02 -2.958704e-02 1.284873e-02 -1.272335e-02 1.888321e-02 -3.664686e-02 1.723179e-02 2.491195e-02 -1.442275e-02 -4.008248e-02 -6.641565e-03 -5.269908e-03 -3.173973e-02 -6.929726e-02 -1.843603e-02 -2.851829e-02 -2.388315e-02 -2.150437e-03 1.259336e-02 -2.779018e-02 -1.288404e-02 1.721228e-02 -1.724585e-02
<VARIANCE> 39
 1.340967e+01 1.792560e+01 3.449373e+01 7.064616e+01 6.954968e+01 8.315680e+01 7.075056e+01 1.089700e+02 1.060854e+02 1.285680e+02 1.179975e+02 2.691048e+02 9.622529e+00 1.863302e-01 3.322569e-01 4.483398e-01 6.403606e-01 6.935493e-01 7.319534e-01 8.376680e-01 8.953357e-01 9.028962e-01 9.718174e-01 1.032248e+00 9.663297e-01 6.091769e-02 3.261638e-02 5.659399e-02 8.119363e-02 1.068742e-01 1.242596e-01 1.277025e-01 1.505816e-01 1.640084e-01 1.618553e-01 1.699007e-01 1.885680e-01 1.813013e-01 9.314051e-03
<GCONST> 8.626225e+01
<STATE> 3
<NUMMIXES> 4
<MIXTURE> 1 2.515022e-01
<MEAN> 39
 1.308090e+00 8.938826e+00 -6.386983e+00 -8.136737e+00 4.778539e+00 -1.210686e+01 3.020659e+00 -6.248693e+00 -2.966264e+00 7.082309e+00 1.474057e+01 1.757339e+01 3.501409e+00 1.593248e-02 6.729898e-03 1.661369e-03 2.823452e-02 -5.052815e-02 -4.285452e-02 1.240202e-02 -8.244361e-03 3.986365e-02 -7.662441e-03 3.071705e-02 -7.003323e-03 -5.136690e-02 6.086404e-03 -2.273747e-02 1.633379e-02 -1.781561e-02 -2.450527e-02 2.559982e-02 -2.818382e-02 1.455899e-02 1.360116e-02 -2.022847e-02 -1.084702e-02 -3.289674e-02 -3.357145e-03
<VARIANCE> 39
 1.311547e+01 1.821816e+01 2.217234e+01 2.628299e+01 3.503091e+01 4.272910e+01 5.324620e+01 4.965261e+01 7.739996e+01 9.833887e+01 8.993166e+01 7.110213e+01 1.456378e+01 1.556621e-01 3.730564e-01 5.228555e-01 6.862019e-01 7.535524e-01 9.007558e-01 9.968906e-01 9.275496e-01 9.959973e-01 1.072196e+00 1.149705e+00 1.007464e+00 6.427356e-02 2.788874e-02 6.642678e-02 9.973132e-02 1.305966e-01 1.406741e-01 1.651935e-01 1.771503e-01 1.758157e-01 1.845488e-01 1.992344e-01 2.228223e-01 1.938336e-01 9.135574e-03
<GCONST> 8.321851e+01
<MIXTURE> 2 4.777921e-01
<MEAN> 39
 7.184676e+00 -3.186239e+00 -1.156127e+00 6.265664e+00 -4.515756e+00 -1.888283e+00 -5.161631e+00 -8.826911e+00 -1.023541e+01 -7.776630e+00 -5.228253e+00 -4.628140e+00 2.189674e+00 2.518610e-02 4.489683e-02 1.515503e-02 -3.198074e-02 -6.356411e-03 -4.808163e-02 -3.856598e-02 2.915612e-02 -3.866543e-02 -5.863581e-03 -7.725493e-03 -5.860115e-03 -7.862215e-02 -3.012589e-03 1.666470e-02 1.732029e-03 -3.989020e-02 2.178484e-03 -9.807927e-03 1.040799e-02 9.158848e-03 1.794627e-02 -7.230234e-03 -5.005204e-03 1.458075e-02 -5.733010e-03
<VARIANCE> 39
 1.373981e+01 1.863635e+01 3.060478e+01 4.402567e+01 4.216581e+01 5.450526e+01 7.607286e+01 7.129115e+01 5.724462e+01 4.899931e+01 4.943711e+01 5.930220e+01 1.243135e+01 1.423798e-01 3.451733e-01 5.192127e-01 8.299664e-01 9.696404e-01 1.160727e+00 1.371806e+00 1.442778e+00 1.465149e+00 1.403869e+00 1.322470e+00 1.293687e+00 8.046263e-02 2.449122e-02 5.869889e-02 9.693222e-02 1.441671e-01 1.764622e-01 2.205716e-01 2.496075e-01 2.723090e-01 2.682799e-01 2.607040e-01 2.437500e-01 2.358949e-01 1.156740e-02
<GCONST> 8.816821e+01
<MIXTURE> 3 2.215251e-01
<MEAN> 39
 3.678911e+00 2.612221e+00 2.409540e-01 -2.170631e+00 -3.167817e+00 -4.658091e+00 -1.883958e+00 -3.828424e+00 -3.177085e+00 1.782398e-01 1.193046e+00 2.579004e+00 6.340715e-02 5.799078e-05 7.424179e-03 1.594485e-01 -1.647186e-04 -3.086834e-03 2.280613e-02 -3.454879e-02 -1.914360e-02 -1.634867e-01 -2.528795e-01 -4.809079e-01 -3.007336e-01 -2.980138e-02 -2.451244e-01 -2.240591e-01 -1.054962e-01 -5.840565e-03 1.247546e-01 3.678556e-01 1.388910e-01 2.893364e-01 2.753325e-01 -1.722242e-02 5.630453e-02 -1.964171e-03 1.607393e-01
<VARIANCE> 39
 2.901188e+01 4.326623e+01 3.299856e+01 6.145302e+01 5.268213e+01 7.372943e+01 7.549270e+01 9.316403e+01 1.086311e+02 1.319088e+02 1.447356e+02 1.708790e+02 4.037808e+01 1.443341e+00 1.881068e+00 2.147721e+00 2.989250e+00 2.692473e+00 3.433106e+00 3.694453e+00 3.867810e+00 4.753159e+00 4.529137e+00 5.059253e+00 5.108407e+00 2.872997e+00 2.602198e-01 2.894479e-01 3.633912e-01 4.961393e-01 5.662680e-01 7.259216e-01 7.645423e-01 7.991708e-01 9.215302e-01 8.723961e-01 8.860061e-01 9.033080e-01 2.635676e-01
<GCONST> 1.345976e+02
<MIXTURE> 4 4.918058e-02
<MEAN> 39
 3.630008e+00 -3.885803e+00 1.130991e+00 4.875940e+00 5.679262e+00 2.340157e+01 2.115749e+01 -4.042401e+00 -3.630977e+01 -1.570891e+01 2.338578e+01 2.428652e+01 1.845827e+00 8.726398e-03 3.955048e-03 -1.058577e-02 9.169302e-03 2.351865e-02 -3.120736e-02 2.747233e-03 -4.033057e-02 7.546897e-03 3.782300e-02 1.903102e-02 -3.449634e-02 -1.277944e-02 -6.862348e-03 -8.854939e-03 -4.224135e-03 9.214764e-03 -2.421964e-04 -1.794116e-02 -2.083474e-02 7.403706e-03 3.436749e-02 -4.571125e-03 -3.655935e-02 -6.513119e-03 -2.188995e-03
<VARIANCE> 39
 9.623284e+00 1.697987e+01 1.609891e+01 1.876063e+01 7.880646e+01 3.449623e+01 2.116213e+01 6.848727e+01 2.630065e+01 8.783636e+01 6.392749e+01 3.977859e+01 1.142976e+01 3.694217e-01 5.909555e-01 7.054874e-01 6.742007e-01 9.267485e-01 1.176942e+00 1.230125e+00 1.931982e+00 1.677114e+00 1.729223e+00 2.803316e+00 1.737574e+00 9.245819e-02 7.818367e-02 1.253695e-01 1.468885e-01 1.355013e-01 1.859941e-01 2.499433e-01 2.455498e-01 3.834010e-01 3.341862e-01 3.212948e-01 4.825324e-01 3.138163e-01 1.530708e-02
<GCONST> 9.237555e+01
<STATE> 4
<NUMMIXES> 4
<MIXTURE> 1 3.466816e-01
<MEAN> 39
 6.093690e+00 5.711780e+00 -1.615101e-01 -3.064814e+00 -8.869042e-01 -6.048444e+00 -1.776058e+00 -5.355596e+00 -6.433110e+00 -6.927830e+00 -7.359412e+00 -5.814242e+00 1.736045e-01 2.847111e-02 5.328445e-02 1.407633e-01 -1.029516e-02 -6.765132e-02 -4.223579e-02 -7.941011e-02 5.137460e-02 4.531714e-02 -3.706854e-02 -1.005056e-01 -1.602033e-02 -1.823910e-01 -2.477630e-02 -2.108215e-02 2.919585e-02 1.576327e-02 -1.986219e-02 4.042836e-02 -1.656473e-02 3.719288e-02 1.568163e-02 1.211615e-02 2.359944e-02 5.173073e-02 -1.004582e-02
<VARIANCE> 39
 2.570488e+01 5.159583e+01 4.403248e+01 6.472266e+01 5.831470e+01 7.918002e+01 1.010787e+02 9.031287e+01 9.601616e+01 1.110363e+02 1.044624e+02 1.368708e+02 2.668727e+01 3.358448e-01 7.548038e-01 1.080487e+00 1.546916e+00 1.717388e+00 2.163799e+00 2.541061e+00 2.405001e+00 2.534622e+00 2.439906e+00 2.427906e+00 2.415829e+00 2.985452e-01 5.650662e-02 1.168545e-01 1.790361e-01 2.552534e-01 3.021584e-01 3.852909e-01 4.414940e-01 4.348285e-01 4.644163e-01 4.455540e-01 4.348355e-01 4.153661e-01 4.139933e-02
<GCONST> 1.127737e+02
<MIXTURE> 2 4.043900e-01
<MEAN> 39
 5.401587e+00 9.357650e+00 -1.940801e+00 -5.624022e+00 2.404803e+00 -8.776248e+00 -8.131031e-03 -6.552144e+00 -8.228256e+00 -9.656248e+00 -8.526012e+00 -6.477152e+00 9.663712e-01 2.318708e-02 1.454862e-02 2.952695e-02 1.745084e-02 -2.379630e-02 -3.825371e-02 7.232578e-03 -2.008026e-02 -5.487406e-03 7.423258e-03 -2.722409e-03 3.770562e-02 -6.234208e-02 4.869639e-04 -1.744038e-02 1.891825e-02 -5.144117e-03 -2.379792e-02 1.851644e-02 -2.379673e-02 -4.997427e-05 7.321153e-03 -1.060286e-02 1.056354e-02 4.469575e-03 -4.893575e-03
<VARIANCE> 39
 1.518570e+01 3.644046e+01 3.948721e+01 4.592777e+01 5.237571e+01 6.074872e+01 8.276383e+01 6.003900e+01 5.663847e+01 5.174627e+01 4.720382e+01 6.828106e+01 1.946849e+01 9.732731e-02 2.691987e-01 4.037505e-01 6.010652e-01 7.602885e-01 9.022300e-01 1.066498e+00 1.094974e+00 1.123877e+00 1.060286e+00 1.081471e+00 9.758290e-01 5.971805e-02 1.699836e-02 4.445449e-02 7.262232e-02 1.088270e-01 1.354516e-01 1.591045e-01 1.888264e-01 1.953783e-01 2.067717e-01 1.980419e-01 2.013417e-01 1.806590e-01 8.004705e-03
<GCONST> 8.273112e+01
<MIXTURE> 3 2.208401e-01
<MEAN> 39
 4.641508e+00 4.961480e+00 1.659484e+00 -3.336378e+00 -2.831539e+00 -4.535601e+00 -2.335843e+00 -4.525369e+00 -6.953108e+00 -6.750286e+00 -5.854228e+00 -2.313234e+00 -1.252076e+00 -6.076230e-01 -4.018461e-01 -1.779232e-01 -1.772078e-01 2.435413e-01 6.850117e-01 2.989113e-01 4.427049e-01 4.381963e-01 -1.578200e-02 2.753801e-01 1.164414e-01 5.740004e-01 -1.576783e-01 -1.653527e-01 -1.717027e-01 1.278617e-02 1.119204e-01 1.852186e-01 1.205473e-01 8.759218e-02 1.995499e-01 1.351950e-01 2.024438e-01 6.752743e-02 1.889490e-01
<VARIANCE> 39
 3.365308e+01 4.407005e+01 3.487853e+01 5.516451e+01 4.659911e+01 5.816038e+01 6.088010e+01 6.849702e+01 7.661212e+01 8.327797e+01 8.525805e+01 8.719181e+01 4.513063e+01 2.562963e+00 3.120047e+00 3.225514e+00 4.752763e+00 4.191434e+00 5.116012e+00 5.227425e+00 5.095974e+00 5.634457e+00 5.157604e+00 5.529527e+00 5.324246e+00 3.669611e+00 3.921645e-01 4.461589e-01 4.656882e-01 7.098828e-01 6.849171e-01 8.293602e-01 8.635516e-01 8.798590e-01 9.568030e-01 8.516384e-01 8.745534e-01 8.225397e-01 4.476847e-01
<GCONST> 1.384464e+02
<MIXTURE> 4 2.808822e-02
<MEAN> 39
 -9.869260e-02 -5.929452e+00 1.333893e+00 1.505568e+01 -1.375425e+00 1.666572e+01 2.495750e+01 1.281323e+01 -3.138419e+01 -3.068893e+01 1.398782e+01 3.146151e+01 7.102727e+00 2.061587e-02 3.879604e-03 -2.498293e-03 -7.614028e-02 1.795955e-02 2.871944e-02 -1.725185e-02 2.543239e-02 1.222717e-02 -4.056986e-02 -1.705798e-02 1.082407e-02 -8.746305e-03 1.559636e-03 3.136015e-03 3.462037e-03 -1.277502e-02 1.123893e-02 -1.223216e-02 -1.014914e-02 6.190402e-03 3.687143e-02 9.160534e-03 -3.030792e-02 -3.230490e-02 7.420938e-03
<VARIANCE> 39
 1.364765e+01 1.321214e+01 2.122302e+01 2.853844e+01 1.137386e+01 3.547359e+01 2.495330e+01 1.532747e+01 7.924994e+01 3.490022e+01 1.970518e+02 4.012785e+01 1.142200e+01 6.300052e-01 8.481551e-01 5.947202e-01 7.622935e-01 6.860956e-01 1.064319e+00 9.436371e-01 1.259174e+00 1.562557e+00 1.354158e+00 1.302297e+00 1.143467e+00 1.514250e-01 1.299351e-01 1.803225e-01 1.153852e-01 1.424902e-01 1.415573e-01 2.037312e-01 1.962529e-01 2.497066e-01 2.820026e-01 2.501645e-01 2.370086e-01 2.296485e-01 2.931891e-02
<GCONST> 8.874607e+01
<STATE> 5
<NUMMIXES> 4
<MIXTURE> 1 1.753978e-01
<MEAN> 39
 2.145797e+00 3.750100e+00 4.240550e+00 1.198954e+00 -1.205456e+00 -4.271997e+00 -4.157688e+00 -4.700401e+00 -7.821681e+00 -5.798611e+00 -5.832231e+00 -3.035284e+00 -6.611265e+00 -6.167207e-01 -2.179578e-01 -3.884341e-03 7.342318e-02 2.380112e-01 4.403341e-01 3.019270e-01 5.016857e-01 3.246215e-01 2.184428e-01 1.379103e-01 7.244306e-02 -1.376232e-01 2.938809e-02 -7.749730e-02 -1.509478e-01 -1.160635e-01 -3.085915e-02 9.389260e-02 1.129466e-01 8.388516e-02 1.431952e-01 6.774289e-02 1.086456e-01 5.877100e-02 1.294925e-01
<VARIANCE> 39
 2.838224e+01 2.392029e+01 2.149392e+01 3.060888e+01 3.460575e+01 4.120508e+01 4.337580e+01 4.998644e+01 4.943982e+01 4.793615e+01 4.288675e+01 4.627586e+01 2.550906e+01 1.214223e+00 1.289283e+00 1.507197e+00 1.994366e+00 2.261046e+00 2.594799e+00 2.963898e+00 3.112094e+00 3.242860e+00 3.003347e+00 2.796037e+00 2.813647e+00 1.033965e+00 1.762658e-01 2.043920e-01 2.626660e-01 3.609565e-01 4.076094e-01 4.681616e-01 5.371108e-01 5.489506e-01 5.913183e-01 5.437798e-01 5.214092e-01 5.043949e-01 1.472728e-01
<GCONST> 1.152033e+02
<MIXTURE> 2 5.713550e-01
<MEAN> 39
 5.639225e+00 3.040771e+00 4.302102e+00 1.897211e+00 -1.458143e+00 -5.682244e+00 -4.211996e+00 -4.608807e+00 -7.638436e+00 -5.297061e+00 -5.624468e+00 -2.695139e+00 -5.672771e+00 -2.137823e-02 4.096957e-03 3.613840e-02 2.493866e-03 -8.948911e-03 -1.537346e-02 -2.269993e-02 1.431546e-02 -1.107355e-02 -3.092682e-03 -1.319163e-02 1.125692e-02 -6.567705e-02 -1.064604e-02 -3.847062e-03 -4.491877e-03 -2.154593e-03 7.190155e-03 8.171462e-03 4.947889e-03 2.984581e-03 5.380501e-03 6.416237e-03 5.979626e-03 -2.591910e-03 1.127212e-03
<VARIANCE> 39
 1.919771e+01 2.121014e+01 1.841810e+01 2.458788e+01 3.172480e+01 3.514872e+01 4.119521e+01 4.982246e+01 5.449339e+01 4.669007e+01 4.548690e+01 4.558965e+01 1.283495e+01 1.651374e-01 3.450145e-01 5.932083e-01 8.772469e-01 1.102210e+00 1.346151e+00 1.592513e+00 1.700792e+00 1.732308e+00 1.747690e+00 1.727628e+00 1.591280e+00 7.094938e-02 2.951782e-02 6.634083e-02 1.148036e-01 1.720260e-01 2.202699e-01 2.620678e-01 3.110695e-01 3.382167e-01 3.463196e-01 3.440257e-01 3.360583e-01 3.124472e-01 1.125766e-02
<GCONST> 8.969017e+01
<MIXTURE> 3 1.352040e-01
<MEAN> 39
 1.561195e+00 -1.453389e+00 -1.482572e+00 -3.490308e+00 -2.546507e+00 1.685173e+00 1.988047e+00 1.646153e-01 9.121197e-01 -8.506693e-01 1.172620e+00 1.943238e+00 5.354925e+00 -5.580861e-01 -8.391985e-01 -4.031887e-01 -2.109969e-01 4.262652e-01 1.221575e+00 4.234128e-02 1.937090e-01 1.225700e+00 5.091582e-01 8.399337e-01 2.195151e-01 1.561088e+00 -4.115103e-02 2.163449e-01 2.244979e-01 3.074881e-01 1.701820e-01 -3.017986e-01 -2.720532e-01 -1.948170e-01 -2.795829e-01 1.258320e-02 -1.343158e-01 -1.324660e-01 -3.426983e-01
<VARIANCE> 39
 2.734751e+01 4.636018e+01 3.470958e+01 7.911857e+01 5.556162e+01 7.273496e+01 8.697942e+01 1.125026e+02 1.241342e+02 1.374877e+02 1.468007e+02 1.629589e+02 4.472154e+01 2.500314e+00 2.989655e+00 3.247695e+00 5.796575e+00 5.081006e+00 6.751357e+00 6.480083e+00 7.401702e+00 8.287431e+00 9.603677e+00 1.043956e+01 1.150764e+01 2.727236e+00 3.671715e-01 4.287679e-01 5.137399e-01 8.562667e-01 7.763903e-01 9.949185e-01 1.075605e+00 1.134794e+00 1.299070e+00 1.270703e+00 1.345105e+00 1.380172e+00 4.057853e-01
<GCONST> 1.478715e+02
<MIXTURE> 4 1.180432e-01
<MEAN> 39
 1.100680e+00 -8.197578e-01 -1.925112e+00 -5.791709e-01 -8.228189e-01 4.607491e-01 2.760821e-01 -4.747565e-01 3.554139e+00 5.580450e+00 4.980360e+00 9.617927e-01 4.396092e+00 -1.167791e-01 -1.827763e-01 3.083117e-02 -7.953594e-02 -2.827429e-02 1.609618e-01 -1.541704e-01 3.023836e-01 2.221413e-01 -1.193793e-01 -9.371791e-02 1.049492e-01 1.933344e-02 5.408397e-02 6.844432e-02 8.325671e-02 4.409692e-02 -6.272973e-02 -1.388890e-01 2.554849e-02 -1.428428e-02 -1.373530e-01 -5.955956e-02 -1.304343e-01 -8.629795e-02 -8.299372e-02
<VARIANCE> 39
 2.438643e+01 4.493474e+01 2.993204e+01 8.380347e+01 7.316217e+01 8.080865e+01 8.951232e+01 1.246835e+02 1.448330e+02 1.800600e+02 1.909498e+02 3.036457e+02 4.069536e+01 4.415112e-01 8.202333e-01 1.019494e+00 1.636660e+00 2.018472e+00 2.441293e+00 2.537904e+00 2.602558e+00 2.776975e+00 2.823069e+00 3.440074e+00 3.267944e+00 3.298178e-01 6.983127e-02 1.279833e-01 1.699440e-01 2.726651e-01 3.238100e-01 4.093475e-01 4.207042e-01 4.479350e-01 4.821736e-01 5.064979e-01 5.574979e-01 5.371435e-01 5.303990e-02
<GCONST> 1.186689e+02
<TRANSP> 6
 0.000000e+00 1.000000e+00 0.000000e+00 0.000000e+00 0.000000e+00 0.000000e+00
 0.000000e+00 8.607846e-01 1.392154e-01 0.000000e+00 0.000000e+00 0.000000e+00
 0.000000e+00 0.000000e+00 8.115019e-01 1.884982e-01 0.000000e+00 0.000000e+00
 0.000000e+00 0.000000e+00 0.000000e+00 8.595300e-01 1.404700e-01 0.000000e+00
 0.000000e+00 0.000000e+00 0.000000e+00 0.000000e+00 8.612583e-01 1.387417e-01
 0.000000e+00 0.000000e+00 0.000000e+00 0.000000e+00 0.000000e+00 0.000000e+00
<ENDHMM>
