~o
<STREAMINFO> 1 39
<VECSIZE> 39<NULLD><MFCC_D_A_Z_0><DIAGC>
~h "oy"
<BEGINHMM>
<NUMSTATES> 6
<STATE> 2
<NUMMIXES> 4
<MIXTURE> 1 2.199634e-01
<MEAN> 39
 -3.302712e+00 3.368558e+00 -2.511540e+00 -5.670737e+00 5.368727e+00 -1.474859e+00 -1.234693e+00 1.899710e-01 8.236142e+00 1.221632e+01 1.440317e+01 2.796071e+00 8.407735e+00 -4.954249e-02 2.149165e-01 -1.454938e-01 2.124078e-01 2.001442e-01 -2.526780e-01 6.337920e-01 1.855340e-01 -2.420308e-01 2.418033e-01 -6.789636e-02 -5.195795e-01 5.528203e-02 2.046594e-02 -1.380294e-01 1.496068e-01 5.044097e-02 -1.497720e-01 -2.012433e-01 3.175864e-02 -1.827079e-01 4.045875e-02 -3.499081e-02 -1.610977e-02 -1.234328e-02 6.818624e-04
<VARIANCE> 39
 1.209596e+01 2.895339e+01 1.813005e+01 9.689122e+01 4.355727e+01 7.198479e+01 6.321912e+01 4.175850e+01 7.755025e+01 6.504140e+01 1.519243e+02 1.266288e+02 2.460240e+01 1.048273e-01 3.328652e-01 1.725049e-01 4.045904e-01 6.550611e-01 9.133965e-01 1.037310e+00 9.703323e-01 1.971244e+00 4.070933e-01 1.047929e+00 1.579822e+00 1.212036e-01 2.667083e-02 9.121604e-02 5.236631e-02 1.333999e-01 2.572404e-01 2.305194e-01 2.754529e-01 1.475549e-01 2.203664e-01 1.599237e-01 1.899400e-01 1.469189e-01 3.028742e-02
<GCONST> 8.674629e+01
<MIXTURE> 2 3.319426e-01
<MEAN> 39
 4.044865e+00 2.565320e+00 -2.927376e+00 -5.434840e+00 -1.483507e-01 -1.492103e+00 -1.792814e+00 -4.128360e+00 -4.659555e+00 -6.617036e+00 -4.978536e+00 -2.242272e+00 2.537560e+00 2.563471e-01 -4.903919e-01 3.736015e-01 -5.327169e-03 -3.097561e-01 2.003486e-01 4.922094e-01 -3.981535e-02 -5.400494e-01 2.049598e-02 9.386245e-02 -4.136829e-01 5.036255e-02 -1.635884e-01 -6.794467e-02 1.268694e-01 4.397435e-01 -5.387376e-02 2.624935e-02 1.462478e-01 4.150299e-01 3.142937e-01 4.094217e-01 2.176291e-01 3.184980e-01 -1.044786e-01
<VARIANCE> 39
 2.891088e+01 5.713000e+01 4.284673e+01 6.291964e+01 4.892383e+01 7.209864e+01 6.410477e+01 6.727278e+01 4.680169e+01 3.018226e+01 6.134480e+01 7.662188e+01 3.526448e+01 4.566053e-01 1.615439e+00 1.430688e+00 1.983715e+00 2.153529e+00 2.731667e+00 4.032927e+00 2.573485e+00 2.180969e+00 3.758303e+00 2.152027e+00 2.889948e+00 4.201998e-01 7.533477e-02 2.447971e-01 2.110752e-01 4.216998e-01 3.121047e-01 4.719877e-01 8.199297e-01 9.709369e-01 8.149887e-01 8.076058e-01 5.351197e-01 6.573875e-01 1.008623e-01
<GCONST> 1.183978e+02
<MIXTURE> 3 3.084032e-01
<MEAN> 39
 4.856882e+00 1.858652e+00 -2.373844e+00 -8.945701e+00 -5.796525e+00 1.713389e+00 -2.508188e+00 -1.806092e+00 1.855741e-01 -6.729243e-01 1.279140e+01 1.114038e+01 4.780566e+00 -1.658024e-01 -3.106592e-01 -3.017650e-01 5.544578e-01 1.037734e+00 7.716348e-01 6.231685e-02 -6.087707e-01 4.104718e-01 5.379569e-01 1.945029e+00 7.374666e-01 1.339749e+00 -5.198063e-01 -1.619142e-01 2.562452e-01 6.808083e-01 4.508000e-01 -5.789145e-01 4.147879e-02 1.937663e-01 -2.214961e-01 2.199945e-01 -7.357689e-01 -5.961496e-01 -5.081015e-01
<VARIANCE> 39
 1.914355e+01 1.622061e+01 2.825195e+01 5.138599e+01 3.717222e+01 3.726279e+01 5.260015e+01 4.796842e+01 1.041274e+02 1.654649e+02 1.043061e+02 1.244982e+02 2.263520e+01 1.674390e+00 1.754041e+00 2.145531e+00 4.787316e+00 2.971590e+00 4.375900e+00 5.134664e+00 3.601456e+00 5.538043e+00 8.403601e+00 7.069284e+00 1.174370e+01 1.029281e+00 3.131987e-01 3.309880e-01 4.012001e-01 4.712463e-01 4.212092e-01 7.780782e-01 5.668043e-01 5.755464e-01 1.177376e+00 1.669431e+00 9.429121e-01 1.558223e+00 2.077744e-01
<GCONST> 1.326071e+02
<MIXTURE> 4 1.396908e-01
<MEAN> 39
 3.701112e+00 -5.167769e+00 -6.716023e+00 9.646163e+00 -4.066664e+00 4.172302e+00 3.857721e+00 -2.240691e+00 9.146856e+00 1.856577e+01 1.651314e+01 3.632510e+00 5.198893e+00 4.561254e-01 -2.112097e-01 8.322451e-01 7.602811e-01 1.975243e-01 3.143173e-02 8.295474e-01 -1.189563e+00 -6.167986e-01 -1.268897e-01 1.168146e+00 4.220827e-01 6.177106e-02 -1.478453e-01 -9.444163e-02 2.694825e-02 -7.564185e-02 -1.197562e-01 -3.405440e-01 -4.432702e-02 3.809417e-01 -2.849391e-01 -7.491995e-01 -9.865604e-02 1.288661e-01 -7.327283e-02
<VARIANCE> 39
 9.220370e+00 1.008102e+01 1.756186e+01 2.482316e+01 2.110965e+01 2.876762e+01 8.817352e+01 1.001817e+02 4.143889e+01 7.297153e+01 6.943327e+01 9.185563e+01 1.873870e+01 5.771480e-01 1.122957e+00 4.347650e-01 2.490785e+00 1.767874e+00 1.298856e+00 1.140179e+00 7.701328e+00 1.560302e+00 3.936948e+00 1.026501e+00 3.891126e+00 6.132187e-01 1.646929e-01 5.366091e-02 1.444242e-01 1.564477e-01 1.951851e-01 2.925298e-01 6.329312e-01 7.150056e-01 1.879785e-01 1.848429e+00 3.519067e-01 1.216701e+00 1.797724e-01
<GCONST> 1.070524e+02
<STATE> 3
<NUMMIXES> 4
<MIXTURE> 1 9.206984e-02
<MEAN> 39
 -1.669522e+00 5.928509e+00 -3.018462e+00 -7.098022e+00 -4.443949e+00 7.265094e-01 -1.582381e+00 -5.557325e+00 9.147875e+00 1.347464e+01 3.447581e+01 8.855175e+00 7.669638e+00 8.434984e-02 -3.063118e-01 2.813998e-01 1.527580e-01 -5.088943e-01 -1.570669e-01 3.117938e-01 -5.471181e-02 -5.450888e-02 -5.025329e-02 -3.044169e-01 2.773326e-01 -3.601515e-02 9.659075e-02 5.379462e-02 8.775812e-02 1.103355e-02 -1.470078e-02 9.011347e-02 -1.151059e-01 5.467588e-02 3.691030e-02 -6.546260e-02 -1.497164e-01 1.301948e-01 -5.199082e-02
<VARIANCE> 39
 2.155609e+00 6.503500e+00 9.048437e+00 9.533436e+00 8.403145e+00 2.964804e+00 3.017773e+00 1.695379e+00 2.265133e+00 2.910206e+00 6.606175e+00 8.070506e+00 3.878647e-01 4.338950e-01 5.455094e-01 1.266712e+00 1.144348e+00 7.404432e-01 4.352730e-01 7.026656e-01 2.810920e-01 4.693358e-01 2.688261e-01 8.793743e-01 8.207792e-01 5.970353e-02 5.744873e-02 9.578872e-02 2.269550e-01 2.565694e-01 1.388943e-01 9.700421e-02 1.037689e-01 3.406257e-02 1.060068e-01 4.590103e-02 1.973007e-02 6.175606e-02 1.600130e-02
<GCONST> 4.533054e+01
<MIXTURE> 2 3.942291e-01
<MEAN> 39
 7.922115e+00 3.799170e+00 -5.026065e+00 -7.173527e+00 1.453660e+00 1.681678e+00 1.108725e+00 -2.296776e+00 -8.737049e+00 -8.122873e+00 -3.911117e+00 -2.753573e+00 1.085002e+00 7.840499e-02 7.711688e-02 1.451375e-01 -6.658394e-02 -8.300079e-02 8.387234e-02 1.522720e-01 1.295582e-01 1.396891e-01 4.681859e-03 -4.680608e-01 -2.390200e-01 -8.247372e-02 -2.616347e-02 5.051160e-03 5.256094e-02 7.684454e-02 7.636900e-02 -1.240748e-01 -1.952626e-01 -5.854655e-02 2.743894e-01 7.624704e-02 -7.431097e-02 1.287138e-02 -2.263595e-02
<VARIANCE> 39
 2.339384e+01 2.589368e+01 4.896199e+01 5.654619e+01 5.714077e+01 5.800936e+01 5.072023e+01 3.233371e+01 1.374714e+01 4.379015e+01 4.915290e+01 2.479428e+01 2.898758e+01 1.041723e-01 2.860842e-01 4.651169e-01 4.720634e-01 8.460656e-01 1.695099e+00 1.693096e+00 2.265062e+00 1.333022e+00 1.756403e+00 1.494243e+00 1.577423e+00 7.107191e-02 1.857462e-02 5.353389e-02 8.256356e-02 1.564147e-01 1.312707e-01 2.935680e-01 3.603548e-01 4.656254e-01 2.801570e-01 3.754568e-01 2.210791e-01 2.951327e-01 1.382355e-02
<GCONST> 8.856354e+01
<MIXTURE> 3 3.495721e-01
<MEAN> 39
 3.544044e-01 2.567859e-01 -1.448800e+00 -4.517303e+00 1.193622e-01 1.618549e+00 -1.079933e+00 -1.191074e+00 2.302800e+00 2.461614e+00 9.119845e+00 5.233549e+00 7.301238e+00 -3.416294e-01 -5.763557e-01 1.033657e-01 9.553960e-01 4.138675e-01 -6.341362e-01 -1.912489e-01 1.406440e-01 -3.132960e-01 6.491958e-01 3.980860e-01 2.788320e-01 2.073488e-02 4.190554e-03 2.126631e-01 5.214476e-03 -5.316982e-02 -1.087143e-01 -3.059341e-01 1.135261e-02 1.033410e-01 4.246343e-02 9.518154e-02 -4.444448e-01 -1.008851e-01 -2.793756e-01
<VARIANCE> 39
 2.362222e+01 3.680384e+01 2.008674e+01 6.457256e+01 5.367892e+01 7.426892e+01 7.050688e+01 6.485558e+01 9.522836e+01 1.391767e+02 1.598787e+02 1.427489e+02 2.775578e+01 7.471071e-01 9.608214e-01 1.079699e+00 2.601413e+00 2.302328e+00 2.471881e+00 3.103220e+00 4.102976e+00 3.139671e+00 6.209650e+00 3.878813e+00 4.007757e+00 4.806060e-01 7.336474e-02 1.391262e-01 2.805406e-01 3.014804e-01 3.788684e-01 5.580807e-01 3.967446e-01 4.650401e-01 6.788303e-01 5.505089e-01 6.169376e-01 8.751973e-01 9.253147e-02
<GCONST> 1.208685e+02
<MIXTURE> 4 1.641289e-01
<MEAN> 39
 3.677981e+00 -5.668916e+00 -2.389304e+00 1.077676e+01 1.646229e+00 7.048781e+00 2.510178e-01 -1.139710e+01 1.026212e+01 1.502357e+01 1.712470e+01 3.073396e+00 8.059752e+00 2.200265e-02 1.887338e-01 4.147875e-01 -8.746461e-01 4.130160e-01 4.023041e-01 -6.961120e-01 6.840708e-02 4.558750e-01 5.767694e-02 3.729912e-02 2.370632e-02 -1.238149e-01 -2.445334e-02 2.480141e-02 -6.418199e-02 -1.918333e-01 -7.606190e-02 4.381572e-03 -4.910336e-02 6.061007e-02 3.759250e-02 1.400295e-01 -3.544876e-02 -8.193425e-02 -8.610517e-02
<VARIANCE> 39
 3.445072e+00 1.417189e+01 1.309176e+01 2.333501e+01 2.268381e+01 8.526737e+00 1.260512e+01 8.502652e+00 1.482543e+01 1.091222e+01 1.084000e+01 1.228940e+01 2.758070e+00 1.360937e-01 6.259391e-01 6.043090e-01 1.494669e+00 1.117721e+00 6.844599e-01 9.571017e-01 9.459826e-01 1.017788e+00 1.718188e+00 1.232334e+00 2.235102e+00 2.451114e-01 2.684778e-02 1.023769e-01 9.562068e-02 1.409206e-01 1.910792e-01 7.546160e-02 1.565808e-01 9.082902e-02 2.037072e-01 3.576498e-01 1.715832e-01 2.492057e-01 3.576631e-03
<GCONST> 6.935308e+01
<STATE> 4
<NUMMIXES> 4
<MIXTURE> 1 1.661363e-01
<MEAN> 39
 -1.058999e-01 6.901430e-01 -2.428134e+00 -1.859868e+00 -1.788000e+00 -6.473816e-01 4.656332e+00 6.583363e-01 1.060491e+01 1.811908e+01 1.755197e+01 1.278605e+00 7.321312e+00 1.342050e-01 -1.111694e-01 9.138244e-02 4.199389e-01 -8.283010e-01 -5.172340e-01 3.201579e-01 6.259544e-01 -2.019448e-01 5.807742e-01 2.010056e-01 4.577070e-01 -4.251457e-01 3.260842e-02 1.274116e-01 -2.602056e-02 -2.127340e-01 1.251367e-01 2.018242e-01 -3.664623e-01 -2.191332e-01 -9.165411e-02 -8.576127e-01 -6.362461e-01 3.657107e-01 -1.584090e-01
<VARIANCE> 39
 7.248374e+00 6.866740e+01 2.476244e+01 9.919927e+01 6.893701e+01 7.866595e+01 6.005103e+01 1.025003e+02 5.928738e+01 2.436450e+01 7.126745e+01 6.084380e+01 1.667217e+01 8.315843e-01 9.667259e-01 7.584060e-01 3.057478e+00 3.536344e+00 1.167377e+00 2.524226e+00 4.985801e+00 4.856774e+00 8.514720e+00 4.542387e+00 4.249995e+00 8.331122e-01 3.192768e-02 1.739767e-01 1.924598e-01 5.225130e-01 4.019460e-01 5.643114e-01 4.179629e-01 9.901599e-01 1.055547e+00 8.388019e-01 7.049391e-01 3.607260e-01 1.020053e-01
<GCONST> 1.189247e+02
<MIXTURE> 2 3.608027e-01
<MEAN> 39
 7.244173e+00 -6.479756e-01 -3.201246e-01 -6.344304e+00 -1.070889e-01 -2.039928e+00 3.468739e+00 -4.415813e+00 -2.466459e+00 -7.996175e+00 -7.680564e+00 -6.820912e+00 6.412447e+00 1.307275e-01 -1.276567e-01 4.524239e-01 4.507035e-02 -2.750310e-01 -5.540139e-01 -9.988796e-01 -4.809344e-01 9.955708e-01 5.117272e-01 -6.374645e-01 -3.364061e-01 -1.915487e-01 -3.449893e-02 5.359257e-02 -2.456939e-02 3.380042e-02 -1.519953e-01 4.232385e-02 -2.388435e-01 2.707193e-02 -2.321382e-01 -5.041895e-03 -7.457294e-02 4.495548e-02 -1.107431e-01
<VARIANCE> 39
 1.356519e+01 3.880899e+01 3.158395e+01 6.439363e+01 5.625535e+01 2.352190e+01 3.829260e+01 4.648278e+01 2.596544e+01 4.296382e+00 2.124985e+01 4.307378e+01 2.521284e+01 5.402262e-01 1.368567e+00 9.779062e-01 2.235019e+00 1.347974e+00 2.280145e+00 3.977032e+00 2.824831e+00 1.673079e+00 2.654023e+00 2.748455e+00 3.647629e+00 5.876204e-01 9.864749e-02 2.140415e-01 2.224890e-01 4.598057e-01 2.319484e-01 4.258911e-01 7.291172e-01 5.008042e-01 4.572155e-01 3.307842e-01 3.561691e-01 7.091600e-01 1.160483e-01
<GCONST> 1.074017e+02
<MIXTURE> 3 2.285652e-01
<MEAN> 39
 9.971442e-01 4.155474e-01 -2.721353e+00 -4.508743e+00 7.692919e-01 -2.692600e+00 -5.117528e+00 2.119743e+00 -2.961223e+00 3.994141e+00 1.523025e+01 1.272747e+01 6.653713e+00 -3.014831e-03 1.234418e-01 1.042102e-02 1.335315e-01 4.104131e-01 -8.892138e-02 -4.114105e-01 9.637382e-02 -1.074174e-01 -4.168948e-01 -2.631289e-02 2.248385e-01 -8.185732e-03 1.676612e-02 1.758124e-02 1.282985e-02 -1.533847e-01 -2.301012e-01 4.596857e-02 -6.837624e-02 -1.770794e-01 2.162154e-01 -5.080734e-03 -7.037326e-02 -1.114191e-01 -1.097949e-01
<VARIANCE> 39
 2.110919e+01 3.204680e+01 1.906323e+01 8.723048e+01 5.391520e+01 7.254540e+01 5.976241e+01 4.193350e+01 1.173618e+02 1.235842e+02 6.509913e+01 1.121447e+02 2.382638e+01 1.117289e-01 2.179577e-01 5.220739e-01 5.938284e-01 9.396135e-01 5.025343e-01 2.100143e+00 2.091279e+00 1.618245e+00 1.366464e+00 8.070756e-01 9.214488e-01 8.917968e-02 2.020604e-02 4.497836e-02 1.591276e-01 8.832345e-02 1.577073e-01 1.429564e-01 1.630647e-01 3.975756e-01 1.934868e-01 2.377540e-01 1.442233e-01 3.276747e-01 1.905485e-02
<GCONST> 8.939268e+01
<MIXTURE> 4 2.444958e-01
<MEAN> 39
 5.085833e-01 4.530878e-01 -1.206963e+00 -3.740832e+00 -1.716453e+00 -6.926375e-02 -4.422710e+00 -2.130681e+00 -6.267395e-01 -1.983221e+00 3.216865e+00 6.620131e+00 4.098676e+00 -1.577246e-01 4.301316e-01 5.293257e-01 6.805127e-01 4.419802e-01 -8.852284e-01 2.921763e-01 8.319969e-02 -5.933680e-01 5.292305e-01 -9.162155e-01 -4.147390e-01 -5.372524e-01 -1.614305e-02 2.266664e-01 9.854630e-02 1.408308e-01 1.143727e-01 2.136131e-01 3.036250e-01 1.257786e-01 -2.894043e-01 -1.448133e-02 -2.056978e-01 -2.289021e-01 -1.927465e-01
<VARIANCE> 39
 3.673726e+01 2.189737e+01 2.652592e+01 6.811153e+01 5.058415e+01 1.056110e+02 3.768145e+01 7.817711e+01 7.339645e+01 8.735719e+01 1.251363e+02 1.372997e+02 5.487630e+01 7.672282e-01 6.807597e-01 1.438120e+00 1.248197e+00 2.077399e+00 2.190019e+00 1.042083e+00 2.367510e+00 4.075308e+00 3.158159e+00 3.557153e+00 2.806950e+00 5.891833e-01 1.793616e-01 1.705735e-01 2.163171e-01 4.557527e-01 4.140030e-01 4.204950e-01 4.109379e-01 3.320610e-01 5.934780e-01 8.155424e-01 8.821430e-01 6.992347e-01 6.884635e-02
<GCONST> 1.182129e+02
<STATE> 5
<NUMMIXES> 4
<MIXTURE> 1 1.980444e-01
<MEAN> 39
 1.089316e-01 -2.553153e+00 -2.754954e+00 -7.870606e-01 3.091197e+00 1.866479e+00 -3.166467e+00 -2.343371e+00 1.350423e+01 1.642138e+01 1.827535e+01 5.277947e-01 6.837121e+00 -4.221686e-01 5.521560e-02 2.988217e-01 -2.297219e-01 9.361191e-01 -5.451288e-01 -2.495423e-01 5.369942e-01 1.861814e-01 -2.927058e-01 -6.484433e-01 -2.001702e-01 2.349748e-01 3.344149e-02 2.606141e-02 2.458267e-01 1.652951e-01 1.674892e-01 2.058356e-01 4.477541e-02 -1.145039e-01 -3.405470e-01 -2.498295e-01 -1.065450e-01 2.441714e-01 5.413475e-02
<VARIANCE> 39
 2.188882e+01 6.395298e+01 2.788835e+01 4.425150e+01 3.285014e+01 7.114045e+01 5.445279e+01 8.460574e+01 1.709344e+01 6.359712e+01 1.800557e+01 4.902114e+01 1.102971e+01 6.237438e-01 8.237352e-01 1.101115e+00 2.356546e+00 2.304174e+00 3.462087e+00 1.618068e+00 9.956612e-01 3.871074e+00 2.607252e+00 5.714118e+00 1.329171e+00 4.610601e-01 1.303096e-01 2.246358e-01 1.117121e-01 7.597401e-01 3.001361e-01 5.465122e-01 6.331155e-01 3.984617e-01 6.466267e-01 7.134749e-01 3.528368e-01 2.986053e-01 1.113396e-01
<GCONST> 1.104105e+02
<MIXTURE> 2 2.730158e-01
<MEAN> 39
 6.299092e+00 3.850527e+00 9.845464e-01 -4.982526e+00 -2.225271e+00 -3.823835e+00 -1.605834e+00 -4.109594e+00 -2.200899e+00 -6.807575e+00 -6.897163e+00 -2.062679e+00 -1.589809e-02 -9.259472e-01 3.081936e-01 4.252367e-01 1.488938e+00 -1.585414e-01 4.518231e-01 -3.621841e-01 -5.550053e-01 -1.409595e+00 -4.269851e-01 -1.135028e+00 -2.237165e-01 -1.273372e+00 -4.373545e-01 -1.649973e-01 -2.579907e-01 4.261219e-02 1.988585e-01 4.496723e-01 3.666704e-01 1.452972e-01 -1.548718e-01 2.849703e-01 3.843117e-01 4.699362e-02 3.491205e-02
<VARIANCE> 39
 2.487154e+01 2.420928e+01 3.702284e+01 3.551879e+01 5.791651e+01 4.025406e+01 3.808607e+01 7.694545e+01 5.145230e+01 6.947671e+01 5.897369e+01 7.843600e+01 1.738273e+01 2.152152e+00 1.845964e+00 3.054690e+00 3.246935e+00 4.184842e+00 4.184209e+00 5.491414e+00 9.718905e+00 6.768470e+00 8.307686e+00 5.115876e+00 5.305056e+00 2.020889e+00 1.497580e-01 3.167282e-01 4.338075e-01 4.662622e-01 6.778903e-01 8.796852e-01 5.758900e-01 1.151178e+00 1.148112e+00 8.472463e-01 9.352352e-01 6.276662e-01 1.738040e-01
<GCONST> 1.311361e+02
<MIXTURE> 3 2.402038e-01
<MEAN> 39
 1.119210e+00 -1.805995e+00 -2.174783e+00 -2.350956e+00 3.970581e-01 -7.428403e-01 9.742571e-02 -4.596930e+00 -4.424136e-01 1.138459e+01 2.055583e+01 1.667302e+01 7.347083e+00 7.726344e-03 1.107946e-01 -1.377525e-01 5.939587e-02 3.563641e-02 -4.498893e-01 -3.268801e-01 2.136475e-01 -2.450508e-01 -2.029499e-01 -6.429073e-01 6.640001e-01 -2.210274e-01 1.095366e-01 1.542111e-01 -4.903127e-02 -3.026962e-01 -1.244991e-01 1.569998e-01 -1.945122e-01 1.113849e-01 3.140922e-01 -3.265681e-01 -3.241583e-01 -2.399829e-01 -8.377428e-02
<VARIANCE> 39
 1.968190e+01 4.633126e+01 2.184681e+01 8.606105e+01 5.067699e+01 5.740191e+01 6.438470e+01 4.316398e+01 8.074119e+01 6.366566e+01 5.763025e+01 4.036787e+01 1.478940e+01 3.449094e-01 4.897988e-01 8.831099e-01 2.764127e+00 1.114229e+00 2.528987e+00 1.766789e+00 3.388788e+00 3.562900e+00 2.889792e+00 3.010428e+00 2.788070e+00 2.566578e-01 1.337676e-01 2.140544e-01 1.242849e-01 1.474829e-01 3.129864e-01 3.570030e-01 2.686964e-01 3.356450e-01 6.324082e-01 2.916610e-01 4.200488e-01 3.729239e-01 8.779867e-02
<GCONST> 1.078404e+02
<MIXTURE> 4 2.887361e-01
<MEAN> 39
 2.690235e+00 -5.528276e-01 1.944743e-01 6.818973e-01 2.207573e-01 -2.031636e-01 -4.196731e+00 -2.331182e+00 -2.953149e+00 -4.551482e+00 -4.701233e+00 -2.670343e+00 3.058188e+00 -2.556316e-01 -3.398159e-01 1.495587e-01 5.804834e-01 -2.293153e-03 3.096304e-01 -2.904468e-01 -2.268901e-01 -3.706720e-02 1.051081e-01 9.078933e-02 -6.704919e-02 -7.126252e-02 5.481464e-02 6.451914e-02 -1.095945e-01 -2.015949e-01 -1.885866e-01 8.303188e-02 2.426940e-01 9.390275e-02 3.804918e-03 5.189616e-02 8.687802e-02 8.868305e-02 -7.774759e-02
<VARIANCE> 39
 3.834251e+01 4.040400e+01 3.433310e+01 6.374743e+01 3.280898e+01 1.078037e+02 1.184960e+02 5.073793e+01 6.330150e+01 2.081282e+01 5.990952e+01 5.489079e+01 5.663990e+01 2.597955e-01 9.220511e-01 5.227402e-01 2.022364e+00 2.365455e+00 1.851689e+00 3.044855e+00 1.710134e+00 1.992511e+00 2.731153e+00 2.645710e+00 1.379561e+00 2.709158e-01 5.799454e-02 1.030566e-01 1.240782e-01 2.093437e-01 2.086058e-01 3.369926e-01 5.427755e-01 3.561979e-01 2.805384e-01 3.105826e-01 3.334045e-01 3.763223e-01 3.191024e-02
<GCONST> 1.053115e+02
<TRANSP> 6
 0.000000e+00 1.000000e+00 0.000000e+00 0.000000e+00 0.000000e+00 0.000000e+00
 0.000000e+00 4.540504e-01 5.459496e-01 0.000000e+00 0.000000e+00 0.000000e+00
 0.000000e+00 0.000000e+00 5.832646e-01 4.167354e-01 0.000000e+00 0.000000e+00
 0.000000e+00 0.000000e+00 0.000000e+00 4.760672e-01 5.239329e-01 0.000000e+00
 0.000000e+00 0.000000e+00 0.000000e+00 0.000000e+00 4.340781e-01 5.659219e-01
 0.000000e+00 0.000000e+00 0.000000e+00 0.000000e+00 0.000000e+00 0.000000e+00
<ENDHMM>
