~o
<STREAMINFO> 1 39
<VECSIZE> 39<NULLD><MFCC_D_A_Z_0><DIAGC>
~h "ay"
<BEGINHMM>
<NUMSTATES> 6
<STATE> 2
<NUMMIXES> 4
<MIXTURE> 1 2.449809e-01
<MEAN> 39
 9.007175e+00 -7.904736e+00 -9.482530e+00 -1.038812e+01 1.864275e+00 1.201340e+01 -1.302102e-01 -1.793338e+00 9.290013e-01 1.838496e+00 1.135860e+00 -5.528337e+00 1.000137e+01 -1.982358e-01 -1.308250e+00 3.282640e-02 5.659721e-01 8.257428e-01 1.501431e-01 -3.502977e-01 1.728946e-01 6.556545e-01 4.916158e-02 -6.824241e-01 -8.007194e-01 6.073784e-01 -1.566191e-01 3.254254e-01 2.975444e-01 4.757033e-01 -5.859025e-02 -8.013179e-01 8.667292e-03 9.806752e-02 7.825500e-02 -1.654944e-01 -2.371335e-01 2.514770e-01 -2.735793e-01
<VARIANCE> 39
 9.480571e+00 3.241712e+01 2.103145e+01 5.160775e+01 4.044648e+01 3.643563e+01 5.037539e+01 3.539595e+01 3.365122e+01 3.979888e+01 3.434722e+01 3.247693e+01 1.509617e+01 3.837702e-01 1.310913e+00 1.234987e+00 1.893978e+00 1.670179e+00 2.673639e+00 2.224025e+00 2.451015e+00 2.023281e+00 2.014679e+00 2.164889e+00 1.862004e+00 4.110230e-01 1.425150e-01 2.213344e-01 2.501775e-01 3.386510e-01 3.501601e-01 3.656868e-01 3.938212e-01 3.887791e-01 3.329234e-01 3.367660e-01 2.924944e-01 3.754025e-01 9.279045e-02
<GCONST> 1.047415e+02
<MIXTURE> 2 2.777247e-01
<MEAN> 39
 7.954520e+00 -7.182918e+00 -6.849487e+00 -6.888765e+00 6.888992e-01 3.164811e+00 -9.127194e-01 -3.907401e-01 2.969571e+00 -4.501196e-01 -2.844273e+00 -3.455147e+00 9.873219e+00 1.314209e+00 -2.560534e+00 -1.271722e+00 -1.219138e+00 4.426100e-01 1.148675e+00 6.694399e-02 6.566834e-01 6.067938e-01 -3.500468e-01 -7.416608e-01 -6.171452e-01 1.837708e+00 -9.750455e-01 4.181066e-01 4.734032e-01 8.227407e-01 3.937387e-01 5.185563e-03 2.556595e-01 -1.018425e-01 -1.646752e-01 -9.242655e-02 1.785259e-01 3.066545e-01 -6.754650e-01
<VARIANCE> 39
 1.504789e+01 3.006132e+01 3.213865e+01 4.093233e+01 4.427921e+01 6.440017e+01 5.413414e+01 5.034456e+01 4.207662e+01 4.731785e+01 4.526595e+01 3.115555e+01 1.329878e+01 3.789167e+00 2.717629e+00 2.922152e+00 4.225970e+00 4.991310e+00 4.595242e+00 4.915473e+00 4.623797e+00 4.507229e+00 4.167073e+00 3.975701e+00 3.842188e+00 1.375465e+00 6.024383e-01 4.770292e-01 5.134032e-01 7.703669e-01 7.198095e-01 1.009836e+00 9.187295e-01 9.459429e-01 8.409454e-01 8.066694e-01 9.102388e-01 5.335684e-01 4.316425e-01
<GCONST> 1.307706e+02
<MIXTURE> 3 2.186902e-01
<MEAN> 39
 7.268847e+00 -7.081222e+00 -9.665622e+00 -8.572166e+00 5.803357e+00 5.935116e+00 1.938405e+00 -5.738693e+00 7.191444e+00 1.790380e+00 -2.301086e+00 -7.415197e+00 9.594035e+00 -4.500292e-01 -1.340153e+00 8.450147e-01 1.816371e+00 -1.413461e-01 -1.789622e+00 -1.600723e-01 1.571749e+00 1.150535e+00 -9.648353e-01 -1.528160e+00 -2.607856e-01 5.796696e-01 -4.329088e-02 4.500032e-01 5.336769e-01 1.557155e-01 -6.637489e-01 -5.202962e-01 -6.184310e-03 6.246108e-01 -5.960224e-01 -3.113759e-01 2.009839e-01 7.846827e-01 -2.868379e-01
<VARIANCE> 39
 8.508759e+00 2.341838e+01 2.005383e+01 3.789271e+01 3.117329e+01 4.722681e+01 5.662273e+01 4.716665e+01 4.224999e+01 4.786255e+01 3.733873e+01 3.124400e+01 1.354767e+01 2.817434e-01 1.112476e+00 1.254112e+00 1.692529e+00 2.004620e+00 2.890118e+00 2.578967e+00 3.166621e+00 2.251134e+00 2.083886e+00 1.908148e+00 3.061681e+00 3.328854e-01 6.017862e-02 1.758938e-01 2.061335e-01 3.134246e-01 3.190637e-01 3.876479e-01 4.769053e-01 4.705578e-01 4.425691e-01 4.314703e-01 5.186481e-01 4.694951e-01 6.112045e-02
<GCONST> 1.049944e+02
<MIXTURE> 4 2.586042e-01
<MEAN> 39
 6.775196e+00 -1.138164e+01 -7.826451e+00 -4.427292e+00 6.903451e+00 3.100783e+00 -1.698844e+00 1.573207e+00 2.158770e+00 -3.033171e+00 -5.803347e+00 -7.483889e-01 1.154287e+01 -1.361945e-01 -8.884211e-01 2.492393e-02 5.518439e-01 6.026447e-01 4.126516e-01 1.381545e-01 -7.515881e-02 -1.818999e-01 -5.093481e-01 9.325582e-02 5.461255e-01 3.338948e-01 -1.554705e-01 4.859515e-01 4.006503e-01 1.851006e-01 -4.769374e-01 -2.843844e-01 7.813697e-02 -7.924008e-02 -1.402717e-01 7.122291e-02 3.371429e-01 -1.118942e-03 -3.532012e-01
<VARIANCE> 39
 9.804352e+00 2.623253e+01 2.039668e+01 2.971748e+01 4.153825e+01 3.533058e+01 5.215269e+01 3.921204e+01 3.467445e+01 4.057150e+01 2.729710e+01 2.702943e+01 1.226986e+01 6.070043e-01 1.089946e+00 1.706509e+00 1.714636e+00 2.674857e+00 2.239226e+00 2.909800e+00 2.844230e+00 2.176945e+00 2.777640e+00 1.858798e+00 1.848339e+00 4.303952e-01 1.552036e-01 2.332405e-01 2.731351e-01 3.579739e-01 4.063479e-01 3.983752e-01 5.564297e-01 5.051520e-01 4.134085e-01 5.163147e-01 4.223367e-01 3.077805e-01 1.386426e-01
<GCONST> 1.073689e+02
<STATE> 3
<NUMMIXES> 4
<MIXTURE> 1 3.358387e-01
<MEAN> 39
 8.340599e+00 -9.907505e+00 -9.366808e+00 -5.310481e+00 3.669896e+00 8.113389e+00 -5.688744e-01 -2.327786e+00 5.120332e+00 -1.536838e+00 -1.910532e+00 -6.004643e+00 1.052171e+01 -6.227436e-02 -2.194182e-01 1.294669e-01 5.270281e-01 -5.810137e-02 -4.595098e-01 -1.614701e-01 3.648418e-01 2.705684e-01 -2.245668e-01 -4.241138e-01 -1.340107e-02 -4.407294e-03 -2.717971e-02 7.383409e-02 1.500643e-01 9.123860e-03 -1.762396e-01 -2.419186e-01 1.279953e-02 2.046456e-01 -5.745895e-02 -3.322582e-02 -2.226233e-02 1.261262e-01 -2.618007e-02
<VARIANCE> 39
 9.155190e+00 2.005750e+01 1.809946e+01 3.828175e+01 3.589621e+01 5.470657e+01 5.833792e+01 4.441927e+01 3.212583e+01 3.142799e+01 3.134112e+01 2.730929e+01 1.189210e+01 1.552315e-01 4.117627e-01 5.155941e-01 8.816653e-01 8.291817e-01 1.367580e+00 9.847482e-01 1.323928e+00 8.714157e-01 8.018606e-01 9.544778e-01 7.826895e-01 1.205460e-01 2.640218e-02 6.848418e-02 9.027123e-02 1.186801e-01 1.456985e-01 1.739622e-01 1.822437e-01 1.867790e-01 1.604830e-01 1.423522e-01 1.442304e-01 1.392472e-01 1.978869e-02
<GCONST> 7.958897e+01
<MIXTURE> 2 1.642530e-01
<MEAN> 39
 6.147783e+00 -9.701309e+00 -3.766348e+00 -3.558591e+00 2.090096e-01 -2.166448e+00 1.158006e+00 5.767637e+00 5.746582e+00 -1.838279e+00 -6.163019e+00 -3.171725e+00 1.055239e+01 -6.246296e-01 5.760179e-01 2.292255e+00 1.136415e+00 -2.446381e+00 -2.604732e+00 7.189264e-01 1.877438e+00 -1.263294e+00 -7.343671e-01 8.259202e-01 1.728074e+00 -2.462816e-01 -8.446743e-02 7.630661e-01 3.499425e-01 -6.764128e-02 -2.834868e-01 1.942389e-01 7.210423e-02 -7.512559e-01 -7.765478e-01 4.486841e-01 8.689752e-01 8.594388e-02 -5.564445e-01
<VARIANCE> 39
 9.710201e+00 2.475064e+01 2.188552e+01 2.544183e+01 3.697964e+01 3.941199e+01 3.754447e+01 3.345313e+01 4.105552e+01 3.162793e+01 2.639841e+01 3.366031e+01 1.472706e+01 4.523801e-01 1.285202e+00 1.511494e+00 2.022639e+00 2.591078e+00 2.905063e+00 3.595141e+00 3.207717e+00 3.129660e+00 2.492972e+00 2.989449e+00 2.499604e+00 4.583240e-01 1.194649e-01 2.125896e-01 2.686402e-01 3.368964e-01 5.283517e-01 4.349848e-01 4.619732e-01 5.142446e-01 6.182215e-01 5.375102e-01 4.430920e-01 6.018931e-01 1.700410e-01
<GCONST> 1.096958e+02
<MIXTURE> 3 2.313474e-01
<MEAN> 39
 5.987440e+00 -1.217287e+01 -6.874747e+00 -2.278357e+00 5.306809e+00 3.324451e+00 -1.259610e+00 1.457024e+00 2.250286e+00 -5.215202e+00 -4.654773e+00 2.913675e-01 1.195891e+01 -1.590372e-01 7.563061e-04 4.945402e-01 1.720611e-01 -5.918912e-01 -4.079425e-01 5.470711e-01 4.367623e-01 -2.964658e-01 -2.935921e-01 5.038017e-02 3.732304e-01 7.528538e-03 1.017766e-02 9.922029e-02 6.424380e-02 -9.357236e-02 -1.956128e-01 -4.452107e-02 9.887547e-02 4.149178e-02 -4.170709e-02 4.798173e-02 4.781071e-02 -5.930823e-02 -3.809946e-02
<VARIANCE> 39
 6.846537e+00 1.573355e+01 1.790368e+01 2.162161e+01 2.755900e+01 2.873479e+01 5.312593e+01 3.333685e+01 4.524972e+01 3.242258e+01 2.507712e+01 2.781249e+01 1.220051e+01 1.070793e-01 2.405721e-01 3.795177e-01 3.804207e-01 8.067423e-01 6.248755e-01 9.705005e-01 7.529082e-01 7.244910e-01 7.229894e-01 5.966458e-01 5.845374e-01 7.197688e-02 1.752854e-02 3.484384e-02 5.011418e-02 5.617253e-02 9.969418e-02 8.217409e-02 1.322590e-01 1.030845e-01 1.139163e-01 1.111185e-01 9.170555e-02 9.152462e-02 1.027407e-02
<GCONST> 6.578354e+01
<MIXTURE> 4 2.685609e-01
<MEAN> 39
 6.996947e+00 -1.229693e+01 -6.782940e+00 -3.100096e+00 4.971640e+00 4.386097e+00 -2.535971e+00 1.720616e+00 3.901123e+00 -3.242228e+00 -5.736223e+00 -2.190896e+00 1.143866e+01 -4.586269e-01 -3.414381e-01 1.321391e+00 6.924543e-01 -1.313874e+00 -1.588863e+00 9.735759e-01 1.574785e+00 -5.792344e-01 -1.100101e+00 -1.159090e-01 1.010500e+00 2.496386e-01 -3.006465e-02 3.894360e-01 2.444672e-01 -2.491953e-01 -5.123225e-01 -1.944716e-01 3.909365e-01 1.828408e-02 -3.492694e-01 1.147458e-01 3.804879e-01 5.758939e-02 -1.495018e-01
<VARIANCE> 39
 9.448654e+00 2.264817e+01 1.782683e+01 2.880164e+01 4.064179e+01 3.778789e+01 4.953060e+01 3.623465e+01 3.726806e+01 4.083333e+01 2.602289e+01 3.215662e+01 1.293311e+01 1.667841e-01 5.807045e-01 5.626666e-01 1.130064e+00 1.313275e+00 1.671493e+00 1.901750e+00 1.742096e+00 1.669735e+00 1.257245e+00 1.435936e+00 1.152716e+00 1.246251e-01 3.750058e-02 9.165159e-02 1.077203e-01 1.604041e-01 2.237963e-01 2.161625e-01 3.053845e-01 2.635280e-01 2.594659e-01 2.634567e-01 2.300420e-01 2.657610e-01 2.831338e-02
<GCONST> 8.876852e+01
<STATE> 4
<NUMMIXES> 4
<MIXTURE> 1 2.592099e-01
<MEAN> 39
 4.844358e+00 -1.209005e+01 -2.884145e+00 -1.935322e+00 3.501053e-01 1.406989e+00 3.037829e+00 4.755496e+00 -2.577713e+00 -7.718369e+00 -2.391309e+00 3.229851e+00 1.204663e+01 -5.099290e-01 9.401250e-01 1.832672e+00 -9.597043e-01 -2.749071e+00 -8.721038e-01 2.390555e+00 2.687137e-01 -1.394066e+00 6.678984e-01 6.536956e-01 -4.253208e-01 -1.669159e-01 3.594340e-02 4.924944e-01 1.328565e-01 -3.980316e-01 -2.091807e-01 3.251322e-02 -3.068629e-01 -5.469852e-01 2.668149e-01 7.752464e-01 -1.583629e-01 -5.875421e-01 -2.868286e-01
<VARIANCE> 39
 9.573579e+00 2.110182e+01 1.827287e+01 2.332816e+01 3.380735e+01 2.845167e+01 4.781348e+01 3.323809e+01 3.512150e+01 3.334180e+01 2.405431e+01 1.829374e+01 1.404921e+01 2.523118e-01 7.674853e-01 8.513629e-01 1.348609e+00 1.459026e+00 1.679939e+00 2.134729e+00 2.447063e+00 2.169411e+00 2.499365e+00 1.729829e+00 1.995963e+00 1.754861e-01 4.425516e-02 1.431945e-01 1.298547e-01 1.958534e-01 2.524794e-01 2.656652e-01 4.462549e-01 3.494019e-01 3.904005e-01 3.707405e-01 2.983818e-01 2.685995e-01 4.267966e-02
<GCONST> 9.440706e+01
<MIXTURE> 2 2.905016e-01
<MEAN> 39
 6.601413e+00 -1.042675e+01 -1.732391e+00 -3.107458e+00 -3.594618e+00 -2.505008e+00 2.858219e+00 6.861353e+00 2.585259e+00 -3.514567e+00 -3.330515e+00 -2.971237e+00 1.083568e+01 -3.978280e-02 6.406395e-01 8.243987e-01 -1.395269e-04 -8.981469e-01 -9.895707e-01 -1.669240e-01 4.908742e-01 -3.029082e-01 1.837603e-01 5.666122e-01 3.379508e-01 -3.951914e-01 7.079815e-02 1.624867e-01 -1.292990e-01 1.157474e-02 2.042351e-01 1.557910e-01 -2.732591e-01 -3.656235e-01 1.750674e-02 1.876704e-01 8.954941e-02 -3.287226e-02 -1.573546e-01
<VARIANCE> 39
 9.085551e+00 1.760901e+01 2.941479e+01 2.700918e+01 3.443826e+01 3.817396e+01 4.210824e+01 4.641052e+01 4.800132e+01 2.842524e+01 2.873248e+01 3.034341e+01 1.124708e+01 2.241004e-01 5.127195e-01 1.094391e+00 8.150153e-01 1.415640e+00 1.538566e+00 1.679210e+00 1.561362e+00 1.357700e+00 1.465883e+00 1.417202e+00 1.371296e+00 1.449491e-01 3.124103e-02 9.246949e-02 1.315947e-01 1.379557e-01 1.828735e-01 1.966922e-01 2.003825e-01 2.833699e-01 2.224318e-01 2.002413e-01 1.997240e-01 1.713670e-01 3.304717e-02
<GCONST> 8.753857e+01
<MIXTURE> 3 2.305814e-01
<MEAN> 39
 3.455414e+00 -7.529711e+00 2.855778e+00 -7.156716e+00 -8.059512e+00 -1.488908e+00 8.230707e+00 3.222833e+00 -3.732523e+00 -1.018618e+00 -2.669882e+00 -7.839715e-01 1.088867e+01 -3.597201e-01 2.060995e+00 2.019955e+00 -1.230849e+00 -2.357482e+00 -9.198539e-01 -1.466328e-01 -1.464949e+00 8.985084e-02 2.247456e+00 3.797207e-02 -7.204701e-01 -9.898884e-01 1.081200e-01 3.422346e-01 -1.780434e-01 5.925954e-01 6.205329e-01 8.495305e-02 -9.679443e-01 -4.723968e-01 2.779215e-01 -9.762979e-02 -6.537051e-02 2.329669e-01 -5.615479e-01
<VARIANCE> 39
 9.541721e+00 2.069963e+01 2.049710e+01 2.488347e+01 2.778820e+01 3.411982e+01 3.165117e+01 3.609964e+01 2.890746e+01 3.405933e+01 1.824754e+01 1.915993e+01 1.331171e+01 4.459487e-01 1.197578e+00 1.281120e+00 2.037410e+00 2.116701e+00 2.284645e+00 3.382002e+00 3.033042e+00 3.346700e+00 2.827064e+00 2.440861e+00 2.422179e+00 3.675189e-01 8.542050e-02 2.448411e-01 1.967356e-01 4.100190e-01 3.650637e-01 3.952788e-01 4.141612e-01 5.629594e-01 4.631388e-01 5.656272e-01 3.316277e-01 3.973573e-01 2.035252e-01
<GCONST> 1.049554e+02
<MIXTURE> 4 2.197071e-01
<MEAN> 39
 5.259761e+00 -6.715900e+00 2.604387e+00 -2.706868e+00 -6.988081e+00 -7.312672e+00 1.916502e+00 7.090117e+00 6.680861e-01 -1.536223e+00 -1.059375e+00 -6.121036e-02 9.044920e+00 -2.918236e-01 2.455287e+00 1.924664e+00 1.553553e+00 -1.116716e+00 -1.446072e+00 -4.836844e-01 -1.110515e+00 -1.861342e+00 4.761297e-01 1.487019e+00 7.424784e-01 -2.306756e+00 -3.178800e-01 7.735255e-01 -3.554331e-01 5.490808e-01 1.011249e+00 8.379768e-01 -2.699921e-02 -1.064119e+00 -1.174093e-02 4.466059e-02 -1.969266e-01 -3.406527e-01 -1.062417e+00
<VARIANCE> 39
 8.869178e+00 1.850419e+01 2.866449e+01 2.420481e+01 3.396231e+01 3.912716e+01 4.152156e+01 3.418094e+01 4.092419e+01 2.634432e+01 3.092348e+01 2.550966e+01 1.287952e+01 9.976094e-01 1.844008e+00 2.983431e+00 2.322161e+00 4.355057e+00 3.171382e+00 4.596691e+00 4.458960e+00 5.780950e+00 3.390057e+00 3.806373e+00 3.416648e+00 1.674140e+00 2.839796e-01 2.854750e-01 4.086544e-01 4.525361e-01 5.704365e-01 7.543694e-01 7.268651e-01 7.266843e-01 7.717945e-01 6.425768e-01 6.733685e-01 5.207430e-01 3.339921e-01
<GCONST> 1.196984e+02
<STATE> 5
<NUMMIXES> 4
<MIXTURE> 1 3.074594e-01
<MEAN> 39
 5.557201e+00 -4.867534e+00 1.573368e+00 -5.058202e+00 -5.163156e+00 -1.398994e+00 -3.475182e-01 1.972848e+00 5.233841e-01 -6.563354e-01 -1.839317e+00 -1.686059e+00 7.544241e+00 1.283785e-01 1.193246e+00 2.816755e-01 1.872180e-01 4.671737e-02 -1.353369e-01 -7.784512e-01 -1.046261e+00 -3.476286e-01 2.663226e-01 3.362238e-01 2.637624e-01 -1.100385e+00 -1.856208e-03 1.676314e-02 -1.887018e-01 1.827920e-01 2.279292e-01 1.090103e-01 1.128720e-01 -1.021924e-01 -1.175849e-01 -1.215983e-01 -3.380589e-02 1.812191e-02 -1.128106e-01
<VARIANCE> 39
 2.348776e+01 4.023915e+01 7.667753e+01 5.928165e+01 6.274265e+01 5.440051e+01 5.856437e+01 6.994067e+01 6.071616e+01 4.401921e+01 4.047016e+01 3.196095e+01 2.092702e+01 6.015505e-01 1.385333e+00 2.337861e+00 2.512270e+00 2.770160e+00 3.184963e+00 3.052523e+00 3.667167e+00 2.877075e+00 2.812416e+00 2.361835e+00 2.194964e+00 6.417273e-01 1.122262e-01 2.178568e-01 2.869864e-01 3.518434e-01 4.328755e-01 4.085345e-01 4.894878e-01 5.854124e-01 4.721296e-01 4.827383e-01 4.291878e-01 3.738663e-01 1.003210e-01
<GCONST> 1.163800e+02
<MIXTURE> 2 2.469034e-01
<MEAN> 39
 -2.419683e+00 8.759752e+00 6.138245e+00 6.549979e+00 -2.647047e+00 -3.879953e+00 2.673036e+00 -3.363211e+00 -2.201851e+00 -9.347342e-01 8.085293e-01 2.874448e-02 -5.676743e+00 -3.661669e+00 1.871590e+00 -1.169382e+00 2.492475e+00 3.712782e+00 2.516905e+00 1.699053e-01 -3.311824e-01 9.338350e-01 -2.699747e-01 5.539880e-01 7.307472e-02 -3.883086e+00 -9.336939e-02 -1.229169e+00 -8.084837e-01 -8.098673e-01 1.969573e-01 2.931682e-01 1.543761e-01 7.788963e-01 5.798279e-01 1.645865e-01 -8.594524e-02 9.842447e-02 8.806261e-01
<VARIANCE> 39
 3.891838e+01 2.686259e+01 3.651424e+01 3.588169e+01 5.945395e+01 4.602742e+01 4.666705e+01 5.093561e+01 4.967478e+01 3.733813e+01 3.270035e+01 2.907168e+01 5.442739e+01 4.461136e+00 4.252974e+00 4.770327e+00 6.396256e+00 4.549020e+00 5.330266e+00 5.591421e+00 7.261889e+00 5.694158e+00 4.998252e+00 5.533040e+00 3.540087e+00 7.788649e+00 6.306764e-01 5.126066e-01 7.667590e-01 6.287804e-01 1.110561e+00 8.480762e-01 8.692073e-01 1.004249e+00 1.006148e+00 8.187163e-01 6.860919e-01 6.344676e-01 8.134964e-01
<GCONST> 1.382177e+02
<MIXTURE> 3 1.990091e-01
<MEAN> 39
 2.893528e+00 7.366927e-01 8.606731e+00 -6.143869e+00 -1.331419e+01 -4.717193e+00 4.364132e+00 -4.754869e+00 -2.922257e+00 4.508552e+00 -1.803848e+00 -3.924407e-01 4.653959e+00 -7.818235e-01 3.332240e+00 1.190974e+00 2.771403e+00 3.718974e-01 3.593828e-01 -1.610790e+00 -2.220700e+00 -3.870357e-04 3.333782e-01 5.994099e-01 -2.277578e-01 -4.077870e+00 -5.154877e-01 -1.431976e-01 -9.702982e-01 1.231051e+00 1.797936e+00 7.343237e-01 -1.857049e-01 7.320910e-01 3.823167e-01 -9.726768e-01 1.729619e-01 7.802739e-02 -8.661320e-01
<VARIANCE> 39
 9.130602e+00 2.720312e+01 2.073978e+01 3.648199e+01 2.366219e+01 3.272486e+01 4.182148e+01 3.622295e+01 3.287389e+01 3.361278e+01 3.310107e+01 2.682760e+01 2.091978e+01 1.716570e+00 2.278943e+00 3.626346e+00 4.954078e+00 5.654351e+00 3.916100e+00 4.308120e+00 4.819422e+00 4.203640e+00 6.066247e+00 3.629726e+00 2.825892e+00 3.947973e+00 3.457349e-01 5.465367e-01 4.044254e-01 6.359946e-01 6.934755e-01 7.551279e-01 9.876391e-01 8.743762e-01 9.253819e-01 7.170027e-01 8.368245e-01 7.174506e-01 5.435296e-01
<GCONST> 1.266087e+02
<MIXTURE> 4 2.466281e-01
<MEAN> 39
 5.320987e+00 -3.311645e-01 4.494856e+00 2.386685e+00 -6.029657e+00 -8.542083e+00 -1.706853e-01 2.587923e+00 -2.510854e+00 -1.707298e+00 5.089571e-01 6.895121e-01 2.249272e+00 -1.727450e+00 3.729649e+00 4.524305e-01 2.621537e+00 1.867842e+00 4.715996e-01 1.357930e-01 -2.292832e+00 -1.217537e+00 -9.329337e-02 1.507920e-01 6.572931e-02 -3.951509e+00 -8.497539e-01 -7.494567e-02 -6.014053e-01 -1.717243e-01 8.709866e-01 9.895326e-01 3.976271e-01 -1.514111e-01 5.124430e-01 1.069408e-01 -3.341384e-01 -2.332473e-01 -1.395198e-01
<VARIANCE> 39
 1.330407e+01 2.438856e+01 3.968649e+01 2.793873e+01 3.833825e+01 3.692136e+01 4.495769e+01 5.121393e+01 5.651925e+01 3.111314e+01 3.667428e+01 3.114849e+01 1.966450e+01 3.745477e+00 2.748099e+00 3.888870e+00 3.645445e+00 4.705955e+00 6.033921e+00 6.130617e+00 5.722899e+00 6.273532e+00 4.402841e+00 4.175264e+00 3.900388e+00 4.599343e+00 4.547186e-01 4.799292e-01 6.877012e-01 4.689370e-01 7.869062e-01 7.936462e-01 8.207955e-01 9.959095e-01 1.072358e+00 6.333374e-01 8.102152e-01 5.827467e-01 5.058347e-01
<GCONST> 1.313359e+02
<TRANSP> 6
 0.000000e+00 1.000000e+00 0.000000e+00 0.000000e+00 0.000000e+00 0.000000e+00
 0.000000e+00 7.265775e-01 2.734226e-01 0.000000e+00 0.000000e+00 0.000000e+00
 0.000000e+00 0.000000e+00 7.902842e-01 2.097159e-01 0.000000e+00 0.000000e+00
 0.000000e+00 0.000000e+00 0.000000e+00 7.461163e-01 2.538837e-01 0.000000e+00
 0.000000e+00 0.000000e+00 0.000000e+00 0.000000e+00 6.851087e-01 3.148913e-01
 0.000000e+00 0.000000e+00 0.000000e+00 0.000000e+00 0.000000e+00 0.000000e+00
<ENDHMM>
