~o
<STREAMINFO> 1 39
<VECSIZE> 39<NULLD><MFCC_D_A_Z_0><DIAGC>
~h "el"
<BEGINHMM>
<NUMSTATES> 6
<STATE> 2
<NUMMIXES> 4
<MIXTURE> 1 3.340858e-01
<MEAN> 39
 1.100802e+01 2.791252e+00 -3.097495e+00 -1.838870e+01 -7.432844e+00 1.218901e+01 -1.332144e+00 -4.389964e+00 -2.460660e+00 -1.489467e+00 2.595484e+00 2.390535e+00 3.666979e+00 6.597491e-01 2.710865e-01 1.519350e-01 -2.824419e+00 -1.162342e+00 1.410476e+00 -3.468520e-01 5.230196e-01 2.766404e-01 -5.432633e-01 1.938916e-01 2.434882e-01 5.339482e-01 -7.796025e-01 1.346392e-01 -9.597024e-02 1.332940e+00 1.012484e+00 -8.221031e-01 3.257544e-01 1.368200e-01 6.198462e-02 1.573613e-01 -2.049204e-01 -2.181968e-01 -5.775790e-01
<VARIANCE> 39
 7.587148e+00 1.722225e+01 2.200953e+01 2.878517e+01 4.133167e+01 1.943811e+01 3.783183e+01 3.603600e+01 2.888271e+01 2.922554e+01 2.891698e+01 2.082464e+01 1.340996e+01 1.295787e+00 1.824579e+00 1.687694e+00 4.466228e+00 4.639348e+00 2.594651e+00 2.113492e+00 2.666800e+00 2.847851e+00 2.752938e+00 2.501872e+00 2.354281e+00 1.263633e+00 3.688767e-01 2.971884e-01 3.668287e-01 5.826551e-01 5.781355e-01 3.947648e-01 4.493259e-01 4.963494e-01 6.263434e-01 4.912553e-01 5.057713e-01 4.491797e-01 2.473704e-01
<GCONST> 1.130176e+02
<MIXTURE> 2 1.952596e-01
<MEAN> 39
 1.009829e+01 -1.324762e+00 -7.265765e+00 -5.577651e+00 -1.941916e+00 2.460103e+00 -3.029250e+00 -5.508001e+00 -1.411188e+00 2.849377e+00 4.275580e+00 -2.497611e+00 5.048131e+00 1.896299e+00 2.266469e-01 -7.633191e-01 -3.054998e+00 -1.139245e+00 1.806887e+00 1.550072e-01 -1.170232e+00 -3.581704e-01 -2.013620e-01 1.179949e+00 2.439529e-02 4.543217e-01 -4.704910e-01 2.072825e-01 2.170752e-01 -1.295992e-01 1.997817e-01 2.398069e-01 3.352053e-01 2.951639e-01 -4.510844e-02 -2.637375e-01 -3.433338e-01 3.323596e-01 -3.845692e-01
<VARIANCE> 39
 2.153440e+01 2.549000e+01 3.855185e+01 3.682469e+01 3.607845e+01 6.600498e+01 3.951965e+01 3.647863e+01 3.876797e+01 3.294200e+01 5.942128e+01 2.560678e+01 1.816913e+01 4.423521e+00 2.341213e+00 4.057501e+00 6.073182e+00 5.526464e+00 6.491420e+00 6.666107e+00 5.264032e+00 5.602619e+00 5.168186e+00 4.582532e+00 3.632954e+00 1.535907e+00 4.316452e-01 3.748539e-01 4.291179e-01 4.611403e-01 7.132027e-01 1.046251e+00 6.758637e-01 9.673453e-01 9.481617e-01 8.117545e-01 9.592677e-01 6.973985e-01 2.777462e-01
<GCONST> 1.308551e+02
<MIXTURE> 3 2.291196e-01
<MEAN> 39
 8.790921e+00 -2.060560e+00 -7.147919e+00 -1.417620e+01 4.497252e+00 5.939648e-01 -1.126225e+01 -1.690051e+00 1.229313e+00 1.772874e+00 -3.560469e+00 -3.122252e+00 6.955498e+00 1.635615e+00 -2.455417e-01 -1.646345e+00 -3.430539e+00 1.153652e+00 1.502451e+00 -7.183824e-01 2.393868e-01 -5.882028e-01 1.125704e+00 5.987746e-01 -2.260440e-01 7.890210e-01 -8.638225e-01 3.976359e-01 3.556761e-01 1.115918e+00 1.443641e-02 1.643090e-01 9.910427e-01 7.833868e-02 -1.432345e-01 -3.317874e-02 5.286385e-01 4.004340e-01 -6.105710e-01
<VARIANCE> 39
 8.716830e+00 2.780478e+01 2.592964e+01 3.496119e+01 3.586194e+01 5.178938e+01 3.171516e+01 4.819209e+01 4.695863e+01 4.685599e+01 3.451620e+01 2.298427e+01 1.136591e+01 2.785162e+00 2.303560e+00 2.657778e+00 4.903135e+00 3.481135e+00 3.886856e+00 4.222727e+00 4.603283e+00 4.791712e+00 3.834501e+00 4.326782e+00 3.191149e+00 1.384486e+00 6.097948e-01 4.700693e-01 5.202675e-01 9.538596e-01 6.359511e-01 7.070117e-01 6.838188e-01 1.060020e+00 9.293879e-01 7.797645e-01 6.140935e-01 5.812248e-01 3.009623e-01
<GCONST> 1.258749e+02
<MIXTURE> 4 2.415350e-01
<MEAN> 39
 1.051169e+01 5.492383e+00 -7.530779e+00 -1.413598e+01 -1.995407e+00 3.883336e+00 4.070096e+00 -7.106910e+00 -4.013780e+00 2.150867e+00 -5.429786e-01 2.278380e+00 2.021227e+00 1.302456e+00 6.092683e-01 -3.540719e-01 -3.038299e+00 -1.141352e+00 4.655943e-01 7.577826e-01 -1.919463e-03 -4.095381e-01 -2.260507e-01 -5.533412e-01 1.039047e+00 4.125312e-01 -8.750390e-01 -3.308569e-01 3.654708e-01 1.020466e+00 4.560828e-01 3.525672e-02 -4.406938e-01 5.344420e-01 4.094756e-01 -2.388986e-01 1.636619e-01 -1.818027e-01 -3.505961e-01
<VARIANCE> 39
 8.575200e+00 2.050022e+01 1.912144e+01 3.626758e+01 3.852940e+01 2.213303e+01 5.091299e+01 3.176352e+01 3.540955e+01 4.732684e+01 3.771369e+01 2.845350e+01 1.738902e+01 2.536420e+00 2.075443e+00 2.019704e+00 5.197939e+00 3.351378e+00 2.446805e+00 3.006067e+00 4.180480e+00 3.917547e+00 2.975965e+00 3.673342e+00 2.436909e+00 1.108055e+00 4.194645e-01 2.955901e-01 3.646476e-01 7.394336e-01 4.741002e-01 3.092399e-01 5.820015e-01 7.027382e-01 7.216510e-01 7.212143e-01 6.449192e-01 4.153864e-01 2.461022e-01
<GCONST> 1.185967e+02
<STATE> 3
<NUMMIXES> 4
<MIXTURE> 1 2.486773e-01
<MEAN> 39
 9.360273e+00 8.098064e+00 -1.924066e+00 -2.183144e+01 -8.032042e+00 6.686432e+00 3.506913e+00 -2.027187e+00 -9.809521e-01 -2.408242e+00 -2.700528e+00 3.566904e+00 1.746615e+00 -6.623220e-02 4.066785e-01 1.758333e-01 -1.864082e-01 2.259529e-01 -3.027697e-01 -1.866286e-01 5.122875e-01 -8.020376e-02 -2.188778e-01 -5.008547e-03 -2.128445e-01 -3.737522e-01 -1.395559e-01 -1.954147e-01 -5.961091e-02 8.162661e-01 3.502551e-01 -4.163668e-02 -1.342199e-01 -1.006804e-01 -2.105554e-01 7.264073e-02 3.073231e-01 -1.960414e-01 -1.292000e-01
<VARIANCE> 39
 1.118052e+01 1.694869e+01 2.809223e+01 3.701408e+01 3.677454e+01 3.024074e+01 3.554607e+01 3.851411e+01 3.741453e+01 2.286698e+01 1.800025e+01 2.236843e+01 1.678787e+01 2.919148e-01 7.124270e-01 7.677493e-01 1.650856e+00 1.106280e+00 1.106061e+00 1.128751e+00 1.597226e+00 1.606551e+00 1.203029e+00 1.051959e+00 1.063923e+00 5.116034e-01 1.309761e-01 1.742055e-01 2.006949e-01 5.020863e-01 3.083108e-01 2.845188e-01 3.082263e-01 3.946320e-01 4.031038e-01 2.619819e-01 2.593695e-01 2.745985e-01 1.501697e-01
<GCONST> 9.583234e+01
<MIXTURE> 2 2.222222e-01
<MEAN> 39
 1.090249e+01 2.961396e+00 -6.478145e+00 -1.902112e+01 -1.784235e+00 1.294473e+01 -3.451344e+00 -2.746682e+00 -4.419509e-01 -3.382292e+00 4.775798e+00 2.190757e+00 3.215497e+00 -5.494605e-02 7.787694e-01 -1.451588e-01 -6.797591e-02 3.079260e-01 -3.460899e-01 1.756392e-01 3.839770e-01 -2.027026e-01 -4.655510e-01 1.704101e-01 -7.588154e-02 -4.678814e-01 -2.846198e-01 6.876618e-02 5.791797e-02 8.000253e-01 2.752843e-01 -6.912555e-01 1.320816e-01 -1.904811e-01 -1.905526e-01 2.899287e-01 -3.213741e-01 -2.527243e-01 -2.308754e-01
<VARIANCE> 39
 8.325370e+00 1.654733e+01 1.675914e+01 2.792104e+01 5.006266e+01 1.444557e+01 2.830493e+01 3.356405e+01 2.007204e+01 2.769732e+01 1.939528e+01 2.395493e+01 1.616493e+01 3.587847e-01 1.127205e+00 1.031637e+00 1.783425e+00 1.575638e+00 1.611181e+00 1.857319e+00 2.555841e+00 1.678240e+00 2.077296e+00 1.862605e+00 1.884418e+00 5.360777e-01 1.177708e-01 1.662585e-01 1.763981e-01 3.103568e-01 4.410207e-01 2.803984e-01 2.809120e-01 3.772719e-01 2.708372e-01 4.325876e-01 2.420268e-01 3.226712e-01 8.563078e-02
<GCONST> 9.718567e+01
<MIXTURE> 3 2.598471e-01
<MEAN> 39
 1.001057e+01 4.290161e-01 -7.983418e+00 -1.700069e+01 4.143786e+00 5.459101e+00 -5.387858e+00 -3.219121e+00 -2.384078e+00 3.762820e+00 6.393915e-01 -5.551901e-01 5.554884e+00 1.645839e-01 9.518005e-01 -1.192575e-01 -5.414820e-01 2.266085e-01 5.558031e-01 5.061499e-01 -1.543088e-01 -5.577959e-01 -5.461233e-01 6.517509e-01 4.875416e-01 -5.543990e-01 -4.448798e-01 3.225924e-01 3.517805e-01 1.207546e+00 -1.227473e-01 -4.069335e-01 1.282095e-01 -7.935622e-02 1.237316e-01 -4.413190e-01 -5.733540e-02 -1.063093e-01 -5.562181e-01
<VARIANCE> 39
 7.402893e+00 2.577882e+01 2.797738e+01 3.954797e+01 4.152543e+01 3.777918e+01 5.212657e+01 3.733418e+01 4.645203e+01 4.062817e+01 3.642244e+01 3.180113e+01 1.061344e+01 4.350849e-01 1.305826e+00 1.053187e+00 2.685949e+00 1.811533e+00 2.539801e+00 2.505202e+00 2.543195e+00 2.815954e+00 2.859919e+00 2.475556e+00 2.152746e+00 6.121902e-01 3.255885e-01 2.895871e-01 4.067801e-01 8.575902e-01 5.457026e-01 4.516013e-01 6.342053e-01 6.300750e-01 6.394819e-01 5.396469e-01 5.241625e-01 4.542584e-01 2.460006e-01
<GCONST> 1.133161e+02
<MIXTURE> 4 2.692534e-01
<MEAN> 39
 1.083680e+01 4.850862e+00 -1.021418e+01 -1.696395e+01 2.665639e+00 6.358810e+00 -9.780161e-01 -2.529660e+00 -2.228421e+00 -1.106741e+00 4.292072e+00 -1.733359e-01 2.153518e+00 -1.839807e-02 5.085828e-01 1.114376e-01 -1.099489e-01 -1.103878e-01 -1.469483e-01 1.227320e-01 -1.046608e-01 -2.499026e-01 -3.793811e-01 9.149393e-02 -7.890479e-02 -3.996564e-01 -5.915613e-02 -5.500256e-02 1.516564e-01 2.989398e-01 -6.644692e-02 -8.742354e-02 -1.619888e-01 -1.265814e-01 2.367833e-02 2.944467e-02 -2.104830e-01 -3.704198e-02 -8.671753e-02
<VARIANCE> 39
 7.474686e+00 2.247734e+01 1.498266e+01 3.883331e+01 3.426164e+01 4.093970e+01 5.356453e+01 4.045947e+01 3.950299e+01 3.698505e+01 3.128288e+01 2.685941e+01 1.216035e+01 1.912866e-01 5.986591e-01 6.517606e-01 8.768634e-01 8.660502e-01 1.036563e+00 1.180603e+00 1.176249e+00 1.308273e+00 1.316942e+00 1.319945e+00 9.863861e-01 2.340002e-01 3.734134e-02 1.114804e-01 1.168928e-01 1.750997e-01 1.725392e-01 1.638677e-01 2.130466e-01 2.554183e-01 2.622724e-01 2.033217e-01 2.076980e-01 2.019528e-01 4.038685e-02
<GCONST> 8.630351e+01
<STATE> 4
<NUMMIXES> 4
<MIXTURE> 1 3.203463e-01
<MEAN> 39
 1.005823e+01 9.625113e+00 -7.054935e+00 -1.331075e+01 -3.337393e+00 5.986106e+00 3.665194e+00 -1.348143e-01 -3.511491e+00 -4.457775e+00 1.702782e+00 4.945660e-01 -3.441428e+00 -5.850201e-01 4.273725e-01 3.879112e-01 1.848250e+00 4.808875e-01 -6.101086e-01 4.559291e-01 9.797079e-02 -3.160428e-01 -1.149290e-01 -3.995581e-01 -5.562220e-01 -9.330826e-01 -4.118820e-01 -4.162503e-01 2.361087e-01 5.052484e-01 3.899578e-01 5.217468e-02 -1.302032e-01 -2.375166e-01 2.421959e-01 3.628349e-01 -7.235393e-02 2.907550e-02 5.478837e-02
<VARIANCE> 39
 1.105383e+01 1.187789e+01 2.500424e+01 3.093269e+01 4.499545e+01 3.445692e+01 4.174186e+01 5.587878e+01 3.200657e+01 2.362399e+01 2.171373e+01 2.952152e+01 1.248248e+01 7.690036e-01 1.044864e+00 1.372957e+00 2.409760e+00 2.899122e+00 2.315658e+00 2.354720e+00 2.283223e+00 2.194762e+00 1.874917e+00 2.222113e+00 2.313612e+00 7.524852e-01 2.069145e-01 1.489332e-01 1.691349e-01 3.506014e-01 3.441310e-01 3.526046e-01 3.325324e-01 5.042728e-01 3.957139e-01 2.617956e-01 2.868656e-01 3.468921e-01 1.052855e-01
<GCONST> 1.042279e+02
<MIXTURE> 2 2.575758e-01
<MEAN> 39
 9.573515e+00 4.915593e+00 -8.419141e+00 -1.699741e+01 6.642071e+00 2.502823e+00 -8.310013e+00 -5.910719e+00 -2.786380e+00 8.426323e-01 1.480663e+00 -6.956887e-02 3.097544e+00 -9.692919e-01 1.202945e+00 9.234881e-01 3.456529e+00 -3.994832e-01 -7.653027e-01 -4.601842e-02 -1.218890e+00 -1.814153e-01 -7.971976e-01 1.288727e-01 -8.662732e-01 -1.694567e+00 -8.064675e-01 -3.067455e-03 5.592887e-01 1.522762e+00 -3.182823e-01 -4.420851e-02 4.220235e-01 2.167189e-01 3.722606e-01 -2.086501e-01 -2.508089e-01 -1.842251e-01 -4.413287e-01
<VARIANCE> 39
 7.940164e+00 2.068957e+01 2.567916e+01 2.877033e+01 1.719260e+01 3.675895e+01 5.062659e+01 4.351179e+01 5.494671e+01 4.703837e+01 3.689889e+01 3.412810e+01 1.172501e+01 1.350508e+00 2.401846e+00 2.023493e+00 5.655862e+00 3.196345e+00 2.754035e+00 3.584989e+00 4.205435e+00 3.538247e+00 4.348753e+00 3.440424e+00 2.256442e+00 2.829533e+00 3.561562e-01 4.128667e-01 3.402413e-01 5.955643e-01 3.620097e-01 5.278351e-01 6.014183e-01 7.205503e-01 8.127727e-01 5.295325e-01 5.593020e-01 5.400031e-01 4.713873e-01
<GCONST> 1.205160e+02
<MIXTURE> 3 2.467532e-01
<MEAN> 39
 1.020538e+01 6.451382e+00 -1.866819e+00 -2.147607e+01 -4.485690e+00 9.670617e+00 -2.239688e+00 -1.576047e-01 -4.741087e+00 -4.158220e+00 2.732973e+00 1.112463e+00 1.528823e+00 -1.200630e+00 1.363561e-01 -1.605201e-01 2.956668e+00 1.635332e+00 -9.021308e-01 6.495799e-01 -8.399650e-01 -4.858860e-01 2.611935e-01 3.839390e-02 -2.079122e-01 -1.004863e+00 -8.334124e-01 -2.257918e-01 -8.568519e-02 1.545971e+00 6.029246e-01 -5.485553e-01 3.114988e-01 -3.435873e-01 4.217536e-01 5.294566e-01 -2.771879e-01 -2.507546e-02 -2.919535e-01
<VARIANCE> 39
 1.053388e+01 1.734372e+01 2.533171e+01 2.391680e+01 3.149411e+01 2.716973e+01 2.105107e+01 5.005342e+01 3.177269e+01 2.563068e+01 3.558844e+01 2.607302e+01 1.312977e+01 2.010557e+00 3.124798e+00 2.031055e+00 6.801756e+00 3.421716e+00 4.073043e+00 3.862559e+00 3.622630e+00 3.978556e+00 4.956122e+00 3.797948e+00 2.852740e+00 2.840645e+00 5.873958e-01 3.442137e-01 2.407612e-01 7.467116e-01 3.557109e-01 4.341207e-01 5.070075e-01 6.701183e-01 5.881632e-01 5.043472e-01 6.998122e-01 5.058079e-01 4.279362e-01
<GCONST> 1.198940e+02
<MIXTURE> 4 1.753247e-01
<MEAN> 39
 1.173595e+01 3.201766e+00 -6.098983e+00 -1.092941e+01 -4.525993e+00 5.927997e+00 3.464925e+00 -8.027644e+00 -7.302474e+00 2.169603e+00 1.959418e+00 4.452921e-01 1.608042e+00 -1.335075e+00 7.697144e-01 7.288729e-01 2.292421e+00 1.680561e+00 -8.339013e-01 -6.908105e-01 -2.669578e-01 -1.437341e-01 -1.264057e-01 -9.380571e-02 1.905515e-01 -1.471673e+00 -9.146048e-01 -5.170676e-02 4.658056e-01 7.900930e-01 6.581562e-01 -9.489451e-02 -4.970187e-01 3.624573e-01 7.476656e-01 -2.020914e-01 -6.129138e-02 -1.935682e-01 -3.849833e-01
<VARIANCE> 39
 5.720676e+00 2.693672e+01 1.976920e+01 4.881930e+01 3.673053e+01 2.368359e+01 3.727195e+01 3.225492e+01 3.516948e+01 3.373312e+01 4.302038e+01 3.178019e+01 1.179518e+01 2.474291e+00 3.468004e+00 3.718840e+00 5.931250e+00 4.575151e+00 3.505800e+00 4.696548e+00 3.547525e+00 4.416360e+00 4.424671e+00 4.259842e+00 2.661842e+00 3.889226e+00 4.560771e-01 7.067307e-01 3.082935e-01 8.753977e-01 6.567089e-01 4.396873e-01 5.716022e-01 6.908128e-01 7.115551e-01 6.000667e-01 5.968966e-01 5.343110e-01 4.732836e-01
<GCONST> 1.244492e+02
<STATE> 5
<NUMMIXES> 4
<MIXTURE> 1 2.660550e-01
<MEAN> 39
 6.369304e+00 9.377749e+00 -3.496336e+00 -7.656615e+00 -1.431706e+00 4.834473e+00 5.398639e+00 -1.591619e+00 -3.167217e+00 -3.159530e+00 -8.344852e-01 5.224274e-01 -5.025795e+00 -2.666373e+00 -5.866782e-01 8.866457e-01 3.320346e+00 2.245828e+00 -7.621496e-01 2.053521e-01 -1.123140e-01 5.938665e-01 7.161355e-01 -4.493801e-01 6.130664e-02 -9.656706e-01 -4.363214e-01 -5.273019e-01 -9.284573e-02 -9.451317e-02 1.050095e-01 1.539140e-01 -2.971383e-01 3.829820e-02 2.868681e-01 2.319730e-01 2.654041e-01 9.129165e-02 2.360169e-01
<VARIANCE> 39
 1.796565e+01 1.527423e+01 2.601663e+01 4.318652e+01 5.581261e+01 3.497263e+01 4.165509e+01 4.686280e+01 2.864014e+01 4.085362e+01 1.949422e+01 3.737360e+01 2.303761e+01 4.105565e+00 2.223746e+00 2.054644e+00 5.543071e+00 4.255637e+00 3.618274e+00 3.573380e+00 3.288639e+00 3.450149e+00 2.192008e+00 2.408694e+00 2.421129e+00 2.554674e+00 4.516826e-01 2.511691e-01 2.806084e-01 4.865671e-01 6.945329e-01 4.831415e-01 5.175057e-01 4.088195e-01 4.948061e-01 5.184712e-01 3.216885e-01 4.972363e-01 1.639355e-01
<GCONST> 1.190149e+02
<MIXTURE> 2 2.558614e-01
<MEAN> 39
 9.057150e+00 1.340102e+00 -7.958837e+00 -1.360344e+01 3.745470e+00 3.658898e+00 -6.026094e+00 -4.801015e+00 1.647277e-01 2.743490e+00 2.115665e+00 -1.627942e+00 5.124383e+00 -7.194651e-01 -1.806116e+00 1.638650e-01 1.994837e+00 4.381569e-01 -1.275549e+00 -8.327657e-01 8.106917e-01 1.964815e+00 5.428282e-01 -1.215271e+00 -7.367643e-01 8.644880e-01 -1.050049e-01 -5.791238e-02 3.904214e-01 2.919836e-01 -5.170761e-01 -3.438433e-01 4.198208e-01 4.824819e-01 1.068769e-02 -4.274087e-01 -3.973598e-01 1.916934e-01 -5.379170e-02
<VARIANCE> 39
 9.966085e+00 2.026878e+01 2.742253e+01 5.388443e+01 4.079637e+01 4.658301e+01 5.915307e+01 4.219443e+01 6.996095e+01 4.116444e+01 4.341486e+01 2.640850e+01 1.495428e+01 4.994515e-01 1.363174e+00 2.033591e+00 3.304171e+00 4.212459e+00 4.290056e+00 4.341243e+00 5.212879e+00 4.633302e+00 5.944222e+00 3.310595e+00 2.996161e+00 1.066961e+00 7.590338e-02 2.668783e-01 2.452061e-01 5.020720e-01 5.166659e-01 5.816889e-01 6.127929e-01 5.982930e-01 1.003960e+00 6.561412e-01 6.666838e-01 5.899317e-01 1.681809e-01
<GCONST> 1.192473e+02
<MIXTURE> 3 2.252803e-01
<MEAN> 39
 -3.606604e+00 6.692289e+00 -5.022718e-01 1.479897e+00 5.545510e+00 2.443344e-01 1.614148e-01 -2.305507e+00 -1.040431e+00 -1.739095e+00 6.598361e-01 4.517472e-01 -2.194316e+00 -5.033874e+00 -1.067837e+00 7.613601e-01 4.048520e+00 1.443478e+00 -4.949988e-01 1.106881e+00 1.378322e+00 1.552846e+00 5.332847e-01 2.105329e-01 1.870472e-01 -6.972814e-01 3.787102e-01 -1.798553e-01 -4.955734e-01 -1.190406e+00 -4.296669e-01 5.018918e-01 -1.007999e-02 1.492880e-01 6.570301e-02 2.849953e-01 1.222158e-01 7.886633e-02 1.531651e-01
<VARIANCE> 39
 3.214525e+01 3.587090e+01 2.752182e+01 4.339939e+01 3.746894e+01 4.291946e+01 5.706099e+01 4.514841e+01 3.582777e+01 3.193155e+01 3.124061e+01 2.081955e+01 3.912773e+01 4.723964e+00 3.366569e+00 3.306308e+00 7.424278e+00 6.346388e+00 3.097706e+00 6.151373e+00 4.229355e+00 4.458558e+00 4.480905e+00 2.828398e+00 2.489848e+00 4.475537e+00 4.915846e-01 6.371860e-01 5.190135e-01 8.176771e-01 8.218709e-01 7.482595e-01 7.006750e-01 9.052190e-01 6.158407e-01 8.048175e-01 6.176873e-01 5.141525e-01 4.649799e-01
<GCONST> 1.313120e+02
<MIXTURE> 4 2.528033e-01
<MEAN> 39
 6.713429e+00 8.128712e+00 -4.648141e+00 -5.523709e+00 3.666872e+00 2.782273e+00 -4.444994e+00 -9.291941e+00 -4.459065e+00 -1.669452e+00 2.314073e+00 -1.857744e+00 -3.136234e+00 -3.397746e+00 1.162324e+00 1.805059e+00 6.210932e+00 4.497344e-01 -9.114240e-01 9.110577e-01 -1.239602e-01 9.229940e-01 -7.363461e-01 -4.768769e-01 -8.382550e-01 -2.955829e+00 -7.051185e-01 -5.501109e-01 1.549495e-01 -1.030097e-03 1.041221e-02 1.702477e-01 3.658841e-01 9.016658e-01 6.142271e-01 2.612744e-01 -1.563123e-01 3.017407e-01 1.415041e-01
<VARIANCE> 39
 1.293969e+01 1.954468e+01 2.587008e+01 5.264056e+01 2.795904e+01 4.364875e+01 3.995216e+01 3.168233e+01 4.159917e+01 6.074406e+01 2.667282e+01 2.885992e+01 3.608696e+01 4.433341e+00 4.198678e+00 3.639887e+00 5.300160e+00 4.695428e+00 4.549616e+00 5.212830e+00 6.028963e+00 4.929202e+00 5.163870e+00 4.970601e+00 3.243211e+00 5.617880e+00 3.881687e-01 4.761016e-01 3.308153e-01 9.973266e-01 6.919875e-01 6.818405e-01 6.585447e-01 6.455459e-01 7.506641e-01 1.119381e+00 5.142721e-01 4.986575e-01 6.210508e-01
<GCONST> 1.304647e+02
<TRANSP> 6
 0.000000e+00 1.000000e+00 0.000000e+00 0.000000e+00 0.000000e+00 0.000000e+00
 0.000000e+00 4.977427e-01 5.022573e-01 0.000000e+00 0.000000e+00 0.000000e+00
 0.000000e+00 0.000000e+00 7.383892e-01 2.616108e-01 0.000000e+00 0.000000e+00
 0.000000e+00 0.000000e+00 0.000000e+00 5.183983e-01 4.816017e-01 0.000000e+00
 0.000000e+00 0.000000e+00 0.000000e+00 0.000000e+00 5.463812e-01 4.536188e-01
 0.000000e+00 0.000000e+00 0.000000e+00 0.000000e+00 0.000000e+00 0.000000e+00
<ENDHMM>
