~o
<STREAMINFO> 1 39
<VECSIZE> 39<NULLD><MFCC_D_A_Z_0><DIAGC>
~h "epi"
<BEGINHMM>
<NUMSTATES> 6
<STATE> 2
<NUMMIXES> 4
<MIXTURE> 1 3.462604e-01
<MEAN> 39
 -7.132322e+00 -6.244611e+00 -7.138223e+00 4.110404e+00 7.395859e+00 3.270176e+00 -3.063303e-01 -2.076773e+00 4.978544e+00 4.505394e+00 2.434887e+00 3.674544e-01 -3.794330e+00 2.861359e+00 1.299723e+00 -8.241631e-01 -1.041739e+00 1.699219e-01 1.337006e+00 5.460265e-01 -1.048613e+00 -2.028177e+00 -6.041934e-01 3.644423e-01 3.676173e-01 -2.970953e+00 4.671232e-01 1.226582e+00 7.488692e-01 -7.766182e-01 -1.124458e+00 -5.238611e-02 3.458475e-01 2.908885e-01 -5.350972e-01 -7.659801e-01 -2.749374e-01 1.065113e-01 4.722133e-01
<VARIANCE> 39
 9.799394e+00 9.815457e+00 1.848207e+01 2.547021e+01 1.897364e+01 2.055545e+01 2.554754e+01 2.757621e+01 3.703402e+01 2.189410e+01 2.364981e+01 1.562445e+01 1.224999e+01 2.394140e+00 2.756124e+00 1.894340e+00 2.607969e+00 2.714802e+00 2.454050e+00 2.946040e+00 3.548320e+00 2.310686e+00 2.783652e+00 1.958936e+00 2.225219e+00 1.137323e+00 4.080925e-01 3.192759e-01 3.439086e-01 6.328852e-01 5.965554e-01 4.857643e-01 5.860569e-01 5.910534e-01 7.901205e-01 4.754417e-01 4.564199e-01 4.279588e-01 3.438102e-01
<GCONST> 1.116857e+02
<MIXTURE> 2 2.409972e-01
<MEAN> 39
 -7.411305e+00 -3.365440e-01 -6.832505e-01 2.762381e+00 3.012058e+00 1.416653e+00 2.620822e+00 1.886989e+00 4.500795e+00 1.763805e+00 6.530918e-01 1.774595e+00 -6.031743e+00 1.049823e+00 -5.031866e-01 -4.185692e-01 7.136000e-01 1.971007e-01 5.635200e-01 -6.995804e-02 -1.384475e-01 3.192657e-01 5.886116e-01 4.129479e-01 -2.181688e-01 -2.280781e+00 1.582071e-02 5.113815e-01 -4.151442e-02 -1.367948e-01 1.546214e-01 1.306785e-01 6.628175e-03 -2.191637e-01 -4.383208e-01 -1.159591e-01 7.360386e-02 3.099012e-02 2.684775e-01
<VARIANCE> 39
 3.481174e+01 2.964071e+01 3.256058e+01 4.121235e+01 5.606220e+01 3.975303e+01 3.453558e+01 3.439184e+01 4.511059e+01 3.827790e+01 3.292859e+01 3.747274e+01 4.607014e+01 3.864947e+00 2.481679e+00 3.775905e+00 3.626172e+00 3.914473e+00 3.349900e+00 4.639063e+00 3.982727e+00 2.678122e+00 3.385763e+00 2.621200e+00 2.608735e+00 4.902459e+00 5.491775e-01 5.659689e-01 4.877041e-01 6.377857e-01 7.486755e-01 7.058016e-01 7.296583e-01 7.713388e-01 7.958084e-01 6.202835e-01 4.723552e-01 5.816176e-01 6.416814e-01
<GCONST> 1.291033e+02
<MIXTURE> 3 2.530009e-01
<MEAN> 39
 -8.796390e+00 2.038064e+00 1.727098e+00 3.725093e+00 6.993201e+00 3.706702e+00 2.871489e+00 8.393094e-01 2.583746e+00 1.480213e+00 3.003990e+00 9.453188e-01 -7.755253e+00 3.792822e+00 4.165567e-02 7.818358e-02 7.926514e-01 -1.304850e+00 -8.205376e-01 -6.577190e-01 -2.181183e+00 -2.226401e+00 -4.840867e-01 -1.435987e+00 -8.157039e-01 -2.892429e+00 5.060656e-01 6.246383e-01 -4.047355e-01 -2.084014e-01 -6.835284e-01 -6.837184e-01 -4.166008e-01 -6.022553e-01 -5.036700e-01 -2.010078e-01 -3.202185e-01 -2.557936e-01 1.082968e+00
<VARIANCE> 39
 2.096243e+01 3.064309e+01 2.669743e+01 3.528619e+01 3.351663e+01 2.852822e+01 3.310997e+01 3.773811e+01 3.789853e+01 2.518826e+01 2.748165e+01 2.214302e+01 2.464500e+01 3.780156e+00 4.549107e+00 4.781748e+00 5.703818e+00 5.367297e+00 4.493418e+00 6.080460e+00 4.781895e+00 3.615632e+00 4.067356e+00 3.328405e+00 3.141299e+00 2.576464e+00 3.650856e-01 5.486386e-01 5.786806e-01 9.117354e-01 9.193425e-01 6.856223e-01 8.053228e-01 9.671456e-01 8.489218e-01 6.349658e-01 6.088452e-01 5.135132e-01 5.292272e-01
<GCONST> 1.287703e+02
<MIXTURE> 4 1.597415e-01
<MEAN> 39
 2.442631e+00 8.571052e+00 3.676121e+00 4.979565e+00 7.642608e-01 -1.217555e-01 6.133955e-01 -5.722541e+00 -2.266427e+00 -1.943774e+00 -2.327142e+00 -1.297214e+00 -1.042790e+01 -1.786279e+00 4.295360e-02 -1.280091e-02 8.353580e-01 9.947952e-01 5.141898e-01 6.679181e-01 9.410504e-01 7.575492e-01 1.367918e-01 1.861305e-01 2.906435e-01 -1.094660e+00 -4.659677e-01 -5.557973e-01 -3.520154e-01 -4.559389e-01 -2.366270e-02 2.600050e-03 2.209905e-02 4.142970e-01 2.889567e-01 2.337632e-01 2.867694e-01 1.672082e-01 7.388517e-01
<VARIANCE> 39
 1.725824e+01 1.969216e+01 3.303450e+01 4.516879e+01 4.248568e+01 2.951045e+01 3.414041e+01 3.782284e+01 3.649811e+01 3.832949e+01 3.623767e+01 2.112070e+01 1.734130e+01 3.980522e+00 2.949263e+00 3.639716e+00 4.980041e+00 4.418005e+00 4.367693e+00 3.083896e+00 4.076849e+00 4.204051e+00 3.106015e+00 3.641088e+00 2.146876e+00 3.467227e+00 6.513560e-01 4.704834e-01 5.674644e-01 7.305580e-01 6.837919e-01 6.053289e-01 4.778050e-01 5.189767e-01 6.647445e-01 6.345944e-01 5.218801e-01 4.061924e-01 4.183554e-01
<GCONST> 1.249432e+02
<STATE> 3
<NUMMIXES> 4
<MIXTURE> 1 2.815735e-01
<MEAN> 39
 -3.523874e+00 -2.939342e+00 -7.810294e+00 2.518401e+00 7.292216e+00 7.268708e+00 2.618170e+00 -1.243845e+00 2.184467e+00 2.078364e+00 2.784880e+00 1.826245e+00 -1.002504e+01 4.469835e+00 3.821061e+00 3.341053e-01 -2.651628e+00 -2.662458e+00 4.055316e-01 5.421655e-01 -3.285422e-01 -2.352870e+00 -1.850979e+00 -6.394483e-01 -4.080845e-02 -1.209374e+00 5.748366e-01 4.266917e-01 3.512213e-01 -9.109680e-01 -1.180590e+00 -6.253970e-01 -2.610939e-01 1.791657e-01 -7.622756e-02 -1.502060e-01 -2.242196e-01 -2.229417e-01 1.516597e+00
<VARIANCE> 39
 1.341427e+01 1.455736e+01 1.875038e+01 3.293038e+01 1.895542e+01 2.067700e+01 2.863288e+01 2.664530e+01 2.745795e+01 2.026554e+01 1.997532e+01 1.846161e+01 1.381480e+01 2.337969e+00 1.767141e+00 2.194713e+00 2.872305e+00 2.904439e+00 2.439161e+00 3.127563e+00 4.243795e+00 3.573598e+00 2.723018e+00 2.605575e+00 2.103639e+00 2.198774e+00 2.729554e-01 4.415747e-01 3.751775e-01 7.202597e-01 5.504338e-01 4.918626e-01 4.939570e-01 7.204970e-01 5.767162e-01 6.062160e-01 4.156693e-01 4.214743e-01 2.762306e-01
<GCONST> 1.135676e+02
<MIXTURE> 2 2.587992e-01
<MEAN> 39
 -6.596677e+00 1.793139e+00 -2.639990e+00 1.025216e+00 4.105511e+00 1.820294e+00 7.011996e+00 -3.396151e-01 -1.678487e+00 3.919824e+00 -1.524746e+00 4.990889e-01 -1.017519e+01 2.746961e+00 9.030368e-01 1.186285e-01 5.558396e-01 -8.387175e-01 -8.476548e-01 -4.915779e-01 -1.285101e+00 -1.514461e+00 -2.503492e-01 -3.509032e-01 -5.923600e-01 -1.127985e-01 3.614213e-01 1.398149e-01 3.578444e-01 -1.409005e-01 -2.008527e-01 -1.506708e-01 -1.025033e+00 -2.417498e-01 1.156282e-02 -4.270596e-01 3.102237e-01 -4.972142e-02 1.331269e+00
<VARIANCE> 39
 1.964960e+01 2.264075e+01 3.435939e+01 3.418155e+01 4.094979e+01 4.427507e+01 2.993545e+01 5.840420e+01 4.445109e+01 2.710170e+01 2.804371e+01 2.814495e+01 2.289253e+01 6.215602e+00 3.175543e+00 2.851642e+00 4.483051e+00 3.888268e+00 3.661713e+00 5.001199e+00 6.403244e+00 5.704930e+00 2.970008e+00 3.982063e+00 2.928445e+00 2.837833e+00 4.899710e-01 5.264800e-01 8.614030e-01 6.171038e-01 8.829447e-01 9.064275e-01 9.095021e-01 1.114857e+00 8.369186e-01 5.571504e-01 5.811075e-01 5.743005e-01 7.409862e-01
<GCONST> 1.303352e+02
<MIXTURE> 3 2.422360e-01
<MEAN> 39
 -8.806333e+00 5.161438e+00 9.939780e-01 8.747337e+00 6.114496e+00 6.072531e+00 5.497039e+00 2.067207e+00 3.655040e+00 2.165007e+00 3.134125e+00 1.455701e+00 -2.006712e+01 7.854772e-01 6.204149e-02 -4.031194e-01 -1.640345e-01 -6.348409e-01 2.410726e-01 8.400354e-02 -3.969012e-01 -8.559932e-01 -3.367117e-01 -1.790105e-01 -2.430810e-01 -2.077228e-02 6.799729e-01 -3.123163e-01 -2.527465e-01 -9.134045e-01 -6.382567e-01 -7.256897e-01 -5.007761e-01 -2.856995e-01 -3.113503e-01 -2.610236e-01 -3.549332e-01 -1.121905e-01 2.019238e+00
<VARIANCE> 39
 9.432000e+00 1.108793e+01 1.534952e+01 2.113079e+01 1.894230e+01 1.770851e+01 2.579798e+01 2.298942e+01 2.482906e+01 2.337931e+01 2.580848e+01 1.900330e+01 1.198064e+01 5.455214e+00 4.290337e+00 2.985493e+00 3.893802e+00 4.761238e+00 3.526764e+00 3.358740e+00 4.718815e+00 4.043314e+00 3.431178e+00 3.034559e+00 3.090108e+00 7.142208e+00 7.624971e-01 4.583007e-01 4.686417e-01 6.625875e-01 5.632735e-01 6.969058e-01 6.154279e-01 5.940289e-01 5.709104e-01 6.049145e-01 5.587396e-01 4.046203e-01 1.073123e+00
<GCONST> 1.207348e+02
<MIXTURE> 4 2.173913e-01
<MEAN> 39
 -1.214769e+00 4.550118e+00 2.311376e+00 6.599437e+00 4.498215e+00 1.016539e+00 -4.624672e-01 -4.943438e+00 -1.511910e+00 -1.502506e+00 -1.093650e+00 -1.704208e+00 -9.530676e+00 3.346860e+00 1.071397e+00 -8.564563e-01 -1.523636e+00 -1.802783e+00 -1.288669e+00 -1.383231e+00 -1.441359e+00 -1.890063e+00 -7.091041e-01 -7.460536e-01 -6.208482e-01 6.330327e-01 -2.385425e-01 -1.357554e-01 -4.698883e-01 -8.977454e-01 -3.550036e-01 -2.030118e-01 9.116511e-02 5.553392e-01 2.541188e-01 3.156614e-01 2.822685e-01 1.597793e-01 1.364047e+00
<VARIANCE> 39
 2.385366e+01 3.282581e+01 2.511587e+01 2.882208e+01 3.570824e+01 3.093592e+01 3.618807e+01 3.459092e+01 3.414978e+01 2.886113e+01 2.846860e+01 2.513490e+01 2.535342e+01 1.542152e+01 5.018592e+00 3.924279e+00 8.986618e+00 7.737053e+00 5.312214e+00 4.957872e+00 7.789742e+00 7.881722e+00 4.774165e+00 6.421453e+00 3.037141e+00 2.071149e+00 6.816912e-01 4.718825e-01 4.083974e-01 7.276793e-01 6.760262e-01 6.435986e-01 5.862447e-01 6.645783e-01 7.496684e-01 7.818781e-01 5.576429e-01 5.248734e-01 4.733354e-01
<GCONST> 1.317387e+02
<STATE> 4
<NUMMIXES> 4
<MIXTURE> 1 2.758621e-01
<MEAN> 39
 9.423030e+00 8.559166e+00 -5.155930e+00 -4.413582e+00 -2.394830e+00 3.602702e+00 9.284403e-01 -3.048669e+00 -3.219511e+00 -3.000021e+00 -8.881105e-02 2.773519e-01 -7.307872e+00 4.952724e+00 2.591965e+00 1.364580e-02 -4.566094e+00 -3.983825e+00 -2.915286e-01 -1.229836e-01 -2.765116e-01 -2.176645e+00 -1.247508e+00 -1.486503e-01 -7.565200e-02 1.815688e+00 -1.051064e+00 -1.259701e+00 -1.890219e-01 -1.584685e-01 2.552592e-01 6.986772e-02 2.993568e-02 2.530493e-01 7.211006e-01 7.334046e-01 2.814761e-01 4.371890e-02 1.007642e+00
<VARIANCE> 39
 7.926470e+00 1.714038e+01 1.533722e+01 2.521231e+01 2.236549e+01 2.151181e+01 2.854595e+01 2.196440e+01 1.851539e+01 2.050229e+01 1.503623e+01 1.404430e+01 1.217399e+01 9.466127e-01 2.438315e+00 3.398042e+00 4.059789e+00 3.430099e+00 3.584894e+00 3.043171e+00 4.622180e+00 4.803296e+00 4.315830e+00 2.918380e+00 2.517247e+00 1.741387e+00 2.328496e-01 3.556823e-01 2.785492e-01 3.801847e-01 5.795903e-01 4.414802e-01 4.612493e-01 6.607940e-01 4.647417e-01 6.705144e-01 3.724732e-01 3.272835e-01 1.899281e-01
<GCONST> 1.109299e+02
<MIXTURE> 2 2.836991e-01
<MEAN> 39
 -2.998919e-01 7.678826e+00 -1.027296e+00 4.004754e+00 5.514173e+00 4.011077e+00 3.991611e+00 -3.470216e+00 -2.551218e+00 3.958230e-01 -3.804246e-01 -2.425393e-02 -1.140179e+01 5.066724e+00 1.590659e+00 5.470299e-01 -2.064710e+00 -2.843590e+00 -6.621459e-01 -1.728944e+00 -1.186644e+00 -2.248593e+00 -1.456753e+00 -3.122711e-01 -8.642806e-01 2.327935e+00 -1.455286e-01 -1.055593e+00 1.288397e-02 -8.106515e-01 -5.024560e-01 -1.997916e-01 -6.239102e-01 3.357482e-01 4.471769e-01 1.296742e-01 1.960848e-01 -1.201860e-03 1.540196e+00
<VARIANCE> 39
 1.748824e+01 2.549851e+01 3.335289e+01 3.587722e+01 2.648903e+01 3.635389e+01 2.975471e+01 3.068429e+01 2.934690e+01 2.400035e+01 1.980126e+01 2.596363e+01 1.895931e+01 1.146842e+00 4.165553e+00 3.865214e+00 8.385315e+00 4.256330e+00 4.285816e+00 5.085213e+00 5.407211e+00 4.523972e+00 3.833313e+00 3.527859e+00 2.362878e+00 3.410372e+00 2.606191e-01 4.748704e-01 7.464327e-01 5.269842e-01 7.084634e-01 5.962756e-01 6.651903e-01 7.427910e-01 5.594950e-01 6.622791e-01 4.638561e-01 5.661809e-01 3.286001e-01
<GCONST> 1.237221e+02
<MIXTURE> 3 1.896552e-01
<MEAN> 39
 -7.334234e+00 1.878652e+00 -1.127150e+00 4.390320e+00 3.701287e+00 2.406532e+00 3.723108e+00 4.469671e-01 2.655976e+00 1.216861e+00 1.165441e+00 1.370287e+00 -7.980658e+00 -5.279491e-01 -6.610460e-01 -1.295864e+00 -1.546263e+00 -4.846842e-01 -3.817030e-01 -4.579714e-01 2.132254e-01 3.318293e-01 -2.384378e-01 5.430151e-01 3.668344e-01 3.229339e+00 4.052943e-01 2.776366e-01 4.232290e-02 -3.293416e-01 -3.383280e-01 -2.770134e-01 -2.550867e-01 -2.362516e-01 -1.988423e-01 -9.277308e-02 -2.112870e-01 -1.576191e-01 6.927720e-01
<VARIANCE> 39
 3.618644e+01 2.425181e+01 3.167397e+01 3.298908e+01 3.826065e+01 3.974845e+01 3.385130e+01 3.307957e+01 2.878065e+01 2.240889e+01 2.621620e+01 2.067622e+01 4.144866e+01 1.631064e+01 2.906352e+00 3.909080e+00 5.391143e+00 6.096538e+00 4.271212e+00 4.400856e+00 4.723910e+00 4.895229e+00 3.945980e+00 4.944109e+00 2.397140e+00 5.791575e+00 9.270537e-01 5.617621e-01 6.079273e-01 8.702991e-01 6.957398e-01 8.153291e-01 6.025513e-01 5.644354e-01 6.902139e-01 5.813887e-01 6.006657e-01 3.843088e-01 6.380340e-01
<GCONST> 1.308706e+02
<MIXTURE> 4 2.507837e-01
<MEAN> 39
 5.131229e+00 7.132159e+00 2.014213e+00 3.353329e+00 -6.199334e-02 -3.823408e+00 -4.749547e+00 -8.677189e+00 -5.623738e+00 -2.521592e+00 -2.667235e+00 -3.311307e+00 -6.234809e+00 4.289641e+00 2.222090e-01 -5.776917e-01 -1.290110e+00 -2.238471e+00 -2.101828e+00 -2.095763e+00 -1.633536e+00 -1.852419e+00 -3.540187e-01 -1.176374e+00 -9.587250e-01 2.274879e+00 -1.003707e+00 -6.710857e-01 -1.373002e-01 -5.243692e-01 2.736089e-01 4.262289e-01 4.380914e-01 1.223935e+00 8.568161e-01 4.354676e-01 4.537727e-01 3.327579e-01 9.583862e-01
<VARIANCE> 39
 2.382636e+01 2.765112e+01 3.130630e+01 4.377865e+01 3.243990e+01 3.538908e+01 4.366078e+01 3.954866e+01 3.279321e+01 2.827870e+01 3.277569e+01 2.396043e+01 2.761510e+01 2.143533e+00 2.127570e+00 3.429283e+00 7.181872e+00 4.688896e+00 4.108145e+00 5.204606e+00 6.358116e+00 5.130828e+00 4.209905e+00 5.147602e+00 4.103504e+00 2.451994e+00 5.593559e-01 4.050227e-01 5.247023e-01 7.608020e-01 6.349521e-01 8.146679e-01 9.369370e-01 7.314904e-01 6.114817e-01 8.580207e-01 7.176335e-01 5.485600e-01 3.653630e-01
<GCONST> 1.288818e+02
<STATE> 5
<NUMMIXES> 4
<MIXTURE> 1 3.686177e-01
<MEAN> 39
 1.284181e+01 6.994256e+00 -6.705945e+00 -1.143326e+01 -6.200244e+00 4.545251e+00 8.016090e-01 -3.378608e+00 -4.895205e+00 -2.599570e+00 1.372605e+00 1.910645e-01 -3.461858e+00 3.021436e+00 1.554620e-01 -6.056345e-01 -4.411731e+00 -2.885105e+00 6.093660e-02 2.556309e-02 3.641493e-02 -8.651304e-01 1.827608e-02 3.777641e-01 5.568378e-02 2.690963e+00 -1.530028e+00 -1.372039e+00 -1.482313e-01 7.828472e-01 1.120403e+00 3.092438e-01 1.886729e-01 2.839734e-01 9.434618e-01 7.369332e-01 2.009100e-01 4.381789e-02 2.089613e-01
<VARIANCE> 39
 5.134564e+00 1.615403e+01 1.691698e+01 2.417520e+01 2.367069e+01 2.114796e+01 3.127607e+01 2.858519e+01 2.438201e+01 2.213859e+01 1.830012e+01 1.793502e+01 1.073273e+01 1.966789e+00 3.222488e+00 3.131912e+00 3.688611e+00 4.511068e+00 3.013304e+00 3.313473e+00 4.391630e+00 4.083612e+00 4.595155e+00 2.519299e+00 2.206061e+00 1.813911e+00 1.414758e-01 2.842849e-01 3.070079e-01 4.556859e-01 4.281227e-01 3.907796e-01 4.981871e-01 6.532769e-01 5.771053e-01 4.393406e-01 4.190425e-01 3.322852e-01 2.330791e-01
<GCONST> 1.115112e+02
<MIXTURE> 2 1.519303e-01
<MEAN> 39
 -1.159210e+01 2.950036e+00 -4.132926e+00 2.611079e+00 3.035963e+00 1.932181e+00 2.842169e+00 6.461899e-01 3.624531e+00 9.150197e-01 3.363585e+00 1.605714e+00 -3.699238e+00 -1.718872e+00 1.341139e-01 -5.761186e-01 -8.903391e-01 -2.175282e-01 -5.890173e-01 -1.706050e-01 1.573665e-01 3.975064e-01 -1.430705e-01 2.413135e-01 3.125062e-01 2.849319e+00 8.545635e-01 2.481121e-01 4.679208e-01 1.911958e-01 -7.965711e-02 -9.032889e-02 -1.093662e-01 -1.416016e-01 -2.389448e-01 -2.463903e-02 -4.865478e-01 -2.426590e-01 -2.355438e-01
<VARIANCE> 39
 2.535744e+01 3.138793e+01 3.127345e+01 4.165944e+01 3.127335e+01 3.583242e+01 1.973398e+01 2.646453e+01 2.294698e+01 2.095954e+01 2.401185e+01 1.552920e+01 2.903324e+01 1.084758e+01 3.057756e+00 3.904700e+00 4.698400e+00 3.921142e+00 4.743836e+00 3.792383e+00 3.034427e+00 3.035118e+00 2.267820e+00 3.167905e+00 2.030794e+00 5.684797e+00 5.464060e-01 5.301003e-01 6.948660e-01 7.289770e-01 5.289045e-01 6.627684e-01 5.660936e-01 5.565758e-01 5.535031e-01 5.446017e-01 5.350178e-01 3.566892e-01 5.837043e-01
<GCONST> 1.240635e+02
<MIXTURE> 3 2.303860e-01
<MEAN> 39
 9.190969e+00 5.833749e-01 -2.875394e+00 -4.591041e+00 -8.372755e-01 2.929228e-01 -5.052427e+00 -4.313335e+00 -3.788391e+00 1.329864e-01 1.569277e-01 -1.580709e+00 8.397331e-01 2.546273e+00 -1.580505e+00 -4.845885e-01 -2.797172e+00 -9.353354e-01 -6.486025e-01 -1.901718e+00 6.595355e-01 -5.221590e-01 5.704551e-01 -3.728167e-01 -8.982372e-03 3.726170e+00 -1.383374e+00 -2.769710e-01 2.901008e-01 5.896651e-01 3.360716e-01 5.488310e-02 5.625256e-01 7.740637e-01 6.636748e-01 2.118345e-01 -3.869790e-04 1.878846e-01 -4.251295e-01
<VARIANCE> 39
 2.867917e+01 2.265109e+01 5.709585e+01 5.844895e+01 3.445761e+01 6.780949e+01 6.719073e+01 6.024453e+01 4.449967e+01 4.180915e+01 3.039577e+01 2.821384e+01 1.884620e+01 4.351852e+00 3.157924e+00 5.035766e+00 5.520155e+00 4.619517e+00 6.187435e+00 7.059739e+00 7.560775e+00 5.232364e+00 6.405977e+00 4.553986e+00 3.109807e+00 3.012570e+00 4.417088e-01 4.620345e-01 6.953035e-01 1.270562e+00 7.670122e-01 1.030493e+00 1.043163e+00 8.956272e-01 8.724534e-01 8.679657e-01 6.931942e-01 5.427743e-01 4.821382e-01
<GCONST> 1.360876e+02
<MIXTURE> 4 2.490660e-01
<MEAN> 39
 6.938352e+00 6.807591e+00 2.210590e+00 5.243122e+00 -2.085677e+00 -5.344538e+00 -2.350229e+00 -9.369384e+00 -7.858353e+00 -3.115009e-01 -2.838700e+00 -4.000129e+00 -4.832242e+00 2.775337e+00 -1.101364e+00 1.501967e-01 -6.648506e-01 -2.187647e+00 -1.034140e+00 -1.704913e+00 -2.876788e-01 -6.116539e-01 -4.473142e-01 -7.774079e-02 -8.984370e-01 2.768496e+00 -1.248217e+00 -8.596284e-01 -1.293741e-03 -7.340032e-01 3.846055e-01 8.943844e-01 4.120452e-01 1.232620e+00 1.001003e+00 1.106394e-01 4.398382e-01 4.434850e-01 4.370072e-01
<VARIANCE> 39
 1.091948e+01 2.026605e+01 1.806790e+01 3.017750e+01 4.197868e+01 3.801918e+01 5.412233e+01 4.957586e+01 4.958065e+01 3.395299e+01 4.324567e+01 3.871135e+01 1.366739e+01 2.259449e+00 2.467215e+00 3.003362e+00 3.701769e+00 3.490030e+00 3.717217e+00 5.157274e+00 5.277138e+00 4.228853e+00 4.552578e+00 3.754311e+00 3.142116e+00 2.383503e+00 2.783011e-01 3.860242e-01 7.005187e-01 6.438256e-01 9.501231e-01 6.916049e-01 1.011177e+00 9.543259e-01 8.445866e-01 8.232337e-01 7.895353e-01 6.905659e-01 2.869305e-01
<GCONST> 1.267008e+02
<TRANSP> 6
 0.000000e+00 1.000000e+00 0.000000e+00 0.000000e+00 0.000000e+00 0.000000e+00
 0.000000e+00 4.441366e-01 5.558633e-01 0.000000e+00 0.000000e+00 0.000000e+00
 0.000000e+00 0.000000e+00 3.768116e-01 6.231884e-01 0.000000e+00 0.000000e+00
 0.000000e+00 0.000000e+00 0.000000e+00 5.642634e-02 9.435737e-01 0.000000e+00
 0.000000e+00 0.000000e+00 0.000000e+00 0.000000e+00 2.503113e-01 7.496887e-01
 0.000000e+00 0.000000e+00 0.000000e+00 0.000000e+00 0.000000e+00 0.000000e+00
<ENDHMM>
