~o
<STREAMINFO> 1 39
<VECSIZE> 39<NULLD><MFCC_D_A_Z_0><DIAGC>
~h "p"
<BEGINHMM>
<NUMSTATES> 6
<STATE> 2
<NUMMIXES> 4
<MIXTURE> 1 2.844311e-01
<MEAN> 39
 -3.777407e+00 -1.861208e+00 1.367949e+00 4.527724e+00 2.886665e+00 2.409366e+00 6.317600e+00 5.143161e+00 6.530053e+00 2.933544e+00 5.972472e+00 3.744457e+00 3.609647e+00 1.334564e+00 -1.859586e+00 -8.749582e-02 -1.451647e+00 -8.306841e-01 -5.930332e-01 4.322330e-01 6.139693e-02 -9.029341e-01 -6.213490e-01 -8.854973e-01 -1.879499e-01 3.577039e+00 3.158976e-01 4.948423e-01 -1.408664e-01 -1.830631e-01 -5.686003e-02 -2.763978e-02 -6.366382e-01 -9.619620e-01 -9.922028e-01 -4.548522e-01 -8.579748e-01 -6.194664e-01 -1.641610e+00
<VARIANCE> 39
 1.445455e+01 1.551733e+01 2.433975e+01 2.431034e+01 2.763809e+01 3.492605e+01 3.219967e+01 2.822913e+01 3.232171e+01 2.491944e+01 2.030727e+01 1.885720e+01 2.071398e+01 3.034171e+00 2.427403e+00 3.931444e+00 3.608610e+00 5.359016e+00 4.228579e+00 4.005611e+00 4.466114e+00 4.395397e+00 3.472938e+00 3.161379e+00 2.636499e+00 6.388669e+00 6.632728e-01 4.913766e-01 4.432818e-01 7.258619e-01 8.420933e-01 8.043504e-01 8.166526e-01 7.421587e-01 8.191282e-01 7.176368e-01 5.172797e-01 4.962345e-01 7.470729e-01
<GCONST> 1.248543e+02
<MIXTURE> 2 1.790419e-01
<MEAN> 39
 -3.270598e+00 -3.357002e+00 -2.888056e+00 2.022705e+00 9.417351e+00 7.096980e+00 6.529222e+00 4.165231e+00 6.019684e+00 1.622454e+00 2.967889e+00 6.600209e-01 1.781376e+00 4.126059e-02 -1.991046e+00 -1.646303e+00 -1.627420e+00 8.535388e-01 7.932173e-01 1.613638e-01 -7.497219e-01 -6.838616e-01 -8.135121e-01 -1.098369e+00 -6.230585e-01 1.061383e+00 4.748565e-02 6.244911e-01 1.194685e-01 2.214783e-01 -5.291514e-01 -3.169108e-01 -6.822338e-01 -7.961898e-01 -6.096675e-01 -3.162245e-01 -2.764095e-01 -1.556419e-01 -1.530332e+00
<VARIANCE> 39
 1.476159e+01 2.339825e+01 1.740159e+01 2.374786e+01 2.375286e+01 2.090282e+01 2.787667e+01 2.358938e+01 2.585100e+01 2.846085e+01 2.340903e+01 1.838408e+01 1.531801e+01 1.944286e+00 2.622041e+00 2.098467e+00 3.427943e+00 3.047554e+00 3.508992e+00 3.445329e+00 4.068727e+00 4.894515e+00 3.527464e+00 3.461739e+00 2.082533e+00 5.370370e+00 4.128316e-01 4.470133e-01 2.198640e-01 5.520560e-01 3.029166e-01 3.399806e-01 4.943989e-01 5.697397e-01 5.892703e-01 5.903831e-01 4.427099e-01 3.618921e-01 5.227746e-01
<GCONST> 1.158790e+02
<MIXTURE> 3 3.155689e-01
<MEAN> 39
 -4.864052e+00 -2.162460e+00 -1.111526e+00 7.806967e+00 5.069408e+00 2.004171e+00 2.988827e+00 1.412579e+00 5.105642e+00 2.754394e+00 1.734272e+00 -2.980862e-01 1.621813e+00 1.808296e+00 -1.684796e+00 -1.148626e+00 -8.002640e-01 4.917641e-02 -7.465749e-01 -9.880153e-01 -2.384515e-01 -3.500653e-02 -1.265960e-01 -3.965624e-01 -2.971273e-01 3.664264e+00 3.942113e-01 3.276648e-01 -2.536517e-01 -3.548188e-01 -7.003417e-02 1.045985e-01 -2.475250e-01 -3.958133e-02 -3.388224e-01 -2.176733e-01 -2.147938e-02 1.830502e-01 -1.559859e+00
<VARIANCE> 39
 1.392926e+01 1.798586e+01 1.890633e+01 1.410901e+01 1.663633e+01 2.087178e+01 2.186201e+01 2.628715e+01 2.405996e+01 2.115451e+01 1.900189e+01 1.546040e+01 3.159146e+01 3.003523e+00 1.898709e+00 2.247483e+00 2.654654e+00 2.644747e+00 3.413380e+00 2.279652e+00 2.561057e+00 2.431870e+00 2.200350e+00 1.823631e+00 1.725610e+00 7.321438e+00 5.769131e-01 3.959703e-01 4.161109e-01 3.875657e-01 4.409190e-01 6.013405e-01 6.994214e-01 6.152410e-01 5.678294e-01 5.052892e-01 3.760505e-01 3.646971e-01 1.090536e+00
<GCONST> 1.140449e+02
<MIXTURE> 4 2.209581e-01
<MEAN> 39
 -5.707290e+00 -2.087769e+00 -2.709851e+00 -1.979670e+00 4.275743e+00 2.079388e+00 2.772632e+00 7.303184e-01 3.358370e+00 2.628896e+00 1.540520e+00 2.252503e+00 3.663966e+00 9.063300e-01 -7.965200e-01 -9.396257e-01 -1.915086e+00 -5.426313e-01 -3.181878e-01 -6.073376e-02 -2.295820e-01 2.020061e-02 -7.775646e-02 -2.261379e-01 -1.398609e-01 2.758934e+00 2.377766e-01 6.499364e-01 1.196746e-01 6.495224e-01 6.866480e-02 3.164293e-01 9.656871e-02 -1.437860e-01 -2.239271e-01 -1.600549e-01 -1.073614e-01 -1.878583e-01 -1.914913e+00
<VARIANCE> 39
 1.312300e+01 1.667394e+01 2.192655e+01 1.836675e+01 2.508420e+01 2.538902e+01 2.011155e+01 2.414351e+01 2.666805e+01 1.591666e+01 2.479199e+01 1.310223e+01 1.389412e+01 2.927097e+00 2.255844e+00 2.234408e+00 3.200842e+00 2.082524e+00 2.603393e+00 2.827755e+00 2.349869e+00 2.454396e+00 2.083977e+00 2.341417e+00 1.862369e+00 8.373569e+00 4.033145e-01 4.230803e-01 4.490955e-01 3.957104e-01 4.429895e-01 4.461195e-01 5.086253e-01 4.625468e-01 7.412016e-01 3.120095e-01 5.116448e-01 3.245432e-01 4.865632e-01
<GCONST> 1.122958e+02
<STATE> 3
<NUMMIXES> 4
<MIXTURE> 1 2.855568e-01
<MEAN> 39
 -3.905344e+00 -4.235650e+00 -7.810834e+00 -4.184072e+00 5.796670e+00 4.199038e+00 3.699239e+00 4.389263e-01 2.868264e+00 6.900339e-01 1.118895e+00 1.283348e+00 -3.513059e-01 1.226040e+00 5.025738e-01 -6.719556e-01 -8.296331e-01 -1.187956e-01 2.832290e-01 -2.701847e-01 -8.809761e-01 -6.956322e-01 -5.186886e-01 -4.662471e-01 -5.147669e-01 -6.932987e-01 7.772964e-01 6.391298e-01 4.933138e-01 3.546900e-01 -3.219177e-01 -7.623366e-02 -2.659971e-01 -1.342517e-01 -1.527043e-01 -4.106811e-02 -1.891534e-02 -1.656446e-01 4.097399e-02
<VARIANCE> 39
 1.840743e+01 2.494253e+01 2.092297e+01 3.348280e+01 3.666149e+01 4.497528e+01 3.110576e+01 3.301057e+01 3.191354e+01 2.093096e+01 2.855248e+01 2.343166e+01 2.259810e+01 2.331323e+00 2.335965e+00 1.736033e+00 4.177890e+00 2.671484e+00 2.907274e+00 3.119630e+00 2.930473e+00 2.972981e+00 2.250695e+00 2.582690e+00 2.090761e+00 1.085496e+00 4.384912e-01 3.966513e-01 3.541148e-01 6.451485e-01 6.146956e-01 7.366027e-01 6.358803e-01 5.480266e-01 5.850010e-01 3.742999e-01 5.145218e-01 4.514057e-01 5.595896e-01
<GCONST> 1.178053e+02
<MIXTURE> 2 2.464168e-01
<MEAN> 39
 -3.881881e+00 -7.801233e+00 -5.443224e+00 5.942358e+00 6.129654e+00 1.156096e+00 -4.869728e-01 6.731048e-01 5.907982e+00 2.607828e+00 2.236865e+00 -3.307402e-01 1.934169e+00 2.393665e+00 7.418768e-03 -9.524472e-01 -2.356789e-01 1.374211e-02 -1.348634e+00 -1.460098e+00 -2.750955e-01 -1.267795e+00 -9.561334e-01 -1.080275e+00 -2.287775e-01 -6.674884e-01 8.890968e-01 7.390980e-01 8.103216e-02 -1.955680e-01 -4.281580e-01 -3.126490e-01 -2.195099e-01 2.459647e-01 -5.970423e-01 -4.282081e-01 -2.907373e-01 8.115862e-02 -4.311647e-01
<VARIANCE> 39
 1.537180e+01 1.456759e+01 2.040470e+01 1.532034e+01 2.078459e+01 2.244950e+01 2.416014e+01 3.861784e+01 2.534893e+01 2.597081e+01 1.630181e+01 1.782769e+01 1.463527e+01 3.076261e+00 1.838373e+00 2.031279e+00 1.811426e+00 2.345333e+00 2.892142e+00 3.132016e+00 3.145669e+00 4.252202e+00 2.746122e+00 1.967787e+00 2.007308e+00 1.467830e+00 3.147544e-01 2.881834e-01 4.379900e-01 3.427463e-01 6.248513e-01 5.671744e-01 6.585627e-01 7.118241e-01 6.947400e-01 6.284202e-01 3.882838e-01 4.334309e-01 8.432630e-01
<GCONST> 1.132425e+02
<MIXTURE> 3 2.601984e-01
<MEAN> 39
 -5.755503e-01 -3.311175e+00 -1.312534e+00 4.644212e+00 3.264763e+00 3.340065e-01 4.774938e+00 3.853833e+00 2.367120e+00 -7.198373e-02 -6.217600e-01 1.674236e+00 2.364924e-01 3.487607e+00 -4.683121e-01 -5.791926e-01 -1.367788e+00 -1.449084e+00 -1.198574e+00 -1.583407e+00 -5.147544e-01 -2.059613e+00 -1.128110e+00 -1.041968e+00 -8.041251e-01 1.495728e+00 1.330684e-01 2.479468e-01 -8.749101e-02 -3.592676e-01 -3.202825e-01 6.515628e-02 -5.399150e-01 -3.003585e-01 -1.781582e-01 1.205543e-01 2.242043e-01 -1.708986e-01 -5.335051e-01
<VARIANCE> 39
 1.176647e+01 2.912946e+01 3.335863e+01 2.623723e+01 3.401583e+01 3.070821e+01 3.847562e+01 4.385885e+01 3.226071e+01 3.096243e+01 2.493710e+01 2.198216e+01 2.019590e+01 3.757653e+00 2.697203e+00 5.533629e+00 5.735492e+00 5.529144e+00 6.214167e+00 6.890728e+00 6.336248e+00 5.928362e+00 4.487953e+00 5.293461e+00 3.307673e+00 4.336895e+00 2.519982e-01 4.168231e-01 5.197409e-01 5.300605e-01 6.473314e-01 6.540067e-01 8.046642e-01 7.823262e-01 6.974978e-01 6.036029e-01 5.143703e-01 4.727824e-01 9.209822e-01
<GCONST> 1.283614e+02
<MIXTURE> 4 2.078280e-01
<MEAN> 39
 -7.576707e+00 -4.529770e+00 3.850044e+00 -2.527695e+00 -1.231673e+00 4.315693e+00 8.180444e+00 -1.214039e+00 8.737579e-01 2.353751e+00 -3.268046e-02 9.199266e-01 2.448871e+00 9.702236e-01 6.917460e-01 6.998246e-01 -1.189733e+00 -8.920912e-01 1.343859e-01 -9.590849e-01 -1.662709e+00 -1.009246e+00 -9.180493e-01 -1.376418e+00 -6.633174e-01 1.832699e-01 8.861040e-01 6.375865e-01 -2.587756e-01 2.979029e-01 8.349534e-02 -3.582317e-01 -8.173317e-01 4.121199e-02 -9.270277e-02 -2.401524e-01 3.922268e-02 -6.608364e-02 -3.241264e-01
<VARIANCE> 39
 1.445638e+01 2.152441e+01 2.203572e+01 3.125684e+01 3.943539e+01 5.054153e+01 3.785321e+01 4.115676e+01 3.535897e+01 2.874539e+01 2.676707e+01 2.232373e+01 2.059001e+01 3.957892e+00 2.363750e+00 2.878803e+00 3.801732e+00 3.741450e+00 3.685033e+00 4.486278e+00 4.162488e+00 4.059213e+00 2.952263e+00 3.336397e+00 2.510035e+00 2.106333e+00 3.722574e-01 5.901560e-01 4.145271e-01 6.968983e-01 7.746753e-01 6.321234e-01 8.637403e-01 7.109666e-01 7.400634e-01 6.129687e-01 6.628926e-01 5.048042e-01 1.014862e+00
<GCONST> 1.249467e+02
<STATE> 4
<NUMMIXES> 4
<MIXTURE> 1 3.248546e-01
<MEAN> 39
 -2.574641e+00 -1.968368e+00 -4.677649e+00 -6.866324e-01 8.487730e+00 5.790509e+00 2.650013e+00 -2.801043e+00 1.858111e+00 -1.085657e+00 -7.354547e-01 -1.247669e+00 -1.044418e+00 3.499717e+00 1.394049e+00 -7.264479e-01 -1.160511e+00 -1.203785e+00 -6.369047e-01 -1.681232e+00 -1.266481e+00 -1.391112e+00 -9.715783e-01 -1.276474e+00 -8.896072e-01 8.438859e-01 5.775583e-01 -1.604295e-01 -5.698289e-02 -3.108490e-01 -7.514976e-01 -2.584212e-01 -2.890184e-01 4.302624e-01 1.851894e-01 3.117456e-01 2.469785e-01 1.722314e-01 7.413420e-01
<VARIANCE> 39
 2.109750e+01 3.093719e+01 3.215091e+01 3.514233e+01 4.028223e+01 4.334245e+01 5.056608e+01 3.477773e+01 3.639118e+01 3.951407e+01 3.396876e+01 2.387523e+01 2.638721e+01 2.926594e+00 2.495849e+00 2.614078e+00 5.080893e+00 4.196147e+00 3.313061e+00 4.869438e+00 4.303364e+00 4.502399e+00 3.443959e+00 4.070180e+00 2.253469e+00 1.960376e+00 2.767558e-01 3.975417e-01 4.490997e-01 5.863112e-01 6.924410e-01 7.945265e-01 6.895690e-01 7.384076e-01 7.797292e-01 8.506696e-01 6.954187e-01 4.933321e-01 5.434579e-01
<GCONST> 1.263433e+02
<MIXTURE> 2 2.543605e-01
<MEAN> 39
 7.187537e+00 -3.010068e+00 -5.817777e+00 6.407296e+00 4.625162e+00 -3.833595e+00 -3.607265e+00 1.233829e+00 -4.976854e-01 -1.765685e+00 -2.235210e+00 -1.063588e+00 8.241237e-01 4.576328e+00 7.303927e-02 -1.614024e+00 -9.196060e-01 -1.450849e+00 -2.490232e+00 -2.672037e+00 5.677360e-01 -1.702154e+00 -1.140316e+00 -9.961177e-01 -1.455939e-01 1.602800e+00 -6.004977e-01 -3.039689e-01 1.896757e-01 -3.758237e-01 -3.500315e-01 2.753113e-01 3.448477e-01 3.028820e-01 3.632245e-01 3.532985e-01 4.369347e-01 1.693213e-01 2.863564e-01
<VARIANCE> 39
 2.163667e+01 1.776279e+01 3.035082e+01 2.056555e+01 3.320687e+01 4.184063e+01 3.713115e+01 3.505979e+01 4.011983e+01 3.204474e+01 2.209797e+01 2.096702e+01 1.623581e+01 1.475145e+00 2.279662e+00 5.590645e+00 3.030542e+00 5.510627e+00 6.877970e+00 6.691452e+00 5.676897e+00 7.351875e+00 4.087027e+00 3.172609e+00 3.839261e+00 1.431888e+00 4.023058e-01 2.968174e-01 4.470170e-01 3.309150e-01 5.441192e-01 6.036339e-01 5.395427e-01 6.558327e-01 7.997680e-01 6.407929e-01 4.887362e-01 3.351509e-01 7.276039e-01
<GCONST> 1.231503e+02
<MIXTURE> 3 2.267442e-01
<MEAN> 39
 7.885158e+00 4.377408e+00 -5.524743e+00 -6.763918e+00 1.443829e+00 5.441011e+00 2.841180e+00 -3.329080e+00 -6.854081e-01 4.381874e-01 8.074392e-01 -5.333355e-01 4.318619e-01 4.273754e+00 3.307268e-01 -9.050796e-01 -3.069997e+00 -1.916549e+00 4.858989e-01 -1.640765e+00 -7.236209e-01 -1.074241e+00 -6.050181e-01 1.426313e-01 -5.664489e-01 2.148865e+00 -7.547919e-01 -8.188640e-01 1.192920e-02 2.171134e-01 6.258103e-02 -1.148456e-01 -2.167749e-01 2.897325e-01 3.776401e-01 2.024295e-01 1.417960e-01 1.167457e-01 3.222027e-01
<VARIANCE> 39
 1.669283e+01 2.398890e+01 3.069075e+01 3.770312e+01 3.669229e+01 3.305219e+01 5.462454e+01 3.189638e+01 3.128257e+01 2.996786e+01 2.471395e+01 2.061816e+01 1.897159e+01 1.438548e+00 3.734675e+00 5.329754e+00 5.248836e+00 5.502849e+00 5.724639e+00 6.409856e+00 5.768432e+00 5.819543e+00 5.005617e+00 5.147842e+00 3.268934e+00 1.574735e+00 3.067069e-01 5.268232e-01 4.485414e-01 6.104164e-01 5.327675e-01 5.791888e-01 7.392102e-01 6.520378e-01 5.726672e-01 5.834880e-01 4.606554e-01 4.451550e-01 7.065951e-01
<GCONST> 1.259769e+02
<MIXTURE> 4 1.940407e-01
<MEAN> 39
 2.253854e+00 -9.888921e-01 7.000279e+00 1.171192e+00 -4.310741e+00 -2.593417e+00 2.554121e+00 -1.230738e+00 -4.014277e+00 -3.477369e+00 -3.131238e+00 -6.909298e-01 4.274257e+00 2.722670e+00 2.072942e-01 6.030300e-01 -1.646852e+00 -2.525873e+00 -1.555324e+00 -2.493073e+00 -9.634541e-01 -2.021182e+00 -8.582128e-01 -7.293316e-01 -8.746199e-01 1.905975e+00 -3.169536e-01 -2.156771e-01 -5.335335e-01 -1.521355e-01 2.503807e-01 2.059796e-01 -5.446259e-02 4.205647e-01 6.138941e-01 5.050184e-01 6.171344e-01 2.399201e-01 -7.214705e-02
<VARIANCE> 39
 1.692692e+01 2.110587e+01 3.262302e+01 3.089731e+01 2.893221e+01 4.007089e+01 4.947249e+01 6.094586e+01 3.002444e+01 3.437334e+01 2.422095e+01 2.116191e+01 2.039414e+01 1.405535e+00 3.020822e+00 4.508153e+00 5.365290e+00 3.464804e+00 3.387546e+00 4.278117e+00 5.120636e+00 5.006660e+00 4.699511e+00 6.754385e+00 2.896522e+00 1.580221e+00 3.613288e-01 5.061098e-01 3.463371e-01 4.988267e-01 5.782067e-01 6.541651e-01 7.528147e-01 1.066266e+00 6.265000e-01 7.099998e-01 5.082758e-01 4.694512e-01 5.670004e-01
<GCONST> 1.250459e+02
<STATE> 5
<NUMMIXES> 4
<MIXTURE> 1 2.533650e-01
<MEAN> 39
 6.296551e+00 -4.074476e+00 4.522022e+00 -2.698532e+00 -8.523269e+00 -5.214143e+00 -2.203978e+00 1.939905e-01 -4.347521e+00 -2.134169e+00 -2.787374e+00 -8.362560e-01 8.099886e+00 1.528849e+00 -8.561766e-01 2.678872e-01 -1.940876e+00 -2.114306e+00 -1.033988e+00 -1.473493e+00 2.408854e-01 -8.025920e-01 1.377895e-01 -2.628380e-02 -2.416805e-01 1.964163e+00 -1.019189e+00 -2.464198e-02 -2.619502e-01 3.658567e-01 8.225814e-01 5.351804e-01 7.313533e-01 2.867473e-01 6.928198e-01 3.765223e-01 4.631848e-01 2.588810e-01 -5.510363e-01
<VARIANCE> 39
 1.426270e+01 2.601315e+01 5.145052e+01 4.074788e+01 3.689716e+01 4.139935e+01 5.521749e+01 5.625068e+01 5.064653e+01 4.563587e+01 4.269971e+01 2.693633e+01 1.317462e+01 1.538571e+00 2.775950e+00 3.251259e+00 3.495476e+00 3.749902e+00 3.923028e+00 4.838559e+00 5.003362e+00 5.247282e+00 4.642544e+00 3.791188e+00 2.737381e+00 1.214392e+00 3.337239e-01 5.993994e-01 5.381278e-01 6.704761e-01 6.793102e-01 6.411166e-01 7.755803e-01 9.491062e-01 7.541724e-01 7.632844e-01 7.342896e-01 4.545468e-01 4.067459e-01
<GCONST> 1.271546e+02
<MIXTURE> 2 2.620744e-01
<MEAN> 39
 1.426826e+01 -4.906316e+00 -1.340645e+01 2.362477e+00 2.920336e+00 -6.729921e+00 -8.741014e+00 4.279938e+00 -2.948005e-01 -2.710459e+00 -8.845725e-01 9.855978e-02 5.048883e+00 2.696884e+00 -1.039932e+00 -1.433645e+00 -1.051174e+00 -1.353830e+00 -1.772454e+00 -1.803375e+00 1.165859e+00 -1.018488e-01 -5.319284e-01 3.738208e-01 2.555024e-01 2.169027e+00 -1.637461e+00 -2.794049e-01 1.019696e+00 6.063733e-02 -4.116174e-02 7.939870e-01 1.045365e+00 -1.473349e-01 4.258468e-01 4.832804e-01 3.108562e-01 3.226743e-03 -1.877460e-01
<VARIANCE> 39
 7.837677e+00 1.869219e+01 4.230574e+01 2.901801e+01 4.371501e+01 7.899585e+01 6.951414e+01 5.210108e+01 7.149743e+01 3.253555e+01 2.835332e+01 2.613828e+01 1.101681e+01 2.011377e+00 1.904369e+00 4.599422e+00 2.426201e+00 4.853940e+00 5.239919e+00 7.772157e+00 6.202452e+00 6.222887e+00 4.970107e+00 3.311975e+00 2.507833e+00 1.382775e+00 2.428410e-01 3.493859e-01 5.016121e-01 4.383319e-01 7.357305e-01 9.335550e-01 7.923995e-01 9.012473e-01 1.151173e+00 6.413325e-01 5.821657e-01 4.983413e-01 3.092672e-01
<GCONST> 1.262096e+02
<MIXTURE> 3 2.462391e-01
<MEAN> 39
 5.765145e+00 -2.559924e+00 -7.539689e+00 -3.623069e+00 4.831687e+00 1.685985e+00 -2.363902e+00 -5.611421e+00 8.373964e-01 -2.223372e+00 -5.077698e+00 -3.376817e+00 6.144649e+00 2.258344e+00 -6.047611e-01 -1.333547e+00 -1.405809e+00 -1.076177e+00 -9.793733e-01 -1.248570e+00 -1.599912e-01 1.264944e-01 4.412988e-01 -1.039677e+00 -7.920255e-02 1.844088e+00 -7.821947e-01 -4.432790e-01 3.805465e-01 1.409006e-01 4.997665e-02 2.576659e-01 4.779547e-01 9.268780e-01 4.175387e-01 4.430590e-01 6.624159e-01 5.253140e-01 -1.161604e-01
<VARIANCE> 39
 3.980619e+01 4.261467e+01 2.375715e+01 4.714562e+01 2.901356e+01 3.826610e+01 6.414262e+01 4.283214e+01 4.601579e+01 4.562035e+01 3.599559e+01 2.616034e+01 4.138689e+01 2.491601e+00 3.100909e+00 3.278635e+00 4.131036e+00 4.618215e+00 3.937300e+00 3.597225e+00 4.808236e+00 4.229218e+00 3.846593e+00 4.061033e+00 2.540355e+00 2.894872e+00 4.499352e-01 3.781459e-01 3.462500e-01 5.354204e-01 5.235736e-01 4.415031e-01 8.086488e-01 6.945599e-01 7.043935e-01 7.671798e-01 5.900536e-01 4.442073e-01 3.650382e-01
<GCONST> 1.274125e+02
<MIXTURE> 4 2.383215e-01
<MEAN> 39
 1.133321e+01 1.510187e+00 -7.716801e+00 -1.360339e+01 -2.815846e+00 8.253689e+00 -4.444424e-01 -4.110971e+00 -2.998685e+00 -5.265321e-01 2.563679e+00 -1.413596e+00 5.672460e+00 2.305044e+00 -1.187979e+00 -8.270279e-01 -2.653346e+00 -1.505529e+00 6.355951e-01 -1.470008e+00 -6.403700e-02 -4.146848e-01 2.957104e-01 6.041935e-01 -5.640125e-01 2.660610e+00 -1.313542e+00 -7.727901e-01 1.620308e-01 9.954255e-01 6.776208e-01 -3.967431e-01 1.880257e-01 4.680378e-01 7.216889e-01 4.292985e-01 -1.371581e-01 8.829241e-02 -1.784593e-01
<VARIANCE> 39
 1.008591e+01 3.407403e+01 3.408751e+01 5.029231e+01 5.092384e+01 2.956952e+01 5.416963e+01 4.701551e+01 4.468404e+01 4.866154e+01 4.019897e+01 3.420023e+01 1.686471e+01 1.793916e+00 3.005133e+00 2.961127e+00 4.814820e+00 4.713178e+00 4.625718e+00 4.655421e+00 4.975747e+00 4.063347e+00 5.053778e+00 3.455996e+00 3.296283e+00 1.258212e+00 1.778201e-01 5.362330e-01 4.633420e-01 6.665196e-01 6.218406e-01 7.196512e-01 7.200647e-01 8.064765e-01 6.892582e-01 6.686349e-01 6.750078e-01 4.955869e-01 2.654291e-01
<GCONST> 1.260416e+02
<TRANSP> 6
 0.000000e+00 1.000000e+00 0.000000e+00 0.000000e+00 0.000000e+00 0.000000e+00
 0.000000e+00 4.215569e-01 5.784431e-01 0.000000e+00 0.000000e+00 0.000000e+00
 0.000000e+00 0.000000e+00 4.674752e-01 5.325248e-01 0.000000e+00 0.000000e+00
 0.000000e+00 0.000000e+00 0.000000e+00 2.979651e-01 7.020349e-01 0.000000e+00
 0.000000e+00 0.000000e+00 0.000000e+00 0.000000e+00 2.351544e-01 7.648456e-01
 0.000000e+00 0.000000e+00 0.000000e+00 0.000000e+00 0.000000e+00 0.000000e+00
<ENDHMM>
