~o
<STREAMINFO> 1 39
<VECSIZE> 39<NULLD><MFCC_D_A_Z_0><DIAGC>
~h "v"
<BEGINHMM>
<NUMSTATES> 6
<STATE> 2
<NUMMIXES> 4
<MIXTURE> 1 2.347230e-01
<MEAN> 39
 2.815865e+00 5.479328e+00 5.852398e-02 5.088576e+00 2.365891e+00 -2.235286e+00 -6.326559e+00 -6.789106e+00 -9.547290e-01 -1.669662e+00 -1.588521e+00 -4.211168e+00 -4.520572e+00 -3.528847e+00 2.480833e+00 1.324627e+00 2.397763e+00 1.364905e+00 1.550432e+00 9.186528e-01 -1.188395e+00 -9.483575e-01 -1.396676e+00 1.749263e-01 7.743156e-04 -2.561157e+00 -1.854989e-01 -1.067004e+00 -3.462428e-02 -6.944144e-01 -3.700602e-01 -3.632878e-02 6.494997e-01 1.099638e+00 2.554749e-01 1.595805e-01 -9.310191e-02 4.087929e-01 9.404764e-01
<VARIANCE> 39
 1.463128e+01 1.183163e+01 2.185483e+01 1.608308e+01 1.874712e+01 2.513113e+01 2.168693e+01 2.384703e+01 2.631313e+01 2.967683e+01 2.201613e+01 1.577290e+01 1.924181e+01 2.364476e+00 2.291887e+00 2.868431e+00 3.657450e+00 2.983789e+00 4.437000e+00 4.988894e+00 4.415985e+00 2.815160e+00 3.066158e+00 3.995744e+00 2.318742e+00 1.915273e+00 4.624106e-01 2.863422e-01 4.652542e-01 3.050065e-01 5.754656e-01 5.855297e-01 5.405946e-01 6.387967e-01 5.374598e-01 7.132157e-01 6.443918e-01 3.725884e-01 3.308900e-01
<GCONST> 1.156950e+02
<MIXTURE> 2 2.958310e-01
<MEAN> 39
 7.223785e+00 -7.559610e-01 5.308540e-01 2.844014e+00 -6.862758e-01 -5.556035e+00 -6.711774e+00 -2.051297e+00 -2.935743e-01 5.045436e-02 -5.261669e-01 -2.328759e+00 5.333737e-01 -1.324696e+00 2.442541e+00 -5.704578e-01 1.539977e+00 2.109728e+00 1.168257e+00 -3.009140e-01 -1.667235e+00 -2.317174e-01 -4.954998e-01 1.322424e-01 -1.565256e-01 -2.657488e+00 -6.737639e-01 2.348838e-02 3.218948e-01 -2.552002e-01 -2.078384e-01 2.881501e-01 6.248696e-01 2.212856e-01 -1.561716e-01 -1.729506e-01 -1.119967e-01 1.901484e-01 2.504627e-01
<VARIANCE> 39
 1.195260e+01 1.724282e+01 3.579869e+01 1.991277e+01 2.857862e+01 2.705997e+01 2.313074e+01 2.646057e+01 3.208401e+01 2.628720e+01 2.697894e+01 2.742609e+01 1.728563e+01 2.021193e+00 2.368082e+00 3.916153e+00 2.787683e+00 3.352824e+00 4.084195e+00 4.642229e+00 5.104230e+00 4.500320e+00 4.109142e+00 3.394657e+00 2.745178e+00 1.824714e+00 3.002408e-01 2.791454e-01 3.479993e-01 4.058484e-01 5.459057e-01 5.238568e-01 3.997528e-01 5.570396e-01 5.459831e-01 5.321276e-01 5.471324e-01 4.330595e-01 2.532084e-01
<GCONST> 1.170854e+02
<MIXTURE> 3 2.581382e-01
<MEAN> 39
 7.134111e+00 3.515176e+00 -4.661433e+00 -1.354863e+00 1.504397e+00 2.377046e+00 -2.656466e+00 -6.992959e+00 -3.665927e+00 1.730174e-01 2.840583e+00 7.829217e-01 -1.050732e+00 -2.142982e+00 2.051599e+00 7.619829e-01 1.459793e+00 6.512518e-01 2.107140e-01 1.478132e+00 -4.803306e-01 -9.040849e-01 -1.253920e+00 -7.479720e-01 5.546294e-01 -1.983346e+00 -2.258795e-01 -6.104184e-01 2.330084e-01 2.519010e-02 -1.338970e-01 -2.945995e-01 -2.269611e-01 6.675864e-01 5.332119e-01 1.625830e-01 -3.114217e-01 -3.611547e-01 5.647279e-01
<VARIANCE> 39
 1.620149e+01 1.661105e+01 2.214958e+01 2.386038e+01 2.613114e+01 2.076709e+01 3.238163e+01 2.520985e+01 2.660218e+01 3.017934e+01 2.065048e+01 2.834994e+01 1.764152e+01 2.123969e+00 1.827332e+00 2.607026e+00 3.998125e+00 2.874403e+00 3.574378e+00 4.034286e+00 3.926608e+00 3.322071e+00 3.521629e+00 2.976696e+00 2.596411e+00 1.203026e+00 3.221633e-01 3.206999e-01 2.586578e-01 4.039273e-01 4.370611e-01 4.201724e-01 5.597456e-01 4.751734e-01 4.612283e-01 5.204392e-01 4.460533e-01 4.103834e-01 2.283573e-01
<GCONST> 1.138066e+02
<MIXTURE> 4 2.113078e-01
<MEAN> 39
 -2.437685e+00 4.500038e+00 1.674074e+00 4.605316e+00 2.258714e+00 -1.157953e+00 1.337034e-01 -2.165978e+00 -6.446413e-01 -1.692794e+00 -1.615665e+00 1.009605e+00 -2.688992e+00 -2.092302e+00 7.003741e-02 -5.601780e-02 9.251807e-01 1.312551e+00 6.216367e-01 1.010152e+00 8.214291e-01 1.818896e-01 -1.172167e-01 -2.216265e-01 7.837834e-03 -7.689108e-01 2.388420e-01 -4.685513e-01 -3.295110e-02 -3.115041e-01 -3.400768e-01 1.634061e-01 -1.358066e-01 3.300834e-02 1.182471e-02 2.489337e-01 3.001438e-01 -1.828153e-01 3.071013e-01
<VARIANCE> 39
 2.857774e+01 2.155811e+01 3.460202e+01 2.291653e+01 3.152755e+01 3.791745e+01 2.826064e+01 2.730790e+01 2.089206e+01 2.373385e+01 2.397993e+01 1.424037e+01 2.221361e+01 7.195334e+00 2.551426e+00 3.494550e+00 4.303195e+00 4.324664e+00 4.527665e+00 3.810547e+00 3.179831e+00 3.216681e+00 2.731756e+00 2.876784e+00 2.047161e+00 4.407691e+00 6.769494e-01 5.832657e-01 6.028253e-01 5.113868e-01 6.609040e-01 8.018258e-01 6.434520e-01 5.390216e-01 6.039252e-01 5.702592e-01 4.965036e-01 3.444989e-01 4.367112e-01
<GCONST> 1.227109e+02
<STATE> 3
<NUMMIXES> 4
<MIXTURE> 1 2.248722e-01
<MEAN> 39
 -9.295975e+00 1.748151e+00 5.005779e-01 6.479890e+00 4.669982e+00 3.339408e+00 2.820688e+00 5.514858e-01 1.887700e+00 -7.003176e-01 5.958874e-01 -4.589236e-01 -4.945478e+00 -1.667957e+00 -1.561946e+00 -8.288205e-01 -4.045808e-01 1.110632e-01 5.819924e-01 1.058264e+00 1.290877e+00 1.220554e+00 1.033820e+00 1.010092e+00 7.692078e-01 4.468718e-01 1.484993e+00 -1.182052e-01 -1.269197e-01 -6.502751e-01 -5.923444e-01 -6.209744e-01 -5.570945e-01 -2.996508e-01 -1.660379e-01 1.290434e-01 -7.607120e-02 -6.429499e-02 5.013271e-01
<VARIANCE> 39
 1.811301e+01 1.739139e+01 2.335847e+01 2.423357e+01 2.319180e+01 2.213828e+01 2.072698e+01 2.134263e+01 1.904577e+01 1.716555e+01 1.961180e+01 1.805332e+01 3.472109e+01 5.344092e+00 2.168249e+00 2.188128e+00 2.483675e+00 2.143372e+00 2.902550e+00 3.248668e+00 2.588108e+00 3.022889e+00 2.605708e+00 2.960867e+00 2.288123e+00 3.998180e+00 6.418586e-01 4.702817e-01 6.093253e-01 7.260603e-01 6.322682e-01 6.978689e-01 4.800984e-01 5.315863e-01 6.278735e-01 4.985779e-01 5.366866e-01 4.084950e-01 9.587617e-01
<GCONST> 1.178528e+02
<MIXTURE> 2 2.884725e-01
<MEAN> 39
 1.507206e-01 5.939834e+00 -1.126648e+00 1.756700e+00 1.639143e+00 8.130564e-01 1.751654e-01 -5.005610e+00 -4.117189e+00 -2.172035e+00 -1.611007e+00 8.370150e-01 -2.294688e+00 -7.744119e-01 5.153849e-02 2.941529e-01 3.447460e-01 2.463777e-01 -1.809327e-01 7.731700e-02 1.142158e-01 1.576116e-01 -8.744914e-02 -3.163868e-01 -3.353660e-01 1.076830e-01 9.192795e-01 -7.162749e-01 -2.798663e-01 -3.597817e-01 -2.991276e-01 -2.699560e-01 -5.956904e-01 1.947622e-01 4.046397e-01 2.956801e-01 3.981321e-01 -1.153919e-01 6.631018e-01
<VARIANCE> 39
 2.333157e+01 1.056694e+01 2.846758e+01 2.891957e+01 2.483335e+01 2.738903e+01 2.620494e+01 2.227824e+01 2.024784e+01 2.340059e+01 2.054181e+01 1.845436e+01 1.822784e+01 1.885972e+00 9.122180e-01 1.378725e+00 1.675767e+00 1.708234e+00 1.661212e+00 2.063511e+00 1.719103e+00 1.903919e+00 1.623042e+00 1.600800e+00 1.308467e+00 7.924283e-01 3.682662e-01 3.848408e-01 4.912918e-01 4.994935e-01 5.368303e-01 5.719904e-01 8.459638e-01 6.246684e-01 5.619357e-01 5.679375e-01 3.986164e-01 3.332919e-01 2.419704e-01
<GCONST> 1.073588e+02
<MIXTURE> 3 2.748438e-01
<MEAN> 39
 -2.317353e+00 8.345128e+00 4.390899e+00 8.705451e+00 4.252617e+00 6.303520e-01 -3.302459e+00 -5.990509e+00 -3.564113e+00 -4.795491e+00 -2.328925e+00 -3.531990e+00 -8.703114e+00 -3.010012e+00 6.107678e-02 5.044984e-01 1.003514e+00 7.473364e-01 1.166713e+00 1.506943e+00 9.129333e-01 3.352053e-01 -1.836944e-01 2.773325e-01 3.551307e-01 -5.213393e-01 7.651305e-01 -1.259588e+00 -7.322000e-01 -1.220850e+00 -6.994032e-01 -4.716661e-01 1.202823e-01 7.126742e-01 5.367268e-01 7.402815e-01 2.666140e-01 3.260604e-01 1.376166e+00
<VARIANCE> 39
 2.308434e+01 1.698659e+01 1.629459e+01 1.876434e+01 2.228546e+01 2.753923e+01 3.160509e+01 2.460229e+01 1.920358e+01 2.283117e+01 2.084944e+01 1.740944e+01 2.543518e+01 3.361653e+00 2.820769e+00 2.535762e+00 3.403214e+00 3.022139e+00 3.695559e+00 3.030530e+00 2.910295e+00 3.228230e+00 3.621471e+00 3.545679e+00 2.152294e+00 2.978755e+00 8.858840e-01 4.598759e-01 6.045864e-01 6.125894e-01 6.814366e-01 9.347944e-01 8.476012e-01 8.305550e-01 5.823087e-01 5.960929e-01 6.338356e-01 4.182939e-01 5.868049e-01
<GCONST> 1.206264e+02
<MIXTURE> 4 2.118115e-01
<MEAN> 39
 6.380222e+00 3.327811e-01 -2.370352e+00 2.316202e+00 1.627042e+00 -1.820223e+00 -7.239207e+00 -5.071444e+00 -2.210447e+00 -4.169637e-01 1.249136e+00 -2.294527e+00 -6.767434e-01 -4.748313e-01 4.330164e-01 -2.297274e-01 9.156604e-02 1.206106e-01 -4.682688e-02 1.787171e-01 -2.612745e-01 -1.776930e-01 -1.626359e-01 -1.015630e-01 1.135212e-01 -1.512405e-01 2.670960e-01 -7.029753e-01 2.531943e-01 -5.122567e-01 -5.763101e-01 -3.967170e-01 1.624576e-01 7.486858e-01 3.437894e-01 1.358746e-01 -2.105898e-01 8.599904e-02 9.003713e-01
<VARIANCE> 39
 1.606969e+01 1.722791e+01 3.191625e+01 2.384969e+01 1.604933e+01 3.478983e+01 1.809167e+01 2.869989e+01 2.724285e+01 2.605815e+01 2.282937e+01 4.186579e+01 1.547249e+01 6.300546e-01 9.989524e-01 1.282451e+00 1.488346e+00 1.077759e+00 1.530752e+00 1.643013e+00 1.650526e+00 1.527733e+00 2.125119e+00 1.899469e+00 1.561799e+00 8.667063e-01 2.133792e-01 3.135166e-01 3.719904e-01 4.361637e-01 4.592797e-01 4.749494e-01 4.947099e-01 6.835405e-01 6.940815e-01 6.232464e-01 4.242795e-01 5.695298e-01 1.938613e-01
<GCONST> 1.054543e+02
<STATE> 4
<NUMMIXES> 4
<MIXTURE> 1 2.816820e-01
<MEAN> 39
 -4.586627e+00 6.112289e+00 2.733923e+00 7.735198e+00 4.123780e+00 1.814157e-01 -8.234753e-01 -4.415032e+00 -2.043623e+00 -3.885657e+00 -1.695952e+00 -2.363224e+00 -4.614019e+00 9.895051e-01 -1.015432e+00 -8.631460e-01 -1.449061e+00 -1.016857e+00 -6.282113e-01 1.014894e-01 6.595832e-01 4.751523e-01 5.359854e-01 4.641776e-01 1.948239e-01 1.808529e+00 1.333895e+00 -8.333119e-01 -5.045800e-01 -1.179604e+00 -6.557831e-01 -4.039774e-01 -3.700265e-01 3.363005e-01 1.663218e-01 6.359879e-01 1.760078e-01 1.102447e-01 8.741832e-01
<VARIANCE> 39
 2.309590e+01 2.005512e+01 2.337774e+01 2.518699e+01 2.802988e+01 3.069349e+01 3.163144e+01 2.295814e+01 2.180097e+01 2.156469e+01 1.737804e+01 1.945654e+01 2.590723e+01 6.959582e+00 2.869004e+00 3.583517e+00 3.937397e+00 3.538307e+00 3.932913e+00 4.485334e+00 3.584470e+00 2.825196e+00 2.364769e+00 2.445260e+00 1.920530e+00 3.684907e+00 7.450318e-01 5.362819e-01 7.532682e-01 7.893031e-01 6.381350e-01 1.070128e+00 9.178523e-01 8.263782e-01 7.232236e-01 6.773800e-01 5.259568e-01 4.497204e-01 4.486364e-01
<GCONST> 1.235192e+02
<MIXTURE> 2 2.062212e-01
<MEAN> 39
 2.599364e+00 3.074466e+00 -2.409854e+00 2.586445e-01 -3.062296e-01 -1.637833e-01 -1.307582e+00 -4.270592e+00 -3.904214e-01 -8.411984e-01 7.571548e-01 -1.041734e+00 1.428937e+00 3.828106e+00 -2.163215e+00 -1.424513e+00 -2.995651e+00 -1.366999e+00 -1.034816e+00 -9.402983e-01 8.590045e-01 3.300770e-01 1.296350e+00 2.478862e-01 -1.506088e-01 2.666443e+00 1.671008e-01 -3.864585e-01 5.592328e-02 -1.422492e-01 1.740036e-01 6.550661e-02 -6.455399e-02 3.822041e-01 -3.363381e-02 1.033381e-01 -1.649125e-01 1.774955e-03 -6.851498e-02
<VARIANCE> 39
 2.230992e+01 1.941000e+01 2.517256e+01 2.927958e+01 1.683563e+01 2.884670e+01 2.624374e+01 2.628858e+01 2.130352e+01 2.005642e+01 1.991642e+01 1.876045e+01 1.867448e+01 3.843347e+00 3.624474e+00 5.035219e+00 6.404912e+00 5.050979e+00 7.288071e+00 5.792471e+00 5.472197e+00 4.881137e+00 3.720251e+00 3.842579e+00 3.163792e+00 3.617160e+00 5.259085e-01 3.548470e-01 3.578214e-01 5.077166e-01 3.838917e-01 5.355258e-01 5.460700e-01 4.883701e-01 4.940110e-01 4.247242e-01 4.268368e-01 3.561181e-01 3.147713e-01
<GCONST> 1.209439e+02
<MIXTURE> 3 2.678571e-01
<MEAN> 39
 -1.020220e+01 -1.099131e+00 -9.434604e-01 3.977859e+00 3.201518e+00 2.593917e+00 3.615889e+00 2.594060e+00 3.718050e+00 1.628873e+00 2.524012e+00 1.774091e+00 -3.073316e+00 1.476507e+00 -3.181413e-01 -2.576223e-01 -9.224513e-01 -6.143891e-01 -8.287788e-01 -2.638719e-01 -8.638491e-02 -6.299147e-02 1.329067e-01 8.170052e-03 4.743861e-02 8.406604e-01 1.467270e+00 4.194269e-01 1.385447e-01 -2.338420e-01 -2.484491e-01 -4.919795e-01 -6.449599e-01 -5.661890e-01 -6.055909e-01 -3.256769e-01 -4.133908e-01 -3.962000e-01 5.310304e-02
<VARIANCE> 39
 1.757766e+01 1.688643e+01 2.280600e+01 2.095544e+01 1.951114e+01 2.480562e+01 2.535988e+01 2.344654e+01 2.466168e+01 2.039036e+01 2.828904e+01 1.739141e+01 2.493684e+01 7.188110e+00 2.351077e+00 2.828176e+00 3.188797e+00 3.030467e+00 4.278848e+00 3.570601e+00 3.247583e+00 3.496843e+00 2.947039e+00 2.945715e+00 2.135289e+00 5.860918e+00 6.742730e-01 4.766160e-01 5.055618e-01 6.308250e-01 5.805889e-01 6.771689e-01 7.469428e-01 5.631012e-01 7.090274e-01 6.400303e-01 7.320935e-01 5.400933e-01 7.101696e-01
<GCONST> 1.215866e+02
<MIXTURE> 4 2.442396e-01
<MEAN> 39
 5.784367e+00 8.465605e-01 -3.939798e+00 1.520286e+00 2.017851e+00 -2.559862e+00 -6.028422e+00 -3.981420e+00 -1.555251e+00 -7.465497e-01 5.659901e-01 -8.579665e-01 1.036342e+00 1.148554e+00 -1.513291e+00 -1.855701e-01 -3.648048e-01 -6.754193e-01 -1.248465e+00 -8.069078e-01 1.478658e+00 8.376067e-01 2.574753e-01 1.170565e-01 5.049070e-02 1.460558e+00 3.453817e-01 -5.437366e-01 2.456737e-01 -1.980836e-01 -4.184253e-01 -2.124437e-01 -7.100229e-02 5.662448e-01 1.635161e-01 8.703789e-02 1.415395e-02 4.928403e-02 4.266330e-01
<VARIANCE> 39
 1.821278e+01 1.442128e+01 3.846115e+01 2.026423e+01 1.964655e+01 3.111426e+01 2.080809e+01 2.452826e+01 2.865509e+01 2.528825e+01 2.286778e+01 3.309173e+01 1.272854e+01 1.448605e+00 1.190279e+00 2.515077e+00 2.267456e+00 2.626338e+00 2.334262e+00 4.226805e+00 2.744802e+00 2.767725e+00 2.633103e+00 2.047761e+00 2.410346e+00 9.478321e-01 2.468334e-01 2.328462e-01 3.107782e-01 3.807204e-01 4.448749e-01 4.687465e-01 5.950106e-01 6.506557e-01 4.882234e-01 5.200559e-01 3.973682e-01 3.941970e-01 1.297612e-01
<GCONST> 1.096211e+02
<STATE> 5
<NUMMIXES> 4
<MIXTURE> 1 3.109469e-01
<MEAN> 39
 1.048915e+01 -2.293764e+00 -8.722316e+00 -2.973551e+00 2.351748e+00 -1.534337e+00 -7.120033e+00 -2.195065e+00 7.617404e-01 1.241890e+00 1.232036e+00 -1.402656e+00 4.174711e+00 2.373504e+00 -2.023689e+00 -1.016080e+00 -1.161021e+00 5.318520e-02 -1.112250e+00 -1.404020e+00 1.852718e+00 7.422099e-01 7.209992e-01 -5.267215e-02 -2.405175e-01 1.546643e+00 -8.008734e-01 1.741927e-01 6.304204e-01 4.546641e-01 -2.368471e-02 8.598232e-02 4.017191e-01 1.697517e-01 -1.449133e-01 -2.772358e-01 -1.692884e-01 7.386030e-02 -3.664744e-01
<VARIANCE> 39
 1.088983e+01 1.922184e+01 2.477627e+01 5.696463e+01 2.929172e+01 6.517585e+01 5.259859e+01 4.480440e+01 3.675345e+01 3.915719e+01 2.895472e+01 3.840649e+01 1.200932e+01 3.918380e+00 2.310570e+00 4.286343e+00 6.109556e+00 3.487463e+00 7.064175e+00 7.411705e+00 6.574963e+00 5.077535e+00 4.677642e+00 3.307369e+00 3.075159e+00 1.098147e+00 4.507261e-01 2.946560e-01 4.015417e-01 5.457636e-01 5.435238e-01 4.695049e-01 7.382886e-01 6.763228e-01 6.049737e-01 5.533976e-01 4.196545e-01 4.445148e-01 2.120878e-01
<GCONST> 1.245828e+02
<MIXTURE> 2 1.994627e-01
<MEAN> 39
 1.792156e+00 4.475581e+00 4.285329e+00 2.474630e+00 -2.157127e+00 -2.512799e+00 -9.033574e-01 -5.776033e+00 -4.138040e+00 -2.408684e+00 -1.339775e+00 -1.922090e+00 -1.220403e+00 2.076485e+00 9.031592e-02 8.163188e-01 -1.668103e+00 -1.855725e+00 -4.215223e-01 -8.438661e-01 -1.059932e+00 -9.136796e-01 1.430114e-01 -3.154791e-01 -2.560247e-01 9.473281e-01 -1.766076e-01 -1.819488e-01 -5.898022e-02 -1.436863e-01 6.822783e-02 2.471927e-01 -1.040808e-01 2.935147e-01 2.403467e-01 1.849644e-01 8.136589e-02 1.308312e-01 -1.872509e-02
<VARIANCE> 39
 2.324281e+01 1.846448e+01 5.758506e+01 5.525640e+01 4.068436e+01 3.625032e+01 5.256663e+01 4.855614e+01 4.154053e+01 3.804436e+01 3.086955e+01 2.879963e+01 2.152220e+01 4.212976e+00 2.582126e+00 4.611265e+00 5.333260e+00 4.021226e+00 5.328385e+00 6.884145e+00 4.420238e+00 5.160622e+00 5.730403e+00 4.071863e+00 3.458216e+00 1.882612e+00 4.395291e-01 3.821810e-01 5.003233e-01 6.063279e-01 6.060795e-01 5.438609e-01 9.542161e-01 7.202890e-01 7.619675e-01 7.186588e-01 5.479072e-01 5.101008e-01 3.162790e-01
<GCONST> 1.294140e+02
<MIXTURE> 3 2.296844e-01
<MEAN> 39
 -8.745060e+00 3.005202e+00 -3.701630e-01 4.839419e+00 5.524521e+00 2.770544e+00 2.693040e+00 1.619011e-01 2.243025e+00 1.158379e+00 1.811623e+00 1.257398e+00 -7.271897e+00 -1.227631e-01 3.502359e-01 -9.492198e-02 3.185891e-01 3.037601e-01 5.992206e-01 5.981640e-01 4.674102e-01 3.676664e-01 5.152255e-01 4.365202e-01 3.019893e-01 -1.759624e+00 4.427706e-01 -5.383261e-02 1.633035e-02 -6.237981e-02 -2.455180e-01 -2.732509e-01 -2.088382e-01 -8.284041e-02 -1.295693e-01 -5.961603e-02 -1.532288e-01 -8.704637e-02 3.285673e-01
<VARIANCE> 39
 2.805830e+01 3.426501e+01 2.997275e+01 4.109671e+01 2.924578e+01 3.501732e+01 3.175381e+01 3.286441e+01 2.414738e+01 2.770166e+01 3.256412e+01 2.009367e+01 6.183179e+01 3.541724e+00 3.003098e+00 2.418612e+00 3.013756e+00 2.958194e+00 3.224513e+00 2.177561e+00 2.527537e+00 2.467746e+00 2.034431e+00 2.256251e+00 1.969681e+00 9.666126e+00 5.378440e-01 6.418940e-01 4.449606e-01 7.833501e-01 6.153615e-01 6.866378e-01 6.820158e-01 6.099378e-01 5.496672e-01 5.639580e-01 5.832740e-01 3.920363e-01 1.484399e+00
<GCONST> 1.242349e+02
<MIXTURE> 4 2.599060e-01
<MEAN> 39
 7.005504e+00 -5.112676e+00 2.913595e+00 -3.584761e-01 -5.923061e+00 -8.020852e+00 -3.618637e+00 2.502385e+00 -8.351706e-01 2.806149e-02 -2.099775e-01 -9.324878e-01 6.542683e+00 1.556840e+00 -2.440559e+00 7.998526e-01 -2.282301e+00 -2.442793e+00 -1.087168e+00 5.020363e-01 1.561743e+00 -1.524822e-01 6.342040e-01 -3.003446e-01 3.393994e-01 2.735693e+00 -6.993743e-01 5.583959e-01 5.453719e-03 1.805501e-01 5.366805e-01 7.765607e-01 2.556596e-01 -4.486601e-01 -8.917573e-02 -1.430129e-01 -1.281884e-01 -2.282830e-02 -6.865329e-01
<VARIANCE> 39
 1.089905e+01 1.817673e+01 3.074114e+01 2.696743e+01 2.316062e+01 3.071018e+01 3.751093e+01 2.353611e+01 3.980775e+01 2.569994e+01 2.376564e+01 1.936169e+01 1.296356e+01 2.950647e+00 2.402685e+00 3.368992e+00 3.391573e+00 3.374830e+00 4.926674e+00 5.001026e+00 3.753750e+00 4.868486e+00 3.777710e+00 3.772702e+00 3.183102e+00 2.077174e+00 3.542922e-01 2.921784e-01 3.609089e-01 4.366849e-01 4.970748e-01 5.920284e-01 5.211407e-01 5.221350e-01 4.738944e-01 4.245334e-01 4.478845e-01 3.238618e-01 2.943011e-01
<GCONST> 1.175293e+02
<TRANSP> 6
 0.000000e+00 1.000000e+00 0.000000e+00 0.000000e+00 0.000000e+00 0.000000e+00
 0.000000e+00 4.643061e-01 5.356939e-01 0.000000e+00 0.000000e+00 0.000000e+00
 0.000000e+00 0.000000e+00 4.673481e-01 5.326519e-01 0.000000e+00 0.000000e+00
 0.000000e+00 0.000000e+00 0.000000e+00 4.596774e-01 5.403226e-01 0.000000e+00
 0.000000e+00 0.000000e+00 0.000000e+00 0.000000e+00 3.700470e-01 6.299530e-01
 0.000000e+00 0.000000e+00 0.000000e+00 0.000000e+00 0.000000e+00 0.000000e+00
<ENDHMM>
