~o
<STREAMINFO> 1 39
<VECSIZE> 39<NULLD><MFCC_D_A_Z_0><DIAGC>
~h "w"
<BEGINHMM>
<NUMSTATES> 6
<STATE> 2
<NUMMIXES> 4
<MIXTURE> 1 2.959184e-01
<MEAN> 39
 8.863472e+00 7.605825e+00 -2.250548e+00 -5.386974e+00 -5.192716e+00 1.129306e+00 6.054917e-02 -3.036600e+00 -3.522522e+00 -2.902648e+00 -1.381489e+00 -7.657681e-01 -4.276527e+00 1.345927e+00 8.671181e-01 2.551150e-01 -1.381852e+00 -1.693140e+00 -2.215530e-01 -1.291868e-01 4.382964e-01 3.565174e-02 -5.412528e-01 8.243057e-02 -2.622283e-01 1.069029e-01 -3.602569e-01 -6.234599e-01 -2.224580e-01 -8.212261e-02 4.049116e-01 2.207351e-01 -1.859510e-01 4.526702e-02 1.587551e-01 4.921313e-01 2.934566e-01 6.865163e-02 4.431892e-01
<VARIANCE> 39
 2.244139e+01 2.458800e+01 2.773249e+01 5.393600e+01 4.855413e+01 3.447911e+01 4.370958e+01 3.736124e+01 3.607985e+01 3.232311e+01 2.470435e+01 2.647392e+01 2.306506e+01 4.722217e+00 3.036764e+00 3.414466e+00 6.694964e+00 5.779020e+00 3.989093e+00 3.634701e+00 4.359532e+00 5.110612e+00 3.676270e+00 3.204063e+00 2.832686e+00 3.166092e+00 5.899462e-01 5.568013e-01 4.759588e-01 6.763949e-01 7.035270e-01 6.143282e-01 7.004259e-01 7.300869e-01 6.806647e-01 7.144509e-01 5.648894e-01 5.456111e-01 3.582087e-01
<GCONST> 1.281087e+02
<MIXTURE> 2 2.778650e-01
<MEAN> 39
 1.126715e+01 6.949511e+00 -4.995883e+00 -7.295006e+00 -6.783263e-01 4.853022e+00 -1.973151e+00 -6.981497e+00 -1.159508e+01 -2.714506e+00 2.240674e+00 1.644631e+00 -2.920569e+00 4.391399e-01 2.023080e+00 -4.697688e-01 -1.583288e+00 -1.777457e+00 9.037895e-01 2.778332e+00 1.058824e+00 -2.458761e-01 -1.921069e+00 -8.818023e-01 5.396226e-01 -1.269003e+00 -3.267201e-01 -6.034956e-01 7.196611e-01 5.760456e-01 -4.733060e-01 -1.036499e+00 -4.793329e-01 8.193191e-01 9.814064e-01 2.400198e-01 -4.857164e-01 -4.410290e-01 4.364842e-01
<VARIANCE> 39
 7.573666e+00 1.868854e+01 1.713951e+01 2.645540e+01 2.559155e+01 2.723945e+01 2.780927e+01 3.280627e+01 2.751277e+01 3.533212e+01 3.538980e+01 2.349643e+01 1.510286e+01 5.065600e-01 1.614275e+00 2.051646e+00 2.744658e+00 2.048431e+00 3.259378e+00 3.284616e+00 3.588654e+00 3.843189e+00 3.274504e+00 3.386595e+00 2.646602e+00 7.512016e-01 8.077090e-02 2.083446e-01 3.146583e-01 3.220395e-01 5.602990e-01 4.224105e-01 5.405370e-01 5.517043e-01 4.973724e-01 5.785936e-01 4.318095e-01 3.714932e-01 1.158361e-01
<GCONST> 1.085032e+02
<MIXTURE> 3 2.413658e-01
<MEAN> 39
 1.289976e+01 4.258132e+00 -6.379376e+00 -1.092895e+01 -4.681354e+00 4.508745e+00 -1.570368e+00 -4.383463e+00 -6.632360e+00 -4.820949e-01 1.489413e+00 6.539802e-02 -8.165308e-01 2.235792e+00 -1.271626e+00 -7.321188e-01 -3.207911e+00 -1.528310e+00 2.831584e-01 -1.082619e+00 -9.609815e-02 -7.176859e-01 1.132939e+00 4.979080e-01 7.310502e-02 2.955699e+00 -1.526999e+00 -9.433708e-01 1.763106e-01 1.081930e+00 9.407700e-01 -4.640495e-02 1.662353e-01 5.872544e-01 1.071499e+00 5.161177e-01 -2.736061e-02 -2.585317e-02 -1.013150e-01
<VARIANCE> 39
 6.561993e+00 2.369510e+01 2.444718e+01 3.387487e+01 3.630501e+01 3.725456e+01 4.743173e+01 3.699409e+01 3.509090e+01 4.325537e+01 3.651152e+01 2.516356e+01 1.769320e+01 2.184637e+00 3.495474e+00 3.020549e+00 5.146810e+00 5.728437e+00 5.154856e+00 6.334436e+00 5.049247e+00 5.042815e+00 5.979505e+00 5.151539e+00 3.056254e+00 2.723442e+00 2.371823e-01 4.566453e-01 5.168469e-01 7.119819e-01 7.636432e-01 8.297675e-01 1.027288e+00 9.744791e-01 7.446461e-01 9.267181e-01 7.646679e-01 5.698958e-01 3.515790e-01
<GCONST> 1.280115e+02
<MIXTURE> 4 1.848509e-01
<MEAN> 39
 9.143811e+00 2.120161e+00 -1.438101e+00 -1.410307e+00 3.062323e+00 -2.916178e+00 -1.031358e+01 -7.855577e+00 -6.319551e+00 3.580080e+00 -7.479593e-01 -1.864332e+00 -8.344014e-01 1.405842e+00 2.135387e+00 -2.992773e+00 -2.040815e+00 1.099881e+00 3.245129e+00 9.623804e-01 -1.783034e+00 -9.068767e-01 -4.370695e-01 1.074227e+00 5.012291e-01 -1.530921e+00 -3.805508e-01 1.523471e-01 8.031374e-01 -4.143103e-01 -1.257559e+00 1.047364e-01 1.159816e+00 6.043967e-01 -2.065501e-01 -5.472921e-01 -1.393348e-01 1.704454e-01 1.660047e-01
<VARIANCE> 39
 1.122079e+01 1.939939e+01 2.575977e+01 3.611020e+01 2.106824e+01 5.946542e+01 2.999584e+01 4.035553e+01 4.014670e+01 4.108695e+01 5.095243e+01 2.636981e+01 1.208827e+01 1.079125e+00 1.872903e+00 3.225613e+00 3.318484e+00 4.541198e+00 3.546530e+00 6.672579e+00 3.756003e+00 4.103979e+00 4.140625e+00 3.059542e+00 2.268412e+00 8.570176e-01 1.180933e-01 3.148926e-01 4.242283e-01 5.939019e-01 5.697086e-01 1.204397e+00 5.668136e-01 1.035084e+00 5.288338e-01 6.377813e-01 5.125769e-01 3.457952e-01 1.310228e-01
<GCONST> 1.184921e+02
<STATE> 3
<NUMMIXES> 4
<MIXTURE> 1 3.230044e-01
<MEAN> 39
 1.049567e+01 1.032942e+01 -2.609741e+00 -5.763246e+00 -5.865436e+00 -1.826820e+00 -1.650735e+00 -2.214721e+00 -1.119645e+00 -3.125847e+00 -1.699483e+00 -2.171523e+00 -6.362283e+00 2.568891e-01 4.830091e-02 -1.405158e-01 -1.047324e+00 -6.293831e-01 1.745205e-01 1.438736e-01 5.238045e-01 4.645309e-01 3.674868e-01 3.108945e-01 5.361089e-02 4.939643e-01 9.229527e-02 -4.424087e-01 -2.614874e-01 -6.251065e-01 7.572727e-02 6.494544e-01 9.498058e-02 -4.997180e-02 -5.150391e-01 1.657095e-01 2.564662e-01 3.145248e-01 5.724692e-01
<VARIANCE> 39
 9.092866e+00 2.011545e+01 2.097150e+01 2.834455e+01 3.684891e+01 2.534268e+01 3.073959e+01 2.450455e+01 2.560751e+01 2.355647e+01 1.707738e+01 1.742078e+01 1.276961e+01 4.892264e-01 1.154542e+00 1.181417e+00 3.253277e+00 2.506049e+00 2.156979e+00 1.817826e+00 2.019964e+00 2.358078e+00 1.861995e+00 1.389237e+00 1.655364e+00 9.710834e-01 1.004725e-01 3.859546e-01 2.909206e-01 3.723069e-01 5.832709e-01 4.202415e-01 5.247018e-01 4.851404e-01 4.516017e-01 5.930649e-01 4.082611e-01 3.613512e-01 1.502300e-01
<GCONST> 1.040549e+02
<MIXTURE> 2 1.431458e-01
<MEAN> 39
 1.181462e+01 -6.218778e-01 -5.807469e+00 -9.309694e+00 -2.723272e-01 3.948753e+00 -6.050813e+00 -5.361075e+00 -5.755346e+00 3.930397e+00 2.075950e+00 -8.208949e-01 3.060868e+00 -3.612712e-02 -2.190833e+00 7.953501e-02 -9.124445e-02 4.904482e-01 -7.097634e-01 -1.588428e+00 7.997208e-01 1.067019e+00 1.783106e+00 -2.432699e-01 -4.937496e-01 2.172296e+00 -1.063825e+00 -1.815233e-01 6.221890e-01 1.200199e+00 1.209294e-01 -7.190427e-01 4.136184e-01 8.214098e-01 7.747673e-01 -3.393542e-01 -5.589820e-01 -1.119280e-02 -3.696311e-01
<VARIANCE> 39
 1.043480e+01 2.291901e+01 3.637028e+01 4.500706e+01 3.901175e+01 6.698270e+01 5.726143e+01 4.955212e+01 5.400732e+01 6.082991e+01 6.331936e+01 3.557950e+01 1.791714e+01 1.521129e+00 2.761846e+00 3.041001e+00 4.181519e+00 4.416299e+00 5.380441e+00 6.601539e+00 5.404772e+00 4.102277e+00 5.190143e+00 4.801979e+00 3.409896e+00 2.007163e+00 4.023362e-01 4.372124e-01 5.046486e-01 7.932059e-01 9.051728e-01 1.147009e+00 1.235493e+00 9.636838e-01 1.013606e+00 1.180737e+00 1.019372e+00 7.338116e-01 4.746126e-01
<GCONST> 1.330511e+02
<MIXTURE> 3 2.428427e-01
<MEAN> 39
 1.254801e+01 7.832349e+00 -5.317150e+00 -1.359754e+01 -8.754524e+00 4.545738e+00 1.380163e+00 -2.969021e-01 -3.515366e+00 -2.175780e+00 6.045946e-01 7.845512e-02 -2.165219e+00 3.999533e-01 -1.483193e+00 -8.357428e-01 -2.278517e+00 -2.214813e-01 2.000287e+00 6.351223e-01 4.941733e-01 -7.359892e-02 5.045710e-01 9.440586e-01 4.971262e-01 1.874939e+00 -7.305513e-01 -8.380085e-01 -1.368239e-01 8.871353e-01 1.217083e+00 3.311143e-01 -1.443077e-01 -3.153992e-01 2.232739e-01 4.297582e-01 1.373799e-01 -3.435668e-02 6.695100e-02
<VARIANCE> 39
 6.942532e+00 1.913133e+01 1.940857e+01 2.743156e+01 2.833430e+01 2.982725e+01 3.224096e+01 3.319336e+01 3.524327e+01 2.938991e+01 2.125284e+01 2.283091e+01 9.599230e+00 6.206487e-01 1.650676e+00 1.861555e+00 2.976758e+00 3.741822e+00 3.359251e+00 2.957302e+00 3.202720e+00 3.866247e+00 4.219657e+00 2.608097e+00 2.553640e+00 8.369725e-01 2.910903e-01 2.550967e-01 2.456454e-01 5.008646e-01 3.892653e-01 4.629355e-01 6.232074e-01 5.740835e-01 6.525934e-01 6.038414e-01 4.438861e-01 4.653652e-01 2.590215e-01
<GCONST> 1.116779e+02
<MIXTURE> 4 2.910071e-01
<MEAN> 39
 1.144707e+01 8.659094e+00 -4.323814e+00 -8.677079e+00 -5.295171e+00 3.860717e+00 1.438546e+00 -3.087638e+00 -8.094287e+00 -4.275111e+00 -1.076668e+00 6.033717e-01 -3.451470e+00 1.791773e-01 5.222259e-01 1.499726e-01 -7.733411e-01 -1.270904e+00 -2.308320e-01 3.732944e-01 8.471492e-01 1.132178e+00 3.345408e-02 -4.997752e-01 -4.024364e-01 -1.325630e-01 -1.135815e-01 -6.495321e-01 7.488798e-02 1.677854e-01 3.357749e-01 -9.897047e-02 -7.394673e-01 -2.509899e-01 3.274898e-01 7.189155e-01 3.706488e-01 -1.039248e-01 4.872257e-01
<VARIANCE> 39
 8.067237e+00 1.801788e+01 1.465885e+01 2.762604e+01 2.920191e+01 2.600187e+01 3.558261e+01 3.092727e+01 2.738877e+01 3.104965e+01 2.748328e+01 2.166260e+01 1.417209e+01 2.722825e-01 9.636763e-01 9.133542e-01 1.948637e+00 2.396514e+00 1.926754e+00 1.972131e+00 2.677804e+00 2.901059e+00 2.437703e+00 2.531972e+00 1.945618e+00 6.536770e-01 5.265126e-02 2.278281e-01 1.961226e-01 2.555289e-01 3.532732e-01 3.755737e-01 4.513996e-01 4.099013e-01 4.141961e-01 5.651038e-01 4.461774e-01 4.009523e-01 1.111402e-01
<GCONST> 1.011466e+02
<STATE> 4
<NUMMIXES> 4
<MIXTURE> 1 1.533283e-01
<MEAN> 39
 1.184335e+01 -5.469425e-01 -6.535226e+00 -1.016428e+01 2.302849e-01 7.767565e+00 -7.232228e+00 -7.614203e+00 -6.996818e+00 6.130761e+00 5.110941e+00 -1.845191e-01 3.964835e+00 -8.129429e-01 -2.911017e+00 5.650262e-01 2.075615e+00 1.494166e+00 -1.987435e+00 -3.057689e+00 5.872971e-01 2.815131e+00 2.704673e+00 -1.036150e+00 -1.750679e+00 2.070328e+00 -4.711724e-01 9.664509e-02 7.995546e-01 8.382000e-01 -6.335598e-01 -1.406564e+00 5.566347e-01 1.273128e+00 7.612163e-01 -9.745000e-01 -1.149045e+00 -1.317153e-01 -2.320991e-01
<VARIANCE> 39
 7.914680e+00 1.919954e+01 2.828257e+01 3.663292e+01 3.245065e+01 3.694409e+01 3.645152e+01 3.893943e+01 4.279537e+01 5.379482e+01 4.631869e+01 2.898590e+01 1.415997e+01 4.537359e-01 1.447578e+00 1.495789e+00 3.120715e+00 2.598304e+00 3.225707e+00 3.432890e+00 3.079375e+00 2.864949e+00 3.813948e+00 3.662755e+00 2.174812e+00 7.059408e-01 1.151343e-01 2.726975e-01 3.578711e-01 4.317872e-01 6.090456e-01 5.149190e-01 6.152303e-01 5.192467e-01 6.679502e-01 7.257242e-01 5.697176e-01 5.155111e-01 2.003572e-01
<GCONST> 1.141220e+02
<MIXTURE> 2 4.151084e-01
<MEAN> 39
 1.182331e+01 9.120118e+00 -3.169476e+00 -1.471935e+01 -1.174590e+01 4.430095e+00 1.854460e+00 -1.219239e-01 -2.575229e+00 -2.692563e+00 -2.304539e-01 -9.524854e-01 -2.008826e+00 6.508362e-02 -1.100990e+00 -5.576149e-01 -1.595535e+00 -4.956693e-01 1.284877e+00 6.491634e-01 4.964721e-01 4.073338e-01 3.255721e-01 4.422533e-01 3.482747e-01 1.209540e+00 -1.240489e-01 -4.424009e-01 -2.540545e-01 2.536364e-01 6.796921e-01 3.095172e-01 7.897125e-02 -1.979252e-01 -2.254808e-01 4.155148e-02 1.720261e-01 1.379604e-01 1.787982e-01
<VARIANCE> 39
 5.676784e+00 1.108841e+01 2.539038e+01 2.252760e+01 2.924078e+01 3.444177e+01 3.087606e+01 3.276781e+01 3.696329e+01 2.582427e+01 2.380615e+01 2.031050e+01 7.214110e+00 1.887208e-01 1.037621e+00 1.069627e+00 1.341073e+00 2.040399e+00 1.624439e+00 1.691685e+00 1.954414e+00 2.241026e+00 2.130664e+00 1.699481e+00 1.426276e+00 4.469945e-01 3.906711e-02 1.041400e-01 1.428925e-01 1.986665e-01 2.579347e-01 2.424405e-01 2.755272e-01 2.895734e-01 3.112704e-01 3.335443e-01 3.327769e-01 2.521395e-01 5.616818e-02
<GCONST> 9.179983e+01
<MIXTURE> 3 3.328347e-01
<MEAN> 39
 1.250398e+01 3.998405e+00 -7.038598e+00 -1.383103e+01 -5.347371e+00 7.994933e+00 8.508555e-01 -1.796159e+00 -6.924537e+00 -1.170125e+00 2.988869e+00 2.281111e+00 1.171845e+00 -1.922746e-01 -2.270257e+00 -9.400371e-01 -1.156142e-01 1.821478e+00 1.365933e+00 -9.768396e-01 -8.117047e-01 -6.825477e-04 1.796733e+00 1.341090e+00 1.967236e-01 1.858462e+00 -3.639529e-01 -3.626089e-01 2.024525e-01 9.725346e-01 5.573429e-01 -6.545802e-01 -5.897676e-01 -6.990710e-02 7.441290e-01 4.210172e-01 -3.398194e-01 -6.052145e-01 -9.466179e-03
<VARIANCE> 39
 7.312191e+00 1.611890e+01 2.473430e+01 3.726794e+01 3.723822e+01 3.391886e+01 3.781888e+01 4.301184e+01 4.894180e+01 4.931377e+01 3.233301e+01 3.016648e+01 9.773486e+00 4.017372e-01 1.580584e+00 1.356369e+00 2.849278e+00 2.413051e+00 3.508298e+00 4.452592e+00 3.262219e+00 3.525216e+00 4.217502e+00 3.533060e+00 2.818305e+00 7.331815e-01 8.777471e-02 2.249034e-01 2.130531e-01 3.997260e-01 3.876722e-01 5.600186e-01 4.672310e-01 5.808809e-01 6.403488e-01 7.220879e-01 5.387439e-01 4.439147e-01 1.709868e-01
<GCONST> 1.119688e+02
<MIXTURE> 4 9.872850e-02
<MEAN> 39
 1.002123e+01 -3.480906e+00 -3.234640e+00 -5.083802e+00 9.364883e-01 -2.473064e+00 -1.055957e+01 -2.580239e+00 -3.996597e-01 6.384074e+00 -1.342106e+00 -3.044562e+00 5.083605e+00 -9.514164e-01 -1.242259e+00 1.621332e+00 9.690073e-01 -9.076855e-01 -2.065162e+00 1.359430e-01 2.287735e+00 1.001226e+00 -2.469093e-01 -1.270184e+00 1.749069e-01 1.355715e+00 -6.333377e-01 5.312520e-01 4.816009e-01 4.258078e-01 -3.727107e-01 3.892599e-02 1.130067e+00 4.404441e-02 -2.852821e-01 -8.918405e-01 2.813751e-02 4.149716e-01 -5.241528e-01
<VARIANCE> 39
 1.118938e+01 2.110243e+01 4.649781e+01 3.805897e+01 3.923648e+01 7.153533e+01 6.054173e+01 5.396831e+01 5.318310e+01 5.722587e+01 7.363256e+01 4.072536e+01 1.609295e+01 1.145228e+00 1.833752e+00 3.824493e+00 4.105053e+00 3.678121e+00 5.386100e+00 5.515471e+00 4.886490e+00 4.430140e+00 4.423837e+00 3.431573e+00 3.658768e+00 1.028239e+00 3.433029e-01 4.314910e-01 5.882437e-01 7.424929e-01 9.329028e-01 1.031101e+00 1.172436e+00 9.201569e-01 7.510394e-01 9.902014e-01 1.000648e+00 5.952389e-01 3.655508e-01
<GCONST> 1.302444e+02
<STATE> 5
<NUMMIXES> 4
<MIXTURE> 1 1.869580e-01
<MEAN> 39
 1.029101e+01 -5.125996e+00 -5.148922e+00 -5.681022e+00 1.917648e+00 7.557223e-01 -1.122493e+01 -2.800113e+00 1.179683e+00 9.176478e+00 -1.536898e+00 -4.743190e+00 6.730441e+00 -1.152561e+00 -1.925997e+00 1.730006e+00 2.275972e+00 -5.896667e-01 -3.486430e+00 -5.947734e-01 3.097223e+00 2.449611e+00 -8.607708e-01 -2.533978e+00 -3.633597e-01 1.421778e+00 -2.188983e-01 6.959383e-01 5.419776e-01 -3.333510e-02 -9.031796e-01 -2.111084e-01 1.319086e+00 4.467133e-01 -7.673918e-01 -1.400321e+00 8.552628e-02 7.505805e-01 -4.717824e-01
<VARIANCE> 39
 9.069309e+00 2.013482e+01 3.083174e+01 3.733396e+01 3.518369e+01 5.016320e+01 3.580916e+01 4.296392e+01 4.486351e+01 5.253449e+01 5.859557e+01 2.381676e+01 1.226622e+01 4.423018e-01 1.298946e+00 1.991046e+00 2.303327e+00 2.762229e+00 3.085160e+00 3.848223e+00 2.930967e+00 3.372639e+00 4.072626e+00 2.267711e+00 3.320522e+00 6.127411e-01 1.490222e-01 2.639686e-01 3.515500e-01 4.781277e-01 6.383679e-01 5.870713e-01 6.662290e-01 7.002459e-01 7.310914e-01 6.431230e-01 8.459782e-01 4.247912e-01 1.391169e-01
<GCONST> 1.154306e+02
<MIXTURE> 2 3.964620e-01
<MEAN> 39
 1.169127e+01 2.737229e+00 -7.263996e+00 -1.820246e+01 -7.735099e+00 1.023887e+01 4.649025e+00 3.012139e-01 -1.938194e+00 -1.011317e+00 1.860595e+00 8.075492e-01 2.386724e+00 -2.468359e-01 -1.845036e+00 -8.741799e-01 -3.617862e-01 1.532325e+00 1.632237e+00 5.725328e-01 -3.470644e-01 9.404295e-02 4.418724e-01 4.408191e-01 2.526155e-02 1.307889e+00 -7.537332e-02 -3.234354e-02 -1.654103e-02 6.045186e-01 4.545281e-01 -2.302428e-01 -2.784089e-01 -3.476242e-01 -4.854136e-02 7.451589e-02 3.973622e-02 -2.163723e-01 -9.814606e-02
<VARIANCE> 39
 5.529432e+00 1.714969e+01 2.748500e+01 2.416938e+01 3.738096e+01 3.658512e+01 3.433687e+01 3.738683e+01 3.299377e+01 3.385306e+01 2.526714e+01 2.538132e+01 7.189373e+00 2.200681e-01 1.039610e+00 7.512841e-01 1.562512e+00 1.711304e+00 1.758273e+00 1.834942e+00 2.035269e+00 2.000935e+00 1.845922e+00 1.882675e+00 1.626654e+00 4.136860e-01 3.261657e-02 1.175690e-01 1.281098e-01 2.150176e-01 2.498777e-01 2.826494e-01 2.672322e-01 2.652024e-01 3.132726e-01 3.138756e-01 2.583296e-01 2.678403e-01 3.716857e-02
<GCONST> 9.247311e+01
<MIXTURE> 3 2.927506e-01
<MEAN> 39
 1.147455e+01 -3.008153e+00 -1.012269e+01 -1.130084e+01 1.434818e+00 9.639679e+00 -1.255911e+00 -2.898797e+00 -3.427152e+00 2.879007e+00 4.190369e+00 -5.265703e-01 5.456860e+00 -4.939619e-01 -1.856967e+00 -4.285327e-01 1.397152e+00 1.868543e+00 -2.364349e-01 -1.183618e+00 -3.445417e-01 1.403872e+00 1.156846e+00 -2.687826e-01 -1.181401e+00 1.235071e+00 -9.387220e-02 2.878410e-01 2.948771e-01 3.764868e-01 -2.897365e-01 -6.491573e-01 -8.930618e-02 2.872897e-01 2.725505e-01 -3.090799e-01 -5.428129e-01 -2.218821e-01 -2.587304e-01
<VARIANCE> 39
 8.719276e+00 2.026022e+01 3.142919e+01 4.488153e+01 4.137550e+01 5.765508e+01 5.450157e+01 4.340816e+01 4.581095e+01 4.865744e+01 4.353864e+01 3.609118e+01 1.063216e+01 3.136979e-01 1.303178e+00 8.984218e-01 1.794097e+00 1.870649e+00 2.680922e+00 2.811902e+00 2.480199e+00 2.843654e+00 3.362183e+00 2.419730e+00 2.289502e+00 4.947468e-01 5.645591e-02 1.101876e-01 1.389919e-01 3.032961e-01 2.965273e-01 3.977778e-01 4.001583e-01 4.219477e-01 5.463280e-01 5.141481e-01 4.656771e-01 4.422825e-01 4.861122e-02
<GCONST> 1.054493e+02
<MIXTURE> 4 1.238293e-01
<MEAN> 39
 7.421772e+00 -5.732519e+00 2.133159e+00 -2.093195e+00 -3.558134e+00 -8.798490e+00 -7.078695e+00 4.026320e+00 -1.070465e+00 2.029978e+00 -5.477385e+00 1.811522e-01 7.495597e+00 -1.466383e+00 -1.640879e-01 2.783058e+00 6.893557e-01 -2.642984e+00 -1.438932e+00 2.668178e+00 1.519124e+00 -1.021249e+00 -1.938326e+00 1.543242e-01 1.118156e+00 7.484994e-01 -6.173626e-02 8.653786e-01 -2.078340e-01 -4.837705e-01 -1.069183e-02 1.080214e+00 6.271250e-01 -1.118157e+00 -5.951759e-01 -3.078423e-02 7.009599e-01 -5.237426e-02 -5.396773e-01
<VARIANCE> 39
 1.015716e+01 2.520003e+01 5.659323e+01 3.917070e+01 4.808540e+01 5.166786e+01 6.224760e+01 3.895991e+01 6.200088e+01 5.086012e+01 6.409929e+01 4.043291e+01 1.599269e+01 6.602540e-01 1.465096e+00 3.665789e+00 2.532243e+00 3.662919e+00 5.081990e+00 3.793916e+00 5.623943e+00 3.734958e+00 3.951112e+00 3.080745e+00 2.947405e+00 6.129338e-01 2.327020e-01 3.048892e-01 4.403426e-01 7.107910e-01 8.534242e-01 8.433400e-01 1.175216e+00 7.045314e-01 7.739803e-01 7.637484e-01 6.311720e-01 6.079856e-01 2.288624e-01
<GCONST> 1.245305e+02
<TRANSP> 6
 0.000000e+00 1.000000e+00 0.000000e+00 0.000000e+00 0.000000e+00 0.000000e+00
 0.000000e+00 4.576138e-01 5.423862e-01 0.000000e+00 0.000000e+00 0.000000e+00
 0.000000e+00 0.000000e+00 5.345234e-01 4.654766e-01 0.000000e+00 0.000000e+00
 0.000000e+00 0.000000e+00 0.000000e+00 4.831713e-01 5.168287e-01 0.000000e+00
 0.000000e+00 0.000000e+00 0.000000e+00 0.000000e+00 5.206382e-01 4.793618e-01
 0.000000e+00 0.000000e+00 0.000000e+00 0.000000e+00 0.000000e+00 0.000000e+00
<ENDHMM>
