~o
<STREAMINFO> 1 39
<VECSIZE> 39<NULLD><MFCC_D_A_Z_0><DIAGC>
~h "y"
<BEGINHMM>
<NUMSTATES> 6
<STATE> 2
<NUMMIXES> 4
<MIXTURE> 1 2.449799e-01
<MEAN> 39
 -4.099617e+00 1.106631e+01 1.548189e+01 -2.638932e+00 7.529134e-01 1.366305e-01 -6.670040e+00 -6.118788e+00 -4.035151e+00 -3.145857e+00 -3.375774e+00 -1.441008e+00 -4.387940e+00 -4.430325e-01 6.970002e-01 4.236338e-01 -4.918955e-01 5.368076e-01 9.228636e-02 -2.940792e-01 -3.933000e-02 1.980897e-02 -2.291213e-01 1.909541e-01 -8.521930e-02 7.524724e-02 4.919551e-01 -5.993632e-01 -2.327684e-01 -4.333491e-02 -6.423100e-01 -3.178223e-01 8.036371e-02 1.376088e-01 -1.357585e-01 3.554252e-01 2.908172e-02 1.642875e-01 4.561088e-01
<VARIANCE> 39
 1.605300e+01 2.418663e+01 3.220781e+01 3.931765e+01 4.079914e+01 3.567723e+01 2.968639e+01 4.714019e+01 2.984151e+01 3.461373e+01 2.648366e+01 3.045851e+01 1.880547e+01 2.073715e+00 2.986873e+00 2.906924e+00 2.898442e+00 6.948934e+00 2.767738e+00 2.798744e+00 3.406351e+00 2.927395e+00 3.155321e+00 2.185601e+00 2.004065e+00 2.860658e+00 3.011457e-01 3.454496e-01 7.233187e-01 6.271911e-01 8.565198e-01 8.037581e-01 7.224745e-01 9.054871e-01 6.084618e-01 6.126202e-01 4.009408e-01 4.517216e-01 2.644117e-01
<GCONST> 1.219177e+02
<MIXTURE> 2 3.253012e-01
<MEAN> 39
 1.324399e+00 2.886073e+00 1.696124e+01 -1.831589e+00 -9.158607e+00 -2.498716e+00 -3.659158e+00 -3.673990e+00 -9.201550e+00 -4.182854e-01 -3.530625e-01 -1.229554e+00 1.325997e+00 -9.048175e-01 1.346934e+00 2.141601e+00 -6.127599e-01 -2.115183e-02 1.673416e+00 -2.253996e-01 -1.235757e+00 -9.203379e-01 -1.895632e-01 -3.387941e-01 -4.344313e-01 -9.450482e-01 2.564177e-01 -2.330230e-01 -9.236211e-01 -1.255941e-01 5.856979e-01 -1.476705e-01 -2.958997e-01 2.449387e-01 7.999817e-01 1.305765e-01 -1.218471e-01 6.244039e-02 2.281044e-01
<VARIANCE> 39
 8.864506e+00 2.215125e+01 2.472132e+01 3.756995e+01 2.596663e+01 3.766173e+01 3.576947e+01 4.459072e+01 3.006868e+01 4.447314e+01 3.352991e+01 2.246995e+01 1.537905e+01 4.143364e-01 9.129305e-01 1.993403e+00 1.615750e+00 2.631911e+00 1.905427e+00 2.995009e+00 2.453829e+00 3.504756e+00 2.207443e+00 2.150310e+00 1.595158e+00 4.658968e-01 6.092928e-02 1.349523e-01 2.705464e-01 3.179188e-01 4.714063e-01 5.513459e-01 4.231428e-01 5.456406e-01 4.470062e-01 5.343718e-01 3.470956e-01 3.101379e-01 7.007825e-02
<GCONST> 1.045400e+02
<MIXTURE> 3 2.074967e-01
<MEAN> 39
 2.445311e-01 5.328299e+00 1.572923e+01 -9.934348e+00 -7.215462e+00 6.161584e-01 -6.039895e+00 -8.818501e+00 -6.521022e+00 1.080031e+00 -4.697064e+00 -3.003168e+00 1.703110e+00 5.038221e-01 -4.566922e-01 1.872012e+00 -1.838578e+00 -1.726653e+00 6.167336e-02 -6.287611e-01 1.177311e-01 -6.095385e-01 9.897672e-01 -1.581041e-01 -1.669114e-01 1.036825e+00 -2.868742e-02 -3.204733e-01 -8.619087e-01 9.085138e-01 2.207923e-01 -4.190707e-01 6.654130e-01 5.754164e-01 2.137339e-01 1.154534e-01 4.169315e-01 1.751880e-01 -1.400151e-01
<VARIANCE> 39
 9.745505e+00 2.159538e+01 2.514446e+01 3.988601e+01 2.805247e+01 5.078174e+01 3.437977e+01 3.425647e+01 3.682726e+01 3.654105e+01 4.482790e+01 2.468455e+01 1.560238e+01 3.600343e+00 3.150703e+00 3.648637e+00 4.984962e+00 6.363741e+00 5.531655e+00 4.761340e+00 4.114112e+00 4.449464e+00 4.979967e+00 4.036284e+00 3.072260e+00 2.412720e+00 5.040063e-01 3.243449e-01 3.815589e-01 6.507166e-01 9.227681e-01 9.566417e-01 6.452037e-01 9.655134e-01 6.965605e-01 5.965409e-01 7.394008e-01 4.088619e-01 2.480434e-01
<GCONST> 1.263225e+02
<MIXTURE> 4 2.222222e-01
<MEAN> 39
 2.082556e+00 -2.976304e-01 1.388017e+01 3.036983e+00 -8.862430e+00 -4.858506e+00 -3.313122e+00 -1.897009e+00 -6.590919e+00 -4.532850e+00 6.212227e-01 6.594449e-01 3.011488e+00 1.218104e+00 -8.847666e-01 1.167110e+00 6.476137e-01 -1.900111e+00 -1.419239e+00 -9.176785e-01 1.030979e+00 -1.393031e+00 -1.038016e+00 1.006781e+00 3.410442e-01 7.984757e-01 -1.316233e-01 -3.413629e-02 -9.639820e-01 -4.384782e-01 8.153803e-01 5.485575e-01 -1.063612e-01 1.841759e-01 6.178437e-01 3.403369e-01 -3.335083e-02 -3.138808e-02 -2.363257e-01
<VARIANCE> 39
 2.209442e+01 1.881629e+01 4.297822e+01 4.098513e+01 3.725366e+01 3.879416e+01 3.561281e+01 4.332854e+01 3.938182e+01 3.984506e+01 3.109135e+01 2.508951e+01 1.851529e+01 6.148388e+00 4.133276e+00 1.027534e+01 3.646683e+00 4.520699e+00 8.087895e+00 6.479150e+00 6.364155e+00 7.795034e+00 6.019069e+00 3.626575e+00 2.603706e+00 3.308143e+00 7.052823e-01 3.610463e-01 5.407356e-01 6.754006e-01 7.811428e-01 9.211162e-01 9.623291e-01 9.792314e-01 8.639669e-01 8.245935e-01 4.964385e-01 5.052124e-01 2.247337e-01
<GCONST> 1.322234e+02
<STATE> 3
<NUMMIXES> 4
<MIXTURE> 1 3.279530e-01
<MEAN> 39
 -2.228533e+00 1.148512e+01 1.698572e+01 -5.783736e+00 -1.280127e+00 -1.035492e+00 -7.161788e+00 -8.093709e+00 -6.085395e+00 -7.676564e-01 -4.093785e+00 -5.679122e-01 -2.836289e+00 -1.091465e-01 1.601919e-01 1.997727e-01 -3.495107e-01 1.375638e-02 1.380881e-01 -4.586942e-01 -8.807996e-02 1.618238e-01 -1.819014e-01 2.131486e-01 8.812387e-02 2.015000e-01 2.405526e-01 -5.366748e-01 -1.743972e-01 6.388240e-02 -6.298324e-01 -1.075027e-01 1.330626e-01 1.784337e-01 4.449690e-02 1.198050e-01 2.156927e-01 4.514777e-02 4.091998e-01
<VARIANCE> 39
 7.070199e+00 1.259177e+01 1.111930e+01 3.215812e+01 3.042548e+01 2.150052e+01 2.851063e+01 2.938931e+01 2.750798e+01 2.435812e+01 2.878543e+01 2.371407e+01 1.054285e+01 4.374166e-01 1.000826e+00 9.298049e-01 1.165127e+00 2.789485e+00 1.536744e+00 1.627788e+00 1.302461e+00 1.532272e+00 1.465192e+00 1.400118e+00 1.054604e+00 7.968443e-01 7.277175e-02 1.111756e-01 2.263178e-01 2.574957e-01 2.869947e-01 3.608893e-01 3.369899e-01 3.409639e-01 3.867078e-01 2.945586e-01 2.940789e-01 2.137446e-01 9.788582e-02
<GCONST> 9.372685e+01
<MIXTURE> 2 2.831988e-01
<MEAN> 39
 1.245763e-01 2.868244e+00 2.101175e+01 -2.051123e+00 -9.062387e+00 4.300666e-01 -5.138019e+00 -2.404004e+00 -1.072524e+01 -2.317626e+00 1.011856e+00 -2.460299e+00 9.543419e-01 -1.320082e-01 2.164766e-01 2.459369e-01 -9.928651e-02 -9.640823e-02 1.875354e-01 -8.646365e-02 -3.166337e-01 2.158507e-02 -1.798906e-02 -8.907290e-02 1.960258e-01 1.802566e-02 2.045354e-01 -3.399202e-01 -5.284829e-01 1.816808e-01 -1.074441e-01 -5.186353e-01 1.058230e-01 1.752965e-01 1.876609e-01 1.448580e-01 1.039208e-01 1.796996e-01 3.119934e-01
<VARIANCE> 39
 8.277802e+00 1.507126e+01 2.294714e+01 3.394430e+01 2.188756e+01 3.418460e+01 2.835073e+01 4.483201e+01 2.523794e+01 4.351402e+01 3.006439e+01 1.993330e+01 1.238294e+01 1.501638e-01 3.280158e-01 5.539021e-01 7.634352e-01 8.983383e-01 1.064300e+00 9.507435e-01 8.680967e-01 9.612533e-01 9.089158e-01 7.869667e-01 9.030333e-01 3.194792e-01 3.428976e-02 7.085107e-02 1.265139e-01 1.516245e-01 1.847136e-01 2.068938e-01 2.384633e-01 2.154391e-01 2.470056e-01 2.639670e-01 1.986410e-01 1.677958e-01 4.675161e-02
<GCONST> 8.171292e+01
<MIXTURE> 3 1.489362e-01
<MEAN> 39
 4.339952e+00 -3.445219e+00 1.280900e+01 3.944267e+00 -1.154584e+01 -7.328704e+00 -4.935725e+00 1.589540e+00 -7.793598e+00 -6.302231e+00 3.629280e+00 1.648950e+00 5.591718e+00 1.689382e+00 -1.788206e+00 -1.853176e+00 3.634131e-01 4.834824e-02 -1.544488e+00 -1.855206e+00 2.240773e+00 8.241060e-01 -4.247612e-01 6.355524e-01 5.241565e-01 1.029719e+00 -4.511854e-01 2.251380e-01 -7.968626e-01 -3.002335e-01 1.135260e+00 6.393927e-01 1.273478e-01 -1.678865e-01 8.886163e-01 4.561352e-01 -5.298921e-01 -1.108022e-01 -4.106206e-01
<VARIANCE> 39
 1.250653e+01 1.571839e+01 5.114928e+01 4.005547e+01 4.161969e+01 4.183414e+01 3.823685e+01 3.117462e+01 4.998221e+01 4.693685e+01 2.624407e+01 2.221826e+01 1.436255e+01 1.968194e+00 1.619753e+00 4.209517e+00 2.376879e+00 3.509790e+00 5.165324e+00 5.496519e+00 4.340930e+00 5.009993e+00 3.060930e+00 3.053390e+00 1.991349e+00 8.309481e-01 4.736874e-01 2.964825e-01 5.907401e-01 4.540314e-01 6.705334e-01 8.986737e-01 9.460049e-01 7.786810e-01 7.957541e-01 9.095939e-01 4.678792e-01 3.928290e-01 1.662820e-01
<GCONST> 1.219024e+02
<MIXTURE> 4 2.399120e-01
<MEAN> 39
 -8.455519e-02 3.237231e+00 1.746742e+01 -7.669776e+00 -1.005658e+01 -6.227133e-01 -4.164546e+00 -7.440933e+00 -6.476717e+00 1.547188e+00 -2.705227e+00 -2.244284e+00 3.248084e+00 9.990634e-01 -1.887977e+00 6.135763e-02 4.312055e-01 -2.077207e+00 -1.255285e+00 1.101295e+00 1.085329e+00 -7.090699e-01 1.523059e+00 7.342276e-01 8.124931e-02 1.254600e+00 3.661583e-02 -2.164096e-01 -1.019254e+00 8.255424e-01 6.947590e-01 -5.170534e-01 3.213260e-01 6.918319e-01 1.768742e-01 -2.076051e-01 2.777265e-01 1.244216e-01 -1.969315e-01
<VARIANCE> 39
 1.227291e+01 2.115186e+01 2.503623e+01 5.132318e+01 2.645317e+01 4.927167e+01 3.735200e+01 3.101147e+01 3.686757e+01 4.868206e+01 3.806609e+01 3.045647e+01 1.374492e+01 1.241902e+00 1.711974e+00 2.454597e+00 3.037116e+00 2.908095e+00 4.258903e+00 3.407591e+00 3.562621e+00 3.541278e+00 4.017687e+00 2.309185e+00 1.938040e+00 8.821427e-01 4.434690e-01 2.725010e-01 4.880925e-01 6.301016e-01 6.780432e-01 8.875826e-01 6.877819e-01 7.222660e-01 6.802437e-01 7.272699e-01 5.770419e-01 4.737240e-01 1.578107e-01
<GCONST> 1.192488e+02
<STATE> 4
<NUMMIXES> 4
<MIXTURE> 1 3.266850e-01
<MEAN> 39
 -1.085449e+00 1.000986e+01 1.745341e+01 -9.606421e+00 -4.628905e+00 -6.525341e-01 -1.010207e+01 -7.972447e+00 -5.351550e+00 8.564305e-01 -3.450475e+00 -1.132029e-01 -2.467576e-01 2.695918e-01 -6.869074e-01 1.764991e-01 -3.352481e-01 -9.798494e-01 1.874663e-01 2.734246e-02 -1.746625e-01 4.720194e-01 3.832794e-01 1.147245e-01 5.199316e-01 7.487848e-01 3.798509e-02 -1.934258e-01 -6.237569e-02 1.827969e-01 -1.677856e-01 -6.191393e-02 2.511542e-01 -8.867557e-02 7.345682e-02 1.132620e-01 -2.825848e-02 2.694756e-02 4.050830e-02
<VARIANCE> 39
 4.854412e+00 1.285364e+01 1.268794e+01 1.997974e+01 2.078662e+01 2.128045e+01 2.263637e+01 1.951181e+01 2.649712e+01 2.159582e+01 1.953837e+01 1.993228e+01 8.718000e+00 2.609200e-01 5.467324e-01 4.945540e-01 8.575699e-01 1.345830e+00 8.768516e-01 1.187767e+00 1.268168e+00 1.224591e+00 8.835832e-01 9.325222e-01 7.079753e-01 2.934890e-01 2.967865e-02 7.060839e-02 8.178525e-02 1.192635e-01 1.859504e-01 1.350468e-01 1.800435e-01 1.833781e-01 1.746763e-01 1.541642e-01 1.425019e-01 1.462364e-01 4.191959e-02
<GCONST> 7.566560e+01
<MIXTURE> 2 3.617606e-01
<MEAN> 39
 3.048697e-01 2.972739e+00 1.932954e+01 -2.496631e+00 -1.051750e+01 6.841218e-01 -5.536968e+00 -4.059305e+00 -7.721464e+00 -2.847964e+00 4.216478e-01 -6.235834e-01 2.879045e+00 3.874874e-01 -9.292874e-01 -3.245995e-01 4.870684e-01 -1.155449e+00 -6.526281e-01 5.567382e-01 1.342471e-01 -1.259356e-01 5.529185e-01 3.941227e-01 1.241710e-01 7.584242e-01 8.057638e-02 -1.662111e-01 -4.614689e-01 2.580169e-01 2.382804e-01 -4.902628e-01 2.873590e-01 2.276301e-01 1.005285e-02 7.157338e-02 4.023340e-02 6.765611e-03 3.697853e-03
<VARIANCE> 39
 9.324759e+00 1.765775e+01 2.641256e+01 5.205196e+01 2.484303e+01 3.298071e+01 2.884914e+01 4.173465e+01 3.690757e+01 5.259621e+01 2.861354e+01 2.396161e+01 1.167374e+01 4.251539e-01 7.564487e-01 9.343014e-01 1.149664e+00 1.425815e+00 2.154262e+00 2.034771e+00 1.855416e+00 1.881854e+00 2.068219e+00 1.288945e+00 1.078849e+00 4.750605e-01 9.364031e-02 1.356649e-01 2.064782e-01 2.415965e-01 3.240795e-01 3.266535e-01 3.214141e-01 3.547192e-01 3.419125e-01 3.282278e-01 2.839648e-01 2.294075e-01 7.936375e-02
<GCONST> 9.746681e+01
<MIXTURE> 3 1.148556e-01
<MEAN> 39
 6.285776e+00 -5.151016e+00 7.143253e+00 4.883094e+00 -8.405128e+00 -1.061324e+01 -8.025018e+00 4.956140e+00 -3.008170e+00 -6.166975e+00 3.056779e+00 3.316035e+00 6.760160e+00 1.623846e+00 -1.190190e+00 -3.299778e+00 -2.032669e-01 2.142553e+00 -6.481250e-01 -2.119567e+00 1.348384e+00 2.263164e+00 1.892569e-01 -6.155311e-01 2.453130e-01 5.286999e-01 -3.993020e-01 5.474862e-01 -4.198345e-02 -5.541638e-01 7.170817e-01 1.127916e+00 2.796801e-01 -8.854498e-01 1.371660e-01 5.941381e-01 -4.596439e-01 -3.761937e-01 -4.927969e-01
<VARIANCE> 39
 1.404632e+01 1.626240e+01 4.547258e+01 4.308578e+01 4.167518e+01 4.206188e+01 5.828589e+01 2.925785e+01 5.272509e+01 5.396757e+01 3.505272e+01 2.878311e+01 1.314614e+01 1.286106e+00 1.412709e+00 3.242090e+00 1.460006e+00 3.191387e+00 4.826551e+00 5.513408e+00 4.439580e+00 3.468719e+00 3.912662e+00 2.850674e+00 2.787685e+00 5.894506e-01 3.220310e-01 2.927918e-01 4.781244e-01 6.104193e-01 6.172687e-01 9.643625e-01 1.025529e+00 6.543347e-01 8.465469e-01 8.293138e-01 7.196257e-01 4.796279e-01 1.599647e-01
<GCONST> 1.215210e+02
<MIXTURE> 4 1.966988e-01
<MEAN> 39
 2.656810e+00 -2.290510e+00 1.509713e+01 -3.133745e+00 -1.267405e+01 -6.177159e+00 2.129530e-01 -2.745581e+00 -9.567896e+00 3.774184e+00 6.546637e-01 -2.490892e+00 5.803672e+00 1.425130e+00 -1.970919e+00 -2.311986e+00 1.756097e+00 7.613673e-02 -2.873445e+00 6.290999e-01 3.179807e+00 -1.149059e-01 -2.671651e-01 1.136461e+00 6.917030e-01 9.055878e-01 3.993344e-03 2.706319e-01 -9.117413e-01 1.349018e-01 1.157905e+00 8.155883e-02 -6.821157e-01 3.579864e-01 7.758164e-01 -7.231939e-01 -2.570949e-01 2.016306e-01 -2.982583e-01
<VARIANCE> 39
 1.034349e+01 1.783852e+01 2.669444e+01 4.897725e+01 2.078654e+01 4.542928e+01 3.964003e+01 4.040030e+01 4.523553e+01 5.060293e+01 3.680026e+01 2.713005e+01 1.459980e+01 8.766872e-01 1.231000e+00 2.031113e+00 2.357604e+00 3.008969e+00 4.322984e+00 4.055402e+00 3.224034e+00 3.555319e+00 4.198264e+00 2.801124e+00 2.595256e+00 6.280056e-01 1.848911e-01 2.055971e-01 2.963487e-01 4.840827e-01 4.555708e-01 6.183788e-01 6.184538e-01 6.468390e-01 6.893778e-01 6.196004e-01 5.594851e-01 4.137956e-01 1.053814e-01
<GCONST> 1.146647e+02
<STATE> 5
<NUMMIXES> 4
<MIXTURE> 1 3.918844e-01
<MEAN> 39
 4.666421e-01 4.981906e+00 1.756280e+01 -5.283282e+00 -1.060387e+01 -6.705008e-01 -5.509900e+00 -7.996239e+00 -5.501393e+00 2.121973e+00 -2.196571e+00 8.250484e-01 2.156669e+00 3.302723e-01 -8.018461e-01 -3.157100e-01 2.711801e-01 -7.808481e-01 -5.185807e-01 7.515418e-01 5.484881e-02 -1.847543e-02 5.879424e-01 3.118291e-01 -3.871170e-02 5.147791e-01 5.110841e-02 -7.601731e-02 -1.260062e-01 1.399983e-01 3.781031e-02 -1.562092e-01 1.385754e-01 1.758225e-01 -1.052530e-01 -4.693020e-03 1.179738e-01 -9.338546e-02 -5.763940e-02
<VARIANCE> 39
 4.925123e+00 1.322643e+01 1.469845e+01 3.507164e+01 1.925686e+01 2.079993e+01 2.605833e+01 2.890717e+01 2.933596e+01 3.453238e+01 2.844193e+01 1.755618e+01 7.101420e+00 1.292680e-01 3.652239e-01 3.747752e-01 5.182500e-01 5.632814e-01 7.699662e-01 9.803955e-01 1.051119e+00 8.184640e-01 7.582557e-01 7.894117e-01 7.398919e-01 1.575970e-01 2.107420e-02 4.200251e-02 5.838061e-02 7.942466e-02 9.989754e-02 1.188404e-01 1.234353e-01 1.553813e-01 1.332025e-01 1.367227e-01 1.357187e-01 1.252780e-01 2.163981e-02
<GCONST> 6.874655e+01
<MIXTURE> 2 3.018343e-01
<MEAN> 39
 2.624609e+00 -1.164824e+00 1.658149e+01 4.088319e-01 -1.253865e+01 -4.925094e+00 -2.165528e+00 -1.469807e+00 -9.790573e+00 -1.460722e+00 3.214110e+00 -5.467249e-01 4.297581e+00 6.125451e-01 -9.658965e-01 -1.256415e+00 8.566220e-01 -1.400015e-02 -1.804695e+00 3.020981e-01 1.235246e+00 7.742498e-02 -5.856517e-02 7.235271e-01 3.823732e-01 3.994609e-01 6.664499e-02 5.918185e-02 -3.130036e-01 2.660168e-02 4.135443e-01 -1.077507e-01 -2.646699e-01 2.666206e-01 2.838431e-01 -2.264580e-01 -1.192804e-01 1.653364e-01 -1.145883e-01
<VARIANCE> 39
 6.869045e+00 1.306641e+01 2.484987e+01 3.677405e+01 2.391530e+01 3.472696e+01 3.088996e+01 3.713889e+01 3.153770e+01 5.396915e+01 2.556254e+01 2.260689e+01 1.087306e+01 2.613257e-01 6.733381e-01 7.998304e-01 8.217821e-01 1.172040e+00 1.529993e+00 1.735307e+00 1.613655e+00 1.588639e+00 1.411083e+00 1.301846e+00 1.193580e+00 2.872472e-01 4.273030e-02 9.064186e-02 1.472907e-01 1.405907e-01 2.038410e-01 2.314246e-01 2.702551e-01 2.609684e-01 2.439123e-01 2.374960e-01 1.942522e-01 1.593094e-01 3.097159e-02
<GCONST> 8.746610e+01
<MIXTURE> 3 1.461923e-01
<MEAN> 39
 5.762719e+00 -4.458267e+00 6.093568e+00 -4.185969e+00 -7.329603e+00 -5.571198e+00 -4.149143e+00 1.097124e+00 -3.302724e+00 1.851900e+00 9.821602e-02 -4.019424e-01 8.084984e+00 8.410516e-01 -8.162935e-01 -2.164567e+00 -1.595802e-01 1.081487e+00 5.762208e-01 2.993409e-01 6.558987e-01 3.498827e-01 1.356100e-01 6.700134e-02 -2.518708e-01 2.963853e-01 -2.111342e-01 4.573771e-01 3.090009e-02 5.889364e-02 2.540300e-01 2.793446e-01 4.949819e-02 -3.722579e-01 -5.471979e-02 -3.969786e-01 -1.281139e-03 1.053115e-02 -3.622471e-01
<VARIANCE> 39
 2.289765e+01 3.614852e+01 9.249718e+01 5.083950e+01 5.506345e+01 5.716024e+01 8.698103e+01 5.861391e+01 9.283002e+01 5.439259e+01 3.591194e+01 2.785463e+01 2.224015e+01 7.695156e-01 2.311127e+00 3.056526e+00 4.726052e+00 4.118729e+00 7.257429e+00 4.251238e+00 7.111958e+00 3.775233e+00 4.934214e+00 3.222290e+00 2.635468e+00 7.954493e-01 1.847390e-01 3.247309e-01 5.700076e-01 3.833445e-01 9.670905e-01 9.294661e-01 1.240049e+00 7.863342e-01 1.083315e+00 9.400849e-01 6.364471e-01 3.875931e-01 1.908935e-01
<GCONST> 1.293635e+02
<MIXTURE> 4 1.600889e-01
<MEAN> 39
 7.202367e+00 -5.650828e+00 6.752265e+00 4.194014e+00 -7.357274e+00 -1.311071e+01 -6.625074e+00 6.063008e+00 -5.028197e+00 -5.054773e+00 2.423422e+00 2.324237e+00 5.883061e+00 1.378807e+00 -6.724262e-01 -3.321092e+00 1.248269e-01 2.496197e+00 -7.876138e-01 -2.006272e+00 1.286475e+00 2.476134e+00 2.366080e-02 -8.838945e-01 4.015661e-01 1.258367e-01 -2.065224e-01 4.889178e-01 6.604411e-02 -4.197080e-01 2.323887e-01 1.068023e+00 -5.622410e-02 -8.956138e-01 4.068740e-02 5.147479e-01 -2.664510e-01 -3.610390e-01 -2.822391e-01
<VARIANCE> 39
 1.080056e+01 2.081282e+01 3.341612e+01 2.785355e+01 3.315434e+01 3.437404e+01 5.599396e+01 3.841251e+01 4.371715e+01 4.421495e+01 3.093461e+01 2.183983e+01 1.282377e+01 5.608265e-01 9.651368e-01 1.709105e+00 1.946739e+00 1.963352e+00 3.149067e+00 2.644732e+00 4.562700e+00 2.207117e+00 3.675640e+00 1.445879e+00 1.958082e+00 4.078331e-01 1.247905e-01 1.412403e-01 3.438564e-01 3.704682e-01 4.439496e-01 4.593318e-01 7.631549e-01 4.467647e-01 6.169096e-01 3.952366e-01 5.155575e-01 3.215548e-01 5.713784e-02
<GCONST> 1.075763e+02
<TRANSP> 6
 0.000000e+00 1.000000e+00 0.000000e+00 0.000000e+00 0.000000e+00 0.000000e+00
 0.000000e+00 4.886211e-01 5.113788e-01 0.000000e+00 0.000000e+00 0.000000e+00
 0.000000e+00 0.000000e+00 4.394718e-01 5.605282e-01 0.000000e+00 0.000000e+00
 0.000000e+00 0.000000e+00 0.000000e+00 4.745530e-01 5.254471e-01 0.000000e+00
 0.000000e+00 0.000000e+00 0.000000e+00 0.000000e+00 5.753196e-01 4.246804e-01
 0.000000e+00 0.000000e+00 0.000000e+00 0.000000e+00 0.000000e+00 0.000000e+00
<ENDHMM>
