~o
<STREAMINFO> 1 39
<VECSIZE> 39<NULLD><MFCC_D_A_Z_0><DIAGC>
~h "b"
<BEGINHMM>
<NUMSTATES> 6
<STATE> 2
<NUMMIXES> 8
<MIXTURE> 1 6.414984e-02
<MEAN> 39
 3.805726e+00 1.820827e+00 8.610775e-02 -3.313099e-01 -2.470644e+00 -5.351287e+00 -5.372206e+00 -3.845655e+00 2.389212e+00 5.624332e+00 5.346715e+00 4.293651e+00 -4.844585e+00 -7.569138e-02 -2.815092e-01 -1.772614e-01 -1.205329e-01 -1.316382e-01 7.695388e-03 3.127331e-01 5.826944e-01 6.837710e-01 7.490541e-02 -2.785925e-01 -1.590819e-01 8.180304e-01 -1.381843e-01 -3.136781e-01 6.915882e-03 -7.548331e-02 1.445052e-01 2.473308e-01 3.920080e-01 4.918531e-01 5.576359e-04 -3.046343e-01 -2.693516e-01 -1.435770e-02 6.509125e-01
<VARIANCE> 39
 1.893571e+01 2.501043e+01 3.678642e+01 3.322543e+01 5.041824e+01 4.582754e+01 5.100727e+01 6.493931e+01 7.474751e+01 6.656670e+01 6.868604e+01 7.443211e+01 5.204429e+01 1.379347e+00 1.875491e+00 2.498113e+00 2.785240e+00 3.208946e+00 3.608227e+00 3.936436e+00 5.076331e+00 4.878290e+00 4.600662e+00 4.487012e+00 4.581072e+00 3.260999e+00 2.652133e-01 3.894328e-01 4.777471e-01 5.581218e-01 6.831808e-01 7.467770e-01 7.815232e-01 1.081572e+00 9.963712e-01 9.236384e-01 8.098486e-01 9.278793e-01 7.598056e-01
<GCONST> 1.323743e+02
<MIXTURE> 2 1.169177e-01
<MEAN> 39
 7.768496e+00 6.532312e+00 6.210040e+00 3.078835e+00 2.359054e+00 -4.083119e+00 -3.757618e+00 -7.825451e+00 -3.880876e+00 -3.290745e+00 -5.863142e+00 -7.104722e+00 -7.735634e+00 3.200011e-01 9.843974e-01 5.126532e-01 6.036666e-01 1.760330e-01 -6.005509e-03 -3.887625e-03 -5.818374e-01 -3.008257e-01 -2.939483e-01 -3.317403e-01 -5.748001e-01 -3.317684e-01 -5.614187e-01 -3.938006e-01 -3.828025e-01 -4.381987e-02 -1.786133e-01 2.131858e-01 1.798699e-01 4.852496e-01 3.107150e-01 3.054105e-01 3.760335e-01 4.792587e-01 4.301194e-01
<VARIANCE> 39
 4.172157e+01 3.854179e+01 4.963306e+01 5.107710e+01 6.337992e+01 5.338420e+01 5.775974e+01 5.978788e+01 5.843678e+01 6.028996e+01 6.796709e+01 5.748059e+01 3.729650e+01 3.538921e+00 2.207843e+00 2.869652e+00 3.281700e+00 3.818760e+00 3.865913e+00 4.104450e+00 4.402985e+00 4.240691e+00 4.002728e+00 4.034934e+00 3.931622e+00 3.735862e+00 3.686615e-01 4.677086e-01 5.419824e-01 6.152732e-01 8.010782e-01 7.121077e-01 8.261454e-01 8.357677e-01 8.461462e-01 7.933179e-01 7.699299e-01 7.421675e-01 6.951152e-01
<GCONST> 1.349172e+02
<MIXTURE> 3 1.051995e-01
<MEAN> 39
 -4.843312e+00 3.777027e+00 1.471045e+00 6.421558e+00 5.083342e+00 2.926594e+00 3.376428e+00 -9.070690e-01 9.555045e-01 8.606113e-02 -6.371083e-01 -1.851608e+00 -1.466132e+01 7.652140e-01 -5.257151e-01 -5.416631e-02 -6.005381e-01 -9.752904e-01 -9.989707e-01 -4.117177e-01 3.217542e-01 6.310110e-01 6.918609e-01 5.635809e-01 5.762546e-01 2.754178e+00 8.041851e-01 -3.271350e-01 -7.549302e-02 -6.348665e-01 -7.123913e-01 -7.086490e-01 -6.093685e-01 -1.679228e-02 3.147896e-02 6.897461e-02 1.527421e-02 1.373573e-01 1.425258e+00
<VARIANCE> 39
 1.767111e+01 2.015470e+01 2.382425e+01 2.714743e+01 3.481415e+01 3.073216e+01 3.093628e+01 3.218842e+01 3.286519e+01 3.091994e+01 3.375333e+01 3.797348e+01 3.442084e+01 3.363277e+00 3.011448e+00 2.760812e+00 2.901342e+00 3.457559e+00 3.802747e+00 4.003886e+00 3.741677e+00 3.301905e+00 3.160519e+00 3.178789e+00 2.988088e+00 5.419434e+00 2.843557e-01 3.425496e-01 5.039003e-01 5.368884e-01 6.108460e-01 6.414706e-01 6.609574e-01 7.069989e-01 6.826884e-01 6.660679e-01 7.227249e-01 7.492094e-01 4.802173e-01
<GCONST> 1.240184e+02
<MIXTURE> 4 1.918190e-01
<MEAN> 39
 1.414026e+00 3.840938e+00 2.727333e+00 2.877365e+00 2.197141e-01 -1.474240e+00 -1.284619e+00 -3.186495e+00 -2.266059e+00 -9.986026e-01 -1.936391e+00 -3.036881e+00 -5.666122e+00 2.739218e-02 1.158200e-01 1.781999e-02 8.564429e-02 4.480516e-02 5.502370e-02 2.507680e-02 -5.802049e-02 -4.141393e-02 -3.880133e-02 -4.958116e-02 -6.656925e-02 -1.855269e-01 -2.324626e-02 -3.708611e-02 -1.685144e-03 2.109973e-02 6.552717e-02 7.211477e-02 6.894577e-02 7.650640e-02 5.349138e-02 9.326032e-03 2.174302e-02 3.936477e-02 2.387843e-02
<VARIANCE> 39
 4.356151e+01 4.692152e+01 4.722302e+01 5.058790e+01 6.275841e+01 4.678638e+01 5.234838e+01 6.223267e+01 5.455288e+01 5.325812e+01 6.187896e+01 5.365895e+01 9.494650e+01 2.611980e-01 4.785438e-01 6.416754e-01 8.817383e-01 1.143476e+00 1.289127e+00 1.459206e+00 1.592268e+00 1.599053e+00 1.602463e+00 1.534524e+00 1.467336e+00 2.255981e-01 4.374778e-02 8.198608e-02 1.146811e-01 1.611828e-01 2.108529e-01 2.346656e-01 2.688753e-01 3.076175e-01 3.100015e-01 3.062431e-01 2.883202e-01 2.749908e-01 3.672175e-02
<GCONST> 9.931973e+01
<MIXTURE> 5 1.129428e-01
<MEAN> 39
 5.034192e+00 9.935358e+00 5.578158e+00 6.461469e+00 3.027678e+00 -9.147007e-01 -1.783094e+00 -6.813983e+00 -3.688242e+00 -2.267711e+00 -3.980832e+00 -5.477697e+00 -9.640120e+00 -6.402032e-01 -5.437557e-01 -1.876416e-01 1.740734e-01 1.969739e-01 1.410703e-01 2.389056e-01 4.565659e-01 4.196472e-01 2.185121e-01 3.578615e-01 5.452093e-01 4.513030e-01 -7.143167e-02 -1.026652e+00 -4.266646e-01 -6.129850e-01 -5.619298e-01 -3.413681e-01 -2.032300e-01 5.010310e-01 4.869497e-01 3.286567e-01 3.156652e-01 4.279695e-01 1.190873e+00
<VARIANCE> 39
 1.897892e+01 2.357848e+01 2.707938e+01 2.743322e+01 4.517473e+01 3.778053e+01 3.751456e+01 4.248817e+01 3.827595e+01 4.312043e+01 4.375179e+01 4.457449e+01 2.581975e+01 1.197928e+00 1.743805e+00 1.458702e+00 1.636262e+00 1.949230e+00 2.189940e+00 2.368576e+00 2.423800e+00 2.576716e+00 2.369066e+00 2.269997e+00 2.072307e+00 1.750572e+00 2.425100e-01 3.070126e-01 4.786250e-01 4.721934e-01 6.619627e-01 6.594865e-01 6.920929e-01 7.821470e-01 7.582333e-01 7.198610e-01 6.073628e-01 6.178654e-01 3.076669e-01
<GCONST> 1.178746e+02
<MIXTURE> 6 2.444042e-01
<MEAN> 39
 -3.557320e+00 3.036494e+00 1.874211e+00 6.666425e+00 5.708584e+00 2.294466e+00 2.913863e+00 -5.451393e-01 5.724999e-01 -6.324863e-01 -4.581226e-01 -1.592386e+00 -1.336688e+01 -6.589870e-02 3.697535e-01 8.592807e-02 1.240967e-01 1.169436e-01 2.141431e-01 1.715810e-01 -1.328421e-01 2.445115e-02 2.445001e-01 1.906401e-02 -7.107783e-02 -5.046822e-01 5.367294e-02 -8.976942e-02 -1.463169e-02 -1.369405e-01 -1.905088e-01 -1.924744e-01 -1.246709e-01 7.018918e-03 2.765328e-02 3.825306e-02 5.318070e-02 6.679609e-02 3.299373e-01
<VARIANCE> 39
 2.896282e+01 3.095268e+01 2.419844e+01 2.514337e+01 2.855358e+01 3.022410e+01 3.132839e+01 2.982659e+01 3.026912e+01 3.143551e+01 3.182942e+01 3.692048e+01 3.485904e+01 5.399131e-01 9.048756e-01 8.924546e-01 1.058020e+00 1.328269e+00 1.491093e+00 1.667117e+00 1.826159e+00 1.844190e+00 1.848467e+00 1.675812e+00 1.539957e+00 7.243986e-01 1.474401e-01 1.907375e-01 1.979102e-01 2.299785e-01 2.913957e-01 3.221209e-01 3.597389e-01 3.713360e-01 3.809181e-01 3.741799e-01 3.452463e-01 3.227684e-01 1.943474e-01
<GCONST> 1.020200e+02
<MIXTURE> 7 1.002367e-01
<MEAN> 39
 -6.043326e+00 -6.670530e-01 -1.532496e-01 3.590646e+00 3.750842e+00 1.161550e+00 2.802579e+00 1.729622e+00 2.740715e+00 2.251984e+00 2.183620e+00 1.301836e+00 -8.396391e+00 1.081289e+00 7.382486e-01 7.639651e-01 1.854482e-01 -4.823591e-01 -6.898046e-01 -7.846397e-01 -7.894390e-01 -5.340598e-01 -2.574167e-01 -4.016197e-01 -3.263385e-01 1.177097e+00 6.502238e-01 3.818695e-01 2.785302e-01 3.334295e-03 -2.254011e-01 -2.556036e-01 -3.901942e-01 -4.285360e-01 -3.794504e-01 -2.831042e-01 -3.035099e-01 -2.916203e-01 2.901491e-01
<VARIANCE> 39
 2.657058e+01 3.169350e+01 2.947316e+01 3.022172e+01 3.514971e+01 3.398216e+01 3.318535e+01 3.440024e+01 3.355066e+01 3.074343e+01 2.875909e+01 2.809438e+01 5.763470e+01 3.191007e+00 3.026317e+00 2.735772e+00 2.438154e+00 2.891601e+00 3.151534e+00 3.210647e+00 3.580193e+00 3.383358e+00 3.047177e+00 2.842824e+00 2.515921e+00 4.481418e+00 3.956784e-01 3.853702e-01 4.413701e-01 4.507850e-01 4.986370e-01 5.240698e-01 5.343073e-01 5.375490e-01 5.475324e-01 5.051075e-01 4.859346e-01 4.181147e-01 5.048410e-01
<GCONST> 1.219882e+02
<MIXTURE> 8 6.420342e-02
<MEAN> 39
 2.752281e+00 4.190656e+00 3.212718e+00 4.837253e+00 2.862720e+00 -1.218287e+00 -1.803750e+00 -3.478839e+00 -1.577350e+00 -9.499514e-01 -1.946693e+00 -1.968145e+00 -4.055667e+00 1.264647e-02 -1.198166e+00 1.677538e-02 -4.801840e-01 -1.719216e+00 -1.331920e+00 -7.034113e-01 6.912755e-01 4.795021e-01 3.843087e-01 7.125826e-01 1.072312e+00 1.946420e+00 9.380166e-02 -3.529452e-01 1.291689e-02 -4.619649e-01 -7.624936e-01 -2.646873e-01 -5.202978e-02 2.250755e-01 1.022847e-02 1.578932e-01 1.995854e-01 1.390842e-01 5.774532e-01
<VARIANCE> 39
 1.454522e+01 1.605307e+01 2.210421e+01 2.067305e+01 3.112989e+01 2.955820e+01 3.054762e+01 2.909690e+01 2.900169e+01 2.695935e+01 2.574363e+01 2.860786e+01 1.676161e+01 1.891601e+00 2.204802e+00 2.901945e+00 2.844852e+00 3.605942e+00 3.918333e+00 3.874232e+00 4.198350e+00 4.215158e+00 3.664322e+00 3.316838e+00 3.241845e+00 1.261373e+00 1.933443e-01 2.231378e-01 4.030116e-01 3.500488e-01 5.638371e-01 5.255370e-01 5.525768e-01 5.992177e-01 6.673585e-01 5.593672e-01 5.133616e-01 5.258099e-01 1.731680e-01
<GCONST> 1.158012e+02
<STATE> 3
<NUMMIXES> 8
<MIXTURE> 1 1.011156e-01
<MEAN> 39
 3.947349e+00 8.788010e+00 6.804959e+00 7.322636e+00 7.602252e+00 1.537028e+00 1.018042e+00 -3.667528e+00 -3.659388e+00 8.744256e-01 -3.953469e-01 -7.502332e-01 -9.121832e+00 -1.575898e-01 -2.560581e+00 -1.718935e+00 -1.543607e+00 -1.818588e+00 -9.679667e-01 -1.229002e+00 5.671469e-01 1.473565e+00 7.867539e-01 5.713888e-01 5.322247e-01 4.108924e+00 1.154105e-01 -9.163381e-01 -5.883527e-01 -7.427835e-01 -9.443099e-01 -3.529108e-01 -4.014711e-01 2.487375e-01 5.589002e-01 6.753575e-02 5.405118e-02 -2.102958e-01 1.155958e+00
<VARIANCE> 39
 2.086512e+01 1.943374e+01 2.263680e+01 2.365945e+01 2.598056e+01 3.282508e+01 2.917640e+01 3.568468e+01 3.835487e+01 3.157228e+01 2.953610e+01 2.658521e+01 2.610746e+01 4.007696e+00 3.022590e+00 4.006738e+00 4.710147e+00 4.918608e+00 5.635822e+00 5.371691e+00 5.873194e+00 6.143425e+00 4.956413e+00 4.260280e+00 3.698780e+00 2.782345e+00 3.653598e-01 3.800900e-01 4.657237e-01 4.986737e-01 5.879534e-01 7.769995e-01 6.963518e-01 8.418754e-01 8.803327e-01 7.755224e-01 7.100403e-01 5.869329e-01 3.357365e-01
<GCONST> 1.269921e+02
<MIXTURE> 2 1.260019e-01
<MEAN> 39
 4.625096e+00 1.550113e+00 -4.678626e-01 9.558750e-01 -2.550513e+00 -5.897277e+00 -4.231289e+00 2.276974e-01 6.531025e+00 3.290458e+00 3.187616e-01 1.294823e+00 6.484151e-01 5.806849e-01 -2.405298e+00 -8.573733e-01 -2.045044e+00 -1.134081e+00 -8.411277e-01 3.596283e-01 2.871436e+00 1.408864e+00 2.752019e-01 1.049566e-01 1.755766e+00 3.554966e+00 -3.267573e-01 -2.547597e-01 1.289268e-01 -1.357300e-01 2.067229e-01 4.979498e-01 5.965447e-01 5.158376e-02 -8.587238e-01 -5.182894e-01 -1.044155e-01 7.648793e-02 -2.947768e-02
<VARIANCE> 39
 1.155971e+01 1.763891e+01 1.975789e+01 2.058364e+01 2.999384e+01 2.872555e+01 4.312422e+01 3.464948e+01 3.471080e+01 4.418494e+01 5.131456e+01 5.517131e+01 1.729728e+01 3.087291e+00 3.330522e+00 4.174683e+00 4.240003e+00 6.363642e+00 6.236022e+00 6.776165e+00 6.494284e+00 6.168797e+00 7.058045e+00 6.913405e+00 6.762376e+00 3.264874e+00 1.931775e-01 2.731403e-01 3.030296e-01 3.389717e-01 5.364958e-01 5.029758e-01 7.146572e-01 6.412788e-01 5.870643e-01 7.094590e-01 7.021163e-01 7.913433e-01 2.538674e-01
<GCONST> 1.265342e+02
<MIXTURE> 3 1.301111e-01
<MEAN> 39
 4.977651e+00 8.669298e+00 3.470105e+00 5.704853e+00 -3.134892e-01 -3.689822e+00 -4.875045e+00 -9.303272e+00 -2.745044e+00 -4.335112e+00 -6.145332e+00 -8.036508e+00 -7.084313e+00 -4.059812e-01 -2.422894e+00 -1.087393e+00 -1.323442e+00 -9.539303e-01 -4.102633e-01 3.080922e-02 2.239577e+00 1.701910e+00 1.279437e+00 1.085921e+00 1.724772e+00 3.492344e+00 1.765614e-02 -1.052187e+00 -2.814176e-01 -9.004823e-01 -1.809499e-01 7.809199e-03 2.471793e-01 9.938218e-01 3.233234e-01 4.433282e-01 1.727633e-01 6.644499e-01 9.908059e-01
<VARIANCE> 39
 2.339994e+01 2.525516e+01 2.893563e+01 3.091518e+01 3.508207e+01 3.564240e+01 3.910416e+01 3.857682e+01 4.127957e+01 3.843742e+01 4.311292e+01 4.224540e+01 3.233305e+01 3.462771e+00 3.364701e+00 4.344799e+00 4.705432e+00 5.165971e+00 5.254930e+00 5.574182e+00 5.935713e+00 5.763343e+00 5.450092e+00 5.107131e+00 4.769348e+00 2.633032e+00 4.358381e-01 4.400507e-01 6.425485e-01 5.588918e-01 7.854952e-01 7.869632e-01 9.701703e-01 9.317258e-01 1.010057e+00 9.352732e-01 9.196206e-01 8.435353e-01 4.923872e-01
<GCONST> 1.332630e+02
<MIXTURE> 4 1.227345e-01
<MEAN> 39
 4.667341e+00 2.612301e+00 -5.141095e-01 7.329922e-01 2.159070e+00 -2.266495e-01 -4.489766e+00 -6.123803e+00 -9.710164e-01 2.389544e+00 1.444555e+00 -8.969254e-01 3.760338e-01 1.364611e+00 -1.676676e+00 -2.026410e+00 -2.415017e+00 -1.253154e+00 -1.055172e-01 -1.705353e+00 2.266467e-01 1.946073e+00 1.457342e+00 4.938049e-01 -2.541524e-01 3.341163e+00 -1.113395e-01 -2.250123e-01 -7.761851e-02 -1.223347e-01 -3.695881e-02 6.403086e-02 2.642539e-01 6.440904e-01 4.290590e-01 -1.591957e-01 -3.805366e-01 -2.554859e-01 -8.232778e-02
<VARIANCE> 39
 1.291287e+01 1.437619e+01 1.849854e+01 2.502001e+01 2.355295e+01 3.242593e+01 3.084517e+01 3.168567e+01 3.151950e+01 3.188842e+01 3.114074e+01 3.138346e+01 1.857590e+01 3.714855e+00 4.083228e+00 3.392981e+00 4.279904e+00 4.528392e+00 5.679813e+00 5.651071e+00 7.504066e+00 6.348982e+00 5.355376e+00 5.795260e+00 4.952290e+00 3.855971e+00 2.712791e-01 2.924457e-01 3.046289e-01 3.640007e-01 4.616904e-01 5.326297e-01 6.221976e-01 6.176698e-01 5.658007e-01 5.920919e-01 5.535107e-01 5.217541e-01 2.849257e-01
<GCONST> 1.232197e+02
<MIXTURE> 5 1.990282e-01
<MEAN> 39
 -3.179699e+00 1.085912e+00 2.315957e+00 5.021662e+00 1.122270e+00 -1.775489e+00 1.253171e+00 -6.642621e-01 1.792123e+00 7.038276e-01 4.022950e-01 -2.980702e-01 -1.247010e+00 1.832452e+00 -1.138405e+00 -1.663715e-01 -1.653496e+00 -2.176011e+00 -1.818651e+00 -1.387566e+00 1.976957e-01 2.691637e-01 5.342245e-01 3.674107e-01 7.439029e-01 4.323905e+00 6.818780e-01 2.815545e-02 -5.483214e-02 -5.763558e-01 -2.596644e-01 4.501810e-02 -3.068229e-01 -7.596599e-02 -2.119609e-01 4.634328e-02 -1.034732e-01 -7.545130e-03 -1.488689e-01
<VARIANCE> 39
 1.705630e+01 3.045022e+01 3.055804e+01 2.877590e+01 4.100240e+01 4.005217e+01 4.102601e+01 4.015971e+01 4.053606e+01 3.568702e+01 3.660004e+01 3.493423e+01 3.653385e+01 4.296899e+00 4.026994e+00 5.830460e+00 5.242693e+00 5.966454e+00 5.861349e+00 5.609418e+00 6.686281e+00 6.085862e+00 5.918772e+00 5.589169e+00 5.593915e+00 4.961790e+00 4.502902e-01 7.170267e-01 6.530488e-01 6.946586e-01 8.369406e-01 8.950465e-01 9.374509e-01 1.005543e+00 1.006349e+00 9.353944e-01 1.071761e+00 9.697132e-01 5.861415e-01
<GCONST> 1.368018e+02
<MIXTURE> 6 1.242734e-01
<MEAN> 39
 3.186498e+00 9.031416e-01 5.967549e+00 6.164571e+00 -3.256810e+00 -8.082356e+00 -4.252717e+00 -1.017884e+00 -1.818128e+00 -1.760107e+00 -1.969623e-01 1.505936e+00 1.394644e+00 2.459967e-01 -1.547080e+00 1.147009e+00 -5.280860e-01 -3.799136e+00 -2.076360e+00 -4.785318e-01 8.408554e-01 -8.025993e-01 3.913872e-03 1.069489e+00 9.558192e-01 2.941820e+00 -1.185263e-01 2.727847e-01 1.217019e-01 -5.191774e-01 -1.815429e-01 6.236000e-01 5.195022e-01 -1.581062e-01 -2.298330e-01 3.182444e-01 2.109880e-02 -3.964095e-01 -2.853541e-01
<VARIANCE> 39
 1.046692e+01 1.631424e+01 1.941176e+01 2.355463e+01 2.887218e+01 2.686705e+01 3.036291e+01 2.871567e+01 3.081886e+01 2.809271e+01 2.844156e+01 3.067071e+01 1.784926e+01 3.238108e+00 3.273952e+00 3.259540e+00 3.342350e+00 4.088920e+00 4.788957e+00 4.898669e+00 5.229572e+00 5.392132e+00 4.896211e+00 4.020176e+00 4.121747e+00 2.290701e+00 2.269188e-01 3.059085e-01 3.179046e-01 3.407561e-01 4.799758e-01 5.219002e-01 5.646495e-01 6.259148e-01 5.423382e-01 5.053851e-01 5.419224e-01 4.639989e-01 2.855172e-01
<GCONST> 1.194180e+02
<MIXTURE> 7 9.998018e-02
<MEAN> 39
 6.475100e-01 -6.408323e-01 1.632809e-01 -1.856029e-01 -6.544747e-01 -5.814670e-01 -3.947303e-01 7.643533e-02 -1.101423e-01 -6.638384e-01 -5.309895e-01 -2.015041e-01 1.076838e+00 3.952726e-02 -7.505982e-02 -8.111256e-02 -1.342835e-01 -1.147389e-01 2.291301e-02 6.649527e-02 1.361886e-01 6.541784e-03 -1.869611e-02 2.601168e-02 7.503960e-02 5.036876e-02 5.702196e-04 -3.233883e-02 -4.785625e-03 -6.987961e-02 -4.869966e-02 -3.066473e-03 3.458850e-02 6.070229e-02 1.933697e-02 2.479446e-02 1.651848e-02 3.278401e-02 3.321659e-02
<VARIANCE> 39
 3.363329e+01 3.421550e+01 4.282531e+01 4.437544e+01 6.631400e+01 5.087184e+01 5.572229e+01 5.415133e+01 5.188189e+01 5.284711e+01 5.877229e+01 6.222555e+01 5.238838e+01 3.458699e-01 5.870921e-01 8.087530e-01 1.040911e+00 1.361424e+00 1.479160e+00 1.719202e+00 1.863251e+00 1.734099e+00 1.722776e+00 1.677601e+00 1.476075e+00 3.164768e-01 5.240166e-02 8.539432e-02 1.331469e-01 1.782004e-01 2.288838e-01 2.554262e-01 2.883032e-01 2.976356e-01 3.019755e-01 3.204960e-01 2.884390e-01 2.767840e-01 3.958319e-02
<GCONST> 1.009012e+02
<MIXTURE> 8 9.677003e-02
<MEAN> 39
 6.456733e+00 -3.570245e+00 -4.512904e+00 -5.039972e+00 -1.391125e+00 -4.047014e+00 -5.490857e+00 2.352312e+00 8.252241e+00 3.509291e+00 -2.942357e+00 -2.799357e+00 7.570093e+00 3.332850e-01 -3.350795e+00 -2.095320e+00 -2.760104e+00 -3.752204e-01 3.454326e-01 4.438183e-01 3.241302e+00 1.977579e+00 -3.664348e-01 -1.246379e+00 3.568061e-01 4.393036e+00 -4.829657e-01 4.453685e-01 5.081344e-01 7.526021e-01 5.606272e-01 5.665128e-01 7.219075e-01 -2.898870e-01 -1.053480e+00 -8.003809e-01 -3.120239e-02 1.327135e-01 -1.067885e+00
<VARIANCE> 39
 1.074435e+01 1.648210e+01 2.304449e+01 2.463381e+01 3.227758e+01 3.682555e+01 4.353643e+01 4.318578e+01 4.064820e+01 4.766122e+01 4.793688e+01 4.339722e+01 2.129432e+01 3.103437e+00 2.715278e+00 3.305317e+00 3.503414e+00 6.057250e+00 5.870691e+00 7.232050e+00 6.279088e+00 6.952927e+00 6.218071e+00 5.240059e+00 7.213923e+00 2.845490e+00 3.364145e-01 3.837793e-01 4.124642e-01 4.622562e-01 5.767165e-01 6.767710e-01 8.693022e-01 8.961163e-01 7.969489e-01 7.642625e-01 7.588379e-01 7.011521e-01 4.246284e-01
<GCONST> 1.296170e+02
<STATE> 4
<NUMMIXES> 8
<MIXTURE> 1 9.334898e-02
<MEAN> 39
 2.749228e+00 -5.031749e+00 -1.959736e+00 -3.734888e+00 -3.591552e+00 -7.284210e+00 -2.158771e+00 5.716761e+00 8.059366e+00 7.264682e+00 7.755966e+00 1.135882e+01 6.441409e+00 -4.848044e-01 -1.854607e+00 1.920465e-01 -1.124299e+00 -8.767088e-02 -9.278445e-03 1.209416e+00 1.634752e+00 -6.750402e-01 1.882534e-01 1.613708e+00 2.798538e+00 2.434150e+00 -3.821355e-01 5.837771e-01 3.587582e-01 5.024495e-01 3.844779e-01 8.012888e-01 4.099633e-01 -8.021333e-01 -1.057542e+00 -6.813689e-01 -5.049659e-01 -7.973797e-01 -8.536960e-01
<VARIANCE> 39
 1.488539e+01 2.039039e+01 3.910977e+01 3.496628e+01 5.833176e+01 5.221111e+01 6.304176e+01 5.509031e+01 6.520880e+01 6.789426e+01 6.476952e+01 6.280204e+01 2.179059e+01 1.998039e+00 2.394222e+00 3.187528e+00 4.035616e+00 6.015155e+00 5.589281e+00 6.387653e+00 6.532629e+00 7.228992e+00 9.201861e+00 6.746056e+00 6.747246e+00 2.131901e+00 2.947551e-01 3.378479e-01 4.568467e-01 6.653655e-01 7.375466e-01 8.722448e-01 9.042649e-01 9.244068e-01 9.383903e-01 1.034294e+00 9.828248e-01 1.066459e+00 3.660049e-01
<GCONST> 1.356081e+02
<MIXTURE> 2 1.331407e-01
<MEAN> 39
 7.871239e-01 -4.445578e-01 2.658040e-02 -2.100703e-01 -7.132518e-01 -6.362237e-01 -3.318526e-01 1.353860e-01 -1.488612e-01 -7.564478e-01 -5.263448e-01 -4.915396e-03 9.612819e-01 3.322960e-02 -1.208202e-01 -9.963716e-02 -2.474424e-01 -1.602007e-01 5.236438e-02 1.153161e-01 2.156279e-01 2.991415e-02 1.117647e-02 4.951636e-02 1.213655e-01 1.229440e-01 -1.048772e-02 -4.696941e-03 2.560282e-02 -7.742994e-03 2.577431e-04 1.908900e-03 3.546773e-03 -4.615693e-03 6.249386e-03 2.837694e-02 -9.520057e-04 -6.957164e-03 -6.786877e-03
<VARIANCE> 39
 3.364280e+01 3.431636e+01 4.071244e+01 4.367645e+01 6.302849e+01 4.872635e+01 5.470607e+01 5.262550e+01 4.918773e+01 5.123346e+01 5.578685e+01 5.975544e+01 5.227352e+01 4.059775e-01 6.208257e-01 9.011303e-01 1.160733e+00 1.535498e+00 1.558094e+00 1.799406e+00 1.870789e+00 1.878138e+00 1.805840e+00 1.719950e+00 1.550639e+00 3.885849e-01 5.341734e-02 9.176087e-02 1.194039e-01 1.678941e-01 2.077321e-01 2.475494e-01 2.914513e-01 2.919185e-01 2.861517e-01 3.032702e-01 2.802759e-01 2.665277e-01 3.355507e-02
<GCONST> 1.010244e+02
<MIXTURE> 3 1.884748e-01
<MEAN> 39
 7.092293e+00 3.771633e-01 -4.441512e+00 -4.128943e+00 3.006551e-01 9.330600e-01 -6.838622e+00 -6.788856e+00 1.998552e+00 4.416511e+00 2.839470e+00 -1.840893e+00 3.611256e+00 1.275245e+00 -1.358971e+00 -1.642491e+00 -2.019853e+00 -6.421711e-01 2.064655e-01 -1.263794e+00 5.081434e-01 1.620772e+00 1.147341e+00 2.109317e-01 -4.243141e-01 2.277289e+00 -4.971963e-01 1.013622e-01 4.741826e-01 5.987170e-01 2.799296e-01 -1.481410e-02 6.468062e-01 7.125725e-01 -5.953976e-02 -4.771125e-01 -5.436476e-01 -7.120631e-02 -6.547027e-01
<VARIANCE> 39
 1.350760e+01 2.044376e+01 2.571538e+01 5.313364e+01 3.256065e+01 4.928083e+01 4.581517e+01 4.116836e+01 4.728325e+01 5.306590e+01 5.410612e+01 5.013633e+01 2.324177e+01 3.009208e+00 3.019539e+00 2.950772e+00 4.863449e+00 4.855263e+00 6.007630e+00 5.484087e+00 6.303002e+00 6.161194e+00 5.334317e+00 5.496867e+00 5.388810e+00 1.929547e+00 3.877224e-01 3.742719e-01 3.680296e-01 5.758103e-01 5.835431e-01 6.571299e-01 7.776616e-01 7.361634e-01 7.235362e-01 8.031118e-01 7.565214e-01 6.769829e-01 3.264435e-01
<GCONST> 1.303155e+02
<MIXTURE> 4 1.011241e-01
<MEAN> 39
 2.547032e+00 -4.485832e-01 1.037632e+01 5.561251e+00 -1.031853e+01 -9.407827e+00 -2.495489e+00 -5.815843e-01 -7.256128e+00 -2.005276e+00 3.113755e+00 1.237694e+00 3.785454e+00 -3.647015e-01 -3.139951e-01 1.721432e+00 -1.121846e+00 -3.390937e+00 9.534009e-03 6.922163e-01 -4.403796e-01 -1.670946e+00 7.791253e-01 9.277846e-01 -4.599066e-01 1.638121e+00 -1.952438e-01 6.217904e-01 -2.766221e-01 -4.211946e-01 8.036874e-01 9.757758e-01 3.128265e-01 -4.520739e-01 4.047992e-01 4.532075e-01 -4.579218e-01 -4.442232e-01 -6.783228e-01
<VARIANCE> 39
 9.203753e+00 1.634906e+01 2.540394e+01 2.985826e+01 3.093836e+01 3.302710e+01 3.258462e+01 3.476567e+01 3.907843e+01 3.868353e+01 3.370596e+01 3.884793e+01 1.677250e+01 1.448834e+00 1.640092e+00 2.059351e+00 2.371373e+00 2.818318e+00 3.708662e+00 3.928677e+00 3.885668e+00 3.753843e+00 3.769825e+00 3.234792e+00 3.209685e+00 8.994438e-01 2.456300e-01 3.039869e-01 3.088589e-01 3.423995e-01 4.665338e-01 5.284175e-01 5.767698e-01 5.652367e-01 5.608519e-01 5.094814e-01 4.585839e-01 4.631567e-01 2.111570e-01
<GCONST> 1.152904e+02
<MIXTURE> 5 1.106752e-01
<MEAN> 39
 5.644373e+00 -4.565802e+00 -6.308720e+00 -6.293622e+00 7.325215e-01 1.793543e-01 -4.648592e+00 3.159028e+00 9.852566e+00 3.726765e+00 -4.953645e+00 -6.499918e+00 8.710077e+00 -4.792924e-01 -1.547132e+00 -1.046022e+00 -7.149702e-01 5.489389e-01 9.809912e-01 1.190415e+00 2.437683e+00 9.522950e-01 -1.458333e+00 -1.710114e+00 -2.383000e-02 1.634197e+00 -3.872003e-01 5.932621e-01 6.624370e-01 9.645282e-01 3.821135e-01 9.655100e-02 5.211008e-01 -4.202752e-01 -1.145943e+00 -7.156845e-01 2.691409e-01 5.702245e-01 -1.021670e+00
<VARIANCE> 39
 1.193127e+01 1.665793e+01 2.143045e+01 2.583711e+01 3.290602e+01 4.227208e+01 4.810607e+01 4.373109e+01 3.858578e+01 5.582104e+01 5.269626e+01 3.960242e+01 2.182006e+01 9.937581e-01 1.171973e+00 1.708467e+00 2.467871e+00 3.029495e+00 3.082866e+00 3.870285e+00 3.891543e+00 4.001236e+00 3.573012e+00 2.729528e+00 3.465657e+00 8.598188e-01 3.021531e-01 2.823034e-01 3.479697e-01 4.058740e-01 5.485338e-01 6.054502e-01 8.081594e-01 7.736241e-01 6.465622e-01 7.766218e-01 7.498276e-01 6.063750e-01 2.976498e-01
<GCONST> 1.191904e+02
<MIXTURE> 6 1.542082e-01
<MEAN> 39
 4.517203e+00 -2.409476e+00 1.656823e+00 2.346697e-01 -7.488492e+00 -8.897104e+00 -4.708732e+00 3.823297e+00 2.773058e+00 -4.785075e-01 -2.149320e+00 1.195200e+00 5.989357e+00 3.277291e-02 -1.340640e+00 -4.245041e-02 -1.285492e+00 -2.066867e+00 -3.669494e-01 1.162385e+00 2.224275e+00 -2.367284e-02 -3.348898e-01 -6.127292e-03 4.679274e-01 1.998973e+00 -3.856016e-01 5.030249e-01 1.694567e-01 1.647051e-01 6.971245e-01 8.888408e-01 7.710226e-01 -4.454530e-01 -5.536587e-01 -5.929317e-02 6.464145e-02 -3.699450e-01 -7.852393e-01
<VARIANCE> 39
 1.010691e+01 1.658691e+01 1.887028e+01 2.296439e+01 2.907904e+01 2.826975e+01 3.850590e+01 3.553350e+01 3.580995e+01 3.469545e+01 3.869561e+01 4.065199e+01 1.862619e+01 1.601087e+00 1.649384e+00 1.823742e+00 2.154956e+00 3.406569e+00 3.865618e+00 4.627744e+00 4.040717e+00 4.124437e+00 3.632206e+00 3.511367e+00 3.308137e+00 1.130205e+00 2.821081e-01 3.138330e-01 2.636869e-01 3.311119e-01 4.570416e-01 4.906119e-01 5.638431e-01 6.299031e-01 5.331485e-01 5.359952e-01 5.374835e-01 5.255828e-01 2.536956e-01
<GCONST> 1.160602e+02
<MIXTURE> 7 9.796520e-02
<MEAN> 39
 3.315997e+00 -7.609205e+00 -3.740136e+00 -5.522145e+00 -5.807512e-03 -1.588727e+00 2.818818e+00 9.118010e+00 3.874577e+00 -3.981107e+00 -5.228650e+00 2.517376e+00 9.826309e+00 -9.565020e-01 -1.851285e+00 -4.206809e-01 -3.642031e-01 1.241956e+00 1.952507e+00 2.389891e+00 1.320154e+00 -1.787656e+00 -1.855989e+00 1.512798e-02 1.056000e+00 1.865449e+00 -2.205908e-01 8.986183e-01 4.502537e-01 9.869789e-01 2.874338e-01 2.226261e-01 -2.649465e-01 -1.317483e+00 -6.789557e-01 2.176162e-01 5.988638e-01 -2.952468e-01 -1.164108e+00
<VARIANCE> 39
 1.663321e+01 1.930586e+01 2.807168e+01 2.681474e+01 5.954961e+01 4.384068e+01 6.000681e+01 4.670914e+01 5.680784e+01 4.902302e+01 5.675316e+01 7.565858e+01 2.070082e+01 1.152789e+00 2.137848e+00 1.984566e+00 2.994956e+00 3.568236e+00 3.395964e+00 4.920212e+00 4.945724e+00 4.328625e+00 3.964790e+00 4.136419e+00 4.508697e+00 1.301738e+00 3.110814e-01 3.503963e-01 4.447452e-01 4.608126e-01 7.923606e-01 7.671161e-01 1.018892e+00 7.706107e-01 8.787627e-01 7.968071e-01 7.718825e-01 8.513327e-01 2.960261e-01
<GCONST> 1.270740e+02
<MIXTURE> 8 1.211050e-01
<MEAN> 39
 3.305495e+00 7.405965e-01 7.187600e+00 -8.093851e-01 -1.001303e+01 -7.970935e+00 -1.715711e+00 -2.200973e+00 -1.640275e+00 2.457006e+00 8.374177e-01 1.339851e+00 4.625933e+00 1.202762e+00 -1.080099e+00 1.334000e+00 -2.750270e+00 -2.727202e+00 -9.745636e-01 -4.145385e-01 -1.544495e-01 -7.568841e-01 1.158700e+00 -2.000172e-01 6.659033e-01 3.094085e+00 -5.147166e-01 2.049678e-01 -3.390968e-01 1.095415e-01 9.822733e-01 1.016913e+00 3.326367e-01 -3.262894e-02 1.798419e-01 -1.120418e-01 -3.174861e-01 -3.292637e-01 -9.790129e-01
<VARIANCE> 39
 2.099923e+01 3.400680e+01 4.086998e+01 4.566604e+01 4.940480e+01 4.433610e+01 4.413615e+01 5.190696e+01 4.658388e+01 5.106177e+01 4.823143e+01 4.741938e+01 3.639971e+01 3.890020e+00 4.528635e+00 5.181391e+00 5.507092e+00 6.509358e+00 6.379372e+00 6.802266e+00 8.410296e+00 7.051330e+00 7.841066e+00 7.525982e+00 6.865899e+00 3.936968e+00 4.506320e-01 6.460291e-01 4.756560e-01 6.734577e-01 7.704461e-01 7.852029e-01 8.134035e-01 9.040586e-01 7.736692e-01 8.429214e-01 7.668470e-01 7.162720e-01 5.983127e-01
<GCONST> 1.389107e+02
<STATE> 5
<NUMMIXES> 8
<MIXTURE> 1 1.330220e-01
<MEAN> 39
 3.905174e+00 -5.484379e+00 -4.938260e+00 -4.237481e+00 5.837822e-01 -2.462840e-01 1.002940e-01 7.367778e+00 6.190521e+00 -2.497585e+00 -6.968904e+00 -2.470745e+00 9.202592e+00 -5.738909e-01 -5.707080e-01 -2.070391e-01 3.391551e-01 6.633945e-01 9.342880e-01 1.369439e+00 7.174001e-01 -9.785827e-01 -1.456688e+00 -1.855468e-01 7.026834e-01 4.631897e-01 -3.159351e-03 4.103013e-01 2.967687e-01 3.892943e-01 6.399607e-02 -9.776456e-02 -2.503067e-01 -7.984078e-01 -4.616465e-01 2.023139e-01 5.442077e-01 8.716919e-02 -5.459261e-01
<VARIANCE> 39
 1.144968e+01 1.718862e+01 2.609491e+01 2.406026e+01 4.526230e+01 4.305313e+01 5.584227e+01 4.193117e+01 5.076715e+01 5.223917e+01 3.667535e+01 4.541293e+01 2.068469e+01 3.631848e-01 7.232791e-01 1.031893e+00 1.267396e+00 1.972808e+00 2.141363e+00 2.594723e+00 2.936212e+00 2.704609e+00 2.578180e+00 2.440934e+00 2.188274e+00 3.131976e-01 1.404173e-01 1.830194e-01 2.252918e-01 2.869184e-01 3.949791e-01 4.037440e-01 5.492009e-01 4.993570e-01 5.424792e-01 5.182228e-01 3.764030e-01 4.387361e-01 1.298725e-01
<GCONST> 1.072843e+02
<MIXTURE> 2 5.820025e-02
<MEAN> 39
 1.433283e+00 2.313259e+00 1.377635e+01 1.268703e-01 -1.390278e+01 -4.179358e+00 -5.900244e-01 -6.138417e+00 -7.664049e+00 3.764589e+00 -2.238128e-02 -2.422685e+00 4.128653e+00 -6.200559e-01 7.422951e-01 1.016417e+00 -1.710998e+00 -1.005352e+00 1.656008e+00 8.421867e-02 -1.314077e+00 4.523521e-02 1.198401e+00 -8.999905e-01 -5.853631e-01 6.251427e-01 -1.331654e-01 2.704082e-01 -6.494398e-01 2.180377e-01 1.139302e+00 2.793337e-01 -7.111830e-02 1.911246e-01 6.882356e-01 -3.201531e-01 -2.494331e-01 1.258018e-01 -5.601436e-01
<VARIANCE> 39
 1.094019e+01 2.012025e+01 2.748674e+01 4.311850e+01 3.047063e+01 3.399192e+01 3.500519e+01 3.816375e+01 4.906007e+01 4.785521e+01 5.529883e+01 4.263679e+01 1.696428e+01 7.571459e-01 1.044955e+00 1.409864e+00 2.149180e+00 2.456822e+00 2.511972e+00 2.799255e+00 2.669750e+00 2.748453e+00 2.716952e+00 3.078341e+00 2.310030e+00 4.748042e-01 2.102477e-01 2.747506e-01 2.707731e-01 4.233918e-01 4.204229e-01 4.919419e-01 5.554538e-01 5.233061e-01 5.657566e-01 5.619505e-01 5.199242e-01 4.234475e-01 1.564332e-01
<GCONST> 1.122369e+02
<MIXTURE> 3 1.038638e-01
<MEAN> 39
 -9.896423e-02 -6.637796e+00 -3.130262e+00 -2.211936e+00 1.911846e+00 2.429307e+00 6.141019e+00 5.705677e+00 -1.215038e+00 -4.034454e+00 3.284410e+00 8.974514e+00 9.502875e+00 -5.584337e-01 -3.400075e-01 1.814741e-01 6.679837e-01 9.316409e-01 1.217348e+00 7.745972e-01 -4.779135e-01 -1.302739e+00 -6.129522e-01 5.342264e-01 1.128144e-01 3.555295e-01 2.064654e-01 2.776127e-01 8.441702e-02 1.063115e-01 -1.605129e-01 -4.237392e-01 -6.705137e-01 -3.557282e-01 4.337827e-01 5.341219e-01 -1.509782e-01 -5.457627e-01 -4.329748e-01
<VARIANCE> 39
 1.778491e+01 2.206388e+01 2.615430e+01 3.286473e+01 5.542392e+01 5.235328e+01 6.411353e+01 5.153537e+01 5.334209e+01 6.274968e+01 8.485828e+01 9.986838e+01 2.829233e+01 6.303991e-01 1.131475e+00 1.340554e+00 1.820412e+00 2.832645e+00 3.156671e+00 4.268941e+00 3.197349e+00 3.873299e+00 3.660148e+00 3.871558e+00 4.032915e+00 4.327222e-01 1.266010e-01 2.576198e-01 2.532041e-01 3.503380e-01 4.603750e-01 5.450961e-01 7.142804e-01 6.442760e-01 5.483569e-01 6.129659e-01 6.051849e-01 7.644771e-01 1.414559e-01
<GCONST> 1.190851e+02
<MIXTURE> 4 1.379577e-01
<MEAN> 39
 5.128406e+00 -4.795522e-01 4.543288e-01 -1.563715e+00 -1.199955e+00 -3.515954e+00 -3.593931e+00 -2.961823e+00 7.204481e-01 5.071992e-01 -7.990696e-01 -1.184211e+00 2.637429e+00 3.482716e-01 -4.815894e-01 -9.407281e-02 -3.949776e-01 -2.371234e-01 -1.542735e-01 -1.469409e-01 5.232924e-01 1.102013e-01 -1.787610e-02 -1.874349e-01 8.371747e-02 7.053593e-01 -4.064084e-01 1.774526e-01 1.005232e-01 3.065598e-01 1.008940e-01 2.512445e-01 3.344052e-01 2.274078e-01 -8.524825e-02 -9.394266e-02 -2.766922e-02 6.906881e-03 -3.557162e-01
<VARIANCE> 39
 5.493026e+01 5.746688e+01 7.693742e+01 9.220972e+01 7.876409e+01 8.194675e+01 7.982453e+01 7.650579e+01 7.779234e+01 7.644460e+01 7.483827e+01 6.953549e+01 6.234162e+01 2.774683e+00 3.721576e+00 3.297441e+00 4.721116e+00 5.106904e+00 5.279271e+00 5.545783e+00 6.399339e+00 5.356412e+00 5.282710e+00 4.733157e+00 4.557094e+00 2.497793e+00 5.268570e-01 6.056380e-01 7.337422e-01 9.501912e-01 9.294643e-01 9.994671e-01 1.093627e+00 1.042431e+00 1.044236e+00 1.037115e+00 9.288886e-01 8.508917e-01 5.065137e-01
<GCONST> 1.444632e+02
<MIXTURE> 5 1.125590e-01
<MEAN> 39
 6.131083e+00 -4.060124e-01 -5.064227e+00 -5.630991e+00 4.306087e-01 2.107250e+00 -6.744075e+00 -3.464871e+00 5.679023e+00 5.711565e+00 1.568892e+00 -2.677006e+00 5.838622e+00 -2.358168e-01 -4.311586e-01 -4.696695e-01 -1.800876e-01 2.002557e-01 1.475894e-01 1.651622e-01 1.135430e+00 9.149854e-01 -1.639611e-01 -7.809475e-01 -3.683221e-01 6.446492e-01 -2.283002e-01 1.387869e-01 3.506840e-01 4.982287e-01 1.679744e-01 -1.401673e-01 3.984415e-01 1.021591e-01 -4.389772e-01 -4.943381e-01 -1.784673e-01 1.500773e-01 -4.034469e-01
<VARIANCE> 39
 1.114208e+01 1.946554e+01 2.551207e+01 4.330551e+01 3.593143e+01 5.678275e+01 4.876143e+01 5.057274e+01 5.074017e+01 4.679564e+01 5.959903e+01 5.787100e+01 2.041805e+01 4.928215e-01 8.060470e-01 1.060652e+00 1.698599e+00 1.962794e+00 2.456851e+00 2.371660e+00 2.689806e+00 2.612465e+00 2.801615e+00 2.580132e+00 2.442228e+00 3.704089e-01 1.508666e-01 1.762546e-01 2.222665e-01 3.462306e-01 3.727169e-01 4.503623e-01 4.807414e-01 5.685650e-01 5.164650e-01 4.857805e-01 5.239524e-01 5.017778e-01 1.154023e-01
<GCONST> 1.102084e+02
<MIXTURE> 6 1.046707e-01
<MEAN> 39
 2.464397e+00 -1.916407e+00 5.108330e+00 1.340584e+00 -1.056908e+01 -8.054478e+00 -7.769982e-01 3.926030e+00 -1.906238e+00 -1.512688e+00 1.294847e+00 1.947093e+00 6.839221e+00 -6.743568e-01 6.494053e-02 4.602614e-01 -6.946443e-01 -1.076311e+00 6.921201e-01 1.702320e+00 3.410318e-01 -8.298766e-01 9.486074e-02 4.489409e-01 -3.728943e-01 5.818636e-01 -4.484968e-02 3.568542e-01 -6.329864e-02 1.078904e-01 7.415830e-01 4.474214e-01 2.801280e-02 -5.298638e-01 3.815376e-02 1.896648e-01 -1.839650e-01 -2.905042e-01 -5.280305e-01
<VARIANCE> 39
 9.889448e+00 1.765161e+01 2.473399e+01 2.912332e+01 2.841826e+01 3.383581e+01 3.832605e+01 4.174735e+01 4.955243e+01 3.850397e+01 4.634000e+01 4.702074e+01 1.823530e+01 2.923347e-01 6.003745e-01 9.784206e-01 1.118389e+00 1.616488e+00 1.833780e+00 1.996934e+00 2.247892e+00 2.168957e+00 2.284026e+00 1.921790e+00 1.838577e+00 2.492561e-01 1.259599e-01 1.641131e-01 1.606572e-01 2.427447e-01 3.599848e-01 4.007484e-01 4.547802e-01 4.757089e-01 4.700952e-01 4.104864e-01 4.199571e-01 3.902612e-01 1.109057e-01
<GCONST> 1.019776e+02
<MIXTURE> 7 2.842788e-01
<MEAN> 39
 1.788241e+00 -2.230854e+00 -2.115517e+00 -2.492794e+00 -1.605554e+00 4.607035e-01 1.164955e+00 2.512884e+00 5.580972e-01 -1.161203e+00 -9.509325e-02 2.581193e-01 5.685386e+00 2.796275e-03 -6.180583e-04 -7.118775e-03 -2.425006e-02 6.464987e-03 3.887359e-02 2.073622e-02 -3.942885e-02 -7.005041e-02 -8.606791e-03 1.167722e-03 -2.339109e-03 -6.578525e-02 1.072047e-02 1.587810e-02 1.484361e-02 1.367990e-02 -1.802997e-02 -3.361385e-02 -3.805353e-02 -2.761775e-02 3.479710e-03 1.453734e-02 2.412622e-03 -4.126228e-03 -2.294726e-02
<VARIANCE> 39
 2.886987e+01 3.315059e+01 4.302473e+01 4.564773e+01 6.672786e+01 5.870269e+01 7.187646e+01 7.997975e+01 5.602396e+01 5.738412e+01 7.783816e+01 6.066124e+01 8.397738e+01 1.664576e-01 3.472093e-01 5.020438e-01 6.608383e-01 8.632368e-01 9.192743e-01 1.051152e+00 1.135002e+00 1.120825e+00 1.091096e+00 1.047162e+00 1.008698e+00 1.152756e-01 2.792254e-02 5.682487e-02 8.559604e-02 1.182410e-01 1.514193e-01 1.713019e-01 1.896773e-01 2.076085e-01 1.990078e-01 1.936221e-01 1.912101e-01 1.850394e-01 1.454347e-02
<GCONST> 8.935210e+01
<MIXTURE> 8 6.547009e-02
<MEAN> 39
 1.114066e+00 -4.038349e+00 6.675107e+00 -4.183487e+00 -9.761773e+00 -7.043160e+00 2.042752e+00 3.435302e+00 -9.865001e-01 7.922399e+00 5.179647e+00 7.787636e+00 8.002096e+00 -1.081156e+00 -2.517895e-01 9.731856e-01 -1.179196e+00 -4.712266e-01 1.518730e+00 1.642990e+00 -2.208035e-01 -1.177922e+00 8.842706e-01 1.897614e-01 2.273695e-01 1.016436e+00 -9.629482e-02 7.248400e-01 -3.197740e-01 5.232980e-01 7.369042e-01 6.865528e-01 -1.441388e-01 -7.402050e-01 1.407002e-01 -6.210305e-01 -5.534804e-01 -8.427086e-01 -9.000453e-01
<VARIANCE> 39
 1.579021e+01 1.857874e+01 3.269431e+01 2.979098e+01 3.716723e+01 4.517085e+01 4.525650e+01 7.013605e+01 8.215192e+01 7.130016e+01 8.933629e+01 8.630869e+01 1.824298e+01 7.067934e-01 1.288701e+00 2.005604e+00 2.472934e+00 2.860089e+00 2.998838e+00 3.644405e+00 4.621279e+00 4.625640e+00 4.689263e+00 4.423449e+00 4.596672e+00 6.886427e-01 2.549350e-01 2.968789e-01 3.653660e-01 4.944850e-01 5.767947e-01 6.715645e-01 7.099264e-01 9.071903e-01 1.001094e+00 8.809166e-01 8.514403e-01 7.927911e-01 2.463910e-01
<GCONST> 1.248550e+02
<TRANSP> 6
 0.000000e+00 1.000000e+00 0.000000e+00 0.000000e+00 0.000000e+00 0.000000e+00
 0.000000e+00 7.534382e-01 2.465619e-01 0.000000e+00 0.000000e+00 0.000000e+00
 0.000000e+00 0.000000e+00 4.434566e-01 5.565434e-01 0.000000e+00 0.000000e+00
 0.000000e+00 0.000000e+00 0.000000e+00 2.992964e-01 7.007036e-01 0.000000e+00
 0.000000e+00 0.000000e+00 0.000000e+00 0.000000e+00 5.380347e-01 4.619653e-01
 0.000000e+00 0.000000e+00 0.000000e+00 0.000000e+00 0.000000e+00 0.000000e+00
<ENDHMM>
~h "d"
<BEGINHMM>
<NUMSTATES> 6
<STATE> 2
<NUMMIXES> 8
<MIXTURE> 1 1.377244e-01
<MEAN> 39
 8.455598e-01 7.201001e+00 5.774861e+00 6.195109e+00 2.697635e+00 -5.265352e-01 4.044170e-01 -3.334014e+00 -2.271907e+00 -2.361015e+00 -3.461121e+00 -3.630507e+00 -1.056043e+01 -2.099203e+00 -7.003252e-01 -7.627294e-01 -2.610515e-01 4.178799e-01 3.354785e-01 4.546827e-01 4.504729e-01 5.367098e-01 6.201310e-01 7.593248e-01 5.834454e-01 1.394055e+00 -3.592991e-01 -2.995652e-01 -3.314418e-01 -4.134110e-01 -5.449201e-01 -3.858964e-01 -7.155378e-02 2.065510e-01 1.418027e-01 1.819821e-01 3.328044e-01 3.791319e-01 1.124809e+00
<VARIANCE> 39
 3.499958e+01 3.483715e+01 3.784248e+01 3.135882e+01 4.834596e+01 4.392050e+01 4.185454e+01 4.607373e+01 4.075371e+01 4.051109e+01 3.947038e+01 4.143254e+01 3.715519e+01 3.768709e+00 4.144131e+00 3.890613e+00 3.967563e+00 4.635026e+00 4.495082e+00 4.108933e+00 4.193676e+00 4.222573e+00 3.853781e+00 3.586351e+00 3.463631e+00 5.211075e+00 5.849326e-01 6.499741e-01 5.445606e-01 5.968052e-01 7.470640e-01 7.487078e-01 7.049963e-01 7.647280e-01 7.207699e-01 6.764957e-01 6.246598e-01 5.657459e-01 4.592160e-01
<GCONST> 1.320130e+02
<MIXTURE> 2 7.621692e-02
<MEAN> 39
 2.208642e+00 -2.193340e+00 3.929012e-01 -1.511162e+00 -2.777516e+00 -2.758460e+00 -1.186042e+00 1.506210e+00 -3.245355e-01 -3.279555e-01 1.429112e+00 3.545081e+00 2.234778e+00 1.734801e-02 1.539317e-01 1.430911e-01 1.097236e-01 -1.296663e-01 -2.051411e-01 -9.677262e-02 -1.316888e-01 -9.589167e-02 -2.254627e-02 -1.930076e-02 -7.416440e-03 -2.751693e-01 -4.850780e-03 1.368600e-01 4.577171e-02 9.917842e-02 7.036414e-02 7.738676e-03 1.608670e-02 -9.190686e-02 -2.540519e-03 -8.556200e-03 -8.977407e-02 -1.417092e-01 -4.236488e-02
<VARIANCE> 39
 2.212732e+01 2.903720e+01 4.468328e+01 4.078342e+01 6.425468e+01 6.059929e+01 6.826424e+01 6.723174e+01 7.644672e+01 7.664426e+01 8.613310e+01 9.011383e+01 4.220493e+01 4.654780e-01 8.359433e-01 1.327458e+00 1.447916e+00 2.101496e+00 2.321722e+00 2.672231e+00 2.736271e+00 2.738324e+00 2.816781e+00 2.727068e+00 2.413080e+00 5.278533e-01 8.205143e-02 1.417836e-01 2.190952e-01 2.769680e-01 3.676712e-01 4.201232e-01 5.219683e-01 5.253768e-01 5.503769e-01 5.415680e-01 5.442755e-01 4.703808e-01 8.636291e-02
<GCONST> 1.148568e+02
<MIXTURE> 3 1.440600e-01
<MEAN> 39
 -1.246015e+00 5.776771e+00 4.921438e+00 7.480729e+00 3.962581e+00 1.186346e+00 1.782163e+00 -2.535882e+00 -2.539270e+00 -2.887888e+00 -3.159782e+00 -3.375460e+00 -1.100523e+01 -6.558802e-01 -3.325224e-01 -2.439971e-01 4.848998e-02 4.883993e-01 5.089391e-01 4.397897e-01 2.946959e-01 3.041196e-01 3.022827e-01 2.649057e-01 1.532431e-01 -4.206395e-01 -9.653062e-02 -2.065664e-01 -1.983107e-01 -3.175722e-01 -3.296885e-01 -2.631371e-01 -7.726311e-02 8.925107e-02 1.539230e-01 1.797594e-01 1.950302e-01 1.676114e-01 3.442089e-01
<VARIANCE> 39
 2.169331e+01 2.476249e+01 2.620778e+01 2.344259e+01 3.456071e+01 3.017429e+01 3.365123e+01 3.493568e+01 3.419645e+01 3.234836e+01 3.164807e+01 3.766451e+01 4.086330e+01 9.875460e-01 1.220108e+00 1.196177e+00 1.336474e+00 1.772387e+00 1.930914e+00 2.025902e+00 2.093027e+00 2.029474e+00 1.993123e+00 1.861604e+00 1.739112e+00 9.968225e-01 1.739900e-01 2.258395e-01 2.367782e-01 2.643234e-01 3.347592e-01 3.511243e-01 3.913849e-01 4.161325e-01 4.233781e-01 3.940902e-01 3.685399e-01 3.525916e-01 2.063646e-01
<GCONST> 1.067323e+02
<MIXTURE> 4 7.934701e-02
<MEAN> 39
 -9.802080e+00 1.038913e+01 -2.465544e+00 7.629163e+00 -2.256043e-01 -7.188010e-01 1.834183e+00 -4.689469e+00 4.724598e-01 -1.467113e+00 -8.218796e-01 -3.883221e+00 -1.673089e+00 -2.104617e+00 1.055920e+00 -8.639287e-01 3.724328e-01 -1.231121e-01 -4.904167e-02 7.373265e-01 2.949073e-01 4.883341e-01 5.153249e-01 8.583643e-01 3.876930e-01 1.527599e+00 1.027226e+00 -4.312467e-01 5.984533e-01 -5.171338e-01 -3.992789e-01 -5.005231e-01 -2.390967e-01 2.299420e-01 -1.210121e-01 1.799436e-02 1.032684e-01 3.989111e-01 -7.848743e-02
<VARIANCE> 39
 2.465363e+01 4.547162e+01 4.070359e+01 4.236145e+01 4.990812e+01 4.491710e+01 4.459990e+01 4.250471e+01 4.145264e+01 4.037905e+01 4.106610e+01 4.407364e+01 2.552340e+01 4.131090e+00 2.989650e+00 3.184049e+00 2.684115e+00 3.112303e+00 3.772709e+00 3.014826e+00 3.178755e+00 3.206013e+00 3.107634e+00 3.237253e+00 3.067710e+00 3.009374e+00 4.342856e-01 6.780293e-01 5.484868e-01 6.190246e-01 7.382472e-01 7.578520e-01 7.287827e-01 7.671325e-01 7.530733e-01 7.338549e-01 7.574969e-01 7.598447e-01 3.015560e-01
<GCONST> 1.288470e+02
<MIXTURE> 5 6.024721e-02
<MEAN> 39
 2.661417e+00 1.919034e+00 4.307798e+00 1.792348e+00 -2.666718e+00 -5.906091e+00 -4.350471e+00 -2.460371e+00 -1.565344e+00 -1.319700e+00 -1.561898e+00 2.431187e-01 1.123969e+00 -4.815149e-01 -1.676261e+00 -6.498459e-01 -1.361490e+00 -8.810999e-01 -3.309340e-01 1.263698e-01 2.360160e+00 1.088467e+00 2.536984e-01 7.376776e-01 7.332624e-01 2.109709e+00 1.869773e-02 -2.569843e-01 -2.318206e-01 -2.727367e-01 -1.422901e-01 2.950132e-01 4.585066e-01 4.203248e-01 9.270508e-02 1.464390e-02 -3.944600e-02 -4.491914e-02 2.408512e-01
<VARIANCE> 39
 1.571247e+01 2.481041e+01 3.416510e+01 3.245369e+01 4.615239e+01 4.227827e+01 4.385781e+01 4.915335e+01 4.703634e+01 4.459740e+01 4.750734e+01 4.977398e+01 2.532372e+01 1.863628e+00 2.251112e+00 3.476821e+00 3.109624e+00 4.928098e+00 5.261413e+00 5.411574e+00 5.590722e+00 5.855463e+00 5.234938e+00 4.923435e+00 4.663980e+00 1.962035e+00 2.177130e-01 3.347006e-01 4.347610e-01 5.441183e-01 7.337826e-01 7.032775e-01 7.638355e-01 8.970376e-01 8.235428e-01 7.543849e-01 7.190114e-01 6.835862e-01 2.666993e-01
<GCONST> 1.286568e+02
<MIXTURE> 6 3.030465e-01
<MEAN> 39
 -6.187949e-01 6.988514e+00 4.280253e+00 6.142309e+00 1.640483e-01 -1.889053e-01 9.366337e-01 -4.553181e+00 -1.624189e+00 -2.322751e+00 -3.708572e+00 -5.187894e+00 -1.148655e+01 -1.818537e-02 3.367430e-02 1.110663e-02 2.960280e-02 4.292294e-02 3.214454e-02 -3.874923e-03 -2.220434e-02 3.066064e-03 -4.125477e-04 4.532553e-04 -1.519955e-02 -1.014956e-01 -5.986023e-03 -1.340811e-02 -6.929353e-03 -5.066109e-03 8.139748e-03 1.484528e-03 9.693387e-03 2.433787e-02 5.824973e-03 -3.325083e-03 6.433934e-03 1.200046e-02 1.242839e-02
<VARIANCE> 39
 3.175495e+01 2.524567e+01 3.589395e+01 3.277984e+01 4.598411e+01 3.811326e+01 4.755541e+01 4.044263e+01 4.401844e+01 4.256518e+01 4.090595e+01 4.833899e+01 7.679974e+01 1.557383e-01 3.074557e-01 4.716296e-01 6.680689e-01 8.579567e-01 1.040610e+00 1.174880e+00 1.292374e+00 1.299486e+00 1.297432e+00 1.261233e+00 1.180679e+00 9.815554e-02 2.726688e-02 5.680382e-02 9.041265e-02 1.311938e-01 1.653827e-01 2.026729e-01 2.354984e-01 2.587927e-01 2.564483e-01 2.575810e-01 2.497192e-01 2.362872e-01 1.346022e-02
<GCONST> 8.768741e+01
<MIXTURE> 7 6.539096e-02
<MEAN> 39
 4.119138e+00 -9.495949e-01 3.596596e+00 -7.691852e-01 -7.444818e+00 -6.829014e+00 -3.035705e+00 1.202088e+00 -9.513184e-01 -1.300423e+00 -8.003064e-01 1.407152e+00 3.709743e+00 3.247871e-01 1.535964e+00 7.084236e-01 1.418262e+00 5.277632e-01 -2.871821e-01 -6.787698e-01 -1.518742e+00 -5.748618e-01 -6.971809e-01 -5.845867e-01 -7.290257e-01 -1.876723e+00 -2.065896e-01 2.283582e-01 -1.179770e-01 1.708256e-01 6.078750e-01 4.934414e-01 3.810283e-01 -1.664673e-01 -9.719279e-02 -6.280541e-02 -1.392753e-01 -2.671044e-01 -3.345719e-01
<VARIANCE> 39
 1.384185e+01 2.675566e+01 4.530760e+01 4.126892e+01 5.160814e+01 4.866780e+01 5.715995e+01 6.382803e+01 6.651905e+01 6.072092e+01 6.374416e+01 5.994568e+01 2.260857e+01 1.078446e+00 1.715668e+00 2.504620e+00 2.578832e+00 4.072815e+00 4.006518e+00 4.705326e+00 4.610199e+00 4.347318e+00 4.366380e+00 4.129025e+00 3.878428e+00 1.437302e+00 1.839222e-01 2.961468e-01 3.988397e-01 4.972416e-01 5.913695e-01 6.359601e-01 7.127854e-01 8.391677e-01 7.777972e-01 7.640126e-01 6.767743e-01 5.955201e-01 2.386192e-01
<GCONST> 1.263742e+02
<MIXTURE> 8 1.338031e-01
<MEAN> 39
 2.784880e+00 7.196906e+00 4.983271e+00 3.618066e+00 -3.710833e+00 -5.472664e+00 -2.313245e+00 -5.037271e+00 -3.232551e+00 -3.297239e+00 -3.488162e+00 -3.303179e+00 -6.380681e+00 -2.394776e-01 4.346891e-01 1.959973e-01 5.031137e-01 6.105953e-01 3.410222e-01 1.215785e-01 -2.319679e-01 -1.144336e-01 -1.781399e-01 -1.930014e-01 -3.200061e-01 -7.197960e-01 -2.396010e-01 -2.156307e-01 -9.917682e-02 2.330499e-03 2.252523e-01 2.899152e-01 1.897222e-01 2.017825e-01 9.991864e-02 1.171764e-01 1.267650e-01 1.072059e-01 1.401806e-01
<VARIANCE> 39
 2.488577e+01 2.605420e+01 3.220247e+01 2.791783e+01 3.991014e+01 3.320023e+01 3.839163e+01 4.495813e+01 4.021819e+01 4.524362e+01 4.553746e+01 4.733762e+01 3.774804e+01 1.184561e+00 1.227936e+00 1.456403e+00 1.734663e+00 2.396677e+00 2.336386e+00 2.416142e+00 2.559424e+00 2.437786e+00 2.447970e+00 2.431745e+00 2.374920e+00 1.069014e+00 1.736501e-01 2.074089e-01 2.478580e-01 2.950819e-01 3.495287e-01 3.526224e-01 4.244494e-01 4.719895e-01 4.546639e-01 4.479067e-01 4.427289e-01 4.203586e-01 1.553397e-01
<GCONST> 1.120863e+02
<STATE> 3
<NUMMIXES> 8
<MIXTURE> 1 1.294290e-01
<MEAN> 39
 -1.520414e+01 8.357815e+00 9.873739e-01 3.647690e+00 2.963995e+00 1.058652e+00 4.646023e+00 2.173004e-01 1.057125e+00 2.464902e+00 2.951537e+00 8.466095e-01 1.596382e+00 9.851080e-01 7.997355e-01 1.145883e+00 6.936671e-02 -1.382160e+00 -1.782173e+00 -7.646924e-01 -5.475637e-01 -8.168087e-01 -7.072695e-01 -1.637908e-01 1.609744e-01 1.260490e+00 1.592454e+00 -4.261644e-01 4.001093e-01 -3.036963e-02 -6.423017e-01 -6.408841e-01 -6.579645e-01 -2.404875e-01 -2.600231e-01 -4.068667e-01 -3.702451e-01 -1.074364e-01 -2.871671e-01
<VARIANCE> 39
 2.349330e+01 3.368472e+01 5.987115e+01 3.996715e+01 4.334400e+01 4.253192e+01 4.325120e+01 3.718727e+01 4.154761e+01 3.141245e+01 3.246729e+01 3.398772e+01 2.077070e+01 5.288473e+00 2.787118e+00 2.899964e+00 2.689055e+00 3.469460e+00 3.853327e+00 3.529267e+00 3.006183e+00 2.997290e+00 2.742156e+00 2.617482e+00 2.475610e+00 1.935184e+00 4.626748e-01 5.308644e-01 7.509887e-01 5.878426e-01 6.246220e-01 6.900575e-01 6.668146e-01 6.281383e-01 7.223210e-01 6.117911e-01 5.888206e-01 5.154739e-01 3.423995e-01
<GCONST> 1.255677e+02
<MIXTURE> 2 7.499321e-02
<MEAN> 39
 -2.947221e-01 3.281405e+00 1.340672e+00 -1.117455e+00 -8.600480e+00 -9.771927e+00 -1.266225e+00 1.002142e+00 2.900774e+00 3.827918e+00 6.753135e+00 6.236378e+00 5.940271e+00 1.474563e+00 -2.602536e+00 2.780193e-01 -2.477251e+00 -1.390212e+00 -1.270073e+00 1.308147e-01 2.330731e+00 5.959492e-01 9.801624e-01 1.153960e+00 2.100823e+00 2.554420e+00 -8.938309e-02 -2.335076e-01 -5.798270e-02 2.333693e-01 9.010745e-01 1.058509e+00 3.785975e-01 -1.827943e-02 -3.926568e-01 -4.841499e-01 -8.758618e-01 -6.941878e-01 -6.379970e-01
<VARIANCE> 39
 1.501159e+01 3.209460e+01 3.795536e+01 3.605967e+01 4.372977e+01 3.889304e+01 4.645059e+01 4.741828e+01 5.479063e+01 5.881205e+01 6.560541e+01 6.244177e+01 2.482321e+01 3.578288e+00 3.605181e+00 4.578514e+00 4.160612e+00 6.549363e+00 6.080881e+00 7.288196e+00 6.865876e+00 7.160007e+00 7.095949e+00 7.450651e+00 7.994055e+00 2.505667e+00 5.000803e-01 5.211198e-01 4.877413e-01 6.169509e-01 7.154147e-01 7.627684e-01 7.873134e-01 8.614635e-01 9.006038e-01 8.791306e-01 8.544335e-01 8.855948e-01 3.954242e-01
<GCONST> 1.368755e+02
<MIXTURE> 3 1.955168e-01
<MEAN> 39
 -7.445477e+00 4.607491e+00 1.266005e+00 6.210450e+00 3.623493e+00 8.830711e-01 3.049968e+00 -7.070083e-01 -2.638487e-01 -1.631972e-01 5.117385e-01 -4.627115e-01 -6.758335e+00 -1.113799e+00 -8.349837e-01 -5.857548e-01 -4.104696e-01 5.478327e-02 2.669692e-01 6.678995e-01 8.194505e-01 7.389636e-01 7.102128e-01 8.024485e-01 5.519034e-01 2.672854e-01 2.898424e-01 -4.627974e-02 3.052984e-02 -1.838567e-01 -2.821886e-01 -2.451562e-01 -1.870596e-01 -4.191377e-02 -3.838420e-02 -4.778843e-02 -5.394246e-02 -9.511245e-03 1.697216e-01
<VARIANCE> 39
 4.385938e+01 4.795828e+01 3.497027e+01 3.296708e+01 3.972915e+01 3.672405e+01 3.644394e+01 3.391600e+01 3.443131e+01 3.289920e+01 3.139505e+01 3.168455e+01 4.791331e+01 1.426282e+00 1.648463e+00 1.740162e+00 1.760223e+00 2.065979e+00 2.297342e+00 2.309799e+00 2.303460e+00 2.313458e+00 2.227492e+00 2.050986e+00 1.969885e+00 1.455214e+00 2.105069e-01 2.422521e-01 2.450467e-01 2.667670e-01 3.356142e-01 3.819968e-01 3.820848e-01 3.980406e-01 3.930805e-01 3.857042e-01 3.513472e-01 3.278883e-01 1.665499e-01
<GCONST> 1.117212e+02
<MIXTURE> 4 1.512948e-01
<MEAN> 39
 2.111261e+00 6.277043e-01 1.422688e+00 4.769117e-01 -1.687734e+00 -2.020152e+00 -1.173405e+00 -1.109696e+00 -1.359393e+00 -1.031970e+00 -8.247440e-01 3.534943e-01 2.077520e-03 -7.870550e-02 2.687268e-02 -5.261289e-02 -2.599134e-02 8.572618e-02 1.196988e-01 1.366934e-01 6.817439e-02 1.384613e-01 1.078522e-01 5.577818e-02 -1.483285e-02 -1.642686e-01 -1.780199e-02 -2.118666e-02 -3.073324e-02 -2.358606e-02 2.658965e-02 3.134919e-02 3.839264e-02 8.021234e-02 5.883177e-02 4.998793e-02 3.283480e-02 -1.980380e-03 4.580834e-02
<VARIANCE> 39
 2.337502e+01 3.663587e+01 4.099927e+01 4.111161e+01 5.692604e+01 5.220705e+01 4.796342e+01 6.104186e+01 5.482875e+01 5.979287e+01 6.346307e+01 6.881168e+01 4.837022e+01 3.183967e-01 5.589589e-01 8.202620e-01 9.987384e-01 1.338166e+00 1.395766e+00 1.677925e+00 1.725127e+00 1.807697e+00 1.816288e+00 1.760527e+00 1.593194e+00 2.671306e-01 4.192391e-02 7.918622e-02 1.301641e-01 1.652070e-01 2.131401e-01 2.513316e-01 2.827514e-01 3.061763e-01 2.988200e-01 3.060881e-01 3.049601e-01 2.823168e-01 2.889767e-02
<GCONST> 9.954779e+01
<MIXTURE> 5 1.184838e-01
<MEAN> 39
 4.517736e+00 1.765669e+00 3.536186e+00 1.470816e+00 -4.609953e+00 -5.845509e+00 -3.670793e+00 -2.117638e+00 -1.764050e+00 -2.011162e+00 -1.331882e+00 6.937346e-02 4.354318e-01 -1.314141e-01 1.302436e+00 3.660993e-01 1.166663e+00 9.259872e-01 2.713065e-01 -2.362058e-02 -1.213083e+00 -5.486190e-01 -5.460654e-01 -5.331829e-01 -8.129170e-01 -1.622124e+00 -3.105053e-01 -1.298271e-01 -1.916352e-01 -2.193690e-01 1.780334e-01 3.611529e-01 4.111840e-01 2.149570e-01 6.486917e-02 1.801816e-01 4.941357e-02 1.098700e-02 1.650786e-01
<VARIANCE> 39
 1.447238e+01 2.901473e+01 3.887175e+01 3.665849e+01 4.773591e+01 4.279189e+01 4.780183e+01 5.724378e+01 5.692237e+01 5.679758e+01 6.878873e+01 6.322499e+01 2.098057e+01 1.267114e+00 1.875371e+00 2.541880e+00 2.759641e+00 3.878370e+00 3.914434e+00 4.211376e+00 4.782530e+00 4.446442e+00 4.449823e+00 4.053452e+00 3.816946e+00 1.623887e+00 1.689792e-01 2.547517e-01 3.254253e-01 4.060785e-01 4.838256e-01 5.520914e-01 6.348550e-01 6.466787e-01 6.405109e-01 6.448756e-01 6.467040e-01 5.463548e-01 1.466088e-01
<GCONST> 1.235392e+02
<MIXTURE> 6 9.222650e-02
<MEAN> 39
 3.075358e+00 -2.444180e+00 2.291872e+00 -1.484254e+00 -5.197040e+00 -5.757205e+00 -3.869673e+00 4.281116e+00 9.674121e-01 -1.442677e+00 -1.305761e+00 1.063956e+00 5.435781e+00 -3.538319e-01 -1.573980e+00 -9.627233e-01 -1.371718e+00 -5.989422e-01 5.046394e-01 8.909360e-01 2.494436e+00 7.929152e-01 -2.713895e-02 2.855557e-01 1.711678e-01 1.763774e+00 1.706402e-02 2.272145e-01 -3.923470e-02 1.852669e-01 3.033363e-01 3.431201e-01 3.879101e-01 -4.730128e-01 -2.393680e-01 -1.811955e-02 -1.396942e-01 -1.824536e-01 -2.479782e-01
<VARIANCE> 39
 1.181091e+01 2.182361e+01 3.572498e+01 3.334256e+01 4.693068e+01 4.588375e+01 5.510485e+01 5.049014e+01 6.203794e+01 4.953899e+01 4.775875e+01 5.225921e+01 1.875774e+01 1.083400e+00 1.993235e+00 3.130340e+00 2.688093e+00 4.715961e+00 4.727205e+00 5.325246e+00 5.027873e+00 5.812192e+00 4.932353e+00 4.177319e+00 3.864231e+00 1.126396e+00 1.151353e-01 2.103823e-01 3.166569e-01 3.932559e-01 5.276231e-01 5.699101e-01 6.365779e-01 6.753262e-01 6.813779e-01 6.371997e-01 5.644704e-01 5.672572e-01 1.477409e-01
<GCONST> 1.225150e+02
<MIXTURE> 7 1.009274e-01
<MEAN> 39
 -8.427819e+00 1.319187e+01 -6.924083e-01 6.815913e+00 -2.042952e+00 -5.334742e+00 1.380656e+00 -5.419749e+00 -3.926360e-01 -1.310634e+00 7.790625e-01 -1.431080e+00 1.763098e+00 1.870877e+00 -1.161657e+00 9.983304e-01 -1.754282e+00 -2.314406e+00 -2.548291e+00 -1.108277e+00 1.016712e+00 1.596587e-01 1.974813e-01 9.818591e-01 1.781264e+00 2.124225e+00 1.061702e+00 -1.250307e+00 4.469182e-01 -7.000216e-01 -2.157477e-01 1.598993e-01 -2.315557e-01 6.704773e-01 6.758149e-02 8.299387e-02 -1.588850e-01 1.897634e-01 -1.989410e-01
<VARIANCE> 39
 2.264548e+01 2.703276e+01 3.317979e+01 3.302797e+01 4.920514e+01 4.529794e+01 4.055902e+01 3.674181e+01 3.978125e+01 4.190393e+01 4.625386e+01 4.684009e+01 1.924323e+01 4.008015e+00 3.462387e+00 3.476187e+00 3.189020e+00 4.073822e+00 3.923907e+00 4.599181e+00 5.463574e+00 4.985967e+00 5.191145e+00 5.912360e+00 5.472746e+00 2.082056e+00 4.558123e-01 4.360375e-01 5.288407e-01 5.482966e-01 7.449235e-01 7.628487e-01 7.573325e-01 7.076465e-01 8.447471e-01 7.817072e-01 9.166526e-01 9.005793e-01 3.085347e-01
<GCONST> 1.308363e+02
<MIXTURE> 8 1.372059e-01
<MEAN> 39
 -7.651816e+00 -4.900551e-01 1.918114e+00 1.383807e+00 3.976602e+00 1.496306e+00 2.467815e+00 7.467877e-01 7.947448e-02 1.949079e+00 1.737057e+00 1.354581e+00 -2.249037e+00 -1.334786e+00 -5.093400e-01 -5.466385e-01 -1.305337e+00 -1.306157e+00 -1.223717e+00 -2.045659e-01 4.599652e-01 2.498068e-01 4.158590e-01 8.287603e-01 9.815316e-01 3.628018e+00 8.104144e-01 6.036507e-01 3.182600e-01 2.423554e-01 -5.567088e-01 -5.579623e-01 -3.265736e-01 -2.033250e-01 -1.586478e-01 -3.213958e-01 -2.551938e-01 -1.573541e-01 -1.062044e-01
<VARIANCE> 39
 2.575176e+01 3.227497e+01 4.598915e+01 3.608320e+01 4.488767e+01 4.321317e+01 4.353159e+01 3.761487e+01 3.886100e+01 3.530970e+01 2.935989e+01 3.218462e+01 6.437139e+01 5.371598e+00 4.274111e+00 4.157200e+00 3.633281e+00 5.194328e+00 5.465182e+00 4.645767e+00 4.292932e+00 4.194676e+00 3.771321e+00 3.368966e+00 3.106006e+00 4.739550e+00 6.049198e-01 5.741122e-01 7.843733e-01 6.912158e-01 8.739058e-01 8.699723e-01 8.133434e-01 7.539726e-01 8.070747e-01 7.235757e-01 6.218663e-01 5.999802e-01 8.750977e-01
<GCONST> 1.337880e+02
<STATE> 4
<NUMMIXES> 8
<MIXTURE> 1 1.860499e-01
<MEAN> 39
 -5.811721e+00 -3.201952e-01 5.889379e-01 3.927180e+00 2.808870e+00 7.192116e-01 3.417328e+00 1.451639e+00 7.788058e-01 -1.010405e-01 9.375291e-01 2.211757e-01 -8.071081e+00 -7.039596e-01 -6.078125e-01 -4.219937e-01 -3.425020e-01 -7.435589e-02 -1.946250e-02 3.395545e-01 6.186008e-01 5.669979e-01 4.452046e-01 5.197691e-01 3.640577e-01 1.837245e-01 2.117459e-01 2.298314e-01 1.684831e-01 9.319031e-02 -4.012353e-02 -1.160360e-01 -2.148597e-01 -2.544136e-01 -2.319160e-01 -1.920602e-01 -1.993120e-01 -1.335619e-01 3.575938e-02
<VARIANCE> 39
 2.214348e+01 3.032671e+01 2.373449e+01 2.377744e+01 3.418167e+01 3.195630e+01 3.211947e+01 3.379285e+01 3.076395e+01 3.252868e+01 2.987728e+01 3.480971e+01 3.824380e+01 5.737452e-01 8.290424e-01 1.019416e+00 1.264593e+00 1.525629e+00 1.803247e+00 1.910784e+00 1.930210e+00 1.951760e+00 1.977872e+00 1.816874e+00 1.789179e+00 9.835063e-01 9.881589e-02 1.419940e-01 1.647231e-01 2.077557e-01 2.562533e-01 3.088120e-01 3.319597e-01 3.564602e-01 3.551599e-01 3.683029e-01 3.267632e-01 3.275642e-01 9.745485e-02
<GCONST> 1.014395e+02
<MIXTURE> 2 9.428384e-02
<MEAN> 39
 -5.260638e+00 -2.810100e-01 -4.791979e-01 2.884764e-01 -8.582374e-01 -2.710933e+00 1.675836e+00 1.112601e+00 1.974012e+00 2.472999e+00 3.970280e+00 2.738107e+00 -1.269789e+00 -4.045075e-01 -2.746944e-01 -1.725896e-01 -1.649940e-01 -1.706932e-01 -9.889111e-02 1.469504e-01 2.962144e-01 2.387858e-01 5.686679e-02 2.246477e-01 1.652916e-01 3.873551e-01 3.463049e-01 3.179194e-01 2.968114e-01 3.696625e-01 2.270633e-01 2.344740e-01 -8.096372e-02 -2.425218e-01 -2.726689e-01 -3.148999e-01 -4.432980e-01 -3.106028e-01 -3.604278e-01
<VARIANCE> 39
 4.817134e+01 5.036572e+01 4.587309e+01 4.723583e+01 6.241348e+01 5.751965e+01 5.728470e+01 5.070432e+01 5.405595e+01 5.756314e+01 5.298753e+01 5.288839e+01 6.333299e+01 2.752477e+00 2.290634e+00 2.432989e+00 2.691133e+00 3.269428e+00 3.452130e+00 3.302422e+00 3.241392e+00 3.218571e+00 3.325104e+00 2.953620e+00 2.778145e+00 3.157821e+00 4.553629e-01 5.332952e-01 5.355434e-01 6.606510e-01 7.132037e-01 7.738790e-01 7.194730e-01 7.353512e-01 7.237087e-01 7.463189e-01 6.330603e-01 5.869946e-01 6.592132e-01
<GCONST> 1.318738e+02
<MIXTURE> 3 1.255039e-01
<MEAN> 39
 4.276686e+00 4.257536e+00 4.266390e+00 3.123384e+00 -2.603635e+00 -4.674679e+00 -2.876568e+00 -4.175779e+00 -3.491639e+00 -3.552812e+00 -3.520160e+00 -2.646338e+00 -2.229697e+00 -4.886556e-01 9.437209e-01 1.027246e-01 7.186497e-01 9.716609e-01 6.006782e-01 4.178238e-01 -7.240637e-01 -3.365609e-01 -1.683495e-01 -3.075100e-01 -5.984893e-01 -1.249485e+00 -3.045377e-01 -3.211587e-01 -2.244504e-01 -3.872918e-01 -1.460174e-01 1.308310e-01 2.059071e-01 4.033850e-01 2.595805e-01 3.467778e-01 2.611278e-01 2.645804e-01 4.275075e-01
<VARIANCE> 39
 1.631144e+01 2.797272e+01 3.456397e+01 3.382446e+01 4.508382e+01 4.074583e+01 4.513257e+01 5.377108e+01 4.741463e+01 5.063890e+01 5.229540e+01 5.210508e+01 2.228185e+01 1.497558e+00 1.844689e+00 2.365971e+00 2.508485e+00 3.396561e+00 3.495333e+00 3.612495e+00 4.050360e+00 3.863517e+00 3.671591e+00 3.461034e+00 3.206828e+00 1.530912e+00 2.181564e-01 2.730374e-01 3.516825e-01 4.306350e-01 5.315143e-01 5.644946e-01 6.440314e-01 6.981121e-01 6.600900e-01 6.639281e-01 6.275220e-01 5.673702e-01 1.666079e-01
<GCONST> 1.220502e+02
<MIXTURE> 4 1.371654e-01
<MEAN> 39
 2.431149e+00 -3.906556e+00 -1.315929e-01 -3.529617e+00 -5.385225e+00 -4.299121e+00 1.906888e-01 8.870749e+00 3.847377e+00 -1.436015e+00 -2.726534e+00 -7.643259e-01 8.848491e+00 -5.418016e-02 -1.412521e+00 -1.208284e+00 -7.436361e-01 9.355941e-01 1.828277e+00 1.518326e+00 1.487984e+00 4.515308e-01 -4.207710e-01 -5.377495e-01 -6.989561e-01 9.712727e-01 -1.812432e-01 5.138544e-01 5.889291e-02 5.448010e-01 6.273606e-01 2.350159e-01 -7.022414e-02 -1.127849e+00 -5.252605e-01 -6.228371e-02 6.352005e-02 2.155288e-02 -5.554657e-01
<VARIANCE> 39
 1.229725e+01 2.107791e+01 2.964340e+01 2.737277e+01 4.545847e+01 4.509386e+01 7.334536e+01 4.621463e+01 7.169568e+01 5.648391e+01 4.314226e+01 4.927314e+01 2.074440e+01 7.977882e-01 1.564956e+00 2.033980e+00 2.052184e+00 3.798537e+00 3.688919e+00 4.202467e+00 4.164846e+00 4.560413e+00 4.114507e+00 3.538825e+00 3.554099e+00 5.893375e-01 2.130688e-01 2.435535e-01 3.409846e-01 3.933814e-01 5.834708e-01 6.327143e-01 8.720939e-01 6.754025e-01 8.600250e-01 7.603325e-01 6.471586e-01 6.290806e-01 1.500090e-01
<GCONST> 1.210626e+02
<MIXTURE> 5 1.474705e-01
<MEAN> 39
 -3.790530e+00 8.489362e+00 6.196525e+00 3.436878e+00 -4.326047e+00 -8.478822e+00 -2.034316e+00 -3.746829e+00 -3.522939e+00 -1.905149e+00 6.432901e-02 1.131453e+00 4.382995e+00 3.112324e+00 -1.315348e+00 9.563912e-01 -7.214862e-01 -2.755377e+00 -1.960181e+00 -1.422853e+00 1.225511e-01 -1.870726e-01 -4.993647e-01 -3.309496e-01 2.479330e-01 1.280811e+00 8.526367e-02 -6.760989e-01 -4.214441e-01 -1.612188e-01 2.566798e-01 7.805072e-01 3.266545e-01 4.555430e-01 4.362856e-01 2.650502e-01 -3.936950e-02 -1.878655e-01 -3.363758e-01
<VARIANCE> 39
 2.142659e+01 2.427261e+01 3.519467e+01 2.990890e+01 5.118527e+01 3.723976e+01 3.830682e+01 3.856496e+01 3.655332e+01 3.279954e+01 3.202471e+01 3.906723e+01 1.986293e+01 2.624936e+00 3.676522e+00 3.744824e+00 4.005824e+00 3.862096e+00 4.357080e+00 4.483618e+00 4.808736e+00 4.910827e+00 4.111676e+00 3.897227e+00 3.633518e+00 1.095421e+00 4.967677e-01 3.419997e-01 3.834140e-01 3.729400e-01 6.107024e-01 5.735648e-01 5.822040e-01 5.912843e-01 5.450724e-01 5.350093e-01 5.501170e-01 4.844846e-01 2.169861e-01
<GCONST> 1.236513e+02
<MIXTURE> 6 8.850814e-02
<MEAN> 39
 2.000647e+00 1.072567e+00 2.251215e+00 -3.804288e-01 -6.960643e+00 -1.034229e+01 -5.163344e+00 2.529705e+00 2.984854e+00 -1.727140e+00 -1.644962e+00 2.374967e+00 7.847173e+00 2.082804e+00 -2.732604e+00 -6.171687e-01 -1.718629e+00 -1.096092e+00 4.321826e-01 -3.142197e-01 2.068499e+00 1.529638e+00 3.479746e-02 -7.104681e-01 -5.467300e-01 1.434447e+00 -6.518363e-01 1.320226e-01 -4.104331e-01 1.911636e-01 1.054011e+00 1.286734e+00 8.441666e-01 -1.301953e-01 -1.804783e-01 2.117532e-01 2.161034e-02 -4.988151e-01 -5.903001e-01
<VARIANCE> 39
 1.156327e+01 2.170104e+01 2.981363e+01 2.603568e+01 3.870218e+01 3.152835e+01 4.238445e+01 3.464798e+01 4.344483e+01 3.931648e+01 3.798736e+01 3.771688e+01 1.924537e+01 1.746177e+00 2.529558e+00 3.058450e+00 2.942060e+00 4.844450e+00 5.125894e+00 5.584105e+00 5.343484e+00 4.938108e+00 4.792141e+00 4.927072e+00 3.920606e+00 8.541151e-01 3.555678e-01 3.858449e-01 4.108594e-01 4.154823e-01 5.730660e-01 5.961370e-01 6.019579e-01 7.229787e-01 7.435337e-01 6.580902e-01 6.723726e-01 5.801888e-01 1.927833e-01
<GCONST> 1.232187e+02
<MIXTURE> 7 1.407194e-01
<MEAN> 39
 3.427008e+00 5.274228e-01 1.723707e+00 -4.747442e-01 -2.765013e+00 -2.602933e+00 -2.107672e+00 -8.553128e-01 -1.126139e+00 -7.361903e-01 -9.701837e-01 6.497921e-01 2.336295e+00 1.655165e-02 4.740864e-02 -3.516723e-02 -6.413136e-02 5.512599e-02 1.392155e-01 9.173567e-02 5.517367e-02 7.386834e-02 1.044744e-01 1.483445e-02 -6.941260e-02 -3.348554e-02 -2.166541e-02 -6.547943e-03 -3.200037e-02 -9.922651e-04 4.234201e-02 1.603054e-02 5.343488e-03 2.290820e-02 1.208801e-02 2.076908e-02 9.030470e-03 -2.055231e-02 1.427405e-02
<VARIANCE> 39
 1.685185e+01 3.598199e+01 4.635497e+01 4.252504e+01 5.900543e+01 5.622596e+01 5.398267e+01 6.479482e+01 6.056366e+01 6.278173e+01 6.772085e+01 7.223892e+01 3.171757e+01 2.463213e-01 5.628915e-01 8.304440e-01 1.054322e+00 1.481082e+00 1.466714e+00 1.793221e+00 1.794638e+00 1.809341e+00 1.804437e+00 1.800231e+00 1.603533e+00 2.322746e-01 3.657301e-02 7.352827e-02 1.278291e-01 1.612106e-01 2.043955e-01 2.454879e-01 2.754798e-01 2.983284e-01 3.046245e-01 3.019399e-01 3.003249e-01 2.621851e-01 2.598849e-02
<GCONST> 9.888350e+01
<MIXTURE> 8 8.041166e-02
<MEAN> 39
 1.583100e-01 -1.704653e+00 4.764782e+00 -4.555463e+00 -7.784132e+00 -8.245247e+00 5.486364e-02 3.712633e+00 -1.622508e+00 4.278025e+00 6.518043e+00 9.258808e+00 7.737634e+00 2.871543e-01 -1.975991e+00 2.769188e-01 -1.159453e+00 7.404097e-01 1.195553e+00 1.089277e+00 1.426175e+00 -6.996048e-01 1.780005e-01 -5.486652e-01 5.915310e-01 8.764352e-01 -3.169892e-01 5.275300e-01 -4.743250e-01 6.747753e-01 6.523306e-01 7.356061e-01 1.902954e-01 -5.034396e-01 8.609312e-02 -4.882264e-01 -6.657254e-01 -8.819395e-01 -5.011835e-01
<VARIANCE> 39
 1.321574e+01 2.043430e+01 3.718018e+01 3.024285e+01 4.324859e+01 4.036599e+01 5.146290e+01 5.614446e+01 6.522631e+01 7.464201e+01 9.195902e+01 7.937903e+01 1.653809e+01 9.376854e-01 2.089400e+00 2.343518e+00 2.826116e+00 4.343658e+00 3.664102e+00 4.197647e+00 4.128334e+00 4.099186e+00 4.748877e+00 4.666660e+00 4.143025e+00 5.249585e-01 2.821017e-01 2.681446e-01 3.624683e-01 4.471574e-01 6.238345e-01 6.831420e-01 6.632403e-01 7.885685e-01 8.080505e-01 8.700007e-01 8.870416e-01 7.640215e-01 1.334420e-01
<GCONST> 1.247374e+02
<STATE> 5
<NUMMIXES> 8
<MIXTURE> 1 4.905604e-01
<MEAN> 39
 -1.001833e+01 -2.097480e+00 3.924879e-01 4.843306e+00 4.959164e+00 -4.880205e-01 5.470772e+00 2.697381e+00 1.747494e+00 1.173688e-01 2.555596e+00 1.368971e+00 -9.302690e+00 -4.540983e-03 -2.185707e-02 -2.485201e-03 1.943021e-02 3.824921e-02 3.392708e-02 1.539657e-04 3.482559e-03 1.555081e-03 2.027696e-03 2.425824e-03 7.381892e-03 -4.983167e-02 4.730259e-02 2.153922e-02 1.885128e-03 -3.653620e-03 -6.115248e-03 1.043135e-02 -2.270862e-02 -3.192857e-02 -2.088619e-02 -7.396149e-03 -1.937436e-02 -6.100610e-03 -2.873335e-02
<VARIANCE> 39
 1.620094e+01 3.680626e+01 2.790338e+01 2.826028e+01 3.193295e+01 3.778870e+01 3.745103e+01 4.064920e+01 3.956165e+01 3.720671e+01 3.370354e+01 3.660965e+01 5.304800e+01 2.623862e-01 4.049330e-01 5.852938e-01 7.957515e-01 1.052243e+00 1.281188e+00 1.423082e+00 1.569617e+00 1.674483e+00 1.635475e+00 1.526767e+00 1.416909e+00 2.718773e-01 3.987943e-02 7.391429e-02 1.110358e-01 1.548754e-01 2.037878e-01 2.505565e-01 2.846508e-01 3.128356e-01 3.339059e-01 3.281863e-01 3.073752e-01 2.867109e-01 2.447448e-02
<GCONST> 9.248495e+01
<MIXTURE> 2 9.217078e-02
<MEAN> 39
 5.610082e-01 -1.690904e+00 -6.051990e-01 5.925686e-01 2.685599e+00 2.221024e+00 1.051186e+00 2.052617e+00 1.951213e+00 -1.253944e+00 -5.666766e-01 6.108785e-01 8.204818e-01 1.433448e-02 2.569787e-02 -2.600975e-02 8.469827e-03 3.747434e-02 8.263838e-03 -3.050249e-02 -1.226337e-02 1.860921e-02 1.652937e-02 3.011312e-03 8.342672e-03 -6.836297e-02 -5.092820e-03 3.288029e-04 1.041871e-02 2.558256e-03 -3.713302e-02 -4.810642e-02 -6.019999e-05 1.232048e-02 -5.893499e-04 8.394421e-03 1.089361e-02 7.284946e-03 -2.972334e-03
<VARIANCE> 39
 3.403896e+01 3.346793e+01 5.666484e+01 8.737769e+01 1.274672e+02 1.028237e+02 1.180547e+02 1.111437e+02 1.271992e+02 1.182908e+02 1.232943e+02 1.228484e+02 1.119046e+02 1.562926e-01 3.240868e-01 4.774121e-01 6.626830e-01 8.673570e-01 1.026552e+00 1.136639e+00 1.227980e+00 1.293007e+00 1.285227e+00 1.346152e+00 1.195793e+00 8.280144e-02 2.849677e-02 5.725249e-02 8.749708e-02 1.276146e-01 1.570413e-01 1.931799e-01 2.139527e-01 2.351837e-01 2.525285e-01 2.479000e-01 2.577584e-01 2.163071e-01 1.209880e-02
<GCONST> 9.725372e+01
<MIXTURE> 3 6.849799e-02
<MEAN> 39
 1.868831e+00 5.584140e+00 4.073964e+00 3.783015e+00 -7.057112e-01 -3.474569e+00 -1.963257e+00 -5.004675e+00 -3.996010e+00 -3.368128e+00 -3.513451e+00 -3.004583e+00 -3.897738e+00 -5.073769e-01 3.297587e-01 -1.274948e-01 1.826175e-01 4.297132e-01 3.839929e-01 2.558579e-01 -6.687189e-02 9.811650e-02 2.278789e-01 1.137155e-01 -2.838715e-02 -3.760887e-01 -2.048908e-01 -3.819480e-01 -1.812741e-01 -2.957675e-01 -1.859906e-01 3.122093e-02 1.028662e-01 4.111278e-01 3.290764e-01 3.013403e-01 2.935157e-01 2.744329e-01 3.663067e-01
<VARIANCE> 39
 3.236332e+01 3.085095e+01 4.055969e+01 3.717696e+01 5.098009e+01 4.495807e+01 4.576065e+01 4.837379e+01 4.359539e+01 4.593866e+01 4.383911e+01 4.601132e+01 3.980776e+01 2.582834e+00 2.029628e+00 2.206069e+00 2.380354e+00 3.020702e+00 3.078055e+00 3.162639e+00 3.410480e+00 3.224015e+00 3.079546e+00 2.960396e+00 2.717457e+00 1.692168e+00 2.858734e-01 3.012950e-01 3.847260e-01 4.411377e-01 5.646932e-01 5.496236e-01 5.929277e-01 6.254844e-01 6.092241e-01 6.040775e-01 5.503690e-01 5.100709e-01 2.739897e-01
<GCONST> 1.231148e+02
<MIXTURE> 4 4.708800e-02
<MEAN> 39
 2.480579e+00 -2.720128e+00 -2.276252e-01 -2.003298e+00 -1.180989e-01 -1.869080e+00 -6.424514e-01 1.032593e+00 3.159502e+00 2.283456e+00 1.387366e+00 9.705603e-01 3.755982e+00 2.198303e-01 -8.856571e-02 -1.499693e-01 -1.221945e-01 3.258073e-01 3.381299e-01 -9.055421e-03 -2.698997e-01 -4.721509e-02 2.399391e-02 -2.478175e-02 -1.767252e-01 2.327461e-01 -2.397419e-01 2.719271e-01 4.650729e-02 2.518333e-01 6.412520e-02 1.156258e-01 9.390938e-02 -9.228643e-02 -1.716101e-01 -1.405428e-01 -4.076587e-02 -2.110361e-02 -2.612244e-01
<VARIANCE> 39
 4.898887e+01 4.262549e+01 6.623440e+01 8.863300e+01 1.126969e+02 1.081896e+02 1.227680e+02 1.120694e+02 1.119465e+02 1.172029e+02 1.263675e+02 1.159545e+02 7.799107e+01 2.468497e+00 3.187690e+00 3.541085e+00 4.678418e+00 5.279803e+00 6.357072e+00 6.246422e+00 6.334294e+00 6.384839e+00 6.590671e+00 6.043549e+00 5.538559e+00 3.035333e+00 3.819439e-01 4.796849e-01 5.886880e-01 7.910028e-01 8.580582e-01 1.068788e+00 1.214770e+00 1.206687e+00 1.191742e+00 1.189662e+00 1.107821e+00 1.007436e+00 3.898017e-01
<GCONST> 1.481415e+02
<MIXTURE> 5 6.872156e-02
<MEAN> 39
 1.602887e+00 -7.919220e-01 5.921919e+00 -2.558519e+00 -9.818912e+00 -5.388157e+00 7.309138e-01 2.081150e+00 -2.428736e+00 1.202682e+00 8.857331e-01 1.665203e+00 6.348990e+00 6.925396e-02 -3.846864e-01 -2.964849e-01 -2.290659e-01 1.573525e-01 5.459650e-01 4.482342e-01 4.065592e-01 7.504315e-02 2.431960e-02 -3.132440e-01 -2.567788e-01 1.173039e-01 -5.993146e-02 2.082871e-01 -1.349867e-01 2.148841e-01 3.556647e-01 1.133143e-02 -1.262610e-01 -2.434347e-01 3.063703e-02 -1.492703e-01 -9.629816e-02 -6.141867e-02 -1.806704e-01
<VARIANCE> 39
 1.242266e+01 2.094285e+01 3.180103e+01 3.841561e+01 3.445613e+01 4.116255e+01 4.867165e+01 5.187796e+01 5.811217e+01 5.488620e+01 5.933020e+01 6.642207e+01 1.806212e+01 3.670733e-01 8.661486e-01 1.195296e+00 1.281808e+00 1.623484e+00 2.028031e+00 2.265532e+00 2.385726e+00 2.329967e+00 2.438508e+00 2.252119e+00 1.920917e+00 2.772788e-01 8.006495e-02 1.367872e-01 1.771960e-01 2.231716e-01 2.938375e-01 3.381478e-01 3.753264e-01 3.943600e-01 4.280505e-01 4.045068e-01 3.951109e-01 3.628756e-01 5.464923e-02
<GCONST> 1.041905e+02
<MIXTURE> 6 5.976942e-02
<MEAN> 39
 1.694648e+00 -5.403301e+00 -2.400018e+00 -3.300520e+00 -1.058370e+00 -1.503686e+00 1.941735e+00 8.112871e+00 2.312195e+00 -3.257466e+00 -2.907319e+00 9.689361e-01 9.170932e+00 -1.154685e-03 -6.653274e-01 -8.790677e-01 2.745697e-02 1.485059e+00 1.353480e+00 3.477308e-01 -3.075601e-01 -1.875551e-01 -3.840463e-01 -3.051102e-01 -3.239974e-01 1.864257e-01 -1.497128e-02 3.781378e-01 1.867427e-01 2.422576e-01 1.260335e-02 -2.235389e-01 -3.903872e-01 -6.946927e-01 -1.702538e-01 2.218004e-01 2.489559e-01 4.301910e-02 -3.191462e-01
<VARIANCE> 39
 1.470814e+01 2.162993e+01 2.557525e+01 2.647788e+01 4.546438e+01 5.284520e+01 8.170894e+01 5.043582e+01 7.052216e+01 5.350637e+01 5.689565e+01 7.124992e+01 2.177853e+01 4.815491e-01 1.095508e+00 1.431499e+00 1.697083e+00 2.844172e+00 3.014607e+00 3.591251e+00 3.444727e+00 3.441955e+00 3.371073e+00 3.082011e+00 3.187596e+00 3.719263e-01 9.743122e-02 1.729414e-01 2.166482e-01 2.805275e-01 3.859549e-01 4.728349e-01 6.473359e-01 5.282954e-01 6.412950e-01 5.547696e-01 5.010450e-01 5.468353e-01 7.013889e-02
<GCONST> 1.137057e+02
<MIXTURE> 7 4.373882e-02
<MEAN> 39
 6.739615e-01 3.887687e+00 6.763717e+00 2.129942e+00 -9.070937e+00 -8.062261e+00 -2.312614e+00 -2.702042e+00 -2.855287e+00 -1.519845e+00 4.788005e-01 7.723352e-01 5.060786e+00 1.375520e+00 -1.561332e+00 -3.257105e-03 -6.955062e-01 -1.234406e+00 9.892860e-02 -9.713854e-02 8.131968e-01 3.246440e-01 2.397416e-01 -2.801821e-02 -4.465286e-02 5.555533e-01 -5.259188e-01 8.643032e-02 -3.287844e-01 2.147333e-02 7.626886e-01 6.061993e-01 3.430535e-01 2.066134e-01 1.444702e-01 1.413863e-01 -7.161945e-02 -1.304058e-01 -2.496682e-01
<VARIANCE> 39
 1.391175e+01 2.326028e+01 3.651903e+01 3.572662e+01 4.029414e+01 3.411652e+01 3.848063e+01 3.984793e+01 4.465017e+01 3.808026e+01 3.737291e+01 4.583409e+01 1.798857e+01 1.343021e+00 1.711064e+00 2.312761e+00 2.194561e+00 3.136538e+00 3.152449e+00 3.267437e+00 3.299534e+00 3.015560e+00 2.895203e+00 2.912704e+00 2.579073e+00 4.833099e-01 2.306182e-01 2.836657e-01 3.006765e-01 3.270212e-01 4.184516e-01 4.354231e-01 4.301283e-01 4.594228e-01 4.650173e-01 4.430295e-01 4.361253e-01 4.086502e-01 7.645455e-02
<GCONST> 1.133016e+02
<MIXTURE> 8 1.291951e-01
<MEAN> 39
 -8.314386e+00 -7.292933e-01 -2.487221e-01 4.424160e+00 4.120723e+00 9.092057e-01 4.910437e+00 2.102402e+00 1.687777e+00 1.050849e+00 2.613996e+00 1.979963e+00 -9.567840e+00 8.103428e-02 2.826154e-02 9.291171e-02 5.652523e-02 1.476886e-03 -3.339297e-02 -1.520067e-01 -1.578337e-01 -1.878145e-01 -1.818982e-01 -2.019664e-01 -1.186791e-01 -4.172741e-02 1.474889e-01 1.069449e-01 8.836246e-02 6.972702e-03 -4.273206e-02 -7.727919e-02 -1.260669e-01 -1.274589e-01 -1.074796e-01 -9.302668e-02 -1.273746e-01 -1.151324e-01 8.786231e-02
<VARIANCE> 39
 2.549936e+01 4.376185e+01 3.343207e+01 3.377499e+01 4.083341e+01 4.270647e+01 4.027021e+01 3.720393e+01 3.759406e+01 3.743951e+01 3.195214e+01 3.124229e+01 6.166463e+01 1.825433e+00 2.139328e+00 1.811691e+00 2.061087e+00 2.356761e+00 2.684637e+00 2.629928e+00 2.668092e+00 2.601612e+00 2.584646e+00 2.262267e+00 1.989623e+00 2.595851e+00 2.545498e-01 3.215503e-01 3.026059e-01 3.566980e-01 4.085500e-01 4.634879e-01 4.605860e-01 4.632542e-01 4.618047e-01 4.635821e-01 3.991399e-01 3.559929e-01 3.109568e-01
<GCONST> 1.170153e+02
<TRANSP> 6
 0.000000e+00 1.000000e+00 0.000000e+00 0.000000e+00 0.000000e+00 0.000000e+00
 0.000000e+00 7.111369e-01 2.888631e-01 0.000000e+00 0.000000e+00 0.000000e+00
 0.000000e+00 0.000000e+00 3.904821e-01 6.095179e-01 0.000000e+00 0.000000e+00
 0.000000e+00 0.000000e+00 0.000000e+00 3.388411e-01 6.611589e-01 0.000000e+00
 0.000000e+00 0.000000e+00 0.000000e+00 0.000000e+00 7.946717e-01 2.053283e-01
 0.000000e+00 0.000000e+00 0.000000e+00 0.000000e+00 0.000000e+00 0.000000e+00
<ENDHMM>
~h "f"
<BEGINHMM>
<NUMSTATES> 6
<STATE> 2
<NUMMIXES> 8
<MIXTURE> 1 1.603721e-01
<MEAN> 39
 -1.853433e+00 -1.026632e+00 -4.426458e-01 8.540781e-01 1.203424e+00 5.228961e-01 1.266576e-01 5.574676e-02 1.297500e+00 3.483072e+00 4.545897e+00 2.532605e+00 -4.070856e+00 1.251387e-02 -2.184705e-02 -9.065216e-03 -1.684503e-02 -2.041723e-02 -8.263809e-04 -1.828616e-02 -2.843885e-02 -6.965064e-03 -1.107718e-02 5.708107e-03 9.238415e-03 -4.501180e-02 2.525122e-02 5.202492e-02 5.702173e-02 5.528219e-02 4.839750e-02 4.099222e-02 5.388736e-02 -1.277908e-02 -1.575166e-01 -3.723884e-01 -4.776364e-01 -2.954294e-01 2.036474e-02
<VARIANCE> 39
 7.202398e+00 1.017685e+01 1.150045e+01 1.405035e+01 1.665076e+01 1.637086e+01 1.765088e+01 1.781699e+01 1.849482e+01 1.474208e+01 1.137966e+01 1.483212e+01 1.273258e+01 1.493363e-01 3.080489e-01 4.711947e-01 6.817840e-01 9.128469e-01 1.082348e+00 1.266498e+00 1.391265e+00 1.452896e+00 1.487346e+00 1.401580e+00 1.297196e+00 6.433978e-02 2.813767e-02 6.076667e-02 9.648427e-02 1.379194e-01 1.710035e-01 2.027696e-01 2.364495e-01 2.496142e-01 2.623926e-01 2.302887e-01 1.802543e-01 2.171171e-01 1.093748e-02
<GCONST> 7.321620e+01
<MIXTURE> 2 1.570726e-01
<MEAN> 39
 -1.293848e+00 -8.414025e-01 -1.915013e-01 1.081969e+00 1.619764e+00 1.977530e+00 2.998185e+00 3.550359e+00 2.645765e+00 5.934929e-01 -1.008957e+00 -1.415694e+00 -3.667809e+00 1.856207e-02 -8.703193e-03 2.138562e-03 1.337672e-03 4.430615e-03 3.607306e-03 -1.679185e-02 -6.193326e-03 -2.544981e-03 3.247823e-04 1.298146e-02 -4.188768e-03 -4.176592e-02 -5.911937e-03 1.173162e-02 1.284714e-02 1.671353e-02 -1.585829e-02 -1.188679e-01 -2.727393e-01 -4.044073e-01 -3.073070e-01 -5.379171e-02 1.475369e-01 1.409938e-01 5.079496e-03
<VARIANCE> 39
 6.515634e+00 1.023196e+01 1.118125e+01 1.297456e+01 1.517871e+01 1.627913e+01 1.501823e+01 1.342099e+01 1.441239e+01 1.646198e+01 1.529158e+01 1.687513e+01 1.236833e+01 1.291796e-01 2.903931e-01 4.533463e-01 6.505319e-01 8.586177e-01 1.051676e+00 1.240217e+00 1.373591e+00 1.400213e+00 1.416041e+00 1.372941e+00 1.249523e+00 5.424940e-02 2.407000e-02 5.530057e-02 8.728418e-02 1.208873e-01 1.599429e-01 1.923462e-01 2.034518e-01 1.873295e-01 2.098048e-01 2.380237e-01 2.153894e-01 2.279778e-01 9.190380e-03
<GCONST> 7.082178e+01
<MIXTURE> 3 1.017713e-01
<MEAN> 39
 -2.904065e+00 6.489148e-02 -3.653570e-01 2.010625e+00 2.496300e+00 2.334548e+00 2.619010e+00 2.043755e+00 1.984808e+00 1.719545e+00 1.038958e+00 3.858294e-01 -2.996336e+00 -2.229964e-01 -1.844701e-02 -8.741494e-02 -1.409069e-02 -1.315955e-02 -1.525645e-02 4.209777e-02 8.191151e-02 8.717533e-02 1.107549e-01 8.293752e-02 8.387040e-02 1.247668e-02 6.751063e-02 1.729979e-04 5.761485e-03 -6.611241e-02 -1.553425e-01 -2.156694e-01 -2.835081e-01 -2.752283e-01 -2.431765e-01 -1.976960e-01 -1.104804e-01 -5.432058e-02 3.917129e-02
<VARIANCE> 39
 1.529004e+01 1.691658e+01 1.846508e+01 1.982293e+01 2.072062e+01 2.060534e+01 2.066952e+01 2.048989e+01 2.056681e+01 1.926020e+01 1.827472e+01 1.889862e+01 1.725704e+01 7.882112e-01 9.954620e-01 1.185115e+00 1.442899e+00 1.638434e+00 1.820861e+00 1.961710e+00 2.000367e+00 1.967208e+00 1.937313e+00 1.792358e+00 1.631304e+00 5.562232e-01 1.095949e-01 1.609534e-01 1.899630e-01 2.259040e-01 2.508354e-01 2.785890e-01 2.999668e-01 3.133024e-01 3.256479e-01 3.097321e-01 2.860280e-01 2.877727e-01 7.860547e-02
<GCONST> 9.494726e+01
<MIXTURE> 4 1.907845e-01
<MEAN> 39
 -9.166484e-01 1.056088e-02 4.084769e-01 1.120521e+00 4.947091e-01 -4.285296e-01 -8.637726e-01 -1.569816e+00 -1.179436e+00 -5.067717e-01 -3.919673e-01 -6.665583e-01 -3.520437e+00 2.414810e-02 -4.332455e-03 1.381110e-02 2.699955e-03 -1.415798e-03 3.489319e-03 -1.807688e-02 -1.957364e-02 -1.944339e-02 -2.550690e-02 -1.496927e-02 -6.790610e-03 -4.124997e-02 -2.501053e-02 -1.717261e-02 -7.122970e-03 3.606730e-02 9.610997e-02 1.394354e-01 1.681528e-01 1.847505e-01 1.389458e-01 9.978899e-02 9.447376e-02 5.674284e-02 -1.747885e-03
<VARIANCE> 39
 5.935219e+00 8.387946e+00 8.630682e+00 1.072139e+01 1.215769e+01 1.190318e+01 1.258843e+01 1.232311e+01 1.434435e+01 1.358721e+01 1.187508e+01 1.508359e+01 1.110583e+01 1.055872e-01 2.398621e-01 3.987367e-01 5.878726e-01 7.873365e-01 9.463737e-01 1.111637e+00 1.214017e+00 1.280954e+00 1.274851e+00 1.222902e+00 1.158670e+00 3.940648e-02 1.822271e-02 4.549469e-02 7.390796e-02 1.033915e-01 1.287486e-01 1.524460e-01 1.826770e-01 1.845400e-01 2.055606e-01 2.118415e-01 1.834181e-01 2.048333e-01 6.660204e-03
<GCONST> 6.476630e+01
<MIXTURE> 5 1.363703e-01
<MEAN> 39
 -1.359862e+00 -6.414764e-02 -6.545891e-01 -4.234536e-02 -1.292218e+00 -1.978563e+00 -2.017551e+00 -1.764030e+00 -1.148554e+00 -1.152024e+00 -1.020062e+00 -6.132099e-01 -2.537893e+00 -6.462383e-02 2.221673e-02 1.820596e-02 6.321862e-02 4.291721e-02 4.246841e-02 8.735443e-03 -1.968101e-03 -8.402482e-03 8.267417e-03 1.259119e-03 -1.912526e-02 -5.061700e-02 -1.119682e-02 1.971387e-02 7.621671e-02 1.501485e-01 2.516279e-01 3.008505e-01 2.996666e-01 2.292029e-01 1.595936e-01 1.535427e-01 1.447498e-01 7.110047e-02 1.634484e-02
<VARIANCE> 39
 1.243198e+01 1.517737e+01 1.679837e+01 1.873451e+01 2.131092e+01 1.936312e+01 2.139172e+01 2.315476e+01 2.395438e+01 2.250466e+01 2.142969e+01 2.281539e+01 1.620351e+01 3.897164e-01 6.180956e-01 8.243453e-01 1.055302e+00 1.342247e+00 1.465718e+00 1.676969e+00 1.836347e+00 1.852485e+00 1.814552e+00 1.686387e+00 1.567974e+00 2.507110e-01 6.749007e-02 1.142443e-01 1.525056e-01 1.887966e-01 2.139752e-01 2.347895e-01 2.805060e-01 3.169126e-01 3.302280e-01 3.193878e-01 2.915678e-01 2.945021e-01 3.899065e-02
<GCONST> 8.943122e+01
<MIXTURE> 6 1.433071e-01
<MEAN> 39
 -1.679013e+00 2.165946e-02 1.121519e+00 3.541033e+00 4.175465e+00 3.167476e+00 1.487100e+00 -1.206890e+00 -2.514080e+00 -2.308912e+00 -1.120877e+00 -7.995765e-01 -4.193459e+00 1.439447e-03 -2.535361e-02 -7.594209e-03 -7.539463e-03 -1.056418e-02 1.214557e-02 2.998320e-02 2.208472e-02 2.895191e-02 2.397147e-02 8.161962e-03 -8.727310e-03 -5.135141e-02 -1.125471e-02 -4.804582e-02 -1.194584e-01 -2.186991e-01 -2.951048e-01 -2.694308e-01 -9.901877e-02 1.488179e-01 3.185993e-01 3.062133e-01 1.775951e-01 6.811856e-02 1.426079e-02
<VARIANCE> 39
 7.045677e+00 1.096258e+01 1.151295e+01 1.254424e+01 1.398624e+01 1.467355e+01 1.701295e+01 1.707866e+01 1.749389e+01 1.711646e+01 1.876962e+01 1.988801e+01 1.213342e+01 1.766650e-01 3.476329e-01 5.256723e-01 7.412050e-01 9.583997e-01 1.177918e+00 1.311749e+00 1.425710e+00 1.491040e+00 1.487257e+00 1.422179e+00 1.319905e+00 8.246449e-02 3.213092e-02 6.451184e-02 9.571240e-02 1.267778e-01 1.502497e-01 1.810169e-01 2.275528e-01 2.420225e-01 2.358709e-01 2.478231e-01 2.707884e-01 2.729897e-01 1.427886e-02
<GCONST> 7.527088e+01
<MIXTURE> 7 6.111918e-02
<MEAN> 39
 -4.635755e+00 5.255297e+00 1.976668e+00 6.944206e+00 1.572753e+00 -2.617764e-01 -4.973634e-01 -3.468252e+00 -2.951256e+00 -3.342729e+00 -3.515246e+00 -3.375199e+00 -2.951283e+00 -1.873125e+00 -3.063264e-01 -3.389146e-01 4.146172e-01 3.864577e-01 6.014682e-01 8.417547e-01 7.698714e-01 6.517944e-01 5.359148e-01 5.647055e-01 3.224931e-01 -5.203041e-01 2.262901e-01 -4.396151e-01 -3.220735e-01 -5.505434e-01 -3.360124e-01 -1.424165e-01 -3.251824e-02 2.644508e-01 3.788676e-01 4.284210e-01 3.513060e-01 3.068224e-01 1.670591e-01
<VARIANCE> 39
 2.404354e+01 2.180238e+01 2.614963e+01 2.374371e+01 3.934689e+01 3.253391e+01 3.218585e+01 3.438946e+01 3.079396e+01 2.958295e+01 3.023808e+01 3.386717e+01 2.544031e+01 2.381185e+00 1.585037e+00 1.750555e+00 2.063572e+00 2.142081e+00 2.249961e+00 2.365795e+00 2.484369e+00 2.602901e+00 2.497165e+00 2.446144e+00 2.366248e+00 9.434503e-01 2.520980e-01 2.682635e-01 2.787035e-01 3.219863e-01 4.302437e-01 4.256596e-01 4.556467e-01 4.907191e-01 4.642683e-01 4.296058e-01 4.157792e-01 4.114148e-01 1.414533e-01
<GCONST> 1.114087e+02
<MIXTURE> 8 4.885042e-02
<MEAN> 39
 -2.645009e+00 -2.377353e-02 -1.351957e+00 -1.652266e-01 -5.259032e-01 -9.282283e-01 -1.415440e-02 -1.347418e-01 1.133411e+00 1.490162e+00 1.413397e+00 1.063600e+00 -4.457834e-01 -3.434042e-01 1.052910e-01 -2.844724e-02 1.177685e-01 -1.960361e-02 -8.437437e-02 -1.901850e-03 -9.343055e-02 -7.313555e-02 -9.427921e-02 -1.246109e-01 -7.376138e-02 2.790850e-01 7.471173e-02 6.852878e-02 1.395892e-01 1.568191e-01 1.483254e-01 1.220674e-01 3.580665e-02 -5.209103e-03 -8.214062e-02 -1.279499e-01 -1.352230e-01 -9.180948e-02 -5.287262e-02
<VARIANCE> 39
 3.782605e+01 3.300570e+01 3.897979e+01 3.842596e+01 4.527050e+01 4.242359e+01 4.202698e+01 3.977758e+01 4.027972e+01 3.969720e+01 3.975939e+01 3.639814e+01 5.969621e+01 2.177374e+00 2.273402e+00 2.209766e+00 2.431883e+00 2.648457e+00 2.697318e+00 2.822456e+00 3.021688e+00 2.813971e+00 2.736954e+00 2.695815e+00 2.458085e+00 3.157095e+00 3.808737e-01 4.111819e-01 4.352170e-01 4.594865e-01 5.298650e-01 5.522358e-01 5.880030e-01 6.129010e-01 5.532451e-01 5.428051e-01 5.336824e-01 4.553036e-01 5.834907e-01
<GCONST> 1.234477e+02
<STATE> 3
<NUMMIXES> 8
<MIXTURE> 1 1.045442e-01
<MEAN> 39
 -5.902884e+00 -5.852758e+00 -2.589019e+00 5.159212e-01 3.615767e+00 9.544013e-01 -3.861459e-01 1.538434e+00 -3.582320e-01 -8.262114e-01 2.945809e-01 1.624024e+00 -8.685850e+00 2.139591e-02 -5.267891e-03 -1.491100e-02 -2.661203e-02 -3.379583e-02 -1.185120e-02 -2.774091e-02 -2.962366e-02 -6.749893e-03 2.167854e-03 2.184198e-03 1.720310e-03 -2.933078e-02 -1.838311e-02 2.010106e-02 4.596063e-02 7.973398e-02 5.760022e-02 6.793699e-02 1.356646e-01 1.492305e-01 1.381991e-01 1.039672e-01 7.585736e-02 1.266615e-02 3.548673e-03
<VARIANCE> 39
 8.404932e+00 9.672317e+00 1.320735e+01 1.627664e+01 1.981095e+01 2.818204e+01 2.318559e+01 2.032255e+01 2.460463e+01 1.957698e+01 1.972494e+01 2.064674e+01 1.117218e+01 1.349555e-01 2.817358e-01 4.767430e-01 6.902260e-01 8.985857e-01 1.099415e+00 1.241211e+00 1.347986e+00 1.494519e+00 1.431543e+00 1.406015e+00 1.325831e+00 7.367526e-02 2.479916e-02 5.335744e-02 8.895139e-02 1.319412e-01 1.699968e-01 2.118854e-01 2.219677e-01 2.316791e-01 2.611116e-01 2.533250e-01 2.467274e-01 2.458092e-01 9.808589e-03
<GCONST> 7.591573e+01
<MIXTURE> 2 2.200593e-01
<MEAN> 39
 -9.080704e+00 -4.736544e+00 -1.938961e-01 3.727580e+00 3.755418e+00 8.512354e-01 3.843351e+00 5.332164e+00 3.145943e+00 1.183288e+00 3.454437e+00 2.141581e+00 -5.979956e+00 2.938745e-02 -3.325154e-02 -2.328994e-02 2.072683e-02 2.633479e-02 3.726906e-02 -2.067808e-02 -1.433775e-02 3.284025e-04 -3.355611e-02 -1.966191e-02 8.995290e-03 -5.128210e-02 4.045067e-02 2.710970e-02 -1.866574e-02 -2.858782e-02 -4.515023e-02 -6.173040e-02 -1.304468e-01 -2.004426e-01 -1.622128e-01 -1.273329e-01 -1.434138e-01 -7.754247e-02 -2.871813e-02
<VARIANCE> 39
 1.558240e+01 2.012343e+01 1.968674e+01 2.190400e+01 2.730606e+01 3.287241e+01 3.596685e+01 2.867410e+01 3.066191e+01 3.173544e+01 2.636893e+01 2.860314e+01 3.210640e+01 1.865749e-01 3.117244e-01 4.846250e-01 7.041243e-01 9.485255e-01 1.142573e+00 1.344473e+00 1.487131e+00 1.532912e+00 1.502843e+00 1.469340e+00 1.356543e+00 1.882194e-01 2.797564e-02 5.577981e-02 8.852733e-02 1.247829e-01 1.718941e-01 2.166174e-01 2.495486e-01 2.602995e-01 2.821473e-01 2.722889e-01 2.562843e-01 2.617952e-01 1.576535e-02
<GCONST> 8.450233e+01
<MIXTURE> 3 1.009542e-01
<MEAN> 39
 -1.182062e+01 1.439635e+00 -8.439142e-01 6.662266e+00 1.997232e+00 1.913348e+00 3.433482e+00 1.670337e+00 2.376827e+00 1.834341e+00 1.286891e+00 -2.181513e-01 -3.765784e+00 -7.736479e-01 -6.778623e-01 -6.467269e-01 -4.336860e-01 -2.719363e-01 -2.591020e-02 3.517707e-01 6.509404e-01 8.180562e-01 8.096959e-01 7.749497e-01 5.906491e-01 -5.918063e-02 5.925483e-01 9.419432e-02 5.181617e-02 -2.040529e-01 -1.830844e-01 -2.888430e-01 -3.908996e-01 -3.497430e-01 -2.683771e-01 -1.861105e-01 -1.275610e-01 -3.735953e-02 6.693494e-02
<VARIANCE> 39
 1.582160e+01 2.648175e+01 2.261636e+01 2.417702e+01 3.209444e+01 3.012627e+01 3.110223e+01 2.823458e+01 2.949204e+01 2.436573e+01 2.526568e+01 2.654929e+01 2.564685e+01 1.371704e+00 9.388235e-01 1.280845e+00 1.367862e+00 1.611694e+00 1.768273e+00 1.835106e+00 1.879890e+00 1.912569e+00 1.892608e+00 1.800529e+00 1.705640e+00 8.214504e-01 1.712431e-01 2.028866e-01 2.233293e-01 2.530121e-01 2.976149e-01 3.202749e-01 3.238989e-01 3.348339e-01 3.584768e-01 3.322642e-01 3.146717e-01 3.181986e-01 1.177692e-01
<GCONST> 1.019390e+02
<MIXTURE> 4 1.214666e-01
<MEAN> 39
 -9.857417e+00 -1.600965e+00 -3.542761e+00 1.785192e+00 -6.902927e-01 -1.398899e+00 1.247114e+00 2.347645e+00 3.887079e+00 4.205423e+00 4.197953e+00 2.947396e+00 -4.994653e+00 -1.420065e-01 -5.084580e-02 -5.959640e-02 1.309103e-02 -1.912807e-03 2.344604e-02 -2.527072e-02 -5.656872e-02 -6.408768e-02 -2.509452e-02 1.337749e-02 2.548171e-02 -1.796857e-01 1.900584e-01 1.869897e-01 3.140632e-01 3.267802e-01 3.520118e-01 2.298432e-01 3.697249e-02 -1.870179e-01 -3.535776e-01 -4.108328e-01 -3.812791e-01 -2.691334e-01 6.623135e-03
<VARIANCE> 39
 2.059918e+01 2.953453e+01 2.179062e+01 2.245917e+01 3.051576e+01 3.035528e+01 3.276657e+01 2.938276e+01 3.127151e+01 3.028612e+01 2.904219e+01 3.011502e+01 3.209524e+01 6.425441e-01 6.847210e-01 9.064147e-01 1.101356e+00 1.365792e+00 1.554712e+00 1.670060e+00 1.770076e+00 1.897789e+00 1.873763e+00 1.812178e+00 1.683050e+00 7.027052e-01 1.237200e-01 1.378894e-01 1.579592e-01 1.804863e-01 2.236306e-01 2.669253e-01 3.051246e-01 3.162584e-01 3.348653e-01 3.360662e-01 3.322746e-01 3.243811e-01 9.151617e-02
<GCONST> 9.853452e+01
<MIXTURE> 5 1.205753e-01
<MEAN> 39
 -5.900474e+00 -1.146285e+00 -5.931279e-01 5.117967e+00 4.826330e+00 2.790371e+00 2.924423e+00 2.080701e+00 1.934612e+00 5.771161e-01 1.082776e+00 5.423055e-01 -1.136902e+01 -1.630197e-01 2.439189e-01 9.405844e-02 9.709702e-02 -1.662823e-02 8.533631e-03 -1.617216e-02 -1.655943e-01 -1.351386e-01 3.202144e-02 -6.835701e-02 -1.055040e-01 -1.288614e-01 -1.154888e-01 -6.274987e-03 -7.457996e-04 -6.468421e-02 -1.511990e-01 -1.525457e-01 -6.715693e-02 -6.448687e-02 -2.908644e-02 -5.995092e-03 2.289043e-03 -7.933192e-03 2.493890e-01
<VARIANCE> 39
 1.370164e+01 2.637693e+01 2.151302e+01 2.423559e+01 2.618919e+01 2.866909e+01 2.911126e+01 2.798091e+01 2.901453e+01 2.931293e+01 2.520016e+01 2.673178e+01 2.853636e+01 1.086906e+00 1.761924e+00 1.515942e+00 1.622513e+00 1.996273e+00 2.170871e+00 2.240411e+00 2.365032e+00 2.320723e+00 2.303640e+00 2.076568e+00 1.830508e+00 1.945979e+00 1.241829e-01 2.324042e-01 2.286398e-01 2.367270e-01 2.803712e-01 3.311343e-01 3.464760e-01 3.590299e-01 3.642176e-01 3.600150e-01 3.135984e-01 3.011193e-01 2.044476e-01
<GCONST> 1.052164e+02
<MIXTURE> 6 1.368018e-01
<MEAN> 39
 -8.437243e+00 -4.095769e-01 -2.660334e-01 6.013137e+00 3.519139e+00 2.135484e+00 3.323318e+00 1.529600e+00 1.804313e-01 -2.938695e+00 -3.174729e+00 -3.186550e+00 -7.526280e+00 -4.987431e-02 7.337808e-03 3.314161e-02 9.011304e-02 1.018934e-01 1.443052e-01 6.427332e-02 2.708415e-02 6.452498e-03 4.885361e-03 -4.040607e-02 -5.725735e-02 -1.790126e-01 6.977607e-02 -2.109507e-02 -4.701307e-02 -1.277929e-01 -1.281372e-01 -1.655829e-01 -1.471613e-01 -5.051037e-02 1.633273e-01 3.894211e-01 4.860630e-01 3.448633e-01 3.025243e-02
<VARIANCE> 39
 1.900498e+01 3.019127e+01 2.192675e+01 2.789188e+01 3.340630e+01 3.048669e+01 3.162546e+01 3.215661e+01 3.261154e+01 3.091652e+01 2.607192e+01 3.048908e+01 3.402656e+01 4.037950e-01 4.920928e-01 6.607117e-01 8.953751e-01 1.105566e+00 1.303569e+00 1.457666e+00 1.593403e+00 1.661884e+00 1.714563e+00 1.616736e+00 1.492014e+00 3.625667e-01 7.574861e-02 9.613248e-02 1.316649e-01 1.773025e-01 2.249384e-01 2.560054e-01 2.746044e-01 2.953500e-01 3.221236e-01 2.895155e-01 2.370852e-01 2.608325e-01 5.106151e-02
<GCONST> 9.322125e+01
<MIXTURE> 7 1.382075e-01
<MEAN> 39
 -9.335980e+00 1.580017e+00 -5.952222e-01 5.349430e+00 5.376490e-01 -1.060865e+00 -8.480511e-01 -3.141049e+00 -1.097321e+00 6.510084e-01 2.075442e+00 8.977370e-01 -6.811897e+00 -2.125151e-01 -6.053411e-02 -2.211704e-02 8.222841e-02 1.397084e-01 2.169743e-01 1.865513e-01 1.248571e-01 1.022030e-01 1.074279e-01 5.165319e-02 2.082476e-02 -1.974917e-01 9.570923e-02 -7.744807e-02 -1.894456e-02 -4.419329e-02 1.024109e-01 1.890692e-01 3.521708e-01 4.512087e-01 2.884673e-01 3.824946e-02 -9.961783e-02 -8.892036e-02 7.335617e-02
<VARIANCE> 39
 2.027645e+01 2.616486e+01 2.316945e+01 2.597703e+01 3.279436e+01 2.818452e+01 2.922061e+01 2.478739e+01 2.871653e+01 2.600749e+01 2.408135e+01 2.862912e+01 3.494453e+01 4.987540e-01 5.796516e-01 7.676287e-01 9.303539e-01 1.211292e+00 1.365296e+00 1.555264e+00 1.688424e+00 1.701049e+00 1.677605e+00 1.575413e+00 1.467069e+00 3.952332e-01 9.043144e-02 1.049400e-01 1.465289e-01 1.887188e-01 2.256130e-01 2.444275e-01 2.490791e-01 2.325054e-01 2.810409e-01 2.750284e-01 2.549986e-01 2.621411e-01 6.017643e-02
<GCONST> 9.325173e+01
<MIXTURE> 8 5.687789e-02
<MEAN> 39
 -5.920780e+00 1.800721e+00 -9.867219e-01 4.312180e+00 2.354088e+00 1.017574e+00 1.920686e+00 -7.928969e-01 6.637903e-01 2.561040e-02 -4.487076e-01 -1.079587e+00 -6.477667e+00 -2.017866e-01 -7.203029e-02 -3.019127e-03 -2.559399e-02 -9.685902e-02 -1.191530e-01 2.771498e-02 1.391382e-01 1.944350e-01 1.155101e-01 1.352189e-01 1.258864e-01 6.852723e-01 2.486592e-01 -1.696102e-01 4.219711e-03 -1.511161e-01 -1.123964e-01 -7.656170e-02 -1.036965e-01 1.087630e-01 8.542848e-02 5.922210e-02 8.943973e-02 9.579936e-02 2.312851e-01
<VARIANCE> 39
 4.264897e+01 4.988242e+01 4.928347e+01 5.161351e+01 5.804856e+01 5.378915e+01 5.053400e+01 5.151050e+01 4.956523e+01 5.040099e+01 4.333839e+01 4.235076e+01 7.224368e+01 2.963667e+00 2.836028e+00 3.037194e+00 3.036316e+00 3.397851e+00 3.403634e+00 3.446186e+00 3.530840e+00 3.361147e+00 3.226360e+00 3.088474e+00 2.740047e+00 4.451184e+00 6.012070e-01 6.035256e-01 6.441764e-01 7.117921e-01 7.690127e-01 7.728866e-01 7.622083e-01 7.697969e-01 7.541477e-01 7.297371e-01 6.589524e-01 5.830432e-01 9.300559e-01
<GCONST> 1.335467e+02
<STATE> 4
<NUMMIXES> 8
<MIXTURE> 1 1.821192e-01
<MEAN> 39
 -9.327877e+00 8.775390e-01 -2.357695e-01 6.115640e+00 2.693628e+00 1.566928e+00 2.346957e+00 1.280840e+00 2.042969e+00 2.270457e+00 1.644071e+00 1.019081e+00 -3.921899e+00 3.876668e+00 8.033113e-01 2.235126e-01 -1.414509e+00 -1.058803e+00 -1.097001e+00 -1.589951e+00 -1.515102e+00 -9.106755e-01 -5.439468e-01 -4.881391e-01 -4.497645e-01 1.941437e+00 9.578803e-01 -1.032000e-01 -2.429291e-01 -8.125317e-01 -4.971174e-01 -1.934706e-01 -4.355105e-01 -2.744694e-01 -1.149123e-01 -6.460440e-02 -1.941511e-01 -2.392550e-01 5.498008e-01
<VARIANCE> 39
 1.913939e+01 2.060960e+01 2.374301e+01 2.451765e+01 3.145694e+01 2.967096e+01 3.068736e+01 2.769257e+01 2.868599e+01 2.416607e+01 2.480504e+01 2.589868e+01 2.661681e+01 2.554492e+00 2.422920e+00 3.761940e+00 3.974927e+00 3.510595e+00 4.943827e+00 3.801711e+00 3.629284e+00 3.609927e+00 3.237609e+00 3.435417e+00 3.251719e+00 1.769247e+00 3.323115e-01 3.511192e-01 4.166371e-01 5.467637e-01 5.817219e-01 7.008043e-01 6.086000e-01 6.289570e-01 6.137946e-01 5.463085e-01 6.066061e-01 5.275286e-01 2.350274e-01
<GCONST> 1.201766e+02
<MIXTURE> 2 1.727122e-01
<MEAN> 39
 -1.248833e+01 -1.749751e+00 -2.801085e+00 4.303227e+00 1.334965e+00 1.337993e+00 2.923123e+00 2.947855e+00 3.612708e+00 3.439754e+00 2.216020e+00 1.477237e+00 -2.796129e+00 1.472101e+00 5.217910e-01 7.442038e-01 1.732205e-01 1.654104e-01 -3.517496e-01 -4.509382e-01 -6.141524e-01 -5.101362e-01 -4.249330e-01 -3.129992e-01 -2.319520e-01 5.805094e-01 1.232476e+00 5.241746e-01 2.351366e-01 -2.653934e-01 -2.865379e-01 -3.251932e-01 -6.080781e-01 -6.791322e-01 -5.584436e-01 -3.454977e-01 -2.529298e-01 -2.222672e-01 3.408464e-01
<VARIANCE> 39
 1.636839e+01 2.327657e+01 2.377870e+01 2.637801e+01 3.002581e+01 3.106238e+01 3.291988e+01 2.680990e+01 2.950204e+01 2.781262e+01 2.781789e+01 2.849055e+01 2.658656e+01 2.214489e+00 1.592023e+00 1.725082e+00 1.646649e+00 1.896189e+00 2.123909e+00 2.126930e+00 2.207070e+00 2.321428e+00 2.189933e+00 1.971162e+00 1.897555e+00 1.257726e+00 2.335969e-01 2.580891e-01 3.632577e-01 4.485849e-01 4.140627e-01 5.643303e-01 5.157104e-01 4.687796e-01 4.779334e-01 5.034447e-01 5.235438e-01 4.954430e-01 1.973880e-01
<GCONST> 1.108727e+02
<MIXTURE> 3 1.299279e-01
<MEAN> 39
 -8.493429e+00 4.354808e+00 -2.784317e-01 7.611401e+00 1.153307e+00 2.124288e+00 2.145474e+00 -1.902370e+00 2.079725e-01 -1.923101e+00 -2.823577e+00 -4.278111e+00 -7.707837e+00 1.474099e+00 -3.067624e-01 -2.251904e-01 -8.368448e-01 -3.449768e-01 -5.648605e-01 -4.298649e-01 2.708888e-01 8.935365e-01 1.126835e+00 1.043813e+00 9.907809e-01 1.451043e+00 9.948606e-01 -4.582306e-01 -3.183758e-01 -9.214406e-01 -3.478720e-01 -4.229618e-01 -4.600617e-01 1.322397e-01 2.801182e-01 5.008144e-01 4.652839e-01 5.788938e-01 8.342490e-01
<VARIANCE> 39
 1.732374e+01 2.237388e+01 2.452174e+01 2.492751e+01 3.477980e+01 3.104322e+01 3.078798e+01 3.690209e+01 3.280059e+01 3.179019e+01 3.544508e+01 3.871272e+01 3.190822e+01 3.063797e+00 1.787077e+00 2.191536e+00 2.456518e+00 2.719761e+00 2.817469e+00 2.859803e+00 3.142931e+00 2.959041e+00 3.001751e+00 3.111182e+00 3.292388e+00 2.253118e+00 3.185759e-01 4.183004e-01 4.509885e-01 5.153300e-01 6.212001e-01 6.699755e-01 6.077588e-01 7.660274e-01 7.164255e-01 7.361990e-01 8.095515e-01 8.468412e-01 3.063940e-01
<GCONST> 1.213320e+02
<MIXTURE> 4 8.605858e-02
<MEAN> 39
 -1.712353e+00 1.475707e+00 -6.987671e-01 1.815181e+00 -1.483148e+00 -1.185504e+00 1.196815e-01 -1.427463e+00 -3.550302e-01 -1.841385e+00 -1.760089e+00 -2.228886e+00 -3.496064e+00 9.371027e-02 7.616772e-02 -2.253717e-02 -3.550177e-02 5.998148e-03 3.721306e-02 2.249727e-03 -4.035569e-02 -8.907707e-03 7.379130e-03 -5.525243e-02 -5.601327e-02 -1.916703e-01 1.105832e-02 -2.644245e-02 6.061312e-02 4.616098e-02 9.897870e-02 4.811674e-02 3.939985e-02 5.288038e-02 4.738847e-02 5.295749e-02 9.535845e-02 9.913054e-02 8.270413e-02
<VARIANCE> 39
 3.189316e+01 4.224706e+01 4.342931e+01 4.160111e+01 6.386341e+01 4.521400e+01 4.721030e+01 5.913273e+01 5.201449e+01 6.112782e+01 5.772970e+01 7.076361e+01 6.337261e+01 5.585575e-01 7.578328e-01 9.420697e-01 1.122280e+00 1.459663e+00 1.592580e+00 1.731234e+00 2.041102e+00 2.076504e+00 2.032933e+00 1.935928e+00 1.776181e+00 5.933930e-01 9.359398e-02 1.404361e-01 1.668777e-01 2.137696e-01 2.757072e-01 2.867000e-01 3.168116e-01 3.849495e-01 3.811324e-01 4.194163e-01 3.796147e-01 3.701003e-01 8.224817e-02
<GCONST> 1.076677e+02
<MIXTURE> 5 1.296975e-01
<MEAN> 39
 -1.002504e+01 3.301384e+00 -2.142751e+00 4.437173e+00 -7.568695e-01 -1.180625e+00 -2.989184e-01 -2.181914e+00 -2.150856e-01 1.552902e+00 1.870100e+00 1.096723e+00 -6.659740e+00 1.832395e-01 -2.328202e-02 4.433119e-01 3.905180e-01 6.320311e-01 4.169745e-01 4.005288e-01 2.004663e-01 5.931061e-02 -1.725575e-01 -2.718849e-01 -2.085164e-01 4.153183e-01 9.265423e-01 -7.262389e-02 4.641663e-02 -2.596085e-01 -1.619073e-02 -3.052627e-03 -8.179700e-02 6.030421e-02 1.205666e-01 7.497588e-03 -1.316046e-01 -1.286332e-01 5.960789e-01
<VARIANCE> 39
 1.901231e+01 1.763264e+01 2.167880e+01 2.118864e+01 2.986266e+01 2.836803e+01 2.821888e+01 2.660555e+01 3.202197e+01 2.689971e+01 2.789015e+01 3.048312e+01 2.427197e+01 1.484983e+00 1.072386e+00 1.133857e+00 1.244750e+00 1.455538e+00 1.741817e+00 1.817307e+00 1.853657e+00 1.982522e+00 1.853565e+00 1.858448e+00 1.814623e+00 9.567493e-01 3.044510e-01 2.773615e-01 3.674529e-01 3.964163e-01 4.178033e-01 5.034466e-01 4.391928e-01 4.397261e-01 4.808711e-01 4.764310e-01 4.819758e-01 4.810716e-01 1.966457e-01
<GCONST> 1.069426e+02
<MIXTURE> 6 1.304284e-01
<MEAN> 39
 -2.246087e+00 5.913222e+00 2.128864e+00 5.281914e+00 4.655413e-01 -2.295372e+00 -2.434097e+00 -5.023888e+00 -3.630241e+00 -1.859574e+00 -1.369657e+00 -1.001739e+00 -9.767617e-01 3.830479e+00 2.873014e-01 1.332998e-01 -1.458732e+00 -1.232409e+00 -9.301561e-01 -1.713217e+00 -1.394425e+00 -6.773862e-01 -3.968961e-01 -3.799165e-01 -7.037076e-01 1.961582e+00 -5.223243e-02 -6.667860e-01 -4.676313e-01 -5.937223e-01 -2.520742e-01 1.967366e-01 2.094145e-01 5.615538e-01 6.197720e-01 4.406597e-01 2.248358e-01 4.769886e-02 1.762718e-01
<VARIANCE> 39
 1.832858e+01 2.014472e+01 2.771419e+01 2.482375e+01 3.527163e+01 3.528759e+01 3.161796e+01 3.508626e+01 3.302261e+01 2.768033e+01 2.663259e+01 3.015010e+01 2.548026e+01 2.934773e+00 3.267130e+00 4.399530e+00 4.696967e+00 4.144900e+00 5.843451e+00 4.317771e+00 4.465040e+00 5.039421e+00 4.303429e+00 4.667525e+00 3.621995e+00 1.626698e+00 3.033324e-01 3.019715e-01 3.305034e-01 3.947137e-01 4.995519e-01 5.538728e-01 5.564173e-01 6.659519e-01 6.603380e-01 5.350841e-01 5.579680e-01 4.879306e-01 1.694393e-01
<GCONST> 1.220094e+02
<MIXTURE> 7 1.138083e-01
<MEAN> 39
 -1.754331e+00 4.445968e+00 -1.350642e+00 4.081306e+00 -9.335973e-01 -8.730230e-01 5.482432e-02 -1.124148e+00 3.909210e+00 3.834232e+00 3.426694e+00 1.588493e+00 -3.044297e+00 3.372614e+00 -1.765224e+00 -6.951522e-01 -3.035756e+00 -7.975192e-01 -1.000693e+00 -1.245918e+00 6.482366e-01 8.793188e-01 1.245046e+00 7.519790e-01 1.291923e+00 3.412753e+00 -4.744749e-02 -6.439006e-01 -3.318322e-02 -4.900455e-01 1.544306e-01 1.923983e-01 6.115206e-02 2.408093e-01 -2.557943e-01 -2.620909e-01 -3.649202e-01 -9.095600e-02 3.583674e-01
<VARIANCE> 39
 2.248883e+01 2.039292e+01 2.828596e+01 2.735810e+01 4.245084e+01 3.493888e+01 3.876974e+01 3.910375e+01 3.642320e+01 3.389088e+01 3.667094e+01 3.929026e+01 2.945095e+01 3.849953e+00 3.455804e+00 5.222440e+00 5.554577e+00 6.921343e+00 7.138999e+00 6.575819e+00 7.258691e+00 6.805170e+00 7.224461e+00 8.525445e+00 9.014935e+00 3.056659e+00 3.667397e-01 3.278682e-01 3.693018e-01 5.231352e-01 6.571310e-01 6.177150e-01 7.091132e-01 7.921289e-01 7.297618e-01 7.055873e-01 7.526285e-01 7.485155e-01 3.425378e-01
<GCONST> 1.323829e+02
<MIXTURE> 8 5.519348e-02
<MEAN> 39
 6.567410e+00 -1.071274e+00 -8.364126e+00 -6.781425e+00 2.098066e+00 1.000760e+00 -7.441160e+00 -2.336411e+00 5.504644e+00 2.892351e+00 -2.528136e+00 -3.705806e+00 4.788445e+00 2.955177e+00 -2.211656e+00 -1.758964e+00 -3.653545e+00 1.098316e+00 8.071032e-01 -1.519772e+00 1.135417e+00 8.295823e-01 -3.153411e-02 -1.588510e+00 -7.881449e-01 3.065933e+00 -1.263949e+00 -4.924909e-02 5.129472e-01 9.266844e-01 2.549850e-01 2.565104e-01 8.724964e-01 4.430061e-01 -3.180595e-01 -3.651454e-01 7.132871e-02 2.445004e-01 -5.650582e-01
<VARIANCE> 39
 1.094449e+01 2.066085e+01 1.983551e+01 3.018612e+01 2.768577e+01 3.680569e+01 4.043062e+01 4.275938e+01 3.145150e+01 4.644631e+01 4.463865e+01 4.545028e+01 1.936012e+01 3.059731e+00 2.477552e+00 2.517043e+00 4.396292e+00 4.938488e+00 5.531596e+00 6.086145e+00 6.129415e+00 5.349521e+00 5.674004e+00 4.886157e+00 6.287527e+00 1.857688e+00 2.655766e-01 3.009445e-01 3.257782e-01 5.392830e-01 4.444054e-01 5.650598e-01 6.615245e-01 7.109846e-01 5.996061e-01 6.432756e-01 6.939605e-01 6.572970e-01 2.655839e-01
<GCONST> 1.250880e+02
<STATE> 5
<NUMMIXES> 8
<MIXTURE> 1 1.479851e-01
<MEAN> 39
 -4.213838e+00 2.976585e+00 2.283597e-01 4.096753e+00 -1.622393e-01 2.951874e-01 9.752772e-01 -3.326688e-01 1.451958e-01 2.607939e-01 4.371253e-01 -6.802827e-01 -2.696789e+00 -3.235710e-02 9.615980e-02 1.977702e-02 1.167558e-01 5.668902e-02 1.374403e-01 3.239433e-02 -3.139130e-02 -4.418173e-02 -7.782631e-02 9.609096e-03 -5.202498e-02 -4.904138e-02 1.764028e-01 -1.012174e-01 5.767913e-02 -1.814725e-01 -1.013737e-01 -1.046469e-01 -7.115140e-02 -2.604412e-03 2.150945e-02 4.945055e-02 2.011839e-02 6.854799e-02 1.727023e-01
<VARIANCE> 39
 5.574971e+01 4.357537e+01 4.280994e+01 4.676815e+01 5.150409e+01 5.137053e+01 4.245667e+01 4.488286e+01 4.041560e+01 3.935049e+01 4.019922e+01 4.247403e+01 8.388830e+01 3.303280e+00 2.266091e+00 2.327782e+00 3.021083e+00 3.175747e+00 3.214544e+00 2.944137e+00 3.153147e+00 3.092340e+00 3.045804e+00 2.838447e+00 2.696540e+00 2.734989e+00 3.996274e-01 3.913032e-01 3.753144e-01 4.593148e-01 5.080107e-01 5.236166e-01 5.340729e-01 5.664386e-01 5.437831e-01 5.448189e-01 5.034561e-01 4.744911e-01 3.582126e-01
<GCONST> 1.257425e+02
<MIXTURE> 2 2.140266e-01
<MEAN> 39
