~o
<STREAMINFO> 1 39
<VECSIZE> 39<NULLD><MFCC_D_A_Z_0><DIAGC>
~h "hh"
<BEGINHMM>
<NUMSTATES> 6
<STATE> 2
<NUMMIXES> 4
<MIXTURE> 1 4.013661e-01
<MEAN> 39
 -3.898089e+00 -8.878894e+00 2.433569e-01 5.553319e+00 3.165627e+00 4.630326e+00 2.505035e+00 -5.119147e+00 1.760637e+00 4.600700e+00 8.893632e+00 1.210948e+01 1.137360e+01 -1.165761e-02 -1.396195e-02 5.344894e-02 2.621195e-02 2.555346e-03 -9.871799e-02 1.123033e-03 -1.994564e-02 6.634568e-02 5.931413e-02 1.132608e-01 2.965347e-02 -5.978157e-02 3.133922e-02 4.398771e-02 -1.243596e-02 -6.996711e-02 -2.146656e-03 4.711072e-02 5.489935e-02 9.394373e-03 -4.584778e-02 -5.247310e-02 3.044573e-04 -4.586001e-02 -7.327308e-04
<VARIANCE> 39
 1.424472e+01 2.631645e+01 3.529411e+01 8.353569e+01 5.343886e+01 6.043460e+01 8.028017e+01 5.516308e+01 7.099843e+01 7.376489e+01 1.254172e+02 9.032827e+01 2.209491e+01 3.014668e-01 5.610117e-01 7.954988e-01 1.236077e+00 1.331355e+00 1.666044e+00 1.749683e+00 1.654699e+00 1.703898e+00 1.964673e+00 2.012480e+00 1.980263e+00 1.287440e-01 5.731629e-02 1.023521e-01 1.501133e-01 2.142107e-01 2.426461e-01 3.121830e-01 3.261302e-01 3.113008e-01 3.209578e-01 3.505934e-01 3.801582e-01 3.690660e-01 2.147279e-02
<GCONST> 1.022364e+02
<MIXTURE> 2 2.068966e-01
<MEAN> 39
 -3.946217e+00 -5.607570e+00 -4.347515e-01 -4.399075e-01 6.009548e+00 1.014362e+01 5.410034e+00 -6.081085e+00 -1.403677e+00 -5.159270e-02 7.792994e+00 1.100880e+01 1.219772e+01 -2.452202e-01 -2.553512e-01 8.215266e-02 4.059801e-01 4.575430e-01 1.509546e-01 -3.144249e-01 -1.232623e-01 9.672168e-02 1.892894e-01 -8.747289e-02 1.018584e-01 1.059984e-01 1.249664e-01 8.661135e-02 4.993673e-02 -3.574528e-03 -3.249127e-01 -5.840895e-01 -1.898727e-01 2.624060e-01 1.495933e-01 1.351250e-01 -1.229654e-01 -2.189162e-01 -2.404571e-01
<VARIANCE> 39
 1.095923e+01 2.873183e+01 2.158578e+01 8.937595e+01 5.522646e+01 6.320742e+01 8.975815e+01 5.842128e+01 9.132903e+01 1.015514e+02 1.387525e+02 8.903486e+01 1.472544e+01 6.818995e-01 1.373592e+00 1.387984e+00 3.659611e+00 3.125645e+00 4.262195e+00 3.883274e+00 3.918845e+00 3.914196e+00 4.885661e+00 4.819343e+00 3.985111e+00 4.743876e-01 9.732521e-02 1.847227e-01 2.234761e-01 4.121339e-01 4.967668e-01 6.318747e-01 6.280458e-01 6.026945e-01 6.652639e-01 7.549097e-01 7.468203e-01 6.145670e-01 1.012365e-01
<GCONST> 1.227039e+02
<MIXTURE> 3 2.251666e-01
<MEAN> 39
 -1.726023e+00 1.815532e-01 1.745551e+00 -1.261818e+00 2.188022e-02 5.740825e-02 -3.172066e-01 -1.729759e+00 -2.932419e-01 -7.211590e-01 -1.323147e+00 -4.037389e-01 1.082273e+00 -3.094444e-01 -3.301928e-01 -1.275948e-01 2.966814e-02 1.720019e-01 2.926680e-01 2.852342e-01 1.730487e-02 1.130539e-01 1.491392e-01 -4.342081e-02 2.142375e-01 7.315358e-01 9.031436e-02 5.093917e-02 -2.698804e-02 8.042741e-03 -1.289451e-02 2.724817e-02 9.354759e-03 4.868854e-03 -2.633518e-03 1.857099e-02 -3.531830e-03 2.143550e-02 2.579680e-02
<VARIANCE> 39
 2.850819e+01 5.872710e+01 3.428067e+01 8.040916e+01 4.826981e+01 4.840468e+01 5.104385e+01 6.778878e+01 4.903147e+01 5.278449e+01 4.710276e+01 4.525669e+01 5.548514e+01 1.172343e+00 1.564322e+00 1.660785e+00 2.433676e+00 2.113638e+00 2.632016e+00 2.981289e+00 3.259376e+00 3.425333e+00 3.005011e+00 2.668081e+00 2.399601e+00 2.332737e+00 2.554551e-01 3.455134e-01 3.075291e-01 4.509953e-01 3.970362e-01 5.310469e-01 5.942506e-01 6.219996e-01 5.944368e-01 5.512581e-01 4.803745e-01 4.680165e-01 3.581377e-01
<GCONST> 1.229056e+02
<MIXTURE> 4 1.665706e-01
<MEAN> 39
 -2.849394e-01 -3.490269e+00 -2.239754e+00 -1.995968e+00 -6.537845e-01 9.438639e-01 7.356529e+00 3.261702e+00 2.414078e+00 7.704764e-01 1.340224e+00 3.102083e+00 7.491726e+00 -3.658076e-01 -3.809838e-01 -6.799231e-02 2.775652e-01 5.670717e-01 8.906990e-01 2.926797e-01 -2.626741e-01 -1.798587e-01 -3.050940e-01 2.823294e-01 4.358197e-01 5.652285e-01 -8.258595e-02 1.117459e-01 1.305423e-01 1.949259e-01 1.554001e-01 6.175683e-02 -3.123567e-01 -2.692471e-01 -9.979787e-02 2.298073e-02 7.644782e-02 -4.096449e-02 -1.911071e-01
<VARIANCE> 39
 1.941882e+01 4.850604e+01 5.085592e+01 8.579424e+01 7.069752e+01 1.034156e+02 1.130583e+02 1.267921e+02 1.454253e+02 1.467246e+02 2.417928e+02 1.631862e+02 3.252300e+01 1.251786e+00 2.314883e+00 2.671006e+00 3.524317e+00 5.148499e+00 7.981211e+00 6.646904e+00 6.454566e+00 6.702866e+00 7.785412e+00 8.755808e+00 8.806434e+00 2.170600e+00 1.832899e-01 3.138859e-01 4.195799e-01 5.120666e-01 6.488951e-01 9.977337e-01 1.197785e+00 1.017127e+00 1.183293e+00 1.411174e+00 1.482775e+00 1.512635e+00 2.884653e-01
<GCONST> 1.447095e+02
<STATE> 3
<NUMMIXES> 4
<MIXTURE> 1 3.435476e-01
<MEAN> 39
 -4.404311e+00 1.922313e+00 -3.429323e-01 -8.909929e+00 7.141732e+00 4.002553e+00 -1.309123e+00 1.113161e+00 -1.296474e+00 -3.396140e-01 6.296633e+00 7.567585e+00 9.070710e+00 1.207818e-02 -7.480117e-02 1.991488e-02 4.417097e-02 1.510022e-02 8.765074e-03 -1.702755e-02 -5.500216e-02 5.103895e-02 8.074638e-02 9.466346e-02 2.385396e-02 -1.176346e-02 2.251288e-02 -2.239887e-02 1.371861e-02 1.979508e-02 -6.987519e-02 -3.389088e-03 2.745530e-02 -2.081746e-02 1.944631e-02 2.070385e-02 -3.529013e-02 -1.771375e-02 -1.744064e-02
<VARIANCE> 39
 1.187690e+01 3.841319e+01 3.092489e+01 5.361114e+01 4.957439e+01 8.585817e+01 5.102924e+01 6.965193e+01 5.646329e+01 1.038816e+02 1.188219e+02 1.069367e+02 2.179773e+01 2.067347e-01 5.391686e-01 5.827804e-01 8.222939e-01 1.032146e+00 1.454419e+00 1.335696e+00 1.428882e+00 1.412840e+00 1.571486e+00 1.515423e+00 1.487378e+00 1.201660e-01 3.663973e-02 8.329790e-02 1.085770e-01 1.386194e-01 1.803154e-01 2.507195e-01 2.397390e-01 2.467388e-01 2.446913e-01 2.539814e-01 2.686821e-01 2.527939e-01 1.710920e-02
<GCONST> 9.512032e+01
<MIXTURE> 2 4.175082e-01
<MEAN> 39
 -6.358459e+00 -2.356468e+00 2.630655e+00 5.698780e-01 1.118760e+00 5.073814e+00 1.078048e+00 -5.259128e-01 2.787563e+00 -2.506186e-01 -1.672436e+00 -3.423534e-02 -9.747963e-01 1.091188e-01 7.764388e-03 -6.559301e-03 7.555434e-02 5.494607e-02 -7.103884e-02 3.622423e-02 -4.434680e-02 -2.000137e-02 5.228366e-02 -6.486458e-02 -4.992490e-02 2.769100e-01 1.499361e-01 6.966648e-02 -1.184045e-02 -5.383227e-02 -6.342190e-02 -9.515847e-02 -4.755032e-02 -7.502814e-03 -7.395002e-02 -5.786918e-02 -2.453368e-02 -2.367422e-02 2.057544e-02
<VARIANCE> 39
 3.104085e+01 3.262755e+01 2.905495e+01 5.154206e+01 4.826030e+01 4.647119e+01 6.196299e+01 6.302205e+01 5.816523e+01 6.754369e+01 5.879211e+01 4.506648e+01 5.585304e+01 8.810145e-01 1.052159e+00 1.239310e+00 1.883407e+00 2.089964e+00 2.552201e+00 3.078302e+00 3.252797e+00 3.254518e+00 3.092609e+00 3.277657e+00 2.806540e+00 1.512620e+00 1.673603e-01 1.877896e-01 2.385097e-01 3.332198e-01 4.090339e-01 4.929990e-01 5.985073e-01 6.250665e-01 5.998743e-01 6.227302e-01 6.300014e-01 5.021113e-01 1.766935e-01
<GCONST> 1.193217e+02
<MIXTURE> 3 1.030712e-01
<MEAN> 39
 -3.271324e+00 -5.382857e+00 2.068697e+00 4.243314e+00 1.395153e-01 9.525191e+00 1.537758e+01 2.197781e+01 1.993752e+01 -1.385957e+01 -3.451550e+01 -1.515624e+01 8.728683e+00 -1.764772e-02 -1.408038e-02 -2.395409e-03 1.081789e-01 -5.781843e-02 -1.917001e-02 6.984268e-03 4.706326e-02 -7.331428e-02 -7.410695e-03 -3.858314e-02 1.039358e-01 -5.887517e-02 1.231090e-02 6.092871e-03 -1.340372e-02 -5.499050e-03 5.678168e-03 1.222897e-02 -2.799507e-03 -5.246490e-02 -1.150543e-01 -1.860975e-02 1.314008e-01 1.737983e-01 -9.615440e-03
<VARIANCE> 39
 1.078013e+01 3.375050e+01 3.510585e+01 8.705115e+01 3.934598e+01 5.044054e+01 5.976358e+01 4.250591e+01 6.756813e+01 1.294814e+02 8.288796e+01 1.070271e+02 1.297453e+01 4.566585e-01 9.197438e-01 1.016072e+00 9.842151e-01 1.132563e+00 1.681553e+00 1.656424e+00 1.553549e+00 2.815315e+00 3.962082e+00 2.427079e+00 4.029172e+00 1.881765e-01 9.366377e-02 1.864590e-01 1.961267e-01 1.661793e-01 2.051505e-01 3.011748e-01 3.127113e-01 2.956891e-01 4.203773e-01 5.639644e-01 3.891877e-01 5.506836e-01 3.142642e-02
<GCONST> 1.064299e+02
<MIXTURE> 4 1.358730e-01
<MEAN> 39
 -3.509298e+00 -3.043837e+00 -2.097194e-01 1.512835e+00 6.830186e+00 1.665842e+01 2.034414e+01 1.246747e+01 -8.281782e+00 -2.883824e+01 -7.552196e+00 2.124551e+01 8.645048e+00 4.995434e-02 3.261790e-02 -4.185740e-02 -2.858764e-02 -2.851376e-02 -5.022427e-02 -1.931836e-02 6.306119e-02 9.612773e-02 2.377962e-02 -1.130013e-01 -1.990456e-01 -5.443507e-02 4.546900e-03 -8.601534e-03 -1.958693e-03 -2.010649e-02 -1.647246e-02 -4.026784e-02 -5.339910e-02 -4.488209e-03 9.792176e-02 1.494113e-01 -5.147551e-02 -1.876583e-01 -1.228493e-02
<VARIANCE> 39
 1.294542e+01 3.223632e+01 2.318093e+01 4.896385e+01 5.076456e+01 6.530434e+01 7.478478e+01 9.665526e+01 1.919529e+02 7.552703e+01 3.165884e+02 1.016808e+02 1.479767e+01 4.093211e-01 8.677886e-01 8.314987e-01 1.061275e+00 1.607260e+00 1.321195e+00 2.106816e+00 2.660566e+00 3.168447e+00 3.033843e+00 3.709971e+00 4.832899e+00 1.514785e-01 6.941878e-02 1.536305e-01 1.564775e-01 1.834397e-01 2.747401e-01 2.465388e-01 4.144697e-01 4.467494e-01 4.473698e-01 5.576982e-01 4.220949e-01 6.113158e-01 2.851784e-02
<GCONST> 1.102016e+02
<STATE> 4
<NUMMIXES> 4
<MIXTURE> 1 3.977142e-01
<MEAN> 39
 -5.279161e+00 -9.996202e+00 8.499476e-01 1.019446e+01 3.753463e+00 4.849455e+00 1.457973e+00 -7.071466e+00 4.949280e+00 5.013325e+00 5.473163e+00 6.932747e+00 1.234489e+01 2.591502e-02 1.764522e-02 -2.588198e-02 3.044513e-02 -4.248461e-02 -4.538230e-04 2.722904e-02 -1.662247e-02 -5.489511e-02 2.839410e-02 3.349595e-02 7.674191e-03 -2.212888e-02 6.727602e-03 4.617022e-03 -2.620862e-02 -5.940068e-02 -1.223689e-02 -5.173398e-03 -9.205782e-03 -6.236022e-03 -1.646847e-02 -7.706784e-03 8.338520e-03 -2.428914e-03 -1.647281e-02
<VARIANCE> 39
 8.719064e+00 1.372037e+01 2.461697e+01 4.214301e+01 3.020065e+01 3.667131e+01 5.464397e+01 3.385024e+01 4.778581e+01 8.329772e+01 8.227160e+01 8.526813e+01 8.492971e+00 2.036174e-01 3.472284e-01 4.502007e-01 6.540586e-01 7.075846e-01 8.076587e-01 9.229283e-01 7.621214e-01 8.726959e-01 9.186358e-01 1.028550e+00 9.585624e-01 6.271955e-02 3.726766e-02 6.273953e-02 8.038100e-02 1.092425e-01 1.240703e-01 1.419856e-01 1.687943e-01 1.409363e-01 1.486087e-01 1.636251e-01 1.817925e-01 1.734226e-01 1.173840e-02
<GCONST> 7.924597e+01
<MIXTURE> 2 1.761505e-01
<MEAN> 39
 -2.237602e+00 -7.767022e-01 1.224235e+00 1.061877e+00 4.917008e-01 1.650890e+00 1.815654e+00 5.778723e-01 3.046347e+00 7.667358e-01 -1.273936e+00 -5.347375e-01 5.587454e-01 1.074379e+00 3.229583e-01 -7.625198e-02 -5.733743e-01 -5.209187e-01 -5.695019e-01 -2.540621e-01 -2.785452e-01 -2.689373e-01 -1.608005e-01 -4.154540e-01 -2.360945e-01 1.133433e+00 5.836296e-02 -7.500119e-02 -1.010386e-01 -1.273821e-01 -4.992472e-02 -3.611280e-02 -4.016631e-03 4.632078e-03 -1.514631e-02 -3.869083e-02 -6.904054e-02 -6.675413e-02 1.786709e-01
<VARIANCE> 39
 3.308516e+01 5.139745e+01 4.038561e+01 7.335475e+01 5.870917e+01 5.457565e+01 6.799827e+01 8.643582e+01 8.220332e+01 8.480304e+01 9.876067e+01 6.903760e+01 6.907988e+01 3.320148e+00 2.893210e+00 2.992909e+00 4.386513e+00 3.923028e+00 4.352224e+00 5.209131e+00 5.314383e+00 5.690025e+00 5.660499e+00 5.858333e+00 5.349312e+00 4.003321e+00 3.533646e-01 3.710642e-01 4.446893e-01 5.555673e-01 6.261864e-01 7.013238e-01 8.214350e-01 8.187372e-01 8.546458e-01 8.873051e-01 8.624321e-01 7.951674e-01 3.774176e-01
<GCONST> 1.387950e+02
<MIXTURE> 3 3.516962e-01
<MEAN> 39
 -4.503655e+00 -5.689858e+00 -4.266192e-01 3.473164e+00 3.311080e+00 3.212947e+00 1.648106e+00 6.971542e-01 1.269349e+01 1.378468e+01 7.136671e+00 -3.956915e+00 8.096891e+00 5.320576e-02 -7.294883e-03 -2.095804e-02 -1.603804e-02 -5.132299e-02 8.761771e-03 -1.262282e-02 -4.094996e-03 1.185833e-02 -6.339207e-04 -1.828658e-02 -3.358537e-02 -5.686920e-02 3.520435e-02 1.731884e-02 -1.279064e-03 -3.186569e-02 -2.745290e-02 5.286963e-03 3.205539e-02 2.708520e-02 -5.347598e-02 -1.066967e-01 -2.132192e-02 4.675749e-02 -1.512040e-02
<VARIANCE> 39
 1.660756e+01 4.097204e+01 3.720251e+01 8.878059e+01 6.424697e+01 5.247501e+01 5.889631e+01 1.045722e+02 1.188716e+02 1.540114e+02 1.263729e+02 1.816843e+02 2.696748e+01 3.469850e-01 7.164484e-01 9.022453e-01 1.429314e+00 1.707823e+00 1.810451e+00 2.012202e+00 2.311042e+00 2.412742e+00 2.598860e+00 2.621550e+00 3.127660e+00 1.917784e-01 5.887311e-02 1.193230e-01 1.581678e-01 2.345620e-01 2.944837e-01 3.037720e-01 3.534375e-01 4.005738e-01 4.373108e-01 4.786204e-01 4.506789e-01 4.823783e-01 2.798920e-02
<GCONST> 1.108318e+02
<MIXTURE> 4 7.443914e-02
<MEAN> 39
 -4.821688e+00 -4.561911e-01 2.503878e+00 4.021580e+00 2.609792e+00 6.636138e+00 1.013416e+01 2.746679e+01 1.018886e+01 -1.849930e+01 -3.051959e+01 -4.901591e+00 9.003265e+00 8.350956e-03 -3.068675e-02 -2.720287e-02 -1.805978e-02 4.421827e-03 -3.596226e-02 -4.977205e-02 -3.655703e-02 5.765531e-02 9.750003e-02 5.393064e-02 -9.214647e-02 -3.121146e-02 3.251645e-03 -7.227075e-03 -2.841850e-02 -9.048847e-03 5.008525e-03 -1.584888e-02 -3.801285e-02 -8.127733e-02 -1.835174e-02 8.198164e-02 1.034552e-01 2.904497e-03 -1.111648e-02
<VARIANCE> 39
 1.690348e+01 3.636678e+01 2.630010e+01 8.534040e+01 4.342456e+01 5.061253e+01 6.711044e+01 5.078821e+01 4.653532e+01 7.001765e+01 7.166470e+01 4.960378e+01 2.159760e+01 5.526319e-01 9.231963e-01 1.181946e+00 1.616729e+00 1.781473e+00 2.230700e+00 2.466593e+00 2.492435e+00 1.550831e+00 3.228717e+00 3.014133e+00 2.657088e+00 2.586664e-01 9.253339e-02 1.629367e-01 2.352077e-01 2.832648e-01 3.212771e-01 4.770734e-01 4.809345e-01 5.199429e-01 2.784312e-01 5.302315e-01 5.861355e-01 3.993781e-01 4.821470e-02
<GCONST> 1.099291e+02
<STATE> 5
<NUMMIXES> 4
<MIXTURE> 1 2.891216e-01
<MEAN> 39
 -1.684469e+00 -5.018221e+00 -2.759748e+00 1.739095e+00 1.066370e+00 6.540970e+00 3.306525e+00 -4.153440e+00 8.270886e-01 3.368048e+00 9.305429e+00 1.298435e+01 6.949461e+00 2.248210e-02 -4.326239e-03 -1.356112e-02 8.095286e-04 -6.903867e-02 -2.479956e-02 1.730141e-02 3.201208e-03 -5.603874e-02 -2.735886e-02 4.907209e-02 -5.232442e-02 -3.434041e-02 -9.070024e-04 -1.908038e-05 -1.127787e-02 -1.078055e-02 -1.035312e-02 -3.154378e-02 9.211520e-03 1.302270e-02 -1.029125e-02 -3.334851e-02 -2.366960e-03 -2.067151e-02 -6.340228e-03
<VARIANCE> 39
 1.396826e+01 2.826636e+01 2.858954e+01 8.007817e+01 4.878632e+01 8.122162e+01 8.714336e+01 5.848577e+01 6.984793e+01 8.044370e+01 1.549388e+02 1.141534e+02 1.491566e+01 1.447046e-01 3.406462e-01 4.946048e-01 7.579473e-01 9.168161e-01 9.326770e-01 1.065105e+00 1.079870e+00 1.230478e+00 1.138470e+00 1.285285e+00 1.125666e+00 5.645292e-02 2.694142e-02 5.905605e-02 8.674779e-02 1.320972e-01 1.618290e-01 1.828739e-01 2.033115e-01 1.926822e-01 2.332880e-01 2.005951e-01 2.303648e-01 2.036037e-01 1.000000e-02
<GCONST> 8.875488e+01
<MIXTURE> 2 2.116460e-01
<MEAN> 39
 2.743800e+00 2.952302e-01 -4.221659e-01 -1.779749e+00 -1.734637e+00 -2.335196e+00 -1.915997e-01 -1.883631e+00 -2.279034e+00 -1.209973e+00 -3.761923e+00 -1.548999e+00 4.707770e+00 3.603394e-01 -3.871340e-01 -4.779064e-01 -5.345546e-01 -2.273877e-01 2.257038e-02 3.434801e-01 1.170028e-01 -8.807405e-02 -9.143588e-02 -1.268236e-01 -1.200848e-01 1.042849e+00 -3.468951e-01 -1.689160e-01 -4.791809e-02 2.333323e-01 2.499187e-01 3.118374e-01 2.283111e-01 1.296505e-01 1.220899e-01 3.114630e-02 2.417037e-01 2.315868e-01 -1.377874e-01
<VARIANCE> 39
 2.074342e+01 4.558580e+01 4.758714e+01 8.415127e+01 5.399881e+01 5.900892e+01 6.159422e+01 7.742330e+01 6.316166e+01 6.003273e+01 5.670701e+01 6.272490e+01 4.249144e+01 1.602225e+00 1.912223e+00 2.438840e+00 3.037532e+00 2.724634e+00 4.110670e+00 4.148264e+00 3.793939e+00 3.898944e+00 3.743441e+00 4.001787e+00 3.829603e+00 2.751207e+00 2.564813e-01 2.855641e-01 3.630584e-01 4.853929e-01 4.747873e-01 6.288909e-01 6.863388e-01 6.636109e-01 6.865810e-01 6.710943e-01 6.180131e-01 5.514867e-01 3.399083e-01
<GCONST> 1.289683e+02
<MIXTURE> 3 2.665314e-01
<MEAN> 39
 -3.333607e+00 -4.192594e+00 -1.537458e+00 -1.443799e+00 1.356068e+00 5.866782e+00 3.330200e+00 -2.409812e+00 -1.587162e+00 -1.404770e+00 5.983887e+00 1.024992e+01 6.878507e+00 1.587716e-01 1.534152e-01 -4.403112e-02 -2.558778e-01 -2.499018e-01 -2.882387e-01 -9.223077e-02 1.349797e-01 -1.249382e-01 -1.511875e-01 -2.166025e-01 -2.146175e-01 -2.083412e-01 6.846336e-02 4.711086e-02 1.435522e-02 3.016409e-02 -2.267128e-02 -1.321700e-01 -8.724561e-02 6.282233e-02 3.970593e-02 3.149226e-02 -6.535962e-02 -1.279482e-01 -5.964101e-02
<VARIANCE> 39
 1.483593e+01 2.895650e+01 2.677806e+01 7.247279e+01 5.794377e+01 8.612131e+01 9.967741e+01 9.170140e+01 9.109485e+01 1.352176e+02 1.381128e+02 1.366971e+02 3.556565e+01 5.550067e-01 9.993689e-01 1.295645e+00 2.417380e+00 2.442029e+00 3.665180e+00 3.921520e+00 3.312254e+00 3.580191e+00 4.040215e+00 3.497440e+00 3.647403e+00 4.443971e-01 7.905460e-02 1.452502e-01 2.276250e-01 3.119254e-01 3.993429e-01 6.043010e-01 6.631626e-01 5.479851e-01 6.309310e-01 6.288530e-01 5.417368e-01 5.705549e-01 6.076681e-02
<GCONST> 1.210523e+02
<MIXTURE> 4 2.327010e-01
<MEAN> 39
 2.141778e+00 -5.323052e+00 -1.203532e+01 1.098045e+01 2.327511e+00 -2.310052e+00 6.779414e+00 2.550318e+00 -1.328254e+00 -3.908490e+00 3.114608e+00 3.113084e+00 7.783630e+00 1.096678e-01 4.374385e-02 -8.998716e-02 -2.392868e-02 5.438856e-03 -2.353778e-02 -1.070798e-01 7.952034e-02 7.245471e-02 -4.305709e-02 -1.941826e-02 -9.191931e-02 -5.749088e-02 -2.310159e-02 8.213216e-03 8.284299e-02 -1.063410e-01 -4.476743e-02 5.469792e-02 -2.789460e-02 -6.732772e-02 -2.358129e-03 6.564284e-02 -1.312028e-03 1.922618e-02 -2.366972e-02
<VARIANCE> 39
 1.220944e+01 1.753622e+01 5.070932e+01 3.682507e+01 4.078808e+01 4.621868e+01 7.004972e+01 7.383350e+01 9.167258e+01 7.021853e+01 1.028721e+02 9.944318e+01 1.460008e+01 3.059336e-01 4.935417e-01 1.002198e+00 1.178230e+00 1.323705e+00 1.682721e+00 2.016420e+00 2.124645e+00 2.152984e+00 2.118034e+00 1.970226e+00 2.158864e+00 1.985366e-01 4.456139e-02 7.982337e-02 1.541629e-01 1.937728e-01 2.326415e-01 2.845921e-01 3.229067e-01 3.512823e-01 3.865196e-01 3.561741e-01 3.277357e-01 3.613982e-01 2.573703e-02
<GCONST> 1.014152e+02
<TRANSP> 6
 0.000000e+00 1.000000e+00 0.000000e+00 0.000000e+00 0.000000e+00 0.000000e+00
 0.000000e+00 8.349930e-01 1.650070e-01 0.000000e+00 0.000000e+00 0.000000e+00
 0.000000e+00 0.000000e+00 8.603663e-01 1.396337e-01 0.000000e+00 0.000000e+00
 0.000000e+00 0.000000e+00 0.000000e+00 8.787567e-01 1.212433e-01 0.000000e+00
 0.000000e+00 0.000000e+00 0.000000e+00 0.000000e+00 8.900647e-01 1.099353e-01
 0.000000e+00 0.000000e+00 0.000000e+00 0.000000e+00 0.000000e+00 0.000000e+00
<ENDHMM>
