~o
<STREAMINFO> 1 39
<VECSIZE> 39<NULLD><MFCC_D_A_Z_0><DIAGC>
~h "y"
<BEGINHMM>
<NUMSTATES> 6
<STATE> 2
<NUMMIXES> 4
<MIXTURE> 1 2.168597e-01
<MEAN> 39
 1.603019e-01 3.970245e+00 4.057100e+00 -1.037656e+01 -5.975275e+00 3.000243e-01 -3.934648e+00 -9.321980e-01 8.821927e-01 -9.390817e-01 4.688340e-01 2.769338e+00 7.615085e+00 9.624220e-02 -2.417061e-01 2.721649e-01 -1.591447e+00 2.834402e-03 5.032330e-01 -4.805080e-01 -2.919602e-01 -1.286548e-01 -1.131083e-01 7.137440e-01 9.804150e-01 1.445425e+00 -1.473517e-01 -1.102751e-01 -3.428069e-01 8.842841e-01 6.271920e-01 -1.504131e-01 2.056724e-01 2.275795e-01 -2.610500e-01 2.836711e-02 1.040975e-01 -1.580354e-01 -5.868996e-01
<VARIANCE> 39
 1.726019e+01 4.593391e+01 3.344964e+01 5.075392e+01 4.420991e+01 6.099082e+01 7.465411e+01 8.027388e+01 8.016528e+01 8.522166e+01 1.085669e+02 9.897325e+01 2.606339e+01 2.224973e+00 3.574219e+00 2.600725e+00 6.006412e+00 5.368071e+00 6.064530e+00 6.621153e+00 5.538233e+00 5.229229e+00 6.701496e+00 6.880794e+00 6.703580e+00 2.866431e+00 4.040560e-01 4.031450e-01 4.505943e-01 6.348705e-01 7.161322e-01 1.072688e+00 1.184573e+00 1.119879e+00 1.037309e+00 9.248400e-01 1.055670e+00 8.810729e-01 3.153575e-01
<GCONST> 1.397926e+02
<MIXTURE> 2 2.694659e-01
<MEAN> 39
 -1.313644e+00 1.533589e+01 4.996412e+00 -1.283222e+01 4.221028e-01 -7.322800e+00 -8.623012e+00 3.432405e+00 -2.150380e+00 -2.409319e+00 -8.267604e-01 -3.601834e+00 4.785266e+00 1.996168e-02 -2.292272e-01 3.943299e-01 -1.450430e+00 1.735285e-01 1.935397e-01 -3.668430e-01 6.725503e-01 -1.320550e-02 6.688514e-03 1.694433e-01 -1.490008e-01 8.680856e-01 -1.575720e-02 -4.996226e-01 -5.971875e-02 5.348482e-01 -1.763858e-01 4.741330e-01 3.555955e-01 -1.150399e-01 1.411686e-01 4.580094e-02 -3.922157e-02 1.451278e-01 -2.421394e-01
<VARIANCE> 39
 1.177439e+01 2.225743e+01 2.622641e+01 2.872102e+01 2.819367e+01 3.369323e+01 3.478044e+01 3.888561e+01 5.018291e+01 5.911288e+01 4.380037e+01 5.502006e+01 1.995705e+01 8.971698e-01 2.243918e+00 1.516939e+00 2.727461e+00 2.361857e+00 3.627578e+00 2.670452e+00 2.440209e+00 2.792902e+00 2.884484e+00 2.353121e+00 2.972347e+00 1.132276e+00 2.183590e-01 1.894759e-01 2.225035e-01 4.888921e-01 4.572553e-01 4.769875e-01 5.346161e-01 4.809403e-01 5.469975e-01 5.131420e-01 3.870912e-01 4.753587e-01 1.486748e-01
<GCONST> 1.138564e+02
<MIXTURE> 3 2.894144e-01
<MEAN> 39
 -3.794515e-01 6.531883e+00 4.913984e+00 -1.698710e+00 -3.096747e+00 -1.979916e+00 -4.735826e+00 -1.593778e+00 -1.447487e+00 -1.886648e+00 -2.941054e+00 -1.945531e+00 6.612070e-01 1.306029e+00 1.744201e-01 3.828113e-01 -1.538172e+00 -1.113469e+00 -7.842295e-01 -5.508318e-01 -2.645456e-01 4.071559e-02 1.323772e-01 -9.226061e-02 -1.600022e-01 1.671866e+00 -5.860944e-02 -4.344596e-01 -4.333344e-01 -1.816593e-01 1.408781e-01 1.521757e-01 3.718125e-01 2.827969e-01 1.416837e-01 2.100486e-01 3.405789e-01 2.130721e-01 7.694034e-02
<VARIANCE> 39
 3.480749e+01 5.101435e+01 2.945216e+01 4.708473e+01 4.977950e+01 4.810416e+01 5.051846e+01 5.016634e+01 4.525655e+01 4.807930e+01 4.688205e+01 4.261562e+01 3.430758e+01 4.212238e+00 3.004099e+00 3.590294e+00 4.876741e+00 4.309503e+00 4.869056e+00 5.109019e+00 5.245222e+00 5.846238e+00 5.338348e+00 5.029100e+00 5.263584e+00 3.380093e+00 5.242093e-01 4.088741e-01 3.946697e-01 6.138620e-01 6.715828e-01 7.498137e-01 7.608405e-01 8.230020e-01 7.637831e-01 7.690724e-01 7.649543e-01 6.885297e-01 2.732300e-01
<GCONST> 1.339176e+02
<MIXTURE> 4 2.242600e-01
<MEAN> 39
 4.958168e-03 -1.109018e-01 1.303709e+00 -1.054534e+00 -1.446935e+00 1.211075e+00 -3.421392e-01 -2.494153e+00 -2.111455e+00 1.923505e-01 2.207128e+00 2.994771e+00 5.341622e+00 1.038219e-01 3.500295e-02 4.092532e-01 -2.254637e-02 -3.106257e-01 -1.988518e-01 -3.409830e-01 -7.615764e-02 -1.657788e-01 8.835701e-03 1.246029e-01 5.023232e-02 -1.278650e-01 4.576064e-02 -6.875115e-02 -1.647744e-01 -2.033665e-02 -3.342566e-02 -1.659195e-01 -7.717237e-02 1.001214e-01 1.126967e-01 2.035035e-03 -1.166592e-02 -1.375419e-02 -1.347647e-02
<VARIANCE> 39
 2.509501e+01 4.327752e+01 4.008753e+01 9.977872e+01 5.605870e+01 7.184306e+01 7.529846e+01 8.424532e+01 8.480849e+01 1.161356e+02 1.110110e+02 1.120105e+02 4.946708e+01 4.016131e-01 7.814536e-01 1.117462e+00 1.583683e+00 2.069856e+00 2.447059e+00 2.426351e+00 2.744535e+00 2.513988e+00 3.059802e+00 2.828694e+00 2.726133e+00 3.542402e-01 5.733288e-02 1.019633e-01 1.671948e-01 2.691333e-01 3.075695e-01 3.976302e-01 4.427806e-01 3.997119e-01 4.529471e-01 4.620207e-01 4.393595e-01 4.062150e-01 4.423525e-02
<GCONST> 1.140359e+02
<STATE> 3
<NUMMIXES> 4
<MIXTURE> 1 2.075288e-01
<MEAN> 39
 -1.314685e+00 7.995672e+00 7.315066e+00 -1.531045e+01 -2.874105e+00 5.085514e-01 -8.408221e+00 2.160248e+00 2.966132e-01 -2.710074e+00 -8.242235e-02 1.019664e+00 7.512572e+00 4.344668e-01 -1.582491e+00 2.448402e-01 6.048127e-01 -1.326229e+00 1.185668e+00 9.923956e-01 -8.024535e-01 4.853592e-01 4.784860e-01 -6.901932e-01 1.777901e-01 2.772068e-01 1.282620e-01 -6.499780e-02 -3.439843e-01 7.767390e-01 -7.416601e-02 -4.526900e-01 5.739705e-01 -1.638533e-01 -3.677733e-01 3.415395e-01 -6.763817e-02 -2.474466e-01 -2.195397e-01
<VARIANCE> 39
 9.960839e+00 2.340561e+01 2.960828e+01 2.355850e+01 3.334114e+01 3.978046e+01 5.595216e+01 5.788956e+01 5.425627e+01 7.310522e+01 8.182969e+01 9.359943e+01 1.981423e+01 4.477623e-01 1.511505e+00 1.197387e+00 2.524322e+00 3.205649e+00 3.342298e+00 4.095924e+00 3.625319e+00 3.439739e+00 3.002106e+00 3.272422e+00 2.698428e+00 5.278619e-01 7.692681e-02 1.548636e-01 2.072619e-01 3.680459e-01 4.232377e-01 6.125641e-01 5.547246e-01 6.570958e-01 6.106219e-01 4.790644e-01 6.113952e-01 4.692725e-01 6.884056e-02
<GCONST> 1.143082e+02
<MIXTURE> 2 3.084396e-01
<MEAN> 39
 -1.148695e+00 1.415871e+01 6.564117e+00 -1.401422e+01 3.000208e+00 -7.720118e+00 -9.270225e+00 5.098112e+00 -4.099402e+00 -3.975941e-01 -3.847294e-01 -2.897716e+00 2.990226e+00 4.060457e-02 -1.821258e-01 1.671119e-01 -2.305859e-01 -8.755018e-02 2.671145e-01 -2.091898e-01 1.266944e-01 6.124736e-02 -2.700392e-02 6.032582e-02 1.448032e-02 7.007881e-02 2.964316e-02 -1.035870e-01 2.091379e-02 7.848555e-02 -1.465477e-01 1.096973e-01 1.888005e-02 -9.808983e-02 1.051390e-01 -1.708309e-02 -3.984519e-02 3.116669e-02 -1.303053e-02
<VARIANCE> 39
 1.156959e+01 1.719054e+01 1.547436e+01 2.503309e+01 2.565750e+01 3.899300e+01 3.179809e+01 3.921434e+01 3.496103e+01 5.004043e+01 4.085880e+01 4.867386e+01 2.169357e+01 1.725540e-01 5.318798e-01 5.631238e-01 7.911128e-01 8.684182e-01 1.371167e+00 1.205759e+00 1.410822e+00 1.376776e+00 1.325142e+00 1.317633e+00 1.368943e+00 1.588707e-01 2.716857e-02 6.248519e-02 8.415668e-02 1.332763e-01 1.551794e-01 1.932140e-01 2.186715e-01 2.632500e-01 2.423753e-01 2.722886e-01 2.514450e-01 2.494658e-01 2.024173e-02
<GCONST> 8.534770e+01
<MIXTURE> 3 2.885246e-01
<MEAN> 39
 1.388366e+00 6.854097e+00 6.883530e+00 -4.939859e+00 -2.564588e+00 -2.711150e+00 -5.683705e+00 -2.716615e+00 -3.514177e+00 -3.096207e+00 -4.616588e+00 -3.240756e+00 1.149503e-01 1.076398e-01 -4.713795e-02 -1.842226e-02 -8.232386e-02 -3.889641e-02 -2.913999e-01 -3.571560e-02 1.790162e-01 -1.302688e-01 -1.420717e-02 8.841669e-02 -9.714715e-02 2.367269e-02 -2.694768e-02 -1.296504e-01 -1.706036e-01 1.056365e-03 4.726954e-02 4.045578e-02 9.903667e-02 1.306123e-01 1.104951e-01 4.758984e-02 8.736296e-02 5.221487e-02 7.368007e-02
<VARIANCE> 39
 2.286473e+01 3.841698e+01 3.069010e+01 6.054356e+01 3.439391e+01 5.443045e+01 4.901260e+01 5.501197e+01 4.910129e+01 5.016381e+01 4.919657e+01 4.551682e+01 3.843989e+01 5.623457e-01 8.425560e-01 9.854060e-01 1.963441e+00 1.843203e+00 2.119066e+00 2.355945e+00 2.553719e+00 2.596279e+00 2.478253e+00 2.176711e+00 1.920948e+00 7.495393e-01 9.858416e-02 1.272205e-01 1.931489e-01 3.092599e-01 3.454080e-01 3.978523e-01 4.326898e-01 4.830655e-01 4.702868e-01 4.012189e-01 4.482539e-01 3.404804e-01 9.937426e-02
<GCONST> 1.100603e+02
<MIXTURE> 4 1.955070e-01
<MEAN> 39
 1.883551e+00 -1.466975e+00 -4.016951e-02 -1.999377e+00 -4.759137e+00 -1.202258e+00 9.081523e-01 -1.583592e+00 -7.816948e-01 2.139016e+00 3.064757e+00 3.327020e+00 6.920388e+00 4.466751e-01 -9.421831e-01 -8.316883e-01 6.273138e-02 4.256278e-02 -2.174536e-01 4.215969e-01 2.351916e-01 -1.095795e-01 2.426714e-01 7.837834e-01 5.032901e-01 1.137165e+00 -2.284884e-01 5.744086e-02 -1.329646e-01 2.423602e-01 4.683409e-01 1.406614e-01 -1.156775e-01 1.738615e-01 1.033326e-01 -1.268274e-01 -6.328847e-02 -9.082776e-02 -3.540618e-01
<VARIANCE> 39
 2.361741e+01 4.020538e+01 4.255925e+01 7.722270e+01 5.930406e+01 6.833165e+01 7.073273e+01 8.294405e+01 9.351367e+01 1.174526e+02 1.231660e+02 1.159074e+02 3.706446e+01 1.643173e+00 2.001876e+00 2.422870e+00 3.906797e+00 3.099069e+00 4.742437e+00 5.463837e+00 4.860778e+00 5.247564e+00 5.492599e+00 5.342625e+00 5.921019e+00 2.369325e+00 3.555307e-01 2.938791e-01 4.091405e-01 6.146317e-01 6.407812e-01 8.301898e-01 7.783406e-01 8.028862e-01 8.704274e-01 9.968961e-01 8.397049e-01 9.113569e-01 3.285962e-01
<GCONST> 1.369186e+02
<STATE> 4
<NUMMIXES> 4
<MIXTURE> 1 2.546077e-01
<MEAN> 39
 2.322248e+00 -1.408415e+00 -1.029518e+00 -1.429316e+00 -2.937793e+00 -2.000469e+00 8.052062e-01 3.385048e-01 -1.513495e+00 -7.279671e-02 2.874548e+00 2.548103e+00 6.742483e+00 1.812754e-01 -4.789406e-01 -7.662202e-01 1.221605e-01 7.465137e-01 1.497446e-01 -7.717684e-02 3.419210e-01 2.920736e-01 6.372546e-02 2.664218e-01 1.163562e-01 5.743389e-01 -1.577285e-01 2.264614e-01 7.695556e-02 6.931026e-02 2.512828e-01 2.172152e-01 -1.578577e-01 -1.579860e-01 1.090835e-01 6.585851e-02 -2.040607e-01 -1.293944e-01 -3.374670e-01
<VARIANCE> 39
 2.366875e+01 5.199436e+01 4.392867e+01 8.840419e+01 5.711475e+01 7.912865e+01 7.814113e+01 8.933749e+01 9.658272e+01 1.211266e+02 1.181568e+02 1.137194e+02 4.131456e+01 1.081445e+00 1.485743e+00 1.837423e+00 3.125055e+00 2.777920e+00 4.159349e+00 4.286963e+00 4.608211e+00 4.102439e+00 4.561783e+00 4.768851e+00 4.600993e+00 1.390600e+00 2.378008e-01 2.588102e-01 3.381961e-01 5.420864e-01 5.668958e-01 7.916061e-01 7.653854e-01 8.173046e-01 8.021643e-01 9.283328e-01 8.150507e-01 8.508609e-01 2.444242e-01
<GCONST> 1.330937e+02
<MIXTURE> 2 2.720600e-01
<MEAN> 39
 1.363389e+00 8.832662e+00 1.155079e+01 -1.392631e+01 -4.253817e+00 6.712317e-01 -8.955005e+00 -1.452518e+00 2.494702e+00 -1.338470e+00 -1.523772e+00 9.588082e-02 5.727264e+00 2.254318e-01 -4.847192e-01 8.078969e-02 3.439091e-01 -6.998415e-01 2.341611e-01 5.784395e-01 -5.105222e-01 1.608531e-01 3.515738e-01 -4.058991e-01 -2.886930e-02 -1.322639e-02 1.498422e-03 4.532254e-03 -8.205910e-02 1.041891e-01 -4.290212e-03 -1.514501e-01 1.249436e-01 -1.128357e-02 -1.240612e-01 9.212939e-02 2.143466e-02 -7.761774e-02 -2.007253e-02
<VARIANCE> 39
 7.654070e+00 1.294045e+01 1.928655e+01 2.277437e+01 3.007059e+01 2.515418e+01 4.679616e+01 6.218694e+01 3.896516e+01 5.416866e+01 5.856580e+01 4.676009e+01 1.498553e+01 1.158500e-01 3.390418e-01 2.987501e-01 5.771003e-01 8.464106e-01 8.384328e-01 1.213879e+00 1.062592e+00 1.116267e+00 1.267289e+00 1.060153e+00 9.740517e-01 6.647126e-02 1.397169e-02 3.509577e-02 5.129354e-02 9.100088e-02 1.032837e-01 1.397128e-01 1.638722e-01 1.599298e-01 1.818298e-01 1.867420e-01 1.819607e-01 1.658796e-01 1.000000e-02
<GCONST> 7.546804e+01
<MIXTURE> 3 1.942587e-01
<MEAN> 39
 1.490491e+00 8.143619e-01 5.111534e+00 -5.799281e+00 -9.780390e+00 -7.673017e-01 2.538382e+00 -1.322665e+00 -3.322293e+00 4.674276e+00 -1.557503e+00 -1.509018e+00 7.389187e+00 9.595603e-01 -1.316478e+00 -1.316772e+00 2.672830e+00 -3.276220e-01 -1.817966e+00 1.975485e+00 8.545783e-01 -1.714674e+00 2.436729e-01 9.746965e-01 -7.292783e-01 -2.081652e-01 3.579286e-02 3.240774e-01 -3.190517e-01 -3.209066e-02 7.612512e-01 -4.253930e-01 -7.222090e-01 6.413023e-01 1.719109e-01 -7.007251e-01 2.458911e-01 2.895553e-01 -1.479338e-01
<VARIANCE> 39
 1.147166e+01 2.461360e+01 3.015804e+01 3.623262e+01 2.742990e+01 5.005846e+01 6.560128e+01 5.098689e+01 6.514320e+01 7.537614e+01 9.613360e+01 9.691239e+01 2.781395e+01 3.308573e-01 8.853278e-01 1.190146e+00 1.754459e+00 2.593676e+00 2.700101e+00 3.505054e+00 3.947564e+00 2.835676e+00 3.699238e+00 2.890800e+00 2.640959e+00 2.602285e-01 4.721935e-02 1.133542e-01 2.091737e-01 3.304024e-01 3.981931e-01 5.578835e-01 6.181455e-01 5.091301e-01 8.656667e-01 4.789602e-01 7.222402e-01 6.098751e-01 4.236303e-02
<GCONST> 1.123154e+02
<MIXTURE> 4 2.790736e-01
<MEAN> 39
 -3.574514e-02 2.926172e+00 4.250844e+00 -8.094418e+00 -3.654741e+00 2.579094e-01 -3.995214e+00 -1.147008e+00 -1.680788e+00 3.820836e-02 1.917307e+00 4.672880e+00 6.464350e+00 2.482407e-01 -4.978535e-01 -2.661819e-01 3.693053e-01 -1.520043e-01 -1.334866e-01 3.433110e-01 8.992071e-02 -2.024564e-01 2.626378e-01 1.461391e-01 -1.454232e-01 2.247123e-02 2.812229e-02 1.906759e-02 -1.163853e-01 1.590752e-01 6.163342e-02 -4.732390e-02 5.534583e-02 6.201532e-02 3.272789e-02 3.536946e-02 -9.153223e-03 -1.281950e-01 -6.987628e-02
<VARIANCE> 39
 2.031042e+01 4.854391e+01 3.422614e+01 7.768932e+01 5.094653e+01 6.090755e+01 7.270559e+01 6.959177e+01 7.109467e+01 9.538565e+01 1.065935e+02 1.525074e+02 3.562753e+01 2.667773e-01 7.215036e-01 7.263752e-01 1.442442e+00 1.437971e+00 1.627678e+00 2.308139e+00 2.039109e+00 2.130084e+00 2.186770e+00 2.112534e+00 2.190849e+00 2.173795e-01 4.864025e-02 1.049891e-01 1.300645e-01 2.104490e-01 2.686423e-01 3.063432e-01 3.199392e-01 3.606794e-01 3.713472e-01 3.752354e-01 4.023018e-01 3.935697e-01 3.838338e-02
<GCONST> 1.068537e+02
<STATE> 5
<NUMMIXES> 4
<MIXTURE> 1 2.089256e-01
<MEAN> 39
 3.069722e+00 8.331954e-01 1.370144e+00 -4.339048e+00 -3.839877e+00 -2.631724e+00 -1.438699e+00 3.404251e-01 -5.620733e-01 1.023421e+00 5.096462e-01 -6.044655e-01 5.260517e+00 2.006372e-01 -2.490306e-01 -6.822885e-01 1.721532e-01 6.433805e-01 4.984610e-01 5.918501e-02 -1.789192e-01 -3.341107e-02 3.070836e-01 1.401392e-01 -1.294097e-01 2.187428e-01 -1.757118e-01 2.205525e-01 1.176064e-01 2.087691e-02 1.210094e-01 1.416596e-01 -3.587789e-02 -1.377884e-01 -1.078271e-01 -1.582866e-01 6.430889e-03 8.225865e-02 -1.800098e-01
<VARIANCE> 39
 2.100513e+01 4.552159e+01 5.245423e+01 6.791888e+01 5.366935e+01 6.952821e+01 8.201752e+01 9.053161e+01 9.888264e+01 9.003268e+01 1.172916e+02 1.202131e+02 4.357165e+01 1.157089e+00 2.065511e+00 2.195096e+00 3.688795e+00 3.551468e+00 5.318048e+00 5.140058e+00 5.256102e+00 4.469861e+00 5.428103e+00 5.163788e+00 5.718306e+00 1.726626e+00 1.488798e-01 2.738064e-01 3.274830e-01 5.271903e-01 6.062467e-01 7.532244e-01 8.413576e-01 7.617748e-01 8.910331e-01 8.071333e-01 8.575911e-01 7.108555e-01 2.095434e-01
<GCONST> 1.340237e+02
<MIXTURE> 2 2.644628e-01
<MEAN> 39
 3.715362e+00 3.926207e+00 8.781554e+00 -5.204564e+00 -9.833035e+00 -2.635870e+00 -5.634760e-01 -1.396652e+00 -3.954626e+00 2.253439e-01 -1.213244e+00 -6.599452e+00 4.202821e+00 2.968872e-01 -3.722486e-01 -5.123533e-01 7.263227e-01 1.651927e-02 -7.553532e-01 4.620249e-01 5.036507e-01 -4.792032e-01 -5.585794e-02 4.929124e-01 -2.558626e-01 -6.336349e-02 -3.231579e-02 5.995178e-02 -4.490016e-02 -5.832183e-02 1.634916e-01 -1.085790e-02 -2.014061e-01 1.158819e-01 1.032491e-01 -1.600403e-01 -3.192567e-03 1.478504e-01 -4.245327e-03
<VARIANCE> 39
 9.788161e+00 1.628075e+01 2.918682e+01 3.049234e+01 3.224765e+01 3.522132e+01 4.121794e+01 5.125884e+01 5.047934e+01 8.017088e+01 6.187478e+01 7.601065e+01 1.683414e+01 1.619319e-01 3.545306e-01 4.578151e-01 9.658924e-01 8.408207e-01 1.352487e+00 1.415064e+00 1.434386e+00 1.471554e+00 1.704952e+00 1.399335e+00 1.549535e+00 8.975452e-02 2.417397e-02 5.043463e-02 6.702917e-02 1.170229e-01 1.460822e-01 1.955471e-01 2.070260e-01 2.444334e-01 2.585507e-01 2.628708e-01 2.652378e-01 2.320186e-01 1.184292e-02
<GCONST> 8.625195e+01
<MIXTURE> 3 2.125620e-01
<MEAN> 39
 5.236850e+00 -2.318620e+00 -3.057002e+00 3.454163e+00 -4.399861e+00 -9.855209e+00 6.280778e-01 7.755722e+00 -3.444346e+00 -2.919512e+00 1.455299e+00 1.601486e+00 5.944634e+00 7.589164e-01 -1.745456e-02 -1.451868e+00 6.689031e-01 1.550943e+00 -5.976952e-01 -1.593248e+00 5.101192e-01 1.364452e+00 -6.693470e-01 -6.903577e-01 3.268324e-01 -4.569751e-01 -1.164683e-01 2.333240e-01 2.499370e-01 -5.337163e-01 -2.036564e-02 6.566647e-01 -2.086956e-01 -7.267851e-01 1.929411e-01 3.948435e-01 -1.578847e-01 -2.346236e-01 -4.404173e-02
<VARIANCE> 39
 1.279401e+01 2.263107e+01 4.431271e+01 3.642802e+01 3.832352e+01 4.546256e+01 7.149669e+01 5.579887e+01 7.510682e+01 9.656207e+01 7.980637e+01 1.055570e+02 3.257802e+01 3.904416e-01 6.438341e-01 1.430495e+00 1.989075e+00 1.908455e+00 3.301719e+00 3.185131e+00 4.529635e+00 2.918293e+00 4.133101e+00 2.984004e+00 3.646734e+00 2.312262e-01 5.468290e-02 1.158235e-01 1.770458e-01 2.666739e-01 3.977460e-01 4.311520e-01 7.689077e-01 5.843029e-01 8.619088e-01 6.284633e-01 6.678308e-01 6.260205e-01 3.635208e-02
<GCONST> 1.140076e+02
<MIXTURE> 4 3.140496e-01
<MEAN> 39
 8.555108e-01 -6.167408e-01 -7.519883e-01 -2.086918e+00 -3.372751e-01 -3.620455e-01 -1.637849e+00 -7.096659e-01 -8.284099e-01 1.343600e-01 3.168635e+00 3.116096e+00 7.464790e+00 1.013253e-01 -1.133790e-01 -2.899222e-01 2.038032e-02 2.504025e-01 1.886299e-01 -2.368147e-01 -1.590314e-03 2.363574e-01 7.540210e-02 -2.770755e-02 -9.485982e-02 1.599304e-02 2.602286e-02 1.255760e-01 1.105256e-01 5.068133e-03 -4.738198e-02 3.992970e-02 5.677719e-02 -8.344539e-02 -1.346652e-02 1.404267e-02 -1.196307e-01 -5.438506e-02 -1.237732e-01
<VARIANCE> 39
 2.412105e+01 6.510938e+01 4.045303e+01 1.075078e+02 4.899345e+01 6.916584e+01 7.325043e+01 7.740427e+01 7.773711e+01 1.101705e+02 1.180200e+02 1.213295e+02 4.041605e+01 2.860661e-01 6.118234e-01 7.538339e-01 1.225063e+00 1.399399e+00 1.683207e+00 1.739869e+00 1.893349e+00 2.038001e+00 1.997463e+00 1.892316e+00 2.026152e+00 2.561214e-01 5.687878e-02 9.319162e-02 1.457776e-01 2.160040e-01 2.457784e-01 2.730020e-01 3.488438e-01 3.378831e-01 3.148055e-01 3.488253e-01 3.420775e-01 3.360263e-01 5.253898e-02
<GCONST> 1.072649e+02
<TRANSP> 6
 0.000000e+00 1.000000e+00 0.000000e+00 0.000000e+00 0.000000e+00 0.000000e+00
 0.000000e+00 5.008044e-01 4.991956e-01 0.000000e+00 0.000000e+00 0.000000e+00
 0.000000e+00 0.000000e+00 6.231937e-01 3.768063e-01 0.000000e+00 0.000000e+00
 0.000000e+00 0.000000e+00 0.000000e+00 4.938836e-01 5.061164e-01 0.000000e+00
 0.000000e+00 0.000000e+00 0.000000e+00 0.000000e+00 4.871074e-01 5.128925e-01
 0.000000e+00 0.000000e+00 0.000000e+00 0.000000e+00 0.000000e+00 0.000000e+00
<ENDHMM>
