~o
<STREAMINFO> 1 39
<VECSIZE> 39<NULLD><MFCC_D_A_Z_0><DIAGC>
~h "jh"
<BEGINHMM>
<NUMSTATES> 6
<STATE> 2
<NUMMIXES> 8
<MIXTURE> 1 9.339146e-02
<MEAN> 39
 4.136549e-02 4.142494e+00 3.980834e+00 3.561080e+00 7.671029e-01 -3.093497e+00 5.502959e-02 -2.436074e+00 -3.261238e+00 -7.947424e-01 -1.095845e+00 -1.003472e+00 -3.683280e+00 -2.632887e-02 9.982202e-02 2.594989e-02 -9.039769e-02 3.128398e-02 1.783674e-01 -4.547684e-02 -2.477310e-02 -7.382383e-02 6.937765e-02 -2.836135e-02 1.383174e-02 -2.240769e-02 -5.446639e-02 -8.855934e-02 -2.942951e-02 -6.183037e-02 -1.125773e-03 6.309682e-02 2.416526e-02 9.954938e-02 1.126420e-01 -3.370015e-02 1.525965e-02 4.719764e-02 4.382085e-02
<VARIANCE> 39
 3.813636e+01 5.612199e+01 4.694343e+01 5.185936e+01 5.863759e+01 5.166422e+01 5.083652e+01 5.926514e+01 6.518774e+01 5.908595e+01 4.442007e+01 4.931794e+01 7.072720e+01 4.285203e-01 6.302751e-01 8.055589e-01 1.022658e+00 1.287446e+00 1.604877e+00 1.427510e+00 1.601827e+00 1.898503e+00 1.738728e+00 1.613943e+00 1.611424e+00 3.185083e-01 9.071054e-02 1.099351e-01 1.549434e-01 1.923833e-01 2.453576e-01 2.983513e-01 3.144850e-01 3.368783e-01 4.184231e-01 3.366963e-01 2.939632e-01 3.176779e-01 5.392189e-02
<GCONST> 1.042017e+02
<MIXTURE> 2 1.417888e-01
<MEAN> 39
 -1.833080e+01 1.059443e+01 5.561355e+00 1.398855e+00 7.115118e+00 4.124253e+00 2.248153e+00 1.709067e+00 2.524487e+00 2.168087e+00 2.972775e+00 -1.306800e+00 -1.854518e-01 -2.503959e+00 6.561049e-01 2.514793e-01 -4.214654e-01 1.944706e-01 9.483802e-01 8.377246e-01 8.267290e-01 7.399654e-01 7.231243e-01 1.118541e+00 5.184227e-01 1.731801e+00 1.513904e+00 -2.993686e-01 1.613985e-01 8.690238e-02 -9.610106e-01 -7.983308e-01 -3.750618e-01 -5.312827e-01 -5.203738e-01 -4.627201e-01 -3.386369e-01 -6.330127e-02 -2.465971e-01
<VARIANCE> 39
 1.950854e+01 2.659296e+01 3.833438e+01 3.143087e+01 3.355687e+01 3.690328e+01 3.934206e+01 3.551082e+01 4.103119e+01 3.411446e+01 3.431378e+01 3.822861e+01 2.227097e+01 3.106673e+00 2.863603e+00 2.739651e+00 1.901205e+00 2.362861e+00 2.353546e+00 2.483863e+00 2.589270e+00 2.502687e+00 2.531949e+00 2.068606e+00 1.891487e+00 1.866781e+00 5.223888e-01 4.132426e-01 4.648564e-01 4.705004e-01 5.835950e-01 5.485149e-01 5.740186e-01 5.154100e-01 5.393161e-01 5.659047e-01 4.846434e-01 4.383860e-01 2.725549e-01
<GCONST> 1.187150e+02
<MIXTURE> 3 1.879717e-01
<MEAN> 39
 -1.128758e+01 1.401526e+01 4.279884e+00 1.947183e+00 2.436325e+00 -2.734427e+00 -1.004329e+00 -4.393621e+00 -2.992281e+00 -3.211814e+00 -2.419979e+00 -4.979761e+00 2.536430e-01 -2.619380e+00 1.070564e+00 1.613225e-01 -1.636293e-01 6.041510e-01 5.083225e-01 2.659961e-01 4.502628e-01 3.258930e-01 2.729791e-01 6.459954e-01 2.106650e-01 9.104915e-01 7.955913e-01 -6.592467e-01 2.271407e-01 -8.979082e-02 -5.356809e-01 -6.296596e-02 1.458237e-02 1.098832e-01 2.591988e-02 1.001140e-01 1.300642e-01 2.136593e-01 -2.042016e-02
<VARIANCE> 39
 2.518325e+01 2.830789e+01 4.691829e+01 3.120684e+01 4.605273e+01 3.820888e+01 3.923552e+01 4.069250e+01 4.305763e+01 4.142612e+01 4.078308e+01 5.422627e+01 1.819443e+01 2.976059e+00 2.294165e+00 1.917302e+00 1.750514e+00 2.574847e+00 2.463905e+00 2.162833e+00 2.395100e+00 2.388904e+00 2.298678e+00 2.211263e+00 2.219180e+00 8.728725e-01 3.276587e-01 3.686932e-01 4.158874e-01 3.685044e-01 5.167201e-01 4.488221e-01 4.510375e-01 4.870884e-01 4.995360e-01 4.632571e-01 4.423663e-01 4.683779e-01 1.460737e-01
<GCONST> 1.163277e+02
<MIXTURE> 4 1.398724e-01
<MEAN> 39
 2.222074e+00 7.405347e+00 6.853075e+00 5.264120e+00 1.938762e+00 -1.402103e+00 2.682483e-01 -1.633081e+00 -2.889675e+00 -9.033335e-01 -2.128869e+00 -2.499461e+00 -8.069702e+00 -2.426720e+00 -1.926635e-02 3.432952e-01 -7.435399e-01 1.035371e+00 1.013203e+00 -5.260998e-02 3.505986e-01 5.063942e-01 1.157151e-01 4.540153e-01 2.573116e-01 6.798709e-01 -1.119051e+00 -3.201814e-02 1.499820e-02 -3.981279e-01 -2.676512e-02 1.174764e-01 -9.779285e-02 6.084628e-02 1.424751e-01 1.576997e-02 2.389586e-01 1.488627e-01 9.017242e-01
<VARIANCE> 39
 1.801398e+01 2.682770e+01 3.770827e+01 2.565647e+01 3.856272e+01 3.525373e+01 3.723388e+01 4.150344e+01 3.911495e+01 3.160391e+01 2.895065e+01 3.046987e+01 2.792715e+01 2.773610e+00 3.171507e+00 2.454768e+00 2.210919e+00 3.558234e+00 3.000407e+00 2.807668e+00 2.931499e+00 3.088427e+00 2.590269e+00 2.529141e+00 2.043767e+00 2.102434e+00 2.556470e-01 4.342970e-01 3.929397e-01 3.742279e-01 4.802540e-01 4.889052e-01 5.165451e-01 5.590508e-01 4.939587e-01 4.337871e-01 3.847709e-01 3.661883e-01 2.408014e-01
<GCONST> 1.175988e+02
<MIXTURE> 5 1.325343e-01
<MEAN> 39
 -6.191032e+00 4.706938e+00 7.658487e+00 8.059109e-01 3.885252e+00 1.556356e+00 -1.491344e+00 -1.444257e+00 -1.105315e+00 -1.295094e+00 -7.742295e-01 -1.901187e+00 -3.435572e+00 -4.200946e+00 5.977323e-01 2.851930e-01 -1.169530e+00 9.672136e-01 1.035669e+00 5.924024e-02 8.341646e-01 7.781543e-01 2.956745e-01 9.660684e-01 3.358839e-01 2.122453e+00 -1.565905e-01 3.818381e-01 -8.232832e-02 1.397943e-01 -3.065940e-01 -2.150627e-01 1.845112e-01 1.136086e-02 -4.340323e-02 4.348542e-02 1.000848e-01 6.779613e-02 3.071487e-01
<VARIANCE> 39
 2.338724e+01 2.741636e+01 3.857916e+01 2.480421e+01 4.095068e+01 4.214548e+01 3.622681e+01 4.335769e+01 3.552617e+01 3.083775e+01 3.007833e+01 3.812234e+01 2.330929e+01 2.078987e+00 3.156158e+00 2.979833e+00 2.616170e+00 3.442634e+00 3.185329e+00 3.416419e+00 3.289897e+00 3.003452e+00 3.418346e+00 2.956743e+00 2.519631e+00 1.533738e+00 2.962372e-01 3.870172e-01 3.599730e-01 3.055614e-01 4.905099e-01 5.463087e-01 4.563218e-01 4.930447e-01 4.517674e-01 3.859314e-01 3.571413e-01 3.808256e-01 1.864316e-01
<GCONST> 1.179202e+02
<MIXTURE> 6 1.244712e-01
<MEAN> 39
 4.807806e+00 9.375306e+00 9.153380e+00 2.659853e+00 -3.404418e+00 -5.104712e+00 -2.563099e+00 -7.235349e+00 -4.879652e+00 -4.262715e+00 -5.090551e+00 -4.852931e+00 -5.475791e+00 -1.302755e+00 1.086423e+00 3.271398e-01 2.695648e-01 1.159436e+00 3.654890e-01 -5.079962e-02 -7.811280e-02 6.453294e-02 -3.884862e-01 6.514984e-02 -5.195904e-01 3.204608e-02 -1.037395e+00 -2.358631e-01 -3.094192e-01 -6.871631e-02 3.772740e-01 3.913011e-01 1.529997e-01 3.948683e-01 2.291082e-01 3.113020e-01 3.396707e-01 2.142656e-01 5.112393e-01
<VARIANCE> 39
 2.808216e+01 3.056925e+01 3.959292e+01 4.210236e+01 4.951757e+01 4.717454e+01 4.880733e+01 5.197762e+01 4.599838e+01 6.001083e+01 5.610707e+01 6.361884e+01 3.308846e+01 5.863148e+00 3.141919e+00 2.940204e+00 3.414462e+00 4.866185e+00 4.016809e+00 3.962991e+00 3.894698e+00 4.449051e+00 4.146374e+00 3.619478e+00 3.329291e+00 2.831564e+00 4.353824e-01 5.758570e-01 4.652784e-01 5.618570e-01 5.961811e-01 6.254770e-01 7.200418e-01 7.602615e-01 7.281313e-01 7.851562e-01 6.603904e-01 6.355708e-01 5.023621e-01
<GCONST> 1.319930e+02
<MIXTURE> 7 7.577164e-02
<MEAN> 39
 -4.456274e+00 1.077685e+01 7.438344e+00 6.781790e+00 3.238373e+00 3.348827e-02 -2.649495e+00 -6.902561e+00 -4.777443e+00 -5.880397e+00 -5.710895e+00 -7.359570e+00 -6.592187e+00 -4.048652e+00 7.086833e-03 -8.114253e-01 -6.208816e-01 1.399982e+00 1.186881e+00 4.882010e-01 1.058412e+00 1.030227e+00 1.073959e+00 1.391860e+00 6.582968e-01 1.914955e+00 -1.291508e-01 -2.898728e-01 -1.775817e-01 -6.392455e-01 -6.144276e-01 -2.958691e-01 2.168536e-01 4.977261e-01 4.640380e-01 6.087964e-01 5.934050e-01 5.009573e-01 6.916848e-01
<VARIANCE> 39
 4.500101e+01 3.697672e+01 4.934733e+01 2.939149e+01 4.666736e+01 4.290739e+01 4.779971e+01 4.192832e+01 3.907309e+01 3.846376e+01 4.840666e+01 4.882995e+01 4.248856e+01 5.334798e+00 4.786989e+00 3.658170e+00 3.410820e+00 4.864598e+00 4.562213e+00 4.534187e+00 4.626352e+00 4.111425e+00 4.102938e+00 3.759645e+00 3.942432e+00 2.783109e+00 9.475986e-01 7.292787e-01 6.162090e-01 4.402539e-01 7.336951e-01 6.852129e-01 7.027009e-01 6.880134e-01 7.279723e-01 6.138870e-01 6.474985e-01 5.595631e-01 5.332828e-01
<GCONST> 1.333257e+02
<MIXTURE> 8 1.041985e-01
<MEAN> 39
 -1.243171e+01 2.830141e-01 2.316812e+00 -2.599995e+00 2.984879e+00 1.844498e+00 6.704764e-01 5.504232e-01 1.647586e+00 2.508914e+00 2.514402e+00 8.512408e-01 2.972244e-01 -2.938271e+00 8.908077e-01 4.230650e-01 -7.736590e-01 -1.963374e-01 2.151719e-01 1.652153e-01 4.438303e-01 6.170081e-01 4.347140e-01 8.059776e-01 4.247415e-01 2.592471e+00 7.210348e-01 6.916742e-01 4.969280e-01 6.760796e-01 -1.890554e-01 -3.140317e-01 3.837178e-02 -1.922248e-01 -3.066429e-01 -3.469622e-01 -2.497451e-01 -1.549225e-01 -3.776931e-01
<VARIANCE> 39
 2.526624e+01 3.186870e+01 3.797404e+01 2.810998e+01 3.869046e+01 4.257456e+01 3.716636e+01 3.701631e+01 3.536615e+01 3.257228e+01 3.215197e+01 3.205837e+01 3.056626e+01 4.347052e+00 3.189790e+00 3.419581e+00 2.869692e+00 3.091098e+00 3.389346e+00 3.387830e+00 3.490396e+00 3.131676e+00 2.726190e+00 2.393207e+00 2.266128e+00 2.828349e+00 7.146444e-01 5.242062e-01 6.156269e-01 4.310373e-01 7.124518e-01 7.839342e-01 7.462732e-01 5.981896e-01 6.270742e-01 5.886144e-01 5.048322e-01 4.276201e-01 3.894895e-01
<GCONST> 1.248194e+02
<STATE> 3
<NUMMIXES> 8
<MIXTURE> 1 1.049119e-01
<MEAN> 39
 -1.757429e+01 1.355148e+01 4.825589e+00 2.166678e+00 5.112440e+00 1.772351e+00 1.320501e+00 -2.149694e+00 -8.597474e-01 -1.555557e+00 -1.320840e+00 -5.748433e+00 1.771135e+00 8.027676e-01 4.696086e-02 6.390075e-01 -1.058927e+00 -2.369723e+00 -1.605154e+00 -3.856366e-01 3.330895e-01 2.079073e-01 7.753271e-01 1.793085e+00 1.142637e+00 1.423900e+00 1.995914e+00 -1.054093e+00 6.056911e-03 -3.065629e-01 -1.314728e+00 -8.886735e-01 -3.120150e-01 9.147968e-02 4.275192e-02 1.974084e-01 4.567737e-01 6.458634e-01 -1.178758e-01
<VARIANCE> 39
 1.790049e+01 2.880619e+01 3.575735e+01 2.984041e+01 3.385789e+01 4.220847e+01 4.469104e+01 4.581670e+01 4.620163e+01 4.397325e+01 4.020598e+01 4.879993e+01 2.035395e+01 5.076794e+00 2.860528e+00 2.176245e+00 2.009270e+00 3.730863e+00 3.404370e+00 2.931711e+00 3.442081e+00 2.983039e+00 3.380465e+00 2.968221e+00 3.281323e+00 1.793216e+00 3.904553e-01 5.934892e-01 5.394440e-01 5.024161e-01 5.019666e-01 5.922418e-01 6.044780e-01 7.913140e-01 7.450020e-01 7.437117e-01 8.071399e-01 8.092904e-01 2.708283e-01
<GCONST> 1.251309e+02
<MIXTURE> 2 1.882120e-01
<MEAN> 39
 -1.975895e+01 7.321515e+00 6.453963e+00 -4.636615e-01 4.801563e+00 4.503647e+00 3.967491e+00 2.160723e+00 2.847035e+00 2.643217e+00 4.311737e+00 5.798704e-01 2.996897e+00 2.257944e+00 5.315667e-01 1.204159e+00 1.245148e-01 -2.374207e+00 -2.264821e+00 -1.368721e+00 -1.288793e+00 -1.418942e+00 -1.255075e+00 -4.452457e-01 -1.791640e-02 1.191033e+00 1.855470e+00 -3.359892e-01 -8.305400e-03 6.850465e-02 -9.091351e-01 -1.096675e+00 -7.775136e-01 -4.007361e-01 -4.962626e-01 -5.312899e-01 -4.604523e-01 -1.101776e-01 -9.322740e-02
<VARIANCE> 39
 1.841336e+01 3.334475e+01 4.066550e+01 2.711033e+01 3.693546e+01 4.079509e+01 3.458107e+01 3.352170e+01 3.298936e+01 3.108787e+01 3.449389e+01 3.344713e+01 1.898684e+01 4.048875e+00 2.190652e+00 2.164387e+00 2.285883e+00 2.908987e+00 2.830975e+00 2.667082e+00 2.475993e+00 2.726149e+00 2.423712e+00 2.420164e+00 2.356094e+00 1.166873e+00 4.551674e-01 4.970268e-01 4.960991e-01 4.688404e-01 5.317924e-01 5.629465e-01 4.782094e-01 5.392953e-01 5.969219e-01 4.938472e-01 5.327502e-01 4.573017e-01 1.939894e-01
<GCONST> 1.181846e+02
<MIXTURE> 3 7.248633e-02
<MEAN> 39
 -1.184516e+01 1.389172e+01 4.773046e+00 3.842989e-01 -2.882293e+00 -4.502281e+00 2.072211e-01 -2.297393e+00 1.552567e+00 2.263906e+00 5.936476e+00 3.605464e-01 3.495000e+00 3.991323e+00 -2.358921e+00 6.602975e-01 -1.866101e+00 -3.748662e+00 -2.522217e+00 -1.153482e+00 5.955412e-01 -9.123197e-02 7.447742e-01 1.971587e+00 2.109176e+00 1.746030e+00 8.254582e-01 -1.364798e+00 -9.143909e-02 -1.941860e-01 1.733314e-01 1.689113e-01 1.081576e-01 4.708563e-01 -2.898673e-02 -1.099765e-01 -3.912633e-01 1.400271e-01 -8.086217e-02
<VARIANCE> 39
 2.237774e+01 2.460822e+01 3.229096e+01 2.827134e+01 3.875338e+01 4.805231e+01 4.362315e+01 4.377859e+01 3.984030e+01 4.274180e+01 4.552378e+01 4.694090e+01 1.883185e+01 3.598116e+00 2.962608e+00 3.569564e+00 2.555717e+00 4.112198e+00 4.802387e+00 4.604066e+00 5.727321e+00 5.797920e+00 6.230460e+00 6.755251e+00 7.042325e+00 9.991701e-01 4.920759e-01 4.170701e-01 4.794536e-01 5.162202e-01 6.263413e-01 6.470561e-01 6.326755e-01 6.806636e-01 5.960138e-01 6.453418e-01 6.836537e-01 6.837963e-01 2.415548e-01
<GCONST> 1.283507e+02
<MIXTURE> 4 1.447667e-01
<MEAN> 39
 -1.444103e+01 9.942734e+00 1.339358e+01 1.072004e+00 1.547075e+00 3.061892e+00 -2.128728e+00 -1.923660e+00 -4.711778e-01 -4.717572e+00 8.193263e-01 2.971916e-01 3.194287e+00 -1.402930e-01 -3.159207e-01 3.171711e-01 1.888240e-01 -9.677116e-01 -8.259044e-01 -1.840411e-01 -3.008639e-01 -1.671124e-01 -1.959792e-01 2.005442e-01 5.084103e-01 7.710497e-01 1.205350e+00 -4.727982e-01 -4.288151e-01 1.184125e-01 -3.859154e-01 -6.429979e-01 -3.970322e-02 1.942431e-02 -9.125694e-02 2.146036e-01 -7.607576e-02 -3.053367e-02 -1.931917e-01
<VARIANCE> 39
 2.342857e+01 2.685451e+01 2.842082e+01 2.297314e+01 4.275468e+01 3.599229e+01 3.485279e+01 3.341935e+01 3.517542e+01 3.033523e+01 2.664033e+01 3.575638e+01 1.602119e+01 3.750264e+00 1.317316e+00 1.574822e+00 1.287697e+00 1.950642e+00 2.832021e+00 2.258169e+00 2.171304e+00 2.173248e+00 1.835820e+00 1.617401e+00 1.691884e+00 6.560111e-01 3.177271e-01 2.449052e-01 2.553130e-01 2.643045e-01 3.937161e-01 3.838248e-01 4.278138e-01 3.473998e-01 3.809401e-01 3.710983e-01 3.118655e-01 3.556688e-01 8.578803e-02
<GCONST> 1.075234e+02
<MIXTURE> 5 1.178940e-01
<MEAN> 39
 -9.986091e+00 1.369635e+01 7.726117e+00 4.962288e-01 -1.779036e+00 -5.452260e+00 -2.716891e+00 -5.473116e+00 -5.401223e+00 -4.731256e+00 -1.398976e+00 -4.780279e+00 4.130772e+00 1.702143e+00 -1.707223e+00 2.317726e-01 -5.662986e-01 -2.320029e+00 -1.183849e+00 -2.451372e-01 4.632181e-01 8.898553e-02 -9.910470e-02 6.706597e-01 7.257059e-01 8.463208e-01 8.998322e-01 -8.885030e-01 -1.294546e-01 -7.285433e-02 -3.280681e-01 9.765445e-02 1.039639e-01 4.036965e-01 3.027968e-01 6.758878e-02 -9.364579e-02 9.543175e-02 -8.324943e-02
<VARIANCE> 39
 1.536052e+01 2.554224e+01 3.021738e+01 2.854429e+01 4.589799e+01 3.583943e+01 3.575828e+01 3.165243e+01 3.476318e+01 3.470115e+01 4.231808e+01 5.854755e+01 1.832528e+01 1.831025e+00 2.029110e+00 2.166649e+00 1.680418e+00 2.456787e+00 2.404039e+00 2.373442e+00 2.606546e+00 2.754489e+00 2.479343e+00 2.467340e+00 2.588395e+00 4.141997e-01 3.162505e-01 2.911652e-01 2.843941e-01 2.619283e-01 4.500706e-01 3.945655e-01 4.176099e-01 4.054620e-01 4.679894e-01 4.670948e-01 4.652424e-01 4.551654e-01 6.620828e-02
<GCONST> 1.114878e+02
<MIXTURE> 6 1.904368e-01
<MEAN> 39
 -2.019058e+01 8.124318e+00 6.296569e+00 3.089414e-01 5.134945e+00 4.648777e+00 3.716517e+00 3.076258e+00 2.997315e+00 2.404913e+00 4.634376e+00 1.424660e-01 1.572098e+00 -5.454401e-02 -4.859141e-01 2.519869e-01 1.294998e-01 -4.085407e-01 -6.737471e-02 4.367632e-01 2.461342e-01 1.859900e-01 1.676724e-02 1.493260e-01 6.473459e-02 2.194178e-01 9.430335e-01 -7.470334e-02 2.575277e-02 1.233816e-01 -2.962437e-01 -4.839266e-01 -3.733831e-01 -3.763037e-01 -3.369534e-01 -2.460036e-01 -2.561637e-01 -8.856362e-02 -2.207133e-01
<VARIANCE> 39
 1.696902e+01 4.391926e+01 3.684982e+01 2.814028e+01 3.687738e+01 3.689537e+01 3.182307e+01 3.433931e+01 2.949862e+01 2.589310e+01 2.615018e+01 3.696920e+01 2.375794e+01 1.497877e+00 1.201461e+00 1.627296e+00 1.446582e+00 1.480423e+00 1.640770e+00 1.633386e+00 1.639093e+00 1.817376e+00 1.720548e+00 1.593952e+00 1.502845e+00 9.643453e-01 3.722781e-01 3.190897e-01 3.394417e-01 3.100130e-01 3.329972e-01 3.451636e-01 3.658607e-01 3.468005e-01 3.390690e-01 3.192860e-01 3.407907e-01 3.161051e-01 1.616745e-01
<GCONST> 1.065372e+02
<MIXTURE> 7 5.566768e-02
<MEAN> 39
 -2.827792e+00 3.481180e+00 2.950422e+00 2.155540e+00 -8.884021e-01 -1.845519e+00 -1.544197e+00 -1.924505e+00 -9.379108e-02 8.412592e-01 1.034323e+00 3.216311e-01 -1.331509e+00 6.332488e-01 -8.082830e-01 -2.345012e-01 -1.079644e+00 -8.062263e-01 -6.589930e-01 -4.393319e-01 6.986376e-01 7.121222e-01 5.161611e-01 5.006769e-01 5.103374e-01 1.503499e+00 2.594778e-01 -2.857427e-01 -9.330959e-02 -2.085712e-01 -1.404594e-02 -6.999699e-04 8.490373e-02 1.950301e-01 1.076674e-01 -5.930581e-02 -1.144706e-01 5.298382e-02 1.489979e-01
<VARIANCE> 39
 5.664781e+01 3.125167e+01 4.339794e+01 4.421370e+01 5.813762e+01 6.342534e+01 4.906590e+01 4.701119e+01 5.582512e+01 4.763058e+01 4.752039e+01 5.438816e+01 5.310266e+01 4.340158e+00 2.809545e+00 3.891298e+00 4.127853e+00 4.428423e+00 5.189617e+00 5.018075e+00 4.962619e+00 5.763340e+00 5.081032e+00 3.830271e+00 4.065511e+00 3.437818e+00 4.719708e-01 4.260296e-01 4.748983e-01 5.886361e-01 6.870309e-01 7.498719e-01 7.187347e-01 7.131076e-01 9.943360e-01 7.728245e-01 6.721975e-01 6.471242e-01 4.895172e-01
<GCONST> 1.353510e+02
<MIXTURE> 8 1.256246e-01
<MEAN> 39
 -1.222130e+01 6.781231e+00 5.913757e+00 1.628210e+00 2.177320e+00 3.586482e+00 1.037844e+00 1.041921e-01 2.724377e+00 6.462768e-02 1.636589e+00 -8.487824e-01 5.664369e-01 -6.761245e-02 -1.691775e-01 -7.663756e-03 -1.632459e-02 -2.157382e-02 1.299821e-01 7.586935e-02 2.581117e-02 6.630674e-02 -5.468196e-02 -5.625181e-02 2.213418e-02 4.049104e-02 1.531218e-01 -6.321963e-02 -4.568816e-02 -5.534238e-03 -3.837204e-02 -4.171054e-02 1.270116e-02 5.825003e-02 -2.604227e-02 -4.541642e-02 -2.893365e-02 3.141615e-02 -4.493940e-02
<VARIANCE> 39
 9.472536e+01 4.895420e+01 5.927287e+01 3.197833e+01 5.299586e+01 7.402750e+01 4.493888e+01 5.690643e+01 6.904733e+01 3.963906e+01 4.299915e+01 5.571621e+01 3.609287e+01 4.651958e-01 4.756621e-01 7.099732e-01 8.530601e-01 1.043826e+00 1.341036e+00 1.591471e+00 1.552279e+00 1.588133e+00 1.507290e+00 1.436812e+00 1.211053e+00 2.859155e-01 6.709600e-02 8.835228e-02 1.126389e-01 1.444018e-01 2.067702e-01 2.585796e-01 3.167503e-01 2.875336e-01 3.315793e-01 2.885171e-01 2.669098e-01 2.474915e-01 3.063982e-02
<GCONST> 9.935433e+01
<STATE> 4
<NUMMIXES> 8
<MIXTURE> 1 1.179062e-01
<MEAN> 39
 -1.227564e+01 1.029314e+01 1.179148e+01 1.335821e+00 2.277668e-01 -2.025356e+00 -1.914015e+00 -3.181882e+00 -3.392596e+00 -3.062055e+00 9.080079e-01 4.969789e-02 5.018499e+00 4.612688e+00 -6.304651e-01 5.842903e-01 2.646700e-01 -3.659103e+00 -3.744469e+00 -2.158950e+00 -1.176778e+00 -1.288593e+00 -1.342635e+00 -6.579168e-01 1.421401e-01 1.210899e+00 6.416788e-01 -8.670092e-01 -6.942461e-01 -1.984188e-01 -2.087724e-01 -3.910810e-04 1.081739e-01 5.775890e-01 5.798765e-01 3.671498e-01 6.793233e-02 6.029212e-02 -8.951493e-02
<VARIANCE> 39
 1.970000e+01 2.200416e+01 2.864851e+01 2.307918e+01 3.873564e+01 4.128004e+01 4.232338e+01 3.407318e+01 3.241884e+01 3.688700e+01 3.515018e+01 3.485796e+01 1.970363e+01 2.027548e+00 2.603853e+00 2.711287e+00 2.707306e+00 3.062414e+00 2.620468e+00 2.500736e+00 2.871275e+00 3.484930e+00 3.112361e+00 3.317258e+00 2.920902e+00 7.136582e-01 4.116456e-01 2.974012e-01 3.495910e-01 3.008069e-01 4.806325e-01 5.167189e-01 5.685771e-01 4.915485e-01 5.881031e-01 5.718658e-01 5.695069e-01 4.538931e-01 1.278462e-01
<GCONST> 1.165812e+02
<MIXTURE> 2 1.408024e-01
<MEAN> 39
 -4.241180e+00 5.532219e+00 1.062290e+01 3.175585e+00 -3.767974e+00 -8.043377e+00 -4.044326e+00 -1.803214e+00 -2.470038e+00 -3.813587e+00 9.777715e-01 4.278564e+00 6.165726e+00 3.530994e+00 -1.935129e+00 -5.337980e-01 2.612100e-01 -2.530745e+00 -2.049491e+00 -1.311571e+00 2.533613e-01 4.721088e-01 2.762853e-02 1.649613e-01 4.796153e-01 8.960130e-01 -3.330622e-01 -3.477796e-01 -5.491113e-01 -3.884778e-01 3.274536e-01 7.460704e-01 3.486380e-01 4.481224e-01 5.329003e-01 4.099173e-01 1.214756e-02 -3.859059e-01 -1.577302e-01
<VARIANCE> 39
 1.441036e+01 1.660145e+01 2.528572e+01 2.435500e+01 2.870557e+01 2.661319e+01 3.335141e+01 2.864381e+01 3.457544e+01 2.870576e+01 3.225127e+01 2.286698e+01 1.642038e+01 2.353858e+00 2.628362e+00 2.581556e+00 1.902865e+00 3.044921e+00 3.664601e+00 3.016092e+00 2.798593e+00 3.468782e+00 3.022951e+00 3.203129e+00 2.414510e+00 7.516967e-01 3.793558e-01 2.451603e-01 3.102930e-01 2.921392e-01 3.508459e-01 4.059755e-01 4.431797e-01 4.177162e-01 4.914672e-01 4.168369e-01 4.640397e-01 3.373939e-01 7.505171e-02
<GCONST> 1.110091e+02
<MIXTURE> 3 8.348490e-02
<MEAN> 39
 -1.577150e+00 5.496354e+00 3.511628e+00 -3.607769e+00 -8.138497e+00 -7.108262e+00 -2.380552e+00 6.909475e-02 3.088490e+00 5.477326e+00 8.962710e+00 4.616472e+00 5.513702e+00 3.100424e+00 -3.201560e+00 -2.646606e-01 -1.722189e+00 -1.476474e+00 -1.134261e+00 -8.640312e-02 1.379298e+00 7.976018e-01 1.109521e+00 1.635353e+00 2.016442e+00 1.554018e+00 -6.852679e-01 -3.224670e-01 -1.095807e-01 3.841165e-01 1.102538e+00 7.786766e-01 5.359030e-01 2.051449e-01 -1.903666e-01 -5.651757e-01 -8.546510e-01 -4.109716e-01 -2.597049e-01
<VARIANCE> 39
 2.792967e+01 3.218486e+01 4.026954e+01 2.923890e+01 4.806865e+01 4.594488e+01 5.935206e+01 5.130477e+01 6.121198e+01 5.785186e+01 6.726682e+01 7.148315e+01 2.526629e+01 3.589302e+00 3.604373e+00 4.130658e+00 4.051761e+00 5.025826e+00 5.149001e+00 5.504614e+00 6.733684e+00 6.544155e+00 6.874636e+00 6.700563e+00 8.154314e+00 1.739385e+00 4.761508e-01 3.795500e-01 3.581457e-01 4.540754e-01 7.860801e-01 7.614425e-01 7.098152e-01 6.996889e-01 7.083043e-01 7.349303e-01 7.224401e-01 6.345796e-01 1.732011e-01
<GCONST> 1.338289e+02
<MIXTURE> 4 1.270732e-01
<MEAN> 39
 -1.122043e+01 3.465828e+00 5.793257e+00 2.362994e+00 4.302044e-01 6.858419e-01 2.094860e+00 1.217883e+00 1.349922e+00 2.592203e-01 2.542190e+00 -4.285828e-01 -3.342074e+00 1.750844e+00 -3.233854e-01 -4.111022e-01 2.076447e-01 -2.991877e-01 -8.331230e-01 -3.718778e-01 -2.643462e-01 -2.172792e-01 -1.559326e-01 -4.087430e-01 -1.696728e-01 -5.319903e-01 2.499313e-01 6.089361e-02 -6.302819e-02 -6.704935e-02 5.235904e-02 8.334211e-03 -1.283631e-01 -1.203519e-01 -6.428640e-02 -6.782266e-02 -1.577107e-01 -3.549747e-02 7.898998e-02
<VARIANCE> 39
 3.881447e+01 3.951348e+01 3.640948e+01 2.795634e+01 3.612038e+01 4.376073e+01 4.432037e+01 4.301742e+01 4.467937e+01 3.380700e+01 3.230573e+01 4.222342e+01 4.571335e+01 3.524051e+00 2.275713e+00 2.386348e+00 2.326458e+00 2.597247e+00 2.803437e+00 2.633179e+00 2.295732e+00 2.619403e+00 2.462432e+00 2.081797e+00 2.061155e+00 3.183482e+00 3.444284e-01 3.353143e-01 3.604618e-01 3.401847e-01 4.395304e-01 4.497561e-01 4.615277e-01 4.266800e-01 4.933930e-01 4.351739e-01 4.097502e-01 3.909233e-01 4.038558e-01
<GCONST> 1.194968e+02
<MIXTURE> 5 1.349820e-01
<MEAN> 39
 -8.179311e+00 -1.285476e+00 4.439730e+00 2.742231e+00 1.686090e+00 -1.629654e-01 5.681148e+00 2.288620e+00 1.313943e+00 -1.572547e+00 -3.951296e-02 -4.593662e+00 -2.265615e+00 1.193905e-01 -8.118916e-02 -1.222347e-01 2.203032e-02 3.224259e-02 6.818288e-03 -2.707651e-02 2.942292e-02 -2.351087e-02 -6.084244e-02 -4.655385e-02 3.956305e-02 -9.575354e-02 3.168540e-02 4.357515e-02 -1.376565e-02 7.671132e-03 -3.141976e-03 -9.917371e-03 -2.465453e-02 -2.294669e-02 -1.288744e-02 6.346389e-03 5.459966e-03 2.024243e-02 -5.400410e-02
<VARIANCE> 39
 3.896642e+01 1.607505e+01 2.811098e+01 2.298352e+01 3.494120e+01 3.096901e+01 4.348157e+01 5.632604e+01 4.129857e+01 4.536180e+01 3.885424e+01 6.898267e+01 2.938115e+01 2.561393e-01 4.243804e-01 5.525832e-01 7.201146e-01 9.198872e-01 1.170223e+00 1.258594e+00 1.458227e+00 1.552982e+00 1.576992e+00 1.553694e+00 1.453856e+00 2.616264e-01 3.198011e-02 6.260025e-02 8.883815e-02 1.253428e-01 1.706648e-01 2.139164e-01 2.295159e-01 2.631522e-01 2.902234e-01 2.979076e-01 2.894198e-01 2.835912e-01 1.959711e-02
<GCONST> 9.038889e+01
<MIXTURE> 6 1.487910e-01
<MEAN> 39
 -1.877418e-01 1.971130e+00 6.796381e+00 -4.957123e+00 -1.064435e+01 -5.545336e+00 -5.445127e-01 1.105209e+00 -2.387385e+00 -3.724649e+00 -1.323230e+00 -4.503901e+00 7.234447e+00 1.575856e+00 -2.490434e+00 -5.769399e-01 -7.446275e-01 8.170050e-02 4.845365e-01 1.087637e+00 2.398256e+00 6.406298e-01 6.021834e-02 -7.312218e-01 5.125288e-01 5.868372e-01 -6.228758e-01 4.141011e-01 -2.394643e-01 3.334314e-01 1.005453e+00 3.324867e-01 4.254427e-02 -3.551769e-03 1.361125e-01 6.573080e-02 -1.997076e-02 1.835920e-01 -1.848338e-01
<VARIANCE> 39
 1.163056e+01 2.156876e+01 2.677035e+01 1.963848e+01 3.163896e+01 3.038236e+01 3.334712e+01 3.919032e+01 3.496189e+01 4.008548e+01 3.506588e+01 3.826002e+01 1.453419e+01 9.217805e-01 1.586116e+00 2.074808e+00 1.798873e+00 2.659004e+00 2.853732e+00 3.218022e+00 3.147764e+00 3.489416e+00 3.013922e+00 2.795655e+00 2.830298e+00 2.675185e-01 2.156318e-01 2.650297e-01 2.598456e-01 2.452107e-01 4.214803e-01 4.808923e-01 4.544765e-01 5.275820e-01 5.567144e-01 4.756500e-01 4.809972e-01 4.200812e-01 5.211484e-02
<GCONST> 1.092539e+02
<MIXTURE> 7 1.314073e-01
<MEAN> 39
 -3.879858e+00 8.611480e+00 7.551087e+00 -3.003964e+00 -1.055645e+01 -7.627634e+00 -4.237135e+00 -4.965868e+00 -3.642071e+00 -2.846252e+00 6.996524e-01 -4.854837e+00 6.087797e+00 3.895370e+00 -2.604202e+00 -2.867351e-01 -1.287608e+00 -2.862655e+00 -1.692992e+00 -2.028562e-01 9.603875e-01 -2.148876e-01 -3.522676e-01 -6.350779e-01 1.745565e-01 1.080529e+00 -5.723824e-01 -5.336745e-01 -4.234281e-01 1.786099e-01 1.245343e+00 9.787523e-01 7.699714e-01 9.510641e-01 6.107020e-01 2.940852e-01 -1.173712e-01 2.599453e-01 -1.741959e-01
<VARIANCE> 39
 1.605052e+01 2.312740e+01 2.882178e+01 2.389002e+01 2.919407e+01 3.305378e+01 3.244548e+01 4.002518e+01 3.156160e+01 3.870887e+01 3.757296e+01 4.152888e+01 1.633158e+01 1.927322e+00 3.128786e+00 3.013985e+00 2.070175e+00 3.414506e+00 4.114839e+00 4.167478e+00 4.311453e+00 4.273668e+00 4.219651e+00 4.144362e+00 3.975667e+00 6.345947e-01 3.941280e-01 3.054143e-01 3.233161e-01 3.088419e-01 4.433642e-01 4.632772e-01 5.192847e-01 5.628182e-01 5.599903e-01 5.768986e-01 5.436642e-01 4.767195e-01 8.050087e-02
<GCONST> 1.175880e+02
<MIXTURE> 8 1.155530e-01
<MEAN> 39
 2.917099e-01 -4.015554e-01 7.775484e+00 1.971007e+00 -9.395874e+00 -1.020079e+01 -6.113647e+00 5.132024e-01 -4.560529e-01 -3.804342e+00 1.230004e+00 4.210856e+00 8.896872e+00 2.404470e+00 -2.619756e+00 -1.758129e+00 -7.578727e-01 -1.279979e+00 -2.525365e-01 -3.801473e-01 1.914169e+00 1.935167e+00 6.898396e-01 -1.122825e-01 -2.448892e-01 9.715529e-01 -1.055155e+00 3.671617e-01 -3.782785e-01 -3.649122e-01 1.253499e+00 1.199422e+00 6.754513e-01 3.145070e-01 4.025818e-01 4.210057e-01 -1.723890e-01 -5.014639e-01 -3.165258e-01
<VARIANCE> 39
 1.128451e+01 1.615857e+01 2.264487e+01 2.467115e+01 2.621678e+01 2.578489e+01 3.302364e+01 3.282077e+01 4.670644e+01 3.610102e+01 3.795084e+01 2.797584e+01 1.802716e+01 1.534311e+00 1.659331e+00 2.655582e+00 1.934552e+00 3.570317e+00 3.971204e+00 4.420350e+00 3.580308e+00 4.012003e+00 3.997962e+00 4.010037e+00 3.284538e+00 5.526171e-01 2.658711e-01 2.817436e-01 3.484314e-01 3.435215e-01 4.083233e-01 6.106168e-01 5.056381e-01 5.710856e-01 7.407767e-01 5.376971e-01 6.142288e-01 4.268855e-01 8.645643e-02
<GCONST> 1.146946e+02
<STATE> 5
<NUMMIXES> 8
<MIXTURE> 1 8.918087e-02
<MEAN> 39
 -6.094736e-01 -1.177691e+00 6.415755e+00 -5.057146e+00 -7.906305e+00 -8.174403e+00 -1.953289e+00 2.135714e+00 1.216641e+00 6.090689e+00 1.122073e+01 9.690832e+00 8.194247e+00 9.319546e-01 -2.405610e+00 -3.076257e-01 -5.954165e-01 1.026386e+00 4.609972e-01 8.068056e-01 1.431473e+00 1.604950e-01 -1.663062e-02 -2.470779e-01 1.194993e+00 6.532887e-01 -8.601087e-01 7.406845e-01 -4.227392e-01 5.287704e-01 9.334411e-01 7.115721e-01 3.824846e-01 -1.180441e-01 -6.564933e-02 -6.236842e-01 -9.746916e-01 -8.192337e-01 -4.105909e-01
<VARIANCE> 39
 1.788404e+01 2.503372e+01 3.994857e+01 3.511198e+01 4.257680e+01 4.442660e+01 4.849652e+01 4.949586e+01 6.090651e+01 7.483973e+01 6.891311e+01 5.734790e+01 1.841308e+01 1.256383e+00 2.879973e+00 2.629174e+00 2.913654e+00 3.957414e+00 3.646267e+00 3.750973e+00 3.993046e+00 4.459947e+00 4.835936e+00 4.455126e+00 4.134207e+00 7.836958e-01 3.245636e-01 4.258451e-01 4.589095e-01 5.645502e-01 6.970441e-01 7.410817e-01 6.577891e-01 7.758664e-01 7.533377e-01 9.508232e-01 7.491752e-01 6.858800e-01 1.123249e-01
<GCONST> 1.265659e+02
<MIXTURE> 2 1.340424e-01
<MEAN> 39
 1.925893e+00 -1.337188e+00 6.173291e+00 8.167453e-01 -8.571033e+00 -8.211105e+00 -5.364341e+00 3.912380e+00 3.046346e+00 -1.617430e+00 1.904278e+00 3.311797e+00 7.919403e+00 6.897812e-01 -9.080607e-01 -1.387702e+00 -5.680066e-01 3.227562e-01 3.446323e-01 4.860865e-02 1.264277e+00 1.314236e+00 5.519179e-01 -4.614052e-01 -5.061438e-01 3.007444e-01 -5.266655e-01 5.059453e-01 -6.920499e-02 -1.937249e-02 6.645980e-01 2.957336e-01 2.009490e-01 -3.173670e-01 -2.286318e-01 -7.180665e-02 -2.717318e-01 -2.291849e-01 -1.963307e-01
<VARIANCE> 39
 8.372334e+00 1.644746e+01 2.206426e+01 2.077906e+01 2.621573e+01 2.676378e+01 3.562664e+01 2.930436e+01 3.295337e+01 3.711500e+01 3.568100e+01 2.732734e+01 1.559493e+01 4.319788e-01 7.494280e-01 1.202944e+00 1.176183e+00 1.591515e+00 1.685662e+00 2.047996e+00 2.384555e+00 2.274009e+00 2.464707e+00 2.387947e+00 2.013229e+00 2.345661e-01 1.380333e-01 1.655601e-01 1.999844e-01 2.150838e-01 2.780699e-01 3.689324e-01 3.447875e-01 3.285716e-01 3.553072e-01 4.168474e-01 3.871658e-01 3.129119e-01 4.874983e-02
<GCONST> 9.818733e+01
<MIXTURE> 3 1.764082e-01
<MEAN> 39
 2.742146e+00 -3.701455e+00 1.724075e-01 -2.492670e+00 -5.190032e+00 -4.754638e+00 -2.217174e+00 7.523639e+00 4.450470e+00 -2.845576e+00 -3.094438e+00 -4.229751e-01 8.989699e+00 3.308899e-01 -4.368935e-01 -1.550184e+00 -3.074119e-01 1.471087e+00 9.009075e-01 5.315694e-03 1.426364e-01 5.155247e-01 -5.883818e-02 -9.465013e-01 -5.167017e-01 -1.487485e-02 -1.585372e-01 2.836414e-01 2.561864e-01 6.759401e-02 3.745019e-02 -4.462489e-02 -1.181109e-01 -5.536812e-01 -3.533947e-01 3.232466e-04 2.101687e-01 3.647700e-02 -1.311340e-01
<VARIANCE> 39
 9.600871e+00 1.490105e+01 1.889132e+01 2.208400e+01 2.577921e+01 3.105147e+01 4.533416e+01 3.444040e+01 4.669870e+01 4.782600e+01 3.782277e+01 3.703063e+01 1.527544e+01 2.465605e-01 6.640829e-01 8.695148e-01 1.183160e+00 1.569868e+00 1.857149e+00 1.980625e+00 2.545570e+00 2.262551e+00 2.646910e+00 1.997592e+00 2.316119e+00 1.899600e-01 4.081669e-02 8.368003e-02 1.289240e-01 1.647593e-01 2.250905e-01 2.892128e-01 3.066657e-01 3.423151e-01 3.441799e-01 3.962692e-01 3.417042e-01 3.102281e-01 2.461358e-02
<GCONST> 9.450417e+01
<MIXTURE> 4 1.028083e-01
<MEAN> 39
 2.447670e+00 -3.217563e+00 1.064328e+00 -3.523231e+00 -6.156101e+00 -5.890356e+00 8.621448e-01 8.203024e+00 6.419359e+00 -4.230296e-01 -1.696714e+00 -2.999547e+00 9.473985e+00 6.116201e-01 -1.567547e+00 -1.728171e+00 -5.904937e-01 1.804233e+00 1.367698e+00 9.268894e-01 1.312051e+00 1.215609e+00 5.447418e-02 -9.203383e-01 -5.867235e-01 5.960054e-01 -5.813904e-01 5.320465e-01 1.686602e-01 2.498712e-01 5.221279e-01 3.511290e-01 -2.731018e-01 -9.133809e-01 -6.863429e-01 -2.088881e-01 1.439801e-01 2.377804e-01 -3.178180e-01
<VARIANCE> 39
 1.590616e+01 2.264687e+01 2.693252e+01 3.167082e+01 3.668022e+01 3.889174e+01 8.701101e+01 6.822275e+01 6.869936e+01 6.753813e+01 4.419699e+01 5.938618e+01 2.112726e+01 1.017531e+00 2.307417e+00 2.004408e+00 2.676143e+00 3.011798e+00 3.754563e+00 4.276585e+00 4.940405e+00 5.501260e+00 5.318715e+00 3.755598e+00 3.961068e+00 8.131016e-01 2.853350e-01 3.026499e-01 3.241164e-01 4.243096e-01 6.003409e-01 6.148896e-01 9.673539e-01 7.822994e-01 7.851960e-01 9.168522e-01 5.878554e-01 5.655150e-01 9.337666e-02
<GCONST> 1.239991e+02
<MIXTURE> 5 9.709902e-02
<MEAN> 39
 -6.080308e+00 3.803017e+00 3.006687e+00 3.666289e+00 1.289417e+00 -1.284594e+00 1.292356e-01 -9.376895e-01 4.734263e-01 -4.808856e-01 2.080647e-01 -1.946591e+00 -5.886564e+00 7.724247e-01 -7.939795e-01 -4.798393e-01 1.003388e-02 2.541135e-01 6.561191e-02 -8.703867e-02 7.090770e-03 1.213523e-01 -1.742412e-01 -4.218904e-01 -9.078083e-03 6.023638e-02 -2.077940e-01 -5.306246e-02 1.488262e-01 -1.150644e-01 -1.069484e-01 6.224963e-02 1.059649e-01 1.390538e-01 9.670106e-02 2.047606e-02 9.835085e-02 9.542906e-02 2.876529e-01
<VARIANCE> 39
 4.237467e+01 5.101569e+01 3.551841e+01 3.539338e+01 4.508507e+01 4.564643e+01 4.968813e+01 4.478963e+01 3.708130e+01 3.896177e+01 3.860469e+01 5.387025e+01 5.975978e+01 2.470066e+00 3.550369e+00 2.044153e+00 2.592773e+00 3.128581e+00 2.997918e+00 3.167674e+00 3.241273e+00 2.868629e+00 3.384044e+00 2.998301e+00 2.470343e+00 3.625602e+00 3.807963e-01 4.791405e-01 3.532669e-01 4.600497e-01 4.945007e-01 5.471113e-01 5.244007e-01 6.000675e-01 4.910894e-01 5.734280e-01 4.791848e-01 4.479973e-01 5.225047e-01
<GCONST> 1.253687e+02
<MIXTURE> 6 1.100779e-01
<MEAN> 39
 -7.482442e-01 3.986597e+00 1.058470e+01 1.020755e+00 -8.525816e+00 -5.957487e+00 -2.154370e+00 -4.107331e+00 -4.029168e+00 -2.025068e+00 1.162184e+00 -9.708668e-02 5.429532e+00 1.104577e+00 -1.002591e+00 -4.117505e-01 -1.783247e-01 -6.508381e-01 -1.801198e-01 1.752065e-01 3.256309e-01 2.811078e-01 2.691293e-01 -7.890714e-02 6.520738e-02 1.274249e-01 -4.113121e-01 1.763767e-01 -2.173472e-01 -3.984628e-02 4.622039e-01 2.326062e-01 1.034124e-01 2.263844e-01 2.162934e-01 -2.221837e-03 -5.565451e-02 -2.451507e-02 -7.026395e-02
<VARIANCE> 39
 1.329590e+01 2.165252e+01 3.721324e+01 4.328069e+01 4.232033e+01 4.233693e+01 3.559615e+01 3.949648e+01 3.794240e+01 4.420375e+01 5.398771e+01 4.912531e+01 1.543541e+01 9.588782e-01 9.884434e-01 1.632798e+00 1.466494e+00 2.213237e+00 1.878536e+00 2.025034e+00 2.538468e+00 2.253300e+00 2.275147e+00 2.304686e+00 2.040678e+00 2.376231e-01 1.914126e-01 1.784286e-01 2.036011e-01 2.235702e-01 3.000651e-01 3.271446e-01 3.050667e-01 3.374970e-01 3.447905e-01 3.646879e-01 4.015542e-01 3.361275e-01 3.966963e-02
<GCONST> 1.047710e+02
<MIXTURE> 7 1.477765e-01
<MEAN> 39
 1.106997e+00 3.740916e-02 4.757006e+00 -3.602152e+00 -6.349486e+00 -4.331324e+00 -1.711856e-02 2.436850e+00 -6.965252e-01 -1.447769e+00 -8.495842e-01 1.526232e+00 5.863965e+00 1.696926e-01 -2.271334e-01 -5.863399e-01 -1.641124e-02 4.442422e-01 -3.558895e-02 2.313142e-02 4.319628e-01 2.314290e-01 -2.964950e-01 -3.486662e-01 1.204936e-01 -2.662797e-02 -5.453500e-02 1.089820e-01 2.540264e-02 7.596236e-02 7.628152e-02 -2.950411e-02 -1.153679e-01 -8.726338e-02 2.534857e-02 -1.668865e-02 4.953296e-02 1.982773e-02 -3.820524e-02
<VARIANCE> 39
 1.423400e+01 2.577858e+01 3.442240e+01 3.651994e+01 5.191592e+01 6.031973e+01 5.425842e+01 5.528832e+01 4.692598e+01 4.883025e+01 5.261533e+01 6.252097e+01 1.886254e+01 1.903752e-01 3.868983e-01 6.445449e-01 6.844291e-01 9.705625e-01 1.182921e+00 1.279681e+00 1.433635e+00 1.348357e+00 1.447163e+00 1.413250e+00 1.176810e+00 9.729083e-02 3.639112e-02 6.560488e-02 9.570247e-02 1.270471e-01 1.673781e-01 2.130424e-01 2.103579e-01 2.501217e-01 2.191980e-01 2.332123e-01 2.019799e-01 2.006382e-01 1.359353e-02
<GCONST> 8.850916e+01
<MIXTURE> 8 1.426067e-01
<MEAN> 39
 3.763600e-01 -4.642013e+00 4.523377e+00 -5.971624e+00 -3.907065e+00 -5.572388e+00 3.433069e+00 5.801221e+00 -1.091396e+00 6.631628e-01 3.478089e+00 7.362608e+00 9.033703e+00 2.903115e-01 -8.229862e-01 -1.147248e+00 2.044817e-01 1.684905e+00 5.823410e-01 4.070410e-01 7.165874e-01 -1.096867e-03 -1.101983e+00 -1.083524e+00 5.676817e-01 3.078817e-02 -1.898925e-01 5.479553e-01 -1.282969e-01 2.568172e-01 -7.001092e-02 9.992384e-03 -4.350926e-01 -4.203295e-01 1.395311e-01 -1.945674e-02 6.313749e-02 -3.496844e-01 -1.616757e-01
<VARIANCE> 39
 1.733268e+01 2.190968e+01 3.387661e+01 3.027384e+01 3.950907e+01 4.536496e+01 4.830344e+01 4.368534e+01 5.316404e+01 9.225062e+01 9.309246e+01 1.066211e+02 1.494131e+01 3.705477e-01 1.156241e+00 1.522146e+00 1.571863e+00 2.290613e+00 2.395032e+00 2.748057e+00 2.941709e+00 3.070215e+00 3.170567e+00 2.939663e+00 2.849611e+00 2.594635e-01 1.083055e-01 1.995941e-01 2.558697e-01 3.119734e-01 3.800988e-01 3.973065e-01 4.102288e-01 4.481958e-01 4.370274e-01 5.942972e-01 5.297896e-01 4.687792e-01 4.630174e-02
<GCONST> 1.112095e+02
<TRANSP> 6
 0.000000e+00 1.000000e+00 0.000000e+00 0.000000e+00 0.000000e+00 0.000000e+00
 0.000000e+00 7.392589e-01 2.607411e-01 0.000000e+00 0.000000e+00 0.000000e+00
 0.000000e+00 0.000000e+00 6.394647e-01 3.605354e-01 0.000000e+00 0.000000e+00
 0.000000e+00 0.000000e+00 0.000000e+00 6.644947e-01 3.355053e-01 0.000000e+00
 0.000000e+00 0.000000e+00 0.000000e+00 0.000000e+00 7.142681e-01 2.857318e-01
 0.000000e+00 0.000000e+00 0.000000e+00 0.000000e+00 0.000000e+00 0.000000e+00
<ENDHMM>
