~o
<STREAMINFO> 1 39
<VECSIZE> 39<NULLD><MFCC_D_A_Z_0><DIAGC>
~h "ow"
<BEGINHMM>
<NUMSTATES> 6
<STATE> 2
<NUMMIXES> 8
<MIXTURE> 1 1.190878e-01
<MEAN> 39
 4.566519e-01 -7.566811e+00 -8.581729e+00 -4.830132e+00 8.692404e+00 9.364364e-01 -6.504844e+00 4.586940e+00 4.327128e+00 4.652339e+00 9.911464e+00 1.260419e+01 7.039731e+00 3.459754e-02 6.512447e-02 -6.966600e-02 -5.958812e-02 6.910799e-02 4.079341e-02 -8.953267e-02 -5.119245e-02 -6.703489e-04 8.666514e-02 5.851049e-02 -5.769652e-02 -6.336691e-02 1.748772e-01 2.583024e-01 2.987706e-01 2.670957e-01 2.212414e-01 2.114480e-01 1.869789e-01 8.898492e-02 3.744511e-02 -2.744552e-02 -8.897991e-02 -1.187229e-01 6.711707e-02
<VARIANCE> 39
 1.108588e+01 1.987150e+01 2.439424e+01 3.674010e+01 4.582956e+01 4.758472e+01 4.994024e+01 5.157724e+01 7.173895e+01 9.541116e+01 8.749737e+01 5.935334e+01 1.743080e+01 2.071080e-01 4.511721e-01 6.483402e-01 7.751694e-01 9.080294e-01 8.918276e-01 9.888846e-01 1.055138e+00 1.006313e+00 1.065761e+00 1.148949e+00 1.008397e+00 7.436665e-02 2.506510e-02 5.547415e-02 8.186907e-02 1.086965e-01 1.275757e-01 1.386530e-01 1.731221e-01 1.917415e-01 1.931155e-01 1.975398e-01 1.894005e-01 1.733885e-01 8.852226e-03
<GCONST> 8.389822e+01
<MIXTURE> 2 1.723036e-01
<MEAN> 39
 1.518667e+00 -4.592481e+00 -5.817057e+00 -2.587303e+00 9.312364e+00 3.163245e+00 -4.631929e+00 3.724910e+00 5.158708e+00 6.240705e+00 1.141833e+01 1.073717e+01 6.941780e+00 5.171327e-02 6.387414e-02 -1.182428e-01 -1.016410e-01 8.230978e-02 6.726522e-02 -9.641435e-02 -7.197002e-02 -5.133730e-03 9.066976e-02 6.907060e-02 -6.609808e-02 -9.550415e-02 -3.860703e-02 -6.128424e-02 -7.590501e-02 -1.045282e-01 -1.492471e-01 -1.082618e-01 -6.814854e-03 1.669698e-02 1.349140e-02 -3.187748e-02 -1.147184e-01 -6.750308e-02 -3.195271e-02
<VARIANCE> 39
 1.569619e+01 2.292135e+01 3.086720e+01 4.152677e+01 6.125464e+01 6.469721e+01 6.278212e+01 6.254356e+01 7.901262e+01 8.919479e+01 7.928182e+01 7.864315e+01 2.664614e+01 3.743161e-01 7.516013e-01 1.039591e+00 1.340424e+00 1.680799e+00 1.817359e+00 1.936752e+00 2.078057e+00 2.177675e+00 2.402224e+00 2.439381e+00 2.320883e+00 1.917601e-01 5.409966e-02 1.041827e-01 1.539151e-01 2.032785e-01 2.489792e-01 2.891970e-01 3.165517e-01 3.433582e-01 3.584614e-01 3.948545e-01 3.747156e-01 3.599793e-01 2.372177e-02
<GCONST> 1.042764e+02
<MIXTURE> 3 1.155983e-01
<MEAN> 39
 4.471333e+00 -3.152485e+00 -4.899599e+00 -2.610462e+00 2.383060e+00 -1.060530e+00 -4.880087e+00 4.791735e+00 5.021271e+00 -2.804300e+00 -6.561935e+00 -1.986821e+00 6.613741e+00 2.276908e-01 7.605889e-02 -6.383383e-01 -3.783072e-01 7.976751e-01 6.073632e-01 -5.287951e-01 -6.471375e-01 2.667614e-01 5.152269e-01 -3.015908e-02 -6.690618e-01 -1.490947e-01 8.641548e-05 7.749040e-02 1.159472e-01 -3.911697e-02 -1.098863e-01 -1.279882e-04 6.009121e-02 -1.170225e-01 -1.519546e-01 9.065088e-02 2.277476e-01 4.388601e-02 -5.079739e-02
<VARIANCE> 39
 9.811134e+00 1.853522e+01 2.365185e+01 2.220905e+01 4.444367e+01 3.346331e+01 4.611938e+01 4.495904e+01 4.667104e+01 5.632057e+01 4.130288e+01 4.374993e+01 1.524508e+01 1.397050e-01 3.786918e-01 5.620175e-01 7.117923e-01 1.099169e+00 1.197722e+00 1.378873e+00 1.509345e+00 1.599031e+00 1.549766e+00 1.542830e+00 1.353501e+00 9.743368e-02 2.120436e-02 5.347311e-02 8.822694e-02 1.113823e-01 1.746871e-01 1.811842e-01 2.241765e-01 2.467875e-01 2.610873e-01 2.470046e-01 2.307284e-01 2.199686e-01 1.263468e-02
<GCONST> 8.480592e+01
<MIXTURE> 4 7.805669e-02
<MEAN> 39
 2.636979e+00 -5.241263e+00 -3.774180e+00 -3.364957e+00 1.909287e+00 -1.237934e+00 -2.322585e+00 7.545727e+00 4.450756e+00 -3.503031e+00 -4.963225e+00 1.563024e+00 8.782966e+00 2.176502e-01 -2.952801e-01 -9.884853e-01 -2.347161e-01 1.582321e+00 9.687761e-01 -5.036074e-01 -3.729706e-01 6.205171e-01 2.340965e-01 -4.830118e-01 -7.700582e-01 7.116728e-02 5.408482e-02 3.154787e-01 1.374639e-01 2.433750e-02 -8.116626e-02 -1.670982e-02 -1.571650e-01 -5.920368e-01 -1.918093e-01 3.294891e-01 3.858190e-01 -1.098151e-01 -2.561702e-01
<VARIANCE> 39
 1.359898e+01 2.078243e+01 2.722276e+01 2.972610e+01 5.712770e+01 4.918757e+01 6.972746e+01 4.831181e+01 5.965521e+01 5.557486e+01 5.703395e+01 7.835205e+01 1.947774e+01 4.031808e-01 8.930995e-01 1.477366e+00 1.570152e+00 2.494416e+00 2.646352e+00 3.119068e+00 3.217350e+00 3.164026e+00 3.174632e+00 2.932772e+00 2.960716e+00 3.083115e-01 8.510334e-02 1.605051e-01 2.284600e-01 2.799460e-01 4.184262e-01 4.561534e-01 5.847464e-01 5.361460e-01 5.925593e-01 4.913146e-01 4.946446e-01 4.817237e-01 6.329519e-02
<GCONST> 1.115789e+02
<MIXTURE> 5 1.233814e-01
<MEAN> 39
 1.699239e+00 -7.683112e+00 -5.462306e+00 -4.552339e+00 7.846897e+00 4.319643e+00 -4.791528e-01 6.181727e+00 5.464574e+00 -1.257304e+00 -2.866702e+00 -2.345092e-02 1.101919e+01 3.665521e-02 3.634483e-02 -7.892310e-02 -5.063197e-02 1.881623e-01 1.545726e-01 -1.122674e-01 -4.909104e-02 1.095299e-02 4.549984e-02 1.176353e-01 -2.305615e-02 -4.842828e-02 1.829949e-02 6.706126e-02 -2.676279e-02 -3.076425e-02 -1.215698e-01 -1.019281e-01 -1.027071e-01 -8.007322e-02 -5.604403e-02 3.674304e-02 9.574616e-02 7.756791e-02 -7.676844e-02
<VARIANCE> 39
 1.591934e+01 2.143789e+01 2.493126e+01 3.138850e+01 6.529603e+01 5.580066e+01 6.995044e+01 5.296639e+01 5.876829e+01 5.216586e+01 4.581664e+01 7.047586e+01 2.631479e+01 3.231534e-01 5.810232e-01 7.779702e-01 9.879164e-01 1.382943e+00 1.485421e+00 1.865933e+00 1.759567e+00 1.742236e+00 1.523796e+00 1.603318e+00 1.624270e+00 1.829641e-01 5.581041e-02 9.712903e-02 1.338232e-01 1.731504e-01 2.377724e-01 2.590204e-01 3.247506e-01 3.181556e-01 3.203868e-01 2.652499e-01 2.635653e-01 2.688525e-01 3.279528e-02
<GCONST> 9.760732e+01
<MIXTURE> 6 2.224772e-01
<MEAN> 39
 1.790880e+00 -5.614175e+00 -5.811046e+00 -2.127511e+00 1.029148e+01 2.845360e+00 -3.761851e+00 5.969667e+00 4.389221e+00 3.327026e+00 7.795467e+00 1.116437e+01 8.144013e+00 3.100862e-02 3.859163e-02 -3.923271e-02 -2.956548e-02 4.794253e-02 2.429270e-02 -5.223911e-02 -7.205285e-03 3.030689e-02 3.449421e-02 -5.011221e-03 -3.183022e-02 -3.698522e-02 -5.060933e-02 -5.986165e-02 -7.958960e-02 -9.138807e-02 -9.130172e-02 -6.352901e-02 -4.897636e-02 -4.412023e-02 -4.843405e-03 1.353968e-02 1.726281e-02 1.417105e-02 -2.392799e-02
<VARIANCE> 39
 1.085324e+01 1.813441e+01 2.258825e+01 3.153070e+01 4.489679e+01 4.789571e+01 5.219016e+01 4.739207e+01 6.960062e+01 9.657608e+01 9.468519e+01 6.885603e+01 1.934672e+01 1.262364e-01 2.778483e-01 3.904216e-01 4.695506e-01 5.695314e-01 5.693923e-01 6.545193e-01 6.925052e-01 6.780441e-01 7.124732e-01 6.998838e-01 6.736857e-01 4.201663e-02 1.778921e-02 3.951111e-02 5.672678e-02 7.282579e-02 8.828530e-02 9.486779e-02 1.119456e-01 1.248553e-01 1.222503e-01 1.271032e-01 1.241786e-01 1.192186e-01 5.572485e-03
<GCONST> 7.259003e+01
<MIXTURE> 7 9.267821e-02
<MEAN> 39
 3.919855e+00 -2.990825e+00 -6.546242e+00 -7.325421e+00 4.257832e+00 3.457869e+00 -1.469145e+00 -3.910458e-02 5.306719e+00 2.540680e+00 1.345513e+00 -6.053201e-01 5.958043e+00 4.590544e-01 -3.990047e-01 -4.629898e-01 -1.069445e+00 2.693300e-01 5.706505e-01 -2.034554e-01 -5.298749e-02 1.014211e-01 1.044368e-01 2.454614e-01 1.104720e-03 1.212396e+00 -2.531593e-01 2.096879e-01 2.416551e-01 4.142486e-01 1.117812e-02 -9.604849e-03 7.620272e-02 3.171131e-02 -2.256027e-01 -1.173071e-01 -1.215939e-02 7.127708e-02 -4.063131e-01
<VARIANCE> 39
 2.705493e+01 3.953125e+01 4.448036e+01 5.691415e+01 7.627806e+01 7.615948e+01 7.221960e+01 7.529429e+01 7.284139e+01 7.991304e+01 8.512268e+01 8.523176e+01 5.454996e+01 1.808761e+00 2.113547e+00 2.830152e+00 4.272574e+00 3.936966e+00 4.235423e+00 4.657986e+00 4.630361e+00 4.721763e+00 4.862099e+00 4.997603e+00 4.990082e+00 4.136425e+00 3.297112e-01 3.826213e-01 4.763806e-01 6.367335e-01 6.792778e-01 7.020653e-01 8.142878e-01 8.105041e-01 8.393793e-01 8.368461e-01 7.938371e-01 7.892463e-01 4.372270e-01
<GCONST> 1.367362e+02
<MIXTURE> 8 7.641688e-02
<MEAN> 39
 4.883382e+00 -2.520428e+00 -6.330287e+00 -5.021346e+00 2.110575e+00 3.307266e+00 -6.776903e+00 -1.237658e+00 7.632947e+00 5.321169e+00 -1.593566e+00 -6.190152e+00 7.945655e+00 3.443327e-01 2.628479e-01 -7.441404e-01 -1.069724e+00 7.035459e-01 1.591548e+00 2.061561e-01 -1.042418e+00 -5.725743e-01 3.986143e-01 1.106793e+00 -1.491173e-01 -2.250456e-01 -2.980380e-02 1.750602e-01 2.840845e-01 9.772514e-02 -2.022565e-01 -2.303391e-01 2.186984e-01 7.875437e-02 -4.425027e-01 -3.916249e-01 1.201185e-01 4.896241e-01 -1.602103e-01
<VARIANCE> 39
 1.144291e+01 2.015154e+01 2.051260e+01 2.812421e+01 3.961844e+01 4.576518e+01 4.681379e+01 4.844928e+01 4.693248e+01 5.552562e+01 5.773616e+01 3.779073e+01 2.196086e+01 2.884352e-01 7.301649e-01 9.627286e-01 1.306286e+00 1.718324e+00 2.128108e+00 2.432613e+00 2.639487e+00 2.663303e+00 2.851964e+00 2.450490e+00 2.488767e+00 2.651470e-01 5.409874e-02 1.120473e-01 1.557693e-01 2.049779e-01 3.277024e-01 3.382093e-01 3.980493e-01 4.460131e-01 4.349546e-01 4.227279e-01 4.376514e-01 3.460998e-01 4.800382e-02
<GCONST> 1.025879e+02
<STATE> 3
<NUMMIXES> 8
<MIXTURE> 1 1.776556e-02
<MEAN> 39
 2.648165e+00 -1.689618e+00 -5.406926e+00 -3.690830e+00 6.445303e+00 1.063956e+00 -1.828142e-01 9.817157e+00 1.688398e+01 1.640360e+01 6.229193e+00 -1.208808e+01 3.338151e+00 -1.526858e-03 1.463280e-02 -6.001919e-03 1.533399e-02 -6.035542e-02 -1.396059e-02 4.079219e-02 4.325787e-02 1.275458e-02 2.918070e-02 -6.356506e-02 -3.682552e-02 -2.301361e-02 7.555529e-04 -1.027951e-02 -1.837101e-02 -3.989476e-02 -1.638551e-02 3.183950e-02 -2.955417e-03 -4.547757e-02 -7.577725e-02 -8.839695e-02 -1.131250e-02 9.825972e-02 9.702762e-05
<VARIANCE> 39
 7.491011e+00 1.534916e+01 1.951025e+01 1.836242e+01 3.667495e+01 2.729552e+01 4.122783e+01 3.530244e+01 3.191490e+01 3.747055e+01 4.527917e+01 6.239632e+01 1.413219e+01 1.541101e-01 3.377763e-01 5.523154e-01 6.349646e-01 6.887640e-01 7.952404e-01 9.686780e-01 8.226073e-01 1.018230e+00 1.040150e+00 1.037402e+00 1.351059e+00 5.463056e-02 2.760865e-02 6.263299e-02 9.997497e-02 1.114817e-01 1.229942e-01 1.433048e-01 1.785639e-01 1.506952e-01 1.982841e-01 1.923220e-01 1.847686e-01 1.963530e-01 8.001908e-03
<GCONST> 7.691037e+01
<MIXTURE> 2 1.689762e-01
<MEAN> 39
 4.686327e+00 -2.537522e+00 -7.617835e+00 -7.588665e+00 4.405975e+00 5.663282e+00 -4.097632e+00 1.006968e+00 5.334389e+00 2.387768e+00 -2.403989e-01 -3.095635e+00 8.151440e+00 1.170617e-02 2.683057e-02 -2.016519e-02 -5.016901e-02 -2.182493e-03 3.546452e-02 -1.844521e-02 -5.831610e-02 -4.308087e-02 1.743707e-02 4.224849e-02 1.090973e-02 -2.569429e-02 -1.748370e-03 2.711526e-04 -4.694616e-03 -7.043970e-03 -8.482302e-03 -1.631522e-02 -1.434271e-02 -7.546597e-03 -6.912884e-03 -5.554305e-03 -4.581586e-03 -3.507781e-03 -4.714161e-03
<VARIANCE> 39
 1.013272e+01 1.487468e+01 1.794611e+01 2.773339e+01 4.148103e+01 4.432458e+01 4.911887e+01 4.446644e+01 4.878622e+01 5.918803e+01 6.310381e+01 5.271232e+01 1.971476e+01 4.137368e-02 1.007842e-01 1.461180e-01 2.190985e-01 2.761738e-01 3.372149e-01 3.583319e-01 3.998599e-01 4.097806e-01 4.040355e-01 3.882885e-01 3.659689e-01 1.870011e-02 7.829290e-03 1.842514e-02 2.779671e-02 4.104337e-02 5.250902e-02 6.370324e-02 6.894195e-02 7.520729e-02 7.817635e-02 7.638820e-02 7.367676e-02 6.883636e-02 2.856860e-03
<GCONST> 5.335558e+01
<MIXTURE> 3 9.992855e-02
<MEAN> 39
 4.100692e+00 -4.032219e+00 -1.017102e+01 -1.029669e+01 4.455992e+00 2.915726e+00 -7.878477e+00 -9.407970e-01 1.538999e+00 -1.554887e+00 -3.107093e+00 -4.799564e+00 6.768248e+00 -1.218569e-03 3.025815e-02 -9.888445e-02 -1.498958e-01 -7.492298e-02 -1.748633e-02 -1.121755e-01 -1.718111e-01 -1.397721e-01 -7.513575e-03 3.697135e-02 -6.492079e-02 -7.631048e-02 1.474181e-01 2.265819e-01 2.958554e-01 3.237160e-01 3.019547e-01 3.183618e-01 3.555324e-01 3.337527e-01 2.997454e-01 2.696661e-01 2.295472e-01 1.854802e-01 5.288481e-02
<VARIANCE> 39
 1.040409e+01 1.661778e+01 2.055713e+01 3.147626e+01 4.577068e+01 4.962555e+01 4.708071e+01 4.717716e+01 5.059921e+01 5.110679e+01 5.984328e+01 5.817551e+01 1.679856e+01 1.060045e-01 2.576102e-01 3.793045e-01 5.492899e-01 6.726952e-01 7.891501e-01 8.452836e-01 9.096181e-01 8.909634e-01 8.628952e-01 8.364439e-01 7.774465e-01 5.384915e-02 1.602746e-02 3.900060e-02 5.794998e-02 8.221896e-02 1.065014e-01 1.207159e-01 1.352651e-01 1.441400e-01 1.519626e-01 1.538113e-01 1.535461e-01 1.483556e-01 6.960453e-03
<GCONST> 7.436941e+01
<MIXTURE> 4 1.169229e-01
<MEAN> 39
 5.207642e+00 -2.285811e+00 -8.193865e+00 -7.512079e+00 7.241814e+00 4.942612e+00 -5.281910e+00 2.224497e+00 3.939712e+00 3.803652e-01 -1.990228e+00 -3.280398e+00 6.692177e+00 -2.404672e-01 -2.972055e-01 -5.283542e-01 -5.982258e-01 -5.614131e-01 -5.260084e-01 -6.251656e-01 -6.623649e-01 -5.700275e-01 -3.773224e-01 -2.953395e-01 -3.308395e-01 -1.592930e-01 -3.067713e-02 -3.619323e-02 -3.724337e-02 -6.209362e-02 -9.380948e-02 -6.992541e-02 -6.113679e-02 -9.068629e-02 -5.724980e-02 -4.056887e-02 -2.951994e-02 -3.356075e-02 -1.542461e-02
<VARIANCE> 39
 9.201319e+00 1.515216e+01 1.946153e+01 2.840160e+01 4.278477e+01 4.513724e+01 4.333654e+01 4.221592e+01 4.896839e+01 4.788788e+01 5.601255e+01 5.227139e+01 1.426636e+01 8.158559e-02 2.156498e-01 2.919394e-01 4.372449e-01 5.661476e-01 6.419901e-01 6.932252e-01 7.644708e-01 8.019218e-01 8.028300e-01 7.778693e-01 7.320708e-01 4.438480e-02 1.551724e-02 3.736450e-02 5.706728e-02 8.091232e-02 1.033304e-01 1.205838e-01 1.314522e-01 1.399206e-01 1.468518e-01 1.390426e-01 1.331737e-01 1.245096e-01 6.385926e-03
<GCONST> 7.028699e+01
<MIXTURE> 5 1.912932e-01
<MEAN> 39
 5.631393e+00 -2.042446e+00 -7.642982e+00 -1.002701e+01 2.839543e+00 9.054314e+00 -4.148553e+00 -2.714869e+00 4.976153e+00 3.815834e+00 3.175142e+00 -3.697892e+00 8.368568e+00 1.248311e-01 2.527213e-01 -1.667254e-02 -2.343214e-01 -6.251855e-02 2.536210e-01 1.462370e-01 -1.706419e-01 -3.123766e-01 -1.029357e-01 3.332209e-01 2.990106e-01 -1.755004e-01 -1.117988e-03 9.526473e-03 2.311340e-02 3.756265e-02 -1.973968e-02 -1.418999e-01 -1.463808e-02 8.085681e-02 -4.367531e-02 -6.190578e-02 -8.052588e-02 5.574280e-02 -2.394883e-02
<VARIANCE> 39
 1.144789e+01 1.523334e+01 2.062668e+01 3.262742e+01 4.575373e+01 4.984056e+01 5.614073e+01 4.587554e+01 5.097211e+01 6.125110e+01 5.782996e+01 4.962499e+01 1.915905e+01 1.466040e-01 3.555054e-01 4.499019e-01 7.295558e-01 8.847602e-01 1.175802e+00 1.239509e+00 1.362092e+00 1.411856e+00 1.471428e+00 1.400837e+00 1.285847e+00 1.037164e-01 2.161436e-02 5.000262e-02 7.303894e-02 1.097083e-01 1.453531e-01 1.815052e-01 2.034788e-01 2.178418e-01 2.237720e-01 2.362191e-01 2.181819e-01 1.991652e-01 1.279960e-02
<GCONST> 8.460315e+01
<MIXTURE> 6 1.259551e-01
<MEAN> 39
 4.924334e+00 -2.531077e+00 -8.769411e+00 -7.276182e+00 6.868094e+00 3.404765e+00 -6.116811e+00 1.703941e+00 3.549702e+00 -4.150057e-01 -3.099149e+00 -3.597733e+00 5.942930e+00 2.497532e-01 3.627856e-01 3.162930e-01 3.108525e-01 4.452953e-01 5.049460e-01 4.174165e-01 3.121468e-01 3.250923e-01 4.557978e-01 3.922207e-01 1.512560e-01 2.744067e-03 2.416177e-02 3.948398e-02 6.922708e-02 3.708213e-02 1.182497e-02 5.752984e-02 7.251777e-02 1.846748e-02 4.427705e-02 5.351024e-02 5.384800e-02 2.525258e-02 3.255447e-03
<VARIANCE> 39
 7.980732e+00 1.348235e+01 1.848318e+01 2.520298e+01 3.897188e+01 3.955592e+01 4.013398e+01 3.987596e+01 4.629809e+01 4.421859e+01 4.809548e+01 5.162169e+01 1.103961e+01 8.998472e-02 2.359146e-01 3.641579e-01 5.201041e-01 6.281065e-01 7.238329e-01 7.889511e-01 9.036154e-01 8.897107e-01 8.549920e-01 8.542627e-01 8.074275e-01 5.041894e-02 1.228045e-02 3.172873e-02 4.773894e-02 7.108238e-02 9.550865e-02 1.064900e-01 1.197920e-01 1.317500e-01 1.400365e-01 1.328758e-01 1.269380e-01 1.241681e-01 5.561859e-03
<GCONST> 6.918612e+01
<MIXTURE> 7 1.015166e-01
<MEAN> 39
 5.752576e+00 -1.711785e+00 -7.341371e+00 -7.029011e+00 8.150044e+00 6.179238e+00 -4.418920e+00 3.091532e+00 4.745811e+00 1.211349e+00 -1.203113e+00 -3.108351e+00 7.027713e+00 1.410931e-01 2.211254e-01 1.478247e-01 1.288970e-01 2.178930e-01 2.725046e-01 1.957743e-01 1.351502e-01 1.389743e-01 2.414710e-01 2.239081e-01 7.395175e-02 -2.290670e-02 -1.319333e-01 -1.710168e-01 -2.205819e-01 -2.543838e-01 -3.000312e-01 -2.797432e-01 -2.669145e-01 -2.956557e-01 -2.410281e-01 -2.028790e-01 -1.653222e-01 -1.300022e-01 -5.351515e-02
<VARIANCE> 39
 9.574644e+00 1.537648e+01 1.897569e+01 2.943157e+01 4.368057e+01 4.529316e+01 4.266438e+01 4.208837e+01 5.023020e+01 4.933718e+01 5.766231e+01 5.134841e+01 1.505777e+01 9.280306e-02 2.314297e-01 3.294506e-01 4.746004e-01 6.152717e-01 6.900228e-01 7.393111e-01 8.103529e-01 8.211261e-01 8.117324e-01 7.796051e-01 6.966648e-01 4.895793e-02 1.470266e-02 3.767815e-02 5.403399e-02 7.977134e-02 9.682569e-02 1.148768e-01 1.282943e-01 1.347463e-01 1.476904e-01 1.484817e-01 1.440723e-01 1.354136e-01 6.731482e-03
<GCONST> 7.124030e+01
<MIXTURE> 8 1.776420e-01
<MEAN> 39
 5.334131e+00 -2.248403e+00 -7.734299e+00 -9.654515e+00 6.733666e+00 5.596619e+00 -4.207957e+00 -2.874371e-01 3.583021e+00 2.077675e+00 5.589383e-01 -3.239385e+00 6.156355e+00 1.133670e-01 3.069862e-01 -5.242188e-02 -2.029165e-01 -2.060126e-01 7.330468e-02 -2.851716e-03 -2.256415e-01 -3.868817e-01 -4.390207e-02 2.615088e-01 1.659599e-01 -2.173083e-01 -2.527341e-02 6.151201e-02 7.245482e-02 1.361685e-01 -1.155381e-01 -9.544055e-02 1.013653e-02 4.587792e-03 -4.809217e-02 -5.074901e-02 -4.325541e-02 4.917937e-02 -6.603090e-02
<VARIANCE> 39
 1.801091e+01 2.300302e+01 3.236977e+01 4.831622e+01 6.269407e+01 6.735797e+01 6.376923e+01 6.132759e+01 6.755890e+01 6.925816e+01 7.107854e+01 6.425916e+01 2.712875e+01 4.526142e-01 8.756801e-01 1.082204e+00 1.543061e+00 1.880665e+00 2.140101e+00 2.460813e+00 2.588393e+00 2.694736e+00 2.543721e+00 2.399240e+00 2.319225e+00 4.389678e-01 7.598080e-02 1.340074e-01 2.022685e-01 2.683962e-01 3.340172e-01 3.940189e-01 4.305822e-01 4.601306e-01 4.459627e-01 4.389466e-01 4.100893e-01 3.777974e-01 6.031140e-02
<GCONST> 1.100547e+02
<STATE> 4
<NUMMIXES> 8
<MIXTURE> 1 5.628240e-02
<MEAN> 39
 4.971231e+00 2.035928e+00 -8.266203e+00 -6.160697e+00 4.161700e+00 2.302608e+00 -5.701385e+00 -3.072027e+00 4.237776e+00 1.082008e+01 1.346106e+01 1.144991e+01 8.120895e-01 1.126639e-02 6.337170e-02 2.944156e-02 2.123591e-02 -1.140521e-01 -6.471853e-02 -3.234728e-02 -6.436191e-02 1.067519e-02 6.642201e-02 4.634624e-02 8.224003e-03 -8.684574e-02 -3.625743e-03 1.578086e-03 2.509015e-02 -1.174441e-02 -4.460537e-02 9.952207e-03 3.364733e-02 2.157246e-02 -1.739372e-02 -9.045348e-02 -1.005013e-01 -9.388452e-02 -1.523413e-03
<VARIANCE> 39
 9.642006e+00 1.324652e+01 2.399654e+01 2.605161e+01 3.548045e+01 4.040422e+01 3.624472e+01 4.255752e+01 6.231663e+01 5.397401e+01 5.362720e+01 4.518297e+01 1.101466e+01 1.336953e-01 3.507452e-01 5.132785e-01 7.048882e-01 8.406399e-01 9.166009e-01 9.937373e-01 1.144588e+00 1.143906e+00 1.223053e+00 1.257576e+00 1.153317e+00 7.581316e-02 2.403701e-02 6.143400e-02 9.764361e-02 1.317925e-01 1.498044e-01 1.680037e-01 1.833619e-01 2.149619e-01 2.092275e-01 2.196808e-01 2.292518e-01 2.080880e-01 1.015214e-02
<GCONST> 8.130714e+01
<MIXTURE> 2 1.178346e-01
<MEAN> 39
 7.259330e+00 6.070928e+00 -3.841876e+00 -6.732388e+00 -2.322937e+00 4.206151e+00 7.881490e-01 -3.428745e+00 -3.551996e+00 1.628189e-01 3.183537e+00 2.533691e+00 4.894480e-01 2.401259e-03 4.385836e-02 6.735224e-02 5.324689e-02 -3.272129e-02 -6.248581e-02 1.349689e-02 7.288687e-03 -4.657048e-02 -5.319094e-02 -4.151910e-02 1.586997e-02 -7.303487e-02 -1.318967e-02 -3.224685e-02 -2.319756e-02 -3.903704e-02 3.418552e-02 3.390631e-02 -9.906700e-02 -6.136187e-02 4.095835e-02 1.094877e-03 -8.092125e-03 -5.726688e-02 7.998242e-03
<VARIANCE> 39
 8.090719e+00 1.423858e+01 1.501523e+01 2.197228e+01 2.035786e+01 2.618457e+01 2.446551e+01 3.179372e+01 2.893171e+01 3.454918e+01 3.205309e+01 3.296840e+01 7.536142e+00 6.330079e-02 1.925766e-01 3.138316e-01 4.498926e-01 5.734002e-01 6.942542e-01 7.913107e-01 8.459108e-01 9.246596e-01 9.178044e-01 8.746465e-01 8.135909e-01 4.461829e-02 1.092132e-02 3.365737e-02 5.488001e-02 8.084572e-02 1.008175e-01 1.259984e-01 1.418470e-01 1.565978e-01 1.681589e-01 1.677433e-01 1.619454e-01 1.470874e-01 6.209330e-03
<GCONST> 6.586020e+01
<MIXTURE> 3 7.726479e-02
<MEAN> 39
 7.016402e+00 3.639942e+00 -8.715237e+00 -1.009475e+01 5.602005e-01 2.791313e+00 -6.316086e+00 -5.631824e+00 -3.363167e+00 -1.779214e+00 -2.366230e+00 -6.048340e+00 1.533992e+00 1.964645e-02 8.306032e-02 6.334678e-02 2.128685e-02 -6.384839e-02 -4.851586e-02 3.253192e-02 -5.542340e-02 -8.336543e-02 1.185404e-02 2.837012e-02 2.669603e-02 -8.390338e-02 8.994481e-02 1.275668e-01 1.982377e-01 2.125563e-01 2.225529e-01 2.405856e-01 2.678319e-01 2.546684e-01 2.470274e-01 2.301845e-01 2.285585e-01 2.415594e-01 3.156330e-02
<VARIANCE> 39
 7.992942e+00 1.171911e+01 1.905729e+01 2.855038e+01 3.488022e+01 3.683898e+01 4.238679e+01 4.066122e+01 4.844693e+01 4.662490e+01 5.462986e+01 5.133306e+01 1.001801e+01 8.959744e-02 2.500571e-01 3.840796e-01 5.571279e-01 7.244111e-01 8.593542e-01 9.547357e-01 1.044253e+00 1.079106e+00 1.056165e+00 1.021685e+00 9.266354e-01 5.591711e-02 1.241324e-02 3.559048e-02 5.848348e-02 9.007557e-02 1.162429e-01 1.364066e-01 1.493032e-01 1.701554e-01 1.824020e-01 1.788040e-01 1.693711e-01 1.523533e-01 7.186609e-03
<GCONST> 7.366382e+01
<MIXTURE> 4 8.281685e-02
<MEAN> 39
 6.013457e+00 1.119262e+00 -5.293768e+00 -1.077548e+01 5.390319e-01 6.132566e+00 -2.119658e+00 -3.166341e+00 2.383543e-01 1.056698e+00 4.970159e+00 3.157096e+00 3.736290e+00 1.494846e-01 5.070662e-01 2.889198e-01 1.990847e-01 -4.930973e-01 -4.468053e-01 -1.129794e-02 -2.343392e-01 -4.358436e-01 -3.395642e-01 -2.966146e-01 6.299322e-02 -5.503210e-01 -6.475959e-02 4.647720e-02 7.529476e-02 3.034578e-01 7.541302e-02 -1.298005e-01 -5.181224e-02 -6.917627e-04 5.119019e-02 2.124809e-03 -1.891840e-01 -2.182836e-01 -8.193090e-02
<VARIANCE> 39
 2.825125e+01 3.178563e+01 4.057251e+01 7.242290e+01 6.599767e+01 7.495058e+01 7.287038e+01 7.372243e+01 7.304852e+01 8.663268e+01 8.576585e+01 8.012344e+01 3.820213e+01 5.995500e-01 1.073067e+00 1.363331e+00 1.981438e+00 2.407971e+00 2.867206e+00 2.865480e+00 3.145200e+00 3.287895e+00 3.365918e+00 3.133387e+00 2.986447e+00 6.870109e-01 1.062880e-01 1.743278e-01 2.626013e-01 3.756529e-01 4.124167e-01 5.231383e-01 5.256926e-01 5.873262e-01 6.063021e-01 6.083024e-01 6.037236e-01 5.423562e-01 9.189798e-02
<GCONST> 1.202230e+02
<MIXTURE> 5 1.869164e-01
<MEAN> 39
 7.607084e+00 4.951608e+00 -4.565053e+00 -1.241267e+01 -4.333349e+00 9.736574e+00 3.181734e-01 -5.371626e+00 -1.102590e+00 -1.784283e+00 5.066903e+00 4.193226e+00 3.744133e+00 2.405780e-02 1.317704e-01 8.950812e-02 6.463622e-02 -9.163152e-02 -1.495321e-01 -3.122170e-03 3.791723e-02 -8.219515e-02 -1.272462e-01 -1.487567e-01 3.118420e-03 -1.395442e-01 -9.716263e-03 -4.885272e-02 -4.367838e-02 8.113360e-02 1.143019e-01 -1.024566e-01 -1.123697e-01 -1.424167e-02 1.230206e-02 1.053152e-01 -4.862494e-02 -1.239022e-01 -1.138791e-03
<VARIANCE> 39
 1.190302e+01 2.332223e+01 2.007666e+01 3.470447e+01 3.533350e+01 4.187801e+01 4.706562e+01 5.405858e+01 5.268407e+01 6.320528e+01 5.234563e+01 4.568955e+01 1.847014e+01 1.454093e-01 3.918025e-01 5.182074e-01 7.723786e-01 1.005433e+00 1.215076e+00 1.319979e+00 1.404465e+00 1.472638e+00 1.569422e+00 1.452577e+00 1.363561e+00 1.273659e-01 2.435419e-02 6.270558e-02 8.583623e-02 1.344370e-01 1.738495e-01 2.127275e-01 2.376516e-01 2.600167e-01 2.744423e-01 2.732803e-01 2.584232e-01 2.326898e-01 1.628941e-02
<GCONST> 8.774846e+01
<MIXTURE> 6 1.818063e-01
<MEAN> 39
 7.441967e+00 3.590844e+00 -5.537161e+00 -9.590055e+00 -1.587813e+00 7.916746e+00 -2.050692e+00 -5.130399e+00 6.785195e-02 1.781543e+00 5.059940e+00 2.148143e+00 4.107316e+00 1.802943e-02 5.465959e-02 2.538281e-02 -1.253493e-02 -3.532046e-02 4.520566e-03 1.932289e-02 -7.670658e-03 -7.604276e-02 -4.720083e-02 1.327122e-02 6.109791e-02 -5.043983e-02 -1.931736e-04 3.216511e-03 9.265577e-04 9.324819e-03 -1.976018e-04 -3.589498e-02 4.981908e-03 9.746574e-03 -1.602034e-02 -2.925904e-03 -1.779047e-02 -6.141767e-03 -8.680397e-03
<VARIANCE> 39
 9.840203e+00 1.469735e+01 1.906755e+01 3.201818e+01 3.125140e+01 4.090062e+01 3.786988e+01 3.993592e+01 4.286411e+01 5.936039e+01 4.223131e+01 4.310344e+01 1.404874e+01 4.593080e-02 1.242052e-01 1.789228e-01 2.755568e-01 3.606494e-01 4.395169e-01 4.837712e-01 5.418172e-01 5.763938e-01 5.773843e-01 5.464803e-01 5.057969e-01 2.840358e-02 7.959345e-03 2.070442e-02 3.179828e-02 5.034288e-02 6.629397e-02 8.010019e-02 8.850313e-02 1.010606e-01 1.055783e-01 1.067548e-01 1.017347e-01 9.286501e-02 3.754859e-03
<GCONST> 5.839164e+01
<MIXTURE> 7 1.469329e-01
<MEAN> 39
 8.434047e+00 4.838025e+00 -7.472740e+00 -7.016297e+00 4.457294e+00 3.588911e+00 -6.198720e+00 -2.938210e+00 8.297557e-01 2.256819e+00 -1.672240e+00 -6.078760e+00 1.615166e+00 1.848563e-02 8.996361e-02 2.662000e-02 -1.538102e-03 -5.281136e-02 6.668934e-03 2.774487e-03 -1.070164e-01 -1.078304e-01 2.771465e-02 8.154409e-02 2.434513e-02 -9.034048e-02 -4.306709e-02 -4.629155e-02 -1.610743e-02 -5.454663e-02 -1.202918e-01 -6.693548e-02 -2.874822e-02 -7.567561e-02 -9.836870e-02 -1.048861e-01 -4.125241e-02 -6.623747e-03 -7.649331e-03
<VARIANCE> 39
 6.071698e+00 1.044385e+01 1.786481e+01 2.370326e+01 2.451378e+01 3.427641e+01 4.258823e+01 3.746809e+01 5.193391e+01 4.590795e+01 5.308937e+01 4.047540e+01 8.462232e+00 7.944439e-02 2.263656e-01 3.496413e-01 5.177935e-01 6.617084e-01 8.062730e-01 8.956059e-01 1.003960e+00 1.038297e+00 9.977307e-01 9.567803e-01 8.446983e-01 5.306187e-02 1.154987e-02 3.378802e-02 5.742912e-02 8.037730e-02 1.037809e-01 1.329077e-01 1.538538e-01 1.643294e-01 1.682721e-01 1.665046e-01 1.600579e-01 1.430548e-01 6.122989e-03
<GCONST> 7.035759e+01
<MIXTURE> 8 1.501458e-01
<MEAN> 39
 7.879325e+00 4.155340e+00 -8.453251e+00 -9.965597e+00 4.012343e+00 6.316102e+00 -4.443637e+00 -3.839535e+00 -2.191022e+00 2.220584e+00 2.888686e+00 -1.853258e+00 2.123574e+00 9.620168e-02 3.924485e-01 1.796351e-01 3.954125e-02 -3.789854e-01 -1.076517e-01 2.973936e-01 -1.020789e-01 -4.225857e-01 -2.172786e-01 8.090532e-02 2.508325e-01 -3.216183e-01 -5.377669e-02 -6.129369e-02 1.014780e-01 7.077129e-02 -1.256488e-01 -1.273963e-01 -1.016497e-03 1.853076e-02 9.443476e-02 -9.416853e-02 -1.253583e-01 9.125732e-03 -2.075469e-03
<VARIANCE> 39
 9.587526e+00 1.479595e+01 2.046504e+01 3.182010e+01 3.356065e+01 3.797027e+01 4.819962e+01 4.776778e+01 5.280167e+01 5.415226e+01 5.606454e+01 5.671488e+01 1.027640e+01 2.156198e-01 5.412107e-01 7.576639e-01 1.134775e+00 1.418777e+00 1.599148e+00 1.807583e+00 1.929193e+00 2.146016e+00 2.075273e+00 1.975423e+00 1.749073e+00 1.885409e-01 3.018581e-02 7.203946e-02 1.195407e-01 1.765761e-01 2.005808e-01 2.514673e-01 2.851606e-01 3.167452e-01 3.289158e-01 3.177698e-01 3.186361e-01 2.763942e-01 2.066742e-02
<GCONST> 9.324209e+01
<STATE> 5
<NUMMIXES> 8
<MIXTURE> 1 1.157096e-01
<MEAN> 39
 2.389205e+00 5.463352e+00 -7.332571e-01 1.862966e+00 4.732140e+00 2.724098e+00 -1.630080e+00 -5.334744e+00 -2.925871e+00 -1.978064e+00 -1.989690e+00 -3.027063e+00 -7.088105e+00 -1.241696e+00 -4.807535e-01 3.439338e-01 8.759228e-01 3.738234e-01 -4.820008e-02 7.845740e-01 7.067369e-01 4.657414e-01 1.507286e-01 1.205937e-01 1.312847e-01 -9.881756e-01 -5.325452e-03 -2.414581e-01 -2.597200e-01 -4.326620e-01 -2.766257e-01 -1.199341e-01 -5.051022e-02 2.152425e-01 2.439993e-01 2.265638e-01 2.280298e-01 2.255208e-01 2.962520e-01
<VARIANCE> 39
 2.286181e+01 2.722828e+01 3.324192e+01 3.782309e+01 4.042487e+01 4.721128e+01 4.899448e+01 4.571506e+01 4.749812e+01 4.968463e+01 4.319782e+01 4.470654e+01 3.480451e+01 1.295290e+00 1.707244e+00 1.739265e+00 2.464244e+00 2.717646e+00 2.848864e+00 3.048812e+00 3.204864e+00 3.318076e+00 3.242365e+00 3.029198e+00 2.713267e+00 1.550393e+00 1.785604e-01 2.417308e-01 2.709241e-01 3.458358e-01 4.413135e-01 4.864517e-01 5.352445e-01 5.828470e-01 5.731599e-01 5.731375e-01 5.209586e-01 4.710039e-01 1.894092e-01
<GCONST> 1.184976e+02
<MIXTURE> 2 9.324708e-02
<MEAN> 39
 2.153103e+00 2.720596e+00 -2.177036e+00 -4.965858e-01 1.059653e+00 -1.809009e-01 -2.286432e+00 -3.737074e+00 -7.997397e-02 3.371653e+00 4.365247e+00 2.085612e+00 -3.965377e+00 -2.655072e-01 -4.387223e-02 2.747316e-01 4.100650e-01 4.761782e-02 -1.603777e-01 1.025328e-01 7.945700e-02 3.951619e-02 -1.240561e-01 -2.106147e-01 -1.495245e-01 -3.058182e-01 1.751347e-02 2.015691e-03 -3.291095e-02 -8.138905e-02 1.370381e-04 7.256293e-02 4.524248e-02 7.464176e-02 -1.041080e-02 -1.624381e-01 -2.288676e-01 -1.284841e-01 2.810985e-02
<VARIANCE> 39
 2.279249e+01 3.060040e+01 2.934816e+01 3.133264e+01 3.890713e+01 3.730228e+01 4.375010e+01 5.054851e+01 4.687864e+01 4.542674e+01 3.873389e+01 5.062235e+01 4.958592e+01 3.768882e-01 5.293204e-01 7.446902e-01 9.815587e-01 1.197600e+00 1.419897e+00 1.529318e+00 1.680269e+00 1.807645e+00 1.777589e+00 1.849710e+00 1.718817e+00 2.972963e-01 4.757658e-02 8.029427e-02 1.227251e-01 1.578456e-01 1.995741e-01 2.314699e-01 2.796017e-01 2.987703e-01 3.143063e-01 2.988759e-01 2.762664e-01 2.739087e-01 3.267553e-02
<GCONST> 9.640257e+01
<MIXTURE> 3 1.366834e-01
<MEAN> 39
 5.338763e+00 3.681188e+00 -2.704134e+00 -2.857490e+00 -8.688274e-01 -1.638828e+00 -3.154008e+00 -7.581868e-01 -1.857158e-01 -3.377825e+00 -5.414696e+00 -4.351192e+00 -1.771185e-01 -2.089240e-01 9.550908e-02 5.674139e-01 5.677902e-01 -2.458802e-01 -4.215853e-01 1.130482e-01 -1.162561e-01 -2.232563e-01 -2.083206e-01 -5.941221e-02 1.674753e-01 -2.801145e-01 2.447605e-03 1.202287e-02 -2.569979e-02 -3.386252e-02 1.292976e-01 2.474040e-01 2.859816e-02 -2.273689e-01 -1.523764e-01 1.673424e-01 3.421019e-01 1.347865e-01 -6.362913e-03
<VARIANCE> 39
 1.508777e+01 3.267973e+01 2.803517e+01 3.612888e+01 5.162954e+01 4.083606e+01 5.709816e+01 6.037897e+01 5.838629e+01 5.332386e+01 4.161005e+01 4.654191e+01 2.882851e+01 2.621531e-01 5.676392e-01 1.018186e+00 1.174849e+00 1.702006e+00 1.801405e+00 2.071388e+00 2.322271e+00 2.273269e+00 2.292128e+00 2.122388e+00 1.912064e+00 2.404035e-01 4.019208e-02 9.320164e-02 1.515419e-01 1.893972e-01 2.670945e-01 2.815117e-01 3.496138e-01 3.753813e-01 3.859967e-01 3.739853e-01 3.079959e-01 3.191400e-01 2.885907e-02
<GCONST> 1.006052e+02
<MIXTURE> 4 2.654197e-01
<MEAN> 39
 7.126701e+00 8.991160e+00 -1.249559e+00 -2.010192e+00 -1.356532e+00 1.505013e+00 -9.293922e-01 -5.538685e+00 -4.800660e+00 -2.282697e+00 -1.167953e+00 -1.510678e+00 -4.279192e+00 -4.454311e-02 5.908368e-03 1.091185e-01 1.630005e-01 3.863649e-02 -4.534087e-02 -1.587724e-02 -2.869333e-02 -1.020323e-02 -2.466766e-02 -4.655405e-02 -3.040449e-02 -1.198172e-01 -1.651145e-02 -2.636985e-02 -5.074268e-03 9.460435e-04 1.759149e-02 -8.265001e-03 -1.759165e-02 7.992472e-03 2.267621e-02 8.370367e-03 3.499991e-04 -2.386763e-03 6.877165e-03
<VARIANCE> 39
 1.031281e+01 1.756848e+01 2.347606e+01 3.172253e+01 3.517480e+01 3.264478e+01 4.327609e+01 4.256607e+01 4.150538e+01 4.332917e+01 4.133163e+01 5.038789e+01 1.299547e+01 9.704925e-02 2.245589e-01 4.052628e-01 5.723744e-01 7.494294e-01 8.643481e-01 9.670272e-01 1.047433e+00 1.122863e+00 1.141503e+00 1.087832e+00 9.924813e-01 7.507677e-02 1.616359e-02 4.075244e-02 7.304474e-02 1.023443e-01 1.395729e-01 1.623710e-01 1.817043e-01 1.977985e-01 2.100080e-01 2.170612e-01 1.999528e-01 1.897572e-01 1.008380e-02
<GCONST> 7.749097e+01
<MIXTURE> 5 1.172526e-01
<MEAN> 39
 5.310304e+00 1.099133e+00 -4.187144e+00 -4.474873e+00 1.827798e+00 -1.403751e+00 -7.087233e+00 -2.445550e+00 1.658750e+00 2.055984e+00 3.653642e-01 2.919855e-01 2.000526e+00 -5.825543e-01 7.803326e-01 9.419783e-01 1.633355e+00 -2.977230e-01 -9.058786e-01 3.604479e-01 -5.851781e-01 -7.077634e-01 -8.423066e-01 -6.885251e-01 -4.766166e-01 -1.116401e+00 -2.413039e-01 1.454708e-01 3.597617e-02 9.894759e-02 1.321207e-01 3.661755e-01 3.463920e-01 -3.061509e-02 -1.192396e-01 -7.184440e-02 8.336253e-02 -9.226790e-02 -1.465294e-01
<VARIANCE> 39
 2.282976e+01 3.270296e+01 3.922614e+01 5.510035e+01 5.643961e+01 6.937567e+01 6.480215e+01 7.719667e+01 7.711603e+01 7.539569e+01 8.439780e+01 8.103710e+01 3.407349e+01 1.611779e+00 2.289513e+00 2.720698e+00 3.560421e+00 4.552499e+00 4.595356e+00 4.945932e+00 5.428809e+00 5.324286e+00 4.980583e+00 4.798901e+00 4.604505e+00 1.710773e+00 2.309713e-01 3.473817e-01 3.737967e-01 6.144551e-01 5.862365e-01 7.024276e-01 7.687334e-01 9.178152e-01 9.403386e-01 8.742537e-01 8.111200e-01 7.467301e-01 1.882327e-01
<GCONST> 1.330091e+02
<MIXTURE> 6 1.273817e-01
<MEAN> 39
 8.080400e+00 7.796788e+00 -3.858973e+00 -6.014619e+00 -1.032230e+00 3.556443e+00 -1.737331e+00 -6.450737e+00 -4.646099e+00 -1.292691e+00 3.416679e-01 -1.176388e+00 -2.610816e+00 -3.827812e-01 2.522615e-01 7.048650e-01 1.197325e+00 3.638771e-01 -4.026087e-01 6.211552e-02 -2.138308e-01 -2.295180e-01 -2.171386e-01 -4.563742e-01 -2.834094e-01 -7.884783e-01 -1.980990e-01 -1.473646e-01 9.954903e-02 1.777432e-01 2.008769e-01 4.852730e-03 6.967385e-03 1.278940e-01 1.655509e-01 5.129527e-02 -1.592392e-02 -1.121039e-02 -1.252817e-02
<VARIANCE> 39
 1.070256e+01 2.086659e+01 2.530043e+01 3.384502e+01 3.433729e+01 3.247616e+01 4.544891e+01 4.012079e+01 3.942066e+01 4.598069e+01 4.063942e+01 4.635497e+01 1.899506e+01 5.148774e-01 8.071041e-01 1.365913e+00 1.881870e+00 2.234182e+00 2.199176e+00 2.323482e+00 2.600813e+00 2.592250e+00 2.537254e+00 2.409907e+00 2.226356e+00 5.195775e-01 7.195640e-02 1.249502e-01 1.788705e-01 2.595157e-01 2.949723e-01 3.006843e-01 3.730589e-01 3.936363e-01 3.933713e-01 4.060669e-01 3.685501e-01 3.478379e-01 6.759903e-02
<GCONST> 1.040120e+02
<MIXTURE> 7 7.208538e-02
<MEAN> 39
 7.414018e+00 5.288915e+00 -6.364880e+00 -1.005655e+01 -4.425742e-01 7.794032e+00 -1.602469e+00 -6.053925e+00 -4.233653e+00 -2.163923e-01 4.931442e+00 2.542936e+00 1.195057e+00 -2.383428e-01 -7.077242e-01 -1.183722e-01 8.270108e-01 7.806911e-01 -4.282183e-01 -9.923375e-01 -4.997998e-01 6.637084e-01 1.073154e+00 -1.375998e-01 -7.965684e-01 1.875233e-01 -1.142109e-01 -1.933606e-01 1.378911e-01 3.645743e-01 1.184938e-01 -4.063150e-01 -2.551957e-01 2.021223e-01 4.220978e-01 7.303324e-02 -4.000753e-01 -3.321007e-01 6.294149e-02
<VARIANCE> 39
 1.251666e+01 2.614813e+01 2.525084e+01 3.775081e+01 4.812295e+01 4.145813e+01 5.633266e+01 5.185141e+01 5.712884e+01 7.019820e+01 6.006189e+01 6.008019e+01 2.653113e+01 3.097068e-01 7.929697e-01 1.088683e+00 1.837744e+00 1.944694e+00 2.552309e+00 2.401110e+00 2.790527e+00 3.191409e+00 2.957431e+00 3.119086e+00 2.582601e+00 4.307568e-01 4.932880e-02 1.304120e-01 1.783832e-01 2.409761e-01 3.488145e-01 3.787390e-01 4.179105e-01 5.098611e-01 4.908245e-01 5.518275e-01 4.890119e-01 4.075479e-01 5.667039e-02
<GCONST> 1.084015e+02
<MIXTURE> 8 7.222047e-02
<MEAN> 39
 5.723731e+00 2.509558e-01 -7.070448e+00 -5.332139e+00 4.559465e+00 2.659070e+00 -9.035573e+00 -3.551263e+00 4.097399e+00 4.946258e+00 1.213833e-01 -3.486620e+00 3.667027e+00 -4.986596e-01 -6.250808e-01 8.551662e-01 1.450363e+00 -3.458173e-01 -1.786720e+00 -3.707362e-01 9.613322e-01 8.963686e-01 -5.505261e-01 -1.569908e+00 -1.267377e-01 1.244258e-01 -7.399603e-02 1.396694e-01 3.214969e-01 8.456229e-02 -3.476257e-01 -1.536599e-01 4.761644e-01 1.910749e-01 -4.387828e-01 -5.373933e-01 3.905630e-02 4.017546e-01 -9.761175e-02
<VARIANCE> 39
 1.183597e+01 2.239237e+01 2.380203e+01 3.211908e+01 4.142806e+01 4.635807e+01 4.715147e+01 5.609048e+01 5.250921e+01 5.710962e+01 7.007241e+01 6.425382e+01 2.398610e+01 3.444501e-01 9.350376e-01 1.258103e+00 1.638125e+00 2.456829e+00 2.539120e+00 2.821898e+00 3.168008e+00 3.451571e+00 3.304053e+00 2.652415e+00 3.119103e+00 4.712634e-01 5.435678e-02 1.250263e-01 1.767756e-01 2.423398e-01 3.537726e-01 3.911591e-01 4.195993e-01 5.276586e-01 4.979730e-01 4.812459e-01 5.310253e-01 4.052990e-01 5.056214e-02
<GCONST> 1.087624e+02
<TRANSP> 6
 0.000000e+00 1.000000e+00 0.000000e+00 0.000000e+00 0.000000e+00 0.000000e+00
 0.000000e+00 8.859014e-01 1.140986e-01 0.000000e+00 0.000000e+00 0.000000e+00
 0.000000e+00 0.000000e+00 9.228023e-01 7.719770e-02 0.000000e+00 0.000000e+00
 0.000000e+00 0.000000e+00 0.000000e+00 9.238179e-01 7.618219e-02 0.000000e+00
 0.000000e+00 0.000000e+00 0.000000e+00 0.000000e+00 8.608522e-01 1.391478e-01
 0.000000e+00 0.000000e+00 0.000000e+00 0.000000e+00 0.000000e+00 0.000000e+00
<ENDHMM>
