~o
<STREAMINFO> 1 39
<VECSIZE> 39<NULLD><MFCC_D_A_Z_0><DIAGC>
~h "th"
<BEGINHMM>
<NUMSTATES> 6
<STATE> 2
<NUMMIXES> 8
<MIXTURE> 1 1.367615e-01
<MEAN> 39
 -4.169683e+00 3.219238e+00 -2.574311e+00 2.454194e+00 -4.047831e+00 -3.642312e+00 -5.082425e-01 -1.559488e+00 4.647667e+00 5.838379e+00 7.150001e+00 3.122498e+00 -7.825895e+00 -4.932026e-01 1.343736e-01 -5.279254e-02 2.818330e-01 4.154944e-01 3.303030e-01 2.183934e-01 -9.098130e-02 -1.402293e-01 -2.264762e-01 -3.447149e-01 -4.420348e-01 -4.435583e-01 7.728972e-02 -6.381311e-03 1.673817e-01 9.579447e-02 2.271462e-01 1.972061e-01 1.418495e-01 1.789812e-02 -2.753617e-01 -4.565153e-01 -5.053465e-01 -2.558355e-01 2.867176e-01
<VARIANCE> 39
 2.060400e+01 1.968467e+01 2.848091e+01 2.449028e+01 3.741143e+01 2.970598e+01 3.563378e+01 3.903699e+01 4.333067e+01 4.333220e+01 3.755610e+01 4.627997e+01 2.986672e+01 1.045273e+00 9.941608e-01 1.400775e+00 1.389431e+00 1.907664e+00 1.991424e+00 2.047539e+00 2.357292e+00 2.635599e+00 2.829972e+00 2.740465e+00 2.719666e+00 1.074937e+00 1.720770e-01 1.899310e-01 2.318055e-01 2.691603e-01 3.322577e-01 3.531820e-01 3.957274e-01 4.887071e-01 4.808397e-01 5.164333e-01 4.194665e-01 4.615345e-01 2.058861e-01
<GCONST> 1.099835e+02
<MIXTURE> 2 9.217099e-02
<MEAN> 39
 -7.841727e+00 1.458841e+00 -2.626361e+00 2.183728e+00 1.188804e+00 -1.744925e+00 1.735341e+00 1.334841e-01 4.797267e-01 1.615256e+00 1.743298e+00 1.650787e+00 -5.718074e+00 -8.953406e-01 -9.013273e-01 -1.066679e+00 -9.247622e-01 -7.202740e-01 -3.093922e-01 7.065275e-02 4.414210e-01 5.863594e-01 7.147798e-01 9.509687e-01 7.323827e-01 -1.220411e-01 4.420685e-01 2.811662e-01 3.663246e-01 2.579833e-01 5.771552e-02 -3.498957e-02 -1.613564e-01 -1.785976e-01 -1.775497e-01 -2.767330e-01 -3.157339e-01 -2.628741e-01 1.782227e-01
<VARIANCE> 39
 2.347633e+01 2.261981e+01 2.334007e+01 1.856848e+01 3.317668e+01 3.211599e+01 3.218433e+01 3.044684e+01 3.145593e+01 2.628595e+01 2.301303e+01 2.510178e+01 3.208397e+01 1.143724e+00 1.079457e+00 1.344267e+00 1.351799e+00 1.625062e+00 1.842918e+00 2.288616e+00 2.164412e+00 2.274817e+00 2.122874e+00 2.047356e+00 1.810661e+00 1.351097e+00 1.744250e-01 1.951240e-01 2.549276e-01 2.390852e-01 3.603399e-01 3.441124e-01 3.761131e-01 3.981240e-01 4.296139e-01 4.085952e-01 3.450682e-01 3.125151e-01 1.643584e-01
<GCONST> 1.051810e+02
<MIXTURE> 3 1.072686e-01
<MEAN> 39
 -8.127975e+00 7.784378e+00 -1.408649e+00 8.577418e+00 -3.964341e-01 -4.445779e-01 2.047526e+00 -4.119308e+00 -5.627277e-01 -2.908519e+00 -1.254167e-01 -3.223015e+00 -4.649458e+00 -1.400550e+00 -3.422366e-01 -6.838158e-01 8.695515e-02 2.424123e-01 7.739215e-01 7.744299e-01 4.999873e-01 6.283605e-01 6.454703e-01 6.302315e-01 1.416767e-01 -4.101079e-01 5.557309e-01 -3.220357e-01 8.844455e-02 -4.585151e-01 -2.059605e-01 -2.809714e-01 -2.372041e-01 2.115129e-01 1.178888e-01 2.147204e-01 1.218354e-02 2.178057e-01 1.427212e-01
<VARIANCE> 39
 1.748089e+01 2.574964e+01 2.756604e+01 2.554965e+01 3.933743e+01 3.276848e+01 3.793493e+01 3.622134e+01 3.513152e+01 3.206335e+01 3.435478e+01 3.689549e+01 2.371729e+01 1.678556e+00 1.549914e+00 1.764243e+00 1.761363e+00 1.854948e+00 1.947491e+00 2.168478e+00 2.401536e+00 2.389598e+00 2.317365e+00 2.294207e+00 2.298638e+00 1.042727e+00 1.715611e-01 2.713490e-01 3.054226e-01 2.967011e-01 3.758644e-01 3.765423e-01 4.563223e-01 4.519342e-01 5.059800e-01 4.296503e-01 4.371832e-01 4.510873e-01 1.390722e-01
<GCONST> 1.103849e+02
<MIXTURE> 4 1.172470e-01
<MEAN> 39
 -4.264657e+00 4.103422e+00 2.200798e+00 6.355630e+00 5.531564e+00 2.414291e+00 2.578171e+00 -4.871126e-01 -2.717716e-01 4.114954e-01 -6.879267e-01 -8.497461e-01 -1.120959e+01 -1.103540e+00 -1.031289e+00 -8.610873e-01 -6.554995e-01 -2.506078e-01 9.256215e-02 4.620343e-01 5.196350e-01 4.643861e-01 5.169672e-01 6.853202e-01 5.270512e-01 8.354236e-01 2.576022e-01 -1.477038e-01 -2.155058e-01 -4.450011e-01 -7.786186e-01 -6.720228e-01 -3.265198e-01 -4.929139e-02 4.320171e-02 -2.719753e-02 9.445339e-02 7.081958e-02 9.206889e-01
<VARIANCE> 39
 2.085849e+01 2.296250e+01 2.619224e+01 2.487219e+01 3.413146e+01 3.005451e+01 3.061466e+01 2.912977e+01 3.138881e+01 2.745441e+01 2.637156e+01 2.734013e+01 4.619319e+01 2.570702e+00 2.659918e+00 2.948836e+00 2.751869e+00 3.276123e+00 3.470644e+00 3.055502e+00 3.128650e+00 3.135208e+00 2.736869e+00 2.848838e+00 2.558088e+00 5.004519e+00 3.424552e-01 3.696285e-01 4.157157e-01 3.812427e-01 4.854561e-01 5.067717e-01 5.144961e-01 4.718489e-01 5.525900e-01 4.604584e-01 4.649440e-01 4.408276e-01 5.113953e-01
<GCONST> 1.193265e+02
<MIXTURE> 5 2.185646e-01
<MEAN> 39
 -2.374586e+00 4.313467e+00 3.538933e-01 4.356761e+00 -3.796876e-01 -1.979060e+00 -7.999203e-01 -3.880151e+00 -1.657385e+00 -2.585625e+00 -2.050309e+00 -2.756134e+00 -7.437782e+00 -3.110667e-01 7.764648e-02 4.396083e-02 1.830276e-01 2.069579e-01 2.278519e-01 1.056625e-01 -3.292972e-02 -8.733782e-04 7.690564e-02 2.349333e-02 -7.676580e-02 -4.379469e-01 -1.071115e-02 -5.134313e-02 -2.197501e-02 -4.143071e-02 -3.225906e-03 4.803954e-02 1.230680e-01 1.864795e-01 1.742649e-01 1.649487e-01 1.220144e-01 7.227134e-02 1.590971e-01
<VARIANCE> 39
 2.037181e+01 2.013735e+01 2.725938e+01 2.408978e+01 3.740840e+01 3.098614e+01 2.988352e+01 3.140693e+01 2.932159e+01 3.120551e+01 3.056638e+01 3.453159e+01 4.035498e+01 4.614293e-01 5.472121e-01 7.358876e-01 9.385384e-01 1.184317e+00 1.411579e+00 1.612562e+00 1.822780e+00 1.761547e+00 1.834826e+00 1.857253e+00 1.652973e+00 3.811782e-01 7.895800e-02 1.005873e-01 1.449028e-01 1.818534e-01 2.442054e-01 2.760254e-01 3.012410e-01 3.247400e-01 3.182989e-01 3.252595e-01 3.253477e-01 2.964520e-01 6.503788e-02
<GCONST> 9.590242e+01
<MIXTURE> 6 1.291853e-01
<MEAN> 39
 -2.544868e+00 9.942149e-01 -3.845746e+00 1.865215e+00 1.042962e+00 1.072415e+00 2.087641e+00 1.742582e+00 2.813601e+00 -6.708130e-01 -3.018662e+00 -3.498253e+00 -7.423561e+00 -5.973907e-01 -4.785158e-02 -1.521454e-01 4.693306e-02 -4.137725e-02 2.107463e-01 3.838227e-01 1.333077e-01 2.759963e-01 4.585767e-01 4.349829e-01 2.155316e-01 -4.968084e-01 4.204571e-02 1.679516e-01 2.790052e-01 1.419161e-01 -9.217979e-02 -2.952369e-01 -3.046372e-01 -3.579316e-01 -2.741615e-01 -4.549522e-02 2.612599e-01 2.747470e-01 3.350026e-01
<VARIANCE> 39
 1.464888e+01 1.868743e+01 2.526037e+01 2.575820e+01 3.287086e+01 3.573129e+01 3.343983e+01 4.038026e+01 3.332634e+01 3.571741e+01 2.748490e+01 3.007631e+01 2.998026e+01 7.336123e-01 9.107769e-01 1.106184e+00 1.209244e+00 1.639372e+00 1.929899e+00 2.250967e+00 2.348249e+00 2.237535e+00 2.280072e+00 2.190246e+00 1.919706e+00 8.837473e-01 1.496089e-01 1.767292e-01 2.096346e-01 2.431153e-01 3.295594e-01 3.615235e-01 3.826323e-01 4.311607e-01 4.065729e-01 4.409589e-01 3.914956e-01 3.648953e-01 1.656077e-01
<GCONST> 1.048890e+02
<MIXTURE> 7 6.172754e-02
<MEAN> 39
 -1.471605e-01 3.263307e-01 -1.340091e+00 -1.510681e-01 -1.217732e+00 -2.845674e+00 -6.566159e-01 -9.242091e-02 1.111953e+00 7.841600e-01 1.758429e-01 -5.996385e-01 -1.135383e+00 -2.040323e-01 3.357957e-01 -4.097569e-03 2.124950e-01 -2.113781e-01 -1.746389e-01 -1.508900e-01 -1.975447e-01 -7.645849e-02 -2.179606e-01 -1.911066e-02 -1.006636e-01 8.070121e-01 -1.786528e-01 2.010633e-01 1.759890e-01 2.997021e-01 1.370600e-01 1.911254e-01 1.093149e-01 -1.513707e-02 -5.136705e-02 -4.061013e-02 1.910515e-02 6.397334e-02 -1.992738e-01
<VARIANCE> 39
 4.422078e+01 4.736196e+01 5.127073e+01 5.389035e+01 6.897847e+01 6.926308e+01 7.449778e+01 6.715331e+01 8.563471e+01 7.261058e+01 6.943353e+01 6.219933e+01 8.476041e+01 3.704513e+00 4.109447e+00 3.198256e+00 5.061664e+00 5.162515e+00 5.834664e+00 5.366155e+00 5.223782e+00 6.045321e+00 5.108987e+00 4.603038e+00 4.786634e+00 6.940906e+00 6.821672e-01 7.537935e-01 6.089666e-01 9.378201e-01 9.837115e-01 1.132017e+00 1.064376e+00 1.030154e+00 1.182022e+00 1.053083e+00 9.246147e-01 9.526460e-01 1.295709e+00
<GCONST> 1.458150e+02
<MIXTURE> 8 1.370744e-01
<MEAN> 39
 4.194788e-01 7.725609e+00 2.975794e+00 6.271783e+00 -2.144368e-01 -3.773787e+00 -3.467554e+00 -5.403406e+00 -3.096975e+00 -4.057082e+00 -5.402114e+00 -5.113104e+00 -6.662179e+00 -1.227867e+00 7.128299e-02 -1.049185e-01 5.510785e-01 5.994167e-01 8.528067e-01 7.373338e-01 1.569262e-01 3.153161e-02 1.361564e-01 3.248952e-01 6.339572e-03 -7.592409e-01 -2.098698e-01 -5.752133e-01 -3.467674e-01 -4.385539e-01 -1.854260e-01 6.070263e-02 3.526662e-01 5.423109e-01 3.999622e-01 3.974886e-01 5.126159e-01 4.394380e-01 4.874413e-01
<VARIANCE> 39
 1.836404e+01 2.640833e+01 2.704545e+01 2.714855e+01 4.117781e+01 3.399655e+01 3.469079e+01 3.782455e+01 3.541607e+01 3.764072e+01 3.565952e+01 3.815829e+01 4.117540e+01 2.167155e+00 2.063082e+00 1.899798e+00 2.244245e+00 2.688041e+00 2.896257e+00 3.094418e+00 3.205652e+00 3.415903e+00 3.367953e+00 3.040496e+00 3.171926e+00 2.641323e+00 2.270503e-01 3.096389e-01 3.002845e-01 3.909179e-01 4.731829e-01 4.671641e-01 5.125532e-01 5.650020e-01 6.027718e-01 5.909787e-01 4.843513e-01 5.286840e-01 3.598360e-01
<GCONST> 1.190250e+02
<STATE> 3
<NUMMIXES> 8
<MIXTURE> 1 2.393032e-01
<MEAN> 39
 -8.557516e+00 -5.649395e+00 2.871471e-01 1.832777e+00 2.473178e+00 -6.035820e-01 2.595473e+00 4.990439e+00 2.987450e+00 1.624090e+00 3.403840e+00 1.847452e+00 -3.674016e+00 3.793817e-03 -3.144689e-02 -2.217167e-02 -8.518256e-04 6.906538e-03 -1.246478e-02 -1.578106e-02 -7.321279e-03 1.679619e-02 -3.592320e-02 -6.269117e-03 1.769068e-02 -1.756915e-02 3.633047e-02 4.631913e-02 2.912065e-02 5.983825e-02 4.927809e-02 4.717787e-02 -9.452055e-03 -1.071476e-01 -1.583972e-01 -1.485257e-01 -1.654210e-01 -1.092876e-01 -2.542822e-02
<VARIANCE> 39
 1.399127e+01 1.558447e+01 2.345759e+01 1.640134e+01 2.197161e+01 3.076574e+01 3.341883e+01 3.179742e+01 2.923721e+01 2.808912e+01 2.608899e+01 2.931877e+01 1.936743e+01 1.546223e-01 2.676385e-01 4.643758e-01 6.711302e-01 9.170768e-01 1.093703e+00 1.232777e+00 1.458336e+00 1.545013e+00 1.496001e+00 1.392001e+00 1.265762e+00 1.313605e-01 2.458669e-02 5.045328e-02 8.700912e-02 1.215782e-01 1.690909e-01 2.044431e-01 2.392269e-01 2.826381e-01 2.875260e-01 2.692963e-01 2.461101e-01 2.420010e-01 1.192563e-02
<GCONST> 8.131841e+01
<MIXTURE> 2 1.204305e-01
<MEAN> 39
 -1.123064e+01 5.494967e+00 -2.437629e+00 8.219255e+00 1.812497e+00 3.100047e+00 4.857635e+00 2.101756e-01 3.295587e+00 2.125021e+00 3.646540e+00 -8.667618e-01 -6.097805e+00 -1.298232e-01 -8.459551e-02 3.059153e-02 2.236471e-02 4.031683e-02 9.886401e-02 5.826990e-02 5.552689e-02 5.833279e-02 1.219188e-01 1.058089e-01 5.173483e-02 -2.895520e-02 1.573818e-01 -9.000380e-02 2.596659e-02 -1.665587e-01 -1.367610e-01 -2.220725e-01 -1.321312e-01 -4.120673e-02 -1.678974e-01 -2.105826e-01 -1.473129e-01 -6.590665e-03 7.122646e-02
<VARIANCE> 39
 2.492113e+01 3.170597e+01 3.095358e+01 2.546362e+01 2.960539e+01 2.609329e+01 3.207562e+01 3.002603e+01 2.457835e+01 2.446447e+01 2.476287e+01 2.822496e+01 5.723335e+01 3.395399e-01 5.392837e-01 7.063784e-01 9.602969e-01 1.115098e+00 1.318318e+00 1.510452e+00 1.659595e+00 1.602933e+00 1.585816e+00 1.502656e+00 1.368338e+00 2.724283e-01 8.875650e-02 1.131899e-01 1.582011e-01 1.887847e-01 2.152593e-01 2.589007e-01 2.909732e-01 3.335991e-01 3.124333e-01 2.880889e-01 2.958088e-01 2.750655e-01 5.870889e-02
<GCONST> 9.402365e+01
<MIXTURE> 3 1.098178e-01
<MEAN> 39
 -1.757530e+00 -2.033405e+00 8.563107e-02 -1.577446e-01 1.720397e-01 -4.238828e-01 4.264673e-01 1.047193e+00 5.222576e-01 8.403779e-01 3.708336e-01 -4.250719e-01 -4.686249e-01 -4.249314e-04 6.291868e-03 1.356393e-02 1.150848e-02 -1.094279e-02 1.809458e-02 -3.432400e-04 -9.172025e-03 -1.723420e-02 -9.416917e-03 2.872015e-02 6.221659e-03 -2.154118e-02 -2.859137e-02 -1.875407e-02 4.313498e-04 3.180721e-02 4.414261e-02 2.322534e-02 2.926414e-02 4.315975e-02 2.482291e-02 -1.205924e-03 2.385164e-02 2.521016e-02 1.578090e-03
<VARIANCE> 39
 6.806135e+00 1.227974e+01 1.285424e+01 9.685993e+00 1.270090e+01 1.845462e+01 1.871490e+01 1.983064e+01 2.277274e+01 1.805813e+01 1.730738e+01 1.512607e+01 9.717076e+00 1.430778e-01 2.915789e-01 5.019495e-01 6.286848e-01 8.787816e-01 1.098631e+00 1.320993e+00 1.398378e+00 1.400247e+00 1.447727e+00 1.300688e+00 1.298958e+00 5.938872e-02 2.632944e-02 5.402219e-02 9.529456e-02 1.173598e-01 1.671303e-01 2.031839e-01 2.483151e-01 2.584102e-01 2.657722e-01 2.705463e-01 2.438692e-01 2.494742e-01 9.448196e-03
<GCONST> 7.354576e+01
<MIXTURE> 4 1.466621e-01
<MEAN> 39
 -8.033766e+00 -2.583149e+00 1.243848e+00 4.739116e+00 4.059219e+00 2.244475e+00 3.761086e+00 2.868346e+00 -5.593529e-01 -2.402586e+00 -1.000115e+00 -1.956534e+00 -4.944689e+00 2.485013e-02 -6.696437e-03 1.936510e-02 6.603287e-02 8.070710e-02 1.050039e-01 6.991412e-02 2.939507e-02 -3.248474e-02 1.959657e-02 -8.381139e-03 1.555153e-03 -1.000845e-01 1.676530e-02 -2.294953e-02 -1.059728e-01 -1.824864e-01 -2.111576e-01 -1.903330e-01 -1.173789e-01 1.723369e-02 2.213756e-01 3.408866e-01 3.442214e-01 2.206617e-01 -1.170371e-02
<VARIANCE> 39
 1.853926e+01 2.544348e+01 2.348532e+01 2.024841e+01 2.274504e+01 2.694959e+01 2.962109e+01 3.259691e+01 2.819440e+01 2.578913e+01 2.473199e+01 3.036800e+01 2.537888e+01 2.407828e-01 4.103068e-01 5.973635e-01 8.368545e-01 1.100831e+00 1.238404e+00 1.378792e+00 1.478700e+00 1.606411e+00 1.507939e+00 1.501507e+00 1.383625e+00 2.246890e-01 3.754791e-02 6.789104e-02 1.026951e-01 1.376848e-01 1.919785e-01 2.242434e-01 2.449522e-01 2.785273e-01 2.671339e-01 2.413640e-01 2.402324e-01 2.507220e-01 2.236219e-02
<GCONST> 8.645813e+01
<MIXTURE> 5 1.194892e-01
<MEAN> 39
 -7.831253e+00 -1.459954e+00 -1.540262e+00 1.658383e+00 5.240529e-01 -2.009535e+00 -8.480530e-01 -8.801674e-01 -2.155597e+00 -5.645003e-01 1.132963e+00 1.035483e+00 -5.808741e+00 -2.889155e-02 -3.238307e-02 -2.015556e-02 -4.093935e-02 1.336376e-02 6.849527e-02 6.305978e-02 -8.608459e-03 -2.151339e-02 -7.293432e-02 -8.820235e-02 -5.813964e-02 -2.696995e-02 4.745066e-02 4.905538e-02 1.044694e-01 1.476160e-01 2.096583e-01 2.913498e-01 4.056992e-01 3.904821e-01 3.454260e-01 1.618905e-01 4.011049e-02 -2.862143e-03 3.895400e-02
<VARIANCE> 39
 2.523230e+01 2.690326e+01 2.351042e+01 2.226611e+01 2.722223e+01 2.719437e+01 2.517214e+01 2.564399e+01 2.735530e+01 2.655269e+01 2.575473e+01 2.640679e+01 3.961550e+01 5.679415e-01 7.659400e-01 8.624975e-01 1.136685e+00 1.376050e+00 1.604088e+00 1.770896e+00 1.960786e+00 1.974885e+00 1.850683e+00 1.744219e+00 1.627798e+00 6.813042e-01 1.111290e-01 1.327811e-01 1.742800e-01 2.103898e-01 2.460936e-01 2.572686e-01 2.625083e-01 2.655922e-01 3.052225e-01 3.042427e-01 3.132114e-01 3.060801e-01 9.343920e-02
<GCONST> 9.742812e+01
<MIXTURE> 6 1.303710e-01
<MEAN> 39
 -8.352925e+00 -2.646095e+00 -1.353059e+00 2.820324e+00 2.243669e+00 7.064956e-01 3.930913e+00 4.665942e+00 2.362464e+00 1.264233e+00 2.421371e+00 1.560236e+00 -6.391791e+00 -5.332923e-02 1.187790e-01 1.061944e-01 1.890163e-01 1.267826e-01 1.062089e-01 8.985335e-02 -3.291892e-02 -6.977468e-02 -5.779751e-02 -4.134767e-02 -3.340504e-02 -4.659279e-02 1.531894e-01 2.406320e-01 1.499380e-01 1.091818e-01 -6.269524e-03 -7.603075e-02 -2.386813e-01 -3.728646e-01 -2.387604e-01 -1.505440e-01 -1.561591e-01 -1.446338e-01 4.516321e-02
<VARIANCE> 39
 1.975426e+01 2.533211e+01 2.093481e+01 2.163740e+01 2.552413e+01 2.982073e+01 2.818952e+01 2.492525e+01 2.921818e+01 2.910852e+01 2.635524e+01 2.592270e+01 3.765567e+01 9.851400e-01 1.407104e+00 1.262286e+00 1.405865e+00 1.693310e+00 1.981623e+00 2.080227e+00 2.115829e+00 2.194944e+00 2.076500e+00 1.942624e+00 1.757287e+00 1.571998e+00 1.870450e-01 1.882402e-01 2.188330e-01 2.356850e-01 2.824022e-01 3.459834e-01 3.265761e-01 2.881011e-01 3.637013e-01 3.627554e-01 3.445745e-01 3.284421e-01 1.674599e-01
<GCONST> 1.038971e+02
<MIXTURE> 7 6.927813e-02
<MEAN> 39
 -8.184081e+00 1.444237e-01 -3.200063e+00 8.917609e-01 1.095954e+00 2.309005e-01 2.613954e+00 4.087002e-01 1.404965e+00 2.944929e+00 2.971165e+00 1.428359e+00 -3.856668e+00 -2.556261e-01 1.435629e-03 2.553747e-02 -2.305567e-01 -6.748461e-01 -4.765845e-01 2.403876e-01 2.030039e-01 1.299635e-01 6.532347e-03 2.936084e-01 4.446456e-01 1.877278e+00 7.284895e-01 3.368013e-01 5.311417e-01 1.956740e-01 -3.024286e-01 -3.802268e-01 -3.320098e-01 -1.484984e-01 -2.270685e-01 -4.102159e-01 -3.980295e-01 -1.550110e-01 2.096945e-01
<VARIANCE> 39
 3.440632e+01 3.330424e+01 3.496102e+01 3.125405e+01 4.399752e+01 4.053895e+01 4.207393e+01 3.686191e+01 3.907734e+01 3.449515e+01 3.339571e+01 3.469118e+01 5.386547e+01 2.575252e+00 2.324563e+00 2.570262e+00 2.800114e+00 3.415769e+00 3.520377e+00 3.140838e+00 3.260563e+00 3.441628e+00 3.130254e+00 2.910521e+00 2.689664e+00 4.299602e+00 5.481770e-01 5.330531e-01 5.698476e-01 5.602446e-01 7.562425e-01 7.356185e-01 7.516950e-01 6.944461e-01 7.219043e-01 5.989919e-01 5.746629e-01 5.581716e-01 6.626227e-01
<GCONST> 1.272726e+02
<MIXTURE> 8 6.464814e-02
<MEAN> 39
 -4.224848e+00 5.474072e+00 -9.036420e-02 6.189132e+00 2.354016e-01 -7.731334e-01 1.999321e-02 -4.323877e+00 -1.095639e+00 -1.848486e+00 -2.595658e+00 -4.174802e+00 -6.450284e+00 2.104084e-01 -5.708305e-01 -1.212212e-01 -6.494467e-01 -1.096109e+00 -8.322347e-01 1.037569e-01 1.036548e+00 8.047289e-01 6.681339e-01 1.177094e+00 1.080059e+00 2.261020e+00 5.000173e-01 -4.712414e-01 7.786237e-02 -6.987088e-01 -5.632482e-01 -4.693190e-01 -2.823765e-02 6.117151e-01 2.157082e-01 2.327628e-01 3.704240e-01 5.737595e-01 7.617509e-01
<VARIANCE> 39
 2.782796e+01 2.500788e+01 3.121851e+01 2.707945e+01 4.240204e+01 4.168353e+01 4.352887e+01 3.934544e+01 3.740406e+01 3.613877e+01 3.815798e+01 4.471941e+01 4.249638e+01 2.508525e+00 2.853909e+00 3.092371e+00 3.064387e+00 3.680372e+00 4.159846e+00 4.019171e+00 4.662027e+00 3.958824e+00 3.985323e+00 4.197360e+00 4.385440e+00 3.508734e+00 4.222292e-01 3.942182e-01 5.356632e-01 5.028915e-01 6.688383e-01 7.657735e-01 8.179939e-01 7.779299e-01 7.388633e-01 7.881327e-01 8.826097e-01 1.009047e+00 4.244713e-01
<GCONST> 1.293495e+02
<STATE> 4
<NUMMIXES> 8
<MIXTURE> 1 1.555330e-01
<MEAN> 39
 -9.227576e+00 3.671488e+00 -1.107604e+00 7.689341e+00 1.827218e+00 3.508045e+00 4.417581e+00 -3.241800e-02 2.877462e+00 1.591400e+00 2.384952e+00 -1.563563e+00 -7.270606e+00 1.666571e+00 3.190003e-01 6.431265e-01 -7.684376e-01 -1.470429e+00 -1.549626e+00 -6.387100e-01 -2.039038e-01 -3.123815e-01 -3.367149e-01 2.316452e-02 4.016696e-01 1.939734e+00 9.411327e-01 -1.416693e-01 1.790718e-01 -7.009529e-01 -7.717420e-01 -8.787964e-01 -5.436063e-01 -2.795656e-02 -3.132862e-01 -2.956531e-01 -2.998909e-01 1.332089e-01 7.410123e-01
<VARIANCE> 39
 1.774472e+01 2.300476e+01 2.701314e+01 2.082851e+01 2.977746e+01 2.431323e+01 2.738248e+01 3.187987e+01 2.562180e+01 2.539679e+01 2.855881e+01 3.228031e+01 3.715179e+01 2.882422e+00 2.084283e+00 2.582523e+00 2.483682e+00 2.867291e+00 3.165819e+00 2.974283e+00 2.999622e+00 2.956657e+00 2.663172e+00 2.758668e+00 2.519416e+00 2.429495e+00 2.372652e-01 3.194846e-01 4.402722e-01 3.748572e-01 4.601310e-01 4.661770e-01 5.346292e-01 6.103151e-01 5.441474e-01 5.328143e-01 6.002688e-01 5.871448e-01 2.834007e-01
<GCONST> 1.166512e+02
<MIXTURE> 2 1.250143e-01
<MEAN> 39
 -6.751104e+00 2.631453e+00 7.895707e-01 7.175918e+00 3.167818e+00 2.529357e+00 2.839863e+00 -2.275049e-01 6.037156e-01 -4.850433e-01 1.618819e-01 -1.836345e+00 -1.181810e+01 1.288304e-01 4.993608e-01 1.837081e-01 2.416460e-01 2.052240e-01 2.257307e-01 5.850837e-02 -2.402732e-01 6.487557e-02 1.874758e-01 -7.344656e-02 -1.091936e-01 -3.153756e-01 2.132092e-01 -4.916909e-02 -2.369732e-02 -2.300710e-01 -3.023152e-01 -2.996740e-01 -6.756910e-02 4.963797e-02 4.936788e-02 5.751666e-02 1.165166e-01 1.182498e-01 5.339527e-01
<VARIANCE> 39
 1.834267e+01 2.329055e+01 2.196559e+01 2.253482e+01 3.025953e+01 3.296151e+01 3.050647e+01 3.033072e+01 3.255332e+01 2.771766e+01 2.847380e+01 3.525470e+01 3.427057e+01 9.445373e-01 1.286656e+00 1.164723e+00 1.268175e+00 1.672889e+00 1.803039e+00 1.802971e+00 1.916518e+00 1.935678e+00 1.767250e+00 1.886640e+00 1.518518e+00 1.789534e+00 2.855492e-01 2.452196e-01 2.581024e-01 2.729083e-01 3.962527e-01 4.167619e-01 4.067080e-01 4.003769e-01 4.446169e-01 3.699800e-01 3.960778e-01 3.443333e-01 3.327791e-01
<GCONST> 1.068932e+02
<MIXTURE> 3 1.576460e-01
<MEAN> 39
 -9.712912e+00 2.752666e-01 -2.533009e+00 1.015311e+00 9.762942e-01 -9.789659e-01 3.895233e+00 1.298907e+00 6.350717e-01 1.401147e+00 2.161112e+00 3.020668e+00 -2.048579e+00 2.168479e+00 1.200419e+00 1.759869e+00 6.758729e-01 -9.525766e-01 -1.288051e+00 -1.141268e+00 -7.263373e-01 -6.749393e-01 -8.908394e-01 -8.322214e-01 -3.541778e-01 1.713650e+00 9.644415e-01 2.465434e-01 4.421389e-01 1.781782e-01 -4.586947e-01 -3.809661e-01 -5.811683e-01 -2.529096e-01 -1.240023e-01 -2.044950e-01 -2.729728e-01 -3.499061e-01 1.890043e-01
<VARIANCE> 39
 2.107950e+01 2.344429e+01 2.901386e+01 2.069260e+01 3.421395e+01 3.205234e+01 3.041740e+01 3.323170e+01 3.214815e+01 2.979887e+01 2.759225e+01 2.593476e+01 4.247508e+01 2.551988e+00 2.026407e+00 2.257710e+00 2.618129e+00 3.908114e+00 3.716025e+00 3.410606e+00 3.194115e+00 3.299565e+00 2.677209e+00 2.667787e+00 2.476243e+00 2.964745e+00 2.740842e-01 3.818793e-01 4.653452e-01 4.435413e-01 5.899477e-01 6.440390e-01 6.034808e-01 6.469448e-01 6.709608e-01 5.778294e-01 5.749553e-01 5.007370e-01 4.442225e-01
<GCONST> 1.202730e+02
<MIXTURE> 4 1.395045e-01
<MEAN> 39
 -2.975444e+00 6.670860e+00 3.428468e+00 6.218020e+00 1.546284e+00 -2.536812e+00 -3.143808e-02 -2.638496e+00 -2.598113e+00 -1.406221e+00 -1.297422e+00 1.070584e-01 -2.755706e+00 2.884079e+00 4.441199e-01 1.214678e+00 -1.959496e-01 -2.128299e+00 -2.245452e+00 -1.737451e+00 -5.599210e-01 -1.380699e-01 -7.518162e-01 -6.152140e-01 -2.844500e-01 2.365969e+00 5.338826e-02 -6.492907e-01 -3.457108e-01 -5.379925e-01 -5.618892e-01 -9.203898e-02 8.649900e-02 3.930293e-01 3.692807e-01 1.667201e-01 1.867705e-01 -4.446673e-03 2.225040e-01
<VARIANCE> 39
 1.802328e+01 1.955915e+01 2.321053e+01 2.069431e+01 3.164620e+01 3.041957e+01 3.043988e+01 3.233604e+01 2.888456e+01 2.611102e+01 2.510543e+01 2.785846e+01 3.264047e+01 2.464732e+00 3.019327e+00 3.832859e+00 3.756079e+00 3.789531e+00 4.338725e+00 3.931793e+00 4.571146e+00 5.276490e+00 3.881042e+00 4.131551e+00 3.615805e+00 2.359829e+00 2.855890e-01 2.641578e-01 3.288646e-01 3.744708e-01 4.620933e-01 4.442324e-01 4.938107e-01 5.629565e-01 6.040027e-01 4.796981e-01 4.943266e-01 4.852365e-01 2.593461e-01
<GCONST> 1.195262e+02
<MIXTURE> 5 1.253345e-01
<MEAN> 39
 -4.205430e+00 4.895146e+00 -9.506941e-01 5.104430e+00 -3.526757e+00 -1.038028e+00 2.546262e+00 -7.674035e-01 3.292052e+00 2.789764e+00 4.943363e+00 3.015004e-01 -1.506596e+00 2.201084e+00 -1.132677e+00 6.572785e-01 -2.561640e+00 -2.546567e+00 -2.477834e+00 -6.736552e-01 1.232097e+00 -1.614215e-01 3.431931e-01 7.932616e-01 1.970794e+00 3.769831e+00 3.099506e-01 -5.357847e-01 2.690596e-01 -6.164463e-01 7.158274e-02 -6.386737e-02 -9.366964e-02 1.654072e-01 -4.629793e-01 -2.427118e-01 -5.558851e-01 5.084397e-02 7.772242e-02
<VARIANCE> 39
 1.780830e+01 2.632160e+01 2.447251e+01 2.431919e+01 3.719264e+01 3.202174e+01 3.264666e+01 3.609035e+01 2.841019e+01 3.296855e+01 3.102255e+01 4.293452e+01 2.887522e+01 3.055629e+00 2.741598e+00 4.611202e+00 3.989053e+00 5.370205e+00 4.972829e+00 5.484677e+00 6.034204e+00 5.529883e+00 6.205838e+00 7.054418e+00 7.373763e+00 3.437262e+00 3.640102e-01 4.356408e-01 5.266346e-01 5.141237e-01 6.809810e-01 6.079115e-01 6.942360e-01 8.090521e-01 6.200169e-01 7.424716e-01 8.262007e-01 1.044547e+00 4.824743e-01
<GCONST> 1.300550e+02
<MIXTURE> 6 1.181344e-01
<MEAN> 39
 9.007894e-01 5.574257e+00 1.984097e+00 3.227137e+00 -7.267964e+00 -9.606249e+00 -3.908031e+00 -3.389369e+00 -1.330139e+00 -3.083345e+00 -7.862384e-01 4.889230e-01 2.248946e+00 2.612241e+00 -9.969324e-01 1.179716e+00 -1.666768e+00 -2.775228e+00 -2.551164e+00 -1.331212e+00 7.230583e-01 -5.264218e-01 -6.414002e-01 -7.370253e-01 1.081864e-01 2.945027e+00 -4.990402e-01 -5.730777e-01 -1.375266e-01 -2.784509e-01 4.297327e-01 9.592165e-01 7.748414e-01 5.768523e-01 1.683053e-01 4.093166e-01 3.011460e-02 -2.295948e-01 -3.997563e-01
<VARIANCE> 39
 1.154096e+01 1.802197e+01 2.339821e+01 2.478700e+01 3.354858e+01 2.724018e+01 2.999808e+01 3.116709e+01 2.747227e+01 2.917353e+01 3.606448e+01 3.596869e+01 2.509595e+01 2.361129e+00 3.073448e+00 4.145525e+00 4.394752e+00 4.520071e+00 4.930241e+00 5.685436e+00 5.660661e+00 6.331938e+00 5.043627e+00 5.486840e+00 5.901535e+00 2.306341e+00 2.827347e-01 2.892212e-01 3.776148e-01 4.565356e-01 5.147069e-01 4.765327e-01 5.969740e-01 6.348944e-01 5.887892e-01 5.623384e-01 7.068072e-01 5.884420e-01 3.785959e-01
<GCONST> 1.237584e+02
<MIXTURE> 7 1.193379e-01
<MEAN> 39
 2.228267e+00 1.844424e+00 -1.231302e+00 8.642315e-01 -3.688142e+00 -7.561480e+00 -4.724044e+00 9.528351e-01 5.179693e+00 1.056490e+00 -3.074893e-01 1.639822e+00 4.180247e+00 1.109059e+00 -1.780885e+00 -6.835185e-01 -1.724221e+00 -1.388577e+00 -9.372836e-01 2.043236e-01 2.297348e+00 1.658241e+00 -1.570503e-01 1.487887e-01 5.269208e-01 2.845471e+00 -4.348183e-01 -1.873460e-01 1.059513e-01 6.732408e-03 3.327621e-01 7.276849e-01 7.616668e-01 1.406932e-01 -5.612443e-01 -2.726304e-01 -8.031058e-02 -2.029141e-01 -4.438854e-01
<VARIANCE> 39
 1.196212e+01 1.630830e+01 2.168764e+01 2.198990e+01 2.694223e+01 3.249904e+01 3.852401e+01 3.993451e+01 3.848048e+01 4.264406e+01 4.588423e+01 4.745930e+01 2.713505e+01 2.819401e+00 2.123882e+00 2.650512e+00 3.016209e+00 4.764216e+00 5.558370e+00 6.239633e+00 5.381929e+00 5.637997e+00 4.996046e+00 5.459586e+00 6.625164e+00 2.265662e+00 3.161132e-01 2.855841e-01 3.118373e-01 3.276821e-01 4.578439e-01 5.013724e-01 5.870848e-01 7.212197e-01 6.493205e-01 6.243889e-01 6.596966e-01 6.792724e-01 3.386853e-01
<GCONST> 1.242194e+02
<MIXTURE> 8 5.949546e-02
<MEAN> 39
 -2.060308e+00 -8.582514e-01 -3.293656e-01 -5.062164e-01 3.956547e-02 5.506172e-01 3.793495e+00 3.781787e-01 -1.553366e+00 -2.010582e+00 -6.888378e-01 -6.223035e-01 1.607086e+00 9.521110e-02 -8.822778e-02 4.300483e-02 -1.544352e-01 -1.335523e-01 1.529876e-01 1.573570e-01 3.906544e-02 -5.582014e-02 -2.295621e-02 -5.612633e-02 -5.560873e-02 -6.510463e-02 3.182974e-02 9.220039e-03 3.835233e-02 2.359237e-02 -1.329494e-02 -3.288182e-02 -1.192172e-02 3.822763e-02 3.251554e-02 3.635357e-02 7.278594e-03 4.807527e-03 -2.919485e-02
<VARIANCE> 39
 4.062275e+01 2.961491e+01 3.503101e+01 4.107622e+01 6.990549e+01 6.424619e+01 9.265783e+01 5.414533e+01 5.811625e+01 6.093222e+01 4.826512e+01 5.891454e+01 4.733674e+01 3.858366e-01 5.272015e-01 7.931607e-01 9.597066e-01 1.480097e+00 1.868543e+00 1.987476e+00 1.996467e+00 2.075827e+00 1.805957e+00 1.835570e+00 2.314851e+00 3.261631e-01 4.921347e-02 7.565203e-02 1.120602e-01 1.484033e-01 2.089876e-01 2.798088e-01 3.305802e-01 3.098536e-01 3.248153e-01 3.128471e-01 3.127505e-01 4.226108e-01 2.896745e-02
<GCONST> 1.024729e+02
<STATE> 5
<NUMMIXES> 8
<MIXTURE> 1 1.249094e-01
<MEAN> 39
 -4.397399e-01 2.106475e+00 1.333533e+00 2.567485e+00 -1.180573e+00 -1.284919e+00 5.163850e-01 -8.872481e-01 2.414253e-02 -4.924255e-01 1.073783e-01 -3.151624e-01 -7.456006e-01 1.918748e-01 -1.095048e-01 -1.438485e-02 -5.353401e-02 1.472065e-04 7.564957e-02 5.591704e-02 4.359995e-02 2.360796e-02 1.249878e-02 3.573158e-02 -5.672366e-04 -8.349532e-02 -4.349860e-02 1.029504e-03 4.520325e-04 1.975212e-02 4.329434e-02 -3.689538e-02 7.292919e-03 4.915502e-02 3.256770e-02 4.868362e-04 2.272987e-02 2.855715e-02 3.011868e-03
<VARIANCE> 39
 3.770000e+01 3.897439e+01 3.900036e+01 3.851567e+01 5.595024e+01 4.102274e+01 4.597707e+01 4.167017e+01 4.222573e+01 4.170462e+01 4.272487e+01 4.117698e+01 7.451744e+01 5.732347e-01 7.188466e-01 9.785528e-01 1.117856e+00 1.349222e+00 1.643004e+00 1.694088e+00 1.849915e+00 1.867393e+00 1.757104e+00 1.677296e+00 1.504187e+00 5.340671e-01 1.175718e-01 1.246108e-01 1.720077e-01 1.974873e-01 2.600993e-01 3.055891e-01 3.470823e-01 3.388038e-01 3.367089e-01 3.336598e-01 3.164782e-01 3.015829e-01 1.075819e-01
<GCONST> 1.044230e+02
<MIXTURE> 2 9.550757e-02
<MEAN> 39
 2.898893e+00 -2.854895e+00 -3.756684e-02 -6.202119e+00 -5.899778e+00 -8.212225e+00 -1.436704e-01 5.348177e+00 1.594120e+00 -7.247740e-01 -1.406111e+00 8.175120e-01 7.795802e+00 1.024622e+00 -2.581975e+00 3.980395e-01 -2.839651e+00 2.032014e-01 -1.706011e-01 1.169222e+00 1.798713e+00 -4.346561e-01 -3.165902e-01 -1.047560e+00 8.646420e-02 2.670111e+00 -7.090250e-01 3.550759e-01 5.744524e-02 9.291073e-01 7.094941e-01 1.123935e+00 3.788969e-01 -6.046275e-01 -2.652185e-01 4.403659e-02 4.794947e-02 -2.893997e-01 -9.973972e-01
<VARIANCE> 39
 1.420824e+01 2.351218e+01 5.171410e+01 2.989527e+01 5.194083e+01 5.381746e+01 6.694226e+01 6.261350e+01 6.474950e+01 5.816733e+01 5.594419e+01 6.158211e+01 2.411149e+01 2.070031e+00 2.133311e+00 4.404021e+00 3.988444e+00 5.257407e+00 5.952640e+00 7.283207e+00 6.345162e+00 6.288529e+00 5.956414e+00 5.038167e+00 6.137177e+00 2.561424e+00 3.542562e-01 4.119095e-01 5.996923e-01 4.697474e-01 7.595958e-01 8.155931e-01 1.090402e+00 1.018222e+00 9.384174e-01 8.667443e-01 8.433343e-01 8.979488e-01 3.578496e-01
<GCONST> 1.352148e+02
<MIXTURE> 3 1.095835e-01
<MEAN> 39
 2.663957e+00 5.464970e+00 5.039544e+00 2.596174e+00 -3.390699e+00 -3.926982e+00 -3.534777e+00 -6.600682e+00 -2.004373e+00 -1.800624e+00 -3.776204e+00 -4.257460e+00 -8.112300e-01 1.287147e+00 -5.732253e-01 7.796483e-02 -4.281507e-01 -5.308511e-01 -1.654311e-01 -6.166202e-01 -1.178855e-01 -1.977415e-01 5.007192e-02 -1.077511e-01 -3.172849e-01 9.831359e-01 -4.892260e-01 -3.060215e-01 -3.802493e-01 4.549642e-02 1.816547e-01 3.237627e-01 4.326695e-01 5.687202e-01 2.473227e-01 2.041229e-01 3.392465e-01 2.585719e-01 -1.430904e-01
<VARIANCE> 39
 3.888224e+01 4.640255e+01 7.017832e+01 5.874416e+01 5.811782e+01 5.647408e+01 5.830128e+01 5.208656e+01 4.982000e+01 5.575502e+01 5.832603e+01 5.696856e+01 4.663564e+01 4.345405e+00 4.000113e+00 4.089298e+00 4.830959e+00 4.335421e+00 4.505499e+00 5.060476e+00 5.422140e+00 3.945892e+00 4.124506e+00 4.376637e+00 3.991825e+00 2.984020e+00 5.771565e-01 5.828651e-01 7.103196e-01 7.842575e-01 7.358434e-01 7.932387e-01 8.973390e-01 8.155770e-01 7.451804e-01 7.863840e-01 7.691563e-01 6.446283e-01 4.140018e-01
<GCONST> 1.377178e+02
<MIXTURE> 4 1.711398e-01
<MEAN> 39
 7.709563e-01 3.324453e-01 5.113965e+00 -2.483392e+00 -1.185780e+01 -5.882377e+00 2.715896e+00 2.613990e+00 -4.052488e+00 -4.131296e-01 4.868357e-01 -1.161830e-01 7.433260e+00 -3.122713e-01 -3.833440e-01 8.288416e-01 -1.079738e+00 -2.657700e-01 1.601494e+00 1.168353e+00 1.125615e-01 -7.149625e-01 6.274538e-01 -2.857437e-01 -8.324448e-01 5.117016e-01 -2.601632e-01 3.571947e-01 -2.085592e-01 4.241827e-01 6.666303e-01 4.168983e-01 -9.692429e-02 -5.068262e-01 2.420778e-01 9.974280e-02 -2.033542e-02 -8.934437e-02 -6.162950e-01
<VARIANCE> 39
 9.588486e+00 1.495385e+01 2.498126e+01 2.767277e+01 2.762674e+01 4.066225e+01 3.197302e+01 4.247629e+01 3.760199e+01 4.196910e+01 4.010256e+01 5.127993e+01 1.683771e+01 3.114817e-01 7.558653e-01 9.853985e-01 1.449500e+00 1.782883e+00 1.950855e+00 1.954301e+00 2.486882e+00 2.402091e+00 2.330891e+00 2.644604e+00 2.171483e+00 3.478467e-01 1.295824e-01 1.707416e-01 2.308416e-01 2.641672e-01 3.665316e-01 4.426276e-01 4.597830e-01 5.033506e-01 4.977181e-01 4.960509e-01 4.773402e-01 5.283038e-01 9.588911e-02
<GCONST> 1.043765e+02
<MIXTURE> 5 1.574885e-01
<MEAN> 39
 2.400761e+00 -2.523643e+00 -3.090213e+00 -2.747409e+00 -3.556407e+00 -5.296316e+00 5.385808e-01 7.049917e+00 4.957910e+00 -3.267512e+00 -3.523276e+00 -4.684721e-01 8.847862e+00 -1.652620e-01 -1.213030e+00 -2.511536e-01 -4.897593e-01 5.970057e-01 1.307373e+00 1.652403e+00 1.187675e+00 -3.985768e-01 -7.933519e-01 -2.495035e-01 -2.401106e-01 8.929526e-01 -3.014369e-01 3.452367e-01 2.528779e-01 5.009172e-01 3.374747e-01 3.696712e-01 -3.057802e-02 -7.269345e-01 -5.609910e-01 1.790771e-01 2.897357e-01 5.941430e-02 -6.551387e-01
<VARIANCE> 39
 1.305637e+01 1.809910e+01 2.033601e+01 2.543629e+01 3.923701e+01 4.242065e+01 6.138997e+01 4.199141e+01 5.792764e+01 5.293840e+01 4.294610e+01 5.131588e+01 2.349959e+01 4.950263e-01 1.010697e+00 1.450720e+00 1.653828e+00 2.996895e+00 2.748827e+00 2.953069e+00 3.334257e+00 3.198714e+00 2.772214e+00 2.566761e+00 2.625763e+00 6.150438e-01 1.915596e-01 1.860206e-01 2.356741e-01 3.208514e-01 5.225294e-01 5.185660e-01 7.505237e-01 6.098916e-01 6.455995e-01 6.057089e-01 5.139340e-01 5.557721e-01 1.458745e-01
<GCONST> 1.136082e+02
<MIXTURE> 6 1.665171e-01
<MEAN> 39
 1.998144e+00 1.173509e+00 3.378506e+00 4.658125e-01 -1.228619e+01 -9.543890e+00 -1.408461e+00 1.268333e+00 -1.276279e+00 -2.643352e+00 1.722372e-01 6.821302e-01 6.679066e+00 8.030233e-01 -1.252427e+00 8.202438e-01 -1.685611e+00 -2.262267e+00 -1.404847e-01 6.093269e-01 1.196763e+00 -5.096205e-01 -1.729892e-01 -2.403890e-01 -4.801456e-01 1.843400e+00 -7.348141e-01 6.842217e-02 -2.014433e-01 7.990786e-02 1.060359e+00 1.128731e+00 5.854043e-01 -1.453073e-01 -2.474402e-02 3.673067e-01 1.171046e-02 -2.635094e-01 -7.763541e-01
<VARIANCE> 39
 9.453624e+00 1.355496e+01 2.543109e+01 2.776539e+01 2.535188e+01 3.556175e+01 3.346886e+01 3.432645e+01 3.866249e+01 3.513977e+01 3.635877e+01 3.689306e+01 2.112084e+01 1.357474e+00 1.506641e+00 2.242851e+00 2.550381e+00 3.378704e+00 3.365750e+00 4.113503e+00 3.765223e+00 4.131096e+00 3.804461e+00 4.254860e+00 3.404711e+00 1.131320e+00 2.130852e-01 2.491682e-01 3.373550e-01 4.060243e-01 3.797504e-01 5.298300e-01 5.085117e-01 5.644488e-01 6.305349e-01 5.335615e-01 6.054229e-01 4.866467e-01 1.801708e-01
<GCONST> 1.157882e+02
<MIXTURE> 7 9.438221e-02
<MEAN> 39
 2.446745e+00 5.432765e+00 4.239338e+00 4.440011e+00 -5.557031e+00 -7.634638e+00 -1.007302e+00 -6.287162e-01 -6.049125e-01 -5.365652e-01 3.068665e-01 1.778795e+00 2.892090e+00 2.079294e+00 -1.773922e-01 7.953501e-01 -4.545609e-01 -2.309592e+00 -1.281367e+00 -4.614626e-01 -7.818576e-03 4.083293e-02 -1.158670e-01 3.148402e-02 1.942376e-01 1.537080e+00 -6.968786e-01 -4.569755e-01 -3.769418e-01 -3.040887e-01 2.858126e-01 6.720005e-01 3.557944e-01 9.009480e-02 -5.101583e-02 8.243413e-02 1.072869e-01 -1.262774e-01 -3.009068e-01
<VARIANCE> 39
 1.203958e+01 1.558084e+01 2.100071e+01 2.336042e+01 3.646625e+01 2.668487e+01 2.864184e+01 2.962141e+01 2.855121e+01 2.465127e+01 2.689272e+01 2.295672e+01 2.694574e+01 2.091611e+00 2.232556e+00 2.741573e+00 2.908567e+00 3.619308e+00 3.166862e+00 3.010103e+00 3.100826e+00 3.044028e+00 2.848919e+00 3.017563e+00 2.496574e+00 1.136108e+00 2.120750e-01 1.942184e-01 2.665674e-01 3.118360e-01 3.510495e-01 3.428801e-01 3.444194e-01 3.962826e-01 3.784516e-01 3.294023e-01 3.512453e-01 3.336827e-01 1.175524e-01
<GCONST> 1.094512e+02
<MIXTURE> 8 8.047193e-02
<MEAN> 39
 -2.153758e-01 -1.711395e+00 -5.022014e-03 -2.562608e+00 -8.520949e+00 -6.525530e+00 2.724175e-01 3.822115e+00 3.008728e+00 6.565212e+00 1.151611e+01 1.334371e+01 6.714417e+00 1.641313e-01 -1.754544e+00 8.306201e-01 -1.377744e+00 -3.941404e-01 2.449638e-01 5.028242e-01 6.617221e-01 -1.202285e+00 8.717706e-01 1.330133e+00 2.373774e+00 1.908016e+00 -4.449602e-01 3.061605e-01 6.637527e-02 4.680486e-01 6.651717e-01 7.549761e-01 2.471602e-01 -6.185579e-01 -4.636237e-01 -4.945099e-01 -9.244322e-01 -1.268036e+00 -8.058227e-01
<VARIANCE> 39
 1.180809e+01 1.868961e+01 2.921830e+01 2.837634e+01 4.064888e+01 4.673687e+01 4.180422e+01 4.784681e+01 5.830989e+01 6.316214e+01 5.193203e+01 5.563590e+01 2.050998e+01 1.794705e+00 1.743265e+00 2.616092e+00 3.331094e+00 4.297855e+00 4.608965e+00 4.332277e+00 4.579031e+00 4.408448e+00 5.717252e+00 6.265049e+00 6.564235e+00 1.530544e+00 2.918555e-01 2.804101e-01 3.698910e-01 4.733764e-01 5.944319e-01 7.017882e-01 5.638667e-01 7.853914e-01 8.114015e-01 8.421844e-01 7.354316e-01 7.180769e-01 2.050624e-01
<GCONST> 1.262567e+02
<TRANSP> 6
 0.000000e+00 1.000000e+00 0.000000e+00 0.000000e+00 0.000000e+00 0.000000e+00
 0.000000e+00 7.750442e-01 2.249558e-01 0.000000e+00 0.000000e+00 0.000000e+00
 0.000000e+00 0.000000e+00 8.561212e-01 1.438788e-01 0.000000e+00 0.000000e+00
 0.000000e+00 0.000000e+00 0.000000e+00 6.314170e-01 3.685830e-01 0.000000e+00
 0.000000e+00 0.000000e+00 0.000000e+00 0.000000e+00 5.987167e-01 4.012833e-01
 0.000000e+00 0.000000e+00 0.000000e+00 0.000000e+00 0.000000e+00 0.000000e+00
<ENDHMM>
