~o
<STREAMINFO> 1 39
<VECSIZE> 39<NULLD><MFCC_D_A_Z_0><DIAGC>
~h "aa"
<BEGINHMM>
<NUMSTATES> 6
<STATE> 2
<NUMMIXES> 4
<MIXTURE> 1 2.869516e-01
<MEAN> 39
 4.085801e-01 -6.138698e+00 -4.513366e+00 1.975319e+00 3.709539e+00 3.174251e+00 6.661489e+00 -7.676325e+00 1.506513e+00 2.211582e+00 1.384449e+01 1.397408e+01 1.216873e+01 6.722640e-03 -2.063136e-02 -1.723706e-02 3.830345e-02 -8.292952e-04 -1.207954e-02 9.159942e-03 -1.135631e-02 3.115495e-02 1.764381e-02 6.801992e-02 5.988456e-03 -2.239027e-02 2.891443e-03 3.513999e-03 -1.704212e-02 -2.547236e-02 -3.307948e-02 -9.032533e-03 -3.082204e-03 2.189205e-02 -4.397440e-02 1.055945e-03 -2.823213e-02 -1.351718e-02 -1.050669e-02
<VARIANCE> 39
 1.099802e+01 2.315723e+01 2.194294e+01 7.522604e+01 4.624426e+01 1.077081e+02 8.945862e+01 5.824624e+01 7.782894e+01 1.093614e+02 8.839482e+01 9.208442e+01 2.180840e+01 1.645249e-01 3.386515e-01 4.772474e-01 7.314402e-01 8.251913e-01 8.900275e-01 1.081978e+00 1.062439e+00 1.080953e+00 1.120248e+00 1.190179e+00 1.138747e+00 5.365906e-02 3.152059e-02 6.261263e-02 9.234218e-02 1.300576e-01 1.546461e-01 1.704395e-01 2.019294e-01 1.983739e-01 2.022863e-01 2.025481e-01 1.995898e-01 2.001554e-01 8.824184e-03
<GCONST> 8.764645e+01
<MIXTURE> 2 2.657788e-01
<MEAN> 39
 6.347042e-01 -6.078450e+00 -2.579624e+00 -2.503644e-01 1.016053e+00 6.829077e+00 3.713122e+00 -6.163304e+00 -2.179229e+00 1.801808e+00 2.331478e+00 4.504531e+00 1.220368e+01 -5.838157e-02 -4.032270e-01 -1.727212e-01 6.982816e-01 3.896315e-01 -7.365070e-03 -7.818322e-02 -1.850964e-01 -1.237155e-01 1.224406e-01 3.046359e-01 -4.197199e-02 9.409526e-02 6.527105e-02 1.613043e-01 5.783492e-02 -3.997066e-02 -1.065937e-01 -2.865643e-01 -6.078428e-02 1.983635e-01 1.082678e-01 -8.485728e-02 -3.251926e-02 -6.244034e-02 -1.426880e-01
<VARIANCE> 39
 1.352421e+01 3.700615e+01 2.230838e+01 7.344822e+01 5.491930e+01 6.071342e+01 7.473359e+01 6.618917e+01 7.390374e+01 7.935461e+01 1.173195e+02 1.179044e+02 3.218222e+01 4.041623e-01 8.562602e-01 1.012352e+00 2.206994e+00 2.005957e+00 2.516484e+00 2.489034e+00 2.602394e+00 2.690134e+00 2.960412e+00 2.575103e+00 2.703353e+00 2.532799e-01 6.447176e-02 1.343841e-01 1.691581e-01 2.720511e-01 3.313206e-01 4.422513e-01 4.398125e-01 4.329825e-01 4.710467e-01 4.660804e-01 4.586985e-01 4.787060e-01 5.869059e-02
<GCONST> 1.121938e+02
<MIXTURE> 3 2.711002e-01
<MEAN> 39
 4.529501e+00 -6.637938e+00 -1.225090e+01 9.768095e+00 2.823836e+00 -4.365392e+00 5.433091e+00 3.902609e-01 -1.869919e+00 -7.842639e+00 1.724508e+00 3.042007e-01 1.157150e+01 1.495815e-02 -6.524041e-02 -1.370836e-01 2.626750e-01 5.110392e-02 2.956462e-02 -1.644863e-01 -6.741913e-02 1.859366e-01 -2.190888e-01 1.074284e-01 4.366400e-02 -2.543406e-02 -5.153808e-04 5.332631e-02 1.021189e-01 -1.120825e-01 -6.152903e-02 7.215865e-02 -2.242785e-02 -4.036063e-02 6.818145e-03 9.129328e-02 -5.240019e-02 -2.596877e-02 -4.008191e-02
<VARIANCE> 39
 1.049051e+01 1.423878e+01 2.573521e+01 4.135064e+01 5.290168e+01 4.555650e+01 6.334621e+01 6.913152e+01 5.743188e+01 5.126115e+01 4.992767e+01 7.322212e+01 1.833643e+01 2.716017e-01 4.819396e-01 8.761222e-01 1.200346e+00 1.533861e+00 1.850289e+00 2.043973e+00 2.237822e+00 2.045448e+00 2.003265e+00 2.069927e+00 1.849488e+00 2.054816e-01 4.240930e-02 8.035015e-02 1.435096e-01 2.012204e-01 2.574829e-01 3.107328e-01 3.532967e-01 3.864568e-01 3.485991e-01 3.459127e-01 3.532624e-01 3.183195e-01 3.023112e-02
<GCONST> 9.913426e+01
<MIXTURE> 4 1.761694e-01
<MEAN> 39
 3.431826e+00 -3.486640e+00 -4.480348e+00 -1.538726e+00 -1.568886e+00 1.189457e+00 4.768246e+00 5.594872e-01 -3.919424e-01 -1.061017e+00 -1.688410e+00 -1.027771e+00 1.064185e+01 -2.448675e-01 -1.056326e+00 -8.226394e-01 6.293758e-01 8.069545e-01 8.898796e-01 8.056141e-01 -3.134198e-01 -3.508150e-01 -2.185824e-01 2.720199e-01 1.220707e-01 1.073566e+00 -2.468123e-01 2.323675e-01 3.037620e-01 3.326741e-01 1.823631e-01 -1.630256e-01 -4.115269e-01 -5.598335e-02 2.479343e-02 8.992155e-02 1.939811e-01 1.150893e-01 -5.219217e-01
<VARIANCE> 39
 1.938171e+01 3.612192e+01 4.841188e+01 7.158250e+01 6.477487e+01 7.049894e+01 7.905063e+01 8.130241e+01 9.222237e+01 8.995733e+01 9.597795e+01 9.900797e+01 3.210560e+01 1.147413e+00 1.993474e+00 2.323745e+00 3.531698e+00 3.507403e+00 4.902646e+00 5.047646e+00 5.297446e+00 5.075449e+00 5.352374e+00 4.963737e+00 5.243260e+00 1.421201e+00 3.112887e-01 2.952486e-01 3.926056e-01 5.650208e-01 6.617496e-01 8.763824e-01 9.556692e-01 8.761182e-01 9.504405e-01 9.635770e-01 9.420801e-01 8.346716e-01 2.394816e-01
<GCONST> 1.348286e+02
<STATE> 3
<NUMMIXES> 4
<MIXTURE> 1 1.825638e-01
<MEAN> 39
 -1.726375e+00 -5.573204e+00 -2.834109e+00 5.694221e+00 5.420388e+00 8.792529e+00 8.689092e+00 -6.576826e+00 -2.750582e+00 2.925408e+00 7.502365e+00 9.281640e+00 1.267384e+01 9.761002e-04 4.310719e-03 -1.434041e-02 1.399860e-02 1.214976e-02 -2.468328e-02 1.719219e-02 7.804682e-03 -2.062964e-04 -2.689364e-02 3.205616e-02 1.544526e-02 -9.707656e-03 -1.899846e-03 -1.587378e-03 -9.951149e-03 -1.310475e-02 -1.671734e-02 -3.937788e-03 -1.718003e-03 -7.282380e-03 -1.751685e-03 -1.192917e-02 -9.016304e-03 -9.092249e-03 -4.124981e-03
<VARIANCE> 39
 6.835826e+00 2.538444e+01 1.406446e+01 5.063452e+01 3.761871e+01 6.332312e+01 9.791251e+01 6.886404e+01 1.527044e+02 1.776118e+02 9.701604e+01 1.992255e+02 8.365055e+00 5.898314e-02 1.110553e-01 1.546334e-01 2.195716e-01 2.206475e-01 2.880733e-01 3.173368e-01 3.501571e-01 3.560084e-01 3.877638e-01 4.199137e-01 3.855827e-01 1.534549e-02 9.829245e-03 1.984151e-02 2.786057e-02 3.668219e-02 3.974145e-02 5.316114e-02 5.880887e-02 6.329389e-02 6.166308e-02 6.822450e-02 6.982142e-02 7.050871e-02 2.494750e-03
<GCONST> 5.689356e+01
<MIXTURE> 2 3.709100e-01
<MEAN> 39
 7.726642e-02 -9.213634e+00 -4.527475e+00 7.994197e+00 1.753495e+00 4.513023e+00 5.531447e+00 -7.144147e+00 -3.528873e+00 1.343895e+00 3.821052e-01 -2.747172e-01 1.306803e+01 3.995932e-02 4.740014e-03 -1.382054e-02 2.834847e-02 -2.452981e-03 -3.579934e-02 -3.423208e-02 -1.093980e-02 9.377678e-03 -8.777867e-02 4.058900e-02 -1.619642e-02 -5.633621e-02 2.288545e-02 4.467693e-02 -8.578065e-04 -6.704558e-02 -1.483157e-02 3.866010e-04 2.360955e-02 4.901369e-02 1.272106e-02 -4.688507e-02 -4.058632e-03 3.331196e-02 -2.010055e-02
<VARIANCE> 39
 1.211795e+01 1.367239e+01 1.983219e+01 3.598011e+01 3.950899e+01 4.374173e+01 4.924619e+01 6.442720e+01 5.352948e+01 6.156152e+01 5.488309e+01 5.142785e+01 1.546581e+01 1.641539e-01 3.137658e-01 4.884486e-01 8.654470e-01 7.927064e-01 9.450435e-01 1.023719e+00 1.135791e+00 1.035179e+00 1.112168e+00 1.012198e+00 1.019093e+00 6.584729e-02 2.793659e-02 5.549022e-02 8.139548e-02 1.315076e-01 1.411070e-01 1.604993e-01 1.807849e-01 1.977264e-01 1.787099e-01 1.870200e-01 1.695506e-01 1.691472e-01 1.081191e-02
<GCONST> 8.154263e+01
<MIXTURE> 3 2.825513e-01
<MEAN> 39
 3.192080e+00 -6.346670e+00 -1.270923e+01 1.173174e+01 2.227992e+00 -2.917103e-01 3.661145e+00 2.578345e+00 -9.774075e-01 -7.932888e+00 2.655848e+00 1.149555e+00 1.202927e+01 1.285371e-02 2.760186e-03 -1.484242e-02 -1.667612e-02 -1.515621e-02 4.843761e-04 -3.397044e-02 -7.881504e-03 1.584538e-02 -1.869415e-02 -5.337655e-03 -4.716087e-02 -1.940205e-02 -1.299258e-03 -2.689021e-03 1.586887e-02 -3.354741e-02 -1.221555e-02 -4.115501e-03 4.520331e-03 -1.907993e-02 -2.106645e-02 1.774366e-02 -2.111776e-02 -1.290557e-02 -4.676438e-03
<VARIANCE> 39
 1.059618e+01 1.107122e+01 2.115481e+01 3.805970e+01 4.834310e+01 3.853020e+01 5.558687e+01 4.545890e+01 5.649713e+01 4.030214e+01 4.425394e+01 4.788462e+01 1.762491e+01 6.889922e-02 1.374408e-01 2.468858e-01 3.253638e-01 4.139587e-01 4.634761e-01 5.591300e-01 5.922833e-01 5.572838e-01 5.859118e-01 5.013449e-01 4.692774e-01 2.864515e-02 1.072452e-02 2.323628e-02 4.109515e-02 5.544210e-02 7.291178e-02 8.327749e-02 9.530047e-02 9.982979e-02 9.466151e-02 1.034669e-01 8.723181e-02 8.324552e-02 3.909092e-03
<GCONST> 6.146355e+01
<MIXTURE> 4 1.639748e-01
<MEAN> 39
 1.671363e+00 -3.431799e+00 -3.725142e+00 9.563348e-01 6.107967e-01 3.145508e+00 4.790850e+00 4.233046e+00 9.922565e+00 6.159453e+00 1.383527e+00 -7.510707e+00 8.437241e+00 3.583604e-02 1.249927e-02 -8.803191e-03 4.086874e-02 9.241753e-02 -8.274829e-02 -3.844854e-02 4.003189e-02 1.808120e-02 -6.161118e-02 -1.818546e-02 -5.126267e-02 -7.524861e-02 1.681998e-03 8.309858e-02 7.253935e-02 1.968413e-02 -7.196704e-02 -9.199359e-02 -1.555164e-02 7.219064e-03 -5.775046e-02 2.066074e-03 1.445497e-03 5.982374e-02 -9.191532e-02
<VARIANCE> 39
 2.309562e+01 3.807868e+01 4.074722e+01 8.446506e+01 5.526395e+01 9.251091e+01 1.105017e+02 1.621834e+02 2.106840e+02 2.380016e+02 2.269808e+02 2.635883e+02 2.867435e+01 4.054588e-01 6.964744e-01 9.810292e-01 1.487244e+00 1.554783e+00 1.889984e+00 1.898350e+00 2.211005e+00 2.140766e+00 2.651042e+00 2.652489e+00 2.390734e+00 2.833427e-01 6.773911e-02 1.309677e-01 1.790310e-01 2.435604e-01 3.104215e-01 3.587638e-01 4.022055e-01 4.134234e-01 4.220535e-01 4.593559e-01 4.443181e-01 4.502068e-01 7.441457e-02
<GCONST> 1.163647e+02
<STATE> 4
<NUMMIXES> 4
<MIXTURE> 1 2.529389e-01
<MEAN> 39
 4.798007e+00 -2.442800e+00 -7.187317e+00 5.769105e-01 2.149040e+00 3.748401e-01 9.342327e-01 -1.721738e+00 7.127650e-01 -3.564156e+00 -1.234810e+00 -2.459821e+00 8.671489e+00 8.239795e-02 1.811779e-01 1.173542e-01 -5.410270e-02 -1.704408e-01 -2.702431e-01 -1.553495e-02 9.057982e-02 -1.256299e-01 -9.903238e-02 1.513093e-02 6.675733e-02 -2.312105e-01 1.262664e-02 7.114537e-02 9.052735e-02 -1.579424e-02 -8.508940e-02 -7.804969e-02 -1.191118e-02 1.642351e-02 -3.666923e-02 5.937559e-02 2.123648e-04 1.639253e-02 -7.827166e-02
<VARIANCE> 39
 2.783574e+01 3.640276e+01 7.348492e+01 9.308369e+01 6.243787e+01 7.668927e+01 7.105660e+01 8.604349e+01 8.394107e+01 8.918427e+01 8.792562e+01 1.030483e+02 2.990985e+01 3.785369e-01 7.751157e-01 1.193747e+00 1.689482e+00 1.848320e+00 2.317419e+00 2.539090e+00 2.600010e+00 2.712027e+00 2.783922e+00 2.487420e+00 2.506296e+00 3.654133e-01 5.837583e-02 1.262095e-01 1.992236e-01 2.687469e-01 3.306225e-01 4.020232e-01 4.098527e-01 4.385546e-01 4.557425e-01 4.776263e-01 4.173146e-01 4.219019e-01 5.780148e-02
<GCONST> 1.140294e+02
<MIXTURE> 2 4.111640e-01
<MEAN> 39
 7.878875e+00 -1.910600e+00 -1.248554e+01 5.043527e+00 4.202736e+00 -2.346221e+00 1.050396e+00 -1.046047e+00 1.510419e+00 -6.042959e+00 -8.291138e-01 -5.875938e+00 7.565784e+00 2.952958e-02 4.981844e-02 3.919371e-02 -6.249845e-02 -2.363001e-02 -1.498925e-02 -4.299228e-02 -1.604701e-02 2.025723e-03 7.614105e-03 -2.721077e-02 -2.944572e-02 -6.327520e-02 -6.036125e-03 9.995671e-04 2.693305e-02 -1.621399e-02 -1.581920e-02 -6.776514e-03 1.045866e-02 3.154093e-03 -1.657999e-02 9.722234e-03 -8.535894e-03 1.592420e-02 -3.384908e-03
<VARIANCE> 39
 1.138239e+01 1.503361e+01 3.295756e+01 3.912099e+01 3.908848e+01 5.780350e+01 6.160664e+01 5.726818e+01 5.939062e+01 5.045346e+01 4.839669e+01 4.577602e+01 1.485084e+01 1.065022e-01 2.484729e-01 4.116536e-01 5.728964e-01 7.154972e-01 8.673269e-01 9.503271e-01 1.045162e+00 1.047005e+00 1.047052e+00 1.008713e+00 8.923422e-01 6.124975e-02 1.791727e-02 4.340089e-02 6.998055e-02 1.003765e-01 1.334746e-01 1.623091e-01 1.710897e-01 1.937087e-01 1.864682e-01 1.931074e-01 1.859881e-01 1.661010e-01 8.104869e-03
<GCONST> 7.893941e+01
<MIXTURE> 3 2.112890e-01
<MEAN> 39
 1.077184e+00 1.308296e+00 -1.635852e+00 -1.122472e+01 4.020619e+00 6.015924e+00 -5.173633e-01 -2.730908e+00 1.499766e+00 -5.255219e+00 -3.025635e+00 -6.793168e-01 1.030775e+01 3.622209e-02 4.362116e-02 7.201698e-03 8.838654e-04 -6.569728e-02 -7.928301e-02 1.365458e-02 2.087323e-02 -4.427318e-02 7.877435e-02 -4.491967e-02 -6.840700e-02 -7.821043e-02 1.344243e-02 -3.290457e-03 4.308227e-03 1.989300e-02 -4.384133e-02 -2.821512e-02 1.463686e-02 -4.457460e-03 -1.317823e-02 4.814545e-03 -2.029353e-03 -1.235767e-02 -1.709172e-02
<VARIANCE> 39
 1.459354e+01 3.144662e+01 1.502135e+01 4.002665e+01 4.163675e+01 5.870631e+01 3.860123e+01 8.209035e+01 4.207246e+01 5.467762e+01 4.381753e+01 5.370924e+01 2.594768e+01 8.996433e-02 2.690374e-01 2.809480e-01 4.975453e-01 5.573818e-01 7.672873e-01 7.459883e-01 8.831277e-01 7.728223e-01 8.112632e-01 7.039621e-01 7.269989e-01 5.374871e-02 1.424888e-02 3.567272e-02 4.989917e-02 7.649287e-02 9.709512e-02 1.234723e-01 1.274467e-01 1.432869e-01 1.328588e-01 1.352492e-01 1.221626e-01 1.238196e-01 6.913097e-03
<GCONST> 7.304821e+01
<MIXTURE> 4 1.246081e-01
<MEAN> 39
 5.693450e+00 -6.490730e+00 -5.774137e+00 3.762530e+00 -1.494758e-01 2.424873e+00 8.408881e+00 -3.339394e+00 -6.624522e+00 5.863901e-01 -2.771692e+00 -2.799810e+00 1.094521e+01 1.815284e-02 4.020645e-02 5.393622e-02 -4.828640e-02 -2.221331e-03 -4.426882e-03 1.150636e-02 -9.121532e-03 3.277247e-02 6.042741e-03 -3.092807e-02 -1.950401e-03 -4.420399e-02 9.061028e-04 1.949407e-02 -8.840110e-03 -2.333041e-02 7.944435e-04 -1.532131e-02 -1.961552e-02 7.258951e-03 2.494675e-02 -3.022114e-02 -5.947552e-03 -4.487057e-03 -9.045016e-03
<VARIANCE> 39
 5.504510e+00 1.360066e+01 1.862766e+01 2.656813e+01 4.258059e+01 3.203158e+01 2.629260e+01 1.084028e+02 3.583455e+01 4.391393e+01 5.511089e+01 5.571723e+01 2.337717e+01 6.069801e-02 1.416895e-01 2.381528e-01 3.603166e-01 3.763219e-01 4.873694e-01 5.242656e-01 6.180892e-01 6.149604e-01 6.904582e-01 5.829682e-01 5.315654e-01 3.043374e-02 9.461856e-03 2.120540e-02 3.757440e-02 5.499338e-02 6.121381e-02 7.994556e-02 8.738541e-02 1.002121e-01 1.053466e-01 1.169496e-01 9.945922e-02 8.705422e-02 4.233828e-03
<GCONST> 6.099414e+01
<STATE> 5
<NUMMIXES> 4
<MIXTURE> 1 4.086442e-01
<MEAN> 39
 3.942681e+00 -9.350718e+00 -8.805619e+00 1.129067e+01 2.588337e+00 4.917086e-01 7.694746e+00 -1.873907e+00 -5.835061e+00 -1.321970e+00 1.019463e+01 1.164987e+01 1.070062e+01 2.347948e-02 4.189344e-02 4.815915e-02 -7.645494e-02 -4.902295e-02 -1.239048e-02 5.355236e-03 4.054791e-02 2.362931e-02 5.982817e-02 -1.143104e-02 5.566303e-02 -5.524495e-02 -4.290502e-03 1.324288e-02 1.380563e-02 -6.825806e-02 -3.627202e-02 9.441434e-03 -2.151220e-02 -2.219420e-02 1.675169e-02 5.463882e-03 -4.193240e-02 -4.148136e-02 -1.218089e-02
<VARIANCE> 39
 1.034176e+01 1.524455e+01 2.675684e+01 5.199201e+01 3.899078e+01 5.472786e+01 4.683720e+01 6.808050e+01 4.837462e+01 8.372794e+01 1.242931e+02 1.203920e+02 1.118821e+01 2.035062e-01 3.818319e-01 6.270897e-01 8.606020e-01 9.231504e-01 1.264241e+00 1.355426e+00 1.317180e+00 1.326254e+00 1.612891e+00 1.579836e+00 1.404293e+00 9.242426e-02 3.409106e-02 7.017028e-02 1.092796e-01 1.558824e-01 1.699865e-01 2.357329e-01 2.415173e-01 2.437297e-01 2.416727e-01 2.830932e-01 2.735450e-01 2.451727e-01 1.371493e-02
<GCONST> 9.095058e+01
<MIXTURE> 2 2.063175e-01
<MEAN> 39
 4.643649e+00 1.660354e+00 -8.080106e-01 -2.273094e+00 -2.106871e+00 -3.056683e+00 -9.064934e-01 -1.072068e+00 -1.420088e+00 -2.856133e+00 -2.860218e+00 -2.700648e+00 3.526354e+00 -1.484629e-01 9.586489e-01 9.432963e-01 3.812691e-01 -2.696919e-02 -7.774336e-01 -8.214533e-01 -2.579332e-02 -4.032848e-01 8.942656e-02 2.315563e-02 7.750770e-02 -1.227630e+00 -2.027633e-01 -1.550388e-01 -9.368853e-02 1.408672e-01 1.914753e-01 2.797134e-01 1.421678e-01 -2.998625e-02 -1.067431e-02 4.790395e-02 1.225674e-01 1.358280e-01 7.021289e-02
<VARIANCE> 39
 2.238405e+01 3.543865e+01 3.872878e+01 7.375770e+01 5.223676e+01 5.689367e+01 5.897900e+01 6.974334e+01 5.554377e+01 6.199276e+01 5.162358e+01 5.937658e+01 3.283720e+01 1.284339e+00 1.586256e+00 2.134976e+00 2.566835e+00 2.587849e+00 3.772675e+00 3.792735e+00 3.557137e+00 3.555066e+00 3.505237e+00 3.092779e+00 2.848478e+00 1.476594e+00 1.576249e-01 2.051505e-01 3.128034e-01 4.389122e-01 4.833660e-01 5.773541e-01 6.196101e-01 6.368300e-01 6.010786e-01 5.894341e-01 5.084667e-01 4.845279e-01 1.638224e-01
<GCONST> 1.228040e+02
<MIXTURE> 3 2.145856e-01
<MEAN> 39
 2.506714e+00 -6.433619e+00 -4.060114e+00 1.985129e+00 -1.449081e+00 3.452925e+00 6.184250e+00 -4.854068e+00 -3.823985e+00 -2.026759e+00 -1.071329e+00 -4.325763e-01 1.057454e+01 4.603298e-01 8.928976e-01 6.197925e-01 -1.083750e+00 -7.989106e-01 -9.466928e-01 -8.190814e-02 4.848928e-01 1.365116e-01 -1.099398e-01 -4.124803e-01 -2.993256e-01 -8.576566e-01 9.084456e-02 3.065144e-01 2.759165e-01 2.514087e-02 -2.124710e-02 -4.051688e-01 -3.895252e-01 6.979074e-02 6.499927e-02 5.766300e-02 2.287480e-02 -6.992622e-02 -3.445386e-01
<VARIANCE> 39
 1.464887e+01 2.033118e+01 2.892984e+01 6.084627e+01 4.400729e+01 5.776073e+01 5.184091e+01 5.973208e+01 4.840008e+01 5.467501e+01 5.694459e+01 6.060119e+01 1.968998e+01 3.744569e-01 8.682457e-01 1.527212e+00 2.282948e+00 2.137683e+00 3.209922e+00 3.113590e+00 3.590382e+00 2.963180e+00 3.062150e+00 2.305248e+00 2.519521e+00 4.418690e-01 6.364565e-02 1.205387e-01 1.979154e-01 3.174165e-01 3.325504e-01 4.531575e-01 4.863386e-01 5.007899e-01 4.310151e-01 4.667264e-01 4.247989e-01 4.028511e-01 8.288384e-02
<GCONST> 1.105445e+02
<MIXTURE> 4 1.704527e-01
<MEAN> 39
 3.034075e+00 -5.405671e+00 -5.395939e+00 2.011653e+00 -1.288089e+00 4.190278e-01 5.133125e+00 2.752430e+00 2.666140e+00 2.429954e+00 5.295842e+00 3.174246e+00 8.848441e+00 1.705403e-01 5.670098e-01 5.822342e-01 -3.830025e-01 -8.041285e-01 -1.053159e+00 -7.118655e-01 -1.544299e-01 -2.429074e-01 9.709103e-02 -9.114242e-02 -1.387369e-03 -8.934573e-01 -6.020213e-02 1.107775e-01 1.412546e-01 5.168479e-02 4.661174e-02 -6.234187e-02 -2.719562e-01 -3.012128e-01 -1.133834e-01 1.252661e-02 -1.369922e-01 -8.941512e-02 -1.723362e-01
<VARIANCE> 39
 1.818246e+01 2.971463e+01 4.871473e+01 8.495974e+01 6.103478e+01 8.116515e+01 9.048788e+01 1.167217e+02 1.507387e+02 1.742501e+02 1.931936e+02 2.280540e+02 2.679259e+01 9.882577e-01 1.744379e+00 2.587026e+00 3.567701e+00 4.096519e+00 4.754279e+00 5.741040e+00 5.413902e+00 5.455252e+00 6.380877e+00 6.543996e+00 6.837934e+00 1.304048e+00 1.391327e-01 2.241085e-01 3.809163e-01 5.859278e-01 6.511105e-01 7.768243e-01 9.044160e-01 9.933973e-01 1.005845e+00 1.033525e+00 1.036817e+00 1.095273e+00 1.571208e-01
<GCONST> 1.375759e+02
<TRANSP> 6
 0.000000e+00 1.000000e+00 0.000000e+00 0.000000e+00 0.000000e+00 0.000000e+00
 0.000000e+00 8.366795e-01 1.633205e-01 0.000000e+00 0.000000e+00 0.000000e+00
 0.000000e+00 0.000000e+00 8.926093e-01 1.073907e-01 0.000000e+00 0.000000e+00
 0.000000e+00 0.000000e+00 0.000000e+00 8.839673e-01 1.160327e-01 0.000000e+00
 0.000000e+00 0.000000e+00 0.000000e+00 0.000000e+00 7.625287e-01 2.374713e-01
 0.000000e+00 0.000000e+00 0.000000e+00 0.000000e+00 0.000000e+00 0.000000e+00
<ENDHMM>
