~o
<STREAMINFO> 1 39
<VECSIZE> 39<NULLD><MFCC_D_A_Z_0><DIAGC>
~h "aw"
<BEGINHMM>
<NUMSTATES> 6
<STATE> 2
<NUMMIXES> 4
<MIXTURE> 1 2.008978e-01
<MEAN> 39
 1.814554e+00 -7.107219e+00 -7.005472e+00 6.891542e+00 2.745038e+00 -1.068001e+00 5.905213e+00 -3.769978e-01 -5.937003e+00 -3.133315e+00 6.388221e-01 1.993641e+00 1.120457e+01 5.459745e-02 -4.724307e-02 -2.380666e-01 7.370577e-02 7.796184e-02 -2.291185e-01 -2.079830e-01 -2.846177e-02 -3.364532e-02 -2.970057e-01 -6.936783e-02 4.138279e-02 -7.687241e-02 2.101997e-02 7.343152e-02 1.148604e-01 -1.195191e-01 -2.002631e-02 1.446508e-01 -2.704618e-02 -6.554612e-02 1.669172e-01 4.591819e-02 -4.683718e-02 1.174338e-02 -3.696077e-02
<VARIANCE> 39
 2.289810e+01 3.419590e+01 4.221568e+01 5.418615e+01 5.396614e+01 5.210320e+01 8.714539e+01 7.334830e+01 6.330178e+01 8.376941e+01 5.657659e+01 8.799738e+01 3.404808e+01 4.299265e-01 7.212563e-01 1.195357e+00 1.781759e+00 1.841122e+00 2.210963e+00 2.481711e+00 3.032552e+00 2.511150e+00 3.113463e+00 3.031426e+00 2.469143e+00 3.031230e-01 7.046343e-02 1.202831e-01 1.649913e-01 3.050441e-01 3.468051e-01 3.709081e-01 4.367665e-01 4.752536e-01 4.608186e-01 5.171226e-01 4.943328e-01 4.037487e-01 4.472721e-02
<GCONST> 1.117440e+02
<MIXTURE> 2 4.745736e-01
<MEAN> 39
 -1.609976e+00 -1.028226e+01 6.636633e-01 6.110625e+00 2.940700e+00 4.496050e+00 8.718968e-01 -9.399105e+00 1.018761e-01 2.266112e+00 -2.023532e+00 1.280569e+00 1.367196e+01 4.569691e-02 -8.309734e-02 -1.957996e-02 2.431580e-01 -8.245406e-02 -1.110997e-01 -7.037927e-03 -8.163135e-02 1.938806e-02 -2.320860e-03 8.724152e-02 -4.105227e-02 -6.172964e-02 3.570708e-02 5.628866e-02 -5.540368e-02 -7.618693e-02 -1.996307e-02 -7.442679e-03 5.142955e-02 4.409157e-02 -5.858881e-02 -7.166421e-02 4.935969e-02 3.811543e-03 -2.709324e-02
<VARIANCE> 39
 1.032274e+01 1.490021e+01 1.817235e+01 3.561379e+01 3.266593e+01 4.733250e+01 4.949399e+01 4.530204e+01 4.981031e+01 5.103455e+01 4.398400e+01 7.151007e+01 1.209991e+01 2.106384e-01 4.016879e-01 5.981909e-01 1.007676e+00 9.984447e-01 1.236013e+00 1.363583e+00 1.278934e+00 1.440428e+00 1.416569e+00 1.429523e+00 1.416336e+00 1.101820e-01 3.540557e-02 6.516979e-02 9.724606e-02 1.491521e-01 1.794570e-01 2.080938e-01 2.306301e-01 2.193113e-01 2.443203e-01 2.425338e-01 2.417973e-01 2.485257e-01 1.687167e-02
<GCONST> 8.733882e+01
<MIXTURE> 3 1.326943e-01
<MEAN> 39
 2.346869e+00 -4.149055e+00 -2.408316e+00 -9.269879e-01 -2.236254e+00 1.176625e+00 6.333761e+00 8.773254e-01 -1.791261e+00 -2.049837e+00 -4.283592e+00 -2.281656e+00 1.050236e+01 -3.366421e-01 -9.866102e-01 -7.462675e-01 5.164973e-01 9.715047e-01 1.128750e+00 7.999526e-01 -5.985360e-01 -2.271141e-01 -4.538727e-02 -1.021618e-01 2.669344e-01 1.200765e+00 -2.098465e-01 2.066205e-01 2.296987e-01 2.695878e-01 2.319013e-01 -4.483041e-02 -4.553850e-01 -1.741160e-01 8.918566e-02 2.210805e-01 2.890139e-01 1.521476e-01 -5.111720e-01
<VARIANCE> 39
 1.543403e+01 3.890781e+01 3.904894e+01 7.181271e+01 5.158554e+01 6.656094e+01 7.297733e+01 9.204124e+01 1.012412e+02 7.553200e+01 7.969242e+01 8.461725e+01 2.449674e+01 1.038676e+00 1.857070e+00 2.189132e+00 3.377438e+00 3.186464e+00 4.343140e+00 4.089657e+00 5.164145e+00 3.965195e+00 4.049428e+00 3.780361e+00 3.943109e+00 1.482319e+00 2.778086e-01 2.981163e-01 4.042524e-01 4.824430e-01 5.668474e-01 7.801912e-01 8.400162e-01 9.077982e-01 9.590944e-01 7.716669e-01 8.105339e-01 6.538373e-01 2.847427e-01
<GCONST> 1.307266e+02
<MIXTURE> 4 1.918343e-01
<MEAN> 39
 1.293402e-02 -5.465360e+00 -2.367710e-01 -2.536118e+00 2.034664e+00 7.842819e+00 2.428613e+00 -7.567586e+00 -7.494224e-01 -1.639157e+00 -3.608485e+00 2.286796e+00 1.296956e+01 -3.103881e-01 -7.201172e-01 -1.110535e-01 9.342033e-01 6.209288e-01 3.030623e-01 -2.520520e-01 -6.081346e-01 -1.687693e-02 4.971512e-01 2.059009e-01 9.957589e-02 3.279111e-01 1.190988e-01 2.215969e-01 8.987069e-02 4.237571e-02 -2.617782e-01 -4.473092e-01 -8.639526e-02 2.374978e-01 -6.523686e-03 5.407402e-02 2.703822e-02 -2.156290e-01 -2.836616e-01
<VARIANCE> 39
 9.431032e+00 3.049112e+01 1.716125e+01 5.217175e+01 4.185262e+01 3.434284e+01 6.834130e+01 5.712929e+01 4.267453e+01 5.217665e+01 4.393544e+01 4.900859e+01 1.534778e+01 4.530400e-01 1.086282e+00 8.810930e-01 1.958327e+00 2.318422e+00 2.363936e+00 2.825286e+00 2.946465e+00 2.653204e+00 2.695614e+00 2.540833e+00 2.588406e+00 3.489361e-01 7.911939e-02 1.548193e-01 1.584664e-01 2.504223e-01 3.458095e-01 3.857989e-01 4.711721e-01 4.863269e-01 4.092366e-01 4.464878e-01 4.270679e-01 3.976041e-01 8.332168e-02
<GCONST> 1.071703e+02
<STATE> 3
<NUMMIXES> 4
<MIXTURE> 1 2.080085e-01
<MEAN> 39
 3.128398e+00 -7.590868e+00 -1.132354e+01 9.328052e+00 5.241385e+00 -4.454292e+00 5.481921e+00 2.988708e+00 -1.702793e+00 -5.511485e+00 -6.647416e-01 1.841780e+00 1.249284e+01 5.247982e-02 2.544602e-02 -2.716812e-02 -1.207480e-02 3.849985e-02 -6.251356e-02 -6.969876e-02 1.152291e-02 7.081189e-02 -6.131431e-02 -3.988200e-02 -4.331226e-02 -5.912117e-02 -6.314221e-03 7.137280e-03 1.789014e-02 -3.137900e-02 -3.769604e-02 1.327559e-02 -9.466400e-03 -1.341260e-02 -1.551990e-02 7.734148e-03 -1.773405e-02 -2.679754e-02 -6.925171e-03
<VARIANCE> 39
 6.417642e+00 2.033425e+01 2.194996e+01 4.293736e+01 3.040541e+01 2.099536e+01 6.332888e+01 4.345147e+01 5.845266e+01 3.632346e+01 4.225869e+01 5.471458e+01 1.004036e+01 1.083351e-01 1.901962e-01 3.750727e-01 4.366328e-01 5.681950e-01 6.354720e-01 7.546185e-01 8.623649e-01 8.039033e-01 8.287627e-01 7.347298e-01 7.025771e-01 4.153573e-02 1.715594e-02 3.507550e-02 6.244934e-02 7.806692e-02 1.017792e-01 1.127595e-01 1.347287e-01 1.582821e-01 1.418577e-01 1.348662e-01 1.313349e-01 1.151236e-01 5.378238e-03
<GCONST> 6.967272e+01
<MIXTURE> 2 2.918141e-01
<MEAN> 39
 -3.059418e-01 -1.607933e+00 -8.656825e-01 -7.131648e+00 2.706935e+00 7.735929e+00 4.726017e-01 -2.478181e+00 1.249749e+00 -6.210317e+00 -5.368109e+00 -2.425268e-01 1.145034e+01 3.648306e-02 -1.282361e-02 -3.309166e-02 4.731240e-02 -2.690292e-02 -3.665625e-02 -2.862636e-03 -6.644572e-02 -8.046261e-03 3.124080e-02 8.228598e-03 -4.559049e-02 -5.980038e-02 1.717316e-02 9.792633e-04 1.033082e-02 1.815977e-02 -5.184408e-02 -4.285543e-02 3.789524e-02 -4.820238e-03 -7.963442e-03 3.424919e-02 -8.324885e-03 -1.280663e-02 -1.808731e-02
<VARIANCE> 39
 9.243540e+00 2.938305e+01 1.709860e+01 4.549024e+01 4.286202e+01 4.445275e+01 4.603532e+01 1.102995e+02 4.250843e+01 3.790928e+01 4.630160e+01 4.745662e+01 1.256680e+01 1.226050e-01 3.603360e-01 4.057707e-01 6.209061e-01 7.073447e-01 7.817522e-01 8.966840e-01 1.190986e+00 1.021717e+00 1.014411e+00 8.699173e-01 7.180803e-01 6.339310e-02 1.949611e-02 4.737711e-02 6.581835e-02 9.180883e-02 1.162488e-01 1.375084e-01 1.481110e-01 1.867646e-01 1.689077e-01 1.678364e-01 1.512726e-01 1.247339e-01 8.586904e-03
<GCONST> 7.730531e+01
<MIXTURE> 3 2.769979e-01
<MEAN> 39
 -3.276458e-01 -1.024542e+01 -1.140046e+00 6.583983e+00 1.103757e+00 3.878359e+00 4.947746e+00 -9.554804e+00 -1.255949e+00 3.915286e+00 -2.243537e-03 6.104625e-01 1.404349e+01 6.611761e-02 -1.425889e-02 -1.688022e-01 2.136446e-01 -8.815052e-02 -1.663835e-01 1.645892e-01 1.029586e-01 -2.077058e-01 -5.429863e-02 2.229656e-01 -1.518587e-01 -5.853197e-02 1.831947e-02 2.071915e-02 -3.055880e-02 -3.894356e-02 -1.695009e-04 -1.432108e-02 -8.544674e-03 5.145536e-02 -4.093493e-02 -5.810692e-02 8.876382e-03 1.216037e-02 -1.932715e-02
<VARIANCE> 39
 9.187899e+00 1.027363e+01 1.345207e+01 3.318095e+01 2.636707e+01 3.258086e+01 3.502087e+01 3.317545e+01 4.236939e+01 3.408800e+01 3.571423e+01 2.384952e+01 1.190056e+01 9.917495e-02 1.727298e-01 2.647718e-01 4.925994e-01 4.374688e-01 5.668525e-01 5.851310e-01 7.460296e-01 7.524269e-01 6.548707e-01 6.444201e-01 6.021798e-01 4.607457e-02 1.367297e-02 2.618881e-02 3.759806e-02 6.590180e-02 6.611803e-02 8.493184e-02 9.481174e-02 1.103925e-01 1.139170e-01 1.045196e-01 9.872051e-02 9.650976e-02 5.466336e-03
<GCONST> 6.160928e+01
<MIXTURE> 4 2.231795e-01
<MEAN> 39
 9.384142e-01 -6.040074e+00 -3.151476e+00 1.836142e+00 5.638546e-01 3.109006e+00 3.443565e+00 1.859245e+00 1.555856e+00 -2.584017e+00 -2.927724e+00 -1.329439e+00 1.051246e+01 9.977379e-02 7.601892e-02 -1.098262e-01 -1.998944e-02 1.096392e-01 8.508795e-02 6.434612e-02 -1.070133e-01 7.856416e-04 3.508042e-03 9.246974e-02 -8.534274e-02 -1.098509e-01 4.565808e-02 1.039264e-01 4.973719e-02 -2.705080e-02 -4.531633e-03 -6.337021e-02 2.125520e-03 2.666064e-02 -1.495320e-02 4.996635e-02 8.898953e-02 3.987900e-02 -7.953314e-02
<VARIANCE> 39
 1.623342e+01 5.101998e+01 4.669791e+01 8.711440e+01 5.687762e+01 8.225082e+01 6.967650e+01 1.384078e+02 1.265331e+02 1.692624e+02 1.214270e+02 1.653430e+02 2.283700e+01 4.118655e-01 7.923884e-01 1.041214e+00 1.699661e+00 1.615951e+00 2.122088e+00 2.215132e+00 2.298511e+00 2.489837e+00 2.194267e+00 2.347478e+00 2.264105e+00 2.272460e-01 6.889652e-02 1.197279e-01 1.767376e-01 2.274385e-01 2.802680e-01 3.874740e-01 3.735578e-01 4.177064e-01 4.223473e-01 3.909296e-01 3.840132e-01 4.036449e-01 4.757233e-02
<GCONST> 1.127373e+02
<STATE> 4
<NUMMIXES> 4
<MIXTURE> 1 3.023737e-01
<MEAN> 39
 4.788926e+00 -6.775211e+00 -9.209403e+00 8.714865e+00 5.841780e-03 -2.920780e+00 3.766859e+00 -1.520301e+00 -4.850296e+00 -8.988471e+00 -3.393689e-01 -1.780321e+00 8.666737e+00 1.959974e-01 1.872697e-01 -1.544479e-01 -1.956863e-01 9.237169e-02 -1.341624e-01 -3.025439e-01 2.171191e-01 2.884645e-01 -1.951599e-01 -2.714079e-01 -8.578181e-02 -2.035817e-01 5.233074e-03 6.504622e-02 1.413567e-01 -3.665064e-02 1.726669e-02 1.161768e-01 1.180685e-01 -1.231194e-02 5.206956e-02 2.459068e-01 9.546921e-04 -3.829943e-02 8.554766e-03
<VARIANCE> 39
 1.330856e+01 1.144020e+01 2.359874e+01 3.702590e+01 4.250227e+01 3.800810e+01 6.811044e+01 7.665843e+01 4.977298e+01 3.960674e+01 3.977900e+01 4.291087e+01 1.098968e+01 2.037629e-01 3.835854e-01 7.003235e-01 8.589157e-01 1.143987e+00 1.165003e+00 1.630704e+00 1.632444e+00 1.516383e+00 1.554452e+00 1.312248e+00 1.378390e+00 1.263219e-01 2.704035e-02 5.858380e-02 1.061904e-01 1.494748e-01 1.957960e-01 1.972563e-01 2.408247e-01 2.772452e-01 2.693083e-01 2.264974e-01 2.126206e-01 2.462938e-01 1.238214e-02
<GCONST> 8.775031e+01
<MIXTURE> 2 3.041751e-01
<MEAN> 39
 2.720803e+00 -7.792894e+00 -4.271399e+00 8.049619e+00 -6.702164e-01 2.916546e+00 7.046690e+00 -6.491276e+00 -6.416219e+00 -1.711799e-01 5.217068e-01 -1.833830e+00 1.105219e+01 2.937238e-01 1.586133e-01 -2.985234e-01 1.048608e-01 -6.443633e-02 -2.937397e-01 3.374240e-02 5.603284e-01 -1.914691e-01 -4.990531e-01 2.567946e-01 1.347280e-01 -2.551109e-01 3.947876e-03 3.529134e-02 -3.748855e-02 -2.111783e-01 -2.620312e-02 -1.505143e-01 -1.831291e-01 2.957070e-02 1.062396e-01 -2.141947e-01 -1.879662e-01 2.063920e-02 -6.618846e-02
<VARIANCE> 39
 1.119847e+01 1.433468e+01 1.873036e+01 4.324945e+01 3.778593e+01 3.315230e+01 4.669044e+01 6.740974e+01 4.024017e+01 3.881281e+01 4.699536e+01 3.887239e+01 1.365147e+01 2.165912e-01 4.035768e-01 7.366462e-01 1.220355e+00 1.087485e+00 1.275925e+00 1.566308e+00 1.821298e+00 1.683824e+00 1.815824e+00 1.666597e+00 1.459056e+00 1.152540e-01 2.905595e-02 6.732707e-02 9.548607e-02 1.506994e-01 1.926818e-01 1.960258e-01 2.356154e-01 2.885891e-01 2.696929e-01 2.178669e-01 2.590860e-01 2.266194e-01 1.621972e-02
<GCONST> 8.856225e+01
<MIXTURE> 3 2.459089e-01
<MEAN> 39
 4.314095e+00 -4.404556e+00 -4.526117e+00 3.261963e+00 -3.013873e+00 8.594348e-01 9.327407e+00 -6.708088e+00 -5.160008e+00 -3.207899e+00 -4.309919e+00 -3.184805e+00 9.927098e+00 4.317958e-02 -1.549188e-03 -4.214283e-02 9.816527e-02 -3.367116e-02 -8.295313e-02 2.907803e-03 8.939632e-02 -3.298096e-02 -9.645955e-02 8.517046e-02 -5.523115e-02 -4.763658e-02 9.074617e-04 1.363649e-03 4.009226e-03 -5.599041e-03 -4.219071e-03 -1.234252e-02 -1.197230e-02 1.528742e-02 -4.541861e-03 -2.457091e-02 1.236693e-02 3.523624e-03 -5.236726e-03
<VARIANCE> 39
 1.117631e+01 6.523143e+00 1.579112e+01 3.213589e+01 3.676839e+01 2.975881e+01 4.793451e+01 6.762145e+01 2.766169e+01 4.528245e+01 3.724413e+01 2.375994e+01 1.257859e+01 5.737605e-02 1.116198e-01 1.946162e-01 3.551987e-01 3.889584e-01 4.661261e-01 6.091554e-01 6.118531e-01 5.967520e-01 6.063071e-01 5.530425e-01 5.430520e-01 2.854775e-02 9.335185e-03 1.924210e-02 3.588826e-02 5.945652e-02 6.750690e-02 7.776316e-02 1.091014e-01 1.039745e-01 1.146165e-01 1.148740e-01 1.053900e-01 9.892503e-02 3.818660e-03
<GCONST> 5.857039e+01
<MIXTURE> 4 1.475422e-01
<MEAN> 39
 1.068932e+00 -1.328652e+00 -8.006192e-01 -5.087124e+00 1.745847e+00 3.511849e+00 8.709448e-01 -3.000252e+00 1.513615e+00 -1.761608e+00 -1.689219e+00 -8.509216e-01 8.044648e+00 3.035079e-01 4.067507e-01 7.003759e-02 -3.449944e-01 -3.528582e-01 -3.981885e-01 -6.806443e-03 5.097717e-02 -2.178753e-01 2.770859e-01 2.906571e-02 -9.111901e-02 -5.534917e-01 3.342838e-02 7.486952e-02 7.663316e-02 1.850800e-01 -1.453411e-01 -2.768977e-01 -2.054928e-02 3.966885e-02 -1.949050e-01 3.101970e-02 4.821959e-02 2.294744e-02 -1.554744e-01
<VARIANCE> 39
 1.877761e+01 4.720883e+01 2.501330e+01 8.654160e+01 4.963953e+01 5.834747e+01 6.783147e+01 1.032085e+02 8.923846e+01 8.557370e+01 7.220702e+01 1.188766e+02 3.211868e+01 4.568143e-01 1.086243e+00 1.176248e+00 2.298641e+00 2.197640e+00 2.849307e+00 2.926056e+00 3.013622e+00 2.786148e+00 2.850583e+00 2.251032e+00 2.572232e+00 5.253971e-01 7.291768e-02 1.541476e-01 1.899445e-01 3.233715e-01 3.593999e-01 5.213497e-01 5.071170e-01 5.209545e-01 4.869767e-01 4.967302e-01 4.358872e-01 4.950182e-01 9.088051e-02
<GCONST> 1.162921e+02
<STATE> 5
<NUMMIXES> 4
<MIXTURE> 1 2.217640e-01
<MEAN> 39
 3.672823e+00 -6.496950e+00 -5.640910e+00 4.197340e+00 -1.075707e+00 -4.961661e-01 5.791901e+00 -1.476639e+00 -5.024144e+00 -3.571714e+00 -4.034728e-01 2.070579e-02 9.894113e+00 4.517664e-01 9.595049e-01 8.372480e-01 -1.111593e+00 -7.794955e-01 -1.090023e+00 -4.145743e-01 1.566575e-01 2.886901e-01 -5.390828e-02 -5.050590e-01 -4.013451e-01 -1.028785e+00 2.020921e-02 3.308805e-01 3.906210e-01 2.339067e-02 -1.539278e-02 -2.045693e-01 -4.652252e-01 -1.804018e-01 2.902423e-02 1.537873e-01 -9.009943e-02 -8.113158e-02 -3.621603e-01
<VARIANCE> 39
 1.398526e+01 1.614277e+01 2.845133e+01 4.896986e+01 4.713773e+01 5.624838e+01 6.354310e+01 7.057381e+01 5.164859e+01 5.878312e+01 6.319437e+01 7.334013e+01 1.580166e+01 6.027456e-01 1.118793e+00 2.312881e+00 2.713994e+00 2.599851e+00 3.381102e+00 3.885954e+00 3.593293e+00 3.409435e+00 3.305205e+00 3.037409e+00 2.907182e+00 7.486616e-01 9.297013e-02 1.568750e-01 2.633273e-01 4.242638e-01 3.970383e-01 5.278574e-01 5.746465e-01 6.134325e-01 5.607247e-01 5.811496e-01 5.050491e-01 5.227546e-01 9.641954e-02
<GCONST> 1.165939e+02
<MIXTURE> 2 2.814281e-01
<MEAN> 39
 3.791145e+00 9.231198e-01 -2.674175e+00 -4.833256e+00 9.408831e-01 7.518373e-01 -1.090982e+00 -3.255533e+00 -2.403602e+00 -2.369048e-01 3.047843e+00 3.000575e+00 5.537649e+00 -8.623982e-03 1.896306e-01 1.684960e-01 9.868608e-02 -1.602761e-01 -3.643340e-01 -4.347303e-02 8.580875e-02 -1.082255e-01 1.281659e-01 6.466269e-02 1.189522e-01 -2.496278e-01 -1.810342e-02 -5.288874e-02 6.669376e-03 1.257807e-01 -1.906739e-02 -6.200223e-02 1.800170e-02 1.588869e-02 8.463782e-02 -7.383053e-02 -1.189519e-01 2.684507e-03 6.474499e-03
<VARIANCE> 39
 2.571387e+01 3.838411e+01 3.283156e+01 7.237935e+01 6.681469e+01 5.735991e+01 6.609528e+01 5.163737e+01 7.069383e+01 8.880746e+01 1.012405e+02 1.691798e+02 3.079834e+01 2.638296e-01 6.908150e-01 8.196901e-01 1.304490e+00 1.620291e+00 1.746406e+00 1.854335e+00 1.883883e+00 2.094895e+00 2.009343e+00 2.069179e+00 1.820713e+00 2.314654e-01 4.071645e-02 1.018198e-01 1.340984e-01 2.079494e-01 2.748768e-01 2.983718e-01 3.402898e-01 3.348126e-01 3.433862e-01 3.821662e-01 3.883345e-01 3.423421e-01 2.727180e-02
<GCONST> 1.052198e+02
<MIXTURE> 3 2.646530e-01
<MEAN> 39
 8.243138e+00 -2.197343e+00 -1.163571e+01 5.191041e+00 2.840812e+00 -4.680574e+00 -6.815741e-01 3.294031e+00 4.653930e-01 -5.631353e+00 -4.553614e+00 -2.962149e+00 5.821579e+00 9.059083e-02 3.092331e-01 2.970463e-01 -3.161101e-01 -1.673892e-01 -1.338757e-01 -1.336063e-01 -1.441213e-01 -1.935239e-03 3.488015e-01 -3.765494e-02 -2.804249e-01 -2.916726e-01 -7.989762e-02 -1.418136e-02 1.666722e-01 -2.970937e-02 -1.262165e-01 -2.177968e-02 9.179265e-02 -9.981259e-02 -1.451133e-01 2.623334e-02 8.314478e-02 5.810419e-03 4.242389e-04
<VARIANCE> 39
 1.105663e+01 1.290304e+01 3.463116e+01 3.177617e+01 3.749091e+01 4.144403e+01 6.920748e+01 6.046032e+01 5.688578e+01 4.978864e+01 4.208991e+01 4.744572e+01 1.273148e+01 2.742800e-01 4.590331e-01 9.140457e-01 1.119262e+00 1.471355e+00 1.804211e+00 2.043674e+00 2.055613e+00 2.341679e+00 2.096110e+00 1.776566e+00 1.681810e+00 2.263755e-01 3.790762e-02 6.482621e-02 1.449691e-01 1.616921e-01 2.296732e-01 2.931312e-01 2.978154e-01 3.445184e-01 3.824257e-01 3.515900e-01 3.232230e-01 3.038482e-01 2.359891e-02
<GCONST> 9.617239e+01
<MIXTURE> 4 2.321549e-01
<MEAN> 39
 5.052804e+00 5.917615e-01 -9.261917e-01 -2.089701e+00 -2.422649e+00 -2.343363e+00 -6.120157e-01 -1.936615e+00 -6.776327e-01 -8.807715e-01 -1.306247e+00 -2.033343e+00 3.454523e+00 -2.560070e-01 6.858004e-01 8.231131e-01 4.308422e-01 -3.916669e-02 -4.915621e-01 -5.318831e-01 -1.642136e-01 -3.006035e-01 -3.465645e-02 3.641669e-02 1.719210e-01 -1.102128e+00 -2.348180e-01 -1.653927e-01 -1.395722e-01 2.203225e-01 2.255106e-01 1.889190e-01 1.590080e-01 1.087203e-01 -9.527355e-02 -1.290184e-01 6.784238e-02 1.114179e-01 5.395820e-02
<VARIANCE> 39
 2.282537e+01 3.828906e+01 4.356964e+01 6.828531e+01 5.449488e+01 6.006923e+01 6.317706e+01 7.641882e+01 8.947819e+01 8.027248e+01 7.925410e+01 9.952600e+01 2.877122e+01 1.591040e+00 2.262665e+00 2.699579e+00 3.502071e+00 3.432351e+00 4.986843e+00 4.660532e+00 5.088700e+00 4.367983e+00 4.817927e+00 3.889015e+00 4.436306e+00 2.355772e+00 1.879426e-01 3.286240e-01 3.987915e-01 6.118811e-01 6.041360e-01 7.655903e-01 7.886989e-01 8.810762e-01 8.633417e-01 8.060652e-01 7.031435e-01 7.194783e-01 2.424475e-01
<GCONST> 1.327301e+02
<TRANSP> 6
 0.000000e+00 1.000000e+00 0.000000e+00 0.000000e+00 0.000000e+00 0.000000e+00
 0.000000e+00 8.402373e-01 1.597627e-01 0.000000e+00 0.000000e+00 0.000000e+00
 0.000000e+00 0.000000e+00 8.694563e-01 1.305438e-01 0.000000e+00 0.000000e+00
 0.000000e+00 0.000000e+00 0.000000e+00 8.477240e-01 1.522761e-01 0.000000e+00
 0.000000e+00 0.000000e+00 0.000000e+00 0.000000e+00 7.958983e-01 2.041017e-01
 0.000000e+00 0.000000e+00 0.000000e+00 0.000000e+00 0.000000e+00 0.000000e+00
<ENDHMM>
