~o
<STREAMINFO> 1 39
<VECSIZE> 39<NULLD><MFCC_D_A_Z_0><DIAGC>
~h "dh"
<BEGINHMM>
<NUMSTATES> 6
<STATE> 2
<NUMMIXES> 4
<MIXTURE> 1 1.514245e-01
<MEAN> 39
 3.849666e-01 1.609922e-02 -1.465492e+00 -1.688538e+00 -5.249524e-01 -2.903261e-01 1.720366e+00 -4.311395e+00 -2.641801e-01 4.686053e-01 1.127704e+00 2.172773e+00 6.147765e+00 -4.729104e-02 2.893617e-01 7.123642e-02 1.768548e-01 2.264403e-01 -4.117677e-01 -4.151658e-01 -1.404916e-01 5.358680e-03 -1.479807e-02 -2.653466e-01 -3.287650e-01 -2.346473e-02 6.238373e-02 -8.410411e-02 1.628059e-01 9.732338e-03 -1.476749e-01 -1.574743e-01 -1.851318e-01 3.971548e-01 1.485518e-01 9.403079e-02 -2.861638e-03 -6.677980e-02 -1.392726e-01
<VARIANCE> 39
 2.638012e+01 5.352854e+01 3.299393e+01 8.358949e+01 5.867588e+01 8.673985e+01 7.817673e+01 7.533370e+01 8.727917e+01 8.862450e+01 1.163138e+02 1.055945e+02 4.238551e+01 8.068354e-01 1.214923e+00 1.894359e+00 3.173003e+00 2.916281e+00 4.105148e+00 3.571948e+00 3.728266e+00 4.213206e+00 3.712659e+00 3.803848e+00 3.789547e+00 1.345439e+00 1.710519e-01 2.450038e-01 3.722191e-01 5.224806e-01 5.266732e-01 8.121939e-01 9.241321e-01 7.631679e-01 8.804465e-01 8.013690e-01 7.969065e-01 7.589280e-01 2.611725e-01
<GCONST> 1.305422e+02
<MIXTURE> 2 3.301735e-01
<MEAN> 39
 3.010235e+00 6.647620e+00 5.005392e+00 1.769365e+00 -2.029612e+00 -3.855750e+00 -4.238990e+00 -3.113062e+00 -4.600684e+00 -3.457472e+00 -4.638546e+00 -4.363868e+00 -5.826730e+00 -6.661491e-01 -3.592722e-01 -1.528845e-01 1.785257e-01 2.838767e-01 4.228601e-01 2.575584e-01 4.280009e-01 7.784961e-01 3.470398e-01 3.538823e-01 7.227346e-02 6.974288e-01 -1.350734e-01 -5.342011e-01 -4.295421e-01 -5.502480e-01 -2.307740e-01 2.061732e-01 4.921910e-01 3.637990e-01 5.450587e-01 3.745821e-01 1.901252e-01 3.395334e-01 8.190833e-01
<VARIANCE> 39
 2.918672e+01 2.787100e+01 2.429709e+01 4.154494e+01 3.760519e+01 4.179324e+01 4.182539e+01 4.499376e+01 4.981237e+01 5.126278e+01 4.746138e+01 4.820913e+01 5.188863e+01 2.334029e+00 2.342830e+00 2.445150e+00 3.637502e+00 2.970949e+00 3.525245e+00 4.365083e+00 3.928736e+00 4.277809e+00 4.144319e+00 3.326781e+00 3.303195e+00 4.235505e+00 3.435017e-01 3.171569e-01 3.829491e-01 6.344475e-01 5.831787e-01 6.904531e-01 7.963833e-01 7.772983e-01 8.093606e-01 8.448758e-01 7.386946e-01 7.588447e-01 5.049999e-01
<GCONST> 1.288529e+02
<MIXTURE> 3 2.773548e-01
<MEAN> 39
 -7.670743e+00 1.749059e+00 3.646566e-01 3.110354e+00 2.027779e+00 3.032748e+00 2.870049e-01 2.379419e+00 2.614648e+00 3.247905e-01 1.325730e+00 3.291195e-01 -5.304957e+00 1.179362e+00 6.484808e-01 1.409939e-01 -9.259116e-01 -7.377196e-01 -5.698708e-01 -5.784221e-02 -2.688544e-01 2.669254e-01 1.792444e-01 -3.160409e-01 1.915769e-01 2.126821e+00 8.276108e-01 1.319183e-01 8.548950e-02 -6.010212e-01 -6.329818e-01 -4.859529e-01 -1.458748e-01 -3.175930e-01 -2.226001e-01 9.685543e-04 -3.715836e-01 -1.040644e-01 5.424719e-01
<VARIANCE> 39
 2.315030e+01 3.408803e+01 2.423080e+01 3.306371e+01 2.911030e+01 3.340213e+01 3.185451e+01 3.938316e+01 3.597165e+01 2.929723e+01 3.353561e+01 2.769715e+01 4.936561e+01 3.183216e+00 2.518504e+00 2.318568e+00 3.208574e+00 2.889228e+00 3.398902e+00 3.522323e+00 3.696321e+00 4.108869e+00 3.196702e+00 3.795909e+00 2.931413e+00 4.068040e+00 2.895169e-01 4.323908e-01 4.667506e-01 6.345725e-01 5.333186e-01 6.310787e-01 8.002401e-01 7.174965e-01 7.940119e-01 7.227049e-01 8.300794e-01 6.914066e-01 6.245996e-01
<GCONST> 1.255491e+02
<MIXTURE> 4 2.410472e-01
<MEAN> 39
 2.998091e+00 5.117585e+00 6.255940e-01 -2.313421e+00 1.074847e-01 -4.462788e+00 -3.118551e+00 -2.625837e+00 -1.665825e+00 -3.095952e-01 -1.940976e+00 -2.908620e+00 1.298113e+00 1.912167e-02 1.438884e-01 1.220905e-01 7.717277e-02 3.163206e-02 -1.486349e-01 -8.613610e-02 6.668087e-02 1.326260e-01 1.279897e-01 -1.075820e-01 3.379048e-02 -6.067788e-02 -2.350833e-02 -1.559463e-01 7.228207e-03 -5.453013e-02 -1.250288e-01 4.381602e-02 6.446246e-02 1.737303e-01 7.221851e-02 -8.797953e-02 2.528798e-02 1.184182e-01 8.053114e-02
<VARIANCE> 39
 3.045675e+01 3.800079e+01 3.757718e+01 6.148983e+01 4.010871e+01 6.633199e+01 5.429684e+01 6.040181e+01 4.979428e+01 5.664478e+01 5.843111e+01 6.751890e+01 4.327396e+01 2.560826e-01 5.184723e-01 7.760482e-01 1.302446e+00 1.206188e+00 1.599753e+00 1.766145e+00 1.964228e+00 2.173580e+00 1.709654e+00 2.059095e+00 1.890162e+00 2.609298e-01 4.989152e-02 8.963941e-02 1.537114e-01 2.420285e-01 2.472261e-01 3.497486e-01 3.611639e-01 3.849539e-01 4.251168e-01 3.402011e-01 3.680510e-01 3.848093e-01 4.349783e-02
<GCONST> 1.035260e+02
<STATE> 3
<NUMMIXES> 4
<MIXTURE> 1 2.846461e-01
<MEAN> 39
 1.152502e-01 7.821993e-01 -1.056274e+00 -7.069611e-01 1.267092e+00 -1.212144e+00 3.249803e-02 -2.003856e+00 8.946893e-02 1.045627e+00 8.214297e-01 1.592293e+00 5.025968e+00 8.295063e-02 -2.073612e-01 8.917639e-02 -2.333507e-01 -3.370259e-01 -5.232171e-01 -3.583523e-01 3.744178e-01 2.839483e-01 -6.074553e-02 -2.021267e-01 -1.125613e-01 -2.804718e-03 6.310441e-02 -9.825031e-02 3.899428e-02 -1.002099e-01 -1.962989e-01 -6.808797e-04 1.022069e-02 1.283789e-01 -6.425726e-02 -1.115125e-01 2.470926e-02 -6.428418e-02 -4.416902e-02
<VARIANCE> 39
 2.807512e+01 5.491632e+01 3.953067e+01 9.096945e+01 4.518803e+01 7.337978e+01 6.681146e+01 7.664648e+01 8.413445e+01 8.454803e+01 9.177813e+01 1.055432e+02 5.712657e+01 4.056076e-01 7.544620e-01 1.163514e+00 1.744951e+00 1.826468e+00 2.178426e+00 2.555732e+00 2.578324e+00 2.819687e+00 2.527689e+00 2.890330e+00 2.491195e+00 3.578328e-01 5.321800e-02 1.000532e-01 1.861813e-01 2.820989e-01 2.814801e-01 3.652714e-01 4.485987e-01 4.296384e-01 4.479182e-01 4.443767e-01 4.950820e-01 4.197029e-01 4.238067e-02
<GCONST> 1.131977e+02
<MIXTURE> 2 2.621078e-01
<MEAN> 39
 4.169623e+00 4.337549e+00 3.271353e+00 -7.578645e-01 -4.606936e+00 -5.248147e+00 -2.416977e+00 -2.006773e+00 -2.319181e+00 -4.188621e-01 -3.431090e+00 -2.750555e+00 1.332294e+00 -4.300050e-01 -1.109304e+00 -7.930247e-01 -9.237340e-01 -5.928527e-01 6.815023e-01 1.088812e+00 5.755276e-01 1.255120e+00 6.096659e-01 3.803359e-02 5.802005e-01 1.830450e+00 -1.276759e-01 -2.698138e-01 -2.811345e-01 -2.929390e-01 8.778875e-02 3.915693e-01 3.866486e-01 1.497758e-01 5.551654e-02 -1.014843e-01 7.306467e-03 2.269982e-01 3.113326e-01
<VARIANCE> 39
 1.586683e+01 2.009724e+01 2.934109e+01 3.683773e+01 3.936687e+01 4.852962e+01 5.785435e+01 4.870124e+01 5.286775e+01 5.001935e+01 5.113443e+01 5.496093e+01 2.502773e+01 1.298936e+00 1.851046e+00 2.755185e+00 3.494147e+00 3.010899e+00 4.353375e+00 5.087916e+00 4.383925e+00 5.073390e+00 5.147621e+00 4.369987e+00 4.900646e+00 2.384806e+00 1.645157e-01 1.931037e-01 3.030623e-01 4.462442e-01 4.527867e-01 6.457772e-01 7.312326e-01 6.424575e-01 7.102163e-01 6.702310e-01 6.182042e-01 5.731061e-01 1.635205e-01
<GCONST> 1.239574e+02
<MIXTURE> 3 2.522296e-01
<MEAN> 39
 -3.766695e+00 2.308122e+00 2.599410e+00 2.719196e+00 6.443342e-01 1.335989e+00 -9.729004e-02 1.730671e+00 2.457638e+00 -1.766931e-02 4.590101e-01 -8.851998e-01 -3.959365e+00 9.969862e-01 -6.960831e-01 -8.232386e-01 -2.250663e+00 -1.458706e+00 -3.933156e-01 5.412067e-01 5.716615e-01 1.349504e+00 1.493375e+00 5.086465e-01 8.681096e-01 3.847325e+00 5.230924e-01 -9.139783e-02 -2.284149e-01 -6.107926e-01 -3.157556e-01 -1.843829e-01 -2.672655e-02 -2.040723e-01 -2.486699e-01 9.346039e-02 -1.444223e-01 1.383849e-01 3.907338e-01
<VARIANCE> 39
 2.390422e+01 3.961284e+01 2.426314e+01 3.963369e+01 3.509504e+01 3.902169e+01 4.429995e+01 4.476414e+01 4.101884e+01 4.728160e+01 4.435155e+01 3.716346e+01 7.001128e+01 4.451199e+00 3.826588e+00 3.056887e+00 5.709430e+00 4.808067e+00 5.453762e+00 6.310465e+00 6.444363e+00 7.116508e+00 6.035726e+00 6.392440e+00 5.186649e+00 5.943295e+00 4.056336e-01 6.199183e-01 4.873421e-01 7.254898e-01 6.471500e-01 7.653732e-01 9.648557e-01 8.786842e-01 1.059901e+00 1.039942e+00 1.014600e+00 1.131986e+00 7.923105e-01
<GCONST> 1.378653e+02
<MIXTURE> 4 2.010165e-01
<MEAN> 39
 1.079295e+00 6.627639e+00 2.742433e+00 -7.522667e-01 -2.887731e+00 -2.238005e+00 -2.746568e+00 -5.797585e-01 1.264567e+00 1.021375e-01 -1.405737e+00 -1.143368e-01 -1.179340e-01 2.889626e+00 5.003753e-01 -1.682414e-02 -2.470158e+00 -2.082811e+00 -1.579912e+00 1.023917e-01 -6.330832e-01 -3.770666e-01 -1.593734e-01 -1.624338e+00 -6.358470e-01 3.166337e+00 -3.348864e-01 -6.451185e-01 -2.858047e-01 -1.538785e-01 1.204545e-01 2.984731e-01 4.756030e-01 2.414095e-01 -1.806072e-02 -4.692038e-02 -1.318055e-01 -1.187529e-01 -5.031354e-03
<VARIANCE> 39
 2.334443e+01 2.676751e+01 2.172301e+01 3.510562e+01 3.673232e+01 3.559249e+01 3.016634e+01 4.063646e+01 3.038931e+01 3.228016e+01 3.246735e+01 3.116858e+01 3.126118e+01 1.714365e+00 2.547584e+00 3.146489e+00 4.261326e+00 3.695896e+00 3.667748e+00 5.986231e+00 4.754171e+00 5.787543e+00 4.408603e+00 4.724037e+00 3.942657e+00 3.473746e+00 3.334073e-01 2.905390e-01 2.875893e-01 4.461930e-01 4.516590e-01 5.753534e-01 6.137843e-01 5.844216e-01 5.652988e-01 5.876781e-01 6.229115e-01 5.740671e-01 3.035007e-01
<GCONST> 1.236404e+02
<STATE> 4
<NUMMIXES> 4
<MIXTURE> 1 2.557666e-01
<MEAN> 39
 2.458240e+00 8.048277e-01 -1.817984e+00 -2.523690e+00 -3.078710e+00 -3.378050e+00 -8.900732e-01 2.467413e+00 3.471664e+00 1.898483e+00 2.409825e+00 8.421230e-01 3.903232e+00 8.524560e-01 -1.058357e+00 -1.152633e+00 -1.692334e+00 -6.634856e-01 -2.335848e-02 5.109426e-01 4.808380e-01 6.360721e-01 7.390898e-01 6.133155e-01 8.696215e-01 3.055920e+00 -3.261096e-01 -2.295414e-02 2.226876e-01 3.169773e-01 3.525069e-01 3.894413e-01 1.495146e-01 -2.973817e-01 -5.014312e-01 -2.825848e-01 -2.513100e-01 -6.280132e-02 -4.945185e-01
<VARIANCE> 39
 3.267371e+01 4.447520e+01 4.036916e+01 6.267375e+01 4.975792e+01 6.018795e+01 6.284724e+01 7.384060e+01 7.413404e+01 6.981982e+01 6.485105e+01 7.314286e+01 4.677596e+01 3.400502e+00 3.260887e+00 3.853540e+00 6.208290e+00 4.515899e+00 6.050183e+00 7.291426e+00 7.385172e+00 8.691446e+00 8.407479e+00 8.368084e+00 1.072352e+01 4.471973e+00 4.805105e-01 5.215243e-01 5.302846e-01 6.768870e-01 7.465993e-01 9.761934e-01 9.532781e-01 9.748182e-01 1.032676e+00 9.330252e-01 8.862590e-01 8.910825e-01 5.066411e-01
<GCONST> 1.435131e+02
<MIXTURE> 2 2.854186e-01
<MEAN> 39
 3.484827e+00 2.783217e+00 2.899830e+00 -4.969892e+00 -9.120315e+00 -2.187467e+00 3.043127e+00 -2.086315e+00 1.125664e+00 2.460389e+00 -7.030453e+00 -1.137291e+00 5.692210e+00 7.615368e-01 -1.164773e+00 -8.102072e-01 -2.138247e+00 -1.233545e+00 4.966274e-01 2.054698e+00 -8.647241e-02 2.481587e-01 2.861415e-01 -1.482622e+00 1.931903e-01 2.894826e+00 -4.587408e-01 -1.448347e-01 -2.084695e-01 4.724144e-01 8.507191e-01 4.423445e-01 -1.478662e-01 2.012695e-01 -1.905547e-01 -4.009099e-01 4.681978e-01 2.918760e-02 -5.918057e-01
<VARIANCE> 39
 1.034840e+01 1.770056e+01 2.055498e+01 3.109158e+01 2.632187e+01 3.499011e+01 4.727017e+01 4.076936e+01 5.445945e+01 4.919171e+01 4.083826e+01 4.440887e+01 1.986107e+01 2.518564e+00 2.043244e+00 2.266274e+00 3.864765e+00 3.413137e+00 5.337392e+00 5.096549e+00 4.548526e+00 5.865441e+00 4.930807e+00 4.339228e+00 4.431058e+00 2.228064e+00 3.808562e-01 2.971254e-01 2.754727e-01 4.554204e-01 4.161819e-01 5.632481e-01 6.547896e-01 5.969352e-01 8.527983e-01 7.203627e-01 5.937297e-01 6.063703e-01 3.039719e-01
<GCONST> 1.237536e+02
<MIXTURE> 3 1.584171e-01
<MEAN> 39
 3.280558e-01 1.042483e+01 2.894685e+00 -1.191124e+01 1.565026e+00 -5.324597e+00 -6.098733e+00 3.168895e+00 5.790498e-01 -1.556188e+00 -5.212599e-01 -1.972969e+00 5.367614e+00 2.320476e-01 -4.481894e-01 1.391262e-01 -1.364503e+00 -5.231464e-01 3.216475e-01 -7.308381e-02 4.884109e-01 5.557528e-01 -2.865284e-01 -2.034966e-01 -3.452088e-02 8.352952e-01 -4.662773e-02 -2.968088e-01 -4.847832e-02 5.171008e-01 -1.046327e-01 2.533417e-01 3.750838e-01 -1.880969e-01 -1.572506e-01 6.773920e-02 -1.556992e-01 1.115820e-02 -2.538145e-01
<VARIANCE> 39
 1.629855e+01 2.547254e+01 2.413222e+01 3.348114e+01 3.629045e+01 4.209712e+01 3.721075e+01 3.787027e+01 5.691385e+01 4.469607e+01 4.959575e+01 4.403201e+01 2.902769e+01 1.108426e+00 2.054490e+00 1.623979e+00 4.177575e+00 2.686354e+00 3.588346e+00 3.079148e+00 3.621102e+00 3.669937e+00 2.961649e+00 2.857509e+00 2.729557e+00 1.849115e+00 1.926321e-01 2.111725e-01 2.408735e-01 4.084918e-01 4.850990e-01 5.000880e-01 5.226583e-01 5.376450e-01 6.030996e-01 4.426689e-01 4.325650e-01 4.371879e-01 1.429501e-01
<GCONST> 1.172130e+02
<MIXTURE> 4 3.003976e-01
<MEAN> 39
 9.735474e-01 -5.503147e-01 -7.397212e-01 5.473512e-01 -1.517008e+00 -2.110101e+00 2.158104e-02 -1.906333e+00 2.734448e-01 -2.679506e-01 -4.318522e-01 3.369258e-01 3.146651e+00 8.834447e-02 -3.378945e-01 -1.051272e-01 -3.243910e-01 -4.178581e-01 -2.746617e-01 -2.127279e-02 4.373994e-01 4.236182e-02 -9.884945e-02 6.375979e-02 -1.498918e-01 1.166829e-01 2.241319e-02 5.242566e-02 4.770082e-02 1.280528e-02 1.031341e-01 1.454591e-01 6.294940e-02 -1.353169e-02 -1.527314e-01 -2.225729e-02 5.515394e-02 -2.668489e-02 -4.962024e-02
<VARIANCE> 39
 3.110749e+01 3.609950e+01 4.135887e+01 5.796445e+01 4.632616e+01 6.387558e+01 5.991897e+01 7.096371e+01 7.033841e+01 7.315889e+01 7.709352e+01 9.316966e+01 6.423270e+01 5.180004e-01 8.009800e-01 1.425339e+00 1.568129e+00 1.928215e+00 2.475168e+00 3.337495e+00 2.859373e+00 2.900937e+00 2.857839e+00 2.867275e+00 2.752841e+00 8.183967e-01 6.560127e-02 1.007659e-01 1.743311e-01 2.340719e-01 2.715796e-01 3.375666e-01 3.738061e-01 4.486747e-01 4.562160e-01 4.172765e-01 4.333913e-01 4.418373e-01 4.521079e-02
<GCONST> 1.133416e+02
<STATE> 5
<NUMMIXES> 4
<MIXTURE> 1 2.662546e-01
<MEAN> 39
 1.507904e+00 -5.629218e-01 -4.165702e-01 -6.439252e+00 -4.594999e+00 -7.064685e-01 1.300833e-01 4.782956e-01 2.243546e+00 2.679898e+00 1.239681e+00 2.423418e+00 7.242095e+00 1.143040e-01 -8.553657e-01 -9.591570e-02 -5.290525e-01 2.421924e-01 9.291812e-01 3.999987e-01 -2.593060e-01 -4.261948e-01 7.772112e-02 1.113916e-01 4.909423e-01 1.201534e+00 -3.000128e-01 2.788453e-01 1.540732e-01 7.475051e-01 5.632930e-01 1.175178e-01 -4.591432e-02 -1.032111e-01 -3.245900e-01 -3.126219e-01 -5.711022e-02 -2.155837e-01 -7.428606e-01
<VARIANCE> 39
 2.367710e+01 4.721041e+01 3.849572e+01 7.628188e+01 6.060057e+01 7.499010e+01 8.348019e+01 9.902792e+01 1.135728e+02 1.039615e+02 1.223703e+02 1.461593e+02 4.262531e+01 1.948964e+00 3.016754e+00 2.661045e+00 5.582381e+00 4.865185e+00 6.468132e+00 6.418180e+00 5.773506e+00 6.849613e+00 6.748144e+00 7.526384e+00 8.769230e+00 3.050552e+00 3.725360e-01 4.168020e-01 5.199286e-01 8.913666e-01 8.745911e-01 9.901364e-01 1.282523e+00 1.192063e+00 1.350424e+00 1.310764e+00 1.283184e+00 1.392760e+00 4.945870e-01
<GCONST> 1.458099e+02
<MIXTURE> 2 3.143282e-01
<MEAN> 39
 9.396365e-01 9.752312e-01 1.237944e-01 -2.231788e+00 -1.233762e+00 -2.457892e+00 -1.218023e+00 -7.479557e-01 -1.027442e-01 -4.422542e-01 -2.817527e-01 -3.170711e-01 3.443038e+00 9.535509e-02 -1.831492e-01 6.068523e-02 1.442655e-02 -1.219540e-02 1.101849e-01 -5.605963e-02 2.280208e-01 -1.168335e-01 3.633684e-03 3.498329e-02 -8.883280e-02 -1.160564e-02 -1.437563e-02 9.789585e-02 3.298134e-02 1.630840e-01 1.608249e-01 1.424851e-01 1.129367e-01 -1.021981e-01 -7.480654e-02 1.740749e-02 -2.842333e-02 2.016133e-02 -1.200411e-01
<VARIANCE> 39
 3.039414e+01 4.830780e+01 3.649794e+01 7.426382e+01 4.898113e+01 6.701012e+01 6.428193e+01 6.392039e+01 6.650269e+01 7.059740e+01 6.712045e+01 8.078550e+01 6.156604e+01 4.115824e-01 6.544683e-01 8.940114e-01 1.199951e+00 1.515524e+00 1.766929e+00 2.212059e+00 2.221194e+00 2.042817e+00 2.248669e+00 1.975971e+00 1.969297e+00 4.221348e-01 8.060411e-02 1.208007e-01 1.665413e-01 2.338864e-01 3.092309e-01 3.906738e-01 4.317030e-01 4.355090e-01 4.838473e-01 4.476260e-01 4.186457e-01 4.188476e-01 7.588920e-02
<GCONST> 1.103090e+02
<MIXTURE> 3 2.065229e-01
<MEAN> 39
 4.558153e+00 -2.278221e+00 -4.854617e+00 1.711933e+00 -5.439251e+00 -5.128523e+00 8.250780e+00 1.790869e+00 -2.469799e+00 3.220565e-01 -4.512122e+00 -3.189064e+00 8.448337e+00 -1.253772e-01 -8.641666e-01 -8.282642e-01 1.527059e-01 2.861502e-01 5.600437e-01 1.285388e+00 3.266807e-01 -1.889512e-01 -2.153405e-01 -1.439678e-01 1.221628e-01 1.215728e+00 -2.199803e-01 3.305737e-01 5.011590e-01 2.152957e-01 4.037511e-01 2.567252e-01 -7.266128e-01 -1.482098e-01 7.360142e-02 -1.423224e-01 2.745988e-01 9.691199e-02 -7.248096e-01
<VARIANCE> 39
 1.308952e+01 2.004530e+01 4.128523e+01 2.414035e+01 5.110665e+01 4.758849e+01 5.722882e+01 7.841941e+01 5.078396e+01 5.576701e+01 4.218983e+01 3.928516e+01 2.168231e+01 7.089021e-01 1.181858e+00 1.807153e+00 1.752616e+00 2.593529e+00 3.665049e+00 3.485146e+00 4.210546e+00 3.205926e+00 2.975765e+00 3.129763e+00 2.554557e+00 1.160277e+00 2.571225e-01 2.109210e-01 3.240706e-01 3.131399e-01 4.729577e-01 5.892778e-01 7.019615e-01 7.483529e-01 7.295364e-01 6.606193e-01 5.880883e-01 4.390397e-01 2.260451e-01
<GCONST> 1.184975e+02
<MIXTURE> 4 2.128943e-01
<MEAN> 39
 1.497965e+00 2.748509e+00 2.064777e+00 -1.095341e+01 -4.973411e+00 2.587907e+00 2.239755e+00 -3.212296e-01 5.287148e+00 -1.235268e+00 -6.877277e+00 1.246290e+00 9.412213e+00 -3.073859e-01 -7.044860e-01 -7.115945e-01 -1.075454e+00 6.752398e-01 1.248063e+00 7.359348e-01 2.734509e-01 -6.574994e-03 -6.493599e-01 -2.001035e-01 6.088054e-02 1.464270e+00 -1.648020e-01 1.004237e-01 5.431931e-02 9.187735e-01 4.722981e-01 -1.316405e-01 -3.111183e-01 -7.111625e-02 -5.582514e-01 4.180172e-03 4.928806e-01 -2.035362e-01 -7.837158e-01
<VARIANCE> 39
 1.011394e+01 2.183064e+01 1.772890e+01 2.553889e+01 3.677123e+01 2.987371e+01 4.478629e+01 4.584858e+01 4.248724e+01 5.120080e+01 5.609565e+01 4.673872e+01 1.929702e+01 5.854858e-01 1.166957e+00 1.049153e+00 2.408753e+00 2.008434e+00 2.305911e+00 2.611651e+00 2.859849e+00 2.918897e+00 2.968539e+00 2.881327e+00 2.941867e+00 1.010258e+00 2.444210e-01 1.876708e-01 2.441867e-01 3.735645e-01 4.112561e-01 4.158470e-01 4.678156e-01 4.836591e-01 5.502169e-01 5.902444e-01 5.672069e-01 5.168884e-01 2.171899e-01
<GCONST> 1.121248e+02
<TRANSP> 6
 0.000000e+00 1.000000e+00 0.000000e+00 0.000000e+00 0.000000e+00 0.000000e+00
 0.000000e+00 5.029066e-01 4.970935e-01 0.000000e+00 0.000000e+00 0.000000e+00
 0.000000e+00 0.000000e+00 2.376760e-01 7.623240e-01 0.000000e+00 0.000000e+00
 0.000000e+00 0.000000e+00 0.000000e+00 2.263580e-01 7.736421e-01 0.000000e+00
 0.000000e+00 0.000000e+00 0.000000e+00 0.000000e+00 3.307270e-01 6.692730e-01
 0.000000e+00 0.000000e+00 0.000000e+00 0.000000e+00 0.000000e+00 0.000000e+00
<ENDHMM>
