~o
<STREAMINFO> 1 39
<VECSIZE> 39<NULLD><MFCC_D_A_Z_0><DIAGC>
~h "r"
<BEGINHMM>
<NUMSTATES> 6
<STATE> 2
<NUMMIXES> 4
<MIXTURE> 1 2.199256e-01
<MEAN> 39
 2.018661e+00 -4.802945e+00 -3.556804e+00 5.177059e-01 5.349324e-02 -7.322033e-02 2.631948e+00 2.455264e+00 2.041090e+00 2.801159e+00 4.240029e+00 2.366589e+00 8.688852e+00 4.292467e-01 1.677555e-01 4.229305e-02 1.883904e-01 -2.150631e-01 -9.987410e-01 -9.498257e-01 2.673416e-01 1.471811e-01 -1.721292e-01 -3.506615e-02 1.196917e-01 -6.783373e-01 -2.284609e-02 2.089004e-01 2.178785e-01 -1.308913e-02 -1.537672e-01 -4.445577e-02 -1.346611e-01 -1.555697e-01 -4.907821e-02 -2.889508e-02 -1.406379e-01 -9.280583e-02 -2.348258e-01
<VARIANCE> 39
 1.892110e+01 3.458334e+01 4.350691e+01 8.279267e+01 5.917106e+01 8.458282e+01 8.585647e+01 1.153346e+02 1.564869e+02 1.466291e+02 1.659709e+02 1.935489e+02 2.695017e+01 6.782386e-01 1.519587e+00 1.943791e+00 3.102607e+00 3.934605e+00 4.135345e+00 4.514091e+00 4.961661e+00 5.091399e+00 5.308589e+00 4.925860e+00 5.125956e+00 9.383389e-01 1.066035e-01 2.238412e-01 3.021719e-01 4.572791e-01 5.237980e-01 7.300613e-01 8.132809e-01 8.824359e-01 9.183655e-01 9.377595e-01 8.493121e-01 8.310814e-01 1.641172e-01
<GCONST> 1.326558e+02
<MIXTURE> 2 3.360475e-01
<MEAN> 39
 8.227468e+00 -1.920783e+00 -1.228160e+01 4.896757e+00 3.922613e+00 -6.854992e+00 -1.052023e+00 4.626085e+00 2.852662e+00 -5.152208e+00 -4.973973e+00 -3.682637e+00 6.410314e+00 1.862502e-01 1.298618e-01 -1.359347e-01 -3.364510e-04 1.983608e-01 -9.352613e-02 -4.305851e-01 -1.085597e-01 1.783065e-01 4.759311e-02 -1.117135e-01 -4.042396e-02 -2.386076e-01 -8.246198e-02 -3.915993e-03 1.832335e-01 -4.848584e-02 -1.591185e-01 1.028639e-01 1.268346e-01 -7.712393e-02 -1.586263e-01 5.312997e-02 1.404969e-01 4.640255e-02 6.216920e-03
<VARIANCE> 39
 1.167482e+01 1.913229e+01 6.830288e+01 4.239102e+01 5.858709e+01 5.208033e+01 5.924512e+01 6.289759e+01 8.094507e+01 5.292171e+01 4.443536e+01 5.918978e+01 2.184365e+01 4.097450e-01 7.810962e-01 1.529223e+00 1.515752e+00 1.824510e+00 2.200174e+00 2.737017e+00 2.687623e+00 3.226748e+00 2.764893e+00 2.588297e+00 2.791378e+00 4.919675e-01 5.813634e-02 1.217473e-01 2.439538e-01 2.492321e-01 3.261395e-01 3.890930e-01 4.822879e-01 4.787096e-01 5.749519e-01 4.757905e-01 4.466254e-01 4.476584e-01 5.678247e-02
<GCONST> 1.101124e+02
<MIXTURE> 3 2.179163e-01
<MEAN> 39
 5.671752e+00 2.251154e+00 5.527285e-01 -1.733646e+00 -3.334781e+00 -4.595402e+00 -4.215460e+00 -3.672644e-01 -1.167945e+00 -1.202966e+00 -1.469700e+00 -2.281685e+00 1.773557e+00 7.568697e-01 -8.773298e-01 -7.666325e-01 -4.066085e-01 -2.833660e-01 7.815484e-03 2.774462e-01 3.414420e-01 4.290830e-01 -2.993225e-01 1.768480e-01 1.534030e-01 1.320134e+00 -4.874422e-01 -3.610119e-01 -9.190341e-02 1.382316e-01 2.034054e-01 3.543471e-01 5.593478e-01 2.205368e-01 8.831421e-02 -7.764027e-03 1.408338e-01 1.337627e-01 1.318762e-01
<VARIANCE> 39
 2.643422e+01 3.434930e+01 5.167279e+01 5.024539e+01 5.323785e+01 5.250296e+01 6.235477e+01 6.041139e+01 6.527944e+01 6.044601e+01 6.159318e+01 7.029988e+01 3.331707e+01 2.510857e+00 2.731022e+00 3.417864e+00 4.308486e+00 4.174301e+00 5.016001e+00 5.564189e+00 5.706942e+00 6.395473e+00 5.719345e+00 5.289589e+00 4.798390e+00 3.502156e+00 3.568109e-01 3.325045e-01 5.447290e-01 6.383062e-01 7.294556e-01 8.651969e-01 1.014750e+00 9.061857e-01 9.617506e-01 8.939408e-01 8.975480e-01 7.797039e-01 3.723603e-01
<GCONST> 1.366530e+02
<MIXTURE> 4 2.261106e-01
<MEAN> 39
 4.198577e+00 -1.620387e+00 -4.589353e+00 1.747109e+00 1.420275e+00 -3.682854e+00 5.515594e-01 1.128420e+00 -1.351424e+00 -1.013384e+00 1.336685e+00 2.090710e+00 6.634661e+00 1.745756e-01 2.433590e-02 -1.800520e-01 2.057071e-01 2.281000e-01 -2.896475e-01 -3.507310e-01 2.028095e-01 2.163432e-01 -1.002831e-01 -1.787662e-01 1.407947e-01 -1.808306e-01 -5.553474e-02 -3.752291e-02 7.309603e-02 -7.397644e-02 -1.548885e-01 9.678198e-03 1.032747e-01 -1.283991e-02 -5.222505e-02 -2.441600e-02 1.320199e-02 -5.399628e-02 6.125137e-03
<VARIANCE> 39
 2.502083e+01 5.174289e+01 5.991078e+01 8.790283e+01 5.517065e+01 6.965048e+01 7.433511e+01 8.727332e+01 7.111398e+01 6.938800e+01 8.391634e+01 9.930293e+01 3.504464e+01 1.658108e-01 3.606802e-01 6.121056e-01 8.376045e-01 9.525101e-01 1.177310e+00 1.401797e+00 1.489129e+00 1.434213e+00 1.524182e+00 1.304079e+00 1.357120e+00 1.108380e-01 2.920801e-02 6.942761e-02 1.079589e-01 1.580568e-01 1.881821e-01 2.313194e-01 2.616083e-01 2.737217e-01 2.470812e-01 2.565265e-01 2.340218e-01 2.445767e-01 1.583383e-02
<GCONST> 9.624435e+01
<STATE> 3
<NUMMIXES> 4
<MIXTURE> 1 6.334051e-02
<MEAN> 39
 8.998764e+00 -1.968912e+00 -7.747633e+00 4.230080e+00 -3.648509e+00 -3.547608e+00 1.807998e+01 2.406669e+01 2.125597e+01 7.466606e+00 -8.898693e+00 -2.225042e+01 4.613419e+00 9.769936e-03 1.793865e-02 3.249487e-02 -2.154562e-02 2.103511e-02 4.840246e-03 1.493689e-02 -2.525726e-02 -2.129096e-02 -2.886812e-02 -2.051184e-02 4.581770e-02 -3.087603e-02 -1.335722e-02 -1.517745e-03 -1.526949e-02 -1.853118e-02 1.211557e-03 2.387114e-02 -1.195271e-02 -3.299973e-02 -3.365648e-02 -7.675884e-03 5.688552e-03 4.574983e-02 -1.430347e-03
<VARIANCE> 39
 1.633547e+01 1.544408e+01 1.969816e+01 2.227328e+01 3.906596e+01 1.002368e+02 7.238747e+01 6.307733e+01 9.089365e+01 2.588322e+02 3.964884e+02 1.799954e+02 9.691904e+00 2.210576e-01 4.417980e-01 7.209476e-01 7.520635e-01 8.381150e-01 1.277042e+00 1.269094e+00 1.461911e+00 1.401198e+00 2.108380e+00 2.536565e+00 2.325401e+00 9.435902e-02 3.750515e-02 8.163761e-02 1.373319e-01 1.395738e-01 1.545962e-01 2.302025e-01 2.220677e-01 2.694634e-01 2.546963e-01 3.113936e-01 3.168622e-01 3.367255e-01 1.470740e-02
<GCONST> 9.686192e+01
<MIXTURE> 2 3.374229e-01
<MEAN> 39
 5.698566e+00 -3.253891e+00 -8.751143e+00 4.824507e+00 2.013522e+00 -6.241816e+00 -2.524214e+00 1.945041e+00 -2.317811e-01 -3.914790e-01 5.834039e+00 8.983840e+00 5.655720e+00 1.787411e-02 2.633282e-02 1.331028e-01 -3.368398e-02 -1.702953e-01 -6.809152e-02 -4.520642e-02 -2.874705e-02 -6.945595e-02 4.202840e-02 7.982276e-02 -2.562248e-03 -1.232833e-01 -3.699247e-02 7.467994e-03 1.050631e-01 -4.752069e-02 -1.091486e-01 7.299223e-02 1.348218e-01 -1.097070e-02 -3.886280e-02 1.708869e-02 -2.073837e-02 -9.369580e-02 1.622288e-02
<VARIANCE> 39
 2.145834e+01 3.541098e+01 6.113435e+01 7.599760e+01 4.305963e+01 7.765083e+01 7.876980e+01 8.267795e+01 8.618030e+01 1.032185e+02 1.153940e+02 1.348150e+02 2.785664e+01 2.530143e-01 6.043075e-01 1.028357e+00 1.302742e+00 1.521005e+00 1.842541e+00 2.070690e+00 2.170675e+00 2.297232e+00 2.284912e+00 2.126472e+00 2.497287e+00 1.876190e-01 4.684152e-02 1.016987e-01 1.922850e-01 2.410112e-01 2.899523e-01 3.579957e-01 3.962343e-01 4.078146e-01 4.087738e-01 4.050945e-01 3.755560e-01 4.503368e-01 2.642529e-02
<GCONST> 1.086102e+02
<MIXTURE> 3 1.893790e-01
<MEAN> 39
 4.963195e+00 -1.622940e+00 -2.351951e+00 -1.680971e+00 -2.608011e+00 -3.505472e+00 -1.702365e+00 1.328360e+00 1.829554e+00 6.599655e-01 1.383224e+00 1.460845e+00 5.116590e+00 -2.187720e-02 -4.982592e-01 1.393750e-01 1.524436e-01 -3.219038e-01 -4.853838e-02 3.892874e-01 3.043206e-01 -1.783148e-01 -4.390238e-01 5.730946e-02 1.420573e-01 3.347048e-01 -3.982136e-01 5.529313e-02 2.311136e-01 1.275538e-01 1.136431e-01 3.337634e-01 3.280148e-01 -1.035490e-01 -2.902520e-01 1.865094e-03 6.702803e-02 -2.108381e-02 -8.700962e-02
<VARIANCE> 39
 2.276819e+01 3.990189e+01 6.259708e+01 6.783830e+01 6.236520e+01 7.519884e+01 8.424929e+01 8.708784e+01 9.838990e+01 1.039235e+02 1.157912e+02 1.378193e+02 3.074460e+01 1.127824e+00 2.999909e+00 2.812709e+00 4.046968e+00 3.928419e+00 5.640074e+00 6.831473e+00 5.891959e+00 5.528548e+00 5.920539e+00 6.090545e+00 5.620293e+00 3.613611e+00 2.714691e-01 2.982405e-01 4.854011e-01 6.362267e-01 7.599304e-01 8.906806e-01 1.025799e+00 1.006471e+00 1.125615e+00 1.067941e+00 9.973835e-01 8.901441e-01 3.090949e-01
<GCONST> 1.401270e+02
<MIXTURE> 4 4.098575e-01
<MEAN> 39
 7.776203e+00 -5.003142e+00 -1.230303e+01 8.041618e+00 3.060998e+00 -7.036777e+00 6.045399e-01 6.638249e+00 -6.839538e-01 -4.516378e+00 -1.661735e+00 2.072982e+00 7.600798e+00 2.663695e-02 2.316717e-02 2.598901e-02 -1.646765e-02 -5.788527e-03 -3.529776e-02 -3.711211e-02 1.296671e-02 2.139702e-02 -2.130474e-02 9.916548e-03 -3.118462e-02 -4.590730e-02 -1.436630e-02 1.895810e-03 2.848486e-02 -3.258764e-02 -3.174299e-02 -3.581036e-03 1.761780e-02 -2.021145e-02 -3.377120e-02 1.198915e-02 1.414625e-02 -1.376239e-02 -4.595006e-03
<VARIANCE> 39
 1.177601e+01 1.661795e+01 3.132568e+01 3.167892e+01 3.106093e+01 3.632497e+01 5.028092e+01 6.437232e+01 7.135606e+01 4.699267e+01 5.035377e+01 5.996438e+01 1.553690e+01 1.030215e-01 2.114383e-01 4.302220e-01 4.616236e-01 6.634152e-01 7.411246e-01 8.862567e-01 8.901501e-01 9.057295e-01 8.641768e-01 7.889100e-01 7.626373e-01 5.813910e-02 1.660088e-02 3.461720e-02 7.168940e-02 8.072953e-02 1.161430e-01 1.346938e-01 1.464696e-01 1.603955e-01 1.523569e-01 1.579185e-01 1.443428e-01 1.406213e-01 7.350992e-03
<GCONST> 7.479031e+01
<STATE> 4
<NUMMIXES> 4
<MIXTURE> 1 2.898624e-01
<MEAN> 39
 6.733152e+00 1.932082e+00 -2.552946e+00 -1.801599e+00 -8.936455e-01 -4.332132e+00 -4.708536e+00 -3.465026e-01 2.692240e-01 -6.649732e-01 -1.722473e+00 -2.604807e+00 1.379850e+00 -1.602925e-01 2.507306e-01 6.877620e-01 2.751393e-01 -2.790421e-01 -1.621171e-01 -9.326342e-02 2.599598e-02 -2.420912e-01 -1.956441e-01 -1.998791e-01 -1.541573e-01 -4.939290e-01 -1.864192e-01 -4.223545e-02 1.524817e-02 1.348262e-01 6.326651e-02 1.362598e-01 2.359397e-01 6.892119e-02 -5.074194e-02 -2.948561e-02 5.781542e-02 6.155929e-02 2.310850e-02
<VARIANCE> 39
 3.601876e+01 3.227933e+01 6.515289e+01 6.047160e+01 5.394712e+01 6.558862e+01 6.043855e+01 8.342657e+01 7.517715e+01 7.389126e+01 7.269364e+01 9.038268e+01 3.594265e+01 7.512364e-01 1.717196e+00 2.153187e+00 2.602709e+00 2.659814e+00 3.423367e+00 3.799840e+00 4.171430e+00 3.733085e+00 3.666894e+00 3.581876e+00 3.459089e+00 1.839048e+00 1.395370e-01 1.987008e-01 3.017862e-01 3.792046e-01 4.920812e-01 6.087311e-01 6.236237e-01 7.288327e-01 6.969453e-01 6.478962e-01 6.148077e-01 5.619839e-01 1.499632e-01
<GCONST> 1.258970e+02
<MIXTURE> 2 3.229222e-01
<MEAN> 39
 1.154295e+01 1.899981e+00 -8.302341e+00 1.899413e+00 3.836563e+00 -6.676135e+00 -7.568567e+00 2.320697e+00 3.516856e+00 -5.169777e-01 -4.336918e+00 -3.568470e+00 8.496132e-01 -5.338692e-03 5.592522e-02 1.618218e-01 -5.940474e-02 -6.250218e-02 2.311987e-03 1.355592e-03 -1.107536e-01 -5.426002e-02 -3.217979e-02 4.039411e-02 -5.115932e-03 -1.087363e-01 -2.694697e-02 -2.111890e-02 3.176577e-02 2.445396e-02 -4.469092e-02 -1.062741e-02 6.371852e-02 1.455022e-02 -4.871185e-02 -3.243832e-02 3.254773e-02 1.774108e-02 1.388556e-02
<VARIANCE> 39
 8.616757e+00 1.420985e+01 4.167658e+01 2.725761e+01 3.187528e+01 3.276039e+01 5.047388e+01 7.067385e+01 6.527557e+01 6.191095e+01 4.336588e+01 5.967279e+01 1.436536e+01 1.272150e-01 3.580883e-01 6.054873e-01 7.548867e-01 1.091401e+00 1.263123e+00 1.451987e+00 1.713051e+00 1.719350e+00 1.762118e+00 1.494557e+00 1.472144e+00 1.268191e-01 2.161949e-02 6.076730e-02 1.022768e-01 1.318827e-01 2.025702e-01 2.312325e-01 2.671335e-01 3.107512e-01 3.223867e-01 3.213494e-01 2.841397e-01 2.727247e-01 1.658640e-02
<GCONST> 8.925636e+01
<MIXTURE> 3 1.603554e-01
<MEAN> 39
 5.421346e+00 -6.081896e+00 -4.298068e+00 2.942345e+00 -3.479735e+00 -4.666421e+00 3.853796e+00 5.990869e+00 -1.926364e-01 -3.589217e+00 2.486182e+00 2.030667e+00 8.161489e+00 -1.300959e+00 -9.266397e-01 1.008462e+00 -2.296087e-01 -7.468101e-01 1.617845e+00 2.546256e+00 -5.273390e-01 -1.716037e+00 2.105832e-01 8.994133e-01 2.305896e-01 1.428868e+00 -2.602458e-01 4.827501e-01 3.054757e-01 -3.760328e-01 2.667260e-01 5.670584e-01 -3.946315e-01 -8.157585e-01 2.386789e-03 6.151595e-01 -1.878656e-01 -2.067527e-01 -2.620597e-01
<VARIANCE> 39
 2.026752e+01 2.645293e+01 6.109489e+01 5.899489e+01 6.564933e+01 8.225379e+01 8.486224e+01 8.262715e+01 1.046207e+02 1.095947e+02 1.122683e+02 1.484566e+02 2.592525e+01 1.045032e+00 1.659256e+00 3.873538e+00 4.796472e+00 6.090177e+00 6.135992e+00 6.752089e+00 7.072217e+00 7.219831e+00 7.743903e+00 6.308079e+00 7.170674e+00 1.367475e+00 2.145205e-01 2.808613e-01 5.366104e-01 8.937424e-01 8.535216e-01 1.204760e+00 1.215423e+00 1.088839e+00 1.505479e+00 1.201836e+00 1.230918e+00 1.108698e+00 2.492400e-01
<GCONST> 1.413110e+02
<MIXTURE> 4 2.268600e-01
<MEAN> 39
 4.412945e+00 -5.740994e+00 -4.812896e+00 5.544647e+00 -1.287751e+00 -4.182015e+00 3.473917e+00 3.746228e+00 -2.760139e+00 -3.833873e+00 3.255626e+00 2.070779e+00 8.064160e+00 -3.604469e-01 -1.764318e-01 7.660834e-01 -3.345102e-01 -8.477942e-01 4.844776e-01 9.259230e-01 -5.654353e-01 -7.242514e-01 4.611049e-01 5.152711e-01 -4.593511e-01 1.586859e-01 -3.189037e-02 1.427550e-01 9.413005e-02 -2.543287e-01 5.791658e-03 2.175499e-01 -9.109524e-02 -2.834903e-01 1.453546e-01 2.314214e-01 -1.882664e-01 -1.362332e-01 -5.183316e-02
<VARIANCE> 39
 2.101652e+01 2.318480e+01 4.117052e+01 5.002869e+01 5.392051e+01 6.313184e+01 6.953503e+01 8.174828e+01 7.588849e+01 9.366075e+01 9.372240e+01 1.030263e+02 2.305610e+01 2.725192e-01 5.685487e-01 1.086454e+00 1.416400e+00 1.627152e+00 2.036710e+00 2.359129e+00 2.464928e+00 2.428505e+00 2.668614e+00 2.290519e+00 2.313016e+00 2.507985e-01 4.088540e-02 7.596339e-02 1.347834e-01 2.037661e-01 2.437640e-01 3.057902e-01 3.523784e-01 3.681501e-01 3.705766e-01 3.965662e-01 4.083899e-01 3.635506e-01 2.926700e-02
<GCONST> 1.057704e+02
<STATE> 5
<NUMMIXES> 4
<MIXTURE> 1 2.124037e-01
<MEAN> 39
 -3.869109e-01 -7.291712e+00 -1.406205e+00 2.840101e+00 2.013488e-01 4.385828e+00 6.821672e+00 1.829090e+00 -2.655210e+00 5.631247e-01 6.314636e+00 7.736093e+00 1.163657e+01 -3.706568e-01 9.206357e-02 1.774874e-01 8.184183e-02 2.711187e-01 1.286000e-01 -2.825216e-02 -5.274888e-01 8.672322e-02 5.897584e-01 -2.549043e-01 -6.393896e-02 5.491441e-02 1.815887e-01 1.635307e-01 3.750646e-04 -2.690502e-02 -1.510195e-01 -2.927692e-01 -3.028568e-01 6.141729e-02 2.439080e-01 -9.972840e-02 -1.621388e-01 -1.836845e-01 -2.453122e-01
<VARIANCE> 39
 1.579968e+01 2.906431e+01 3.718543e+01 8.097785e+01 5.261654e+01 9.235771e+01 1.024983e+02 1.099222e+02 1.877535e+02 2.825785e+02 2.082599e+02 2.372204e+02 2.118381e+01 8.184060e-01 1.176972e+00 2.154557e+00 3.805907e+00 3.866335e+00 4.069697e+00 3.858784e+00 4.814073e+00 5.518445e+00 6.044355e+00 5.654135e+00 6.605863e+00 5.332283e-01 1.046775e-01 1.977832e-01 2.986747e-01 4.784436e-01 5.222713e-01 7.341537e-01 7.606707e-01 7.525938e-01 9.387521e-01 1.047378e+00 9.527382e-01 9.098642e-01 1.047312e-01
<GCONST> 1.328628e+02
<MIXTURE> 2 2.377190e-01
<MEAN> 39
 4.204320e+00 2.343543e+00 2.833752e+00 -9.146105e-02 -3.948703e+00 -4.762452e+00 -2.880561e+00 -1.314889e+00 -2.948812e+00 -2.022315e+00 -2.412353e+00 -1.824626e+00 4.646708e-02 -7.485712e-01 7.269947e-01 7.115002e-01 3.841604e-01 2.928388e-01 4.816983e-01 -1.113702e-01 -2.555352e-01 -2.398257e-01 -1.296524e-01 -1.246769e-01 -2.652669e-01 -1.296916e+00 -2.470280e-01 -2.817606e-01 -4.096064e-01 -8.183281e-02 2.457349e-01 3.457965e-01 3.018180e-01 1.761368e-01 1.941563e-01 1.146509e-01 1.608597e-01 1.332966e-01 2.214205e-01
<VARIANCE> 39
 2.145467e+01 3.199873e+01 3.298411e+01 6.015010e+01 5.107747e+01 6.725948e+01 5.676232e+01 7.814848e+01 7.204317e+01 7.090818e+01 7.137639e+01 7.441788e+01 3.228617e+01 1.883967e+00 2.188686e+00 2.693449e+00 3.457659e+00 3.442914e+00 4.361180e+00 5.040162e+00 4.613262e+00 4.993006e+00 4.750436e+00 4.486538e+00 3.803416e+00 2.369242e+00 2.305233e-01 3.072470e-01 3.937096e-01 5.540403e-01 5.891770e-01 7.355634e-01 8.067721e-01 8.272088e-01 8.940188e-01 7.965199e-01 7.783580e-01 6.756219e-01 2.537032e-01
<GCONST> 1.315369e+02
<MIXTURE> 3 2.099281e-01
<MEAN> 39
 2.634871e+00 -4.956607e+00 2.063718e+00 -3.370351e+00 -8.375550e+00 2.261758e+00 6.541431e+00 -9.537821e-01 -1.735036e+00 -1.899552e-01 5.285102e-01 -2.076792e+00 9.816982e+00 -1.120925e+00 7.201340e-01 7.491493e-01 -2.036762e+00 6.183170e-01 2.084273e+00 -4.137568e-01 -1.451622e+00 7.772946e-01 5.540390e-01 -8.549986e-01 2.804110e-01 5.445742e-01 1.237897e-01 4.145257e-01 -3.399128e-01 2.490231e-01 7.341439e-01 -5.396977e-01 -8.917426e-01 3.631907e-01 1.942487e-01 -2.939349e-01 -1.350312e-01 4.140740e-01 -3.890198e-01
<VARIANCE> 39
 1.576653e+01 3.213465e+01 3.603067e+01 5.694159e+01 4.942239e+01 6.678858e+01 6.634197e+01 8.050025e+01 8.483819e+01 7.233650e+01 8.404249e+01 1.039724e+02 2.061126e+01 1.101342e+00 1.891737e+00 3.038310e+00 3.938282e+00 4.898126e+00 6.400692e+00 5.848363e+00 5.831265e+00 5.638777e+00 5.294878e+00 5.250076e+00 4.727478e+00 1.458517e+00 1.522391e-01 2.289431e-01 3.925142e-01 6.619945e-01 6.077443e-01 8.215674e-01 9.332193e-01 9.844266e-01 1.189394e+00 8.937804e-01 8.831632e-01 7.530761e-01 1.378141e-01
<GCONST> 1.324038e+02
<MIXTURE> 4 3.399492e-01
<MEAN> 39
 3.008936e+00 -3.329825e+00 -1.740230e-01 2.624547e-01 -3.166884e+00 5.972021e-02 2.320747e+00 -5.441248e-01 -2.411503e+00 -2.556983e-01 1.819650e+00 -8.425832e-01 6.992239e+00 -2.164550e-01 1.910737e-01 3.147370e-01 -3.642998e-01 -6.860374e-02 4.529794e-01 1.084166e-01 -3.995828e-01 7.534257e-02 2.441964e-01 -2.842219e-01 -4.798885e-02 -2.880975e-02 3.249812e-02 1.058738e-01 -7.083715e-02 1.145680e-03 1.374115e-01 -8.329562e-02 -1.337687e-01 4.266705e-02 1.135867e-01 -9.176887e-02 -9.307507e-02 1.124872e-01 -7.308290e-02
<VARIANCE> 39
 2.210485e+01 4.763372e+01 4.173769e+01 7.929046e+01 6.177126e+01 6.583524e+01 6.933124e+01 8.015757e+01 8.324120e+01 8.342561e+01 8.939759e+01 1.099193e+02 3.462499e+01 2.620930e-01 5.360935e-01 8.023781e-01 1.358722e+00 1.313238e+00 1.911379e+00 1.912030e+00 2.227198e+00 1.954847e+00 1.998623e+00 1.962998e+00 1.766009e+00 2.149186e-01 3.742329e-02 8.025467e-02 1.203605e-01 1.979952e-01 2.200131e-01 3.032487e-01 3.195673e-01 3.531825e-01 3.249286e-01 3.358101e-01 3.462016e-01 3.236711e-01 2.885600e-02
<GCONST> 1.044361e+02
<TRANSP> 6
 0.000000e+00 1.000000e+00 0.000000e+00 0.000000e+00 0.000000e+00 0.000000e+00
 0.000000e+00 5.682793e-01 4.317206e-01 0.000000e+00 0.000000e+00 0.000000e+00
 0.000000e+00 0.000000e+00 7.328213e-01 2.671787e-01 0.000000e+00 0.000000e+00
 0.000000e+00 0.000000e+00 0.000000e+00 6.573641e-01 3.426359e-01 0.000000e+00
 0.000000e+00 0.000000e+00 0.000000e+00 0.000000e+00 5.291281e-01 4.708719e-01
 0.000000e+00 0.000000e+00 0.000000e+00 0.000000e+00 0.000000e+00 0.000000e+00
<ENDHMM>
