~o
<STREAMINFO> 1 39
<VECSIZE> 39<NULLD><MFCC_D_A_Z_0><DIAGC>
~h "uh"
<BEGINHMM>
<NUMSTATES> 6
<STATE> 2
<NUMMIXES> 4
<MIXTURE> 1 3.625539e-01
<MEAN> 39
 -1.786645e+00 4.844218e-01 -1.250988e+00 -8.046803e+00 8.034348e-01 -6.488376e-03 -1.063761e+00 -2.213585e+00 1.863359e+00 1.014228e+01 1.885777e+01 2.058225e+01 1.035535e+01 4.670437e-02 -4.191194e-02 -4.511371e-02 1.525309e-01 -5.985819e-02 -1.482294e-01 -1.614126e-02 -9.764243e-03 -1.289510e-01 -2.880889e-03 -3.597589e-02 4.758565e-03 -1.197713e-01 4.459433e-02 2.513836e-02 2.069409e-02 2.310469e-02 -4.915599e-02 -3.072713e-02 3.310533e-02 3.506003e-02 -1.760786e-02 -2.192925e-02 -1.374606e-01 -1.777863e-01 -2.729581e-02
<VARIANCE> 39
 1.420978e+01 4.539969e+01 3.099214e+01 8.663690e+01 6.638343e+01 9.043160e+01 7.057632e+01 5.095898e+01 6.842963e+01 8.200359e+01 6.555177e+01 5.822680e+01 2.374618e+01 4.997322e-01 1.045149e+00 1.298167e+00 2.010570e+00 2.842940e+00 3.212423e+00 2.536361e+00 2.652445e+00 3.178965e+00 3.454248e+00 3.128746e+00 2.997958e+00 2.948914e-01 7.702632e-02 1.538466e-01 2.214127e-01 3.200243e-01 4.704547e-01 5.522183e-01 4.478845e-01 4.406913e-01 5.226756e-01 5.617149e-01 5.275674e-01 4.586167e-01 4.210246e-02
<GCONST> 1.149533e+02
<MIXTURE> 2 1.914539e-01
<MEAN> 39
 4.224768e-01 5.970595e-01 7.133886e-02 -6.979068e+00 -3.071956e+00 -2.395717e+00 -1.165283e+00 -1.177195e-01 2.856243e+00 7.381087e+00 8.446667e+00 7.876231e+00 7.356184e+00 -1.464897e-01 -6.690762e-02 -7.259016e-02 -3.515531e-01 1.666667e-01 3.208635e-01 9.414688e-04 8.547604e-02 6.324784e-02 1.433388e-01 1.425207e-01 1.100868e-01 4.611321e-01 -1.416612e-01 2.829527e-02 -1.493260e-02 1.175075e-01 2.770683e-01 1.504123e-01 -2.661771e-02 -4.708820e-03 -2.645218e-02 -4.596401e-02 1.666212e-01 1.549277e-01 -4.545612e-02
<VARIANCE> 39
 2.383845e+01 4.565214e+01 4.173562e+01 6.921414e+01 6.089985e+01 8.095411e+01 7.851926e+01 8.921898e+01 1.081953e+02 1.321747e+02 1.381465e+02 1.463316e+02 4.513671e+01 1.700273e+00 2.034870e+00 2.315786e+00 4.107966e+00 4.309229e+00 5.902686e+00 5.841300e+00 5.181767e+00 6.177343e+00 7.505521e+00 8.262394e+00 8.262990e+00 2.395112e+00 3.063427e-01 3.138772e-01 3.767455e-01 6.914740e-01 6.436223e-01 1.002250e+00 1.037942e+00 9.626383e-01 1.182472e+00 1.341216e+00 1.266207e+00 1.209427e+00 3.492393e-01
<GCONST> 1.420704e+02
<MIXTURE> 3 3.163990e-01
<MEAN> 39
 -1.481969e+00 2.622246e+00 -4.469270e-02 -1.195382e+01 4.260641e+00 -1.300463e+00 -3.094043e+00 -5.409380e-01 2.839408e+00 9.578214e+00 2.066118e+01 2.016192e+01 1.014798e+01 2.193895e-02 -2.016838e-02 -3.073051e-03 3.586936e-02 -1.308107e-02 2.013155e-02 6.342860e-02 -4.831521e-02 4.831127e-02 1.591552e-03 4.705625e-02 5.562146e-02 -3.246050e-02 -5.829007e-03 -3.088740e-02 -2.827841e-03 -8.656623e-03 -5.987608e-02 5.919208e-03 1.146260e-02 -2.604934e-02 8.086145e-03 7.890835e-03 -2.769517e-02 -2.007618e-02 -5.320379e-03
<VARIANCE> 39
 1.315481e+01 3.976120e+01 2.496057e+01 5.772799e+01 6.764914e+01 1.246970e+02 6.712060e+01 5.088738e+01 7.053036e+01 7.627856e+01 7.523005e+01 6.557787e+01 1.878315e+01 1.560412e-01 4.742977e-01 5.813062e-01 7.740029e-01 9.240229e-01 1.108224e+00 1.119511e+00 1.080867e+00 1.193667e+00 1.237558e+00 1.244736e+00 1.055580e+00 5.350929e-02 2.737188e-02 8.058337e-02 1.062935e-01 1.463559e-01 1.527491e-01 1.831919e-01 2.015630e-01 1.934593e-01 2.071615e-01 2.129521e-01 2.298042e-01 1.991968e-01 8.360486e-03
<GCONST> 8.887125e+01
<MIXTURE> 4 1.295931e-01
<MEAN> 39
 -1.714902e+00 -1.014414e+00 7.328786e-01 -5.961782e+00 2.177794e+00 6.735682e+00 4.336959e+00 4.526469e+00 4.165994e+00 1.061811e+00 1.838871e+00 1.464390e+00 9.186908e+00 1.217472e-02 -2.764606e-02 1.978437e-02 5.710734e-02 1.327918e-01 2.813402e-02 -2.480416e-02 2.108232e-02 -1.706304e-02 4.855730e-02 1.786812e-02 -6.004772e-02 -1.065128e-01 8.868774e-03 -1.444260e-02 -1.149060e-02 -2.442364e-02 -6.922825e-02 -8.184969e-02 -9.733556e-03 -4.239810e-02 -7.582366e-03 -8.390361e-03 6.875040e-02 2.115340e-01 -2.692792e-02
<VARIANCE> 39
 2.702315e+01 3.617137e+01 4.026838e+01 9.808212e+01 7.019508e+01 1.224668e+02 1.275672e+02 1.791788e+02 1.787049e+02 4.009493e+02 3.177567e+02 1.811136e+02 5.410191e+01 3.123620e-01 6.940515e-01 8.727621e-01 1.244470e+00 1.438984e+00 1.704593e+00 1.936020e+00 2.343442e+00 2.642149e+00 2.625266e+00 3.179813e+00 4.008945e+00 2.129924e-01 5.847757e-02 1.155366e-01 1.654304e-01 2.196975e-01 2.585394e-01 3.247359e-01 3.716220e-01 4.472411e-01 4.512495e-01 5.368716e-01 5.541607e-01 5.662844e-01 3.077980e-02
<GCONST> 1.173279e+02
<STATE> 3
<NUMMIXES> 4
<MIXTURE> 1 2.866367e-01
<MEAN> 39
 3.629450e+00 1.232661e+00 4.113975e-01 -6.408777e+00 -3.594951e+00 -1.573938e-01 -1.216301e+00 -7.576835e-01 -1.781200e+00 6.288032e-01 -2.752869e+00 -4.133723e-01 8.016997e+00 2.673024e-02 -1.156596e-01 -4.625448e-02 2.229339e-01 -2.538076e-03 -4.794988e-02 1.285938e-01 -7.650889e-02 -9.598186e-02 3.200038e-02 -8.915736e-03 -3.600226e-02 -5.380367e-02 -2.534859e-02 4.658410e-02 1.380852e-02 6.518702e-02 3.453751e-02 -2.944394e-02 -8.546013e-03 -9.891881e-03 6.541941e-03 -2.849277e-02 6.225897e-02 3.397480e-02 -6.039233e-02
<VARIANCE> 39
 1.925244e+01 4.320875e+01 3.577386e+01 6.735783e+01 5.372900e+01 7.751678e+01 7.824320e+01 8.901966e+01 6.408376e+01 8.353876e+01 8.480742e+01 7.990819e+01 2.521248e+01 4.595394e-01 1.099316e+00 1.269639e+00 2.012853e+00 2.210230e+00 2.851405e+00 2.992224e+00 2.857392e+00 2.721680e+00 2.738520e+00 2.901253e+00 2.614752e+00 6.451228e-01 7.315284e-02 1.467031e-01 1.943120e-01 3.135195e-01 3.586534e-01 4.248665e-01 4.940531e-01 4.625471e-01 4.648424e-01 4.648472e-01 5.067776e-01 4.460361e-01 1.020567e-01
<GCONST> 1.158527e+02
<MIXTURE> 2 6.304248e-02
<MEAN> 39
 -4.829928e-01 1.905862e+00 -2.270764e+00 -8.884243e+00 5.323508e+00 -4.577111e-01 8.616635e+00 1.587963e+01 2.014823e+01 2.309007e+01 6.415829e+00 -1.864958e+01 8.049579e+00 1.649888e-02 -4.939443e-02 6.103024e-03 1.632061e-02 -6.826638e-02 5.301469e-02 9.713027e-02 3.813735e-03 1.196234e-01 -5.315393e-02 -1.385099e-01 -2.034698e-01 -1.476044e-02 -3.255790e-03 -1.069786e-02 4.875627e-03 -8.861658e-04 1.133468e-02 -9.706615e-04 -2.427870e-02 -1.628068e-02 -2.194760e-02 -1.296706e-02 3.549946e-02 3.463718e-02 4.912786e-03
<VARIANCE> 39
 3.605115e+01 2.289498e+01 1.670345e+01 2.450305e+01 5.698651e+01 2.875926e+01 5.334339e+01 3.513523e+01 2.208763e+01 3.527134e+01 1.476793e+02 1.217903e+02 7.038302e+00 1.825362e-01 3.628299e-01 6.125959e-01 5.748875e-01 8.412088e-01 6.561491e-01 1.168766e+00 7.320526e-01 9.762800e-01 1.291479e+00 1.723920e+00 1.272966e+00 9.387607e-02 3.183886e-02 6.340752e-02 1.260948e-01 1.031400e-01 1.606496e-01 1.239738e-01 2.274165e-01 1.391148e-01 1.745427e-01 2.449013e-01 2.555940e-01 1.929930e-01 1.399681e-02
<GCONST> 8.354753e+01
<MIXTURE> 3 3.506990e-01
<MEAN> 39
 3.834639e+00 6.844984e+00 -8.184163e-01 -1.098544e+01 1.466155e+00 -2.896472e+00 -6.227090e+00 3.618475e-01 -1.050651e+00 -2.495146e+00 -1.065169e+00 -6.042685e-01 7.491077e+00 2.363947e-02 -2.624676e-02 3.941339e-03 1.438550e-02 -1.751308e-02 2.646775e-02 8.927823e-03 -4.443442e-02 -5.125583e-02 -4.598327e-03 -1.309105e-02 -3.514126e-02 -3.955121e-02 6.190083e-03 -2.526715e-02 2.101026e-02 2.742333e-02 -4.813531e-02 1.891236e-02 2.931885e-02 -1.112099e-02 6.530270e-03 1.713850e-02 -1.817504e-02 -3.257770e-03 -6.032208e-03
<VARIANCE> 39
 2.093797e+01 4.258460e+01 3.825869e+01 3.868781e+01 3.808732e+01 9.813556e+01 4.093818e+01 9.200366e+01 5.240110e+01 7.152132e+01 8.359433e+01 7.821044e+01 2.029900e+01 9.340038e-02 2.686667e-01 3.677198e-01 5.283069e-01 6.553448e-01 8.634005e-01 8.703753e-01 9.548897e-01 8.914830e-01 8.815259e-01 8.981220e-01 7.902450e-01 6.019999e-02 1.607450e-02 3.937165e-02 6.240354e-02 9.023601e-02 1.158778e-01 1.485019e-01 1.524839e-01 1.674128e-01 1.585238e-01 1.553248e-01 1.557533e-01 1.444968e-01 7.927150e-03
<GCONST> 8.017255e+01
<MIXTURE> 4 2.996218e-01
<MEAN> 39
 6.030627e+00 -1.539807e+00 -6.225747e-01 -3.345205e-01 -6.437829e+00 -6.826037e-01 4.133169e+00 -2.073567e-01 -2.618132e+00 3.342943e+00 -3.753751e+00 -2.834500e+00 7.916389e+00 5.983229e-02 -1.924009e-02 -4.812551e-02 1.376737e-01 6.594202e-03 -1.266974e-01 7.367001e-02 8.292653e-02 -2.839984e-02 -7.271966e-02 9.488513e-02 -1.261112e-02 -6.022394e-02 -4.585585e-03 3.967808e-02 1.336305e-02 -4.970605e-02 2.908177e-02 -1.506610e-02 -6.144495e-02 -9.812670e-03 4.154036e-02 -2.350399e-02 -2.129750e-02 1.350193e-02 -2.410297e-02
<VARIANCE> 39
 1.362582e+01 2.528057e+01 3.038638e+01 5.010645e+01 3.335280e+01 7.556601e+01 5.697232e+01 7.839323e+01 5.407029e+01 5.078019e+01 6.088109e+01 5.806890e+01 2.507133e+01 9.290352e-02 2.269300e-01 3.652154e-01 6.124551e-01 6.333103e-01 9.440402e-01 9.998029e-01 1.072498e+00 1.142770e+00 1.001854e+00 9.290844e-01 9.564758e-01 6.848817e-02 1.399501e-02 3.600976e-02 6.003722e-02 9.056258e-02 1.046460e-01 1.563144e-01 1.622439e-01 1.829537e-01 1.858532e-01 1.695639e-01 1.728261e-01 1.590124e-01 1.046157e-02
<GCONST> 7.987920e+01
<STATE> 4
<NUMMIXES> 4
<MIXTURE> 1 2.782413e-01
<MEAN> 39
 -7.327293e-01 -8.430605e+00 -2.928219e+00 6.609198e+00 -8.657300e-02 4.552366e+00 1.691764e+00 -2.263918e+00 4.121405e+00 1.352355e+01 1.660585e+01 1.343688e+01 1.191799e+01 2.191436e-02 2.559842e-02 1.098928e-02 4.627977e-02 -1.171382e-02 -2.469786e-02 1.798442e-03 6.896011e-02 -9.255415e-03 -5.157725e-03 1.486817e-02 3.502010e-02 -2.238860e-02 -8.684573e-04 3.986743e-03 -6.682736e-03 -3.961503e-02 -3.952812e-03 4.552434e-03 1.054356e-02 2.474857e-03 -2.232656e-02 -3.236497e-02 1.121880e-02 1.177960e-02 -5.629290e-03
<VARIANCE> 39
 9.549006e+00 2.196271e+01 2.506623e+01 5.574323e+01 3.836137e+01 5.569410e+01 4.778498e+01 6.916117e+01 1.170576e+02 1.347276e+02 7.685529e+01 1.464848e+02 1.498694e+01 1.808418e-01 3.537387e-01 4.496351e-01 6.523910e-01 6.424545e-01 7.297171e-01 9.293048e-01 8.107780e-01 1.018667e+00 9.502281e-01 9.574298e-01 9.228457e-01 5.602659e-02 3.424029e-02 6.393092e-02 8.330362e-02 1.153633e-01 1.183269e-01 1.462689e-01 1.555151e-01 1.371723e-01 1.797545e-01 1.786998e-01 1.760907e-01 1.633996e-01 8.414764e-03
<GCONST> 8.324493e+01
<MIXTURE> 2 1.918200e-01
<MEAN> 39
 6.645495e+00 4.338071e-01 -7.134861e+00 1.560834e+00 -1.468571e-01 -5.664652e+00 -2.118728e+00 -1.021740e+00 3.394912e-01 -3.400552e+00 -3.326076e+00 -2.491044e+00 4.052411e+00 7.185940e-02 1.701003e-01 2.111047e-01 -3.261233e-02 1.019471e-01 -7.217675e-02 -2.794426e-01 -1.297947e-01 6.698838e-02 -4.367860e-02 -1.491724e-01 -3.371825e-02 -2.905585e-01 -3.890463e-02 -9.937768e-03 8.052138e-02 2.701887e-02 -2.139140e-02 7.467663e-02 3.517027e-02 4.296802e-03 -3.888887e-02 5.436332e-02 6.373218e-02 6.914277e-02 -2.243945e-03
<VARIANCE> 39
 2.664888e+01 2.690805e+01 7.501923e+01 6.068324e+01 5.019186e+01 4.822506e+01 6.885597e+01 8.399331e+01 7.484126e+01 7.636504e+01 6.413456e+01 5.868924e+01 2.154967e+01 3.102589e-01 5.580300e-01 8.838007e-01 1.322873e+00 1.542960e+00 1.767165e+00 2.173956e+00 2.896534e+00 2.644180e+00 2.543255e+00 2.394378e+00 1.882588e+00 3.330837e-01 4.081801e-02 9.247486e-02 1.589736e-01 2.313737e-01 2.799534e-01 3.027185e-01 3.598530e-01 5.139526e-01 4.519993e-01 4.275812e-01 3.946525e-01 3.333153e-01 4.184971e-02
<GCONST> 1.067590e+02
<MIXTURE> 3 3.401007e-01
<MEAN> 39
 -1.363277e-01 -8.413686e+00 -3.073447e+00 5.858495e+00 -6.129134e-01 4.085132e+00 3.880443e+00 -3.111682e+00 5.484751e-01 6.743656e+00 1.250073e+01 1.129252e+01 1.093729e+01 3.300811e-02 -4.677580e-04 -9.155475e-02 -2.410857e-02 -1.116581e-01 -6.596240e-02 -8.144707e-03 -2.948139e-02 1.169105e-01 -1.864295e-01 3.835614e-02 6.383186e-02 -1.285760e-01 4.029439e-02 5.789336e-02 -2.363403e-02 -1.066302e-01 -4.387679e-02 -1.263005e-01 -4.897198e-02 4.034482e-02 2.741363e-02 -1.940371e-02 -7.221337e-02 -6.384560e-02 -6.405558e-02
<VARIANCE> 39
 1.567959e+01 1.998204e+01 3.013317e+01 8.170692e+01 4.688312e+01 6.757800e+01 7.816430e+01 9.644185e+01 1.282912e+02 1.361513e+02 9.937485e+01 1.342892e+02 1.569652e+01 3.626839e-01 6.533578e-01 1.094252e+00 1.650249e+00 1.600604e+00 2.321333e+00 2.073627e+00 2.475219e+00 2.614960e+00 2.826256e+00 2.830027e+00 2.785611e+00 1.764953e-01 5.942013e-02 1.107936e-01 1.759912e-01 2.325705e-01 2.651646e-01 3.775940e-01 3.861138e-01 3.863347e-01 4.733898e-01 4.453448e-01 4.455160e-01 4.484845e-01 3.091151e-02
<GCONST> 1.096051e+02
<MIXTURE> 4 1.898379e-01
<MEAN> 39
 2.352046e+00 -4.644841e+00 -3.222305e+00 3.814326e-01 -3.193619e+00 -1.115016e+00 2.484447e+00 1.762783e+00 2.949686e+00 6.436411e+00 9.299389e+00 4.659487e+00 7.586038e+00 -6.580753e-02 1.196038e-02 1.008073e-01 1.614510e-01 -2.212839e-02 4.632596e-02 1.502905e-01 -9.171651e-02 -2.368000e-01 1.238890e-01 -4.302060e-02 6.285495e-02 -8.611028e-03 -3.066985e-02 4.508911e-02 8.079798e-02 1.100114e-01 9.694158e-02 4.453941e-02 -9.422038e-02 -8.959085e-02 6.766313e-04 -7.662592e-03 -3.652044e-02 1.193429e-02 -3.662479e-02
<VARIANCE> 39
 2.022864e+01 3.560271e+01 3.927150e+01 7.337936e+01 5.845137e+01 7.166405e+01 9.890206e+01 1.128356e+02 1.564386e+02 1.480765e+02 1.317785e+02 2.046209e+02 3.070710e+01 1.034318e+00 2.254096e+00 2.569854e+00 3.956664e+00 3.767425e+00 5.548021e+00 5.863592e+00 5.464159e+00 6.223100e+00 5.670835e+00 5.690455e+00 6.540757e+00 1.729963e+00 1.347885e-01 2.777167e-01 3.902370e-01 5.116578e-01 6.143210e-01 7.985532e-01 9.294497e-01 1.021059e+00 1.086145e+00 9.951949e-01 1.006348e+00 9.834828e-01 1.949002e-01
<GCONST> 1.377327e+02
<STATE> 5
<NUMMIXES> 4
<MIXTURE> 1 2.128293e-01
<MEAN> 39
 4.973285e+00 -2.127073e+00 -2.861330e+00 5.130177e+00 -1.065627e+01 -1.203123e+01 3.197383e+00 3.267888e+00 1.273586e+01 2.000019e+01 2.194686e+01 1.282791e+01 5.479874e+00 8.423238e-03 8.424203e-04 -3.156622e-02 7.846648e-02 7.358535e-03 -4.380395e-02 -1.599001e-02 1.903084e-02 2.542139e-02 -4.789444e-02 2.458442e-02 2.678133e-02 1.543461e-04 2.413311e-03 1.843946e-03 -1.825077e-02 -6.553801e-03 1.077097e-02 -7.514073e-03 -1.223022e-02 -6.341213e-03 -1.673358e-02 -2.073047e-02 -3.003658e-03 -1.683684e-03 -5.639597e-03
<VARIANCE> 39
 1.078464e+01 7.844447e+00 3.488087e+01 4.147132e+01 3.032842e+01 7.853910e+01 6.120869e+01 4.774575e+01 6.361206e+01 4.031195e+01 3.375485e+01 7.097191e+01 5.516686e+00 1.179095e-01 2.306175e-01 4.926223e-01 4.679636e-01 6.071848e-01 7.194573e-01 6.958063e-01 8.409861e-01 1.084829e+00 7.606691e-01 1.087552e+00 1.104640e+00 4.192638e-02 1.906245e-02 3.822276e-02 8.366803e-02 8.083562e-02 1.153771e-01 1.342038e-01 1.270888e-01 1.504565e-01 1.896307e-01 1.467379e-01 1.868908e-01 1.801844e-01 6.103050e-03
<GCONST> 7.445255e+01
<MIXTURE> 2 3.291942e-01
<MEAN> 39
 5.333691e+00 3.895865e-01 -5.125540e+00 -1.853615e-01 -1.304154e+00 -5.642014e+00 -4.558942e+00 -2.447847e+00 1.547787e+00 2.693345e+00 1.174224e+01 1.529977e+01 4.057032e+00 4.208049e-02 1.676724e-02 3.002166e-03 1.007053e-02 3.752921e-03 8.897508e-03 -7.300614e-03 -2.840117e-02 4.044992e-02 8.420388e-02 -4.715303e-02 2.787120e-02 -6.151018e-02 -1.059738e-02 -6.789550e-03 9.157021e-03 -2.650804e-02 -4.149012e-02 -5.788388e-03 1.919439e-02 1.282567e-02 -4.978438e-03 7.364211e-03 1.850186e-02 -2.698470e-02 -6.856247e-03
<VARIANCE> 39
 2.462849e+01 2.926864e+01 3.263298e+01 5.280177e+01 4.283799e+01 8.584720e+01 5.654742e+01 6.174515e+01 7.073606e+01 9.754914e+01 6.656017e+01 4.260054e+01 1.097576e+01 1.319204e-01 3.562235e-01 5.358469e-01 7.829794e-01 9.916939e-01 1.071001e+00 1.082471e+00 1.364356e+00 1.223131e+00 1.426593e+00 1.176723e+00 1.314323e+00 6.765746e-02 2.273133e-02 5.693368e-02 1.005147e-01 1.433808e-01 1.782394e-01 1.933044e-01 1.983380e-01 2.554395e-01 2.197855e-01 2.370039e-01 2.105950e-01 2.441855e-01 9.982977e-03
<GCONST> 8.831634e+01
<MIXTURE> 3 3.192409e-01
<MEAN> 39
 5.175650e+00 -9.644246e-01 -4.039818e+00 -3.419859e-01 -3.888507e+00 -6.938431e+00 -3.247227e+00 4.230257e-01 1.362516e+00 7.413548e+00 1.348627e+01 1.392797e+01 3.207075e+00 1.000173e-02 9.041488e-02 2.425605e-02 -8.509125e-02 -5.407279e-02 -1.000624e-01 -6.845800e-02 -7.147048e-02 -1.237095e-01 -1.701009e-01 -9.523539e-02 -1.792943e-01 -2.417590e-01 -1.838890e-02 2.616731e-02 4.948934e-02 1.343996e-02 3.315141e-02 3.025746e-02 -2.334081e-03 -1.610761e-02 -1.580981e-02 -5.596475e-02 -1.245461e-01 -8.471155e-02 -1.611926e-02
<VARIANCE> 39
 2.257402e+01 3.248079e+01 3.940355e+01 5.922879e+01 5.139696e+01 9.348112e+01 7.143205e+01 9.027524e+01 1.100989e+02 1.084301e+02 8.300190e+01 9.592807e+01 1.768441e+01 5.086962e-01 8.598220e-01 1.251283e+00 1.823327e+00 2.169535e+00 2.731894e+00 2.729932e+00 3.255261e+00 3.564342e+00 3.359294e+00 3.128465e+00 3.354121e+00 3.907169e-01 8.525224e-02 1.437972e-01 2.192371e-01 3.077545e-01 3.790547e-01 4.829181e-01 4.345872e-01 5.753292e-01 6.183699e-01 5.767196e-01 5.508689e-01 5.675530e-01 4.331414e-02
<GCONST> 1.168624e+02
<MIXTURE> 4 1.387356e-01
<MEAN> 39
 2.927597e+00 2.332239e+00 9.831246e-01 -2.298465e+00 -2.983066e+00 -2.759593e+00 -1.637127e+00 -2.280030e+00 -1.565167e+00 1.146690e-01 3.547270e-01 1.414605e+00 9.448231e-01 -5.386603e-01 3.563133e-01 4.110412e-01 3.972090e-01 2.746276e-01 2.266082e-01 -6.560645e-02 -5.285149e-02 -3.222828e-02 -2.819884e-01 -1.962046e-01 -2.614380e-01 -8.055162e-01 -1.411825e-01 -1.438528e-01 -9.080599e-02 2.783861e-02 -3.243292e-03 7.235677e-02 1.291752e-02 1.381489e-01 1.133844e-01 1.644053e-01 2.277187e-01 1.713255e-01 9.587941e-02
<VARIANCE> 39
 2.527596e+01 3.908381e+01 3.532984e+01 5.258242e+01 5.224918e+01 6.475462e+01 7.296099e+01 6.567596e+01 7.006171e+01 7.498991e+01 9.257345e+01 9.345854e+01 5.103289e+01 1.923529e+00 2.048060e+00 2.172137e+00 3.189142e+00 2.667478e+00 4.049260e+00 4.100000e+00 4.237585e+00 4.532545e+00 4.072284e+00 4.630611e+00 4.603793e+00 2.860335e+00 2.557612e-01 3.181018e-01 3.455773e-01 5.100918e-01 4.701527e-01 6.474792e-01 7.164068e-01 6.529075e-01 8.134233e-01 6.854153e-01 7.518863e-01 7.415723e-01 3.985636e-01
<GCONST> 1.315510e+02
<TRANSP> 6
 0.000000e+00 1.000000e+00 0.000000e+00 0.000000e+00 0.000000e+00 0.000000e+00
 0.000000e+00 9.556273e-01 4.437271e-02 0.000000e+00 0.000000e+00 0.000000e+00
 0.000000e+00 0.000000e+00 9.351673e-01 6.483270e-02 0.000000e+00 0.000000e+00
 0.000000e+00 0.000000e+00 0.000000e+00 9.188200e-01 8.117996e-02 0.000000e+00
 0.000000e+00 0.000000e+00 0.000000e+00 0.000000e+00 9.174176e-01 8.258235e-02
 0.000000e+00 0.000000e+00 0.000000e+00 0.000000e+00 0.000000e+00 0.000000e+00
<ENDHMM>
